svm_type c_svc
kernel_type rbf
gamma 0.0454545
nr_class 2
total_sv 1229
rho 0.801993
label 1 0
nr_sv 147 1082
SV
1 0:3 1:15 2:18 3:5 4:0.4494 5:4 6:5 7:0.3636 8:0.2727 9:0.2742 10:0.1935 11:15 12:0.2738 13:14 14:0.1364 15:1 16:0.2581 17:0.2742 18:0.2697 19:0.191 20:0.3077 22:2 
0.7895301939701205 0:4 1:16 2:17 3:5 4:0.4494 5:4 6:5 7:0.2273 8:0.2727 9:0.2769 10:0.2 11:14 12:0.2738 13:56 14:0.2273 15:1 16:0.2462 17:0.2769 18:0.2697 19:0.191 20:0.3043 22:2 
1 0:4 1:11 2:20 3:6 4:0.5 5:3 6:6 7:0.3333 8:0.375 9:0.2222 10:0.2222 11:14 12:0.2073 13:13 14:0.1667 15:1 16:0.2381 17:0.3175 18:0.2045 19:0.25 20:0.25 22:4 
1 0:5 1:15 2:18 3:6 4:0.5 5:3 6:6 7:0.1905 8:0.1905 9:0.2239 10:0.2239 11:12 12:0.2073 13:57 14:0.3333 15:1 16:0.2388 17:0.3134 18:0.2045 19:0.25 20:0.1 22:4 
1 0:4 1:8 2:19 3:18 4:0.4151 5:4 6:5 7:0.25 8:0.2917 9:0.1719 10:0.2188 11:28 12:0.1705 13:28 14:0.1667 15:13 16:0.25 17:0.3594 18:0.2547 19:0.1792 20:0.2593 22:2 
1 0:4 1:8 2:18 3:18 4:0.4151 5:4 6:5 7:0.3333 8:0.3333 9:0.1667 10:0.2121 11:27 12:0.1705 13:72 14:0.1429 15:13 16:0.2576 17:0.3636 18:0.2547 19:0.1792 20:0.28 22:3 
1 0:3 1:12 2:17 3:14 4:0.4681 5:6 6:5 7:0.25 8:0.25 9:0.2097 10:0.1452 11:20 12:0.2625 13:15 14:0.3333 15:1 16:0.2419 17:0.4032 18:0.1915 19:0.2021 20:0.2903 22:2 
1 0:3 1:12 2:17 3:14 4:0.4681 5:6 6:5 7:0.2273 8:0.4545 9:0.2121 10:0.1515 11:18 12:0.2625 13:57 14:0.1818 15:1 16:0.2424 17:0.3939 18:0.1915 19:0.2021 20:0.3333 22:2 
1 0:4 1:8 2:21 3:8 4:0.3723 5:2 6:6 7:0.25 8:0.5 9:0.3226 10:0.1452 11:17 12:0.1628 13:17 14:0.2083 15:2 16:0.1613 17:0.371 18:0.2872 19:0.1596 20:0.2143 22:2 
1 0:4 1:8 2:21 3:8 4:0.3723 5:2 6:6 7:0.087 8:0.2609 9:0.3182 10:0.1364 11:15 12:0.1628 13:58 14:0.4348 15:2 16:0.1667 17:0.3788 18:0.2872 19:0.1596 20:0.25 22:3 
1 0:4 1:11 2:19 3:10 4:0.4845 5:4 6:7 7:0.2609 8:0.5217 9:0.209 10:0.1642 11:18 12:0.1839 13:15 14:0.087 15:1 16:0.2836 17:0.3433 18:0.2165 19:0.2062 20:0.1724 22:4 
1 0:5 1:12 2:19 3:10 4:0.4845 5:4 6:7 7:0.2273 8:0.1364 9:0.2083 10:0.1806 11:15 12:0.1839 13:62 14:0.3636 15:1 16:0.2917 17:0.3194 18:0.2165 19:0.2062 20:0.1667 22:4 
1 0:3 1:10 2:18 3:12 4:0.4255 5:4 6:6 7:0.2174 8:0.2174 9:0.2581 10:0.2258 11:19 12:0.2073 13:18 14:0.3913 15:1 16:0.1613 17:0.3548 18:0.2447 19:0.234 20:0.2258 22:2 
0.7474631581734392 0:4 1:11 2:18 3:12 4:0.4255 5:4 6:6 7:0.0909 8:0.5455 9:0.2537 10:0.2239 11:16 12:0.2073 13:60 14:0.1818 15:1 16:0.1642 17:0.3582 18:0.2447 19:0.234 20:0.2308 22:3 
1 0:3 1:15 2:13 3:9 4:0.4571 5:5 6:5 7:0.1364 8:0.2273 9:0.2167 10:0.2167 11:29 12:0.3125 13:56 14:0.1818 15:11 16:0.2333 17:0.3333 18:0.2381 19:0.2476 20:0.4839 22:3 
1 0:4 1:9 2:20 3:7 4:0.3084 5:4 6:6 7:0.25 8:0.3333 9:0.3906 10:0.125 11:25 12:0.17 13:21 14:0.375 15:5 16:0.1562 17:0.3281 18:0.3738 19:0.1308 20:0.2353 22:2 
1 0:5 1:13 2:21 3:7 4:0.3084 5:4 6:6 7:0.0833 8:0.2917 9:0.3714 10:0.1429 11:22 12:0.17 13:64 14:0.3333 15:5 16:0.1571 17:0.3286 18:0.3738 19:0.1308 20:0.1429 22:2 
0.2200683676667928 0:4 1:7 2:19 3:13 4:0.4054 5:5 6:7 7:0.2273 8:0.3182 9:0.3065 10:0.2097 11:26 12:0.3163 13:65 14:0.3182 15:1 16:0.1774 17:0.3065 18:0.3153 19:0.2162 20:0.5 
1 0:2 1:3 2:19 3:22 4:0.3271 5:3 6:4 7:0.3 8:0.2 9:0.3231 10:0.1692 11:24 12:0.1176 13:22 14:0.4 15:1 16:0.1385 17:0.3692 18:0.2991 19:0.1682 20:0.1707 22:4 
1 0:2 1:3 2:18 3:22 4:0.3271 5:3 6:4 7:0.15 8:0.5 9:0.3231 10:0.1692 11:24 12:0.1176 13:67 14:0.15 15:1 16:0.1385 17:0.3692 18:0.2991 19:0.1682 20:0.1707 22:4 
1 0:6 1:11 2:17 3:8 4:0.5045 5:4 6:11 7:0.4091 8:0.1818 9:0.2203 10:0.2373 11:29 12:0.2718 13:28 14:0.2727 15:2 16:0.2712 17:0.2712 18:0.1982 19:0.2252 20:0.3469 
1 0:6 1:11 2:17 3:8 4:0.5045 5:4 6:11 7:0.1818 8:0.2273 9:0.2222 10:0.2381 11:27 12:0.2718 13:67 14:0.2273 15:2 16:0.2698 17:0.2698 18:0.1982 19:0.2252 20:0.3778 
1 0:4 1:13 2:16 3:9 4:0.4907 5:3 6:9 7:0.1818 8:0.2273 9:0.2414 10:0.2586 11:31 12:0.2121 13:64 14:0.2273 15:6 16:0.2414 17:0.2586 18:0.2778 19:0.2407 20:0.1905 22:2 
1 0:4 1:17 2:17 3:6 4:0.4054 5:4 6:6 7:0.3043 8:0.2174 9:0.3443 10:0.1475 11:27 12:0.2667 13:27 14:0.3478 15:1 16:0.2131 17:0.2951 18:0.3153 19:0.2072 20:0.2245 22:1 
1 0:4 1:19 2:16 3:6 4:0.4054 5:4 6:6 7:0.1818 8:0.3636 9:0.3538 10:0.1538 11:25 12:0.2667 13:68 14:0.2727 15:1 16:0.2 17:0.2923 18:0.3153 19:0.2072 20:0.2 22:1 
1 0:3 1:9 2:17 3:13 4:0.3626 5:3 6:5 7:0.3043 8:0.3043 9:0.2742 10:0.2097 11:17 12:0.1923 13:15 14:0.2174 15:1 16:0.1935 17:0.3226 18:0.3187 19:0.1868 20:0.2143 22:3 
0.8418059031456351 0:3 1:9 2:19 3:13 4:0.3626 5:3 6:5 7:0.1364 8:0.4091 9:0.2727 10:0.197 11:15 12:0.1923 13:57 14:0.1818 15:1 16:0.197 17:0.3333 18:0.3187 19:0.1868 20:0.25 22:4 
1 0:4 1:20 2:18 3:3 4:0.4382 5:6 6:6 7:0.2917 8:0.2083 9:0.2698 10:0.1587 11:15 12:0.314 13:13 14:0.2917 15:1 16:0.2698 17:0.3016 18:0.2472 19:0.1798 20:0.28 22:1 
1 0:5 1:22 2:17 3:3 4:0.4382 5:6 6:6 7:0.2273 8:0.5455 9:0.2687 10:0.1493 11:13 12:0.314 13:56 14:0.1364 15:1 16:0.2537 17:0.3284 18:0.2472 19:0.1798 20:0.2381 22:1 
1 0:4 1:10 2:17 3:9 4:0.4464 5:9 6:7 7:0.2727 8:0.2727 9:0.2545 10:0.2 11:33 12:0.301 13:33 14:0.2273 15:4 16:0.2545 17:0.2909 18:0.2946 19:0.2321 20:0.3962 
1 0:4 1:10 2:17 3:9 4:0.4464 5:9 6:7 7:0.1364 8:0.2727 9:0.2632 10:0.193 11:32 12:0.301 13:67 14:0.3182 15:4 16:0.2456 17:0.2982 18:0.2946 19:0.2321 20:0.4118 
1 0:5 1:17 2:17 3:5 4:0.4 5:4 6:6 7:0.2727 8:0.3636 9:0.2344 10:0.1562 11:27 12:0.2571 13:21 14:0.3182 15:9 16:0.2812 17:0.3281 18:0.2727 19:0.1727 20:0.2941 22:4 
1 0:5 1:19 2:16 3:5 4:0.4 5:4 6:6 7:0.2727 8:0.3636 9:0.2353 10:0.1765 11:25 12:0.2571 13:65 14:0.1818 15:9 16:0.2647 17:0.3235 18:0.2727 19:0.1727 20:0.2667 22:4 
1 0:5 1:15 2:18 3:4 4:0.4679 5:4 6:9 7:0.2174 8:0.3478 9:0.2857 10:0.1905 11:28 12:0.2571 13:25 14:0.2174 15:2 16:0.2063 17:0.3175 18:0.2477 19:0.2385 20:0.2727 22:1 
1 0:5 1:17 2:17 3:4 4:0.4679 5:4 6:9 7:0.3636 8:0.2273 9:0.2836 10:0.209 11:26 12:0.2571 13:68 14:0.1818 15:2 16:0.194 17:0.3134 18:0.2477 19:0.2385 20:0.25 22:1 
1 0:5 1:17 2:17 3:4 4:0.5182 5:6 6:8 7:0.3182 8:0.1818 9:0.2 10:0.2769 11:26 12:0.2925 13:21 14:0.2727 15:1 16:0.2462 17:0.2769 18:0.1909 19:0.2455 20:0.3182 22:2 
0.9329419436885426 0:5 1:19 2:17 3:4 4:0.5182 5:6 6:8 7:0.1739 8:0.3478 9:0.2029 10:0.2754 11:24 12:0.2925 13:65 14:0.1739 15:1 16:0.2319 17:0.2899 18:0.1909 19:0.2455 20:0.3 22:2 
1 0:6 1:24 2:19 3:7 4:0.4685 5:7 6:7 7:0.25 8:0.375 9:0.1648 10:0.2088 11:12 12:0.2596 13:10 14:0.0833 15:2 16:0.2308 17:0.3956 18:0.1712 19:0.2342 20:0.1765 22:6 
1 0:6 1:26 2:18 3:7 4:0.4685 5:7 6:7 7:0.2174 8:0.3043 9:0.1684 10:0.2211 11:10 12:0.2596 13:80 14:0.2174 15:2 16:0.2211 17:0.3895 18:0.1712 19:0.2342 20:0.0769 22:6 
1 0:4 1:12 2:17 3:5 4:0.4156 5:3 6:5 7:0.1818 8:0.3182 9:0.254 10:0.1905 11:8 12:0.1944 13:8 14:0.2727 15:2 16:0.2222 17:0.3333 18:0.2338 19:0.1948 20:0.2 22:4 
1 0:4 1:12 2:17 3:5 4:0.4156 5:3 6:5 7:0.3636 8:0.2273 9:0.2537 10:0.194 11:6 12:0.1944 13:51 14:0.1818 15:2 16:0.2239 17:0.3284 18:0.2338 19:0.1948 20:0.3333 22:4 
1 0:3 1:9 2:18 3:5 4:0.4574 5:5 6:4 7:0.2727 8:0.2727 9:0.2679 10:0.1964 11:24 12:0.2022 13:24 14:0.3182 15:8 16:0.2321 17:0.3036 18:0.2872 19:0.234 20:0.3103 22:2 
0.9248669911674769 0:3 1:9 2:18 3:5 4:0.4574 5:5 6:4 7:0.2273 8:0.2273 9:0.2667 10:0.2 11:22 12:0.2022 13:60 14:0.2727 15:8 16:0.2333 17:0.3 18:0.2872 19:0.234 20:0.36 22:2 
1 0:2 1:6 2:19 3:15 4:0.3875 5:2 6:4 7:0.0909 8:0.4091 9:0.2951 10:0.1967 11:11 12:0.1846 13:11 14:0.2273 15:1 16:0.1967 17:0.3115 18:0.2875 19:0.1875 20:0.3333 22:2 
1 0:2 1:6 2:19 3:15 4:0.3875 5:2 6:4 7:0.2273 8:0.2727 9:0.2923 10:0.2 11:9 12:0.1846 13:52 14:0.3182 15:1 16:0.2 17:0.3077 18:0.2875 19:0.1875 20:0.4286 22:2 
1 0:4 1:7 2:19 3:11 4:0.5584 5:2 6:5 7:0.3913 8:0.3043 9:0.1667 10:0.2667 11:10 12:0.1364 13:10 14:0.0435 15:1 16:0.2833 17:0.2833 18:0.1818 19:0.2727 20:0.125 22:2 
1 0:4 1:7 2:19 3:11 4:0.5584 5:2 6:5 7:0.2381 8:0.2381 9:0.1719 10:0.2656 11:8 12:0.1364 13:51 14:0.2381 15:1 16:0.2812 17:0.2812 18:0.1818 19:0.2727 20:0.1667 22:2 
1 0:4 1:12 2:19 3:6 4:0.434 5:6 6:6 7:0.3333 8:0.2381 9:0.2639 10:0.1667 11:23 12:0.23 13:23 14:0.381 15:1 16:0.1944 17:0.375 18:0.2358 19:0.1887 20:0.3333 22:4 
1 0:5 1:19 2:18 3:6 4:0.434 5:6 6:6 7:0.125 8:0.4167 9:0.2716 10:0.1728 11:16 12:0.23 13:73 14:0.1667 15:1 16:0.2099 17:0.3457 18:0.2358 19:0.1887 20:0.1667 22:5 
1 0:3 1:12 2:15 3:17 4:0.4595 5:4 6:3 7:0.2381 8:0.2857 9:0.2857 10:0.2222 11:8 12:0.2456 13:50 14:0.2381 15:3 16:0.2222 17:0.2698 18:0.2568 19:0.2297 20:0.25 22:1 
1 0:6 1:18 2:18 3:4 4:0.3627 5:5 6:6 7:0.2917 8:0.375 9:0.2821 10:0.2051 11:13 12:0.1837 13:13 14:0.25 15:6 16:0.1667 17:0.3462 18:0.3039 19:0.1961 22:2 
1 0:5 1:17 2:17 3:4 4:0.3627 5:5 6:6 7:0.1364 8:0.2273 9:0.2727 10:0.2078 11:13 12:0.1837 13:69 14:0.2727 15:6 16:0.1688 17:0.3506 18:0.3039 19:0.1961 20:0.0769 22:2 
1 0:6 1:18 2:16 3:4 4:0.4674 5:4 6:7 7:0.2727 8:0.3182 9:0.2031 10:0.2031 11:16 12:0.2386 13:15 14:0.2273 15:1 16:0.2344 17:0.3594 18:0.2065 19:0.2065 20:0.1111 22:2 
0.9510703622164847 0:5 1:16 2:17 3:4 4:0.4674 5:4 6:7 7:0.2727 8:0.2273 9:0.2097 10:0.2097 11:17 12:0.2386 13:56 14:0.1818 15:1 16:0.2419 17:0.3387 18:0.2065 19:0.2065 20:0.1724 22:2 
1 0:3 1:10 2:17 3:18 4:0.4588 5:3 6:4 7:0.2727 8:0.2273 9:0.303 10:0.2273 11:11 12:0.2388 13:54 14:0.2273 15:1 16:0.2424 17:0.2273 18:0.3176 19:0.2353 20:0.3333 22:1 
1 0:5 1:11 2:16 3:9 4:0.5 5:4 6:6 7:0.2 8:0.15 9:0.3065 10:0.2258 11:15 12:0.2278 13:13 14:0.4 15:1 16:0.2097 17:0.2581 18:0.2614 19:0.2614 20:0.28 22:2 
0.8386257265856155 0:4 1:8 2:18 3:13 4:0.4495 5:4 6:7 7:0.3636 8:0.2273 9:0.2623 10:0.2787 11:27 12:0.2917 13:63 14:0.1364 15:1 16:0.2295 17:0.2295 18:0.3028 19:0.2477 20:0.4348 22:2 
1 0:4 1:10 2:19 3:6 4:0.4409 5:4 6:6 7:0.1818 8:0.3182 9:0.3448 10:0.1724 11:19 12:0.2529 13:19 14:0.3182 15:1 16:0.2069 17:0.2759 18:0.2688 19:0.1935 20:0.3529 
1 0:4 1:10 2:21 3:6 4:0.4409 5:4 6:6 7:0.1739 8:0.3043 9:0.3387 10:0.1613 11:17 12:0.2529 13:56 14:0.3913 15:1 16:0.2097 17:0.2903 18:0.2688 19:0.1935 20:0.4 22:1 
1 0:3 1:11 2:17 3:4 4:0.6531 5:4 6:5 7:0.3333 8:0.0476 9:0.2182 10:0.2909 11:23 12:0.2128 13:22 14:0.2381 15:3 16:0.3273 17:0.1636 18:0.2245 19:0.3163 20:0.2432 22:3 
1 2:21 3:9 4:0.4815 5:6 6:3 7:0.2381 8:0.2857 9:0.2727 10:0.2 11:31 12:0.1515 13:64 14:0.3333 15:3 16:0.2909 17:0.2364 18:0.2407 19:0.25 20:0.3061 22:1 
1 0:8 1:24 2:17 3:4 4:0.3333 5:3 6:10 7:0.2727 8:0.3182 9:0.3 10:0.1556 11:15 12:0.2832 13:83 14:0.1818 15:1 16:0.1778 17:0.3667 18:0.2906 19:0.1709 20:0.3077 22:2 
0.7540873708369223 0:4 1:12 2:20 3:4 4:0.2979 5:3 6:5 7:0.1667 8:0.4583 9:0.2576 10:0.1061 11:17 12:0.1889 13:55 14:0.2083 15:5 16:0.1667 17:0.4697 18:0.2872 19:0.1489 20:0.2381 22:4 
1 0:2 1:11 2:20 3:5 4:0.4747 5:6 6:2 7:0.1818 8:0.2727 9:0.2647 10:0.1618 11:20 12:0.117 13:59 14:0.4091 15:7 16:0.2647 17:0.3088 18:0.2525 19:0.2222 22:6 
1 0:5 1:12 2:18 3:5 4:0.4112 5:2 6:10 7:0.3043 8:0.1739 9:0.2923 10:0.1692 11:24 12:0.2255 13:63 14:0.4348 15:1 16:0.2462 17:0.2923 18:0.2897 19:0.1776 20:0.2683 22:5 
1 0:4 1:13 2:16 3:3 4:0.41 5:3 6:10 7:0.2273 8:0.3636 9:0.25 10:0.1538 11:26 12:0.3093 13:24 14:0.2727 15:1 16:0.1538 17:0.4423 18:0.26 19:0.19 20:0.3617 22:2 
1 0:2 1:5 2:20 3:10 4:0.3925 5:4 6:6 7:0.2273 8:0.1818 9:0.322 10:0.1356 11:28 12:0.1856 13:23 14:0.5455 15:1 16:0.1525 17:0.3898 18:0.271 19:0.1589 20:0.2766 22:3 
1 0:4 1:16 2:14 3:4 4:0.5773 5:6 6:8 7:0.2727 8:0.2727 9:0.1481 10:0.2778 11:26 12:0.3656 13:57 14:0.1818 15:1 16:0.3333 17:0.2407 18:0.1649 19:0.2784 20:0.4286 22:3 
1 0:2 1:12 2:17 3:4 4:0.4625 5:5 6:2 7:0.1739 8:0.3043 9:0.2069 10:0.2241 11:13 12:0.1579 13:13 14:0.2609 15:12 16:0.2759 17:0.2931 18:0.2625 19:0.2 20:-1 22:4 
1 0:7 1:21 2:15 3:5 4:0.4949 5:5 6:7 7:0.1905 8:0.4762 9:0.2093 10:0.186 11:8 12:0.2234 13:8 14:0.1905 15:4 16:0.2907 17:0.314 18:0.2222 19:0.2121 22:8 
1 0:4 1:16 2:16 3:6 4:0.5915 5:7 6:4 7:0.35 8:0.25 9:0.125 10:0.2969 11:5 12:0.2462 13:49 14:0.1 15:3 16:0.2969 17:0.2812 18:0.1408 19:0.3239 22:2 
1 0:1 1:2 2:21 3:9 4:0.3676 5:1 6:1 7:0.2273 8:0.0909 9:0.2542 10:0.1864 11:6 12:0.0339 13:43 14:0.5 15:1 16:0.2373 17:0.322 18:0.2941 19:0.1618 
1 0:3 1:14 2:17 3:12 4:0.4 5:6 6:7 7:0.3043 8:0.3913 9:0.3088 10:0.1324 11:24 12:0.2755 13:21 14:0.3043 15:1 16:0.1765 17:0.3824 18:0.2455 19:0.1909 20:0.3171 22:3 
1 0:3 1:6 2:20 3:8 4:0.4261 5:10 6:7 7:0.1667 8:0.2917 9:0.2581 10:0.2581 11:29 12:0.2804 13:66 14:0.2917 15:3 16:0.2097 17:0.2742 18:0.313 19:0.2174 20:0.5 22:3 
0.9811692583377972 0:5 1:10 2:20 3:3 4:0.4253 5:3 6:6 7:0.1818 8:0.3182 9:0.3175 10:0.1587 11:14 12:0.131 13:54 14:0.3182 15:1 16:0.2222 17:0.3016 18:0.2989 19:0.1839 20:0.0435 22:2 
1 0:4 1:16 2:17 3:4 4:0.4151 5:3 6:7 7:0.3043 8:0.2174 9:0.2344 10:0.1719 11:23 12:0.2647 13:63 14:0.2609 15:1 16:0.3125 17:0.2812 18:0.2736 19:0.1698 20:0.2683 22:3 
1 0:3 1:7 2:19 3:11 4:0.3596 5:7 6:7 7:0.1818 8:0.2273 9:0.2419 10:0.1129 11:29 12:0.2524 13:65 14:0.4545 15:1 16:0.1935 17:0.4516 18:0.2632 19:0.1579 20:0.3725 22:4 
1 0:5 1:10 2:17 3:6 4:0.3978 5:8 6:6 7:0.2727 8:0.2727 9:0.2419 10:0.2419 11:21 12:0.2069 13:60 14:0.1818 15:1 16:0.2258 17:0.2903 18:0.2581 19:0.1828 20:0.2667 22:2 
1 0:5 1:17 2:16 3:7 4:0.5545 5:5 6:7 7:0.3636 8:0.0909 9:0.1061 10:0.303 11:22 12:0.2979 13:66 14:0.2273 15:7 16:0.303 17:0.2879 18:0.1485 19:0.297 20:0.4074 22:2 
1 0:6 1:19 2:16 3:8 4:0.5149 5:5 6:6 7:0.1429 8:0.2381 9:0.2247 10:0.2697 11:7 12:0.2043 13:75 14:0.3333 15:1 16:0.236 17:0.2697 18:0.2277 19:0.2772 22:2 
1 0:8 1:26 2:15 3:7 4:0.422 5:3 6:8 7:0.4286 8:0.2857 9:0.2626 10:0.1717 11:6 12:0.2745 13:6 14:0.2857 15:1 16:0.2525 17:0.3131 18:0.2661 19:0.1835 20:0.25 22:4 
1 0:5 1:12 2:19 3:3 4:0.4513 5:2 6:7 7:0.0909 8:0.4545 9:0.321 10:0.1481 11:18 12:0.1545 13:16 14:0.2727 15:1 16:0.2469 17:0.284 18:0.2832 19:0.1593 20:0.1613 22:2 
1 0:6 1:21 2:18 3:6 4:0.6604 5:4 6:6 7:0.25 8:0.1667 9:0.1111 10:0.3457 11:16 12:0.27 13:73 14:0.0833 15:7 16:0.321 17:0.2222 18:0.0943 19:0.3585 20:0.375 22:3 
0.7872461051201551 0:5 1:16 2:18 3:3 4:0.6296 5:3 6:9 7:0.4167 8:0.25 9:0.0769 10:0.2769 11:24 12:0.2667 13:65 14:0.0833 15:1 16:0.3538 17:0.2923 18:0.0926 19:0.287 20:0.2857 22:4 
1 0:5 1:21 2:16 3:4 4:0.6429 5:5 6:8 7:0.3043 8:0.2609 9:0.0896 10:0.3582 11:26 12:0.3426 13:23 14:0.087 15:1 16:0.2985 17:0.2537 18:0.0893 19:0.3125 20:0.3636 22:2 
1 0:5 1:15 2:20 3:8 4:0.5143 5:4 6:5 7:0.4348 8:0.1739 9:0.2174 10:0.3188 11:1 12:0.2419 13:1 14:0.1739 15:1 16:0.2029 17:0.2609 18:0.2286 19:0.3143 20:-1 22:2 
1 0:5 1:12 2:17 3:8 4:0.4234 5:7 6:10 7:0.1364 8:0.4091 9:0.2414 10:0.1724 11:31 12:0.2718 13:29 14:0.2273 15:1 16:0.1724 17:0.4138 18:0.2342 19:0.1892 20:0.3077 
1 0:6 1:14 2:16 3:8 4:0.4234 5:7 6:10 7:0.1818 8:0.3636 9:0.2419 10:0.1935 11:29 12:0.2718 13:67 14:0.3182 15:1 16:0.1774 17:0.3871 18:0.2342 19:0.1892 20:0.2917 
0.8491894046151079 0:4 1:8 2:18 3:11 4:0.4125 5:3 6:6 7:0.1818 8:0.3636 9:0.3051 10:0.2373 11:12 12:0.2609 13:48 14:0.2273 15:1 16:0.1525 17:0.3051 18:0.275 19:0.2375 20:0.5 
1 0:3 1:10 2:17 3:14 4:0.3448 5:3 6:7 7:0.2273 8:0.2727 9:0.35 10:0.0833 11:31 12:0.2255 13:28 14:0.4545 15:1 16:0.1667 17:0.4 18:0.3017 19:0.1552 20:0.2364 22:3 
1 0:4 1:12 2:16 3:14 4:0.3448 5:3 6:7 7:0.1364 8:0.4091 9:0.3594 10:0.0938 11:29 12:0.2255 13:68 14:0.2727 15:1 16:0.1719 17:0.375 18:0.3017 19:0.1552 20:0.2157 22:3 
1 0:3 1:9 2:17 3:5 4:0.3786 5:2 6:6 7:0.2381 8:0.4762 9:0.25 10:0.1607 11:25 12:0.1633 13:25 14:0.1905 15:8 16:0.1964 17:0.3929 18:0.2524 19:0.1845 20:0.2258 22:2 
1 0:3 1:9 2:18 3:5 4:0.3786 5:2 6:6 7:0.1364 8:0.2727 9:0.25 10:0.1667 11:23 12:0.1633 13:61 14:0.3636 15:8 16:0.2 17:0.3833 18:0.2524 19:0.1845 20:0.2593 22:2 
1 0:3 1:7 2:19 3:14 4:0.3119 5:4 6:6 7:0.2174 8:0.3478 9:0.322 10:0.1864 11:26 12:0.2842 13:26 14:0.2609 15:1 16:0.1695 17:0.322 18:0.3394 19:0.1651 20:0.4167 22:2 
0.9749456229575252 0:3 1:7 2:19 3:14 4:0.3119 5:4 6:6 7:0.2273 8:0.3182 9:0.3175 10:0.1905 11:24 12:0.2842 13:65 14:0.2727 15:1 16:0.1746 17:0.3175 18:0.3394 19:0.1651 20:0.4545 22:2 
1 0:3 1:9 2:18 3:7 4:0.4537 5:5 6:6 7:0.1739 8:0.3913 9:0.2321 10:0.1786 11:30 12:0.2673 13:26 14:0.2609 15:5 16:0.2143 17:0.375 18:0.2407 19:0.213 20:0.4091 22:4 
1 0:3 1:9 2:20 3:7 4:0.4537 5:5 6:6 7:0.3182 8:0.2727 9:0.2333 10:0.1667 11:28 12:0.2673 13:62 14:0.2727 15:5 16:0.2167 17:0.3833 18:0.2407 19:0.213 20:0.45 22:5 
1 0:4 1:15 2:18 3:6 4:0.3429 5:10 6:7 7:0.2273 8:0.3636 9:0.2459 10:0.1967 11:29 12:0.303 13:29 14:0.0909 15:1 16:0.1803 17:0.377 18:0.2857 19:0.1905 20:0.3488 22:3 
1 0:4 1:15 2:17 3:6 4:0.3429 5:10 6:7 7:0.2273 8:0.1818 9:0.254 10:0.1905 11:28 12:0.303 13:69 14:0.4545 15:1 16:0.1746 17:0.381 18:0.2857 19:0.1905 20:0.3659 22:3 
1 0:4 1:14 2:19 3:8 4:0.5196 5:5 6:4 7:0.2857 8:0.2857 9:0.2209 10:0.2791 11:9 12:0.1489 13:9 14:0.1905 15:1 16:0.2326 17:0.2674 18:0.2255 19:0.2843 22:2 
1 0:4 1:14 2:19 3:8 4:0.5196 5:5 6:4 7:0.1429 8:0.2381 9:0.2222 10:0.2778 11:7 12:0.1489 13:76 14:0.3333 15:1 16:0.2333 17:0.2667 18:0.2255 19:0.2843 22:2 
1 0:6 1:12 2:16 3:5 4:0.5541 5:3 6:6 7:0.3913 8:0.2174 9:0.1746 10:0.254 11:7 12:0.1739 13:7 14:0.2174 15:5 16:0.3016 17:0.2698 18:0.1892 19:0.2432 22:2 
1 0:7 1:17 2:17 3:5 4:0.5541 5:3 6:6 7:0.1905 8:0.2381 9:0.2 10:0.2571 11:3 12:0.1739 13:52 14:0.1905 15:5 16:0.3 17:0.2429 18:0.1892 19:0.2432 20:-1 22:2 
1 0:5 1:13 2:15 3:6 4:0.4884 5:5 6:7 7:0.1818 8:0.4545 9:0.1887 10:0.2264 11:21 12:0.2875 13:15 14:0.1818 15:1 16:0.2264 17:0.3585 18:0.1977 19:0.2326 20:0.3125 22:2 
1 0:6 1:18 2:16 3:6 4:0.4884 5:5 6:7 7:0.2083 8:0.2917 9:0.2 10:0.2333 11:17 12:0.2875 13:47 14:0.25 15:1 16:0.2333 17:0.3333 18:0.1977 19:0.2326 20:0.2 22:2 
1 0:4 1:13 2:13 3:11 4:0.5102 5:4 6:5 7:0.3 8:0.35 9:0.2833 10:0.2 11:22 12:0.1954 13:22 14:0.2 15:4 16:0.2167 17:0.3 18:0.2551 19:0.2245 20:0.1176 22:1 
1 0:4 1:13 2:17 3:11 4:0.5102 5:4 6:5 7:0.2727 8:0.3182 9:0.2656 10:0.2188 11:20 12:0.1954 13:62 14:0.1364 15:4 16:0.2344 17:0.2812 18:0.2551 19:0.2245 20:0.1333 22:1 
1 0:5 1:9 2:16 3:5 4:0.49 5:6 6:8 7:0.1818 8:0.4545 9:0.1923 10:0.1923 11:31 12:0.2105 13:31 14:0.2273 15:8 16:0.2115 17:0.4038 18:0.21 19:0.25 20:0.2973 22:2 
1 0:5 1:13 2:19 3:5 4:0.49 5:6 6:8 7:0.2381 8:0.381 9:0.1875 10:0.2031 11:23 12:0.2105 13:66 14:0.2381 15:8 16:0.25 17:0.3594 18:0.21 19:0.25 20:0.28 22:2 
1 0:3 1:6 2:20 3:6 4:0.3495 5:8 6:6 7:0.2273 8:0.3182 9:0.2931 10:0.1379 11:29 12:0.1959 13:19 14:0.3182 15:2 16:0.2241 17:0.3448 18:0.3107 19:0.1359 20:0.3023 22:3 
1 0:3 1:6 2:20 3:6 4:0.3495 5:8 6:6 7:0.1739 8:0.3913 9:0.2903 10:0.129 11:26 12:0.1959 13:56 14:0.3043 15:2 16:0.2258 17:0.3548 18:0.3107 19:0.1359 20:0.3333 22:4 
1 0:3 1:11 2:17 3:20 4:0.3564 5:8 6:4 7:0.2609 8:0.3478 9:0.3692 10:0.1846 11:23 12:0.2346 13:15 14:0.2174 15:3 16:0.1538 17:0.2923 18:0.3366 19:0.198 20:0.2667 22:2 
1 0:3 1:11 2:18 3:20 4:0.3564 5:8 6:4 7:0.1304 8:0.3043 9:0.3623 10:0.1884 11:21 12:0.2346 13:59 14:0.3043 15:3 16:0.1594 17:0.2899 18:0.3366 19:0.198 20:0.3077 22:2 
1 0:5 1:10 2:18 3:12 4:0.3301 5:3 6:6 7:0.2609 8:0.2609 9:0.1833 10:0.2333 11:31 12:0.1978 13:31 14:0.2609 15:17 16:0.1667 17:0.4167 18:0.2718 19:0.2039 20:0.3077 22:2 
1 0:5 1:12 2:17 3:12 4:0.3301 5:3 6:6 7:0.1364 8:0.4091 9:0.1935 10:0.2258 11:30 12:0.1978 13:70 14:0.1818 15:17 16:0.1774 17:0.4032 18:0.2718 19:0.2039 20:0.25 22:2 
0.5500139057940439 0:4 1:10 2:18 3:12 4:0.5 5:4 6:8 7:0.1429 8:0.3333 9:0.2258 10:0.2258 11:26 12:0.266 13:64 14:0.1905 15:1 16:0.2097 17:0.3387 18:0.217 19:0.2453 20:0.3488 22:1 
1 0:2 1:11 2:19 3:4 4:0.4286 5:4 6:4 7:0.1818 8:0.4545 9:0.2881 10:0.1695 11:31 12:0.2277 13:19 14:0.1818 15:12 16:0.2203 17:0.322 18:0.2952 19:0.219 20:0.3529 22:5 
1 0:5 1:11 2:18 3:4 4:0.3981 5:3 6:8 7:0.3182 9:0.2381 10:0.1746 11:22 12:0.1717 13:61 14:0.4091 15:1 16:0.2381 17:0.3492 18:0.2621 19:0.1553 20:0.1579 22:5 
1 0:5 1:11 2:17 3:16 4:0.4054 5:4 6:7 7:0.2609 8:0.4348 9:0.2462 10:0.1692 11:25 12:0.2526 13:23 14:0.1304 15:1 16:0.2154 17:0.3692 18:0.2703 19:0.1712 20:0.2889 22:2 
1 0:5 1:13 2:16 3:16 4:0.4054 5:4 6:7 7:0.1818 8:0.3182 9:0.2609 10:0.1739 11:23 12:0.2526 13:68 14:0.2727 15:1 16:0.2029 17:0.3623 18:0.2703 19:0.1712 20:0.2683 22:2 
1 0:2 1:4 2:22 3:6 4:0.2844 5:6 6:6 7:0.2174 8:0.4348 9:0.2857 10:0.1071 11:32 12:0.233 13:31 14:0.3478 15:2 16:0.1429 17:0.4643 18:0.3303 19:0.1193 20:0.4 22:4 
1 0:3 1:5 2:20 3:6 4:0.2844 5:6 6:6 7:0.0833 8:0.4583 9:0.2881 10:0.1017 11:30 12:0.233 13:65 14:0.3333 15:2 16:0.1525 17:0.4576 18:0.3303 19:0.1193 20:0.4043 22:4 
1 0:6 1:18 2:17 3:5 4:0.3786 5:6 6:7 7:0.2273 8:0.3636 9:0.2933 10:0.1467 11:18 12:0.2755 13:18 14:0.3636 15:4 16:0.16 17:0.4 18:0.2718 19:0.1748 20:0.3913 22:3 
1 0:6 1:16 2:15 3:5 4:0.3786 5:6 6:7 7:0.15 8:0.5 9:0.2877 10:0.1507 11:19 12:0.2755 13:72 14:0.15 15:4 16:0.1507 17:0.411 18:0.2718 19:0.1748 20:0.44 22:3 
0.9837922072726457 0:4 1:12 2:16 3:6 4:0.3214 5:3 6:6 7:0.1818 8:0.2727 9:0.3214 10:0.1607 11:16 12:0.2179 13:14 14:0.4091 15:1 16:0.1429 17:0.375 18:0.3095 19:0.1429 20:0.1852 22:1 
0.8752137387087343 0:4 1:8 2:18 3:12 4:0.3412 5:4 6:6 7:0.2727 8:0.2273 9:0.2679 10:0.1964 11:17 12:0.2192 13:14 14:0.3182 15:1 16:0.2321 17:0.3036 18:0.2706 19:0.1529 20:0.2857 22:1 
0.4626016065051992 0:4 1:8 2:18 3:12 4:0.3412 5:4 6:6 7:0.1364 8:0.2727 9:0.2833 10:0.1833 11:15 12:0.2192 13:50 14:0.3182 15:1 16:0.2167 17:0.3167 18:0.2706 19:0.1529 20:0.3333 22:1 
1 0:4 1:10 2:18 3:8 4:0.2907 5:3 6:6 7:0.1364 8:0.3182 9:0.3167 10:0.15 11:15 12:0.2179 13:15 14:0.4091 15:1 16:0.15 17:0.3833 18:0.3256 19:0.1395 20:0.28 22:2 
1 0:4 1:12 2:16 3:15 4:0.381 5:7 6:6 7:0.1364 8:0.3636 9:0.254 10:0.1746 11:23 12:0.3222 13:62 14:0.2727 15:1 16:0.1905 17:0.381 18:0.2667 19:0.2 20:0.4146 22:1 
1 0:2 1:7 2:19 3:6 4:0.3253 5:3 6:4 7:0.1818 8:0.2727 9:0.3158 10:0.1579 11:15 12:0.1558 13:14 14:0.4091 15:1 16:0.1579 17:0.3684 18:0.3012 19:0.1446 20:0.2 22:2 
1 0:3 1:8 2:19 3:6 4:0.3253 5:3 6:4 7:0.1364 8:0.5 9:0.3 10:0.1667 11:13 12:0.1558 13:50 14:0.2273 15:1 16:0.1667 17:0.3667 18:0.3012 19:0.1446 20:0.1818 22:3 
0.2753313379442229 0:4 1:10 2:17 3:12 4:0.3765 5:4 6:6 7:0.2727 8:0.2273 9:0.25 10:0.25 11:17 12:0.2466 13:14 14:0.3182 15:1 16:0.2143 17:0.2857 18:0.2471 19:0.1882 20:0.2857 
1 0:4 1:10 2:17 3:12 4:0.3765 5:4 6:6 7:0.1364 8:0.2273 9:0.2667 10:0.2333 11:15 12:0.2466 13:50 14:0.2727 15:1 16:0.2 17:0.3 18:0.2471 19:0.1882 20:0.3333 
0.6511249151136003 0:3 1:14 2:17 3:4 4:0.5 5:4 6:6 7:0.2857 8:0.2857 9:0.2241 10:0.2414 11:17 12:0.2738 13:15 14:0.1429 15:1 16:0.3103 17:0.2241 18:0.2386 19:0.2159 20:0.3103 22:1 
0.03828874230439521 0:3 1:14 2:17 3:4 4:0.5 5:4 6:6 7:0.35 8:0.25 9:0.2258 10:0.2258 11:15 12:0.2738 13:55 14:0.2 15:1 16:0.3065 17:0.2419 18:0.2386 19:0.2159 20:0.36 22:2 
1 0:4 1:13 2:16 3:4 4:0.4176 5:5 6:5 7:0.35 8:0.4 9:0.2881 10:0.1525 11:19 12:0.2184 13:15 14:0.05 15:6 16:0.2542 17:0.3051 18:0.3077 19:0.1868 20:0.25 22:2 
1 0:4 1:13 2:17 3:4 4:0.4176 5:5 6:5 7:0.1905 8:0.1905 9:0.2857 10:0.1587 11:17 12:0.2184 13:55 14:0.381 15:6 16:0.254 17:0.3016 18:0.3077 19:0.1868 20:0.3 22:2 
1 0:2 1:8 2:18 3:11 4:0.5052 5:3 6:4 7:0.2857 8:0.2381 9:0.2034 10:0.2881 11:24 12:0.1744 13:15 14:0.1905 15:10 16:0.2373 17:0.2712 18:0.2474 19:0.2887 20:0.2593 22:1 
1 0:3 1:11 2:16 3:11 4:0.5052 5:3 6:4 7:0.35 8:0.25 9:0.1935 10:0.3065 11:23 12:0.1744 13:56 14:0.15 15:10 16:0.2258 17:0.2742 18:0.2474 19:0.2887 20:0.1667 22:1 
1 0:5 1:14 2:16 3:11 4:0.3778 5:4 6:6 7:0.2273 8:0.2273 9:0.2985 10:0.2239 11:15 12:0.2278 13:14 14:0.3636 15:1 16:0.1642 17:0.3134 18:0.3 19:0.2 20:0.1818 22:1 
1 0:4 1:11 2:16 3:3 4:0.55 5:6 6:6 7:0.381 8:0.1429 9:0.26 10:0.28 11:19 12:0.2468 13:19 14:0.3333 15:1 16:0.24 17:0.22 18:0.25 19:0.3125 20:0.2857 22:1 
1 0:4 1:11 2:18 3:3 4:0.55 5:6 6:6 7:0.1667 8:0.2083 9:0.2593 10:0.2778 11:16 12:0.2468 13:47 14:0.25 15:1 16:0.2407 17:0.2222 18:0.25 19:0.3125 20:0.3333 22:1 
1 0:1 1:2 2:22 3:9 4:0.3516 5:1 6:1 7:0.2174 8:0.4348 9:0.3684 10:0.2105 11:25 12:0.0244 13:11 14:0.1304 15:16 16:0.1754 17:0.2456 18:0.3626 19:0.1758 
1 0:1 1:2 2:21 3:9 4:0.3516 5:1 6:1 7:0.2273 8:0.0909 9:0.3559 10:0.2203 11:24 12:0.0244 13:47 14:0.5 15:16 16:0.1864 17:0.2373 18:0.3626 19:0.1758 
1 0:2 1:6 2:20 3:14 4:0.3011 5:3 6:3 7:0.2609 8:0.4348 9:0.2969 10:0.125 11:17 12:0.1266 13:55 14:0.3043 15:6 16:0.1406 17:0.4375 18:0.3118 19:0.1613 20:0.2 22:2 
1 0:4 1:17 2:15 3:7 4:0.5408 5:6 6:6 7:0.2857 8:0.4762 9:0.1897 10:0.2241 11:29 12:0.2418 13:14 14:0.0952 15:15 16:0.2586 17:0.3276 18:0.2041 19:0.3061 20:0.2 22:1 
1 0:4 1:17 2:16 3:7 4:0.5408 5:6 6:6 7:0.2857 8:0.1429 9:0.1935 10:0.2258 11:27 12:0.2418 13:53 14:0.2857 15:15 16:0.2581 17:0.3226 18:0.2041 19:0.3061 20:0.2381 22:1 
-0.9156488435185138 0:3 1:10 2:17 3:6 4:0.5 5:3 6:6 7:0.0952 8:0.1905 9:0.2222 10:0.2222 11:18 12:0.2073 13:51 14:0.4286 15:1 16:0.2222 17:0.3333 18:0.2045 19:0.25 20:0.2121 22:3 
-0.07644258743006406 0:3 1:4 2:15 3:18 4:0.4151 5:4 6:5 7:0.2381 8:0.381 9:0.1731 10:0.2115 11:34 12:0.1705 13:65 14:0.1905 15:13 16:0.2308 17:0.3846 18:0.2547 19:0.1792 20:0.2821 22:1 
-0.367225815376397 0:3 1:7 2:19 3:8 4:0.3723 5:2 6:6 7:0.2083 8:0.5417 9:0.3019 10:0.1698 11:22 12:0.1628 13:21 14:0.1667 15:2 16:0.1698 17:0.3585 18:0.2872 19:0.1596 20:0.1892 22:1 
-0.076970522737893 0:3 1:9 2:13 3:10 4:0.4845 5:4 6:7 7:0.45 8:0.4 9:0.1778 10:0.1333 11:29 12:0.1839 13:26 14:0.05 15:1 16:0.3333 17:0.3556 18:0.2165 19:0.2062 20:0.1373 22:3 
-0.01456776659725861 0:5 1:26 2:12 3:9 4:0.4571 5:5 6:5 7:0.1818 8:0.1364 9:0.2338 10:0.1948 11:20 12:0.3125 13:65 14:0.3636 15:11 16:0.2338 17:0.3377 18:0.2381 19:0.2476 20:0.2857 22:3 
-0.1226091096493729 0:4 1:10 2:20 3:22 4:0.3271 5:3 6:4 7:0.125 8:0.4167 9:0.3019 10:0.1604 11:1 12:0.1176 13:1 14:0.3333 15:1 16:0.1604 17:0.3774 18:0.2991 19:0.1682 20:-1 22:7 
-0.04019150293050924 0:8 1:19 2:15 3:9 4:0.4907 5:3 6:9 7:0.0909 8:0.0909 9:0.2778 10:0.2444 11:13 12:0.2121 13:81 14:0.5 15:6 16:0.2222 17:0.2556 18:0.2778 19:0.2407 20:0.2 22:2 
-0.04527559713651597 0:6 1:15 2:18 3:9 4:0.4464 5:9 6:7 7:0.1739 8:0.2174 9:0.2805 10:0.2073 11:19 12:0.301 13:19 14:0.3913 15:4 16:0.2317 17:0.2805 18:0.2946 19:0.2321 20:0.6154 
-0.1531628289796017 0:4 1:14 2:16 3:5 4:0.4 5:4 6:6 7:0.3043 8:0.2609 9:0.2364 10:0.1818 11:32 12:0.2571 13:57 14:0.2174 15:9 16:0.2909 17:0.2909 18:0.2727 19:0.1727 20:0.3023 22:3 
-0.1551035241357596 0:8 1:25 2:17 3:4 4:0.4679 5:4 6:9 7:0.3043 8:0.1739 9:0.2268 10:0.2371 11:9 12:0.2571 13:81 14:0.1739 15:2 16:0.2474 17:0.2887 18:0.2477 19:0.2385 20:0.2 22:2 
-0.0745387900754 0:4 1:15 2:15 3:4 4:0.5182 5:6 6:8 7:0.1429 8:0.2381 9:0.1887 10:0.3019 11:32 12:0.2925 13:59 14:0.2381 15:1 16:0.2642 17:0.2453 18:0.1909 19:0.2455 20:0.2857 22:1 
-0.08449602258951154 0:4 1:12 2:17 3:15 4:0.3875 5:2 6:4 7:0.2273 8:0.3636 9:0.2727 10:0.1948 11:3 12:0.1846 13:58 14:0.2273 15:1 16:0.2078 17:0.3247 18:0.2875 19:0.1875 22:2 
-0.3792787538205433 0:6 1:20 2:15 3:6 4:0.434 5:6 6:6 7:0.3636 8:0.2727 9:0.2553 10:0.1809 11:9 12:0.23 13:9 14:0.1818 15:1 16:0.2234 17:0.3404 18:0.2358 19:0.1887 20:0.2727 22:6 
-0.01397969550546017 0:5 1:17 2:15 3:13 4:0.4495 5:4 6:7 7:0.2727 8:0.1818 9:0.2949 10:0.2692 11:18 12:0.2917 13:71 14:0.3182 15:1 16:0.1923 17:0.2436 18:0.3028 19:0.2477 20:0.3793 22:2 
-0.1749203164738722 0:1 1:4 2:20 3:9 4:0.4815 5:6 6:3 7:0.1364 8:0.4545 9:0.2609 10:0.2029 11:24 12:0.1515 13:70 14:0.2273 15:3 16:0.2609 17:0.2754 18:0.2407 19:0.25 20:0.3143 22:1 
-0.03453025216804177 0:9 1:28 2:17 3:4 4:0.3333 5:3 6:10 7:0.2609 8:0.4348 9:0.2981 10:0.1442 11:8 12:0.2832 13:8 14:0.1304 15:1 16:0.1635 17:0.3942 18:0.2906 19:0.1709 20:0.3333 22:3 
-0.07728043584705199 0:10 1:23 2:18 3:5 4:0.4112 5:2 6:10 7:0.2174 8:0.1739 9:0.2981 10:0.1731 11:3 12:0.2255 13:2 14:0.3478 15:1 16:0.2308 17:0.2981 18:0.2897 19:0.1776 22:7 
-0.07073484724048414 0:3 1:6 2:21 3:10 4:0.3925 5:4 6:6 7:0.25 8:0.375 9:0.2949 10:0.1538 11:18 12:0.1856 13:67 14:0.125 15:1 16:0.1923 17:0.359 18:0.271 19:0.1589 20:0.4286 22:5 
-0.1213461770371407 0:8 1:32 2:16 3:4 4:0.5773 5:6 6:8 7:0.2174 8:0.3478 9:0.1591 10:0.2727 11:6 12:0.3656 13:70 14:0.1739 15:1 16:0.3068 17:0.2614 18:0.1649 19:0.2784 20:0.25 22:4 
-0.05201293742193373 0:3 1:26 2:12 3:4 4:0.4625 5:5 6:2 7:0.2 8:0.3 9:0.25 10:0.2222 11:5 12:0.1579 13:5 14:0.25 15:12 16:0.2639 17:0.2639 18:0.2625 19:0.2 20:-1 22:4 
-0.1827249375814936 0:3 1:6 2:16 3:8 4:0.4261 5:10 6:7 7:0.2857 8:0.2381 9:0.2609 10:0.2826 11:37 12:0.2804 13:36 14:0.2857 15:3 16:0.1957 17:0.2609 18:0.313 19:0.2174 20:0.375 22:2 
-0.01785231533352685 0:6 1:24 2:12 3:7 4:0.5545 5:5 6:7 7:0.35 8:0.3 9:0.1111 10:0.321 11:14 12:0.2979 13:14 15:7 16:0.2963 17:0.2716 18:0.1485 19:0.297 20:0.3333 22:2 
-0.23072356444445 0:5 1:14 2:19 3:7 4:0.422 5:3 6:8 7:0.3333 8:0.0417 9:0.2985 10:0.194 11:22 12:0.2745 13:22 14:0.4167 15:1 16:0.2388 17:0.2687 18:0.2661 19:0.1835 20:0.35 22:2 
-0.02452858765651634 0:6 1:18 2:13 3:11 4:0.4125 5:3 6:6 7:0.25 8:0.35 9:0.2817 10:0.2394 11:6 12:0.2609 13:56 14:0.05 15:1 16:0.169 17:0.3099 18:0.275 19:0.2375 
-0.06220180249197125 0:7 1:31 2:11 3:7 4:0.4537 5:5 6:6 7:0.381 8:0.1905 9:0.2404 10:0.2115 11:3 12:0.2673 13:3 14:0.2381 15:5 16:0.2308 17:0.3173 18:0.2407 19:0.213 20:-1 22:6 
-0.1527693255053883 0:6 1:20 2:14 3:6 4:0.3429 5:10 6:7 7:0.1 8:0.3 9:0.25 10:0.1905 11:7 12:0.303 13:81 14:0.4 15:1 16:0.1667 17:0.3929 18:0.2857 19:0.1905 20:0.5 22:4 
-0.154861985962142 0:2 1:10 2:17 3:8 4:0.5196 5:5 6:4 7:0.3043 8:0.2609 9:0.1667 10:0.2963 11:25 12:0.1489 13:56 14:0.0435 15:1 16:0.2778 17:0.2593 18:0.2255 19:0.2843 20:0.087 22:2 
-0.05926714202481714 0:6 1:19 2:11 3:6 4:0.3495 5:8 6:6 7:0.1429 8:0.2381 9:0.2929 10:0.1414 11:4 12:0.1959 13:80 14:0.3333 15:2 16:0.2222 17:0.3434 18:0.3107 19:0.1359 22:5 
-0.09213724078128344 0:6 1:18 2:17 3:12 4:0.3301 5:3 6:6 7:0.0833 8:0.3333 9:0.2439 10:0.1829 11:20 12:0.1978 13:78 14:0.3333 15:17 16:0.1341 17:0.439 18:0.2718 19:0.2039 22:2 
-0.08224098408556781 0:6 1:17 2:19 3:16 4:0.4054 5:4 6:7 7:0.125 8:0.25 9:0.2474 10:0.1753 11:9 12:0.2526 13:80 14:0.3333 15:1 16:0.2268 17:0.3505 18:0.2703 19:0.1712 20:0.5385 22:4 
-0.02716014917895997 0:7 1:27 2:16 3:5 4:0.3786 5:6 6:7 7:0.25 8:0.375 9:0.2812 10:0.1771 11:6 12:0.2755 13:78 14:0.1667 15:4 16:0.1979 17:0.3438 18:0.2718 19:0.1748 22:3 
-0.06962454199682644 0:4 1:15 2:17 3:11 4:0.5052 5:3 6:4 7:0.1304 8:0.2609 9:0.1875 10:0.3125 11:14 12:0.1744 13:5 14:0.1739 15:10 16:0.225 17:0.275 18:0.2474 19:0.2887 22:3 
-0.01685431401921611 0:4 1:15 2:19 3:14 4:0.3011 5:3 6:3 7:0.2273 8:0.3182 9:0.2921 10:0.1685 11:3 12:0.1266 13:3 14:0.2273 15:6 16:0.1461 17:0.3933 18:0.3118 19:0.1613 20:-1 22:3 
-0.1505443544006606 0:5 1:21 2:16 3:7 4:0.5408 5:6 6:6 7:0.2381 8:0.0952 9:0.1757 10:0.2568 11:20 12:0.2418 13:59 14:0.2857 15:15 16:0.2568 17:0.3108 18:0.2041 19:0.3061 20:0.1111 22:1 
-0.05055122001886524 0:3 1:15 2:15 3:5 4:0.4494 5:4 6:5 7:0.2174 8:0.2609 9:0.3 10:0.18 11:22 12:0.2738 13:47 14:0.3043 15:1 16:0.24 17:0.28 18:0.2697 19:0.191 20:0.2105 22:1 
-0.1129004108515408 0:5 1:15 2:14 3:18 4:0.4151 5:4 6:5 7:0.1905 8:0.381 9:0.1728 10:0.1852 11:19 12:0.1705 13:19 14:0.2381 15:13 16:0.2593 17:0.3827 18:0.2547 19:0.1792 22:4 
-0.08014608911801574 0:5 1:30 2:15 3:9 4:0.4571 5:5 6:5 7:0.375 8:0.4583 9:0.2414 10:0.2069 11:14 12:0.3125 13:6 14:0.125 15:11 16:0.2299 17:0.3218 18:0.2381 19:0.2476 22:3 
-0.02888563310621921 0:6 1:17 2:14 3:7 4:0.3084 5:4 6:6 7:0.1429 8:0.2857 9:0.3478 10:0.1413 11:9 12:0.17 13:80 14:0.3333 15:5 16:0.1848 17:0.3261 18:0.3738 19:0.1308 22:5 
-0.1524023693982302 0:3 1:4 2:20 3:22 4:0.3271 5:3 6:4 7:0.1818 8:0.5 9:0.3049 10:0.1707 11:15 12:0.1176 13:74 14:0.1364 15:1 16:0.1585 17:0.3659 18:0.2991 19:0.1682 20:0.25 22:5 
-0.004803738090279572 0:3 1:8 2:18 3:22 4:0.3271 5:3 6:4 7:0.1364 8:0.5909 9:0.2907 10:0.1744 11:13 12:0.1176 13:76 14:0.1364 15:1 16:0.1512 17:0.3837 18:0.2991 19:0.1682 20:0.1 22:5 
-0.08389528508156804 0:12 1:29 2:13 3:8 4:0.5045 5:4 6:11 7:0.3 8:0.3 9:0.2018 10:0.2202 11:2 12:0.2718 13:91 14:0.15 15:2 16:0.2752 17:0.3028 18:0.1982 19:0.2252 20:-1 22:3 
-0.2589825043276087 0:5 1:15 2:16 3:9 4:0.4907 5:3 6:9 7:0.3043 8:0.4783 9:0.2917 10:0.2222 11:23 12:0.2121 13:21 14:0.087 15:6 16:0.2083 17:0.2778 18:0.2778 19:0.2407 20:0.2143 22:2 
-0.0450585187872021 0:4 1:19 2:15 3:6 4:0.4054 5:4 6:6 7:0.15 8:0.3 9:0.3117 10:0.1818 11:19 12:0.2667 13:76 14:0.3 15:1 16:0.2338 17:0.2727 18:0.3153 19:0.2072 20:0.2727 22:2 
-0.08342763124549159 0:6 1:26 2:15 3:6 4:0.4054 5:4 6:6 7:0.2 8:0.35 9:0.32 10:0.19 11:7 12:0.2667 13:87 14:0.25 15:1 16:0.2 17:0.29 18:0.3153 19:0.2072 20:0.2 22:3 
-0.1451107777665367 0:1 1:3 2:13 3:13 4:0.3626 5:3 6:5 7:0.15 8:0.3 9:0.3333 10:0.1429 11:27 12:0.1923 13:47 14:0.4 15:1 16:0.1667 17:0.3571 18:0.3187 19:0.1868 20:0.25 22:3 
-0.1600917717922195 0:6 1:15 2:19 3:9 4:0.4464 5:9 6:7 7:0.1667 8:0.2083 9:0.2973 10:0.1892 11:23 12:0.301 13:73 14:0.3333 15:4 16:0.2162 17:0.2973 18:0.2946 19:0.2321 20:0.4706 
-0.04081183551531693 0:7 1:17 2:17 3:9 4:0.4464 5:9 6:7 7:0.1667 8:0.2083 9:0.2907 10:0.1977 11:16 12:0.301 13:16 14:0.4167 15:4 16:0.2326 17:0.2791 18:0.2946 19:0.2321 20:0.6364 
-0.1370560105869927 0:2 1:9 2:14 3:5 4:0.4 5:4 6:6 7:0.25 8:0.35 9:0.2619 10:0.1905 11:39 12:0.2571 13:53 14:0.2 15:9 16:0.2619 17:0.2857 18:0.2727 19:0.1727 20:0.3214 22:3 
-0.4488868519097585 0:4 1:21 2:16 3:7 4:0.4685 5:7 6:7 7:0.1667 8:0.2917 9:0.1585 10:0.1951 11:17 12:0.2596 13:73 14:0.2917 15:2 16:0.2439 17:0.4024 18:0.1712 19:0.2342 20:0.2308 22:6 
-0.09391059928526414 0:3 1:15 2:17 3:7 4:0.4685 5:7 6:7 7:0.1739 8:0.4783 9:0.1786 10:0.1429 11:30 12:0.2596 13:28 14:0.1304 15:2 16:0.2321 17:0.4464 18:0.1712 19:0.2342 20:0.2308 22:5 
-0.3860441968514063 0:4 1:18 2:15 3:5 4:0.4574 5:5 6:4 7:0.2174 8:0.2174 9:0.2857 10:0.2078 11:13 12:0.2022 13:67 14:0.3913 15:8 16:0.2208 17:0.2857 18:0.2872 19:0.234 22:3 
-0.0742431492325358 0:2 1:6 2:12 3:15 4:0.3875 5:2 6:4 7:0.3043 8:0.2174 9:0.2667 10:0.2444 11:19 12:0.1846 13:41 14:0.3043 15:1 16:0.2222 17:0.2667 18:0.2875 19:0.1875 20:0.1765 22:1 
-0.1633971823479166 0:5 1:17 2:15 3:4 4:0.3627 5:5 6:6 7:0.15 8:0.5 9:0.2951 10:0.1967 11:22 12:0.1837 13:22 14:0.25 15:6 16:0.1311 17:0.377 18:0.3039 19:0.1961 20:0.0345 22:1 
-0.280196510405 0:5 1:17 2:14 3:4 4:0.3627 5:5 6:6 7:0.0833 8:0.3333 9:0.2951 10:0.1967 11:22 12:0.1837 13:59 14:0.3333 15:6 16:0.1311 17:0.377 18:0.3039 19:0.1961 20:0.0345 22:1 
-0.06194667016513578 0:7 1:19 2:13 3:9 4:0.5 5:4 6:6 7:0.3 8:0.25 9:0.2614 10:0.2614 11:1 12:0.2278 13:69 14:0.2 15:1 16:0.2386 17:0.2386 18:0.2614 19:0.2614 20:-1 22:3 
-0.02679904851393916 0:6 1:26 2:16 3:4 4:0.6531 5:4 6:5 7:0.2917 8:0.125 9:0.2245 10:0.3163 11:1 12:0.2128 13:75 14:0.2083 15:3 16:0.3367 17:0.1224 18:0.2245 19:0.3163 20:-1 22:5 
-0.0544483322577622 0:3 1:15 2:15 3:9 4:0.4815 5:6 6:3 7:0.125 8:0.2083 9:0.25 10:0.2404 11:4 12:0.1515 13:4 14:0.25 15:3 16:0.2404 17:0.2692 18:0.2407 19:0.25 20:-1 22:2 
-0.1377675849785395 0:9 1:28 2:16 3:4 4:0.3333 5:3 6:10 7:0.25 8:0.35 9:0.2963 10:0.1481 11:6 12:0.2832 13:94 14:0.2 15:1 16:0.1667 17:0.3889 18:0.2906 19:0.1709 20:0.5 22:3 
-0.02155890036882564 0:5 1:17 2:15 3:4 4:0.2979 5:3 6:5 7:0.15 8:0.35 9:0.3012 10:0.1205 11:8 12:0.1889 13:68 14:0.3 15:5 16:0.1446 17:0.4337 18:0.2872 19:0.1489 22:4 
-0.112804851420335 0:2 1:11 2:21 3:5 4:0.4747 5:6 6:2 7:0.25 8:0.25 9:0.2444 10:0.2 11:9 12:0.117 13:2 14:0.2083 15:7 16:0.2778 17:0.2778 18:0.2525 19:0.2222 22:6 
-0.188791280431946 0:1 1:6 2:21 3:5 4:0.4747 5:6 6:2 7:0.2609 8:0.3478 9:0.2642 10:0.1321 11:28 12:0.117 13:51 14:0.3043 15:7 16:0.2642 17:0.3396 18:0.2525 19:0.2222 20:0.1282 22:5 
-0.01766497127028371 0:3 1:9 2:15 3:5 4:0.4112 5:2 6:10 7:0.381 8:0.1429 9:0.2955 10:0.1364 11:35 12:0.2255 13:54 14:0.381 15:1 16:0.25 17:0.3182 18:0.2897 19:0.1776 20:0.2258 22:4 
-0.4432325344354393 0:4 1:9 2:17 3:10 4:0.3925 5:4 6:6 7:0.1 8:0.3 9:0.2824 10:0.1529 11:14 12:0.1856 13:10 14:0.4 15:1 16:0.2235 17:0.3412 18:0.271 19:0.1589 20:0.4286 22:6 
-0.02381012740099144 0:6 1:26 2:17 3:4 4:0.5773 5:6 6:8 7:0.25 8:0.3333 9:0.1667 10:0.2692 11:11 12:0.3656 13:64 14:0.125 15:1 16:0.2949 17:0.2692 18:0.1649 19:0.2784 20:0.4444 22:4 
-0.1955177139832701 0:2 1:12 2:15 3:4 4:0.4625 5:5 6:2 7:0.4 8:0.3 9:0.1957 10:0.2391 11:19 12:0.1579 13:45 14:0.1 15:12 16:0.2826 17:0.2826 18:0.2625 19:0.2 22:3 
-0.1440267345225371 0:3 1:22 2:15 3:4 4:0.4625 5:5 6:2 7:0.3182 8:0.3182 9:0.2353 10:0.2353 11:7 12:0.1579 13:53 14:0.2273 15:12 16:0.2647 17:0.2647 18:0.2625 19:0.2 20:-1 22:4 
-0.03682614645600716 0:5 1:17 2:13 3:5 4:0.4949 5:5 6:7 7:0.3478 8:0.2609 9:0.1818 10:0.2121 11:19 12:0.2234 13:62 14:0.2174 15:4 16:0.303 17:0.303 18:0.2222 19:0.2121 20:0.1538 22:6 
-0.001236449154608303 0:6 1:25 2:11 3:8 4:0.4261 5:10 6:7 7:0.2857 8:0.1905 9:0.3263 10:0.2316 11:12 12:0.2804 13:11 14:0.3333 15:3 16:0.2 17:0.2421 18:0.313 19:0.2174 20:0.3333 22:4 
-0.06973001932204995 0:6 1:13 2:17 3:8 4:0.4261 5:10 6:7 7:0.15 8:0.4 9:0.253 10:0.253 11:18 12:0.2804 13:80 14:0.25 15:3 16:0.2169 17:0.2771 18:0.313 19:0.2174 20:0.6296 22:4 
-0.1905660798427042 0:2 1:5 2:19 3:3 4:0.4253 5:3 6:6 7:0.1667 8:0.375 9:0.3478 10:0.1739 11:24 12:0.131 13:22 14:0.3333 15:1 16:0.1522 17:0.3261 18:0.2989 19:0.1839 20:0.15 
-0.0006282622695742424 0:2 1:5 2:20 3:3 4:0.4253 5:3 6:6 7:0.1429 8:0.2857 9:0.3333 10:0.1667 11:22 12:0.131 13:48 14:0.381 15:1 16:0.1667 17:0.3333 18:0.2989 19:0.1839 20:0.1579 22:1 
-0.1160537207139327 0:6 1:24 2:10 3:11 4:0.3596 5:7 6:7 7:0.2 8:0.4 9:0.2475 10:0.1485 11:8 12:0.2524 13:88 14:0.05 15:1 16:0.2178 17:0.3861 18:0.2632 19:0.1579 20:0.1667 22:5 
-0.2007788917938272 0:3 1:11 2:13 3:7 4:0.5545 5:5 6:7 7:0.25 8:0.3 9:0.08 10:0.28 11:30 12:0.2979 13:60 14:0.2 15:7 16:0.3 17:0.34 18:0.1485 19:0.297 20:0.3953 22:2 
-0.9227858889948118 0:3 1:12 2:21 3:8 4:0.5149 5:5 6:6 7:0.4167 8:0.125 9:0.1857 10:0.3 11:17 12:0.2043 13:16 14:0.25 15:1 16:0.2714 17:0.2429 18:0.2277 19:0.2772 20:0.2414 22:2 
-0.07404219110460672 0:4 1:12 2:14 3:7 4:0.422 5:3 6:8 7:0.2381 8:0.0476 9:0.2766 10:0.2128 11:32 12:0.2745 13:32 14:0.4762 15:1 16:0.2553 17:0.2553 18:0.2661 19:0.1835 20:0.2667 22:1 
-0.9690762885410427 0:4 1:16 2:18 3:6 4:0.6604 5:4 6:6 7:0.3043 8:0.1739 9:0.1061 10:0.3333 11:25 12:0.27 13:67 14:0.1304 15:7 16:0.3182 17:0.2424 18:0.0943 19:0.3585 20:0.3548 22:3 
-0.09849015639549555 0:7 1:19 2:19 3:3 4:0.6296 5:3 6:9 7:0.3333 8:0.2381 9:0.0854 10:0.2927 11:15 12:0.2667 13:76 14:0.0952 15:1 16:0.3537 17:0.2683 18:0.0926 19:0.287 20:0.36 22:5 
-0.05269333958862315 0:8 1:22 2:17 3:3 4:0.6296 5:3 6:9 7:0.2381 8:0.2381 9:0.086 10:0.3118 11:9 12:0.2667 13:9 14:0.1429 15:1 16:0.3441 17:0.2581 18:0.0926 19:0.287 20:0.4286 22:5 
-0.07847382826086194 0:7 1:30 2:14 3:4 4:0.6429 5:5 6:8 7:0.381 8:0.4286 9:0.0816 10:0.3265 11:10 12:0.3426 13:7 14:0.0476 15:1 16:0.3265 17:0.2653 18:0.0893 19:0.3125 20:0.5385 22:5 
-0.07917596258237775 0:8 1:20 2:12 3:8 4:0.4234 5:7 6:10 7:0.25 8:0.3 9:0.2368 10:0.1842 11:20 12:0.2718 13:18 14:0.25 15:1 16:0.2105 17:0.3684 18:0.2342 19:0.1892 20:0.2353 22:1 
-0.07762095849737673 0:5 1:13 2:18 3:14 4:0.3448 5:3 6:7 7:0.1304 8:0.4348 9:0.3333 10:0.0988 11:20 12:0.2255 13:76 14:0.1739 15:1 16:0.1852 17:0.3827 18:0.3017 19:0.1552 20:0.2941 22:5 
-0.09191468330941265 0:6 1:16 2:19 3:5 4:0.3786 5:2 6:6 7:0.125 8:0.375 9:0.2529 10:0.1724 11:9 12:0.1633 13:72 14:0.3333 15:8 16:0.2184 17:0.3563 18:0.2524 19:0.1845 20:-1 22:3 
-0.0952377985857701 0:4 1:17 2:20 3:7 4:0.4537 5:5 6:6 7:0.2174 8:0.3478 9:0.2439 10:0.1707 11:16 12:0.2673 13:71 14:0.3043 15:5 16:0.2317 17:0.3537 18:0.2407 19:0.213 20:0.5556 22:6 
-0.06235156606462859 0:6 1:20 2:15 3:6 4:0.3429 5:10 6:7 7:0.1905 8:0.2857 9:0.2625 10:0.175 11:19 12:0.303 13:78 14:0.4286 15:1 16:0.15 17:0.4125 18:0.2857 19:0.1905 20:0.4167 22:4 
-0.05134197441980998 0:7 1:30 2:17 3:6 4:0.3429 5:10 6:7 7:0.1 8:0.3 9:0.2745 10:0.1961 11:3 12:0.303 13:85 14:0.4 15:1 16:0.1569 17:0.3725 18:0.2857 19:0.1905 22:4 
-0.0949954655752155 0:4 1:14 2:18 3:8 4:0.5196 5:5 6:4 7:0.2381 8:0.1429 9:0.1923 10:0.3077 11:13 12:0.1489 13:70 14:0.2857 15:1 16:0.2564 17:0.2436 18:0.2255 19:0.2843 22:2 
-0.02264762659822151 0:7 1:23 2:13 3:6 4:0.4884 5:5 6:7 7:0.3 8:0.3 9:0.1928 10:0.2289 11:3 12:0.2875 13:65 14:0.25 15:1 16:0.253 17:0.3253 18:0.1977 19:0.2326 22:4 
-0.06345979402558975 0:3 1:9 2:12 3:11 4:0.5102 5:4 6:5 7:0.1429 8:0.2381 9:0.3182 10:0.2045 11:30 12:0.1954 13:30 14:0.381 15:4 16:0.1818 17:0.2955 18:0.2551 19:0.2245 20:0.16 22:1 
-0.07412463162718506 0:3 1:6 2:16 3:5 4:0.49 5:6 6:8 7:0.3 8:0.4 9:0.186 10:0.2093 11:36 12:0.2105 13:60 14:0.2 15:8 16:0.2093 17:0.3953 18:0.21 19:0.25 20:0.3043 22:2 
-0.1293093841420307 0:7 1:21 2:10 3:6 4:0.3495 5:8 6:6 7:0.15 8:0.1 9:0.3107 10:0.1359 11:1 12:0.1959 13:84 14:0.45 15:2 16:0.2136 17:0.3398 18:0.3107 19:0.1359 20:-1 22:5 
-0.01681604173421199 0:2 1:5 2:19 3:6 4:0.3495 5:8 6:6 7:0.25 8:0.4167 9:0.2857 10:0.1224 11:34 12:0.1959 13:48 14:0.25 15:2 16:0.2245 17:0.3673 18:0.3107 19:0.1359 20:0.2692 22:3 
-0.192660748160116 0:6 1:14 2:16 3:12 4:0.3301 5:3 6:6 7:0.0909 8:0.3182 9:0.2297 10:0.1892 11:24 12:0.1978 13:76 14:0.3182 15:17 16:0.1486 17:0.4324 18:0.2718 19:0.2039 20:0.3333 22:2 
-0.03575914428934217 0:5 1:26 2:12 3:4 4:0.4286 5:4 6:4 7:0.2273 8:0.1818 9:0.2708 10:0.2188 11:10 12:0.2277 13:75 14:0.2727 15:12 16:0.2292 17:0.2812 18:0.2952 19:0.219 20:-1 22:6 
-0.2148425273479406 0:1 1:8 2:18 3:4 4:0.4286 5:4 6:4 7:0.1667 8:0.375 9:0.3333 10:0.1458 11:37 12:0.2277 13:24 14:0.2917 15:12 16:0.1875 17:0.3333 18:0.2952 19:0.219 20:0.3333 22:4 
-0.08737040910185721 0:7 1:15 2:20 3:4 4:0.3981 5:3 6:8 7:0.2917 8:0.0417 9:0.2577 10:0.1546 11:4 12:0.1717 13:77 14:0.5 15:1 16:0.2371 17:0.3505 18:0.2621 19:0.1553 20:0.5 22:8 
-0.08973198811285707 0:9 1:19 2:18 3:4 4:0.3981 5:3 6:8 7:0.3333 8:0.0417 9:0.2621 10:0.1553 11:1 12:0.1717 13:80 14:0.4583 15:1 16:0.2427 17:0.3398 18:0.2621 19:0.1553 20:-1 22:8 
-0.005046172971518927 0:6 1:17 2:15 3:16 4:0.4054 5:4 6:7 7:0.2381 8:0.4762 9:0.2584 10:0.1685 11:13 12:0.2526 13:11 14:0.1905 15:1 16:0.2135 17:0.3596 18:0.2703 19:0.1712 20:0.3333 22:3 
-0.03508602382445826 0:8 1:32 2:13 3:5 4:0.3786 5:6 6:7 7:0.25 8:0.4 9:0.2718 10:0.1748 11:1 12:0.2755 13:84 14:0.15 15:4 16:0.2039 17:0.3495 18:0.2718 19:0.1748 20:-1 22:4 
-0.06990218862605763 0:6 1:15 2:18 3:6 4:0.3214 5:3 6:6 7:0.1667 8:0.4167 9:0.3067 10:0.16 11:6 12:0.2179 13:56 14:0.25 15:1 16:0.1733 17:0.36 18:0.3095 19:0.1429 20:0.25 22:2 
-0.07079191541799741 0:6 1:29 2:12 3:15 4:0.381 5:7 6:6 7:0.0476 8:0.381 9:0.2755 10:0.2041 11:5 12:0.3222 13:4 14:0.3333 15:1 16:0.1633 17:0.3571 18:0.2667 19:0.2 22:2 
-0.1010963904109619 0:3 1:9 2:18 3:4 4:0.4176 5:5 6:5 7:0.25 8:0.05 9:0.3137 10:0.1569 11:23 12:0.2184 13:50 14:0.5 15:6 16:0.2745 17:0.2549 18:0.3077 19:0.1868 20:0.3125 22:1 
-0.01042117884333181 0:6 1:19 2:16 3:3 4:0.55 5:6 6:6 7:0.25 8:0.05 9:0.2297 10:0.3243 11:4 12:0.2468 13:58 14:0.35 15:1 16:0.2432 17:0.2027 18:0.25 19:0.3125 22:1 
-0.05506134479614379 0:6 1:15 2:14 3:3 4:0.55 5:6 6:6 7:0.3 8:0.2 9:0.2344 10:0.3125 11:10 12:0.2468 13:10 14:0.1 15:1 16:0.25 17:0.2031 18:0.25 19:0.3125 20:0.2857 22:1 
-0.1208370658884284 0:7 1:24 2:13 3:7 4:0.5408 5:6 6:6 7:0.25 9:0.1765 10:0.2706 11:14 12:0.2418 13:66 14:0.3 15:15 16:0.2588 17:0.2941 18:0.2041 19:0.3061 20:-1 22:1 
-0.07300711422920693 0:6 1:24 2:19 3:5 4:0.4494 5:4 6:5 7:0.3333 8:0.2083 9:0.2697 10:0.191 11:1 12:0.2738 13:66 14:0.25 15:1 16:0.2584 17:0.2809 18:0.2697 19:0.191 20:-1 22:3 
-0.09271877401483906 0:4 1:6 2:15 3:18 4:0.4151 5:4 6:5 7:0.2174 8:0.3478 9:0.1852 10:0.2222 11:33 12:0.1705 13:64 14:0.2609 15:13 16:0.2222 17:0.3704 18:0.2547 19:0.1792 20:0.2432 22:1 
-0.06518297607776065 0:6 1:22 2:11 3:18 4:0.4151 5:4 6:5 7:0.2273 8:0.1818 9:0.2347 10:0.1633 11:7 12:0.1705 13:7 14:0.5455 15:13 16:0.2449 17:0.3571 18:0.2547 19:0.1792 20:-1 22:4 
-0.09622654770495602 0:6 1:22 2:16 3:14 4:0.4681 5:6 6:5 7:0.3478 8:0.2609 9:0.1915 10:0.2021 11:1 12:0.2625 13:72 14:0.2174 15:1 16:0.266 17:0.3404 18:0.1915 19:0.2021 20:-1 22:3 
-0.009382030764867169 0:7 1:18 2:17 3:8 4:0.3723 5:2 6:6 7:0.1739 8:0.3478 9:0.2872 10:0.1596 11:1 12:0.1628 13:72 14:0.3043 15:2 16:0.2128 17:0.3404 18:0.2872 19:0.1596 20:-1 22:4 
-0.04147581666845931 0:4 1:11 2:18 3:10 4:0.4845 5:4 6:7 7:0.1429 8:0.1429 9:0.2034 10:0.1695 11:22 12:0.1839 13:57 14:0.381 15:1 16:0.2881 17:0.339 18:0.2165 19:0.2062 20:0.1351 22:3 
-0.5550900626950745 0:4 1:11 2:20 3:10 4:0.4845 5:4 6:7 7:0.1304 8:0.2174 9:0.2131 10:0.1639 11:21 12:0.1839 13:56 14:0.3478 15:1 16:0.2787 17:0.3443 18:0.2165 19:0.2062 20:0.1429 22:3 
-0.1192633526243996 0:4 1:25 2:14 3:9 4:0.4571 5:5 6:5 7:0.2083 8:0.2083 9:0.2237 10:0.1974 11:21 12:0.3125 13:62 14:0.2917 15:11 16:0.2368 17:0.3421 18:0.2381 19:0.2476 20:0.3333 22:3 
-0.0007493164359009263 0:3 1:13 2:13 3:9 4:0.4571 5:5 6:5 7:0.3 8:0.35 9:0.25 10:0.2083 11:35 12:0.3125 13:24 14:0.3 15:11 16:0.2083 17:0.3333 18:0.2381 19:0.2476 20:0.3953 22:2 
-0.05379581562094277 0:5 1:30 2:11 3:9 4:0.4571 5:5 6:5 7:0.15 8:0.15 9:0.2414 10:0.2069 11:14 12:0.3125 13:73 14:0.35 15:11 16:0.2299 17:0.3218 18:0.2381 19:0.2476 22:3 
-0.00916919009476397 0:7 1:26 2:16 3:7 4:0.3084 5:4 6:6 7:0.2083 8:0.3333 9:0.3738 10:0.1308 11:1 12:0.17 13:1 14:0.375 15:5 16:0.1776 17:0.3178 18:0.3738 19:0.1308 20:-1 22:6 
-0.02576015715303538 0:3 1:7 2:16 3:7 4:0.3084 5:4 6:6 7:0.25 8:0.375 9:0.3696 10:0.1304 11:34 12:0.17 13:30 14:0.3333 15:5 16:0.1957 17:0.3043 18:0.3738 19:0.1308 20:0.1923 22:2 
-0.1311469684782129 0:5 1:17 2:14 3:13 4:0.4054 5:5 6:7 7:0.25 8:0.2 9:0.3182 10:0.2045 11:13 12:0.3163 13:12 14:0.25 15:1 16:0.1705 17:0.3068 18:0.3153 19:0.2162 20:0.6364 22:1 
-0.09992748686809722 0:3 1:8 2:16 3:22 4:0.3271 5:3 6:4 7:0.2 8:0.45 9:0.2959 10:0.1531 11:5 12:0.1176 13:84 14:0.25 15:1 16:0.1531 17:0.398 18:0.2991 19:0.1682 20:0.25 22:7 
-0.1152606267283032 0:10 1:22 2:16 3:9 4:0.4907 5:3 6:9 7:0.2857 8:0.381 9:0.2673 10:0.2475 11:6 12:0.2121 13:6 14:0.1429 15:6 16:0.2376 17:0.2475 18:0.2778 19:0.2407 20:-1 22:2 
-0.00744424588782254 0:10 1:23 2:15 3:9 4:0.4907 5:3 6:9 7:0.3333 8:0.3333 9:0.2647 10:0.2451 11:5 12:0.2121 13:5 14:0.1429 15:6 16:0.2451 17:0.2451 18:0.2778 19:0.2407 20:-1 22:2 
-0.02937868047501978 0:4 1:19 2:18 3:6 4:0.4054 5:4 6:6 7:0.2609 8:0.2609 9:0.3165 10:0.1772 11:18 12:0.2667 13:18 14:0.3043 15:1 16:0.2278 17:0.2785 18:0.3153 19:0.2072 20:0.2903 22:2 
-0.2056943094953573 0:5 1:12 2:17 3:9 4:0.4464 5:9 6:7 7:0.1905 8:0.1905 9:0.2609 10:0.2029 11:26 12:0.301 13:74 14:0.2857 15:4 16:0.2319 17:0.3043 18:0.2946 19:0.2321 20:0.4872 
-0.1221084215401002 0:7 1:19 2:15 3:9 4:0.4464 5:9 6:7 7:0.1429 8:0.2381 9:0.2955 10:0.1932 11:15 12:0.301 13:15 14:0.4286 15:4 16:0.2273 17:0.2841 18:0.2946 19:0.2321 20:0.6 
-0.2463871946429032 0:4 1:14 2:16 3:5 4:0.4 5:4 6:6 7:0.2174 8:0.3043 9:0.2364 10:0.1818 11:32 12:0.2571 13:25 14:0.3043 15:9 16:0.2909 17:0.2909 18:0.2727 19:0.1727 20:0.3023 22:3 
-0.008216957656165827 0:6 1:27 2:14 3:5 4:0.4 5:4 6:6 7:0.2 8:0.6 9:0.25 10:0.1667 11:11 12:0.2571 13:5 14:0.1 15:9 16:0.2396 17:0.3438 18:0.2727 19:0.1727 22:5 
-0.3799762904762814 0:4 1:13 2:18 3:4 4:0.4679 5:4 6:9 7:0.2083 8:0.4167 9:0.2909 10:0.2 11:32 12:0.2571 13:29 14:0.2083 15:2 16:0.2 17:0.3091 18:0.2477 19:0.2385 20:0.2692 22:1 
-0.1852322407350681 0:6 1:21 2:16 3:4 4:0.4679 5:4 6:9 7:0.2609 8:0.3043 9:0.2405 10:0.2405 11:20 12:0.2571 13:17 14:0.1304 15:2 16:0.2278 17:0.2911 18:0.2477 19:0.2385 20:0.2143 22:1 
-0.01197852900715723 0:7 1:30 2:12 3:4 4:0.5182 5:6 6:8 7:0.381 8:0.2857 9:0.1739 10:0.25 11:11 12:0.2925 13:80 14:0.1905 15:1 16:0.2826 17:0.2935 18:0.1909 19:0.2455 20:0.0588 22:3 
-0.09505365852831406 0:4 1:19 2:11 3:7 4:0.4685 5:7 6:7 7:0.2 8:0.3 9:0.1471 10:0.1912 11:24 12:0.2596 13:70 14:0.25 15:2 16:0.25 17:0.4118 18:0.1712 19:0.2342 20:0.2 22:6 
-0.0417921122287414 0:4 1:17 2:13 3:7 4:0.4685 5:7 6:7 7:0.2381 8:0.3333 9:0.1515 10:0.1818 11:25 12:0.2596 13:68 14:0.2381 15:2 16:0.2576 17:0.4091 18:0.1712 19:0.2342 20:0.2381 22:6 
-0.1339643572104692 0:3 1:15 2:10 3:7 4:0.4685 5:7 6:7 7:0.25 8:0.45 9:0.1667 10:0.1458 11:34 12:0.2596 13:60 14:0.2 15:2 16:0.2292 17:0.4583 18:0.1712 19:0.2342 20:0.2 22:4 
-0.5749930016963347 0:2 1:8 2:20 3:5 4:0.4156 5:3 6:5 7:0.2174 8:0.3043 9:0.2075 10:0.2264 11:13 12:0.1944 13:13 14:0.2609 15:2 16:0.2642 17:0.3019 18:0.2338 19:0.1948 20:0.3 22:4 
-0.01834156748025616 0:2 1:5 2:18 3:5 4:0.4574 5:5 6:4 7:0.25 8:0.2083 9:0.2174 10:0.2391 11:29 12:0.2022 13:51 14:0.25 15:8 16:0.2609 17:0.2826 18:0.2872 19:0.234 20:0.3333 22:2 
-0.08115082262684641 0:4 1:16 2:15 3:5 4:0.4574 5:5 6:4 7:0.1739 8:0.3043 9:0.274 10:0.2192 11:15 12:0.2022 13:15 14:0.3043 15:8 16:0.2192 17:0.2877 18:0.2872 19:0.234 20:0.1667 22:3 
-0.1601176705716994 0:4 1:10 2:14 3:6 4:0.434 5:6 6:6 7:0.2 8:0.45 9:0.2963 10:0.1667 11:32 12:0.23 13:66 14:0.15 15:1 16:0.1667 17:0.3704 18:0.2358 19:0.1887 20:0.2549 22:2 
-0.03623959676357654 0:6 1:23 2:14 3:6 4:0.434 5:6 6:6 7:0.3333 8:0.2917 9:0.2381 10:0.181 11:2 12:0.23 13:2 14:0.125 15:1 16:0.2476 17:0.3333 18:0.2358 19:0.1887 20:-1 22:7 
-0.1241700206665189 0:7 1:20 2:19 3:4 4:0.3627 5:5 6:6 7:0.0909 8:0.2273 9:0.3043 10:0.1957 11:6 12:0.1837 13:76 14:0.4091 15:6 16:0.1522 17:0.3478 18:0.3039 19:0.1961 20:-1 22:2 
-0.0106820684330452 0:7 1:24 2:17 3:4 4:0.3627 5:5 6:6 7:0.1739 8:0.4783 9:0.3125 10:0.1979 11:4 12:0.1837 13:4 14:0.2174 15:6 16:0.1562 17:0.3333 18:0.3039 19:0.1961 20:-1 22:2 
-0.05117683221973588 0:7 1:24 2:19 3:4 4:0.3627 5:5 6:6 7:0.125 8:0.2083 9:0.3125 10:0.1979 11:4 12:0.1837 13:76 14:0.4167 15:6 16:0.1562 17:0.3333 18:0.3039 19:0.1961 20:-1 22:2 
-0.03886498243749575 0:4 1:14 2:14 3:4 4:0.4674 5:4 6:7 7:0.2273 8:0.3182 9:0.2 10:0.18 11:23 12:0.2386 13:50 14:0.2273 15:1 16:0.26 17:0.36 18:0.2065 19:0.2065 20:0.1707 22:2 
-0.07352573199766745 0:6 1:23 2:13 3:13 4:0.4495 5:4 6:7 7:0.2273 8:0.1818 9:0.2889 10:0.2667 11:12 12:0.2917 13:77 14:0.3182 15:1 16:0.2 17:0.2444 18:0.3028 19:0.2477 20:0.2941 22:3 
-0.08214919781854012 0:5 1:20 2:17 3:4 4:0.6531 5:4 6:5 7:0.2273 8:0.1818 9:0.2 10:0.3222 11:5 12:0.2128 13:73 14:0.1364 15:3 16:0.3444 17:0.1333 18:0.2245 19:0.3163 22:5 
-0.03327449905388534 0:3 1:15 2:14 3:9 4:0.4815 5:6 6:3 7:0.2 8:0.55 9:0.2604 10:0.2292 11:8 12:0.1515 13:84 14:0.1 15:3 16:0.2292 17:0.2812 18:0.2407 19:0.25 22:2 
-0.0504232853573379 0:9 1:26 2:17 3:4 4:0.3333 5:3 6:10 7:0.2727 8:0.4091 9:0.3039 10:0.1471 11:9 12:0.2832 13:9 14:0.1364 15:1 16:0.1667 17:0.3824 18:0.2906 19:0.1709 20:0.4286 22:3 
-0.02114859875744599 0:5 1:17 2:16 3:4 4:0.2979 5:3 6:5 7:0.2273 8:0.2727 9:0.3086 10:0.1111 11:9 12:0.1889 13:6 14:0.4091 15:5 16:0.1358 17:0.4444 18:0.2872 19:0.1489 22:4 
-0.01485619213672714 0:6 1:19 2:13 3:4 4:0.2979 5:3 6:5 7:0.05 8:0.4 9:0.2921 10:0.1348 11:4 12:0.1889 13:72 14:0.3 15:5 16:0.1461 17:0.427 18:0.2872 19:0.1489 20:-1 22:4 
-0.08605584263350727 0:10 1:21 2:15 3:5 4:0.4112 5:2 6:10 7:0.25 8:0.45 9:0.2857 10:0.1735 11:6 12:0.2255 13:83 14:0.2 15:1 16:0.2449 17:0.2959 18:0.2897 19:0.1776 20:0.25 22:7 
-0.06729255522690331 0:10 1:23 2:19 3:5 4:0.4112 5:2 6:10 7:0.2083 8:0.1667 9:0.2941 10:0.1765 11:4 12:0.2255 13:3 14:0.2917 15:1 16:0.2353 17:0.2941 18:0.2897 19:0.1776 22:7 
-0.15120397313315 0:7 1:19 2:11 3:10 4:0.3925 5:4 6:6 7:0.45 8:0.15 9:0.271 10:0.1589 11:1 12:0.1856 13:88 14:0.2 15:1 16:0.2336 17:0.3364 18:0.271 19:0.1589 20:-1 22:8 
-0.1065570622894371 0:4 1:9 2:20 3:10 4:0.3925 5:4 6:6 7:0.4167 8:0.2917 9:0.2824 10:0.1529 11:14 12:0.1856 13:71 14:0.125 15:1 16:0.2235 17:0.3412 18:0.271 19:0.1589 20:0.4286 22:6 
-0.02909425987051638 0:8 1:32 2:14 3:4 4:0.5773 5:6 6:8 7:0.2 8:0.35 9:0.1591 10:0.2727 11:6 12:0.3656 13:73 14:0.15 15:1 16:0.3068 17:0.2614 18:0.1649 19:0.2784 20:0.25 22:4 
-0.00569376492187873 0:8 1:28 2:16 3:5 4:0.4949 5:5 6:7 7:0.3182 8:0.0909 9:0.2222 10:0.2121 11:1 12:0.2234 13:78 14:0.3182 15:4 16:0.2828 17:0.2828 18:0.2222 19:0.2121 20:-1 22:8 
-0.09634550098212308 0:3 1:7 2:18 3:6 4:0.5915 5:7 6:4 7:0.3043 8:0.2609 9:0.102 10:0.3265 11:15 12:0.2462 13:41 14:0.1739 15:3 16:0.3061 17:0.2653 18:0.1408 19:0.3239 20:0.5294 22:2 
-0.05082947927366743 0:6 1:18 2:17 3:12 4:0.4 5:6 6:7 7:0.0417 8:0.5833 9:0.3095 10:0.1429 11:16 12:0.2755 13:74 14:0.1667 15:1 16:0.1667 17:0.381 18:0.2455 19:0.1909 20:0.36 22:3 
-0.1263929250874684 0:5 1:10 2:18 3:8 4:0.4261 5:10 6:7 7:0.1739 8:0.3478 9:0.25 10:0.25 11:22 12:0.2804 13:74 14:0.1739 15:3 16:0.2105 17:0.2895 18:0.313 19:0.2174 20:0.5882 22:4 
-0.04008903930634014 0:6 1:11 2:20 3:3 4:0.4253 5:3 6:6 7:0.5 8:0.25 9:0.2907 10:0.186 11:1 12:0.131 13:1 14:0.2083 15:1 16:0.2442 17:0.2791 18:0.2989 19:0.1839 20:-1 22:3 
-0.232328378449235 0:5 1:10 2:21 3:3 4:0.4253 5:3 6:6 7:0.2174 8:0.3043 9:0.2877 10:0.1781 11:8 12:0.131 13:58 14:0.2174 15:1 16:0.2466 17:0.2877 18:0.2989 19:0.1839 20:0.0769 22:3 
-0.2530861711477902 0:7 1:27 2:13 3:4 4:0.4151 5:3 6:7 7:0.25 8:0.35 9:0.2784 10:0.1649 11:6 12:0.2647 13:6 14:0.3 15:1 16:0.2474 17:0.3093 18:0.2736 19:0.1698 22:4 
-0.1326486835544041 0:6 1:24 2:16 3:11 4:0.3596 5:7 6:7 7:0.2917 8:0.25 9:0.2475 10:0.1485 11:8 12:0.2524 13:7 14:0.4167 15:1 16:0.2178 17:0.3861 18:0.2632 19:0.1579 20:0.1667 22:5 
-0.1331743151873082 0:5 1:10 2:17 3:6 4:0.3978 5:8 6:6 7:0.25 8:0.25 9:0.25 10:0.2083 11:8 12:0.2069 13:67 14:0.2 15:1 16:0.2222 17:0.3194 18:0.2581 19:0.1828 20:0.4 22:4 
-0.2794386254454476 0:6 1:11 2:16 3:6 4:0.3978 5:8 6:6 7:0.3 8:0.3 9:0.2466 10:0.2055 11:15 12:0.2069 13:14 14:0.1 15:1 16:0.2192 17:0.3288 18:0.2581 19:0.1828 20:0.3684 22:4 
-0.03306379047591546 0:7 1:28 2:13 3:7 4:0.5545 5:5 6:7 7:0.1905 8:0.1429 9:0.1183 10:0.3011 11:2 12:0.2979 13:80 14:0.2857 15:7 16:0.2796 17:0.3011 18:0.1485 19:0.297 20:-1 22:2 
-0.6289256085663881 0:3 1:12 2:17 3:8 4:0.5149 5:5 6:6 7:0.2381 8:0.2381 9:0.1613 10:0.3226 11:21 12:0.2043 13:61 14:0.0952 15:1 16:0.2903 17:0.2258 18:0.2277 19:0.2772 20:0.1892 22:2 
-1 0:5 1:14 2:16 3:7 4:0.422 5:3 6:8 7:0.1429 8:0.4762 9:0.2951 10:0.1967 11:25 12:0.2745 13:65 14:0.1429 15:1 16:0.2459 17:0.2623 18:0.2661 19:0.1835 20:0.3043 22:2 
-0.3446191887998168 0:3 1:8 2:20 3:3 4:0.4513 5:2 6:7 7:0.3636 8:0.1818 9:0.3051 10:0.1695 11:29 12:0.1545 13:64 14:0.4091 15:1 16:0.2542 17:0.2712 18:0.2832 19:0.1593 20:0.1698 22:2 
-0.3029585176836229 0:3 1:10 2:17 3:6 4:0.6604 5:4 6:6 7:0.381 8:0.1905 9:0.1111 10:0.3148 11:31 12:0.27 13:30 14:0.0952 15:7 16:0.3148 17:0.2593 18:0.0943 19:0.3585 20:0.3953 22:2 
-0.03310322141055986 0:8 1:24 2:18 3:3 4:0.6296 5:3 6:9 7:0.4286 8:0.1905 9:0.0825 10:0.299 11:7 12:0.2667 13:83 14:0.0952 15:1 16:0.3402 17:0.2784 18:0.0926 19:0.287 20:0.4 22:6 
-0.02045457045678629 0:9 1:28 2:15 3:3 4:0.6296 5:3 6:9 7:0.2273 8:0.3182 9:0.0874 10:0.2816 11:4 12:0.2667 13:4 14:0.1818 15:1 16:0.3398 17:0.2913 18:0.0926 19:0.287 22:6 
-0.1413469758925376 0:6 1:26 2:15 3:4 4:0.6429 5:5 6:8 7:0.3333 8:0.1905 9:0.0889 10:0.3444 11:14 12:0.3426 13:80 14:0.0952 15:1 16:0.3111 17:0.2556 18:0.0893 19:0.3125 20:0.5238 22:4 
-0.08429530087647115 0:4 1:10 2:15 3:8 4:0.5143 5:4 6:5 7:0.3043 8:0.2174 9:0.2083 10:0.3542 11:11 12:0.2419 13:10 14:0.2174 15:1 16:0.1875 17:0.25 18:0.2286 19:0.3143 20:0.2381 
-0.1134663027560008 0:10 1:28 2:14 3:8 4:0.4234 5:7 6:10 7:0.2609 8:0.2609 9:0.25 10:0.1731 11:5 12:0.2718 13:4 14:0.3478 15:1 16:0.2212 17:0.3558 18:0.2342 19:0.1892 22:3 
-0.03821047591334674 0:6 1:18 2:14 3:11 4:0.4125 5:3 6:6 7:0.25 8:0.3 9:0.2785 10:0.2278 11:1 12:0.2609 13:1 14:0.3 15:1 16:0.1772 17:0.3165 18:0.275 19:0.2375 20:-1 22:1 
-0.1271428052424858 0:6 1:18 2:16 3:14 4:0.3448 5:3 6:7 7:0.15 8:0.2 9:0.31 10:0.13 11:10 12:0.2255 13:88 14:0.3 15:1 16:0.2 17:0.36 18:0.3017 19:0.1552 20:0.3333 22:6 
-0.1188714555680678 0:7 1:23 2:18 3:14 4:0.3448 5:3 6:7 7:0.1667 8:0.25 9:0.2973 10:0.1622 11:4 12:0.2255 13:90 14:0.2083 15:1 16:0.1892 17:0.3514 18:0.3017 19:0.1552 22:6 
-0.1735432273938985 0:6 1:16 2:16 3:5 4:0.3786 5:2 6:6 7:0.3478 8:0.3478 9:0.2468 10:0.1688 11:14 12:0.1633 13:14 14:0.2174 15:8 16:0.2208 17:0.3636 18:0.2524 19:0.1845 22:3 
-0.4827034308215367 0:3 1:7 2:18 3:5 4:0.3786 5:2 6:6 7:0.2857 8:0.5238 9:0.2292 10:0.1875 11:29 12:0.1633 13:29 14:0.0952 15:8 16:0.2083 17:0.375 18:0.2524 19:0.1845 20:0.2308 22:2 
-0.1966422212503635 0:5 1:21 2:17 3:7 4:0.4537 5:5 6:6 7:0.1739 8:0.3913 9:0.2326 10:0.186 11:13 12:0.2673 13:74 14:0.2609 15:5 16:0.2209 17:0.3605 18:0.2407 19:0.213 20:0.4286 22:6 
-0.06565677306660912 0:7 1:22 2:16 3:6 4:0.3429 5:10 6:7 7:0.2083 8:0.4167 9:0.2558 10:0.186 11:15 12:0.303 13:15 14:0.125 15:1 16:0.1628 17:0.3953 18:0.2857 19:0.1905 20:0.4444 22:4 
-0.02714621643114988 0:7 1:30 2:15 3:6 4:0.3429 5:10 6:7 7:0.0952 8:0.2857 9:0.2812 10:0.1875 11:6 12:0.303 13:81 14:0.4286 15:1 16:0.1458 17:0.3854 18:0.2857 19:0.1905 22:4 
-0.9107842982257951 0:4 1:14 2:17 3:8 4:0.5196 5:5 6:4 7:0.3 8:0.25 9:0.1974 10:0.3026 11:14 12:0.1489 13:14 14:0.2 15:1 16:0.25 17:0.25 18:0.2255 19:0.2843 22:2 
-0.01200002121970187 0:2 1:10 2:14 3:8 4:0.5196 5:5 6:4 7:0.3 8:0.25 9:0.16 10:0.3 11:27 12:0.1489 13:57 14:0.05 15:1 16:0.28 17:0.26 18:0.2255 19:0.2843 20:0.08 22:2 
-0.08868480438740713 0:5 1:9 2:18 3:5 4:0.5541 5:3 6:6 7:0.2917 8:0.2917 9:0.18 10:0.26 11:15 12:0.1739 13:15 14:0.1667 15:5 16:0.28 17:0.28 18:0.1892 19:0.2432 20:0.2 22:2 
-0.01705866938259142 0:7 1:23 2:13 3:6 4:0.4884 5:5 6:7 7:0.3 8:0.25 9:0.1882 10:0.2353 11:2 12:0.2875 13:66 14:0.25 15:1 16:0.2588 17:0.3176 18:0.1977 19:0.2326 20:-1 22:4 
-0.332696074235745 0:5 1:17 2:18 3:11 4:0.5102 5:4 6:5 7:0.4286 8:0.0952 9:0.2386 10:0.2386 11:8 12:0.1954 13:75 14:0.1905 15:4 16:0.2841 17:0.2386 18:0.2551 19:0.2245 22:3 
-0.0457710398297067 0:4 1:7 2:17 3:5 4:0.49 5:6 6:8 7:0.3 8:0.35 9:0.1739 10:0.2174 11:35 12:0.2105 13:61 14:0.2 15:8 16:0.2174 17:0.3913 18:0.21 19:0.25 20:0.3023 22:2 
-0.001559905096102816 0:9 1:27 2:17 3:5 4:0.49 5:6 6:8 7:0.2 8:0.25 9:0.2083 10:0.25 11:3 12:0.2105 13:79 14:0.15 15:8 16:0.25 17:0.2917 18:0.21 19:0.25 20:-1 22:2 
-0.1015819177097236 0:5 1:23 2:14 3:20 4:0.3564 5:8 6:4 7:0.2083 8:0.3333 9:0.3434 10:0.202 11:2 12:0.2346 13:77 14:0.25 15:3 16:0.1616 17:0.2929 18:0.3366 19:0.198 20:-1 22:2 
-0.1332577044796763 0:4 1:14 2:16 3:20 4:0.3564 5:8 6:4 7:0.15 8:0.25 9:0.378 10:0.1707 11:13 12:0.2346 13:70 14:0.4 15:3 16:0.1585 17:0.2927 18:0.3366 19:0.198 20:0.3846 22:2 
-0.008771566567505575 0:6 1:16 2:14 3:12 4:0.3301 5:3 6:6 7:0.25 8:0.4 9:0.2368 10:0.1842 11:23 12:0.1978 13:23 14:0.25 15:17 16:0.1447 17:0.4342 18:0.2718 19:0.2039 20:0.2 22:2 
-0.1432472088040584 0:7 1:26 2:10 3:12 4:0.3301 5:3 6:6 7:0.0435 8:0.5217 9:0.2553 10:0.1915 11:10 12:0.1978 13:10 14:0.3043 15:17 16:0.1383 17:0.4149 18:0.2718 19:0.2039 20:-1 22:2 
-0.03179058640347976 0:3 1:21 2:17 3:4 4:0.4286 5:4 6:4 7:0.25 8:0.3333 9:0.2597 10:0.2208 11:21 12:0.2277 13:9 14:0.1667 15:12 16:0.2208 17:0.2987 18:0.2952 19:0.219 20:0.125 22:5 
-0.1500979849100776 0:4 1:23 2:15 3:4 4:0.4286 5:4 6:4 7:0.2609 8:0.3043 9:0.2581 10:0.2151 11:1 12:0.2277 13:1 14:0.1739 15:12 16:0.2366 17:0.2903 18:0.2952 19:0.219 20:-1 22:6 
-0.1034928884079756 0:3 1:19 2:14 3:4 4:0.4286 5:4 6:4 7:0.3 8:0.25 9:0.2667 10:0.2133 11:22 12:0.2277 13:10 14:0.15 15:12 16:0.2267 17:0.2933 18:0.2952 19:0.219 20:0.2222 22:5 
-0.3585478119641258 0:4 1:10 2:16 3:4 4:0.3981 5:3 6:8 7:0.15 8:0.6 9:0.25 10:0.1731 11:28 12:0.1717 13:25 14:0.1 15:1 16:0.2115 17:0.3654 18:0.2621 19:0.1553 20:0.1429 22:4 
-0.02160395480240058 0:6 1:17 2:16 3:16 4:0.4054 5:4 6:7 7:0.3333 8:0.4286 9:0.2474 10:0.1753 11:8 12:0.2526 13:7 14:0.1429 15:1 16:0.2268 17:0.3505 18:0.2703 19:0.1712 20:0.5385 22:4 
-0.08017380340427456 0:5 1:16 2:15 3:6 4:0.2844 5:6 6:6 7:0.1818 8:0.3182 9:0.3333 10:0.0952 11:16 12:0.233 13:16 14:0.4545 15:2 16:0.1548 17:0.4167 18:0.3303 19:0.1193 20:0.3636 22:5 
-0.0136271950556896 0:7 1:27 2:12 3:5 4:0.3786 5:6 6:7 7:0.2 8:0.4 9:0.2955 10:0.1591 11:10 12:0.2755 13:78 14:0.2 15:4 16:0.1818 17:0.3636 18:0.2718 19:0.1748 22:3 
-0.5454538241154584 0:5 1:13 2:17 3:6 4:0.3214 5:3 6:6 7:0.1429 8:0.2857 9:0.3239 10:0.1549 11:8 12:0.2179 13:7 14:0.4286 15:1 16:0.1549 17:0.3662 18:0.3095 19:0.1429 20:0.3333 22:2 
-0.1656480228284985 0:5 1:15 2:16 3:12 4:0.3412 5:4 6:6 7:0.1818 8:0.3636 9:0.2394 10:0.169 11:9 12:0.2192 13:56 14:0.2273 15:1 16:0.2113 17:0.3803 18:0.2706 19:0.1529 20:0.0769 22:2 
-0.03391183868762138 0:5 1:15 2:17 3:15 4:0.381 5:7 6:6 7:0.2381 8:0.381 9:0.2439 10:0.1707 11:13 12:0.3222 13:12 14:0.1905 15:1 16:0.1951 17:0.3902 18:0.2667 19:0.2 20:0.6364 22:2 
-0.1308018554373658 0:6 1:29 2:14 3:15 4:0.381 5:7 6:6 7:0.087 8:0.3913 9:0.2692 10:0.2019 11:1 12:0.3222 13:1 14:0.3478 15:1 16:0.1731 17:0.3558 18:0.2667 19:0.2 20:-1 22:3 
-0.1573383704732019 0:3 1:8 2:20 3:6 4:0.3253 5:3 6:4 7:0.2 8:0.45 9:0.3056 10:0.1667 11:7 12:0.1558 13:58 14:0.25 15:1 16:0.1667 17:0.3611 18:0.3012 19:0.1446 20:0.4 22:3 
-0.6525076948744702 0:3 1:14 2:15 3:4 4:0.5 5:4 6:6 7:0.3636 8:0.3636 9:0.22 10:0.24 11:21 12:0.2738 13:19 14:0.0455 15:1 16:0.32 17:0.22 18:0.2386 19:0.2159 20:0.2432 22:1 
-0.1202960711762077 0:5 1:19 2:14 3:4 4:0.4176 5:5 6:5 7:0.2381 8:0.2381 9:0.28 10:0.2 11:11 12:0.2184 13:61 14:0.2857 15:6 16:0.24 17:0.28 18:0.3077 19:0.1868 22:2 
-0.3621114073927761 0:2 1:8 2:16 3:11 4:0.5052 5:3 6:4 7:0.25 8:0.3333 9:0.1961 10:0.2941 11:29 12:0.1744 13:19 14:0.125 15:10 16:0.2353 17:0.2745 18:0.2474 19:0.2887 20:0.2 22:1 
-0.0511205759188691 0:5 1:16 2:16 3:11 4:0.5052 5:3 6:4 7:0.2609 8:0.3043 9:0.1954 10:0.3103 11:10 12:0.1744 13:66 14:0.1739 15:10 16:0.2299 17:0.2644 18:0.2474 19:0.2887 20:-1 22:3 
-0.4424690777884738 0:5 1:12 2:17 3:3 4:0.55 5:6 6:6 7:0.2381 8:0.0952 9:0.2459 10:0.2951 11:8 12:0.2468 13:53 14:0.2857 15:1 16:0.2459 17:0.2131 18:0.25 19:0.3125 20:0.4118 22:1 
-0.1829347309060352 0:6 1:19 2:19 3:3 4:0.55 5:6 6:6 7:0.2083 8:0.0833 9:0.2361 10:0.3194 11:5 12:0.2468 13:53 14:0.3333 15:1 16:0.2361 17:0.2083 18:0.25 19:0.3125 22:1 
-0.02419757132612034 0:4 1:12 2:16 3:14 4:0.3011 5:3 6:3 7:0.05 8:0.35 9:0.2791 10:0.1744 11:5 12:0.1266 13:70 14:0.35 15:6 16:0.1512 17:0.3953 18:0.3118 19:0.1613 20:-1 22:3 
-0.2332640124368962 0:3 1:10 2:19 3:14 4:0.3011 5:3 6:3 7:0.2273 8:0.4545 9:0.2763 10:0.1579 11:11 12:0.1266 13:62 14:0.2273 15:6 16:0.1447 17:0.4211 18:0.3118 19:0.1613 22:3 
-0.1046554464969718 0:3 1:10 2:22 3:14 4:0.3011 5:3 6:3 7:0.2083 8:0.2917 9:0.2683 10:0.1707 11:8 12:0.1266 13:5 14:0.25 15:6 16:0.1585 17:0.4024 18:0.3118 19:0.1613 22:3 
-0.05401273515535181 0:6 1:17 2:20 3:6 4:0.5 5:3 6:6 7:0.2917 8:0.125 9:0.2169 10:0.2289 11:4 12:0.2073 13:62 14:0.2917 15:1 16:0.241 17:0.3133 18:0.2045 19:0.25 22:5 
-0.1264221922149902 0:5 1:15 2:18 3:18 4:0.4151 5:4 6:5 7:0.1667 8:0.2917 9:0.191 10:0.1798 11:15 12:0.1705 13:15 14:0.3333 15:13 16:0.2472 17:0.382 18:0.2547 19:0.1792 22:4 
-0.160900497076433 0:5 1:15 2:18 3:18 4:0.4151 5:4 6:5 7:0.3478 8:0.4348 9:0.191 10:0.1798 11:15 12:0.1705 13:81 14:0.1304 15:13 16:0.2472 17:0.382 18:0.2547 19:0.1792 22:4 
-0.02624314004915404 0:5 1:15 2:17 3:18 4:0.4151 5:4 6:5 7:0.25 8:0.3333 9:0.1728 10:0.1852 11:19 12:0.1705 13:19 14:0.2083 15:13 16:0.2593 17:0.3827 18:0.2547 19:0.1792 22:4 
-0.4728630349472919 0:3 1:12 2:12 3:14 4:0.4681 5:6 6:5 7:0.1739 8:0.3913 9:0.2 10:0.14 11:26 12:0.2625 13:21 14:0.3043 15:1 16:0.24 17:0.42 18:0.1915 19:0.2021 20:0.2093 22:1 
-0.1100688524666089 0:3 1:12 2:12 3:14 4:0.4681 5:6 6:5 7:0.2381 8:0.4286 9:0.2 10:0.14 11:26 12:0.2625 13:50 14:0.1429 15:1 16:0.24 17:0.42 18:0.1915 19:0.2021 20:0.2093 22:1 
-0.1579261844257841 0:3 1:7 2:20 3:8 4:0.3723 5:2 6:6 7:0.1364 8:0.1818 9:0.3091 10:0.1636 11:21 12:0.1628 13:53 14:0.4091 15:2 16:0.1636 17:0.3636 18:0.2872 19:0.1596 20:0.2 22:1 
-0.1078237601365998 0:5 1:12 2:19 3:8 4:0.3723 5:2 6:6 7:0.0909 8:0.3636 9:0.2949 10:0.1538 11:9 12:0.1628 13:65 14:0.4091 15:2 16:0.1795 17:0.3718 18:0.2872 19:0.1596 20:0.1667 22:3 
-0.06361135477455239 0:5 1:30 2:13 3:9 4:0.4571 5:5 6:5 7:0.3478 8:0.4783 9:0.241 10:0.2048 11:16 12:0.3125 13:8 14:0.1304 15:11 16:0.2289 17:0.3253 18:0.2381 19:0.2476 22:3 
-0.01909713897022201 0:6 1:31 2:13 3:9 4:0.4571 5:5 6:5 7:0.1304 8:0.1304 9:0.2391 10:0.2174 11:11 12:0.3125 13:73 14:0.3478 15:11 16:0.2283 17:0.3152 18:0.2381 19:0.2476 20:-1 22:3 
-0.1447327675522978 0:5 1:28 2:11 3:9 4:0.4571 5:5 6:5 7:0.1364 8:0.1818 9:0.2405 10:0.1899 11:18 12:0.3125 13:67 14:0.4091 15:11 16:0.2278 17:0.3418 18:0.2381 19:0.2476 20:0.1667 22:3 
-0.1239924990182281 0:1 1:2 2:14 3:22 4:0.3271 5:3 6:4 7:0.1429 8:0.4286 9:0.3269 10:0.1923 11:31 12:0.1176 13:59 14:0.2381 15:1 16:0.1346 17:0.3462 18:0.2991 19:0.1682 20:0.1481 22:3 
-0.1345042007214624 0:12 1:31 2:11 3:8 4:0.5045 5:4 6:11 7:0.4 8:0.4 9:0.1982 10:0.2252 11:1 12:0.2718 13:1 14:0.1 15:2 16:0.2793 17:0.2973 18:0.1982 19:0.2252 20:-1 22:3 
-0.2116128828075965 0:10 1:26 2:11 3:8 4:0.5045 5:4 6:11 7:0.3 8:0.35 9:0.1961 10:0.2255 11:6 12:0.2718 13:5 14:0.15 15:2 16:0.2843 17:0.2941 18:0.1982 19:0.2252 20:0.3333 22:3 
-0.06439449077654547 0:12 1:31 2:14 3:8 4:0.5045 5:4 6:11 7:0.2609 8:0.2609 9:0.1982 10:0.2252 11:1 12:0.2718 13:89 14:0.2174 15:2 16:0.2793 17:0.2973 18:0.1982 19:0.2252 20:-1 22:3 
-0.01602782408599004 0:7 1:18 2:14 3:9 4:0.4907 5:3 6:9 7:0.1429 8:0.0952 9:0.2824 10:0.2353 11:16 12:0.2121 13:80 14:0.5238 15:6 16:0.2118 17:0.2706 18:0.2778 19:0.2407 20:0.2 22:2 
-0.1134686956543814 0:7 1:18 2:13 3:9 4:0.4907 5:3 6:9 7:0.1 8:0.05 9:0.2759 10:0.2414 11:14 12:0.2121 13:82 14:0.55 15:6 16:0.2184 17:0.2644 18:0.2778 19:0.2407 20:0.2308 22:2 
-0.07165605205709472 0:10 1:25 2:15 3:9 4:0.4907 5:3 6:9 7:0.3478 8:0.3043 9:0.2692 10:0.2404 11:3 12:0.2121 13:3 14:0.1739 15:6 16:0.25 17:0.2404 18:0.2778 19:0.2407 20:-1 22:2 
-0.1574243717109832 0:5 1:23 2:18 3:6 4:0.4054 5:4 6:6 7:0.1364 8:0.1818 9:0.3299 10:0.1753 11:9 12:0.2667 13:9 14:0.4091 15:1 16:0.2062 17:0.2887 18:0.3153 19:0.2072 20:0.3846 22:3 
-0.3936968755161259 0:4 1:19 2:19 3:6 4:0.4054 5:4 6:6 7:0.1667 8:0.375 9:0.321 10:0.1728 11:17 12:0.2667 13:74 14:0.25 15:1 16:0.2222 17:0.284 18:0.3153 19:0.2072 20:0.3103 22:2 
-0.03136100202390547 0:2 1:5 2:16 3:13 4:0.3626 5:3 6:5 7:0.1667 8:0.3333 9:0.34 10:0.16 11:23 12:0.1923 13:47 14:0.3333 15:1 16:0.16 17:0.34 18:0.3187 19:0.1868 20:0.25 22:3 
-0.04839057652492493 0:4 1:14 2:19 3:13 4:0.3626 5:3 6:5 7:0.0833 8:0.375 9:0.3291 10:0.1772 11:8 12:0.1923 13:61 14:0.25 15:1 16:0.1646 17:0.3291 18:0.3187 19:0.1868 20:0.0909 22:4 
-0.05987775570036977 0:6 1:16 2:15 3:13 4:0.3626 5:3 6:5 7:0.1 8:0.3 9:0.3187 10:0.1868 11:1 12:0.1923 13:72 14:0.3 15:1 16:0.1758 17:0.3187 18:0.3187 19:0.1868 20:-1 22:4 
-0.06329415593954003 0:6 1:27 2:17 3:3 4:0.4382 5:6 6:6 7:0.3636 8:0.1818 9:0.25 10:0.1705 11:1 12:0.314 13:1 14:0.2273 15:1 16:0.2614 17:0.3182 18:0.2472 19:0.1798 20:-1 22:3 
-0.0583768825837306 0:3 1:16 2:12 3:3 4:0.4382 5:6 6:6 7:0.2 8:0.4 9:0.3023 10:0.1395 11:25 12:0.314 13:46 14:0.3 15:1 16:0.2558 17:0.3023 18:0.2472 19:0.1798 20:0.2444 22:1 
-0.1306812177894414 0:6 1:15 2:15 3:9 4:0.4464 5:9 6:7 7:0.1 8:0.25 9:0.2949 10:0.1923 11:21 12:0.301 13:21 14:0.45 15:4 16:0.2179 17:0.2949 18:0.2946 19:0.2321 20:0.5333 
-0.0329129183476348 0:6 1:15 2:19 3:9 4:0.4464 5:9 6:7 7:0.2174 8:0.2609 9:0.2805 10:0.2073 11:19 12:0.301 13:78 14:0.1739 15:4 16:0.2317 17:0.2805 18:0.2946 19:0.2321 20:0.6154 
-0.1167350544222712 0:4 1:14 2:17 3:5 4:0.4 5:4 6:6 7:0.2917 8:0.2917 9:0.2281 10:0.1754 11:31 12:0.2571 13:57 14:0.2083 15:9 16:0.2982 17:0.2982 18:0.2727 19:0.1727 20:0.3171 22:4 
-0.02515986943997416 0:3 1:10 2:14 3:5 4:0.4 5:4 6:6 7:0.2857 8:0.3333 9:0.2558 10:0.186 11:38 12:0.2571 13:53 14:0.1905 15:9 16:0.2791 17:0.2791 18:0.2727 19:0.1727 20:0.3091 22:3 
-0.07223597401659476 0:10 1:28 2:18 3:4 4:0.4679 5:4 6:9 7:0.25 8:0.125 9:0.25 10:0.2315 11:2 12:0.2571 13:85 14:0.2917 15:2 16:0.2315 17:0.287 18:0.2477 19:0.2385 20:-1 22:2 
-0.01160619337556886 0:3 1:9 2:14 3:4 4:0.5182 5:6 6:8 7:0.4286 8:0.2381 9:0.1463 10:0.3171 11:38 12:0.2925 13:33 14:0.1429 15:1 16:0.2927 17:0.2439 18:0.1909 19:0.2455 20:0.3235 22:1 
-0.239007501200324 0:4 1:21 2:15 3:7 4:0.4685 5:7 6:7 7:0.2273 8:0.5455 9:0.1429 10:0.1857 11:23 12:0.2596 13:21 14:0.0909 15:2 16:0.2429 17:0.4286 18:0.1712 19:0.2342 20:0.1579 22:6 
-0.05105517122110344 0:4 1:21 2:13 3:7 4:0.4685 5:7 6:7 7:0.1818 8:0.3182 9:0.1579 10:0.1842 11:20 12:0.2596 13:72 14:0.2727 15:2 16:0.2368 17:0.4211 18:0.1712 19:0.2342 20:0.1875 22:6 
-0.06005036818706938 0:2 1:8 2:17 3:5 4:0.4156 5:3 6:5 7:0.2 8:0.3 9:0.2245 10:0.2245 11:15 12:0.1944 13:15 14:0.25 15:2 16:0.2449 17:0.3061 18:0.2338 19:0.1948 20:0.25 22:3 
-0.05974564174503161 0:2 1:5 2:17 3:5 4:0.4574 5:5 6:4 7:0.2857 8:0.1905 9:0.2273 10:0.2273 11:30 12:0.2022 13:53 14:0.2381 15:8 16:0.25 17:0.2955 18:0.2872 19:0.234 20:0.3171 22:2 
-0.0006015930200337735 0:4 1:18 2:14 3:5 4:0.4574 5:5 6:4 7:0.2 8:0.25 9:0.2771 10:0.2169 11:10 12:0.2022 13:73 14:0.4 15:8 16:0.2289 17:0.2771 18:0.2872 19:0.234 22:3 
-0.07375490313361893 0:3 1:7 2:15 3:6 4:0.434 5:6 6:6 7:0.2273 8:0.5455 9:0.3256 10:0.1628 11:39 12:0.23 13:57 14:0.1364 15:1 16:0.1395 17:0.3721 18:0.2358 19:0.1887 20:0.2581 22:1 
-0.1387211646956499 0:6 1:23 2:19 3:6 4:0.434 5:6 6:6 7:0.2917 8:0.2917 9:0.2427 10:0.1845 11:3 12:0.23 13:82 14:0.2083 15:1 16:0.2427 17:0.3301 18:0.2358 19:0.1887 22:6 
-0.04952606887480492 0:5 1:15 2:17 3:4 4:0.3627 5:5 6:6 7:0.1739 8:0.3913 9:0.2909 10:0.2182 11:25 12:0.1837 13:25 14:0.3043 15:6 16:0.1455 17:0.3455 18:0.3039 19:0.1961 20:0.0857 22:1 
-0.05590382898638036 0:7 1:30 2:16 3:4 4:0.3627 5:5 6:6 7:0.1667 8:0.2083 9:0.3039 10:0.1961 11:1 12:0.1837 13:79 14:0.4167 15:6 16:0.1667 17:0.3333 18:0.3039 19:0.1961 20:-1 22:2 
-0.03533471802522579 0:6 1:20 2:15 3:4 4:0.4674 5:4 6:7 7:0.3 8:0.35 9:0.1892 10:0.2162 11:11 12:0.2386 13:64 14:0.15 15:1 16:0.2568 17:0.3378 18:0.2065 19:0.2065 20:0.0588 22:2 
-0.5862948750926122 0:4 1:14 2:16 3:4 4:0.4674 5:4 6:7 7:0.3043 8:0.3043 9:0.2 10:0.18 11:23 12:0.2386 13:22 14:0.2174 15:1 16:0.26 17:0.36 18:0.2065 19:0.2065 20:0.1707 22:2 
-0.08972462728811856 0:3 1:14 2:15 3:18 4:0.4588 5:3 6:4 7:0.2381 8:0.2381 9:0.3205 10:0.2179 11:5 12:0.2388 13:4 14:0.2381 15:1 16:0.2308 17:0.2308 18:0.3176 19:0.2353 20:0.3333 22:1 
-0.198999503636207 0:2 1:8 2:14 3:18 4:0.4588 5:3 6:4 7:0.1739 8:0.1739 9:0.3333 10:0.2037 11:17 12:0.2388 13:47 14:0.3913 15:1 16:0.2407 17:0.2222 18:0.3176 19:0.2353 20:0.2667 
-0.04494248837385666 0:6 1:18 2:13 3:9 4:0.5 5:4 6:6 7:0.25 8:0.25 9:0.2785 10:0.2658 11:6 12:0.2278 13:64 14:0.2 15:1 16:0.2152 17:0.2405 18:0.2614 19:0.2614 22:2 
-0.06795513595862097 0:7 1:28 2:11 3:13 4:0.4495 5:4 6:7 7:0.1429 8:0.3333 9:0.301 10:0.2524 11:4 12:0.2917 13:4 14:0.2857 15:1 16:0.2039 17:0.2427 18:0.3028 19:0.2477 22:3 
-0.01568808045068373 0:6 1:19 2:13 3:13 4:0.4495 5:4 6:7 7:0.25 8:0.15 9:0.2907 10:0.2674 11:14 12:0.2917 13:77 14:0.35 15:1 16:0.2093 17:0.2326 18:0.3028 19:0.2477 20:0.4286 22:3 
-0.6708083991603168 0:5 1:13 2:15 3:13 4:0.4495 5:4 6:7 7:0.15 8:0.3 9:0.2973 10:0.2568 11:20 12:0.2917 13:17 14:0.25 15:1 16:0.2027 17:0.2432 18:0.3028 19:0.2477 20:0.4545 22:2 
-0.1856229612743402 0:5 1:18 2:16 3:6 4:0.4409 5:4 6:6 7:0.2 8:0.2 9:0.2857 10:0.2024 11:6 12:0.2529 13:70 14:0.35 15:1 16:0.2262 17:0.2857 18:0.2688 19:0.1935 20:0.5 22:2 
-0.04985927777380105 0:5 1:18 2:20 3:4 4:0.6531 5:4 6:5 7:0.2917 8:0.2083 9:0.1977 10:0.3256 11:7 12:0.2128 13:69 14:0.0833 15:3 16:0.3372 17:0.1395 18:0.2245 19:0.3163 20:0.3333 22:5 
-0.107933258947712 0:3 1:15 2:14 3:9 4:0.4815 5:6 6:3 7:0.25 8:0.4 9:0.2549 10:0.2353 11:5 12:0.1515 13:87 14:0.15 15:3 16:0.2353 17:0.2745 18:0.2407 19:0.25 22:2 
-0.1517031573617481 0:3 1:15 2:15 3:9 4:0.4815 5:6 6:3 7:0.0833 8:0.2083 9:0.2653 10:0.2245 11:7 12:0.1515 13:7 14:0.375 15:3 16:0.2245 17:0.2857 18:0.2407 19:0.25 22:2 
-0.1320070858506816 0:10 1:32 2:18 3:4 4:0.3333 5:3 6:10 7:0.2083 8:0.3333 9:0.2931 10:0.1638 11:1 12:0.2832 13:94 14:0.25 15:1 16:0.1638 17:0.3793 18:0.2906 19:0.1709 20:-1 22:3 
-0.1156470645789359 0:2 1:11 2:18 3:5 4:0.4747 5:6 6:2 7:0.2857 8:0.2857 9:0.225 10:0.2125 11:14 12:0.117 13:7 14:0.1429 15:7 16:0.3 17:0.2625 18:0.2525 19:0.2222 22:6 
-0.1120793476077399 0:2 1:11 2:21 3:5 4:0.4747 5:6 6:2 7:0.25 8:0.25 9:0.25 10:0.1957 11:1 12:0.117 13:1 14:0.2083 15:7 16:0.2717 17:0.2826 18:0.2525 19:0.2222 20:-1 22:6 
-0.006332557732185214 0:2 1:11 2:17 3:5 4:0.4747 5:6 6:2 7:0.3 8:0.25 9:0.2195 10:0.2195 11:13 12:0.117 13:6 14:0.1 15:7 16:0.3049 17:0.2561 18:0.2525 19:0.2222 22:6 
-0.03048875630816788 0:8 1:18 2:17 3:5 4:0.4112 5:2 6:10 7:0.2857 8:0.381 9:0.2697 10:0.1798 11:11 12:0.2255 13:77 14:0.1905 15:1 16:0.2472 17:0.3034 18:0.2897 19:0.1776 20:0.2941 22:7 
-0.2557672689563047 0:8 1:16 2:18 3:5 4:0.4112 5:2 6:10 7:0.1429 8:0.3333 9:0.2911 10:0.1646 11:16 12:0.2255 13:14 14:0.1905 15:1 16:0.2278 17:0.3165 18:0.2897 19:0.1776 20:0.2593 22:5 
-0.02058837480286333 0:8 1:22 2:14 3:3 4:0.41 5:3 6:10 7:0.1905 8:0.4286 9:0.2078 10:0.1818 11:13 12:0.3093 13:68 14:0.1429 15:1 16:0.2208 17:0.3896 18:0.26 19:0.19 20:0.3636 22:2 
-0.2275982934806892 0:6 1:19 2:14 3:3 4:0.41 5:3 6:10 7:0.2857 8:0.3333 9:0.2143 10:0.1714 11:16 12:0.3093 13:15 14:0.2381 15:1 16:0.1857 17:0.4286 18:0.26 19:0.19 20:0.3793 22:2 
-0.0513226539602763 0:7 1:20 2:15 3:3 4:0.41 5:3 6:10 7:0.1818 8:0.4545 9:0.2055 10:0.1781 11:15 12:0.3093 13:65 14:0.1364 15:1 16:0.2055 17:0.411 18:0.26 19:0.19 20:0.3846 22:2 
-0.09384797939650374 0:6 1:18 2:19 3:10 4:0.3925 5:4 6:6 7:0.1667 8:0.4583 9:0.2642 10:0.1604 11:1 12:0.1856 13:1 14:0.2083 15:1 16:0.2358 17:0.3396 18:0.271 19:0.1589 20:-1 22:8 
-0.2033539539538881 0:3 1:6 2:19 3:10 4:0.3925 5:4 6:6 7:0.2273 8:0.2273 9:0.3 10:0.1571 11:22 12:0.1856 13:17 14:0.4091 15:1 16:0.1857 17:0.3571 18:0.271 19:0.1589 20:0.3333 22:4 
-0.007772293375923612 0:9 1:35 2:14 3:4 4:0.5773 5:6 6:8 7:0.2381 8:0.2857 9:0.1649 10:0.2784 11:1 12:0.3656 13:77 14:0.1905 15:1 16:0.299 17:0.2577 18:0.1649 19:0.2784 20:-1 22:4 
-0.1013312363394899 0:3 1:28 2:15 3:4 4:0.4625 5:5 6:2 7:0.1667 8:0.3333 9:0.2432 10:0.2162 11:4 12:0.1579 13:4 14:0.25 15:12 16:0.2703 17:0.2703 18:0.2625 19:0.2 20:-1 22:4 
-0.118912624478765 0:3 1:22 2:15 3:4 4:0.4625 5:5 6:2 7:0.1364 8:0.2727 9:0.2353 10:0.2353 11:7 12:0.1579 13:7 14:0.3182 15:12 16:0.2647 17:0.2647 18:0.2625 19:0.2 20:-1 22:4 
-0.240095041411515 0:5 1:17 2:18 3:5 4:0.4949 5:5 6:7 7:0.25 8:0.4583 9:0.1912 10:0.2059 11:18 12:0.2234 13:18 14:0.125 15:4 16:0.2941 17:0.3088 18:0.2222 19:0.2121 20:0.1667 22:6 
-0.2642400759467367 0:4 1:15 2:12 3:5 4:0.4949 5:5 6:7 7:0.2381 8:0.3333 9:0.2037 10:0.1667 11:26 12:0.2234 13:57 14:0.2381 15:4 16:0.2963 17:0.3333 18:0.2222 19:0.2121 20:0.1579 22:5 
-0.0187382804881068 0:3 1:7 2:17 3:6 4:0.5915 5:7 6:4 7:0.3333 8:0.2381 9:0.1064 10:0.3191 11:16 12:0.2462 13:42 14:0.1905 15:3 16:0.2979 17:0.2766 18:0.1408 19:0.3239 20:0.4737 22:2 
-0.1487941804685207 0:6 1:22 2:18 3:12 4:0.4 5:6 6:7 7:0.2917 8:0.2917 9:0.2955 10:0.1364 11:13 12:0.2755 13:13 14:0.375 15:1 16:0.1705 17:0.3977 18:0.2455 19:0.1909 20:0.2381 22:3 
-0.05430216053771325 0:6 1:21 2:12 3:8 4:0.4261 5:10 6:7 7:0.3 8:0.2 9:0.3077 10:0.2308 11:14 12:0.2804 13:13 14:0.35 15:3 16:0.2088 17:0.2527 18:0.313 19:0.2174 20:0.4737 22:4 
-0.004473477050504771 0:3 1:6 2:18 3:8 4:0.4261 5:10 6:7 7:0.125 8:0.25 9:0.24 10:0.3 11:35 12:0.2804 13:60 14:0.25 15:3 16:0.22 17:0.24 18:0.313 19:0.2174 20:0.4 22:2 
-0.00426699765424391 0:6 1:17 2:18 3:8 4:0.4261 5:10 6:7 7:0.125 8:0.375 9:0.2874 10:0.2414 11:16 12:0.2804 13:78 14:0.2917 15:3 16:0.2069 17:0.2644 18:0.313 19:0.2174 20:0.5652 22:4 
-0.5324633847610427 0:6 1:11 2:17 3:3 4:0.4253 5:3 6:6 7:0.4762 8:0.1905 9:0.2973 10:0.1757 11:8 12:0.131 13:7 14:0.1905 15:1 16:0.2432 17:0.2838 18:0.2989 19:0.1839 22:3 
-0.2883621588515247 0:5 1:20 2:16 3:4 4:0.4151 5:3 6:7 7:0.2174 8:0.2609 9:0.2692 10:0.1795 11:16 12:0.2647 13:70 14:0.2174 15:1 16:0.2821 17:0.2692 18:0.2736 19:0.1698 20:0.2593 22:3 
-0.02134716228491333 0:6 1:23 2:15 3:4 4:0.4151 5:3 6:7 7:0.1429 8:0.1905 9:0.2874 10:0.1839 11:11 12:0.2647 13:77 14:0.3333 15:1 16:0.2644 17:0.2644 18:0.2736 19:0.1698 20:0.2222 22:3 
-0.03922670479746217 0:6 1:24 2:11 3:11 4:0.3596 5:7 6:7 7:0.15 8:0.4 9:0.2571 10:0.1429 11:6 12:0.2524 13:90 14:0.1 15:1 16:0.2095 17:0.3905 18:0.2632 19:0.1579 20:0.25 22:5 
-0.05931822722918707 0:6 1:14 2:15 3:11 4:0.3596 5:7 6:7 7:0.2381 8:0.4286 9:0.236 10:0.1348 11:14 12:0.2524 13:81 14:0.0952 15:1 16:0.2022 17:0.427 18:0.2632 19:0.1579 20:0.5 22:5 
-0.1417233168622919 0:5 1:8 2:16 3:6 4:0.3978 5:8 6:6 7:0.1304 8:0.3478 9:0.3043 10:0.1957 11:29 12:0.2069 13:51 14:0.3478 15:1 16:0.1522 17:0.3478 18:0.2581 19:0.1828 20:0.2174 22:2 
-0.04529320060154222 0:8 1:31 2:10 3:7 4:0.5545 5:5 6:7 7:0.2857 8:0.381 9:0.1354 10:0.2917 11:5 12:0.2979 13:5 14:0.1429 15:7 16:0.2708 17:0.3021 18:0.1485 19:0.297 20:-1 22:2 
-1 0:3 1:12 2:18 3:8 4:0.5149 5:5 6:6 7:0.45 8:0.1 9:0.1765 10:0.3088 11:18 12:0.2043 13:17 14:0.2 15:1 16:0.2794 17:0.2353 18:0.2277 19:0.2772 20:0.2258 22:2 
-0.00645748777592752 0:5 1:14 2:16 3:7 4:0.422 5:3 6:8 7:0.1429 8:0.4286 9:0.2923 10:0.2 11:23 12:0.2745 13:67 14:0.1429 15:1 16:0.2462 17:0.2615 18:0.2661 19:0.1835 20:0.3333 22:2 
-0.07743138888113824 0:3 1:8 2:20 3:3 4:0.4513 5:2 6:7 7:0.0417 8:0.4167 9:0.3051 10:0.1695 11:29 12:0.1545 13:27 14:0.2917 15:1 16:0.2542 17:0.2712 18:0.2832 19:0.1593 20:0.1698 22:2 
-0.3791379449494425 0:4 1:10 2:21 3:3 4:0.4513 5:2 6:7 7:0.4167 8:0.1667 9:0.2899 10:0.1739 11:24 12:0.1545 13:67 14:0.3333 15:1 16:0.2754 17:0.2609 18:0.2832 19:0.1593 20:0.1628 22:2 
-0.02273010498793863 0:7 1:31 2:10 3:6 4:0.6604 5:4 6:6 7:0.25 8:0.25 9:0.099 10:0.3663 11:4 12:0.27 13:4 14:0.15 15:7 16:0.297 17:0.2376 18:0.0943 19:0.3585 20:-1 22:3 
-0.1421797080593485 0:7 1:36 2:12 3:6 4:0.6604 5:4 6:6 7:0.2381 8:0.2381 9:0.0943 10:0.3585 11:1 12:0.27 13:86 14:0.0476 15:7 16:0.3019 17:0.2453 18:0.0943 19:0.3585 20:-1 22:3 
-0.09328068929120359 0:8 1:22 2:20 3:3 4:0.6296 5:3 6:9 7:0.3478 8:0.2174 9:0.086 10:0.3118 11:9 12:0.2667 13:79 14:0.087 15:1 16:0.3441 17:0.2581 18:0.0926 19:0.287 20:0.4286 22:5 
-0.09355298224550448 0:7 1:30 2:15 3:4 4:0.6429 5:5 6:8 7:0.3636 8:0.1818 9:0.0833 10:0.3229 11:11 12:0.3426 13:82 14:0.0909 15:1 16:0.3229 17:0.2708 18:0.0893 19:0.3125 20:0.4667 22:5 
-0.1180189405697294 0:8 1:37 2:12 3:4 4:0.6429 5:5 6:8 7:0.3043 8:0.3043 9:0.0935 10:0.2991 11:4 12:0.3426 13:88 14:0.087 15:1 16:0.3271 17:0.2804 18:0.0893 19:0.3125 22:6 
-0.1427522846871112 0:8 1:37 2:13 3:4 4:0.6429 5:5 6:8 7:0.3 8:0.3 9:0.0901 10:0.3063 11:1 12:0.3426 13:93 14:0.1 15:1 16:0.3333 17:0.2703 18:0.0893 19:0.3125 20:-1 22:6 
-0.0008793986007044619 0:10 1:28 2:14 3:8 4:0.4234 5:7 6:10 7:0.2727 8:0.2727 9:0.2407 10:0.1759 11:3 12:0.2718 13:2 14:0.3182 15:1 16:0.2315 17:0.3519 18:0.2342 19:0.1892 22:4 
-0.1921685605408537 0:8 1:17 2:15 3:8 4:0.4234 5:7 6:10 7:0.25 8:0.35 9:0.2329 10:0.1781 11:23 12:0.2718 13:21 14:0.2 15:1 16:0.2192 17:0.3699 18:0.2342 19:0.1892 20:0.2973 22:1 
-0.01074831089052222 0:8 1:26 2:13 3:8 4:0.4234 5:7 6:10 7:0.25 8:0.2917 9:0.2439 10:0.1829 11:17 12:0.2718 13:15 14:0.2917 15:1 16:0.2317 17:0.3415 18:0.2342 19:0.1892 20:0.0714 22:1 
-0.008721884703518253 0:4 1:10 2:16 3:8 4:0.4234 5:7 6:10 7:0.1739 8:0.2174 9:0.22 10:0.2 11:35 12:0.2718 13:60 14:0.3913 15:1 16:0.2 17:0.38 18:0.2342 19:0.1892 20:0.3 
-0.1227653090231251 0:6 1:18 2:17 3:11 4:0.4125 5:3 6:6 7:0.25 8:0.3333 9:0.2857 10:0.2208 11:3 12:0.2609 13:55 14:0.0833 15:1 16:0.1688 17:0.3247 18:0.275 19:0.2375 22:1 
-0.1384825666269011 0:7 1:23 2:15 3:14 4:0.3448 5:3 6:7 7:0.1905 8:0.2857 9:0.2957 10:0.1565 11:2 12:0.2255 13:95 14:0.1905 15:1 16:0.1913 17:0.3565 18:0.3017 19:0.1552 20:-1 22:7 
-0.004319880030607985 0:6 1:18 2:16 3:14 4:0.3448 5:3 6:7 7:0.35 8:0.4 9:0.31 10:0.13 11:9 12:0.2255 13:8 14:0.2 15:1 16:0.2 17:0.36 18:0.3017 19:0.1552 20:0.3333 22:6 
-0.03871892255796562 0:7 1:23 2:16 3:14 4:0.3448 5:3 6:7 7:0.2857 8:0.4286 9:0.2991 10:0.1589 11:6 12:0.2255 13:5 14:0.1905 15:1 16:0.1869 17:0.3551 18:0.3017 19:0.1552 22:6 
-0.07828005148174695 0:2 1:5 2:18 3:5 4:0.3786 5:2 6:6 7:0.1739 8:0.1739 9:0.2391 10:0.1957 11:30 12:0.1633 13:53 14:0.3478 15:8 16:0.1957 17:0.3696 18:0.2524 19:0.1845 20:0.2683 22:2 
-0.0008980090679842068 0:5 1:12 2:16 3:5 4:0.3786 5:2 6:6 7:0.3182 8:0.3636 9:0.2535 10:0.1831 11:17 12:0.1633 13:17 14:0.1818 15:8 16:0.2113 17:0.3521 18:0.2524 19:0.1845 20:0.25 22:3 
-0.0009589754486998939 0:5 1:21 2:14 3:14 4:0.3119 5:4 6:6 7:0.0952 8:0.2381 9:0.3299 10:0.1649 11:7 12:0.2842 13:83 14:0.5238 15:1 16:0.1443 17:0.3608 18:0.3394 19:0.1651 20:0.6 22:3 
-0.07954482453767903 0:5 1:21 2:17 3:14 4:0.3119 5:4 6:6 7:0.125 8:0.25 9:0.3299 10:0.1649 11:7 12:0.2842 13:80 14:0.4583 15:1 16:0.1443 17:0.3608 18:0.3394 19:0.1651 20:0.6 22:3 
-0.002242003866935727 0:6 1:27 2:14 3:7 4:0.4537 5:5 6:6 7:0.2609 8:0.3478 9:0.25 10:0.1875 11:8 12:0.2673 13:6 14:0.2174 15:5 16:0.2292 17:0.3333 18:0.2407 19:0.213 22:6 
-0.07696059640668085 0:4 1:17 2:17 3:7 4:0.4537 5:5 6:6 7:0.2381 8:0.3333 9:0.2639 10:0.1528 11:21 12:0.2673 13:68 14:0.3333 15:5 16:0.2083 17:0.375 18:0.2407 19:0.213 20:0.3571 22:5 
-0.2003303698515036 0:5 1:16 2:16 3:6 4:0.3429 5:10 6:7 7:0.2381 8:0.3333 9:0.2703 10:0.1757 11:22 12:0.303 13:22 14:0.0952 15:1 16:0.1622 17:0.3919 18:0.2857 19:0.1905 20:0.4667 22:4 
-0.07332844707794656 0:3 1:10 2:15 3:6 4:0.3429 5:10 6:7 7:0.1818 8:0.5 9:0.2391 10:0.1739 11:37 12:0.303 13:36 14:0.0909 15:1 16:0.1522 17:0.4348 18:0.2857 19:0.1905 20:0.3448 22:3 
-0.1514702512306267 0:7 1:30 2:17 3:6 4:0.3429 5:10 6:7 7:0.1304 8:0.2609 9:0.2755 10:0.1939 11:5 12:0.303 13:80 14:0.3913 15:1 16:0.1531 17:0.3776 18:0.2857 19:0.1905 22:4 
-0.02453699245769325 0:2 1:10 2:17 3:8 4:0.5196 5:5 6:4 7:0.3043 8:0.2174 9:0.1731 10:0.2885 11:26 12:0.1489 13:26 14:0.3043 15:1 16:0.2692 17:0.2692 18:0.2255 19:0.2843 20:0.0833 22:2 
-0.1353199179755142 0:6 1:11 2:16 3:5 4:0.5541 5:3 6:6 7:0.2917 8:0.2917 9:0.1667 10:0.2593 11:12 12:0.1739 13:12 14:0.1667 15:5 16:0.2963 17:0.2778 18:0.1892 19:0.2432 20:0.0909 22:2 
-0.02720461299020119 0:7 1:21 2:14 3:6 4:0.4884 5:5 6:7 7:0.25 8:0.35 9:0.1948 10:0.2208 11:7 12:0.2875 13:61 14:0.2 15:1 16:0.2468 17:0.3377 18:0.1977 19:0.2326 20:0.25 22:4 
-0.08460337716814317 0:8 1:24 2:16 3:6 4:0.4884 5:5 6:7 7:0.2917 8:0.2917 9:0.1977 10:0.2326 11:1 12:0.2875 13:63 14:0.25 15:1 16:0.2558 17:0.314 18:0.1977 19:0.2326 20:-1 22:4 
-0.005793348577428952 0:6 1:21 2:15 3:11 4:0.5102 5:4 6:5 7:0.2857 8:0.1905 9:0.2551 10:0.2245 11:1 12:0.1954 13:1 14:0.2381 15:4 16:0.2857 17:0.2347 18:0.2551 19:0.2245 20:-1 22:4 
-0.08160125052779095 0:9 1:24 2:11 3:5 4:0.49 5:6 6:8 7:0.3 8:0.1 9:0.2151 10:0.2473 11:5 12:0.2105 13:5 14:0.3 15:8 16:0.2581 17:0.2796 18:0.21 19:0.25 20:-1 22:2 
-0.07194233338395965 0:9 1:21 2:13 3:5 4:0.49 5:6 6:8 7:0.4286 8:0.0952 9:0.2 10:0.2444 11:8 12:0.2105 13:8 14:0.2381 15:8 16:0.2667 17:0.2889 18:0.21 19:0.25 20:-1 22:2 
-0.110659476368946 0:5 1:11 2:18 3:6 4:0.3495 5:8 6:6 7:0.3333 8:0.2381 9:0.3038 10:0.1266 11:18 12:0.1959 13:8 14:0.381 15:2 16:0.2152 17:0.3544 18:0.3107 19:0.1359 20:0.3636 22:4 
-0.055259930950314 0:5 1:21 2:17 3:20 4:0.3564 5:8 6:4 7:0.15 8:0.3 9:0.3402 10:0.2062 11:3 12:0.2346 13:3 14:0.25 15:3 16:0.1649 17:0.2887 18:0.3366 19:0.198 20:-1 22:2 
-0.04102686618144778 0:4 1:19 2:16 3:20 4:0.3564 5:8 6:4 7:0.25 8:0.25 9:0.3441 10:0.1935 11:5 12:0.2346 13:74 14:0.3333 15:3 16:0.172 17:0.2903 18:0.3366 19:0.198 22:2 
-0.01860742124462363 0:7 1:26 2:11 3:12 4:0.3301 5:3 6:6 7:0.0833 8:0.5 9:0.2553 10:0.1915 11:10 12:0.1978 13:10 14:0.2917 15:17 16:0.1383 17:0.4149 18:0.2718 19:0.2039 20:-1 22:2 
-0.07907785234155291 0:7 1:22 2:12 3:12 4:0.3301 5:3 6:6 7:0.1429 8:0.5238 9:0.2333 10:0.2 11:14 12:0.1978 13:14 14:0.1905 15:17 16:0.1444 17:0.4222 18:0.2718 19:0.2039 20:-1 22:2 
-0.1267265726409099 0:6 1:18 2:14 3:12 4:0.3301 5:3 6:6 7:0.15 8:0.3 9:0.2326 10:0.1977 11:1 12:0.1978 13:84 14:0.35 15:17 16:0.1512 17:0.4186 18:0.2718 19:0.2039 20:-1 22:2 
-0.2040148912284938 0:7 1:19 2:16 3:12 4:0.5 5:4 6:8 7:0.2083 8:0.2083 9:0.2069 10:0.2414 11:10 12:0.266 13:74 14:0.2917 15:1 16:0.2644 17:0.2874 18:0.217 19:0.2453 20:0.3333 22:1 
-0.1131731299690238 0:3 1:21 2:14 3:4 4:0.4286 5:4 6:4 7:0.35 8:0.2 9:0.2469 10:0.2222 11:19 12:0.2277 13:68 14:0.15 15:12 16:0.2346 17:0.2963 18:0.2952 19:0.219 20:0.1667 22:6 
-0.04814546590579972 0:3 1:17 2:19 3:4 4:0.4286 5:4 6:4 7:0.25 8:0.3333 9:0.274 10:0.2055 11:23 12:0.2277 13:11 14:0.1667 15:12 16:0.2329 17:0.2877 18:0.2952 19:0.219 20:0.3 22:5 
-0.04510884200681609 0:7 1:15 2:19 3:4 4:0.3981 5:3 6:8 7:0.3333 9:0.2529 10:0.1609 11:9 12:0.1717 13:72 14:0.4583 15:1 16:0.2414 17:0.3448 18:0.2621 19:0.1553 20:0.1429 22:7 
-0.002514347267984718 0:7 1:24 2:17 3:16 4:0.4054 5:4 6:7 7:0.375 8:0.375 9:0.2593 10:0.1759 11:3 12:0.2526 13:2 14:0.125 15:1 16:0.2407 17:0.3241 18:0.2703 19:0.1712 22:4 
-0.009435605176948731 0:6 1:17 2:17 3:16 4:0.4054 5:4 6:7 7:0.2273 8:0.5 9:0.2581 10:0.172 11:11 12:0.2526 13:9 14:0.1818 15:1 16:0.2151 17:0.3548 18:0.2703 19:0.1712 20:0.4118 22:3 
-0.0007876277565212955 0:5 1:13 2:16 3:16 4:0.4054 5:4 6:7 7:0.1905 8:0.2857 9:0.2651 10:0.1687 11:16 12:0.2526 13:76 14:0.2857 15:1 16:0.2048 17:0.3614 18:0.2703 19:0.1712 20:0.4074 22:3 
-0.02595666752521397 0:5 1:16 2:16 3:6 4:0.2844 5:6 6:6 7:0.2381 8:0.4286 9:0.3222 10:0.1111 11:9 12:0.233 13:82 14:0.2857 15:2 16:0.1667 17:0.4 18:0.3303 19:0.1193 20:0.5 22:5 
-0.03761873662364632 0:7 1:27 2:15 3:5 4:0.3786 5:6 6:7 7:0.2174 8:0.3913 9:0.2872 10:0.1702 11:7 12:0.2755 13:78 14:0.1739 15:4 16:0.1915 17:0.3511 18:0.2718 19:0.1748 22:3 
-0.05545539301513336 0:2 1:7 2:18 3:6 4:0.3253 5:3 6:4 7:0.0833 8:0.4167 9:0.3061 10:0.1837 11:19 12:0.1558 13:43 14:0.25 15:1 16:0.1633 17:0.3469 18:0.3012 19:0.1446 20:0.1515 22:1 
-0.03323155093370752 0:4 1:12 2:18 3:6 4:0.3253 5:3 6:4 7:0.25 8:0.35 9:0.2875 10:0.15 11:3 12:0.1558 13:62 14:0.3 15:1 16:0.1875 17:0.375 18:0.3012 19:0.1446 22:4 
-0.05706026384525979 0:4 1:10 2:20 3:6 4:0.3253 5:3 6:4 7:0.1818 8:0.4545 9:0.2973 10:0.1622 11:6 12:0.1558 13:57 14:0.2273 15:1 16:0.1757 17:0.3649 18:0.3012 19:0.1446 20:0.25 22:3 
-0.05252516607141602 0:3 1:14 2:13 3:4 4:0.5 5:4 6:6 7:0.35 8:0.05 9:0.22 10:0.24 11:21 12:0.2738 13:49 14:0.4 15:1 16:0.32 17:0.22 18:0.2386 19:0.2159 20:0.2432 22:1 
-0.01774445959916592 0:5 1:19 2:15 3:4 4:0.4176 5:5 6:5 7:0.2381 8:0.3333 9:0.2716 10:0.1975 11:8 12:0.2184 13:4 14:0.1429 15:6 16:0.2469 17:0.284 18:0.3077 19:0.1868 22:3 
-0.005390431454109057 0:5 1:19 2:17 3:4 4:0.4176 5:5 6:5 7:0.2609 8:0.3478 9:0.2771 10:0.1928 11:3 12:0.2184 13:3 14:0.1304 15:6 16:0.241 17:0.2892 18:0.3077 19:0.1868 20:-1 22:3 
-0.07804439259443405 0:2 1:8 2:16 3:11 4:0.5052 5:3 6:4 7:0.2609 8:0.087 9:0.1961 10:0.2941 11:29 12:0.1744 13:47 14:0.3043 15:10 16:0.2353 17:0.2745 18:0.2474 19:0.2887 20:0.2 22:1 
-0.07794427580346086 0:4 1:7 2:12 3:11 4:0.3778 5:4 6:6 7:0.0476 8:0.3333 9:0.3095 10:0.2857 11:28 12:0.2278 13:48 14:0.3333 15:1 16:0.119 17:0.2857 18:0.3 19:0.2 20:0.234 
-0.0439359002809453 0:7 1:19 2:19 3:11 4:0.3778 5:4 6:6 7:0.1667 8:0.4583 9:0.3 10:0.2 11:1 12:0.2278 13:67 14:0.1667 15:1 16:0.1778 17:0.3222 18:0.3 19:0.2 20:-1 22:3 
-0.09363396480276377 0:7 1:21 2:19 3:3 4:0.55 5:6 6:6 7:0.2083 8:0.125 9:0.25 10:0.3125 11:1 12:0.2468 13:57 14:0.3333 15:1 16:0.2375 17:0.2 18:0.25 19:0.3125 20:-1 22:1 
-0.01932346121105699 0:6 1:19 2:17 3:3 4:0.55 5:6 6:6 7:0.2273 8:0.0909 9:0.2206 10:0.3382 11:7 12:0.2468 13:53 14:0.2727 15:1 16:0.25 17:0.1912 18:0.25 19:0.3125 22:1 
-0.1076054396783449 0:1 1:2 2:21 3:9 4:0.3516 5:1 6:1 7:0.0909 8:0.4091 9:0.3562 10:0.2055 11:3 12:0.0244 13:3 14:0.1818 15:16 16:0.1781 17:0.2603 18:0.3626 19:0.1758 20:-1 
-0.001220086268680476 0:1 1:2 2:20 3:9 4:0.3516 5:1 6:1 7:0.2857 8:0.1429 9:0.3662 10:0.1972 11:18 12:0.0244 13:54 14:0.4762 15:16 16:0.169 17:0.2676 18:0.3626 19:0.1758 
-0.2406415973861018 0:3 1:10 2:18 3:14 4:0.3011 5:3 6:3 7:0.15 8:0.3 9:0.2763 10:0.1579 11:11 12:0.1266 13:8 14:0.25 15:6 16:0.1447 17:0.4211 18:0.3118 19:0.1613 22:3 
-0.06172090801132572 0:4 1:19 2:16 3:14 4:0.3011 5:3 6:3 7:0.2381 8:0.2857 9:0.3118 10:0.1613 11:1 12:0.1266 13:1 14:0.3333 15:6 16:0.1398 17:0.3871 18:0.3118 19:0.1613 20:-1 22:3 
-0.01756996937233565 0:4 1:13 2:15 3:14 4:0.3011 5:3 6:3 7:0.05 8:0.35 9:0.2759 10:0.1724 11:4 12:0.1266 13:71 14:0.35 15:6 16:0.1494 17:0.4023 18:0.3118 19:0.1613 20:-1 22:3 
-0.06567133263245094 0:7 1:24 2:17 3:7 4:0.5408 5:6 6:6 7:0.25 8:0.0417 9:0.1765 10:0.2706 11:14 12:0.2418 13:62 14:0.2917 15:15 16:0.2588 17:0.2941 18:0.2041 19:0.3061 20:-1 22:1 
-0.1707480475795149 0:3 1:15 2:11 3:7 4:0.5408 5:6 6:6 7:0.2857 8:0.2381 9:0.18 10:0.22 11:33 12:0.2418 13:47 14:0.2381 15:15 16:0.28 17:0.32 18:0.2041 19:0.3061 20:0.2121 22:1 
-0.1118386823206131 0:6 1:22 2:19 3:7 4:0.5408 5:6 6:6 7:0.25 8:0.0833 9:0.1687 10:0.2651 11:16 12:0.2418 13:60 14:0.2917 15:15 16:0.2651 17:0.3012 18:0.2041 19:0.3061 20:-1 22:1 
-0.0009831351054648829 0:5 1:23 2:18 3:5 4:0.4494 5:4 6:5 7:0.2083 8:0.3333 9:0.2738 10:0.1905 11:4 12:0.2738 13:3 14:0.2917 15:1 16:0.25 17:0.2857 18:0.2697 19:0.191 22:3 
-0.007131691162141835 0:5 1:23 2:18 3:5 4:0.4494 5:4 6:5 7:0.2917 8:0.25 9:0.2738 10:0.1905 11:4 12:0.2738 13:63 14:0.2083 15:1 16:0.25 17:0.2857 18:0.2697 19:0.191 22:3 
-0.03446837002572576 0:2 1:8 2:14 3:6 4:0.5 5:3 6:6 7:0.1 8:0.4 9:0.2381 10:0.1905 11:25 12:0.2073 13:46 14:0.35 15:1 16:0.1667 17:0.4048 18:0.2045 19:0.25 20:0.2 22:3 
-0.0842628117688172 0:5 1:15 2:14 3:18 4:0.4151 5:4 6:5 7:0.2 8:0.3 9:0.1978 10:0.1758 11:14 12:0.1705 13:14 14:0.35 15:13 16:0.2418 17:0.3846 18:0.2547 19:0.1792 20:-1 22:4 
-0.1051929685658107 0:5 1:21 2:15 3:14 4:0.4681 5:6 6:5 7:0.3333 8:0.375 9:0.1839 10:0.1954 11:5 12:0.2625 13:67 14:0.1667 15:1 16:0.2644 17:0.3563 18:0.1915 19:0.2021 22:3 
-0.07795920735088568 0:5 1:21 2:14 3:14 4:0.4681 5:6 6:5 7:0.4 8:0.3 9:0.1868 10:0.1978 11:3 12:0.2625 13:73 14:0.15 15:1 16:0.2637 17:0.3516 18:0.1915 19:0.2021 22:3 
-0.01565729428975175 0:5 1:21 2:18 3:14 4:0.4681 5:6 6:5 7:0.1667 8:0.2917 9:0.191 10:0.191 11:4 12:0.2625 13:3 14:0.2083 15:1 16:0.2584 17:0.3596 18:0.1915 19:0.2021 22:3 
-0.4810716740304957 0:5 1:12 2:18 3:8 4:0.3723 5:2 6:6 7:0.25 8:0.4 9:0.2949 10:0.1538 11:9 12:0.1628 13:9 14:0.25 15:2 16:0.1795 17:0.3718 18:0.2872 19:0.1596 20:0.1667 22:3 
-0.315822876846008 0:7 1:16 2:17 3:10 4:0.4845 5:4 6:7 7:0.25 8:0.15 9:0.2273 10:0.2045 11:6 12:0.1839 13:73 14:0.35 15:1 16:0.2727 17:0.2955 18:0.2165 19:0.2062 22:4 
-0.1215981356016039 0:7 1:16 2:17 3:10 4:0.4845 5:4 6:7 7:0.35 8:0.15 9:0.2188 10:0.2083 11:2 12:0.1839 13:77 14:0.2 15:1 16:0.2812 17:0.2917 18:0.2165 19:0.2062 20:-1 22:5 
-0.001696160538781107 0:5 1:16 2:19 3:12 4:0.4255 5:4 6:6 7:0.3043 8:0.2609 9:0.275 10:0.2125 11:9 12:0.2073 13:9 14:0.3478 15:1 16:0.1625 17:0.35 18:0.2447 19:0.234 20:0.0769 22:4 
-0.03975275490366232 0:5 1:16 2:19 3:12 4:0.4255 5:4 6:6 7:0.0435 8:0.4348 9:0.275 10:0.2125 11:9 12:0.2073 13:66 14:0.2609 15:1 16:0.1625 17:0.35 18:0.2447 19:0.234 20:0.0769 22:4 
-0.03914646838024895 0:4 1:25 2:12 3:9 4:0.4571 5:5 6:5 7:0.4091 8:0.5 9:0.2297 10:0.1892 11:22 12:0.3125 13:11 14:0.0909 15:11 16:0.2297 17:0.3514 18:0.2381 19:0.2476 20:0.2941 22:3 
-0.06919683521896727 0:6 1:14 2:20 3:7 4:0.3084 5:4 6:6 7:0.1667 8:0.375 9:0.3373 10:0.1446 11:15 12:0.17 13:71 14:0.25 15:5 16:0.1807 17:0.3373 18:0.3738 19:0.1308 20:0.2 22:4 
-0.04747691356272595 0:7 1:22 2:15 3:7 4:0.3084 5:4 6:6 7:0.2381 8:0.381 9:0.3495 10:0.1359 11:3 12:0.17 13:3 14:0.2857 15:5 16:0.1845 17:0.3301 18:0.3738 19:0.1308 20:-1 22:6 
-0.005010769664010663 0:6 1:21 2:13 3:13 4:0.4054 5:5 6:7 7:0.1905 8:0.2381 9:0.3152 10:0.1957 11:11 12:0.3163 13:10 14:0.2857 15:1 16:0.1739 17:0.3152 18:0.3153 19:0.2162 20:0.5556 22:1 
-0.0009567248923032472 0:3 1:5 2:12 3:13 4:0.4054 5:5 6:7 7:0.2381 8:0.381 9:0.3095 10:0.1905 11:36 12:0.3163 13:56 14:0.2381 15:1 16:0.1667 17:0.3333 18:0.3153 19:0.2162 20:0.3824 
-0.1025873551190744 0:3 1:8 2:22 3:22 4:0.3271 5:3 6:4 7:0.2083 8:0.2917 9:0.2935 10:0.163 11:10 12:0.1176 13:9 14:0.4167 15:1 16:0.1522 17:0.3913 18:0.2991 19:0.1682 20:0.1429 22:6 
-0.1208948633665766 0:1 1:2 2:13 3:22 4:0.3271 5:3 6:4 7:0.1304 8:0.3913 9:0.32 10:0.2 11:32 12:0.1176 13:56 14:0.2174 15:1 16:0.14 17:0.34 18:0.2991 19:0.1682 20:0.1429 22:3 
-0.1630382500682911 0:3 1:8 2:18 3:22 4:0.3271 5:3 6:4 7:0.2 8:0.3 9:0.2907 10:0.1744 11:13 12:0.1176 13:12 14:0.4 15:1 16:0.1512 17:0.3837 18:0.2991 19:0.1682 20:0.1 22:5 
-0.08121151872518566 0:3 1:8 2:20 3:22 4:0.3271 5:3 6:4 7:0.1667 8:0.5417 9:0.2907 10:0.1744 11:13 12:0.1176 13:74 14:0.125 15:1 16:0.1512 17:0.3837 18:0.2991 19:0.1682 20:0.1 22:5 
-0.07490463066481118 0:4 1:10 2:17 3:22 4:0.3271 5:3 6:4 7:0.0952 8:0.4286 9:0.31 10:0.15 11:5 12:0.1176 13:4 14:0.381 15:1 16:0.15 17:0.39 18:0.2991 19:0.1682 22:7 
-0.07988960218277702 0:5 1:7 2:17 3:8 4:0.5045 5:4 6:11 7:0.0833 8:0.2917 9:0.2245 10:0.2245 11:34 12:0.2718 13:58 14:0.25 15:2 16:0.2653 17:0.2857 18:0.1982 19:0.2252 20:0.3559 
-0.2772196956961522 0:5 1:7 2:17 3:8 4:0.5045 5:4 6:11 7:0.5 8:0.2 9:0.2245 10:0.2245 11:34 12:0.2718 13:33 14:0.2 15:2 16:0.2653 17:0.2857 18:0.1982 19:0.2252 20:0.3559 
-0.06876669001733779 0:8 1:17 2:15 3:8 4:0.5045 5:4 6:11 7:0.2273 8:0.1818 9:0.2278 10:0.2405 11:19 12:0.2718 13:75 14:0.2273 15:2 16:0.2658 17:0.2658 18:0.1982 19:0.2252 20:0.3793 22:1 
-0.120100129861604 0:9 1:22 2:16 3:8 4:0.5045 5:4 6:11 7:0.25 8:0.2083 9:0.2065 10:0.2391 11:11 12:0.2718 13:78 14:0.2083 15:2 16:0.2717 17:0.2826 18:0.1982 19:0.2252 20:0.375 22:2 
-0.1571466282412178 0:9 1:21 2:17 3:9 4:0.4907 5:3 6:9 7:0.1905 8:0.0476 9:0.27 10:0.25 11:3 12:0.2121 13:86 14:0.4762 15:6 16:0.23 17:0.25 18:0.2778 19:0.2407 20:-1 22:2 
-0.03598305412717306 0:9 1:21 2:17 3:9 4:0.4907 5:3 6:9 7:0.2917 8:0.375 9:0.2653 10:0.2551 11:8 12:0.2121 13:8 14:0.1667 15:6 16:0.2347 17:0.2449 18:0.2778 19:0.2407 22:2 
-0.05022630001265545 0:10 1:27 2:13 3:9 4:0.4907 5:3 6:9 7:0.3333 8:0.2857 9:0.283 10:0.2358 11:2 12:0.2121 13:2 14:0.1905 15:6 16:0.2453 17:0.2358 18:0.2778 19:0.2407 20:-1 22:2 
-0.12780755163275 0:3 1:7 2:13 3:9 4:0.4907 5:3 6:9 7:0.15 8:0.25 9:0.2619 10:0.2381 11:39 12:0.2121 13:58 14:0.3 15:6 16:0.1905 17:0.3095 18:0.2778 19:0.2407 20:0.2414 22:1 
-0.1762312279227211 0:4 1:19 2:17 3:6 4:0.4054 5:4 6:6 7:0.2727 8:0.2727 9:0.3133 10:0.1687 11:16 12:0.2667 13:16 14:0.2727 15:1 16:0.2289 17:0.2892 18:0.3153 19:0.2072 20:0.3333 22:3 
-0.05446703199563735 0:6 1:24 2:15 3:6 4:0.4054 5:4 6:6 7:0.15 8:0.2 9:0.3265 10:0.1735 11:8 12:0.2667 13:8 14:0.35 15:1 16:0.2041 17:0.2959 18:0.3153 19:0.2072 20:0.3333 22:3 
-0.02324170105007407 0:3 1:15 2:13 3:6 4:0.4054 5:4 6:6 7:0.3182 8:0.2273 9:0.3265 10:0.1429 11:33 12:0.2667 13:33 14:0.3636 15:1 16:0.2449 17:0.2857 18:0.3153 19:0.2072 20:0.2131 22:1 
-0.0256435161685994 0:4 1:14 2:19 3:13 4:0.3626 5:3 6:5 7:0.0833 8:0.375 9:0.3294 10:0.1765 11:5 12:0.1923 13:64 14:0.2917 15:1 16:0.1647 17:0.3294 18:0.3187 19:0.1868 20:0.2 22:4 
-0.0442635563099369 0:3 1:16 2:11 3:3 4:0.4382 5:6 6:6 7:0.3 8:0.25 9:0.3111 10:0.1333 11:24 12:0.314 13:22 14:0.35 15:1 16:0.2444 17:0.3111 18:0.2472 19:0.1798 20:0.2558 22:1 
-0.1011614339086336 0:7 1:31 2:10 3:9 4:0.4464 5:9 6:7 7:0.1905 8:0.0952 9:0.3019 10:0.217 11:6 12:0.301 13:6 14:0.4286 15:4 16:0.217 17:0.2642 18:0.2946 19:0.2321 
-0.1195342125843754 0:7 1:31 2:12 3:9 4:0.4464 5:9 6:7 7:0.2 8:0.3 9:0.3019 10:0.217 11:6 12:0.301 13:92 14:0.3 15:4 16:0.217 17:0.2642 18:0.2946 19:0.2321 
-0.008352354875127059 0:10 1:29 2:16 3:4 4:0.4679 5:4 6:9 7:0.1818 8:0.0909 9:0.2477 10:0.2385 11:1 12:0.2571 13:88 14:0.3182 15:2 16:0.2294 17:0.2844 18:0.2477 19:0.2385 20:-1 22:2 
-0.110180720288038 0:6 1:21 2:14 3:4 4:0.4679 5:4 6:9 7:0.3333 8:0.2381 9:0.2469 10:0.2346 11:19 12:0.2571 13:76 14:0.1429 15:2 16:0.2222 17:0.2963 18:0.2477 19:0.2385 20:0.2308 22:1 
-0.01362610279455433 0:3 1:11 2:15 3:4 4:0.4679 5:4 6:9 7:0.3 8:0.15 9:0.2941 10:0.1961 11:34 12:0.2571 13:62 14:0.3 15:2 16:0.2157 17:0.2941 18:0.2477 19:0.2385 20:0.2857 22:1 
-0.06623691480006366 0:8 1:31 2:11 3:4 4:0.5182 5:6 6:8 7:0.3333 8:0.1905 9:0.1782 10:0.2574 11:6 12:0.2925 13:85 14:0.2381 15:1 16:0.2772 17:0.2871 18:0.1909 19:0.2455 22:3 
-0.01815230948304519 0:6 1:23 2:15 3:4 4:0.5182 5:6 6:8 7:0.2609 8:0.2174 9:0.1928 10:0.2651 11:16 12:0.2925 13:73 14:0.2609 15:1 16:0.253 17:0.2892 18:0.1909 19:0.2455 20:0.3077 22:3 
-0.0672395548426809 0:4 1:15 2:16 3:4 4:0.5182 5:6 6:8 7:0.1667 8:0.1667 9:0.1765 10:0.3137 11:33 12:0.2925 13:55 14:0.2083 15:1 16:0.2745 17:0.2353 18:0.1909 19:0.2455 20:0.2759 22:1 
-0.04082510556451011 0:8 1:28 2:16 3:7 4:0.4685 5:7 6:7 7:0.2273 8:0.2727 9:0.1651 10:0.2385 11:2 12:0.2596 13:89 14:0.2273 15:2 16:0.2385 17:0.3578 18:0.1712 19:0.2342 20:-1 22:6 
-0.4373233480622952 0:3 1:15 2:18 3:7 4:0.4685 5:7 6:7 7:0.2083 8:0.4583 9:0.1724 10:0.1552 11:29 12:0.2596 13:27 14:0.125 15:2 16:0.2414 17:0.431 18:0.1712 19:0.2342 20:0.24 22:5 
-0.4395603604423237 0:4 1:19 2:14 3:7 4:0.4685 5:7 6:7 7:0.25 8:0.3333 9:0.1471 10:0.1912 11:24 12:0.2596 13:66 14:0.2083 15:2 16:0.25 17:0.4118 18:0.1712 19:0.2342 20:0.2 22:6 
-0.09420517999388606 0:2 1:8 2:16 3:5 4:0.4156 5:3 6:5 7:0.25 8:0.3333 9:0.2444 10:0.2 11:17 12:0.1944 13:38 14:0.2083 15:2 16:0.2222 17:0.3333 18:0.2338 19:0.1948 20:0.2143 22:3 
-1 0:2 1:8 2:18 3:5 4:0.4156 5:3 6:5 7:0.1905 8:0.2857 9:0.2245 10:0.2245 11:15 12:0.1944 13:15 14:0.2857 15:2 16:0.2449 17:0.3061 18:0.2338 19:0.1948 20:0.25 22:3 
-0.1535975993516917 0:5 1:27 2:17 3:5 4:0.4574 5:5 6:4 7:0.2083 8:0.2083 9:0.2872 10:0.234 11:1 12:0.2022 13:71 14:0.4167 15:8 16:0.2234 17:0.2553 18:0.2872 19:0.234 20:-1 22:3 
-0.0881454871220379 0:2 1:5 2:16 3:5 4:0.4574 5:5 6:4 7:0.25 8:0.4 9:0.2143 10:0.2381 11:31 12:0.2022 13:31 14:0.15 15:8 16:0.2619 17:0.2857 18:0.2872 19:0.234 20:0.3023 22:2 
-0.02612546736129031 0:5 1:21 2:12 3:5 4:0.4574 5:5 6:4 7:0.1364 8:0.2727 9:0.2955 10:0.2159 11:6 12:0.2022 13:6 14:0.3182 15:8 16:0.2159 17:0.2727 18:0.2872 19:0.234 20:-1 22:3 
-0.1078063356295315 0:4 1:12 2:18 3:15 4:0.3875 5:2 6:4 7:0.2174 8:0.3478 9:0.2785 10:0.1899 11:1 12:0.1846 13:58 14:0.2609 15:1 16:0.2025 17:0.3291 18:0.2875 19:0.1875 20:-1 22:2 
-0.1329929868298637 0:6 1:10 2:17 3:11 4:0.5584 5:2 6:5 7:0.2273 8:0.1818 9:0.1818 10:0.2727 11:1 12:0.1364 13:1 14:0.2273 15:1 16:0.2857 17:0.2597 18:0.1818 19:0.2727 20:-1 22:2 
-0.3606848539958054 0:3 1:6 2:16 3:11 4:0.5584 5:2 6:5 7:0.35 8:0.4 9:0.2041 10:0.2245 11:16 12:0.1364 13:16 14:0.05 15:1 16:0.2449 17:0.3265 18:0.1818 19:0.2727 20:0.1111 22:1 
-0.2457033493778363 0:4 1:8 2:16 3:6 4:0.434 5:6 6:6 7:0.2 8:0.45 9:0.3077 10:0.1731 11:34 12:0.23 13:64 14:0.15 15:1 16:0.1538 17:0.3654 18:0.2358 19:0.1887 20:0.283 22:2 
-0.001779237104939578 0:6 1:23 2:10 3:6 4:0.434 5:6 6:6 7:0.35 8:0.3 9:0.2424 10:0.1818 11:5 12:0.23 13:5 14:0.1 15:1 16:0.2424 17:0.3333 18:0.2358 19:0.1887 22:6 
-0.1302185670988716 0:3 1:7 2:17 3:6 4:0.434 5:6 6:6 7:0.15 8:0.2 9:0.3137 10:0.1569 11:32 12:0.23 13:32 14:0.5 15:1 16:0.1569 17:0.3725 18:0.2358 19:0.1887 20:0.2963 22:2 
-0.03068113483888023 0:4 1:13 2:13 3:4 4:0.3627 5:5 6:6 7:0.0952 8:0.381 9:0.2979 10:0.2128 11:29 12:0.1837 13:55 14:0.3333 15:6 16:0.1489 17:0.3404 18:0.3039 19:0.1961 20:0.1163 22:1 
-0.6313850347963693 0:4 1:13 2:18 3:4 4:0.3627 5:5 6:6 7:0.1739 8:0.3478 9:0.3019 10:0.2075 11:26 12:0.1837 13:26 14:0.3043 15:6 16:0.1509 17:0.3396 18:0.3039 19:0.1961 20:0.1351 22:1 
-0.09255101673772455 0:7 1:30 2:16 3:4 4:0.3627 5:5 6:6 7:0.2083 8:0.4167 9:0.3039 10:0.1961 11:1 12:0.1837 13:1 14:0.2083 15:6 16:0.1667 17:0.3333 18:0.3039 19:0.1961 20:-1 22:2 
-0.08107655044413631 0:5 1:17 2:16 3:18 4:0.4588 5:3 6:4 7:0.3478 8:0.1739 9:0.3176 10:0.2353 11:1 12:0.2388 13:63 14:0.3478 15:1 16:0.2235 17:0.2235 18:0.3176 19:0.2353 20:-1 22:1 
-0.01604229761898948 0:3 1:14 2:16 3:18 4:0.4588 5:3 6:4 7:0.2727 8:0.2273 9:0.3205 10:0.2179 11:5 12:0.2388 13:4 14:0.2273 15:1 16:0.2308 17:0.2308 18:0.3176 19:0.2353 20:0.3333 22:1 
-0.01322430966738531 0:7 1:26 2:14 3:13 4:0.4495 5:4 6:7 7:0.25 8:0.2083 9:0.2828 10:0.2626 11:7 12:0.2917 13:80 14:0.2917 15:1 16:0.2121 17:0.2424 18:0.3028 19:0.2477 20:0.25 22:3 
-0.09660275134773125 0:8 1:30 2:13 3:13 4:0.4495 5:4 6:7 7:0.1667 8:0.2083 9:0.3028 10:0.2477 11:1 12:0.2917 13:86 14:0.4167 15:1 16:0.2018 17:0.2477 18:0.3028 19:0.2477 20:-1 22:3 
-0.0822966727247464 0:6 1:25 2:11 3:13 4:0.4495 5:4 6:7 7:0.25 8:0.2 9:0.2917 10:0.2604 11:9 12:0.2917 13:82 14:0.35 15:1 16:0.2083 17:0.2396 18:0.3028 19:0.2477 20:0.2727 22:3 
-0.1036848719334045 0:6 1:22 2:15 3:6 4:0.4409 5:4 6:6 7:0.2381 8:0.1905 9:0.2841 10:0.1932 11:4 12:0.2529 13:71 14:0.3333 15:1 16:0.2386 17:0.2841 18:0.2688 19:0.1935 22:2 
