svm_type c_svc
kernel_type rbf
gamma 0.0434783
nr_class 2
total_sv 369
rho 0.925327
label 1 0
nr_sv 16 353
SV
1 0:4 1:4 2:1 3:4 4:6 5:0.3894 6:5 7:6 8:4 9:0.3182 10:0.3263 11:0.2 12:41 13:10 14:0.1364 15:0.2 16:0.2737 17:0.3186 18:0.177 21:2 22:3 23:0.9 
1 0:3 1:3 2:1 3:2 4:8 5:0.4082 6:3 7:9 8:3 9:0.3333 10:0.2472 11:0.2135 12:33 13:74 14:0.2857 15:0.2135 16:0.3258 17:0.2653 18:0.1939 21:2 22:2 23:0.73 
1 0:1 1:5 2:2 3:6 4:8 5:0.4592 6:4 7:3 8:5 9:0.2381 10:0.2289 11:0.241 12:33 13:5 14:0.0952 15:0.2651 16:0.2651 17:0.2449 18:0.2245 21:2 22:4 23:0.73 
1 0:1 1:4 2:3 3:5 4:7 5:0.4151 6:4 7:3 8:6 9:0.2381 10:0.3165 11:0.1899 12:37 13:14 14:0.2857 15:0.1899 16:0.3038 17:0.3019 18:0.2264 19:0.3636 21:1 22:3 23:0.86 
1 0:4 1:5 2:3 3:10 4:7 5:0.4273 6:1 7:3 8:8 9:0.3333 10:0.2319 11:0.2174 12:37 13:22 14:0.2381 15:0.2464 16:0.3043 17:0.2364 18:0.1909 19:0.3 22:1 23:0.67 
1 0:1 1:4 2:1 3:2 4:5 5:0.4492 6:6 7:2 8:7 9:0.2857 10:0.2609 11:0.2174 12:47 13:26 14:0.2857 15:0.2609 16:0.2609 17:0.2458 18:0.178 19:0.1489 21:2 22:2 23:0.73 
1 0:2 1:5 2:1 3:1 4:4 5:0.3077 6:4 7:6 8:5 9:0.2381 10:0.3093 11:0.1443 12:37 13:11 14:0.2857 15:0.1753 16:0.3711 17:0.2991 18:0.1368 21:1 22:3 23:1 
1 0:4 1:5 2:2 3:6 4:6 5:0.3596 6:4 7:4 8:7 9:0.2381 10:0.2609 11:0.163 12:41 13:83 14:0.2381 15:0.2065 16:0.3696 17:0.2544 18:0.1754 19:0.3333 21:1 22:4 23:0.78 
1 0:4 1:3 2:1 3:2 4:4 5:0.3826 6:6 7:5 8:5 9:0.3333 10:0.28 11:0.16 12:45 13:19 14:0.2381 15:0.2267 16:0.3333 17:0.3043 18:0.1565 19:0.2941 21:3 22:5 23:1.33 
1 0:1 1:6 2:2 3:4 4:8 5:0.3922 6:4 7:3 8:6 9:0.2 10:0.2824 11:0.2 12:36 13:70 14:0.25 15:0.2353 16:0.2824 17:0.2843 18:0.1863 21:3 22:4 23:1.12 
1 0:4 1:5 2:4 3:10 4:8 5:0.4943 6:1 7:5 8:5 9:0.3636 10:0.2055 11:0.1918 12:26 13:59 14:0.1818 15:0.2877 16:0.3151 17:0.1724 18:0.1954 19:0.25 21:1 22:1 23:0.88 
1 0:4 1:4 2:1 3:4 4:6 5:0.3679 6:3 7:6 8:4 9:0.35 10:0.2405 11:0.2152 12:39 13:15 14:0.25 15:0.2025 16:0.3418 17:0.2642 18:0.1887 21:1 22:2 23:1 
1 0:4 1:3 2:2 3:3 4:8 5:0.3947 6:5 7:4 8:7 9:0.5238 10:0.3043 11:0.1449 12:40 13:25 14:0.1905 15:0.2029 16:0.3478 17:0.2632 18:0.1667 19:0.3659 21:2 22:3 23:1 
1 0:4 1:2 2:2 3:8 4:10 5:0.4333 6:3 7:5 8:5 9:0.0476 10:0.325 11:0.2125 12:42 13:21 14:0.2857 15:0.175 16:0.2875 17:0.275 18:0.2167 19:0.2632 21:1 22:1 23:1.8 
1 0:4 1:3 2:2 3:3 4:15 5:0.4 6:4 7:2 8:3 10:0.1667 11:0.2083 12:28 13:55 14:0.2273 15:0.1944 16:0.4306 17:0.1625 18:0.2 21:3 22:3 23:0.9 
1 0:4 1:4 2:3 3:7 4:3 5:0.4286 6:2 7:2 8:5 9:0.4091 10:0.3194 11:0.1667 12:36 13:11 14:0.3182 15:0.2639 16:0.25 17:0.3077 18:0.1758 19:0.2222 22:2 23:1 
-0.03028581510077108 0:2 1:1 2:2 3:16 4:10 5:0.4333 6:3 7:5 8:5 10:0.3654 11:0.2308 12:42 13:35 14:0.25 15:0.1346 16:0.2692 17:0.275 18:0.2167 19:0.2121 23:4.5 
-0.02370173074523934 0:1 1:4 2:4 3:14 4:7 5:0.4273 6:1 7:3 8:8 9:0.2083 10:0.2182 11:0.2 12:37 13:60 14:0.125 15:0.2545 16:0.3273 17:0.2364 18:0.1909 19:0.2593 21:1 22:1 23:4 
-0.02050345227825508 0:1 1:3 2:4 3:12 4:5 5:0.4492 6:6 7:2 8:7 9:0.3333 10:0.2642 11:0.2075 12:47 13:34 14:0.2083 15:0.2642 16:0.2642 17:0.2458 18:0.178 19:0.1429 21:1 22:1 23:1.67 
-0.008800273059122371 0:3 1:5 2:2 3:10 4:4 5:0.3826 6:6 7:5 8:5 9:0.1429 10:0.3107 11:0.165 12:45 13:88 14:0.381 15:0.2233 16:0.301 17:0.3043 18:0.1565 22:5 23:5 
-0.01912917772842445 0:2 1:4 2:4 3:14 4:7 5:0.4273 6:1 7:3 8:8 9:0.2381 10:0.2281 11:0.193 12:37 13:64 14:0.1429 15:0.2456 16:0.3333 17:0.2364 18:0.1909 19:0.2692 22:1 23:0.75 
-0.1884063928415358 0:2 1:4 2:1 3:4 4:6 5:0.3679 6:3 7:6 8:4 9:0.3 10:0.2527 11:0.2088 12:39 13:9 14:0.3 15:0.1978 16:0.3407 17:0.2642 18:0.1887 21:1 22:2 23:0.82 
-0.002306480001257889 0:1 1:1 2:1 3:10 4:10 5:0.4333 6:3 7:5 8:5 9:0.3 10:0.3571 11:0.2321 12:42 13:69 14:0.4 15:0.1429 16:0.2679 17:0.275 18:0.2167 19:0.2258 23:0.9 
-0.07913972349714336 0:4 1:7 2:3 3:10 4:7 5:0.4273 6:1 7:3 8:8 9:0.3 10:0.2316 11:0.2 12:37 13:9 14:0.35 15:0.2526 16:0.3158 17:0.2364 18:0.1909 19:0.2857 22:1 23:1 
-0.02246085872157615 0:1 1:8 2:4 3:14 4:7 5:0.4273 6:1 7:3 8:8 9:0.0952 10:0.2243 11:0.1963 12:37 13:89 14:0.1429 15:0.243 16:0.3364 17:0.2364 18:0.1909 22:1 23:0.67 
-0.1324917139826657 0:2 1:4 2:3 3:7 4:6 5:0.3596 6:4 7:4 8:7 9:0.2174 10:0.2714 11:0.1429 12:41 13:70 14:0.087 15:0.2 16:0.3857 17:0.2544 18:0.1754 19:0.25 21:2 22:4 23:0.7 
-0.1381468660951936 0:1 1:3 2:3 3:5 4:4 5:0.3826 6:6 7:5 8:5 9:0.3182 10:0.2787 11:0.1639 12:45 13:26 14:0.3636 15:0.2295 16:0.3279 17:0.3043 18:0.1565 19:0.2083 21:2 22:4 23:1.71 
-0.02700110133065978 0:4 1:4 2:5 3:13 4:8 5:0.3922 6:4 7:3 8:6 9:0.1667 10:0.3396 11:0.1698 12:36 13:21 14:0.3333 15:0.1698 16:0.3208 17:0.2843 18:0.1863 19:0.1 21:1 22:1 23:1.8 
-0.009375744266675812 0:2 1:5 2:1 3:5 4:6 5:0.3679 6:3 7:6 8:4 9:0.1 10:0.2642 11:0.1887 12:39 13:87 14:0.25 15:0.1792 16:0.3679 17:0.2642 18:0.1887 19:-1 21:2 22:3 23:2.5 
-0.1484572469870823 0:1 1:5 2:2 3:6 4:5 5:0.4492 6:6 7:2 8:7 9:0.4 10:0.2469 11:0.1975 12:47 13:20 14:0.3 15:0.2716 16:0.284 17:0.2458 18:0.178 19:0.0857 21:2 22:3 23:0.4 
-0.02544562120549428 0:4 1:5 2:2 3:6 4:5 5:0.4492 6:6 7:2 8:7 9:0.1 10:0.2366 11:0.1935 12:47 13:87 14:0.15 15:0.2796 16:0.2903 17:0.2458 18:0.178 19:0.1304 21:4 22:5 23:0.9 
-0.01083476808020542 0:4 1:6 2:5 3:8 4:8 5:0.3947 6:5 7:4 8:7 10:0.275 11:0.1625 12:40 13:79 14:0.2 15:0.2125 16:0.35 17:0.2632 18:0.1667 19:0.3333 21:2 22:3 23:1.6 
-0.03000705088660338 0:1 1:5 2:4 3:14 4:10 5:0.4333 6:3 7:5 8:5 9:0.3333 10:0.2818 11:0.2182 12:42 13:92 14:0.1667 15:0.2091 16:0.2909 17:0.275 18:0.2167 21:3 22:3 23:0.6 
-0.02200224034159032 0:4 1:3 2:3 3:15 4:6 5:0.3894 6:5 7:6 8:4 9:0.2381 10:0.3725 11:0.1961 12:41 13:62 14:0.4762 15:0.1569 16:0.2745 17:0.3186 18:0.177 19:0.0714 21:1 22:1 
-0.03245831106324265 0:4 1:3 2:2 3:12 4:8 5:0.4082 6:3 7:9 8:3 9:0.1 10:0.2642 11:0.2075 12:33 13:24 14:0.35 15:0.1698 16:0.3585 17:0.2653 18:0.1939 23:0.9 
-0.04825904854555799 0:-1 1:3 2:4 3:12 4:5 5:0.4492 6:6 7:2 8:7 9:0.2727 10:0.2667 11:0.2 12:47 13:38 14:0.1818 15:0.2667 16:0.2667 17:0.2458 18:0.178 19:0.1268 21:1 22:1 23:1.5 
-0.03763058704055865 0:4 1:4 2:2 3:14 4:6 5:0.3679 6:3 7:6 8:4 9:0.2381 10:0.2388 11:0.2239 12:39 13:21 14:0.2381 15:0.194 16:0.3433 17:0.2642 18:0.1887 22:1 23:2 
-0.07739454594479023 0:3 1:6 2:3 3:10 4:7 5:0.4151 6:4 7:3 8:6 9:0.25 10:0.303 11:0.2121 12:37 13:4 14:0.25 15:0.1919 16:0.2929 17:0.3019 18:0.2264 21:2 22:4 23:0.45 
-0.03925371436259459 0:1 1:7 2:5 3:18 4:7 5:0.4273 6:1 7:3 8:8 9:0.2609 10:0.2353 11:0.1882 12:37 13:76 14:0.1739 15:0.2471 16:0.3294 17:0.2364 18:0.1909 19:0.1667 22:1 23:1.75 
-0.03520821001994497 0:4 1:5 2:2 3:6 4:5 5:0.4492 6:6 7:2 8:7 9:0.087 10:0.2366 11:0.1935 12:47 13:84 14:0.1739 15:0.2796 16:0.2903 17:0.2458 18:0.178 19:0.1304 21:4 22:5 23:0.9 
-0.007986556043472291 0:4 1:5 2:5 3:11 4:8 5:0.3922 6:4 7:3 8:6 9:0.25 10:0.3115 11:0.1803 12:36 13:54 14:0.375 15:0.2131 16:0.2951 17:0.2843 18:0.1863 19:0.0625 21:1 22:2 23:0.75 
-0.03858360874325048 0:1 1:6 2:4 3:16 4:8 5:0.4943 6:1 7:5 8:5 9:0.1739 10:0.1724 11:0.1954 12:26 13:1 14:0.1739 15:0.2989 16:0.3333 17:0.1724 18:0.1954 19:-1 21:1 22:1 23:0.43 
-0.07463622579665108 0:4 1:4 2:3 3:16 4:8 5:0.4943 6:1 7:5 8:5 9:0.5 10:0.1803 11:0.1803 12:26 13:53 14:0.0909 15:0.3115 16:0.3279 17:0.1724 18:0.1954 19:0.2 21:1 22:1 23:0.55 
-0.0193739238596513 0:2 1:4 2:2 3:14 4:6 5:0.3679 6:3 7:6 8:4 9:0.25 10:0.2388 11:0.2239 12:39 13:21 14:0.25 15:0.194 16:0.3433 17:0.2642 18:0.1887 22:1 23:5 
-0.04802765151556887 0:4 1:8 2:5 3:19 4:8 5:0.3947 6:5 7:4 8:7 9:0.4167 10:0.2632 11:0.1667 12:40 13:1 14:0.2083 15:0.2281 16:0.3421 17:0.2632 18:0.1667 19:-1 21:2 22:5 23:0.33 
-0.005684459760096457 0:1 1:7 2:4 3:15 4:8 5:0.3947 6:5 7:4 8:7 9:0.1 10:0.2685 11:0.1667 12:40 13:93 14:0.25 15:0.2222 16:0.3426 17:0.2632 18:0.1667 21:1 22:4 23:1.14 
-0.1104614902143127 0:4 1:4 2:1 3:4 4:6 5:0.3894 6:5 7:6 8:4 9:0.2857 10:0.3178 11:0.1869 12:41 13:4 14:0.1429 15:0.2056 16:0.2897 17:0.3186 18:0.177 19:-1 21:4 22:5 23:0.9 
-8.512370598386934e-05 0:4 1:3 2:2 3:12 4:8 5:0.4082 6:3 7:9 8:3 9:0.125 10:0.2615 11:0.2 12:33 13:18 14:0.2917 15:0.1846 16:0.3538 17:0.2653 18:0.1939 21:1 22:1 23:1 
-0.01439452341440502 0:2 1:8 2:4 3:9 4:5 5:0.4492 6:6 7:2 8:7 9:0.0435 10:0.2458 11:0.178 12:47 13:96 14:0.1739 15:0.2712 16:0.3051 17:0.2458 18:0.178 19:-1 21:4 22:6 23:1 
-0.003651419073915122 0:2 1:7 2:4 3:9 4:5 5:0.4492 6:6 7:2 8:7 9:0.55 10:0.2453 11:0.1887 12:47 13:7 14:0.25 15:0.2736 16:0.2925 17:0.2458 18:0.178 21:3 22:5 23:1 
-0.0202550016975244 0:4 1:4 2:2 3:7 4:4 5:0.3077 6:4 7:6 8:5 9:0.3182 10:0.3243 11:0.1216 12:37 13:75 14:0.1818 15:0.1486 16:0.4054 17:0.2991 18:0.1368 19:0.04 21:2 22:2 23:1 
-0.03861510694700367 0:4 1:6 2:4 3:14 4:8 5:0.4943 6:1 7:5 8:5 9:0.15 10:0.1765 11:0.2 12:26 13:2 14:0.15 15:0.2824 16:0.3412 17:0.1724 18:0.1954 19:-1 21:1 22:1 23:3 
-0.006260698508316263 0:1 1:5 2:2 3:7 4:6 5:0.3679 6:3 7:6 8:4 9:0.2273 10:0.2642 11:0.1887 12:39 13:1 14:0.3636 15:0.1792 16:0.3679 17:0.2642 18:0.1887 19:-1 21:2 22:3 23:0.29 
-0.04622432611722543 0:-1 1:1 2:2 3:18 4:10 5:0.4333 6:3 7:5 8:5 9:0.0476 10:0.3636 11:0.25 12:42 13:39 14:0.2381 15:0.1364 16:0.25 17:0.275 18:0.2167 19:0.1892 23:4 
-0.03840259473828264 0:-1 1:3 2:4 3:19 4:6 5:0.3894 6:5 7:6 8:4 9:0.0417 10:0.3509 11:0.2105 12:41 13:29 14:0.2083 15:0.1754 16:0.2632 17:0.3186 18:0.177 19:0.08 21:1 22:1 23:2.75 
-0.02184898914373807 0:1 1:7 2:3 3:10 4:7 5:0.4273 6:1 7:3 8:8 9:0.2 10:0.2316 11:0.2 12:37 13:84 14:0.15 15:0.2526 16:0.3158 17:0.2364 18:0.1909 19:0.2857 22:1 23:1 
-0.01468266989932664 0:-1 1:3 2:4 3:12 4:5 5:0.4492 6:6 7:2 8:7 9:0.2609 10:0.2553 11:0.2128 12:47 13:61 14:0.3043 15:0.2766 16:0.2553 17:0.2458 18:0.178 19:0.1304 21:1 22:1 23:0.6 
-0.01071307358067714 0:-1 1:3 2:4 3:11 4:6 5:0.3596 6:4 7:4 8:7 9:0.2857 10:0.3415 11:0.0732 12:41 13:56 14:0.1429 15:0.1707 16:0.4146 17:0.2544 18:0.1754 19:0.2174 21:2 22:2 23:0.57 
-0.04206312752689639 0:4 1:3 2:3 3:5 4:4 5:0.3826 6:6 7:5 8:5 9:0.1818 10:0.3265 11:0.1224 12:45 13:59 14:0.1364 15:0.1837 16:0.3673 17:0.3043 18:0.1565 19:0.1667 21:3 22:3 23:0.89 
-0.2157057397950466 0:4 1:5 2:3 3:5 4:8 5:0.3922 6:4 7:3 8:6 9:0.3 10:0.2877 11:0.1918 12:36 13:11 14:0.25 15:0.2329 16:0.2877 17:0.2843 18:0.1863 19:0.1 21:2 22:3 23:2 
-0.01187401295582338 0:4 1:5 2:4 3:14 4:10 5:0.4333 6:3 7:5 8:5 9:0.375 10:0.2941 11:0.2157 12:42 13:88 14:0.1667 15:0.1961 16:0.2941 17:0.275 18:0.2167 21:2 22:2 23:1.8 
-0.06477511967887861 0:1 1:3 2:1 3:9 4:6 5:0.3894 6:5 7:6 8:4 9:0.15 10:0.3467 11:0.2 12:41 13:20 14:0.2 15:0.1733 16:0.28 17:0.3186 18:0.177 19:0.125 21:1 22:1 23:1.5 
-0.02087758721678695 0:4 1:4 2:2 3:9 4:8 5:0.4592 6:4 7:3 8:5 9:0.2 10:0.2254 11:0.2254 12:33 13:11 14:0.1 15:0.2676 16:0.2817 17:0.2449 18:0.2245 19:0.1111 21:3 22:4 23:2.2 
-0.02761963306533839 0:2 1:4 2:5 3:20 4:7 5:0.4273 6:1 7:3 8:8 9:0.2917 10:0.2281 11:0.193 12:37 13:28 14:0.3333 15:0.2456 16:0.3333 17:0.2364 18:0.1909 19:0.2692 21:1 22:1 23:2 
-0.03025422412476057 0:4 1:4 2:4 3:15 4:4 5:0.3077 6:4 7:6 8:5 9:0.2 10:0.3393 11:0.0893 12:37 13:68 14:0.2 15:0.125 16:0.4464 17:0.2991 18:0.1368 19:0.0233 21:2 22:2 23:0.4 
-0.04473614192595074 0:3 1:5 2:2 3:10 4:4 5:0.3826 6:6 7:5 8:5 9:0.1667 10:0.3143 11:0.1619 12:45 13:86 14:0.3333 15:0.219 16:0.3048 17:0.3043 18:0.1565 21:1 22:5 23:2.75 
-0.0005729091528632324 0:2 1:6 2:3 3:16 4:4 5:0.3826 6:6 7:5 8:5 9:0.2917 10:0.3043 11:0.1565 12:45 13:1 14:0.375 15:0.2261 16:0.313 17:0.3043 18:0.1565 19:-1 21:1 22:6 23:0.5 
-0.02167496176639318 0:1 1:4 2:3 3:16 4:8 5:0.4943 6:1 7:5 8:5 9:0.2083 10:0.1803 11:0.1803 12:26 13:14 14:0.1667 15:0.3115 16:0.3279 17:0.1724 18:0.1954 19:0.2 21:1 22:1 23:1.1 
-0.01546821384582165 0:1 1:4 2:2 3:14 4:6 5:0.3679 6:3 7:6 8:4 9:0.0455 10:0.2388 11:0.2239 12:39 13:66 14:0.3182 15:0.194 16:0.3433 17:0.2642 18:0.1887 22:1 23:2.5 
-0.01330094496885507 0:3 1:6 2:4 3:12 4:10 5:0.4333 6:3 7:5 8:5 9:0.3913 10:0.275 11:0.2167 12:42 13:98 14:0.1739 15:0.2167 16:0.2917 17:0.275 18:0.2167 19:-1 21:3 22:3 23:1.12 
-0.05864994654229157 0:-1 1:2 2:3 3:8 4:3 5:0.4286 6:2 7:2 8:5 9:0.2381 10:0.3171 11:0.122 12:36 13:47 14:0.2381 15:0.2927 16:0.2683 17:0.3077 18:0.1758 19:0.1837 21:2 22:2 23:0.55 
-0.04343552363893173 0:-1 1:3 2:4 3:19 4:6 5:0.3894 6:5 7:6 8:4 9:0.05 10:0.383 11:0.1915 12:41 13:34 14:0.25 15:0.1489 16:0.2766 17:0.3186 18:0.177 19:0.0667 21:1 22:1 23:0.5 
-0.00937005183941798 0:1 1:3 2:3 3:16 4:8 5:0.4082 6:3 7:9 8:3 9:0.4 10:0.2615 11:0.2 12:33 13:63 14:0.25 15:0.1846 16:0.3538 17:0.2653 18:0.1939 21:1 22:1 23:0.5 
-0.007415405157833163 0:3 1:3 2:2 3:12 4:8 5:0.4082 6:3 7:9 8:3 9:0.1429 10:0.2615 11:0.2 12:33 13:18 14:0.2857 15:0.1846 16:0.3538 17:0.2653 18:0.1939 21:1 22:1 23:5 
-0.008848341614946187 0:1 1:6 2:3 3:12 4:8 5:0.4592 6:4 7:3 8:5 9:0.25 10:0.2421 11:0.2316 12:33 13:73 14:0.3333 15:0.2421 16:0.2842 17:0.2449 18:0.2245 19:-1 21:1 22:4 23:5 
-0.04934832418084514 0:-1 1:2 2:3 3:12 4:7 5:0.4273 6:1 7:3 8:8 9:0.25 10:0.2326 11:0.2558 12:37 13:35 14:0.25 15:0.2326 16:0.2791 17:0.2364 18:0.1909 19:0.3333 21:1 22:1 23:5 
-0.007204896842826478 0:4 1:5 2:2 3:6 4:5 5:0.4492 6:6 7:2 8:7 9:0.4545 10:0.2418 11:0.1868 12:47 13:15 14:0.2727 15:0.2747 16:0.2967 17:0.2458 18:0.178 19:0.12 21:4 22:5 23:1 
-0.003886344123880477 0:4 1:7 2:4 3:9 4:5 5:0.4492 6:6 7:2 8:7 10:0.25 11:0.1875 12:47 13:94 14:0.2273 15:0.2679 16:0.2946 17:0.2458 18:0.178 21:3 22:5 23:0.78 
-0.01387291815379556 0:1 1:4 2:1 3:3 4:4 5:0.3077 6:4 7:6 8:5 9:0.3 10:0.3095 11:0.131 12:37 13:82 14:0.2 15:0.1667 16:0.3929 17:0.2991 18:0.1368 19:0.0667 21:2 22:3 23:0.7 
-0.05442837569631982 0:4 1:5 2:4 3:11 4:6 5:0.3596 6:4 7:4 8:7 9:0.15 10:0.2568 11:0.1486 12:41 13:21 14:0.35 15:0.2027 16:0.3919 17:0.2544 18:0.1754 19:0.1667 21:2 22:4 23:0.67 
-0.07450713984352215 0:4 1:4 2:5 3:13 4:8 5:0.3922 6:4 7:3 8:6 9:0.1739 10:0.3333 11:0.1765 12:36 13:22 14:0.3478 15:0.1765 16:0.3137 17:0.2843 18:0.1863 19:0.0952 21:1 22:1 23:1.8 
-0.01658189708245792 0:4 1:6 2:4 3:9 4:8 5:0.3947 6:5 7:4 8:7 9:0.5238 10:0.266 11:0.1702 12:40 13:12 14:0.0952 15:0.2234 16:0.3404 17:0.2632 18:0.1667 19:0.5 21:1 22:3 23:1.11 
-0.01158475452862724 0:1 1:8 2:5 3:17 4:8 5:0.3947 6:5 7:4 8:7 9:0.4167 10:0.2679 11:0.1607 12:40 13:2 14:0.2083 15:0.2321 16:0.3393 17:0.2632 18:0.1667 19:-1 21:2 22:5 23:0.5 
-0.02171386561842815 0:1 1:5 2:3 3:9 4:3 5:0.4286 6:2 7:2 8:5 9:0.35 10:0.3095 11:0.1667 12:36 13:5 14:0.25 15:0.25 16:0.2738 17:0.3077 18:0.1758 22:2 23:1 
-0.1044920138261435 0:2 1:3 2:2 3:7 4:7 5:0.4151 6:4 7:3 8:6 9:0.1 10:0.3509 11:0.1579 12:37 13:25 14:0.25 15:0.1579 16:0.3333 17:0.3019 18:0.2264 19:0.2273 21:1 22:2 23:0.7 
-0.00298683991976288 0:1 1:7 2:4 3:15 4:7 5:0.4151 6:4 7:3 8:6 9:0.1429 10:0.3019 11:0.2264 12:37 13:86 14:0.2381 15:0.1887 16:0.283 17:0.3019 18:0.2264 19:-1 21:2 22:4 23:2.67 
-0.02273901947282856 0:-1 1:2 2:3 3:12 4:7 5:0.4273 6:1 7:3 8:8 9:0.2083 10:0.2444 11:0.2444 12:37 13:55 14:0.2083 15:0.2222 16:0.2889 17:0.2364 18:0.1909 19:0.3438 21:1 22:1 23:0.22 
-0.01727672632526366 0:1 1:7 2:5 3:18 4:7 5:0.4273 6:1 7:3 8:8 9:0.2917 10:0.236 11:0.191 12:37 13:12 14:0.3333 15:0.2472 16:0.3258 17:0.2364 18:0.1909 19:0.2 22:1 23:1 
-0.00344402268062376 0:1 1:3 2:2 3:6 4:5 5:0.4492 6:6 7:2 8:7 9:0.2381 10:0.2642 11:0.2075 12:47 13:66 14:0.2857 15:0.2642 16:0.2642 17:0.2458 18:0.178 19:0.1429 21:1 22:1 23:0.4 
-0.003703691589217254 0:1 1:3 2:4 3:12 4:5 5:0.4492 6:6 7:2 8:7 9:0.3 10:0.2667 11:0.2 12:47 13:38 14:0.2 15:0.2667 16:0.2667 17:0.2458 18:0.178 19:0.1268 21:1 22:1 23:1.5 
-0.04814486474703626 0:3 1:5 2:2 3:6 4:5 5:0.4492 6:6 7:2 8:7 9:0.087 10:0.2472 11:0.191 12:47 13:82 14:0.1739 15:0.2697 16:0.2921 17:0.2458 18:0.178 19:0.1111 21:3 22:4 23:1 
-0.03193427428790423 0:4 1:7 2:4 3:9 4:5 5:0.4492 6:6 7:2 8:7 9:0.5455 10:0.2404 11:0.1923 12:47 13:8 14:0.2273 15:0.2788 16:0.2885 17:0.2458 18:0.178 21:3 22:5 23:1 
-0.01232622016263767 0:1 1:5 2:2 3:10 4:4 5:0.3826 6:6 7:5 8:5 9:0.1429 10:0.3028 11:0.1651 12:45 13:91 14:0.3333 15:0.2294 16:0.3028 17:0.3043 18:0.1565 19:-1 21:1 22:6 23:0.89 
-0.01339746530032752 0:4 1:5 2:2 3:10 4:4 5:0.3826 6:6 7:5 8:5 9:0.1667 10:0.3084 11:0.1682 12:45 13:87 14:0.3333 15:0.2243 16:0.2991 17:0.3043 18:0.1565 21:1 22:5 23:1.43 
-0.01683467378800346 0:3 1:2 2:3 3:15 4:8 5:0.4943 6:1 7:5 8:5 9:0.2 10:0.2326 11:0.1395 12:26 13:23 14:0.2 15:0.2791 16:0.3488 17:0.1724 18:0.1954 19:0.2632 23:1.8 
-0.01585374544543386 0:4 1:6 2:3 3:14 4:8 5:0.4943 6:1 7:5 8:5 9:0.2 10:0.1724 11:0.1954 12:26 13:1 14:0.15 15:0.2989 16:0.3333 17:0.1724 18:0.1954 19:-1 21:1 22:1 23:0.75 
-0.03317631852049711 0:-1 1:3 2:4 3:17 4:6 5:0.3679 6:3 7:6 8:4 9:0.1304 10:0.2128 11:0.2128 12:39 13:55 14:0.087 15:0.1702 16:0.4043 17:0.2642 18:0.1887 19:0.0741 21:1 22:1 23:0.56 
-0.3048292845076974 0:4 1:6 2:4 3:9 4:8 5:0.3947 6:5 7:4 8:7 9:0.0435 10:0.266 11:0.1702 12:40 13:83 14:0.1739 15:0.2234 16:0.3404 17:0.2632 18:0.1667 19:0.5 21:2 22:3 23:1.1 
-0.02588208903092303 0:4 1:2 2:2 3:5 4:8 5:0.3947 6:5 7:4 8:7 9:0.05 10:0.3585 11:0.1132 12:40 13:66 14:0.3 15:0.1698 16:0.3585 17:0.2632 18:0.1667 19:0.2982 21:2 22:2 23:0.6 
-0.01988930906513506 0:3 1:4 2:3 3:10 4:10 5:0.4333 6:3 7:5 8:5 9:0.4091 10:0.2979 11:0.2021 12:42 13:86 14:0.1818 15:0.1915 16:0.3085 17:0.275 18:0.2167 19:0.1667 21:1 22:1 23:3 
-0.03910657991249619 0:4 1:6 2:4 3:12 4:10 5:0.4333 6:3 7:5 8:5 9:0.2381 10:0.275 11:0.2167 12:42 13:1 14:0.1429 15:0.2167 16:0.2917 17:0.275 18:0.2167 19:-1 21:3 22:3 23:0.89 
-0.05378545196204155 0:4 1:1 2:1 3:10 4:10 5:0.4333 6:3 7:5 8:5 10:0.3548 11:0.2258 12:42 13:30 14:0.2857 15:0.1452 16:0.2742 17:0.275 18:0.2167 19:0.25 23:1 
-0.003860761400947543 0:1 1:4 2:3 3:10 4:10 5:0.4333 6:3 7:5 8:5 9:0.45 10:0.2917 11:0.1979 12:42 13:89 14:0.15 15:0.1979 16:0.3125 17:0.275 18:0.2167 19:0.1818 21:2 22:2 23:1.4 
-0.20260752372453 0:3 1:5 2:3 3:9 4:3 5:0.4286 6:2 7:2 8:5 9:0.3182 10:0.3095 11:0.1667 12:36 13:5 14:0.2727 15:0.25 16:0.2738 17:0.3077 18:0.1758 22:2 23:0.78 
-0.02594854760446478 0:-1 1:3 2:4 3:17 4:6 5:0.3894 6:5 7:6 8:4 9:0.1667 10:0.4186 11:0.2093 12:41 13:55 14:0.5417 15:0.1163 16:0.2558 17:0.3186 18:0.177 19:0.0938 23:5 
-0.02609746383227949 0:4 1:7 2:5 3:16 4:7 5:0.4273 6:1 7:3 8:8 9:0.3333 10:0.2316 11:0.2 12:37 13:9 14:0.3333 15:0.2526 16:0.3158 17:0.2364 18:0.1909 19:0.2857 22:1 23:5 
-0.02245726526495439 0:1 1:7 2:4 3:9 4:5 5:0.4492 6:6 7:2 8:7 9:0.0833 10:0.2404 11:0.1923 12:47 13:88 14:0.1667 15:0.2788 16:0.2885 17:0.2458 18:0.178 21:3 22:5 23:1.25 
-0.01706352704482307 0:1 1:5 2:2 3:6 4:5 5:0.4492 6:6 7:2 8:7 9:0.1429 10:0.253 11:0.1928 12:47 13:81 14:0.1905 15:0.2651 16:0.2892 17:0.2458 18:0.178 19:0.0909 21:2 22:3 23:2.5 
-0.03143710193593437 0:4 1:3 2:3 3:8 4:5 5:0.4492 6:6 7:2 8:7 9:0.35 10:0.2553 11:0.2128 12:47 13:37 14:0.2 15:0.2766 16:0.2553 17:0.2458 18:0.178 19:0.1304 21:1 22:1 23:2 
-0.003467443907808338 0:2 1:5 2:2 3:10 4:4 5:0.3826 6:6 7:5 8:5 9:0.25 10:0.3028 11:0.1651 12:45 13:3 14:0.4 15:0.2294 16:0.3028 17:0.3043 18:0.1565 19:-1 21:1 22:6 23:1.12 
-0.9326050411683761 0:2 1:4 2:1 3:4 4:6 5:0.3679 6:3 7:6 8:4 9:0.3 10:0.2527 11:0.2088 12:39 13:9 14:0.3 15:0.1978 16:0.3407 17:0.2642 18:0.1887 21:1 22:2 23:0.82 
-0.03560092271068428 0:-1 1:1 2:2 3:10 4:8 5:0.3947 6:5 7:4 8:7 9:0.1739 10:0.4091 11:0.0909 12:40 13:37 14:0.4348 15:0.1364 16:0.3636 17:0.2632 18:0.1667 19:0.2727 21:1 22:1 23:5 
-0.05738887560510712 0:-1 1:1 2:2 3:18 4:10 5:0.4333 6:3 7:5 8:5 9:0.2273 10:0.3696 11:0.2391 12:42 13:62 14:0.5455 15:0.1304 16:0.2609 17:0.275 18:0.2167 19:0.1944 
-0.01888025123621967 0:1 1:2 2:2 3:14 4:10 5:0.4333 6:3 7:5 8:5 10:0.3382 11:0.2206 12:42 13:27 14:0.3333 15:0.1618 16:0.2794 17:0.275 18:0.2167 19:0.2 23:0.86 
-0.03981144063412915 0:1 1:5 2:3 3:9 4:3 5:0.4286 6:2 7:2 8:5 9:0.087 10:0.2955 11:0.1818 12:36 13:68 14:0.3043 15:0.2614 16:0.2614 17:0.3077 18:0.1758 22:2 23:0.82 
-0.01285095105284384 0:3 1:3 2:2 3:5 4:3 5:0.4286 6:2 7:2 8:5 9:0.15 10:0.3448 11:0.1207 12:36 13:56 14:0.25 15:0.2586 16:0.2759 17:0.3077 18:0.1758 19:0.1875 21:2 22:2 23:1.14 
-0.0282616143245338 0:4 1:4 2:2 3:13 4:6 5:0.3894 6:5 7:6 8:4 9:0.2609 10:0.3544 11:0.2025 12:41 13:74 14:0.3913 15:0.1772 16:0.2658 17:0.3186 18:0.177 21:1 22:1 
-0.01093358588049907 0:4 1:3 2:3 3:15 4:6 5:0.3894 6:5 7:6 8:4 9:0.2609 10:0.3725 11:0.1961 12:41 13:60 14:0.4783 15:0.1569 16:0.2745 17:0.3186 18:0.177 19:0.0714 21:1 22:1 23:0.71 
-0.02779738851714673 0:4 1:3 2:3 3:19 4:8 5:0.4082 6:3 7:9 8:3 9:0.0833 10:0.2745 11:0.1961 12:33 13:25 14:0.2917 15:0.1569 16:0.3725 17:0.2653 18:0.1939 23:1.29 
-0.01980618875399199 0:1 1:3 2:2 3:12 4:8 5:0.4082 6:3 7:9 8:3 9:0.1 10:0.2727 11:0.2 12:33 13:23 14:0.3 15:0.1636 16:0.3636 17:0.2653 18:0.1939 23:0.73 
-0.0354080262794389 0:-1 1:3 2:4 3:15 4:8 5:0.4592 6:4 7:3 8:5 9:0.2857 10:0.2683 11:0.1951 12:33 13:46 14:0.2381 15:0.2195 16:0.3171 17:0.2449 18:0.2245 19:0.125 21:2 22:2 23:1.5 
-0.01081118274407438 0:-1 1:2 2:3 3:15 4:7 5:0.4151 6:4 7:3 8:6 9:0.0417 10:0.375 11:0.1458 12:37 13:30 14:0.2917 15:0.125 16:0.3542 17:0.3019 18:0.2264 19:0.2075 21:2 22:2 23:4.5 
-0.02176254528235296 0:4 1:2 2:3 3:15 4:7 5:0.4151 6:4 7:3 8:6 9:0.05 10:0.381 11:0.1429 12:37 13:33 14:0.25 15:0.119 16:0.3571 17:0.3019 18:0.2264 19:0.1864 21:2 22:2 23:1 
-0.006480504406602493 0:1 1:8 2:4 3:14 4:7 5:0.4273 6:1 7:3 8:8 9:0.1667 10:0.2286 11:0.1905 12:37 13:85 14:0.125 15:0.2381 16:0.3429 17:0.2364 18:0.1909 22:1 23:2.2 
-0.006817173179941264 0:4 1:7 2:5 3:16 4:7 5:0.4273 6:1 7:3 8:8 9:0.2273 10:0.241 11:0.1928 12:37 13:76 14:0.1818 15:0.241 16:0.3253 17:0.2364 18:0.1909 19:0.2308 22:1 23:1.75 
-0.005452886745577035 0:1 1:7 2:5 3:18 4:7 5:0.4273 6:1 7:3 8:8 9:0.2273 10:0.236 11:0.191 12:37 13:79 14:0.1364 15:0.2472 16:0.3258 17:0.2364 18:0.1909 19:0.2 22:1 23:0.4 
-0.01490551133326206 0:1 1:3 2:2 3:6 4:5 5:0.4492 6:6 7:2 8:7 9:0.25 10:0.2642 11:0.2075 12:47 13:67 14:0.25 15:0.2642 16:0.2642 17:0.2458 18:0.178 19:0.1429 21:1 22:1 23:0.5 
-0.005743353686368252 0:3 1:3 2:3 3:8 4:5 5:0.4492 6:6 7:2 8:7 9:0.2381 10:0.2653 11:0.2041 12:47 13:64 14:0.3333 15:0.2653 16:0.2653 17:0.2458 18:0.178 19:0.1343 21:1 22:1 23:0.5 
-0.03712671522407507 0:-1 1:3 2:4 3:12 4:5 5:0.4492 6:6 7:2 8:7 9:0.2381 10:0.2683 11:0.1951 12:47 13:60 14:0.381 15:0.2683 16:0.2683 17:0.2458 18:0.178 19:0.12 21:1 22:1 23:0.6 
-0.1167940868665527 0:1 1:3 2:2 3:6 4:5 5:0.4492 6:6 7:2 8:7 9:0.3478 10:0.2632 11:0.193 12:47 13:32 14:0.2174 15:0.2632 16:0.2807 17:0.2458 18:0.178 19:0.1525 21:2 22:2 23:2.25 
-0.04649815020170484 0:1 1:4 2:4 3:20 4:4 5:0.3077 6:4 7:6 8:5 9:0.087 10:0.3393 11:0.0893 12:37 13:32 14:0.3478 15:0.125 16:0.4464 17:0.2991 18:0.1368 19:0.0233 21:2 22:2 23:4 
-0.009742186890705039 0:2 1:4 2:2 3:7 4:4 5:0.3077 6:4 7:6 8:5 9:0.1818 10:0.314 11:0.1279 12:37 13:17 14:0.2273 15:0.1628 16:0.3953 17:0.2991 18:0.1368 19:0.0769 21:2 22:3 23:2 
-0.002306616756115292 0:4 1:3 2:3 3:10 4:6 5:0.3596 6:4 7:4 8:7 9:0.1 10:0.3036 11:0.1071 12:41 13:30 14:0.55 15:0.1786 16:0.4107 17:0.2544 18:0.1754 19:0.2222 21:2 22:3 23:1.29 
-0.006090303287026786 0:2 1:4 2:4 3:12 4:6 5:0.3596 6:4 7:4 8:7 9:0.2273 10:0.2931 11:0.1207 12:41 13:65 14:0.0909 15:0.1724 16:0.4138 17:0.2544 18:0.1754 19:0.1923 21:2 22:3 23:0.57 
-0.02415455056180255 0:2 1:5 2:2 3:10 4:4 5:0.3826 6:6 7:5 8:5 9:0.2857 10:0.3084 11:0.1682 12:45 13:4 14:0.381 15:0.2243 16:0.2991 17:0.3043 18:0.1565 22:5 23:0.7 
-0.009205121933177074 0:4 1:3 2:3 3:13 4:6 5:0.3679 6:3 7:6 8:4 9:0.2 10:0.2 11:0.2222 12:39 13:32 14:0.3 15:0.1778 16:0.4 17:0.2642 18:0.1887 19:0.0714 21:1 22:1 23:0.88 
-0.05068926166255284 0:4 1:6 2:4 3:9 4:8 5:0.3947 6:5 7:4 8:7 9:0.0476 10:0.266 11:0.1702 12:40 13:85 14:0.1905 15:0.2234 16:0.3404 17:0.2632 18:0.1667 19:0.5 21:1 22:3 23:0.9 
-0.006414874788261849 0:2 1:5 2:3 3:10 4:10 5:0.4333 6:3 7:5 8:5 9:0.2609 10:0.2895 11:0.2105 12:42 13:95 14:0.2174 15:0.2018 16:0.2982 17:0.275 18:0.2167 21:3 22:3 23:0.9 
-0.002887589551263819 0:4 1:3 2:3 3:13 4:6 5:0.3894 6:5 7:6 8:4 9:0.3182 10:0.3509 11:0.2105 12:41 13:64 14:0.4091 15:0.1754 16:0.2632 17:0.3186 18:0.177 19:0.08 21:1 22:1 23:0.45 
-0.02523654886219501 0:1 1:5 2:2 3:10 4:6 5:0.3894 6:5 7:6 8:4 9:0.3333 10:0.3186 11:0.177 12:41 13:1 14:0.1429 15:0.2124 16:0.292 17:0.3186 18:0.177 19:-1 21:4 22:5 23:0.4 
-0.01966014769442088 0:4 1:3 2:3 3:19 4:8 5:0.4082 6:3 7:9 8:3 9:0.3333 10:0.2727 11:0.2 12:33 13:57 14:0.2857 15:0.1636 16:0.3636 17:0.2653 18:0.1939 23:0.88 
-0.04171294784992945 0:4 1:3 2:4 3:23 4:8 5:0.4082 6:3 7:9 8:3 9:0.2857 10:0.2745 11:0.1961 12:33 13:55 14:0.2381 15:0.1569 16:0.3725 17:0.2653 18:0.1939 23:0.56 
-0.171920747996388 0:3 1:3 2:2 3:7 4:7 5:0.4151 6:4 7:3 8:6 9:0.1 10:0.3443 11:0.1639 12:37 13:23 14:0.3 15:0.1639 16:0.3279 17:0.3019 18:0.2264 19:0.25 22:2 23:0.8 
-0.009079113173071389 0:4 1:2 2:3 3:15 4:7 5:0.4151 6:4 7:3 8:6 9:0.087 10:0.36 11:0.16 12:37 13:29 14:0.2174 15:0.14 16:0.34 17:0.3019 18:0.2264 19:0.2157 21:2 22:2 23:5 
-0.03553458480625121 0:3 1:8 2:4 3:14 4:7 5:0.4273 6:1 7:3 8:8 9:0.0952 10:0.2294 11:0.1927 12:37 13:90 14:0.1429 15:0.2385 16:0.3394 17:0.2364 18:0.1909 19:-1 22:1 23:0.8 
-0.03548532894426613 0:3 1:7 2:5 3:18 4:7 5:0.4273 6:1 7:3 8:8 9:0.3333 10:0.2366 11:0.1935 12:37 13:10 14:0.3333 15:0.2473 16:0.3226 17:0.2364 18:0.1909 19:0.25 22:1 23:5 
-0.0326225990316522 0:3 1:3 2:4 3:10 4:5 5:0.4492 6:6 7:2 8:7 9:0.3 10:0.2558 11:0.2093 12:47 13:62 14:0.3 15:0.2791 16:0.2558 17:0.2458 18:0.178 19:0.1233 21:1 22:1 23:0.6 
-0.004135974776156756 0:3 1:3 2:2 3:6 4:5 5:0.4492 6:6 7:2 8:7 9:0.25 10:0.2745 11:0.1961 12:47 13:66 14:0.3 15:0.2549 16:0.2745 17:0.2458 18:0.178 19:0.1385 21:1 22:1 23:0.44 
-0.02042547950172688 0:1 1:7 2:3 3:7 4:5 5:0.4492 6:6 7:2 8:7 9:0.4762 10:0.25 11:0.181 12:47 13:2 14:0.3333 15:0.2672 16:0.3017 17:0.2458 18:0.178 19:-1 21:3 22:6 23:2.25 
-0.007414797675691006 0:1 1:7 2:3 3:7 4:5 5:0.4492 6:6 7:2 8:7 10:0.2455 11:0.1909 12:47 13:95 14:0.15 15:0.2727 16:0.2909 17:0.2458 18:0.178 21:3 22:5 23:1.29 
-0.1268153957767913 0:4 1:6 2:2 3:8 4:6 5:0.3596 6:4 7:4 8:7 9:0.1905 10:0.2596 11:0.1635 12:41 13:89 14:0.2381 15:0.1923 16:0.3846 17:0.2544 18:0.1754 19:0.3333 21:1 22:4 23:1.11 
-0.2028349967873282 0:1 1:4 2:3 3:7 4:6 5:0.3596 6:4 7:4 8:7 9:0.15 10:0.2714 11:0.1429 12:41 13:23 14:0.45 15:0.2 16:0.3857 17:0.2544 18:0.1754 19:0.25 21:2 22:4 23:1.25 
-0.02122471909951914 0:-1 1:3 2:4 3:14 4:6 5:0.3596 6:4 7:4 8:7 9:0.0909 10:0.3 11:0.1 12:41 13:33 14:0.5455 15:0.18 16:0.42 17:0.2544 18:0.1754 19:0.2 21:3 22:3 23:2.25 
-0.4336167589459829 0:4 1:4 2:1 3:2 4:4 5:0.3826 6:6 7:5 8:5 9:0.35 10:0.2874 11:0.1724 12:45 13:13 14:0.2 15:0.2299 16:0.3103 17:0.3043 18:0.1565 19:0.3636 21:2 22:5 23:0.8 
-0.01281619637264337 0:-1 1:4 2:5 3:15 4:8 5:0.3922 6:4 7:3 8:6 9:0.1667 10:0.3333 11:0.1765 12:36 13:22 14:0.3333 15:0.1765 16:0.3137 17:0.2843 18:0.1863 19:0.0952 21:1 22:1 23:3 
-0.01240544581497252 0:-1 1:2 2:3 3:17 4:8 5:0.4943 6:1 7:5 8:5 9:0.2381 10:0.2326 11:0.1395 12:26 13:23 14:0.1905 15:0.2791 16:0.3488 17:0.1724 18:0.1954 19:0.2632 23:4.5 
-0.03414195101704805 0:4 1:4 2:1 3:4 4:6 5:0.3679 6:3 7:6 8:4 9:0.1364 10:0.2526 11:0.2 12:39 13:80 14:0.2727 15:0.2 16:0.3474 17:0.2642 18:0.1887 21:2 22:3 23:1.38 
-0.03689127527956428 0:2 1:3 2:1 3:10 4:6 5:0.3679 6:3 7:6 8:4 9:0.25 10:0.2131 11:0.2295 12:39 13:24 14:0.3 15:0.1967 16:0.3607 17:0.2642 18:0.1887 19:0.1 22:1 23:1.57 
-0.04220131240048635 0:2 1:7 2:5 3:17 4:8 5:0.3947 6:5 7:4 8:7 9:0.4583 10:0.2745 11:0.1667 12:40 13:8 14:0.125 15:0.2157 16:0.3431 17:0.2632 18:0.1667 21:1 22:3 
-0.004811711006281708 0:1 1:1 2:2 3:16 4:10 5:0.4333 6:3 7:5 8:5 9:0.25 10:0.3654 11:0.2308 12:42 13:63 14:0.5417 15:0.1346 16:0.2692 17:0.275 18:0.2167 19:0.2121 23:0.22 
-0.00119516933021398 0:2 1:6 2:4 3:12 4:10 5:0.4333 6:3 7:5 8:5 9:0.2083 10:0.275 11:0.2167 12:42 13:1 14:0.2083 15:0.2167 16:0.2917 17:0.275 18:0.2167 19:-1 21:3 22:3 23:0.89 
-0.02403122716544111 0:2 1:3 2:3 3:15 4:6 5:0.3894 6:5 7:6 8:4 9:0.2609 10:0.383 11:0.1915 12:41 13:58 14:0.5217 15:0.1489 16:0.2766 17:0.3186 18:0.177 19:0.0667 21:1 22:1 23:5 
-0.02456004933205047 0:1 1:3 2:3 3:19 4:8 5:0.4082 6:3 7:9 8:3 9:0.3478 10:0.2712 11:0.1864 12:33 13:57 14:0.3043 15:0.1695 16:0.3729 17:0.2653 18:0.1939 21:1 22:1 23:0.78 
-0.04639333738227958 0:3 1:3 2:2 3:12 4:8 5:0.4082 6:3 7:9 8:3 9:0.1667 10:0.2676 11:0.1972 12:33 13:15 14:0.2917 15:0.1831 16:0.3521 17:0.2653 18:0.1939 21:1 22:1 23:5 
-0.01481214274999807 0:2 1:4 2:3 3:11 4:8 5:0.4592 6:4 7:3 8:5 9:0.375 10:0.2459 11:0.1967 12:33 13:53 14:0.1667 15:0.2459 16:0.3115 17:0.2449 18:0.2245 19:0.0714 21:4 22:4 23:2.5 
-0.1407077029958501 0:1 1:6 2:3 3:9 4:8 5:0.4592 6:4 7:3 8:5 9:0.2381 10:0.2391 11:0.2391 12:33 13:73 14:0.3333 15:0.2391 16:0.2826 17:0.2449 18:0.2245 19:-1 21:1 22:4 23:2 
-0.01451776730819627 0:3 1:4 2:4 3:12 4:7 5:0.4273 6:1 7:3 8:8 9:0.2174 10:0.2264 11:0.2075 12:37 13:60 14:0.1304 15:0.2453 16:0.3208 17:0.2364 18:0.1909 19:0.2857 21:1 22:1 23:4 
-0.03136846993068842 0:1 1:9 2:4 3:11 4:7 5:0.4273 6:1 7:3 8:8 9:0.3 10:0.2364 11:0.1909 12:37 13:1 14:0.4 15:0.2364 16:0.3364 17:0.2364 18:0.1909 19:-1 22:1 23:0.83 
-0.04391229765431052 0:4 1:8 2:4 3:7 4:5 5:0.4492 6:6 7:2 8:7 9:0.5 10:0.2458 11:0.178 12:47 13:1 14:0.3 15:0.2712 16:0.3051 17:0.2458 18:0.178 19:-1 21:3 22:6 23:1 
-0.01411278272081167 0:4 1:7 2:4 3:9 4:5 5:0.4492 6:6 7:2 8:7 10:0.25 11:0.1875 12:47 13:92 14:0.2083 15:0.2679 16:0.2946 17:0.2458 18:0.178 21:3 22:5 23:0.89 
-0.03017945120717639 0:3 1:5 2:2 3:6 4:5 5:0.4492 6:6 7:2 8:7 9:0.1905 10:0.2469 11:0.1975 12:47 13:80 14:0.1429 15:0.2716 16:0.284 17:0.2458 18:0.178 19:0.0857 21:3 22:3 23:2.5 
-0.005795121321261455 0:4 1:4 2:4 3:20 4:4 5:0.3077 6:4 7:6 8:5 9:0.2273 10:0.3393 11:0.0893 12:37 13:66 14:0.2273 15:0.125 16:0.4464 17:0.2991 18:0.1368 19:0.0233 21:2 22:2 
-0.1362870561956611 0:3 1:5 2:2 3:6 4:4 5:0.3826 6:6 7:5 8:5 9:0.3182 10:0.2887 11:0.1753 12:45 13:9 14:0.2727 15:0.2268 16:0.3093 17:0.3043 18:0.1565 19:0.3333 21:2 22:5 23:0.64 
-0.02718645548854396 0:2 1:6 2:3 3:16 4:4 5:0.3826 6:6 7:5 8:5 9:0.2381 10:0.3043 11:0.1565 12:45 13:1 14:0.4286 15:0.2261 16:0.313 17:0.3043 18:0.1565 19:-1 21:1 22:6 23:0.62 
-0.001428921226297189 0:4 1:3 2:3 3:5 4:4 5:0.3826 6:6 7:5 8:5 9:0.1905 10:0.3333 11:0.1176 12:45 13:31 14:0.4286 15:0.1765 16:0.3725 17:0.3043 18:0.1565 19:0.1724 21:2 22:3 23:1 
-0.02800651846484226 0:3 1:6 2:3 3:16 4:4 5:0.3826 6:6 7:5 8:5 9:0.2609 10:0.3043 11:0.1565 12:45 13:1 14:0.3913 15:0.2261 16:0.313 17:0.3043 18:0.1565 19:-1 21:1 22:6 23:0.56 
-0.01179257016094291 0:4 1:3 2:3 3:13 4:8 5:0.4943 6:1 7:5 8:5 9:0.2 10:0.2245 11:0.1633 12:26 13:20 14:0.25 15:0.2653 16:0.3469 17:0.1724 18:0.1954 19:0.25 23:1 
-0.08364193087221436 0:1 1:2 2:2 3:5 4:8 5:0.3947 6:5 7:4 8:7 9:0.3333 10:0.3455 11:0.1273 12:40 13:32 14:0.3333 15:0.1818 16:0.3455 17:0.2632 18:0.1667 19:0.3091 21:2 22:2 23:1.57 
-0.01044504330321138 0:2 1:6 2:4 3:9 4:8 5:0.3947 6:5 7:4 8:7 9:0.5238 10:0.2717 11:0.163 12:40 13:13 14:0.0952 15:0.2174 16:0.3478 17:0.2632 18:0.1667 19:0.4444 21:1 22:3 23:1.11 
-0.01436715015099722 0:4 1:5 2:4 3:14 4:10 5:0.4333 6:3 7:5 8:5 9:0.4 10:0.2941 11:0.2157 12:42 13:92 14:0.15 15:0.1961 16:0.2941 17:0.275 18:0.2167 21:2 22:2 23:1.2 
-0.02081312791314265 0:1 1:5 2:4 3:14 4:10 5:0.4333 6:3 7:5 8:5 9:0.1818 10:0.2885 11:0.2115 12:42 13:9 14:0.2273 15:0.2019 16:0.2981 17:0.275 18:0.2167 21:3 22:3 23:0.83 
-0.0005798598251839926 0:4 1:5 2:3 3:10 4:10 5:0.4333 6:3 7:5 8:5 9:0.35 10:0.2845 11:0.2155 12:42 13:99 14:0.2 15:0.2069 16:0.2931 17:0.275 18:0.2167 21:3 22:3 23:0.9 
-0.0182968247523072 0:3 1:2 2:2 3:14 4:10 5:0.4333 6:3 7:5 8:5 9:0.35 10:0.3485 11:0.2121 12:42 13:74 14:0.3 15:0.1515 16:0.2879 17:0.275 18:0.2167 19:0.1923 23:1.4 
-0.03268620069058506 0:-1 1:2 2:3 3:8 4:3 5:0.4286 6:2 7:2 8:5 9:0.35 10:0.3171 11:0.122 12:36 13:27 14:0.4 15:0.2927 16:0.2683 17:0.3077 18:0.1758 19:0.1837 21:2 22:2 23:1.83 
-0.06644469467302402 0:4 1:3 2:3 3:9 4:3 5:0.4286 6:2 7:2 8:5 9:0.375 10:0.3448 11:0.1207 12:36 13:18 14:0.375 15:0.2586 16:0.2759 17:0.3077 18:0.1758 19:0.1875 21:2 22:2 23:1.25 
-0.08293107019305544 0:3 1:3 2:2 3:10 4:6 5:0.3894 6:5 7:6 8:4 9:0.1364 10:0.3467 11:0.2 12:41 13:20 14:0.2727 15:0.1733 16:0.28 17:0.3186 18:0.177 19:0.125 21:1 22:1 23:0.9 
-0.02488691112349833 0:-1 1:3 2:4 3:15 4:6 5:0.3894 6:5 7:6 8:4 9:0.1667 10:0.3902 11:0.2195 12:41 13:54 14:0.5 15:0.122 16:0.2683 17:0.3186 18:0.177 19:0.1212 23:5 
-0.01588786737585221 0:3 1:3 2:3 3:19 4:8 5:0.4082 6:3 7:9 8:3 9:0.0909 10:0.2745 11:0.1961 12:33 13:25 14:0.3182 15:0.1569 16:0.3725 17:0.2653 18:0.1939 23:2.25 
-0.02163799471518341 0:4 1:3 2:2 3:12 4:8 5:0.4082 6:3 7:9 8:3 9:0.125 10:0.2754 11:0.1884 12:33 13:16 14:0.2917 15:0.1739 16:0.3623 17:0.2653 18:0.1939 21:1 22:1 23:1.8 
-0.03683449770857949 0:-1 1:3 2:4 3:15 4:8 5:0.4592 6:4 7:3 8:5 9:0.1667 10:0.2353 11:0.2157 12:33 13:21 14:0.2917 15:0.2549 16:0.2941 17:0.2449 18:0.2245 19:0.1579 21:3 22:3 23:3.67 
-0.01813711410097423 0:2 1:4 2:4 3:13 4:8 5:0.4592 6:4 7:3 8:5 9:0.1667 10:0.2459 11:0.1967 12:33 13:16 14:0.25 15:0.2459 16:0.3115 17:0.2449 18:0.2245 19:0.0714 21:4 22:4 23:0.57 
-0.01377270859341753 0:4 1:2 2:2 3:9 4:7 5:0.4151 6:4 7:3 8:6 9:0.05 10:0.375 11:0.1458 12:37 13:30 14:0.25 15:0.125 16:0.3542 17:0.3019 18:0.2264 19:0.2075 21:2 22:2 23:1.5 
-0.02440194701485304 0:-1 1:2 2:3 3:15 4:7 5:0.4151 6:4 7:3 8:6 9:0.2083 10:0.375 11:0.1458 12:37 13:54 14:0.4583 15:0.125 16:0.3542 17:0.3019 18:0.2264 19:0.2075 21:2 22:2 23:0.22 
-0.1058410853694858 0:4 1:4 2:4 3:14 4:7 5:0.4273 6:1 7:3 8:8 9:0.3 10:0.2281 11:0.193 12:37 13:28 14:0.3 15:0.2456 16:0.3333 17:0.2364 18:0.1909 19:0.2692 22:1 23:0.8 
-0.02654935820507124 0:4 1:6 2:4 3:14 4:7 5:0.4273 6:1 7:3 8:8 9:0.2381 10:0.2469 11:0.1852 12:37 13:76 14:0.1905 15:0.2469 16:0.321 17:0.2364 18:0.1909 19:0.2857 22:1 23:1.17 
-0.01740462905464574 0:2 1:4 2:5 3:20 4:7 5:0.4273 6:1 7:3 8:8 9:0.3043 10:0.2182 11:0.2 12:37 13:29 14:0.3043 15:0.2545 16:0.3273 17:0.2364 18:0.1909 19:0.2593 21:1 22:1 23:1 
-0.09486583606266516 0:1 1:6 2:4 3:14 4:7 5:0.4273 6:1 7:3 8:8 9:0.3 10:0.2469 11:0.1852 12:37 13:16 14:0.35 15:0.2469 16:0.321 17:0.2364 18:0.1909 19:0.2857 22:1 23:1.2 
-0.01646681988479588 0:1 1:7 2:3 3:7 4:5 5:0.4492 6:6 7:2 8:7 9:0.5 10:0.25 11:0.181 12:47 13:2 14:0.2917 15:0.2672 16:0.3017 17:0.2458 18:0.178 19:-1 21:4 22:6 23:1 
-0.0006519453476562251 0:1 1:7 2:3 3:7 4:5 5:0.4492 6:6 7:2 8:7 9:0.4783 10:0.25 11:0.181 12:47 13:2 14:0.3043 15:0.2672 16:0.3017 17:0.2458 18:0.178 19:-1 21:4 22:6 23:1.5 
-0.03638393314524295 0:4 1:6 2:2 3:19 4:4 5:0.3077 6:4 7:6 8:5 9:0.2 10:0.2991 11:0.1368 12:37 13:1 14:0.35 15:0.1709 16:0.3932 17:0.2991 18:0.1368 19:-1 21:1 22:4 
-0.03393101184613306 0:4 1:8 2:3 3:10 4:6 5:0.3596 6:4 7:4 8:7 9:0.1 10:0.2544 11:0.1754 12:41 13:95 14:0.2 15:0.1842 16:0.386 17:0.2544 18:0.1754 19:-1 22:4 23:2.2 
-0.000585136138645817 0:-1 1:3 2:4 3:7 4:4 5:0.3826 6:6 7:5 8:5 9:0.1364 10:0.3333 11:0.1111 12:45 13:57 14:0.1818 15:0.1778 16:0.3778 17:0.3043 18:0.1565 19:0.1562 21:3 22:3 23:1 
-0.006300037114998404 0:3 1:3 2:3 3:5 4:4 5:0.3826 6:6 7:5 8:5 9:0.2083 10:0.3208 11:0.1132 12:45 13:59 14:0.1667 15:0.1887 16:0.3774 17:0.3043 18:0.1565 19:0.1786 21:4 22:4 23:0.89 
-0.00881712149113878 0:1 1:4 2:1 3:2 4:4 5:0.3826 6:6 7:5 8:5 9:0.2609 10:0.2857 11:0.1758 12:45 13:79 14:0.2174 15:0.2308 16:0.3077 17:0.3043 18:0.1565 19:0.4444 21:2 22:5 23:0.9 
-0.007429597747110234 0:3 1:6 2:3 3:14 4:4 5:0.3826 6:6 7:5 8:5 9:0.2917 10:0.3009 11:0.1593 12:45 13:2 14:0.3333 15:0.2212 16:0.3186 17:0.3043 18:0.1565 19:-1 21:2 22:6 23:0.7 
-0.01727127598300887 0:1 1:6 2:3 3:14 4:4 5:0.3826 6:6 7:5 8:5 9:0.1304 10:0.3009 11:0.1593 12:45 13:92 14:0.3043 15:0.2212 16:0.3186 17:0.3043 18:0.1565 19:-1 21:1 22:6 23:4.5 
-0.002910380671130153 0:4 1:5 2:2 3:8 4:4 5:0.3826 6:6 7:5 8:5 9:0.2917 10:0.303 11:0.1717 12:45 13:8 14:0.2917 15:0.2222 16:0.303 17:0.3043 18:0.1565 19:0.2 21:2 22:5 23:0.4 
-0.01983078762491396 0:3 1:3 2:3 3:5 4:4 5:0.3826 6:6 7:5 8:5 9:0.2273 10:0.2698 11:0.1587 12:45 13:66 14:0.1364 15:0.2381 16:0.3333 17:0.3043 18:0.1565 19:0.2174 21:3 22:5 23:0.64 
-0.1301926953830743 0:4 1:7 2:3 3:6 4:8 5:0.3922 6:4 7:3 8:6 9:0.1 10:0.2947 11:0.1895 12:36 13:76 14:0.25 15:0.2211 16:0.2947 17:0.2843 18:0.1863 19:-1 21:2 22:4 23:1.6 
-0.03714827451633396 0:-1 1:4 2:5 3:15 4:8 5:0.3922 6:4 7:3 8:6 9:0.1739 10:0.3333 11:0.1778 12:36 13:47 14:0.3478 15:0.1778 16:0.3111 17:0.2843 18:0.1863 19:0.0833 21:1 22:1 23:0.38 
-0.03856407588385583 0:-1 1:4 2:5 3:21 4:8 5:0.4943 6:1 7:5 8:5 9:0.3333 10:0.2157 11:0.1569 12:26 13:46 14:0.2083 15:0.2745 16:0.3529 17:0.1724 18:0.1954 19:0.2 23:0.4 
-0.0331441579214477 0:2 1:4 2:4 3:17 4:8 5:0.4943 6:1 7:5 8:5 9:0.35 10:0.2075 11:0.1509 12:26 13:51 14:0.2 15:0.283 16:0.3585 17:0.1724 18:0.1954 19:0.1429 23:5 
-0.04716217442435536 0:-1 1:2 2:3 3:17 4:8 5:0.4943 6:1 7:5 8:5 9:0.3636 10:0.2222 11:0.1556 12:26 13:45 14:0.2273 15:0.2889 16:0.3333 17:0.1724 18:0.1954 19:0.2778 23:0.2 
-0.01976023856616813 0:4 1:3 2:3 3:13 4:6 5:0.3679 6:3 7:6 8:4 9:0.1429 10:0.2041 11:0.2245 12:39 13:58 14:0.0952 15:0.1837 16:0.3878 17:0.2642 18:0.1887 19:0.0769 21:1 22:1 23:0.8 
-0.03359027295270767 0:2 1:1 2:2 3:16 4:10 5:0.4333 6:3 7:5 8:5 10:0.3636 11:0.25 12:42 13:39 14:0.25 15:0.1364 16:0.25 17:0.275 18:0.2167 19:0.1892 23:1.5 
-0.01782571448572904 0:4 1:5 2:4 3:14 4:10 5:0.4333 6:3 7:5 8:5 9:0.2174 10:0.287 11:0.213 12:42 13:7 14:0.2174 15:0.2037 16:0.2963 17:0.275 18:0.2167 21:3 22:3 23:1.17 
-0.02099390945134669 0:4 1:2 2:2 3:14 4:10 5:0.4333 6:3 7:5 8:5 9:0.381 10:0.3382 11:0.2206 12:42 13:74 14:0.2857 15:0.1618 16:0.2794 17:0.275 18:0.2167 19:0.2 23:1.17 
-0.02211344236645736 0:1 1:5 2:3 3:9 4:3 5:0.4286 6:2 7:2 8:5 9:0.1 10:0.2955 11:0.1818 12:36 13:71 14:0.3 15:0.2614 16:0.2614 17:0.3077 18:0.1758 22:2 23:0.64 
-0.01285041814300053 0:4 1:3 2:3 3:15 4:6 5:0.3894 6:5 7:6 8:4 9:0.05 10:0.3636 11:0.2 12:41 13:30 14:0.2 15:0.1636 16:0.2727 17:0.3186 18:0.177 19:0.0769 21:1 22:1 23:1 
-0.09971052830450508 0:3 1:3 2:2 3:10 4:6 5:0.3894 6:5 7:6 8:4 9:0.1429 10:0.3425 11:0.2055 12:41 13:21 14:0.2381 15:0.1781 16:0.274 17:0.3186 18:0.177 19:0.1176 21:1 22:1 23:1 
-0.03654921633294572 0:1 1:5 2:2 3:10 4:6 5:0.3894 6:5 7:6 8:4 9:0.25 10:0.3186 11:0.177 12:41 13:90 14:0.4167 15:0.2124 16:0.292 17:0.3186 18:0.177 19:-1 21:4 22:5 23:5 
-0.05406998558443998 0:4 1:4 2:1 3:4 4:6 5:0.3894 6:5 7:6 8:4 9:0.2381 10:0.3178 11:0.1869 12:41 13:90 14:0.381 15:0.2056 16:0.2897 17:0.3186 18:0.177 19:-1 21:4 22:5 23:1.11 
-0.03567244874851268 0:4 1:3 2:3 3:19 4:8 5:0.4082 6:3 7:9 8:3 9:0.0833 10:0.2632 11:0.193 12:33 13:22 14:0.2917 15:0.1754 16:0.3684 17:0.2653 18:0.1939 21:1 22:1 23:2 
-0.03041327016916652 0:4 1:3 2:2 3:7 4:8 5:0.4592 6:4 7:3 8:5 9:0.4 10:0.2545 11:0.2 12:33 13:54 14:0.15 15:0.2364 16:0.3091 17:0.2449 18:0.2245 19:0.1765 21:3 22:3 23:1.22 
-0.0115232103074576 0:1 1:3 2:3 3:9 4:8 5:0.4592 6:4 7:3 8:5 9:0.381 10:0.2449 11:0.2245 12:33 13:50 14:0.1429 15:0.2449 16:0.2857 17:0.2449 18:0.2245 19:0.15 21:2 22:2 23:0.73 
-0.05068583836891005 0:4 1:4 2:3 3:11 4:8 5:0.4592 6:4 7:3 8:5 9:0.35 10:0.2381 11:0.2063 12:33 13:58 14:0.2 15:0.254 16:0.3016 17:0.2449 18:0.2245 19:0.0769 21:3 22:4 23:1.4 
-0.07870783209334406 0:4 1:6 2:4 3:7 4:7 5:0.4151 6:4 7:3 8:6 9:0.2857 10:0.2967 11:0.2088 12:37 13:8 14:0.2857 15:0.1978 16:0.2967 17:0.3019 18:0.2264 19:0.4 21:2 22:4 23:1 
-0.04235457195741432 0:2 1:9 2:5 3:15 4:7 5:0.4273 6:1 7:3 8:8 9:0.3182 10:0.2364 11:0.1909 12:37 13:1 14:0.3636 15:0.2364 16:0.3364 17:0.2364 18:0.1909 19:-1 22:1 23:1.25 
-0.01188477654544709 0:-1 1:3 2:4 3:16 4:7 5:0.4273 6:1 7:3 8:8 9:0.2609 10:0.2245 11:0.2245 12:37 13:32 14:0.2609 15:0.2449 16:0.3061 17:0.2364 18:0.1909 19:0.3 21:1 22:1 23:2.5 
-0.02291932027031122 0:3 1:7 2:3 3:7 4:5 5:0.4492 6:6 7:2 8:7 10:0.2544 11:0.1842 12:47 13:97 14:0.15 15:0.2632 16:0.2982 17:0.2458 18:0.178 21:3 22:5 23:0.44 
-0.006521102682716273 0:1 1:3 2:3 3:8 4:5 5:0.4492 6:6 7:2 8:7 9:0.2174 10:0.2545 11:0.2 12:47 13:65 14:0.3043 15:0.2727 16:0.2727 17:0.2458 18:0.178 19:0.1475 21:2 22:2 23:0.22 
-0.005658344276494723 0:3 1:5 2:2 3:6 4:5 5:0.4492 6:6 7:2 8:7 9:0.0909 10:0.2472 11:0.191 12:47 13:83 14:0.1818 15:0.2697 16:0.2921 17:0.2458 18:0.178 19:0.1111 21:3 22:4 23:1.11 
-0.02737982199857689 0:3 1:4 2:4 3:15 4:4 5:0.3077 6:4 7:6 8:5 9:0.087 10:0.3281 11:0.1094 12:37 13:28 14:0.2609 15:0.1406 16:0.4219 17:0.2991 18:0.1368 19:0.0286 21:2 22:2 23:5 
-0.646702845060624 0:4 1:4 2:1 3:3 4:4 5:0.3077 6:4 7:6 8:5 9:0.2 10:0.314 11:0.1279 12:37 13:17 14:0.25 15:0.1628 16:0.3953 17:0.2991 18:0.1368 19:0.0769 21:2 22:3 23:1.43 
-0.07133756033972624 0:1 1:4 2:2 3:7 4:4 5:0.3077 6:4 7:6 8:5 9:0.3043 10:0.3158 11:0.1184 12:37 13:75 14:0.1739 15:0.1579 16:0.4079 17:0.2991 18:0.1368 19:0.0435 21:3 22:3 23:1 
-0.008385045326279919 0:1 1:4 2:4 3:13 4:4 5:0.3077 6:4 7:6 8:5 9:0.1 10:0.35 11:0.0833 12:37 13:30 14:0.3 15:0.1167 16:0.45 17:0.2991 18:0.1368 19:0.0256 21:2 22:2 23:1.75 
-0.02084588643762618 0:3 1:4 2:2 3:7 4:4 5:0.3077 6:4 7:6 8:5 9:0.3 10:0.325 11:0.1125 12:37 13:80 14:0.2 15:0.15 16:0.4125 17:0.2991 18:0.1368 19:0.0526 21:2 22:3 23:0.62 
-0.006454605746605101 0:1 1:4 2:2 3:5 4:4 5:0.3077 6:4 7:6 8:5 9:0.2857 10:0.3095 11:0.131 12:37 13:81 14:0.1905 15:0.1667 16:0.3929 17:0.2991 18:0.1368 19:0.0667 21:2 22:3 23:0.7 
-0.02578906532054078 0:-1 1:3 2:4 3:14 4:6 5:0.3596 6:4 7:4 8:7 9:0.25 10:0.3182 11:0.0909 12:41 13:56 14:0.125 15:0.1591 16:0.4318 17:0.2544 18:0.1754 19:0.1818 21:2 22:2 23:5 
-0.01407499162430876 0:1 1:8 2:4 3:14 4:6 5:0.3596 6:4 7:4 8:7 9:0.25 10:0.2544 11:0.1754 12:41 13:1 14:0.25 15:0.1842 16:0.386 17:0.2544 18:0.1754 19:-1 22:4 23:0.83 
-0.03741544709419409 0:-1 1:3 2:4 3:7 4:4 5:0.3826 6:6 7:5 8:5 9:0.25 10:0.3171 11:0.122 12:45 13:36 14:0.5 15:0.1951 16:0.3659 17:0.3043 18:0.1565 19:0.1471 21:3 22:3 23:1 
-0.01002016899636679 0:4 1:4 2:1 3:2 4:4 5:0.3826 6:6 7:5 8:5 9:0.2727 10:0.2809 11:0.1798 12:45 13:79 14:0.2273 15:0.236 16:0.3034 17:0.3043 18:0.1565 19:0.4 21:2 22:5 23:0.82 
-0.1021651566099243 0:4 1:3 2:3 3:5 4:4 5:0.3826 6:6 7:5 8:5 9:0.2917 10:0.2787 11:0.1639 12:45 13:26 14:0.3333 15:0.2295 16:0.3279 17:0.3043 18:0.1565 19:0.2083 21:2 22:4 23:1.71 
-0.05050491742902786 0:-1 1:3 2:4 3:7 4:4 5:0.3826 6:6 7:5 8:5 9:0.1667 10:0.3265 11:0.1224 12:45 13:57 14:0.1667 15:0.1837 16:0.3673 17:0.3043 18:0.1565 19:0.1667 21:3 22:3 23:0.67 
-0.02662931683620184 0:4 1:3 2:3 3:5 4:4 5:0.3826 6:6 7:5 8:5 9:0.2381 10:0.3333 11:0.1111 12:45 13:34 14:0.4762 15:0.1778 16:0.3778 17:0.3043 18:0.1565 19:0.1562 21:3 22:3 23:0.75 
-0.007705126478142334 0:1 1:5 2:2 3:4 4:4 5:0.3826 6:6 7:5 8:5 9:0.25 10:0.2842 11:0.1789 12:45 13:81 14:0.25 15:0.2316 16:0.3053 17:0.3043 18:0.1565 19:0.4286 21:2 22:5 23:2.5 
-0.4301791707405843 0:1 1:5 2:4 3:6 4:8 5:0.3922 6:4 7:3 8:6 9:0.3 10:0.2923 11:0.1846 12:36 13:15 14:0.3 15:0.2308 16:0.2923 17:0.2843 18:0.1863 19:0.0714 21:2 22:3 23:0.73 
-0.03205725737509078 0:-1 1:2 2:3 3:17 4:8 5:0.4943 6:1 7:5 8:5 9:0.2273 10:0.2326 11:0.1395 12:26 13:23 14:0.2273 15:0.2791 16:0.3488 17:0.1724 18:0.1954 19:0.2632 23:4.5 
-0.01832802512927574 0:1 1:4 2:3 3:16 4:8 5:0.4943 6:1 7:5 8:5 9:0.2273 10:0.1803 11:0.1803 12:26 13:14 14:0.1818 15:0.3115 16:0.3279 17:0.1724 18:0.1954 19:0.2 21:1 22:1 23:1.83 
-0.002016010466807138 0:-1 1:3 2:4 3:19 4:8 5:0.4943 6:1 7:5 8:5 9:0.2174 10:0.2128 11:0.1702 12:26 13:21 14:0.1739 15:0.2766 16:0.3404 17:0.1724 18:0.1954 19:0.2353 23:4 
-0.007107826965492151 0:4 1:4 2:4 3:17 4:8 5:0.4943 6:1 7:5 8:5 9:0.2083 10:0.193 11:0.1579 12:26 13:16 14:0.2083 15:0.2982 16:0.3509 17:0.1724 18:0.1954 19:0.1667 21:1 22:1 23:0.71 
-0.03751474265070337 0:3 1:4 2:5 3:19 4:8 5:0.4943 6:1 7:5 8:5 9:0.2083 10:0.2157 11:0.1569 12:26 13:19 14:0.2083 15:0.2745 16:0.3529 17:0.1724 18:0.1954 19:0.2 23:1 
-0.06862886937145318 0:4 1:6 2:5 3:8 4:8 5:0.3947 6:5 7:4 8:7 9:0.65 10:0.275 11:0.1625 12:40 13:19 15:0.2125 16:0.35 17:0.2632 18:0.1667 19:0.3333 21:2 22:3 23:0.45 
-0.03137377949372022 0:4 1:1 2:2 3:8 4:8 5:0.3947 6:5 7:4 8:7 9:0.1905 10:0.4091 11:0.0909 12:40 13:37 14:0.4762 15:0.1364 16:0.3636 17:0.2632 18:0.1667 19:0.2727 21:1 22:1 23:2 
-0.03686565297997852 0:-1 1:1 2:2 3:10 4:8 5:0.3947 6:5 7:4 8:7 9:0.0952 10:0.4091 11:0.0909 12:40 13:60 14:0.381 15:0.1364 16:0.3636 17:0.2632 18:0.1667 19:0.2727 21:1 22:1 23:0.2 
-0.03422175224684185 0:1 1:7 2:4 3:15 4:8 5:0.3947 6:5 7:4 8:7 9:0.0909 10:0.2692 11:0.1635 12:40 13:89 14:0.2727 15:0.2212 16:0.3462 17:0.2632 18:0.1667 21:2 22:4 23:5 
-0.02953682420124108 0:3 1:2 2:2 3:5 4:8 5:0.3947 6:5 7:4 8:7 9:0.35 10:0.3585 11:0.1132 12:40 13:33 14:0.4 15:0.1698 16:0.3585 17:0.2632 18:0.1667 19:0.2982 21:2 22:2 23:5 
-0.03514906416551623 0:1 1:1 2:1 3:10 4:10 5:0.4333 6:3 7:5 8:5 9:0.3043 10:0.3571 11:0.2321 12:42 13:66 14:0.4348 15:0.1429 16:0.2679 17:0.275 18:0.2167 19:0.2258 23:0.9 
-0.006177491627494652 0:4 1:1 2:1 3:10 4:10 5:0.4333 6:3 7:5 8:5 9:0.3 10:0.3519 11:0.2407 12:42 13:68 14:0.45 15:0.1481 16:0.2593 17:0.275 18:0.2167 19:0.2188 23:0.9 
-0.01340685277376313 0:1 1:5 2:3 3:10 4:10 5:0.4333 6:3 7:5 8:5 9:0.2381 10:0.2845 11:0.2155 12:42 13:3 14:0.1905 15:0.2069 16:0.2931 17:0.275 18:0.2167 21:3 22:3 23:1.11 
-0.03899899629416664 0:1 1:3 2:2 3:5 4:3 5:0.4286 6:2 7:2 8:5 9:0.1429 10:0.3333 11:0.1333 12:36 13:56 14:0.2381 15:0.2667 16:0.2667 17:0.3077 18:0.1758 19:0.2 21:2 22:2 23:1 
-0.04463269749394394 0:4 1:2 2:2 3:6 4:3 5:0.4286 6:2 7:2 8:5 9:0.15 10:0.3333 11:0.1111 12:36 13:50 14:0.25 15:0.2667 16:0.2889 17:0.3077 18:0.1758 19:0.2 21:2 22:2 23:0.6 
-0.02180183653803152 0:1 1:3 2:1 3:8 4:6 5:0.3894 6:5 7:6 8:4 9:0.3 10:0.3467 11:0.2 12:41 13:75 14:0.4 15:0.1733 16:0.28 17:0.3186 18:0.177 19:0.125 21:1 22:1 
-0.01129085033579179 0:1 1:4 2:2 3:13 4:6 5:0.3894 6:5 7:6 8:4 9:0.1818 10:0.3373 11:0.2048 12:41 13:16 14:0.2273 15:0.1928 16:0.2651 17:0.3186 18:0.177 21:2 22:2 23:2.5 
-0.03222851631402607 0:1 1:3 2:2 3:12 4:8 5:0.4082 6:3 7:9 8:3 9:0.4 10:0.2754 11:0.1884 12:33 13:65 14:0.25 15:0.1739 16:0.3623 17:0.2653 18:0.1939 21:1 22:1 23:1.11 
-0.04904200834337687 0:4 1:3 2:2 3:12 4:8 5:0.4082 6:3 7:9 8:3 9:0.35 10:0.2597 11:0.1948 12:33 13:69 14:0.25 15:0.1948 16:0.3506 17:0.2653 18:0.1939 21:2 22:2 23:0.8 
-0.005535921833325667 0:2 1:4 2:3 3:11 4:8 5:0.4592 6:4 7:3 8:5 9:0.381 10:0.2308 11:0.2154 12:33 13:58 14:0.1905 15:0.2615 16:0.2923 17:0.2449 18:0.2245 19:0.0833 21:3 22:4 23:1.17 
-0.032873250141347 0:4 1:3 2:4 3:13 4:8 5:0.4592 6:4 7:3 8:5 9:0.375 10:0.2353 11:0.2157 12:33 13:48 14:0.1667 15:0.2549 16:0.2941 17:0.2449 18:0.2245 19:0.1579 21:3 22:3 23:0.55 
-0.004441598825442371 0:-1 1:3 2:4 3:15 4:8 5:0.4592 6:4 7:3 8:5 9:0.3333 10:0.2553 11:0.2128 12:33 13:46 14:0.2083 15:0.234 16:0.2979 17:0.2449 18:0.2245 19:0.1429 21:2 22:2 23:0.3 
-0.004304504496574829 0:4 1:3 2:3 3:9 4:8 5:0.4592 6:4 7:3 8:5 9:0.4091 10:0.2353 11:0.2157 12:33 13:50 14:0.1364 15:0.2549 16:0.2941 17:0.2449 18:0.2245 19:0.1579 21:3 22:3 23:0.73 
-0.1017794908827321 0:3 1:3 2:2 3:7 4:7 5:0.4151 6:4 7:3 8:6 9:0.1304 10:0.3284 11:0.1791 12:37 13:20 14:0.2609 15:0.1791 16:0.3134 17:0.3019 18:0.2264 19:0.2941 22:2 23:1.1 
-0.01089305799077223 0:-1 1:2 2:3 3:15 4:7 5:0.4151 6:4 7:3 8:6 9:0.0476 10:0.381 11:0.1429 12:37 13:33 14:0.2857 15:0.119 16:0.3571 17:0.3019 18:0.2264 19:0.1864 21:2 22:2 23:1 
-0.01924214173497111 0:1 1:4 2:4 3:14 4:7 5:0.4273 6:1 7:3 8:8 9:0.25 10:0.2182 11:0.2 12:37 13:64 14:0.15 15:0.2545 16:0.3273 17:0.2364 18:0.1909 19:0.2593 22:1 23:1.5 
-0.0135707554436894 0:2 1:7 2:5 3:18 4:7 5:0.4273 6:1 7:3 8:8 9:0.2609 10:0.2353 11:0.1882 12:37 13:14 14:0.3043 15:0.2471 16:0.3294 17:0.2364 18:0.1909 19:0.1667 22:1 23:0.57 
-0.02435845119045812 0:3 1:7 2:5 3:18 4:7 5:0.4273 6:1 7:3 8:8 9:0.2174 10:0.2308 11:0.1978 12:37 13:79 14:0.1304 15:0.2527 16:0.3187 17:0.2364 18:0.1909 19:0.2222 22:1 23:0.25 
-0.03196732983774381 0:4 1:7 2:3 3:10 4:7 5:0.4273 6:1 7:3 8:8 9:0.1818 10:0.2424 11:0.1919 12:37 13:84 14:0.1364 15:0.2424 16:0.3232 17:0.2364 18:0.1909 19:0.4 22:1 23:1.11 
-0.02800503626857634 0:2 1:7 2:3 3:7 4:5 5:0.4492 6:6 7:2 8:7 9:0.0476 10:0.25 11:0.181 12:47 13:97 14:0.1429 15:0.2672 16:0.3017 17:0.2458 18:0.178 19:-1 21:4 22:6 23:0.44 
-0.007989379118599118 0:1 1:7 2:4 3:9 4:5 5:0.4492 6:6 7:2 8:7 9:0.0417 10:0.2455 11:0.1909 12:47 13:91 14:0.1667 15:0.2727 16:0.2909 17:0.2458 18:0.178 21:3 22:5 23:1.14 
-0.038105976064785 0:2 1:3 2:2 3:4 4:5 5:0.4492 6:6 7:2 8:7 9:0.2381 10:0.2632 11:0.193 12:47 13:68 14:0.2381 15:0.2632 16:0.2807 17:0.2458 18:0.178 19:0.1525 21:2 22:2 23:0.78 
-0.003562771747607214 0:1 1:6 2:2 3:11 4:4 5:0.3077 6:4 7:6 8:5 9:0.25 10:0.3028 11:0.1376 12:37 13:5 14:0.35 15:0.1743 16:0.3853 17:0.2991 18:0.1368 19:-1 21:2 22:4 
-0.01648359718731047 0:1 1:6 2:2 3:15 4:4 5:0.3077 6:4 7:6 8:5 9:0.2381 10:0.3009 11:0.1416 12:37 13:3 14:0.3333 15:0.1681 16:0.3894 17:0.2991 18:0.1368 19:-1 21:2 22:4 
-0.1292951315082324 0:4 1:4 2:2 3:5 4:4 5:0.3077 6:4 7:6 8:5 9:0.1905 10:0.314 11:0.1279 12:37 13:17 14:0.2381 15:0.1628 16:0.3953 17:0.2991 18:0.1368 19:0.0769 21:2 22:3 23:1.43 
-0.03371746472723613 0:1 1:6 2:2 3:19 4:4 5:0.3077 6:4 7:6 8:5 9:0.2083 10:0.2991 11:0.1368 12:37 13:1 14:0.3333 15:0.1709 16:0.3932 17:0.2991 18:0.1368 19:-1 21:2 22:4 
-0.02792368715338231 0:1 1:3 2:3 3:9 4:6 5:0.3596 6:4 7:4 8:7 9:0.25 10:0.3256 11:0.0698 12:41 13:59 14:0.1 15:0.1628 16:0.4419 17:0.2544 18:0.1754 19:0.194 21:2 22:2 23:4.5 
-0.006917604802896993 0:4 1:8 2:4 3:14 4:6 5:0.3596 6:4 7:4 8:7 9:0.1364 10:0.2544 11:0.1754 12:41 13:93 14:0.1818 15:0.1842 16:0.386 17:0.2544 18:0.1754 19:-1 22:4 23:1.2 
-0.039626867198187 0:4 1:4 2:4 3:12 4:6 5:0.3596 6:4 7:4 8:7 9:0.1667 10:0.2714 11:0.1429 12:41 13:23 14:0.4167 15:0.2 16:0.3857 17:0.2544 18:0.1754 19:0.25 21:3 22:4 23:5 
-0.007131625075000794 0:-1 1:3 2:4 3:14 4:6 5:0.3596 6:4 7:4 8:7 9:0.0833 10:0.2963 11:0.1111 12:41 13:31 14:0.5417 15:0.1852 16:0.4074 17:0.2544 18:0.1754 19:0.2143 21:3 22:3 23:2.25 
-0.08365426071441028 0:4 1:5 2:3 3:9 4:6 5:0.3596 6:4 7:4 8:7 9:0.3 10:0.2436 11:0.1667 12:41 13:77 14:0.1 15:0.2179 16:0.3718 17:0.2544 18:0.1754 19:0.1875 21:2 22:4 23:0.5 
-0.1036549304168465 0:1 1:5 2:2 3:4 4:4 5:0.3826 6:6 7:5 8:5 9:0.2381 10:0.2842 11:0.1789 12:45 13:84 14:0.2381 15:0.2316 16:0.3053 17:0.3043 18:0.1565 19:0.4286 21:1 22:5 23:2.75 
-0.1560532562744726 0:3 1:3 2:3 3:5 4:4 5:0.3826 6:6 7:5 8:5 9:0.2917 10:0.2698 11:0.1587 12:45 13:25 14:0.3333 15:0.2381 16:0.3333 17:0.3043 18:0.1565 19:0.2174 21:3 22:5 23:1.38 
-0.08050496566813975 0:4 1:4 2:1 3:2 4:4 5:0.3826 6:6 7:5 8:5 9:0.25 10:0.2809 11:0.1798 12:45 13:81 14:0.25 15:0.236 16:0.3034 17:0.3043 18:0.1565 19:0.4 21:2 22:5 23:0.91 
-0.05080829488266719 0:1 1:6 2:3 3:14 4:4 5:0.3826 6:6 7:5 8:5 9:0.15 10:0.3009 11:0.1593 12:45 13:95 14:0.3 15:0.2212 16:0.3186 17:0.3043 18:0.1565 19:-1 21:1 22:6 23:4.5 
-0.5402313807658395 0:1 1:5 2:3 3:5 4:8 5:0.3922 6:4 7:3 8:6 9:0.35 10:0.2817 11:0.1972 12:36 13:12 14:0.25 15:0.2394 16:0.2817 17:0.2843 18:0.1863 19:0.0909 21:2 22:3 23:1.25 
-0.00923492747833176 0:4 1:5 2:5 3:11 4:8 5:0.3922 6:4 7:3 8:6 9:0.2857 10:0.3115 11:0.1803 12:36 13:57 14:0.2857 15:0.2131 16:0.2951 17:0.2843 18:0.1863 19:0.0625 21:1 22:2 23:0.38 
-0.2747912443978168 0:4 1:4 2:4 3:9 4:8 5:0.3922 6:4 7:3 8:6 9:0.1905 10:0.3333 11:0.1765 12:36 13:22 14:0.381 15:0.1765 16:0.3137 17:0.2843 18:0.1863 19:0.0952 21:1 22:1 23:1 
-0.002935474609794765 0:2 1:4 2:4 3:9 4:8 5:0.3922 6:4 7:3 8:6 9:0.2 10:0.3404 11:0.1702 12:36 13:51 14:0.4 15:0.1702 16:0.3191 17:0.2843 18:0.1863 19:0.087 21:1 22:1 23:1.29 
-0.01231170376374867 0:1 1:6 2:4 3:14 4:8 5:0.4943 6:1 7:5 8:5 9:0.1364 10:0.1765 11:0.2 12:26 13:2 14:0.1818 15:0.2824 16:0.3412 17:0.1724 18:0.1954 19:-1 21:1 22:1 23:0.86 
-0.01747859212665898 0:2 1:4 2:3 3:16 4:8 5:0.4943 6:1 7:5 8:5 9:0.45 10:0.193 11:0.1579 12:26 13:53 14:0.1 15:0.2982 16:0.3509 17:0.1724 18:0.1954 19:0.1667 21:1 22:1 23:1.2 
-0.002403287207676823 0:4 1:6 2:4 3:16 4:8 5:0.4943 6:1 7:5 8:5 9:0.1905 10:0.1724 11:0.1954 12:26 13:1 14:0.1429 15:0.2989 16:0.3333 17:0.1724 18:0.1954 19:-1 21:1 22:1 23:1.5 
-0.03506608839738599 0:4 1:3 2:3 3:13 4:8 5:0.4943 6:1 7:5 8:5 9:0.2 10:0.2128 11:0.1702 12:26 13:21 14:0.2 15:0.2766 16:0.3404 17:0.1724 18:0.1954 19:0.2353 23:1.14 
-0.02190732059076093 0:3 1:4 2:3 3:16 4:8 5:0.4943 6:1 7:5 8:5 9:0.2174 10:0.1803 11:0.1803 12:26 13:14 14:0.1739 15:0.3115 16:0.3279 17:0.1724 18:0.1954 19:0.2 21:1 22:1 23:1.38 
-0.1611753609480727 0:3 1:6 2:4 3:14 4:8 5:0.4943 6:1 7:5 8:5 9:0.4091 10:0.1765 11:0.2 12:26 13:65 14:0.0909 15:0.2824 16:0.3412 17:0.1724 18:0.1954 19:-1 21:1 22:1 23:1.17 
-0.00772141149217723 0:1 1:4 2:2 3:14 4:6 5:0.3679 6:3 7:6 8:4 9:0.05 10:0.2388 11:0.2239 12:39 13:68 14:0.35 15:0.194 16:0.3433 17:0.2642 18:0.1887 22:1 23:1.25 
-0.03228966901255036 0:1 1:5 2:1 3:5 4:6 5:0.3679 6:3 7:6 8:4 9:0.1905 10:0.2642 11:0.1887 12:39 13:1 14:0.381 15:0.1792 16:0.3679 17:0.2642 18:0.1887 19:-1 21:2 22:3 23:0.2 
-0.002615043293833511 0:1 1:3 2:2 3:11 4:6 5:0.3679 6:3 7:6 8:4 9:0.0476 10:0.2105 11:0.2281 12:39 13:62 14:0.1905 15:0.193 16:0.3684 17:0.2642 18:0.1887 19:0.0909 22:1 23:0.7 
-0.04310166676278707 0:4 1:8 2:5 3:19 4:8 5:0.3947 6:5 7:4 8:7 9:0.0833 10:0.2632 11:0.1667 12:40 13:91 14:0.25 15:0.2281 16:0.3421 17:0.2632 18:0.1667 19:-1 21:3 22:5 23:1.29 
-0.04381531910209598 0:4 1:8 2:4 3:18 4:8 5:0.3947 6:5 7:4 8:7 9:0.1 10:0.2632 11:0.1667 12:40 13:95 14:0.2 15:0.2281 16:0.3421 17:0.2632 18:0.1667 19:-1 21:2 22:5 23:0.71 
-0.007049239401936421 0:1 1:3 2:3 3:7 4:8 5:0.3947 6:5 7:4 8:7 9:0.3478 10:0.3333 11:0.1228 12:40 13:31 14:0.3478 15:0.1754 16:0.3684 17:0.2632 18:0.1667 19:0.283 21:2 22:2 23:4 
-0.03202826863048602 0:1 1:1 2:1 3:10 4:10 5:0.4333 6:3 7:5 8:5 10:0.36 11:0.24 12:42 13:36 14:0.25 15:0.14 16:0.26 17:0.275 18:0.2167 19:0.2059 23:1.11 
-0.009029009672400206 0:4 1:5 2:4 3:14 4:10 5:0.4333 6:3 7:5 8:5 9:0.1739 10:0.2885 11:0.2115 12:42 13:9 14:0.2609 15:0.2019 16:0.2981 17:0.275 18:0.2167 21:3 22:3 23:1 
-0.01618192203300018 0:4 1:5 2:3 3:10 4:10 5:0.4333 6:3 7:5 8:5 9:0.2917 10:0.2845 11:0.2155 12:42 13:95 14:0.2083 15:0.2069 16:0.2931 17:0.275 18:0.2167 21:3 22:3 23:0.9 
-0.02584151703894882 0:4 1:1 2:1 3:10 4:10 5:0.4333 6:3 7:5 8:5 9:0.3 10:0.3548 11:0.2258 12:42 13:72 14:0.4 15:0.1452 16:0.2742 17:0.275 18:0.2167 19:0.25 23:1 
-0.04950678881874791 0:3 1:2 2:2 3:14 4:10 5:0.4333 6:3 7:5 8:5 10:0.3382 11:0.2206 12:42 13:27 14:0.3043 15:0.1618 16:0.2794 17:0.275 18:0.2167 19:0.2 23:0.67 
-0.05655578650615983 0:1 1:3 2:3 3:7 4:3 5:0.4286 6:2 7:2 8:5 9:0.4167 10:0.3333 11:0.1333 12:36 13:17 14:0.3333 15:0.2667 16:0.2667 17:0.3077 18:0.1758 19:0.2 21:2 22:2 23:1.33 
-0.01158502181177798 0:1 1:3 2:3 3:9 4:3 5:0.4286 6:2 7:2 8:5 9:0.1429 10:0.3519 11:0.1111 12:36 13:53 14:0.3333 15:0.2593 16:0.2778 17:0.3077 18:0.1758 19:0.1667 21:2 22:2 23:0.57 
-0.1486893966988853 0:1 1:3 2:2 3:5 4:3 5:0.4286 6:2 7:2 8:5 9:0.4091 10:0.3333 11:0.1333 12:36 13:17 14:0.3182 15:0.2667 16:0.2667 17:0.3077 18:0.1758 19:0.2 21:2 22:2 23:1 
-0.01223554061654228 0:3 1:5 2:3 3:9 4:3 5:0.4286 6:2 7:2 8:5 9:0.1 10:0.3 11:0.1778 12:36 13:72 14:0.25 15:0.2556 16:0.2667 17:0.3077 18:0.1758 19:-1 22:2 23:0.64 
-0.007723350289384024 0:4 1:3 2:3 3:12 4:6 5:0.3894 6:5 7:6 8:4 9:0.3 10:0.3636 11:0.2 12:41 13:65 14:0.4 15:0.1636 16:0.2727 17:0.3186 18:0.177 19:0.0769 21:1 22:1 23:0.7 
-0.01658347555075255 0:1 1:3 2:2 3:12 4:8 5:0.4082 6:3 7:9 8:3 9:0.0833 10:0.2698 11:0.1905 12:33 13:19 14:0.2917 15:0.1746 16:0.3651 17:0.2653 18:0.1939 21:1 22:1 23:0.82 
-0.02049357130448446 0:1 1:3 2:3 3:17 4:8 5:0.4082 6:3 7:9 8:3 9:0.381 10:0.2615 11:0.2 12:33 13:62 14:0.2381 15:0.1846 16:0.3538 17:0.2653 18:0.1939 21:1 22:1 23:0.2 
-0.0293243859972005 0:4 1:3 2:3 3:18 4:8 5:0.4082 6:3 7:9 8:3 9:0.381 10:0.2698 11:0.1905 12:33 13:61 14:0.2381 15:0.1746 16:0.3651 17:0.2653 18:0.1939 21:1 22:1 
-0.01525295429820234 0:4 1:3 2:2 3:12 4:8 5:0.4082 6:3 7:9 8:3 9:0.375 10:0.2597 11:0.1948 12:33 13:65 14:0.2083 15:0.1948 16:0.3506 17:0.2653 18:0.1939 21:2 22:2 23:1 
-0.05913183778085671 0:-1 1:3 2:4 3:25 4:8 5:0.4082 6:3 7:9 8:3 9:0.3043 10:0.2642 11:0.2075 12:33 13:54 14:0.2174 15:0.1698 16:0.3585 17:0.2653 18:0.1939 23:0.33 
-0.0308247983081893 0:3 1:4 2:2 3:9 4:8 5:0.4592 6:4 7:3 8:5 9:0.45 10:0.2319 11:0.2174 12:33 13:61 14:0.25 15:0.2609 16:0.2899 17:0.2449 18:0.2245 19:0.1 21:3 22:4 23:0.45 
-0.06585137673455019 0:2 1:4 2:2 3:9 4:8 5:0.4592 6:4 7:3 8:5 9:0.1818 10:0.2254 11:0.2254 12:33 13:11 14:0.1818 15:0.2676 16:0.2817 17:0.2449 18:0.2245 19:0.1111 21:3 22:4 23:1.22 
-0.02711694132547629 0:2 1:3 2:2 3:7 4:8 5:0.4592 6:4 7:3 8:5 9:0.381 10:0.2456 11:0.193 12:33 13:54 14:0.1429 15:0.2456 16:0.3158 17:0.2449 18:0.2245 19:0.1875 21:4 22:4 23:1.38 
-0.03498399000847266 0:-1 1:3 2:4 3:15 4:8 5:0.4592 6:4 7:3 8:5 9:0.15 10:0.2683 11:0.1951 12:33 13:26 14:0.3 15:0.2195 16:0.3171 17:0.2449 18:0.2245 19:0.125 21:2 22:2 23:1.33 
-0.01029843621554277 0:1 1:6 2:4 3:11 4:7 5:0.4151 6:4 7:3 8:6 9:0.2917 10:0.297 11:0.2178 12:37 13:3 14:0.25 15:0.198 16:0.2871 17:0.3019 18:0.2264 19:-1 21:2 22:4 23:1 
-0.03981227537703753 0:1 1:7 2:4 3:15 4:7 5:0.4151 6:4 7:3 8:6 9:0.2083 10:0.3019 11:0.2264 12:37 13:83 14:0.2083 15:0.1887 16:0.283 17:0.3019 18:0.2264 19:-1 21:2 22:4 23:3.67 
-0.07383304343035221 0:1 1:6 2:4 3:9 4:7 5:0.4151 6:4 7:3 8:6 9:0.3 10:0.3011 11:0.2043 12:37 13:7 14:0.25 15:0.1935 16:0.3011 17:0.3019 18:0.2264 19:0.25 21:2 22:4 23:0.62 
-0.03738097693600677 0:4 1:3 2:3 3:9 4:7 5:0.4151 6:4 7:3 8:6 9:0.087 10:0.3443 11:0.1639 12:37 13:23 14:0.2609 15:0.1639 16:0.3279 17:0.3019 18:0.2264 19:0.25 21:1 22:2 23:1.14 
-0.1011313482323151 0:3 1:3 2:2 3:7 4:7 5:0.4151 6:4 7:3 8:6 9:0.25 10:0.3284 11:0.1791 12:37 13:67 14:0.4 15:0.1791 16:0.3134 17:0.3019 18:0.2264 19:0.2941 22:2 23:0.82 
-0.01595036842755185 0:-1 1:3 2:4 3:14 4:7 5:0.4273 6:1 7:3 8:8 9:0.1667 10:0.234 11:0.234 12:37 13:56 14:0.2083 15:0.234 16:0.2979 17:0.2364 18:0.1909 19:0.3226 21:1 22:1 23:0.29 
-0.004489648125595427 0:1 1:7 2:4 3:14 4:7 5:0.4273 6:1 7:3 8:8 9:0.1818 10:0.2366 11:0.1935 12:37 13:81 14:0.1364 15:0.2473 16:0.3226 17:0.2364 18:0.1909 19:0.25 22:1 23:0.4 
-0.01234338977558026 0:1 1:7 2:5 3:16 4:7 5:0.4273 6:1 7:3 8:8 9:0.2174 10:0.2366 11:0.1935 12:37 13:80 14:0.1304 15:0.2473 16:0.3226 17:0.2364 18:0.1909 19:0.25 22:1 23:0.2 
-0.03208783109576035 0:4 1:2 2:3 3:8 4:7 5:0.4273 6:1 7:3 8:8 9:0.1905 10:0.2444 11:0.2444 12:37 13:58 14:0.1905 15:0.2222 16:0.2889 17:0.2364 18:0.1909 19:0.3438 21:1 22:1 23:0.67 
-0.006983681353441864 0:1 1:4 2:4 3:12 4:7 5:0.4273 6:1 7:3 8:8 9:0.25 10:0.2264 11:0.2075 12:37 13:30 14:0.35 15:0.2453 16:0.3208 17:0.2364 18:0.1909 19:0.2857 22:1 23:0.33 
-0.003303551491175931 0:2 1:8 2:4 3:9 4:5 5:0.4492 6:6 7:2 8:7 9:0.0417 10:0.2458 11:0.178 12:47 13:95 14:0.1667 15:0.2712 16:0.3051 17:0.2458 18:0.178 19:-1 21:4 22:6 23:1.5 
-0.005754853396770343 0:1 1:6 2:3 3:7 4:5 5:0.4492 6:6 7:2 8:7 9:0.4783 10:0.2396 11:0.1875 12:47 13:12 14:0.2609 15:0.2708 16:0.3021 17:0.2458 18:0.178 19:0.1 21:4 22:5 23:0.78 
-0.1099166005683657 0:3 1:5 2:2 3:6 4:5 5:0.4492 6:6 7:2 8:7 9:0.4286 10:0.2471 11:0.1882 12:47 13:18 14:0.2857 15:0.2706 16:0.2941 17:0.2458 18:0.178 19:0.0968 21:3 22:4 23:0.44 
-0.03117916904264489 0:4 1:4 2:4 3:20 4:4 5:0.3077 6:4 7:6 8:5 9:0.2083 10:0.3393 11:0.0893 12:37 13:64 14:0.2083 15:0.125 16:0.4464 17:0.2991 18:0.1368 19:0.0233 21:2 22:2 23:0.8 
-0.03346887008402261 0:2 1:4 2:4 3:20 4:4 5:0.3077 6:4 7:6 8:5 9:0.2174 10:0.3448 11:0.0862 12:37 13:66 14:0.2174 15:0.1207 16:0.4483 17:0.2991 18:0.1368 19:0.0244 21:2 22:2 
-0.02287180892280706 0:1 1:4 2:3 3:9 4:4 5:0.3077 6:4 7:6 8:5 9:0.25 10:0.3286 11:0.1143 12:37 13:71 14:0.2083 15:0.1429 16:0.4143 17:0.2991 18:0.1368 19:0.0345 21:2 22:2 23:0.6 
-0.02037830314782418 0:4 1:4 2:4 3:11 4:6 5:0.3596 6:4 7:4 8:7 9:0.1 10:0.2969 11:0.125 12:41 13:26 14:0.45 15:0.1719 16:0.4062 17:0.2544 18:0.1754 19:0.2174 21:2 22:3 23:1.75 
-0.001890734687945646 0:-1 1:3 2:4 3:14 4:6 5:0.3596 6:4 7:4 8:7 9:0.05 10:0.3043 11:0.1087 12:41 13:35 14:0.55 15:0.1739 16:0.413 17:0.2544 18:0.1754 19:0.1875 21:2 22:2 23:2.5 
-0.02303040297749875 0:3 1:3 2:3 3:5 4:4 5:0.3826 6:6 7:5 8:5 9:0.25 10:0.2698 11:0.1587 12:45 13:64 14:0.1667 15:0.2381 16:0.3333 17:0.3043 18:0.1565 19:0.2174 21:3 22:5 23:0.91 
-0.03128125525878317 0:4 1:4 2:5 3:13 4:8 5:0.3922 6:4 7:3 8:6 9:0.1739 10:0.3469 11:0.1633 12:36 13:49 14:0.3478 15:0.1633 16:0.3265 17:0.2843 18:0.1863 19:0.0909 21:1 22:1 23:0.56 
-0.01340797878818145 0:3 1:4 2:4 3:9 4:8 5:0.3922 6:4 7:3 8:6 9:0.1905 10:0.3396 11:0.1698 12:36 13:53 14:0.4286 15:0.1698 16:0.3208 17:0.2843 18:0.1863 19:0.1 22:1 23:0.89 
-0.1308605434420815 0:4 1:5 2:3 3:5 4:8 5:0.3922 6:4 7:3 8:6 9:0.25 10:0.2877 11:0.1918 12:36 13:64 14:0.25 15:0.2329 16:0.2877 17:0.2843 18:0.1863 19:0.1 21:2 22:3 23:0.8 
-0.02042794622371319 0:2 1:4 2:5 3:21 4:8 5:0.4943 6:1 7:5 8:5 9:0.3333 10:0.2075 11:0.1509 12:26 13:47 14:0.2083 15:0.283 16:0.3585 17:0.1724 18:0.1954 19:0.1429 23:2.5 
-0.02230915236102356 0:4 1:4 2:5 3:19 4:8 5:0.4943 6:1 7:5 8:5 9:0.3043 10:0.2157 11:0.1569 12:26 13:47 14:0.2174 15:0.2745 16:0.3529 17:0.1724 18:0.1954 19:0.2 23:1 
-0.02705462231741953 0:-1 1:3 2:4 3:19 4:8 5:0.4943 6:1 7:5 8:5 9:0.2083 10:0.2245 11:0.1633 12:26 13:20 14:0.2083 15:0.2653 16:0.3469 17:0.1724 18:0.1954 19:0.25 23:3.5 
-0.03892588613368445 0:4 1:3 2:3 3:13 4:8 5:0.4943 6:1 7:5 8:5 9:0.35 10:0.2245 11:0.1633 12:26 13:49 14:0.25 15:0.2653 16:0.3469 17:0.1724 18:0.1954 19:0.25 23:1.29 
-0.1119415058717051 0:2 1:5 2:2 3:7 4:6 5:0.3679 6:3 7:6 8:4 9:0.087 10:0.2692 11:0.1923 12:39 13:83 14:0.3043 15:0.1827 16:0.3558 17:0.2642 18:0.1887 19:-1 21:2 22:3 23:0.83 
-0.02073704715543367 0:2 1:5 2:2 3:7 4:6 5:0.3679 6:3 7:6 8:4 9:0.0909 10:0.2692 11:0.1923 12:39 13:84 14:0.3182 15:0.1827 16:0.3558 17:0.2642 18:0.1887 19:-1 21:2 22:3 23:0.67 
-0.2410384605910864 0:4 1:4 2:1 3:4 4:6 5:0.3679 6:3 7:6 8:4 9:0.1 10:0.2577 11:0.1959 12:39 13:83 14:0.25 15:0.1959 16:0.3505 17:0.2642 18:0.1887 21:2 22:3 23:0.62 
-0.340632093868394 0:4 1:4 2:3 3:8 4:10 5:0.4333 6:3 7:5 8:5 9:0.0952 10:0.3043 11:0.2065 12:42 13:15 14:0.2857 15:0.1848 16:0.3043 17:0.275 18:0.2167 19:0.2308 21:1 22:1 23:0.67 
-0.0541924359393717 0:3 1:5 2:3 3:10 4:10 5:0.4333 6:3 7:5 8:5 9:0.35 10:0.2797 11:0.2203 12:42 13:100 14:0.2 15:0.2119 16:0.2881 17:0.275 18:0.2167 19:-1 21:3 22:3 23:0.9 
-0.005156090109005832 0:1 1:4 2:3 3:10 4:10 5:0.4333 6:3 7:5 8:5 9:0.4348 10:0.2917 11:0.1979 12:42 13:86 14:0.1739 15:0.1979 16:0.3125 17:0.275 18:0.2167 19:0.1818 21:2 22:2 23:1.8 
-0.007064437702041612 0:1 1:5 2:4 3:14 4:10 5:0.4333 6:3 7:5 8:5 9:0.125 10:0.2941 11:0.2157 12:42 13:10 14:0.2917 15:0.1961 16:0.2941 17:0.275 18:0.2167 21:2 22:2 23:0.56 
-0.007501583154086167 0:1 1:1 2:2 3:16 4:10 5:0.4333 6:3 7:5 8:5 9:0.25 10:0.3636 11:0.25 12:42 13:63 14:0.55 15:0.1364 16:0.25 17:0.275 18:0.2167 19:0.1892 23:0.67 
-0.002072536198720538 0:4 1:5 2:3 3:10 4:10 5:0.4333 6:3 7:5 8:5 9:0.2381 10:0.2797 11:0.2203 12:42 13:2 14:0.1429 15:0.2119 16:0.2881 17:0.275 18:0.2167 19:-1 21:3 22:3 23:1.11 
-0.02176110551311183 0:3 1:2 2:2 3:14 4:10 5:0.4333 6:3 7:5 8:5 9:0.3333 10:0.3485 11:0.2121 12:42 13:70 14:0.375 15:0.1515 16:0.2879 17:0.275 18:0.2167 19:0.1923 23:1.8 
-0.04959418093759998 0:4 1:3 2:3 3:7 4:15 5:0.4 6:4 7:2 8:3 9:0.3333 10:0.1667 11:0.2167 12:28 13:11 14:0.1905 15:0.1667 16:0.45 17:0.1625 18:0.2 21:1 22:1 23:2 
-0.02555652408334148 0:4 1:3 2:3 3:7 4:15 5:0.4 6:4 7:2 8:3 9:0.35 10:0.1552 11:0.2241 12:28 13:12 14:0.2 15:0.1724 16:0.4483 17:0.1625 18:0.2 21:1 22:1 23:2 
-0.03630255789448431 0:1 1:3 2:4 3:9 4:15 5:0.4 6:4 7:2 8:3 9:0.087 10:0.1552 11:0.2241 12:28 13:47 14:0.2174 15:0.1724 16:0.4483 17:0.1625 18:0.2 21:1 22:1 23:0.62 
-0.1832073330018048 0:4 1:2 2:2 3:5 4:15 5:0.4 6:4 7:2 8:3 9:0.05 10:0.1607 11:0.2143 12:28 13:49 14:0.25 15:0.1786 16:0.4464 17:0.1625 18:0.2 19:0.0909 21:1 22:1 23:0.5 
-0.001184152772104238 0:1 1:3 2:3 3:7 4:15 5:0.4 6:4 7:2 8:3 9:0.0476 10:0.1552 11:0.2241 12:28 13:49 14:0.2381 15:0.1724 16:0.4483 17:0.1625 18:0.2 21:1 22:1 23:0.5 
-0.00762564645472346 0:3 1:2 2:3 3:8 4:3 5:0.4286 6:2 7:2 8:5 9:0.3 10:0.3256 11:0.1163 12:36 13:26 14:0.4 15:0.2791 16:0.2791 17:0.3077 18:0.1758 19:0.1915 21:2 22:2 23:1.67 
