svm_type c_svc
kernel_type rbf
gamma 0.0454545
nr_class 2
total_sv 61
rho 0.857014
label 1 0
nr_sv 5 56
SV
1 0:7 1:18 2:14 3:4 4:0.6449 5:3 6:9 7:0.35 8:0.15 9:0.125 10:0.3611 11:20 12:0.2524 13:20 14:0.1 15:3 16:0.3889 17:0.125 18:0.1682 19:0.2804 20:0.25 22:2 
1 0:8 1:22 2:17 3:4 4:0.6449 5:3 6:9 7:0.3913 8:0.1304 9:0.1477 10:0.3295 11:12 12:0.2524 13:77 14:0.2609 15:3 16:0.3864 17:0.1364 18:0.1682 19:0.2804 20:0.25 22:4 
1 0:4 1:9 2:18 3:7 4:0.5873 5:2 6:4 7:0.2273 8:0.2727 9:0.2143 10:0.2857 11:5 12:0.1607 13:5 14:0.1364 15:4 16:0.3036 17:0.1786 18:0.2381 19:0.2857 20:-1 22:2 
1 0:5 1:14 2:18 3:7 4:0.5873 5:2 6:4 7:0.4167 8:0.125 9:0.2131 10:0.2951 11:2 12:0.1607 13:39 14:0.25 15:4 16:0.2951 17:0.1803 18:0.2381 19:0.2857 20:-1 22:2 
1 0:5 1:17 2:14 3:4 4:0.6709 5:6 6:5 7:0.55 8:0.15 9:0.1846 10:0.2308 11:8 12:0.2267 13:8 14:0.15 15:3 16:0.4462 17:0.1385 18:0.1772 19:0.2025 22:5 
-0.003757037347625787 0:6 1:12 2:14 3:4 4:0.6449 5:3 6:9 7:0.4 8:0.1 9:0.08 10:0.42 11:31 12:0.2524 13:61 14:0.1 15:3 16:0.38 17:0.12 18:0.1682 19:0.2804 20:0.2593 
-0.06837973590140346 0:7 1:18 2:13 3:4 4:0.6449 5:3 6:9 7:0.4 8:0.1 9:0.125 10:0.375 11:24 12:0.2524 13:68 14:0.2 15:3 16:0.3906 17:0.1094 18:0.1682 19:0.2804 20:0.2 22:1 
-0.07073450553750127 0:9 1:26 2:18 3:4 4:0.6449 5:3 6:9 7:0.2917 8:0.2917 9:0.1635 10:0.2885 11:1 12:0.2524 13:84 14:0.25 15:3 16:0.3654 17:0.1827 18:0.1682 19:0.2804 20:-1 22:5 
-0.1059972449402118 0:6 1:21 2:16 3:4 4:0.6709 5:6 6:5 7:0.4091 8:0.2273 9:0.1818 10:0.2078 11:2 12:0.2267 13:57 14:0.0909 15:3 16:0.4545 17:0.1558 18:0.1772 19:0.2025 20:-1 22:7 
-0.02649855501001386 0:7 1:18 2:13 3:4 4:0.6449 5:3 6:9 7:0.4286 8:0.1429 9:0.1333 10:0.3667 11:26 12:0.2524 13:26 14:0.0952 15:3 16:0.3833 17:0.1167 18:0.1682 19:0.2804 20:0.1818 22:1 
-0.08877772930002523 0:9 1:26 2:16 3:4 4:0.6449 5:3 6:9 7:0.25 8:0.35 9:0.1635 10:0.2885 11:1 12:0.2524 13:88 14:0.2 15:3 16:0.3654 17:0.1827 18:0.1682 19:0.2804 20:-1 22:5 
-0.112471634710268 0:4 1:9 2:14 3:4 4:0.6449 5:3 6:9 7:0.2381 8:0.1905 9:0.0732 10:0.439 11:35 12:0.2524 13:35 14:0.0952 15:3 16:0.3659 17:0.122 18:0.1682 19:0.2804 20:0.2698 
-0.03054913849014045 0:7 1:18 2:15 3:4 4:0.6449 5:3 6:9 7:0.3636 8:0.0909 9:0.1333 10:0.3667 11:26 12:0.2524 13:64 14:0.2273 15:3 16:0.3833 17:0.1167 18:0.1682 19:0.2804 20:0.1818 22:1 
-0.03517747647285387 0:6 1:12 2:18 3:4 4:0.6449 5:3 6:9 7:0.4583 8:0.0833 9:0.0741 10:0.4074 11:29 12:0.2524 13:59 14:0.0833 15:3 16:0.3889 17:0.1296 18:0.1682 19:0.2804 20:0.28 22:1 
-0.1166537009924465 0:8 1:20 2:15 3:4 4:0.6449 5:3 6:9 7:0.3913 8:0.1739 9:0.1447 10:0.3553 11:18 12:0.2524 13:71 14:0.2174 15:3 16:0.3816 17:0.1184 18:0.1682 19:0.2804 20:0.2143 22:2 
-0.0009436690872707987 0:6 1:12 2:16 3:4 4:0.6449 5:3 6:9 7:0.3182 8:0.1364 9:0.0833 10:0.4167 11:32 12:0.2524 13:32 14:0.0909 15:3 16:0.375 17:0.125 18:0.1682 19:0.2804 20:0.25 
-0.05433010695367516 0:7 1:16 2:13 3:4 4:0.6449 5:3 6:9 7:0.4 8:0.15 9:0.1207 10:0.3793 11:27 12:0.2524 13:27 14:0.1 15:3 16:0.3793 17:0.1207 18:0.1682 19:0.2804 20:0.2174 22:1 
-0.02519110663642618 0:5 1:10 2:16 3:4 4:0.6449 5:3 6:9 7:0.2727 8:0.1364 9:0.0652 10:0.4348 11:33 12:0.2524 13:33 14:0.0909 15:3 16:0.3696 17:0.1304 18:0.1682 19:0.2804 20:0.2759 
-0.01106742606289651 0:7 1:18 2:16 3:4 4:0.6449 5:3 6:9 7:0.375 8:0.1667 9:0.129 10:0.371 11:25 12:0.2524 13:25 14:0.0833 15:3 16:0.3871 17:0.1129 18:0.1682 19:0.2804 20:0.1905 22:1 
-0.02894757507068092 0:7 1:18 2:17 3:4 4:0.6449 5:3 6:9 7:0.4167 8:0.1667 9:0.1286 10:0.3571 11:21 12:0.2524 13:67 14:0.1667 15:3 16:0.3857 17:0.1286 18:0.1682 19:0.2804 20:0.2353 22:2 
-0.1221396680099005 0:5 1:10 2:14 3:4 4:0.6449 5:3 6:9 7:0.5 8:0.1 9:0.0714 10:0.4286 11:35 12:0.2524 13:57 14:0.05 15:3 16:0.3571 17:0.1429 18:0.1682 19:0.2804 20:0.2581 
-0.6735133244833665 0:7 1:18 2:14 3:4 4:0.6449 5:3 6:9 7:0.35 8:0.15 9:0.1286 10:0.3571 11:21 12:0.2524 13:21 14:0.1 15:3 16:0.3857 17:0.1286 18:0.1682 19:0.2804 20:0.2353 22:2 
-0.06755500628288395 0:3 1:11 2:16 3:4 4:0.6709 5:6 6:5 7:0.4167 8:0.1667 9:0.2128 10:0.2553 11:18 12:0.2267 13:16 14:0.2917 15:3 16:0.4043 17:0.1277 18:0.1772 19:0.2025 20:0.2308 22:3 
-0.01653935989274125 0:8 1:20 2:17 3:4 4:0.6449 5:3 6:9 7:0.4167 8:0.125 9:0.1447 10:0.3553 11:18 12:0.2524 13:18 14:0.125 15:3 16:0.3816 17:0.1184 18:0.1682 19:0.2804 20:0.2143 22:2 
-0.01550215968663724 0:6 1:12 2:14 3:4 4:0.6449 5:3 6:9 7:0.45 8:0.1 9:0.0833 10:0.4167 11:32 12:0.2524 13:60 14:0.1 15:3 16:0.375 17:0.125 18:0.1682 19:0.2804 20:0.25 
-0.07273067502824195 0:7 1:18 2:17 3:4 4:0.6449 5:3 6:9 7:0.4167 8:0.0833 9:0.125 10:0.375 11:24 12:0.2524 13:64 14:0.2083 15:3 16:0.3906 17:0.1094 18:0.1682 19:0.2804 20:0.2 22:1 
-0.5546572387944354 0:7 1:18 2:15 3:4 4:0.6449 5:3 6:9 7:0.381 8:0.1429 9:0.1216 10:0.3649 11:19 12:0.2524 13:19 14:0.0952 15:3 16:0.3919 17:0.1216 18:0.1682 19:0.2804 20:0.2667 22:2 
-0.04330991108982729 0:7 1:18 2:13 3:4 4:0.6449 5:3 6:9 7:0.45 8:0.2 9:0.1286 10:0.3571 11:21 12:0.2524 13:71 14:0.2 15:3 16:0.3857 17:0.1286 18:0.1682 19:0.2804 20:0.2353 22:2 
-0.02738057338803765 0:7 1:18 2:15 3:4 4:0.6449 5:3 6:9 7:0.3913 8:0.1739 9:0.1333 10:0.3667 11:26 12:0.2524 13:26 14:0.087 15:3 16:0.3833 17:0.1167 18:0.1682 19:0.2804 20:0.1818 22:1 
-0.05977417506242446 0:6 1:12 2:14 3:4 4:0.6449 5:3 6:9 7:0.3 8:0.15 9:0.0833 10:0.4167 11:32 12:0.2524 13:32 14:0.1 15:3 16:0.375 17:0.125 18:0.1682 19:0.2804 20:0.25 
-0.06150339383440553 0:6 1:23 2:15 3:4 4:0.6709 5:6 6:5 7:0.6 8:0.15 9:0.1772 10:0.2025 11:1 12:0.2267 13:1 14:0.15 15:3 16:0.4684 17:0.1519 18:0.1772 19:0.2025 20:-1 22:7 
-0.08593913006805097 0:4 1:12 2:14 3:4 4:0.6709 5:6 6:5 7:0.4762 8:0.1429 9:0.1852 10:0.2407 11:14 12:0.2267 13:13 14:0.2857 15:3 16:0.4259 17:0.1481 18:0.1772 19:0.2025 20:0.2632 22:5 
-0.07218922247299023 0:6 1:12 2:18 3:4 4:0.6449 5:3 6:9 7:0.4583 8:0.0833 9:0.0769 10:0.4038 11:30 12:0.2524 13:58 14:0.0833 15:3 16:0.3846 17:0.1346 18:0.1682 19:0.2804 20:0.2692 22:1 
-0.110662560735679 0:3 1:11 2:12 3:4 4:0.6709 5:6 6:5 7:0.4 8:0.15 9:0.2195 10:0.2439 11:21 12:0.2267 13:19 14:0.35 15:3 16:0.4146 17:0.122 18:0.1772 19:0.2025 20:0.1875 22:3 
-0.1066026598058985 0:6 1:21 2:16 3:4 4:0.6709 5:6 6:5 7:0.6 8:0.15 9:0.1818 10:0.2078 11:2 12:0.2267 13:2 14:0.15 15:3 16:0.4545 17:0.1558 18:0.1772 19:0.2025 20:-1 22:7 
-0.0956727767455854 0:10 1:29 2:14 3:4 4:0.6449 5:3 6:9 7:0.4286 8:0.2857 9:0.1682 10:0.2804 11:1 12:0.2524 13:1 14:0.2381 15:3 16:0.3645 17:0.1869 18:0.1682 19:0.2804 20:-1 22:5 
-0.100042307903466 0:6 1:12 2:18 3:4 4:0.6449 5:3 6:9 7:0.3333 8:0.1667 9:0.0741 10:0.4074 11:29 12:0.2524 13:29 14:0.0833 15:3 16:0.3889 17:0.1296 18:0.1682 19:0.2804 20:0.28 22:1 
-0.02329788991564127 0:10 1:29 2:17 3:4 4:0.6449 5:3 6:9 7:0.375 8:0.25 9:0.1682 10:0.2804 11:1 12:0.2524 13:1 14:0.25 15:3 16:0.3645 17:0.1869 18:0.1682 19:0.2804 20:-1 22:5 
-0.06371385862627424 0:7 1:14 2:15 3:4 4:0.6449 5:3 6:9 7:0.4 8:0.1 9:0.1071 10:0.3929 11:28 12:0.2524 13:64 14:0.15 15:3 16:0.375 17:0.125 18:0.1682 19:0.2804 20:0.25 22:1 
-0.04723792662950808 0:10 1:28 2:18 3:4 4:0.6449 5:3 6:9 7:0.3333 8:0.25 9:0.1698 10:0.283 11:2 12:0.2524 13:2 14:0.25 15:3 16:0.3585 17:0.1887 18:0.1682 19:0.2804 20:-1 22:5 
-0.03095549791597463 0:7 1:18 2:17 3:4 4:0.6449 5:3 6:9 7:0.375 8:0.1667 9:0.1216 10:0.3649 11:19 12:0.2524 13:69 14:0.1667 15:3 16:0.3919 17:0.1216 18:0.1682 19:0.2804 20:0.2667 22:2 
-0.05949881441721914 0:4 1:12 2:16 3:4 4:0.6709 5:6 6:5 7:0.4167 8:0.1667 9:0.1852 10:0.2407 11:14 12:0.2267 13:13 14:0.2917 15:3 16:0.4259 17:0.1481 18:0.1772 19:0.2025 20:0.2632 22:5 
-0.08702742951496073 0:4 1:12 2:19 3:4 4:0.6709 5:6 6:5 7:0.375 8:0.1667 9:0.1852 10:0.2407 11:14 12:0.2267 13:43 14:0.125 15:3 16:0.4259 17:0.1481 18:0.1772 19:0.2025 20:0.2632 22:5 
-0.05418142178105662 0:6 1:12 2:14 3:4 4:0.6449 5:3 6:9 7:0.4 8:0.1 9:0.0769 10:0.4038 11:30 12:0.2524 13:62 14:0.1 15:3 16:0.3846 17:0.1346 18:0.1682 19:0.2804 20:0.2692 22:1 
-0.01842758252931602 0:6 1:12 2:14 3:4 4:0.6449 5:3 6:9 7:0.35 8:0.2 9:0.0769 10:0.4038 11:30 12:0.2524 13:30 14:0.1 15:3 16:0.3846 17:0.1346 18:0.1682 19:0.2804 20:0.2692 22:1 
-0.01398907918100706 0:3 1:11 2:18 3:4 4:0.6709 5:6 6:5 7:0.3913 8:0.1304 9:0.1961 10:0.2549 11:16 12:0.2267 13:42 14:0.1304 15:3 16:0.4118 17:0.1373 18:0.1772 19:0.2025 20:0.2727 22:4 
-0.02487271364023711 0:7 1:14 2:14 3:4 4:0.6449 5:3 6:9 7:0.35 8:0.15 9:0.1071 10:0.3929 11:28 12:0.2524 13:28 14:0.1 15:3 16:0.375 17:0.125 18:0.1682 19:0.2804 20:0.25 22:1 
-0.120378305611066 0:9 1:26 2:16 3:4 4:0.6449 5:3 6:9 7:0.3043 8:0.2609 9:0.16 10:0.3 11:6 12:0.2524 13:83 14:0.2609 15:3 16:0.37 17:0.17 18:0.1682 19:0.2804 22:4 
-0.1142712441305894 0:9 1:26 2:16 3:4 4:0.6449 5:3 6:9 7:0.35 8:0.2 9:0.16 10:0.3 11:6 12:0.2524 13:6 14:0.25 15:3 16:0.37 17:0.17 18:0.1682 19:0.2804 22:4 
-0.03160798376619719 0:9 1:26 2:18 3:4 4:0.6449 5:3 6:9 7:0.4167 8:0.2083 9:0.1635 10:0.2885 11:4 12:0.2524 13:4 14:0.2083 15:3 16:0.3654 17:0.1827 18:0.1682 19:0.2804 20:-1 22:5 
-0.03310501200846225 0:9 1:26 2:16 3:4 4:0.6449 5:3 6:9 7:0.3 8:0.35 9:0.1569 10:0.2941 11:5 12:0.2524 13:87 14:0.15 15:3 16:0.3725 17:0.1765 18:0.1682 19:0.2804 22:5 
-0.542745641017212 0:4 1:9 2:17 3:7 4:0.5873 5:2 6:4 7:0.25 8:0.25 9:0.22 10:0.28 11:8 12:0.1607 13:8 14:0.2083 15:4 16:0.3 17:0.18 18:0.2381 19:0.2857 22:2 
-0.09754483432194944 0:3 1:5 2:15 3:7 4:0.5873 5:2 6:4 7:0.25 8:0.25 9:0.2381 10:0.2857 11:12 12:0.1607 13:12 14:0.25 15:4 16:0.2857 17:0.1667 18:0.2381 19:0.2857 20:0.2857 22:1 
-0.07354186192494458 0:3 1:5 2:15 3:7 4:0.5873 5:2 6:4 7:0.3182 8:0.0909 9:0.2381 10:0.2857 11:12 12:0.1607 13:32 14:0.2273 15:4 16:0.2857 17:0.1667 18:0.2381 19:0.2857 20:0.2857 22:1 
-0.001271952753380798 0:3 1:5 2:17 3:7 4:0.5873 5:2 6:4 7:0.3333 8:0.125 9:0.2174 10:0.2826 11:10 12:0.1607 13:32 14:0.2083 15:4 16:0.3043 17:0.1739 18:0.2381 19:0.2857 20:0.4 22:2 
-0.02858106407176714 0:3 1:5 2:15 3:7 4:0.5873 5:2 6:4 7:0.3333 8:0.0952 9:0.2381 10:0.2857 11:12 12:0.1607 13:33 14:0.2381 15:4 16:0.2857 17:0.1667 18:0.2381 19:0.2857 20:0.2857 22:1 
-0.1024776901053962 0:4 1:7 2:17 3:7 4:0.5873 5:2 6:4 7:0.3333 8:0.125 9:0.2292 10:0.2917 11:9 12:0.1607 13:33 14:0.25 15:4 16:0.2917 17:0.1667 18:0.2381 19:0.2857 20:0.25 22:2 
-0.1197269291950318 0:3 1:11 2:15 3:4 4:0.6709 5:6 6:5 7:0.4 8:0.1 9:0.2222 10:0.2444 11:19 12:0.2267 13:42 14:0.15 15:3 16:0.4 17:0.1333 18:0.1772 19:0.2025 20:0.2143 22:3 
-0.1061958489417115 0:6 1:23 2:13 3:4 4:0.6709 5:6 6:5 7:0.45 8:0.25 9:0.1772 10:0.2025 11:1 12:0.2267 13:60 14:0.1 15:3 16:0.4684 17:0.1519 18:0.1772 19:0.2025 20:-1 22:7 
-0.03630871940958048 0:3 1:11 2:12 3:4 4:0.6709 5:6 6:5 7:0.4 8:0.2 9:0.2128 10:0.2553 11:18 12:0.2267 13:16 14:0.35 15:3 16:0.4043 17:0.1277 18:0.1772 19:0.2025 20:0.2308 22:3 
-0.1038499127935047 0:4 1:12 2:16 3:4 4:0.6709 5:6 6:5 7:0.4 8:0.2 9:0.1852 10:0.2407 11:14 12:0.2267 13:47 14:0.1 15:3 16:0.4259 17:0.1481 18:0.1772 19:0.2025 20:0.2632 22:5 
