svm_type c_svc
kernel_type rbf
gamma 0.0454545
nr_class 2
total_sv 183
rho 0.0504579
label 1 0
nr_sv 91 92
SV
1 0:2 1:6 2:21 3:10 4:0.3291 5:2 6:2 7:0.2609 8:0.3478 9:0.3065 10:0.129 11:12 12:0.087 13:46 14:0.3043 15:6 16:0.2097 17:0.3548 18:0.3418 19:0.1139 22:3 
1 0:3 1:11 2:18 3:18 4:0.5195 5:3 6:3 7:0.3478 8:0.1304 9:0.2319 10:0.2754 11:5 12:0.1864 13:51 14:0.3043 15:1 16:0.2319 17:0.2609 18:0.2208 19:0.2727 22:3 
1 0:5 1:15 2:16 3:4 4:0.5979 5:3 6:8 7:0.1818 8:0.2273 9:0.2034 10:0.322 11:22 12:0.2903 13:19 14:0.2273 15:2 16:0.2203 17:0.2542 18:0.1546 19:0.3196 20:0.3333 22:2 
0.8481022467402489 0:4 1:5 2:20 3:11 4:0.5217 5:5 6:5 7:0.4091 8:0.1364 9:0.2344 10:0.2344 11:16 12:0.1728 13:56 14:0.3182 15:4 16:0.2656 17:0.2656 18:0.25 19:0.25 20:0.4286 22:1 
1 0:3 1:12 2:17 3:16 4:0.5412 5:4 6:4 7:0.25 8:0.2083 9:0.2794 10:0.2206 11:10 12:0.2029 13:10 14:0.375 15:2 16:0.3088 17:0.1912 18:0.2471 19:0.2353 20:0.1429 22:2 
0.5870255908879208 0:4 1:10 2:18 3:7 4:0.4891 5:3 6:6 7:0.3182 8:0.4091 9:0.1692 10:0.2 11:15 12:0.1882 13:57 14:0.0455 15:1 16:0.2769 17:0.3538 18:0.2065 19:0.1957 20:0.2308 22:5 
0.5977010952178192 0:3 1:9 2:18 3:7 4:0.5 5:5 6:5 7:0.2174 8:0.3913 9:0.2069 10:0.2586 11:17 12:0.2278 13:14 14:0.1739 15:1 16:0.2586 17:0.2759 18:0.2093 19:0.2442 20:0.3333 22:3 
0.9632273367265136 0:4 1:7 2:19 3:13 4:0.4267 5:3 6:4 7:0.2174 8:0.3043 9:0.2903 10:0.2097 11:8 12:0.1774 13:47 14:0.3478 15:1 16:0.2097 17:0.2903 18:0.2667 19:0.2 20:0.3333 22:1 
0.9278265444298777 0:5 1:11 2:18 3:8 4:0.4368 5:2 6:7 7:0.2174 8:0.4783 9:0.2542 10:0.1525 11:15 12:0.2405 13:15 14:0.1739 15:1 16:0.2203 17:0.3729 18:0.2299 19:0.2069 20:0.3077 22:1 
1 0:1 1:2 2:22 3:11 4:0.3152 5:2 6:3 7:0.2174 8:0.4348 9:0.339 10:0.1525 11:18 12:0.0864 13:18 14:0.2174 15:4 16:0.1356 17:0.3729 18:0.3261 19:0.1522 20:0.2 22:2 
1 0:3 1:8 2:19 3:8 4:0.4304 5:2 6:5 7:0.1818 8:0.3182 9:0.2321 10:0.1964 11:13 12:0.1549 13:12 14:0.3182 15:3 16:0.1964 17:0.375 18:0.2658 19:0.2278 20:0.1765 22:2 
0.9862478108580287 0:4 1:10 2:17 3:17 4:0.44 5:7 6:5 7:0.2273 8:0.2273 9:0.2381 10:0.254 11:21 12:0.3253 13:19 14:0.2727 15:2 16:0.1905 17:0.3175 18:0.25 19:0.24 20:0.4857 22:1 
0.7832138969429113 0:5 1:11 2:17 3:11 4:0.47 5:2 6:6 7:0.1818 8:0.3636 9:0.2667 10:0.1833 11:22 12:0.1685 13:60 14:0.3182 15:9 16:0.2333 17:0.3167 18:0.21 19:0.21 20:0.1667 22:1 
0.9618286452121054 0:3 1:9 2:18 3:9 4:0.35 5:2 6:4 7:0.0909 8:0.2727 9:0.4 10:0.1667 11:29 12:0.1429 13:67 14:0.3636 15:17 16:0.2 17:0.2333 18:0.39 19:0.15 20:0.1818 22:2 
0.7854523929484771 0:4 1:10 2:15 3:8 4:0.44 5:2 6:6 7:0.15 8:0.35 9:0.2759 10:0.1897 11:24 12:0.1848 13:21 14:0.35 15:8 16:0.2069 17:0.3276 18:0.27 19:0.2 20:0.2414 22:2 
0.748411508446775 0:3 1:6 2:17 3:13 4:0.38 5:4 6:4 7:0.15 8:0.3 9:0.2203 10:0.2203 11:28 12:0.1379 13:67 14:0.35 15:12 16:0.2203 17:0.339 18:0.3 19:0.18 20:0.2143 22:2 
1 0:2 1:5 2:19 3:14 4:0.51 5:3 6:4 7:0.3636 8:0.1818 9:0.2456 10:0.2281 11:28 12:0.1512 13:28 14:0.2727 15:13 16:0.2632 17:0.2632 18:0.27 19:0.27 20:0.2857 22:3 
1 0:3 1:8 2:19 3:10 4:0.39 5:2 6:4 7:0.087 8:0.4348 9:0.2931 10:0.1724 11:23 12:0.1 13:21 14:0.2174 15:11 16:0.2069 17:0.3276 18:0.31 19:0.18 20:0.0476 22:2 
0.9893115785127568 0:3 1:5 2:19 3:12 4:0.45 5:2 6:4 7:0.2857 8:0.2857 9:0.2632 10:0.2105 11:28 12:0.125 13:17 14:0.2381 15:12 16:0.2456 17:0.2807 18:0.27 19:0.22 20:0.2 22:2 
0.7122032118410241 0:4 1:21 2:18 3:6 4:0.54 5:7 6:6 7:0.2273 8:0.3182 9:0.2958 10:0.1972 11:16 12:0.2872 13:16 14:0.2273 15:3 16:0.2817 17:0.2254 18:0.22 19:0.25 20:0.25 22:2 
0.840123176844813 0:4 1:10 2:20 3:5 4:0.4352 5:3 6:7 7:0.2273 8:0.2727 9:0.2687 10:0.1642 11:23 12:0.2039 13:66 14:0.2727 15:3 16:0.2537 17:0.3134 18:0.2963 19:0.1852 20:0.2973 22:3 
1 0:5 1:11 2:18 3:3 4:0.3905 5:4 6:8 7:0.087 8:0.3043 9:0.2833 10:0.2 11:28 12:0.1863 13:57 14:0.2609 15:3 16:0.2 17:0.3167 18:0.2667 19:0.1905 20:0.1905 22:3 
0.898278536684366 0:5 1:11 2:16 3:11 4:0.5607 5:7 6:8 7:0.1905 8:0.2381 9:0.15 10:0.2667 11:28 12:0.2708 13:67 14:0.2381 15:3 16:0.3 17:0.2833 18:0.1776 19:0.2243 20:0.3488 22:2 
1 0:5 1:20 2:17 3:5 4:0.5182 5:6 6:6 7:0.2174 8:0.3043 9:0.1948 10:0.2597 11:18 12:0.2095 13:72 14:0.2609 15:7 16:0.2727 17:0.2727 18:0.2091 19:0.2455 20:0.1 22:2 
1 0:4 1:16 2:17 3:5 4:0.486 5:5 6:6 7:0.0909 8:0.1818 9:0.2222 10:0.2222 11:24 12:0.2843 13:65 14:0.3636 15:2 16:0.254 17:0.3016 18:0.2336 19:0.215 20:0.3171 22:2 
1 0:7 1:16 2:17 3:4 4:0.4432 5:2 6:8 7:0.4091 8:0.1364 9:0.2778 10:0.1389 11:10 12:0.2143 13:10 14:0.4091 15:3 16:0.2778 17:0.3056 18:0.25 19:0.1364 20:0.1667 22:3 
1 0:5 1:20 2:14 3:11 4:0.3874 5:5 6:6 7:0.4762 8:0.1429 9:0.2941 10:0.1176 11:15 12:0.21 13:78 14:0.2381 15:4 16:0.2353 17:0.3529 18:0.2793 19:0.1532 20:0.0526 22:8 
1 2:22 3:5 4:0.3881 5:1 6:1 7:0.2727 8:0.3636 9:0.3158 10:0.1228 11:7 12:0.0323 13:7 14:0.1818 15:3 16:0.2105 17:0.3509 18:0.2985 19:0.1343 20:0.3333 22:5 
1 0:2 1:6 2:20 3:5 4:0.3762 5:12 6:4 7:0.2609 8:0.4348 9:0.3279 10:0.1639 11:29 12:0.2083 13:17 14:0.1304 15:3 16:0.1803 17:0.3279 18:0.3267 19:0.1881 20:0.3889 22:2 
1 0:4 1:30 2:19 3:4 4:0.5333 5:8 6:4 7:0.1739 8:0.3043 9:0.2692 10:0.2949 11:7 12:0.3488 13:62 14:0.1304 15:3 16:0.2436 17:0.1923 18:0.2778 19:0.2889 22:2 
1 0:3 1:15 2:19 3:5 4:0.49 5:8 6:4 7:0.1905 8:0.2857 9:0.1944 10:0.25 11:19 12:0.2 13:62 14:0.0952 15:8 16:0.2778 17:0.2778 18:0.23 19:0.23 20:0.2 22:5 
1 0:8 1:35 2:16 3:9 4:0.5648 5:5 6:7 7:0.6667 8:0.1905 9:0.2315 10:0.2222 11:1 12:0.2929 13:88 14:0.0952 15:4 16:0.3426 17:0.2037 18:0.2315 19:0.2222 20:-1 22:6 
0.9188926024907272 0:6 1:28 2:17 3:15 4:0.4074 5:6 6:6 7:0.2727 8:0.3182 9:0.3048 10:0.2095 11:3 12:0.3011 13:85 14:0.2727 15:1 16:0.181 17:0.3048 18:0.2963 19:0.2222 22:3 
1 0:5 1:21 2:16 3:4 4:0.5484 5:4 6:7 7:0.3182 8:0.2727 9:0.2464 10:0.2464 11:13 12:0.3258 13:13 14:0.0909 15:3 16:0.2899 17:0.2174 18:0.2473 19:0.2366 20:0.4444 22:3 
0.8382154515000513 0:6 1:17 2:15 3:4 4:0.4476 5:5 6:8 7:0.1304 8:0.3913 9:0.3016 10:0.1746 11:24 12:0.2772 13:22 14:0.3043 15:1 16:0.254 17:0.2698 18:0.2762 19:0.181 20:0.2683 22:2 
0.756237890612484 0:5 1:20 2:16 3:6 4:0.4854 5:5 6:7 7:0.4545 8:0.0455 9:0.2576 10:0.2879 11:22 12:0.268 13:22 14:0.3182 15:8 16:0.2727 17:0.1818 18:0.2913 19:0.2524 20:0.2308 
1 0:2 1:9 2:21 3:5 4:0.2241 5:4 6:2 7:0.2273 8:0.3636 9:0.37 10:0.1 11:8 12:0.0811 13:8 14:0.2727 15:9 16:0.12 17:0.41 18:0.3534 19:0.1121 20:-1 22:2 
0.8499756537447801 0:3 1:4 2:21 3:12 4:0.5189 5:2 6:5 7:0.0909 8:0.3636 9:0.1875 10:0.25 11:28 12:0.0957 13:69 14:0.0909 15:12 16:0.2969 17:0.2656 18:0.217 19:0.2358 20:0.1724 22:4 
0.006862759142808469 0:4 1:11 2:19 3:5 4:0.5625 5:4 6:8 7:0.2727 8:0.3636 9:0.2581 10:0.2097 11:28 12:0.2243 13:65 14:0.1818 15:3 16:0.2903 17:0.2419 18:0.2411 19:0.2768 20:0.2766 22:3 
0.9889926501227144 0:3 1:11 2:18 3:23 4:0.5 5:5 6:5 7:0.3182 8:0.3182 9:0.1757 10:0.2297 11:21 12:0.2759 13:18 14:0.0455 15:1 16:0.2297 17:0.3649 18:0.1909 19:0.2182 20:0.3714 22:5 
1 0:5 1:17 2:17 3:4 4:0.381 5:6 6:8 7:0.2083 8:0.3333 9:0.3158 10:0.1754 11:29 12:0.3465 13:28 14:0.2917 15:3 16:0.193 17:0.3158 18:0.3048 19:0.1714 20:0.4091 22:2 
0.7356075656564066 0:4 1:11 2:18 3:6 4:0.5043 5:3 6:8 7:0.2609 8:0.3913 9:0.2698 10:0.2063 11:29 12:0.2661 13:69 14:0.1739 15:2 16:0.1746 17:0.3492 18:0.2348 19:0.2261 20:0.36 22:2 
0.7201817572282571 0:3 1:12 2:17 3:6 4:0.4086 5:4 6:4 7:0.2273 8:0.3182 9:0.2742 10:0.1613 11:17 12:0.1839 13:17 14:0.2273 15:4 16:0.1935 17:0.371 18:0.2581 19:0.172 20:0.1667 22:4 
1 0:5 1:20 2:19 3:3 4:0.3143 5:6 6:5 7:0.3182 8:0.1818 9:0.4286 10:0.1169 11:19 12:0.1961 13:66 14:0.4545 15:14 16:0.1558 17:0.2987 18:0.381 19:0.1619 22:3 
1 0:5 1:21 2:16 3:13 4:0.5625 5:4 6:6 7:0.3043 8:0.1739 9:0.2308 10:0.2692 11:11 12:0.2771 13:66 14:0.4348 15:3 16:0.2949 17:0.2051 18:0.25 19:0.2604 20:0.1429 22:6 
0.5712087020774169 0:5 1:10 2:19 3:6 4:0.407 5:2 6:8 7:0.1818 8:0.3182 9:0.3125 10:0.1875 11:14 12:0.175 13:55 14:0.2727 15:3 16:0.2188 17:0.2812 18:0.3023 19:0.1977 20:0.2222 22:1 
1 0:4 1:13 2:15 3:4 4:0.5 5:4 6:10 7:0.381 8:0.2857 9:0.2353 10:0.1961 11:32 12:0.3241 13:30 14:0.1429 15:2 16:0.2941 17:0.2745 18:0.2411 19:0.2054 20:0.3793 22:3 
1 0:4 1:21 2:13 3:4 4:0.5876 5:4 6:7 7:0.6364 9:0.1864 10:0.1695 11:20 12:0.3333 13:20 14:0.3182 15:1 16:0.3898 17:0.2542 18:0.1959 19:0.2062 20:0.2778 22:6 
1 0:6 1:22 2:17 3:8 4:0.6019 5:6 6:6 7:0.3636 8:0.0909 9:0.1596 10:0.3085 11:6 12:0.2316 13:6 14:0.0909 15:2 16:0.2766 17:0.2553 18:0.165 19:0.3204 22:6 
1 0:9 1:26 2:15 3:4 4:0.4953 5:6 6:9 7:0.2381 8:0.1905 9:0.2262 10:0.2619 11:14 12:0.2621 13:14 14:0.2857 15:7 16:0.2381 17:0.2738 18:0.2243 19:0.2523 20:0.0909 22:2 
0.9164769151501948 0:4 1:15 2:15 3:8 4:0.6075 5:4 6:8 7:0.2917 8:0.125 9:0.1636 10:0.3273 11:32 12:0.2424 13:22 14:0.25 15:5 16:0.2727 17:0.2364 18:0.1776 19:0.3084 20:0.1915 
0.660364308946022 0:4 1:8 2:20 3:6 4:0.3727 5:4 6:8 7:0.2174 8:0.4783 9:0.3065 10:0.1613 11:26 12:0.2308 13:63 14:0.2174 15:1 16:0.2097 17:0.3226 18:0.3182 19:0.1364 20:0.3478 22:5 
1 0:8 1:24 2:17 3:7 4:0.2843 5:4 6:8 7:0.2174 8:0.3913 9:0.3034 10:0.1236 11:8 12:0.2526 13:74 14:0.2609 15:4 16:0.191 17:0.382 18:0.3333 19:0.1078 22:3 
0.992828446908671 0:5 1:18 2:17 3:6 4:0.4286 5:5 6:7 7:0.1364 8:0.4091 9:0.303 10:0.2121 11:14 12:0.3529 13:57 14:0.3182 15:1 16:0.1515 17:0.3333 18:0.2527 19:0.2527 20:0.5 22:3 
0.75011727936842 0:4 1:13 2:15 3:5 4:0.5192 5:6 6:7 7:0.3478 8:0.3478 9:0.2167 10:0.2167 11:25 12:0.2727 13:25 14:0.087 15:3 16:0.2833 17:0.2833 18:0.25 19:0.2596 20:0.35 22:4 
0.6390222619354473 0:6 1:21 2:17 3:4 4:0.3981 5:5 6:7 7:0.4286 8:0.2857 9:0.3067 10:0.1867 11:18 12:0.25 13:17 14:0.1905 15:6 16:0.2267 17:0.28 18:0.3426 19:0.1667 20:0.2381 22:6 
1 0:6 1:25 2:16 3:3 4:0.5842 5:5 6:7 7:0.1364 8:0.3636 9:0.2237 10:0.3553 11:18 12:0.3061 13:18 14:0.0455 15:12 16:0.25 17:0.1711 18:0.2277 19:0.3366 20:0.4545 22:2 
1 0:7 1:22 2:16 3:3 4:0.6633 5:6 6:9 7:0.4545 8:0.2727 9:0.1642 10:0.2537 11:20 12:0.3158 13:62 14:0.1364 15:3 16:0.3582 17:0.2239 18:0.1429 19:0.2755 20:0.2857 22:1 
0.9032549852111943 0:4 1:10 2:17 3:10 4:0.4624 5:4 6:5 7:0.2381 8:0.2381 9:0.3065 10:0.2097 11:18 12:0.253 13:58 14:0.2381 15:3 16:0.2581 17:0.2258 18:0.2796 19:0.2151 20:0.4074 22:2 
0.946475453676099 0:5 1:5 2:22 3:12 4:0.3333 5:2 6:6 7:0.1667 8:0.25 9:0.3231 10:0.2 11:22 12:0.0753 13:63 14:0.2917 15:9 16:0.2308 17:0.2462 18:0.3619 19:0.1524 20:0.0909 
0.616852652561124 0:4 1:8 2:17 3:10 4:0.3905 5:2 6:6 7:0.2381 8:0.1905 9:0.3 10:0.15 11:24 12:0.1474 13:62 14:0.381 15:10 16:0.2667 17:0.2833 18:0.2952 19:0.181 20:0.2308 22:3 
1 0:3 1:12 2:17 3:15 4:0.3832 5:5 6:5 7:0.2174 8:0.3043 9:0.2615 10:0.1846 11:24 12:0.2609 13:64 14:0.2609 15:3 16:0.2462 17:0.3077 18:0.2897 19:0.1869 20:0.3158 
0.8671899500997651 0:2 1:10 2:17 3:8 4:0.3694 5:4 6:6 7:0.2381 8:0.4286 9:0.2 10:0.1667 11:30 12:0.2136 13:63 14:0.0952 15:6 16:0.2833 17:0.35 18:0.2793 19:0.1622 20:0.2857 22:4 
1 0:5 1:21 2:13 3:9 4:0.4679 5:5 6:8 7:0.4286 8:0.0476 9:0.3286 10:0.2 11:22 12:0.34 13:21 14:0.4762 15:5 16:0.2714 17:0.2 18:0.2752 19:0.2018 20:0.3939 22:2 
0.8985384538613752 0:3 1:12 2:18 3:4 4:0.3486 5:3 6:7 7:0.1818 8:0.5 9:0.2667 10:0.1833 11:30 12:0.1905 13:22 14:0.1818 15:7 16:0.1667 17:0.3833 18:0.2752 19:0.1835 20:0.1905 22:1 
1 0:6 1:12 2:17 3:8 4:0.5309 5:2 6:5 7:0.3182 8:0.3636 9:0.1667 10:0.2436 11:3 12:0.1507 13:3 14:0.0909 15:3 16:0.2949 17:0.2949 18:0.1605 19:0.2469 20:-1 22:7 
1 0:4 1:7 2:19 3:7 4:0.4409 5:4 6:6 7:0.3636 8:0.2273 9:0.2857 10:0.1786 11:21 12:0.2326 13:21 14:0.2727 15:3 16:0.2857 17:0.25 18:0.3011 19:0.1613 20:0.3939 22:3 
1 0:4 1:12 2:16 3:10 4:0.3276 5:2 6:6 7:0.3182 8:0.2727 9:0.3276 10:0.1897 11:31 12:0.1887 13:31 14:0.2273 15:17 16:0.1897 17:0.2931 18:0.3534 19:0.1466 20:0.3077 22:1 
1 0:7 1:15 2:17 3:5 4:0.4146 5:2 6:7 7:0.3636 8:0.2727 9:0.2237 10:0.1711 11:5 12:0.1948 13:5 14:0.1364 15:3 16:0.2632 17:0.3421 18:0.2439 19:0.1707 22:3 
1 0:6 1:18 2:19 3:15 4:0.4425 5:3 6:7 7:0.4167 8:0.2083 9:0.2165 10:0.134 11:10 12:0.2347 13:81 14:0.2917 15:1 16:0.3093 17:0.3402 18:0.2212 19:0.1416 20:0.3333 22:8 
0.8011109924828383 0:4 1:11 2:20 3:5 4:0.4545 5:3 6:6 7:0.2609 8:0.3043 9:0.2419 10:0.1452 11:22 12:0.1596 13:21 14:0.2609 15:3 16:0.2581 17:0.3548 18:0.2121 19:0.1818 20:0.125 22:6 
0.6827765334562242 0:3 1:9 2:17 3:3 4:0.4337 5:4 6:5 7:0.1905 8:0.3333 9:0.2963 10:0.2037 11:17 12:0.2375 13:17 14:0.3333 15:2 16:0.1852 17:0.3148 18:0.253 19:0.2169 20:0.3846 22:3 
0.8308958965500036 0:3 1:6 2:20 3:5 4:0.4368 5:2 6:5 7:0.1818 8:0.2273 9:0.2034 10:0.2373 11:16 12:0.1463 13:53 14:0.2727 15:3 16:0.2712 17:0.2881 18:0.2299 19:0.2069 20:0.25 22:3 
0.8266747728906332 0:6 1:31 2:18 3:13 4:0.5446 5:7 6:6 7:0.3182 8:0.2273 9:0.1698 10:0.3113 11:5 12:0.3131 13:87 14:0.1818 15:4 16:0.2453 17:0.2736 18:0.1875 19:0.3125 20:-1 22:5 
0.3015350736952187 0:5 1:22 2:15 3:4 4:0.5 5:7 6:7 7:0.3636 8:0.1364 9:0.2632 10:0.1974 11:18 12:0.2755 13:15 14:0.3182 15:3 16:0.3289 17:0.2105 18:0.2647 19:0.1863 20:0.2174 22:4 
0.5888225546081083 0:4 1:9 2:18 3:10 4:0.5614 5:4 6:8 7:0.3478 8:0.1739 9:0.1967 10:0.2459 11:30 12:0.2212 13:66 14:0.2174 15:1 16:0.3115 17:0.2459 18:0.2281 19:0.2281 20:0.2692 22:5 
1 0:6 1:19 2:15 3:5 4:0.3495 5:4 6:7 7:0.0952 8:0.4762 9:0.2949 10:0.1282 11:15 12:0.2653 13:69 14:0.2381 15:2 16:0.2051 17:0.3718 18:0.2913 19:0.1359 20:0.3043 22:4 
1 0:2 1:7 2:18 3:8 4:0.5487 5:7 6:5 7:0.4091 8:0.1818 9:0.2281 10:0.2456 11:31 12:0.2286 13:31 14:0.2273 15:1 16:0.2456 17:0.2807 18:0.2124 19:0.292 20:0.3091 22:4 
1 0:5 1:12 2:16 3:6 4:0.6212 5:4 6:5 7:0.2273 8:0.1818 9:0.1964 10:0.3036 11:7 12:0.25 13:40 14:0.1818 15:2 16:0.3214 17:0.1786 18:0.197 19:0.3182 20:0.4286 22:1 
1 0:8 1:19 2:17 3:4 4:0.3793 5:4 6:7 7:0.0952 8:0.381 9:0.3253 10:0.1928 11:4 12:0.2048 13:64 14:0.1905 15:5 16:0.2048 17:0.2771 18:0.3448 19:0.1839 20:-1 22:2 
1 0:3 1:9 2:18 3:8 4:0.4688 5:3 6:4 7:0.2609 8:0.2174 9:0.3016 10:0.1587 11:21 12:0.1477 13:14 14:0.3478 15:8 16:0.2222 17:0.3175 18:0.25 19:0.1771 20:0.1667 22:5 
0.7916791289872052 0:6 1:19 2:18 3:4 4:0.466 5:8 6:10 7:0.1739 8:0.1304 9:0.2754 10:0.2319 11:19 12:0.3232 13:17 14:0.3913 15:1 16:0.2464 17:0.2464 18:0.2913 19:0.2039 20:0.3939 
0.7384647371498906 0:3 1:17 2:18 3:4 4:0.3883 5:5 6:5 7:0.0476 8:0.5238 9:0.3016 10:0.1905 11:23 12:0.303 13:23 14:0.2381 15:2 16:0.2063 17:0.3016 18:0.3107 19:0.1748 20:0.3514 22:3 
1 0:4 1:12 2:16 3:3 4:0.5753 5:5 6:6 7:0.381 8:0.2381 9:0.098 10:0.2745 11:15 12:0.2714 13:45 14:0.1905 15:2 16:0.3333 17:0.2941 18:0.1507 19:0.274 20:0.3684 22:4 
0.07600630204927254 0:6 1:22 2:17 3:5 4:0.6168 5:5 6:7 7:0.1905 8:0.2857 9:0.1644 10:0.274 11:19 12:0.2941 13:19 14:0.1905 15:3 16:0.3151 17:0.2466 18:0.1495 19:0.2617 20:0.2667 22:4 
1 0:7 1:25 2:15 3:7 4:0.5283 5:4 6:7 7:0.5455 8:0.1364 9:0.1951 10:0.2561 11:18 12:0.3131 13:68 14:0.2273 15:10 16:0.3293 17:0.2195 18:0.2453 19:0.2453 20:0.4286 22:5 
0.8049415311780743 0:5 1:18 2:15 3:4 4:0.3229 5:4 6:7 7:0.3636 8:0.1364 9:0.2903 10:0.1452 11:19 12:0.2935 13:18 14:0.4545 15:2 16:0.2097 17:0.3548 18:0.2917 19:0.1146 20:0.2903 22:1 
0.8578078855333161 0:5 1:13 2:18 3:3 4:0.622 5:2 6:6 7:0.1304 8:0.4348 9:0.1452 10:0.3226 11:12 12:0.1772 13:51 14:0.087 15:2 16:0.2903 17:0.2419 18:0.1341 19:0.3171 20:0.0588 22:2 
1 0:5 1:25 2:18 3:10 4:0.2844 5:8 6:5 7:0.2174 8:0.3913 9:0.3368 10:0.1053 11:11 12:0.2525 13:5 14:0.2609 15:8 16:0.1789 17:0.3789 18:0.3303 19:0.1193 22:4 
0.9707960108514946 0:4 1:14 2:16 3:12 4:0.4884 5:2 6:6 7:0.2609 8:0.2174 9:0.2097 10:0.2419 11:13 12:0.2432 13:52 14:0.3043 15:1 16:0.2419 17:0.3065 18:0.2209 19:0.2442 20:0.1818 22:2 
1 0:5 1:16 2:17 3:6 4:0.4643 5:5 6:7 7:0.0909 8:0.2727 9:0.25 10:0.25 11:21 12:0.2264 13:71 14:0.2273 15:3 16:0.2639 17:0.2361 18:0.2411 19:0.2143 20:0.2353 22:2 
-0.8237911348416518 0:3 1:13 2:21 3:10 4:0.3291 5:2 6:2 7:0.1667 8:0.25 9:0.3418 10:0.1139 11:1 12:0.087 13:1 14:0.4167 15:6 16:0.2152 17:0.3291 18:0.3418 19:0.1139 20:-1 22:4 
-0.950210438394308 0:2 1:5 2:13 3:18 4:0.5195 5:3 6:3 7:0.2083 8:0.25 9:0.2449 10:0.2653 11:15 12:0.1864 13:40 14:0.3333 15:1 16:0.2245 17:0.2653 18:0.2208 19:0.2727 20:0.2308 22:2 
-0.7838212127327947 0:3 1:10 2:15 3:4 4:0.5979 5:3 6:8 7:0.1905 8:0.2857 9:0.2391 10:0.3043 11:29 12:0.2903 13:51 14:0.2857 15:2 16:0.2174 17:0.2391 18:0.1546 19:0.3196 20:0.3469 22:2 
-0.5037860144221907 0:6 1:17 2:17 3:11 4:0.5217 5:5 6:5 7:0.1304 8:0.2609 9:0.2386 10:0.2614 11:3 12:0.1728 13:3 14:0.2174 15:4 16:0.2841 17:0.2159 18:0.25 19:0.25 20:-1 22:1 
-0.9437381223371422 0:5 1:17 2:18 3:16 4:0.5412 5:4 6:4 7:0.2174 8:0.2174 9:0.2471 10:0.2353 11:1 12:0.2029 13:63 14:0.1739 15:2 16:0.3059 17:0.2118 18:0.2471 19:0.2353 20:-1 22:2 
-1 0:3 1:4 2:20 3:7 4:0.4891 5:3 6:6 7:0.2857 8:0.2857 9:0.2075 10:0.1698 11:21 12:0.1882 13:20 14:0.1905 15:1 16:0.2642 17:0.3585 18:0.2065 19:0.1957 20:0.3158 22:5 
-0.8434592804236357 0:5 1:18 2:15 3:7 4:0.5 5:5 6:5 7:0.3043 8:0.2609 9:0.2099 10:0.2346 11:4 12:0.2278 13:62 14:0.2609 15:1 16:0.2469 17:0.3086 18:0.2093 19:0.2442 22:4 
-0.7720158600485557 0:5 1:12 2:18 3:13 4:0.4267 5:3 6:4 7:0.1739 8:0.3043 9:0.2667 10:0.2 11:1 12:0.1774 13:1 14:0.2174 15:1 16:0.2267 17:0.3067 18:0.2667 19:0.2 20:-1 22:2 
-0.7968311980459283 0:8 1:21 2:14 3:8 4:0.4368 5:2 6:7 7:0.3043 8:0.4348 9:0.2299 10:0.2069 11:1 12:0.2405 13:1 14:0.087 15:1 16:0.2299 17:0.3333 18:0.2299 19:0.2069 20:-1 22:1 
-1 0:2 1:3 2:20 3:11 4:0.3152 5:2 6:3 7:0.1818 8:0.4545 9:0.3286 10:0.1571 11:12 12:0.0864 13:12 14:0.1364 15:4 16:0.1429 17:0.3714 18:0.3261 19:0.1522 20:0.2857 22:2 
-0.8072613111577949 0:6 1:15 2:19 3:8 4:0.4304 5:2 6:5 7:0.1304 8:0.2609 9:0.2468 10:0.2338 11:2 12:0.1549 13:2 14:0.3043 15:3 16:0.2078 17:0.3117 18:0.2658 19:0.2278 20:-1 22:2 
-0.9698658932554162 0:5 1:27 2:12 3:17 4:0.44 5:7 6:5 7:0.3333 8:0.1905 9:0.2449 10:0.2449 11:3 12:0.3253 13:78 14:0.2381 15:2 16:0.2041 17:0.3061 18:0.25 19:0.24 20:-1 22:3 
-0.8752577178761171 0:6 1:15 2:17 3:11 4:0.47 5:2 6:6 7:0.2381 8:0.3333 9:0.2024 10:0.2024 11:8 12:0.1685 13:73 14:0.1905 15:9 16:0.2857 17:0.3095 18:0.21 19:0.21 20:-1 22:4 
-0.9160078961887879 0:5 1:17 2:15 3:9 4:0.35 5:2 6:4 7:0.1739 8:0.3478 9:0.3372 10:0.1744 11:14 12:0.1429 13:14 14:0.3043 15:17 16:0.2093 17:0.2791 18:0.39 19:0.15 20:-1 22:3 
-0.8329358503204812 0:6 1:17 2:15 3:8 4:0.44 5:2 6:6 7:0.2381 8:0.3333 9:0.253 10:0.1807 11:11 12:0.1848 13:8 14:0.3333 15:8 16:0.253 17:0.3133 18:0.27 19:0.2 22:4 
-0.6557508034867604 0:4 1:12 2:18 3:13 4:0.38 5:4 6:4 7:0.25 8:0.25 9:0.2588 10:0.2 11:14 12:0.1379 13:14 14:0.375 15:12 16:0.2118 17:0.3294 18:0.3 19:0.18 22:3 
-0.8069767629067131 0:4 1:13 2:17 3:14 4:0.51 5:3 6:4 7:0.3333 8:0.1667 9:0.274 10:0.2603 11:20 12:0.1512 13:20 14:0.25 15:13 16:0.2466 17:0.2192 18:0.27 19:0.27 22:3 
-0.9389582979806341 0:4 1:9 2:19 3:10 4:0.39 5:2 6:4 7:0.2381 8:0.1429 9:0.2727 10:0.1688 11:13 12:0.1 13:68 14:0.4286 15:11 16:0.2338 17:0.3247 18:0.31 19:0.18 22:4 
-1 0:3 1:7 2:19 3:12 4:0.45 5:2 6:4 7:0.3182 8:0.2727 9:0.2535 10:0.2254 11:21 12:0.125 13:10 14:0.2727 15:12 16:0.2535 17:0.2676 18:0.27 19:0.22 20:0.25 22:3 
-0.6938498621332669 0:5 1:23 2:16 3:6 4:0.54 5:7 6:6 7:0.2 8:0.35 9:0.253 10:0.2169 11:10 12:0.2872 13:10 14:0.15 15:3 16:0.3012 17:0.2289 18:0.22 19:0.25 20:0.3333 22:3 
-0.6183398009099018 0:3 1:9 2:17 3:5 4:0.4352 5:3 6:7 7:0.1364 8:0.1818 9:0.2917 10:0.1875 11:33 12:0.2039 13:56 14:0.4545 15:3 16:0.2292 17:0.2917 18:0.2963 19:0.1852 20:0.2143 
-1 0:7 1:18 2:16 3:3 4:0.3905 5:4 6:8 7:0.3 8:0.3 9:0.2857 10:0.1868 11:10 12:0.1863 13:6 14:0.35 15:3 16:0.1978 17:0.3297 18:0.2667 19:0.1905 20:0.0909 22:4 
-0.9208305108034128 0:7 1:17 2:18 3:11 4:0.5607 5:7 6:8 7:0.4545 8:0.2727 9:0.1395 10:0.2442 11:15 12:0.2708 13:15 14:0.0909 15:3 16:0.3372 17:0.2791 18:0.1776 19:0.2243 20:0.5294 22:4 
-1 0:4 1:14 2:18 3:5 4:0.5182 5:6 6:6 7:0.375 8:0.3333 9:0.1636 10:0.2727 11:29 12:0.2095 13:29 14:0.0833 15:7 16:0.2545 17:0.3091 18:0.2091 19:0.2455 20:0.1905 22:2 
-0.7174167379290196 0:6 1:25 2:17 3:5 4:0.486 5:5 6:6 7:0.4783 8:0.3478 9:0.2111 10:0.2333 11:10 12:0.2843 13:10 14:0.0435 15:2 16:0.2667 17:0.2889 18:0.2336 19:0.215 20:0.2857 22:3 
-0.9463242005092446 0:4 1:10 2:17 3:4 4:0.4432 5:2 6:8 7:0.1364 8:0.3182 9:0.24 10:0.16 11:22 12:0.2143 13:49 14:0.2727 15:3 16:0.32 17:0.28 18:0.25 19:0.1364 20:0.2353 22:3 
-1 0:6 1:21 2:14 3:11 4:0.3874 5:5 6:6 7:0.15 8:0.4 9:0.2885 10:0.1346 11:5 12:0.21 13:5 14:0.25 15:4 16:0.2404 17:0.3365 18:0.2793 19:0.1532 20:-1 22:8 
-0.950025932863279 2:18 3:5 4:0.3881 5:1 6:1 7:0.15 8:0.35 9:0.3659 10:0.0976 11:15 12:0.0323 13:15 14:0.4 15:3 16:0.1707 17:0.3659 18:0.2985 19:0.1343 20:0.0909 22:3 
-0.8987731885106665 0:4 1:19 2:20 3:5 4:0.3762 5:12 6:4 7:0.1818 8:0.4545 9:0.3488 10:0.186 11:10 12:0.2083 13:10 14:0.1364 15:3 16:0.1744 17:0.2907 18:0.3267 19:0.1881 20:0.0909 22:2 
-0.9558361960060421 0:3 1:23 2:12 3:4 4:0.5333 5:8 6:4 7:0.2381 8:0.2857 9:0.2727 10:0.2727 11:20 12:0.3488 13:54 14:0.2857 15:3 16:0.2727 17:0.1818 18:0.2778 19:0.2889 20:0.2414 22:2 
-0.8829769739845619 0:4 1:19 2:16 3:5 4:0.49 5:8 6:4 7:0.15 8:0.35 9:0.2174 10:0.2391 11:1 12:0.2 13:1 14:0.25 15:8 16:0.2717 17:0.2717 18:0.23 19:0.23 20:-1 22:5 
-0.8581437511978752 0:3 1:18 2:12 3:9 4:0.5648 5:5 6:7 7:0.1818 8:0.2727 9:0.3396 10:0.1698 11:32 12:0.2929 13:32 14:0.4091 15:4 16:0.2264 17:0.2642 18:0.2315 19:0.2222 20:0.2245 22:3 
-1 0:3 1:13 2:13 3:15 4:0.4074 5:6 6:6 7:0.1429 8:0.4286 9:0.2969 10:0.2188 11:27 12:0.3011 13:69 14:0.2381 15:1 16:0.125 17:0.3594 18:0.2963 19:0.2222 20:0.3488 22:2 
-0.8401702342666244 0:8 1:31 2:13 3:4 4:0.5484 5:4 6:7 7:0.2273 8:0.2273 9:0.2584 10:0.2247 11:3 12:0.3258 13:70 14:0.4091 15:3 16:0.3034 17:0.2135 18:0.2473 19:0.2366 20:-1 22:4 
-0.8680744630862157 0:9 1:29 2:16 3:4 4:0.4476 5:5 6:8 7:0.3636 8:0.2273 9:0.2762 10:0.181 11:1 12:0.2772 13:84 14:0.3182 15:1 16:0.2667 17:0.2762 18:0.2762 19:0.181 20:-1 22:4 
-1 0:7 1:26 2:15 3:6 4:0.4854 5:5 6:7 7:0.2857 8:0.1429 9:0.275 10:0.275 11:15 12:0.268 13:15 14:0.2857 15:8 16:0.2375 17:0.2125 18:0.2913 19:0.2524 
-1 0:2 1:9 2:20 3:5 4:0.2241 5:4 6:2 7:0.1905 8:0.3333 9:0.3721 10:0.093 11:17 12:0.0811 13:15 14:0.3333 15:9 16:0.1163 17:0.4186 18:0.3534 19:0.1121 22:2 
-1 0:4 1:8 2:17 3:12 4:0.5189 5:2 6:5 7:0.4286 8:0.1905 9:0.1667 10:0.2564 11:21 12:0.0957 13:20 14:0.1905 15:12 16:0.3077 17:0.2692 18:0.217 19:0.2358 20:0.0667 22:5 
-1 0:5 1:15 2:18 3:5 4:0.5625 5:4 6:8 7:0.2273 8:0.2273 9:0.2436 10:0.2564 11:20 12:0.2243 13:73 14:0.1818 15:3 16:0.2949 17:0.2051 18:0.2411 19:0.2768 20:0.2903 22:3 
-0.9538543777897373 0:5 1:18 2:13 3:23 4:0.5 5:5 6:5 7:0.3636 9:0.1789 10:0.2316 11:9 12:0.2759 13:81 14:0.4091 15:1 16:0.2737 17:0.3158 18:0.1909 19:0.2182 20:0.4286 22:5 
-0.9689631828991627 0:7 1:27 2:14 3:4 4:0.381 5:6 6:8 7:0.3182 8:0.3636 9:0.284 10:0.1975 11:15 12:0.3465 13:74 14:0.1364 15:3 16:0.2222 17:0.2963 18:0.3048 19:0.1714 20:0.4 22:3 
-1 0:5 1:17 2:13 3:6 4:0.5043 5:3 6:8 7:0.3182 8:0.3182 9:0.2338 10:0.2338 11:21 12:0.2661 13:21 14:0.1364 15:2 16:0.2338 17:0.2987 18:0.2348 19:0.2261 20:0.3333 22:2 
-0.9683534475680703 0:4 1:16 2:14 3:6 4:0.4086 5:4 6:4 7:0.2857 8:0.3333 9:0.2568 10:0.1622 11:11 12:0.1839 13:64 14:0.3333 15:4 16:0.2297 17:0.3514 18:0.2581 19:0.172 22:5 
-0.8628350518572319 0:6 1:34 2:14 3:3 4:0.3143 5:6 6:5 7:0.1 8:0.4 9:0.3838 10:0.1717 11:4 12:0.1961 13:4 14:0.25 15:14 16:0.1515 17:0.2929 18:0.381 19:0.1619 20:-1 22:3 
-1 0:3 1:12 2:16 3:13 4:0.5625 5:4 6:6 7:0.2381 8:0.2381 9:0.2105 10:0.3158 11:21 12:0.2771 13:58 14:0.2381 15:3 16:0.2456 17:0.2281 18:0.25 19:0.2604 20:0.3143 22:5 
-0.8475004317862134 0:7 1:13 2:17 3:6 4:0.407 5:2 6:8 7:0.25 8:0.4 9:0.2857 10:0.2078 11:6 12:0.175 13:64 14:0.15 15:3 16:0.2208 17:0.2857 18:0.3023 19:0.1977 20:0.2 22:1 
-0.8662392251709368 0:9 1:31 2:12 3:4 4:0.5 5:4 6:10 7:0.35 8:0.3 9:0.2268 10:0.2165 11:9 12:0.3241 13:85 14:0.2 15:2 16:0.299 17:0.2577 18:0.2411 19:0.2054 20:0.3333 22:5 
-0.8604237321059586 0:6 1:29 2:15 3:4 4:0.5876 5:4 6:7 7:0.2083 8:0.2917 9:0.1882 10:0.1882 11:7 12:0.3333 13:68 14:0.125 15:1 16:0.3882 17:0.2353 18:0.1959 19:0.2062 20:0.2 22:7 
-0.9464708454323504 0:3 1:11 2:12 3:8 4:0.6019 5:6 6:6 7:0.2 8:0.35 9:0.1778 10:0.2444 11:34 12:0.2316 13:30 14:0.1 15:2 16:0.2444 17:0.3333 18:0.165 19:0.3204 20:0.2 22:3 
-0.9281277242009152 0:6 1:19 2:14 3:4 4:0.4953 5:6 6:9 7:0.3043 8:0.1739 9:0.2632 10:0.2632 11:28 12:0.2621 13:62 14:0.1739 15:7 16:0.2105 17:0.2632 18:0.2243 19:0.2523 20:0.2105 22:1 
-0.898974188880754 0:5 1:16 2:14 3:8 4:0.6075 5:4 6:8 7:0.2857 8:0.2381 9:0.1528 10:0.3333 11:23 12:0.2424 13:65 14:0.0952 15:5 16:0.2917 17:0.2222 18:0.1776 19:0.3084 20:0.2667 
-1 0:5 1:10 2:18 3:6 4:0.3727 5:4 6:8 7:0.1818 8:0.1818 9:0.3026 10:0.1579 11:19 12:0.2308 13:17 14:0.3182 15:1 16:0.2237 17:0.3158 18:0.3182 19:0.1364 20:0.4375 22:6 
-1 0:6 1:17 2:14 3:7 4:0.2843 5:4 6:8 7:0.1429 8:0.381 9:0.3 10:0.1143 11:19 12:0.2526 13:68 14:0.381 15:4 16:0.1714 17:0.4143 18:0.3333 19:0.1078 20:0.28 22:2 
-1 0:4 1:16 2:15 3:6 4:0.4286 5:5 6:7 7:0.1667 8:0.375 9:0.2885 10:0.2308 11:21 12:0.3529 13:20 14:0.2083 15:1 16:0.1731 17:0.3077 18:0.2527 19:0.2527 20:0.3684 22:2 
-0.9522863811005032 0:8 1:21 2:15 3:9 4:0.5664 5:3 6:8 7:0.3182 8:0.2727 9:0.1635 10:0.2981 11:6 12:0.2019 13:88 14:0.0909 15:2 16:0.2788 17:0.2596 18:0.1681 19:0.292 22:6 
-1 0:6 1:17 2:17 3:5 4:0.5192 5:6 6:7 7:0.25 8:0.35 9:0.1786 10:0.25 11:13 12:0.2727 13:13 14:0.05 15:3 16:0.2976 17:0.2738 18:0.25 19:0.2596 20:0.625 22:5 
-0.8921794460606476 0:8 1:28 2:17 3:4 4:0.3981 5:5 6:7 7:0.2273 8:0.2273 9:0.3469 10:0.1837 11:6 12:0.25 13:6 14:0.3636 15:6 16:0.2041 17:0.2653 18:0.3426 19:0.1667 20:-1 22:6 
-0.8631956422604941 0:8 1:35 2:12 3:3 4:0.5842 5:5 6:7 7:0.2174 8:0.3043 9:0.2391 10:0.337 11:8 12:0.3061 13:8 14:0.2174 15:12 16:0.25 17:0.1739 18:0.2277 19:0.3366 20:-1 22:2 
-0.7781468811365093 0:9 1:30 2:13 3:3 4:0.6633 5:6 6:9 7:0.25 8:0.2 9:0.1505 10:0.2796 11:5 12:0.3158 13:2 14:0.1 15:3 16:0.3763 17:0.1935 18:0.1429 19:0.2755 22:2 
-0.6691616463684613 0:2 1:6 2:13 3:10 4:0.4624 5:4 6:5 7:0.25 8:0.1 9:0.2857 10:0.2143 11:29 12:0.253 13:50 14:0.4 15:3 16:0.3095 17:0.1905 18:0.2796 19:0.2151 20:0.3191 22:2 
-0.9384288542331819 0:7 1:11 2:19 3:12 4:0.3333 5:2 6:6 7:0.25 8:0.375 9:0.3407 10:0.1648 11:8 12:0.0753 13:8 14:0.25 15:9 16:0.2088 17:0.2857 18:0.3619 19:0.1524 20:-1 22:1 
-0.6964763741462724 0:5 1:12 2:17 3:10 4:0.3905 5:2 6:6 7:0.2381 8:0.5714 9:0.2821 10:0.141 11:15 12:0.1474 13:14 14:0.0952 15:10 16:0.2436 17:0.3333 18:0.2952 19:0.181 20:0.25 22:4 
-0.9234933745008403 0:5 1:22 2:10 3:15 4:0.3832 5:5 6:5 7:0.25 8:0.3 9:0.2737 10:0.1684 11:8 12:0.2609 13:6 14:0.4 15:3 16:0.2105 17:0.3474 18:0.2897 19:0.1869 20:0.25 
-1 0:4 1:13 2:18 3:8 4:0.3694 5:4 6:6 7:0.2727 8:0.3636 9:0.2329 10:0.1781 11:22 12:0.2136 13:69 14:0.1818 15:6 16:0.2603 17:0.3288 18:0.2793 19:0.1622 20:0.3103 22:4 
-0.8673025434821282 0:4 1:11 2:12 3:9 4:0.4679 5:5 6:8 7:0.2174 8:0.3043 9:0.2955 10:0.25 11:37 12:0.34 13:55 14:0.1739 15:5 16:0.2727 17:0.1818 18:0.2752 19:0.2018 20:0.3898 22:1 
-1 0:5 1:17 2:17 3:4 4:0.3486 5:3 6:7 7:0.1739 8:0.3913 9:0.2706 10:0.1647 11:17 12:0.1905 13:72 14:0.3043 15:7 16:0.1647 17:0.4 18:0.2752 19:0.1835 20:0.1765 22:2 
-1 0:4 1:9 2:17 3:8 4:0.5309 5:2 6:5 7:0.2 8:0.4 9:0.1803 10:0.2623 11:12 12:0.1507 13:12 14:0.1 15:3 16:0.2951 17:0.2623 18:0.1605 19:0.2469 20:0.125 22:5 
-0.4658099663146945 0:2 1:5 2:15 3:7 4:0.4409 5:4 6:6 7:0.2 8:0.25 9:0.3095 10:0.1905 11:29 12:0.2326 13:50 14:0.35 15:3 16:0.2857 17:0.2143 18:0.3011 19:0.1613 20:0.3191 22:2 
-0.9510462262003745 0:6 1:20 2:15 3:10 4:0.3276 5:2 6:6 7:0.3333 8:0.25 9:0.2838 10:0.1757 11:23 12:0.1887 13:73 14:0.2083 15:17 16:0.2162 17:0.3243 18:0.3534 19:0.1466 22:1 
-0.9466180605131219 0:5 1:12 2:17 3:5 4:0.4146 5:2 6:7 7:0.2174 8:0.3478 9:0.2698 10:0.127 11:12 12:0.1948 13:11 14:0.3043 15:3 16:0.2381 17:0.3651 18:0.2439 19:0.1707 20:0.2 22:3 
-0.9569978189812659 0:5 1:14 2:17 3:15 4:0.4425 5:3 6:7 7:0.381 8:0.2381 9:0.1899 10:0.1519 11:19 12:0.2347 13:75 14:0.2381 15:1 16:0.3291 17:0.3291 18:0.2212 19:0.1416 20:0.2727 22:7 
-0.7767875573182309 0:7 1:18 2:16 3:5 4:0.4545 5:3 6:6 7:0.4545 8:0.3182 9:0.2062 10:0.1856 11:2 12:0.1596 13:2 14:0.1818 15:3 16:0.2784 17:0.3299 18:0.2121 19:0.1818 20:-1 22:7 
-0.3230999711090752 0:6 1:20 2:14 3:3 4:0.4337 5:4 6:5 7:0.2857 8:0.2857 9:0.2469 10:0.2222 11:2 12:0.2375 13:2 14:0.2381 15:2 16:0.2222 17:0.3086 18:0.253 19:0.2169 20:-1 22:5 
-0.6960927430271999 0:5 1:12 2:19 3:5 4:0.4368 5:2 6:5 7:0.1739 8:0.3043 9:0.2169 10:0.2048 11:2 12:0.1463 13:64 14:0.2609 15:3 16:0.241 17:0.3373 18:0.2299 19:0.2069 20:-1 22:4 
-0.9476213488017264 0:4 1:24 2:12 3:13 4:0.5446 5:7 6:6 7:0.2609 8:0.2174 9:0.16 10:0.3467 11:22 12:0.3131 13:72 14:0.1304 15:4 16:0.24 17:0.2533 18:0.1875 19:0.3125 20:0.2258 22:2 
-0.8470686059416469 0:8 1:29 2:19 3:4 4:0.5 5:7 6:7 7:0.375 8:0.2917 9:0.2574 10:0.1881 11:2 12:0.2755 13:78 14:0.1667 15:3 16:0.3168 17:0.2376 18:0.2647 19:0.1863 20:-1 22:6 
-0.8889964094518913 0:8 1:18 2:16 3:10 4:0.5614 5:4 6:8 7:0.3636 8:0.1364 9:0.2353 10:0.2255 11:8 12:0.2212 13:7 14:0.4091 15:1 16:0.3039 17:0.2353 18:0.2281 19:0.2281 20:0.4545 22:6 
-0.9891591326640747 0:4 1:11 2:12 3:5 4:0.3495 5:4 6:7 7:0.1 8:0.6 9:0.2692 10:0.1346 11:30 12:0.2653 13:59 14:0.1 15:2 16:0.2115 17:0.3846 18:0.2913 19:0.1359 20:0.3061 22:3 
-1 0:3 1:18 2:14 3:8 4:0.5487 5:7 6:5 7:0.375 8:0.2083 9:0.2368 10:0.2763 11:20 12:0.2286 13:20 14:0.1667 15:1 16:0.2368 17:0.25 18:0.2124 19:0.292 20:0.1667 22:5 
-0.9565159249485311 0:3 1:9 2:15 3:6 4:0.6212 5:4 6:5 7:0.3478 8:0.1739 9:0.1778 10:0.3111 11:14 12:0.25 13:33 14:0.1739 15:2 16:0.3333 17:0.1778 18:0.197 19:0.3182 20:0.3333 22:1 
-0.6361801078346907 0:5 1:15 2:17 3:4 4:0.3793 5:4 6:7 7:0.2381 8:0.2381 9:0.3433 10:0.1642 11:14 12:0.2048 13:10 14:0.4286 15:5 16:0.209 17:0.2836 18:0.3448 19:0.1839 20:0.1429 22:2 
-0.8737254730184554 0:5 1:16 2:16 3:8 4:0.4688 5:3 6:4 7:0.3636 8:0.2727 9:0.2556 10:0.1667 11:6 12:0.1477 13:70 14:0.1818 15:8 16:0.2778 17:0.3 18:0.25 19:0.1771 20:-1 22:9 
-0.861440920412696 0:10 1:32 2:15 3:4 4:0.466 5:8 6:10 7:0.2609 8:0.1739 9:0.3061 10:0.2041 11:4 12:0.3232 13:78 14:0.3478 15:1 16:0.2449 17:0.2449 18:0.2913 19:0.2039 22:2 
-1 0:3 1:15 2:13 3:4 4:0.3883 5:5 6:5 7:0.15 8:0.4 9:0.2857 10:0.2245 11:30 12:0.303 13:30 14:0.15 15:2 16:0.2041 17:0.2857 18:0.3107 19:0.1748 20:0.2941 22:1 
-0.7156127434726938 0:6 1:19 2:13 3:3 4:0.5753 5:5 6:6 7:0.2857 8:0.2857 9:0.1212 10:0.2727 11:5 12:0.2714 13:5 14:0.1905 15:2 16:0.3182 17:0.2879 18:0.1507 19:0.274 22:4 
-0.852710008366646 0:7 1:28 2:11 3:5 4:0.6168 5:5 6:7 7:0.6 8:0.15 9:0.1461 10:0.2584 11:11 12:0.2941 13:80 14:0.2 15:3 16:0.3596 17:0.236 18:0.1495 19:0.2617 20:0.1429 22:6 
-0.9420886287416022 0:3 1:12 2:12 3:7 4:0.5283 5:4 6:7 7:0.2 8:0.3 9:0.2326 10:0.1628 11:38 12:0.3131 13:27 14:0.3 15:10 16:0.2558 17:0.3488 18:0.2453 19:0.2453 20:0.3585 22:4 
-0.790621334669622 0:8 1:30 2:16 3:4 4:0.3229 5:4 6:7 7:0.2917 8:0.2083 9:0.2917 10:0.1146 11:1 12:0.2935 13:1 14:0.4583 15:2 16:0.2083 17:0.3854 18:0.2917 19:0.1146 20:-1 22:3 
-0.9108349831970611 0:7 1:17 2:17 3:3 4:0.622 5:2 6:6 7:0.25 8:0.25 9:0.1341 10:0.3171 11:1 12:0.1772 13:63 14:0.1 15:2 16:0.3049 17:0.2439 18:0.1341 19:0.3171 20:-1 22:4 
-0.909563966789362 0:4 1:20 2:16 3:10 4:0.2844 5:8 6:5 7:0.1364 8:0.4545 9:0.3382 10:0.1029 11:25 12:0.2525 13:65 14:0.2727 15:8 16:0.1618 17:0.3971 18:0.3303 19:0.1193 20:0.1613 22:2 
-0.6372154235798749 0:6 1:18 2:15 3:12 4:0.4884 5:2 6:6 7:0.3 8:0.25 9:0.2179 10:0.2564 11:5 12:0.2432 13:5 14:0.2 15:1 16:0.2308 17:0.2949 18:0.2209 19:0.2442 22:2 
-0.5481103790659475 0:3 1:7 2:16 3:6 4:0.4643 5:5 6:7 7:0.1818 8:0.3182 9:0.2444 10:0.2444 11:35 12:0.2264 13:57 14:0.2273 15:3 16:0.2889 17:0.2222 18:0.2411 19:0.2143 20:0.2787 22:1 
