svm_type c_svc
kernel_type rbf
gamma 0.0434783
nr_class 2
total_sv 1760
rho 0.890989
label 1 0
nr_sv 197 1563
SV
1 0:1 1:5 2:2 3:4 4:6 5:0.4825 6:6 7:4 8:5 9:0.3333 10:0.234 11:0.2447 12:43 13:11 14:0.1905 15:0.2447 16:0.2766 17:0.2368 18:0.2368 21:1 22:4 23:0.6 
1 0:2 1:5 2:4 3:10 4:4 5:0.4679 6:4 7:5 8:6 9:0.1429 10:0.25 11:0.2375 12:39 13:15 14:0.2857 15:0.2875 16:0.225 17:0.2477 18:0.2018 19:0.2857 22:1 23:2 
1 0:4 1:5 2:3 3:8 4:4 5:0.4679 6:4 7:5 8:6 9:0.381 10:0.2619 11:0.2262 12:39 13:76 14:0.2857 15:0.2738 16:0.2381 17:0.2477 18:0.2018 19:0.3333 22:1 23:0.78 
1 0:3 1:4 2:2 3:6 4:4 5:0.7349 6:2 7:2 8:6 9:0.381 10:0.1194 11:0.3881 12:31 13:9 14:0.1429 15:0.3433 16:0.1493 17:0.1205 18:0.3855 19:0.4286 21:2 22:2 23:1.25 
1 0:3 1:5 2:3 3:10 4:4 5:0.7349 6:2 7:2 8:6 9:0.2083 10:0.1268 11:0.3803 12:31 13:54 14:0.25 15:0.338 16:0.1549 17:0.1205 18:0.3855 19:0.2 21:2 22:2 23:1.6 
1 0:2 1:6 2:2 3:2 4:5 5:0.4956 6:4 7:3 8:9 9:0.2857 10:0.2386 11:0.2045 12:40 13:14 14:0.2381 15:0.2614 16:0.2955 17:0.2035 18:0.2035 19:0.3333 21:1 22:2 23:1 
1 0:4 1:7 2:2 3:3 4:6 5:0.51 6:2 7:3 8:7 9:0.2273 10:0.2211 11:0.2737 12:37 13:2 14:0.2727 15:0.2526 16:0.2526 17:0.22 18:0.27 19:-1 21:1 22:2 23:1.43 
1 0:2 1:8 2:2 3:4 4:6 5:0.51 6:2 7:3 8:7 9:0.1905 10:0.2268 11:0.268 12:37 13:78 14:0.2381 15:0.2474 16:0.2577 17:0.22 18:0.27 19:-1 21:1 22:2 23:1.8 
1 0:4 1:7 2:4 3:19 4:7 5:0.4231 6:4 7:7 8:6 9:0.3 10:0.2788 11:0.1827 12:31 13:85 14:0.2 15:0.2404 16:0.2981 17:0.2788 18:0.1827 19:-1 21:1 22:4 23:1.5 
1 0:4 1:2 2:2 3:6 4:12 5:0.4819 6:1 7:2 8:4 9:0.381 10:0.2857 11:0.2679 12:30 13:15 14:0.2857 15:0.25 16:0.1964 17:0.253 18:0.241 19:0.1538 23:0.67 
1 0:4 1:2 2:2 3:6 4:4 5:0.5333 6:4 7:3 8:2 9:0.3333 10:0.16 11:0.22 12:24 13:36 14:0.1429 15:0.3 16:0.32 17:0.15 18:0.2333 21:4 22:4 23:0.9 
1 0:4 1:3 2:2 3:10 4:7 5:0.5306 6:4 7:3 8:3 9:0.3333 10:0.1899 11:0.2405 12:36 13:71 14:0.1429 15:0.2658 16:0.3038 17:0.1837 18:0.2653 22:2 23:1 
1 0:4 1:3 2:2 3:8 4:7 5:0.5417 6:3 7:3 8:3 9:0.3333 10:0.1899 11:0.2405 12:37 13:69 14:0.1429 15:0.2785 16:0.2911 17:0.1875 18:0.2604 22:2 23:1 
1 0:4 1:3 2:2 3:8 4:7 5:0.5341 6:2 7:3 8:3 9:0.3333 10:0.1899 11:0.2405 12:34 13:64 14:0.1429 15:0.2785 16:0.2911 17:0.1818 18:0.25 22:2 23:1 
1 0:4 1:3 2:2 3:8 4:7 5:0.5455 6:3 7:3 8:3 9:0.3333 10:0.1899 11:0.2532 12:37 13:72 14:0.1429 15:0.2658 16:0.2911 17:0.1919 18:0.2828 22:2 23:1 
0.9642226140029394 0:4 1:3 2:2 3:8 4:7 5:0.534 6:3 7:3 8:3 9:0.3333 10:0.1899 11:0.2405 12:37 13:70 14:0.1429 15:0.2785 16:0.2911 17:0.2039 18:0.2718 22:2 23:1 
1 0:3 1:5 2:3 3:8 4:6 5:0.4815 6:6 7:3 8:8 9:0.2917 10:0.2632 11:0.2237 12:40 13:69 14:0.25 15:0.2237 16:0.2895 17:0.2407 18:0.213 19:0.2667 21:1 22:4 23:1.14 
1 0:2 1:2 2:3 3:12 4:14 5:0.3051 6:1 7:2 8:4 9:0.1667 10:0.3704 11:0.1667 12:46 13:63 14:0.4583 15:0.1111 16:0.3519 17:0.3475 18:0.1525 19:0.0968 
1 0:4 1:4 2:4 3:14 4:8 5:0.2773 6:2 7:4 8:6 9:0.1667 10:0.3692 11:0.1231 12:44 13:69 14:0.4583 15:0.1385 16:0.3692 17:0.3613 18:0.1261 19:0.1154 21:1 22:1 23:0.75 
1 0:2 1:1 2:1 3:4 4:8 5:0.2451 6:3 7:2 8:1 9:0.1667 10:0.3659 11:0.0854 12:44 13:69 14:0.4583 15:0.1463 16:0.4024 17:0.3627 18:0.098 21:1 22:2 23:1.67 
1 0:4 1:3 2:2 3:4 4:4 5:0.2982 6:3 7:6 8:4 9:0.0909 10:0.3382 11:0.1618 12:44 13:22 14:0.5 15:0.1618 16:0.3382 17:0.3509 18:0.1579 19:0.2105 21:1 22:2 23:0.78 
1 0:4 1:3 2:2 3:6 4:8 5:0.2157 6:3 7:2 8:4 9:0.25 10:0.3864 11:0.0909 12:41 13:72 14:0.4167 15:0.1364 16:0.3864 17:0.402 18:0.0882 19:0.1667 21:1 22:3 23:2.5 
1 0:3 1:5 2:2 3:6 4:5 5:0.4701 6:3 7:2 8:5 9:0.3333 10:0.2796 11:0.1828 12:48 13:13 14:0.2857 15:0.2473 16:0.2903 17:0.2479 18:0.2051 22:2 23:0.89 
1 0:3 1:5 2:2 3:6 4:5 5:0.4701 6:3 7:2 8:5 9:0.2381 10:0.2887 11:0.1753 12:48 13:87 14:0.1429 15:0.2371 16:0.299 17:0.2479 18:0.2051 22:2 23:1 
1 0:3 1:5 2:2 3:6 4:5 5:0.4701 6:3 7:2 8:5 9:0.2381 10:0.271 11:0.1963 12:48 13:92 14:0.0952 15:0.2523 16:0.2804 17:0.2479 18:0.2051 22:2 23:0.91 
0.8023458249798676 0:1 1:3 2:3 3:5 4:4 5:0.7313 6:2 7:2 8:4 9:0.45 10:0.0851 11:0.4043 12:26 13:11 15:0.3617 16:0.1489 17:0.0896 18:0.3881 19:0.2222 21:1 22:1 23:0.92 
1 0:4 1:4 2:2 3:10 4:6 5:0.4058 6:6 7:5 8:3 9:0.4091 10:0.2029 11:0.1739 12:24 13:48 14:0.1364 15:0.2319 16:0.3913 17:0.2029 18:0.1739 19:-1 21:5 22:6 23:2 
1 0:4 1:3 2:1 3:2 4:4 5:0.2906 6:1 7:3 8:4 9:0.2727 10:0.3494 11:0.1205 12:50 13:78 14:0.4091 15:0.1566 16:0.3735 17:0.3504 18:0.1368 19:0.0625 21:1 22:1 23:1 
1 0:4 1:2 2:1 3:2 4:12 5:0.2353 6:1 7:1 8:2 9:0.2727 10:0.39 11:0.12 12:42 13:80 14:0.4091 15:0.11 16:0.38 17:0.3922 18:0.1275 19:-1 22:1 23:1 
1 0:2 4:5 5:0.4516 7:3 8:2 9:0.0909 10:0.2951 11:0.2131 12:39 13:17 14:0.3636 15:0.2131 16:0.2787 17:0.2903 18:0.2366 19:0.2667 23:1.11 
1 0:2 1:2 2:2 3:4 4:7 5:0.4026 6:2 7:2 8:3 9:0.0909 10:0.3279 11:0.1967 12:30 13:9 14:0.3636 15:0.2131 16:0.2623 17:0.3117 18:0.1948 19:0.2857 21:1 22:1 23:1.11 
1 0:4 1:3 2:2 3:6 4:9 5:0.4615 6:1 7:3 8:3 9:0.5238 10:0.2222 11:0.2222 12:29 13:55 14:0.2857 15:0.2639 16:0.2917 17:0.2436 18:0.2051 21:1 22:1 23:0.91 
1 0:2 1:3 2:1 3:2 4:5 5:0.4034 6:2 7:5 8:3 9:0.2273 10:0.3196 11:0.1959 12:47 13:87 14:0.2727 15:0.2062 16:0.2784 17:0.3025 18:0.1933 22:1 23:1.12 
1 0:2 1:7 2:2 3:4 4:4 5:0.4696 6:5 7:4 8:7 9:0.3333 10:0.2178 11:0.2277 12:37 13:8 14:0.4286 15:0.2673 16:0.2871 17:0.2261 18:0.2174 21:1 22:4 23:0.9 
1 0:2 1:3 2:1 3:6 4:7 5:0.3333 6:4 7:3 8:3 9:0.1905 10:0.3158 11:0.1711 12:31 13:5 14:0.1905 15:0.1711 16:0.3421 17:0.3214 18:0.1667 21:2 22:4 23:0.9 
1 0:3 1:3 2:1 3:6 4:7 5:0.3333 6:4 7:3 8:3 9:0.1905 10:0.325 11:0.1625 12:31 13:62 14:0.381 15:0.1625 16:0.35 17:0.3214 18:0.1667 19:-1 21:2 22:4 23:1.38 
1 0:1 1:5 2:2 3:3 4:4 5:0.4386 6:5 7:4 8:5 9:0.2381 10:0.2593 11:0.1944 12:43 13:6 14:0.1905 15:0.25 16:0.2963 17:0.2544 18:0.1842 21:1 22:4 23:1.11 
1 0:4 1:5 2:2 3:5 4:4 5:0.4386 6:5 7:4 8:5 9:0.2381 10:0.2553 11:0.1915 12:43 13:86 14:0.381 15:0.2553 16:0.2979 17:0.2544 18:0.1842 21:2 22:4 23:1 
1 0:1 1:10 2:5 3:10 4:9 5:0.4602 6:2 7:2 8:9 9:0.3333 10:0.2432 11:0.1982 12:42 13:92 14:0.1429 15:0.2703 16:0.2883 17:0.2478 18:0.1947 19:-1 22:2 23:1.33 
1 0:1 1:6 2:3 3:8 4:5 5:0.4948 6:4 7:6 8:5 9:0.2857 10:0.2165 11:0.2268 12:36 13:1 14:0.381 15:0.268 16:0.2887 17:0.2165 18:0.2268 19:-1 22:4 23:1.17 
1 0:2 1:7 2:4 3:8 4:6 5:0.5596 6:2 7:4 8:7 9:0.2381 10:0.2021 11:0.3298 12:39 13:83 14:0.1429 15:0.234 16:0.234 17:0.2018 18:0.3303 21:1 22:1 23:2.25 
1 0:1 1:3 2:1 3:2 4:5 5:0.4435 6:4 7:8 8:4 9:0.2381 10:0.2451 11:0.1961 12:44 13:89 14:0.1429 15:0.2157 16:0.3431 17:0.2261 18:0.2087 19:0.3333 21:2 22:3 23:1 
1 0:4 1:4 2:2 3:6 4:5 5:0.4435 6:4 7:8 8:4 9:0.2381 10:0.2281 11:0.2105 12:44 13:95 14:0.0952 15:0.2368 16:0.3246 17:0.2261 18:0.2087 19:-1 21:3 22:4 23:1.12 
1 0:3 1:3 2:1 3:2 4:11 5:0.4828 6:3 7:3 8:3 9:0.2381 10:0.2708 11:0.1979 12:48 13:86 14:0.1429 15:0.2188 16:0.3125 17:0.2328 18:0.2328 21:1 22:2 23:1 
1 0:3 1:3 2:1 3:2 4:11 5:0.4828 6:3 7:3 8:3 9:0.2381 10:0.2407 11:0.2222 12:48 13:92 14:0.0952 15:0.25 16:0.287 17:0.2328 18:0.2328 21:2 22:3 23:0.82 
1 0:2 1:3 2:2 3:6 4:3 5:0.4615 7:2 8:6 9:0.2857 10:0.3051 11:0.1525 12:48 13:68 14:0.0952 15:0.2034 16:0.339 17:0.265 18:0.2308 19:0.1111 23:1.8 
1 0:2 1:5 2:2 3:4 4:3 5:0.4615 7:2 8:6 9:0.2381 10:0.297 11:0.198 12:48 13:89 14:0.1429 15:0.2178 16:0.2871 17:0.265 18:0.2308 19:0.1667 23:1 
1 0:4 1:6 2:3 3:6 4:3 5:0.4615 7:2 8:6 9:0.2381 10:0.2793 11:0.2252 12:48 13:94 14:0.0952 15:0.2252 16:0.2703 17:0.265 18:0.2308 23:0.88 
1 0:1 1:6 2:2 3:4 4:5 5:0.4569 6:2 7:3 8:7 9:0.2381 10:0.2653 11:0.2143 12:44 13:87 14:0.1429 15:0.2347 16:0.2857 17:0.2586 18:0.2155 19:0.1429 22:1 23:1 
1 0:1 1:4 2:4 3:9 4:4 5:0.7246 6:1 7:2 8:5 9:0.45 10:0.0851 11:0.383 12:24 13:11 15:0.3617 16:0.1702 17:0.087 18:0.3768 19:0.2222 23:1.22 
1 0:4 1:8 2:4 3:8 4:6 5:0.7241 6:3 7:3 8:10 9:0.45 10:0.1327 11:0.398 12:43 13:87 14:0.15 15:0.3367 16:0.1327 17:0.1379 18:0.3879 19:0.125 22:3 23:0.64 
1 0:4 1:2 2:1 3:2 4:4 5:0.4808 6:4 7:1 8:3 9:0.3333 10:0.2692 11:0.2564 12:46 13:14 14:0.1429 15:0.2308 16:0.2436 17:0.2692 18:0.25 19:0.0833 22:2 23:0.64 
1 0:2 1:1 2:1 3:2 4:4 5:0.4808 6:4 7:1 8:3 9:0.2083 10:0.25 11:0.2679 12:46 13:57 14:0.25 15:0.25 16:0.2321 17:0.2692 18:0.25 19:0.087 21:1 22:2 23:1.1 
1 0:4 1:4 2:1 3:4 4:8 5:0.453 6:4 7:2 8:5 9:0.5238 10:0.2424 11:0.1818 12:48 13:10 14:0.2381 15:0.2626 16:0.3131 17:0.2564 18:0.1966 19:0.1429 21:2 22:4 23:0.82 
1 0:3 1:2 2:2 3:2 4:8 5:0.453 6:4 7:2 8:5 9:0.3333 10:0.2292 11:0.1667 12:48 13:35 14:0.2381 15:0.2708 16:0.3333 17:0.2564 18:0.1966 19:0.1077 21:2 22:2 23:0.88 
1 0:3 1:3 2:3 3:3 4:8 5:0.453 6:4 7:2 8:5 9:0.0909 10:0.2364 11:0.1636 12:48 13:65 14:0.2273 15:0.2545 16:0.3455 17:0.2564 18:0.1966 19:0.1034 21:2 22:2 23:1.43 
1 0:2 1:5 2:2 3:10 4:13 5:0.5909 6:2 7:6 8:5 9:0.3333 10:0.163 11:0.3152 12:34 13:80 14:0.381 15:0.2609 16:0.2609 17:0.1636 18:0.3273 21:1 22:2 23:1.11 
1 0:4 1:6 2:2 3:7 4:4 5:0.4298 6:4 7:5 8:6 9:0.1905 10:0.266 11:0.1489 12:41 13:84 14:0.381 15:0.2553 16:0.3298 17:0.2456 18:0.1667 21:1 22:3 23:0.9 
1 0:4 1:6 2:3 3:9 4:3 5:0.431 6:5 7:5 8:6 9:0.1905 10:0.2766 11:0.1915 12:40 13:85 14:0.381 15:0.2447 16:0.2872 17:0.2759 18:0.1897 21:2 22:4 23:0.7 
1 0:4 1:7 2:3 3:9 4:3 5:0.4138 6:4 7:5 8:7 9:0.1905 10:0.2766 11:0.1702 12:37 13:85 14:0.381 15:0.2553 16:0.2979 17:0.2759 18:0.1638 21:1 22:3 23:0.6 
1 0:2 1:3 2:3 3:8 4:4 5:0.6964 6:3 7:8 8:7 9:0.5238 10:0.1042 11:0.3542 12:37 13:33 14:0.1429 15:0.375 16:0.1667 17:0.1696 18:0.3661 19:0.377 21:3 22:3 23:0.8 
1 0:4 1:3 2:3 3:8 4:4 5:0.6964 6:3 7:8 8:7 9:0.2381 10:0.0962 11:0.3654 12:37 13:62 14:0.0476 15:0.3846 16:0.1538 17:0.1696 18:0.3661 19:0.4035 21:2 22:3 23:0.89 
1 0:2 1:3 2:3 3:8 4:4 5:0.6786 6:2 7:8 8:7 9:0.5238 10:0.125 11:0.3542 12:36 13:33 14:0.1429 15:0.3542 16:0.1667 17:0.1875 18:0.3571 19:0.4098 21:2 22:2 23:0.8 
1 0:4 1:3 2:3 3:8 4:4 5:0.6786 6:2 7:8 8:7 9:0.2381 10:0.1154 11:0.3654 12:36 13:62 14:0.0476 15:0.3654 16:0.1538 17:0.1875 18:0.3571 19:0.4386 21:2 22:2 23:0.89 
1 0:4 1:5 2:3 3:4 4:14 5:0.3918 6:4 7:2 8:6 9:0.0909 10:0.3291 11:0.1519 12:35 13:66 14:0.2273 15:0.2152 16:0.3038 17:0.299 18:0.1443 19:0.25 21:2 22:2 23:1.12 
1 0:4 1:2 2:2 3:2 4:23 5:0.3304 6:1 7:1 8:2 9:0.1429 10:0.2603 11:0.2329 12:41 13:18 14:0.381 15:0.1644 16:0.3425 17:0.2857 18:0.1875 22:1 23:1 
1 0:1 1:2 2:1 3:1 4:23 5:0.3304 6:1 7:1 8:2 9:0.2273 10:0.2597 11:0.2338 12:41 13:71 14:0.1818 15:0.1688 16:0.3377 17:0.2857 18:0.1875 22:1 23:0.9 
1 0:3 1:7 2:4 3:8 4:8 5:0.4454 6:5 7:2 8:9 9:0.3182 10:0.2024 11:0.2381 12:43 13:18 14:0.3182 15:0.2619 16:0.2976 17:0.2437 18:0.2185 19:0.1765 21:2 22:4 23:0.88 
1 0:4 1:3 2:1 3:2 4:8 5:0.4643 6:5 7:2 8:5 9:0.3636 10:0.1905 11:0.2619 12:43 13:15 14:0.2727 15:0.2381 16:0.3095 17:0.2143 18:0.2411 19:0.2308 21:3 22:4 23:1.11 
1 0:4 1:3 2:3 3:8 4:10 5:0.4766 6:3 7:3 8:6 9:0.2727 10:0.2419 11:0.2419 12:36 13:23 14:0.3182 15:0.2419 16:0.2742 17:0.243 18:0.215 19:0.3636 21:1 22:2 23:1 
1 0:3 1:6 2:3 3:6 4:8 5:0.5 6:5 7:2 8:7 9:0.4091 10:0.1667 11:0.25 12:40 13:15 14:0.2273 15:0.2976 16:0.2857 17:0.1964 18:0.2321 19:0.2308 21:2 22:4 23:1 
0.8342649987283989 0:4 1:1 2:1 3:2 4:10 5:0.5132 6:5 7:1 8:2 9:0.3636 10:0.2097 11:0.2419 12:30 13:8 14:0.2273 15:0.2742 16:0.2742 17:0.1974 18:0.2368 19:0.1667 21:2 22:3 23:1.38 
1 0:4 1:3 2:1 3:2 4:8 5:0.4483 6:5 7:3 8:6 9:0.3636 10:0.1905 11:0.2381 12:43 13:17 14:0.2727 15:0.2381 16:0.3333 17:0.2155 18:0.2241 19:0.2667 21:3 22:4 23:1.11 
1 0:4 1:2 2:2 3:8 4:10 5:0.4673 6:5 7:3 8:4 9:0.3182 10:0.2258 11:0.2097 12:38 13:23 14:0.2727 15:0.2581 16:0.3065 17:0.2243 18:0.1963 19:0.2727 21:3 22:4 23:0.8 
1 0:3 1:5 2:2 3:4 4:8 5:0.5192 6:7 7:2 8:6 9:0.4091 10:0.1786 11:0.25 12:36 13:11 14:0.2273 15:0.2857 16:0.2857 17:0.1827 18:0.2404 19:0.1667 21:3 22:5 23:1.25 
1 0:4 1:4 2:2 3:4 4:8 5:0.5 6:4 7:2 8:4 9:0.3636 10:0.1905 11:0.2381 12:32 13:2 14:0.2727 15:0.2619 16:0.3095 17:0.1977 18:0.2442 19:-1 21:2 22:4 23:1.25 
1 0:3 1:6 2:3 3:6 4:8 5:0.5204 6:7 7:2 8:6 9:0.4091 10:0.1905 11:0.25 12:35 13:8 14:0.2273 15:0.2738 16:0.2857 17:0.1837 18:0.2449 19:0.1667 21:3 22:5 23:0.88 
1 0:4 1:1 2:1 3:2 4:10 5:0.5132 6:5 7:1 8:2 9:0.3636 10:0.2097 11:0.2419 12:30 13:8 14:0.2273 15:0.2742 16:0.2742 17:0.1974 18:0.2368 19:0.1667 21:2 22:3 23:1.38 
0.6139447705887038 0:3 1:5 2:2 3:4 4:8 5:0.4706 6:5 7:3 8:7 9:0.3636 10:0.2024 11:0.25 12:44 13:18 14:0.2727 15:0.2619 16:0.2857 17:0.2269 18:0.2269 19:0.1765 21:2 22:4 23:1.25 
1 0:4 1:2 2:1 3:2 4:6 5:0.4737 6:4 7:2 8:3 9:0.3636 10:0.2097 11:0.2419 12:28 13:8 14:0.2273 15:0.2581 16:0.2903 17:0.2237 18:0.2237 19:0.3333 21:2 22:3 23:1.38 
1 0:4 1:4 2:2 3:4 4:8 5:0.4706 6:6 7:3 8:6 9:0.4091 10:0.1786 11:0.25 12:45 13:19 14:0.1818 15:0.2619 16:0.3095 17:0.2017 18:0.2185 19:0.1765 21:3 22:4 23:1.25 
1 0:3 1:7 2:3 3:10 4:6 5:0.3694 6:4 7:3 8:6 9:0.375 10:0.3119 11:0.1651 12:41 13:87 14:0.1667 15:0.2018 16:0.3211 17:0.3063 18:0.1622 19:-1 21:1 22:4 23:0.5 
1 0:4 1:2 2:2 3:6 4:13 5:0.4494 6:1 7:2 8:3 9:0.375 10:0.2676 11:0.2113 12:33 13:56 14:0.1667 15:0.2113 16:0.3099 17:0.2697 18:0.2247 19:0.125 21:1 22:1 23:0.73 
1 0:2 1:2 2:2 3:4 4:5 5:0.4118 6:6 7:2 8:3 9:0.375 10:0.254 11:0.127 12:35 13:11 14:0.2083 15:0.2698 16:0.3492 17:0.2471 18:0.1529 19:0.2381 21:4 22:5 23:1.4 
1 0:3 1:2 2:2 3:4 4:5 5:0.4118 6:6 7:2 8:3 9:0.1364 10:0.254 11:0.127 12:35 13:52 14:0.3182 15:0.2698 16:0.3492 17:0.2471 18:0.1529 19:0.2381 21:4 22:5 23:1.29 
1 0:1 1:4 2:2 3:6 4:5 5:0.4786 6:4 7:3 8:6 9:0.3333 10:0.24 11:0.2267 12:43 13:22 14:0.375 15:0.24 16:0.2933 17:0.2393 18:0.2393 19:0.1351 21:1 22:2 23:0.45 
1 0:2 1:2 2:2 3:4 4:23 5:0.3689 6:3 7:2 8:4 9:0.25 10:0.28 11:0.1733 12:33 13:66 14:0.1667 15:0.2 16:0.3467 17:0.2718 18:0.165 19:0.3077 21:3 22:3 23:1.43 
1 0:1 1:5 2:5 3:16 4:3 5:0.4231 6:2 7:3 8:6 9:0.3333 10:0.2264 11:0.1132 12:24 13:41 14:0.2917 15:0.3208 16:0.3396 17:0.2692 18:0.1667 19:0.2632 21:1 22:1 23:1 
1 0:2 1:8 2:5 3:10 4:5 5:0.4815 6:4 7:6 8:9 9:0.1667 10:0.2637 11:0.2088 12:39 13:11 14:0.3333 15:0.2747 16:0.2527 17:0.2593 18:0.2037 19:0.1429 22:3 23:1.14 
1 0:1 1:8 2:4 3:8 4:5 5:0.4815 6:4 7:6 8:9 9:0.375 10:0.2632 11:0.2105 12:39 13:80 14:0.25 15:0.2737 16:0.2526 17:0.2593 18:0.2037 19:0.2 22:3 23:1.29 
1 0:4 1:2 2:1 3:2 4:5 5:0.4414 6:5 7:4 8:3 9:0.2917 10:0.25 11:0.1842 12:46 13:70 14:0.1667 15:0.25 16:0.3158 17:0.2342 18:0.1892 19:0.0323 21:1 22:3 23:0.9 
1 0:4 1:4 2:2 3:10 4:3 5:0.4786 6:6 7:4 8:6 9:0.4167 10:0.2 11:0.1789 12:45 13:83 14:0.125 15:0.3158 16:0.3053 17:0.2051 18:0.1795 19:0.1429 21:3 22:5 23:0.67 
1 0:2 1:3 2:2 3:4 4:5 5:0.3333 6:5 7:2 8:3 9:0.2917 10:0.3067 11:0.1467 12:39 13:60 14:0.1667 15:0.1733 16:0.3733 17:0.2903 18:0.1505 21:2 22:3 23:1.43 
1 0:1 1:2 2:1 3:6 4:4 5:0.33 6:5 7:7 8:3 9:0.125 10:0.3718 11:0.1154 12:35 13:11 14:0.4583 15:0.1795 16:0.3333 17:0.35 18:0.13 19:0.4 21:3 22:4 23:4.5 
1 0:3 1:5 2:3 3:8 4:7 5:0.4455 6:2 7:2 8:5 9:0.2083 10:0.2317 11:0.2561 12:44 13:15 14:0.25 15:0.2439 16:0.2683 17:0.2545 18:0.2182 21:1 22:2 23:1.6 
1 0:4 1:3 2:1 3:4 4:4 5:0.2178 6:5 7:7 8:2 9:0.2917 10:0.3564 11:0.0891 12:42 13:78 14:0.4167 15:0.1287 16:0.4257 17:0.3564 18:0.0891 19:-1 21:2 22:5 23:2.67 
1 0:3 1:2 2:1 3:4 4:4 5:0.5847 6:1 7:2 8:3 9:0.375 10:0.2297 11:0.2973 12:50 13:22 14:0.2917 15:0.2838 16:0.1892 17:0.2119 18:0.3051 19:0.0526 23:1 
1 0:4 1:5 2:3 3:7 4:4 5:0.4095 6:3 7:3 8:5 9:0.1364 10:0.2676 11:0.2254 12:42 13:18 14:0.3636 15:0.2113 16:0.2958 17:0.2667 18:0.2095 19:0.125 22:1 23:1.33 
1 0:1 1:5 2:2 3:6 4:5 5:0.5045 6:5 7:6 8:6 9:0.3 10:0.2 11:0.2316 12:42 13:9 14:0.35 15:0.2737 16:0.2947 17:0.2162 18:0.2342 19:0.1429 22:4 23:1.67 
1 0:2 1:2 2:1 3:4 4:7 5:0.2955 6:2 7:2 8:2 9:0.125 10:0.3467 11:0.1467 12:36 13:9 14:0.375 15:0.1867 16:0.32 17:0.3636 18:0.125 21:1 22:1 23:1.25 
1 0:4 1:3 2:1 3:2 4:5 5:0.3646 6:4 7:3 8:5 9:0.3333 10:0.2899 11:0.1304 12:36 13:13 14:0.3333 15:0.2174 16:0.3623 17:0.2708 18:0.1562 19:0.1818 21:2 22:4 23:1.11 
1 0:4 1:3 2:1 3:2 4:5 5:0.3646 6:4 7:3 8:5 9:0.0952 10:0.2958 11:0.1268 12:36 13:62 14:0.3333 15:0.2113 16:0.3662 17:0.2708 18:0.1562 19:0.2 21:2 22:4 23:0.8 
1 0:2 1:2 2:2 3:4 4:4 5:0.6977 6:4 7:2 8:4 9:0.5238 10:0.125 11:0.3125 12:32 13:20 14:0.1429 15:0.3958 16:0.1667 17:0.1628 18:0.3256 19:0.1724 21:4 22:4 23:1 
1 0:4 1:2 2:2 3:4 4:4 5:0.6977 6:4 7:2 8:4 9:0.3333 10:0.1154 11:0.3269 12:32 13:49 14:0.0476 15:0.4038 16:0.1538 17:0.1628 18:0.3256 19:0.2 21:3 22:4 23:0.73 
1 0:3 1:2 2:2 3:8 4:4 5:0.7391 6:1 7:2 8:4 9:0.4 10:0.16 11:0.4 12:26 13:10 14:0.3 15:0.34 16:0.1 17:0.1594 18:0.4058 19:0.2222 21:1 22:1 23:1.2 
1 0:1 1:4 2:2 3:5 4:15 5:0.4404 6:3 7:4 8:4 9:0.1818 10:0.2667 11:0.1778 12:37 13:10 14:0.2273 15:0.2444 16:0.3111 17:0.2477 18:0.1835 21:1 22:2 23:0.89 
1 0:1 1:7 2:3 3:7 4:3 5:0.4587 6:2 7:5 8:7 9:0.1818 10:0.2778 11:0.1667 12:38 13:10 14:0.2273 15:0.2556 16:0.3 17:0.2569 18:0.1927 22:1 23:1.14 
1 0:2 1:3 2:2 3:8 4:14 5:0.3592 6:2 7:6 8:2 9:0.1364 10:0.3846 11:0.1978 12:29 13:7 14:0.2727 15:0.1868 16:0.2308 17:0.3689 18:0.1942 19:-1 21:1 22:2 23:0.22 
1 0:4 1:5 2:2 3:9 4:6 5:0.6512 6:2 7:4 8:5 9:0.4286 10:0.1818 11:0.2597 12:29 13:5 14:0.2857 15:0.3766 16:0.1818 17:0.186 18:0.2674 21:1 22:2 23:0.45 
1 0:1 1:4 2:3 3:11 4:6 5:0.6512 6:2 7:4 8:5 9:0.1818 10:0.1642 11:0.2537 12:29 13:55 14:0.1818 15:0.3881 16:0.194 17:0.186 18:0.2674 19:0.2857 21:1 22:2 23:0.5 
1 0:3 1:6 2:4 3:11 4:17 5:0.4466 6:1 7:3 8:7 9:0.2381 10:0.2976 11:0.2857 12:31 13:10 14:0.2381 15:0.1429 16:0.2738 17:0.2718 18:0.2718 19:0.1429 23:0.78 
1 0:3 1:7 2:4 3:11 4:17 5:0.4466 6:1 7:3 8:7 9:0.2727 10:0.2812 11:0.2917 12:31 13:79 14:0.2727 15:0.1667 16:0.2604 17:0.2718 18:0.2718 21:1 22:1 23:0.8 
1 0:2 1:4 2:4 3:6 4:4 5:0.625 6:3 7:3 8:6 9:0.4286 10:0.1957 11:0.3043 12:25 13:13 14:0.0476 15:0.3043 16:0.1957 17:0.1944 18:0.2639 19:0.3636 21:2 22:2 23:1 
1 0:3 1:6 2:5 3:8 4:4 5:0.625 6:3 7:3 8:6 9:0.3182 10:0.2069 11:0.2759 12:25 13:42 14:0.1818 15:0.3276 16:0.1897 17:0.1944 18:0.2639 19:0.4 21:3 22:3 23:1.43 
1 0:1 1:4 2:4 3:9 4:3 5:0.5278 6:5 7:3 8:5 9:0.4 10:0.2273 11:0.2045 12:22 13:15 14:0.15 15:0.3636 16:0.2045 17:0.2083 18:0.2222 19:0.0769 21:4 22:4 23:1.14 
1 0:3 1:5 2:4 3:8 4:3 5:0.5278 6:5 7:3 8:5 9:0.4 10:0.2075 11:0.2264 12:22 13:43 14:0.15 15:0.3585 16:0.2075 17:0.2083 18:0.2222 21:4 22:5 23:0.9 
1 0:-1 1:4 2:5 3:8 4:4 5:0.3833 6:3 7:3 8:4 9:0.1818 10:0.2857 11:0.1429 12:24 13:9 14:0.2727 15:0.1905 16:0.381 17:0.25 18:0.1667 21:2 22:2 23:1 
1 0:1 1:5 2:3 3:9 4:4 5:0.419 6:3 7:10 8:6 9:0.1364 10:0.3523 11:0.1705 12:32 13:9 14:0.4091 15:0.2159 16:0.2614 17:0.3238 18:0.2 19:0.25 21:3 22:3 23:4.5 
1 0:4 1:5 2:3 3:9 4:4 5:0.419 6:3 7:10 8:6 9:0.1818 10:0.3523 11:0.1705 12:32 13:75 14:0.3182 15:0.2159 16:0.2614 17:0.3238 18:0.2 19:0.25 21:2 22:3 23:0.86 
1 0:3 1:3 2:3 3:8 4:4 5:0.7123 6:5 7:5 8:4 9:0.2273 10:0.1111 11:0.3148 12:26 13:10 15:0.4074 16:0.1667 17:0.137 18:0.3151 19:0.3333 21:4 22:4 23:0.82 
1 0:2 1:7 2:4 3:11 4:5 5:0.7238 6:6 7:3 8:8 9:0.5909 10:0.1047 11:0.2791 12:39 13:74 14:0.1364 15:0.4419 16:0.1744 17:0.1048 18:0.2857 19:0.0588 21:2 22:5 23:0.64 
1 0:1 1:4 2:3 3:5 4:4 5:0.5349 6:5 7:5 8:5 9:0.2381 10:0.1642 11:0.2239 12:30 13:56 14:0.1905 15:0.2985 16:0.3134 17:0.2093 18:0.2209 19:0.375 21:3 22:4 23:1.22 
1 0:2 1:3 2:3 3:8 4:8 5:0.3836 7:4 8:2 9:0.2083 10:0.3333 11:0.1806 12:28 13:49 14:0.2083 15:0.2083 16:0.2778 17:0.3288 18:0.1781 19:-1 23:1 
1 0:2 1:4 2:1 3:1 4:5 5:0.3333 6:1 7:9 8:3 9:0.1818 10:0.3373 11:0.1928 12:32 13:62 14:0.4545 15:0.1446 16:0.3253 17:0.3452 18:0.1905 19:-1 21:1 22:1 23:1.33 
1 0:1 1:4 2:2 3:8 4:6 5:0.4476 6:8 7:6 8:4 9:0.0909 10:0.2475 11:0.1881 12:38 13:82 14:0.1364 15:0.2574 16:0.3069 17:0.2476 18:0.1905 21:1 22:7 23:1 
1 0:3 1:5 2:2 3:6 4:4 5:0.5049 6:5 7:4 8:5 9:0.1364 10:0.202 11:0.2525 12:38 13:80 14:0.1364 15:0.2525 16:0.2929 17:0.1942 18:0.2427 21:1 22:4 23:1 
1 0:1 1:6 2:3 3:10 4:4 5:0.4151 6:4 7:4 8:5 9:0.0909 10:0.2745 11:0.2059 12:37 13:83 14:0.1818 15:0.2059 16:0.3137 17:0.283 18:0.2075 19:-1 22:4 23:1.25 
1 0:1 1:5 2:2 3:6 4:4 5:0.4561 6:6 7:5 8:7 9:0.0909 10:0.2472 11:0.2247 12:42 13:81 14:0.1364 15:0.236 16:0.2921 17:0.2281 18:0.2018 19:0.25 21:1 22:3 23:1 
1 0:4 1:4 2:2 3:6 4:4 5:0.4775 6:3 7:6 8:5 9:0.0455 10:0.253 11:0.2169 12:42 13:76 14:0.1818 15:0.253 16:0.2771 17:0.2252 18:0.1982 19:0.1818 22:1 23:1 
1 0:4 1:5 2:2 3:6 4:5 5:0.4135 6:5 7:5 8:5 9:0.0909 10:0.2755 11:0.1939 12:38 13:80 14:0.1364 15:0.2143 16:0.3163 17:0.2692 18:0.1827 22:4 23:1 
1 0:1 1:5 2:2 3:6 4:3 5:0.4124 6:3 7:8 8:5 9:0.0909 10:0.2796 11:0.1935 12:36 13:74 14:0.1364 15:0.2258 16:0.3011 17:0.2887 18:0.1856 22:2 23:1 
1 0:4 1:5 2:2 3:6 4:4 5:0.4174 6:5 7:6 8:6 9:0.0909 10:0.2424 11:0.2121 12:41 13:86 14:0.1364 15:0.2222 16:0.3232 17:0.2348 18:0.2 19:0.2857 21:1 22:4 23:1 
1 0:1 1:5 2:3 3:4 4:9 5:0.3739 6:5 7:8 8:5 9:0.0455 10:0.2673 11:0.1782 12:40 13:87 14:0.1818 15:0.198 16:0.3564 17:0.2696 18:0.1652 21:1 22:4 23:1 
1 0:1 1:4 2:2 3:6 4:3 5:0.4433 6:3 7:7 8:4 9:0.0909 10:0.3011 11:0.2151 12:37 13:74 14:0.1364 15:0.2258 16:0.2581 17:0.3093 18:0.2165 22:3 23:1 
1 0:1 1:5 2:3 3:8 4:4 5:0.4476 6:4 7:3 8:5 9:0.0909 10:0.2673 11:0.2079 12:42 13:82 14:0.1364 15:0.2376 16:0.2871 17:0.2667 18:0.2095 21:2 22:3 23:0.5 
1 0:1 1:7 2:3 3:5 4:3 5:0.4766 6:5 7:3 8:7 9:0.1364 10:0.2062 11:0.2371 12:40 13:81 14:0.1364 15:0.2474 16:0.3093 17:0.2056 18:0.2243 21:2 22:3 23:1 
1 0:1 1:8 2:3 3:5 4:6 5:0.4579 6:3 7:2 8:9 9:0.0909 10:0.2626 11:0.2121 12:41 13:82 14:0.1364 15:0.2222 16:0.303 17:0.2617 18:0.2243 19:0.3333 21:2 22:3 23:1 
1 0:1 1:5 2:2 3:8 4:4 5:0.4314 6:4 7:6 8:5 9:0.0909 10:0.2551 11:0.2143 12:35 13:79 14:0.1818 15:0.2143 16:0.3163 17:0.2647 18:0.2157 21:1 22:4 23:1 
1 0:4 1:4 2:3 3:7 4:6 5:0.4 6:3 7:8 8:6 9:0.0909 10:0.2703 11:0.2027 12:37 13:72 14:0.1818 15:0.2162 16:0.3108 17:0.2636 18:0.1818 19:0.2667 21:1 22:1 23:0.9 
1 0:4 1:4 2:3 3:7 4:6 5:0.43 6:3 7:8 8:5 9:0.0909 10:0.2838 11:0.2027 12:36 13:66 14:0.1818 15:0.2297 16:0.2838 17:0.26 18:0.19 19:0.1667 21:1 22:1 23:0.9 
1 0:1 1:4 2:2 3:4 4:6 5:0.4059 6:3 7:8 8:4 9:0.1905 10:0.2889 11:0.2 12:36 13:11 14:0.0476 15:0.2 16:0.3111 17:0.2772 18:0.2079 21:1 22:3 23:0.8 
1 0:2 1:2 2:1 3:2 4:6 5:0.4059 6:3 7:8 8:4 9:0.2381 10:0.2941 11:0.1765 12:36 13:22 14:0.1905 15:0.1912 16:0.3382 17:0.2772 18:0.2079 19:0.1667 21:1 22:2 23:0.9 
1 0:3 1:3 2:2 3:3 4:6 5:0.495 6:4 7:1 8:5 9:0.2727 10:0.2468 11:0.2338 12:42 13:11 14:0.1818 15:0.2727 16:0.2468 17:0.2574 18:0.2376 19:0.1 21:1 22:4 23:0.73 
1 0:2 1:2 4:8 5:0.396 6:1 7:5 8:2 9:0.2 10:0.3333 11:0.2267 12:38 13:11 14:0.15 15:0.1867 16:0.2533 17:0.3267 18:0.2178 21:1 22:1 23:0.9 
1 0:3 1:5 2:2 3:8 4:6 5:0.5743 6:3 7:3 8:6 9:0.1364 10:0.2222 11:0.2963 12:37 13:13 14:0.2273 15:0.2963 16:0.1852 17:0.2178 18:0.2772 19:0.25 22:2 23:3.33 
1 0:4 1:5 2:2 3:8 4:6 5:0.5743 6:3 7:3 8:6 9:0.45 10:0.2208 11:0.2987 12:37 13:72 14:0.2 15:0.2987 16:0.1818 17:0.2178 18:0.2772 19:0.2 22:2 23:0.27 
1 0:4 4:12 5:0.3457 6:2 7:1 8:1 9:0.3 10:0.2963 11:0.1852 12:27 13:11 14:0.25 15:0.1481 16:0.3704 17:0.2963 18:0.1852 19:0.1429 21:2 22:2 23:1.11 
1 0:2 1:4 2:2 3:4 4:9 5:0.297 6:2 7:1 8:4 9:0.2381 10:0.3951 11:0.1358 12:36 13:71 14:0.1905 15:0.1358 16:0.3333 17:0.3564 18:0.1584 21:2 22:2 23:1.12 
1 0:4 4:12 5:0.5309 6:1 7:2 8:1 9:0.2381 10:0.2258 11:0.2742 12:32 13:51 14:0.381 15:0.2419 16:0.2581 17:0.2222 18:0.284 19:0.2222 21:1 22:1 23:0.82 
1 0:1 1:4 2:3 3:10 4:7 5:0.2475 6:2 7:1 8:3 9:0.2083 10:0.3158 11:0.1368 12:38 13:75 14:0.3333 15:0.1263 16:0.4211 17:0.3366 18:0.1287 19:-1 21:1 22:2 23:1.17 
1 0:3 1:3 2:2 3:7 4:5 5:0.4368 6:3 7:2 8:2 9:0.25 10:0.2651 11:0.2048 12:35 13:62 14:0.3333 15:0.241 16:0.2892 17:0.2759 18:0.1954 19:-1 21:1 22:3 23:1.29 
1 0:2 1:4 2:4 3:18 4:4 5:0.7167 7:8 8:4 9:0.5 10:0.16 11:0.44 12:17 13:34 14:0.1364 15:0.3 16:0.1 17:0.1833 18:0.4167 23:1.5 
1 0:4 1:6 2:5 3:20 4:8 5:0.7073 6:2 7:5 8:7 9:0.2381 10:0.0952 11:0.3968 12:23 13:53 14:0.0476 15:0.3016 16:0.2063 17:0.0732 18:0.4024 19:0.25 23:0.75 
1 0:3 1:4 2:3 3:9 4:4 5:0.6029 6:2 7:5 8:5 9:0.3478 10:0.2 11:0.2364 12:22 13:40 14:0.1304 15:0.3455 16:0.2182 17:0.2059 18:0.2353 19:0.5556 21:1 22:2 23:0.7 
1 0:2 1:5 2:5 3:19 4:8 5:0.5625 6:2 7:5 8:4 9:0.2273 10:0.082 11:0.3115 12:17 13:41 15:0.2787 16:0.3279 17:0.0938 18:0.2969 19:-1 21:1 22:2 23:0.33 
1 0:1 1:3 2:2 3:4 4:5 5:0.3613 6:6 7:2 8:4 9:0.3333 10:0.2911 11:0.1519 12:48 13:79 14:0.1905 15:0.1899 16:0.3671 17:0.2857 18:0.1681 19:0.0625 21:2 22:5 23:0.9 
1 0:1 1:4 2:1 3:2 4:5 5:0.3613 6:6 7:2 8:4 9:0.3333 10:0.2804 11:0.1776 12:48 13:93 14:0.1905 15:0.2056 16:0.3364 17:0.2857 18:0.1681 21:3 22:6 23:1.29 
1 0:1 1:5 2:2 3:5 4:5 5:0.4904 6:2 7:7 8:6 9:0.15 10:0.2472 11:0.2135 12:36 13:8 14:0.1 15:0.2697 16:0.2697 17:0.25 18:0.2212 19:0.2308 22:2 23:0.91 
1 0:4 1:6 2:3 3:8 4:5 5:0.4904 6:2 7:7 8:6 9:0.5 10:0.2553 11:0.2128 12:36 13:80 14:0.25 15:0.2766 16:0.2553 17:0.25 18:0.2212 22:2 23:2 
1 0:2 1:4 2:2 3:4 4:7 5:0.3839 6:5 7:2 8:5 9:0.1905 10:0.2875 11:0.1625 12:43 13:17 14:0.2381 15:0.225 16:0.325 17:0.2946 18:0.1607 19:0.0833 21:1 22:3 23:1.43 
1 0:2 1:5 2:2 3:4 4:7 5:0.3839 6:5 7:2 8:5 9:0.1905 10:0.2976 11:0.1667 12:43 13:78 14:0.2857 15:0.2143 16:0.3214 17:0.2946 18:0.1607 21:1 22:3 23:1.29 
1 0:1 1:4 2:3 3:10 4:4 5:0.4024 6:2 7:13 8:3 9:0.2917 10:0.359 11:0.1667 12:23 13:3 14:0.1667 15:0.2051 16:0.2692 17:0.3415 18:0.1951 19:-1 21:1 22:2 23:0.89 
1 0:4 1:3 2:2 3:6 4:11 5:0.3571 6:1 7:3 8:3 9:0.125 10:0.3151 11:0.1918 12:28 13:51 14:0.3333 15:0.1781 16:0.3151 17:0.3214 18:0.1905 21:1 22:1 23:0.67 
1 0:4 1:6 2:5 3:9 4:5 5:0.3421 6:3 7:2 8:6 9:0.2917 10:0.3505 11:0.1546 12:48 13:82 14:0.375 15:0.1753 16:0.3196 17:0.3421 18:0.1579 19:0.125 21:2 22:3 23:1.29 
0.9848155180431982 0:2 1:4 2:3 3:6 4:9 5:0.3816 6:2 7:4 8:3 9:0.2917 10:0.3472 11:0.1806 12:26 13:51 14:0.3333 15:0.1944 16:0.2778 17:0.3421 18:0.1842 19:-1 21:1 22:2 23:1.6 
1 0:1 1:3 2:2 3:4 4:7 5:0.359 6:3 7:5 8:2 9:0.2917 10:0.338 11:0.1408 12:26 13:51 14:0.3333 15:0.2113 16:0.3099 17:0.3205 18:0.141 19:-1 21:1 22:3 23:2 
1 0:1 1:4 2:2 3:4 4:5 5:0.4051 6:2 7:5 8:4 9:0.2917 10:0.338 11:0.169 12:29 13:51 14:0.3333 15:0.2113 16:0.2817 17:0.3165 18:0.1772 21:1 22:2 23:2 
0.8616029555695925 0:1 1:1 2:1 3:2 4:7 5:0.3763 6:2 7:1 8:2 9:0.0417 10:0.3425 11:0.1781 12:39 13:9 14:0.3333 15:0.137 16:0.3425 17:0.3118 18:0.2151 19:0.125 21:1 22:1 23:1 
1 0:1 1:1 2:1 3:2 4:7 5:0.3763 6:2 7:1 8:2 9:0.25 10:0.3425 11:0.1781 12:39 13:58 14:0.375 15:0.137 16:0.3425 17:0.3118 18:0.2151 19:0.125 21:1 22:1 23:1 
1 0:1 1:1 2:1 3:2 4:7 5:0.3763 6:2 7:1 8:2 9:0.0417 10:0.3425 11:0.1781 12:39 13:9 14:0.3333 15:0.137 16:0.3425 17:0.3118 18:0.2151 19:0.125 21:1 22:1 23:1 
1 0:1 1:1 2:1 3:2 4:7 5:0.3763 6:2 7:1 8:2 9:0.25 10:0.3425 11:0.1781 12:39 13:58 14:0.375 15:0.137 16:0.3425 17:0.3118 18:0.2151 19:0.125 21:1 22:1 23:1 
1 0:1 1:2 2:2 3:5 4:10 5:0.4211 6:2 7:2 8:1 9:0.3333 10:0.2603 11:0.2055 12:29 13:51 14:0.2917 15:0.2192 16:0.3151 17:0.2632 18:0.2105 19:-1 21:2 22:2 23:1.29 
1 0:3 1:8 2:5 3:12 4:5 5:0.3529 6:5 7:10 8:7 9:0.2857 10:0.2451 11:0.1667 12:35 13:1 14:0.1905 15:0.1863 16:0.402 17:0.2451 18:0.1667 19:-1 21:3 22:5 23:1 
1 0:1 1:4 2:3 3:7 4:4 5:0.2614 6:4 7:2 8:5 9:0.2609 10:0.3284 11:0.1045 12:35 13:56 14:0.3478 15:0.1642 16:0.403 17:0.3409 18:0.0909 19:0.1 21:3 22:3 23:1.29 
1 0:2 1:5 2:2 3:4 4:6 5:0.5051 6:4 7:11 8:5 9:0.2857 10:0.2062 11:0.2268 12:36 13:2 14:0.381 15:0.268 16:0.299 17:0.202 18:0.2222 19:-1 21:1 22:4 23:1 
1 0:1 1:5 2:4 3:15 4:6 5:0.5632 6:2 7:8 8:6 9:0.2381 10:0.1791 11:0.2985 12:25 13:11 14:0.2381 15:0.2687 16:0.2537 17:0.1724 18:0.2989 19:0.375 21:2 22:2 23:4 
1 0:1 1:6 2:4 3:9 4:15 5:0.4112 6:2 7:4 8:6 9:0.2857 10:0.3103 11:0.1609 12:36 13:77 14:0.1905 15:0.2184 16:0.3103 17:0.2991 18:0.1682 19:0.2222 21:2 22:2 23:1.4 
1 0:3 1:5 2:3 3:9 4:10 5:0.3894 6:6 7:12 8:7 9:0.3333 10:0.3196 11:0.1649 12:30 13:85 14:0.2381 15:0.1959 16:0.3196 17:0.292 18:0.1681 19:0.5714 21:4 22:6 23:1.6 
1 0:3 1:6 2:3 3:11 4:10 5:0.434 6:5 7:4 8:6 9:0.3333 10:0.2444 11:0.2444 12:29 13:5 14:0.3333 15:0.2 16:0.3111 17:0.2547 18:0.2453 19:-1 21:4 22:5 23:2.67 
1 0:1 1:5 2:5 3:7 4:9 5:0.5738 6:3 7:1 8:5 9:0.2857 10:0.1964 11:0.2857 12:22 13:4 14:0.1429 15:0.3214 16:0.1964 17:0.2131 18:0.2623 21:2 22:2 23:1.38 
1 0:4 1:6 2:2 3:5 4:4 5:0.4087 6:4 7:6 8:6 9:0.3333 10:0.271 11:0.1869 12:39 13:90 14:0.4286 15:0.215 16:0.3271 17:0.2609 18:0.1826 21:2 22:3 23:0.6 
1 0:2 1:5 2:4 3:9 4:4 5:0.4432 6:5 7:5 8:6 9:0.2273 10:0.3333 11:0.1905 12:32 13:56 14:0.2727 15:0.1746 16:0.3016 17:0.2727 18:0.2273 19:0.1667 21:1 22:3 23:1 
1 0:2 1:7 2:3 3:8 4:11 5:0.5091 6:1 7:5 8:7 9:0.2857 10:0.2212 11:0.2596 12:34 13:4 14:0.2857 15:0.2596 16:0.2596 17:0.2364 18:0.2636 22:1 23:0.8 
1 0:1 1:5 2:2 3:3 4:3 5:0.3853 6:4 7:6 8:6 9:0.2609 10:0.3258 11:0.1461 12:42 13:11 14:0.5217 15:0.2022 16:0.3258 17:0.3119 18:0.1651 19:0.1111 21:1 22:3 23:0.9 
1 0:2 1:4 2:2 3:6 4:4 5:0.5577 6:5 7:7 8:6 9:0.2857 10:0.125 11:0.325 12:33 13:11 14:0.0952 15:0.275 16:0.275 17:0.1731 18:0.2885 19:0.4783 21:1 22:3 23:1 
1 0:1 1:5 2:4 3:11 4:9 5:0.5147 6:2 7:5 8:5 9:0.3333 10:0.2188 11:0.1875 12:19 13:45 14:0.0952 15:0.3281 16:0.2656 17:0.2353 18:0.1912 19:-1 21:2 22:2 23:1 
1 0:4 1:5 2:3 3:9 4:3 5:0.466 6:6 7:7 8:5 9:0.2857 10:0.2892 11:0.241 12:28 13:11 14:0.2381 15:0.241 16:0.2289 17:0.3107 18:0.2524 19:-1 21:5 22:6 23:1.8 
1 0:2 1:3 2:3 3:10 4:4 5:0.5714 6:6 7:4 8:3 9:0.3333 10:0.18 11:0.24 12:27 13:11 14:0.2857 15:0.32 16:0.26 17:0.1571 18:0.2429 21:3 22:3 23:0.89 
1 0:2 1:5 2:2 3:9 4:6 5:0.4775 6:1 7:6 8:5 9:0.3333 10:0.3011 11:0.2581 12:39 13:10 14:0.4286 15:0.2043 16:0.2366 17:0.2973 18:0.2793 21:1 22:1 23:0.29 
1 0:1 1:4 2:2 3:8 4:3 5:0.4112 6:4 7:7 8:5 9:0.0455 10:0.2809 11:0.1573 12:42 13:75 14:0.1818 15:0.2247 16:0.3371 17:0.2617 18:0.1682 19:0.1429 21:1 22:3 23:1 
1 0:4 1:5 2:5 3:15 4:6 5:0.4658 7:3 8:6 9:0.2857 10:0.2075 11:0.2264 12:23 13:43 14:0.2381 15:0.2453 16:0.3208 17:0.2055 18:0.2329 19:0.2632 23:0.88 
1 0:3 1:5 2:3 3:5 4:5 5:0.4713 6:6 7:3 8:6 9:0.2857 10:0.2375 11:0.2 12:34 13:5 14:0.1429 15:0.25 16:0.3125 17:0.2299 18:0.1954 19:0.3333 21:3 22:5 23:0.73 
1 0:4 1:5 2:4 3:13 4:5 5:0.5455 6:3 7:5 8:8 9:0.3182 10:0.1774 11:0.2419 12:28 13:16 14:0.1364 15:0.3065 16:0.2742 17:0.1932 18:0.2159 19:0.4167 21:3 22:3 23:0.91 
1 0:3 1:3 2:1 3:1 4:8 5:0.5588 6:2 7:3 8:3 9:0.2857 10:0.2078 11:0.2727 12:41 13:14 14:0.381 15:0.3117 16:0.2078 17:0.2255 18:0.2647 21:1 22:2 23:1.43 
1 0:2 1:5 2:1 3:4 4:5 5:0.5408 6:2 7:4 8:6 9:0.2857 10:0.1948 11:0.2727 12:36 13:10 14:0.381 15:0.3247 16:0.2078 17:0.2245 18:0.2449 19:0.2 23:0.8 
1 0:2 1:5 2:4 3:10 4:4 5:0.5 6:1 7:2 8:6 9:0.3182 10:0.2143 11:0.2679 12:27 13:11 14:0.3636 15:0.2679 16:0.25 17:0.25 18:0.2368 19:0.125 23:1 
1 0:1 1:2 2:1 3:4 4:17 5:0.2745 6:2 7:2 8:2 9:0.1905 10:0.3827 11:0.1481 12:39 13:11 14:0.2381 15:0.1358 16:0.3333 17:0.3725 18:0.1373 21:1 22:1 23:0.8 
-0.01427062626751435 0:-1 1:1 2:2 3:14 4:12 5:0.4819 6:1 7:2 8:4 9:0.1364 10:0.2955 11:0.25 12:30 13:43 14:0.2727 15:0.25 16:0.2045 17:0.253 18:0.241 19:0.1579 
-0.8558691759332008 0:3 1:3 2:3 3:8 4:7 5:0.4026 6:2 7:2 8:3 9:0.1304 10:0.3067 11:0.1867 12:30 13:54 14:0.3043 15:0.2133 16:0.2933 17:0.3117 18:0.1948 19:-1 21:1 22:2 23:1.17 
-0.1375479783808707 0:1 1:6 2:5 3:11 4:6 5:0.5596 6:2 7:4 8:7 9:0.25 10:0.1975 11:0.321 12:39 13:16 14:0.25 15:0.2346 16:0.2469 17:0.2018 18:0.3303 19:0.1429 21:1 22:1 23:1.33 
-0.05928806431018512 0:4 1:6 2:2 3:19 4:4 5:0.6786 6:2 7:8 8:7 9:0.3 10:0.1818 11:0.3535 12:36 13:86 14:0.35 15:0.3232 16:0.1414 17:0.1875 18:0.3571 19:0.2 22:2 23:3.33 
-0.7148157705141771 0:2 1:7 2:2 3:6 4:8 5:0.4454 6:5 7:2 8:9 9:0.35 10:0.2083 11:0.2396 12:43 13:12 14:0.2 15:0.2604 16:0.2917 17:0.2437 18:0.2185 19:0.1818 21:2 22:5 23:0.9 
-0.00712944599614067 0:-1 1:2 2:3 3:14 4:8 5:0.4643 6:5 7:2 8:5 9:0.25 10:0.1667 11:0.25 12:43 13:33 14:0.2083 15:0.2083 16:0.375 17:0.2143 18:0.2411 19:0.129 21:3 22:3 23:3 
-0.01938256396130053 0:1 1:4 2:2 3:10 4:10 5:0.4673 6:5 7:3 8:4 9:0.3 10:0.2264 11:0.1981 12:38 13:1 14:0.15 15:0.2642 16:0.3113 17:0.2243 18:0.1963 19:-1 21:1 22:5 23:0.62 
-0.07431994846118981 0:3 1:4 2:4 3:12 4:5 5:0.4815 6:4 7:6 8:9 9:0.3043 10:0.2449 11:0.1837 12:39 13:32 14:0.2174 15:0.2857 16:0.2857 17:0.2593 18:0.2037 19:0.1786 21:2 22:3 23:0.8 
-0.1057269919606242 0:1 1:2 2:2 3:4 4:5 5:0.4414 6:5 7:4 8:3 9:0.2381 10:0.25 11:0.1786 12:46 13:63 14:0.1429 15:0.25 16:0.3214 17:0.2342 18:0.1892 19:0.0196 21:2 22:2 23:1 
-0.1436993914605667 0:1 1:3 2:1 3:8 4:4 5:0.33 6:5 7:7 8:3 9:0.3043 10:0.3617 11:0.1277 12:35 13:74 14:0.2609 15:0.1915 16:0.3191 17:0.35 18:0.13 21:3 22:5 23:2 
-0.03442632975497596 0:-1 1:1 2:2 3:4 4:4 5:0.5847 6:1 7:2 8:3 9:0.2 10:0.2619 11:0.2857 12:50 13:60 14:0.15 15:0.2619 16:0.1905 17:0.2119 18:0.3051 19:0.0857 23:0.89 
-0.05254271243040284 0:1 1:5 2:2 3:9 4:4 5:0.4095 6:3 7:3 8:5 9:0.15 10:0.2759 11:0.2184 12:42 13:10 14:0.25 15:0.1954 16:0.3103 17:0.2667 18:0.2095 22:1 23:1.12 
-0.1174082896891663 0:3 1:8 2:5 3:9 4:6 5:0.4579 6:3 7:2 8:9 9:0.3636 10:0.2588 11:0.2235 12:41 13:12 14:0.4091 15:0.2235 16:0.2941 17:0.2617 18:0.2243 19:0.1 21:1 22:2 23:2 
-0.176580125429628 0:1 1:1 2:1 3:2 4:6 5:0.495 6:4 7:1 8:5 9:0.35 10:0.25 11:0.2115 12:42 13:56 14:0.4 15:0.25 16:0.2885 17:0.2574 18:0.2376 19:0.1111 21:2 22:4 23:1 
-0.01879907082654309 0:4 1:2 2:3 3:16 4:7 5:0.359 6:3 7:5 8:2 9:0.125 10:0.3273 11:0.1455 12:26 13:11 14:0.2917 15:0.2364 16:0.2909 17:0.3205 18:0.141 21:3 22:3 23:4.5 
-0.1743513898197129 0:3 1:3 2:4 3:10 4:5 5:0.3529 6:5 7:10 8:7 9:0.1905 10:0.2653 11:0.1633 12:35 13:31 14:0.1905 15:0.2245 16:0.3469 17:0.2451 18:0.1667 19:0.3725 21:2 22:2 23:1.8 
-0.1029745196613239 0:1 1:7 2:5 3:17 4:10 5:0.3894 6:6 7:12 8:7 9:0.4091 10:0.2883 11:0.1622 12:30 13:91 14:0.0909 15:0.2252 16:0.3243 17:0.292 18:0.1681 19:-1 21:3 22:6 23:2 
-0.01174055774683649 0:1 1:4 2:4 3:17 4:11 5:0.5091 6:1 7:5 8:7 9:0.1739 10:0.2273 11:0.2727 12:34 13:66 14:0.3043 15:0.2121 16:0.2879 17:0.2364 18:0.2636 19:0.2 21:1 22:1 23:0.6 
-0.04267691154961418 0:4 1:4 2:4 3:20 4:3 5:0.466 6:6 7:7 8:5 9:0.2083 10:0.3273 11:0.2182 12:28 13:25 14:0.25 15:0.2182 16:0.2364 17:0.3107 18:0.2524 19:0.1429 21:4 22:4 23:1.29 
-0.001847841934099447 0:4 1:4 2:4 3:10 4:7 5:0.4231 6:4 7:7 8:6 9:0.1905 10:0.2581 11:0.1452 12:31 13:25 14:0.3333 15:0.2258 16:0.371 17:0.2788 18:0.1827 19:0.3514 21:4 22:4 23:1.5 
-0.2538537610388173 0:2 1:4 2:4 3:10 4:12 5:0.4819 6:1 7:2 8:4 9:0.1818 10:0.2571 11:0.2571 12:30 13:56 14:0.1818 15:0.2429 16:0.2429 17:0.253 18:0.241 23:0.88 
-0.008771951118676936 0:1 4:8 5:0.2451 6:3 7:2 8:1 9:0.05 10:0.3704 11:0.1111 12:44 13:59 14:0.35 15:0.1481 16:0.3704 17:0.3627 18:0.098 19:0.087 22:1 23:1.11 
-0.08691999741137602 0:1 1:5 2:2 3:14 4:4 5:0.2982 6:3 7:6 8:4 9:0.05 10:0.3482 11:0.1607 12:44 13:94 14:0.35 15:0.1429 16:0.3482 17:0.3509 18:0.1579 19:-1 22:3 23:5 
-0.01208777519382215 0:4 1:3 2:2 3:5 4:5 5:0.4701 6:3 7:2 8:5 9:0.2083 10:0.322 11:0.1356 12:48 13:65 14:0.25 15:0.2034 16:0.339 17:0.2479 18:0.2051 19:0.1071 21:2 22:2 23:1.11 
-0.001712951507966444 0:1 1:3 2:2 3:12 4:6 5:0.4058 6:6 7:5 8:3 9:0.1 10:0.2264 11:0.1698 12:24 13:8 14:0.25 15:0.2075 16:0.3962 17:0.2029 18:0.1739 21:3 22:3 23:0.45 
-0.04758649871725677 0:4 1:3 2:3 3:9 4:9 5:0.4615 6:1 7:3 8:3 10:0.2308 11:0.2115 12:29 13:14 14:0.2 15:0.25 16:0.3077 17:0.2436 18:0.2051 23:1.17 
-0.003628224596828699 0:-1 1:3 2:4 3:17 4:9 5:0.4615 6:1 7:3 8:3 9:0.4783 10:0.2292 11:0.2083 12:29 13:41 14:0.2174 15:0.25 16:0.3125 17:0.2436 18:0.2051 
-0.1460738200672184 0:4 1:2 2:2 3:4 4:5 5:0.4034 6:2 7:5 8:3 10:0.3134 11:0.194 12:47 13:71 14:0.3478 15:0.2239 16:0.2687 17:0.3025 18:0.1933 19:0.0435 22:1 23:0.64 
-0.06165837111302117 0:4 1:6 2:4 3:7 4:9 5:0.4602 6:2 7:2 8:9 9:0.0909 10:0.2639 11:0.1806 12:42 13:22 14:0.1818 15:0.25 16:0.3056 17:0.2478 18:0.1947 19:0.1892 21:2 22:2 23:0.78 
-0.01772426614437907 0:-1 1:2 2:3 3:6 4:3 5:0.4615 7:2 8:6 9:0.1667 10:0.3333 11:0.1569 12:48 13:34 14:0.4583 15:0.1961 16:0.3137 17:0.265 18:0.2308 19:0.1613 23:1.43 
-0.04099292048028737 0:4 1:4 2:2 3:6 4:3 5:0.4615 7:2 8:6 9:0.0952 10:0.2963 11:0.1852 12:48 13:19 14:0.381 15:0.2099 16:0.3086 17:0.265 18:0.2308 19:0.125 23:0.8 
-0.01482327439462056 0:-1 1:4 2:5 3:17 4:5 5:0.4569 6:2 7:3 8:7 9:0.3182 10:0.2391 11:0.1739 12:44 13:36 14:0.2727 15:0.2609 16:0.3261 17:0.2586 18:0.2155 19:0.0909 21:1 22:1 23:3.67 
-0.03020258682127957 0:2 1:11 2:6 3:10 4:6 5:0.7241 6:3 7:3 8:10 9:0.2083 10:0.1379 11:0.3879 12:43 13:1 14:0.125 15:0.3362 16:0.1379 17:0.1379 18:0.3879 19:-1 22:3 23:1 
-0.2568124524074747 0:4 1:4 2:1 3:4 4:8 5:0.453 6:4 7:2 8:5 9:0.5217 10:0.2371 11:0.1856 12:48 13:11 14:0.3043 15:0.268 16:0.3093 17:0.2564 18:0.1966 19:0.125 21:2 22:4 23:0.9 
-0.04970564379023271 0:2 1:6 2:3 3:11 4:4 5:0.6964 6:3 7:8 8:7 9:0.25 10:0.1264 11:0.3678 12:37 13:13 14:0.2 15:0.3563 16:0.1494 17:0.1696 18:0.3661 19:0.5455 22:3 23:0.5 
-0.06340088163520548 0:3 1:6 2:3 3:23 4:4 5:0.6786 6:2 7:8 8:7 9:0.2083 10:0.1818 11:0.3535 12:36 13:7 14:0.2083 15:0.3232 16:0.1414 17:0.1875 18:0.3571 19:0.2 22:2 23:0.6 
-0.2505802955847692 0:4 1:3 2:2 3:6 4:8 5:0.4643 6:5 7:2 8:5 9:0.15 10:0.1765 11:0.2647 12:43 13:71 14:0.1 15:0.2353 16:0.3235 17:0.2143 18:0.2411 19:0.1429 21:3 22:4 23:0.62 
-0.08635690556792111 0:4 1:4 2:3 3:8 4:8 5:0.5192 6:7 7:2 8:6 9:0.375 10:0.1719 11:0.2344 12:36 13:21 14:0.2917 15:0.2812 16:0.3125 17:0.1827 18:0.2404 19:0.125 21:3 22:4 23:1 
-0.1122474616290427 0:2 1:4 2:3 3:8 4:8 5:0.5 6:4 7:2 8:4 9:0.4348 10:0.1806 11:0.2361 12:32 13:8 14:0.2609 15:0.2639 16:0.3194 17:0.1977 18:0.2442 21:3 22:4 23:1.6 
-0.02298699686860345 0:4 1:4 2:5 3:16 4:8 5:0.5204 6:7 7:2 8:6 9:0.2 10:0.1818 11:0.2273 12:35 13:52 14:0.15 15:0.25 16:0.3409 17:0.1837 18:0.2449 19:0.1154 21:2 22:2 23:1 
-0.03171286885255741 0:-1 1:4 2:5 3:20 4:8 5:0.4706 6:5 7:3 8:7 9:0.1739 10:0.1957 11:0.2391 12:44 13:60 14:0.1739 15:0.2391 16:0.3261 17:0.2269 18:0.2269 19:0.1111 21:2 22:2 23:0.38 
-0.1386966132060068 0:4 1:2 2:1 3:4 4:4 5:0.5847 6:1 7:2 8:3 9:0.3 10:0.2326 11:0.2907 12:50 13:16 14:0.15 15:0.2791 16:0.1977 17:0.2119 18:0.3051 19:0.0769 23:1.67 
-0.2248429046382053 0:3 1:7 2:4 3:13 4:3 5:0.4587 6:2 7:5 8:7 9:0.2727 10:0.2564 11:0.1795 12:38 13:16 14:0.1818 15:0.2821 16:0.2821 17:0.2569 18:0.1927 22:1 23:4 
-0.0602283801776642 0:1 1:1 2:1 3:11 4:14 5:0.3592 6:2 7:6 8:2 9:0.35 10:0.4182 11:0.1818 12:29 13:25 14:0.25 15:0.2182 16:0.1818 17:0.3689 18:0.1942 19:0.0667 21:1 22:1 23:1.29 
-0.07163526176208458 0:3 1:3 2:3 3:8 4:6 5:0.6512 6:2 7:4 8:5 9:0.5 10:0.1522 11:0.2609 12:29 13:22 14:0.1 15:0.3696 16:0.2174 17:0.186 18:0.2674 19:0.2571 21:1 22:1 23:1.22 
-0.2836923277082348 0:-1 1:4 2:5 3:8 4:4 5:0.625 6:3 7:3 8:6 9:0.4167 10:0.1875 11:0.3125 12:25 13:12 14:0.0833 15:0.3125 16:0.1875 17:0.1944 18:0.2639 19:0.4 21:2 22:2 23:1.38 
-0.07771714526880051 0:2 1:3 2:3 3:12 4:4 5:0.5349 6:5 7:5 8:5 9:0.375 10:0.1346 11:0.25 12:30 13:17 14:0.2083 15:0.3269 16:0.2885 17:0.2093 18:0.2209 19:0.2258 21:3 22:3 23:1.67 
-0.1173172456736462 0:1 1:3 2:2 3:4 4:5 5:0.3333 6:1 7:9 8:3 9:0.15 10:0.3485 11:0.1818 12:32 13:55 14:0.45 15:0.1364 16:0.3333 17:0.3452 18:0.1905 21:1 22:1 23:0.89 
-0.02969511243625378 0:-1 1:3 2:4 3:17 4:5 5:0.3333 6:1 7:9 8:3 9:0.1304 10:0.375 11:0.1786 12:32 13:14 14:0.2609 15:0.1071 16:0.3393 17:0.3452 18:0.1905 23:1.8 
-0.001362292059292239 0:1 1:2 2:2 3:13 4:6 5:0.4476 6:8 7:6 8:4 9:0.3333 10:0.2075 11:0.1509 12:38 13:56 14:0.2083 15:0.283 16:0.3585 17:0.2476 18:0.1905 19:0.16 21:6 22:6 23:1.5 
-0.006814932252568242 0:-1 1:2 2:3 3:13 4:4 5:0.4151 6:4 7:4 8:5 9:0.05 10:0.2195 11:0.1707 12:37 13:35 14:0.2 15:0.1951 16:0.4146 17:0.283 18:0.2075 19:0.1864 21:2 22:2 23:1.29 
-0.008473585580440793 0:3 1:3 2:2 3:16 4:4 5:0.4174 6:5 7:6 8:6 9:0.2273 10:0.2308 11:0.2 12:41 13:26 14:0.3182 15:0.2154 16:0.3538 17:0.2348 18:0.2 19:0.2083 21:2 22:3 23:5 
-0.03021929040554068 0:4 1:5 2:4 3:6 4:9 5:0.3739 6:5 7:8 8:5 9:0.2273 10:0.2697 11:0.1798 12:40 13:14 14:0.4545 15:0.191 16:0.3596 17:0.2696 18:0.1652 21:1 22:3 23:2 
-0.4016938075854531 0:1 1:6 2:3 3:5 4:9 5:0.3739 6:5 7:8 8:5 9:0.1304 10:0.2655 11:0.1681 12:40 13:92 14:0.1739 15:0.2124 16:0.354 17:0.2696 18:0.1652 19:-1 21:2 22:5 23:1.29 
-0.04068038764693654 0:3 1:5 2:4 3:11 4:6 5:0.4 6:3 7:8 8:6 9:0.4286 10:0.2674 11:0.186 12:37 13:14 14:0.1905 15:0.2093 16:0.3372 17:0.2636 18:0.1818 19:0.2222 21:1 22:1 23:3 
-0.02416755603174002 0:1 1:2 4:8 5:0.396 6:1 7:5 8:2 9:0.15 10:0.3226 11:0.2258 12:38 13:2 14:0.05 15:0.1935 16:0.2581 17:0.3267 18:0.2178 22:1 23:1.1 
-0.003042530716053482 0:1 1:3 2:2 3:4 4:5 5:0.3613 6:6 7:2 8:4 9:0.0952 10:0.3151 11:0.137 12:48 13:24 14:0.381 15:0.1644 16:0.3836 17:0.2857 18:0.1681 19:0.0526 21:1 22:4 23:1.12 
-0.03443570296811439 0:4 1:4 2:4 3:7 4:5 5:0.3529 6:5 7:10 8:7 9:0.2 10:0.26 11:0.16 12:35 13:30 14:0.15 15:0.22 16:0.36 17:0.2451 18:0.1667 19:0.36 21:2 22:2 23:0.88 
-0.1192915215116596 0:2 1:4 2:2 3:4 4:6 5:0.5051 6:4 7:11 8:5 9:0.1905 10:0.1928 11:0.2289 12:36 13:71 14:0.2381 15:0.2771 16:0.3012 17:0.202 18:0.2222 19:0.1429 22:3 23:0.5 
-0.001569264478858856 0:3 1:5 2:4 3:16 4:10 5:0.434 6:5 7:4 8:6 9:0.125 10:0.2208 11:0.2857 12:29 13:64 14:0.2083 15:0.1948 16:0.2987 17:0.2547 18:0.2453 19:0.2308 21:3 22:4 23:0.67 
-0.02238030454222734 0:3 1:4 2:4 3:13 4:10 5:0.434 6:5 7:4 8:6 9:0.1 10:0.2449 11:0.3265 12:29 13:25 14:0.15 15:0.1633 16:0.2653 17:0.2547 18:0.2453 19:0.2195 21:1 22:1 23:1.5 
-0.2315281836600321 0:-1 1:4 2:5 3:11 4:4 5:0.5 6:1 7:2 8:6 9:0.2609 10:0.1556 11:0.3111 12:27 13:39 14:0.1304 15:0.2889 16:0.2444 17:0.25 18:0.2368 19:0.1852 23:0.82 
-0.05824547850368796 0:4 1:2 2:2 3:4 4:17 5:0.2745 6:2 7:2 8:2 9:0.15 10:0.3881 11:0.1791 12:39 13:65 14:0.5 15:0.1343 16:0.2985 17:0.3725 18:0.1373 19:0.0588 23:1.29 
-0.1383085534479308 0:4 1:5 2:4 3:12 4:4 5:0.4679 6:4 7:5 8:6 9:0.0909 10:0.25 11:0.2361 12:39 13:19 14:0.2727 15:0.2917 16:0.2222 17:0.2477 18:0.2018 19:0.2222 22:1 23:0.9 
-0.01172826965375245 0:1 1:4 2:5 3:19 4:5 5:0.4956 6:4 7:3 8:9 9:0.2381 10:0.2727 11:0.1591 12:40 13:37 14:0.1905 15:0.25 16:0.3182 17:0.2035 18:0.2035 19:0.1385 21:1 22:1 23:0.75 
-0.004450819853667054 0:-1 1:4 2:5 3:12 4:6 5:0.51 6:2 7:3 8:7 9:0.3333 10:0.1905 11:0.3333 12:37 13:50 14:0.2381 15:0.2619 16:0.2143 17:0.22 18:0.27 19:0.1321 23:1 
-0.008777676132575851 0:1 1:4 2:3 3:6 4:12 5:0.4819 6:1 7:2 8:4 9:0.2727 10:0.2561 11:0.2439 12:30 13:2 14:0.3182 15:0.2439 16:0.2561 17:0.253 18:0.241 19:-1 21:1 22:1 23:0.82 
-0.3096087052743335 0:4 1:2 2:2 3:8 4:7 5:0.5306 6:4 7:3 8:3 9:0.2174 10:0.193 11:0.2281 12:36 13:24 14:0.2609 15:0.2632 16:0.3158 17:0.1837 18:0.2653 19:0.1667 21:2 22:2 23:0.5 
-0.1527291385861324 0:2 1:7 2:4 3:10 4:6 5:0.4815 6:6 7:3 8:8 9:0.2381 10:0.25 11:0.2273 12:40 13:11 14:0.1429 15:0.25 16:0.2727 17:0.2407 18:0.213 19:0.2222 21:2 22:5 23:1.75 
-0.1050303931660533 0:2 4:8 5:0.2451 6:3 7:2 8:1 9:0.0435 10:0.3824 11:0.0882 12:44 13:63 14:0.4348 15:0.1324 16:0.3971 17:0.3627 18:0.098 19:0.125 21:1 22:2 23:1.12 
-0.0460498030773594 0:1 4:8 5:0.2451 6:3 7:2 8:1 9:0.2381 10:0.3654 11:0.1154 12:44 13:26 14:0.3333 15:0.1538 16:0.3654 17:0.3627 18:0.098 19:0.0833 21:1 22:1 23:1 
-0.3144882066349615 0:4 1:4 2:1 3:2 4:5 5:0.4701 6:3 7:2 8:5 9:0.25 10:0.2933 11:0.16 12:48 13:77 14:0.2 15:0.2267 16:0.32 17:0.2479 18:0.2051 19:0.1 21:1 22:2 23:1.25 
-0.5869995084806678 0:2 1:4 2:3 3:8 4:4 5:0.7313 6:2 7:2 8:4 9:0.4286 10:0.0678 11:0.3898 12:26 13:5 15:0.3559 16:0.1864 17:0.0896 18:0.3881 21:1 22:2 23:0.55 
-0.07290979668721213 0:-1 1:3 2:4 3:17 4:6 5:0.4058 6:6 7:5 8:3 9:0.2917 10:0.2449 11:0.1633 12:24 13:35 14:0.2083 15:0.1837 16:0.4082 17:0.2029 18:0.1739 21:2 22:2 23:1.67 
-0.08320411123214129 0:2 1:1 2:1 3:6 4:5 5:0.4516 7:3 8:2 9:0.1429 10:0.3151 11:0.2055 12:39 13:11 14:0.4286 15:0.2055 16:0.274 17:0.2903 18:0.2366 19:0.1111 23:0.22 
-0.03178802922247468 0:3 1:2 2:2 3:8 4:5 5:0.4034 6:2 7:5 8:3 9:0.3478 10:0.3175 11:0.1905 12:47 13:29 14:0.2609 15:0.2222 16:0.2698 17:0.3025 18:0.1933 19:0.04 22:1 23:5 
-0.05308689430378482 0:4 1:4 2:2 3:6 4:5 5:0.4034 6:2 7:5 8:3 9:0.45 10:0.2991 11:0.1966 12:47 13:99 14:0.25 15:0.2137 16:0.2906 17:0.3025 18:0.1933 19:-1 21:1 22:2 23:2.25 
-0.02870406313505628 0:4 1:8 2:3 3:14 4:4 5:0.4696 6:5 7:4 8:7 9:0.3636 10:0.2261 11:0.2174 12:37 13:1 14:0.5 15:0.2522 16:0.3043 17:0.2261 18:0.2174 19:-1 21:1 22:5 
-0.02840377731243159 0:-1 1:3 2:4 3:17 4:4 5:0.4386 6:5 7:4 8:5 9:0.2857 10:0.2093 11:0.1628 12:43 13:39 14:0.3333 15:0.3023 16:0.3256 17:0.2544 18:0.1842 19:0.0746 21:2 22:2 23:0.4 
-0.5992437497465302 0:4 1:7 2:4 3:7 4:9 5:0.4602 6:2 7:2 8:9 9:0.0952 10:0.2381 11:0.1905 12:42 13:16 14:0.1429 15:0.2738 16:0.2976 17:0.2478 18:0.1947 19:0.12 22:2 23:1 
-0.3892539625019587 0:3 1:9 2:6 3:10 4:9 5:0.4602 6:2 7:2 8:9 9:0.3636 10:0.2424 11:0.202 12:42 13:85 14:0.1818 15:0.2626 16:0.2929 17:0.2478 18:0.1947 22:2 23:1.25 
-0.04455122612513873 0:4 1:3 2:1 3:2 4:5 5:0.4435 6:4 7:8 8:4 9:0.2727 10:0.24 11:0.2 12:44 13:9 14:0.2727 15:0.22 16:0.34 17:0.2261 18:0.2087 19:0.2857 21:2 22:3 23:1 
-0.1034820327288328 0:2 1:2 2:2 3:6 4:5 5:0.4435 6:4 7:8 8:4 9:0.2273 10:0.2576 11:0.197 12:44 13:70 14:0.1818 15:0.197 16:0.3485 17:0.2261 18:0.2087 19:0.125 22:1 23:0.45 
-0.03788533163614904 0:2 1:2 2:2 3:14 4:5 5:0.4435 6:4 7:8 8:4 9:0.1818 10:0.2679 11:0.1786 12:44 13:65 14:0.2273 15:0.1786 16:0.375 17:0.2261 18:0.2087 19:0.1034 22:1 
-0.1446741155799074 0:4 1:2 2:2 3:5 4:11 5:0.4828 6:3 7:3 8:3 9:0.1905 10:0.2586 11:0.1897 12:48 13:30 14:0.381 15:0.2069 16:0.3448 17:0.2328 18:0.2328 19:0.0357 21:1 22:1 23:0.82 
-0.7083685707977582 0:2 1:3 2:1 3:2 4:11 5:0.4828 6:3 7:3 8:3 9:0.2727 10:0.266 11:0.2021 12:48 13:84 14:0.1364 15:0.2234 16:0.3085 17:0.2328 18:0.2328 21:2 22:2 23:0.9 
-0.6894297282513516 0:1 1:5 2:3 3:8 4:3 5:0.4615 7:2 8:6 9:0.2857 10:0.2947 11:0.2 12:48 13:86 14:0.1429 15:0.2211 16:0.2842 17:0.265 18:0.2308 19:0.1111 23:0.5 
-0.115198191288467 0:1 1:8 2:5 3:12 4:6 5:0.7241 6:3 7:3 8:10 9:0.381 10:0.119 11:0.4048 12:43 13:79 14:0.0476 15:0.3333 16:0.1429 17:0.1379 18:0.3879 19:0.1333 21:1 22:3 23:0.89 
-0.1976599466322738 0:3 1:7 2:2 3:7 4:3 5:0.4138 6:4 7:5 8:7 9:0.1905 10:0.283 11:0.1698 12:37 13:91 14:0.381 15:0.2453 16:0.3019 17:0.2759 18:0.1638 22:3 23:0.56 
-0.01150824857894156 0:2 1:6 2:3 3:15 4:4 5:0.6964 6:3 7:8 8:7 9:0.25 10:0.1505 11:0.3656 12:37 13:10 14:0.25 15:0.3441 16:0.1398 17:0.1696 18:0.3661 19:0.375 22:3 
-0.02012516434556673 0:1 1:2 4:23 5:0.3304 6:1 7:1 8:2 10:0.2952 11:0.2 12:41 13:85 14:0.3182 15:0.1524 16:0.3524 17:0.2857 18:0.1875 22:1 23:0.8 
-0.001459287742538451 0:3 1:4 2:5 3:16 4:8 5:0.4454 6:5 7:2 8:9 9:0.3043 10:0.16 11:0.24 12:43 13:35 14:0.1739 15:0.28 16:0.32 17:0.2437 18:0.2185 19:0.1765 21:3 22:3 23:1.6 
-0.05498336076128803 0:4 1:5 2:4 3:10 4:8 5:0.5 6:5 7:2 8:7 9:0.2857 10:0.1618 11:0.25 12:40 13:70 14:0.0476 15:0.2941 16:0.2941 17:0.1964 18:0.2321 19:0.1905 21:3 22:4 23:0.62 
-0.05343602321118478 0:4 1:8 2:3 3:10 4:8 5:0.5 6:5 7:2 8:7 9:0.2273 10:0.1964 11:0.2321 12:40 13:91 14:0.3636 15:0.2679 16:0.3036 17:0.1964 18:0.2321 19:-1 21:1 22:5 23:1.67 
-0.3559971284821161 0:4 1:5 2:3 3:6 4:8 5:0.4483 6:5 7:3 8:6 9:0.1739 10:0.1939 11:0.2347 12:43 13:85 14:0.2174 15:0.2347 16:0.3367 17:0.2155 18:0.2241 19:0.25 21:2 22:5 23:1.43 
-0.0232481172186124 0:3 1:3 2:2 3:10 4:10 5:0.4673 6:5 7:3 8:4 9:0.2 10:0.2396 11:0.2083 12:38 13:6 14:0.2 15:0.2396 16:0.3125 17:0.2243 18:0.1963 19:0.6 21:1 22:4 23:5 
-0.05447674744334724 0:2 1:6 2:2 3:4 4:8 5:0.5192 6:7 7:2 8:6 9:0.2381 10:0.1771 11:0.25 12:36 13:80 14:0.1905 15:0.2917 16:0.2812 17:0.1827 18:0.2404 19:-1 21:4 22:7 23:1.22 
-0.01834078539392939 0:-1 1:4 2:5 3:18 4:8 5:0.5192 6:7 7:2 8:6 9:0.2727 10:0.1818 11:0.2273 12:36 13:31 14:0.2273 15:0.25 16:0.3409 17:0.1827 18:0.2404 19:0.0769 21:2 22:2 23:1.67 
-0.009960866171091598 0:3 1:7 2:3 3:12 4:8 5:0.5192 6:7 7:2 8:6 9:0.3 10:0.1827 11:0.2404 12:36 13:1 14:0.1 15:0.2788 16:0.2981 17:0.1827 18:0.2404 19:-1 21:3 22:7 
-0.02375283301369293 0:4 1:4 2:3 3:8 4:8 5:0.5204 6:7 7:2 8:6 9:0.4286 10:0.1818 11:0.2424 12:35 13:17 14:0.2381 15:0.2727 16:0.303 17:0.1837 18:0.2449 19:0.2 21:2 22:3 23:1.43 
-0.01742809915930718 0:3 1:4 2:5 3:16 4:8 5:0.5204 6:7 7:2 8:6 9:0.3333 10:0.1739 11:0.2391 12:35 13:27 14:0.1905 15:0.2609 16:0.3261 17:0.1837 18:0.2449 19:0.12 21:2 22:2 23:1.6 
-0.02284039352609474 0:-1 1:4 2:5 3:20 4:8 5:0.4706 6:5 7:3 8:7 9:0.3043 10:0.1875 11:0.2292 12:44 13:36 14:0.1739 15:0.25 16:0.3333 17:0.2269 18:0.2269 19:0.1143 21:3 22:3 23:2.67 
-0.02598016851543833 0:-1 1:3 2:4 3:18 4:8 5:0.4706 6:6 7:3 8:6 9:0.1364 10:0.1957 11:0.2391 12:45 13:62 14:0.1818 15:0.2174 16:0.3478 17:0.2017 18:0.2185 19:0.1111 21:1 22:1 23:0.38 
-0.1063872761510905 0:4 1:3 2:4 3:16 4:8 5:0.4706 6:6 7:3 8:6 9:0.1 10:0.2045 11:0.2273 12:45 13:63 14:0.2 15:0.2045 16:0.3636 17:0.2017 18:0.2185 19:0.1081 21:1 22:1 23:0.71 
-0.004823949201125676 0:1 1:6 2:3 3:12 4:6 5:0.3694 6:4 7:3 8:6 9:0.2857 10:0.3187 11:0.1538 12:41 13:81 14:0.1429 15:0.1868 16:0.3407 17:0.3063 18:0.1622 21:2 22:4 23:0.5 
-0.05643815345513591 0:4 1:4 2:3 3:10 4:23 5:0.3689 6:3 7:2 8:4 9:0.125 10:0.2828 11:0.1616 12:33 13:3 14:0.25 15:0.202 16:0.3535 17:0.2718 18:0.165 21:2 22:3 23:0.44 
-0.04861635249253343 0:-1 1:2 2:3 3:12 4:3 5:0.4786 6:6 7:4 8:6 9:0.2 10:0.2927 11:0.1463 12:45 13:39 14:0.35 15:0.2683 16:0.2927 17:0.2051 18:0.1795 19:0.1733 21:1 22:1 23:1.12 
-0.01297183857794757 0:4 1:3 2:1 3:8 4:4 5:0.33 6:5 7:7 8:3 9:0.1739 10:0.3667 11:0.1222 12:35 13:5 14:0.3043 15:0.1889 16:0.3222 17:0.35 18:0.13 21:3 22:5 
-0.007956394828881341 0:1 1:3 2:1 3:8 4:4 5:0.33 6:5 7:7 8:3 9:0.25 10:0.3617 11:0.1277 12:35 13:77 14:0.3 15:0.1915 16:0.3191 17:0.35 18:0.13 21:3 22:5 23:1.8 
-1 0:1 1:6 2:2 3:8 4:4 5:0.4095 6:3 7:3 8:5 9:0.1667 10:0.2667 11:0.2095 12:42 13:82 14:0.25 15:0.2 16:0.3238 17:0.2667 18:0.2095 19:-1 21:2 22:3 23:1.43 
-0.0976963015902311 0:3 1:5 2:2 3:9 4:4 5:0.4095 6:3 7:3 8:5 9:0.1429 10:0.2824 11:0.2118 12:42 13:11 14:0.2381 15:0.1882 16:0.3176 17:0.2667 18:0.2095 22:1 23:1.33 
-0.02692825241727485 0:2 1:2 2:2 3:12 4:15 5:0.4404 6:3 7:4 8:4 9:0.2174 10:0.2615 11:0.1385 12:37 13:23 14:0.3043 15:0.2615 16:0.3385 17:0.2477 18:0.1835 19:0.122 21:2 22:2 23:1.12 
-0.004075215719973498 0:3 1:3 2:2 3:10 4:15 5:0.4404 6:3 7:4 8:4 9:0.3 10:0.24 11:0.1867 12:37 13:18 14:0.15 15:0.2667 16:0.3067 17:0.2477 18:0.1835 19:0.0323 21:1 22:2 23:4.5 
-0.01229863656569944 0:1 1:2 2:1 3:2 4:14 5:0.3592 6:2 7:6 8:2 9:0.0952 10:0.411 11:0.1781 12:29 13:68 14:0.4286 15:0.1918 16:0.2192 17:0.3689 18:0.1942 22:1 23:1.29 
-0.0101886399326177 0:1 1:3 2:3 3:8 4:6 5:0.6512 6:2 7:4 8:5 9:0.4762 10:0.1522 11:0.2609 12:29 13:22 14:0.0952 15:0.3696 16:0.2174 17:0.186 18:0.2674 19:0.2571 21:1 22:1 23:1 
-0.00125691959465928 0:4 1:2 2:2 3:13 4:6 5:0.4476 6:8 7:6 8:4 9:0.1905 10:0.1961 11:0.1569 12:38 13:28 14:0.1429 15:0.2941 16:0.3529 17:0.2476 18:0.1905 19:0.1538 21:5 22:6 23:0.4 
-0.0655175149159157 0:1 1:5 2:3 3:12 4:4 5:0.5049 6:5 7:4 8:5 9:0.1304 10:0.2 11:0.2588 12:38 13:72 14:0.0435 15:0.2471 16:0.2941 17:0.1942 18:0.2427 21:1 22:3 23:0.18 
-0.04832598050489514 0:3 1:4 2:3 3:19 4:4 5:0.4174 6:5 7:6 8:6 9:0.25 10:0.2429 11:0.1857 12:41 13:23 14:0.3333 15:0.2286 16:0.3429 17:0.2348 18:0.2 19:0.1628 21:2 22:3 23:5 
-0.001481140463344965 0:1 1:4 2:4 3:19 4:9 5:0.3739 6:5 7:8 8:5 9:0.125 10:0.2692 11:0.1667 12:40 13:73 14:0.1667 15:0.1923 16:0.3718 17:0.2696 18:0.1652 19:0.0303 21:2 22:3 
-0.2341391448499082 0:4 1:4 2:3 3:5 4:9 5:0.3739 6:5 7:8 8:5 9:0.1818 10:0.2805 11:0.1585 12:40 13:17 14:0.5 15:0.1829 16:0.378 17:0.2696 18:0.1652 19:0.0345 21:2 22:3 23:0.78 
-0.02173748503589794 0:3 1:2 2:2 3:7 4:4 5:0.4476 6:4 7:3 8:5 9:0.45 10:0.3061 11:0.1837 12:42 13:57 14:0.2 15:0.2041 16:0.3061 17:0.2667 18:0.2095 19:0.1481 23:1.22 
-0.0131280536705026 0:4 1:6 2:5 3:7 4:6 5:0.4579 6:3 7:2 8:9 9:0.25 10:0.2615 11:0.2 12:41 13:21 14:0.375 15:0.2154 16:0.3231 17:0.2617 18:0.2243 19:0.15 21:2 22:2 23:1 
-0.04294804660836931 0:-1 1:3 2:4 3:19 4:6 5:0.4 6:3 7:8 8:6 9:0.2273 10:0.2745 11:0.2157 12:37 13:31 14:0.3182 15:0.2157 16:0.2941 17:0.2636 18:0.1818 19:0.1698 23:0.5 
-0.01882342527547032 0:3 1:2 2:2 3:3 4:6 5:0.495 6:4 7:1 8:5 9:0.3333 10:0.2462 11:0.2154 12:42 13:58 14:0.3333 15:0.2615 16:0.2769 17:0.2574 18:0.2376 19:0.125 21:1 22:4 23:0.7 
-0.008072022933908161 0:2 1:3 2:3 3:7 4:7 5:0.3763 6:2 7:1 8:2 9:0.1818 10:0.3043 11:0.2174 12:39 13:71 14:0.3182 15:0.163 16:0.3152 17:0.3118 18:0.2151 19:-1 21:1 22:2 23:2 
-0.03826744200445261 0:4 1:4 2:3 3:14 4:5 5:0.3529 6:5 7:10 8:7 9:0.3333 10:0.254 11:0.1429 12:35 13:61 14:0.2857 15:0.1905 16:0.4127 17:0.2451 18:0.1667 19:0.2432 21:3 22:3 23:0.56 
-0.0410025485019299 0:3 1:7 2:5 3:20 4:6 5:0.5632 6:2 7:8 8:6 9:0.3333 10:0.1724 11:0.2989 12:25 13:1 14:0.2083 15:0.2644 16:0.2644 17:0.1724 18:0.2989 19:-1 21:1 22:2 23:1 
-0.07047454676673015 0:3 1:7 2:4 3:16 4:10 5:0.3894 6:6 7:12 8:7 9:0.2857 10:0.2883 11:0.1622 12:30 13:2 14:0.2857 15:0.2252 16:0.3243 17:0.292 18:0.1681 19:-1 21:1 22:6 23:0.62 
-0.665802748957076 0:1 1:6 2:3 3:9 4:4 5:0.4087 6:4 7:6 8:6 9:0.3043 10:0.2632 11:0.1895 12:39 13:82 14:0.3478 15:0.2211 16:0.3263 17:0.2609 18:0.1826 21:2 22:3 23:1.12 
-0.1540378243437117 0:4 1:7 2:5 3:12 4:4 5:0.4432 6:5 7:5 8:6 9:0.2609 10:0.2727 11:0.2273 12:32 13:1 14:0.1739 15:0.2159 16:0.2841 17:0.2727 18:0.2273 19:-1 21:2 22:5 23:1.14 
-0.03449292061030205 0:4 1:5 2:2 3:7 4:11 5:0.5091 6:1 7:5 8:7 9:0.3 10:0.2391 11:0.2717 12:34 13:82 14:0.3 15:0.2283 16:0.2609 17:0.2364 18:0.2636 19:0.4286 22:1 23:0.7 
-0.04242993884937736 0:1 1:6 2:3 3:16 4:4 5:0.5577 6:5 7:7 8:6 9:0.2917 10:0.165 11:0.2913 12:33 13:80 14:0.25 15:0.2718 16:0.2718 17:0.1731 18:0.2885 19:-1 21:3 22:5 23:0.71 
-0.01481043607641465 0:1 1:3 2:3 3:19 4:3 5:0.466 6:6 7:7 8:5 9:0.1905 10:0.3696 11:0.2391 12:28 13:29 14:0.2381 15:0.1957 16:0.1957 17:0.3107 18:0.2524 19:0.1351 21:2 22:2 23:0.29 
-0.8149619185633588 0:2 1:4 2:4 3:9 4:5 5:0.4713 6:6 7:3 8:6 9:0.35 10:0.2667 11:0.2 12:34 13:55 14:0.25 15:0.2333 16:0.3 17:0.2299 18:0.1954 19:0.1538 21:3 22:3 23:1 
-0.1663694785331346 0:1 1:5 2:2 3:4 4:6 5:0.4825 6:6 7:4 8:5 9:0.1739 10:0.2364 11:0.2364 12:43 13:90 14:0.1739 15:0.2455 16:0.2818 17:0.2368 18:0.2368 21:1 22:5 23:1.22 
-0.7392634555780375 0:3 1:4 2:3 3:8 4:4 5:0.7349 6:2 7:2 8:6 9:0.375 10:0.1186 11:0.4068 12:31 13:13 14:0.125 15:0.339 16:0.1356 17:0.1205 18:0.3855 19:0.2727 21:1 22:1 23:1.67 
-0.05108683760351352 0:3 1:1 2:1 3:4 4:7 5:0.5306 6:4 7:3 8:3 9:0.25 10:0.1887 11:0.2264 12:36 13:26 14:0.2 15:0.2642 16:0.3208 17:0.1837 18:0.2653 19:0.25 21:2 22:2 23:1 
-0.09651804413765899 0:1 1:3 2:3 3:6 4:6 5:0.4815 6:6 7:3 8:8 9:0.3182 10:0.2708 11:0.2083 12:40 13:31 14:0.3182 15:0.2083 16:0.3125 17:0.2407 18:0.213 19:0.2414 21:3 22:3 23:1.11 
-0.01659571333515929 0:4 1:4 2:2 3:6 4:14 5:0.3051 6:1 7:2 8:4 9:0.25 10:0.3596 11:0.1579 12:46 13:93 14:0.375 15:0.1404 16:0.3421 17:0.3475 18:0.1525 23:1.12 
-0.03753349020269821 0:4 1:2 2:1 3:2 4:14 5:0.3051 6:1 7:2 8:4 9:0.2857 10:0.3625 11:0.1625 12:46 13:79 14:0.381 15:0.125 16:0.35 17:0.3475 18:0.1525 19:0.1667 23:0.8 
-0.1463322852288863 0:1 1:1 2:1 3:4 4:8 5:0.2451 6:3 7:2 8:1 9:0.2609 10:0.3542 11:0.0938 12:44 13:77 14:0.4348 15:0.1562 16:0.3958 17:0.3627 18:0.098 21:2 22:3 23:1 
-0.003815372463969624 0:2 1:4 2:1 3:8 4:4 5:0.2982 6:3 7:6 8:4 9:0.0952 10:0.3491 11:0.1415 12:44 13:90 14:0.2857 15:0.1509 16:0.3585 17:0.3509 18:0.1579 19:-1 21:1 22:3 23:1 
-0.1446956265774873 0:1 1:4 2:3 3:6 4:4 5:0.2982 6:3 7:6 8:4 9:0.2174 10:0.3409 11:0.1477 12:44 13:78 14:0.2609 15:0.1591 16:0.3523 17:0.3509 18:0.1579 19:0.3333 21:1 22:3 23:2.25 
-0.01734880465026611 0:1 1:3 2:4 3:12 4:5 5:0.4701 6:3 7:2 8:5 9:0.2609 10:0.3208 11:0.1321 12:48 13:33 14:0.3043 15:0.2075 16:0.3396 17:0.2479 18:0.2051 19:0.0968 21:2 22:2 23:1.6 
-0.0693329219595539 0:2 1:3 2:2 3:12 4:6 5:0.4058 6:6 7:5 8:3 9:0.35 10:0.2264 11:0.1698 12:24 13:41 14:0.15 15:0.2075 16:0.3962 17:0.2029 18:0.1739 21:3 22:3 23:0.6 
-0.1128736999138638 0:4 1:1 2:1 3:2 4:12 5:0.2353 6:1 7:1 8:2 9:0.0833 10:0.4 11:0.1 12:42 13:58 14:0.4167 15:0.1 16:0.4 17:0.3922 18:0.1275 19:0.05 21:1 22:1 23:0.89 
-0.02381056077761481 0:-1 2:1 3:4 4:5 5:0.4516 7:3 8:2 9:0.2 10:0.2927 11:0.2195 12:39 13:27 14:0.4 15:0.2195 16:0.2683 17:0.2903 18:0.2366 19:0.16 23:1.8 
-0.03509973226410179 0:-1 2:1 3:4 4:5 5:0.4516 7:3 8:2 9:0.2083 10:0.2979 11:0.2128 12:39 13:47 14:0.2083 15:0.2128 16:0.2766 17:0.2903 18:0.2366 19:0.1818 23:0.56 
-0.07017287723952671 0:4 1:4 2:2 3:8 4:5 5:0.4034 6:2 7:5 8:3 9:0.45 10:0.3025 11:0.1933 12:47 13:100 14:0.3 15:0.2101 16:0.2941 17:0.3025 18:0.1933 19:-1 21:1 22:2 23:5 
-0.06884318911936685 0:2 1:8 2:4 3:13 4:6 5:0.5596 6:2 7:4 8:7 9:0.2381 10:0.2018 11:0.3303 12:39 13:89 14:0.1429 15:0.2294 16:0.2385 17:0.2018 18:0.3303 19:-1 21:2 22:2 23:2.25 
-0.07849377677220599 0:2 1:5 2:3 3:5 4:6 5:0.5596 6:2 7:4 8:7 9:0.3 10:0.1818 11:0.3247 12:39 13:18 14:0.15 15:0.2468 16:0.2468 17:0.2018 18:0.3303 19:0.2 21:1 22:1 23:0.67 
-0.005584299968918666 0:1 1:3 2:2 3:4 4:5 5:0.4435 6:4 7:8 8:4 9:0.25 10:0.24 11:0.2 12:44 13:9 14:0.25 15:0.22 16:0.34 17:0.2261 18:0.2087 19:0.2857 21:2 22:3 23:1.25 
-0.05941523958234723 0:-1 1:1 2:2 3:17 4:5 5:0.4435 6:4 7:8 8:4 9:0.1304 10:0.2857 11:0.1667 12:44 13:57 14:0.2609 15:0.1667 16:0.381 17:0.2261 18:0.2087 19:0.1111 21:1 22:1 23:0.44 
-0.1564924776739225 0:1 1:2 2:2 3:5 4:11 5:0.4828 6:3 7:3 8:3 9:0.25 10:0.2581 11:0.1935 12:48 13:66 14:0.2083 15:0.2097 16:0.3387 17:0.2328 18:0.2328 19:0.0385 21:1 22:1 23:0.7 
-0.1502387784808558 0:4 1:2 2:2 3:5 4:11 5:0.4828 6:3 7:3 8:3 9:0.2727 10:0.2586 11:0.1897 12:48 13:66 14:0.1818 15:0.2069 16:0.3448 17:0.2328 18:0.2328 19:0.0357 21:1 22:1 23:0.78 
-0.0374144776518115 0:4 1:4 2:4 3:13 4:5 5:0.4569 6:2 7:3 8:7 9:0.2174 10:0.25 11:0.1731 12:44 13:62 14:0.2174 15:0.25 16:0.3269 17:0.2586 18:0.2155 19:0.1 21:1 22:1 23:0.33 
-0.04949465924469565 0:-1 1:3 2:4 3:10 4:6 5:0.7241 6:3 7:3 8:10 9:0.4286 10:0.119 11:0.4048 12:43 13:38 14:0.1905 15:0.3333 16:0.1429 17:0.1379 18:0.3879 19:0.2222 21:2 22:2 23:1.33 
-0.5457333774743609 0:4 1:2 2:1 3:2 4:4 5:0.4808 6:4 7:1 8:3 9:0.35 10:0.2632 11:0.2632 12:46 13:15 14:0.15 15:0.2368 16:0.2368 17:0.2692 18:0.25 19:0.0769 22:2 23:0.73 
-0.1653199536034528 0:4 1:4 2:3 3:6 4:8 5:0.453 6:4 7:2 8:5 9:0.5217 10:0.2338 11:0.1818 12:48 13:21 14:0.1739 15:0.2727 16:0.3117 17:0.2564 18:0.1966 19:0.0556 21:2 22:3 23:0.5 
-0.2238666688405954 0:3 1:5 2:2 3:6 4:8 5:0.453 6:4 7:2 8:5 10:0.2477 11:0.1927 12:48 13:94 14:0.3 15:0.2569 16:0.3028 17:0.2564 18:0.1966 21:1 22:4 23:0.62 
-1 0:1 1:7 2:2 3:5 4:3 5:0.4138 6:4 7:5 8:7 9:0.2 10:0.283 11:0.1698 12:37 13:6 14:0.25 15:0.2453 16:0.3019 17:0.2759 18:0.1638 22:3 23:1 
-0.2525134712848797 0:4 1:5 2:3 3:7 4:4 5:0.6964 6:3 7:8 8:7 9:0.381 10:0.1013 11:0.3797 12:37 13:75 14:0.0476 15:0.3671 16:0.1519 17:0.1696 18:0.3661 19:0.6 21:1 22:3 23:0.91 
-0.03277086418111458 0:3 1:6 2:4 3:21 4:4 5:0.6786 6:2 7:8 8:7 9:0.2083 10:0.172 11:0.3548 12:36 13:10 14:0.25 15:0.3333 16:0.1398 17:0.1875 18:0.3571 19:0.375 22:2 
-0.01731671579335932 0:4 1:6 2:2 3:19 4:4 5:0.6786 6:2 7:8 8:7 9:0.3333 10:0.1818 11:0.3535 12:36 13:85 14:0.3333 15:0.3232 16:0.1414 17:0.1875 18:0.3571 19:0.2 22:2 23:3.33 
-0.02245833722998372 0:4 1:4 2:4 3:12 4:8 5:0.4454 6:5 7:2 8:9 9:0.35 10:0.1667 11:0.2292 12:43 13:36 14:0.2 15:0.2708 16:0.3333 17:0.2437 18:0.2185 19:0.1714 21:3 22:3 23:1.6 
-0.02042453311196416 0:4 1:5 2:4 3:16 4:10 5:0.4766 6:3 7:3 8:6 9:0.2 10:0.2308 11:0.2564 12:36 13:15 14:0.2 15:0.2436 16:0.2692 17:0.243 18:0.215 19:0.2143 22:2 23:1 
-0.1620939659188984 0:2 1:6 2:3 3:12 4:10 5:0.4766 6:3 7:3 8:6 9:0.2 10:0.2653 11:0.2245 12:36 13:5 14:0.2 15:0.2245 16:0.2857 17:0.243 18:0.215 19:0.5 22:2 23:1.17 
-0.1150396076701132 0:4 1:7 2:3 3:8 4:8 5:0.5 6:5 7:2 8:7 9:0.2273 10:0.1667 11:0.25 12:40 13:83 14:0.1818 15:0.3021 16:0.2812 17:0.1964 18:0.2321 19:0.1429 21:2 22:5 23:1.43 
-0.02033110376356415 0:3 1:4 2:5 3:16 4:8 5:0.5192 6:7 7:2 8:6 9:0.3 10:0.1818 11:0.2273 12:36 13:31 14:0.2 15:0.25 16:0.3409 17:0.1827 18:0.2404 19:0.0769 21:2 22:2 23:1 
-0.01643254731672728 0:-1 1:4 2:5 3:20 4:8 5:0.4706 6:5 7:3 8:7 9:0.2917 10:0.18 11:0.24 12:44 13:35 14:0.1667 15:0.26 16:0.32 17:0.2269 18:0.2269 19:0.1176 21:3 22:3 23:2.67 
-0.07936732630469046 0:4 1:6 2:2 3:6 4:8 5:0.4706 6:5 7:3 8:7 9:0.3333 10:0.1837 11:0.2449 12:44 13:11 14:0.1905 15:0.2755 16:0.2959 17:0.2269 18:0.2269 19:0.1 21:2 22:5 23:0.5 
-0.1193199361674832 0:2 1:3 2:2 3:7 4:5 5:0.4118 6:6 7:2 8:3 9:0.1364 10:0.25 11:0.15 12:35 13:61 14:0.3182 15:0.25 16:0.35 17:0.2471 18:0.1529 21:4 22:5 23:1 
-0.137629623712256 0:2 1:5 2:2 3:8 4:5 5:0.4786 6:4 7:3 8:6 9:0.3333 10:0.2323 11:0.2525 12:43 13:10 14:0.3333 15:0.2525 16:0.2626 17:0.2393 18:0.2393 19:0.0769 21:1 22:3 23:0.8 
-0.01602708078149994 0:1 1:3 2:2 3:6 4:23 5:0.3689 6:3 7:2 8:4 9:0.1 10:0.2809 11:0.1798 12:33 13:8 14:0.3 15:0.2022 16:0.3371 17:0.2718 18:0.165 19:0.3333 21:2 22:3 23:0.56 
-0.05506460773185495 0:4 1:4 2:3 3:10 4:23 5:0.3689 6:3 7:2 8:4 9:0.2917 10:0.2828 11:0.1616 12:33 13:78 14:0.2917 15:0.202 16:0.3535 17:0.2718 18:0.165 21:2 22:3 23:2.25 
-0.03130250019918017 0:4 1:5 2:4 3:12 4:23 5:0.3689 6:3 7:2 8:4 9:0.2857 10:0.2718 11:0.165 12:33 13:83 14:0.2857 15:0.2039 16:0.3592 17:0.2718 18:0.165 19:-1 21:1 22:3 23:1.8 
-0.01341271152067845 0:1 1:4 2:4 3:12 4:5 5:0.4815 6:4 7:6 8:9 9:0.2917 10:0.254 11:0.1905 12:39 13:64 14:0.25 15:0.2698 16:0.2857 17:0.2593 18:0.2037 19:0.2381 21:2 22:3 23:1 
-0.02284089829099059 0:1 1:4 2:4 3:12 4:5 5:0.4815 6:4 7:6 8:9 9:0.2083 10:0.2542 11:0.1864 12:39 13:27 14:0.25 15:0.2712 16:0.2881 17:0.2593 18:0.2037 19:0.2174 21:1 22:3 23:5 
-0.002831993574905323 0:1 1:2 4:5 5:0.4414 6:5 7:4 8:3 9:0.3913 10:0.2396 11:0.1979 12:46 13:81 14:0.2174 15:0.2604 16:0.3021 17:0.2342 18:0.1892 19:0.0909 21:2 22:4 23:0.89 
-0.01324567327547763 0:3 1:5 2:3 3:12 4:3 5:0.4786 6:6 7:4 8:6 9:0.381 10:0.2018 11:0.1743 12:45 13:5 14:0.1429 15:0.3028 16:0.3211 17:0.2051 18:0.1795 19:0.1429 21:3 22:6 23:2.25 
-0.01662667986944243 0:-1 1:2 2:3 3:12 4:3 5:0.4786 6:6 7:4 8:6 9:0.3043 10:0.2667 11:0.1778 12:45 13:59 14:0.2174 15:0.2889 16:0.2667 17:0.2051 18:0.1795 19:0.1831 21:1 22:1 23:0.73 
-0.05201000350151075 0:2 1:2 2:2 3:6 4:5 5:0.3333 6:5 7:2 8:3 9:0.1304 10:0.3443 11:0.0984 12:39 13:54 14:0.1739 15:0.1311 16:0.4262 17:0.2903 18:0.1505 19:0.0667 21:1 22:2 23:0.62 
-0.2546602839020788 0:3 1:5 2:2 3:4 4:7 5:0.4455 6:2 7:2 8:5 9:0.1739 10:0.2642 11:0.2264 12:44 13:86 14:0.2174 15:0.217 16:0.2925 17:0.2545 18:0.2182 19:-1 21:1 22:2 23:1.22 
-0.00116645306007257 0:3 1:3 2:4 3:13 4:7 5:0.4455 6:2 7:2 8:5 9:0.1304 10:0.2885 11:0.2115 12:44 13:30 14:0.3043 15:0.1923 16:0.3077 17:0.2545 18:0.2182 19:0.0741 21:1 22:1 23:4 
-0.7525934735586737 0:2 1:3 2:2 3:6 4:4 5:0.6977 6:4 7:2 8:4 9:0.375 10:0.1143 11:0.3429 12:32 13:9 14:0.1667 15:0.3857 16:0.1571 17:0.1628 18:0.3256 19:0.1429 21:2 22:4 23:1.09 
-0.0253389818039304 0:1 1:3 2:3 3:16 4:15 5:0.4404 6:3 7:4 8:4 9:0.2917 10:0.24 11:0.1867 12:37 13:69 14:0.2917 15:0.2667 16:0.3067 17:0.2477 18:0.1835 19:0.0323 21:1 22:2 23:0.33 
-0.009217009217973901 0:1 1:7 2:5 3:18 4:3 5:0.4587 6:2 7:5 8:7 9:0.2917 10:0.2632 11:0.1711 12:38 13:69 14:0.3333 15:0.2763 16:0.2895 17:0.2569 18:0.1927 22:1 23:0.38 
-0.1579875664503637 0:2 1:7 2:2 3:5 4:3 5:0.4587 6:2 7:5 8:7 9:0.2273 10:0.2692 11:0.1731 12:38 13:85 14:0.3636 15:0.2596 16:0.2981 17:0.2569 18:0.1927 21:1 22:2 23:0.67 
-0.03026373498569289 0:4 1:2 2:2 3:10 4:14 5:0.3592 6:2 7:6 8:2 9:0.087 10:0.4203 11:0.1739 12:29 13:64 14:0.4348 15:0.1884 16:0.2174 17:0.3689 18:0.1942 22:1 
-0.02431375293636089 0:4 1:6 2:5 3:12 4:17 5:0.4466 6:1 7:3 8:7 9:0.2381 10:0.2895 11:0.2895 12:31 13:14 14:0.1905 15:0.1447 16:0.2763 17:0.2718 18:0.2718 19:0.1818 23:3.5 
-0.9718200185823496 0:-1 1:4 2:5 3:8 4:4 5:0.625 6:3 7:3 8:6 9:0.4167 10:0.1875 11:0.3125 12:25 13:12 14:0.0833 15:0.3125 16:0.1875 17:0.1944 18:0.2639 19:0.4 21:2 22:2 23:1.38 
-0.001004170412180927 0:2 1:7 2:5 3:12 4:4 5:0.625 6:3 7:3 8:6 9:0.3043 10:0.2029 11:0.2609 12:25 13:47 14:0.1739 15:0.3478 16:0.1884 17:0.1944 18:0.2639 19:-1 21:3 22:3 23:0.88 
-0.005695461965999605 0:4 1:4 2:4 3:6 4:4 5:0.3833 6:3 7:3 8:4 9:0.25 10:0.2679 11:0.1607 12:24 13:38 14:0.25 15:0.2143 16:0.3571 17:0.25 18:0.1667 21:3 22:3 23:0.9 
-0.03175422425524455 0:3 1:3 2:3 3:14 4:4 5:0.419 6:3 7:10 8:6 9:0.381 10:0.3729 11:0.1695 12:32 13:22 14:0.3333 15:0.2203 16:0.2373 17:0.3238 18:0.2 19:0.1892 21:1 22:1 23:2.67 
-0.2510615512441545 0:1 1:7 2:4 3:14 4:4 5:0.419 6:3 7:10 8:6 9:0.1 10:0.3204 11:0.1942 12:32 13:2 14:0.3 15:0.2233 16:0.2621 17:0.3238 18:0.2 19:-1 21:2 22:3 23:0.25 
-0.0569784816236966 0:3 1:3 2:2 3:4 4:5 5:0.3333 6:1 7:9 8:3 9:0.2174 10:0.3333 11:0.1944 12:32 13:55 14:0.3913 15:0.1528 16:0.3194 17:0.3452 18:0.1905 21:1 22:1 23:0.8 
-0.005361903045859969 0:1 1:4 2:3 3:15 4:3 5:0.4124 6:3 7:8 8:5 9:0.2381 10:0.2879 11:0.1515 12:36 13:16 14:0.5238 15:0.2273 16:0.3333 17:0.2887 18:0.1856 19:0.1034 21:1 22:2 23:5 
-0.03657928157959334 0:-1 1:3 2:3 3:11 4:3 5:0.4124 6:3 7:8 8:5 9:0.3 10:0.25 11:0.1818 12:36 13:50 14:0.2 15:0.2273 16:0.3409 17:0.2887 18:0.1856 19:0.1765 21:2 22:2 23:5 
-0.0364906506053747 0:4 1:2 2:2 3:18 4:9 5:0.3739 6:5 7:8 8:5 9:0.1 10:0.2308 11:0.1692 12:40 13:71 14:0.15 15:0.2154 16:0.3846 17:0.2696 18:0.1652 19:0.087 21:2 22:3 23:0.2 
-0.04483229941426944 0:4 1:5 2:4 3:6 4:9 5:0.3739 6:5 7:8 8:5 9:0.15 10:0.2706 11:0.1765 12:40 13:81 14:0.1 15:0.1882 16:0.3647 17:0.2696 18:0.1652 21:1 22:3 23:1.43 
-0.01328262561879247 0:4 1:2 2:2 3:18 4:9 5:0.3739 6:5 7:8 8:5 9:0.1739 10:0.2308 11:0.1692 12:40 13:68 14:0.1739 15:0.2154 16:0.3846 17:0.2696 18:0.1652 19:0.087 21:2 22:3 23:1 
-0.0309882733898047 0:-1 1:3 2:4 3:19 4:6 5:0.43 6:3 7:8 8:5 9:0.2174 10:0.3019 11:0.2075 12:36 13:24 14:0.3478 15:0.2264 16:0.2642 17:0.26 18:0.19 19:0.1111 23:0.83 
-0.1994803758025716 0:4 1:2 2:2 3:3 4:6 5:0.495 6:4 7:1 8:5 9:0.2609 10:0.2462 11:0.2154 12:42 13:17 14:0.1304 15:0.2615 16:0.2769 17:0.2574 18:0.2376 19:0.125 21:1 22:4 23:1.67 
-0.06289398105631036 0:2 1:4 2:3 3:4 4:6 5:0.495 6:4 7:1 8:5 9:0.3 10:0.25 11:0.2386 12:42 13:74 14:0.25 15:0.2614 16:0.25 17:0.2574 18:0.2376 19:0.1111 22:4 23:1.43 
-0.00291829553662093 0:3 1:3 2:1 3:3 4:8 5:0.396 6:1 7:5 8:2 9:0.2273 10:0.3265 11:0.2245 12:38 13:77 14:0.5 15:0.1837 16:0.2653 17:0.3267 18:0.2178 19:-1 22:1 23:4.5 
-0.03647672240964288 0:-1 1:2 2:3 3:17 4:8 5:0.396 6:1 7:5 8:2 9:0.15 10:0.3721 11:0.2558 12:38 13:27 14:0.3 15:0.1628 16:0.2093 17:0.3267 18:0.2178 23:3.33 
-0.3266115772775487 0:3 1:7 2:2 3:5 4:6 5:0.5743 6:3 7:3 8:6 9:0.3 10:0.2041 11:0.2755 12:37 13:4 14:0.1 15:0.3061 16:0.2143 17:0.2178 18:0.2772 19:-1 21:1 22:3 23:0.64 
-0.004294409664123477 0:4 1:1 2:1 3:2 4:12 5:0.3457 6:2 7:1 8:1 9:0.2857 10:0.2941 11:0.1765 12:27 13:4 14:0.0476 15:0.1765 16:0.3529 17:0.2963 18:0.1852 19:-1 21:2 22:2 23:0.67 
-0.04266791959295515 0:-1 2:1 3:10 4:12 5:0.5309 6:1 7:2 8:1 9:0.2273 10:0.2045 11:0.2955 12:32 13:41 14:0.1818 15:0.25 16:0.25 17:0.2222 18:0.284 19:0.1111 21:1 22:1 
-0.03499776330850046 0:2 1:1 2:1 3:1 4:5 5:0.4368 6:3 7:2 8:2 9:0.2 10:0.2857 11:0.2143 12:35 13:17 14:0.15 15:0.2321 16:0.2679 17:0.2759 18:0.1954 19:0.1667 21:1 22:2 23:1.25 
-0.2957350473791353 0:1 1:3 2:3 3:8 4:4 5:0.6029 6:2 7:5 8:5 9:0.3478 10:0.1591 11:0.2273 12:22 13:35 14:0.1304 15:0.3864 16:0.2273 17:0.2059 18:0.2353 19:0.4 21:2 22:2 23:1.25 
-0.03507550906285906 0:4 1:3 2:3 3:14 4:8 5:0.5625 6:2 7:5 8:4 9:0.3 10:0.1 11:0.3 12:17 13:7 14:0.05 15:0.24 16:0.36 17:0.0938 18:0.2969 19:0.4 21:2 22:2 23:0.82 
-0.01099318763047809 0:4 1:2 2:3 3:10 4:5 5:0.3613 6:6 7:2 8:4 9:0.2083 10:0.3396 11:0.1321 12:48 13:34 14:0.375 15:0.1509 16:0.3774 17:0.2857 18:0.1681 19:0.069 21:3 22:3 23:1.6 
-0.07351990572210465 0:4 1:5 2:3 3:7 4:5 5:0.4904 6:2 7:7 8:6 9:0.45 10:0.2469 11:0.2099 12:36 13:73 14:0.3 15:0.2716 16:0.2716 17:0.25 18:0.2212 19:0.1429 22:2 23:0.7 
-0.04050388071302288 0:2 1:5 2:1 3:2 4:7 5:0.3839 6:5 7:2 8:5 9:0.2273 10:0.3 11:0.16 12:43 13:85 14:0.1818 15:0.21 16:0.33 17:0.2946 18:0.1607 21:2 22:4 23:1.25 
-0.03863061962709957 0:4 1:6 2:3 3:8 4:5 5:0.3421 6:3 7:2 8:6 9:0.2 10:0.3363 11:0.1593 12:48 13:1 14:0.15 15:0.1858 16:0.3186 17:0.3421 18:0.1579 19:-1 21:1 22:3 23:1.83 
-0.01918353026057697 0:1 1:2 2:3 3:16 4:7 5:0.359 6:3 7:5 8:2 9:0.1364 10:0.3396 11:0.1321 12:26 13:12 14:0.2727 15:0.2264 16:0.3019 17:0.3205 18:0.141 21:3 22:3 23:4 
-0.02713711879959921 0:2 1:7 2:4 3:17 4:5 5:0.3529 6:5 7:10 8:7 9:0.1667 10:0.2444 11:0.1444 12:35 13:73 14:0.3333 15:0.1889 16:0.4222 17:0.2451 18:0.1667 19:0.2 21:4 22:5 23:1.8 
-0.2852048426626137 0:2 1:4 2:3 3:17 4:6 5:0.5632 6:2 7:8 8:6 9:0.0909 10:0.1964 11:0.2857 12:25 13:16 14:0.1818 15:0.2321 16:0.2857 17:0.1724 18:0.2989 19:0.3333 21:1 22:1 23:3 
-0.04067523604388615 0:1 1:7 2:4 3:16 4:10 5:0.3894 6:6 7:12 8:7 9:0.2857 10:0.2844 11:0.1651 12:30 13:3 14:0.2381 15:0.2294 16:0.3211 17:0.292 18:0.1681 21:2 22:6 23:0.3 
-0.006520399710959579 0:3 1:5 2:4 3:16 4:10 5:0.434 6:5 7:4 8:6 9:0.2 10:0.2239 11:0.3134 12:29 13:63 14:0.2 15:0.1791 16:0.2836 17:0.2547 18:0.2453 19:0.1304 21:1 22:2 23:0.78 
-0.04813041109570972 0:3 1:5 2:5 3:19 4:10 5:0.434 6:5 7:4 8:6 9:0.1667 10:0.2105 11:0.3509 12:29 13:21 14:0.125 15:0.1754 16:0.2632 17:0.2547 18:0.2453 19:0.0909 21:1 22:1 23:0.75 
-0.0358169511741609 0:2 1:4 2:4 3:22 4:4 5:0.4087 6:4 7:6 8:6 9:0.25 10:0.2833 11:0.2 12:39 13:28 14:0.2917 15:0.2 16:0.3167 17:0.2609 18:0.1826 19:0.102 21:1 22:1 23:5 
-1 0:4 1:6 2:3 3:9 4:4 5:0.4087 6:4 7:6 8:6 9:0.3182 10:0.2688 11:0.1935 12:39 13:82 14:0.3636 15:0.2151 16:0.3226 17:0.2609 18:0.1826 21:1 22:2 23:1.12 
-0.2232257197497779 0:3 1:4 2:3 3:11 4:11 5:0.5091 6:1 7:5 8:7 9:0.4 10:0.2206 11:0.2794 12:34 13:22 14:0.25 15:0.2206 16:0.2794 17:0.2364 18:0.2636 19:0.2105 21:1 22:1 23:1.14 
-0.003574694437920733 0:3 1:6 2:3 3:16 4:4 5:0.5577 6:5 7:7 8:6 9:0.2857 10:0.1616 11:0.303 12:33 13:3 14:0.1905 15:0.2727 16:0.2626 17:0.1731 18:0.2885 21:2 22:4 23:2 
-0.03096262975641509 0:1 1:4 2:4 3:20 4:3 5:0.466 6:6 7:7 8:5 9:0.2083 10:0.3333 11:0.2105 12:28 13:24 14:0.2917 15:0.2105 16:0.2456 17:0.3107 18:0.2524 19:0.1538 21:4 22:4 23:1.33 
-0.004853860814336674 0:3 1:4 2:3 3:18 4:3 5:0.466 6:6 7:7 8:5 9:0.1905 10:0.3115 11:0.2131 12:28 13:22 14:0.2857 15:0.2295 16:0.2459 17:0.3107 18:0.2524 19:0.1818 21:4 22:5 23:2.25 
-0.08939825929188065 0:4 1:3 2:3 3:9 4:4 5:0.5714 6:6 7:4 8:3 9:0.1667 10:0.1562 11:0.2344 12:27 13:44 14:0.125 15:0.3438 16:0.2656 17:0.1571 18:0.2429 21:5 22:6 23:0.7 
-0.002583742513212871 0:1 1:6 2:3 3:6 4:3 5:0.4112 6:4 7:7 8:5 9:0.0833 10:0.2642 11:0.1698 12:42 13:83 14:0.2083 15:0.2358 16:0.3302 17:0.2617 18:0.1682 19:-1 21:2 22:4 23:3.33 
-0.1229421671034893 0:-1 1:3 2:4 3:9 4:3 5:0.4112 6:4 7:7 8:5 9:0.2857 10:0.2143 11:0.1667 12:42 13:34 14:0.1429 15:0.2857 16:0.3333 17:0.2617 18:0.1682 19:0.1475 21:2 22:2 23:1.6 
-0.04582503396569101 0:3 1:9 2:5 3:17 4:5 5:0.5455 6:3 7:5 8:8 9:0.3182 10:0.1932 11:0.2159 12:28 13:1 14:0.2273 15:0.3295 16:0.2614 17:0.1932 18:0.2159 19:-1 22:3 23:2.33 
-0.9317440363352392 0:2 1:3 4:8 5:0.5588 6:2 7:3 8:3 9:0.2381 10:0.1978 11:0.2857 12:41 13:7 14:0.2857 15:0.3187 16:0.1978 17:0.2255 18:0.2647 21:1 22:2 23:1.1 
-0.2054281741297009 0:4 1:3 4:8 5:0.5588 6:2 7:3 8:3 9:0.3636 10:0.2178 11:0.2673 12:41 13:81 14:0.1818 15:0.297 16:0.2178 17:0.2255 18:0.2647 19:-1 21:1 22:2 23:1.11 
-0.03555023552002359 0:2 1:4 2:3 3:10 4:5 5:0.5408 6:2 7:4 8:6 9:0.3478 10:0.2063 11:0.2857 12:36 13:17 14:0.3043 15:0.3175 16:0.1905 17:0.2245 18:0.2449 19:0.2353 23:3 
-0.04364242337844275 0:4 1:1 2:1 3:2 4:17 5:0.2745 6:2 7:2 8:2 9:0.1 10:0.4068 11:0.1864 12:39 13:61 14:0.55 15:0.1017 16:0.3051 17:0.3725 18:0.1373 19:0.0952 23:1.25 
-0.01594011110687467 0:4 1:1 2:1 3:2 4:17 5:0.2745 6:2 7:2 8:2 9:0.1 10:0.4 11:0.1846 12:39 13:64 14:0.5 15:0.1077 16:0.3077 17:0.3725 18:0.1373 19:0.1111 23:1.11 
-0.01361343716522869 0:3 1:6 2:3 3:14 4:4 5:0.4679 6:4 7:5 8:6 9:0.15 10:0.2708 11:0.1979 12:39 13:8 14:0.25 15:0.25 16:0.2812 17:0.2477 18:0.2018 21:1 22:2 23:0.57 
-0.0484217041762759 0:1 1:6 2:5 3:15 4:5 5:0.4956 6:4 7:3 8:9 9:0.2609 10:0.2297 11:0.2027 12:40 13:72 14:0.2174 15:0.2703 16:0.2973 17:0.2035 18:0.2035 19:0.2 21:1 22:2 23:0.45 
-0.03410058063060047 0:2 1:7 2:5 3:10 4:6 5:0.51 6:2 7:3 8:7 9:0.2381 10:0.2208 11:0.2727 12:37 13:11 14:0.1905 15:0.2468 16:0.2597 17:0.22 18:0.27 21:2 22:2 23:0.88 
-0.0008247463676849689 0:1 1:5 2:5 3:10 4:6 5:0.51 6:2 7:3 8:7 9:0.2 10:0.2083 11:0.3125 12:37 13:26 14:0.2 15:0.25 16:0.2292 17:0.22 18:0.27 19:0.1064 21:1 22:1 23:0.7 
-0.007716185777434936 0:1 1:4 2:3 3:6 4:12 5:0.4819 6:1 7:2 8:4 9:0.2381 10:0.2561 11:0.2439 12:30 13:63 14:0.0952 15:0.2439 16:0.2561 17:0.253 18:0.241 19:-1 21:1 22:1 23:1.11 
-0.0754561036161446 0:4 1:4 2:3 3:6 4:12 5:0.4819 6:1 7:2 8:4 9:0.2381 10:0.2561 11:0.2439 12:30 13:2 14:0.3333 15:0.2439 16:0.2561 17:0.253 18:0.241 19:-1 21:1 22:1 23:0.9 
-0.2457439349802333 0:4 1:1 2:1 3:4 4:7 5:0.5306 6:4 7:3 8:3 9:0.25 10:0.1887 11:0.2264 12:36 13:59 14:0.25 15:0.2642 16:0.3208 17:0.1837 18:0.2653 19:0.25 21:2 22:2 23:0.9 
-0.0429723069444639 0:4 1:1 2:2 3:10 4:7 5:0.5417 6:3 7:3 8:3 9:0.1905 10:0.1961 11:0.2157 12:37 13:25 14:0.2381 15:0.2549 16:0.3333 17:0.1875 18:0.2604 19:0.1905 21:2 22:2 23:3.33 
-0.05037442452175596 0:4 1:3 2:3 3:8 4:7 5:0.5455 6:3 7:3 8:3 9:0.3182 10:0.1905 11:0.254 12:37 13:63 14:0.1818 15:0.2857 16:0.2698 17:0.1919 18:0.2828 19:0.1333 21:1 22:2 23:1.11 
-0.04657010460548253 0:1 1:2 2:2 3:4 4:14 5:0.3051 6:1 7:2 8:4 9:0.0833 10:0.3636 11:0.1667 12:46 13:27 14:0.2917 15:0.1212 16:0.3485 17:0.3475 18:0.1525 19:0.12 23:1 
-0.06739644287084727 0:1 1:4 2:2 3:6 4:14 5:0.3051 6:1 7:2 8:4 9:0.0909 10:0.3534 11:0.1552 12:46 13:2 14:0.3182 15:0.1466 16:0.3448 17:0.3475 18:0.1525 19:-1 21:1 22:1 23:1 
-0.09138191996625901 0:3 1:5 2:3 3:10 4:8 5:0.2773 6:2 7:4 8:6 9:0.1304 10:0.3535 11:0.1111 12:44 13:11 14:0.2609 15:0.1616 16:0.3737 17:0.3613 18:0.1261 19:0.1111 21:1 22:2 23:1.8 
-0.09199809099955246 0:4 1:1 2:1 3:4 4:8 5:0.2451 6:3 7:2 8:1 9:0.2857 10:0.36 11:0.09 12:44 13:81 14:0.4286 15:0.15 16:0.4 17:0.3627 18:0.098 19:-1 21:2 22:3 23:1 
-0.007656164796483015 0:-1 2:1 3:6 4:8 5:0.2451 6:3 7:2 8:1 9:0.25 10:0.36 11:0.12 12:44 13:27 14:0.375 15:0.16 16:0.36 17:0.3627 18:0.098 19:0.08 21:1 22:1 23:4.5 
-0.2320348901847728 0:3 1:3 2:2 3:4 4:4 5:0.2982 6:3 7:6 8:4 9:0.25 10:0.3333 11:0.1548 12:44 13:78 14:0.25 15:0.1667 16:0.3452 17:0.3509 18:0.1579 19:0.3636 21:1 22:3 23:0.9 
-0.1129073543148053 0:1 1:4 2:3 3:5 4:4 5:0.2982 6:3 7:6 8:4 9:0.2174 10:0.3448 11:0.1494 12:44 13:77 14:0.3043 15:0.1609 16:0.3448 17:0.3509 18:0.1579 19:0.3684 21:1 22:3 23:1.29 
-0.6109416519070292 0:1 1:2 2:1 3:2 4:8 5:0.2157 6:3 7:2 8:4 9:0.125 10:0.3784 11:0.0946 12:41 13:15 14:0.3333 15:0.1216 16:0.4054 17:0.402 18:0.0882 19:0.2308 21:2 22:3 23:1 
-0.1141184041993881 0:3 1:3 2:2 3:12 4:6 5:0.4058 6:6 7:5 8:3 9:0.1 10:0.2182 11:0.1636 12:24 13:7 14:0.25 15:0.2182 16:0.4 17:0.2029 18:0.1739 21:4 22:4 23:0.7 
-0.02017528938421553 0:1 1:4 2:1 3:2 4:4 5:0.2906 6:1 7:3 8:4 9:0.0909 10:0.3564 11:0.1287 12:50 13:8 14:0.3182 15:0.1485 16:0.3663 17:0.3504 18:0.1368 21:1 22:1 23:0.67 
-0.01869548256666307 0:4 1:2 2:2 3:7 4:4 5:0.2906 6:1 7:3 8:4 9:0.15 10:0.3488 11:0.093 12:50 13:60 14:0.35 15:0.1628 16:0.3953 17:0.3504 18:0.1368 19:0.0556 23:0.67 
-0.2398068034467075 0:2 1:5 2:2 3:4 4:4 5:0.2906 6:1 7:3 8:4 9:0.2174 10:0.3504 11:0.1368 12:50 13:95 14:0.3913 15:0.1538 16:0.359 17:0.3504 18:0.1368 19:-1 22:1 23:2.25 
-0.07010207901650081 0:1 1:1 2:2 3:8 4:12 5:0.2353 6:1 7:1 8:2 9:0.1818 10:0.4 11:0.1 12:42 13:27 14:0.3636 15:0.1 16:0.4 17:0.3922 18:0.1275 19:0.04 21:1 22:1 23:4.5 
-0.07147407021923698 0:2 1:1 2:1 3:2 4:12 5:0.2353 6:1 7:1 8:2 9:0.15 10:0.3889 11:0.1111 12:42 13:68 14:0.45 15:0.1111 16:0.3889 17:0.3922 18:0.1275 19:0.0714 22:1 23:0.8 
-0.03336145481466562 0:-1 2:1 3:4 4:5 5:0.4516 7:3 8:2 9:0.2273 10:0.2889 11:0.2222 12:39 13:25 14:0.4091 15:0.2222 16:0.2667 17:0.2903 18:0.2366 19:0.1739 23:1.8 
-0.08278115258246424 0:4 1:4 2:2 3:4 4:5 5:0.4034 6:2 7:5 8:3 9:0.4286 10:0.3043 11:0.2 12:47 13:97 14:0.2857 15:0.2087 16:0.287 17:0.3025 18:0.1933 19:-1 21:1 22:2 23:1.14 
-0.01862289198631352 0:3 1:4 2:4 3:19 4:4 5:0.4696 6:5 7:4 8:7 9:0.381 10:0.1875 11:0.1875 12:37 13:35 14:0.1905 15:0.25 16:0.375 17:0.2261 18:0.2174 19:0.1228 21:2 22:3 23:0.4 
-0.03185018153086543 0:1 1:5 2:3 3:14 4:4 5:0.4696 6:5 7:4 8:7 9:0.1364 10:0.1948 11:0.2208 12:37 13:75 14:0.2273 15:0.2727 16:0.3117 17:0.2261 18:0.2174 19:0.1429 21:2 22:4 23:0.5 
-1 0:1 1:5 2:2 3:3 4:4 5:0.4386 6:5 7:4 8:5 9:0.2381 10:0.2593 11:0.1944 12:43 13:6 14:0.1905 15:0.25 16:0.2963 17:0.2544 18:0.1842 21:1 22:4 23:1.11 
-0.4876338459608963 0:3 1:5 2:3 3:7 4:4 5:0.4386 6:5 7:4 8:5 9:0.2857 10:0.2375 11:0.2 12:43 13:20 14:0.1429 15:0.275 16:0.2875 17:0.2544 18:0.1842 21:2 22:4 23:1.14 
-0.05279575808690932 0:1 1:2 2:2 3:15 4:5 5:0.4435 6:4 7:8 8:4 9:0.1667 10:0.2742 11:0.1774 12:44 13:28 14:0.375 15:0.1774 16:0.371 17:0.2261 18:0.2087 19:0.1154 22:1 23:2.33 
-0.001919490929393542 0:1 1:2 2:1 3:2 4:5 5:0.4435 6:4 7:8 8:4 9:0.1739 10:0.2564 11:0.1923 12:44 13:20 14:0.3913 15:0.2051 16:0.3462 17:0.2261 18:0.2087 19:0.1667 21:1 22:2 23:1 
-0.3177307801491217 0:4 1:2 2:1 3:2 4:5 5:0.4435 6:4 7:8 8:4 9:0.1818 10:0.2625 11:0.1875 12:44 13:19 14:0.3636 15:0.2 16:0.35 17:0.2261 18:0.2087 19:0.1765 21:1 22:2 23:1 
-0.002506232563160171 0:3 1:2 2:2 3:4 4:11 5:0.4828 6:3 7:3 8:3 9:0.2174 10:0.2647 11:0.1912 12:48 13:70 14:0.1739 15:0.2059 16:0.3382 17:0.2328 18:0.2328 19:0.0435 21:1 22:1 23:0.44 
-0.007059627481470659 0:3 1:5 2:2 3:5 4:5 5:0.4569 6:2 7:3 8:7 9:0.2857 10:0.2632 11:0.1974 12:44 13:76 14:0.1905 15:0.2237 16:0.3158 17:0.2586 18:0.2155 19:0.1111 22:1 23:0.86 
-0.06555168601645095 0:1 1:3 2:2 3:4 4:4 5:0.4808 6:4 7:1 8:3 9:0.2381 10:0.2826 11:0.2391 12:46 13:7 14:0.1905 15:0.2174 16:0.2609 17:0.2692 18:0.25 21:1 22:3 23:0.78 
-0.01497821285453325 0:4 1:5 2:2 3:6 4:8 5:0.453 6:4 7:2 8:5 9:0.4286 10:0.2476 11:0.1905 12:48 13:7 14:0.2857 15:0.2571 16:0.3048 17:0.2564 18:0.1966 21:1 22:4 23:1 
-0.001371220239309202 0:3 1:4 2:1 3:4 4:8 5:0.453 6:4 7:2 8:5 10:0.2473 11:0.1828 12:48 13:86 14:0.25 15:0.2581 16:0.3118 17:0.2564 18:0.1966 19:0.1 21:1 22:3 23:1.11 
-0.1510094898936814 0:4 1:5 2:3 3:12 4:13 5:0.5909 6:2 7:6 8:5 9:0.45 10:0.141 11:0.3462 12:34 13:74 14:0.3 15:0.2692 16:0.2436 17:0.1636 18:0.3273 22:1 23:1.17 
-0.01036969645735412 0:2 1:4 2:5 3:17 4:13 5:0.5909 6:2 7:6 8:5 9:0.3333 10:0.1406 11:0.3438 12:34 13:62 14:0.2083 15:0.25 16:0.2656 17:0.1636 18:0.3273 19:0.0588 21:1 22:1 23:1.6 
-0.1018531934137039 0:4 1:3 2:3 3:7 4:13 5:0.5909 6:2 7:6 8:5 9:0.2857 10:0.1607 11:0.3214 12:34 13:28 14:0.0476 15:0.2679 16:0.25 17:0.1636 18:0.3273 19:0.2381 21:1 22:1 23:1 
-0.04497578559268001 0:4 1:7 2:4 3:11 4:3 5:0.4138 6:4 7:5 8:7 9:0.1 10:0.275 11:0.1625 12:37 13:79 14:0.4 15:0.2625 16:0.3 17:0.2759 18:0.1638 21:1 22:3 23:0.88 
-0.01198637199103224 0:2 1:6 2:3 3:21 4:4 5:0.6964 6:3 7:8 8:7 9:0.375 10:0.1584 11:0.3663 12:37 13:83 14:0.25 15:0.3366 16:0.1386 17:0.1696 18:0.3661 19:0.25 22:3 23:0.83 
-0.04629166990950613 0:3 1:8 2:4 3:20 4:4 5:0.6964 6:3 7:8 8:7 9:0.3636 10:0.1727 11:0.3636 12:37 13:90 14:0.3636 15:0.3273 16:0.1364 17:0.1696 18:0.3661 19:-1 22:3 23:2 
-0.1522272478156202 0:2 1:6 2:4 3:13 4:4 5:0.6786 6:2 7:8 8:7 9:0.35 10:0.1412 11:0.3647 12:36 13:79 14:0.15 15:0.3412 16:0.1529 17:0.1875 18:0.3571 19:0.5833 22:2 23:1.8 
-0.06044065030918814 0:4 1:6 2:3 3:23 4:4 5:0.6786 6:2 7:8 8:7 9:0.3478 10:0.1818 11:0.3535 12:36 13:83 14:0.3043 15:0.3232 16:0.1414 17:0.1875 18:0.3571 19:0.2 22:2 23:1.67 
-0.01969449649999973 0:2 1:6 2:3 3:21 4:4 5:0.6786 6:2 7:8 8:7 9:0.375 10:0.1845 11:0.3495 12:36 13:84 14:0.3333 15:0.3204 16:0.1456 17:0.1875 18:0.3571 19:0.3333 22:2 23:0.88 
-0.1811901651432621 0:3 1:2 2:1 3:1 4:23 5:0.3304 6:1 7:1 8:2 9:0.125 10:0.2947 11:0.2 12:41 13:78 14:0.2917 15:0.1474 16:0.3579 17:0.2857 18:0.1875 22:1 23:1.25 
-0.2322656194362071 0:3 1:2 2:1 3:1 4:23 5:0.3304 6:1 7:1 8:2 9:0.2 10:0.2809 11:0.2135 12:41 13:10 14:0.45 15:0.1573 16:0.3483 17:0.2857 18:0.1875 22:1 23:0.9 
-0.1368010998184475 0:1 1:8 2:3 3:8 4:8 5:0.4454 6:5 7:2 8:9 9:0.2174 10:0.2059 11:0.2353 12:43 13:88 14:0.2609 15:0.2549 16:0.3039 17:0.2437 18:0.2185 19:0.125 21:2 22:5 23:1.43 
-0.029831383378206 0:-1 1:4 2:5 3:18 4:8 5:0.4454 6:5 7:2 8:9 9:0.25 10:0.1667 11:0.2292 12:43 13:60 14:0.125 15:0.2708 16:0.3333 17:0.2437 18:0.2185 19:0.1714 21:3 22:3 23:0.38 
-0.1407141851275676 0:4 1:5 2:3 3:6 4:8 5:0.4643 6:5 7:2 8:5 9:0.381 10:0.1875 11:0.2604 12:43 13:9 14:0.1905 15:0.25 16:0.3021 17:0.2143 18:0.2411 19:0.1429 21:2 22:5 23:0.64 
-0.07913928934252898 0:1 1:7 2:3 3:10 4:8 5:0.5 6:5 7:2 8:7 9:0.2381 10:0.1792 11:0.2358 12:40 13:89 14:0.2857 15:0.283 16:0.3019 17:0.1964 18:0.2321 21:1 22:5 23:0.89 
-0.01593640152039233 0:1 1:4 2:3 3:8 4:8 5:0.5 6:5 7:2 8:7 9:0.2857 10:0.1562 11:0.2344 12:40 13:68 14:0.0952 15:0.2969 16:0.3125 17:0.1964 18:0.2321 19:0.2174 21:3 22:4 23:1 
-0.03766950604749193 0:-1 1:4 2:5 3:18 4:8 5:0.5192 6:7 7:2 8:6 9:0.2273 10:0.1739 11:0.2391 12:36 13:54 14:0.1364 15:0.2609 16:0.3261 17:0.1827 18:0.2404 19:0.08 21:2 22:2 23:0.38 
-0.03891939798047871 0:-1 1:3 2:4 3:16 4:8 5:0.5 6:4 7:2 8:4 9:0.25 10:0.16 11:0.22 12:32 13:45 14:0.125 15:0.26 16:0.36 17:0.1977 18:0.2442 19:0.0588 21:3 22:3 23:0.38 
-0.0009701389555397712 0:4 1:3 2:3 3:10 4:8 5:0.4706 6:6 7:3 8:6 9:0.381 10:0.1786 11:0.2321 12:45 13:33 14:0.2381 15:0.25 16:0.3393 17:0.2017 18:0.2185 19:0.129 21:2 22:3 23:2.5 
-0.003788337710762214 0:4 1:3 2:3 3:12 4:8 5:0.4706 6:6 7:3 8:6 9:0.3333 10:0.18 11:0.24 12:45 13:36 14:0.1905 15:0.24 16:0.34 17:0.2017 18:0.2185 19:0.1176 21:2 22:2 23:1.6 
-0.02105586796436557 0:1 1:5 2:3 3:10 4:6 5:0.3694 6:4 7:3 8:6 9:0.1364 10:0.3117 11:0.1818 12:41 13:18 14:0.3636 15:0.1948 16:0.3117 17:0.3063 18:0.1622 19:0.1333 21:3 22:4 23:0.9 
-0.03197834272209505 0:4 1:4 2:3 3:7 4:13 5:0.4494 6:1 7:2 8:3 9:0.375 10:0.2727 11:0.2273 12:33 13:65 14:0.25 15:0.2159 16:0.2841 17:0.2697 18:0.2247 19:-1 22:1 23:0.57 
-0.08135711938574132 0:-1 1:1 2:2 3:6 4:5 5:0.4118 6:6 7:2 8:3 9:0.3636 10:0.2326 11:0.1628 12:35 13:21 14:0.2727 15:0.2791 16:0.3256 17:0.2471 18:0.1529 19:0.1707 21:3 22:3 23:2.5 
-0.03409262108251265 0:3 1:1 2:2 3:16 4:23 5:0.3689 6:3 7:2 8:4 9:0.2 10:0.2857 11:0.2041 12:33 13:57 14:0.25 15:0.2041 16:0.3061 17:0.2718 18:0.165 19:0.1923 21:1 22:1 
-0.002582947380014022 0:1 1:3 2:2 3:6 4:23 5:0.3689 6:3 7:2 8:4 9:0.05 10:0.2903 11:0.172 12:33 13:6 14:0.3 15:0.1935 16:0.3441 17:0.2718 18:0.165 19:0.5 21:1 22:3 23:0.9 
-0.06713152369575048 0:3 1:10 2:5 3:10 4:5 5:0.4815 6:4 7:6 8:9 9:0.35 10:0.2593 11:0.2037 12:39 13:1 14:0.3 15:0.2778 16:0.2593 17:0.2593 18:0.2037 19:-1 21:1 22:4 23:0.29 
-0.02896655369872958 0:-1 1:2 2:3 3:13 4:5 5:0.4414 6:5 7:4 8:3 9:0.1905 10:0.1905 11:0.2143 12:46 13:56 14:0.1429 15:0.3095 16:0.2857 17:0.2342 18:0.1892 19:0.0154 21:2 22:2 23:0.86 
-0.03297254151867295 0:4 1:2 2:3 3:13 4:5 5:0.4414 6:5 7:4 8:3 9:0.375 10:0.2308 11:0.1923 12:46 13:30 14:0.3333 15:0.2692 16:0.3077 17:0.2342 18:0.1892 19:0.0182 21:2 22:2 23:1.5 
-0.04363539743539046 0:4 1:4 2:2 3:4 4:5 5:0.3333 6:5 7:2 8:3 9:0.45 10:0.2903 11:0.1505 12:39 13:74 14:0.2 15:0.1828 16:0.3763 17:0.2903 18:0.1505 19:-1 21:3 22:5 23:2.25 
-0.0413464526698203 0:-1 1:3 2:4 3:13 4:7 5:0.4455 6:2 7:2 8:5 9:0.1304 10:0.2708 11:0.2292 12:44 13:32 14:0.3913 15:0.2083 16:0.2917 17:0.2545 18:0.2182 19:0.069 21:1 22:1 23:5 
-0.3338671446585134 0:4 1:5 2:2 3:9 4:4 5:0.4095 6:3 7:3 8:5 9:0.1818 10:0.2824 11:0.2118 12:42 13:74 14:0.3636 15:0.1882 16:0.3176 17:0.2667 18:0.2095 22:1 23:0.75 
-0.01365743798071759 0:4 1:3 2:2 3:6 4:4 5:0.6977 6:4 7:2 8:4 9:0.35 10:0.1111 11:0.3472 12:32 13:8 14:0.2 15:0.3889 16:0.1528 17:0.1628 18:0.3256 19:0.2 21:1 22:4 23:1.71 
-0.03675078070255699 0:1 1:5 2:3 3:4 4:15 5:0.4404 6:3 7:4 8:4 9:0.3 10:0.2523 11:0.1869 12:37 13:89 14:0.25 15:0.2617 16:0.2991 17:0.2477 18:0.1835 19:-1 21:1 22:3 23:1.12 
-0.001754297653081983 0:3 1:4 2:2 3:5 4:15 5:0.4404 6:3 7:4 8:4 9:0.1905 10:0.2647 11:0.1765 12:37 13:85 14:0.381 15:0.2451 16:0.3137 17:0.2477 18:0.1835 21:1 22:3 23:0.75 
-0.1357030384093748 0:2 1:2 2:1 3:2 4:14 5:0.3592 6:2 7:6 8:2 9:0.1739 10:0.4156 11:0.1688 12:29 13:14 14:0.3043 15:0.1818 16:0.2338 17:0.3689 18:0.1942 22:1 23:1 
-0.01023954308182736 0:3 1:2 2:1 3:2 4:14 5:0.3592 6:2 7:6 8:2 9:0.1 10:0.4133 11:0.1733 12:29 13:70 14:0.5 15:0.1867 16:0.2267 17:0.3689 18:0.1942 22:1 23:0.89 
-0.06248599946405639 0:4 1:6 2:4 3:11 4:17 5:0.4466 6:1 7:3 8:7 9:0.25 10:0.2976 11:0.2857 12:31 13:10 14:0.25 15:0.1429 16:0.2738 17:0.2718 18:0.2718 19:0.1429 23:1 
-0.01274945361027957 0:4 1:6 2:4 3:18 4:3 5:0.5278 6:5 7:3 8:5 9:0.3478 10:0.2059 11:0.2206 12:22 13:3 14:0.087 15:0.3088 16:0.2647 17:0.2083 18:0.2222 19:-1 21:3 22:5 
-0.07723130925227861 0:4 1:4 2:4 3:25 4:4 5:0.419 6:3 7:10 8:6 9:0.1304 10:0.3768 11:0.1884 12:32 13:64 14:0.3478 15:0.2174 16:0.2174 17:0.3238 18:0.2 19:0.1111 21:1 22:1 23:1.67 
-0.001965824987542664 0:2 1:4 2:3 3:13 4:4 5:0.419 6:3 7:10 8:6 9:0.2273 10:0.3636 11:0.1688 12:32 13:14 14:0.3636 15:0.2208 16:0.2468 17:0.3238 18:0.2 19:0.1579 21:3 22:3 23:2.67 
-0.0416630009528498 0:1 1:4 2:4 3:22 4:4 5:0.419 6:3 7:10 8:6 9:0.1 10:0.3594 11:0.1875 12:32 13:64 14:0.3 15:0.2188 16:0.2344 17:0.3238 18:0.2 19:0.1875 21:1 22:1 23:0.71 
-0.002735784183873546 0:1 1:5 2:4 3:10 4:4 5:0.7123 6:5 7:5 8:4 9:0.1429 10:0.1429 11:0.3143 12:26 13:4 15:0.3857 16:0.1571 17:0.137 18:0.3151 19:-1 21:4 22:5 23:1.29 
-0.505136243250086 0:3 1:8 2:3 3:9 4:5 5:0.7238 6:6 7:3 8:8 9:0.4 10:0.0971 11:0.2913 12:39 13:85 14:0.15 15:0.4369 16:0.1748 17:0.1048 18:0.2857 19:-1 21:1 22:6 23:0.89 
-0.5002229929129929 0:3 1:5 2:3 3:8 4:4 5:0.5349 6:5 7:5 8:5 9:0.1818 10:0.2078 11:0.2208 12:30 13:59 14:0.2727 15:0.2987 16:0.2727 17:0.2093 18:0.2209 21:3 22:4 23:1.5 
-0.3533414384384536 0:1 1:2 2:2 3:7 4:8 5:0.3836 7:4 8:2 9:0.2 10:0.339 11:0.1695 12:28 13:46 14:0.35 15:0.2203 16:0.2712 17:0.3288 18:0.1781 23:0.58 
-0.07789411840260087 0:1 1:3 2:2 3:4 4:5 5:0.3333 6:1 7:9 8:3 9:0.1818 10:0.3382 11:0.1912 12:32 13:8 14:0.1818 15:0.1471 16:0.3235 17:0.3452 18:0.1905 21:1 22:1 23:1.43 
-0.006374877748972185 0:4 1:3 2:3 3:13 4:5 5:0.3333 6:1 7:9 8:3 9:0.0417 10:0.3696 11:0.1957 12:32 13:41 14:0.5 15:0.1087 16:0.3261 17:0.3452 18:0.1905 23:0.56 
-0.03241533063633505 0:1 1:2 2:2 3:13 4:6 5:0.4476 6:8 7:6 8:4 9:0.1739 10:0.2459 11:0.1311 12:38 13:23 14:0.3478 15:0.2459 16:0.377 17:0.2476 18:0.1905 19:0.1905 21:4 22:6 23:0.8 
-0.06081020204333742 0:1 1:2 2:2 3:13 4:6 5:0.4476 6:8 7:6 8:4 9:0.3333 10:0.1837 11:0.1633 12:38 13:57 14:0.1905 15:0.3061 16:0.3469 17:0.2476 18:0.1905 19:0.1481 21:5 22:6 23:5 
-0.02559785287583316 0:3 1:4 2:3 3:18 4:6 5:0.4476 6:8 7:6 8:4 9:0.1304 10:0.253 11:0.1807 12:38 13:72 14:0.1304 15:0.253 16:0.3133 17:0.2476 18:0.1905 21:1 22:6 
-0.01051641284680693 0:3 1:5 2:3 3:12 4:4 5:0.5049 6:5 7:4 8:5 9:0.25 10:0.2152 11:0.2405 12:38 13:13 14:0.5 15:0.2278 16:0.3165 17:0.1942 18:0.2427 21:1 22:3 23:1.17 
-0.09485063426547616 0:3 1:6 2:2 3:6 4:4 5:0.4775 6:3 7:6 8:5 9:0.1364 10:0.2336 11:0.1963 12:42 13:88 14:0.1364 15:0.2617 16:0.3084 17:0.2252 18:0.1982 19:-1 21:2 22:3 23:1.57 
-0.03430692196778063 0:1 1:6 2:3 3:7 4:9 5:0.3739 6:5 7:8 8:5 9:0.35 10:0.2696 11:0.1652 12:40 13:1 14:0.45 15:0.2087 16:0.3565 17:0.2696 18:0.1652 19:-1 21:2 22:5 23:0.57 
-0.003271129766799121 0:1 1:4 2:4 3:18 4:3 5:0.4433 6:3 7:7 8:4 9:0.2174 10:0.3099 11:0.2113 12:37 13:14 14:0.5217 15:0.2254 16:0.2535 17:0.3093 18:0.2165 21:2 22:3 23:0.78 
-0.02481447213334417 0:1 1:2 2:2 3:12 4:3 5:0.4433 6:3 7:7 8:4 9:0.3 10:0.2979 11:0.2128 12:37 13:53 14:0.3 15:0.234 16:0.2553 17:0.3093 18:0.2165 19:0.125 21:3 22:3 23:4.5 
-0.03421048098636419 0:4 1:7 2:5 3:10 4:3 5:0.4766 6:5 7:3 8:7 9:0.3333 10:0.2118 11:0.2353 12:40 13:12 14:0.4167 15:0.2353 16:0.3176 17:0.2056 18:0.2243 21:1 22:2 23:1.22 
-0.01766296288130671 0:-1 1:3 2:4 3:13 4:3 5:0.4766 6:5 7:3 8:7 9:0.3636 10:0.1905 11:0.2381 12:40 13:53 14:0.1364 15:0.1905 16:0.381 17:0.2056 18:0.2243 19:0.1475 21:1 22:1 23:1.17 
-0.05469740758011169 0:1 1:6 2:5 3:7 4:6 5:0.4579 6:3 7:2 8:9 9:0.2917 10:0.2537 11:0.209 12:41 13:20 14:0.375 15:0.2239 16:0.3134 17:0.2617 18:0.2243 19:0.1579 21:1 22:2 23:1.12 
-0.1016711981964756 0:1 1:8 2:5 3:9 4:6 5:0.4579 6:3 7:2 8:9 9:0.1905 10:0.2588 11:0.2235 12:41 13:76 14:0.0476 15:0.2235 16:0.2941 17:0.2617 18:0.2243 19:0.1 21:1 22:2 23:0.6 
-0.01195782267809592 0:-1 1:3 2:4 3:20 4:4 5:0.4314 6:4 7:6 8:5 9:0.0455 10:0.25 11:0.1875 12:35 13:28 14:0.1818 15:0.1667 16:0.3958 17:0.2647 18:0.2157 19:0.1538 21:2 22:2 23:0.43 
-0.1365248325894494 0:1 1:7 2:3 3:12 4:6 5:0.4 6:3 7:8 8:6 9:0.2727 10:0.25 11:0.1852 12:37 13:2 14:0.2273 15:0.2222 16:0.3426 17:0.2636 18:0.1818 19:-1 21:2 22:3 23:0.2 
-0.07208237215261638 0:4 1:6 2:3 3:9 4:6 5:0.4 6:3 7:8 8:6 9:0.1429 10:0.25 11:0.18 12:37 13:86 14:0.2381 15:0.23 16:0.34 17:0.2636 18:0.1818 21:2 22:2 23:0.6 
-0.2338413350183937 0:2 1:5 2:2 3:5 4:6 5:0.43 6:3 7:8 8:5 9:0.3913 10:0.2551 11:0.1939 12:36 13:2 14:0.2174 15:0.2449 16:0.3061 17:0.26 18:0.19 19:-1 21:3 22:3 23:1 
-1 0:1 1:4 2:2 3:4 4:6 5:0.4059 6:3 7:8 8:4 9:0.1905 10:0.2889 11:0.2 12:36 13:11 14:0.0476 15:0.2 16:0.3111 17:0.2772 18:0.2079 21:1 22:3 23:0.8 
-0.01536239299563777 0:2 1:5 2:3 3:10 4:9 5:0.297 6:2 7:1 8:4 9:0.3182 10:0.3684 11:0.1579 12:36 13:77 14:0.2727 15:0.1474 16:0.3263 17:0.3564 18:0.1584 19:-1 21:1 22:2 23:3 
-0.2198087728891082 0:1 1:3 2:3 3:6 4:9 5:0.297 6:2 7:1 8:4 9:0.0435 10:0.4211 11:0.1228 12:36 13:23 14:0.3913 15:0.1053 16:0.3509 17:0.3564 18:0.1584 19:0.0625 21:1 22:1 23:1 
-0.004209556595493269 0:3 1:1 2:1 3:4 4:12 5:0.5309 6:1 7:2 8:1 9:0.2917 10:0.225 11:0.275 12:32 13:57 14:0.3333 15:0.25 16:0.25 17:0.2222 18:0.284 19:-1 22:1 23:1 
-0.07023481314326828 0:4 1:3 2:2 3:3 4:7 5:0.2475 6:2 7:1 8:3 9:0.2381 10:0.2941 11:0.1324 12:38 13:67 14:0.3333 15:0.1471 16:0.4265 17:0.3366 18:0.1287 21:2 22:2 23:0.89 
-0.2254014968043814 0:4 1:2 2:1 3:4 4:5 5:0.4368 6:3 7:2 8:2 9:0.2609 10:0.2812 11:0.2031 12:35 13:13 14:0.1739 15:0.25 16:0.2656 17:0.2759 18:0.1954 21:1 22:2 23:0.5 
-0.007652978322311788 0:4 1:8 2:5 3:12 4:8 5:0.7073 6:2 7:5 8:7 9:0.4 10:0.075 11:0.4 12:23 13:2 15:0.3125 16:0.2125 17:0.0732 18:0.4024 19:-1 21:2 22:2 23:1.33 
-0.005261942499643124 0:4 1:8 2:5 3:13 4:8 5:0.7073 6:2 7:5 8:7 9:0.35 10:0.0732 11:0.4024 12:23 13:1 15:0.3049 16:0.2195 17:0.0732 18:0.4024 19:-1 21:2 22:2 23:0.56 
-0.1686505225085893 0:2 1:4 2:5 3:21 4:8 5:0.7073 6:2 7:5 8:7 9:0.2381 10:0.098 11:0.3529 12:23 13:47 15:0.3137 16:0.2353 17:0.0732 18:0.4024 19:0.2857 23:0.67 
-0.02169142066623009 0:3 1:3 2:4 3:18 4:8 5:0.5625 6:2 7:5 8:4 9:0.2083 10:0.1 11:0.3 12:17 13:33 14:0.0833 15:0.24 16:0.36 17:0.0938 18:0.2969 19:0.4 21:2 22:2 23:0.5 
-0.1650826249792307 0:4 1:3 2:1 3:2 4:5 5:0.3613 6:6 7:2 8:4 9:0.1429 10:0.2796 11:0.172 12:48 13:14 14:0.1905 15:0.2043 16:0.3441 17:0.2857 18:0.1681 19:0.1111 21:2 22:5 23:1.1 
-0.002668421269427298 0:4 1:3 2:3 3:14 4:4 5:0.4024 6:2 7:13 8:3 9:0.087 10:0.3939 11:0.1212 12:23 13:51 14:0.5217 15:0.1818 16:0.303 17:0.3415 18:0.1951 21:1 22:2 
-0.07599424011723316 0:4 1:3 2:2 3:3 4:5 5:0.3421 6:3 7:2 8:6 9:0.1667 10:0.3934 11:0.0984 12:48 13:64 14:0.375 15:0.1475 16:0.3607 17:0.3421 18:0.1579 19:0.1538 21:1 22:1 23:1.29 
-0.5472855686303547 0:1 1:6 2:3 3:8 4:5 5:0.3421 6:3 7:2 8:6 9:0.25 10:0.3423 11:0.1532 12:48 13:93 14:0.45 15:0.1802 16:0.3243 17:0.3421 18:0.1579 21:1 22:3 23:0.6 
-0.05806357693949274 0:4 1:3 2:3 3:8 4:9 5:0.3816 6:2 7:4 8:3 9:0.15 10:0.3509 11:0.1754 12:26 13:10 14:0.25 15:0.2105 16:0.2632 17:0.3421 18:0.1842 21:1 22:2 23:1.12 
-0.04342424164572168 0:1 1:3 2:4 3:16 4:5 5:0.4051 6:2 7:5 8:4 9:0.1304 10:0.3469 11:0.1837 12:29 13:14 14:0.3043 15:0.2245 16:0.2449 17:0.3165 18:0.1772 19:0.0714 21:1 22:1 23:1.2 
-0.8879304693045825 0:4 1:1 2:1 3:4 4:10 5:0.4211 6:2 7:2 8:1 9:0.2174 10:0.2833 11:0.1833 12:29 13:8 14:0.2609 15:0.2 16:0.3333 17:0.2632 18:0.2105 21:1 22:1 23:1.11 
-0.03504125358796007 0:1 1:4 2:1 3:10 4:5 5:0.3529 6:5 7:10 8:7 9:0.05 10:0.2542 11:0.1525 12:35 13:21 14:0.2 15:0.1864 16:0.4068 17:0.2451 18:0.1667 19:0.2195 21:1 22:2 
-0.102450333555742 0:1 1:5 2:3 3:5 4:4 5:0.2614 6:4 7:2 8:5 9:0.1818 10:0.3333 11:0.0988 12:35 13:64 14:0.3182 15:0.1728 16:0.3951 17:0.3409 18:0.0909 21:4 22:4 23:1.12 
-0.2471868648020568 0:3 1:3 2:1 3:8 4:6 5:0.5051 6:4 7:11 8:5 9:0.25 10:0.1739 11:0.2319 12:36 13:65 14:0.15 15:0.2754 16:0.3188 17:0.202 18:0.2222 19:0.1429 22:3 
-0.06938042315126476 0:1 1:4 2:4 3:9 4:15 5:0.4112 6:2 7:4 8:6 9:0.2 10:0.3103 11:0.1724 12:36 13:24 14:0.25 15:0.2241 16:0.2931 17:0.2991 18:0.1682 19:0.1915 21:1 22:1 23:0.7 
-0.02325222517778583 0:4 1:2 2:3 3:17 4:15 5:0.4112 6:2 7:4 8:6 9:0.1364 10:0.3261 11:0.1739 12:36 13:54 14:0.3636 15:0.2391 16:0.2609 17:0.2991 18:0.1682 19:0.2203 
-0.105980477524944 0:1 1:4 2:5 3:25 4:15 5:0.4112 6:2 7:4 8:6 9:0.25 10:0.3065 11:0.1774 12:36 13:22 14:0.25 15:0.2097 16:0.3065 17:0.2991 18:0.1682 19:0.1628 21:1 22:1 23:5 
-0.02854919547368024 0:3 1:2 2:1 3:23 4:10 5:0.3894 6:6 7:12 8:7 9:0.25 10:0.3571 11:0.1571 12:30 13:71 14:0.4583 15:0.1714 16:0.3143 17:0.292 18:0.1681 19:0.4146 21:3 22:4 23:0.3 
-0.2225631230146891 0:2 1:4 2:3 3:11 4:10 5:0.3894 6:6 7:12 8:7 9:0.3182 10:0.3176 11:0.1647 12:30 13:79 14:0.3182 15:0.2 16:0.3176 17:0.292 18:0.1681 19:0.5385 21:5 22:6 
-0.001901586494237606 0:1 1:8 2:6 3:19 4:10 5:0.3894 6:6 7:12 8:7 9:0.2917 10:0.292 11:0.1681 12:30 13:1 14:0.25 15:0.2212 16:0.3186 17:0.292 18:0.1681 19:-1 21:2 22:6 23:0.29 
-0.02656197341827943 0:3 1:5 2:3 3:13 4:10 5:0.434 6:5 7:4 8:6 9:0.1429 10:0.2208 11:0.2857 12:29 13:67 14:0.1429 15:0.1948 16:0.2987 17:0.2547 18:0.2453 19:0.2308 21:3 22:4 23:0.78 
-0.003261560440767445 0:1 1:6 2:3 3:7 4:4 5:0.4087 6:4 7:6 8:6 9:0.2273 10:0.2747 11:0.1978 12:39 13:12 14:0.1364 15:0.2198 16:0.3077 17:0.2609 18:0.1826 19:0.1111 21:1 22:2 23:0.89 
-0.1924468897290995 0:3 1:3 2:3 3:12 4:4 5:0.5577 6:5 7:7 8:6 9:0.35 10:0.1373 11:0.3529 12:33 13:57 14:0.1 15:0.2549 16:0.2549 17:0.1731 18:0.2885 19:0.3077 21:2 22:2 
-0.01093192928554252 0:2 1:3 2:3 3:12 4:9 5:0.5147 6:2 7:5 8:5 9:0.45 10:0.2449 11:0.2041 12:19 13:9 14:0.25 15:0.3265 16:0.2245 17:0.2353 18:0.1912 19:0.3333 21:1 22:1 23:1.8 
-0.03695539523733504 0:1 1:3 2:4 3:21 4:3 5:0.466 6:6 7:7 8:5 9:0.2174 10:0.3542 11:0.25 12:28 13:28 14:0.2609 15:0.2083 16:0.1875 17:0.3107 18:0.2524 19:0.1429 21:2 22:2 23:0.71 
-0.04649529239095746 0:3 1:4 2:3 3:18 4:3 5:0.466 6:6 7:7 8:5 9:0.2917 10:0.3115 11:0.2131 12:28 13:59 14:0.2917 15:0.2295 16:0.2459 17:0.3107 18:0.2524 19:0.1818 21:5 22:5 23:0.78 
-0.003650924117821242 0:1 1:4 2:3 3:18 4:3 5:0.466 6:6 7:7 8:5 9:0.2083 10:0.3115 11:0.2131 12:28 13:22 14:0.25 15:0.2295 16:0.2459 17:0.3107 18:0.2524 19:0.1818 21:5 22:5 23:1.29 
-0.2713239804267912 0:3 1:4 2:3 3:10 4:4 5:0.5714 6:6 7:4 8:3 9:0.1739 10:0.1571 11:0.2429 12:27 13:48 14:0.1739 15:0.3286 16:0.2714 17:0.1571 18:0.2429 19:-1 21:4 22:6 23:0.71 
-0.03253473243970549 0:4 1:3 2:2 3:11 4:3 5:0.4112 6:4 7:7 8:5 9:0.1304 10:0.2571 11:0.1571 12:42 13:64 14:0.1739 15:0.2429 16:0.3429 17:0.2617 18:0.1682 19:0.0909 21:3 22:3 23:0.9 
-0.07541400290308353 0:3 1:4 2:3 3:6 4:5 5:0.4713 6:6 7:3 8:6 9:0.15 10:0.25 11:0.2031 12:34 13:13 14:0.2 15:0.25 16:0.2969 17:0.2299 18:0.1954 19:0.1818 21:3 22:4 23:1.8 
-0.005988787530161244 0:4 1:9 2:5 3:14 4:5 5:0.5455 6:3 7:5 8:8 9:0.35 10:0.1932 11:0.2159 12:28 13:1 14:0.25 15:0.3295 16:0.2614 17:0.1932 18:0.2159 19:-1 22:3 23:0.88 
-0.04592119887691404 0:2 1:4 2:3 3:10 4:5 5:0.5408 6:2 7:4 8:6 9:0.2857 10:0.1818 11:0.3091 12:36 13:55 14:0.1905 15:0.3455 16:0.1636 17:0.2245 18:0.2449 19:0.1905 23:0.6 
-0.005075832050074069 0:4 1:1 2:2 3:16 4:17 5:0.2745 6:2 7:2 8:2 9:0.125 10:0.3922 11:0.2157 12:39 13:53 14:0.4583 15:0.1176 16:0.2745 17:0.3725 18:0.1373 19:0.08 
-0.0508841764474036 0:1 1:3 2:2 3:5 4:17 5:0.2745 6:2 7:2 8:2 9:0.2 10:0.3725 11:0.1373 12:39 13:83 14:0.2 15:0.1373 16:0.3529 17:0.3725 18:0.1373 19:-1 21:2 22:2 23:0.83 
-0.03532385239986865 0:1 1:1 2:2 3:12 4:17 5:0.2745 6:2 7:2 8:2 9:0.1304 10:0.3962 11:0.2075 12:39 13:55 14:0.4348 15:0.1132 16:0.283 17:0.3725 18:0.1373 19:0.0833 
-0.002739425115401817 0:3 1:4 2:3 3:15 4:6 5:0.4825 6:6 7:4 8:5 9:0.2727 10:0.2162 11:0.2432 12:43 13:21 14:0.3636 15:0.2703 16:0.2703 17:0.2368 18:0.2368 19:0.0526 21:2 22:4 23:1.6 
-0.5584592828894507 0:3 1:6 2:2 3:10 4:4 5:0.4679 6:4 7:5 8:6 9:0.25 10:0.2596 11:0.2019 12:39 13:88 14:0.3 15:0.2596 16:0.2788 17:0.2477 18:0.2018 21:2 22:3 23:0.8 
-0.177064252298764 0:1 1:3 2:2 3:6 4:4 5:0.4679 6:4 7:5 8:6 9:0.4 10:0.2586 11:0.2241 12:39 13:64 14:0.15 15:0.2586 16:0.2586 17:0.2477 18:0.2018 19:0.28 22:1 23:0.9 
-0.02009287357770458 0:4 1:4 2:4 3:15 4:5 5:0.4956 6:4 7:3 8:9 9:0.3 10:0.25 11:0.1786 12:40 13:67 14:0.2 15:0.2679 16:0.3036 17:0.2035 18:0.2035 19:0.1698 21:2 22:2 23:0.8 
-0.02034569885711719 0:1 1:5 2:5 3:10 4:6 5:0.51 6:2 7:3 8:7 9:0.2 10:0.2083 11:0.3125 12:37 13:26 14:0.2 15:0.25 16:0.2292 17:0.22 18:0.27 19:0.1064 21:1 22:1 23:0.7 
-0.248393847004815 0:2 1:5 2:4 3:9 4:7 5:0.4231 6:4 7:7 8:6 9:0.3 10:0.2468 11:0.1688 12:31 13:74 14:0.2 15:0.2468 16:0.3377 17:0.2788 18:0.1827 19:0.4545 21:2 22:4 23:0.91 
-0.09811418848108733 0:4 1:6 2:5 3:19 4:7 5:0.4231 6:4 7:7 8:6 9:0.2727 10:0.2472 11:0.191 12:31 13:76 14:0.1818 15:0.2472 16:0.3146 17:0.2788 18:0.1827 21:1 22:4 23:3 
-0.06560004243803004 0:3 1:4 2:3 3:6 4:12 5:0.4819 6:1 7:2 8:4 9:0.25 10:0.2632 11:0.25 12:30 13:61 14:0.1 15:0.2368 16:0.25 17:0.253 18:0.241 23:1.11 
-0.1759745456067392 0:4 1:2 2:2 3:8 4:7 5:0.5306 6:4 7:3 8:3 9:0.2609 10:0.1803 11:0.2459 12:36 13:22 14:0.1739 15:0.2787 16:0.2951 17:0.1837 18:0.2653 19:0.1875 21:2 22:2 23:0.6 
-0.04720694570158643 0:1 1:1 2:1 3:4 4:7 5:0.5341 6:2 7:3 8:3 9:0.25 10:0.1961 11:0.2157 12:34 13:51 14:0.25 15:0.2549 16:0.3333 17:0.1818 18:0.25 19:0.2222 21:2 22:2 23:1 
-0.04399014266265899 0:1 1:3 2:3 3:12 4:7 5:0.5341 6:2 7:3 8:3 9:0.2727 10:0.1791 11:0.2388 12:34 13:57 14:0.1364 15:0.2836 16:0.2985 17:0.1818 18:0.25 21:1 22:2 23:3 
-0.03813431361849441 0:4 1:2 2:3 3:12 4:7 5:0.534 6:3 7:3 8:3 9:0.2083 10:0.193 11:0.2456 12:37 13:23 14:0.25 15:0.2632 16:0.2982 17:0.2039 18:0.2718 19:0.1667 21:2 22:2 23:2.67 
-0.007073981611311714 0:2 1:4 2:2 3:6 4:14 5:0.3051 6:1 7:2 8:4 9:0.25 10:0.3636 11:0.1545 12:46 13:95 14:0.3 15:0.1364 16:0.3455 17:0.3475 18:0.1525 23:2 
-0.06611669632136273 0:4 1:4 2:2 3:6 4:14 5:0.3051 6:1 7:2 8:4 9:0.25 10:0.3596 11:0.1579 12:46 13:93 14:0.375 15:0.1404 16:0.3421 17:0.3475 18:0.1525 23:1.12 
-0.03857974584735212 0:2 1:6 2:1 3:2 4:8 5:0.2773 6:2 7:4 8:6 9:0.1 10:0.359 11:0.1197 12:44 13:99 14:0.45 15:0.1538 16:0.3675 17:0.3613 18:0.1261 19:-1 22:2 23:1 
-0.05444500358513995 0:-1 1:1 2:2 3:13 4:8 5:0.2773 6:2 7:4 8:6 9:0.0952 10:0.3659 11:0.1463 12:44 13:60 14:0.381 15:0.122 16:0.3659 17:0.3613 18:0.1261 19:0.1842 23:0.25 
-0.0114100542978574 0:4 1:2 2:2 3:6 4:8 5:0.2451 6:3 7:2 8:1 9:0.0435 10:0.3627 11:0.098 12:44 13:1 14:0.2609 15:0.1471 16:0.3922 17:0.3627 18:0.098 19:-1 21:2 22:3 23:0.75 
-0.03830156490291078 0:4 1:3 2:2 3:4 4:4 5:0.2982 6:3 7:6 8:4 9:0.0909 10:0.3333 11:0.1548 12:44 13:14 14:0.4545 15:0.1667 16:0.3452 17:0.3509 18:0.1579 19:0.3636 21:1 22:3 23:1.25 
-0.007360882084684573 0:4 1:3 2:3 3:11 4:6 5:0.4058 6:6 7:5 8:3 9:0.1 10:0.2553 11:0.1702 12:24 13:11 14:0.3 15:0.1915 16:0.383 17:0.2029 18:0.1739 19:0.1 21:2 22:2 
-0.04534396851807344 0:-1 1:2 2:3 3:9 4:4 5:0.2906 6:1 7:3 8:4 9:0.1739 10:0.3556 11:0.0889 12:50 13:58 14:0.3913 15:0.1556 16:0.4 17:0.3504 18:0.1368 19:0.0571 23:0.67 
-0.2512916046638984 0:1 1:4 2:1 3:2 4:4 5:0.2906 6:1 7:3 8:4 9:0.15 10:0.3592 11:0.1262 12:50 13:90 14:0.35 15:0.1456 16:0.3689 17:0.3504 18:0.1368 21:1 22:1 23:1.5 
-0.001719347310552641 0:3 1:4 2:1 3:2 4:4 5:0.2906 6:1 7:3 8:4 9:0.1 10:0.3564 11:0.1287 12:50 13:8 14:0.35 15:0.1485 16:0.3663 17:0.3504 18:0.1368 21:1 22:1 23:0.67 
-0.001364406161886772 0:2 1:1 2:1 3:6 4:5 5:0.4516 7:3 8:2 9:0.2174 10:0.2987 11:0.2208 12:39 13:9 14:0.3913 15:0.2208 16:0.2597 17:0.2903 18:0.2366 19:0.1429 23:0.89 
-0.0816014821651824 0:4 1:3 2:3 3:8 4:7 5:0.4026 6:2 7:2 8:3 9:0.2 10:0.3067 11:0.1867 12:30 13:2 14:0.3 15:0.2133 16:0.2933 17:0.3117 18:0.1948 19:-1 21:1 22:2 23:0.86 
-0.1843207810789777 0:3 1:3 2:3 3:9 4:9 5:0.4615 6:1 7:3 8:3 10:0.22 11:0.22 12:29 13:15 14:0.2 15:0.26 16:0.3 17:0.2436 18:0.2051 23:0.78 
