svm_type c_svc
kernel_type rbf
gamma 0.0454545
nr_class 2
total_sv 1185
rho 0.806486
label 1 0
nr_sv 92 1093
SV
1 0:2 1:3 2:21 3:13 4:0.3511 5:4 6:4 7:0.0435 8:0.4348 9:0.2833 10:0.1833 11:19 12:0.1728 13:18 14:0.3043 15:4 16:0.1333 17:0.4 18:0.2872 19:0.1596 20:0.4074 22:2 
0.08072361734676484 0:3 1:7 2:19 3:13 4:0.3511 5:4 6:4 7:0.2727 8:0.3636 9:0.2969 10:0.1719 11:17 12:0.1728 13:58 14:0.3636 15:4 16:0.1406 17:0.3906 18:0.2872 19:0.1596 20:0.3043 22:2 
1 0:3 1:4 2:20 3:12 4:0.3765 5:1 6:5 7:0.3043 8:0.4348 9:0.3103 10:0.1897 11:16 12:0.0959 13:16 14:0.2174 15:4 16:0.1897 17:0.3103 18:0.2824 19:0.1765 20:0.1304 
0.7696891985985603 0:4 1:5 2:18 3:12 4:0.3765 5:1 6:5 7:0.1 8:0.25 9:0.3115 10:0.1803 11:15 12:0.0959 13:56 14:0.4 15:4 16:0.1803 17:0.3279 18:0.2824 19:0.1765 20:0.1 
1 0:3 1:5 2:19 3:5 4:0.3544 5:2 6:5 7:0.1905 8:0.5238 9:0.3103 10:0.1379 11:12 12:0.1216 13:12 14:0.1429 15:1 16:0.2069 17:0.3448 18:0.3165 19:0.1772 20:0.2 22:2 
0.8309420859971364 0:2 1:7 2:19 3:11 4:0.4554 5:3 6:5 7:0.2174 8:0.3478 9:0.2069 10:0.2241 11:24 12:0.1889 13:20 14:0.2174 15:8 16:0.2069 17:0.3621 18:0.2673 19:0.2673 20:0.3333 22:3 
0.940473774251523 0:3 1:7 2:19 3:12 4:0.375 5:2 6:4 7:0.1364 8:0.3182 9:0.254 10:0.2063 11:20 12:0.131 13:61 14:0.3636 15:7 16:0.1905 17:0.3492 18:0.2708 19:0.1667 20:0.1667 22:3 
1 0:3 1:6 2:20 3:10 4:0.4062 5:2 6:6 7:0.2609 8:0.2609 9:0.3167 10:0.2167 11:22 12:0.1163 13:22 14:0.3043 15:5 16:0.2 17:0.2667 18:0.3125 19:0.2188 20:0.1333 22:1 
0.05557316818746246 0:3 1:6 2:19 3:10 4:0.4062 5:2 6:6 7:0.1818 8:0.3182 9:0.3226 10:0.2097 11:21 12:0.1163 13:61 14:0.3182 15:5 16:0.1935 17:0.2742 18:0.3125 19:0.2188 20:0.1429 22:1 
1 0:4 1:12 2:18 3:4 4:0.4257 5:4 6:6 7:0.3636 8:0.2273 9:0.2241 10:0.2069 11:24 12:0.1959 13:21 14:0.2727 15:9 16:0.2586 17:0.3103 18:0.2277 19:0.2079 20:0.2593 22:2 
1 0:3 1:10 2:18 3:3 4:0.48 5:4 6:6 7:0.2273 8:0.2273 9:0.2295 10:0.2131 11:22 12:0.2371 13:58 14:0.2727 15:2 16:0.2459 17:0.3115 18:0.23 19:0.25 20:0.3514 22:3 
1 0:3 1:4 2:20 3:13 4:0.396 5:1 6:5 7:0.0909 8:0.3182 9:0.2295 10:0.1639 11:22 12:0.0909 13:59 14:0.2727 15:11 16:0.2131 17:0.3934 18:0.2772 19:0.2178 20:0.2 22:4 
0.3931443561367063 0:4 1:10 2:18 3:9 4:0.4356 5:2 6:7 7:0.3182 8:0.1818 9:0.2712 10:0.1864 11:23 12:0.1848 13:22 14:0.4091 15:7 16:0.2373 17:0.3051 18:0.2475 19:0.198 20:0.2414 22:2 
0.06768883103455875 0:4 1:8 2:19 3:5 4:0.3762 5:2 6:6 7:0.1739 8:0.1739 9:0.3115 10:0.1639 11:24 12:0.1042 13:61 14:0.4783 15:8 16:0.1967 17:0.3279 18:0.2871 19:0.1782 20:0.0714 22:2 
0.5034122995263346 0:4 1:13 2:16 3:7 4:0.4554 5:3 6:7 7:0.1818 8:0.3182 9:0.35 10:0.2167 11:23 12:0.234 13:61 14:0.1818 15:1 16:0.2 17:0.2333 18:0.297 19:0.2277 20:0.2308 22:2 
1 0:3 1:14 2:15 3:8 4:0.4356 5:3 6:4 7:0.2273 8:0.3182 9:0.1724 10:0.2241 11:24 12:0.2151 13:60 14:0.0909 15:13 16:0.2241 17:0.3793 18:0.1881 19:0.2178 20:0.3 22:3 
1 0:3 1:9 2:17 3:11 4:0.4545 5:3 6:3 7:0.1905 8:0.381 9:0.2414 10:0.1724 11:27 12:0.1429 13:5 14:0.1905 15:22 16:0.2241 17:0.3621 18:0.2159 19:0.2386 20:0.25 22:1 
1 0:3 1:11 2:16 3:11 4:0.4545 5:3 6:3 7:0.3182 8:0.1818 9:0.2333 10:0.1833 11:26 12:0.1429 13:42 14:0.3182 15:22 16:0.2167 17:0.3667 18:0.2159 19:0.2386 22:1 
1 0:5 1:14 2:16 3:5 4:0.5347 5:4 6:10 7:0.2273 8:0.2273 9:0.193 10:0.2807 11:25 12:0.2708 13:21 14:0.2727 15:7 16:0.2632 17:0.2632 18:0.2079 19:0.2673 20:0.375 22:1 
1 0:4 1:12 2:16 3:15 4:0.4257 5:2 6:5 7:0.2727 8:0.3182 9:0.2542 10:0.2712 11:23 12:0.1977 13:22 14:0.1818 15:7 16:0.2542 17:0.2203 18:0.3168 19:0.198 20:0.1724 22:1 
1 0:4 1:14 2:15 3:15 4:0.4257 5:2 6:5 7:0.3182 8:0.1364 9:0.2857 10:0.254 11:21 12:0.1977 13:61 14:0.3182 15:7 16:0.2381 17:0.2222 18:0.3168 19:0.198 20:0.12 22:1 
1 0:3 1:5 2:19 3:12 4:0.4257 5:2 6:5 7:0.1818 8:0.2727 9:0.2807 10:0.2456 11:24 12:0.1461 13:22 14:0.2273 15:4 16:0.2105 17:0.2632 18:0.2673 19:0.2178 20:0.2105 22:3 
0.9348535509004807 0:4 1:17 2:14 3:3 4:0.4257 5:5 6:6 7:0.1818 8:0.3182 9:0.3226 10:0.2258 11:21 12:0.2245 13:61 14:0.1364 15:5 16:0.1935 17:0.2581 18:0.3168 19:0.2079 20:0.1724 22:1 
1 0:5 1:16 2:15 3:4 4:0.4752 5:3 6:7 7:0.2273 8:0.3182 9:0.2667 10:0.1667 11:24 12:0.2577 13:61 14:0.3182 15:10 16:0.2333 17:0.3333 18:0.2673 19:0.2079 20:0.36 22:2 
1 0:2 1:5 2:20 3:10 4:0.4356 5:2 6:5 7:0.1818 8:0.3182 9:0.3279 10:0.1803 11:24 12:0.1209 13:61 14:0.3636 15:10 16:0.1639 17:0.3279 18:0.2772 19:0.2277 20:0.25 22:2 
1 0:4 1:8 2:17 3:11 4:0.4231 5:3 6:4 7:0.1739 8:0.3043 9:0.2542 10:0.2034 11:11 12:0.1493 13:10 14:0.3913 15:3 16:0.2034 17:0.339 18:0.2179 19:0.1923 20:0.1429 22:2 
1 0:3 1:8 2:18 3:6 4:0.4851 5:4 6:7 7:0.1429 8:0.2857 9:0.25 10:0.2857 11:26 12:0.2842 13:25 14:0.1429 15:5 16:0.2857 17:0.1786 18:0.2574 19:0.2475 20:0.4872 
1 0:2 1:12 2:17 3:5 4:0.3913 5:4 6:3 7:0.2857 8:0.381 9:0.1818 10:0.1818 11:8 12:0.2188 13:8 14:0.1905 15:3 16:0.2545 17:0.3818 18:0.2029 19:0.1594 20:0.25 22:4 
1 0:3 1:14 2:17 3:5 4:0.3913 5:4 6:3 7:0.1818 8:0.2727 9:0.2034 10:0.1864 11:6 12:0.2188 13:43 14:0.2273 15:3 16:0.2373 17:0.3729 18:0.2029 19:0.1594 22:4 
1 0:3 1:10 2:18 3:6 4:0.5149 5:4 6:5 7:0.2609 8:0.1739 9:0.2321 10:0.1964 11:25 12:0.1474 13:25 14:0.3043 15:10 16:0.2679 17:0.3036 18:0.2079 19:0.2475 20:0.1538 22:3 
0.4512255632495688 0:3 1:10 2:18 3:6 4:0.5149 5:4 6:5 7:0.3182 8:0.2727 9:0.2167 10:0.2 11:23 12:0.1474 13:61 14:0.1364 15:10 16:0.2833 17:0.3 18:0.2079 19:0.2475 20:0.1818 22:4 
0.8106103207035174 0:4 1:15 2:16 3:3 4:0.4554 5:4 6:7 7:0.4091 8:0.2727 9:0.2069 10:0.2586 11:24 12:0.3061 13:21 14:0.1364 15:3 16:0.2241 17:0.3103 18:0.2376 19:0.2376 20:0.3846 22:1 
1 0:5 1:13 2:18 3:8 4:0.4257 5:4 6:8 7:0.3043 8:0.2174 9:0.2373 10:0.2034 11:24 12:0.2796 13:21 14:0.2609 15:1 16:0.2373 17:0.322 18:0.2673 19:0.2079 20:0.3171 22:3 
0.7192088109038771 0:4 1:11 2:19 3:4 4:0.4356 5:2 6:5 7:0.3182 8:0.4545 9:0.254 10:0.1429 11:20 12:0.1546 13:61 14:0.0455 15:9 16:0.2698 17:0.3333 18:0.2772 19:0.1881 20:0.2 22:4 
0.97744227105312 0:4 1:17 2:16 3:6 4:0.5446 5:4 6:7 7:0.2273 8:0.4091 9:0.2295 10:0.2459 11:23 12:0.2737 13:61 14:0.1818 15:2 16:0.3115 17:0.2131 18:0.2178 19:0.2277 20:0.2432 22:4 
1 0:2 1:6 2:20 3:5 4:0.4356 5:4 6:4 7:0.2381 8:0.4286 9:0.2373 10:0.1695 11:22 12:0.1562 13:21 14:0.2381 15:8 16:0.2203 17:0.3729 18:0.2277 19:0.2079 20:0.3333 22:4 
1 0:3 1:8 2:19 3:5 4:0.4138 5:3 6:5 7:0.375 8:0.25 9:0.2545 10:0.1818 11:17 12:0.2195 13:17 14:0.2083 15:3 16:0.2182 17:0.3455 18:0.2529 19:0.1724 20:0.3846 22:4 
0.9506758625668694 0:4 1:10 2:18 3:5 4:0.4138 5:3 6:5 7:0.0909 8:0.3182 9:0.2712 10:0.1864 11:15 12:0.2195 13:52 14:0.3636 15:3 16:0.2034 17:0.339 18:0.2529 19:0.1724 20:0.3636 22:4 
1 0:3 1:14 2:19 3:6 4:0.4653 5:4 6:5 7:0.3636 8:0.4091 9:0.2879 10:0.1212 11:21 12:0.1789 13:21 14:0.2273 15:4 16:0.2576 17:0.3333 18:0.2277 19:0.1584 20:0.0968 22:5 
1 0:3 1:6 2:20 3:12 4:0.4359 5:2 6:3 7:0.1818 8:0.1364 9:0.2812 10:0.2656 11:8 12:0.0909 13:50 14:0.3636 15:3 16:0.2188 17:0.2344 18:0.3205 19:0.2308 22:1 
1 0:4 1:19 2:16 3:4 4:0.5281 5:5 6:5 7:0.3182 8:0.3636 9:0.1475 10:0.2951 11:15 12:0.2706 13:54 14:0.0455 15:3 16:0.2787 17:0.2787 18:0.1798 19:0.2584 20:0.1818 22:3 
1 0:3 1:16 2:20 3:4 4:0.4026 5:7 6:3 7:0.2727 8:0.3636 9:0.3182 10:0.2121 11:7 12:0.2192 13:7 14:0.2273 15:1 16:0.1818 17:0.2879 18:0.3117 19:0.2078 22:4 
0.951619188340874 0:3 1:7 2:19 3:6 4:0.3247 5:2 6:3 7:0.2727 8:0.3182 9:0.2727 10:0.1273 11:12 12:0.0986 13:12 14:0.2727 15:3 16:0.1818 17:0.4182 18:0.2857 19:0.1299 22:2 
1 0:3 1:7 2:19 3:6 4:0.3247 5:2 6:3 7:0.0909 8:0.5 9:0.2632 10:0.1404 11:11 12:0.0986 13:46 14:0.2727 15:3 16:0.193 17:0.4035 18:0.2857 19:0.1299 22:2 
0.7832459668015026 0:2 1:6 2:19 3:15 4:0.4348 5:2 6:4 7:0.2273 8:0.2273 9:0.2623 10:0.2623 11:17 12:0.1558 13:56 14:0.2273 15:4 16:0.2131 17:0.2623 18:0.2391 19:0.2391 20:0.25 22:1 
1 0:3 1:4 2:20 3:12 4:0.4227 5:2 6:5 7:0.3182 8:0.3182 9:0.2903 10:0.2258 11:20 12:0.1412 13:60 14:0.2727 15:3 16:0.2097 17:0.2742 18:0.2577 19:0.2062 20:0.25 22:3 
0.1887061147961566 0:4 1:8 2:19 3:10 4:0.4158 5:3 6:5 7:0.3182 8:0.3636 9:0.2258 10:0.2258 11:22 12:0.1538 13:22 14:0.1364 15:8 16:0.2742 17:0.2742 18:0.2574 19:0.1881 20:0.2308 22:1 
1 0:4 1:14 2:18 3:4 4:0.439 5:7 6:5 7:0.2727 8:0.4091 9:0.25 10:0.2031 11:10 12:0.2051 13:52 14:0.1364 15:3 16:0.2344 17:0.3125 18:0.2439 19:0.1951 20:0.1667 22:6 
1 0:2 1:9 2:17 3:11 4:0.4022 5:3 6:3 7:0.2273 8:0.1818 9:0.2586 10:0.2241 11:18 12:0.1605 13:18 14:0.2727 15:3 16:0.2414 17:0.2759 18:0.25 19:0.1739 20:0.1429 22:2 
0.5380270024477087 0:2 1:9 2:17 3:11 4:0.4022 5:3 6:3 7:0.2857 8:0.2857 9:0.25 10:0.2333 11:17 12:0.1605 13:56 14:0.2381 15:3 16:0.25 17:0.2667 18:0.25 19:0.1739 20:0.1538 22:2 
0.7462185307281202 0:2 1:13 2:16 3:4 4:0.3939 5:6 6:4 7:0.2273 8:0.4091 9:0.2787 10:0.1639 11:21 12:0.3263 13:60 14:0.2273 15:3 16:0.2131 17:0.3443 18:0.2828 19:0.1919 20:0.5294 22:2 
0.9243715104609335 0:5 1:8 2:18 3:7 4:0.4653 5:5 6:6 7:0.2857 8:0.2381 9:0.2459 10:0.2459 11:25 12:0.2128 13:61 14:0.2381 15:5 16:0.2131 17:0.2951 18:0.2277 19:0.2475 20:0.3529 22:2 
0.7998602431933894 0:3 1:10 2:18 3:7 4:0.3564 5:3 6:6 7:0.1818 8:0.4091 9:0.2105 10:0.193 11:24 12:0.1809 13:24 14:0.1818 15:10 16:0.2105 17:0.386 18:0.2574 19:0.1881 20:0.28 22:2 
0.9220865113966124 0:3 1:15 2:16 3:8 4:0.4257 5:5 6:5 7:0.3182 8:0.2727 9:0.2623 10:0.1639 11:25 12:0.2366 13:61 14:0.2273 15:6 16:0.2295 17:0.3443 18:0.2574 19:0.198 20:0.2121 22:4 
0.8558615139760861 0:3 1:8 2:18 3:13 4:0.3663 5:4 6:6 7:0.3182 8:0.2727 9:0.2459 10:0.1475 11:24 12:0.2045 13:61 14:0.2727 15:3 16:0.2295 17:0.377 18:0.2475 19:0.1683 20:0.2778 22:2 
1 0:3 1:14 2:16 3:5 4:0.51 5:9 6:6 7:0.2727 8:0.1818 9:0.2545 10:0.2364 11:27 12:0.3053 13:21 14:0.3636 15:1 16:0.2727 17:0.2364 18:0.22 19:0.22 20:0.3488 22:2 
1 0:3 1:14 2:17 3:5 4:0.51 5:9 6:6 7:0.3182 8:0.3182 9:0.2373 10:0.2542 11:25 12:0.3053 13:56 14:0.0909 15:1 16:0.2881 17:0.2203 18:0.22 19:0.22 20:0.3846 22:2 
0.9767498434730022 0:4 1:17 2:16 3:4 4:0.38 5:6 6:6 7:0.1905 8:0.2381 9:0.2623 10:0.1967 11:21 12:0.25 13:61 14:0.2381 15:3 16:0.2131 17:0.3279 18:0.29 19:0.2 20:0.2121 22:1 
1 0:4 1:10 2:20 3:4 4:0.38 5:2 6:6 7:0.25 8:0.4167 9:0.2419 10:0.1613 11:21 12:0.1562 13:20 14:0.2083 15:6 16:0.1774 17:0.4194 18:0.24 19:0.17 20:0.1852 22:3 
0.647309178823976 0:4 1:10 2:19 3:4 4:0.38 5:2 6:6 7:0.1429 8:0.2857 9:0.2344 10:0.1562 11:20 12:0.1562 13:62 14:0.3333 15:6 16:0.1875 17:0.4219 18:0.24 19:0.17 20:0.2 22:4 
1 0:2 1:11 2:18 3:6 4:0.2949 5:4 6:3 7:0.2 8:0.45 9:0.322 10:0.1356 11:11 12:0.2083 13:11 14:0.2 15:3 16:0.1864 17:0.3559 18:0.2949 19:0.1154 20:0.2857 22:3 
1 0:2 1:11 2:18 3:6 4:0.2949 5:4 6:3 7:0.1818 8:0.3182 9:0.322 10:0.1356 11:11 12:0.2083 13:48 14:0.2727 15:3 16:0.1864 17:0.3559 18:0.2949 19:0.1154 20:0.2857 22:3 
1 0:3 1:17 2:18 3:4 4:0.42 5:9 6:5 7:0.2273 8:0.1818 9:0.2308 10:0.2 11:22 12:0.2188 13:16 14:0.3636 15:10 16:0.2462 17:0.3231 18:0.22 19:0.21 20:0.2 22:2 
1 0:3 1:17 2:17 3:4 4:0.42 5:9 6:5 7:0.1905 8:0.4286 9:0.2388 10:0.194 11:21 12:0.2188 13:61 14:0.1905 15:10 16:0.2388 17:0.3284 18:0.22 19:0.21 20:0.2222 22:2 
1 0:4 1:15 2:17 3:4 4:0.45 5:3 6:6 7:0.6818 8:0.1364 9:0.2373 10:0.2373 11:26 12:0.1979 13:22 14:0.1364 15:7 16:0.322 17:0.2034 18:0.25 19:0.19 20:0.125 22:3 
0.02126022367986094 0:5 1:16 2:17 3:4 4:0.45 5:3 6:6 7:0.0435 8:0.3043 9:0.2656 10:0.2188 11:23 12:0.1979 13:61 14:0.3043 15:7 16:0.2969 17:0.2188 18:0.25 19:0.19 20:0.1111 22:3 
1 0:3 1:12 2:18 3:10 4:0.44 5:4 6:5 7:0.2273 8:0.2727 9:0.3667 10:0.2333 11:25 12:0.1889 13:21 14:0.3182 15:4 16:0.1833 17:0.2167 18:0.32 19:0.22 20:0.1429 
0.6121508374761292 0:3 1:12 2:19 3:10 4:0.44 5:4 6:5 7:0.1304 8:0.2609 9:0.3438 10:0.2344 11:23 12:0.1889 13:60 14:0.3043 15:4 16:0.2031 17:0.2188 18:0.32 19:0.22 20:0.1613 22:1 
1 0:5 1:11 2:19 3:7 4:0.4301 5:4 6:6 7:0.1364 8:0.2727 9:0.2727 10:0.1667 11:15 12:0.1395 13:59 14:0.4091 15:3 16:0.1515 17:0.4091 18:0.2151 19:0.2258 20:0.0476 22:2 
1 0:4 1:7 2:20 3:11 4:0.466 5:2 6:8 7:0.2273 8:0.2727 9:0.3065 10:0.2742 11:24 12:0.1848 13:64 14:0.3182 15:3 16:0.1774 17:0.2419 18:0.2718 19:0.2427 20:0.2632 22:1 
1 0:7 1:13 2:17 3:4 4:0.37 5:2 6:8 7:0.1818 8:0.3636 9:0.2537 10:0.1791 11:19 12:0.1771 13:61 14:0.1364 15:8 16:0.2537 17:0.3134 18:0.29 19:0.16 20:0.2 22:2 
0.7311248516613962 0:6 1:11 2:17 3:7 4:0.4158 5:2 6:8 7:0.2273 8:0.3182 9:0.3065 10:0.2419 11:21 12:0.2021 13:61 14:0.1364 15:8 16:0.2097 17:0.2419 18:0.2772 19:0.2079 20:0.3333 
1 0:4 1:10 2:17 3:16 4:0.4688 5:4 6:6 7:0.2727 8:0.3182 9:0.3281 10:0.1719 11:18 12:0.2875 13:59 14:0.1364 15:1 16:0.2031 17:0.2969 18:0.2604 19:0.2188 20:0.4194 22:1 
1 0:3 1:9 2:17 3:14 4:0.3908 5:3 6:4 7:0.3182 8:0.2727 9:0.2456 10:0.2632 11:16 12:0.1781 13:16 14:0.2273 15:3 16:0.2105 17:0.2807 18:0.2874 19:0.2184 20:0.1667 22:1 
0.6630828019391505 0:3 1:9 2:17 3:14 4:0.3908 5:3 6:4 7:0.1429 8:0.2381 9:0.2542 10:0.2542 11:15 12:0.1781 13:53 14:0.2381 15:3 16:0.2034 17:0.2881 18:0.2874 19:0.2184 20:0.1818 22:1 
1 0:3 1:9 2:19 3:5 4:0.4149 5:5 6:5 7:0.3333 8:0.2381 9:0.2759 10:0.1724 11:19 12:0.191 13:19 14:0.2857 15:3 16:0.2586 17:0.2931 18:0.2553 19:0.1702 20:0.2667 22:2 
1 0:5 1:12 2:18 3:3 4:0.4699 5:2 6:6 7:0.2083 8:0.2917 9:0.254 10:0.254 11:11 12:0.175 13:50 14:0.25 15:3 16:0.1905 17:0.3016 18:0.253 19:0.2771 20:0.1429 22:1 
1 0:4 1:5 2:20 3:4 4:0.45 5:3 6:7 7:0.2273 8:0.4545 9:0.2182 10:0.2364 11:26 12:0.1562 13:26 14:0.0909 15:11 16:0.2364 17:0.3091 18:0.25 19:0.22 20:0.3571 22:2 
1 0:5 1:7 2:18 3:4 4:0.45 5:3 6:7 7:0.2381 8:0.1429 9:0.2105 10:0.2456 11:25 12:0.1562 13:61 14:0.3333 15:11 16:0.2281 17:0.3158 18:0.25 19:0.22 20:0.3077 22:2 
1 0:4 1:9 2:17 3:11 4:0.5125 5:2 6:5 7:0.381 8:0.1905 9:0.2241 10:0.2759 11:12 12:0.1884 13:49 14:0.2381 15:3 16:0.2069 17:0.2931 18:0.2 19:0.3 20:0.25 22:1 
1 0:4 1:6 2:20 3:7 4:0.4157 5:2 6:6 7:0.4545 8:0.2727 9:0.2807 10:0.2281 11:17 12:0.1463 13:17 14:0.1364 15:3 16:0.2456 17:0.2456 18:0.2697 19:0.2135 20:0.2308 22:2 
0.1353860219801723 0:5 1:8 2:18 3:7 4:0.4157 5:2 6:6 7:0.1364 8:0.2727 9:0.2787 10:0.2131 11:15 12:0.1463 13:54 14:0.2273 15:3 16:0.2459 17:0.2623 18:0.2697 19:0.2135 20:0.1818 22:2 
1 0:4 1:9 2:16 3:4 4:0.413 5:2 6:6 7:0.25 8:0.3 9:0.2727 10:0.1636 11:20 12:0.1591 13:19 14:0.3 15:3 16:0.2182 17:0.3455 18:0.2609 19:0.1957 20:0.1613 22:2 
0.9318848760444406 0:5 1:13 2:17 3:4 4:0.413 5:2 6:6 7:0.2273 8:0.3636 9:0.254 10:0.1905 11:16 12:0.1591 13:56 14:0.2273 15:3 16:0.2222 17:0.3333 18:0.2609 19:0.1957 20:0.0435 22:2 
1 0:4 1:11 2:19 3:7 4:0.3506 5:4 6:5 7:0.1818 8:0.3182 9:0.2833 10:0.15 11:10 12:0.1714 13:10 14:0.3182 15:1 16:0.2 17:0.3667 18:0.2857 19:0.1558 20:0.0667 22:3 
0.4486884992365486 0:5 1:14 2:17 3:5 4:0.451 5:3 6:7 7:0.3182 8:0.2727 9:0.2542 10:0.2034 11:24 12:0.1649 13:23 14:0.2273 15:4 16:0.2373 17:0.3051 18:0.2353 19:0.1961 20:0.0556 22:1 
0.6038662902197929 0:5 1:14 2:17 3:5 4:0.451 5:3 6:7 7:0.1905 8:0.2381 9:0.2381 10:0.2222 11:22 12:0.1649 13:63 14:0.1905 15:4 16:0.254 17:0.2857 18:0.2353 19:0.1961 20:0.0625 22:1 
0.4776146027454943 0:4 1:7 2:20 3:10 4:0.4091 5:2 6:6 7:0.1364 8:0.4091 9:0.2857 10:0.2381 11:14 12:0.1667 13:55 14:0.0909 15:3 16:0.1587 17:0.3175 18:0.2727 19:0.2273 20:0.3 22:1 
0.9194629124594818 0:2 1:6 2:19 3:11 4:0.3373 5:2 6:4 7:0.1818 8:0.5455 9:0.2881 10:0.1186 11:13 12:0.1389 13:50 14:0.1364 15:3 16:0.1864 17:0.4068 18:0.2892 19:0.1446 20:0.2222 22:3 
0.9051975589717153 0:4 1:10 2:17 3:9 4:0.4396 5:2 6:6 7:0.1739 8:0.3478 9:0.3115 10:0.1475 11:17 12:0.1585 13:54 14:0.3478 15:1 16:0.1803 17:0.3607 18:0.2308 19:0.1868 20:0.1034 
1 0:3 1:10 2:20 3:9 4:0.4024 5:4 6:4 7:0.2609 8:0.3913 9:0.1967 10:0.1148 11:12 12:0.2192 13:12 14:0.2174 15:3 16:0.2295 17:0.459 18:0.1951 19:0.122 20:0.375 22:6 
1 0:4 1:17 2:18 3:8 4:0.3494 5:7 6:4 7:0.125 8:0.2083 9:0.2877 10:0.2055 11:6 12:0.2267 13:55 14:0.3333 15:3 16:0.1644 17:0.3425 18:0.2771 19:0.1807 22:1 
-0.1262107325045205 0:3 1:6 2:21 3:8 4:0.3494 5:7 6:4 7:0.2857 8:0.3333 9:0.2857 10:0.1964 11:16 12:0.2267 13:16 14:0.2381 15:3 16:0.1964 17:0.3214 18:0.2771 19:0.1807 20:0.5238 22:1 
-0.08748529239520617 0:4 1:12 2:14 3:11 4:0.4554 5:3 6:5 7:0.3 8:0.3 9:0.2394 10:0.2394 11:18 12:0.1889 13:65 14:0.2 15:8 16:0.1972 17:0.3239 18:0.2673 19:0.2673 20:0.2941 22:3 
-0.07581137442926396 0:6 1:21 2:12 3:3 4:0.48 5:4 6:6 7:0.15 8:0.1 9:0.2174 10:0.25 11:6 12:0.2371 13:76 14:0.4 15:2 16:0.2283 17:0.3043 18:0.23 19:0.25 20:0.3333 22:4 
-0.2799578104997659 0:3 1:9 2:18 3:4 4:0.4356 5:2 6:5 7:0.2174 8:0.3043 9:0.2549 10:0.1569 11:26 12:0.1546 13:26 14:0.3043 15:9 16:0.2549 17:0.3333 18:0.2772 19:0.1881 20:0.1875 22:3 
-0.04179094592020839 0:4 1:8 2:20 3:12 4:0.4227 5:2 6:5 7:0.125 8:0.2917 9:0.2561 10:0.2073 11:10 12:0.1412 13:10 14:0.25 15:3 16:0.2439 17:0.2927 18:0.2577 19:0.2062 20:0.3333 22:5 
-0.03462321085796607 0:3 1:13 2:16 3:11 4:0.4022 5:3 6:3 7:0.4 8:0.4 9:0.25 10:0.2 11:7 12:0.1605 13:67 14:0.15 15:3 16:0.2375 17:0.3125 18:0.25 19:0.1739 22:4 
-0.01247069043570952 0:7 1:27 2:16 3:4 4:0.4257 5:4 6:6 7:0.2917 8:0.25 9:0.1935 10:0.2043 11:5 12:0.1959 13:5 14:0.3333 15:9 16:0.2366 17:0.3656 18:0.2277 19:0.2079 20:-1 22:5 
-0.002752565575262267 0:6 1:18 2:14 3:7 4:0.4554 5:3 6:7 7:0.381 8:0.1429 9:0.2963 10:0.2099 11:12 12:0.234 13:12 14:0.1905 15:1 16:0.2469 17:0.2469 18:0.297 19:0.2277 20:0.2222 22:4 
-0.0007535777083897847 0:6 1:22 2:19 3:3 4:0.4257 5:5 6:6 7:0.4167 8:0.3333 9:0.2967 10:0.1978 11:6 12:0.2245 13:6 14:0.1667 15:5 16:0.2308 17:0.2747 18:0.3168 19:0.2079 20:-1 22:2 
-0.01551727742418263 0:5 1:14 2:19 3:6 4:0.5149 5:4 6:5 7:0.2917 8:0.1667 9:0.1951 10:0.2439 11:10 12:0.1474 13:69 14:0.125 15:10 16:0.3171 17:0.2439 18:0.2079 19:0.2475 20:-1 22:4 
-0.01711906205718647 0:7 1:21 2:18 3:8 4:0.4257 5:4 6:8 7:0.1667 8:0.2917 9:0.2529 10:0.2069 11:7 12:0.2796 13:7 14:0.3333 15:1 16:0.2414 17:0.2989 18:0.2673 19:0.2079 20:0.3846 22:3 
-0.03151605037343951 0:6 1:19 2:17 3:6 4:0.5446 5:4 6:7 7:0.2 8:0.35 9:0.2025 10:0.2405 11:13 12:0.2737 13:72 14:0.2 15:2 16:0.3165 17:0.2405 18:0.2178 19:0.2277 20:0.3684 22:6 
-0.1026749974001953 0:3 1:17 2:14 3:4 4:0.42 5:9 6:5 7:0.25 8:0.15 9:0.2245 10:0.2245 11:30 12:0.2188 13:24 14:0.3 15:10 16:0.2449 17:0.3061 18:0.22 19:0.21 20:0.1111 
-0.001351346894981136 0:8 1:17 2:14 3:7 4:0.4158 5:2 6:8 7:0.45 8:0.2 9:0.2895 10:0.2237 11:14 12:0.2021 13:14 14:0.2 15:8 16:0.2368 17:0.25 18:0.2772 19:0.2079 20:0.2 
-0.006380446910167425 0:8 1:23 2:18 3:5 4:0.451 5:3 6:7 7:0.4167 8:0.4167 9:0.2353 10:0.1961 11:1 12:0.1649 13:1 14:0.0417 15:4 16:0.2549 17:0.3137 18:0.2353 19:0.1961 20:-1 22:4 
-0.05020834422202838 0:7 1:18 2:15 3:10 4:0.4091 5:2 6:6 7:0.1905 8:0.2857 9:0.2727 10:0.2273 11:1 12:0.1667 13:68 14:0.1905 15:3 16:0.1818 17:0.3182 18:0.2727 19:0.2273 20:-1 22:1 
-0.003788982092143576 0:4 1:9 2:20 3:8 4:0.3494 5:7 6:4 7:0.2609 8:0.3478 9:0.2881 10:0.2034 11:13 12:0.2267 13:13 14:0.2609 15:3 16:0.1864 17:0.322 18:0.2771 19:0.1807 20:0.4444 22:1 
-0.270703506747869 0:3 1:7 2:16 3:12 4:0.375 5:2 6:4 7:0.0909 8:0.2727 9:0.2549 10:0.2157 11:26 12:0.131 13:55 14:0.3636 15:7 16:0.1765 17:0.3529 18:0.2708 19:0.1667 20:0.1111 22:2 
-0.07769372479971115 0:8 1:24 2:19 3:7 4:0.4554 5:3 6:7 7:0.2083 8:0.2917 9:0.297 10:0.2277 11:1 12:0.234 13:78 14:0.25 15:1 16:0.2277 17:0.2475 18:0.297 19:0.2277 20:-1 22:5 
-0.0376867474736923 0:6 1:22 2:16 3:15 4:0.4257 5:2 6:5 7:0.25 8:0.4583 9:0.3011 10:0.2151 11:5 12:0.1977 13:5 14:0.125 15:7 16:0.2258 17:0.2581 18:0.3168 19:0.198 20:-1 22:2 
-0.000585025715355818 0:7 1:23 2:16 3:4 4:0.4752 5:3 6:7 7:0.2917 8:0.25 9:0.2078 10:0.2078 11:15 12:0.2577 13:68 14:0.25 15:10 16:0.2727 17:0.3117 18:0.2673 19:0.2079 20:0.25 22:3 
-0.02858361012631815 0:7 1:21 2:18 3:8 4:0.4257 5:4 6:8 7:0.25 8:0.375 9:0.2593 10:0.1975 11:13 12:0.2796 13:67 14:0.25 15:1 16:0.2346 17:0.3086 18:0.2673 19:0.2079 20:0.2632 22:3 
-0.04604000195938486 0:7 1:21 2:15 3:8 4:0.4257 5:4 6:8 7:0.2381 8:0.381 9:0.2658 10:0.1899 11:14 12:0.2796 13:69 14:0.2381 15:1 16:0.2278 17:0.3165 18:0.2673 19:0.2079 20:0.2381 22:3 
-0.03471884770078622 0:5 1:19 2:17 3:15 4:0.4348 5:2 6:4 7:0.2917 8:0.25 9:0.2391 10:0.2391 11:1 12:0.1558 13:69 14:0.2917 15:4 16:0.1957 17:0.3261 18:0.2391 19:0.2391 20:-1 22:2 
-0.04776737151033333 0:6 1:25 2:10 3:10 4:0.4158 5:3 6:5 7:0.15 8:0.55 9:0.2626 10:0.1919 11:2 12:0.1538 13:2 14:0.2 15:8 16:0.2222 17:0.3232 18:0.2574 19:0.1881 20:-1 22:1 
-0.002026818766643239 0:6 1:18 2:13 3:13 4:0.3663 5:4 6:6 7:0.1905 8:0.5714 9:0.2472 10:0.1461 11:8 12:0.2045 13:6 14:0.0952 15:3 16:0.2022 17:0.4045 18:0.2475 19:0.1683 22:3 
-0.1082918761099698 0:4 1:27 2:14 3:5 4:0.51 5:9 6:6 7:0.1905 8:0.1905 9:0.2051 10:0.2436 11:13 12:0.3053 13:12 14:0.2857 15:1 16:0.2949 17:0.2564 18:0.22 19:0.22 20:0.1 22:2 
-0.005243121003067675 0:7 1:18 2:20 3:4 4:0.38 5:2 6:6 7:0.0833 8:0.25 9:0.2391 10:0.1739 11:5 12:0.1562 13:73 14:0.4167 15:6 16:0.1957 17:0.3913 18:0.24 19:0.17 20:-1 22:5 
-0.01571146806982247 0:2 1:11 2:12 3:6 4:0.2949 5:4 6:3 7:0.2 8:0.35 9:0.3171 10:0.122 11:20 12:0.2083 13:20 14:0.4 15:3 16:0.1951 17:0.3659 18:0.2949 19:0.1154 20:0.125 22:3 
-0.0329278716371466 0:7 1:15 2:15 3:4 4:0.45 5:3 6:7 7:0.25 8:0.2 9:0.2078 10:0.2597 11:15 12:0.1562 13:72 14:0.2 15:11 16:0.2338 17:0.2987 18:0.25 19:0.22 22:3 
-0.006732134248925034 0:8 1:19 2:17 3:5 4:0.451 5:3 6:7 7:0.1 8:0.25 9:0.2347 10:0.1939 11:3 12:0.1649 13:81 14:0.4 15:4 16:0.2551 17:0.3163 18:0.2353 19:0.1961 20:-1 22:4 
-0.02477946512660794 0:7 1:14 2:20 3:9 4:0.4396 5:2 6:6 7:0.0833 8:0.4167 9:0.2308 10:0.1868 11:1 12:0.1585 13:68 14:0.1667 15:1 16:0.2527 17:0.3297 18:0.2308 19:0.1868 20:-1 22:5 
-0.03033922377998556 0:5 1:17 2:14 3:11 4:0.4554 5:3 6:5 7:0.05 8:0.25 9:0.2262 10:0.2738 11:11 12:0.1889 13:8 14:0.2 15:8 16:0.2024 17:0.2976 18:0.2673 19:0.2673 22:3 
-0.004837746939671945 0:5 1:20 2:15 3:12 4:0.375 5:2 6:4 7:0.2917 8:0.3333 9:0.2708 10:0.1667 11:1 12:0.131 13:1 14:0.3333 15:7 16:0.2083 17:0.3542 18:0.2708 19:0.1667 20:-1 22:5 
-0.009958087919072496 0:6 1:13 2:14 3:9 4:0.4356 5:2 6:7 7:0.1429 8:0.3333 9:0.2436 10:0.1923 11:13 12:0.1848 13:70 14:0.1429 15:7 16:0.2436 17:0.3205 18:0.2475 19:0.198 20:0.4 22:4 
-0.003199783535995317 0:5 1:16 2:15 3:7 4:0.4554 5:3 6:7 7:0.25 8:0.25 9:0.3038 10:0.2152 11:13 12:0.234 13:72 14:0.2 15:1 16:0.2532 17:0.2278 18:0.297 19:0.2277 20:0.3 22:4 
-0.1127109208593448 0:11 1:34 2:10 3:5 4:0.5347 5:4 6:10 7:0.2727 8:0.2273 9:0.2062 10:0.2577 11:3 12:0.2708 13:78 14:0.2273 15:7 16:0.2784 17:0.2577 18:0.2079 19:0.2673 20:-1 22:2 
-0.1081984100480373 0:4 1:14 2:15 3:15 4:0.4257 5:2 6:5 7:0.2857 8:0.3333 9:0.2877 10:0.2466 11:15 12:0.1977 13:15 14:0.1905 15:7 16:0.2329 17:0.2329 18:0.3168 19:0.198 20:0.2 22:1 
-0.1228590800162166 0:8 1:35 2:13 3:4 4:0.4752 5:3 6:7 7:0.25 8:0.1667 9:0.2526 10:0.2105 11:4 12:0.2577 13:75 14:0.2917 15:10 16:0.2632 17:0.2737 18:0.2673 19:0.2079 20:-1 22:3 
-0.01035464159965624 0:6 1:23 2:15 3:3 4:0.4554 5:4 6:7 7:0.1667 8:0.2917 9:0.2179 10:0.2179 11:14 12:0.3061 13:65 14:0.25 15:3 16:0.2308 17:0.3333 18:0.2376 19:0.2376 20:0.3684 22:3 
-0.0478349154470959 0:8 1:24 2:16 3:8 4:0.4257 5:4 6:8 7:0.2083 8:0.2917 9:0.2667 10:0.2 11:7 12:0.2796 13:73 14:0.3333 15:1 16:0.2333 17:0.3 18:0.2673 19:0.2079 20:0.2 22:3 
-0.02034798407364137 0:5 1:15 2:21 3:4 4:0.4356 5:2 6:5 7:0.2917 8:0.2083 9:0.253 10:0.1687 11:10 12:0.1546 13:10 14:0.3333 15:9 16:0.2892 17:0.2892 18:0.2772 19:0.1881 20:-1 22:4 
-0.02468640349526658 0:3 1:9 2:19 3:4 4:0.4356 5:2 6:5 7:0.3478 8:0.3043 9:0.2549 10:0.1569 11:26 12:0.1546 13:54 14:0.1739 15:9 16:0.2549 17:0.3333 18:0.2772 19:0.1881 20:0.1875 22:3 
-0.2387207574441658 0:4 1:14 2:17 3:5 4:0.4138 5:3 6:5 7:0.0909 8:0.3182 9:0.2676 10:0.169 11:9 12:0.2195 13:58 14:0.3636 15:3 16:0.2254 17:0.338 18:0.2529 19:0.1724 20:0.4 22:5 
-0.08819337057961982 0:2 1:14 2:12 3:4 4:0.4026 5:7 6:3 7:0.2 8:0.2 9:0.3571 10:0.2381 11:19 12:0.2192 13:19 14:0.35 15:1 16:0.1667 17:0.2381 18:0.3117 19:0.2078 20:0.0588 22:2 
-0.0008034507390671139 0:5 1:14 2:15 3:10 4:0.4158 5:3 6:5 7:0.05 8:0.1 9:0.25 10:0.2045 11:6 12:0.1538 13:77 14:0.5 15:8 16:0.2273 17:0.3182 18:0.2574 19:0.1881 20:-1 22:1 
-0.07365922609243622 0:6 1:20 2:11 3:7 4:0.4653 5:5 6:6 7:0.3 8:0.35 9:0.2258 10:0.2473 11:7 12:0.2128 13:3 14:0.2 15:5 16:0.2151 17:0.3118 18:0.2277 19:0.2475 22:4 
-0.1077099247930425 0:3 1:4 2:15 3:7 4:0.4653 5:5 6:6 7:0.3 8:0.25 9:0.2927 10:0.2439 11:35 12:0.2128 13:31 14:0.35 15:5 16:0.1951 17:0.2683 18:0.2277 19:0.2475 20:0.2963 22:1 
-0.1056732285853179 0:1 1:9 2:12 3:8 4:0.4257 5:5 6:5 7:0.2 8:0.25 9:0.3171 10:0.1707 11:36 12:0.2366 13:53 14:0.3 15:6 16:0.1707 17:0.3415 18:0.2574 19:0.198 20:0.2453 22:2 
-0.07231908712367514 0:3 1:11 2:18 3:4 4:0.45 5:3 6:6 7:0.5652 8:0.2174 9:0.2264 10:0.2453 11:29 12:0.1979 13:25 14:0.1739 15:7 16:0.3019 17:0.2264 18:0.25 19:0.19 20:0.2105 22:3 
-0.004347127222359611 0:2 1:10 2:15 3:10 4:0.44 5:4 6:5 7:0.087 8:0.1739 9:0.4 10:0.2 11:30 12:0.1889 13:53 14:0.3913 15:4 16:0.18 17:0.22 18:0.32 19:0.22 20:0.1556 
-0.1815970991550401 0:6 1:12 2:18 3:7 4:0.4301 5:4 6:6 7:0.1818 8:0.4091 9:0.2597 10:0.1818 11:9 12:0.1395 13:9 14:0.1818 15:3 16:0.1818 17:0.3766 18:0.2151 19:0.2258 22:3 
-1 0:3 1:7 2:19 3:7 4:0.4301 5:4 6:6 7:0.2917 8:0.5 9:0.2885 10:0.1538 11:22 12:0.1395 13:22 14:0.125 15:3 16:0.1538 17:0.4038 18:0.2151 19:0.2258 20:0.1429 22:2 
-0.001330898124805452 0:6 1:17 2:14 3:16 4:0.4688 5:4 6:6 7:0.4 8:0.3 9:0.2771 10:0.2048 11:8 12:0.2875 13:8 14:0.2 15:1 16:0.241 17:0.2771 18:0.2604 19:0.2188 20:0.5 22:2 
-0.1067277822035793 0:7 1:24 2:10 3:16 4:0.4688 5:4 6:6 7:0.35 8:0.25 9:0.2604 10:0.2188 11:1 12:0.2875 13:1 14:0.2 15:1 16:0.25 17:0.2708 18:0.2604 19:0.2188 20:-1 22:3 
-0.0277868563754184 0:7 1:15 2:18 3:4 4:0.45 5:3 6:7 7:0.2917 8:0.2917 9:0.1975 10:0.2593 11:13 12:0.1562 13:13 14:0.1667 15:11 16:0.2469 17:0.2963 18:0.25 19:0.22 22:4 
-0.1451011269782379 0:5 1:13 2:17 3:11 4:0.5125 5:2 6:5 7:0.4545 8:0.2273 9:0.2 10:0.2857 11:6 12:0.1884 13:54 14:0.1818 15:3 16:0.2286 17:0.2857 18:0.2 19:0.3 22:1 
-0.00505796370507855 0:5 1:21 2:17 3:9 4:0.4024 5:4 6:4 7:0.2917 8:0.3333 9:0.1951 10:0.122 11:1 12:0.2192 13:1 14:0.2083 15:3 16:0.2805 17:0.4024 18:0.1951 19:0.122 20:-1 22:7 
-0.0007285203486205524 0:3 1:6 2:19 3:8 4:0.3494 5:7 6:4 7:0.2381 8:0.3333 9:0.2885 10:0.1923 11:18 12:0.2267 13:18 14:0.2857 15:3 16:0.1923 17:0.3269 18:0.2771 19:0.1807 20:0.44 22:1 
-0.05170774002841002 0:5 1:21 2:12 3:13 4:0.3511 5:4 6:4 7:0.2857 8:0.3333 9:0.2872 10:0.1596 11:1 12:0.1728 13:74 14:0.3333 15:4 16:0.1915 17:0.3617 18:0.2872 19:0.1596 20:-1 22:3 
-0.04285208380466472 0:6 1:8 2:17 3:12 4:0.3765 5:1 6:5 7:0.15 8:0.2 9:0.2927 10:0.1829 11:4 12:0.0959 13:4 14:0.4 15:4 16:0.1829 17:0.3415 18:0.2824 19:0.1765 20:-1 22:1 
-0.01247110803592988 0:8 1:16 2:21 3:5 4:0.3663 5:3 6:7 7:0.1667 8:0.375 9:0.2842 10:0.2 11:5 12:0.1562 13:5 14:0.2917 15:5 16:0.1579 17:0.3579 18:0.2772 19:0.198 20:-1 22:1 
-0.1498562751057831 0:4 1:8 2:18 3:5 4:0.3544 5:2 6:5 7:0.15 8:0.6 9:0.3239 10:0.1549 11:6 12:0.1216 13:6 14:0.1 15:1 16:0.1831 17:0.338 18:0.3165 19:0.1772 20:0.1429 22:2 
-0.03192923937082786 0:1 1:4 2:16 3:11 4:0.4554 5:3 6:5 7:0.0833 8:0.4167 9:0.234 10:0.1915 11:30 12:0.1889 13:49 14:0.25 15:8 16:0.1915 17:0.383 18:0.2673 19:0.2673 20:0.3171 22:2 
-0.01002861926327235 0:6 1:23 2:13 3:3 4:0.48 5:4 6:6 7:0.15 8:0.1 9:0.2245 10:0.2551 11:3 12:0.2371 13:79 14:0.35 15:2 16:0.2347 17:0.2857 18:0.23 19:0.25 20:-1 22:4 
-0.01510141119312322 0:6 1:10 2:20 3:5 4:0.3762 5:2 6:6 7:0.1304 8:0.0435 9:0.2989 10:0.1839 11:10 12:0.1042 13:74 14:0.5652 15:8 16:0.1954 17:0.3218 18:0.2871 19:0.1782 22:2 
-0.0809899912482724 0:7 1:20 2:14 3:5 4:0.3762 5:2 6:6 7:0.2 8:0.1 9:0.2929 10:0.1717 11:2 12:0.1042 13:81 14:0.5 15:8 16:0.202 17:0.3333 18:0.2871 19:0.1782 20:-1 22:3 
-0.01842261348504491 0:7 1:22 2:17 3:7 4:0.4554 5:3 6:7 7:0.2381 8:0.3333 9:0.303 10:0.2121 11:2 12:0.234 13:80 14:0.2857 15:1 16:0.2323 17:0.2525 18:0.297 19:0.2277 20:-1 22:5 
-0.09333030809130019 0:5 1:22 2:11 3:8 4:0.4356 5:3 6:4 7:0.25 8:0.3 9:0.175 10:0.225 11:12 12:0.2151 13:12 14:0.25 15:13 16:0.25 17:0.35 18:0.1881 19:0.2178 20:-1 22:4 
-0.039579191882247 0:4 1:18 2:12 3:8 4:0.4356 5:3 6:4 7:0.3 8:0.3 9:0.1714 10:0.2143 11:18 12:0.2151 13:68 14:0.05 15:13 16:0.2571 17:0.3571 18:0.1881 19:0.2178 20:0.25 22:4 
-0.0006142171255477669 0:7 1:20 2:13 3:5 4:0.5347 5:4 6:10 7:0.25 8:0.25 9:0.1884 10:0.2609 11:19 12:0.2708 13:15 14:0.25 15:7 16:0.2609 17:0.2899 18:0.2079 19:0.2673 20:0.3 22:1 
-0.04842068843693914 0:2 1:6 2:12 3:15 4:0.4257 5:2 6:5 7:0.2609 8:0.1304 9:0.2667 10:0.2889 11:30 12:0.1977 13:51 14:0.3478 15:7 16:0.2444 17:0.2 18:0.3168 19:0.198 20:0.2558 22:1 
-0.009152679953528566 0:6 1:20 2:16 3:15 4:0.4257 5:2 6:5 7:0.1739 8:0.1739 9:0.2967 10:0.2198 11:6 12:0.1977 13:74 14:0.5217 15:7 16:0.2198 17:0.2637 18:0.3168 19:0.198 20:-1 22:2 
-0.098397532649872 0:6 1:17 2:13 3:12 4:0.4257 5:2 6:5 7:0.35 8:0.25 9:0.2727 10:0.202 11:2 12:0.1461 13:81 14:0.25 15:4 16:0.2121 17:0.3131 18:0.2673 19:0.2178 20:-1 22:6 
-0.2283903234019186 0:3 1:13 2:16 3:3 4:0.4257 5:5 6:6 7:0.1739 8:0.2174 9:0.34 10:0.24 11:27 12:0.2245 13:27 14:0.4348 15:5 16:0.16 17:0.26 18:0.3168 19:0.2079 20:0.2195 22:1 
-0.08406340792078835 0:7 1:25 2:13 3:4 4:0.4752 5:3 6:7 7:0.35 8:0.25 9:0.2278 10:0.2025 11:14 12:0.2577 13:14 14:0.15 15:10 16:0.2658 17:0.3038 18:0.2673 19:0.2079 22:3 
-0.02576287078855579 0:7 1:21 2:15 3:4 4:0.4752 5:3 6:7 7:0.2857 8:0.1905 9:0.2133 10:0.2 11:16 12:0.2577 13:70 14:0.2857 15:10 16:0.28 17:0.3067 18:0.2673 19:0.2079 20:0.4 22:3 
-0.0707615290886226 0:3 1:10 2:14 3:4 4:0.4752 5:3 6:7 7:0.1905 8:0.381 9:0.2619 10:0.1429 11:33 12:0.2577 13:32 14:0.2857 15:10 16:0.2143 17:0.381 18:0.2673 19:0.2079 20:0.3488 22:2 
-0.004949056246692785 0:6 1:17 2:17 3:10 4:0.4356 5:2 6:5 7:0.2083 8:0.3333 9:0.2747 10:0.2088 11:6 12:0.1209 13:6 14:0.1667 15:10 16:0.2308 17:0.2857 18:0.2772 19:0.2277 20:-1 22:3 
-0.01062828315893954 0:8 1:30 2:10 3:6 4:0.4851 5:4 6:7 7:0.1905 8:0.2857 9:0.2449 10:0.2551 11:3 12:0.2842 13:3 14:0.2857 15:5 16:0.2449 17:0.2551 18:0.2574 19:0.2475 20:-1 
-0.03777574936674707 0:7 1:26 2:17 3:3 4:0.4554 5:4 6:7 7:0.2609 8:0.3478 9:0.236 10:0.2247 11:8 12:0.3061 13:6 14:0.1739 15:3 16:0.2247 17:0.3146 18:0.2376 19:0.2376 20:0.5 22:3 
-0.07203831569007758 0:8 1:26 2:18 3:8 4:0.4257 5:4 6:8 7:0.1667 8:0.25 9:0.266 10:0.2021 11:5 12:0.2796 13:5 14:0.3333 15:1 16:0.2234 17:0.3085 18:0.2673 19:0.2079 22:3 
-0.0007831642258618169 0:6 1:21 2:18 3:4 4:0.4356 5:2 6:5 7:0.25 8:0.2083 9:0.2809 10:0.1685 11:7 12:0.1546 13:7 14:0.375 15:9 16:0.2697 17:0.2809 18:0.2772 19:0.1881 20:-1 22:4 
-0.006782343245550388 0:5 1:23 2:14 3:4 4:0.5281 5:5 6:5 7:0.35 8:0.25 9:0.1644 10:0.2603 11:9 12:0.2706 13:9 14:0.1 15:3 16:0.274 17:0.3014 18:0.1798 19:0.2584 22:5 
-0.004839052658114407 0:4 1:12 2:18 3:15 4:0.4348 5:2 6:4 7:0.2727 8:0.2727 9:0.253 10:0.253 11:6 12:0.1558 13:67 14:0.2727 15:4 16:0.1928 17:0.3012 18:0.2391 19:0.2391 22:1 
-0.04052280905547745 0:5 1:12 2:18 3:12 4:0.4227 5:2 6:5 7:0.3478 8:0.3043 9:0.266 10:0.1915 11:1 12:0.1412 13:75 14:0.2609 15:3 16:0.2234 17:0.3191 18:0.2577 19:0.2062 20:-1 22:6 
-0.02340001890735508 0:6 1:27 2:17 3:8 4:0.4257 5:5 6:5 7:0.2083 8:0.2917 9:0.2626 10:0.1919 11:2 12:0.2366 13:2 14:0.2083 15:6 16:0.2323 17:0.3131 18:0.2574 19:0.198 20:-1 22:4 
-0.1260406769192631 0:4 1:21 2:14 3:5 4:0.51 5:9 6:6 7:0.2 8:0.15 9:0.2083 10:0.2639 11:16 12:0.3053 13:15 14:0.3 15:1 16:0.3056 17:0.2222 18:0.22 19:0.22 20:0.3077 22:2 
-0.005426330242865481 0:4 1:25 2:14 3:5 4:0.51 5:9 6:6 7:0.1429 8:0.2381 9:0.1974 10:0.25 11:14 12:0.3053 13:13 14:0.2857 15:1 16:0.2895 17:0.2632 18:0.22 19:0.22 20:0.1818 22:2 
-0.03829938500977181 0:7 1:31 2:12 3:5 4:0.51 5:9 6:6 7:0.3478 8:0.3043 9:0.22 10:0.22 11:1 12:0.3053 13:78 14:0.2174 15:1 16:0.29 17:0.27 18:0.22 19:0.22 20:-1 22:5 
-0.07192152792677144 0:5 1:28 2:12 3:5 4:0.51 5:9 6:6 7:0.2 8:0.35 9:0.2151 10:0.2258 11:4 12:0.3053 13:4 14:0.15 15:1 16:0.2903 17:0.2688 18:0.22 19:0.22 20:0.2 22:4 
-0.01380557675054757 0:6 1:30 2:16 3:4 4:0.42 5:9 6:5 7:0.2 8:0.3 9:0.234 10:0.2128 11:4 12:0.2188 13:4 14:0.3 15:10 16:0.2234 17:0.3298 18:0.22 19:0.21 20:-1 22:2 
-0.03200559819539966 0:6 1:28 2:17 3:4 4:0.42 5:9 6:5 7:0.2 8:0.3 9:0.2391 10:0.2065 11:5 12:0.2188 13:5 14:0.3 15:10 16:0.2283 17:0.3261 18:0.22 19:0.21 20:-1 22:2 
-0.05488414119355642 0:6 1:19 2:14 3:4 4:0.45 5:3 6:6 7:0.05 8:0.35 9:0.2584 10:0.191 11:9 12:0.1979 13:78 14:0.4 15:7 16:0.2809 17:0.2697 18:0.25 19:0.19 22:6 
-0.01042790322511083 0:7 1:18 2:19 3:7 4:0.4301 5:4 6:6 7:0.2917 8:0.3333 9:0.2151 10:0.2258 11:1 12:0.1395 13:70 14:0.125 15:3 16:0.2043 17:0.3548 18:0.2151 19:0.2258 20:-1 22:5 
-0.1539092657846489 0:3 1:5 2:16 3:11 4:0.466 5:2 6:8 7:0.1429 8:0.1905 9:0.3542 10:0.25 11:31 12:0.1848 13:58 14:0.381 15:3 16:0.125 17:0.2708 18:0.2718 19:0.2427 20:0.2308 
-0.001329432293478714 0:9 1:26 2:14 3:7 4:0.4158 5:2 6:8 7:0.375 8:0.25 9:0.2688 10:0.2043 11:5 12:0.2021 13:5 14:0.25 15:8 16:0.2258 17:0.3011 18:0.2772 19:0.2079 20:-1 22:1 
-0.002010436174810121 0:9 1:22 2:12 3:7 4:0.4158 5:2 6:8 7:0.45 8:0.2 9:0.2809 10:0.2135 11:7 12:0.2021 13:7 14:0.25 15:8 16:0.236 17:0.2697 18:0.2772 19:0.2079 20:-1 22:1 
-0.1117524776475949 0:7 1:20 2:13 3:3 4:0.4699 5:2 6:6 7:0.3 8:0.4 9:0.253 10:0.2771 11:1 12:0.175 13:64 14:0.05 15:3 16:0.1928 17:0.2771 18:0.253 19:0.2771 20:-1 22:1 
-0.0006349393490788224 0:8 1:24 2:16 3:4 4:0.45 5:3 6:7 7:0.2609 8:0.1739 9:0.25 10:0.2283 11:5 12:0.1562 13:74 14:0.2609 15:11 16:0.2283 17:0.2935 18:0.25 19:0.22 20:-1 22:4 
-0.01627347946545453 0:5 1:13 2:18 3:4 4:0.413 5:2 6:6 7:0.1739 8:0.3478 9:0.24 10:0.2 11:10 12:0.1591 13:61 14:0.2609 15:3 16:0.24 17:0.32 18:0.2609 19:0.1957 20:0.0909 22:3 
-0.0006653979059064064 0:5 1:11 2:20 3:10 4:0.4091 5:2 6:6 7:0.1667 8:0.3333 9:0.2533 10:0.24 11:8 12:0.1667 13:59 14:0.0833 15:3 16:0.2 17:0.3067 18:0.2727 19:0.2273 20:0.25 22:1 
-0.009375447376780937 0:6 1:13 2:19 3:10 4:0.4091 5:2 6:6 7:0.1667 8:0.375 9:0.253 10:0.2289 11:3 12:0.1667 13:63 14:0.125 15:3 16:0.1928 17:0.3253 18:0.2727 19:0.2273 20:-1 22:1 
-0.03013489611695286 0:5 1:16 2:13 3:12 4:0.375 5:2 6:4 7:0.3 8:0.35 9:0.2717 10:0.1739 11:3 12:0.131 13:3 14:0.35 15:7 16:0.2065 17:0.3478 18:0.2708 19:0.1667 20:-1 22:5 
-0.01465654082851544 0:5 1:15 2:15 3:3 4:0.48 5:4 6:6 7:0.25 8:0.05 9:0.2195 10:0.2439 11:11 12:0.2371 13:71 14:0.4 15:2 16:0.2439 17:0.2927 18:0.23 19:0.25 20:0.5 22:4 
-0.009093494873586787 0:6 1:14 2:16 3:13 4:0.396 5:1 6:5 7:0.3 8:0.25 9:0.2759 10:0.1954 11:8 12:0.0909 13:8 14:0.25 15:11 16:0.1954 17:0.3333 18:0.2772 19:0.2178 20:-1 22:4 
-0.000878330887325831 0:3 1:5 2:16 3:5 4:0.3762 5:2 6:6 7:0.2 8:0.35 9:0.3095 10:0.119 11:34 12:0.1042 13:54 14:0.35 15:8 16:0.2143 17:0.3571 18:0.2871 19:0.1782 20:0.1064 22:2 
-0.09326804111050574 0:6 1:10 2:21 3:5 4:0.3762 5:2 6:6 7:0.1667 8:0.0417 9:0.2921 10:0.1798 11:5 12:0.1042 13:74 14:0.5417 15:8 16:0.2022 17:0.3258 18:0.2871 19:0.1782 20:-1 22:3 
-0.02492007369175274 0:6 1:10 2:21 3:5 4:0.3762 5:2 6:6 7:0.2083 8:0.5417 9:0.2941 10:0.1882 11:11 12:0.1042 13:11 14:0.0417 15:8 16:0.2 17:0.3176 18:0.2871 19:0.1782 22:2 
-0.08644287734733955 0:5 1:27 2:10 3:8 4:0.4356 5:3 6:4 7:0.25 8:0.3 9:0.1765 10:0.2235 11:9 12:0.2151 13:9 14:0.2 15:13 16:0.2353 17:0.3647 18:0.1881 19:0.2178 20:-1 22:4 
-0.09405373581145997 0:9 1:25 2:12 3:5 4:0.5347 5:4 6:10 7:0.3 8:0.25 9:0.175 10:0.25 11:13 12:0.2708 13:10 14:0.25 15:7 16:0.275 17:0.3 18:0.2079 19:0.2673 20:0.1111 22:2 
-0.04095746273761312 0:10 1:26 2:12 3:5 4:0.5347 5:4 6:10 7:0.25 8:0.3 9:0.1798 10:0.2584 11:8 12:0.2708 13:75 14:0.15 15:7 16:0.2809 17:0.2809 18:0.2079 19:0.2673 20:-1 22:2 
-0.003461670753228643 0:9 1:25 2:14 3:5 4:0.5347 5:4 6:10 7:0.2609 8:0.3913 9:0.175 10:0.25 11:13 12:0.2708 13:67 14:0.087 15:7 16:0.275 17:0.3 18:0.2079 19:0.2673 20:0.1111 22:2 
-0.01147452164544609 0:4 1:9 2:20 3:12 4:0.4257 5:2 6:5 7:0.4167 8:0.3333 9:0.253 10:0.2048 11:11 12:0.1461 13:68 14:0.1667 15:4 16:0.241 17:0.3012 18:0.2673 19:0.2178 20:0.3333 22:6 
-0.002388057678318345 0:5 1:13 2:15 3:12 4:0.4257 5:2 6:5 7:0.0952 8:0.4286 9:0.2688 10:0.1935 11:6 12:0.1461 13:4 14:0.2857 15:4 16:0.2151 17:0.3226 18:0.2673 19:0.2178 22:6 
-0.07226862956404563 0:7 1:25 2:17 3:4 4:0.4752 5:3 6:7 7:0.2917 8:0.25 9:0.2222 10:0.2099 11:13 12:0.2577 13:13 14:0.125 15:10 16:0.2716 17:0.2963 18:0.2673 19:0.2079 22:3 
-0.05364606325950295 0:6 1:21 2:17 3:10 4:0.4356 5:2 6:5 7:0.375 8:0.2083 9:0.2842 10:0.2105 11:4 12:0.1209 13:75 14:0.2917 15:10 16:0.2211 17:0.2842 18:0.2772 19:0.2277 20:-1 22:3 
-0.002525732224918698 0:2 1:5 2:17 3:10 4:0.4356 5:2 6:5 7:0.0909 8:0.2273 9:0.3469 10:0.2041 11:30 12:0.1209 13:55 14:0.4545 15:10 16:0.1429 17:0.3061 18:0.2772 19:0.2277 20:0.1667 
-0.001431609479739097 0:5 1:15 2:18 3:11 4:0.4231 5:3 6:4 7:0.2083 8:0.3333 9:0.2179 10:0.1923 11:1 12:0.1493 13:55 14:0.1667 15:3 16:0.2308 17:0.359 18:0.2179 19:0.1923 20:-1 22:3 
-0.2210805222633197 0:5 1:19 2:15 3:3 4:0.4554 5:4 6:7 7:0.1818 8:0.2727 9:0.2 10:0.2286 11:18 12:0.3061 13:63 14:0.1818 15:3 16:0.2429 17:0.3286 18:0.2376 19:0.2376 20:0.4074 22:3 
-0.0130371969524612 0:7 1:30 2:16 3:3 4:0.4554 5:4 6:7 7:0.1739 8:0.3478 9:0.2421 10:0.2211 11:5 12:0.3061 13:3 14:0.2174 15:3 16:0.2211 17:0.3158 18:0.2376 19:0.2376 22:3 
-0.07646170270739842 0:7 1:26 2:18 3:6 4:0.5446 5:4 6:7 7:0.1667 8:0.3333 9:0.2021 10:0.234 11:5 12:0.2737 13:75 14:0.25 15:2 16:0.3191 17:0.2447 18:0.2178 19:0.2277 22:7 
-0.0008187128518217014 0:4 1:10 2:20 3:12 4:0.4359 5:2 6:3 7:0.2083 8:0.0417 9:0.3026 10:0.2368 11:2 12:0.0909 13:54 14:0.4583 15:3 16:0.2105 17:0.25 18:0.3205 19:0.2308 20:-1 22:1 
-0.001992953195398388 0:4 1:10 2:20 3:12 4:0.4359 5:2 6:3 7:0.3333 8:0.4583 9:0.3026 10:0.2368 11:2 12:0.0909 13:2 14:0.0417 15:3 16:0.2105 17:0.25 18:0.3205 19:0.2308 20:-1 22:1 
-0.01150987262135942 0:4 1:9 2:22 3:11 4:0.4242 5:2 6:5 7:0.4583 8:0.2917 9:0.2073 10:0.1951 11:10 12:0.125 13:68 14:0.2083 15:5 16:0.2683 17:0.3293 18:0.2626 19:0.1818 20:0.25 22:4 
-0.3410397389552545 0:4 1:9 2:16 3:11 4:0.4242 5:2 6:5 7:0.1 8:0.4 9:0.2143 10:0.2 11:16 12:0.125 13:16 14:0.2 15:5 16:0.2571 17:0.3286 18:0.2626 19:0.1818 20:0.1 22:2 
-0.07150966545454072 0:4 1:8 2:20 3:12 4:0.4227 5:2 6:5 7:0.4348 8:0.3043 9:0.25 10:0.2024 11:9 12:0.1412 13:70 14:0.1739 15:3 16:0.25 17:0.2976 18:0.2577 19:0.2062 20:0.4 22:6 
-0.0007273682466618221 0:2 1:9 2:13 3:11 4:0.4022 5:3 6:3 7:0.2609 8:0.2609 9:0.3043 10:0.1957 11:24 12:0.1605 13:24 14:0.3043 15:3 16:0.1957 17:0.3043 18:0.25 19:0.1739 20:0.1 22:1 
-0.002443594528744819 0:2 1:13 2:13 3:4 4:0.3939 5:6 6:4 7:0.3 8:0.3 9:0.3023 10:0.1395 11:30 12:0.3263 13:30 14:0.3 15:3 16:0.186 17:0.3721 18:0.2828 19:0.1919 20:0.3462 22:1 
-0.0006459901211205987 0:4 1:31 2:15 3:4 4:0.3939 5:6 6:4 7:0.25 8:0.2917 9:0.2637 10:0.1868 11:6 12:0.3263 13:6 14:0.25 15:3 16:0.2088 17:0.3407 18:0.2828 19:0.1919 22:3 
-0.04378819330435657 0:3 1:23 2:15 3:4 4:0.3939 5:6 6:4 7:0.1905 8:0.3333 9:0.2469 10:0.1728 11:11 12:0.3263 13:71 14:0.2381 15:3 16:0.2222 17:0.358 18:0.2828 19:0.1919 20:0.5714 22:3 
-0.009102362390798535 0:5 1:20 2:18 3:8 4:0.4257 5:5 6:5 7:0.375 8:0.25 9:0.2561 10:0.1829 11:14 12:0.2366 13:70 14:0.2083 15:6 16:0.2439 17:0.3171 18:0.2574 19:0.198 20:0.1667 22:4 
-0.01884174383822982 0:4 1:19 2:15 3:8 4:0.4257 5:5 6:5 7:0.35 8:0.25 9:0.2658 10:0.1646 11:16 12:0.2366 13:72 14:0.25 15:6 16:0.2405 17:0.3291 18:0.2574 19:0.198 20:0.2 22:4 
-0.01522849996147843 0:4 1:19 2:19 3:8 4:0.4257 5:5 6:5 7:0.375 8:0.25 9:0.2593 10:0.1728 11:15 12:0.2366 13:69 14:0.25 15:6 16:0.2469 17:0.321 18:0.2574 19:0.198 20:0.2308 22:4 
-0.005976006118695476 0:5 1:13 2:20 3:13 4:0.3663 5:4 6:6 7:0.2174 8:0.3043 9:0.2619 10:0.131 11:9 12:0.2045 13:71 14:0.3913 15:3 16:0.2143 17:0.3929 18:0.2475 19:0.1683 20:0.3846 22:3 
-0.07617054125975295 0:4 1:27 2:10 3:5 4:0.51 5:9 6:6 7:0.3636 8:0.2727 9:0.1951 10:0.2439 11:11 12:0.3053 13:70 14:0.1364 15:1 16:0.3049 17:0.2561 18:0.22 19:0.22 20:0.125 22:3 
-0.0007716162204244383 0:3 1:13 2:12 3:4 4:0.38 5:6 6:6 7:0.1739 8:0.3043 9:0.2195 10:0.2439 11:31 12:0.25 13:49 14:0.2174 15:3 16:0.2195 17:0.3171 18:0.29 19:0.2 20:0.2075 22:1 
-0.407757474064999 0:3 1:17 2:17 3:4 4:0.42 5:9 6:5 7:0.2609 8:0.1304 9:0.2364 10:0.2182 11:27 12:0.2188 13:21 14:0.3478 15:10 16:0.2364 17:0.3091 18:0.22 19:0.21 20:0.1333 
-0.1081541849550632 0:5 1:21 2:20 3:4 4:0.42 5:9 6:5 7:0.25 8:0.4167 9:0.2353 10:0.2235 11:11 12:0.2188 13:67 14:0.125 15:10 16:0.2353 17:0.3059 18:0.22 19:0.21 20:-1 22:2 
-0.05261561784249159 0:5 1:21 2:18 3:4 4:0.42 5:9 6:5 7:0.2 8:0.25 9:0.2353 10:0.2235 11:6 12:0.2188 13:6 14:0.35 15:10 16:0.2353 17:0.3059 18:0.22 19:0.21 20:-1 22:2 
-0.0014745828305384 0:7 1:24 2:17 3:4 4:0.45 5:3 6:6 7:0.375 8:0.375 9:0.25 10:0.1979 11:3 12:0.1979 13:3 14:0.1667 15:7 16:0.2604 17:0.2917 18:0.25 19:0.19 20:-1 22:6 
-0.00178448889917554 0:2 1:10 2:16 3:10 4:0.44 5:4 6:5 7:0.2917 8:0.25 9:0.3846 10:0.2115 11:29 12:0.1889 13:25 14:0.375 15:4 16:0.1923 17:0.2115 18:0.32 19:0.22 20:0.1628 
-0.06795836952907164 0:6 1:12 2:22 3:7 4:0.4301 5:4 6:6 7:0.2917 8:0.2917 9:0.2299 10:0.1954 11:4 12:0.1395 13:67 14:0.1667 15:3 16:0.2184 17:0.3563 18:0.2151 19:0.2258 20:-1 22:5 
-0.004491886814587953 0:6 1:11 2:18 3:4 4:0.37 5:2 6:8 7:0.2917 8:0.3333 9:0.2909 10:0.1455 11:25 12:0.1771 13:22 14:0.25 15:8 16:0.2 17:0.3636 18:0.29 19:0.16 20:0.1875 22:2 
-0.07311025535534227 0:9 1:19 2:13 3:4 4:0.37 5:2 6:8 7:0.2 8:0.35 9:0.2697 10:0.1685 11:7 12:0.1771 13:75 14:0.2 15:8 16:0.236 17:0.3258 18:0.29 19:0.16 20:-1 22:2 
-0.008130193935033225 0:4 1:7 2:14 3:7 4:0.4158 5:2 6:8 7:0.1364 8:0.2727 9:0.3333 10:0.2381 11:31 12:0.2021 13:51 14:0.2727 15:8 16:0.1667 17:0.2619 18:0.2772 19:0.2079 20:0.2727 
-0.006765977955147183 0:3 1:9 2:18 3:14 4:0.3908 5:3 6:4 7:0.1429 8:0.0952 9:0.2817 10:0.2254 11:9 12:0.1781 13:59 14:0.4762 15:3 16:0.1831 17:0.3099 18:0.2874 19:0.2184 20:0.4 22:1 
-0.01381645785364118 0:4 1:13 2:19 3:5 4:0.4149 5:5 6:5 7:0.2174 8:0.2609 9:0.2568 10:0.1757 11:11 12:0.191 13:11 14:0.3043 15:3 16:0.2568 17:0.3108 18:0.2553 19:0.1702 20:0.2857 22:3 
-0.004959711565461006 0:5 1:17 2:20 3:5 4:0.4149 5:5 6:5 7:0.25 8:0.4583 9:0.25 10:0.1625 11:8 12:0.191 13:64 14:0.125 15:3 16:0.25 17:0.3375 18:0.2553 19:0.1702 22:3 
-0.003978022245916368 0:8 1:26 2:12 3:4 4:0.45 5:3 6:7 7:0.2 8:0.25 9:0.2447 10:0.2234 11:4 12:0.1562 13:78 14:0.25 15:11 16:0.234 17:0.2979 18:0.25 19:0.22 20:-1 22:4 
-0.002120901234316073 0:6 1:19 2:16 3:11 4:0.5125 5:2 6:5 7:0.3913 8:0.1739 9:0.2 10:0.3 11:1 12:0.1884 13:58 14:0.2609 15:3 16:0.2125 17:0.2875 18:0.2 19:0.3 20:-1 22:2 
-0.0009221647187411867 0:5 1:12 2:20 3:7 4:0.3506 5:4 6:5 7:0.1667 8:0.375 9:0.2817 10:0.1408 11:4 12:0.1714 13:51 14:0.375 15:1 16:0.1972 17:0.3803 18:0.2857 19:0.1558 22:4 
-0.007853658935195962 0:8 1:21 2:19 3:5 4:0.451 5:3 6:7 7:0.4167 8:0.4583 9:0.23 10:0.19 11:2 12:0.1649 13:2 15:4 16:0.26 17:0.32 18:0.2353 19:0.1961 20:-1 22:4 
-0.02888511551436345 0:7 1:16 2:18 3:10 4:0.4091 5:2 6:6 7:0.1667 8:0.375 9:0.2674 10:0.2209 11:2 12:0.1667 13:64 14:0.1667 15:3 16:0.186 17:0.3256 18:0.2727 19:0.2273 20:-1 22:1 
-0.112669688563331 0:3 1:8 2:14 3:9 4:0.4396 5:2 6:6 7:0.15 8:0.5 9:0.2889 10:0.1333 11:26 12:0.1585 13:23 14:0.15 15:1 16:0.2 17:0.3778 18:0.2308 19:0.1868 20:0.1111 
-0.0196659455833078 0:5 1:12 2:18 3:9 4:0.4396 5:2 6:6 7:0.2727 8:0.2727 9:0.2667 10:0.1733 11:10 12:0.1585 13:9 14:0.2727 15:1 16:0.2133 17:0.3467 18:0.2308 19:0.1868 20:0.0667 22:2 
-0.08081704008271004 0:3 1:6 2:17 3:8 4:0.3494 5:7 6:4 7:0.1429 8:0.3333 9:0.2885 10:0.1923 11:18 12:0.2267 13:49 14:0.2381 15:3 16:0.1923 17:0.3269 18:0.2771 19:0.1807 20:0.44 22:1 
-0.1844159602713248 0:4 1:5 2:19 3:12 4:0.3765 5:1 6:5 7:0.2381 8:0.3333 9:0.3014 10:0.1781 11:9 12:0.0959 13:61 14:0.1905 15:4 16:0.1918 17:0.3288 18:0.2824 19:0.1765 20:0.25 22:1 
-0.007368925192202225 0:3 1:5 2:19 3:5 4:0.3544 5:2 6:5 7:0.1818 8:0.2727 9:0.2917 10:0.1458 11:18 12:0.1216 13:43 14:0.3636 15:1 16:0.2292 17:0.3333 18:0.3165 19:0.1772 20:0.1333 22:2 
-0.07827261315795797 0:5 1:9 2:21 3:5 4:0.3544 5:2 6:5 7:0.1667 8:0.125 9:0.3205 10:0.1667 11:1 12:0.1216 13:56 14:0.5417 15:1 16:0.1795 17:0.3333 18:0.3165 19:0.1772 20:-1 22:2 
-0.06831805188904044 0:5 1:13 2:16 3:3 4:0.48 5:4 6:6 7:0.25 8:0.05 9:0.225 10:0.225 11:12 12:0.2371 13:70 14:0.45 15:2 16:0.25 17:0.3 18:0.23 19:0.25 20:0.5556 22:4 
-0.01065879181863363 0:4 1:12 2:17 3:3 4:0.48 5:4 6:6 7:0.2273 8:0.1818 9:0.2192 10:0.2329 11:16 12:0.2371 13:64 14:0.3182 15:2 16:0.2466 17:0.3014 18:0.23 19:0.25 20:0.44 22:3 
-0.0565051658419807 0:6 1:17 2:20 3:3 4:0.48 5:4 6:6 7:0.2917 8:0.5 9:0.2159 10:0.2386 11:8 12:0.2371 13:6 14:0.0417 15:2 16:0.2386 17:0.3068 18:0.23 19:0.25 20:0.6 22:4 
-0.009755353395461172 0:5 1:8 2:18 3:13 4:0.396 5:1 6:5 7:0.3333 8:0.2857 9:0.2593 10:0.1852 11:10 12:0.0909 13:10 14:0.1905 15:11 16:0.2099 17:0.3457 18:0.2772 19:0.2178 20:-1 22:4 
-0.01257159407166407 0:6 1:9 2:16 3:13 4:0.396 5:1 6:5 7:0.15 8:0.25 9:0.2683 10:0.1829 11:11 12:0.0909 13:72 14:0.35 15:11 16:0.2073 17:0.3415 18:0.2772 19:0.2178 20:-1 22:4 
-0.005121659113813023 0:6 1:10 2:17 3:5 4:0.3762 5:2 6:6 7:0.2 8:0.05 9:0.2921 10:0.1798 11:5 12:0.1042 13:78 14:0.55 15:8 16:0.2022 17:0.3258 18:0.2871 19:0.1782 20:-1 22:3 
-0.03142856536432872 0:10 1:26 2:14 3:5 4:0.5347 5:4 6:10 7:0.3182 8:0.2727 9:0.1798 10:0.2584 11:8 12:0.2708 13:73 14:0.1364 15:7 16:0.2809 17:0.2809 18:0.2079 19:0.2673 20:-1 22:2 
-0.01543476314033554 0:9 1:25 2:14 3:5 4:0.5347 5:4 6:10 7:0.2609 8:0.3913 9:0.175 10:0.25 11:13 12:0.2708 13:67 14:0.087 15:7 16:0.275 17:0.3 18:0.2079 19:0.2673 20:0.1111 22:2 
-0.05963647235022466 0:5 1:17 2:14 3:15 4:0.4257 5:2 6:5 7:0.15 8:0.4 9:0.3 10:0.25 11:12 12:0.1977 13:12 14:0.2 15:7 16:0.225 17:0.225 18:0.3168 19:0.198 22:1 
-0.009591247075944817 0:6 1:30 2:13 3:15 4:0.4257 5:2 6:5 7:0.2917 8:0.4167 9:0.3168 10:0.198 11:1 12:0.1977 13:1 14:0.1667 15:7 16:0.2277 17:0.2574 18:0.3168 19:0.198 20:-1 22:2 
-0.0444195288056065 0:8 1:31 2:11 3:4 4:0.4752 5:3 6:7 7:0.3 8:0.2 9:0.2527 10:0.2088 11:6 12:0.2577 13:77 14:0.25 15:10 16:0.2527 17:0.2857 18:0.2673 19:0.2079 20:-1 22:3 
-0.00420744199059149 0:7 1:27 2:14 3:6 4:0.4851 5:4 6:7 7:0.25 8:0.3333 9:0.2316 10:0.2632 11:2 12:0.2842 13:77 14:0.25 15:5 16:0.2421 17:0.2632 18:0.2574 19:0.2475 20:-1 
-0.07355719516099903 0:4 1:16 2:15 3:5 4:0.3762 5:4 6:5 7:0.2273 8:0.5 9:0.2676 10:0.169 11:19 12:0.2396 13:16 14:0.1818 15:4 16:0.2113 17:0.3521 18:0.2772 19:0.1782 20:0.28 22:3 
-0.5014746861998499 0:4 1:16 2:17 3:5 4:0.3762 5:4 6:5 7:0.1667 8:0.25 9:0.2676 10:0.169 11:19 12:0.2396 13:63 14:0.375 15:4 16:0.2113 17:0.3521 18:0.2772 19:0.1782 20:0.28 22:3 
-0.007409990580549375 0:6 1:19 2:19 3:4 4:0.4356 5:2 6:5 7:0.2917 8:0.3333 9:0.2759 10:0.1724 11:8 12:0.1546 13:71 14:0.2083 15:9 16:0.2759 17:0.2759 18:0.2772 19:0.1881 20:-1 22:4 
-0.01828224577926943 0:5 1:22 2:11 3:5 4:0.4356 5:4 6:4 7:0.25 8:0.25 9:0.2366 10:0.1828 11:5 12:0.1562 13:78 14:0.4 15:8 16:0.2473 17:0.3333 18:0.2277 19:0.2079 20:-1 22:5 
-0.2294242657850321 0:2 1:6 2:19 3:5 4:0.4356 5:4 6:4 7:0.2083 8:0.3333 9:0.2041 10:0.2041 11:28 12:0.1562 13:26 14:0.25 15:8 16:0.2449 17:0.3469 18:0.2277 19:0.2079 20:0.2432 22:3 
-0.00341498648709233 0:4 1:15 2:20 3:6 4:0.4653 5:4 6:5 7:0.375 8:0.2917 9:0.236 10:0.1685 11:9 12:0.1789 13:9 14:0.1667 15:4 16:0.2921 17:0.3034 18:0.2277 19:0.1584 20:0.25 22:7 
-0.00491910265882195 0:4 1:10 2:20 3:12 4:0.4359 5:2 6:3 7:0.2083 8:0.0417 9:0.3026 10:0.2368 11:2 12:0.0909 13:54 14:0.4583 15:3 16:0.2105 17:0.25 18:0.3205 19:0.2308 20:-1 22:1 
-0.01494198019093545 0:6 1:27 2:11 3:10 4:0.4158 5:3 6:5 7:0.1818 8:0.5455 9:0.2574 10:0.1881 11:1 12:0.1538 13:1 14:0.1818 15:8 16:0.2277 17:0.3267 18:0.2574 19:0.1881 20:-1 22:1 
-0.002200985967230064 0:5 1:16 2:18 3:4 4:0.439 5:7 6:5 7:0.3333 8:0.2381 9:0.25 10:0.1974 11:4 12:0.2051 13:4 14:0.1905 15:3 16:0.25 17:0.3026 18:0.2439 19:0.1951 20:-1 22:7 
-0.02022075000740636 0:2 1:9 2:12 3:11 4:0.4022 5:3 6:3 7:0.1364 8:0.3636 9:0.2955 10:0.2045 11:25 12:0.1605 13:47 14:0.2727 15:3 16:0.2045 17:0.2955 18:0.25 19:0.1739 20:0.0952 22:1 
-0.002703018934276991 0:5 1:22 2:15 3:8 4:0.4257 5:5 6:5 7:0.25 8:0.35 9:0.2791 10:0.1744 11:11 12:0.2366 13:11 14:0.2 15:6 16:0.2326 17:0.314 18:0.2574 19:0.198 22:4 
-0.08532863606193433 0:5 1:22 2:19 3:8 4:0.4257 5:5 6:5 7:0.2083 8:0.3333 9:0.2791 10:0.1744 11:11 12:0.2366 13:11 14:0.25 15:6 16:0.2326 17:0.314 18:0.2574 19:0.198 22:4 
-0.05813417140457024 0:5 1:13 2:20 3:13 4:0.3663 5:4 6:6 7:0.2174 8:0.3043 9:0.2561 10:0.1341 11:13 12:0.2045 13:70 14:0.3478 15:3 16:0.2195 17:0.3902 18:0.2475 19:0.1683 20:0.3333 22:3 
-0.03366357056377811 0:2 1:8 2:16 3:5 4:0.51 5:9 6:6 7:0.3 8:0.35 9:0.2667 10:0.2222 11:32 12:0.3053 13:51 14:0.05 15:1 16:0.2889 17:0.2222 18:0.22 19:0.22 20:0.3962 22:2 
-0.06256112445717187 0:2 1:8 2:17 3:5 4:0.51 5:9 6:6 7:0.2609 8:0.3043 9:0.2553 10:0.234 11:31 12:0.3053 13:49 14:0.1304 15:1 16:0.2979 17:0.2128 18:0.22 19:0.22 20:0.4118 22:2 
-0.01118082832543667 0:7 1:26 2:17 3:4 4:0.38 5:6 6:6 7:0.0435 8:0.3043 9:0.2708 10:0.2083 11:3 12:0.25 13:76 14:0.3478 15:3 16:0.1875 17:0.3333 18:0.29 19:0.2 20:-1 22:2 
-0.2275644851259736 0:3 1:13 2:16 3:4 4:0.38 5:6 6:6 7:0.25 8:0.35 9:0.2449 10:0.2245 11:27 12:0.25 13:27 14:0.3 15:3 16:0.2041 17:0.3265 18:0.29 19:0.2 20:0.2444 22:1 
-0.3795123137988549 0:4 1:10 2:17 3:4 4:0.38 5:2 6:6 7:0.1429 8:0.3333 9:0.1923 10:0.1923 11:26 12:0.1562 13:56 14:0.1905 15:6 16:0.2115 17:0.4038 18:0.24 19:0.17 20:0.1351 22:3 
-0.001222506324377278 0:3 1:15 2:18 3:6 4:0.2949 5:4 6:3 7:0.1818 8:0.4545 9:0.2958 10:0.1127 11:5 12:0.2083 13:5 14:0.2273 15:3 16:0.1972 17:0.3944 18:0.2949 19:0.1154 22:5 
-0.08940090097316168 0:6 1:32 2:19 3:4 4:0.42 5:9 6:5 7:0.1667 8:0.2917 9:0.2292 10:0.2083 11:3 12:0.2188 13:3 14:0.3333 15:10 16:0.2188 17:0.3438 18:0.22 19:0.21 20:-1 22:2 
-0.0540983323009052 0:2 1:10 2:12 3:10 4:0.44 5:4 6:5 7:0.0909 8:0.1364 9:0.4091 10:0.2045 11:33 12:0.1889 13:51 14:0.4545 15:4 16:0.1818 17:0.2045 18:0.32 19:0.22 20:0.1373 
-0.01544326105336361 0:6 1:12 2:22 3:7 4:0.4301 5:4 6:6 7:0.2917 8:0.2917 9:0.2469 10:0.1852 11:7 12:0.1395 13:64 14:0.25 15:3 16:0.1975 17:0.3704 18:0.2151 19:0.2258 22:4 
-0.04149609831032723 0:8 1:17 2:17 3:11 4:0.466 5:2 6:8 7:0.375 8:0.2083 9:0.27 10:0.25 11:4 12:0.1848 13:4 14:0.125 15:3 16:0.23 17:0.25 18:0.2718 19:0.2427 20:-1 22:3 
-0.1753279911729529 0:4 1:5 2:19 3:4 4:0.37 5:2 6:8 7:0.25 8:0.3333 9:0.2766 10:0.1702 11:29 12:0.1771 13:26 14:0.25 15:8 16:0.1915 17:0.3617 18:0.29 19:0.16 20:0.3 22:2 
-0.05246274876755452 0:8 1:17 2:13 3:4 4:0.37 5:2 6:8 7:0.4 8:0.3 9:0.2593 10:0.1605 11:12 12:0.1771 13:9 14:0.2 15:8 16:0.2346 17:0.3457 18:0.29 19:0.16 22:2 
-0.02497596500892334 0:5 1:19 2:16 3:14 4:0.3908 5:3 6:4 7:0.0833 8:0.125 9:0.2874 10:0.2184 11:1 12:0.1781 13:64 14:0.5 15:3 16:0.1724 17:0.3218 18:0.2874 19:0.2184 20:-1 22:1 
-0.01303965423354456 0:6 1:10 2:21 3:11 4:0.398 5:2 6:6 7:0.125 8:0.2083 9:0.2903 10:0.1828 11:2 12:0.1149 13:74 14:0.3333 15:4 16:0.2151 17:0.3118 18:0.2755 19:0.1939 20:-1 22:4 
-0.04823513508598137 0:6 1:10 2:22 3:11 4:0.398 5:2 6:6 7:0.3333 8:0.3333 9:0.2903 10:0.1828 11:5 12:0.1149 13:5 14:0.1667 15:4 16:0.2151 17:0.3118 18:0.2755 19:0.1939 20:-1 22:4 
-0.009301184086345778 0:4 1:10 2:19 3:3 4:0.4699 5:2 6:6 7:0.125 8:0.3333 9:0.2941 10:0.2353 11:18 12:0.175 13:16 14:0.2917 15:3 16:0.1569 17:0.3137 18:0.253 19:0.2771 20:0.1538 22:1 
-0.03641490421574001 0:6 1:14 2:20 3:3 4:0.4699 5:2 6:6 7:0.2174 8:0.087 9:0.2468 10:0.2597 11:4 12:0.175 13:4 14:0.3478 15:3 16:0.1948 17:0.2987 18:0.253 19:0.2771 20:-1 22:1 
-0.003235255908680231 0:8 1:22 2:17 3:4 4:0.45 5:3 6:7 7:0.2609 8:0.2174 9:0.2333 10:0.2333 11:6 12:0.1562 13:73 14:0.2174 15:11 16:0.2333 17:0.3 18:0.25 19:0.22 20:-1 22:4 
-0.05397410217308782 0:8 1:16 2:18 3:4 4:0.45 5:3 6:7 7:0.25 8:0.3333 9:0.2143 10:0.25 11:11 12:0.1562 13:11 14:0.2083 15:11 16:0.2381 17:0.2976 18:0.25 19:0.22 20:-1 22:4 
-0.03540351986720149 0:6 1:14 2:15 3:4 4:0.413 5:2 6:6 7:0.2 8:0.3 9:0.2368 10:0.1974 11:9 12:0.1591 13:65 14:0.25 15:3 16:0.25 17:0.3158 18:0.2609 19:0.1957 22:3 
-0.007777124630742359 0:6 1:14 2:16 3:7 4:0.3506 5:4 6:5 7:0.15 8:0.2 9:0.2857 10:0.1558 11:1 12:0.1714 13:58 14:0.55 15:1 16:0.1948 17:0.3636 18:0.2857 19:0.1558 20:-1 22:4 
-0.01053575610836338 0:4 1:10 2:19 3:11 4:0.3373 5:2 6:4 7:0.2727 8:0.5 9:0.2958 10:0.1268 11:7 12:0.1389 13:56 14:0.1364 15:3 16:0.2113 17:0.3662 18:0.2892 19:0.1446 22:4 
-0.009219118116546632 0:5 1:21 2:11 3:9 4:0.4024 5:4 6:4 7:0.2 8:0.45 9:0.1951 10:0.122 11:1 12:0.2192 13:63 14:0.25 15:3 16:0.2805 17:0.4024 18:0.1951 19:0.122 20:-1 22:7 
-0.01965012600912563 0:2 1:2 2:18 3:12 4:0.3765 5:1 6:5 7:0.0833 8:0.2083 9:0.32 10:0.18 11:21 12:0.0959 13:46 14:0.4583 15:4 16:0.16 17:0.34 18:0.2824 19:0.1765 20:0.1613 
-0.05133684158272704 0:8 1:22 2:16 3:5 4:0.3663 5:3 6:7 7:0.0952 8:0.381 9:0.2772 10:0.198 11:1 12:0.1562 13:81 14:0.2857 15:5 16:0.1683 17:0.3564 18:0.2772 19:0.198 20:-1 22:1 
-0.03463695849417527 0:5 1:9 2:19 3:5 4:0.3544 5:2 6:5 7:0.1818 8:0.0909 9:0.3205 10:0.1667 11:1 12:0.1216 13:58 14:0.5455 15:1 16:0.1795 17:0.3333 18:0.3165 19:0.1772 20:-1 22:2 
-0.5874488677513714 0:4 1:7 2:20 3:10 4:0.4062 5:2 6:6 7:0.2273 8:0.2727 9:0.3151 10:0.2055 11:15 12:0.1163 13:15 14:0.3182 15:5 16:0.1918 17:0.2877 18:0.3125 19:0.2188 20:0.1765 22:1 
-0.002555192550026952 0:7 1:16 2:17 3:10 4:0.4062 5:2 6:6 7:0.2 8:0.3 9:0.3125 10:0.2188 11:1 12:0.1163 13:77 14:0.3 15:5 16:0.1875 17:0.2812 18:0.3125 19:0.2188 20:-1 22:1 
-0.1446562552759741 0:5 1:9 2:18 3:10 4:0.4062 5:2 6:6 7:0.2 8:0.3 9:0.2963 10:0.2222 11:11 12:0.1163 13:11 14:0.25 15:5 16:0.1975 17:0.284 18:0.3125 19:0.2188 20:0.1111 22:1 
-0.002601286226463044 0:5 1:15 2:16 3:4 4:0.4257 5:4 6:6 7:0.0952 8:0.4762 9:0.2029 10:0.2029 11:18 12:0.1959 13:64 14:0.0952 15:9 16:0.2609 17:0.3333 18:0.2277 19:0.2079 20:0.25 22:3 
-0.02290215589067045 0:2 1:9 2:16 3:4 4:0.4257 5:4 6:6 7:0.2083 8:0.3333 9:0.2 10:0.2 11:31 12:0.1959 13:49 14:0.2083 15:9 16:0.2444 17:0.3556 18:0.2277 19:0.2079 20:0.25 22:2 
-0.09330296544183728 0:2 1:7 2:17 3:3 4:0.48 5:4 6:6 7:0.2083 8:0.2917 9:0.2045 10:0.2273 11:31 12:0.2371 13:47 14:0.2083 15:2 16:0.2273 17:0.3409 18:0.23 19:0.25 20:0.2963 22:2 
-0.03430040283386308 0:6 1:16 2:18 3:13 4:0.396 5:1 6:5 7:0.2917 8:0.2917 9:0.2809 10:0.2022 11:7 12:0.0909 13:7 14:0.2083 15:11 16:0.191 17:0.3258 18:0.2772 19:0.2178 20:-1 22:4 
-0.06085169051879012 0:6 1:26 2:14 3:13 4:0.396 5:1 6:5 7:0.2083 8:0.2917 9:0.2828 10:0.2121 11:2 12:0.0909 13:2 14:0.25 15:11 16:0.1717 17:0.3333 18:0.2772 19:0.2178 20:-1 22:4 
-0.03232803883064433 0:7 1:22 2:20 3:7 4:0.4554 5:3 6:7 7:0.25 8:0.2917 9:0.3093 10:0.2165 11:3 12:0.234 13:76 14:0.25 15:1 16:0.2268 17:0.2474 18:0.297 19:0.2277 22:4 
-0.00364539153398768 0:5 1:31 2:11 3:8 4:0.4356 5:3 6:4 7:0.2174 8:0.3913 9:0.1685 10:0.2135 11:7 12:0.2151 13:7 14:0.1739 15:13 16:0.236 17:0.382 18:0.1881 19:0.2178 20:-1 22:4 
-0.0264131333291847 0:1 1:5 2:13 3:11 4:0.4545 5:3 6:3 7:0.2 8:0.25 9:0.2619 10:0.1667 11:35 12:0.1429 13:35 14:0.4 15:22 16:0.1667 17:0.4048 18:0.2159 19:0.2386 20:0.25 22:1 
-0.07688683248421466 0:7 1:20 2:15 3:5 4:0.5347 5:4 6:10 7:0.2609 8:0.3043 9:0.1831 10:0.2676 11:18 12:0.2708 13:62 14:0.087 15:7 16:0.2676 17:0.2817 18:0.2079 19:0.2673 20:0.3333 22:1 
-0.02361085067100336 0:6 1:26 2:12 3:15 4:0.4257 5:2 6:5 7:0.2 8:0.45 9:0.3196 10:0.2062 11:3 12:0.1977 13:3 14:0.2 15:7 16:0.2165 17:0.2577 18:0.3168 19:0.198 20:-1 22:2 
-0.002857410992433826 0:6 1:20 2:14 3:15 4:0.4257 5:2 6:5 7:0.2381 8:0.4762 9:0.2967 10:0.2198 11:6 12:0.1977 13:6 14:0.1429 15:7 16:0.2198 17:0.2637 18:0.3168 19:0.198 20:-1 22:2 
-0.0629422405625048 0:5 1:17 2:13 3:15 4:0.4257 5:2 6:5 7:0.25 8:0.1 9:0.3026 10:0.25 11:14 12:0.1977 13:70 14:0.45 15:7 16:0.2237 17:0.2237 18:0.3168 19:0.198 22:1 
-0.0645464360144845 0:3 1:7 2:19 3:10 4:0.4356 5:2 6:5 7:0.2273 8:0.4545 9:0.3014 10:0.1918 11:17 12:0.1209 13:16 14:0.1364 15:10 16:0.2055 17:0.3014 18:0.2772 19:0.2277 20:0.3333 22:3 
-0.00917746700707623 0:6 1:27 2:11 3:10 4:0.4356 5:2 6:5 7:0.2174 8:0.2609 9:0.2772 10:0.2277 11:1 12:0.1209 13:1 14:0.2174 15:10 16:0.2079 17:0.2871 18:0.2772 19:0.2277 20:-1 22:3 
-0.08070029243427274 0:8 1:33 2:13 3:6 4:0.4851 5:4 6:7 7:0.25 8:0.3333 9:0.2574 10:0.2475 11:1 12:0.2842 13:78 14:0.25 15:5 16:0.2376 17:0.2574 18:0.2574 19:0.2475 20:-1 
-0.03523193068465788 0:7 1:30 2:15 3:3 4:0.4554 5:4 6:7 7:0.1818 8:0.3636 9:0.2366 10:0.2258 11:6 12:0.3061 13:4 14:0.1818 15:3 16:0.2258 17:0.3118 18:0.2376 19:0.2376 22:3 
-0.004854597234567085 0:7 1:30 2:17 3:3 4:0.4554 5:4 6:7 7:0.2083 8:0.3333 9:0.2371 10:0.2268 11:2 12:0.3061 13:2 14:0.2083 15:3 16:0.2268 17:0.3093 18:0.2376 19:0.2376 20:-1 22:3 
-0.06042609725526385 0:7 1:19 2:18 3:8 4:0.4257 5:4 6:8 7:0.1739 8:0.2609 9:0.2727 10:0.1948 11:15 12:0.2796 13:12 14:0.3478 15:1 16:0.2338 17:0.2987 18:0.2673 19:0.2079 20:0.3043 22:3 
-0.06315818299995862 0:5 1:15 2:21 3:4 4:0.4356 5:2 6:5 7:0.375 8:0.3333 9:0.2597 10:0.1558 11:13 12:0.1546 13:66 14:0.1667 15:9 16:0.2857 17:0.2987 18:0.2772 19:0.1881 22:4 
-0.02105865022231295 0:7 1:26 2:14 3:6 4:0.5446 5:4 6:7 7:0.2 8:0.25 9:0.2083 10:0.2292 11:4 12:0.2737 13:80 14:0.35 15:2 16:0.3125 17:0.25 18:0.2178 19:0.2277 22:7 
-0.01211716947253839 0:7 1:26 2:17 3:6 4:0.5446 5:4 6:7 7:0.4583 8:0.2917 9:0.2083 10:0.2292 11:4 12:0.2737 13:4 14:0.0833 15:2 16:0.3125 17:0.25 18:0.2178 19:0.2277 22:7 
-0.003092644929309269 0:2 1:6 2:19 3:5 4:0.4356 5:4 6:4 7:0.3333 8:0.2857 9:0.2041 10:0.2041 11:28 12:0.1562 13:54 14:0.1905 15:8 16:0.2449 17:0.3469 18:0.2277 19:0.2079 20:0.2432 22:3 
-0.07720122293865214 0:5 1:17 2:16 3:6 4:0.4653 5:4 6:5 7:0.4 8:0.25 9:0.2258 10:0.172 11:7 12:0.1789 13:80 14:0.15 15:4 16:0.3118 17:0.2903 18:0.2277 19:0.1584 22:7 
-0.007448815323119625 0:3 1:14 2:20 3:6 4:0.4653 5:4 6:5 7:0.1739 8:0.2609 9:0.25 10:0.1625 11:13 12:0.1789 13:71 14:0.2609 15:4 16:0.2875 17:0.3 18:0.2277 19:0.1584 20:0.1765 22:6 
-0.01601656546195198 0:4 1:12 2:15 3:12 4:0.4359 5:2 6:3 7:0.3 8:0.5 9:0.3205 10:0.2308 11:1 12:0.0909 13:1 14:0.1 15:3 16:0.2051 17:0.2436 18:0.3205 19:0.2308 20:-1 22:1 
-0.0451660815780198 0:5 1:23 2:14 3:4 4:0.5281 5:5 6:5 7:0.25 8:0.25 9:0.1733 10:0.2533 11:8 12:0.2706 13:63 14:0.2 15:3 16:0.2667 17:0.3067 18:0.1798 19:0.2584 22:5 
-0.007527502284597767 0:5 1:23 2:16 3:4 4:0.5281 5:5 6:5 7:0.2 8:0.2 9:0.1852 10:0.2469 11:5 12:0.2706 13:66 14:0.3 15:3 16:0.2593 17:0.3086 18:0.1798 19:0.2584 22:5 
-0.08620436065572586 0:4 1:8 2:17 3:12 4:0.4227 5:2 6:5 7:0.4 8:0.35 9:0.25 10:0.2024 11:9 12:0.1412 13:73 14:0.2 15:3 16:0.25 17:0.2976 18:0.2577 19:0.2062 20:0.4 22:6 
-0.04736626502536306 0:5 1:12 2:15 3:12 4:0.4227 5:2 6:5 7:0.1 8:0.4 9:0.2609 10:0.1957 11:5 12:0.1412 13:5 14:0.3 15:3 16:0.2283 17:0.3152 18:0.2577 19:0.2062 22:6 
-0.01869517165838176 0:3 1:12 2:13 3:4 4:0.439 5:7 6:5 7:0.1364 8:0.4091 9:0.2885 10:0.1731 11:16 12:0.2051 13:46 14:0.2273 15:3 16:0.2115 17:0.3269 18:0.2439 19:0.1951 20:0.1667 22:4 
-0.06175878734381036 0:3 1:13 2:17 3:11 4:0.4022 5:3 6:3 7:0.3182 8:0.3636 9:0.2361 10:0.2083 11:11 12:0.1605 13:61 14:0.1818 15:3 16:0.25 17:0.3056 18:0.25 19:0.1739 22:4 
-0.09203143842098979 0:4 1:29 2:16 3:4 4:0.3939 5:6 6:4 7:0.2083 8:0.3333 9:0.2472 10:0.191 11:7 12:0.3263 13:72 14:0.1667 15:3 16:0.2135 17:0.3483 18:0.2828 19:0.1919 20:0.3333 22:3 
-0.04894382713745452 0:3 1:23 2:13 3:4 4:0.3939 5:6 6:4 7:0.3333 8:0.2917 9:0.2468 10:0.1688 11:13 12:0.3263 13:13 14:0.1667 15:3 16:0.2208 17:0.3636 18:0.2828 19:0.1919 20:0.4444 22:3 
-0.0243754876153719 0:3 1:21 2:13 3:4 4:0.3939 5:6 6:4 7:0.3636 8:0.2727 9:0.2533 10:0.16 11:14 12:0.3263 13:14 14:0.1818 15:3 16:0.2267 17:0.36 18:0.2828 19:0.1919 20:0.5 22:3 
-0.08575562033728412 0:3 1:4 2:15 3:7 4:0.4653 5:5 6:6 7:0.0952 8:0.2857 9:0.2927 10:0.2439 11:35 12:0.2128 13:51 14:0.2381 15:5 16:0.1951 17:0.2683 18:0.2277 19:0.2475 20:0.2963 22:1 
-0.01649459447108982 0:7 1:26 2:11 3:7 4:0.4653 5:5 6:6 7:0.1 8:0.35 9:0.2277 10:0.2475 11:1 12:0.2128 13:82 14:0.2 15:5 16:0.2178 17:0.3069 18:0.2277 19:0.2475 20:-1 22:4 
-0.05355313500896897 0:3 1:4 2:19 3:7 4:0.4653 5:5 6:6 7:0.2381 8:0.3333 9:0.3061 10:0.2245 11:31 12:0.2128 13:27 14:0.2857 15:5 16:0.1837 17:0.2857 18:0.2277 19:0.2475 20:0.3478 22:1 
-0.03872858988558204 0:5 1:22 2:17 3:8 4:0.4257 5:5 6:5 7:0.3043 8:0.2174 9:0.2826 10:0.1739 11:8 12:0.2366 13:77 14:0.2609 15:6 16:0.2283 17:0.3152 18:0.2574 19:0.198 22:4 
-0.06562118370235327 0:4 1:12 2:17 3:13 4:0.3663 5:4 6:6 7:0.2727 8:0.2727 9:0.2329 10:0.1507 11:17 12:0.2045 13:67 14:0.2727 15:3 16:0.2329 17:0.3836 18:0.2475 19:0.1683 20:0.25 22:2 
-0.01295939532170508 0:4 1:27 2:17 3:5 4:0.51 5:9 6:6 7:0.2083 8:0.25 9:0.2024 10:0.2381 11:10 12:0.3053 13:9 14:0.25 15:1 16:0.2976 17:0.2619 18:0.22 19:0.22 20:0.1429 22:3 
-0.07421786631707587 0:2 1:8 2:15 3:5 4:0.51 5:9 6:6 7:0.2857 8:0.3333 9:0.2791 10:0.2093 11:33 12:0.3053 13:49 14:0.1429 15:1 16:0.2791 17:0.2326 18:0.22 19:0.22 20:0.3818 22:2 
-0.01765522911678121 0:5 1:20 2:18 3:4 4:0.38 5:6 6:6 7:0.3333 8:0.4583 9:0.25 10:0.1905 11:9 12:0.25 13:9 14:0.2083 15:3 16:0.2143 17:0.3452 18:0.29 19:0.2 20:0.4 22:2 
-0.002014994002094316 0:4 1:20 2:15 3:6 4:0.2949 5:4 6:3 7:0.1364 8:0.5 9:0.2949 10:0.1154 11:1 12:0.2083 13:1 14:0.2727 15:3 16:0.1795 17:0.4103 18:0.2949 19:0.1154 20:-1 22:5 
-0.007607701751600138 0:2 1:11 2:15 3:6 4:0.2949 5:4 6:3 7:0.1739 8:0.3043 9:0.3191 10:0.1277 11:17 12:0.2083 13:41 14:0.3043 15:3 16:0.1915 17:0.3617 18:0.2949 19:0.1154 20:0.1538 22:3 
-0.02444274675278368 0:3 1:17 2:11 3:4 4:0.42 5:9 6:5 7:0.2083 8:0.5 9:0.2353 10:0.2157 11:29 12:0.2188 13:50 14:0.1667 15:10 16:0.2353 17:0.3137 18:0.22 19:0.21 20:0.1176 
-0.01071586021494042 0:3 1:17 2:10 3:4 4:0.42 5:9 6:5 7:0.1739 8:0.4783 9:0.2222 10:0.2222 11:32 12:0.2188 13:48 14:0.2174 15:10 16:0.2444 17:0.3111 18:0.22 19:0.21 20:0.1 
-0.02945393242990178 0:7 1:15 2:19 3:11 4:0.466 5:2 6:8 7:0.2917 8:0.375 9:0.2667 10:0.2556 11:9 12:0.1848 13:75 14:0.2083 15:3 16:0.2222 17:0.2556 18:0.2718 19:0.2427 20:0.2 22:3 
-0.01100585412758204 0:6 1:13 2:19 3:11 4:0.466 5:2 6:8 7:0.2917 8:0.2917 9:0.2738 10:0.2619 11:11 12:0.1848 13:73 14:0.25 15:3 16:0.2262 17:0.2381 18:0.2718 19:0.2427 20:0.25 22:2 
-0.04931519500513866 0:6 1:11 2:18 3:4 4:0.37 5:2 6:8 7:0.2917 8:0.3333 9:0.2909 10:0.1455 11:25 12:0.1771 13:22 14:0.25 15:8 16:0.2 17:0.3636 18:0.29 19:0.16 20:0.1875 22:2 
-0.0007923771395720869 0:5 1:7 2:19 3:4 4:0.37 5:2 6:8 7:0.125 8:0.375 9:0.3061 10:0.1633 11:28 12:0.1771 13:50 14:0.3333 15:8 16:0.1837 17:0.3469 18:0.29 19:0.16 20:0.2632 22:2 
-0.05107334819637126 0:9 1:20 2:16 3:7 4:0.4158 5:2 6:8 7:0.375 8:0.2917 9:0.2759 10:0.2069 11:8 12:0.2021 13:8 14:0.2083 15:8 16:0.2414 17:0.2759 18:0.2772 19:0.2079 20:-1 22:1 
-0.01422252658209801 0:8 1:19 2:13 3:7 4:0.4158 5:2 6:8 7:0.2 8:0.3 9:0.2821 10:0.2179 11:13 12:0.2021 13:71 14:0.2 15:8 16:0.2436 17:0.2564 18:0.2772 19:0.2079 
-0.006778483716205541 0:9 1:28 2:10 3:7 4:0.4158 5:2 6:8 7:0.4 8:0.35 9:0.2737 10:0.2 11:4 12:0.2021 13:4 14:0.15 15:8 16:0.2211 17:0.3053 18:0.2772 19:0.2079 20:-1 22:1 
-0.00056041521739924 0:9 1:20 2:13 3:7 4:0.4158 5:2 6:8 7:0.45 8:0.2 9:0.2759 10:0.2069 11:8 12:0.2021 13:8 14:0.2 15:8 16:0.2414 17:0.2759 18:0.2772 19:0.2079 20:-1 22:1 
-0.004892750131561541 0:6 1:17 2:16 3:16 4:0.4688 5:4 6:6 7:0.3913 8:0.3043 9:0.2771 10:0.2048 11:8 12:0.2875 13:8 14:0.2174 15:1 16:0.241 17:0.2771 18:0.2604 19:0.2188 20:0.5 22:2 
-0.04398778436516645 0:6 1:21 2:15 3:16 4:0.4688 5:4 6:6 7:0.3333 8:0.1667 9:0.2874 10:0.1954 11:6 12:0.2875 13:69 14:0.125 15:1 16:0.2414 17:0.2759 18:0.2604 19:0.2188 20:0.25 22:2 
-0.01774786703662915 0:5 1:15 2:14 3:14 4:0.3908 5:3 6:4 7:0.2 8:0.55 9:0.2892 10:0.2289 11:3 12:0.1781 13:3 14:0.1 15:3 16:0.1807 17:0.3012 18:0.2874 19:0.2184 20:-1 22:1 
-0.008226306858500492 0:6 1:23 2:16 3:5 4:0.4149 5:5 6:5 7:0.1739 8:0.4783 9:0.2553 10:0.1702 11:1 12:0.191 13:72 14:0.1739 15:3 16:0.2447 17:0.3298 18:0.2553 19:0.1702 20:-1 22:4 
-0.01513590348008137 0:5 1:17 2:20 3:5 4:0.4149 5:5 6:5 7:0.2083 8:0.5 9:0.25 10:0.1591 11:4 12:0.191 13:68 14:0.125 15:3 16:0.25 17:0.3409 18:0.2553 19:0.1702 20:-1 22:4 
-0.01296934434327274 0:6 1:21 2:18 3:5 4:0.4149 5:5 6:5 7:0.1667 8:0.5 9:0.2391 10:0.1739 11:2 12:0.191 13:70 14:0.125 15:3 16:0.25 17:0.337 18:0.2553 19:0.1702 20:-1 22:4 
-0.06099652929253334 0:5 1:9 2:23 3:11 4:0.398 5:2 6:6 7:0.2917 8:0.2917 9:0.2955 10:0.1705 11:8 12:0.1149 13:8 14:0.25 15:4 16:0.2159 17:0.3182 18:0.2755 19:0.1939 20:0.2 22:4 
-0.04415337673435033 0:7 1:16 2:15 3:3 4:0.4699 5:2 6:6 7:0.3 8:0.45 9:0.2532 10:0.2532 11:3 12:0.175 13:62 15:3 16:0.2025 17:0.2911 18:0.253 19:0.2771 20:-1 22:1 
-0.5332219139241465 0:3 1:8 2:19 3:3 4:0.4699 5:2 6:6 7:0.125 8:0.3333 9:0.2857 10:0.2245 11:19 12:0.175 13:17 14:0.25 15:3 16:0.1633 17:0.3265 18:0.253 19:0.2771 20:0.2143 22:1 
-0.184923606660277 0:4 1:10 2:18 3:3 4:0.4699 5:2 6:6 7:0.2174 8:0.2609 9:0.2941 10:0.2353 11:18 12:0.175 13:44 14:0.3043 15:3 16:0.1569 17:0.3137 18:0.253 19:0.2771 20:0.1538 22:1 
-0.02063564794716082 0:6 1:12 2:15 3:7 4:0.4157 5:2 6:6 7:0.1 8:0.3 9:0.2785 10:0.2152 11:6 12:0.1463 13:65 14:0.3 15:3 16:0.2152 17:0.2911 18:0.2697 19:0.2135 22:2 
-0.07394985245350558 0:7 1:20 2:14 3:4 4:0.413 5:2 6:6 7:0.2 8:0.25 9:0.2609 10:0.1957 11:1 12:0.1591 13:73 14:0.25 15:3 16:0.2174 17:0.3261 18:0.2609 19:0.1957 20:-1 22:3 
-0.01097212757957404 0:5 1:12 2:17 3:9 4:0.4396 5:2 6:6 7:0.1 8:0.4 9:0.2353 10:0.1882 11:4 12:0.1585 13:69 14:0.15 15:1 16:0.2471 17:0.3294 18:0.2308 19:0.1868 20:0.2 22:4 
-0.005524888728795249 0:3 1:6 2:19 3:8 4:0.3494 5:7 6:4 7:0.2381 8:0.3333 9:0.2885 10:0.1923 11:18 12:0.2267 13:18 14:0.2857 15:3 16:0.1923 17:0.3269 18:0.2771 19:0.1807 20:0.44 22:1 
-0.04903299367943722 0:4 1:14 2:14 3:13 4:0.3511 5:4 6:4 7:0.35 8:0.4 9:0.2644 10:0.1724 11:4 12:0.1728 13:72 14:0.2 15:4 16:0.1724 17:0.3908 18:0.2872 19:0.1596 20:-1 22:3 
-0.005783286504867238 0:5 1:19 2:12 3:13 4:0.3511 5:4 6:4 7:0.3 8:0.35 9:0.2826 10:0.163 11:2 12:0.1728 13:74 14:0.3 15:4 16:0.1848 17:0.3696 18:0.2872 19:0.1596 20:-1 22:3 
-0.06464400099090323 0:5 1:7 2:21 3:12 4:0.3765 5:1 6:5 7:0.2083 8:0.2083 9:0.2963 10:0.1852 11:5 12:0.0959 13:5 14:0.375 15:4 16:0.1852 17:0.3333 18:0.2824 19:0.1765 20:-1 22:1 
-0.0009437114566156058 0:5 1:7 2:17 3:12 4:0.3765 5:1 6:5 7:0.3 8:0.45 9:0.2963 10:0.1852 11:1 12:0.0959 13:66 14:0.1 15:4 16:0.1852 17:0.3333 18:0.2824 19:0.1765 20:-1 22:1 
-0.1341803449216808 0:5 1:7 2:21 3:12 4:0.3765 5:1 6:5 7:0.25 8:0.375 9:0.2963 10:0.1852 11:1 12:0.0959 13:62 14:0.1667 15:4 16:0.1852 17:0.3333 18:0.2824 19:0.1765 20:-1 22:1 
-0.005255231567374407 0:8 1:18 2:19 3:5 4:0.3663 5:3 6:7 7:0.2083 8:0.3333 9:0.2784 10:0.1959 11:3 12:0.1562 13:3 14:0.2917 15:5 16:0.1649 17:0.3608 18:0.2772 19:0.198 20:-1 22:1 
-0.01591143007628931 0:5 1:17 2:17 3:11 4:0.4554 5:3 6:5 7:0.3333 8:0.2083 9:0.2262 10:0.2738 11:11 12:0.1889 13:68 14:0.2083 15:8 16:0.2024 17:0.2976 18:0.2673 19:0.2673 22:3 
-0.1051934929430951 0:6 1:28 2:11 3:11 4:0.4554 5:3 6:5 7:0.3333 8:0.0833 9:0.2525 10:0.2727 11:2 12:0.1889 13:77 14:0.3333 15:8 16:0.1919 17:0.2828 18:0.2673 19:0.2673 20:-1 22:4 
-0.07790421242916827 0:5 1:20 2:18 3:12 4:0.375 5:2 6:4 7:0.125 8:0.375 9:0.2708 10:0.1667 11:1 12:0.131 13:73 14:0.3333 15:7 16:0.2083 17:0.3542 18:0.2708 19:0.1667 20:-1 22:5 
-0.01041333043802828 0:7 1:16 2:16 3:10 4:0.4062 5:2 6:6 7:0.1667 8:0.2917 9:0.3125 10:0.2188 11:1 12:0.1163 13:1 14:0.25 15:5 16:0.1875 17:0.2812 18:0.3125 19:0.2188 20:-1 22:1 
-0.08208880055171558 0:6 1:10 2:22 3:10 4:0.4062 5:2 6:6 7:0.2083 8:0.2917 9:0.3 10:0.2222 11:2 12:0.1163 13:72 14:0.3333 15:5 16:0.1889 17:0.2889 18:0.3125 19:0.2188 20:-1 22:1 
-0.004758012075494889 0:6 1:19 2:13 3:4 4:0.4257 5:4 6:6 7:0.35 8:0.35 9:0.1867 10:0.1867 11:15 12:0.1959 13:13 14:0.25 15:9 16:0.2533 17:0.3733 18:0.2277 19:0.2079 22:4 
-0.02803526313772691 0:6 1:23 2:13 3:3 4:0.48 5:4 6:6 7:0.3 8:0.4 9:0.2292 10:0.25 11:4 12:0.2371 13:2 14:0.1 15:2 16:0.2292 17:0.2917 18:0.23 19:0.25 22:4 
-0.04113751131008504 0:6 1:12 2:20 3:13 4:0.396 5:1 6:5 7:0.375 8:0.25 9:0.2706 10:0.2 11:9 12:0.0909 13:9 14:0.2083 15:11 16:0.2 17:0.3294 18:0.2772 19:0.2178 20:-1 22:4 
-0.0352927480352704 0:6 1:14 2:19 3:13 4:0.396 5:1 6:5 7:0.3333 8:0.2917 9:0.2759 10:0.1954 11:8 12:0.0909 13:8 14:0.2083 15:11 16:0.1954 17:0.3333 18:0.2772 19:0.2178 20:-1 22:4 
-0.0256968083899904 0:7 1:22 2:13 3:5 4:0.3762 5:2 6:6 7:0.1818 8:0.5 9:0.2871 10:0.1782 11:1 12:0.1042 13:1 14:0.0909 15:8 16:0.198 17:0.3366 18:0.2871 19:0.1782 20:-1 22:3 
-0.002289530661026897 0:7 1:18 2:16 3:5 4:0.3762 5:2 6:6 7:0.1667 8:0.5417 9:0.2887 10:0.1649 11:3 12:0.1042 13:3 14:0.0833 15:8 16:0.2062 17:0.3402 18:0.2871 19:0.1782 20:-1 22:3 
-0.04313434149992523 0:4 1:20 2:13 3:8 4:0.4356 5:3 6:4 7:0.35 8:0.2 9:0.1757 10:0.2297 11:16 12:0.2151 13:70 14:0.1 15:13 16:0.2568 17:0.3378 18:0.1881 19:0.2178 22:4 
-0.04758400420005575 0:4 1:10 2:15 3:5 4:0.5347 5:4 6:10 7:0.2381 8:0.1905 9:0.2 10:0.2667 11:31 12:0.2708 13:51 14:0.1429 15:7 16:0.2444 17:0.2889 18:0.2079 19:0.2673 20:0.3636 22:1 
-0.01566580608936266 0:10 1:26 2:13 3:5 4:0.5347 5:4 6:10 7:0.3333 8:0.2857 9:0.1724 10:0.2644 11:9 12:0.2708 13:73 14:0.0952 15:7 16:0.2874 17:0.2759 18:0.2079 19:0.2673 22:2 
-0.04642256926230524 0:5 1:17 2:17 3:15 4:0.4257 5:2 6:5 7:0.2917 8:0.0833 9:0.3 10:0.25 11:12 12:0.1977 13:68 14:0.4167 15:7 16:0.225 17:0.225 18:0.3168 19:0.198 22:1 
-0.04841773594589013 0:5 1:17 2:15 3:15 4:0.4257 5:2 6:5 7:0.2609 8:0.087 9:0.3026 10:0.25 11:14 12:0.1977 13:67 14:0.4348 15:7 16:0.2237 17:0.2237 18:0.3168 19:0.198 22:1 
-0.04055276416593647 0:6 1:20 2:13 3:15 4:0.4257 5:2 6:5 7:0.15 8:0.2 9:0.2967 10:0.2198 11:6 12:0.1977 13:77 14:0.5 15:7 16:0.2198 17:0.2637 18:0.3168 19:0.198 20:-1 22:2 
-0.00160640516577674 0:6 1:22 2:19 3:3 4:0.4257 5:5 6:6 7:0.2083 8:0.2083 9:0.2967 10:0.1978 11:6 12:0.2245 13:73 14:0.3333 15:5 16:0.2308 17:0.2747 18:0.3168 19:0.2079 20:-1 22:2 
-0.1107496611583884 0:2 1:5 2:14 3:10 4:0.4356 5:2 6:5 7:0.25 8:0.3 9:0.3256 10:0.2326 11:33 12:0.1209 13:31 14:0.25 15:10 16:0.1628 17:0.2791 18:0.2772 19:0.2277 20:0.1429 
-0.006301478827359458 0:5 1:11 2:16 3:10 4:0.4356 5:2 6:5 7:0.4 8:0.25 9:0.2892 10:0.1928 11:12 12:0.1209 13:75 14:0.3 15:10 16:0.2289 17:0.2892 18:0.2772 19:0.2277 22:3 
-0.01498672364409802 0:5 1:15 2:18 3:11 4:0.4231 5:3 6:4 7:0.2083 8:0.3333 9:0.2179 10:0.1923 11:1 12:0.1493 13:55 14:0.1667 15:3 16:0.2308 17:0.359 18:0.2179 19:0.1923 20:-1 22:3 
-0.1868066591817442 0:5 1:14 2:16 3:6 4:0.4851 5:4 6:7 7:0.0455 8:0.3182 9:0.2222 10:0.2917 11:18 12:0.2842 13:17 14:0.1818 15:5 16:0.2778 17:0.2083 18:0.2574 19:0.2475 20:0.5652 
-0.002521987253144453 0:2 1:12 2:12 3:5 4:0.3913 5:4 6:3 7:0.1905 8:0.4762 9:0.1951 10:0.1463 11:15 12:0.2188 13:35 14:0.1429 15:3 16:0.2195 17:0.439 18:0.2029 19:0.1594 20:0.0909 22:3 
-0.009080280336794148 0:5 1:14 2:14 3:6 4:0.5149 5:4 6:5 7:0.55 8:0.1 9:0.1974 10:0.2368 11:14 12:0.1474 13:14 14:0.15 15:10 16:0.3158 17:0.25 18:0.2079 19:0.2475 22:4 
-0.01212188147198309 0:6 1:21 2:12 3:3 4:0.4554 5:4 6:7 7:0.2 8:0.3 9:0.2027 10:0.2162 11:16 12:0.3061 13:67 14:0.15 15:3 16:0.2432 17:0.3378 18:0.2376 19:0.2376 20:0.3913 22:3 
-0.01268354495915833 0:7 1:28 2:13 3:3 4:0.4554 5:4 6:7 7:0.3 8:0.25 9:0.2308 10:0.2308 11:7 12:0.3061 13:76 14:0.35 15:3 16:0.2198 17:0.3187 18:0.2376 19:0.2376 20:0.3333 22:3 
-0.002398017876006493 0:8 1:26 2:13 3:8 4:0.4257 5:4 6:8 7:0.2 8:0.35 9:0.27 10:0.2 11:1 12:0.2796 13:82 14:0.3 15:1 16:0.22 17:0.31 18:0.2673 19:0.2079 20:-1 22:3 
-0.03384874163101533 0:9 1:27 2:16 3:8 4:0.4257 5:4 6:8 7:0.1739 8:0.2609 9:0.2673 10:0.2079 11:1 12:0.2796 13:1 14:0.3043 15:1 16:0.2178 17:0.3069 18:0.2673 19:0.2079 20:-1 22:3 
-0.04321768222631316 0:8 1:26 2:18 3:8 4:0.4257 5:4 6:8 7:0.2083 8:0.25 9:0.27 10:0.2 11:2 12:0.2796 13:2 14:0.3333 15:1 16:0.22 17:0.31 18:0.2673 19:0.2079 20:-1 22:3 
-0.02219295623333684 0:6 1:27 2:15 3:4 4:0.4356 5:2 6:5 7:0.25 8:0.25 9:0.2737 10:0.1684 11:4 12:0.1546 13:4 14:0.2917 15:9 16:0.2632 17:0.2947 18:0.2772 19:0.1881 20:-1 22:4 
-0.01200445727446981 0:7 1:20 2:20 3:6 4:0.5446 5:4 6:7 7:0.4167 8:0.25 9:0.1977 10:0.2442 11:9 12:0.2737 13:9 14:0.125 15:2 16:0.314 17:0.2442 18:0.2178 19:0.2277 20:0.5 22:6 
-0.02734922228386932 0:5 1:18 2:16 3:6 4:0.5446 5:4 6:7 7:0.4545 8:0.1818 9:0.2083 10:0.2361 11:17 12:0.2737 13:16 14:0.1364 15:2 16:0.3194 17:0.2361 18:0.2178 19:0.2277 20:0.3077 22:6 
-0.02829646133194681 0:5 1:30 2:12 3:5 4:0.4356 5:4 6:4 7:0.2174 8:0.3478 9:0.2277 10:0.2079 11:1 12:0.1562 13:1 14:0.1304 15:8 16:0.2277 17:0.3366 18:0.2277 19:0.2079 20:-1 22:5 
-0.002657516600830291 0:3 1:14 2:20 3:6 4:0.4653 5:4 6:5 7:0.1739 8:0.2609 9:0.25 10:0.1625 11:13 12:0.1789 13:71 14:0.2609 15:4 16:0.2875 17:0.3 18:0.2277 19:0.1584 20:0.1765 22:6 
-0.1425650853471517 0:1 1:8 2:17 3:6 4:0.4653 5:4 6:5 7:0.2381 8:0.2381 9:0.2885 10:0.1346 11:28 12:0.1789 13:59 14:0.3333 15:4 16:0.2692 17:0.3077 18:0.2277 19:0.1584 20:0.2 22:5 
-0.001863029891368717 0:4 1:10 2:20 3:12 4:0.4359 5:2 6:3 7:0.3333 8:0.4583 9:0.3026 10:0.2368 11:2 12:0.0909 13:2 14:0.0417 15:3 16:0.2105 17:0.25 18:0.3205 19:0.2308 20:-1 22:1 
-0.08629380675162558 0:2 1:4 2:18 3:12 4:0.4359 5:2 6:3 7:0.2083 8:0.2917 9:0.2885 10:0.2692 11:14 12:0.0909 13:14 14:0.25 15:3 16:0.1923 17:0.25 18:0.3205 19:0.2308 20:0.1 22:1 
-0.06273297807354145 0:5 1:19 2:16 3:15 4:0.4348 5:2 6:4 7:0.0435 8:0.5652 9:0.2391 10:0.2391 11:1 12:0.1558 13:1 14:0.1304 15:4 16:0.1957 17:0.3261 18:0.2391 19:0.2391 20:-1 22:2 
-0.0009674223294565687 0:2 1:2 2:18 3:12 4:0.4227 5:2 6:5 7:0.2273 8:0.2727 9:0.28 10:0.22 11:26 12:0.1412 13:26 14:0.3182 15:3 16:0.22 17:0.28 18:0.2577 19:0.2062 20:0.2273 22:3 
-0.3320410757696795 0:4 1:8 2:16 3:12 4:0.4227 5:2 6:5 7:0.15 8:0.3 9:0.25 10:0.2125 11:11 12:0.1412 13:11 14:0.3 15:3 16:0.25 17:0.2875 18:0.2577 19:0.2062 20:0.2857 22:5 
-0.7862437576016612 0:2 1:10 2:17 3:4 4:0.439 5:7 6:5 7:0.3 8:0.2 9:0.3125 10:0.1667 11:18 12:0.2051 13:18 14:0.4 15:3 16:0.2083 17:0.3125 18:0.2439 19:0.1951 20:0.2143 22:4 
-0.009440988504118111 0:6 1:22 2:15 3:4 4:0.439 5:7 6:5 7:0.2857 8:0.3333 9:0.2439 10:0.1951 11:1 12:0.2051 13:1 14:0.1429 15:3 16:0.2439 17:0.3171 18:0.2439 19:0.1951 20:-1 22:7 
-0.03285632555889988 0:6 1:18 2:16 3:4 4:0.439 5:7 6:5 7:0.25 8:0.3 9:0.2564 10:0.1923 11:3 12:0.2051 13:61 14:0.25 15:3 16:0.2564 17:0.2949 18:0.2439 19:0.1951 20:-1 22:7 
-0.02658795770641451 0:4 1:31 2:11 3:4 4:0.3939 5:6 6:4 7:0.1 8:0.35 9:0.2632 10:0.1895 11:2 12:0.3263 13:79 14:0.2 15:3 16:0.2105 17:0.3368 18:0.2828 19:0.1919 20:-1 22:3 
-0.01208202381364984 0:4 1:31 2:11 3:4 4:0.3939 5:6 6:4 7:0.3 8:0.3 9:0.2632 10:0.1895 11:4 12:0.3263 13:4 14:0.3 15:3 16:0.2105 17:0.3368 18:0.2828 19:0.1919 20:-1 22:3 
-0.01864522550715035 0:4 1:25 2:16 3:4 4:0.3939 5:6 6:4 7:0.3478 8:0.3043 9:0.2353 10:0.1882 11:9 12:0.3263 13:9 14:0.1304 15:3 16:0.2235 17:0.3529 18:0.2828 19:0.1919 20:0.6 22:3 
-0.05800439425507518 0:4 1:31 2:15 3:4 4:0.3939 5:6 6:4 7:0.25 8:0.2917 9:0.2637 10:0.1868 11:6 12:0.3263 13:6 14:0.25 15:3 16:0.2088 17:0.3407 18:0.2828 19:0.1919 22:3 
-0.019349278169783 0:3 1:23 2:14 3:4 4:0.3939 5:6 6:4 7:0.2 8:0.35 9:0.2405 10:0.1772 11:12 12:0.3263 13:71 14:0.2 15:3 16:0.2278 17:0.3544 18:0.2828 19:0.1919 20:0.5 22:3 
-0.07724220276698977 0:3 1:4 2:19 3:7 4:0.4653 5:5 6:6 7:0.1364 8:0.2727 9:0.3061 10:0.2245 11:31 12:0.2128 13:54 14:0.2727 15:5 16:0.1837 17:0.2857 18:0.2277 19:0.2475 20:0.3478 22:1 
-0.08262110789632295 0:6 1:18 2:20 3:13 4:0.3663 5:4 6:6 7:0.2083 8:0.2917 9:0.2472 10:0.1461 11:8 12:0.2045 13:71 14:0.375 15:3 16:0.2022 17:0.4045 18:0.2475 19:0.1683 22:3 
-0.008766576498746488 0:6 1:18 2:20 3:13 4:0.3663 5:4 6:6 7:0.2083 8:0.2917 9:0.2474 10:0.1546 11:4 12:0.2045 13:75 14:0.2917 15:3 16:0.2062 17:0.3918 18:0.2475 19:0.1683 20:-1 22:3 
-0.001969923258378137 0:6 1:29 2:10 3:5 4:0.51 5:9 6:6 7:0.3 8:0.35 9:0.2128 10:0.2234 11:4 12:0.3053 13:78 14:0.2 15:1 16:0.2872 17:0.2766 18:0.22 19:0.22 22:4 
-0.03033481485610413 0:6 1:32 2:15 3:4 4:0.42 5:9 6:5 7:0.2 8:0.35 9:0.2292 10:0.2083 11:3 12:0.2188 13:3 14:0.25 15:10 16:0.2188 17:0.3438 18:0.22 19:0.21 20:-1 22:2 
-0.04834674539251629 0:3 1:11 2:14 3:4 4:0.45 5:3 6:6 7:0.55 8:0.3 9:0.2326 10:0.2326 11:34 12:0.1979 13:30 14:0.15 15:7 16:0.3023 17:0.2326 18:0.25 19:0.19 20:0.1667 22:3 
-0.009831457088121462 0:2 1:10 2:14 3:10 4:0.44 5:4 6:5 7:0.0833 8:0.1667 9:0.4167 10:0.1875 11:31 12:0.1889 13:51 14:0.4583 15:4 16:0.1667 17:0.2292 18:0.32 19:0.22 20:0.1489 
-0.008175898379311248 0:6 1:12 2:18 3:7 4:0.4301 5:4 6:6 7:0.35 8:0.3 9:0.2299 10:0.1954 11:4 12:0.1395 13:71 14:0.15 15:3 16:0.2184 17:0.3563 18:0.2151 19:0.2258 20:-1 22:5 
-0.03277616047700124 0:7 1:15 2:16 3:11 4:0.466 5:2 6:8 7:0.35 8:0.35 9:0.2667 10:0.2556 11:9 12:0.1848 13:79 14:0.2 15:3 16:0.2222 17:0.2556 18:0.2718 19:0.2427 20:0.2 22:3 
-0.01022773598308694 0:7 1:15 2:19 3:11 4:0.466 5:2 6:8 7:0.3043 8:0.3043 9:0.266 10:0.2553 11:7 12:0.1848 13:78 14:0.2609 15:3 16:0.2234 17:0.2553 18:0.2718 19:0.2427 20:0.3333 22:3 
-0.04616594569495665 0:9 1:18 2:17 3:4 4:0.37 5:2 6:8 7:0.1667 8:0.375 9:0.2614 10:0.1705 11:8 12:0.1771 13:70 14:0.2083 15:8 16:0.2386 17:0.3295 18:0.29 19:0.16 20:-1 22:2 
-0.03090580387045072 0:9 1:28 2:10 3:7 4:0.4158 5:2 6:8 7:0.4 8:0.35 9:0.2737 10:0.2 11:4 12:0.2021 13:4 14:0.15 15:8 16:0.2211 17:0.3053 18:0.2772 19:0.2079 20:-1 22:1 
-0.007198790852385093 0:9 1:22 2:16 3:7 4:0.4158 5:2 6:8 7:0.2083 8:0.2917 9:0.2809 10:0.2135 11:7 12:0.2021 13:72 14:0.2083 15:8 16:0.236 17:0.2697 18:0.2772 19:0.2079 20:-1 22:1 
-0.004502980448490208 0:6 1:23 2:12 3:16 4:0.4688 5:4 6:6 7:0.3333 8:0.2857 9:0.2809 10:0.2135 11:5 12:0.2875 13:5 14:0.2381 15:1 16:0.236 17:0.2697 18:0.2604 19:0.2188 22:2 
-0.0823320573161769 0:6 1:23 2:14 3:16 4:0.4688 5:4 6:6 7:0.375 8:0.1667 9:0.2747 10:0.2198 11:4 12:0.2875 13:71 14:0.125 15:1 16:0.2418 17:0.2637 18:0.2604 19:0.2188 22:2 
-0.00291756931684585 0:7 1:24 2:14 3:16 4:0.4688 5:4 6:6 7:0.375 8:0.25 9:0.2604 10:0.2188 11:1 12:0.2875 13:1 14:0.2083 15:1 16:0.25 17:0.2708 18:0.2604 19:0.2188 20:-1 22:3 
-0.05364352033926623 0:6 1:17 2:16 3:16 4:0.4688 5:4 6:6 7:0.3913 8:0.3043 9:0.2771 10:0.2048 11:8 12:0.2875 13:8 14:0.2174 15:1 16:0.241 17:0.2771 18:0.2604 19:0.2188 20:0.5 22:2 
-0.2818057120684581 0:4 1:13 2:19 3:5 4:0.4149 5:5 6:5 7:0.2273 8:0.2273 9:0.2568 10:0.1757 11:11 12:0.191 13:11 14:0.3182 15:3 16:0.2568 17:0.3108 18:0.2553 19:0.1702 20:0.2857 22:3 
-0.08331617604631077 0:7 1:18 2:20 3:3 4:0.4699 5:2 6:6 7:0.2083 8:0.0833 9:0.2469 10:0.2716 11:2 12:0.175 13:2 14:0.375 15:3 16:0.1975 17:0.284 18:0.253 19:0.2771 20:-1 22:1 
-0.005506227697164081 0:7 1:18 2:16 3:3 4:0.4699 5:2 6:6 7:0.2 8:0.05 9:0.2469 10:0.2716 11:2 12:0.175 13:2 14:0.4 15:3 16:0.1975 17:0.284 18:0.253 19:0.2771 20:-1 22:1 
-0.007012384755713259 0:7 1:18 2:18 3:3 4:0.4699 5:2 6:6 7:0.25 8:0.375 9:0.2469 10:0.2716 11:2 12:0.175 13:59 14:0.0833 15:3 16:0.1975 17:0.284 18:0.253 19:0.2771 20:-1 22:1 
-0.03745307552962329 0:7 1:15 2:18 3:4 4:0.45 5:3 6:7 7:0.2609 8:0.2174 9:0.2048 10:0.253 11:7 12:0.1562 13:72 14:0.2174 15:11 16:0.241 17:0.3012 18:0.25 19:0.22 20:-1 22:4 
-0.04371311448719036 0:6 1:19 2:16 3:11 4:0.5125 5:2 6:5 7:0.3913 8:0.1739 9:0.2 10:0.3 11:1 12:0.1884 13:58 14:0.2609 15:3 16:0.2125 17:0.2875 18:0.2 19:0.3 20:-1 22:2 
-0.08399620750861966 0:4 1:9 2:14 3:4 4:0.413 5:2 6:6 7:0.2381 8:0.381 9:0.2195 10:0.1951 11:27 12:0.1591 13:46 14:0.2381 15:3 16:0.2683 17:0.3171 18:0.2609 19:0.1957 20:0.1111 22:2 
-0.9682238750743066 0:4 1:9 2:19 3:4 4:0.413 5:2 6:6 7:0.2917 8:0.3333 9:0.2549 10:0.1765 11:22 12:0.1591 13:21 14:0.2083 15:3 16:0.2353 17:0.3333 18:0.2609 19:0.1957 20:0.1429 22:2 
-0.01243865244959992 0:5 1:12 2:20 3:7 4:0.3506 5:4 6:5 7:0.1667 8:0.375 9:0.2817 10:0.1408 11:4 12:0.1714 13:51 14:0.375 15:1 16:0.1972 17:0.3803 18:0.2857 19:0.1558 22:4 
-0.009589097883745925 0:4 1:12 2:15 3:5 4:0.451 5:3 6:7 7:0.1429 8:0.3333 9:0.2745 10:0.1961 11:28 12:0.1649 13:57 14:0.1429 15:4 16:0.2353 17:0.2941 18:0.2353 19:0.1961 20:0.0909 22:1 
-0.00175102819663131 0:5 1:11 2:20 3:10 4:0.4091 5:2 6:6 7:0.1667 8:0.3333 9:0.2533 10:0.24 11:8 12:0.1667 13:59 14:0.0833 15:3 16:0.2 17:0.3067 18:0.2727 19:0.2273 20:0.25 22:1 
-0.03091388809926354 0:4 1:10 2:19 3:11 4:0.3373 5:2 6:4 7:0.2727 8:0.5 9:0.2958 10:0.1268 11:7 12:0.1389 13:56 14:0.1364 15:3 16:0.2113 17:0.3662 18:0.2892 19:0.1446 22:4 
-0.04611546359766704 0:3 1:8 2:13 3:9 4:0.4396 5:2 6:6 7:0.2727 8:0.2273 9:0.2791 10:0.1395 11:27 12:0.1585 13:45 14:0.4091 15:1 16:0.2093 17:0.3721 18:0.2308 19:0.1868 20:0.1064 
-0.01296127927507121 0:5 1:21 2:11 3:13 4:0.3511 5:4 6:4 7:0.3 8:0.25 9:0.2872 10:0.1596 11:1 12:0.1728 13:1 14:0.25 15:4 16:0.1915 17:0.3617 18:0.2872 19:0.1596 20:-1 22:3 
-0.2548307196676175 0:4 1:5 2:18 3:12 4:0.3765 5:1 6:5 7:0.25 8:0.25 9:0.3014 10:0.1781 11:9 12:0.0959 13:9 14:0.35 15:4 16:0.1918 17:0.3288 18:0.2824 19:0.1765 20:0.25 22:1 
-0.1696333084447591 0:4 1:14 2:16 3:11 4:0.4554 5:3 6:5 7:0.3043 8:0.3043 9:0.2329 10:0.2466 11:17 12:0.1889 13:63 14:0.1739 15:8 16:0.2055 17:0.3151 18:0.2673 19:0.2673 20:0.2 22:3 
-0.07050632710535827 0:6 1:20 2:11 3:11 4:0.4554 5:3 6:5 7:0.4 8:0.1 9:0.2308 10:0.2747 11:6 12:0.1889 13:77 14:0.3 15:8 16:0.2088 17:0.2857 18:0.2673 19:0.2673 20:-1 22:4 
-0.2866824159060184 0:3 1:7 2:16 3:12 4:0.375 5:2 6:4 7:0.2917 8:0.375 9:0.2549 10:0.2157 11:26 12:0.131 13:26 14:0.2083 15:7 16:0.1765 17:0.3529 18:0.2708 19:0.1667 20:0.1111 22:2 
-0.1343722765539944 0:5 1:9 2:18 3:10 4:0.4062 5:2 6:6 7:0.2 8:0.35 9:0.3012 10:0.2169 11:10 12:0.1163 13:10 14:0.25 15:5 16:0.1928 17:0.2892 18:0.3125 19:0.2188 20:0.1429 22:1 
-0.006956190621930742 0:5 1:9 2:22 3:10 4:0.4062 5:2 6:6 7:0.1667 8:0.2917 9:0.3012 10:0.2169 11:10 12:0.1163 13:10 14:0.3333 15:5 16:0.1928 17:0.2892 18:0.3125 19:0.2188 20:0.1429 22:1 
-0.005022760686879013 0:5 1:9 2:18 3:10 4:0.4062 5:2 6:6 7:0.15 8:0.35 9:0.3012 10:0.2169 11:9 12:0.1163 13:73 14:0.3 15:5 16:0.1928 17:0.2892 18:0.3125 19:0.2188 20:0.1429 22:1 
-0.002040669247598009 0:7 1:25 2:17 3:4 4:0.4257 5:4 6:6 7:0.2917 8:0.25 9:0.1978 10:0.2088 11:6 12:0.1959 13:6 14:0.3333 15:9 16:0.2308 17:0.3626 18:0.2277 19:0.2079 20:-1 22:5 
-0.06732970916753546 0:6 1:17 2:14 3:3 4:0.48 5:4 6:6 7:0.15 8:0.05 9:0.2159 10:0.2386 11:8 12:0.2371 13:74 14:0.45 15:2 16:0.2386 17:0.3068 18:0.23 19:0.25 20:0.6 22:4 
-0.001926827858543201 0:6 1:21 2:18 3:3 4:0.48 5:4 6:6 7:0.25 8:0.4583 9:0.2174 10:0.25 11:6 12:0.2371 13:4 14:0.0833 15:2 16:0.2283 17:0.3043 18:0.23 19:0.25 20:0.3333 22:4 
-0.2762834956588282 0:4 1:12 2:20 3:3 4:0.48 5:4 6:6 7:0.3043 8:0.4783 9:0.2152 10:0.2278 11:12 12:0.2371 13:10 14:0.087 15:2 16:0.2532 17:0.3038 18:0.23 19:0.25 20:0.5789 22:4 
-0.009565031970914087 0:5 1:8 2:21 3:13 4:0.396 5:1 6:5 7:0.375 8:0.2917 9:0.2468 10:0.1948 11:14 12:0.0909 13:12 14:0.1667 15:11 16:0.2208 17:0.3377 18:0.2772 19:0.2178 22:4 
-0.01032407553749376 0:5 1:8 2:17 3:13 4:0.396 5:1 6:5 7:0.15 8:0.3 9:0.2593 10:0.1852 11:12 12:0.0909 13:71 14:0.3 15:11 16:0.2099 17:0.3457 18:0.2772 19:0.2178 20:-1 22:4 
-0.1627514487641191 0:5 1:8 2:19 3:13 4:0.396 5:1 6:5 7:0.1818 8:0.3182 9:0.2466 10:0.1918 11:16 12:0.0909 13:65 14:0.2727 15:11 16:0.2192 17:0.3425 18:0.2772 19:0.2178 22:4 
-0.005787910353573029 0:2 1:3 2:17 3:13 4:0.396 5:1 6:5 7:0.0833 8:0.375 9:0.24 10:0.16 11:28 12:0.0909 13:51 14:0.2917 15:11 16:0.2 17:0.4 18:0.2772 19:0.2178 20:0.1613 22:3 
-0.006962350604121393 0:6 1:12 2:14 3:13 4:0.396 5:1 6:5 7:0.15 8:0.2 9:0.2706 10:0.2 11:9 12:0.0909 13:74 14:0.35 15:11 16:0.2 17:0.3294 18:0.2772 19:0.2178 20:-1 22:4 
-0.06165504988480433 0:5 1:8 2:21 3:13 4:0.396 5:1 6:5 7:0.375 8:0.2917 9:0.2593 10:0.1852 11:10 12:0.0909 13:10 14:0.1667 15:11 16:0.2099 17:0.3457 18:0.2772 19:0.2178 20:-1 22:4 
-0.002811709027162703 0:8 1:22 2:16 3:9 4:0.4356 5:2 6:7 7:0.375 8:0.375 9:0.2473 10:0.1935 11:5 12:0.1848 13:5 14:0.2083 15:7 16:0.2473 17:0.3118 18:0.2475 19:0.198 20:-1 22:4 
-0.01037884285783471 0:7 1:22 2:14 3:5 4:0.3762 5:2 6:6 7:0.1667 8:0.5 9:0.2871 10:0.1782 11:1 12:0.1042 13:1 14:0.0833 15:8 16:0.198 17:0.3366 18:0.2871 19:0.1782 20:-1 22:3 
-0.05382380659184265 0:6 1:10 2:18 3:5 4:0.3762 5:2 6:6 7:0.15 8:0.6 9:0.2921 10:0.1798 11:9 12:0.1042 13:9 15:8 16:0.2022 17:0.3258 18:0.2871 19:0.1782 20:-1 22:3 
-0.4001441427947627 0:5 1:9 2:19 3:5 4:0.3762 5:2 6:6 7:0.1364 8:0.5909 9:0.3243 10:0.1622 11:17 12:0.1042 13:16 14:0.0909 15:8 16:0.1757 17:0.3378 18:0.2871 19:0.1782 20:0.0667 22:2 
-0.004417700793400647 0:3 1:7 2:14 3:7 4:0.4554 5:3 6:7 7:0.0952 8:0.2857 9:0.4048 10:0.1429 11:32 12:0.234 13:53 14:0.381 15:1 16:0.1667 17:0.2857 18:0.297 19:0.2277 20:0.2632 22:2 
-0.04067482891682015 0:5 1:22 2:15 3:8 4:0.4356 5:3 6:4 7:0.2917 8:0.25 9:0.175 10:0.225 11:12 12:0.2151 13:12 14:0.25 15:13 16:0.25 17:0.35 18:0.1881 19:0.2178 20:-1 22:4 
-0.06877435684609677 0:4 1:20 2:12 3:8 4:0.4356 5:3 6:4 7:0.35 8:0.25 9:0.1806 10:0.2222 11:17 12:0.2151 13:17 14:0.25 15:13 16:0.25 17:0.3472 18:0.1881 19:0.2178 22:4 
-0.07866698451356496 0:4 1:20 2:13 3:8 4:0.4356 5:3 6:4 7:0.35 8:0.2 9:0.1795 10:0.2308 11:11 12:0.2151 13:72 14:0.1 15:13 16:0.2564 17:0.3333 18:0.1881 19:0.2178 20:-1 22:4 
-0.03443431015818149 0:9 1:25 2:14 3:5 4:0.5347 5:4 6:10 7:0.2609 8:0.3913 9:0.175 10:0.25 11:13 12:0.2708 13:67 14:0.087 15:7 16:0.275 17:0.3 18:0.2079 19:0.2673 20:0.1111 22:2 
-0.01813609955126998 0:5 1:17 2:15 3:15 4:0.4257 5:2 6:5 7:0.2727 8:0.3182 9:0.3026 10:0.25 11:14 12:0.1977 13:14 14:0.1818 15:7 16:0.2237 17:0.2237 18:0.3168 19:0.198 22:1 
-0.01081653239872794 0:6 1:22 2:13 3:15 4:0.4257 5:2 6:5 7:0.15 8:0.15 9:0.3011 10:0.2151 11:5 12:0.1977 13:78 14:0.55 15:7 16:0.2258 17:0.2581 18:0.3168 19:0.198 20:-1 22:2 
-0.01952899896130458 0:6 1:24 2:15 3:15 4:0.4257 5:2 6:5 7:0.25 8:0.5 9:0.3053 10:0.2105 11:4 12:0.1977 13:4 14:0.125 15:7 16:0.2211 17:0.2632 18:0.3168 19:0.198 20:-1 22:2 
-0.02487613015117843 0:6 1:22 2:13 3:15 4:0.4257 5:2 6:5 7:0.25 8:0.45 9:0.3011 10:0.2151 11:5 12:0.1977 13:5 14:0.15 15:7 16:0.2258 17:0.2581 18:0.3168 19:0.198 20:-1 22:2 
-0.04903804471884887 0:7 1:24 2:19 3:3 4:0.4257 5:5 6:6 7:0.2083 8:0.2083 9:0.3118 10:0.1935 11:5 12:0.2245 13:74 14:0.3333 15:5 16:0.2258 17:0.2688 18:0.3168 19:0.2079 20:-1 22:2 
-0.01947271156705366 0:8 1:26 2:16 3:4 4:0.4752 5:3 6:7 7:0.3333 8:0.25 9:0.2326 10:0.2093 11:10 12:0.2577 13:10 14:0.1667 15:10 16:0.2674 17:0.2907 18:0.2673 19:0.2079 20:-1 22:3 
-0.04075986535103424 0:8 1:29 2:10 3:4 4:0.4752 5:3 6:7 7:0.3 8:0.2 9:0.236 10:0.2135 11:7 12:0.2577 13:7 14:0.2 15:10 16:0.2584 17:0.2921 18:0.2673 19:0.2079 20:-1 22:3 
-0.1032939488932511 0:7 1:25 2:12 3:4 4:0.4752 5:3 6:7 7:0.25 8:0.25 9:0.2278 10:0.2025 11:14 12:0.2577 13:73 14:0.25 15:10 16:0.2658 17:0.3038 18:0.2673 19:0.2079 22:3 
-0.08088914968572319 0:3 1:7 2:18 3:10 4:0.4356 5:2 6:5 7:0.25 8:0.2 9:0.3014 10:0.1918 11:18 12:0.1209 13:69 14:0.4 15:10 16:0.2055 17:0.3014 18:0.2772 19:0.2277 20:0.3333 22:3 
-0.1753411064348475 0:4 1:10 2:19 3:11 4:0.4231 5:3 6:4 7:0.1364 8:0.3636 9:0.2394 10:0.1972 11:5 12:0.1493 13:53 14:0.1818 15:3 16:0.2254 17:0.338 18:0.2179 19:0.1923 22:3 
-0.01461195135778725 0:7 1:25 2:15 3:6 4:0.4851 5:4 6:7 7:0.2917 8:0.375 9:0.2184 10:0.2759 11:10 12:0.2842 13:73 14:0.2083 15:5 16:0.2414 17:0.2644 18:0.2574 19:0.2475 20:0.25 
-0.1029334969552238 0:8 1:34 2:12 3:3 4:0.4554 5:4 6:7 7:0.2857 8:0.2857 9:0.2376 10:0.2376 11:1 12:0.3061 13:81 14:0.2857 15:3 16:0.2178 17:0.3069 18:0.2376 19:0.2376 20:-1 22:3 
-0.12432320827127 0:8 1:34 2:16 3:3 4:0.4554 5:4 6:7 7:0.2083 8:0.2917 9:0.2376 10:0.2376 11:1 12:0.3061 13:1 14:0.2083 15:3 16:0.2178 17:0.3069 18:0.2376 19:0.2376 20:-1 22:3 
-0.06538214111927668 0:3 1:9 2:19 3:4 4:0.4356 5:2 6:5 7:0.2083 8:0.3333 9:0.2549 10:0.1569 11:26 12:0.1546 13:26 14:0.2917 15:9 16:0.2549 17:0.3333 18:0.2772 19:0.1881 20:0.1875 22:3 
-0.01005226651131269 0:8 1:29 2:16 3:6 4:0.5446 5:4 6:7 7:0.1739 8:0.2609 9:0.2178 10:0.2277 11:1 12:0.2737 13:79 14:0.3478 15:2 16:0.3168 17:0.2376 18:0.2178 19:0.2277 20:-1 22:7 
-0.01843790622134047 0:6 1:19 2:20 3:6 4:0.5446 5:4 6:7 7:0.2083 8:0.3333 9:0.2 10:0.2471 11:9 12:0.2737 13:71 14:0.2083 15:2 16:0.3176 17:0.2353 18:0.2178 19:0.2277 20:0.5385 22:6 
-0.06166361734908102 0:5 1:26 2:11 3:5 4:0.4356 5:4 6:4 7:0.25 8:0.3 9:0.2371 10:0.1959 11:3 12:0.1562 13:3 14:0.15 15:8 16:0.2371 17:0.3299 18:0.2277 19:0.2079 20:-1 22:5 
-0.008170412082078691 0:5 1:22 2:14 3:5 4:0.4356 5:4 6:4 7:0.2857 8:0.381 9:0.2366 10:0.1828 11:5 12:0.1562 13:5 14:0.0952 15:8 16:0.2473 17:0.3333 18:0.2277 19:0.2079 20:-1 22:5 
-0.01735589534236028 0:1 1:8 2:14 3:6 4:0.4653 5:4 6:5 7:0.25 8:0.25 9:0.3333 10:0.119 11:33 12:0.1789 13:55 14:0.4 15:4 16:0.2381 17:0.3095 18:0.2277 19:0.1584 20:0.1636 22:3 
-0.1955296508014133 0:3 1:14 2:20 3:6 4:0.4653 5:4 6:5 7:0.4348 8:0.3478 9:0.25 10:0.1625 11:14 12:0.1789 13:14 14:0.1304 15:4 16:0.2875 17:0.3 18:0.2277 19:0.1584 20:0.1765 22:6 
-0.01414666231784346 0:1 1:8 2:15 3:6 4:0.4653 5:4 6:5 7:0.2727 8:0.3636 9:0.3182 10:0.1364 11:32 12:0.1789 13:32 14:0.2727 15:4 16:0.25 17:0.2955 18:0.2277 19:0.1584 20:0.1698 22:3 
-0.116698368473795 0:2 1:4 2:15 3:12 4:0.4359 5:2 6:3 7:0.1905 8:0.2381 9:0.2826 10:0.3043 11:17 12:0.0909 13:17 14:0.2857 15:3 16:0.1957 17:0.2174 18:0.3205 19:0.2308 20:0.0769 
-0.007158267436141452 0:2 1:5 2:17 3:6 4:0.3247 5:2 6:3 7:0.3333 8:0.2857 9:0.2667 10:0.1556 11:17 12:0.0986 13:17 14:0.2381 15:3 16:0.2 17:0.3778 18:0.2857 19:0.1299 20:0.0769 22:1 
-0.1048535327266188 0:2 1:5 2:17 3:6 4:0.3247 5:2 6:3 7:0.087 8:0.4348 9:0.2667 10:0.1556 11:17 12:0.0986 13:39 14:0.3043 15:3 16:0.2 17:0.3778 18:0.2857 19:0.1299 20:0.0769 22:1 
-0.09492064322281007 0:1 1:1 2:14 3:12 4:0.4227 5:2 6:5 7:0.3 8:0.25 9:0.2683 10:0.2439 11:30 12:0.1412 13:52 14:0.25 15:3 16:0.2195 17:0.2683 18:0.2577 19:0.2062 20:0.2075 22:2 
-0.001159239453182371 0:6 1:27 2:11 3:10 4:0.4158 5:3 6:5 7:0.1818 8:0.5455 9:0.2574 10:0.1881 11:1 12:0.1538 13:1 14:0.1818 15:8 16:0.2277 17:0.3267 18:0.2574 19:0.1881 20:-1 22:1 
-0.07400919219663291 0:6 1:22 2:18 3:4 4:0.439 5:7 6:5 7:0.3333 8:0.2917 9:0.2439 10:0.1951 11:1 12:0.2051 13:1 14:0.1667 15:3 16:0.2439 17:0.3171 18:0.2439 19:0.1951 20:-1 22:7 
-0.003113931687982685 0:2 1:10 2:16 3:4 4:0.439 5:7 6:5 7:0.125 8:0.375 9:0.3125 10:0.1667 11:18 12:0.2051 13:42 14:0.25 15:3 16:0.2083 17:0.3125 18:0.2439 19:0.1951 20:0.2143 22:4 
-0.005213748133834713 0:6 1:20 2:15 3:4 4:0.439 5:7 6:5 7:0.3 8:0.3 9:0.25 10:0.1875 11:2 12:0.2051 13:2 14:0.15 15:3 16:0.25 17:0.3125 18:0.2439 19:0.1951 20:-1 22:7 
-0.2214411589687876 0:2 1:9 2:13 3:11 4:0.4022 5:3 6:3 7:0.2609 8:0.2609 9:0.3043 10:0.1957 11:24 12:0.1605 13:24 14:0.3043 15:3 16:0.1957 17:0.3043 18:0.25 19:0.1739 20:0.1 22:1 
-0.08675392648724127 0:4 1:31 2:11 3:4 4:0.3939 5:6 6:4 7:0.3 8:0.3 9:0.2637 10:0.1868 11:6 12:0.3263 13:6 14:0.25 15:3 16:0.2088 17:0.3407 18:0.2828 19:0.1919 22:3 
-0.02441811719998991 0:3 1:21 2:13 3:4 4:0.3939 5:6 6:4 7:0.2 8:0.45 9:0.2533 10:0.16 11:14 12:0.3263 13:69 14:0.2 15:3 16:0.2267 17:0.36 18:0.2828 19:0.1919 20:0.5 22:3 
-0.01055136186475395 0:6 1:19 2:12 3:7 4:0.4653 5:5 6:6 7:0.2381 8:0.4286 9:0.2273 10:0.2386 11:10 12:0.2128 13:6 14:0.1429 15:5 16:0.2159 17:0.3182 18:0.2277 19:0.2475 20:0.1429 22:4 
-0.03577072741981509 0:5 1:22 2:14 3:8 4:0.4257 5:5 6:5 7:0.2 8:0.25 9:0.2766 10:0.1809 11:2 12:0.2366 13:81 14:0.3 15:6 16:0.234 17:0.3085 18:0.2574 19:0.198 20:-1 22:4 
-0.00401726220753032 0:4 1:19 2:19 3:8 4:0.4257 5:5 6:5 7:0.25 8:0.375 9:0.2658 10:0.1646 11:16 12:0.2366 13:13 14:0.2083 15:6 16:0.2405 17:0.3291 18:0.2574 19:0.198 20:0.2 22:4 
-0.006399987338322722 0:5 1:20 2:14 3:8 4:0.4257 5:5 6:5 7:0.4 8:0.2 9:0.2561 10:0.1829 11:14 12:0.2366 13:74 14:0.2 15:6 16:0.2439 17:0.3171 18:0.2574 19:0.198 20:0.1667 22:4 
-0.002051658030092607 0:6 1:29 2:16 3:5 4:0.51 5:9 6:6 7:0.2083 8:0.375 9:0.2041 10:0.2245 11:2 12:0.3053 13:2 14:0.125 15:1 16:0.2959 17:0.2755 18:0.22 19:0.22 20:-1 22:5 
-0.04933463595894637 0:6 1:29 2:13 3:5 4:0.51 5:9 6:6 7:0.375 8:0.2917 9:0.2083 10:0.2292 11:3 12:0.3053 13:75 14:0.1667 15:1 16:0.2917 17:0.2708 18:0.22 19:0.22 22:4 
-0.04387789648776474 0:5 1:28 2:12 3:5 4:0.51 5:9 6:6 7:0.3333 8:0.25 9:0.2135 10:0.236 11:7 12:0.3053 13:71 14:0.2083 15:1 16:0.2921 17:0.2584 18:0.22 19:0.22 20:0.1111 22:3 
-0.0008563892208737524 0:6 1:29 2:12 3:5 4:0.51 5:9 6:6 7:0.375 8:0.2917 9:0.2128 10:0.2234 11:4 12:0.3053 13:74 14:0.1667 15:1 16:0.2872 17:0.2766 18:0.22 19:0.22 22:4 
-0.0768514298713259 0:4 1:27 2:17 3:5 4:0.51 5:9 6:6 7:0.2083 8:0.25 9:0.2024 10:0.2381 11:10 12:0.3053 13:9 14:0.25 15:1 16:0.2976 17:0.2619 18:0.22 19:0.22 20:0.1429 22:3 
-0.008214519913941698 0:5 1:28 2:16 3:5 4:0.51 5:9 6:6 7:0.25 8:0.3333 9:0.2151 10:0.2258 11:4 12:0.3053 13:4 14:0.1667 15:1 16:0.2903 17:0.2688 18:0.22 19:0.22 20:0.2 22:4 
-0.1558915490470666 0:2 1:8 2:17 3:5 4:0.51 5:9 6:6 7:0.3333 8:0.125 9:0.2553 10:0.234 11:31 12:0.3053 13:25 14:0.375 15:1 16:0.2979 17:0.2128 18:0.22 19:0.22 20:0.4118 22:2 
-0.1023796628694231 0:4 1:8 2:17 3:8 4:0.47 5:2 6:7 7:0.25 8:0.25 9:0.2 10:0.22 11:27 12:0.1413 13:27 14:0.25 15:8 16:0.24 17:0.34 18:0.25 19:0.25 20:0.1429 22:2 
-0.0357151156881385 0:5 1:20 2:19 3:4 4:0.38 5:6 6:6 7:0.125 8:0.2917 9:0.2375 10:0.2 11:11 12:0.25 13:67 14:0.25 15:3 16:0.225 17:0.3375 18:0.29 19:0.2 20:0.2857 22:2 
-0.05644830521795841 0:2 1:11 2:14 3:6 4:0.2949 5:4 6:3 7:0.2381 8:0.381 9:0.3111 10:0.1333 11:18 12:0.2083 13:18 14:0.3333 15:3 16:0.2 17:0.3556 18:0.2949 19:0.1154 20:0.1429 22:3 
-0.03162425047371117 0:2 1:11 2:15 3:6 4:0.2949 5:4 6:3 7:0.2273 8:0.4091 9:0.3191 10:0.1277 11:17 12:0.2083 13:17 14:0.3182 15:3 16:0.1915 17:0.3617 18:0.2949 19:0.1154 20:0.1538 22:3 
-0.0770989316802303 0:3 1:17 2:10 3:4 4:0.42 5:9 6:5 7:0.25 8:0.5 9:0.2245 10:0.2245 11:30 12:0.2188 13:53 14:0.1 15:10 16:0.2449 17:0.3061 18:0.22 19:0.21 20:0.1111 
-0.01211662021673979 0:7 1:24 2:17 3:4 4:0.45 5:3 6:6 7:0.375 8:0.375 9:0.25 10:0.1979 11:3 12:0.1979 13:3 14:0.1667 15:7 16:0.2604 17:0.2917 18:0.25 19:0.19 20:-1 22:6 
-0.01901220800723963 0:6 1:19 2:15 3:4 4:0.45 5:3 6:6 7:0.0476 8:0.3333 9:0.2637 10:0.1868 11:3 12:0.1979 13:78 14:0.4286 15:7 16:0.2747 17:0.2747 18:0.25 19:0.19 20:-1 22:6 
-0.05147548862779789 0:2 1:3 2:15 3:11 4:0.466 5:2 6:8 7:0.1429 8:0.2857 9:0.3409 10:0.25 11:33 12:0.1848 13:56 14:0.3333 15:3 16:0.1364 17:0.2727 18:0.2718 19:0.2427 20:0.25 
-0.2980961068868687 0:5 1:11 2:19 3:11 4:0.466 5:2 6:8 7:0.2917 8:0.1667 9:0.2973 10:0.2568 11:18 12:0.1848 13:18 14:0.2083 15:3 16:0.2162 17:0.2297 18:0.2718 19:0.2427 20:0.2308 22:2 
-0.09178470061596314 0:6 1:11 2:18 3:4 4:0.37 5:2 6:8 7:0.1304 8:0.3043 9:0.2909 10:0.1455 11:25 12:0.1771 13:54 14:0.3913 15:8 16:0.2 17:0.3636 18:0.29 19:0.16 20:0.1875 22:2 
-0.003910446479544737 0:9 1:20 2:13 3:4 4:0.37 5:2 6:8 7:0.2 8:0.35 9:0.2667 10:0.1667 11:6 12:0.1771 13:76 14:0.2 15:8 16:0.2333 17:0.3333 18:0.29 19:0.16 20:-1 22:2 
-0.008101831131317454 0:7 1:15 2:15 3:7 4:0.4158 5:2 6:8 7:0.2 8:0.25 9:0.2973 10:0.2297 11:15 12:0.2021 13:69 14:0.2 15:8 16:0.2297 17:0.2432 18:0.2772 19:0.2079 20:0.3333 
-0.01173309945692459 0:5 1:15 2:14 3:16 4:0.4688 5:4 6:6 7:0.35 8:0.35 9:0.2857 10:0.1818 11:11 12:0.2875 13:11 14:0.2 15:1 16:0.2338 17:0.2987 18:0.2604 19:0.2188 20:0.4444 22:2 
-0.003993366963084041 0:2 1:4 2:12 3:16 4:0.4688 5:4 6:6 7:0.0476 8:0.381 9:0.3864 10:0.1818 11:28 12:0.2875 13:50 14:0.3333 15:1 16:0.1364 17:0.2955 18:0.2604 19:0.2188 20:0.3725 
-0.00625170144995013 0:4 1:13 2:19 3:14 4:0.3908 5:3 6:4 7:0.125 8:0.125 9:0.2727 10:0.2338 11:6 12:0.1781 13:59 14:0.4583 15:3 16:0.1818 17:0.3117 18:0.2874 19:0.2184 22:1 
-0.02964338192570444 0:5 1:9 2:17 3:11 4:0.398 5:2 6:6 7:0.15 8:0.2 9:0.2955 10:0.1705 11:7 12:0.1149 13:76 14:0.35 15:4 16:0.2159 17:0.3182 18:0.2755 19:0.1939 20:0.2 22:4 
-0.3469060870892384 0:6 1:13 2:16 3:4 4:0.45 5:3 6:7 7:0.2857 8:0.3333 9:0.2029 10:0.2609 11:19 12:0.1562 13:19 14:0.1429 15:11 16:0.2319 17:0.3043 18:0.25 19:0.22 20:0.1429 22:2 
-0.07773712126531836 0:8 1:24 2:10 3:4 4:0.45 5:3 6:7 7:0.2727 8:0.3182 9:0.25 10:0.2283 11:5 12:0.1562 13:5 14:0.2727 15:11 16:0.2283 17:0.2935 18:0.25 19:0.22 20:-1 22:4 
-0.02206722118899026 0:6 1:13 2:15 3:10 4:0.4091 5:2 6:6 7:0.2 8:0.3 9:0.2469 10:0.2346 11:5 12:0.1667 13:66 14:0.15 15:3 16:0.1975 17:0.321 18:0.2727 19:0.2273 22:1 
-0.002641688832469985 0:7 1:16 2:18 3:10 4:0.4091 5:2 6:6 7:0.1667 8:0.375 9:0.2674 10:0.2209 11:2 12:0.1667 13:64 14:0.1667 15:3 16:0.186 17:0.3256 18:0.2727 19:0.2273 20:-1 22:1 
-0.01115210715080667 0:4 1:16 2:13 3:9 4:0.4024 5:4 6:4 7:0.25 8:0.45 9:0.1918 10:0.1233 11:6 12:0.2192 13:59 14:0.2 15:3 16:0.274 17:0.411 18:0.1951 19:0.122 22:7 
-0.06807752871342068 0:5 1:21 2:13 3:9 4:0.4024 5:4 6:4 7:0.35 8:0.35 9:0.1951 10:0.122 11:1 12:0.2192 13:1 14:0.2 15:3 16:0.2805 17:0.4024 18:0.1951 19:0.122 20:-1 22:7 
-0.8703712401076634 0:4 1:11 2:19 3:8 4:0.3494 5:7 6:4 7:0.125 8:0.3333 9:0.2787 10:0.1967 11:12 12:0.2267 13:49 14:0.25 15:3 16:0.1803 17:0.3443 18:0.2771 19:0.1807 20:0.375 22:1 
-0.02713952532538796 0:2 1:2 2:15 3:12 4:0.3765 5:1 6:5 7:0.25 8:0.55 9:0.3182 10:0.1818 11:24 12:0.0959 13:23 14:0.1 15:4 16:0.1591 17:0.3409 18:0.2824 19:0.1765 20:0.1351 
-0.03674623672087431 0:7 1:15 2:22 3:5 4:0.3663 5:3 6:7 7:0.1667 8:0.375 9:0.2872 10:0.1915 11:6 12:0.1562 13:6 14:0.3333 15:5 16:0.1596 17:0.3617 18:0.2772 19:0.198 20:-1 22:1 
-0.1053766397987973 0:3 1:9 2:18 3:5 4:0.3663 5:3 6:7 7:0.1667 8:0.3333 9:0.26 10:0.22 11:28 12:0.1562 13:27 14:0.25 15:5 16:0.16 17:0.36 18:0.2772 19:0.198 20:0.1364 
-0.04922441115400408 0:7 1:15 2:17 3:5 4:0.3663 5:3 6:7 7:0.1 8:0.4 9:0.2935 10:0.1848 11:7 12:0.1562 13:79 14:0.35 15:5 16:0.1522 17:0.3696 18:0.2772 19:0.198 22:1 
-0.8203304293801843 0:3 1:5 2:19 3:5 4:0.3544 5:2 6:5 7:0.3043 8:0.3913 9:0.2917 10:0.1458 11:18 12:0.1216 13:17 14:0.2174 15:1 16:0.2292 17:0.3333 18:0.3165 19:0.1772 20:0.1333 22:2 
-0.003370775705843754 0:5 1:17 2:14 3:11 4:0.4554 5:3 6:5 7:0.05 8:0.2 9:0.2195 10:0.2805 11:12 12:0.1889 13:9 14:0.25 15:8 16:0.2073 17:0.2927 18:0.2673 19:0.2673 22:3 
-0.03741469954433774 0:5 1:20 2:16 3:12 4:0.375 5:2 6:4 7:0.15 8:0.4 9:0.2708 10:0.1667 11:1 12:0.131 13:77 14:0.25 15:7 16:0.2083 17:0.3542 18:0.2708 19:0.1667 20:-1 22:5 
-0.02714224639487035 0:6 1:21 2:14 3:3 4:0.48 5:4 6:6 7:0.3 8:0.45 9:0.2174 10:0.25 11:6 12:0.2371 13:4 14:0.05 15:2 16:0.2283 17:0.3043 18:0.23 19:0.25 20:0.3333 22:4 
-0.07602807143201629 0:6 1:12 2:18 3:13 4:0.396 5:1 6:5 7:0.125 8:0.25 9:0.2706 10:0.2 11:9 12:0.0909 13:70 14:0.3333 15:11 16:0.2 17:0.3294 18:0.2772 19:0.2178 20:-1 22:4 
-0.100151952524667 0:1 1:2 2:14 3:13 4:0.396 5:1 6:5 7:0.0455 8:0.3636 9:0.2558 10:0.1395 11:31 12:0.0909 13:50 14:0.3636 15:11 16:0.186 17:0.4186 18:0.2772 19:0.2178 20:0.1579 22:3 
-0.07432548427995242 0:6 1:18 2:14 3:13 4:0.396 5:1 6:5 7:0.25 8:0.25 9:0.2857 10:0.1978 11:6 12:0.0909 13:6 14:0.25 15:11 16:0.1868 17:0.3297 18:0.2772 19:0.2178 20:-1 22:4 
-0.00804716211314143 0:5 1:8 2:21 3:13 4:0.396 5:1 6:5 7:0.125 8:0.2917 9:0.2593 10:0.1852 11:12 12:0.0909 13:67 14:0.3333 15:11 16:0.2099 17:0.3457 18:0.2772 19:0.2178 20:-1 22:4 
-0.1010269965073355 0:6 1:10 2:17 3:5 4:0.3762 5:2 6:6 7:0.2 8:0.05 9:0.2921 10:0.1798 11:5 12:0.1042 13:78 14:0.55 15:8 16:0.2022 17:0.3258 18:0.2871 19:0.1782 20:-1 22:3 
-0.06661879188439278 0:7 1:16 2:13 3:5 4:0.3762 5:2 6:6 7:0.15 8:0.55 9:0.2947 10:0.1684 11:4 12:0.1042 13:4 14:0.1 15:8 16:0.1895 17:0.3474 18:0.2871 19:0.1782 20:-1 22:3 
-0.0009955449517589736 0:6 1:10 2:18 3:5 4:0.3762 5:2 6:6 7:0.1905 8:0.5714 9:0.3012 10:0.1807 11:12 12:0.1042 13:12 15:8 16:0.1928 17:0.3253 18:0.2871 19:0.1782 22:2 
-0.01829652245181845 0:8 1:24 2:13 3:7 4:0.4554 5:3 6:7 7:0.25 8:0.25 9:0.297 10:0.2277 11:1 12:0.234 13:1 14:0.25 15:1 16:0.2277 17:0.2475 18:0.297 19:0.2277 20:-1 22:5 
-0.021852064698289 0:3 1:7 2:14 3:7 4:0.4554 5:3 6:7 7:0.0952 8:0.2857 9:0.4048 10:0.1429 11:32 12:0.234 13:53 14:0.381 15:1 16:0.1667 17:0.2857 18:0.297 19:0.2277 20:0.2632 22:2 
-0.02647572634682572 0:4 1:20 2:14 3:8 4:0.4356 5:3 6:4 7:0.2917 8:0.25 9:0.1757 10:0.2297 11:16 12:0.2151 13:66 14:0.125 15:13 16:0.2568 17:0.3378 18:0.1881 19:0.2178 22:4 
-0.01213823916514047 0:5 1:25 2:12 3:8 4:0.4356 5:3 6:4 7:0.35 8:0.25 9:0.1687 10:0.2289 11:10 12:0.2151 13:73 14:0.1 15:13 16:0.241 17:0.3614 18:0.1881 19:0.2178 20:-1 22:4 
