svm_type c_svc
kernel_type rbf
gamma 0.0434783
nr_class 2
total_sv 494
rho 0.418642
label 1 0
probA -4.63522
probB -0.348048
nr_sv 153 341
SV
0.04419018265395419 1:2 2:1 3:3 4:22 5:0.4762 6:1 7:3 8:0.3333 9:0.1905 10:0.2857 11:0.1905 12:53 13:0.1163 14:3 15:0.4561 16:57 17:0.2632 18:0.193 19:0.2632 20:0.2807 21:0.1837 22:0.9 23:0.6667 
0.5989935424249565 1:1 2:2 3:7 4:21 5:0.45 6:4 7:3 8:0.35 9:0.1 10:0.35 11:0.2 12:7 13:0.2821 14:2 15:0.4821 16:56 17:0.1964 18:0.2321 19:0.25 20:0.3214 21:0.2549 22:2 23:0.2857 
1 1:1 2:2 3:11 4:22 5:0.4286 6:2 7:4 8:0.2381 9:0.0952 10:0.3333 11:0.3333 12:11 13:0.2558 14:1 15:0.3043 16:69 17:0.2754 18:0.1594 19:0.1449 20:0.4203 21:0.1935 22:1.4 23:0.1429 
1 1:2 2:4 3:12 4:22 5:0.4545 6:2 7:4 8:0.1818 9:0.3636 10:0.0909 11:0.3636 12:60 13:0.2727 14:3 15:0.4348 16:69 17:0.2174 18:0.1739 19:0.2609 20:0.3478 21:0.3125 22:1 23:0.4545 
0.9768319678609946 1:-1 2:0 3:2 4:22 5:0.5455 6:3 7:4 8:0.1364 9:0.4091 10:0.1364 11:0.3182 12:63 13:0.3182 14:3 15:0.4286 16:70 17:0.2714 18:0.1857 19:0.2429 20:0.3 21:0.2917 22:2.5 23:0 
0.8285338080747374 1:7 2:3 3:18 4:21 5:0.4286 6:1 7:1 8:0.2857 9:0.0476 10:0.381 11:0.2857 12:15 13:0.0476 14:1 15:0.4324 16:74 17:0.2568 18:0.1622 19:0.2703 20:0.3108 21:0.1594 22:1 23:0.3793 
1 1:7 2:3 3:19 4:22 5:0.4762 6:1 7:2 8:0.1905 9:0.381 10:0.0952 11:0.3333 12:69 13:0.0698 14:3 15:0.4416 16:77 17:0.2597 18:0.1688 19:0.2727 20:0.2987 21:0.1667 22:1 23:0.3548 
1 1:6 2:2 3:13 4:23 5:0.3182 6:2 7:4 8:0.3182 9:0 10:0.3182 11:0.3636 12:17 13:0.1818 14:2 15:0.3913 16:69 17:0.2464 18:0.1884 19:0.2029 20:0.3623 21:0.2258 22:0.78 23:0.4 
1 1:6 2:2 3:13 4:25 5:0.2917 6:2 7:4 8:0.2917 9:0.25 10:0.0417 11:0.4167 12:64 13:0.2083 14:3 15:0.411 16:73 17:0.2329 18:0.2055 19:0.2055 20:0.3562 21:0.2424 22:1 23:0.4 
0.6720973439501243 1:9 2:2 3:21 4:22 5:0.381 6:2 7:1 8:0.2381 9:0.3333 10:0.0476 11:0.381 12:70 13:0.0698 14:3 15:0.3924 16:79 17:0.2405 18:0.1646 19:0.2278 20:0.3671 21:0.1622 22:1.29 23:0.3333 
1 1:5 2:3 3:18 4:22 5:0.3636 6:3 7:3 8:0.2273 9:0.0455 10:0.3182 11:0.4091 12:17 13:0.2558 14:4 15:0.4737 16:76 17:0.25 18:0.1974 19:0.2763 20:0.2763 21:0.2778 22:0.33 23:0.3103 
1 1:1 2:2 3:9 4:30 5:0.4091 6:8 7:3 8:0.1364 9:0.0455 10:0.3636 11:0.4545 12:16 13:0.2157 14:4 15:0.52 16:75 17:0.16 18:0.1867 19:0.3333 20:0.32 21:0.1818 22:1 23:0.1765 
1 1:8 2:3 3:19 4:24 5:0.5652 6:1 7:2 8:0.1739 9:0.3478 10:0.2174 11:0.2609 12:72 13:0.0638 14:2 15:0.5301 16:83 17:0.1566 18:0.1928 19:0.3373 20:0.3133 21:0.1622 22:0.9 23:0.3793 
0.7292567039321428 1:-1 2:0 3:1 4:22 5:0.4545 6:1 7:2 8:0.1818 9:0.2273 10:0.2273 11:0.3636 12:6 13:0.0698 14:3 15:0.386 16:57 17:0.2807 18:0.1754 19:0.2105 20:0.3333 21:0.0667 22:1.43 23:0 
0.299198538760055 1:-1 2:0 3:2 4:24 5:0.5 6:3 7:4 8:0.2727 9:0.2273 10:0.2727 11:0.2273 12:53 13:0.1818 14:4 15:0.4833 16:60 17:0.2 18:0.2167 19:0.2667 20:0.3167 21:0.1667 22:5 23:0 
0.4363523904557257 1:3 2:2 3:7 4:21 5:0.4762 6:1 7:3 8:0.1429 9:0.2857 10:0.1905 11:0.381 12:18 13:0.1 14:1 15:0.4643 16:56 17:0.1964 18:0.2143 19:0.25 20:0.3393 21:0.1765 22:1 23:0.5385 
0.4403679326041112 1:2 2:2 3:8 4:21 5:0.45 6:2 7:3 8:0.3 9:0.2 10:0.25 11:0.25 12:51 13:0.1707 14:3 15:0.4464 16:56 17:0.2857 18:0.2321 19:0.2143 20:0.2679 21:0.1698 22:1 23:0.2857 
0.4694309671868759 1:5 2:1 3:8 4:22 5:0.5455 6:2 7:4 8:0.1818 9:0.3636 10:0.1818 11:0.2727 12:15 13:0.2093 14:4 15:0.5517 16:58 17:0.2414 18:0.2414 19:0.3103 20:0.2069 21:0.2593 22:0.8 23:0.4545 
0.4122059356932916 1:5 2:1 3:9 4:23 5:0.5 6:2 7:5 8:0.2273 9:0.1364 10:0.3636 11:0.2727 12:53 13:0.2444 14:2 15:0.5484 16:62 17:0.2258 18:0.2419 19:0.3065 20:0.2258 21:0.2759 22:2 23:0.3846 
0.3723050740161276 1:1 2:2 3:8 4:21 5:0.5714 6:2 7:3 8:0 9:0.2381 10:0.3333 11:0.4286 12:15 13:0.1905 14:1 15:0.5397 16:63 17:0.1905 18:0.3016 19:0.2381 20:0.2698 21:0.193 22:1.29 23:0.2 
0.9177224017798448 1:7 2:2 3:14 4:20 5:0.5 6:2 7:2 8:0 9:0.2 10:0.3 11:0.5 12:18 13:0.15 14:3 15:0.5303 16:66 17:0.197 18:0.3182 19:0.2121 20:0.2727 21:0.2203 22:1 23:0.4286 
1 1:7 2:2 3:15 4:21 5:0.4762 6:2 7:3 8:0.4286 9:0.381 10:0.0952 11:0.0952 12:65 13:0.1707 14:3 15:0.5217 16:69 17:0.2029 18:0.3188 19:0.2029 20:0.2754 21:0.2258 22:1.43 23:0.3913 
0.361147084620943 1:3 2:1 3:5 4:22 5:0.5909 6:3 7:4 8:0.0909 9:0.1364 10:0.4545 11:0.3182 12:42 13:0.2727 14:1 15:0.5932 16:59 17:0.2034 18:0.2881 19:0.3051 20:0.2034 21:0.3208 22:1.25 23:0.5556 
0.1184576832585965 1:4 2:2 3:10 4:21 5:0.381 6:2 7:3 8:0.0952 9:0.2381 10:0.1429 11:0.5238 12:18 13:0.1905 14:3 15:0.4 16:65 17:0.3077 18:0.1846 19:0.2154 20:0.2923 21:0.2542 22:0.89 23:0.4118 
0.2631759425582265 1:2 2:1 3:6 4:20 5:0.4 6:1 7:1 8:0.2 9:0.15 10:0.25 11:0.4 12:23 13:0.05 14:3 15:0.5 16:60 17:0.1833 18:0.1833 19:0.3167 20:0.3167 21:0.1154 22:1.11 23:0.3333 
0.4463580043737257 1:2 2:1 3:6 4:22 5:0.4545 6:1 7:1 8:0.2727 9:0.2273 10:0.2273 11:0.2727 12:63 13:0.0455 14:3 15:0.5 16:64 17:0.1875 18:0.1875 19:0.3125 20:0.3125 21:0.1071 22:0.9 23:0.3333 
1 1:-1 2:0 3:2 4:23 5:0.4762 6:3 7:4 8:0.2381 9:0.2857 10:0.1905 11:0.2857 12:68 13:0.2727 14:2 15:0.5 16:70 17:0.2571 18:0.2571 19:0.2429 20:0.2429 21:0.25 22:1.33 23:0 
0.9796551036572189 1:-1 2:0 3:1 4:26 5:0.5 6:1 7:4 8:0.1667 9:0.25 10:0.25 11:0.3333 12:4 13:0.102 14:3 15:0.5263 16:57 17:0.1754 18:0.2456 19:0.2807 20:0.2982 21:0.098 22:0.9 23:0 
0.5050888839251955 1:1 2:1 3:5 4:22 5:0.5714 6:1 7:3 8:0.1905 9:0.1905 10:0.381 11:0.2381 12:40 13:0.0952 14:4 15:0.5263 16:57 17:0.1754 18:0.2456 19:0.2807 20:0.2982 21:0.098 22:1.43 23:0.1111 
0.1441398805687047 1:-1 2:0 3:3 4:24 5:0.4545 6:2 7:3 8:0.2273 9:0.1818 10:0.2727 11:0.3182 12:16 13:0.1364 14:1 15:0.4815 16:54 17:0.2778 18:0.2407 19:0.2407 20:0.2407 21:0.12 22:0.89 23:0 
0.6683975985696345 1:2 2:1 3:8 4:20 5:0.45 6:1 7:2 8:0.15 9:0.2 10:0.25 11:0.4 12:23 13:0.0769 14:4 15:0.4915 16:59 17:0.2203 18:0.2373 19:0.2542 20:0.2881 21:0.0943 22:0.8 23:0.1429 
0.6254910841514494 1:5 2:1 3:7 4:21 5:0.3333 6:1 7:2 8:0.1429 9:0.1429 10:0.1905 11:0.5238 12:55 13:0.0952 14:2 15:0.4068 16:59 17:0.3051 18:0.2203 19:0.1864 20:0.2881 21:0.2364 22:0.78 23:0.6923 
1 1:-1 2:0 3:3 4:22 5:0.619 6:1 7:4 8:0.0952 9:0.2381 10:0.381 11:0.2857 12:17 13:0.1628 14:1 15:0.5283 16:53 17:0.1887 18:0.1887 19:0.3396 20:0.283 21:0.1429 22:0.88 23:0 
0.04351569621855389 1:1 2:1 3:4 4:22 5:0.3 6:1 7:3 8:0.35 9:0.1 10:0.2 11:0.35 12:52 13:0.0732 14:3 15:0.3393 16:56 17:0.3571 18:0.125 19:0.2143 20:0.3036 21:0.0833 22:1.29 23:0.1429 
0.7674319891882496 1:-1 2:0 3:2 4:23 5:0.4545 6:4 7:3 8:0.1818 9:0.1364 10:0.3182 11:0.3636 12:12 13:0.2093 14:2 15:0.4127 16:63 17:0.1746 18:0.2063 19:0.2063 20:0.4127 21:0.1915 22:0.7 23:0 
0.5334210076933233 1:-1 2:0 3:4 4:23 5:0.381 6:4 7:3 8:0.2381 9:0.2857 10:0.0952 11:0.381 12:56 13:0.2558 14:2 15:0.403 16:67 17:0.1791 18:0.209 19:0.194 20:0.4179 21:0.2157 22:1.43 23:0 
0.4490533384501958 1:1 2:2 3:6 4:23 5:0.5455 6:1 7:5 8:0.3636 9:0.3636 10:0.1818 11:0.0909 12:13 13:0.1818 14:4 15:0.4821 16:56 17:0.25 18:0.2321 19:0.25 20:0.2679 21:0.1698 22:0.67 23:0.2727 
0.3410596873247156 1:1 2:2 3:8 4:22 5:0.4762 6:1 7:5 8:0.1905 9:0.1429 10:0.3333 11:0.3333 12:49 13:0.1905 14:3 15:0.4655 16:58 17:0.2586 18:0.2241 19:0.2414 20:0.2759 21:0.1636 22:1 23:0.2 
0.249476341255576 1:4 2:3 3:11 4:20 5:0.4 6:2 7:2 8:0.35 9:0.15 10:0.25 11:0.25 12:15 13:0.15 14:2 15:0.3548 16:62 17:0.3065 18:0.1613 19:0.1935 20:0.3387 21:0.2281 22:0.8 23:0.4737 
0.108977373780149 1:4 2:3 3:11 4:21 5:0.381 6:2 7:2 8:0.1905 9:0.1905 10:0.1905 11:0.4286 12:57 13:0.1905 14:2 15:0.3594 16:64 17:0.3125 18:0.1719 19:0.1875 20:0.3281 21:0.2542 22:2 23:0.4737 
0.8833158289916114 1:2 2:3 3:10 4:22 5:0.4545 6:4 7:2 8:0.3636 9:0.1818 10:0.2727 11:0.1818 12:15 13:0.2273 14:2 15:0.4375 16:64 17:0.2344 18:0.2188 19:0.2188 20:0.3281 21:0.2459 22:0.73 23:0.3684 
0.1845414612183625 1:2 2:3 3:11 4:22 5:0.4091 6:4 7:2 8:0.0909 9:0.2273 10:0.1818 11:0.5 12:58 13:0.2727 14:4 15:0.4394 16:66 17:0.2273 18:0.2273 19:0.2121 20:0.3333 21:0.2698 22:2 23:0.3333 
0.01268152498684741 1:5 2:1 3:8 4:22 5:0.4545 6:1 7:2 8:0.2727 9:0.2727 10:0.1818 11:0.2727 12:53 13:0.0698 14:1 15:0.4286 16:63 17:0.2857 18:0.2222 19:0.2063 20:0.2857 21:0.193 22:0.64 23:0.5714 
0.4627612775125829 1:4 2:1 3:11 4:23 5:0.45 6:3 7:3 8:0.2 9:0.25 10:0.2 11:0.35 12:61 13:0.3023 14:4 15:0.4769 16:65 17:0.2308 18:0.2 19:0.2769 20:0.2923 21:0.2787 22:2.5 23:0.2222 
0.3858931708024576 1:1 2:1 3:3 4:23 5:0.5455 6:3 7:3 8:0.3636 9:0.2727 10:0.2727 11:0.0909 12:14 13:0.2444 14:3 15:0.537 16:54 17:0.1852 18:0.2778 19:0.2593 20:0.2778 21:0.2245 22:1.6 23:0.3333 
0.7525167625773693 1:4 2:1 3:6 4:25 5:0.4348 6:2 7:5 8:0.3043 9:0.1304 10:0.3043 11:0.2609 12:19 13:0.234 14:4 15:0.4444 16:63 17:0.254 18:0.2063 19:0.2381 20:0.3016 21:0.2982 22:1.29 23:0.6 
0.1035481018773683 1:4 2:1 3:8 4:23 5:0.5455 6:2 7:5 8:0.1364 9:0.3636 10:0.1818 11:0.3182 12:60 13:0.2558 14:2 15:0.4444 16:63 17:0.254 18:0.2063 19:0.2381 20:0.3016 21:0.2982 22:2.5 23:0.4286 
0.5545092353055485 1:1 2:1 3:2 4:25 5:0.4348 6:2 7:5 8:0.2609 9:0.1304 10:0.3043 11:0.3043 12:18 13:0.2917 14:1 15:0.4444 16:63 17:0.2381 18:0.2063 19:0.2381 20:0.3175 21:0.28 22:2.25 23:0.5 
0.3590886391385221 1:-1 2:0 3:2 4:23 5:0.25 6:2 7:3 8:0.4 9:0.25 10:0 11:0.35 12:56 13:0.1628 14:4 15:0.2982 16:57 17:0.3158 18:0.1404 19:0.1579 20:0.386 21:0.1489 22:1.8 23:0 
0.9889149103187977 1:-1 2:0 3:4 4:29 5:0.2727 6:5 7:3 8:0.2273 9:0 10:0.2727 11:0.5 12:18 13:0.2157 14:2 15:0.2857 16:63 17:0.3492 18:0.1429 19:0.1429 20:0.3651 21:0.1864 22:0.9 23:0 
0.1055174413412945 1:2 2:2 3:7 4:21 5:0.619 6:2 7:4 8:0.0952 9:0.1429 10:0.4762 11:0.2857 12:23 13:0.2381 14:4 15:0.5345 16:58 17:0.2069 18:0.2586 19:0.2759 20:0.2586 21:0.2453 22:1.38 23:0.3846 
1 1:2 2:2 3:8 4:20 5:0.5 6:2 7:4 8:0.35 9:0.35 10:0.15 11:0.15 12:61 13:0.25 14:2 15:0.5345 16:58 17:0.2069 18:0.2586 19:0.2759 20:0.2586 21:0.2453 22:0.64 23:0.3333 
0.7325066132000858 1:-1 2:0 3:0 4:22 5:0.3182 6:3 7:3 8:0.5455 9:0.2273 10:0.0909 11:0.1364 12:59 13:0.2273 14:1 15:0.3279 16:61 17:0.3443 18:0.1639 19:0.1639 20:0.3279 21:0.1905 22:0.78 23:-1 
0.1882339412431058 1:-1 2:0 3:3 4:20 5:0.35 6:2 7:1 8:0.25 9:0.3 10:0.05 11:0.4 12:16 13:0.0769 14:4 15:0.339 16:59 17:0.3559 18:0.1695 19:0.1695 20:0.3051 21:0.0667 22:1.5 23:0 
0.3470315895598412 1:-1 2:0 3:2 4:21 5:0.45 6:1 7:2 8:0.25 9:0.25 10:0.2 11:0.3 12:22 13:0.0732 14:2 15:0.4407 16:59 17:0.2203 18:0.2034 19:0.2373 20:0.339 21:0.0667 22:1.43 23:0 
1 1:-1 2:0 3:2 4:23 5:0.5 6:2 7:3 8:0.3636 9:0.1364 10:0.3636 11:0.1364 12:48 13:0.1364 14:4 15:0.4074 16:54 17:0.2963 18:0.1852 19:0.2222 20:0.2963 21:0.125 22:0.8 23:0 
0.002965143799473376 1:1 2:1 3:3 4:23 5:0.3913 6:1 7:3 8:0.3043 9:0.1739 10:0.2174 11:0.3043 12:23 13:0.1111 14:1 15:0.3276 16:58 17:0.2931 18:0.1552 19:0.1724 20:0.3793 21:0.102 22:1.43 23:0.3333 
0.04896186145512935 1:1 2:1 3:3 4:22 5:0.4286 6:3 7:3 8:0.2857 9:0.1905 10:0.2381 11:0.2857 12:51 13:0.1905 14:3 15:0.4262 16:61 17:0.3115 18:0.2131 19:0.2131 20:0.2623 21:0.1739 22:5 23:0.3333 
0.1900218756853397 1:3 2:2 3:6 4:22 5:0.5 6:4 7:3 8:0.3182 9:0.3182 10:0.1818 11:0.1818 12:22 13:0.2727 14:2 15:0.5763 16:59 17:0.1695 18:0.322 19:0.2542 20:0.2542 21:0.3077 22:1.57 23:0.6 
0.3421496291322577 1:3 2:2 3:8 4:21 5:0.619 6:4 7:4 8:0.1429 9:0.2381 10:0.381 11:0.2381 12:61 13:0.3333 14:4 15:0.5738 16:61 17:0.1803 18:0.3115 19:0.2623 20:0.2459 21:0.3333 22:0.88 23:0.4286 
0.858053183816189 1:6 2:1 3:10 4:22 5:0.5 6:3 7:4 8:0.1818 9:0.3182 10:0.1818 11:0.3182 12:14 13:0.2381 14:1 15:0.5077 16:65 17:0.2923 18:0.2615 19:0.2462 20:0.2 21:0.3443 22:0.67 23:0.5789 
1 1:6 2:1 3:11 4:25 5:0.4783 6:3 7:5 8:0.3043 9:0.3043 10:0.1739 11:0.2174 12:60 13:0.2609 14:3 15:0.5211 16:71 17:0.2817 18:0.2676 19:0.2535 20:0.1972 21:0.3433 22:1.8 23:0.5238 
1 1:-1 2:0 3:0 4:22 5:0.4545 6:3 7:3 8:0.2727 9:0.1818 10:0.2727 11:0.2727 12:16 13:0.15 14:1 15:0.4074 16:54 17:0.3148 18:0.2037 19:0.2037 20:0.2778 21:0.15 22:0.25 23:-1 
0.6600732275033002 1:-1 2:0 3:1 4:27 5:0.4545 6:4 7:4 8:0.2273 9:0.3182 10:0.1364 11:0.3182 12:53 13:0.1667 14:4 15:0.4375 16:64 17:0.2969 18:0.2188 19:0.2188 20:0.2656 21:0.16 22:1.25 23:0 
0.02599464365945789 1:1 2:1 3:3 4:20 5:0.55 6:2 7:4 8:0.25 9:0.35 10:0.2 11:0.2 12:23 13:0.3 14:3 15:0.5085 16:59 17:0.2712 18:0.2203 19:0.2881 20:0.2203 21:0.2727 22:1.6 23:0.3333 
0.7544419072673428 1:-1 2:0 3:1 4:23 5:0.4091 6:2 7:3 8:0.2727 9:0.1364 10:0.2727 11:0.3182 12:54 13:0.1556 14:4 15:0.4154 16:65 17:0.3231 18:0.2308 19:0.1846 20:0.2615 21:0.1489 22:1.8 23:0 
0.5533295209145942 1:-1 2:0 3:2 4:21 5:0.45 6:1 7:3 8:0.3 9:0.15 10:0.3 11:0.25 12:59 13:0.122 14:2 15:0.4912 16:57 17:0.2281 18:0.2807 19:0.2105 20:0.2807 21:0.1111 22:1 23:0 
0.2023685178159295 1:2 2:2 3:9 4:21 5:0.5238 6:3 7:2 8:0.1429 9:0.2857 10:0.2381 11:0.3333 12:8 13:0.1905 14:1 15:0.4603 16:63 17:0.254 18:0.2381 19:0.2222 20:0.2857 21:0.2203 22:0.9 23:0.2941 
1 1:2 2:2 3:9 4:23 5:0.4783 6:3 7:2 8:0.3043 9:0.1739 10:0.3043 11:0.2174 12:50 13:0.1739 14:1 15:0.4776 16:67 17:0.2388 18:0.2388 19:0.2388 20:0.2836 21:0.2063 22:1 23:0.2941 
0.3691869038071116 1:1 2:2 3:6 4:26 5:0.4545 6:4 7:4 8:0.1364 9:0.1818 10:0.2727 11:0.4091 12:50 13:0.234 14:3 15:0.3934 16:61 17:0.2623 18:0.1803 19:0.2131 20:0.3443 21:0.2143 22:1.43 23:0.2727 
0.9402643278929277 1:2 2:1 3:7 4:27 5:0.2727 6:5 7:3 8:0.3636 9:0.1364 10:0.1364 11:0.3636 12:60 13:0.2245 14:4 15:0.4545 16:66 17:0.2576 18:0.2576 19:0.197 20:0.2879 21:0.2258 22:2 23:0.2308 
0.3707705116153969 1:-1 2:0 3:0 4:24 5:0.5238 6:2 7:3 8:0.0952 9:0.1905 10:0.3333 11:0.381 12:14 13:0.0909 14:1 15:0.4483 16:58 17:0.2586 18:0.1897 19:0.2586 20:0.2931 21:0.0909 22:1.25 23:-1 
0.4156146838373826 1:2 2:1 3:5 4:21 5:0.4762 6:2 7:3 8:0.2381 9:0.2381 10:0.2381 11:0.2857 12:6 13:0.1707 14:1 15:0.4464 16:56 17:0.25 18:0.2321 19:0.2143 20:0.3036 21:0.2 22:0.8 23:0.3333 
0.4562308532490733 1:1 2:1 3:3 4:22 5:0.4545 6:1 7:2 8:0.2727 9:0.1364 10:0.3182 11:0.2727 12:9 13:0.0476 14:4 15:0.4098 16:61 17:0.2131 18:0.1639 19:0.2459 20:0.377 21:0.0435 22:0.9 23:0.3333 
1 1:1 2:1 3:4 4:24 5:0.4545 6:1 7:2 8:0.2273 9:0.2273 10:0.2273 11:0.3182 12:51 13:0.0435 14:3 15:0.4328 16:67 17:0.209 18:0.1791 19:0.2537 20:0.3582 21:0.0385 22:0.9 23:0.25 
0.04240119921084688 1:4 2:2 3:8 4:21 5:0.5238 6:2 7:3 8:0.1905 9:0.1429 10:0.381 11:0.2857 12:16 13:0.1905 14:4 15:0.4737 16:57 17:0.2456 18:0.193 19:0.2807 20:0.2807 21:0.2308 22:0.7 23:0.5 
0.3647742707907118 1:1 2:1 3:4 4:26 5:0.5 6:4 7:4 8:0.1818 9:0.2727 10:0.2273 11:0.3182 12:52 13:0.2917 14:2 15:0.4576 16:59 17:0.2712 18:0.1864 19:0.2712 20:0.2712 21:0.2593 22:2 23:0.25 
1 1:1 2:1 3:2 4:24 5:0.4286 6:4 7:2 8:0.0952 9:0.1429 10:0.2857 11:0.4762 12:22 13:0.2444 14:2 15:0.4074 16:54 17:0.1667 18:0.2037 19:0.2037 20:0.4259 21:0.234 22:1.29 23:0.5 
0.8215047176621656 1:-1 2:0 3:2 4:26 5:0.4545 6:6 7:4 8:0.1818 9:0.3182 10:0.1364 11:0.3636 12:19 13:0.2917 14:2 15:0.4333 16:60 17:0.2667 18:0.2667 19:0.1667 20:0.3 21:0.2692 22:1.14 23:0 
0.382650967179983 1:1 2:1 3:5 4:23 5:0.3913 6:6 7:3 8:0.3478 9:0.1739 10:0.2174 11:0.2609 12:56 13:0.3023 14:3 15:0.4333 16:60 17:0.2667 18:0.2667 19:0.1667 20:0.3 21:0.2692 22:0.88 23:0.1111 
0.3407979735131307 1:-1 2:0 3:2 4:23 5:0.3478 6:2 7:3 8:0.2174 9:0.1304 10:0.2174 11:0.4348 12:48 13:0.2174 14:4 15:0.3548 16:62 17:0.2742 18:0.1452 19:0.2097 20:0.371 21:0.2 22:0.7 23:0 
0.4896307602863311 1:-1 2:0 3:2 4:22 5:0.4545 6:2 7:1 8:0.3182 9:0.2273 10:0.2273 11:0.2273 12:18 13:0.0476 14:3 15:0.4516 16:62 17:0.2742 18:0.1774 19:0.2742 20:0.2742 21:0.0435 22:1 23:0 
0.4613016309726002 1:-1 2:0 3:2 4:24 5:0.5 6:2 7:2 8:0.1364 9:0.2273 10:0.2727 11:0.3636 12:60 13:0.087 14:2 15:0.4697 16:66 17:0.2727 18:0.197 19:0.2727 20:0.2576 21:0.08 22:1.12 23:0 
0.3279732407362864 1:1 2:2 3:5 4:22 5:0.4091 6:6 7:3 8:0.3182 9:0.3182 10:0.0909 11:0.2727 12:18 13:0.3636 14:1 15:0.3966 16:58 17:0.3103 18:0.1897 19:0.2069 20:0.2931 21:0.3704 22:0.88 23:0.4 
0.5680131228323511 1:2 2:2 3:7 4:22 5:0.4091 6:6 7:2 8:0.2273 9:0.1364 10:0.2727 11:0.3636 12:56 13:0.4091 14:4 15:0.4032 16:62 17:0.3065 18:0.2097 19:0.1935 20:0.2903 21:0.4138 22:3.33 23:0.4286 
0.07011245548181756 1:-1 2:0 3:2 4:24 5:0.5 6:3 7:3 8:0.1818 9:0.1818 10:0.3182 11:0.3182 12:58 13:0.2609 14:3 15:0.4091 16:66 17:0.3333 18:0.1818 19:0.2273 20:0.2576 21:0.24 22:3.33 23:0 
0.562665810009876 1:5 2:3 3:11 4:23 5:0.4348 6:2 7:1 8:0.3043 9:0.2174 10:0.2174 11:0.2609 12:17 13:0.0455 14:3 15:0.4677 16:62 17:0.2581 18:0.1935 19:0.2742 20:0.2742 21:0.1525 22:0.9 23:0.5294 
0.7665802792316027 1:5 2:3 3:12 4:24 5:0.4545 6:2 7:2 8:0.1818 9:0.2273 10:0.2273 11:0.3636 12:59 13:0.087 14:2 15:0.5 16:66 17:0.2424 18:0.2273 19:0.2727 20:0.2576 21:0.1746 22:1.12 23:0.4737 
0.3235173193660545 1:3 2:2 3:7 4:22 5:0.3182 6:1 7:1 8:0.3182 9:0.1818 10:0.1364 11:0.3636 12:5 13:0.0233 14:3 15:0.4167 16:60 17:0.2333 18:0.1667 19:0.25 20:0.35 21:0.1273 22:0.8 23:0.5714 
0.675422454604991 1:1 2:1 3:3 4:28 5:0.4545 6:4 7:4 8:0.2727 9:0.1818 10:0.2727 11:0.2727 12:14 13:0.16 14:4 15:0.4407 16:59 17:0.2712 18:0.2034 19:0.2373 20:0.2881 21:0.1481 22:0.9 23:0.3333 
0.2575006917987327 1:4 2:2 3:10 4:21 5:0.381 6:1 7:3 8:0.1905 9:0.1905 10:0.1905 11:0.4286 12:52 13:0.1 14:2 15:0.4407 16:59 17:0.2712 18:0.2034 19:0.2373 20:0.2881 21:0.1481 22:0.78 23:0.375 
1 1:1 2:1 3:3 4:23 5:0.5455 6:1 7:4 8:0.3182 9:0.3182 10:0.2273 11:0.1364 12:38 13:0.1556 14:1 15:0.5345 16:58 17:0.2931 18:0.2414 19:0.2931 20:0.1724 21:0.1429 22:1.12 23:0.3333 
1 1:5 2:2 3:11 4:22 5:0.5238 6:1 7:3 8:0.0952 9:0.1429 10:0.381 11:0.381 12:2 13:0.0952 14:3 15:0.5 16:64 17:0.2344 18:0.1875 19:0.3125 20:0.2656 21:0.2131 22:1 23:0.5238 
0.1484115614484316 1:-1 2:0 3:2 4:22 5:0.4286 6:2 7:3 8:0.2381 9:0.2381 10:0.1905 11:0.3333 12:62 13:0.1628 14:4 15:0.4308 16:65 17:0.2769 18:0.1692 19:0.2615 20:0.2923 21:0.1489 22:1 23:0 
0.6387914468890106 1:1 2:1 3:3 4:28 5:0.6087 6:5 7:4 8:0.1739 9:0.1739 10:0.4348 11:0.2174 12:6 13:0.24 14:1 15:0.4576 16:59 17:0.2712 18:0.2542 19:0.2034 20:0.2712 21:0.2222 22:1.25 23:0.3333 
0.8292338124243261 1:2 2:3 3:11 4:23 5:0.3182 6:3 7:3 8:0.3636 9:0.2727 10:0.0455 11:0.3182 12:46 13:0.1905 14:1 15:0.4308 16:65 17:0.2769 18:0.2308 19:0.2 20:0.2923 21:0.2 22:0.25 23:0.3 
0.2680625132628998 1:2 2:1 3:8 4:22 5:0.3636 6:2 7:3 8:0.3182 9:0.1364 10:0.2273 11:0.3182 12:42 13:0.1818 14:3 15:0.3548 16:62 17:0.2581 18:0.1452 19:0.2097 20:0.3871 21:0.1724 22:0.67 23:0.1429 
0.8045458779450342 1:1 2:1 3:2 4:22 5:0.6818 6:2 7:4 8:0.2727 9:0.4091 10:0.2727 11:0.0455 12:25 13:0.2093 14:3 15:0.5893 16:56 17:0.1607 18:0.3036 19:0.2857 20:0.25 21:0.2 22:0.75 23:0.5 
0.6382208931694222 1:4 2:1 3:9 4:21 5:0.4762 6:2 7:3 8:0.2857 9:0.0952 10:0.381 11:0.2381 12:4 13:0.1707 14:1 15:0.45 16:60 17:0.2667 18:0.2 19:0.25 20:0.2833 21:0.2143 22:0.64 23:0.3333 
0.9402499088020133 1:4 2:1 3:11 4:22 5:0.5714 6:2 7:4 8:0.2857 9:0.3333 10:0.2381 11:0.1429 12:46 13:0.1905 14:4 15:0.4462 16:65 17:0.2769 18:0.2 19:0.2462 20:0.2769 21:0.2131 22:2 23:0.2632 
0.4942789481826217 1:2 2:1 3:9 4:22 5:0.5909 6:2 7:3 8:0.1818 9:0.2727 10:0.3182 11:0.2273 12:9 13:0.15 14:1 15:0.4219 16:64 17:0.2188 18:0.1875 19:0.2344 20:0.3594 21:0.1724 22:1.6 23:0.2222 
1 1:3 2:4 3:32 4:20 5:0.45 6:7 7:3 8:0.35 9:0.1 10:0.35 11:0.2 12:5 13:0.3939 14:4 15:0.4271 16:96 17:0.2188 18:0.1771 19:0.25 20:0.3542 21:0.2527 22:0 23:0.2 
1 1:2 2:2 3:8 4:24 5:0.3478 6:3 7:2 8:0.2609 9:0.087 10:0.2609 11:0.3913 12:65 13:0.1364 14:3 15:0.4127 16:63 17:0.2222 18:0.2063 19:0.2063 20:0.3651 21:0.1724 22:0.64 23:0.375 
0.1724993080857207 1:3 2:1 3:7 4:23 5:0.5652 6:3 7:2 8:0.1304 9:0.3478 10:0.2174 11:0.3043 12:57 13:0.2 14:2 15:0.597 16:67 17:0.1642 18:0.3881 19:0.209 20:0.2388 21:0.2281 22:2.5 23:0.3333 
0.4256098476771387 1:3 2:2 3:8 4:21 5:0.45 6:2 7:3 8:0.2 9:0.4 10:0.05 11:0.35 12:19 13:0.15 14:4 15:0.4531 16:64 17:0.2969 18:0.2031 19:0.25 20:0.25 21:0.1765 22:0.64 23:0.3846 
0.3097394447723054 1:-1 2:0 3:3 4:20 5:0.3 6:1 7:2 8:0.55 9:0.15 10:0.15 11:0.15 12:53 13:0.1 14:3 15:0.375 16:56 17:0.2679 18:0.1429 19:0.2321 20:0.3571 21:0.087 22:1 23:0 
0.8935076356707189 1:9 2:1 3:18 4:21 5:0.3333 6:1 7:2 8:0.2381 9:0 10:0.3333 11:0.4286 12:18 13:0.0732 14:1 15:0.3816 16:76 17:0.2763 18:0.1316 19:0.25 20:0.3421 21:0.1765 22:0.86 23:0.3333 
1 1:9 2:1 3:20 4:21 5:0.3 6:1 7:2 8:0.3 9:0.3 10:0 11:0.4 12:76 13:0.0732 14:3 15:0.4125 16:80 17:0.2625 18:0.15 19:0.2625 20:0.325 21:0.1667 22:0.6 23:0.2903 
1 1:-1 2:0 3:0 4:32 5:0.5652 6:7 7:6 8:0.2609 9:0.3043 10:0.2609 11:0.1739 12:7 13:0.4035 14:1 15:0.5 16:58 17:0.2759 18:0.2586 19:0.2414 20:0.2241 21:0.3585 22:1.6 23:-1 
0.9109033691083726 1:7 2:2 3:11 4:21 5:0.5238 6:2 7:4 8:0.1905 9:0.1905 10:0.3333 11:0.2857 12:45 13:0.2857 14:4 15:0.4833 16:60 17:0.2833 18:0.25 19:0.2333 20:0.2333 21:0.3455 22:1.43 23:0.6 
0.8079271279543836 1:2 2:2 3:6 4:27 5:0.4545 6:6 7:3 8:0.2727 9:0.3182 10:0.1364 11:0.2727 12:7 13:0.3469 14:3 15:0.4355 16:62 17:0.2742 18:0.2258 19:0.2097 20:0.2903 21:0.3559 22:1.14 23:0.5 
1 1:6 2:3 3:14 4:20 5:0.5 6:4 7:2 8:0.3 9:0.2 10:0.3 11:0.2 12:50 13:0.25 14:4 15:0.4531 16:64 17:0.2656 18:0.2344 19:0.2188 20:0.2812 21:0.3443 22:1 23:0.5652 
1 1:4 2:1 3:11 4:20 5:0.5 6:3 7:2 8:0.25 9:0.3 10:0.2 11:0.25 12:6 13:0.2 14:3 15:0.4286 16:70 17:0.2857 18:0.2571 19:0.1714 20:0.2857 21:0.2333 22:0.43 23:0.3 
0.1183673457579659 1:-1 2:0 3:2 4:24 5:0.4762 6:3 7:3 8:0.2381 9:0.2857 10:0.1905 11:0.2857 12:61 13:0.1556 14:3 15:0.4754 16:61 17:0.2295 18:0.2623 19:0.2131 20:0.2951 21:0.1429 22:1.67 23:0 
0.08899886223651886 1:1 2:1 3:5 4:20 5:0.5 6:2 7:2 8:0.2 9:0.3 10:0.2 11:0.3 12:13 13:0.15 14:3 15:0.4444 16:54 17:0.2593 18:0.1852 19:0.2593 20:0.2963 21:0.16 22:1.25 23:0.2 
0.2890010888326999 1:1 2:1 3:5 4:21 5:0.4762 6:2 7:2 8:0.3333 9:0.1905 10:0.2857 11:0.1905 12:47 13:0.1429 14:4 15:0.4286 16:56 17:0.2679 18:0.1786 19:0.25 20:0.3036 21:0.1538 22:0.8 23:0.2 
1 1:-1 2:0 3:0 4:24 5:0.625 6:2 7:4 8:0.0417 9:0.3333 10:0.2917 11:0.3333 12:42 13:0.2444 14:-1 15:0.7234 16:47 17:0.1064 18:0.3404 19:0.383 20:0.1702 21:0.1707 22:0.62 23:-1 
0.06204927478586651 1:-1 2:0 3:2 4:23 5:0.4348 6:3 7:3 8:0.1739 9:0.1739 10:0.2609 11:0.3913 12:9 13:0.1628 14:2 15:0.3509 16:57 17:0.2982 18:0.193 19:0.1579 20:0.3509 21:0.1489 22:1 23:0 
0.3300889318963721 1:-1 2:0 3:3 4:24 5:0.3333 6:3 7:4 8:0.4286 9:0.2857 10:0.0476 11:0.2381 12:47 13:0.2 14:3 15:0.3279 16:61 17:0.2951 18:0.1803 19:0.1475 20:0.377 21:0.1765 22:1.43 23:0 
0.2077259837498817 1:1 2:1 3:3 4:22 5:0.5 6:2 7:4 8:0.4091 9:0.1818 10:0.3182 11:0.0909 12:47 13:0.2727 14:1 15:0.3898 16:59 17:0.3051 18:0.1695 19:0.2203 20:0.3051 21:0.25 22:1.43 23:0.3333 
0.7652166939324008 1:3 2:2 3:6 4:22 5:0.4545 6:6 7:1 8:0.2273 9:0.2727 10:0.1818 11:0.3182 12:11 13:0.2727 14:1 15:0.4386 16:57 17:0.3158 18:0.2632 19:0.1754 20:0.2456 21:0.3077 22:1 23:0.6 
0.5173212943768527 1:3 2:2 3:8 4:22 5:0.381 6:6 7:2 8:0.4762 9:0.1429 10:0.2381 11:0.1429 12:48 13:0.3023 14:4 15:0.4333 16:60 17:0.3167 18:0.2667 19:0.1667 20:0.25 21:0.3091 22:1.11 23:0.4286 
0.4028472260415191 1:2 2:1 3:4 4:20 5:0.45 6:3 7:3 8:0.25 9:0.15 10:0.3 11:0.3 12:50 13:0.25 14:4 15:0.4464 16:56 17:0.1607 18:0.1964 19:0.25 20:0.3929 21:0.2917 22:0.8 23:0.5 
0.7570080072326815 1:-1 2:0 3:2 4:21 5:0.4286 6:5 7:3 8:0.2381 9:0.3333 10:0.0952 11:0.3333 12:13 13:0.381 14:3 15:0.5 16:56 17:0.2143 18:0.25 19:0.25 20:0.2857 21:0.3478 22:0.2 23:0 
0.4039919691863776 1:-1 2:0 3:4 4:21 5:0.4286 6:5 7:3 8:0.2857 9:0.0952 10:0.3333 11:0.2857 12:50 13:0.381 14:1 15:0.5 16:60 17:0.2167 18:0.25 19:0.25 20:0.2833 21:0.32 22:1.8 23:0 
1 1:1 2:2 3:8 4:22 5:0.5455 6:1 7:3 8:0.0909 9:0.2273 10:0.3182 11:0.3636 12:6 13:0.1364 14:4 15:0.5147 16:68 17:0.2059 18:0.25 19:0.2647 20:0.2794 21:0.1228 22:0.7 23:0.2 
0.8729428230757575 1:-1 2:0 3:1 4:22 5:0.3636 6:1 7:1 8:0.2273 9:0.1364 10:0.2273 11:0.4091 12:17 13:0.0455 14:4 15:0.3333 16:54 17:0.2963 18:0.1296 19:0.2037 20:0.3704 21:0.0435 22:1 23:0 
0.4048504140988095 1:3 2:2 3:10 4:21 5:0.45 6:3 7:3 8:0.2 9:0.3 10:0.15 11:0.35 12:51 13:0.2105 14:3 15:0.4923 16:65 17:0.2615 18:0.2308 19:0.2615 20:0.2462 21:0.25 22:3 23:0.4 
0.9116038954497265 1:-1 2:0 3:3 4:30 5:0.5833 6:5 7:4 8:0.0833 9:0.5417 10:0.0417 11:0.3333 12:49 13:0.2075 14:2 15:0.6716 16:67 17:0.1642 18:0.3134 19:0.3582 20:0.1642 21:0.1864 22:0.64 23:0 
1 1:-1 2:0 3:1 4:28 5:0.4091 6:3 7:4 8:0.1364 9:0.3182 10:0.0909 11:0.4545 12:49 13:0.2 14:1 15:0.4286 16:56 17:0.3036 18:0.2143 19:0.2143 20:0.2679 21:0.1923 22:2.5 23:0 
0.9853193291371322 1:-1 2:0 3:3 4:23 5:0.2381 6:2 7:1 8:0.3333 9:0.2381 10:0 11:0.4286 12:13 13:0.0455 14:1 15:0.2778 16:54 17:0.3148 18:0.1111 19:0.1667 20:0.4074 21:0.04 22:1 23:0 
0.6997068154984728 1:1 2:1 3:4 4:20 5:0.4 6:2 7:2 8:0.25 9:0.1 10:0.3 11:0.35 12:43 13:0.1053 14:3 15:0.4386 16:57 17:0.2281 18:0.2105 19:0.2281 20:0.3333 21:0.0909 22:0.7 23:0.25 
0.062141046880707 1:2 2:1 3:5 4:25 5:0.4783 6:2 7:4 8:0.3478 9:0.1304 10:0.3478 11:0.1739 12:50 13:0.1667 14:3 15:0.4062 16:64 17:0.2344 18:0.1562 19:0.25 20:0.3594 21:0.1786 22:2 23:0.25 
0.1728124418090093 1:-1 2:0 3:1 4:23 5:0.4545 6:2 7:3 8:0.1364 9:0.3182 10:0.1364 11:0.4091 12:51 13:0.2 14:1 15:0.4262 16:61 17:0.2951 18:0.1967 19:0.2295 20:0.2787 21:0.1915 22:2.25 23:0 
0.6785435211672435 1:-1 2:0 3:5 4:24 5:0.5 6:2 7:4 8:0.0455 9:0.3636 10:0.1364 11:0.4545 12:47 13:0.2174 14:3 15:0.5968 16:62 17:0.1774 18:0.2742 19:0.3226 20:0.2258 21:0.1786 22:1.43 23:0 
0.5940903261390387 1:1 2:1 3:3 4:24 5:0.5455 6:2 7:5 8:0.2273 9:0.2273 10:0.3182 11:0.2273 12:60 13:0.2609 14:4 15:0.4576 16:59 17:0.2034 18:0.2373 19:0.2203 20:0.339 21:0.24 22:1.12 23:0.3333 
1 1:1 2:1 3:3 4:32 5:0.3913 6:7 7:4 8:0.3913 9:0.1304 10:0.2609 11:0.2174 12:10 13:0.2727 14:1 15:0.3438 16:64 17:0.3438 18:0.1719 19:0.1719 20:0.3125 21:0.2542 22:0.89 23:0.3333 
0.3439101947116321 1:6 2:2 3:9 4:24 5:0.5217 6:3 7:3 8:0.2609 9:0.3478 10:0.1739 11:0.2174 12:11 13:0.2444 14:2 15:0.4918 16:61 17:0.2951 18:0.2787 19:0.2131 20:0.2131 21:0.3448 22:0.2 23:0.7333 
1 1:2 2:3 3:11 4:23 5:0.4348 6:1 7:3 8:0.087 9:0.2174 10:0.2174 11:0.4783 12:55 13:0.1111 14:3 15:0.3824 16:68 17:0.2647 18:0.1765 19:0.2059 20:0.3529 21:0.1429 22:1.14 23:0.3 
0.5908545763398017 1:-1 2:0 3:5 4:21 5:0.381 6:5 7:2 8:0.3333 9:0.1905 10:0.1905 11:0.2857 12:22 13:0.3333 14:4 15:0.4107 16:56 17:0.2321 18:0.1607 19:0.25 20:0.3571 21:0.2692 22:1.6 23:0 
0.3605200229212704 1:-1 2:0 3:2 4:20 5:0.3 6:1 7:2 8:0.35 9:0.05 10:0.25 11:0.35 12:55 13:0.1 14:1 15:0.35 16:60 17:0.3333 18:0.15 19:0.2 20:0.3167 21:0.0909 22:1 23:0 
0.3462674664327632 1:-1 2:0 3:2 4:21 5:0.4286 6:2 7:4 8:0.3333 9:0.1905 10:0.2381 11:0.2381 12:61 13:0.2195 14:4 15:0.4127 16:63 17:0.2698 18:0.2222 19:0.1905 20:0.3175 21:0.2 22:1 23:0 
0.619241097441251 1:1 2:1 3:3 4:21 5:0.4762 6:2 7:2 8:0.2857 9:0.3333 10:0.1429 11:0.2381 12:50 13:0.1707 14:1 15:0.4643 16:56 17:0.3036 18:0.2679 19:0.1964 20:0.2321 21:0.1556 22:1.5 23:0.3333 
0.6513884490858485 1:1 2:1 3:8 4:22 5:0.4762 6:1 7:2 8:0.2381 9:0.1429 10:0.3333 11:0.2857 12:54 13:0.0698 14:1 15:0.3939 16:66 17:0.303 18:0.197 19:0.197 20:0.303 21:0.069 22:0.9 23:0.0667 
0.2004762712989311 1:2 2:2 3:5 4:20 5:0.4 6:1 7:1 8:0.3 9:0.25 10:0.15 11:0.3 12:15 13:0.05 14:1 15:0.3571 16:56 17:0.3393 18:0.1786 19:0.1786 20:0.3036 21:0.1064 22:0.7 23:0.5556 
0.008316932887480187 1:2 2:2 3:8 4:21 5:0.4286 6:1 7:1 8:0.381 9:0.1429 10:0.2857 11:0.1905 12:53 13:0.0476 14:1 15:0.4426 16:61 17:0.3115 18:0.2131 19:0.2295 20:0.2459 21:0.1071 22:0.91 23:0.375 
0.4279825876916252 1:-1 2:0 3:5 4:23 5:0.4762 6:2 7:5 8:0.1905 9:0.0476 10:0.4286 11:0.3333 12:55 13:0.2093 14:4 15:0.4918 16:61 17:0.2295 18:0.1803 19:0.3115 20:0.2787 21:0.1698 22:4.5 23:0 
1 1:1 2:1 3:8 4:22 5:0.4091 6:1 7:2 8:0.2273 9:0.2727 10:0.1364 11:0.3636 12:64 13:0.0909 14:1 15:0.3506 16:77 17:0.3247 18:0.1948 19:0.1558 20:0.3247 21:0.069 22:0.64 23:0.125 
0.8621873526672352 1:5 2:1 3:8 4:22 5:0.5455 6:2 7:3 8:0.2727 9:0.4091 10:0.1364 11:0.1818 12:9 13:0.1818 14:3 15:0.4923 16:65 17:0.2769 18:0.2308 19:0.2615 20:0.2308 21:0.2632 22:0.9 23:0.5385 
0.6784968204786839 1:1 2:1 3:3 4:29 5:0.5652 6:5 7:3 8:0.2174 9:0.3043 10:0.2609 11:0.2174 12:48 13:0.2308 14:1 15:0.4308 16:65 17:0.3385 18:0.2154 19:0.2154 20:0.2308 21:0.2143 22:0.91 23:0.3333 
0.7528286666431921 1:-1 2:0 3:0 4:21 5:0.381 6:2 7:3 8:0.2857 9:0.1905 10:0.1905 11:0.3333 12:51 13:0.2381 14:4 15:0.4035 16:57 17:0.2982 18:0.1754 19:0.2281 20:0.2982 21:0.2 22:1.4 23:-1 
0.6533779702503805 1:4 2:1 3:6 4:22 5:0.4545 6:1 7:1 8:0.0909 9:0.3636 10:0.0909 11:0.4545 12:44 13:0.0455 14:4 15:0.4603 16:63 17:0.254 18:0.2222 19:0.2381 20:0.2857 21:0.1636 22:1.43 23:0.6364 
0.01686958058769121 1:1 2:2 3:4 4:21 5:0.381 6:1 7:1 8:0.3333 9:0.1905 10:0.1905 11:0.2857 12:12 13:0.0476 14:3 15:0.3455 16:55 17:0.3091 18:0.1091 19:0.2364 20:0.3455 21:0.0833 22:1.43 23:0.5 
-1 1:1 2:1 3:3 4:23 5:0.3043 6:2 7:3 8:0.2174 9:0.2609 10:0.0435 11:0.4783 12:50 13:0.1364 14:4 15:0.3091 16:55 17:0.3091 18:0.1636 19:0.1455 20:0.3818 21:0.125 22:0.7 23:0.3333 
-0.1472414088061035 1:2 2:5 3:18 4:24 5:0.4783 6:2 7:5 8:0.1739 9:0.3043 10:0.1739 11:0.3478 12:66 13:0.2766 14:4 15:0.4762 16:84 17:0.2024 18:0.1905 19:0.2857 20:0.3214 21:0.3165 22:0.91 23:0.4118 
-0.07910176889879435 1:2 2:5 3:20 4:23 5:0.5652 6:2 7:5 8:0.1739 9:0.1304 10:0.4348 11:0.2609 12:4 13:0.2889 14:1 15:0.4651 16:86 17:0.2093 18:0.186 19:0.2791 20:0.3256 21:0.3086 22:1 23:0.3684 
-0.47226742935521 1:2 2:2 3:17 4:21 5:0.7143 6:4 7:4 8:0.1429 9:0.4286 10:0.2857 11:0.1429 12:78 13:0.3171 14:2 15:0.5258 16:97 17:0.2371 18:0.2474 19:0.2784 20:0.2371 21:0.2533 22:0.78 23:0.1765 
-0.1964062490403588 1:2 2:1 3:12 4:20 5:0.5 6:4 7:3 8:0.2 9:0.15 10:0.35 11:0.3 12:7 13:0.3 14:2 15:0.4884 16:86 17:0.2442 18:0.2209 19:0.2674 20:0.2674 21:0.25 22:1.57 23:0.1667 
-0.2878099712263013 1:2 2:1 3:10 4:22 5:0.6818 6:4 7:3 8:0.0909 9:0.4545 10:0.2273 11:0.2273 12:71 13:0.2727 14:3 15:0.4884 16:86 17:0.2442 18:0.2209 19:0.2674 20:0.2674 21:0.25 22:0.73 23:0.2 
-0.595870512378967 1:1 2:1 3:3 4:29 5:0.4545 6:7 7:3 8:0.1818 9:0.0909 10:0.3636 11:0.3636 12:22 13:0.2157 14:4 15:0.4333 16:60 17:0.2667 18:0.1667 19:0.2667 20:0.3 21:0.2 22:0.83 23:0.3333 
-0.9778477039652218 1:1 2:2 3:8 4:22 5:0.3182 6:7 7:2 8:0.4545 9:0.1818 10:0.1364 11:0.2273 12:58 13:0.2432 14:4 15:0.4107 16:56 17:0.2857 18:0.1607 19:0.25 20:0.3036 21:0.2157 22:0.4 23:0.25 
-0.3331790178658011 1:-1 2:0 3:0 4:32 5:0.4167 6:6 7:4 8:0.2917 9:0.0833 10:0.3333 11:0.2917 12:23 13:0.2632 14:4 15:0.3793 16:58 17:0.2759 18:0.2069 19:0.1724 20:0.3448 21:0.1765 22:3 23:-1 
-0.7599580989031184 1:1 2:1 3:2 4:28 5:0.3333 6:6 7:3 8:0.3333 9:0 10:0.3333 11:0.3333 12:23 13:0.1837 14:2 15:0.3793 16:58 17:0.2759 18:0.2069 19:0.1724 20:0.3448 21:0.1765 22:0.9 23:0.5 
-0.4009831346263086 1:6 2:4 3:28 4:21 5:0.55 6:2 7:4 8:0.15 9:0.15 10:0.4 11:0.3 12:5 13:0.25 14:1 15:0.4255 16:94 17:0.2447 18:0.2021 19:0.2234 20:0.3298 21:0.2184 22:2 23:0.2245 
-0.4590360580072133 1:9 2:2 3:27 4:24 5:0.45 6:3 7:2 8:0.2 9:0.3 10:0.15 11:0.35 12:76 13:0.1364 14:2 15:0.3913 16:92 17:0.2391 18:0.163 19:0.2283 20:0.3696 21:0.1724 22:1 23:0.2444 
-0.3993373383843493 1:-1 2:0 3:0 4:30 5:0.381 6:9 7:2 8:0.1905 9:0.0476 10:0.3333 11:0.4286 12:26 13:0.2549 14:1 15:0.3654 16:52 17:0.2692 18:0.1538 19:0.2115 20:0.3654 21:0.1915 22:2.25 23:-1 
-0.9466880185062303 1:6 2:2 3:14 4:21 5:0.2381 6:3 7:1 8:0.4286 9:0.1429 10:0.0952 11:0.3333 12:63 13:0.0769 14:4 15:0.3438 16:64 17:0.2812 18:0.1406 19:0.2031 20:0.375 21:0.1525 22:0.25 23:0.3636 
-0.7712929099130021 1:-1 2:0 3:4 4:30 5:0.5 6:5 7:5 8:0.3333 9:0.25 10:0.25 11:0.1667 12:64 13:0.283 14:4 15:0.4615 16:65 17:0.2769 18:0.2 19:0.2615 20:0.2615 21:0.2459 22:0.71 23:0 
-0.7342714183511198 1:-1 2:0 3:2 4:27 5:0.4286 6:5 7:4 8:0.381 9:0.1429 10:0.2857 11:0.1905 12:62 13:0.2766 14:3 15:0.4545 16:55 17:0.2727 18:0.1818 19:0.2727 20:0.2727 21:0.2549 22:1.8 23:0 
-0.5810129117400427 1:5 2:5 3:32 4:26 5:0.5417 6:3 7:4 8:0.125 9:0.1667 10:0.375 11:0.3333 12:1 13:0.3333 14:1 15:0.5138 16:109 17:0.2018 18:0.211 19:0.3028 20:0.2844 21:0.2952 22:0.6 23:0.2632 
-0.8591442711147743 1:4 2:3 3:13 4:24 5:0.5 6:4 7:2 8:0.2917 9:0.2917 10:0.2083 11:0.2083 12:66 13:0.1364 14:3 15:0.5278 16:72 17:0.1667 18:0.1944 19:0.3333 20:0.3056 21:0.1746 22:0 23:0.3333 
-0.291663674633042 1:3 2:3 3:12 4:20 5:0.5 6:5 7:2 8:0.35 9:0.25 10:0.25 11:0.15 12:65 13:0.2 14:1 15:0.5323 16:62 17:0.1613 18:0.1935 19:0.3387 20:0.3065 21:0.2075 22:0 23:0.3 
-0.4297440932988125 1:1 2:1 3:2 4:21 5:0.6 6:8 7:3 8:0.2 9:0.3 10:0.3 11:0.2 12:56 13:0.3333 14:4 15:0.5682 16:44 17:0.1364 18:0.2045 19:0.3636 20:0.2955 21:0.3143 22:1.33 23:0.5 
-0.04804135508982414 1:2 2:2 3:13 4:20 5:0.4 6:2 7:2 8:0.1 9:0.25 10:0.15 11:0.5 12:2 13:0.15 14:3 15:0.4156 16:77 17:0.2468 18:0.1558 19:0.2597 20:0.3377 21:0.2 22:0.56 23:0.28 
-0.3072489127025096 1:3 2:4 3:21 4:28 5:0.5238 6:7 7:4 8:0.0476 9:0.381 10:0.1429 11:0.4286 12:4 13:0.3333 14:1 15:0.4725 16:91 17:0.1868 18:0.2308 19:0.2418 20:0.3407 21:0.2791 22:0.71 23:0.25 
-0.1115709437860666 1:1 2:1 3:2 4:23 5:0.3043 6:4 7:3 8:0.3478 9:0.087 10:0.2174 11:0.3478 12:11 13:0.2889 14:2 15:0.4 16:50 17:0.32 18:0.18 19:0.22 20:0.28 21:0.2766 22:3 23:0.5 
-0.3126703846365985 1:-1 2:0 3:0 4:20 5:0.3 6:4 7:3 8:0.4 9:0.1 10:0.2 11:0.3 12:16 13:0.35 14:1 15:0.3902 16:41 17:0.3415 18:0.1951 19:0.1951 20:0.2683 21:0.3158 22:1 23:-1 
-0.03181636297094433 1:-1 2:0 3:0 4:20 5:0.381 6:3 7:3 8:0.3333 9:0.2381 10:0.1429 11:0.2857 12:43 13:0.2821 14:-1 15:0.3659 16:41 17:0.2927 18:0.1707 19:0.1951 20:0.3415 21:0.2 22:0.71 23:-1 
-0.08145265689527723 1:3 2:2 3:17 4:23 5:0.3478 6:1 7:3 8:0.2609 9:0.1739 10:0.1739 11:0.3913 12:1 13:0.1111 14:4 15:0.381 16:84 17:0.2738 18:0.1548 19:0.2262 20:0.3452 21:0.1538 22:1 23:0.2121 
-0.04237283238351115 1:2 2:2 3:15 4:21 5:0.381 6:2 7:4 8:0.2857 9:0.1905 10:0.1905 11:0.3333 12:8 13:0.2683 14:4 15:0.4 16:70 17:0.2857 18:0.1857 19:0.2143 20:0.3143 21:0.194 22:1 23:0.1429 
-0.03626016681304952 1:2 2:3 3:18 4:23 5:0.4545 6:3 7:5 8:0.4091 9:0.1364 10:0.3182 11:0.1364 12:74 13:0.4146 14:1 15:0.5 16:88 17:0.2727 18:0.2386 19:0.2614 20:0.2273 21:0.3067 22:0.67 23:0.2222 
-0.06828929668919127 1:2 2:3 3:18 4:20 5:0.5 6:2 7:4 8:0.35 9:0.15 10:0.35 11:0.15 12:74 13:0.3333 14:3 15:0.506 16:83 17:0.253 18:0.253 19:0.253 20:0.241 21:0.2571 22:0.67 23:0.2222 
-0.1938370180504788 1:-1 2:0 3:0 4:24 5:0.5 6:5 7:4 8:0.3 9:0.25 10:0.25 11:0.2 12:22 13:0.2381 14:-1 15:0.5682 16:44 17:0.25 18:0.25 19:0.3182 20:0.1818 21:0.2 22:1 23:-1 
-0.3886371557994725 1:5 2:4 3:27 4:20 5:0.65 6:3 7:5 8:0.3 9:0.3 10:0.35 11:0.05 12:70 13:0.3889 14:1 15:0.5795 16:88 17:0.2159 18:0.2727 19:0.3068 20:0.2045 21:0.3095 22:2.67 23:0.25 
-0.07009467185950408 1:5 2:2 3:17 4:24 5:0.5 6:2 7:4 8:0.3333 9:0.1667 10:0.3333 11:0.1667 12:63 13:0.2174 14:1 15:0.5294 16:85 17:0.2118 18:0.2824 19:0.2471 20:0.2588 21:0.2911 22:1.12 23:0.3939 
-0.0222609230514802 1:5 2:1 3:13 4:24 5:0.4783 6:2 7:4 8:0.1304 9:0.3478 10:0.1304 11:0.3913 12:5 13:0.2766 14:2 15:0.5256 16:78 17:0.2051 18:0.2821 19:0.2436 20:0.2692 21:0.3056 22:2.25 23:0.36 
-0.1691429588495107 1:2 2:4 3:21 4:23 5:0.4091 6:6 7:5 8:0.0455 9:0.2727 10:0.1364 11:0.5455 12:1 13:0.3846 14:2 15:0.5 16:86 17:0.1744 18:0.2791 19:0.2209 20:0.3256 21:0.3 22:0 23:0.2195 
-0.2878247893960061 1:7 2:3 3:24 4:24 5:0.5455 6:2 7:3 8:0 9:0.2727 10:0.2727 11:0.4545 12:6 13:0.1304 14:1 15:0.5652 16:92 17:0.163 18:0.3152 19:0.25 20:0.2717 21:0.2 22:0.78 23:0.3171 
-0.311014541001275 1:-1 2:0 3:0 4:29 5:0.619 6:7 7:4 8:0 9:0.2381 10:0.381 11:0.381 12:25 13:0.3725 14:4 15:0.5962 16:52 17:0.1538 18:0.3654 19:0.2308 20:0.25 21:0.2889 22:4 23:-1 
-0.1759333803128489 1:7 2:3 3:24 4:23 5:0.6522 6:2 7:3 8:0.2609 9:0.3478 10:0.3043 11:0.087 12:74 13:0.1364 14:4 15:0.5778 16:90 17:0.1556 18:0.3222 19:0.2556 20:0.2667 21:0.2048 22:1.8 23:0.3171 
-0.770474939843991 1:3 2:1 3:12 4:21 5:0.5714 6:3 7:5 8:0.1429 9:0.1429 10:0.4286 11:0.2857 12:49 13:0.35 14:1 15:0.5797 16:69 17:0.2174 18:0.2899 19:0.2899 20:0.2029 21:0.3016 22:1.6 23:0.2174 
-0.9691214636610663 1:3 2:1 3:11 4:20 5:0.6 6:3 7:4 8:0.25 9:0.55 10:0.05 11:0.15 12:1 13:0.3 14:3 15:0.5821 16:67 17:0.209 18:0.2836 19:0.2985 20:0.209 21:0.2787 22:1.43 23:0.2381 
-0.1405815226486481 1:3 2:5 3:26 4:22 5:0.6667 6:4 7:4 8:0.1429 9:0.381 10:0.2857 11:0.1905 12:2 13:0.3 14:3 15:0.5532 16:94 17:0.1702 18:0.2553 19:0.2979 20:0.2766 21:0.2644 22:0 23:0.2653 
-0.07351752669600807 1:3 2:4 3:14 4:21 5:0.4286 6:1 7:2 8:0.3333 9:0.0952 10:0.3333 11:0.2381 12:65 13:0.0952 14:3 15:0.5 16:72 17:0.2083 18:0.25 19:0.25 20:0.2917 21:0.2 22:0.9 23:0.44 
-0.00793267521495781 1:3 2:5 3:24 4:24 5:0.6667 6:4 7:4 8:0.0952 9:0.0952 10:0.5714 11:0.2381 12:75 13:0.2727 14:4 15:0.5532 16:94 17:0.1702 18:0.2553 19:0.2979 20:0.2766 21:0.2644 22:1.25 23:0.2889 
-0.1760815732603235 1:-1 2:0 3:0 4:24 5:0.375 6:4 7:4 8:0.4583 9:0.1667 10:0.2083 11:0.1667 12:52 13:0.2889 14:4 15:0.3333 16:51 17:0.3529 18:0.1373 19:0.1961 20:0.3137 21:0.2889 22:1.33 23:-1 
-0.1241705260870011 1:-1 2:0 3:0 4:21 5:0.4545 6:4 7:4 8:0.4091 9:0.1818 10:0.2727 11:0.1364 12:49 13:0.3846 14:-1 15:0.4146 16:41 17:0.3415 18:0.1707 19:0.2439 20:0.2439 21:0.3143 22:1.25 23:-1 
-0.1402355330760348 1:5 2:2 3:23 4:21 5:0.6667 6:4 7:3 8:0.0952 9:0.381 10:0.2857 11:0.2381 12:1 13:0.2821 14:1 15:0.5795 16:88 17:0.2045 18:0.3409 19:0.2386 20:0.2159 21:0.275 22:0.67 23:0.2683 
-0.1139041936656536 1:5 2:1 3:16 4:24 5:0.6667 6:4 7:3 8:0.0417 9:0.4583 10:0.2083 11:0.2917 12:5 13:0.3043 14:1 15:0.561 16:82 17:0.2073 18:0.3293 19:0.2317 20:0.2317 21:0.2703 22:2.75 23:0.2143 
-0.3203352730347681 1:-1 2:0 3:0 4:20 5:0.4 6:3 7:3 8:0.2 9:0.1 10:0.3 11:0.4 12:32 13:0.3 14:3 15:0.4524 16:42 17:0.1905 18:0.1429 19:0.3095 20:0.3571 21:0.1765 22:2.33 23:-1 
-0.4183762615504515 1:2 2:2 3:18 4:30 5:0.7083 6:4 7:4 8:0.125 9:0.2917 10:0.4167 11:0.1667 12:75 13:0.2453 14:2 15:0.5773 16:97 17:0.1856 18:0.2474 19:0.3299 20:0.2371 21:0.2135 22:1.83 23:0.1667 
-0.120188829301999 1:2 2:1 3:13 4:24 5:0.6087 6:4 7:3 8:0.1739 9:0.3043 10:0.3043 11:0.2174 12:13 13:0.1628 14:4 15:0.5455 16:77 17:0.1688 18:0.2208 19:0.3247 20:0.2857 21:0.1594 22:0.43 23:0.1538 
-0.02725011345592292 1:1 2:1 3:11 4:20 5:0.5 6:4 7:2 8:0.25 9:0.15 10:0.35 11:0.25 12:9 13:0.3 14:4 15:0.4675 16:77 17:0.2338 18:0.2338 19:0.2338 20:0.2987 21:0.2131 22:0.44 23:0.0476 
-0.005071173009882857 1:1 2:1 3:8 4:21 5:0.5238 6:4 7:1 8:0.2381 9:0.0952 10:0.4286 11:0.2381 12:11 13:0.1905 14:1 15:0.4658 16:73 17:0.2329 18:0.2329 19:0.2329 20:0.3014 21:0.1579 22:1 23:0.0667 
-0.07190753755863032 1:2 2:1 3:19 4:20 5:0.45 6:4 7:3 8:0.15 9:0.3 10:0.15 11:0.4 12:4 13:0.4211 14:2 15:0.3708 16:89 17:0.2472 18:0.1798 19:0.191 20:0.382 21:0.2533 22:0.33 23:0.0811 
-0.2254493351921682 1:-1 2:0 3:12 4:24 5:0.4167 6:4 7:3 8:0.0833 9:0.2917 10:0.125 11:0.5 12:7 13:0.3191 14:4 15:0.3765 16:85 17:0.2353 18:0.1882 19:0.1882 20:0.3882 21:0.2113 22:3 23:0 
-0.1445513993038276 1:2 2:1 3:9 4:23 5:0.3913 6:3 7:2 8:0.087 9:0.1304 10:0.2609 11:0.5217 12:10 13:0.1364 14:3 15:0.4211 16:76 17:0.2105 18:0.1974 19:0.2237 20:0.3684 21:0.1613 22:4 23:0.2222 
-0.01624535045890547 1:2 2:2 3:11 4:24 5:0.4167 6:2 7:2 8:0.0833 9:0.1667 10:0.25 11:0.5 12:7 13:0.1064 14:3 15:0.4146 16:82 17:0.2195 18:0.1951 19:0.2195 20:0.3659 21:0.1471 22:2.5 23:0.2381 
-0.4000800061161744 1:2 2:1 3:8 4:26 5:0.5417 6:3 7:2 8:0.3333 9:0.25 10:0.2917 11:0.125 12:64 13:0.12 14:4 15:0.425 16:80 17:0.2125 18:0.2 19:0.225 20:0.3625 21:0.1515 22:0.5 23:0.25 
-0.2916727852076573 1:2 2:5 3:19 4:21 5:0.5238 6:2 7:2 8:0.0952 9:0.2381 10:0.2857 11:0.381 12:11 13:0.1429 14:3 15:0.4568 16:81 17:0.2222 18:0.1481 19:0.3086 20:0.321 21:0.2105 22:1.25 23:0.3333 
-0.1312478225769679 1:-1 2:0 3:0 4:23 5:0.2727 6:2 7:5 8:0.2727 9:0.0909 10:0.1818 11:0.4545 12:52 13:0.3182 14:4 15:0.3333 16:45 17:0.2667 18:0.0889 19:0.2444 20:0.4 21:0.25 22:0.67 23:-1 
-0.5074393397848646 1:2 2:6 3:27 4:23 5:0.55 6:9 7:2 8:0.25 9:0.2 10:0.35 11:0.2 12:79 13:0.4419 14:1 15:0.4694 16:98 17:0.2143 18:0.1837 19:0.2857 20:0.3163 21:0.3333 22:5 23:0.2692 
-0.1326904410485782 1:2 2:5 3:26 4:23 5:0.45 6:6 7:3 8:0.2 9:0.05 10:0.4 11:0.35 12:78 13:0.3333 14:1 15:0.4227 16:97 17:0.2474 18:0.1546 19:0.268 20:0.3299 21:0.2444 22:2 23:0.2 
-0.4399850081450457 1:3 2:1 3:11 4:21 5:0.5 6:2 7:4 8:0.3 9:0.3 10:0.2 11:0.2 12:76 13:0.2683 14:1 15:0.4881 16:84 17:0.2381 18:0.25 19:0.2381 20:0.2738 21:0.2581 22:1 23:0.2381 
-0.3422478793671699 1:3 2:2 3:18 4:21 5:0.5238 6:2 7:5 8:0.1429 9:0.1905 10:0.3333 11:0.3333 12:5 13:0.3158 14:2 15:0.4842 16:95 17:0.2421 18:0.2526 19:0.2316 20:0.2737 21:0.2603 22:0.75 23:0.2 
-0.2751671757116574 1:3 2:2 3:14 4:21 5:0.4762 6:2 7:4 8:0.0952 9:0.1429 10:0.3333 11:0.4286 12:9 13:0.25 14:2 15:0.4607 16:89 17:0.2472 18:0.236 19:0.2247 20:0.2921 21:0.2537 22:0.6 23:0.2593 
-0.06072647605613891 1:-1 2:0 3:0 4:22 5:0.4762 6:2 7:4 8:0.0952 9:0.1905 10:0.2857 11:0.4286 12:10 13:0.1905 14:2 15:0.5682 16:44 17:0.1591 18:0.2727 19:0.2955 20:0.2727 21:0.1053 22:1.8 23:-1 
-0.3201981276118738 1:-1 2:0 3:0 4:21 5:0.45 6:2 7:4 8:0.1 9:0.2 10:0.25 11:0.45 12:11 13:0.2 14:2 15:0.5476 16:42 17:0.1667 18:0.2619 19:0.2857 20:0.2857 21:0.1111 22:1.2 23:-1 
-0.4803001880766166 1:2 2:1 3:13 4:24 5:0.5909 6:2 7:4 8:0.2727 9:0.3182 10:0.2727 11:0.1364 12:58 13:0.2273 14:4 15:0.4861 16:72 17:0.25 18:0.2083 19:0.2778 20:0.2639 21:0.1765 22:2.2 23:0.0833 
-0.112714324836274 1:2 2:2 3:16 4:24 5:0.6522 6:2 7:4 8:0.2609 9:0.2609 10:0.3913 11:0.087 12:71 13:0.1739 14:4 15:0.5366 16:82 17:0.1829 18:0.2561 19:0.2805 20:0.2805 21:0.1579 22:1.5 23:0.1333 
-0.2234469566184713 1:-1 2:0 3:0 4:23 5:0.5 6:2 7:3 8:0.2273 9:0.2273 10:0.2727 11:0.2727 12:54 13:0.1818 14:-1 15:0.4565 16:46 17:0.2174 18:0.2174 19:0.2391 20:0.3261 21:0.1 22:0.62 23:-1 
-0.06355722962906342 1:-1 2:0 3:0 4:21 5:0.4762 6:6 7:3 8:0.1429 9:0.2381 10:0.2381 11:0.381 12:47 13:0.3659 14:4 15:0.4651 16:43 17:0.2791 18:0.2558 19:0.2093 20:0.2558 21:0.3333 22:0.86 23:-1 
-0.1813975534175918 1:6 2:2 3:19 4:20 5:0.4 6:2 7:1 8:0.35 9:0.2 10:0.2 11:0.25 12:6 13:0.1 14:2 15:0.4321 16:81 17:0.284 18:0.2099 19:0.2222 20:0.284 21:0.2208 22:0.56 23:0.3514 
-0.2546138025040347 1:6 2:1 3:17 4:23 5:0.3913 6:2 7:2 8:0.2174 9:0.1739 10:0.2174 11:0.3913 12:65 13:0.1304 14:2 15:0.4217 16:83 17:0.2892 18:0.2048 19:0.2169 20:0.2892 21:0.2152 22:1 23:0.3333 
-0.265068071826051 1:-1 2:0 3:0 4:21 5:0.5238 6:1 7:4 8:0.1429 9:0.2381 10:0.2857 11:0.3333 12:22 13:0.1707 14:-1 15:0.4884 16:43 17:0.2093 18:0.186 19:0.3023 20:0.3023 21:0.1282 22:1.43 23:-1 
-0.3648341228812509 1:1 2:2 3:11 4:24 5:0.45 6:4 7:4 8:0.25 9:0.2 10:0.25 11:0.3 12:10 13:0.2381 14:4 15:0.4 16:70 17:0.3143 18:0.1857 19:0.2143 20:0.2857 21:0.1935 22:1.33 23:0.1 
-0.3858378673465189 1:1 2:3 3:15 4:28 5:0.5417 6:9 7:3 8:0.2083 9:0.25 10:0.2917 11:0.25 12:2 13:0.3725 14:1 15:0.3953 16:86 17:0.314 18:0.1977 19:0.1977 20:0.2907 21:0.2821 22:0.7 23:0.1111 
-0.1354977250805042 1:1 2:2 3:14 4:24 5:0.4783 6:2 7:6 8:0.1739 9:0.1739 10:0.3043 11:0.3478 12:65 13:0.3478 14:1 15:0.5176 16:85 17:0.1882 18:0.2118 19:0.3059 20:0.2941 21:0.25 22:2 23:0.1429 
-0.06240047311572733 1:1 2:2 3:16 4:24 5:0.5217 6:3 7:6 8:0.087 9:0.2174 10:0.3043 11:0.3913 12:67 13:0.4091 14:1 15:0.5172 16:87 17:0.1839 18:0.2184 19:0.2989 20:0.2989 21:0.2703 22:2.33 23:0.125 
-0.001033784274378321 1:1 2:3 3:17 4:21 5:0.55 6:2 7:5 8:0.1 9:0.2 10:0.35 11:0.35 12:68 13:0.35 14:1 15:0.5176 16:85 17:0.1882 18:0.2118 19:0.3059 20:0.2941 21:0.25 22:3.33 23:0.1765 
-0.1865411767948045 1:-1 2:0 3:0 4:24 5:0.4583 6:2 7:4 8:0.2917 9:0.25 10:0.2083 11:0.25 12:37 13:0.2273 14:-1 15:0.4 16:45 17:0.3111 18:0.2 19:0.2 20:0.2889 21:0.15 22:0.44 23:-1 
-0.3306447054475004 1:-1 2:0 3:0 4:27 5:0.3333 6:2 7:4 8:0.375 9:0.1667 10:0.1667 11:0.2917 12:13 13:0.2 14:4 15:0.3922 16:51 17:0.3137 18:0.1961 19:0.1961 20:0.2941 21:0.1304 22:2.25 23:-1 
-0.3722951160679091 1:2 2:3 3:15 4:26 5:0.5 6:3 7:3 8:0.25 9:0.2083 10:0.2917 11:0.25 12:54 13:0.1915 14:1 15:0.4545 16:77 17:0.2857 18:0.2338 19:0.2208 20:0.2597 21:0.1944 22:3.33 23:0.2593 
-0.2077211213962467 1:2 2:1 3:11 4:25 5:0.3913 6:2 7:4 8:0.2174 9:0.1739 10:0.2174 11:0.3913 12:2 13:0.234 14:4 15:0.4405 16:84 17:0.1667 18:0.2262 19:0.2143 20:0.3929 21:0.2059 22:1.6 23:0.1429 
-0.03887509811743139 1:3 2:1 3:12 4:24 5:0.5217 6:2 7:4 8:0.087 9:0.2609 10:0.2609 11:0.3913 12:63 13:0.2 14:4 15:0.4405 16:84 17:0.1667 18:0.2262 19:0.2143 20:0.3929 21:0.2059 22:1 23:0.2174 
-0.1078376614921091 1:4 2:2 3:17 4:23 5:0.5455 6:3 7:3 8:0.1364 9:0.3182 10:0.2273 11:0.3182 12:68 13:0.2195 14:4 15:0.4607 16:89 17:0.1685 18:0.2472 19:0.2135 20:0.3708 21:0.2329 22:3 23:0.25 
-0.1578224678760451 1:-1 2:0 3:0 4:23 5:0.4091 6:3 7:4 8:0.3636 9:0.1818 10:0.2273 11:0.2273 12:49 13:0.3171 14:-1 15:0.4524 16:42 17:0.2857 18:0.2143 19:0.2381 20:0.2619 21:0.2 22:0.29 23:-1 
-0.09349651259252884 1:2 2:3 3:15 4:25 5:0.4348 6:3 7:2 8:0.2609 9:0.1739 10:0.2609 11:0.3043 12:10 13:0.1667 14:1 15:0.4875 16:80 17:0.25 18:0.2125 19:0.275 20:0.2625 21:0.1507 22:1.43 23:0.1852 
-0.2060693262793157 1:3 2:4 3:25 4:20 5:0.45 6:2 7:2 8:0.25 9:0.15 10:0.3 11:0.3 12:5 13:0.1579 14:1 15:0.5 16:88 17:0.2273 18:0.2159 19:0.2841 20:0.2727 21:0.1605 22:0.56 23:0.2 
-0.2416971513218834 1:2 2:4 3:20 4:20 5:0.5 6:2 7:3 8:0.15 9:0.25 10:0.25 11:0.35 12:76 13:0.1795 14:3 15:0.4886 16:88 17:0.2159 18:0.2045 19:0.2841 20:0.2955 21:0.1733 22:1.12 23:0.2105 
-0.08458695284609144 1:-1 2:0 3:0 4:21 5:0.35 6:2 7:3 8:0.25 9:0.05 10:0.3 11:0.4 12:18 13:0.1282 14:4 15:0.3953 16:43 17:0.2093 18:0.186 19:0.2093 20:0.3953 21:0.1282 22:1.17 23:-1 
-0.2658887448249567 1:1 2:1 3:9 4:26 5:0.5 6:3 7:4 8:0.0833 9:0.2917 10:0.2083 11:0.4167 12:57 13:0.28 14:1 15:0.5063 16:79 17:0.2532 18:0.2278 19:0.2785 20:0.2405 21:0.2121 22:0.57 23:0.1111 
-0.01422257930849783 1:-1 2:0 3:11 4:24 5:0.2083 6:2 7:4 8:0.25 9:0.0833 10:0.125 11:0.5417 12:59 13:0.2083 14:4 15:0.2949 16:78 17:0.3205 18:0.141 19:0.1538 20:0.3846 21:0.1429 22:0.75 23:0 
-0.06167128785310615 1:1 2:3 3:14 4:24 5:0.6087 6:1 7:5 8:0.1739 9:0.2609 10:0.3478 11:0.2174 12:55 13:0.1739 14:4 15:0.5135 16:74 17:0.2297 18:0.2568 19:0.2568 20:0.2568 21:0.1549 22:1 23:0.1852 
-0.2775973855042755 1:1 2:4 3:17 4:21 5:0.6 6:1 7:4 8:0.3 9:0.4 10:0.2 11:0.1 12:4 13:0.1707 14:1 15:0.5135 16:74 17:0.2297 18:0.2568 19:0.2568 20:0.2568 21:0.1549 22:0.67 23:0.1875 
-0.3550972097292777 1:1 2:5 3:19 4:21 5:0.5714 6:2 7:4 8:0.1905 9:0.2381 10:0.3333 11:0.2381 12:59 13:0.2381 14:3 15:0.4872 16:78 17:0.2308 18:0.2436 19:0.2436 20:0.2821 21:0.2 22:2.4 23:0.2 
-0.3092724864632438 1:4 2:4 3:21 4:20 5:0.55 6:3 7:2 8:0.15 9:0.2 10:0.35 11:0.3 12:67 13:0.25 14:4 15:0.4268 16:82 17:0.2683 18:0.2073 19:0.2195 20:0.3049 21:0.2727 22:1.43 23:0.3333 
-0.2375666056543596 1:1 2:1 3:2 4:21 5:0.45 6:3 7:3 8:0.15 9:0.3 10:0.15 11:0.4 12:50 13:0.2683 14:1 15:0.413 16:46 17:0.2609 18:0.1957 19:0.2174 20:0.3261 21:0.2558 22:4 23:0.5 
-0.3634181574178721 1:1 2:1 3:2 4:22 5:0.4091 6:4 7:3 8:0.3182 9:0.1364 10:0.2727 11:0.2727 12:23 13:0.3023 14:2 15:0.4167 16:48 17:0.25 18:0.2083 19:0.2083 20:0.3333 21:0.2889 22:0 23:0.5 
-0.04789403257091659 1:1 2:4 3:20 4:24 5:0.65 6:5 7:3 8:0 9:0.35 10:0.3 11:0.35 12:6 13:0.2558 14:1 15:0.5057 16:87 17:0.2299 18:0.2184 19:0.2874 20:0.2644 21:0.1795 22:0.89 23:0.1351 
-0.1927154632934417 1:1 2:4 3:23 4:23 5:0.381 6:5 7:3 8:0.4286 9:0.0952 10:0.2857 11:0.1905 12:73 13:0.35 14:4 15:0.4889 16:90 17:0.2556 18:0.2111 19:0.2778 20:0.2556 21:0.2099 22:1.25 23:0.1163 
-0.004912236683582556 1:4 2:2 3:19 4:23 5:0.6087 6:3 7:3 8:0.2174 9:0.3913 10:0.2174 11:0.1739 12:66 13:0.2609 14:4 15:0.5432 16:81 17:0.1975 18:0.2469 19:0.2963 20:0.2593 21:0.2468 22:0.78 23:0.2258 
-0.155381227983639 1:4 2:3 3:26 4:21 5:0.4762 6:2 7:3 8:0.0476 9:0.2381 10:0.2381 11:0.4762 12:3 13:0.2381 14:4 15:0.5275 16:91 17:0.1868 18:0.2308 19:0.2967 20:0.2857 21:0.2644 22:0.45 23:0.2889 
-0.2417243294944559 1:1 2:1 3:4 4:23 5:0.5 6:3 7:3 8:0.15 9:0.2 10:0.3 11:0.35 12:54 13:0.3 14:2 15:0.4706 16:51 17:0.2549 18:0.1765 19:0.2941 20:0.2745 21:0.2766 22:0.75 23:0.1429 
-0.007117338942143531 1:2 2:3 3:18 4:23 5:0.6522 6:3 7:3 8:0.1304 9:0.4348 10:0.2174 11:0.2174 12:1 13:0.3043 14:1 15:0.5263 16:95 17:0.1895 18:0.2632 19:0.2632 20:0.2842 21:0.25 22:0.67 23:0.2222 
-0.1307606339803764 1:4 2:2 3:14 4:26 5:0.3333 6:2 7:5 8:0.1667 9:0.125 10:0.2083 11:0.5 12:10 13:0.24 14:2 15:0.4074 16:81 17:0.2593 18:0.1852 19:0.2222 20:0.3333 21:0.2533 22:1.14 23:0.28 
-0.1938621894956394 1:4 2:5 3:24 4:20 5:0.45 6:2 7:3 8:0.25 9:0.2 10:0.25 11:0.3 12:75 13:0.2105 14:1 15:0.427 16:89 17:0.236 18:0.191 19:0.236 20:0.3371 21:0.2771 22:1.33 23:0.3333 
-0.1034480313287002 1:2 2:5 3:20 4:24 5:0.5 6:6 7:2 8:0.2727 9:0.2273 10:0.2727 11:0.2273 12:1 13:0.2195 14:2 15:0.4891 16:92 17:0.2391 18:0.2283 19:0.2609 20:0.2717 21:0.2658 22:0 23:0.35 
-0.2347716248749757 1:2 2:1 3:14 4:29 5:0.4583 6:6 7:4 8:0.125 9:0.125 10:0.3333 11:0.4167 12:6 13:0.2692 14:2 15:0.4318 16:88 17:0.2386 18:0.2159 19:0.2159 20:0.3295 21:0.2051 22:0.67 23:0.0769 
-0.1776842365051861 1:2 2:2 3:16 4:27 5:0.4167 6:5 7:2 8:0.3333 9:0.2917 10:0.125 11:0.25 12:64 13:0.2174 14:2 15:0.375 16:80 17:0.2875 18:0.2 19:0.175 20:0.3375 21:0.2105 22:1.12 23:0.2 
-0.2258075593853116 1:2 2:2 3:18 4:24 5:0.381 6:5 7:2 8:0.381 9:0.2857 10:0.0952 11:0.2381 12:66 13:0.25 14:2 15:0.359 16:78 17:0.2949 18:0.1923 19:0.1667 20:0.3462 21:0.2162 22:1.29 23:0.1765 
-0.06470415775351224 1:2 2:2 3:18 4:26 5:0.4348 6:5 7:2 8:0.3478 9:0.2609 10:0.1739 11:0.2174 12:66 13:0.2273 14:2 15:0.3902 16:82 17:0.2805 18:0.2073 19:0.1829 20:0.3293 21:0.2051 22:0.82 23:0.1765 
-0.07812729110774777 1:2 2:3 3:16 4:23 5:0.4783 6:2 7:5 8:0.0435 9:0.3913 10:0.087 11:0.4783 12:68 13:0.3182 14:2 15:0.4667 16:90 17:0.2 18:0.2667 19:0.2 20:0.3333 21:0.2603 22:1.8 23:0.2258 
-0.05702162160520955 1:2 2:2 3:10 4:24 5:0.4348 6:2 7:5 8:0.0435 9:0.2609 10:0.1739 11:0.5217 12:63 13:0.234 14:4 15:0.4634 16:82 17:0.2073 18:0.2561 19:0.2073 20:0.3293 21:0.2308 22:2 23:0.3 
-0.142716394910346 1:2 2:5 3:21 4:21 5:0.7143 6:2 7:4 8:0 9:0.1905 10:0.5238 11:0.2857 12:9 13:0.2857 14:1 15:0.6163 16:86 17:0.1395 18:0.2907 19:0.3256 20:0.2442 21:0.284 22:0.75 23:0.3171 
-0.2014036685640528 1:2 2:5 3:17 4:22 5:0.6364 6:2 7:4 8:0.2273 9:0.4545 10:0.1818 11:0.1364 12:70 13:0.2273 14:3 15:0.6125 16:80 17:0.15 18:0.3 19:0.3125 20:0.2375 21:0.2533 22:0.64 23:0.3333 
-0.0310681832757714 1:2 2:5 3:21 4:22 5:0.6818 6:2 7:4 8:0 9:0.1818 10:0.5 11:0.3182 12:8 13:0.2727 14:1 15:0.6023 16:88 17:0.1477 18:0.2841 19:0.3182 20:0.25 21:0.2771 22:0.62 23:0.3171 
-0.1865970250678942 1:2 2:3 3:22 4:20 5:0.5 6:2 7:2 8:0.2 9:0.25 10:0.25 11:0.3 12:1 13:0.2 14:3 15:0.5977 16:87 17:0.1724 18:0.2529 19:0.3448 20:0.2299 21:0.1852 22:0.62 23:0.1707 
-0.312491229107501 1:1 2:2 3:7 4:24 5:0.4167 6:4 7:3 8:0.1667 9:0.125 10:0.2917 11:0.4167 12:11 13:0.3478 14:1 15:0.3377 16:77 17:0.2987 18:0.1688 19:0.1688 20:0.3636 21:0.3103 22:0 23:0.2857 
-0.03381868303116608 1:1 2:2 3:15 4:25 5:0.5652 6:3 7:4 8:0.1304 9:0.1739 10:0.3913 11:0.3043 12:65 13:0.2917 14:1 15:0.5402 16:87 17:0.1724 18:0.2759 19:0.2644 20:0.2874 21:0.2208 22:1.33 23:0.1034 
-0.04103900894223362 1:1 2:3 3:17 4:25 5:0.5217 6:3 7:4 8:0.1739 9:0.1304 10:0.3913 11:0.3043 12:67 13:0.3043 14:1 15:0.5393 16:89 17:0.1798 18:0.2697 19:0.2697 20:0.2809 21:0.2405 22:1.5 23:0.1515 
-0.1686978465867047 1:3 2:2 3:14 4:21 5:0.3333 6:3 7:2 8:0.3333 9:0.1429 10:0.1905 11:0.3333 12:56 13:0.2 14:2 15:0.3571 16:70 17:0.3 18:0.1429 19:0.2143 20:0.3429 21:0.1746 22:1.67 23:0.2 
-0.1908003937477201 1:2 2:3 3:16 4:21 5:0.381 6:2 7:3 8:0.381 9:0.2381 10:0.1429 11:0.2381 12:50 13:0.1282 14:4 15:0.4143 16:70 17:0.2286 18:0.1714 19:0.2429 20:0.3571 21:0.1642 22:1.4 23:0.2667 
-0.04769235462456103 1:-1 2:0 3:0 4:23 5:0.4286 6:2 7:5 8:0.2381 9:0.1905 10:0.2381 11:0.3333 12:14 13:0.2381 14:1 15:0.4186 16:43 17:0.2326 18:0.186 19:0.2326 20:0.3488 21:0.2 22:1.67 23:-1 
-0.7887117458079663 1:2 2:1 3:7 4:23 5:0.2174 6:2 7:3 8:0.3478 9:0 10:0.2174 11:0.4348 12:62 13:0.2609 14:4 15:0.3014 16:73 17:0.3425 18:0.1096 19:0.1918 20:0.3562 21:0.2542 22:1 23:0.2308 
-0.1437860166093767 1:2 2:2 3:20 4:22 5:0.381 6:6 7:3 8:0.381 9:0.1905 10:0.1905 11:0.2381 12:1 13:0.4419 14:1 15:0.3021 16:96 17:0.3646 18:0.125 19:0.1771 20:0.3333 21:0.3171 22:0 23:0.1795 
-0.03104000326933428 1:2 2:1 3:11 4:25 5:0.4167 6:2 7:2 8:0.1667 9:0.25 10:0.1667 11:0.4167 12:4 13:0.102 14:4 15:0.381 16:84 17:0.2976 18:0.1667 19:0.2143 20:0.3214 21:0.1143 22:1.11 23:0.1429 
-0.3707672462957835 1:3 2:4 3:27 4:25 5:0.4583 6:3 7:5 8:0.2083 9:0.0417 10:0.4167 11:0.3333 12:76 13:0.3478 14:3 15:0.4444 16:99 17:0.2323 18:0.1919 19:0.2525 20:0.3232 21:0.2553 22:1.5 23:0.2 
-0.03785117344360317 1:-1 2:0 3:0 4:25 5:0.4583 6:3 7:4 8:0.2083 9:0.25 10:0.2083 11:0.3333 12:26 13:0.2609 14:2 15:0.4043 16:47 17:0.2766 18:0.1702 19:0.234 20:0.3191 21:0.1905 22:1.8 23:-1 
-0.1723022109545628 1:-1 2:0 3:0 4:20 5:0.4 6:6 7:2 8:0.2 9:0.25 10:0.15 11:0.4 12:52 13:0.35 14:2 15:0.4524 16:42 17:0.1905 18:0.1905 19:0.2619 20:0.3571 21:0.0714 22:0 23:-1 
-0.1846115611471826 1:1 2:1 3:12 4:21 5:0.4286 6:1 7:3 8:0.2857 9:0.0952 10:0.3333 11:0.2857 12:70 13:0.1 14:2 15:0.4487 16:78 17:0.2179 18:0.1923 19:0.2564 20:0.3333 21:0.0938 22:1.12 23:0.0833 
-0.1004744204611079 1:1 2:1 3:18 4:23 5:0.5238 6:6 7:4 8:0.1429 9:0.2381 10:0.2857 11:0.3333 12:5 13:0.2632 14:1 15:0.4545 16:88 17:0.2159 18:0.1818 19:0.2727 20:0.3295 21:0.1622 22:0 23:0.0556 
-0.2414866651573773 1:2 2:4 3:22 4:23 5:0.5217 6:8 7:2 8:0.2174 9:0.2609 10:0.2609 11:0.2609 12:3 13:0.4286 14:1 15:0.4583 16:96 17:0.1771 18:0.2188 19:0.2396 20:0.3646 21:0.3012 22:0 23:0.2093 
-0.3347247980732353 1:2 2:3 3:15 4:28 5:0.4167 6:6 7:3 8:0.2083 9:0.1667 10:0.25 11:0.375 12:73 13:0.2941 14:2 15:0.4457 16:92 17:0.1739 18:0.2065 19:0.2391 20:0.3804 21:0.2658 22:1.8 23:0.2667 
-0.01535795328608982 1:1 2:2 3:14 4:26 5:0.3333 6:2 7:4 8:0.125 9:0.25 10:0.0833 11:0.5417 12:2 13:0.2 14:4 15:0.3855 16:83 17:0.2771 18:0.1687 19:0.2169 20:0.3373 21:0.1688 22:1.12 23:0.1111 
-0.2748366005617932 1:-1 2:0 3:0 4:21 5:0.5 6:2 7:4 8:0.35 9:0.2 10:0.3 11:0.15 12:44 13:0.25 14:4 15:0.4048 16:42 17:0.3095 18:0.1905 19:0.2143 20:0.2857 21:0.1667 22:0.83 23:-1 
-0.1049478660728091 1:1 2:4 3:20 4:21 5:0.65 6:2 7:2 8:0.1 9:0.2 10:0.45 11:0.25 12:9 13:0.1707 14:3 15:0.4713 16:87 17:0.2184 18:0.2184 19:0.2529 20:0.3103 21:0.1538 22:0.9 23:0.1795 
-0.1507290535419009 1:1 2:2 3:18 4:23 5:0.3043 6:2 7:4 8:0.1739 9:0.1304 10:0.1739 11:0.5217 12:1 13:0.3478 14:1 15:0.3478 16:92 17:0.2609 18:0.1196 19:0.2283 20:0.3913 21:0.2152 22:0.8 23:0.0857 
-0.04605141069455558 1:1 2:3 3:20 4:20 5:0.45 6:2 7:4 8:0.3 9:0.05 10:0.4 11:0.25 12:72 13:0.35 14:4 15:0.3556 16:90 17:0.2556 18:0.1222 19:0.2333 20:0.3889 21:0.2208 22:1.75 23:0.1282 
-0.03881041551187105 1:2 2:2 3:14 4:20 5:0.45 6:4 7:1 8:0.25 9:0.05 10:0.4 11:0.3 12:67 13:0.2 14:4 15:0.4268 16:82 17:0.2805 18:0.1341 19:0.2927 20:0.2927 21:0.2059 22:0.73 23:0.2143 
-0.2569449197691946 1:2 2:2 3:14 4:23 5:0.4348 6:4 7:1 8:0.3043 9:0.0435 10:0.3913 11:0.2609 12:67 13:0.1739 14:1 15:0.4091 16:88 17:0.2841 18:0.125 19:0.2841 20:0.3068 21:0.1892 22:0.89 23:0.2143 
-0.2053669060947607 1:2 2:2 3:14 4:23 5:0.3478 6:4 7:1 8:0.2609 9:0.2174 10:0.1304 11:0.3913 12:2 13:0.1739 14:2 15:0.4091 16:88 17:0.2841 18:0.125 19:0.2841 20:0.3068 21:0.1892 22:1.12 23:0.2143 
-0.01869675653967343 1:1 2:2 3:9 4:29 5:0.3478 6:6 7:4 8:0.3043 9:0.1304 10:0.2174 11:0.3478 12:3 13:0.3077 14:2 15:0.3846 16:78 17:0.3077 18:0.1667 19:0.2179 20:0.3077 21:0.2537 22:0.88 23:0.1765 
-0.428797634216047 1:1 2:2 3:9 4:30 5:0.375 6:7 7:4 8:0.2917 9:0.1667 10:0.2083 11:0.3333 12:2 13:0.3333 14:2 15:0.3875 16:80 17:0.3 18:0.175 19:0.2125 20:0.3125 21:0.2754 22:0.62 23:0.1765 
-0.04392706235409258 1:1 2:3 3:14 4:22 5:0.5909 6:4 7:3 8:0.2273 9:0.2727 10:0.3182 11:0.1818 12:61 13:0.2857 14:2 15:0.4756 16:82 17:0.2683 18:0.2317 19:0.2439 20:0.2561 21:0.2239 22:3.67 23:0.1852 
-0.08226267337904795 1:-1 2:0 3:0 4:24 5:0.4167 6:3 7:5 8:0.2083 9:0.125 10:0.2917 11:0.375 12:10 13:0.3043 14:4 15:0.4375 16:48 17:0.2708 18:0.1667 19:0.2708 20:0.2917 21:0.2 22:4.5 23:-1 
-0.1195349955365101 1:-1 2:0 3:0 4:22 5:0.5 6:2 7:5 8:0.3 9:0.25 10:0.25 11:0.2 12:37 13:0.2857 14:4 15:0.4565 16:46 17:0.2609 18:0.1739 19:0.2826 20:0.2826 21:0.2105 22:0.2 23:-1 
-0.02117485583813222 1:3 2:3 3:15 4:23 5:0.5217 6:4 7:4 8:0.3478 9:0.2174 10:0.3043 11:0.1304 12:12 13:0.4348 14:3 15:0.557 16:79 17:0.1899 18:0.2911 19:0.2658 20:0.2532 21:0.3611 22:2.5 23:0.2857 
-0.2274019956081439 1:4 2:5 3:26 4:24 5:0.5652 6:7 7:4 8:0.2609 9:0.2609 10:0.3043 11:0.1739 12:1 13:0.4634 14:3 15:0.5625 16:96 17:0.1875 18:0.3125 19:0.25 20:0.25 21:0.3933 22:0 23:0.36 
-0.2866634342978753 1:6 2:3 3:25 4:27 5:0.75 6:5 7:5 8:0.1 9:0.35 10:0.4 11:0.15 12:1 13:0.2609 14:3 15:0.5918 16:98 17:0.2245 18:0.2755 19:0.3163 20:0.1837 21:0.3191 22:1.14 23:0.375 
-0.7287436190075596 1:5 2:3 3:15 4:21 5:0.4286 6:1 7:5 8:0.1905 9:0.2381 10:0.1905 11:0.381 12:66 13:0.2 14:2 15:0.4189 16:74 17:0.2027 18:0.2027 19:0.2162 20:0.3784 21:0.2836 22:0.71 23:0.4483 
-0.2092058284939731 1:5 2:3 3:17 4:25 5:0.4545 6:3 7:5 8:0.2727 9:0.1364 10:0.3182 11:0.2727 12:8 13:0.234 14:4 15:0.4588 16:85 17:0.2 18:0.2353 19:0.2235 20:0.3412 21:0.3077 22:1 23:0.4545 
-0.1689665707829774 1:3 2:3 3:20 4:24 5:0.3478 6:3 7:3 8:0.3913 9:0.1739 10:0.1739 11:0.2609 12:76 13:0.2609 14:3 15:0.4255 16:94 17:0.2553 18:0.2021 19:0.2234 20:0.3191 21:0.2381 22:4.5 23:0.2105 
-0.1967435646511269 1:3 2:4 3:19 4:27 5:0.5417 6:3 7:5 8:0.2083 9:0.25 10:0.2917 11:0.25 12:71 13:0.2 14:3 15:0.4731 16:93 17:0.3011 18:0.2473 19:0.2258 20:0.2258 21:0.2235 22:2 23:0.2571 
-0.4810832490299615 1:-1 2:0 3:0 4:26 5:0.4583 6:3 7:5 8:0.2083 9:0.1667 10:0.2917 11:0.3333 12:24 13:0.3061 14:-1 15:0.4706 16:51 17:0.2941 18:0.2549 19:0.2157 20:0.2353 21:0.2093 22:5 23:-1 
-0.2514429629642575 1:-1 2:0 3:0 4:20 5:0.4 6:6 7:3 8:0.25 9:0.3 10:0.1 11:0.35 12:45 13:0.3846 14:-1 15:0.4146 16:41 17:0.3171 18:0.1951 19:0.2195 20:0.2683 21:0.1111 22:0 23:-1 
-0.2264052467249792 1:2 2:4 3:16 4:21 5:0.619 6:3 7:3 8:0.2857 9:0.4286 10:0.1905 11:0.0952 12:75 13:0.2821 14:1 15:0.5476 16:84 17:0.2381 18:0.2738 19:0.2738 20:0.2143 21:0.2754 22:1.6 23:0.3125 
-0.3082810309398866 1:2 2:3 3:14 4:27 5:0.4583 6:3 7:4 8:0.2917 9:0.25 10:0.2083 11:0.25 12:8 13:0.28 14:3 15:0.5165 16:91 17:0.2527 18:0.2637 19:0.2527 20:0.2308 21:0.2632 22:1.2 23:0.2857 
-0.305866282548191 1:2 2:2 3:11 4:25 5:0.5 6:3 7:4 8:0.2273 9:0.2727 10:0.2273 11:0.2727 12:13 13:0.3191 14:3 15:0.5366 16:82 17:0.2439 18:0.2683 19:0.2683 20:0.2195 21:0.2836 22:1.12 23:0.2727 
-0.2786304585080737 1:-1 2:0 3:10 4:20 5:0.45 6:3 7:4 8:0.2 9:0.3 10:0.15 11:0.35 12:5 13:0.2821 14:4 15:0.4416 16:77 17:0.2857 18:0.2468 19:0.1948 20:0.2727 21:0.1864 22:1.14 23:0 
-0.3329780244260777 1:-1 2:0 3:9 4:21 5:0.55 6:3 7:4 8:0.15 9:0.25 10:0.3 11:0.3 12:62 13:0.2683 14:4 15:0.4416 16:77 17:0.2857 18:0.2468 19:0.1948 20:0.2727 21:0.1864 22:0.88 23:0 
-0.1511887784261919 1:4 2:3 3:18 4:20 5:0.55 6:2 7:3 8:0.05 9:0.2 10:0.35 11:0.4 12:58 13:0.1795 14:3 15:0.4521 16:73 17:0.2329 18:0.2055 19:0.2466 20:0.3151 21:0.1765 22:0.64 23:0.2258 
-0.05358746421826687 1:4 2:3 3:18 4:22 5:0.5455 6:2 7:4 8:0.0455 9:0.1818 10:0.3636 11:0.4091 12:58 13:0.2558 14:4 15:0.4675 16:77 17:0.2208 18:0.1948 19:0.2727 20:0.3117 21:0.2222 22:1.4 23:0.2258 
-0.1407598255181924 1:5 2:3 3:24 4:20 5:0.45 6:2 7:2 8:0.4 9:0.2 10:0.25 11:0.15 12:72 13:0.2 14:2 15:0.5233 16:86 17:0.2093 18:0.2791 19:0.2442 20:0.2674 21:0.2195 22:0.73 23:0.2381 
-0.1704964656737973 1:5 2:3 3:25 4:24 5:0.4762 6:5 7:3 8:0.3333 9:0.2381 10:0.2381 11:0.1905 12:73 13:0.3333 14:4 15:0.5269 16:93 17:0.2151 18:0.2903 19:0.2366 20:0.2581 21:0.2809 22:1.6 23:0.2273 
-0.2437587534936125 1:-1 2:0 3:10 4:25 5:0.7083 6:7 7:3 8:0.0417 9:0.2917 10:0.4167 11:0.25 12:2 13:0.4286 14:4 15:0.4815 16:81 17:0.1852 18:0.2099 19:0.2716 20:0.3333 21:0.3043 22:1.67 23:0 
-0.2874412047851256 1:2 2:1 3:14 4:21 5:0.4762 6:7 7:2 8:0.2857 9:0.2381 10:0.2381 11:0.2381 12:62 13:0.4146 14:3 15:0.4815 16:81 17:0.1852 18:0.2099 19:0.2716 20:0.3333 21:0.3043 22:1 23:0.1429 
-0.1200285736959416 1:3 2:1 3:18 4:22 5:0.619 6:1 7:6 8:0.3333 9:0.3333 10:0.2857 11:0.0476 12:70 13:0.2558 14:2 15:0.5287 16:87 17:0.2299 18:0.2644 19:0.2644 20:0.2414 21:0.1948 22:0.89 23:0.1176 
-1 1:2 2:2 3:12 4:20 5:0.55 6:1 7:4 8:0.35 9:0.2 10:0.35 11:0.1 12:48 13:0.1795 14:4 15:0.4925 16:67 17:0.2388 18:0.2388 19:0.2537 20:0.2687 21:0.2131 22:1.25 23:0.2727 
-0.1870121530591026 1:-1 2:0 3:0 4:21 5:0.45 6:2 7:3 8:0.25 9:0.3 10:0.15 11:0.3 12:35 13:0.25 14:-1 15:0.4048 16:42 17:0.2381 18:0.2143 19:0.1905 20:0.3571 21:0.1667 22:0.56 23:-1 
-0.3631987550322656 1:3 2:2 3:18 4:20 5:0.55 6:2 7:2 8:0.15 9:0.2 10:0.35 11:0.3 12:71 13:0.2 14:3 15:0.5062 16:81 17:0.1852 18:0.1975 19:0.3086 20:0.3086 21:0.2 22:0.9 23:0.2 
-0.176284533891461 1:-1 2:0 3:0 4:23 5:0.4783 6:3 7:3 8:0.2609 9:0.1304 10:0.3478 11:0.2609 12:27 13:0.2444 14:4 15:0.4468 16:47 17:0.2128 18:0.1702 19:0.2766 20:0.3404 21:0.1707 22:4 23:-1 
-0.1088273319154388 1:-1 2:0 3:0 4:28 5:0.5 6:4 7:3 8:0.2727 9:0.2273 10:0.2727 11:0.2273 12:41 13:0.24 14:3 15:0.5 16:52 17:0.25 18:0.2692 19:0.2308 20:0.25 21:0.1739 22:0.67 23:-1 
-0.04790852917742777 1:-1 2:0 3:0 4:26 5:0.4167 6:7 7:3 8:0.1667 9:0.25 10:0.1667 11:0.4167 12:41 13:0.32 14:2 15:0.3922 16:51 17:0.2157 18:0.1569 19:0.2353 20:0.3922 21:0.0556 22:0 23:-1 
-1 1:4 2:2 3:10 4:22 5:0.4091 6:3 7:2 8:0.1364 9:0.1364 10:0.2727 11:0.4545 12:16 13:0.1628 14:1 15:0.4 16:65 17:0.1846 18:0.1846 19:0.2154 20:0.4154 21:0.2069 22:0.6 23:0.4118 
-0.05912872386246883 1:3 2:2 3:14 4:27 5:0.3333 6:3 7:3 8:0.2917 9:0.0833 10:0.25 11:0.375 12:63 13:0.2 14:2 15:0.4 16:80 17:0.2125 18:0.175 19:0.225 20:0.3875 21:0.1781 22:0.56 23:0.2 
-0.1351586550740815 1:1 2:2 3:14 4:25 5:0.5909 6:6 7:4 8:0.1818 9:0.2727 10:0.3182 11:0.2273 12:8 13:0.4043 14:4 15:0.4634 16:82 17:0.2805 18:0.2561 19:0.2073 20:0.2561 21:0.2973 22:2.67 23:0.1111 
-0.1066350034122258 1:2 2:2 3:8 4:23 5:0.4091 6:2 7:2 8:0.1818 9:0.1364 10:0.2727 11:0.4091 12:54 13:0.1556 14:1 15:0.3836 16:73 17:0.2466 18:0.1507 19:0.2329 20:0.3699 21:0.2131 22:1.43 23:0.375 
-0.2263109571109786 1:2 2:1 3:17 4:24 5:0.5 6:3 7:4 8:0.25 9:0.1667 10:0.3333 11:0.25 12:1 13:0.3043 14:4 15:0.5106 16:94 17:0.2447 18:0.2234 19:0.2872 20:0.2447 21:0.2051 22:0.22 23:0.0625 
-0.01077558175547386 1:-1 2:0 3:0 4:24 5:0.4348 6:7 7:2 8:0.2609 9:0.1304 10:0.3043 11:0.3043 12:50 13:0.3478 14:-1 15:0.4792 16:48 17:0.2708 18:0.1875 19:0.2917 20:0.25 21:0.0625 22:0 23:-1 
-0.4526303007370317 1:6 2:3 3:22 4:22 5:0.2273 6:9 7:2 8:0.2727 9:0.0909 10:0.1364 11:0.5 12:1 13:0.5 14:4 15:0.3636 16:88 17:0.2841 18:0.1705 19:0.1932 20:0.3523 21:0.4524 22:0 23:0.4091 
-0.2139254714965011 1:-1 2:0 3:0 4:24 5:0.4167 6:6 7:4 8:0.3333 9:0.3333 10:0.0833 11:0.25 12:22 13:0.4167 14:1 15:0.42 16:50 17:0.32 18:0.2 19:0.22 20:0.26 21:0.3913 22:1.8 23:-1 
-0.1143243220246752 1:-1 2:0 3:0 4:24 5:0.4783 6:7 7:3 8:0.4348 9:0.087 10:0.3913 11:0.087 12:48 13:0.4348 14:-1 15:0.4583 16:48 17:0.3333 18:0.1875 19:0.2708 20:0.2083 21:0.1875 22:0 23:-1 
-0.2499843608367384 1:5 2:4 3:24 4:22 5:0.5714 6:3 7:2 8:0.1905 9:0.1905 10:0.381 11:0.2381 12:69 13:0.2093 14:3 15:0.5294 16:85 17:0.2118 18:0.2235 19:0.3059 20:0.2588 21:0.2195 22:1 23:0.2683 
-0.4059012148011768 1:5 2:3 3:21 4:27 5:0.5833 6:3 7:3 8:0.1667 9:0.2083 10:0.375 11:0.25 12:68 13:0.2157 14:1 15:0.5393 16:89 17:0.2022 18:0.2247 19:0.3146 20:0.2584 21:0.2093 22:1 23:0.2432 
-0.1848648153477903 1:1 2:2 3:4 4:22 5:0.55 6:5 7:2 8:0.25 9:0.2 10:0.35 11:0.2 12:51 13:0.1892 14:1 15:0.5435 16:46 17:0.2174 18:0.2174 19:0.3261 20:0.2391 21:0.2093 22:0.27 23:0.5 
-0.1049529352078868 1:1 2:1 3:11 4:24 5:0.625 6:7 7:4 8:0.2917 9:0.1667 10:0.4583 11:0.0833 12:4 13:0.4146 14:1 15:0.5 16:78 17:0.2564 18:0.2308 19:0.2692 20:0.2436 21:0.2787 22:0 23:0.0909 
-0.5188919976470897 1:4 2:2 3:15 4:30 5:0.5833 6:8 7:4 8:0.125 9:0.1667 10:0.4167 11:0.2917 12:3 13:0.3333 14:3 15:0.4639 16:97 17:0.2062 18:0.1959 19:0.268 20:0.3299 21:0.3171 22:0.33 23:0.3333 
-0.3013558051383564 1:2 2:3 3:24 4:23 5:0.619 6:3 7:6 8:0.1429 9:0.1905 10:0.4286 11:0.2381 12:3 13:0.3636 14:1 15:0.5859 16:99 17:0.1616 18:0.2828 19:0.303 20:0.2525 21:0.2527 22:0.56 23:0.1489 
-0.2024861603221166 1:2 2:2 3:14 4:21 5:0.5238 6:2 7:4 8:0.1429 9:0.0952 10:0.4286 11:0.3333 12:13 13:0.2381 14:2 15:0.5844 16:77 17:0.1558 18:0.2597 19:0.3247 20:0.2597 21:0.2174 22:0.38 23:0.1852 
-0.135522608215528 1:4 2:3 3:19 4:26 5:0.4091 6:3 7:5 8:0.2273 9:0.3636 10:0.0455 11:0.3636 12:3 13:0.2609 14:2 15:0.4756 16:82 17:0.2439 18:0.2073 19:0.2683 20:0.2805 21:0.2208 22:0.5 23:0.2121 
-0.1606492670887617 1:4 2:3 3:21 4:25 5:0.4286 6:3 7:5 8:0.2381 9:0.381 10:0.0476 11:0.3333 12:2 13:0.3023 14:3 15:0.4819 16:83 17:0.241 18:0.2169 19:0.2651 20:0.2771 21:0.2308 22:0.43 23:0.1892 
-0.3064880867566738 1:-1 2:0 3:0 4:23 5:0.5217 6:4 7:4 8:0.3913 9:0.3043 10:0.2174 11:0.087 12:31 13:0.2889 14:-1 15:0.4783 16:46 17:0.3261 18:0.2174 19:0.2609 20:0.1957 21:0.1351 22:0 23:-1 
-0.005725319939341755 1:-1 2:0 3:0 4:24 5:0.4091 6:5 7:3 8:0.4545 9:0.1364 10:0.2727 11:0.1364 12:35 13:0.2609 14:-1 15:0.4681 16:47 17:0.2553 18:0.1489 19:0.3191 20:0.2766 21:0.2273 22:0.78 23:-1 
-0.6271722574672487 1:1 2:1 3:2 4:25 5:0.5 6:5 7:3 8:0.0833 9:0.1667 10:0.3333 11:0.4167 12:8 13:0.234 14:4 15:0.4423 16:52 17:0.2692 18:0.1346 19:0.3077 20:0.2885 21:0.2245 22:1.8 23:0.5 
-0.1060580265554622 1:1 2:1 3:3 4:23 5:0.5455 6:5 7:3 8:0.0455 9:0.1818 10:0.3636 11:0.4091 12:9 13:0.2558 14:4 15:0.46 16:50 17:0.26 18:0.14 19:0.32 20:0.28 21:0.234 22:3 23:0.3333 
-0.1162258102949321 1:2 2:2 3:15 4:21 5:0.45 6:4 7:3 8:0.15 9:0.05 10:0.4 11:0.4 12:1 13:0.35 14:1 15:0.411 16:73 17:0.2329 18:0.1644 19:0.2466 20:0.3562 21:0.2754 22:0.71 23:0.1724 
-0.2983195136347395 1:2 2:2 3:13 4:21 5:0.3333 6:4 7:2 8:0.3333 9:0.2381 10:0.0952 11:0.3333 12:52 13:0.2683 14:4 15:0.4143 16:70 17:0.2286 18:0.1714 19:0.2429 20:0.3571 21:0.2424 22:1 23:0.2 
-0.1471460922507982 1:1 2:1 3:11 4:23 5:0.5217 6:2 7:4 8:0.2609 9:0.2609 10:0.2609 11:0.2174 12:70 13:0.3043 14:4 15:0.4471 16:85 17:0.2588 18:0.1765 19:0.2706 20:0.2941 21:0.2239 22:1 23:0.0476 
-0.01469827939812967 1:2 2:2 3:14 4:21 5:0.4762 6:2 7:3 8:0.3333 9:0.2857 10:0.1905 11:0.1905 12:73 13:0.2381 14:3 15:0.4368 16:87 17:0.2644 18:0.1724 19:0.2644 20:0.2989 21:0.2174 22:2.5 23:0.1852 
-0.2747925376316406 1:2 2:2 3:15 4:23 5:0.5217 6:2 7:4 8:0.2609 9:0.3478 10:0.1739 11:0.2174 12:74 13:0.3043 14:4 15:0.4516 16:93 17:0.2473 18:0.1828 19:0.2688 20:0.3011 21:0.2533 22:2 23:0.1724 
-0.03467356406582829 1:-1 2:0 3:0 4:25 5:0.5 6:5 7:4 8:0.1 9:0.15 10:0.35 11:0.4 12:13 13:0.2727 14:1 15:0.4667 16:45 17:0.2444 18:0.2667 19:0.2 20:0.2889 21:0.2 22:1.5 23:-1 
-0.3319839554455115 1:1 2:1 3:4 4:23 5:0.4091 6:5 7:4 8:0.4091 9:0.3182 10:0.0909 11:0.1818 12:39 13:0.3 14:3 15:0.4314 16:51 17:0.2941 18:0.2549 19:0.1765 20:0.2745 21:0.2609 22:2 23:0.25 
-0.1221174107710499 1:-1 2:0 3:0 4:23 5:0.381 6:2 7:3 8:0.2381 9:0.1905 10:0.1905 11:0.381 12:9 13:0.1364 14:4 15:0.3542 16:48 17:0.2708 18:0.1667 19:0.1875 20:0.375 21:0.1364 22:1.25 23:-1 
-0.1821182244516223 1:-1 2:0 3:2 4:21 5:0.381 6:2 7:3 8:0.2857 9:0.1905 10:0.1905 11:0.3333 12:36 13:0.15 14:4 15:0.3542 16:48 17:0.2708 18:0.1667 19:0.1875 20:0.375 21:0.1364 22:0.4 23:0 
-0.2631892842041094 1:-1 2:0 3:0 4:24 5:0.3333 6:2 7:3 8:0.3333 9:0.1667 10:0.1667 11:0.3333 12:34 13:0.1304 14:3 15:0.34 16:50 17:0.28 18:0.16 19:0.18 20:0.38 21:0.1304 22:0.8 23:-1 
-0.2674070841321222 1:2 2:3 3:18 4:27 5:0.6364 6:7 7:4 8:0.1818 9:0.3182 10:0.3182 11:0.1818 12:76 13:0.3878 14:3 15:0.5957 16:94 17:0.1489 18:0.3085 19:0.2872 20:0.2553 21:0.3012 22:4 23:0.2222 
-0.2133453236995558 1:-1 2:0 3:0 4:26 5:0.5909 6:4 7:3 8:0.3182 9:0.3636 10:0.2273 11:0.0909 12:38 13:0.2083 14:4 15:0.4615 16:52 17:0.25 18:0.2115 19:0.25 20:0.2885 21:0.2083 22:1 23:-1 
-0.5435441019114308 1:2 2:2 3:10 4:22 5:0.4762 6:2 7:4 8:0.2381 9:0.2857 10:0.1905 11:0.2857 12:16 13:0.1905 14:2 15:0.4521 16:73 17:0.2329 18:0.2603 19:0.1918 20:0.3151 21:0.2 22:0.7 23:0.3 
-0.06774015224421689 1:2 2:2 3:15 4:23 5:0.55 6:2 7:5 8:0.1 9:0.35 10:0.2 11:0.35 12:12 13:0.2381 14:4 15:0.4699 16:83 17:0.2169 18:0.2651 19:0.2048 20:0.3133 21:0.2 22:1.1 23:0.2 
-0.04103736120991561 1:4 2:1 3:13 4:22 5:0.4091 6:4 7:2 8:0.2273 9:0.0455 10:0.3636 11:0.3636 12:7 13:0.2273 14:2 15:0.4861 16:72 17:0.2361 18:0.2361 19:0.25 20:0.2778 21:0.2353 22:1.11 23:0.25 
-1 1:-1 2:0 3:1 4:23 5:0.5217 6:2 7:3 8:0.2174 9:0.2174 10:0.3043 11:0.2609 12:16 13:0.2093 14:1 15:0.3922 16:51 17:0.2157 18:0.1569 19:0.2353 20:0.3922 21:0.2 22:1.33 23:0 
-0.7396584895622483 1:-1 2:0 3:0 4:25 5:0.3043 6:2 7:4 8:0.1739 9:0.087 10:0.2174 11:0.5217 12:43 13:0.2766 14:-1 15:0.3673 16:49 17:0.2245 18:0.1429 19:0.2245 20:0.4082 21:0.2093 22:0.4 23:-1 
-0.4720830697376245 1:3 2:4 3:27 4:20 5:0.45 6:2 7:3 8:0.35 9:0.25 10:0.2 11:0.2 12:10 13:0.2105 14:4 15:0.4176 16:91 17:0.2198 18:0.1868 19:0.2308 20:0.3626 21:0.2093 22:0.45 23:0.24 
-0.3902888891802445 1:2 2:3 3:22 4:27 5:0.4167 6:4 7:4 8:0.375 9:0.2083 10:0.2083 11:0.2083 12:8 13:0.2766 14:4 15:0.4194 16:93 17:0.2258 18:0.1828 19:0.2366 20:0.3548 21:0.2273 22:0 23:0.2093 
-0.4644978664116062 1:1 2:1 3:2 4:21 5:0.35 6:2 7:3 8:0.3 9:0.15 10:0.2 11:0.35 12:59 13:0.2 14:4 15:0.4255 16:47 17:0.2128 18:0.2128 19:0.2128 20:0.3617 21:0.1905 22:0.57 23:0.5 
-0.07061787865335588 1:1 2:2 3:14 4:24 5:0.7083 6:2 7:5 8:0.0417 9:0.2917 10:0.4167 11:0.25 12:2 13:0.2917 14:1 15:0.5952 16:84 17:0.1905 18:0.2857 19:0.3095 20:0.2143 21:0.2368 22:0.89 23:0.1429 
-0.02089566585215882 1:4 2:3 3:22 4:20 5:0.5 6:2 7:4 8:0.2 9:0.1 10:0.4 11:0.3 12:7 13:0.2308 14:3 15:0.4458 16:83 17:0.2169 18:0.1928 19:0.253 20:0.3373 21:0.2658 22:0.71 23:0.3 
-0.1993825380853587 1:4 2:3 3:25 4:25 5:0.3333 6:3 7:5 8:0.25 9:0.2083 10:0.125 11:0.4167 12:74 13:0.3191 14:2 15:0.4227 16:97 17:0.2165 18:0.1856 19:0.2371 20:0.3608 21:0.2903 22:2.5 23:0.2609 
-0.1988222770562499 1:4 2:2 3:14 4:24 5:0.5 6:2 7:3 8:0.2083 9:0.2083 10:0.2917 11:0.2917 12:11 13:0.1915 14:3 15:0.4533 16:75 17:0.2267 18:0.2 19:0.2533 20:0.32 21:0.2394 22:0.9 23:0.3333 
-0.1484602543631465 1:-1 2:0 3:0 4:22 5:0.3182 6:3 7:3 8:0.3182 9:0.1818 10:0.1364 11:0.3636 12:13 13:0.3023 14:4 15:0.3409 16:44 17:0.2727 18:0.2045 19:0.1364 20:0.3864 21:0.1892 22:4 23:-1 
-0.09299493447048487 1:2 2:3 3:19 4:20 5:0.65 6:1 7:4 8:0.25 9:0.15 10:0.5 11:0.1 12:64 13:0.2 14:2 15:0.5422 16:83 17:0.1928 18:0.253 19:0.2892 20:0.2651 21:0.2105 22:0.78 23:0.2632 
-0.1380897222961241 1:-1 2:0 3:0 4:22 5:0.35 6:2 7:3 8:0.35 9:0.1 10:0.25 11:0.3 12:47 13:0.1905 14:3 15:0.3125 16:48 17:0.25 18:0.125 19:0.1875 20:0.4375 21:0.1905 22:2.25 23:-1 
-0.03348586239328075 1:2 2:3 3:22 4:23 5:0.5909 6:3 7:4 8:0.2273 9:0.3182 10:0.2727 11:0.1818 12:67 13:0.25 14:2 15:0.4432 16:88 17:0.2045 18:0.1705 19:0.2727 20:0.3523 21:0.2195 22:2.75 23:0.1905 
-0.1710932883706405 1:1 2:2 3:12 4:26 5:0.5 6:2 7:5 8:0.25 9:0.3333 10:0.1667 11:0.25 12:7 13:0.2083 14:1 15:0.4943 16:87 17:0.2644 18:0.2529 19:0.2414 20:0.2414 21:0.1714 22:0.6 23:0.1667 
-0.6466158778085841 1:1 2:2 3:9 4:23 5:0.5909 6:2 7:3 8:0.1818 9:0.2273 10:0.3636 11:0.2273 12:67 13:0.1163 14:1 15:0.5132 16:76 17:0.2895 18:0.2632 19:0.25 20:0.1974 21:0.1186 22:1 23:0.2222 
-0.1977226093208866 1:1 2:3 3:18 4:20 5:0.7 6:4 7:3 8:0.2 9:0.35 10:0.35 11:0.1 12:1 13:0.4 14:4 15:0.6296 16:81 17:0.1852 18:0.2716 19:0.358 20:0.1852 21:0.25 22:0.38 23:0.1176 
-0.2956619368427206 1:-1 2:0 3:10 4:24 5:0.375 6:2 7:5 8:0.125 9:0.25 10:0.125 11:0.5 12:63 13:0.3191 14:1 15:0.3951 16:81 17:0.2716 18:0.1728 19:0.2222 20:0.3333 21:0.2239 22:1.33 23:0 
-0.3239025496355679 1:2 2:1 3:14 4:26 5:0.5417 6:7 7:4 8:0.25 9:0.125 10:0.4167 11:0.2083 12:1 13:0.44 14:1 15:0.3804 16:92 17:0.2609 18:0.1739 19:0.2065 20:0.3587 21:0.3333 22:0 23:0.1429 
-0.004819461456499489 1:4 2:3 3:15 4:20 5:0.5 6:2 7:2 8:0.3 9:0.2 10:0.3 11:0.2 12:5 13:0.15 14:2 15:0.5342 16:73 17:0.2603 18:0.2192 19:0.3151 20:0.2055 21:0.2537 22:2 23:0.4074 
-0.01661814651859156 1:4 2:3 3:17 4:21 5:0.4762 6:3 7:3 8:0.1429 9:0.1905 10:0.2857 11:0.381 12:60 13:0.2308 14:4 15:0.5395 16:76 17:0.25 18:0.2237 19:0.3158 20:0.2105 21:0.2857 22:2.5 23:0.3548 
-0.252744608996319 1:1 2:4 3:22 4:27 5:0.5909 6:4 7:4 8:0.0909 9:0.0909 10:0.5 11:0.3182 12:2 13:0.2653 14:3 15:0.4898 16:98 17:0.2347 18:0.2245 19:0.2653 20:0.2755 21:0.2 22:1 23:0.122 
-0.2801826236889938 1:-1 2:0 3:0 4:26 5:0.3478 6:3 7:5 8:0.4348 9:0.2174 10:0.1304 11:0.2174 12:51 13:0.2245 14:1 15:0.3333 16:51 17:0.2941 18:0.1569 19:0.1765 20:0.3725 21:0.1163 22:0.25 23:-1 
-0.1247438887132089 1:1 2:4 3:23 4:22 5:0.7727 6:2 7:3 8:0.1818 9:0.5 10:0.2727 11:0.0455 12:74 13:0.1905 14:3 15:0.4839 16:93 17:0.2258 18:0.2258 19:0.2581 20:0.2903 21:0.1529 22:0.73 23:0.1163 
-0.4625366237145779 1:-1 2:0 3:2 4:24 5:0.3636 6:2 7:3 8:0.4545 9:0.2273 10:0.1364 11:0.1818 12:54 13:0.0909 14:1 15:0.3077 16:52 17:0.3269 18:0.1346 19:0.1731 20:0.3654 21:0.0833 22:0.6 23:0 
-0.2118049786877068 1:-1 2:0 3:0 4:21 5:0.35 6:2 7:2 8:0.45 9:0.25 10:0.1 11:0.2 12:52 13:0.0769 14:4 15:0.2791 16:43 17:0.3256 18:0.1163 19:0.1628 20:0.3953 21:0.0769 22:0.9 23:-1 
-0.2650615557073023 1:2 2:2 3:21 4:20 5:0.4 6:2 7:5 8:0.25 9:0.1 10:0.3 11:0.35 12:9 13:0.2632 14:2 15:0.3457 16:81 17:0.3086 18:0.1481 19:0.1975 20:0.3457 21:0.1688 22:1 23:0.0769 
-0.09834561313826592 1:3 2:4 3:15 4:22 5:0.3636 6:2 7:2 8:0.4091 9:0.0909 10:0.2727 11:0.2273 12:69 13:0.1364 14:1 15:0.425 16:80 17:0.2875 18:0.1875 19:0.2375 20:0.2875 21:0.194 22:1.8 23:0.36 
-0.081309366041876 1:3 2:4 3:17 4:23 5:0.3913 6:2 7:2 8:0.3478 9:0.1304 10:0.2609 11:0.2609 12:71 13:0.1304 14:4 15:0.4302 16:86 17:0.2791 18:0.186 19:0.2442 20:0.2907 21:0.1781 22:1 23:0.3103 
-0.3324569708906875 1:1 2:1 3:8 4:24 5:0.3913 6:3 7:4 8:0.2609 9:0.1304 10:0.2609 11:0.3478 12:54 13:0.3043 14:4 15:0.4085 16:71 17:0.2535 18:0.1831 19:0.2254 20:0.338 21:0.2333 22:0.7 23:0.125 
-0.6251045604487552 1:-1 2:0 3:4 4:31 5:0.3636 6:9 7:2 8:0.1818 9:0 10:0.3636 11:0.4545 12:22 13:0.2075 14:2 15:0.3913 16:69 17:0.2899 18:0.1449 19:0.2464 20:0.3188 21:0.1803 22:1 23:0 
-0.5766908121119463 1:9 2:2 3:29 4:22 5:0.4762 6:2 7:3 8:0.1905 9:0.2857 10:0.1905 11:0.3333 12:85 13:0.1628 14:1 15:0.44 16:100 17:0.23 18:0.16 19:0.28 20:0.33 21:0.1957 22:1.5 23:0.2245 
-0.8764350217396323 1:3 2:1 3:10 4:22 5:0.3182 6:6 7:2 8:0.4545 9:0.2273 10:0.0909 11:0.2273 12:66 13:0.2105 14:1 15:0.3968 16:63 17:0.2857 18:0.1429 19:0.254 20:0.3175 21:0.2 22:0 23:0.1765 
-0.3073431993159006 1:-1 2:0 3:0 4:27 5:0.5 6:7 7:5 8:0.25 9:0.2 10:0.3 11:0.25 12:12 13:0.4468 14:2 15:0.4792 16:48 17:0.2708 18:0.25 19:0.2292 20:0.25 21:0.3953 22:1 23:-1 
-0.2643752149504285 1:-1 2:0 3:0 4:23 5:0.4783 6:7 7:4 8:0.3043 9:0.3043 10:0.1739 11:0.2174 12:34 13:0.3846 14:1 15:0.5 16:42 17:0.2857 18:0.2857 19:0.2143 20:0.2143 21:0.3514 22:1.6 23:-1 
-0.3508474369051621 1:1 2:1 3:3 4:20 5:0.5 6:7 7:3 8:0.3 9:0.3 10:0.2 11:0.2 12:37 13:0.3939 14:1 15:0.5 16:42 17:0.2857 18:0.2857 19:0.2143 20:0.2143 21:0.3514 22:0.6 23:0.3333 
-0.3840972214482602 1:2 2:2 3:7 4:20 5:0.35 6:6 7:2 8:0.35 9:0.15 10:0.2 11:0.3 12:43 13:0.3714 14:4 15:0.42 16:50 17:0.26 18:0.22 19:0.2 20:0.32 21:0.3617 22:0 23:0.4286 
-0.2898708626540911 1:2 2:2 3:5 4:20 5:0.4 6:6 7:2 8:0.35 9:0.15 10:0.25 11:0.25 12:41 13:0.2571 14:1 15:0.4565 16:46 17:0.2174 18:0.2391 19:0.2174 20:0.3261 21:0.3023 22:0.62 23:0.6 
-1 1:-1 2:0 3:1 4:23 5:0.3043 6:4 7:2 8:0.5217 9:0.2174 10:0.087 11:0.1739 12:46 13:0.1818 14:1 15:0.3929 16:56 17:0.2857 18:0.2321 19:0.1607 20:0.3214 21:0.1739 22:0.8 23:0 
-0.3954309840683538 1:-1 2:0 3:0 4:23 5:0.3043 6:4 7:2 8:0.4783 9:0.2174 10:0.087 11:0.2174 12:45 13:0.1818 14:4 15:0.4074 16:54 17:0.2778 18:0.2407 19:0.1667 20:0.3148 21:0.1818 22:0.8 23:-1 
-1 1:-1 2:0 3:2 4:22 5:0.45 6:4 7:2 8:0.15 9:0.2 10:0.25 11:0.4 12:13 13:0.1905 14:1 15:0.3929 16:56 17:0.2857 18:0.2321 19:0.1607 20:0.3214 21:0.1739 22:1.67 23:0 
-0.4347749236348629 1:2 2:2 3:12 4:21 5:0.5238 6:1 7:1 8:0.0952 9:0.2381 10:0.2857 11:0.381 12:5 13:0.0476 14:1 15:0.4714 16:70 17:0.2429 18:0.1857 19:0.2857 20:0.2857 21:0.1515 22:0.7 23:0.3333 
-1 1:1 2:1 3:7 4:25 5:0.7083 6:2 7:4 8:0 9:0.3333 10:0.375 11:0.2917 12:52 13:0.25 14:3 15:0.7313 16:67 17:0.0746 18:0.3433 19:0.3881 20:0.194 21:0.2131 22:1 23:0.0769 
-0.7899736894501348 1:2 2:1 3:12 4:20 5:0.8 6:2 7:3 8:0.1 9:0.3 10:0.5 11:0.1 12:9 13:0.2821 14:3 15:0.7313 16:67 17:0.0746 18:0.3433 19:0.3881 20:0.194 21:0.2131 22:0.9 23:0.0909 
-1 1:-1 2:0 3:4 4:25 5:0.7083 6:2 7:4 8:0 9:0.375 10:0.3333 11:0.2917 12:49 13:0.2766 14:2 15:0.7049 16:61 17:0.082 18:0.3279 19:0.377 20:0.2131 21:0.2364 22:1.2 23:0 
-0.0679506889114667 1:1 2:2 3:11 4:23 5:0.4348 6:1 7:5 8:0.0435 9:0.3478 10:0.087 11:0.5217 12:56 13:0.2 14:3 15:0.4028 16:72 17:0.2917 18:0.1944 19:0.2083 20:0.3056 21:0.1692 22:0.78 23:0.1818 
-0.06798878416152483 1:1 2:3 3:13 4:24 5:0.4783 6:1 7:4 8:0.5217 9:0.087 10:0.3913 11:0 12:4 13:0.1489 14:4 15:0.4231 16:78 17:0.2692 18:0.1923 19:0.2308 20:0.3077 21:0.1549 22:1.25 23:0.2308 
-0.1330115024956945 1:-1 2:0 3:0 4:23 5:0.3182 6:5 7:4 8:0.1818 9:0.1818 10:0.1364 11:0.5 12:16 13:0.3913 14:4 15:0.4043 16:47 17:0.2979 18:0.1915 19:0.2128 20:0.2979 21:0.2222 22:5 23:-1 
-0.06224224157551009 1:-1 2:0 3:0 4:22 5:0.4783 6:5 7:3 8:0.3913 9:0.2174 10:0.2609 11:0.1304 12:39 13:0.3636 14:4 15:0.4 16:45 17:0.3111 18:0.2 19:0.2 20:0.2889 21:0.1765 22:0 23:-1 
-0.2363616154802754 1:3 2:3 3:15 4:23 5:0.4348 6:5 7:3 8:0.1739 9:0.2609 10:0.1739 11:0.3913 12:1 13:0.3778 14:3 15:0.4342 16:76 17:0.3158 18:0.2763 19:0.1579 20:0.25 21:0.3239 22:4 23:0.2857 
-1 1:3 2:1 3:10 4:21 5:0.381 6:3 7:3 8:0.0952 9:0.1905 10:0.1905 11:0.5238 12:7 13:0.3171 14:3 15:0.4348 16:69 17:0.1884 18:0.1884 19:0.2464 20:0.3768 21:0.3115 22:0.67 23:0.3 
-0.05279962422511516 1:2 2:1 3:10 4:21 5:0.381 6:3 7:4 8:0.2381 9:0.2857 10:0.0952 11:0.381 12:5 13:0.3333 14:2 15:0.4722 16:72 17:0.2222 18:0.2361 19:0.2361 20:0.3056 21:0.2903 22:3.5 23:0.2 
-0.249089593964592 1:1 2:2 3:13 4:20 5:0.5 6:3 7:3 8:0.2 9:0.2 10:0.3 11:0.3 12:13 13:0.25 14:3 15:0.4648 16:71 17:0.2394 18:0.2113 19:0.2535 20:0.2958 21:0.2 22:1.14 23:0.12 
-0.03518469167374694 1:-1 2:0 3:0 4:21 5:0.4762 6:5 7:2 8:0.2381 9:0.2381 10:0.2381 11:0.2857 12:40 13:0.2683 14:-1 15:0.5 16:42 17:0.1905 18:0.2381 19:0.2619 20:0.3095 21:0.0323 22:0 23:-1 
-0.1497727584456089 1:-1 2:0 3:0 4:24 5:0.4583 6:5 7:2 8:0.2917 9:0.2083 10:0.25 11:0.25 12:40 13:0.234 14:-1 15:0.4792 16:48 17:0.2083 18:0.2292 19:0.25 20:0.3125 21:0.027 22:0 23:-1 
-0.004234533006326785 1:-1 2:0 3:0 4:23 5:0.2273 6:4 7:3 8:0.4091 9:0.1364 10:0.0909 11:0.3636 12:43 13:0.381 14:4 15:0.2273 16:44 17:0.3409 18:0.1136 19:0.1136 20:0.4318 21:0.2778 22:0.25 23:-1 
-1 1:-1 2:0 3:1 4:23 5:0.35 6:4 7:2 8:0.3 9:0.15 10:0.2 11:0.35 12:17 13:0.2381 14:1 15:0.2692 16:52 17:0.3269 18:0.1346 19:0.1346 20:0.4038 21:0.2273 22:1.11 23:0 
-0.09587276401756728 1:4 2:2 3:20 4:20 5:0.45 6:2 7:2 8:0.2 9:0.3 10:0.15 11:0.35 12:1 13:0.15 14:4 15:0.3214 16:84 17:0.2976 18:0.1429 19:0.1786 20:0.381 21:0.2105 22:0.4 23:0.2778 
-0.03434852966216161 1:-1 2:0 3:0 4:23 5:0.25 6:6 7:3 8:0.375 9:0.0417 10:0.2083 11:0.375 12:36 13:0.3913 14:3 15:0.2979 16:47 17:0.2553 18:0.0851 19:0.2128 20:0.4468 21:0.1765 22:0 23:-1 
-0.1127175389690164 1:-1 2:0 3:11 4:21 5:0.2857 6:1 7:2 8:0.381 9:0.1429 10:0.1429 11:0.3333 12:8 13:0.0952 14:1 15:0.3472 16:72 17:0.3056 18:0.1528 19:0.1944 20:0.3472 21:0.0625 22:1.25 23:0 
-0.127985576501485 1:1 2:1 3:17 4:20 5:0.25 6:1 7:2 8:0.45 9:0.1 10:0.15 11:0.3 12:3 13:0.1 14:1 15:0.3293 16:82 17:0.3293 18:0.1463 19:0.1829 20:0.3415 21:0.0811 22:0.78 23:0.0588 
-0.476353380615555 1:1 2:1 3:3 4:21 5:0.65 6:3 7:3 8:0.05 9:0.5 10:0.15 11:0.3 12:44 13:0.2632 14:4 15:0.549 16:51 17:0.2353 18:0.2745 19:0.2745 20:0.2157 21:0.2381 22:0.4 23:0.3333 
-0.4286207999003798 1:2 2:1 3:9 4:29 5:0.625 6:5 7:4 8:0.0833 9:0.5 10:0.125 11:0.2917 12:54 13:0.1765 14:4 15:0.6842 16:76 17:0.1579 18:0.3158 19:0.3684 20:0.1579 21:0.1765 22:1 23:0.1765 
-0.4337831742881259 1:2 2:1 3:12 4:25 5:0.4286 6:3 7:4 8:0.1905 9:0.2381 10:0.1905 11:0.381 12:58 13:0.2174 14:1 15:0.4444 16:72 17:0.3056 18:0.2222 19:0.2222 20:0.25 21:0.1765 22:1.12 23:0.0909 
-0.2471006953300277 1:-1 2:0 3:15 4:20 5:0.3 6:2 7:1 8:0.35 9:0.1 10:0.2 11:0.35 12:56 13:0.0526 14:4 15:0.3333 16:72 17:0.2917 18:0.1389 19:0.1944 20:0.375 21:0.0294 22:0.7 23:0 
-1 1:-1 2:0 3:9 4:24 5:0.25 6:2 7:1 8:0.375 9:0.0833 10:0.1667 11:0.375 12:50 13:0.0435 14:3 15:0.3088 16:68 17:0.3088 18:0.1324 19:0.1765 20:0.3824 21:0.0312 22:1 23:0 
-0.1958985838731955 1:-1 2:0 3:13 4:22 5:0.35 6:2 7:1 8:0.25 9:0.2 10:0.15 11:0.4 12:4 13:0.0476 14:4 15:0.3333 16:72 17:0.2917 18:0.1389 19:0.1944 20:0.375 21:0.0294 22:1.11 23:0 
-0.09034959041133132 1:-1 2:0 3:0 4:23 5:0.4091 6:3 7:4 8:0.0909 9:0.2273 10:0.1818 11:0.5 12:19 13:0.2381 14:-1 15:0.3864 16:44 17:0.2273 18:0.1364 19:0.25 20:0.3864 21:0.1111 22:3.5 23:-1 
-0.1551193021967255 1:-1 2:0 3:0 4:23 5:0.381 6:2 7:4 8:0.4286 9:0.0476 10:0.3333 11:0.1905 12:43 13:0.1905 14:4 15:0.3696 16:46 17:0.2391 18:0.1304 19:0.2391 20:0.3913 21:0.1053 22:0.56 23:-1 
-0.03005884540188266 1:2 2:2 3:17 4:22 5:0.5 6:6 7:4 8:0.15 9:0.2 10:0.3 11:0.35 12:2 13:0.4146 14:1 15:0.425 16:80 17:0.2625 18:0.175 19:0.25 20:0.3125 21:0.2778 22:0 23:0.0968 
-0.1040999724756724 1:2 2:1 3:10 4:20 5:0.5 6:2 7:2 8:0.4 9:0.15 10:0.35 11:0.1 12:6 13:0.15 14:4 15:0.4384 16:73 17:0.2877 18:0.2055 19:0.2329 20:0.274 21:0.1525 22:1.25 23:0.1579 
-0.02926389132236165 1:2 2:1 3:12 4:23 5:0.4348 6:2 7:3 8:0.4348 9:0.087 10:0.3478 11:0.1304 12:1 13:0.2174 14:3 15:0.4337 16:83 17:0.2771 18:0.2169 19:0.2169 20:0.2892 21:0.1884 22:0.57 23:0.1304 
-0.3730158559365973 1:-1 2:0 3:6 4:24 5:0.4348 6:2 7:3 8:0.087 9:0.3043 10:0.1304 11:0.4783 12:56 13:0.1915 14:1 15:0.4384 16:73 17:0.2877 18:0.2055 19:0.2329 20:0.274 21:0.1525 22:0.7 23:0 
-0.4490625963017467 1:-1 2:0 3:0 4:22 5:0.4762 6:2 7:3 8:0.4286 9:0.1905 10:0.2857 11:0.0952 12:42 13:0.1905 14:-1 15:0.5227 16:44 17:0.25 18:0.25 19:0.2727 20:0.2273 21:0.1053 22:0.5 23:-1 
-0.2250875767840904 1:-1 2:0 3:0 4:21 5:0.45 6:4 7:4 8:0.2 9:0.4 10:0.05 11:0.35 12:22 13:0.3659 14:4 15:0.4048 16:42 17:0.2857 18:0.2619 19:0.1429 20:0.3095 21:0.2973 22:1.2 23:-1 
-0.25789883320081 1:-1 2:0 3:0 4:25 5:0.6667 6:2 7:4 8:0.0417 9:0.4583 10:0.2083 11:0.2917 12:39 13:0.25 14:-1 15:0.66 16:50 17:0.16 18:0.32 19:0.34 20:0.18 21:0.1818 22:0.83 23:-1 
-0.4747216290364666 1:2 2:5 3:25 4:21 5:0.4 6:1 7:2 8:0.4 9:0.15 10:0.25 11:0.2 12:80 13:0.0732 14:1 15:0.3958 16:96 17:0.25 18:0.1875 19:0.2083 20:0.3542 21:0.1494 22:0.89 23:0.25 
-0.3163099198871775 1:2 2:3 3:13 4:20 5:0.55 6:1 7:4 8:0.2 9:0.2 10:0.35 11:0.25 12:68 13:0.2 14:3 15:0.4225 16:71 17:0.2254 18:0.2113 19:0.2113 20:0.3521 21:0.1935 22:1 23:0.25 
-0.09933720383424899 1:2 2:4 3:20 4:21 5:0.3333 6:1 7:2 8:0.2381 9:0.1905 10:0.1429 11:0.4286 12:9 13:0.0952 14:3 15:0.4138 16:87 17:0.2299 18:0.1954 19:0.2184 20:0.3563 21:0.1538 22:1 23:0.2632 
-0.3016189315008462 1:7 2:2 3:16 4:25 5:0.3913 6:3 7:4 8:0.2609 9:0.2174 10:0.1739 11:0.3478 12:4 13:0.3333 14:4 15:0.3289 16:76 17:0.3421 18:0.1711 19:0.1579 20:0.3289 21:0.3239 22:0.3 23:0.36 
-0.1219343086739098 1:7 2:3 3:22 4:20 5:0.35 6:4 7:3 8:0.3 9:0.2 10:0.15 11:0.35 12:3 13:0.4 14:3 15:0.3333 16:78 17:0.3462 18:0.1667 19:0.1667 20:0.3205 21:0.3425 22:0 23:0.3143 
-0.3685095342966522 1:7 2:3 3:23 4:20 5:0.4 6:5 7:3 8:0.25 9:0.2 10:0.2 11:0.35 12:2 13:0.45 14:4 15:0.35 16:80 17:0.3375 18:0.175 19:0.175 20:0.3125 21:0.36 22:0 23:0.2973 
-0.3344889991477969 1:6 2:3 3:19 4:24 5:0.3478 6:3 7:3 8:0.2609 9:0.1304 10:0.2174 11:0.3913 12:59 13:0.1739 14:2 15:0.4568 16:81 17:0.2963 18:0.2469 19:0.2099 20:0.2469 21:0.2821 22:1.14 23:0.4706 
-0.2520748991593675 1:6 2:2 3:15 4:24 5:0.4783 6:3 7:3 8:0.3478 9:0.3043 10:0.1739 11:0.1739 12:5 13:0.2444 14:1 15:0.4521 16:73 17:0.3014 18:0.2466 19:0.2055 20:0.2466 21:0.2857 22:3 23:0.4074 
-0.2306401715208179 1:6 2:3 3:19 4:21 5:0.45 6:3 7:2 8:0.4 9:0.25 10:0.2 11:0.15 12:4 13:0.15 14:1 15:0.4533 16:75 17:0.2933 18:0.24 19:0.2133 20:0.2533 21:0.2778 22:0.9 23:0.4706 
-1 1:1 2:1 3:2 4:23 5:0.381 6:2 7:4 8:0.3333 9:0.2381 10:0.1429 11:0.2857 12:18 13:0.1818 14:4 15:0.3333 16:51 17:0.2941 18:0.1569 19:0.1765 20:0.3725 21:0.1739 22:1.25 23:0.5 
-0.07232247653839263 1:-1 2:0 3:0 4:22 5:0.3 6:2 7:5 8:0.35 9:0.25 10:0.05 11:0.35 12:22 13:0.2857 14:4 15:0.3023 16:43 17:0.3023 18:0.1395 19:0.1628 20:0.3953 21:0.2105 22:1.6 23:-1 
-0.6006882764628401 1:2 2:2 3:10 4:21 5:0.4286 6:1 7:2 8:0.2381 9:0.0952 10:0.3333 11:0.3333 12:58 13:0.0952 14:1 15:0.3944 16:71 17:0.2958 18:0.1831 19:0.2113 20:0.3099 21:0.1333 22:0.6 23:0.3 
-0.06148983599095945 1:2 2:3 3:16 4:22 5:0.4091 6:3 7:2 8:0.2273 9:0.0909 10:0.3182 11:0.3636 12:64 13:0.1818 14:4 15:0.3765 16:85 17:0.3176 18:0.1765 19:0.2 20:0.3059 21:0.1892 22:3.33 23:0.25 
-0.01918061115479928 1:2 2:2 3:14 4:22 5:0.4762 6:2 7:4 8:0.2381 9:0.1429 10:0.3333 11:0.2857 12:1 13:0.3023 14:4 15:0.4324 16:74 17:0.2162 18:0.1892 19:0.2432 20:0.3514 21:0.2464 22:0.4 23:0.2143 
-0.2708081631088677 1:1 2:1 3:22 4:20 5:0.35 6:3 7:3 8:0.4 9:0.2 10:0.15 11:0.25 12:69 13:0.25 14:1 15:0.3523 16:88 17:0.3068 18:0.1818 19:0.1705 20:0.3409 21:0.1429 22:3 23:0.0455 
-0.4805393069801699 1:5 2:1 3:17 4:20 5:0.4 6:4 7:3 8:0.2 9:0.1 10:0.3 11:0.4 12:11 13:0.4 14:4 15:0.4487 16:78 17:0.1923 18:0.141 19:0.3077 20:0.359 21:0.3514 22:0 23:0.2941 
-0.3916147611403355 1:5 2:1 3:19 4:21 5:0.5714 6:5 7:3 8:0.1429 9:0.0952 10:0.4762 11:0.2857 12:71 13:0.4286 14:1 15:0.4643 16:84 17:0.1905 18:0.1429 19:0.3214 20:0.3452 21:0.35 22:1 23:0.2632 
-0.2056412337627397 1:5 2:2 3:25 4:24 5:0.3333 6:5 7:3 8:0.0952 9:0.0952 10:0.2381 11:0.5714 12:2 13:0.4667 14:4 15:0.4444 16:99 17:0.202 18:0.1414 19:0.303 20:0.3535 21:0.3684 22:0.44 23:0.28 
-0.06223986293702499 1:2 2:3 3:20 4:20 5:0.4 6:1 7:1 8:0.3 9:0.15 10:0.25 11:0.3 12:66 13:0.05 14:2 15:0.439 16:82 17:0.2439 18:0.1951 19:0.2439 20:0.3171 21:0.1026 22:1 23:0.1579 
-0.1610969089175893 1:2 2:2 3:18 4:20 5:0.4 6:1 7:2 8:0.3 9:0.15 10:0.25 11:0.3 12:64 13:0.1 14:2 15:0.4359 16:78 17:0.2436 18:0.1923 19:0.2436 20:0.3205 21:0.1081 22:0.89 23:0.1176 
-0.1420596356484264 1:1 2:2 3:18 4:22 5:0.5909 6:2 7:5 8:0.1364 9:0.3182 10:0.2727 11:0.2727 12:73 13:0.2727 14:1 15:0.5435 16:92 17:0.2609 18:0.25 19:0.2935 20:0.1957 21:0.2 22:1 23:0.1111 
-0.07518012664372152 1:1 2:1 3:11 4:23 5:0.4091 6:4 7:2 8:0.2273 9:0.0455 10:0.3636 11:0.3636 12:64 13:0.2 14:3 15:0.3855 16:83 17:0.3133 18:0.1566 19:0.2289 20:0.3012 21:0.1642 22:3.5 23:0.0909 
-0.2811658928361171 1:1 2:1 3:11 4:21 5:0.4 6:2 7:2 8:0.2 9:0.05 10:0.35 11:0.4 12:64 13:0.122 14:2 15:0.3797 16:79 17:0.3038 18:0.1519 19:0.2278 20:0.3165 21:0.1111 22:1 23:0.0909 
-0.150291562650982 1:1 2:1 3:13 4:20 5:0.4 6:2 7:4 8:0.2 9:0.25 10:0.15 11:0.4 12:9 13:0.3 14:4 15:0.3735 16:83 17:0.2771 18:0.1928 19:0.1807 20:0.3494 21:0.2 22:1.17 23:0.04 
-0.03173812066273045 1:1 2:1 3:10 4:20 5:0.4 6:2 7:4 8:0.25 9:0.2 10:0.2 11:0.35 12:12 13:0.3 14:2 15:0.3766 16:77 17:0.2727 18:0.1948 19:0.1818 20:0.3506 21:0.2203 22:0.4 23:0.0526 
-0.1588207372131332 1:-1 2:0 3:0 4:23 5:0.3913 6:8 7:3 8:0.3478 9:0.2609 10:0.1304 11:0.2609 12:51 13:0.4222 14:4 15:0.4043 16:47 17:0.2766 18:0.234 19:0.1702 20:0.3191 21:0.1034 22:0 23:-1 
-0.1512580672685997 1:1 2:2 3:16 4:21 5:0.381 6:1 7:1 8:0.3333 9:0.2381 10:0.1429 11:0.2857 12:2 13:0.0244 14:1 15:0.3875 16:80 17:0.3 18:0.1875 19:0.2 20:0.3125 21:0.0556 22:0.82 23:0.0968 
-0.2842024684430687 1:-1 2:0 3:0 4:22 5:0.4 6:5 7:4 8:0.25 9:0.2 10:0.2 11:0.35 12:27 13:0.4545 14:4 15:0.3556 16:45 17:0.2889 18:0.1556 19:0.2 20:0.3556 21:0.2941 22:5 23:-1 
-0.03964328946269496 1:-1 2:0 3:0 4:23 5:0.4091 6:5 7:4 8:0.2273 9:0.2273 10:0.1818 11:0.3636 12:26 13:0.4348 14:1 15:0.3617 16:47 17:0.2766 18:0.1489 19:0.2128 20:0.3617 21:0.2778 22:5 23:-1 
-1 1:2 2:1 3:9 4:20 5:0.55 6:2 7:3 8:0.35 9:0.45 10:0.1 11:0.1 12:12 13:0.2 14:3 15:0.5735 16:68 17:0.1912 18:0.2941 19:0.2794 20:0.2353 21:0.2069 22:1.33 23:0.2222 
-0.1283588856734698 1:2 2:2 3:14 4:24 5:0.2917 6:1 7:1 8:0.4583 9:0.0833 10:0.2083 11:0.25 12:59 13:0.0417 14:4 15:0.3671 16:79 17:0.3418 18:0.1772 19:0.1899 20:0.2911 21:0.0811 22:1 23:0.2143 
-0.0591351689804664 1:-1 2:0 3:0 4:21 5:0.4762 6:2 7:2 8:0.1905 9:0.2381 10:0.2381 11:0.3333 12:22 13:0.1905 14:1 15:0.4651 16:43 17:0.3023 18:0.2326 19:0.2326 20:0.2326 21:0.1053 22:3.33 23:-1 
-1 1:4 2:3 3:14 4:21 5:0.4762 6:2 7:2 8:0.3333 9:0.1429 10:0.3333 11:0.1905 12:60 13:0.1 14:2 15:0.4429 16:70 17:0.2571 18:0.2429 19:0.2 20:0.3 21:0.2308 22:1.25 23:0.4815 
-1 1:-1 2:0 3:0 4:23 5:0.3043 6:1 7:2 8:0.3478 9:0.1304 10:0.1739 11:0.3478 12:56 13:0.087 14:4 15:0.2857 16:63 17:0.3492 18:0.1587 19:0.127 20:0.3651 21:0.0455 22:0.78 23:-1 
-0.2542336986571952 1:-1 2:0 3:0 4:22 5:0.3182 6:9 7:2 8:0.3636 9:0.1364 10:0.1818 11:0.3182 12:48 13:0.4545 14:1 15:0.3556 16:45 17:0.3111 18:0.2 19:0.1556 20:0.3333 21:0.0769 22:0 23:-1 
-0.3866137632408975 1:-1 2:0 3:0 4:23 5:0.3043 6:6 7:2 8:0.3043 9:0.1304 10:0.1739 11:0.3913 12:51 13:0.3043 14:1 15:0.3019 16:53 17:0.3396 18:0.1698 19:0.1321 20:0.3585 21:0.0588 22:0 23:-1 
-0.0334089588621753 1:1 2:1 3:12 4:21 5:0.6 6:3 7:3 8:0.15 9:0.2 10:0.4 11:0.25 12:1 13:0.3171 14:4 15:0.507 16:71 17:0.2817 18:0.2958 19:0.2113 20:0.2113 21:0.2308 22:0.27 23:0.0833 
-0.09756194641455171 1:1 2:3 3:14 4:20 5:0.4 6:1 7:2 8:0.3 9:0.15 10:0.25 11:0.3 12:9 13:0.1 14:4 15:0.4054 16:74 17:0.2432 18:0.1892 19:0.2162 20:0.3514 21:0.1077 22:1 23:0.1852 
-0.03478498683224836 1:1 2:2 3:15 4:24 5:0.4583 6:3 7:3 8:0.25 9:0.2083 10:0.25 11:0.2917 12:60 13:0.2917 14:4 15:0.506 16:83 17:0.2169 18:0.253 19:0.253 20:0.2771 21:0.2105 22:1 23:0.1333 
-0.1145373047546439 1:-1 2:0 3:0 4:27 5:0.5417 6:5 7:5 8:0.25 9:0.2083 10:0.3333 11:0.2083 12:44 13:0.3725 14:1 15:0.5283 16:53 17:0.2642 18:0.2453 19:0.283 20:0.2075 21:0.2889 22:0.25 23:-1 
-0.1683413815686928 1:-1 2:0 3:0 4:26 5:0.5652 6:5 7:5 8:0.2609 9:0.2174 10:0.3478 11:0.1739 12:45 13:0.3469 14:3 15:0.5283 16:53 17:0.2642 18:0.2453 19:0.283 20:0.2075 21:0.2889 22:0.62 23:-1 
-0.2202189079779882 1:5 2:2 3:14 4:24 5:0.4167 6:2 7:3 8:0.25 9:0.125 10:0.2917 11:0.3333 12:58 13:0.1667 14:1 15:0.4815 16:81 17:0.2593 18:0.2099 19:0.2716 20:0.2593 21:0.2329 22:1 23:0.36 
-0.4533729883543346 1:1 2:1 3:8 4:23 5:0.3913 6:2 7:4 8:0.2609 9:0.2174 10:0.1739 11:0.3478 12:10 13:0.2609 14:1 15:0.4085 16:71 17:0.3099 18:0.1831 19:0.2254 20:0.2817 21:0.2 22:0.7 23:0.125 
-0.01884249627317785 1:3 2:3 3:19 4:20 5:0.6 6:1 7:1 8:0.3 9:0.25 10:0.35 11:0.1 12:3 13:0.05 14:3 15:0.5 16:80 17:0.2625 18:0.2375 19:0.2625 20:0.2375 21:0.12 22:0.73 23:0.2432 
-0.04862176584923478 1:1 2:1 3:12 4:24 5:0.4583 6:3 7:5 8:0.2917 9:0.2083 10:0.25 11:0.25 12:1 13:0.2917 14:4 15:0.3951 16:81 17:0.3086 18:0.1728 19:0.2222 20:0.2963 21:0.2 22:0.29 23:0.0833 
-0.0923851428698871 1:1 2:2 3:14 4:20 5:0.45 6:1 7:4 8:0.25 9:0.2 10:0.25 11:0.3 12:60 13:0.2 14:1 15:0.3896 16:77 17:0.2987 18:0.1558 19:0.2338 20:0.3117 21:0.1515 22:1 23:0.1429 
-0.148113840399042 1:-1 2:0 3:0 4:23 5:0.3478 6:4 7:3 8:0.3478 9:0.1739 10:0.1739 11:0.3043 12:41 13:0.3333 14:-1 15:0.3478 16:46 17:0.413 18:0.1739 19:0.1739 20:0.2391 21:0.1892 22:0 23:-1 
-0.02495441769839381 1:2 2:2 3:15 4:25 5:0.4545 6:6 7:3 8:0.2727 9:0.1364 10:0.3182 11:0.2727 12:1 13:0.4286 14:4 15:0.4359 16:78 17:0.3077 18:0.2051 19:0.2308 20:0.2564 21:0.3043 22:0.6 23:0.1724 
-0.1126509285994172 1:2 2:2 3:16 4:24 5:0.4762 6:6 7:3 8:0.2857 9:0.1429 10:0.3333 11:0.2381 12:1 13:0.45 14:1 15:0.4359 16:78 17:0.3077 18:0.2051 19:0.2308 20:0.2564 21:0.3043 22:0.5 23:0.1613 
-0.3173385086095111 1:1 2:1 3:8 4:26 5:0.4545 6:5 7:4 8:0.3182 9:0.3182 10:0.1364 11:0.2273 12:4 13:0.2917 14:1 15:0.48 16:75 17:0.2267 18:0.24 19:0.24 20:0.2933 21:0.2258 22:0.29 23:0.125 
-0.2081661388829861 1:1 2:2 3:13 4:24 5:0.45 6:8 7:3 8:0.3 9:0.25 10:0.2 11:0.25 12:1 13:0.4091 14:4 15:0.4691 16:81 17:0.2593 18:0.2222 19:0.2469 20:0.2716 21:0.2941 22:0 23:0.1538 
-0.08544926129238563 1:1 2:2 3:15 4:23 5:0.5652 6:2 7:5 8:0.3043 9:0.2174 10:0.3478 11:0.1304 12:61 13:0.2609 14:4 15:0.494 16:83 17:0.2892 18:0.2771 19:0.2169 20:0.2169 21:0.1892 22:1 23:0.1333 
-0.00521820867643972 1:2 2:2 3:14 4:21 5:0.5238 6:3 7:3 8:0.0952 9:0.2857 10:0.2381 11:0.381 12:1 13:0.3171 14:3 15:0.4405 16:84 17:0.2738 18:0.2024 19:0.2381 20:0.2857 21:0.2537 22:0.43 23:0.2143 
-0.1050295998292094 1:1 2:2 3:8 4:23 5:0.5217 6:2 7:3 8:0.087 9:0.3913 10:0.1304 11:0.3913 12:5 13:0.2 14:4 15:0.4342 16:76 17:0.2632 18:0.1974 19:0.2368 20:0.3026 21:0.1864 22:1.57 23:0.25 
-0.3367519295051157 1:-1 2:0 3:0 4:24 5:0.5417 6:4 7:2 8:0.2917 9:0.1667 10:0.375 11:0.1667 12:9 13:0.234 14:1 15:0.451 16:51 17:0.2745 18:0.2157 19:0.2353 20:0.2745 21:0.1628 22:1.8 23:-1 
-0.03537325294386789 1:1 2:3 3:12 4:25 5:0.4286 6:5 7:3 8:0.2857 9:0.1905 10:0.2381 11:0.2857 12:57 13:0.2174 14:4 15:0.4605 16:76 17:0.2368 18:0.1974 19:0.2632 20:0.3026 21:0.194 22:2.5 23:0.2174 
-0.2360059037401207 1:2 2:2 3:12 4:21 5:0.381 6:1 7:1 8:0.2381 9:0.0952 10:0.2857 11:0.381 12:54 13:0.0476 14:2 15:0.3803 16:71 17:0.2817 18:0.1408 19:0.2394 20:0.338 21:0.0938 22:0.9 23:0.25 
-0.1309579264538974 1:2 2:2 3:11 4:23 5:0.4783 6:1 7:2 8:0.2174 9:0.3043 10:0.1739 11:0.3043 12:3 13:0.087 14:4 15:0.3836 16:73 17:0.2877 18:0.1507 19:0.2329 20:0.3288 21:0.1212 22:0.78 23:0.2727 
