svm_type c_svc
kernel_type rbf
gamma 0.0434783
nr_class 2
total_sv 55
rho 0.82286
label 1 0
probA -6.95825
probB -4.03197
nr_sv 6 49
SV
1 1:3 2:4 3:17 4:21 5:0.4762 6:2 7:2 8:0.2381 9:0.0476 10:0.4286 11:0.2857 12:16 13:0.1429 14:2 15:0.4605 16:76 17:0.2368 18:0.2105 19:0.25 20:0.3026 21:0.1831 22:1.12 23:0.2903 
1 1:3 2:4 3:19 4:21 5:0.4762 6:2 7:2 8:0.2857 9:0.381 10:0.0952 11:0.2381 12:73 13:0.1429 14:4 15:0.4625 16:80 17:0.2375 18:0.2125 19:0.25 20:0.3 21:0.1733 22:0.8 23:0.2571 
1 1:8 2:2 3:19 4:22 5:0.5238 6:2 7:3 8:0.2381 9:0.0952 10:0.4286 11:0.2381 12:15 13:0.1628 14:2 15:0.4512 16:82 17:0.2561 18:0.2073 19:0.2439 20:0.2927 21:0.2821 22:0.78 23:0.4286 
1 1:8 2:2 3:21 4:22 5:0.5909 6:2 7:3 8:0.1364 9:0.3636 10:0.2273 11:0.2727 12:77 13:0.1628 14:4 15:0.4535 16:86 17:0.2558 18:0.2093 19:0.2442 20:0.2907 21:0.2683 22:1.25 23:0.3846 
1 1:6 2:6 3:32 4:22 5:0.5455 6:2 7:4 8:0.1818 9:0.1818 10:0.3636 11:0.2727 12:6 13:0.2273 14:4 15:0.5143 16:105 17:0.2286 18:0.2762 19:0.2381 20:0.2571 21:0.2941 22:1 23:0.3667 
1 1:6 2:6 3:34 4:22 5:0.5 6:2 7:4 8:0.2273 9:0.2727 10:0.2273 11:0.2727 12:91 13:0.2273 14:4 15:0.5138 16:109 17:0.2294 18:0.2752 19:0.2385 20:0.2569 21:0.283 22:1.14 23:0.3438 
-0.09391164368049813 1:-1 2:0 3:0 4:26 5:0.5 6:3 7:5 8:0.1667 9:0.375 10:0.125 11:0.3333 12:55 13:0.2653 14:3 15:0.48 16:50 17:0.24 18:0.22 19:0.26 20:0.28 21:0.2 22:0.5 23:-1 
-0.1062628719476846 1:3 2:5 3:27 4:25 5:0.375 6:3 7:3 8:0.4167 9:0.1667 10:0.2083 11:0.2083 12:81 13:0.2245 14:4 15:0.4369 16:103 17:0.2621 18:0.1942 19:0.2427 20:0.301 21:0.2041 22:0.4 23:0.2157 
-0.3512639518909024 1:3 2:6 3:32 4:21 5:0.3333 6:3 7:2 8:0.1905 9:0.1429 10:0.1905 11:0.4762 12:1 13:0.1707 14:4 15:0.4286 16:105 17:0.2667 18:0.1905 19:0.2381 20:0.3048 21:0.2 22:1.11 23:0.2459 
-0.04844744340130075 1:-1 2:0 3:0 4:24 5:0.4783 6:3 7:5 8:0.3043 9:0.087 10:0.3913 11:0.2174 12:31 13:0.2889 14:4 15:0.4783 16:46 17:0.2391 18:0.2174 19:0.2609 20:0.2826 21:0.2195 22:1.6 23:-1 
-0.1502998799815026 1:1 2:2 3:9 4:22 5:0.5 6:3 7:4 8:0.25 9:0.4 10:0.1 11:0.25 12:65 13:0.2857 14:1 15:0.4839 16:62 17:0.2258 18:0.2258 19:0.2581 20:0.2903 21:0.2281 22:1 23:0.1765 
-0.09984961754277139 1:-1 2:0 3:0 4:25 5:0.5217 6:3 7:5 8:0.3043 9:0.087 10:0.4348 11:0.1739 12:30 13:0.2766 14:4 15:0.5 16:48 17:0.2292 18:0.2292 19:0.2708 20:0.2708 21:0.2093 22:2.2 23:-1 
-0.04693320641464194 1:1 2:1 3:2 4:22 5:0.4762 6:3 7:4 8:0.3333 9:0.0476 10:0.4286 11:0.1905 12:30 13:0.2195 14:2 15:0.5 16:48 17:0.2292 18:0.2292 19:0.2708 20:0.2708 21:0.2093 22:1.22 23:0.5 
-0.06119858311932511 1:3 2:5 3:26 4:21 5:0.3333 6:3 7:3 8:0.1905 9:0.0476 10:0.2857 11:0.4762 12:7 13:0.2683 14:2 15:0.4301 16:93 17:0.2688 18:0.1935 19:0.2366 20:0.3011 21:0.2273 22:0.6 23:0.2245 
-0.1069056433031567 1:-1 2:0 3:0 4:24 5:0.5 6:3 7:5 8:0.1818 9:0.3636 10:0.1364 11:0.3182 12:55 13:0.2889 14:3 15:0.4783 16:46 17:0.2391 18:0.2174 19:0.2609 20:0.2826 21:0.2195 22:0.62 23:-1 
-0.1205330340402933 1:3 2:6 3:30 4:22 5:0.381 6:3 7:2 8:0.4286 9:0.1429 10:0.2381 11:0.1905 12:84 13:0.1628 14:4 15:0.4369 16:103 17:0.2621 18:0.1942 19:0.2427 20:0.301 21:0.2041 22:0.9 23:0.2632 
-0.1220151696103133 1:3 2:5 3:27 4:21 5:0.2857 6:3 7:3 8:0.1905 9:0.0476 10:0.2381 11:0.5238 12:6 13:0.2683 14:2 15:0.4316 16:95 17:0.2632 18:0.1895 19:0.2421 20:0.3053 21:0.2222 22:0.5 23:0.2157 
-0.09963750492729818 1:1 2:1 3:3 4:24 5:0.5909 6:3 7:4 8:0.1364 9:0.4545 10:0.1364 11:0.2727 12:59 13:0.2 14:4 15:0.5185 16:54 17:0.2222 18:0.2407 19:0.2778 20:0.2593 21:0.1837 22:0.64 23:0.3333 
-0.105424003895678 1:1 2:2 3:7 4:21 5:0.5238 6:3 7:3 8:0.2857 9:0.0476 10:0.4762 11:0.1905 12:26 13:0.2 14:4 15:0.5 16:56 17:0.2321 18:0.2321 19:0.2679 20:0.2679 21:0.1765 22:1.67 23:0.2308 
-0.1538867987095774 1:1 2:2 3:9 4:22 5:0.4545 6:3 7:4 8:0.2727 9:0.0455 10:0.4091 11:0.2727 12:23 13:0.2857 14:2 15:0.4839 16:62 17:0.2258 18:0.2258 19:0.2581 20:0.2903 21:0.2281 22:2 23:0.1765 
-0.02111778637505955 1:3 2:5 3:28 4:23 5:0.3636 6:3 7:3 8:0.4091 9:0.1818 10:0.1818 11:0.2273 12:82 13:0.2444 14:2 15:0.4257 16:101 17:0.2673 18:0.1881 19:0.2376 20:0.3069 21:0.2083 22:0.44 23:0.2075 
-0.08882879587806486 1:1 2:1 3:4 4:22 5:0.5238 6:3 7:4 8:0.3333 9:0.0476 10:0.4762 11:0.1429 12:28 13:0.2195 14:3 15:0.5 16:52 17:0.2308 18:0.2308 19:0.2692 20:0.2692 21:0.1915 22:0.91 23:0.25 
-0.09888452601323913 1:1 2:1 3:3 4:22 5:0.55 6:3 7:4 8:0.15 9:0.4 10:0.15 11:0.3 12:59 13:0.2195 14:3 15:0.48 16:50 17:0.24 18:0.22 19:0.26 20:0.28 21:0.2 22:0.7 23:0.3333 
-0.1344290308587982 1:4 2:2 3:12 4:22 5:0.4545 6:4 7:3 8:0.1818 9:0.3182 10:0.1364 11:0.3636 12:68 13:0.3023 14:2 15:0.4265 16:68 17:0.2647 18:0.1912 19:0.2353 20:0.3088 21:0.3125 22:0 23:0.3333 
-0.1065610904477678 1:1 2:1 3:6 4:20 5:0.55 6:8 7:2 8:0.2 9:0.15 10:0.4 11:0.25 12:29 13:0.4054 14:4 15:0.3774 16:53 17:0.3019 18:0.1887 19:0.1887 20:0.3208 21:0.3469 22:1.33 23:0.1667 
-0.100379973434934 1:1 2:1 3:3 4:27 5:0.4583 6:8 7:2 8:0.2083 9:0.2917 10:0.1667 11:0.3333 12:62 13:0.3333 14:3 15:0.3934 16:61 17:0.2787 18:0.1803 19:0.2131 20:0.3279 21:0.3333 22:1.29 23:0.3333 
-0.4997140209329789 1:8 2:4 3:32 4:24 5:0.5 6:2 7:4 8:0.2273 9:0.3636 10:0.1364 11:0.2727 12:88 13:0.1556 14:4 15:0.4587 16:109 17:0.2569 18:0.2018 19:0.2569 20:0.2844 21:0.2571 22:1.25 23:0.3333 
-0.09837975718023519 1:1 2:1 3:3 4:21 5:0.4286 6:8 7:1 8:0.2381 9:0.1429 10:0.2857 11:0.3333 12:31 13:0.3333 14:1 15:0.3469 16:49 17:0.3265 18:0.1837 19:0.1633 20:0.3265 21:0.3333 22:1.11 23:0.3333 
-0.1317026699437374 1:1 2:1 3:7 4:22 5:0.4545 6:8 7:2 8:0.2273 9:0.1364 10:0.3182 11:0.3182 12:26 13:0.4146 14:2 15:0.3729 16:59 17:0.2881 18:0.1695 19:0.2034 20:0.339 21:0.3455 22:1.33 23:0.1429 
-0.04342221055210488 1:8 2:3 3:27 4:24 5:0.5455 6:2 7:4 8:0.2273 9:0.3636 10:0.1818 11:0.2273 12:83 13:0.1556 14:1 15:0.46 16:100 17:0.26 18:0.2 19:0.26 20:0.28 21:0.2708 22:0.7 23:0.3725 
-0.0932096865317662 1:1 2:1 3:3 4:24 5:0.4286 6:8 7:2 8:0.2381 9:0.2857 10:0.1429 11:0.3333 12:62 13:0.3778 14:1 15:0.3818 16:55 17:0.2909 18:0.1818 19:0.2 20:0.3273 21:0.3725 22:1.5 23:0.3333 
-0.04741169381905249 1:1 2:1 3:5 4:25 5:0.4545 6:8 7:2 8:0.1818 9:0.3182 10:0.1364 11:0.3636 12:64 13:0.3617 14:3 15:0.3934 16:61 17:0.2787 18:0.1803 19:0.2131 20:0.3279 21:0.3333 22:1.14 23:0.2 
-0.1526894699098089 1:-1 2:0 3:0 4:22 5:0.35 6:8 7:3 8:0.35 9:0.25 10:0.1 11:0.3 12:57 13:0.4146 14:-1 15:0.3488 16:43 17:0.3256 18:0.186 19:0.1628 20:0.3256 21:0.3846 22:0.36 23:-1 
-0.10908664948614 1:-1 2:0 3:0 4:25 5:0.3478 6:8 7:3 8:0.3478 9:0.2609 10:0.087 11:0.3043 12:57 13:0.3617 14:-1 15:0.3469 16:49 17:0.3265 18:0.1837 19:0.1633 20:0.3265 21:0.3333 22:0.4 23:-1 
-0.07341022127237218 1:8 2:3 3:28 4:23 5:0.5714 6:2 7:4 8:0.2381 9:0.381 10:0.1905 11:0.1905 12:84 13:0.1628 14:1 15:0.46 16:100 17:0.26 18:0.2 19:0.26 20:0.28 21:0.2708 22:0.8 23:0.3585 
-0.1469312327060891 1:1 2:1 3:7 4:27 5:0.4583 6:8 7:3 8:0.2083 9:0.3333 10:0.125 11:0.3333 12:66 13:0.36 14:2 15:0.4265 16:68 17:0.2647 18:0.1912 19:0.2353 20:0.3088 21:0.3125 22:0.38 23:0.1429 
-0.07757539534504582 1:-1 2:0 3:1 4:25 5:0.3636 6:8 7:3 8:0.3182 9:0.2727 10:0.0909 11:0.3182 12:60 13:0.3617 14:1 15:0.3774 16:53 17:0.3019 18:0.1887 19:0.1887 20:0.3208 21:0.3469 22:0.75 23:0 
-0.08339308584434413 1:8 2:3 3:28 4:26 5:0.5833 6:2 7:4 8:0.2083 9:0.4167 10:0.1667 11:0.2083 12:84 13:0.1429 14:4 15:0.4717 16:106 17:0.2547 18:0.2075 19:0.2642 20:0.2736 21:0.2549 22:0.8 23:0.3585 
-0.1279970922575254 1:-1 2:0 3:0 4:22 5:0.3636 6:8 7:3 8:0.3182 9:0.1364 10:0.2273 11:0.3182 12:34 13:0.4146 14:2 15:0.3488 16:43 17:0.3256 18:0.186 19:0.1628 20:0.3256 21:0.3846 22:2.75 23:-1 
-0.02667793803517955 1:1 2:1 3:2 4:22 5:0.5455 6:6 7:4 8:0.1818 9:0.3636 10:0.1818 11:0.2727 12:36 13:0.4286 14:4 15:0.4894 16:47 17:0.2766 18:0.2979 19:0.1915 20:0.234 21:0.4091 22:0.71 23:0.5 
-0.136838115591482 1:1 2:3 3:12 4:24 5:0.55 6:6 7:4 8:0.3 9:0.25 10:0.3 11:0.15 12:73 13:0.4091 14:3 15:0.5072 16:69 17:0.2464 18:0.3043 19:0.2029 20:0.2464 21:0.3333 22:0 23:0.25 
-0.111180510277434 1:6 2:5 3:26 4:22 5:0.5909 6:2 7:4 8:0.0909 9:0.2727 10:0.3182 11:0.3182 12:12 13:0.2381 14:4 15:0.5376 16:93 17:0.2043 18:0.2903 19:0.2473 20:0.2581 21:0.3111 22:1 23:0.4 
-0.02544074953503338 1:1 2:1 3:5 4:21 5:0.5714 6:6 7:4 8:0.2381 9:0.381 10:0.1905 11:0.1905 12:34 13:0.45 14:2 15:0.4902 16:51 17:0.2745 18:0.2941 19:0.1961 20:0.2353 21:0.375 22:1 23:0.2 
-0.1219113855137534 1:3 2:4 3:15 4:27 5:0.6087 6:3 7:4 8:0.2174 9:0.2609 10:0.3478 11:0.1739 12:76 13:0.24 14:3 15:0.5309 16:81 17:0.2222 18:0.2963 19:0.2346 20:0.2469 21:0.2821 22:0.33 23:0.4 
-0.4923776557459943 1:6 2:4 3:20 4:24 5:0.5833 6:2 7:4 8:0.125 9:0.25 10:0.3333 11:0.2917 12:16 13:0.1818 14:3 15:0.5412 16:85 17:0.2118 18:0.2941 19:0.2471 20:0.2471 21:0.2927 22:1.4 23:0.45 
-0.03578378238502404 1:1 2:1 3:2 4:23 5:0.5652 6:6 7:4 8:0.1739 9:0.3478 10:0.2174 11:0.2609 12:35 13:0.4091 14:4 15:0.5102 16:49 17:0.2653 18:0.3061 19:0.2041 20:0.2245 21:0.3913 22:0.71 23:0.5 
-0.09673610728402382 1:-1 2:0 3:0 4:23 5:0.5 6:6 7:5 8:0.2273 9:0.3182 10:0.1818 11:0.2727 12:37 13:0.4222 14:2 15:0.4783 16:46 17:0.2826 18:0.2826 19:0.1957 20:0.2391 21:0.3953 22:1.33 23:-1 
-0.1020410950322681 1:1 2:3 3:9 4:25 5:0.5714 6:6 7:3 8:0.2381 9:0.2857 10:0.2857 11:0.1905 12:70 13:0.3478 14:4 15:0.5077 16:65 17:0.2462 18:0.2923 19:0.2154 20:0.2462 21:0.3226 22:0.8 23:0.3333 
-0.07321010175911145 1:6 2:5 3:23 4:24 5:0.625 6:2 7:5 8:0.0833 9:0.2917 10:0.3333 11:0.2917 12:13 13:0.2444 14:4 15:0.5495 16:91 17:0.1978 18:0.2967 19:0.2527 20:0.2527 21:0.3182 22:0.6 23:0.4222 
-0.1323673741581669 1:6 2:5 3:25 4:20 5:0.6 6:2 7:3 8:0.1 9:0.25 10:0.35 11:0.3 12:15 13:0.2105 14:2 15:0.5402 16:87 17:0.2069 18:0.2874 19:0.2529 20:0.2529 21:0.3095 22:1.25 23:0.4167 
-0.1220010499631218 1:6 2:5 3:26 4:24 5:0.5909 6:2 7:4 8:0.1818 9:0.3182 10:0.2727 11:0.2273 12:85 13:0.2174 14:3 15:0.5361 16:97 17:0.2062 18:0.2887 19:0.2474 20:0.2577 21:0.2979 22:1.43 23:0.4 
-0.1120015365978741 1:1 2:1 3:4 4:27 5:0.6087 6:6 7:5 8:0.2174 9:0.3043 10:0.3043 11:0.1739 12:65 13:0.4 14:1 15:0.5254 16:59 17:0.2373 18:0.3051 19:0.2203 20:0.2373 21:0.3571 22:0.8 23:0.25 
-0.08129563898997563 1:1 2:1 3:5 4:20 5:0.6 6:6 7:4 8:0.2 9:0.4 10:0.2 11:0.2 12:35 13:0.4737 14:2 15:0.5102 16:49 17:0.2653 18:0.3061 19:0.2041 20:0.2245 21:0.3913 22:1 23:0.2 
-0.1796120033290517 1:6 2:4 3:20 4:28 5:0.5833 6:2 7:5 8:0.125 9:0.3333 10:0.25 11:0.2917 12:81 13:0.2308 14:3 15:0.5376 16:93 17:0.2043 18:0.2903 19:0.2473 20:0.2581 21:0.3111 22:2 23:0.45 
-0.2488312145484979 1:5 2:4 3:17 4:26 5:0.6364 6:2 7:4 8:0.1818 9:0.3182 10:0.3182 11:0.1818 12:78 13:0.1667 14:3 15:0.5422 16:83 17:0.2169 18:0.3012 19:0.241 20:0.241 21:0.275 22:1 23:0.4706 
