svm_type c_svc
kernel_type rbf
gamma 0.0416667
nr_class 2
total_sv 474
rho 0.905821
label 1 0
probA -2.73113
probB -0.221867
nr_sv 144 330
SV
1 1:4 2:3 3:3 4:2 5:23 6:0.5 7:0 8:1 9:3 10:0.4 11:0.35 12:0.1 13:20 14:3 15:0.4512 16:0.2439 17:0.2439 18:0.2073 19:0.3049 20:0.1316 21:1.25 22:0.3333 23:0.1875 24:17 
1 1:4 2:2 3:5 4:1 5:24 6:0.5 7:0 8:2 9:3 10:0.4 11:0.35 12:0.1 13:20 14:2 15:0.475 16:0.2125 17:0.225 18:0.25 19:0.3125 20:0.1579 21:2 22:0.25 23:0.2 24:17 
0.8713429161437549 1:4 2:3 3:3 4:2 5:23 6:0.5 7:0 8:1 9:3 10:0.4 11:0.35 12:0.1 13:20 14:3 15:0.4699 16:0.2289 17:0.241 18:0.2289 19:0.3012 20:0.1538 21:1.25 22:0.3684 23:0.2778 24:12 
1 1:4 2:3 3:-1 4:0 5:21 6:0.5 7:1 8:1 9:1 10:0.4 11:0.35 12:0.1 13:20 14:4 15:0.4271 16:0.1979 17:0.1771 18:0.25 19:0.375 20:0.1868 21:0.91 22:0 23:0.3462 24:4 
1 1:4 2:4 3:-1 4:0 5:21 6:0.5 7:0 8:1 9:2 10:0.4 11:0.35 12:0.1 13:19 14:4 15:0.4556 16:0.2333 17:0.2111 18:0.2444 19:0.3111 20:0.1429 21:0.91 22:0 23:0.2632 24:13 
1 1:4 2:3 3:-1 4:0 5:22 6:0.4286 7:0 8:2 9:2 10:0.4286 11:0.2857 12:0.1429 13:19 14:4 15:0.4176 16:0.2527 17:0.2088 18:0.2088 19:0.3297 20:0.1494 21:0.64 22:0 23:0.1818 24:5 
1 1:4 2:1 3:2 4:1 5:22 6:0.4286 7:0 8:2 9:2 10:0.4286 11:0.2857 12:0.1429 13:19 14:4 15:0.4176 16:0.2527 17:0.2418 18:0.1758 19:0.3297 20:0.1316 21:0.64 22:0.1765 23:0.2 24:14 
1 1:4 2:2 3:3 4:2 5:21 6:0.4 7:0 8:2 9:3 10:0.45 11:0.15 12:0.15 13:17 14:3 15:0.3692 16:0.3077 17:0.2 18:0.1692 19:0.3231 20:0.2131 21:1.6 22:0.2667 23:0.3 24:19 
1 1:4 2:4 3:-1 4:0 5:21 6:0.3333 7:0 8:1 9:2 10:0.381 11:0.1905 12:0.2857 13:19 14:4 15:0.3774 16:0.2736 17:0.1887 18:0.1887 19:0.3491 20:0.2039 21:0.67 22:0 23:0.3016 24:6 
0.2136795054166742 1:4 2:4 3:1 4:2 5:21 6:0.4762 7:2 8:1 9:1 10:0.2857 11:0.3333 12:0.2381 13:20 14:1 15:0.3864 16:0.2614 17:0.1818 18:0.2045 19:0.3523 20:0.2 21:0.82 22:0.1818 23:0.3778 24:15 
1 1:4 2:4 3:5 4:2 5:21 6:0.4762 7:0 8:1 9:3 10:0.2857 11:0.1429 12:0.2381 13:18 14:3 15:0.4235 16:0.3294 17:0.2235 18:0.2 19:0.2471 20:0.2195 21:0.91 22:0.4167 23:0.3333 24:18 
1 1:4 2:4 3:-1 4:0 5:21 6:0.619 7:1 8:3 9:2 10:0.2857 11:0.4286 12:0.0952 13:17 14:4 15:0.4487 16:0.3077 17:0.2692 18:0.1795 19:0.2436 20:0.2877 21:1 22:0 23:0.4545 24:12 
1 1:4 2:3 3:-1 4:0 5:21 6:0.619 7:1 8:2 9:3 10:0.1429 11:0.1905 12:0.2381 13:16 14:1 15:0.4375 16:0.2143 17:0.2054 18:0.2321 19:0.3482 20:0.2407 21:0.67 22:-1 23:0.2424 24:2 
1 1:4 2:3 3:-1 4:0 5:21 6:0.619 7:0 8:2 9:3 10:0.1429 11:0.1905 12:0.2381 13:17 14:1 15:0.4615 16:0.2527 17:0.2308 18:0.2308 19:0.2857 20:0.2644 21:0.89 22:0 23:0.3333 24:3 
1 1:4 2:5 3:1 4:1 5:21 6:0.619 7:0 8:2 9:4 10:0.1429 11:0.1905 12:0.2381 13:14 14:1 15:0.4556 16:0.2667 17:0.2333 18:0.2222 19:0.2778 20:0.3412 21:0.89 22:0.1429 23:0.3778 24:13 
1 1:4 2:3 3:-1 4:0 5:21 6:0.4762 7:2 8:1 9:1 10:0.2857 11:0.2381 12:0.2381 13:20 14:4 15:0.3861 16:0.2277 17:0.1782 18:0.2079 19:0.3861 20:0.1837 21:1 22:-1 23:0.3103 24:8 
1 1:4 2:3 3:-1 4:0 5:23 6:0.4762 7:1 8:2 9:3 10:0.2857 11:0.2381 12:0.2381 13:19 14:3 15:0.4286 16:0.2967 17:0.2088 18:0.2198 19:0.2747 20:0.1954 21:0.78 22:0 23:0.2558 24:5 
1 1:4 2:7 3:1 4:1 5:21 6:0.619 7:3 8:2 9:3 10:0.1429 11:0.4286 12:0.2381 13:17 14:2 15:0.5281 16:0.1573 17:0.2247 18:0.3034 19:0.3146 20:0.2289 21:0.62 22:0.1429 23:0.2857 24:9 
1 1:4 2:-1 3:2 4:1 5:21 6:0.4286 7:2 8:2 9:2 10:0.2381 11:0.2381 12:0.3333 13:18 14:4 15:0.4062 16:0.2188 17:0.2344 18:0.1719 19:0.375 20:0.125 21:0.78 22:0.5 23:0 24:8 
1 1:1 2:3 3:-1 4:0 5:21 6:0.381 7:1 8:2 9:3 10:0.2857 11:0.2381 12:0.3333 13:17 14:3 15:0.3483 16:0.3371 17:0.1461 18:0.2022 19:0.3146 20:0.2326 21:1.17 22:0 23:0.3043 24:5 
1 1:4 2:9 3:-1 4:0 5:22 6:0.4545 7:1 8:1 9:2 10:0.3182 11:0.2273 12:0.2273 13:20 14:4 15:0.3837 16:0.2674 17:0.1744 18:0.2093 19:0.3488 20:0.2927 21:1 22:0 23:0.5385 24:5 
1 1:4 2:9 3:-1 4:0 5:22 6:0.381 7:1 8:1 9:2 10:0.2857 11:0.2381 12:0.3333 13:20 14:2 15:0.375 16:0.2727 17:0.1705 18:0.2045 19:0.3523 20:0.2857 21:1 22:0 23:0.5122 24:4 
1 1:2 2:3 3:-1 4:0 5:22 6:0.619 7:1 8:2 9:3 10:0.2381 11:0.3333 12:0.1429 13:18 14:4 15:0.396 16:0.2871 17:0.1683 18:0.2277 19:0.3168 20:0.2 21:0.73 22:0 23:0.2308 24:8 
1 1:4 2:4 3:1 4:2 5:21 6:0.5714 7:1 8:2 9:2 10:0.2381 11:0.3333 12:0.1905 13:18 14:2 15:0.4474 16:0.2368 17:0.2105 18:0.2368 19:0.3158 20:0.2 21:0.67 22:0.1667 23:0.2857 24:16 
1 1:4 2:6 3:2 4:2 5:21 6:0.5714 7:1 8:2 9:2 10:0.2381 11:0.3333 12:0.1905 13:18 14:2 15:0.4458 16:0.2169 17:0.2048 18:0.241 19:0.3373 20:0.1892 21:0.67 22:0.25 23:0.2941 24:15 
1 1:4 2:2 3:3 4:2 5:27 6:0.5714 7:2 8:6 9:2 10:0.1429 11:0.2857 12:0.2857 13:19 14:3 15:0.443 16:0.2278 17:0.2025 18:0.2405 19:0.3291 20:0.1714 21:1 22:0.2857 23:0.1667 24:17 
1 1:4 2:6 3:-1 4:0 5:22 6:0.5238 7:0 8:1 9:3 10:0.2381 11:0.2857 12:0.2381 13:19 14:3 15:0.4554 16:0.2376 17:0.2178 18:0.2376 19:0.3069 20:0.2577 21:0.91 22:0 23:0.3929 24:5 
1 1:4 2:2 3:4 4:1 5:21 6:0.5238 7:1 8:2 9:3 10:0.2381 11:0.2381 12:0.2381 13:17 14:3 15:0.4535 16:0.2558 17:0.2093 18:0.2442 19:0.2907 20:0.1795 21:1 22:0.375 23:0.1667 24:17 
1 1:1 2:5 3:-1 4:0 5:21 6:0.4286 7:1 8:1 9:2 10:0.2857 11:0.2857 12:0.2857 13:19 14:3 15:0.3204 16:0.3301 17:0.1359 18:0.1845 19:0.3495 20:0.2371 21:1 22:0 23:0.3571 24:3 
1 1:1 2:9 3:2 4:1 5:21 6:0.4286 7:1 8:1 9:3 10:0.2857 11:0.2857 12:0.2857 13:18 14:1 15:0.3441 16:0.2258 17:0.1505 18:0.1935 19:0.4301 20:0.2644 21:0.7 22:0.3333 23:0.3778 24:10 
1 1:1 2:9 3:2 4:3 5:21 6:0.619 7:1 8:1 9:1 10:0.2857 11:0.381 12:0.0952 13:20 14:4 15:0.4366 16:0.2254 17:0.2113 18:0.2254 19:0.338 20:0.1692 21:0.75 22:0.3846 23:0.3913 24:16 
1 1:4 2:7 3:2 4:3 5:21 6:0.5714 7:0 8:1 9:4 10:0.2857 11:0.3333 12:0.1429 13:17 14:3 15:0.4714 16:0.2571 17:0.2429 18:0.2286 19:0.2714 20:0.2537 21:1 22:0.2 23:0.4074 24:23 
1 1:4 2:3 3:1 4:3 5:20 6:0.55 7:0 8:3 9:2 10:0.1 11:0.15 12:0.35 13:15 14:1 15:0.4 16:0.2556 17:0.1778 18:0.2222 19:0.3444 20:0.2093 21:0.91 22:0.1429 23:0.1739 24:13 
0.1522885943818141 1:2 2:6 3:2 4:1 5:21 6:0.5238 7:2 8:2 9:2 10:0.1905 11:0.381 12:0.2857 13:18 14:1 15:0.411 16:0.2466 17:0.1781 18:0.2329 19:0.3425 20:0.2464 21:0.7 22:0.4 23:0.4074 24:8 
1 1:2 2:3 3:1 4:1 5:21 6:0.5714 7:3 8:2 9:2 10:0.1429 11:0.4286 12:0.2857 13:18 14:1 15:0.4125 16:0.2625 17:0.2 18:0.2125 19:0.325 20:0.1733 21:0.7 22:0.25 23:0.2571 24:8 
0.9572195460863233 1:2 2:3 3:3 4:1 5:21 6:0.5714 7:3 8:2 9:2 10:0.1429 11:0.4286 12:0.2857 13:18 14:4 15:0.4125 16:0.25 17:0.1875 18:0.225 19:0.3375 20:0.1733 21:0.7 22:0.4545 23:0.2571 24:9 
0.6459019510409151 1:2 2:4 3:2 4:1 5:21 6:0.5238 7:1 8:2 9:2 10:0.1905 11:0.381 12:0.2857 13:18 14:1 15:0.3875 16:0.275 17:0.175 18:0.2125 19:0.3375 20:0.1714 21:0.7 22:0.5 23:0.2143 24:8 
1 1:2 2:1 3:2 4:1 5:21 6:0.5238 7:2 8:2 9:2 10:0.1905 11:0.381 12:0.2857 13:18 14:4 15:0.36 16:0.2667 17:0.1467 18:0.2133 19:0.3733 20:0.1268 21:0.7 22:0.3333 23:0.1034 24:12 
1 1:2 2:4 3:1 4:1 5:21 6:0.5714 7:2 8:2 9:2 10:0.1429 11:0.4286 12:0.2857 13:18 14:4 15:0.4022 16:0.25 17:0.2065 18:0.1957 19:0.3478 20:0.2273 21:0.7 22:0.25 23:0.3043 24:6 
1 1:4 2:3 3:1 4:1 5:21 6:0.4762 7:4 8:1 9:2 10:0.1905 11:0.3333 12:0.3333 13:19 14:1 15:0.3333 16:0.2529 17:0.1264 18:0.2069 19:0.4138 20:0.1325 21:0.86 22:0.0588 23:0.1707 24:12 
0.5949965660189083 1:4 2:4 3:1 4:1 5:21 6:0.4286 7:3 8:1 9:2 10:0.1905 11:0.2857 12:0.381 13:19 14:1 15:0.2584 16:0.3034 17:0.1124 18:0.1461 19:0.4382 20:0.1566 21:0.67 22:0.0588 23:0.2195 24:12 
1 1:4 2:4 3:-1 4:0 5:21 6:0.5238 7:1 8:1 9:3 10:0.0952 11:0.1905 12:0.381 13:18 14:1 15:0.4 16:0.2471 17:0.2118 18:0.1882 19:0.3529 20:0.2113 21:1 22:0 23:0.3103 24:11 
0.7200827487936033 1:4 2:4 3:2 4:1 5:21 6:0.5714 7:0 8:2 9:2 10:0.0952 11:0.2381 12:0.3333 13:18 14:1 15:0.4688 16:0.2396 17:0.2396 18:0.2292 19:0.2917 20:0.2043 21:0.91 22:0.4 23:0.283 24:7 
1 1:4 2:8 3:-1 4:0 5:21 6:0.5714 7:0 8:2 9:3 10:0.0952 11:0.2381 12:0.3333 13:17 14:1 15:0.4842 16:0.2526 17:0.2632 18:0.2211 19:0.2632 20:0.2609 21:0.73 22:-1 23:0.3585 24:3 
1 1:4 2:5 3:-1 4:0 5:22 6:0.5238 7:2 8:2 9:2 10:0.2381 11:0.2857 12:0.2381 13:19 14:1 15:0.3883 16:0.2524 17:0.1845 18:0.2039 19:0.3592 20:0.2165 21:1 22:0 23:0.2963 24:8 
1 1:4 2:3 3:-1 4:0 5:21 6:0.5714 7:2 8:2 9:2 10:0.2381 11:0.3333 12:0.1905 13:18 14:1 15:0.4468 16:0.1702 17:0.1915 18:0.2553 19:0.383 20:0.2051 21:1.1 22:0 23:0.2778 24:3 
1 1:4 2:3 3:1 4:1 5:22 6:0.5714 7:1 8:2 9:3 10:0.2381 11:0.2857 12:0.1905 13:18 14:4 15:0.4875 16:0.2625 17:0.2375 18:0.25 19:0.25 20:0.2113 21:1.83 22:0.1429 23:0.3333 24:9 
1 1:4 2:5 3:1 4:2 5:22 6:0.5238 7:2 8:2 9:3 10:0.2381 11:0.2857 12:0.2381 13:17 14:4 15:0.4382 16:0.2135 17:0.2247 18:0.2135 19:0.3483 20:0.2857 21:2.2 22:0.1579 23:0.3953 24:12 
1 1:4 2:3 3:-1 4:0 5:22 6:0.5714 7:1 8:1 9:4 10:0.2381 11:0.3333 12:0.1905 13:18 14:1 15:0.449 16:0.2551 17:0.2143 18:0.2347 19:0.2959 20:0.2421 21:1.22 22:0 23:0.3333 24:10 
1 1:2 2:1 3:7 4:5 5:21 6:0.5714 7:1 8:4 9:2 10:0.2857 11:0.2857 12:0.1429 13:16 14:3 15:0.5714 16:0.2449 17:0.3061 18:0.2653 19:0.1837 20:0.1905 21:0.8 22:0.4286 23:0.5 24:35 
1 1:1 2:-1 3:11 4:1 5:24 6:0.4167 7:0 8:1 9:1 10:0.2917 11:0.2083 12:0.2917 13:23 14:3 15:0.3818 16:0.2727 17:0.1818 18:0.2 19:0.3455 20:0.0196 21:1 22:0.3143 23:0 24:27 
1 1:1 2:-1 3:3 4:1 5:24 6:0.4167 7:0 8:1 9:1 10:0.2917 11:0.2083 12:0.2917 13:23 14:3 15:0.3818 16:0.2727 17:0.1818 18:0.2 19:0.3455 20:0.0196 21:1 22:0.1579 23:0 24:21 
1 1:4 2:2 3:-1 4:0 5:21 6:0.1905 7:2 8:4 9:1 10:0.2857 11:0.0952 12:0.5238 13:17 14:1 15:0.2605 16:0.395 17:0.1429 18:0.1176 19:0.3445 20:0.1754 21:0 22:-1 23:0.1892 24:1 
1 1:1 2:3 3:-1 4:0 5:21 6:0.619 7:0 8:3 9:3 10:0.0952 11:0.1905 12:0.2857 13:15 14:1 15:0.4598 16:0.2644 17:0.2644 18:0.1954 19:0.2759 20:0.2632 21:2 22:-1 23:0.3158 24:14 
1 1:2 2:4 3:-1 4:0 5:21 6:0.55 7:1 8:1 9:2 10:0.4 11:0.35 12:0.05 13:19 14:3 15:0.4819 16:0.2048 17:0.2651 18:0.2169 19:0.3133 20:0.1899 21:0.73 22:0 23:0.3158 24:11 
1 1:2 2:2 3:1 4:1 5:22 6:0.45 7:0 8:2 9:3 10:0.45 11:0.15 12:0.1 13:16 14:3 15:0.3538 16:0.2923 17:0.1846 18:0.1692 19:0.3538 20:0.2131 21:1.2 22:0.25 23:0.2 24:8 
1 1:4 2:4 3:1 4:2 5:21 6:0.6667 7:0 8:2 9:3 10:0.2381 11:0.4762 12:0.0952 13:17 14:4 15:0.4512 16:0.2805 17:0.2195 18:0.2317 19:0.2683 20:0.2162 21:0.91 22:0.25 23:0.25 24:11 
1 1:3 2:3 3:1 4:1 5:21 6:0.4286 7:1 8:1 9:2 10:0.2381 11:0.2857 12:0.3333 13:19 14:3 15:0.4667 16:0.2381 17:0.2286 18:0.2381 19:0.2952 20:0.26 21:0.7 22:0.25 23:0.4 24:6 
1 1:1 2:10 3:-1 4:0 5:21 6:0.381 7:1 8:5 9:2 10:0.1429 11:0.1429 12:0.4762 13:15 14:4 15:0.4071 16:0.3097 17:0.1947 18:0.2124 19:0.2832 20:0.4019 21:1.12 22:-1 23:0.4925 24:2 
1 1:4 2:-1 3:3 4:3 5:25 6:0.381 7:0 8:4 9:5 10:0.2381 11:0.0476 12:0.381 13:17 14:1 15:0.375 16:0.3438 17:0.2031 18:0.1719 19:0.2812 20:0.2174 21:1 22:0.2308 23:0 24:25 
1 1:3 2:2 3:-1 4:0 5:29 6:0.4762 7:3 8:4 9:3 10:0.1905 11:0.2381 12:0.3333 13:21 14:3 15:0.493 16:0.2535 17:0.2394 18:0.2535 19:0.2535 20:0.2059 21:0 22:-1 23:0.2941 24:1 
1 1:3 2:3 3:3 4:2 5:25 6:0.381 7:1 8:3 9:3 10:0.2857 11:0.3333 12:0.3333 13:17 14:3 15:0.3375 16:0.2875 17:0.1625 18:0.175 19:0.375 20:0.2432 21:1.29 22:0.4545 23:0.2414 24:14 
1 1:4 2:4 3:-1 4:0 5:23 6:0.4545 7:1 8:2 9:4 10:0.1364 11:0.3182 12:0.4091 13:18 14:4 15:0.3837 16:0.2209 17:0.1512 18:0.2326 19:0.3953 20:0.2683 21:1.29 22:0 23:0.3684 24:14 
1 1:4 2:3 3:1 4:1 5:21 6:0.4762 7:1 8:2 9:2 10:0.1905 11:0.1905 12:0.3333 13:18 14:1 15:0.3171 16:0.2805 17:0.1341 18:0.1829 19:0.4024 20:0.1538 21:0.9 22:0.1667 23:0.1667 24:9 
1 1:4 2:1 3:1 4:3 5:21 6:0.2857 7:0 8:2 9:3 10:0.1905 11:0.1429 12:0.5238 13:16 14:3 15:0.3176 16:0.3294 17:0.1647 18:0.1529 19:0.3529 20:0.1899 21:0.57 22:0.1724 23:0.1579 24:17 
1 1:4 2:1 3:6 4:1 5:22 6:0.3333 7:2 8:2 9:3 10:0.2381 11:0.2381 12:0.4286 13:17 14:1 15:0.3294 16:0.2588 17:0.1412 18:0.1882 19:0.4118 20:0.122 21:0.9 22:0.375 23:0.0732 24:17 
1 1:4 2:3 3:-1 4:0 5:23 6:0.2857 7:0 8:2 9:1 10:0.2381 11:0.1905 12:0.4762 13:21 14:4 15:0.3012 16:0.3373 17:0.1446 18:0.1566 19:0.3614 20:0.1538 21:2.25 22:-1 23:0.2941 24:1 
1 1:1 2:14 3:-1 4:0 5:21 6:0.381 7:0 8:1 9:3 10:0.2857 11:0.1429 12:0.3333 13:18 14:1 15:0.3371 16:0.4157 17:0.1685 18:0.1685 19:0.2472 20:0.3176 21:0.78 22:-1 23:0.4884 24:1 
0.25713441136233 1:4 2:3 3:1 4:1 5:21 6:0.381 7:2 8:1 9:1 10:0.2857 11:0.3333 12:0.3333 13:20 14:1 15:0.3146 16:0.3483 17:0.1236 18:0.191 19:0.3371 20:0.1429 21:0.89 22:0.25 23:0.2727 24:9 
1 1:4 2:2 3:1 4:1 5:22 6:0.4286 7:0 8:2 9:4 10:0.3333 11:0.2381 12:0.2381 13:17 14:4 15:0.369 16:0.381 17:0.1786 18:0.1905 19:0.25 20:0.2055 21:0.9 22:0.1111 23:0.25 24:18 
0.531913922012766 1:4 2:8 3:3 4:2 5:21 6:0.4762 7:2 8:1 9:1 10:0.1429 11:0.3333 12:0.381 13:20 14:4 15:0.35 16:0.3125 17:0.1625 18:0.1875 19:0.3375 20:0.1622 21:0.73 22:0.3043 23:0.3125 24:14 
1 1:4 2:2 3:2 4:3 5:21 6:0.3333 7:1 8:3 9:3 10:0.4286 11:0.0952 12:0.2381 13:16 14:3 15:0.3467 16:0.2533 17:0.16 18:0.1867 19:0.4 20:0.2121 21:1 22:0.2903 23:0.2308 24:23 
1 1:4 2:7 3:2 4:1 5:22 6:0.3182 7:2 8:2 9:2 10:0.2727 11:0.1364 12:0.4091 13:19 14:1 15:0.3978 16:0.2366 17:0.172 18:0.2258 19:0.3656 20:0.2809 21:1.4 22:0.3333 23:0.4222 24:8 
1 1:1 2:1 3:2 4:1 5:24 6:0.375 7:0 8:2 9:4 10:0.375 11:0.2083 12:0.25 13:18 14:3 15:0.3443 16:0.3443 17:0.1803 18:0.1639 19:0.3115 20:0.2308 21:2 22:0.0741 23:0.3333 24:30 
1 1:2 2:2 3:1 4:1 5:21 6:0.3333 7:2 8:1 9:1 10:0.4286 11:0.1905 12:0.2381 13:20 14:4 15:0.3398 16:0.3301 17:0.1553 18:0.1845 19:0.3301 20:0.1489 21:1.29 22:0.1667 23:0.2593 24:9 
1 1:4 2:12 3:3 4:4 5:22 6:0.3182 7:0 8:1 9:2 10:0.2273 11:0.1364 12:0.4545 13:20 14:4 15:0.3294 16:0.3412 17:0.2 18:0.1294 19:0.3294 20:0.358 21:0.9 22:0.3571 23:0.6842 24:18 
1 1:4 2:12 3:1 4:3 5:22 6:0.2857 7:0 8:3 9:3 10:0.381 11:0.2381 12:0.3333 13:17 14:4 15:0.3548 16:0.3226 17:0.2151 18:0.1398 19:0.3226 20:0.3933 21:3 22:0.2 23:0.5652 24:14 
1 1:4 2:2 3:1 4:1 5:23 6:0.4091 7:1 8:1 9:2 10:0.0909 11:0.2727 12:0.5 13:21 14:1 15:0.3704 16:0.3086 17:0.1852 18:0.1852 19:0.321 20:0.0909 21:1 22:0.0667 23:0.1515 24:19 
1 1:4 2:2 3:1 4:1 5:23 6:0.4091 7:1 8:1 9:2 10:0.4545 11:0.1818 12:0.1364 13:21 14:3 15:0.3647 16:0.3059 17:0.1765 18:0.1882 19:0.3294 20:0.0864 21:1 22:0.0769 23:0.1351 24:17 
1 1:1 2:4 3:1 4:1 5:21 6:0.3333 7:0 8:1 9:1 10:0.1429 11:0.1429 12:0.5238 13:20 14:4 15:0.2597 16:0.3377 17:0.1558 18:0.1039 19:0.4026 20:0.1268 21:1 22:0.04 23:0.2414 24:15 
1 1:4 2:4 3:-1 4:0 5:21 6:0.3333 7:0 8:1 9:2 10:0.1429 11:0.0476 12:0.5238 13:19 14:4 15:0.3905 16:0.2762 17:0.1714 18:0.219 19:0.3333 20:0.1717 21:0.6 22:0 23:0.2281 24:6 
1 1:4 2:5 3:1 4:1 5:21 6:0.3333 7:2 8:1 9:1 10:0.2857 11:0.2381 12:0.381 13:20 14:3 15:0.4286 16:0.2208 17:0.1688 18:0.2597 19:0.3506 20:0.2059 21:0.9 22:0.0588 23:0.5 24:21 
1 1:4 2:5 3:-1 4:0 5:21 6:0.2857 7:2 8:1 9:2 10:0.2857 11:0.0952 12:0.4286 13:19 14:3 15:0.4217 16:0.2289 17:0.1566 18:0.2651 19:0.3494 20:0.2162 21:1.33 22:0 23:0.4118 24:18 
1 1:2 2:2 3:4 4:3 5:21 6:0.4762 7:3 8:1 9:2 10:0.2381 11:0.2381 12:0.2857 13:19 14:1 15:0.4918 16:0.2295 17:0.2295 18:0.2623 19:0.2787 20:0.1429 21:0.9 22:0.3636 23:0.375 24:30 
0.7575927680939512 1:4 2:3 3:1 4:1 5:22 6:0.5 7:1 8:1 9:2 10:0.2727 11:0.2727 12:0.2273 13:20 14:4 15:0.413 16:0.3152 17:0.2065 18:0.2065 19:0.2717 20:0.1325 21:1 22:0.0588 23:0.2381 24:12 
1 1:4 2:2 3:-1 4:0 5:21 6:0.2857 7:0 8:1 9:1 10:0.381 11:0.1905 12:0.3333 13:20 14:2 15:0.2874 16:0.3678 17:0.1264 18:0.1609 19:0.3448 20:0.1176 21:1 22:0 23:0.2857 24:16 
1 1:4 2:2 3:1 4:1 5:21 6:0.5714 7:1 8:2 9:4 10:0.1905 11:0.2381 12:0.2381 13:16 14:1 15:0.4419 16:0.314 17:0.186 18:0.2558 19:0.2442 20:0.2308 21:0.88 22:0.0909 23:0.2222 24:18 
1 1:4 2:2 3:1 4:1 5:21 6:0.5238 7:1 8:2 9:3 10:0.381 11:0.3333 12:0.0952 13:17 14:4 15:0.4681 16:0.2979 17:0.2021 18:0.266 19:0.234 20:0.2093 21:0.91 22:0.1429 23:0.2273 24:14 
1 1:4 2:12 3:-1 4:0 5:21 6:0.381 7:0 8:2 9:3 10:0.2381 11:0.1905 12:0.381 13:16 14:3 15:0.3043 16:0.3043 17:0.1304 18:0.1739 19:0.3913 20:0.2644 21:0.78 22:0 23:0.3191 24:3 
1 1:4 2:4 3:-1 4:0 5:21 6:0.2857 7:1 8:-1 9:0 10:0.3333 11:0.1905 12:0.381 13:21 14:4 15:0.3372 16:0.3372 17:0.1395 18:0.1977 19:0.3256 20:0.125 21:1.12 22:0 23:0.2632 24:5 
1 1:2 2:2 3:1 4:2 5:21 6:0.4286 7:2 8:1 9:3 10:0.3333 11:0.2381 12:0.2381 13:18 14:4 15:0.4091 16:0.2614 17:0.1477 18:0.2614 19:0.3295 20:0.2 21:1.43 22:0.2222 23:0.2889 24:12 
0.1635732196553343 1:3 2:2 3:1 4:2 5:21 6:0.4286 7:2 8:1 9:2 10:0.2857 11:0.2857 12:0.2857 13:19 14:1 15:0.413 16:0.2609 17:0.1522 18:0.2609 19:0.3261 20:0.191 21:0.91 22:0.2857 23:0.3061 24:10 
1 1:1 2:4 3:1 4:1 5:21 6:0.35 7:2 8:1 9:1 10:0.4 11:0.15 12:0.25 13:20 14:2 15:0.3505 16:0.3299 17:0.1856 18:0.1649 19:0.3196 20:0.1011 21:1.12 22:0.1111 23:0.1667 24:11 
1 1:4 2:5 3:2 4:1 5:22 6:0.4091 7:1 8:3 9:2 10:0.2727 11:0.1818 12:0.3182 13:18 14:1 15:0.403 16:0.3284 17:0.209 18:0.194 19:0.2687 20:0.2459 21:0.8 22:0.2 23:0.4444 24:13 
1 1:4 2:3 3:2 4:2 5:21 6:0.2857 7:0 8:1 9:3 10:0.3333 11:0.2381 12:0.381 13:18 14:4 15:0.2817 16:0.3662 17:0.1268 18:0.1549 19:0.3521 20:0.1515 21:0.9 22:0.1579 23:0.2308 24:22 
1 1:4 2:2 3:6 4:1 5:21 6:0.381 7:2 8:1 9:3 10:0.2857 11:0.1905 12:0.3333 13:18 14:4 15:0.3614 16:0.3133 17:0.1325 18:0.2289 19:0.3253 20:0.1622 21:0.75 22:0.3548 23:0.2353 24:19 
1 1:4 2:8 3:2 4:3 5:21 6:0.381 7:1 8:1 9:3 10:0.2381 11:0.1905 12:0.381 13:18 14:4 15:0.321 16:0.3333 17:0.1605 18:0.1605 19:0.3457 20:0.2 21:1 22:0.2593 23:0.2727 24:16 
1 1:1 2:8 3:2 4:3 5:21 6:0.4762 7:1 8:1 9:3 10:0.2381 11:0.1905 12:0.2857 13:18 14:3 15:0.3529 16:0.3176 17:0.1765 18:0.1765 19:0.3294 20:0.1899 21:0.8 22:0.3043 23:0.2432 24:14 
1 1:3 2:-1 3:4 4:4 5:22 6:0.5 7:1 8:2 9:4 10:0.3636 11:0.3182 12:0.1364 13:17 14:1 15:0.5 16:0.2609 17:0.1522 18:0.3478 19:0.2391 20:0.1905 21:0.89 22:0.3448 23:-1 24:33 
1 1:3 2:-1 3:4 4:4 5:22 6:0.5 7:2 8:2 9:4 10:0.3636 11:0.3182 12:0.1364 13:17 14:1 15:0.4783 16:0.2609 17:0.1304 18:0.3478 19:0.2609 20:0.1905 21:0.89 22:0.3448 23:-1 24:33 
1 1:4 2:14 3:-1 4:0 5:21 6:0.4762 7:2 8:2 9:1 10:0.1905 11:0.1905 12:0.3333 13:19 14:1 15:0.3204 16:0.2718 17:0.165 18:0.1553 19:0.4078 20:0.2525 21:0.4 22:-1 23:0.3684 24:1 
1 1:2 2:14 3:-1 4:0 5:21 6:0.381 7:2 8:1 9:1 10:0.3333 11:0.2381 12:0.2857 13:20 14:2 15:0.3232 16:0.2626 17:0.1616 18:0.1616 19:0.4141 20:0.2211 21:0.78 22:-1 23:0.3585 24:3 
1 1:4 2:1 3:3 4:3 5:21 6:0.4286 7:1 8:2 9:3 10:0.4286 11:0.0952 12:0.1429 13:17 14:3 15:0.3699 16:0.3151 17:0.1781 18:0.1918 19:0.3151 20:0.1143 21:0.57 22:0.2727 23:0.125 24:23 
1 1:3 2:5 3:-1 4:0 5:21 6:0.4 7:2 8:3 9:3 10:0.45 11:0.2 12:0.15 13:16 14:2 15:0.4026 16:0.2987 17:0.2208 18:0.1818 19:0.2987 20:0.3699 21:1.11 22:0 23:0.5625 24:10 
1 1:4 2:5 3:-1 4:0 5:21 6:0.381 7:2 8:3 9:3 10:0.0952 11:0.1429 12:0.5238 13:16 14:3 15:0.4074 16:0.2963 17:0.2222 18:0.1852 19:0.2963 20:0.3506 21:0.9 22:0 23:0.5 24:8 
1 1:4 2:3 3:1 4:1 5:21 6:0.4286 7:0 8:1 9:3 10:0.2857 11:0.0952 12:0.2857 13:18 14:4 15:0.3544 16:0.2911 17:0.1646 18:0.1899 19:0.3544 20:0.1892 21:0.7 22:0.1429 23:0.3143 24:19 
1 1:4 2:2 3:1 4:2 5:21 6:0.4762 7:1 8:2 9:2 10:0.0952 11:0.0952 12:0.4286 13:18 14:1 15:0.3766 16:0.2727 17:0.1558 18:0.2208 19:0.3506 20:0.1111 21:0.4 22:0.1053 23:0.125 24:21 
1 1:4 2:2 3:1 4:1 5:21 6:0.5238 7:2 8:2 9:3 10:0.2381 11:0.4286 12:0.2381 13:17 14:4 15:0.4 16:0.2588 17:0.1529 18:0.2471 19:0.3412 20:0.125 21:1.43 22:0.0667 23:0.1 24:17 
1 1:4 2:3 3:2 4:3 5:21 6:0.381 7:2 8:2 9:2 10:0.0952 11:0.1429 12:0.5238 13:18 14:4 15:0.4 16:0.2375 17:0.1875 18:0.2125 19:0.3625 20:0.2778 21:0.82 22:0.2222 23:0.4667 24:21 
1 1:1 2:6 3:-1 4:0 5:21 6:0.381 7:0 8:3 9:2 10:0.381 11:0.2381 12:0.2381 13:17 14:4 15:0.3402 16:0.3608 17:0.1959 18:0.1443 19:0.299 20:0.3407 21:0.6 22:0 23:0.4694 24:5 
1 1:1 2:6 3:-1 4:0 5:21 6:0.381 7:0 8:1 9:2 10:0.381 11:0.2381 12:0.2381 13:19 14:4 15:0.3402 16:0.3505 17:0.1959 18:0.1443 19:0.3093 20:0.2967 21:0.6 22:0 23:0.4694 24:11 
1 1:4 2:3 3:3 4:1 5:21 6:0.381 7:0 8:1 9:3 10:0.0952 11:0.1429 12:0.5238 13:18 14:1 15:0.3855 16:0.3253 17:0.241 18:0.1446 19:0.2892 20:0.2152 21:0.6 22:0.375 23:0.2973 24:18 
1 1:4 2:1 3:3 4:1 5:21 6:0.381 7:2 8:1 9:1 10:0.1429 11:0.2381 12:0.4762 13:20 14:1 15:0.2951 16:0.2951 17:0.1639 18:0.1311 19:0.4098 20:0.0769 21:0.89 22:0.0909 23:0.3333 24:30 
1 1:4 2:1 3:1 4:1 5:21 6:0.381 7:1 8:1 9:1 10:0.0952 11:0.2857 12:0.5238 13:20 14:4 15:0.3167 16:0.3667 17:0.15 18:0.1667 19:0.3167 20:0.0714 21:0.9 22:0.125 23:0.1429 24:10 
1 1:4 2:1 3:4 4:4 5:21 6:0.1905 7:2 8:1 9:2 10:0.5238 11:0.0476 12:0.2857 13:19 14:1 15:0.2462 16:0.4 17:0.1077 18:0.1385 19:0.3538 20:0.0714 21:0.89 22:0.2609 23:0.125 24:28 
1 1:4 2:2 3:3 4:2 5:22 6:0.4762 7:1 8:2 9:3 10:0.3333 11:0.381 12:0.1905 13:18 14:1 15:0.4133 16:0.2933 17:0.2133 18:0.2 19:0.2933 20:0.1429 21:0.8 22:0.25 23:0.1 24:22 
1 1:3 2:5 3:1 4:1 5:21 6:0.4762 7:3 8:1 9:1 10:0.2381 11:0.381 12:0.2857 13:20 14:1 15:0.3625 16:0.25 17:0.1375 18:0.225 19:0.3875 20:0.1579 21:1 22:0.0833 23:0.2941 24:18 
1 1:1 2:7 3:1 4:2 5:21 6:0.5238 7:4 8:2 9:1 10:0.2381 11:0.4762 12:0.2381 13:19 14:4 15:0.36 16:0.24 17:0.1333 18:0.2267 19:0.4 20:0.2394 21:0.82 22:0.1429 23:0.4483 24:23 
1 1:1 2:4 3:-1 4:0 5:21 6:0.4286 7:3 8:2 9:2 10:0.4286 11:0.381 12:0.1429 13:18 14:4 15:0.3824 16:0.2843 17:0.2059 18:0.1765 19:0.3333 20:0.2165 21:0.56 22:-1 23:0.2982 24:2 
1 1:1 2:14 3:-1 4:0 5:21 6:0.2857 7:0 8:-1 9:0 10:0.381 11:0.1905 12:0.3333 13:21 14:1 15:0.2826 16:0.4022 17:0.1196 18:0.163 19:0.3152 20:0.1818 21:1 22:0 23:0.3478 24:7 
1 1:1 2:1 3:2 4:1 5:21 6:0.4286 7:1 8:3 9:3 10:0.3333 11:0.1905 12:0.2381 13:16 14:2 15:0.3976 16:0.3133 17:0.2048 18:0.1928 19:0.2892 20:0.1351 21:1.25 22:0.2857 23:0.0588 24:9 
1 1:1 2:5 3:-1 4:0 5:21 6:0.4762 7:1 8:2 9:3 10:0.2381 11:0.2381 12:0.2857 13:17 14:3 15:0.3363 16:0.3717 17:0.1593 18:0.177 19:0.292 20:0.1262 21:0.75 22:-1 23:0.1111 24:1 
1 1:1 2:2 3:-1 4:0 5:21 6:0.3333 7:0 8:5 9:2 10:0.2381 11:0.2857 12:0.4286 13:15 14:2 15:0.4245 16:0.2925 17:0.2453 18:0.1792 19:0.283 20:0.2745 21:0.67 22:-1 23:0.2667 24:1 
1 1:3 2:7 3:-1 4:0 5:21 6:0.2857 7:1 8:2 9:1 10:0.4762 11:0.2381 12:0.2381 13:19 14:1 15:0.25 16:0.3095 17:0.131 18:0.119 19:0.4405 20:0.1392 21:1 22:-1 23:0.2308 24:2 
1 1:3 2:2 3:-1 4:0 5:25 6:0.5238 7:1 8:3 9:5 10:0.2381 11:0.381 12:0.2381 13:18 14:4 15:0.5156 16:0.2188 17:0.2188 18:0.2969 19:0.2656 20:0.2281 21:1.25 22:0 23:0.3846 24:5 
1 1:4 2:3 3:3 4:1 5:21 6:0.5238 7:1 8:2 9:2 10:0.3333 11:0.4286 12:0.1429 13:17 14:1 15:0.4353 16:0.2941 17:0.2353 18:0.2 19:0.2706 20:0.2055 21:1.38 22:0.2727 23:0.2258 24:13 
1 1:3 2:2 3:-1 4:0 5:25 6:0.5238 7:1 8:3 9:5 10:0.2381 11:0.381 12:0.2381 13:18 14:4 15:0.5156 16:0.2188 17:0.2188 18:0.2969 19:0.2656 20:0.2281 21:1.25 22:0 23:0.3846 24:5 
1 1:1 2:2 3:-1 4:0 5:23 6:0.4286 7:5 8:5 9:2 10:0.1905 11:0.2857 12:0.381 13:16 14:4 15:0.3671 16:0.2405 17:0.1646 18:0.2025 19:0.3924 20:0.2603 21:1.11 22:0 23:0.2414 24:3 
1 1:3 2:8 3:-1 4:0 5:22 6:0.65 7:2 8:2 9:5 10:0.15 11:0.5 12:0.2 13:15 14:3 15:0.5286 16:0.2571 17:0.2286 18:0.3 19:0.2143 20:0.3636 21:1.2 22:-1 23:0.5 24:1 
1 1:4 2:1 3:-1 4:0 5:21 6:0.2857 7:1 8:-1 9:0 10:0.2381 11:0.1905 12:0.4762 13:21 14:3 15:0.2532 16:0.3418 17:0.1392 18:0.1139 19:0.4051 20:0.0141 21:1 22:0 23:0.0345 24:3 
1 1:4 2:3 3:-1 4:0 5:22 6:0.4286 7:0 8:1 9:2 10:0.1429 11:0.2857 12:0.4286 13:20 14:1 15:0.3704 16:0.321 17:0.1852 18:0.1852 19:0.3086 20:0.1169 21:0.9 22:0 23:0.2 24:3 
1 1:4 2:4 3:-1 4:0 5:23 6:0.2857 7:0 8:2 9:1 10:0.2381 11:0.1905 12:0.4762 13:21 14:1 15:0.3012 16:0.3614 17:0.1566 18:0.1446 19:0.3373 20:0.1579 21:2.25 22:-1 23:0.3125 24:3 
0.5831796010839888 1:4 2:5 3:5 4:1 5:21 6:0.381 7:2 8:2 9:1 10:0.2857 11:0.2381 12:0.3333 13:19 14:4 15:0.2564 16:0.3846 17:0.1154 18:0.141 19:0.359 20:0.2222 21:0.56 22:0.3043 23:0.4 24:15 
1 1:4 2:3 3:-1 4:0 5:24 6:0.5 7:2 8:2 9:4 10:0.125 11:0.4583 12:0.375 13:18 14:1 15:0.3837 16:0.2907 17:0.186 18:0.1977 19:0.3256 20:0.2289 21:1.38 22:-1 23:0.3 24:1 
1 1:1 2:1 3:3 4:4 5:21 6:0.381 7:1 8:1 9:2 10:0.2857 11:0.3333 12:0.3333 13:19 14:3 15:0.4 16:0.2923 17:0.2154 18:0.1846 19:0.3077 20:0.0968 21:1.11 22:0.3333 23:0.1818 24:23 
1 1:4 2:3 3:-1 4:0 5:25 6:0.4286 7:2 8:4 9:4 10:0.2381 11:0.381 12:0.3333 13:18 14:4 15:0.45 16:0.325 17:0.2125 18:0.2375 19:0.225 20:0.2703 21:1 22:0 23:0.3793 24:5 
1 1:1 2:9 3:-1 4:0 5:21 6:0.2857 7:0 8:4 9:2 10:0.4286 11:0.2857 12:0.2857 13:16 14:3 15:0.3889 16:0.3222 17:0.1333 18:0.2556 19:0.2889 20:0.2791 21:0 22:-1 23:0.3182 24:3 
1 1:2 2:6 3:-1 4:0 5:21 6:0.4762 7:1 8:1 9:2 10:0.2857 11:0.381 12:0.2381 13:19 14:4 15:0.4396 16:0.2747 17:0.2198 18:0.2198 19:0.2857 20:0.1529 21:1 22:0 23:0.2093 24:9 
1 1:4 2:3 3:1 4:1 5:21 6:0.3333 7:0 8:2 9:2 10:0.3333 11:0.2857 12:0.3333 13:18 14:4 15:0.2674 16:0.314 17:0.1279 18:0.1395 19:0.4186 20:0.2 21:0.67 22:0.0667 23:0.2632 24:10 
1 1:1 2:6 3:-1 4:0 5:21 6:0.4286 7:3 8:2 9:3 10:0.2857 11:0.2857 12:0.2857 13:16 14:4 15:0.3896 16:0.1818 17:0.1948 18:0.1948 19:0.4286 20:0.3134 21:1.8 22:-1 23:0.44 24:3 
1 1:1 2:2 3:-1 4:0 5:23 6:0.4286 7:6 8:5 9:2 10:0.1905 11:0.2857 12:0.381 13:16 14:4 15:0.3924 16:0.2405 17:0.1772 18:0.2152 19:0.3671 20:0.2603 21:1.11 22:0 23:0.2414 24:3 
1 1:1 2:-1 3:-1 4:0 5:21 6:0.381 7:0 8:-1 9:0 10:0.2381 11:0.1429 12:0.381 13:21 14:4 15:0.3462 16:0.3462 17:0.1731 18:0.1731 19:0.3077 20:0 21:0.9 22:0 23:0 24:14 
1 1:1 2:-1 3:3 4:2 5:21 6:0.381 7:0 8:-1 9:0 10:0.2381 11:0.1429 12:0.381 13:21 14:4 15:0.3462 16:0.3077 17:0.1731 18:0.1731 19:0.3462 20:0 21:0.9 22:0.1111 23:0 24:22 
1 1:4 2:12 3:1 4:1 5:21 6:0.3333 7:1 8:-1 9:0 10:0.4762 11:0.1905 12:0.1905 13:21 14:4 15:0.3095 16:0.2976 17:0.1667 18:0.1429 19:0.3929 20:0.2 21:1 22:0.0833 23:0.4211 24:14 
-0.3366448282596277 1:1 2:3 3:-1 4:0 5:27 6:0.4167 7:0 8:3 9:5 10:0.5417 11:0.25 12:0.0417 13:18 14:4 15:0.4587 16:0.2752 17:0.2385 18:0.2202 19:0.2661 20:0.2233 21:0.3 22:-1 23:0.1538 24:3 
-0.1609816575604328 1:4 2:2 3:3 4:2 5:23 6:0.5217 7:1 8:3 9:4 10:0.0435 11:0.1739 12:0.4348 13:17 14:1 15:0.4697 16:0.2273 17:0.2576 18:0.2121 19:0.303 20:0.1667 21:0.5 22:0.1892 23:0.1579 24:25 
-0.3371957731338208 1:1 2:-1 3:5 4:3 5:21 6:0.4762 7:1 8:2 9:3 10:0.1429 11:0.2857 12:0.381 13:16 14:3 15:0.4792 16:0.1875 17:0.2083 18:0.2708 19:0.3333 20:0.2273 21:0.8 22:0.1429 23:0 24:34 
-0.07892789407104565 1:3 2:2 3:5 4:2 5:21 6:0.6667 7:1 8:2 9:3 10:0.0476 11:0.2857 12:0.2857 13:17 14:1 15:0.5079 16:0.1905 17:0.2381 18:0.2698 19:0.3016 20:0.1864 21:0.8 22:0.1707 23:0.2222 24:26 
-0.2757967229207879 1:3 2:-1 3:5 4:2 5:23 6:0.5909 7:1 8:2 9:4 10:0.2727 11:0.3636 12:0.1364 13:17 14:1 15:0.5085 16:0.1864 17:0.2373 18:0.2712 19:0.3051 20:0.2 21:2 22:0.1556 23:0 24:28 
-0.6751302902930337 1:3 2:3 3:-1 4:0 5:22 6:0.5238 7:0 8:3 9:4 10:0.1429 11:0.2381 12:0.3333 13:16 14:3 15:0.47 16:0.25 17:0.24 18:0.23 19:0.28 20:0.2 21:1.33 22:0 23:0.2143 24:3 
-0.5645067894176538 1:1 2:3 3:3 4:3 5:21 6:0.4762 7:1 8:1 9:1 10:0.4762 11:0.3333 12:0.0476 13:20 14:3 15:0.3973 16:0.274 17:0.137 18:0.2603 19:0.3288 20:0.1714 21:1 22:0.1667 23:0.4 24:23 
-0.4518431531337022 1:3 2:3 3:1 4:1 5:22 6:0.5455 7:3 8:3 9:1 10:0.2727 11:0.4091 12:0.1818 13:19 14:1 15:0.4304 16:0.1772 17:0.1646 18:0.2658 19:0.3924 20:0.2162 21:5 22:0.0476 23:0.4286 24:13 
-0.006661363596297262 1:3 2:1 3:1 4:2 5:29 6:0.4783 7:2 8:4 9:2 10:0.1739 11:0.2174 12:0.3478 13:23 14:1 15:0.4533 16:0.2133 17:0.2 18:0.2533 19:0.3333 20:0.129 21:0.5 22:0.1579 23:0.2 24:21 
-1 1:4 2:3 3:2 4:2 5:20 6:0.4 7:2 8:1 9:2 10:0.1 11:0.1 12:0.5 13:18 14:3 15:0.4118 16:0.25 17:0.2059 18:0.2059 19:0.3382 20:0.125 21:0.67 22:0.1724 23:0.2 24:17 
-1 1:4 2:3 3:2 4:2 5:21 6:0.4286 7:2 8:1 9:2 10:0.0476 11:0.0952 12:0.5238 13:19 14:4 15:0.4242 16:0.2424 17:0.2121 18:0.2121 19:0.3333 20:0.129 21:0.9 22:0.1613 23:0.2381 24:18 
-1 1:4 2:3 3:2 4:2 5:24 6:0.3913 7:2 8:1 9:3 10:0.4348 11:0.3043 12:0.1739 13:21 14:3 15:0.4118 16:0.25 17:0.2059 18:0.2059 19:0.3382 20:0.125 21:1.29 22:0.1724 23:0.1765 24:16 
-0.03479918611770261 1:1 2:3 3:2 4:2 5:23 6:0.3913 7:2 8:1 9:2 10:0.1304 11:0.087 12:0.4783 13:21 14:3 15:0.4118 16:0.25 17:0.2059 18:0.2059 19:0.3382 20:0.125 21:1 22:0.1724 23:0.2632 24:17 
-0.1522317692070991 1:4 2:1 3:-1 4:0 5:24 6:0.4583 7:2 8:2 9:4 10:0.1667 11:0.125 12:0.375 13:18 14:4 15:0.422 16:0.2477 17:0.2385 18:0.1835 19:0.3303 20:0.1489 21:0.67 22:-1 23:0.1373 24:4 
-0.1202831886557321 1:1 2:2 3:-1 4:0 5:24 6:0.4167 7:2 8:3 9:3 10:0.3333 11:0.25 12:0.25 13:15 14:2 15:0.41 16:0.27 17:0.22 18:0.19 19:0.32 20:0.2708 21:4.5 22:-1 23:0.1837 24:1 
-0.1541754022425383 1:3 2:1 3:3 4:2 5:21 6:0.2857 7:0 8:1 9:4 10:0.381 11:0.1905 12:0.3333 13:17 14:4 15:0.3962 16:0.3019 17:0.2075 18:0.1887 19:0.3019 20:0.1837 21:2 22:0.2857 23:0.25 24:25 
-0.2159275404328787 1:1 2:2 3:-1 4:0 5:22 6:0.4762 7:2 8:3 9:3 10:0.1429 11:0.1429 12:0.381 13:13 14:1 15:0.41 16:0.27 17:0.22 18:0.19 19:0.32 20:0.2708 21:1 22:-1 23:0.1698 24:1 
-1 1:2 2:4 3:-1 4:0 5:21 6:0.381 7:0 8:1 9:3 10:0.381 11:0.1905 12:0.2381 13:18 14:4 15:0.3846 16:0.2692 17:0.1923 18:0.1923 19:0.3462 20:0.2079 21:0.86 22:0 23:0.2787 24:7 
-0.006027266111374619 1:2 2:4 3:-1 4:0 5:22 6:0.3182 7:0 8:3 9:3 10:0.3182 11:0.0455 12:0.3636 13:17 14:4 15:0.3793 16:0.2759 17:0.1897 18:0.1897 19:0.3448 20:0.2389 21:3.33 22:-1 23:0.2676 24:1 
-0.3265647584451153 1:4 2:4 3:5 4:3 5:22 6:0.3636 7:0 8:1 9:4 10:0.3636 11:0.1818 12:0.2727 13:18 14:3 15:0.3803 16:0.3521 17:0.2113 18:0.169 19:0.2676 20:0.2353 21:0.88 22:0.3158 23:0.3846 24:25 
-0.4402808884535367 1:4 2:4 3:-1 4:0 5:28 6:0.625 7:0 8:5 9:4 10:0.1667 11:0.4583 12:0.2083 13:19 14:4 15:0.4486 16:0.2804 17:0.2243 18:0.2243 19:0.271 20:0.2692 21:0.5 22:0 23:0.2963 24:5 
-0.1310020649155274 1:1 2:3 3:5 4:4 5:20 6:0.3 7:1 8:1 9:4 10:0.5 11:0.2 12:0.2 13:16 14:3 15:0.3051 16:0.4068 17:0.1695 18:0.1356 19:0.2881 20:0.25 21:1.17 22:0.28 23:0.4444 24:31 
-0.4837427166999794 1:4 2:1 3:5 4:5 5:22 6:0.3182 7:1 8:4 9:3 10:0.4545 11:0.2273 12:0.2273 13:16 14:1 15:0.3333 16:0.3922 17:0.1765 18:0.1569 19:0.2745 20:0.25 21:0.7 22:0.2759 23:0.3333 24:35 
-0.5822616227997044 1:4 2:2 3:2 4:2 5:22 6:0.5455 7:1 8:3 9:4 10:0.1364 11:0.3182 12:0.3182 13:15 14:4 15:0.413 16:0.2391 17:0.1848 18:0.2283 19:0.3478 20:0.2273 21:0.2 22:0.3 23:0.1739 24:12 
-0.0584806933162244 1:3 2:3 3:1 4:1 5:22 6:0.5909 7:1 8:3 9:4 10:0.1818 11:0.2727 12:0.2273 13:15 14:1 15:0.4545 16:0.2597 17:0.2208 18:0.2338 19:0.2857 20:0.2877 21:1.33 22:0.125 23:0.2414 24:10 
-1 1:2 2:3 3:-1 4:0 5:20 6:0.45 7:2 8:1 9:2 10:0.2 11:0.2 12:0.35 13:18 14:4 15:0.3908 16:0.2184 17:0.1839 18:0.2069 19:0.3908 20:0.2143 21:0.88 22:0 23:0.3617 24:15 
-0.03398554011868269 1:1 2:-1 3:1 4:2 5:27 6:0.3478 7:2 8:3 9:6 10:0.087 11:0.1739 12:0.5652 13:17 14:4 15:0.3654 16:0.1923 17:0.1538 18:0.2115 19:0.4423 20:0.3061 21:2 22:0.0612 23:-1 24:32 
-0.04887700390000797 1:1 2:2 3:1 4:1 5:23 6:0.4348 7:2 8:3 9:5 10:0.3043 11:0.2609 12:0.2609 13:15 14:4 15:0.3774 16:0.1887 17:0.1698 18:0.2075 19:0.434 20:0.32 21:1.8 22:0.0417 23:0.6 24:32 
-1 1:4 2:3 3:2 4:3 5:22 6:0.4762 7:2 8:2 9:3 10:0.3333 11:0.1905 12:0.1905 13:18 14:1 15:0.3881 16:0.3134 17:0.1642 18:0.2239 19:0.2985 20:0.1746 21:0.6 22:0.2143 23:0.2 24:18 
-0.003382574683653063 1:1 2:-1 3:2 4:3 5:23 6:0.5238 7:1 8:8 9:4 10:0.2857 11:0.2381 12:0.1905 13:11 14:3 15:0.5102 16:0.1633 17:0.2041 18:0.3061 19:0.3265 20:0.3023 21:0 22:0.1481 23:0 24:29 
-0.002380850800426866 1:3 2:-1 3:2 4:2 5:30 6:0.5714 7:1 8:8 9:5 10:0.0476 11:0.3333 12:0.381 13:17 14:3 15:0.5556 16:0.1429 17:0.2381 18:0.3175 19:0.3016 20:0.2632 21:1.11 22:0.15 23:0 24:22 
-0.1001590308976919 1:3 2:1 3:2 4:2 5:28 6:0.55 7:1 8:8 9:4 10:0.05 11:0.3 12:0.4 13:16 14:3 15:0.5507 16:0.1449 17:0.2319 18:0.3188 19:0.3043 20:0.2381 21:0.5 22:0.1765 23:0.0588 24:19 
-0.009598144089692767 1:4 2:-1 3:2 4:3 5:24 6:0.2727 7:2 8:3 9:4 10:0.2273 11:0.2727 12:0.5 13:16 14:1 15:0.2766 16:0.3617 17:0.0851 18:0.1915 19:0.3617 20:0.2727 21:0.78 22:0.1818 23:-1 24:26 
-0.09931429931131253 1:2 2:3 3:2 4:1 5:22 6:0.3182 7:2 8:3 9:3 10:0.4091 11:0.1364 12:0.2727 13:17 14:4 15:0.2877 16:0.3699 17:0.1096 18:0.1781 19:0.3425 20:0.2286 21:1.75 22:0.2222 23:0.2857 24:13 
-0.0261999852540219 1:4 2:-1 3:1 4:2 5:22 6:0.381 7:1 8:9 9:3 10:0.1429 11:0.1429 12:0.4762 13:11 14:4 15:0.3673 16:0.2449 17:0.1837 18:0.1837 19:0.3878 20:0.4667 21:0.8 22:0.0732 23:0 24:24 
-0.6765123643165678 1:4 2:7 3:-1 4:0 5:23 6:0.4783 7:1 8:2 9:4 10:0.3478 11:0.3043 12:0.1739 13:18 14:4 15:0.3649 16:0.2703 17:0.1622 18:0.2027 19:0.3649 20:0.3429 21:1.5 22:0 23:0.6 24:11 
-1 1:3 2:4 3:-1 4:0 5:21 6:0.5238 7:2 8:2 9:3 10:0.0476 11:0.2381 12:0.4286 13:16 14:1 15:0.4432 16:0.2273 17:0.2045 18:0.2386 19:0.3295 20:0.2195 21:1 22:0 23:0.2 24:10 
-0.5009661298934168 1:3 2:4 3:-1 4:0 5:23 6:0.4348 7:2 8:2 9:3 10:0.3913 11:0.3478 12:0.1739 13:18 14:3 15:0.4362 16:0.234 17:0.2021 18:0.234 19:0.3298 20:0.2045 21:1.75 22:0 23:0.1905 24:7 
-0.6804531570828205 1:1 2:6 3:-1 4:0 5:20 6:0.45 7:1 8:3 9:3 10:0.35 11:0.35 12:0.2 13:14 14:4 15:0.4324 16:0.2162 17:0.1982 18:0.2342 19:0.3514 20:0.2353 21:0.45 22:-1 23:0.2188 24:1 
-0.04258860388155269 1:4 2:1 3:3 4:2 5:30 6:0.5909 7:3 8:6 9:3 10:0.1364 11:0.3182 12:0.2727 13:20 14:1 15:0.4328 16:0.2239 17:0.194 18:0.2388 19:0.3433 20:0.2069 21:1.67 22:0.2 23:0.25 24:23 
-0.0809783223647815 1:1 2:6 3:-1 4:0 5:23 6:0.4783 7:2 8:3 9:3 10:0.3478 11:0.3913 12:0.1739 13:17 14:4 15:0.4369 16:0.2136 17:0.1942 18:0.2427 19:0.3495 20:0.2128 21:1.8 22:0 23:0.2 24:5 
-0.08089255409792037 1:1 2:2 3:5 4:4 5:20 6:0.3 7:0 8:6 9:3 10:0.45 11:0.05 12:0.25 13:12 14:1 15:0.3696 16:0.3261 17:0.1957 18:0.1739 19:0.3043 20:0.3333 21:1.43 22:0.193 23:0.3333 24:35 
-0.05824635559789396 1:3 2:3 3:5 4:4 5:20 6:0.3 7:1 8:6 9:2 10:0.45 11:0.1 12:0.25 13:13 14:1 15:0.375 16:0.3125 17:0.1875 18:0.1875 19:0.3125 20:0.3182 21:1 22:0.2 23:0.5 24:34 
-0.009418463331416613 1:4 2:3 3:1 4:2 5:26 6:0.45 7:1 8:6 9:4 10:0.1 11:0.35 12:0.45 13:13 14:3 15:0.3934 16:0.2623 17:0.1803 18:0.2131 19:0.3443 20:0.4035 21:1.5 22:0.0476 23:0.3333 24:26 
-1 1:4 2:2 3:4 4:2 5:21 6:0.3333 7:2 8:2 9:3 10:0.3333 11:0.1905 12:0.3333 13:17 14:4 15:0.4583 16:0.2361 17:0.2083 18:0.25 19:0.3056 20:0.1875 21:0.88 22:0.2667 23:0.1818 24:24 
-0.1652838556860962 1:3 2:1 3:4 4:4 5:23 6:0.4286 7:4 8:2 9:3 10:0.2857 11:0.2381 12:0.2857 13:19 14:3 15:0.4677 16:0.2258 17:0.2097 18:0.2581 19:0.3065 20:0.1481 21:0.9 22:0.3 23:0.2 24:29 
-0.3458875274691715 1:4 2:5 3:1 4:1 5:22 6:0.2857 7:0 8:4 9:2 10:0.2857 11:0.2381 12:0.4286 13:15 14:2 15:0.2597 16:0.3636 17:0.1169 18:0.1429 19:0.3766 20:0.2958 21:1 22:0.0714 23:0.375 24:16 
-1 1:4 2:5 3:1 4:1 5:20 6:0.3 7:0 8:4 9:1 10:0.3 11:0.25 12:0.4 13:16 14:2 15:0.2697 16:0.3596 17:0.1236 18:0.1461 19:0.3708 20:0.253 21:0.78 22:0.125 23:0.3617 24:10 
-0.1108246506764581 1:4 2:9 3:-1 4:0 5:23 6:0.4783 7:1 8:3 9:4 10:0.2609 11:0.3043 12:0.2609 13:16 14:4 15:0.3545 16:0.2273 17:0.1545 18:0.2 19:0.4182 20:0.3077 21:3.5 22:-1 23:0.322 24:1 
-1 1:4 2:9 3:2 4:2 5:21 6:0.3333 7:2 8:2 9:2 10:0.381 11:0.1429 12:0.2857 13:18 14:4 15:0.3117 16:0.2208 17:0.1299 18:0.1818 19:0.4675 20:0.2958 21:0.78 22:0.2143 23:0.5172 24:18 
-0.1170258773669171 1:4 2:9 3:2 4:2 5:20 6:0.35 7:2 8:2 9:2 10:0.2 11:0.3 12:0.45 13:17 14:4 15:0.32 16:0.2133 17:0.1333 18:0.1867 19:0.4667 20:0.3043 21:1.12 22:0.2 23:0.5172 24:19 
-0.7974521211333438 1:4 2:9 3:-1 4:0 5:20 6:0.55 7:1 8:2 9:3 10:0.25 11:0.35 12:0.2 13:16 14:4 15:0.3619 16:0.2286 17:0.1619 18:0.2 19:0.4095 20:0.2727 21:0.7 22:-1 23:0.322 24:4 
-0.803433273651299 1:2 2:9 3:-1 4:0 5:21 6:0.4762 7:1 8:2 9:3 10:0.0952 11:0.1905 12:0.4286 13:16 14:1 15:0.4316 16:0.2316 17:0.2105 18:0.2211 19:0.3368 20:0.236 21:1.1 22:0 23:0.234 24:4 
-0.3074537945637625 1:3 2:9 3:-1 4:0 5:24 6:0.4583 7:1 8:2 9:4 10:0.375 11:0.3333 12:0.1667 13:18 14:2 15:0.4316 16:0.2316 17:0.2105 18:0.2211 19:0.3368 20:0.236 21:1.25 22:0 23:0.2195 24:4 
-0.0165177166697929 1:1 2:-1 3:2 4:3 5:23 6:0.3478 7:0 8:9 9:2 10:0.1739 11:0.1304 12:0.4783 13:13 14:3 15:0.4151 16:0.2264 17:0.2075 18:0.2075 19:0.3585 20:0.234 21:0.25 22:0.2273 23:0 24:25 
-0.02364332663644944 1:3 2:-1 3:2 4:4 5:24 6:0.375 7:2 8:9 9:1 10:0.125 11:0.1667 12:0.5 13:15 14:1 15:0.4286 16:0.2041 17:0.2245 18:0.2041 19:0.3673 20:0.2093 21:0.8 22:0.25 23:0 24:27 
-0.9835803519861587 1:4 2:7 3:1 4:1 5:20 6:0.4 7:0 8:2 9:4 10:0.25 11:0.1 12:0.35 13:15 14:4 15:0.4396 16:0.2747 17:0.2308 18:0.2088 19:0.2857 20:0.25 21:1.67 22:0.1429 23:0.2941 24:12 
-1 1:4 2:7 3:1 4:2 5:20 6:0.45 7:0 8:2 9:3 10:0.2 11:0.1 12:0.35 13:16 14:1 15:0.4545 16:0.2614 17:0.2386 18:0.2159 19:0.2841 20:0.2471 21:1.43 22:0.1765 23:0.3191 24:14 
-0.2248710755116241 1:1 2:7 3:-1 4:0 5:21 6:0.3333 7:0 8:2 9:5 10:0.3333 11:0.1429 12:0.3333 13:15 14:3 15:0.4158 16:0.297 17:0.2178 18:0.198 19:0.2871 20:0.2449 21:0.86 22:0 23:0.2542 24:7 
-0.473865091204936 1:1 2:7 3:1 4:1 5:24 6:0.4167 7:0 8:2 9:4 10:0.25 11:0.0833 12:0.3333 13:19 14:1 15:0.4494 16:0.2697 17:0.236 18:0.2135 19:0.2809 20:0.2558 21:1.29 22:0.125 23:0.3659 24:13 
-0.0383119693773901 1:2 2:7 3:-1 4:0 5:24 6:0.375 7:0 8:2 9:5 10:0.2917 11:0.0833 12:0.3333 13:18 14:1 15:0.4124 16:0.299 17:0.2165 18:0.1959 19:0.2887 20:0.2553 21:1.83 22:0 23:0.3061 24:9 
-0.01489226317185257 1:4 2:-1 3:3 4:5 5:21 6:0.3333 7:5 8:3 9:3 10:0.2381 11:0.2381 12:0.4286 13:15 14:4 15:0.2857 16:0.3095 17:0.0952 18:0.1905 19:0.4048 20:0.2105 21:1.5 22:0.1884 23:-1 24:38 
-0.06872244750801774 1:4 2:-1 3:3 4:5 5:25 6:0.3478 7:3 8:3 9:3 10:0.2609 11:0 12:0.3913 13:19 14:2 15:0.3971 16:0.2647 17:0.1618 18:0.2353 19:0.3382 20:0.1562 21:2 22:0.2558 23:0 24:25 
-0.005149641803020816 1:2 2:-1 3:3 4:5 5:23 6:0.2857 7:5 8:3 9:3 10:0.3333 11:0.1429 12:0.381 13:17 14:1 15:0.3043 16:0.3043 17:0.1087 18:0.1957 19:0.3913 20:0.1905 21:1.17 22:0.2 23:-1 24:36 
-0.02971289160483529 1:1 2:-1 3:3 4:5 5:20 6:0.35 7:5 8:3 9:2 10:0.25 11:0.25 12:0.4 13:15 14:4 15:0.2857 16:0.3095 17:0.0952 18:0.1905 19:0.4048 20:0.2105 21:2 22:0.1884 23:-1 24:38 
-1 1:4 2:1 3:3 4:2 5:23 6:0.3478 7:1 8:2 9:4 10:0.2609 11:0.1304 12:0.3913 13:17 14:4 15:0.3333 16:0.3 17:0.1667 18:0.1667 19:0.3667 20:0.2 21:1.4 22:0.2258 23:0.2308 24:19 
-1 1:4 2:3 3:3 4:1 5:22 6:0.3182 7:1 8:2 9:3 10:0.2727 11:0.1364 12:0.4091 13:17 14:4 15:0.3387 16:0.2903 17:0.1613 18:0.1774 19:0.371 20:0.2281 21:0.44 22:0.1724 23:0.3333 24:18 
-0.8553189595000146 1:4 2:1 3:-1 4:0 5:24 6:0.4348 7:4 8:5 9:3 10:0.1304 11:0.2174 12:0.4348 13:15 14:4 15:0.3871 16:0.2366 17:0.1613 18:0.2258 19:0.3763 20:0.236 21:0 22:-1 23:0.1163 24:2 
-1 1:3 2:4 3:1 4:1 5:21 6:0.4286 7:1 8:2 9:3 10:0.2857 11:0.3333 12:0.2857 13:17 14:2 15:0.3421 16:0.2763 17:0.1842 18:0.1579 19:0.3816 20:0.2778 21:1.75 22:0.0833 23:0.4 24:14 
-0.3197209814845466 1:4 2:-1 3:2 4:2 5:27 6:0.25 7:0 8:4 9:5 10:0.2083 11:0.0833 12:0.5417 13:16 14:-1 15:0.3269 16:0.2885 17:0.2115 18:0.1154 19:0.3846 20:0.3333 21:1 22:0.125 23:-1 24:26 
-1 1:4 2:4 3:1 4:1 5:22 6:0.4091 7:1 8:2 9:3 10:0.2727 11:0.3182 12:0.3182 13:17 14:2 15:0.3421 16:0.2763 17:0.1842 18:0.1579 19:0.3816 20:0.2778 21:1 22:0.0833 23:0.3571 24:14 
-0.593051700041657 1:4 2:3 3:-1 4:0 5:22 6:0.3333 7:2 8:1 9:3 10:0.1429 11:0.1429 12:0.5238 13:19 14:4 15:0.3238 16:0.2571 17:0.1238 18:0.2 19:0.419 20:0.1287 21:1.43 22:-1 23:0.1525 24:2 
-1 1:1 2:3 3:-1 4:0 5:20 6:0.35 7:2 8:1 9:2 10:0.4 11:0.2 12:0.25 13:18 14:4 15:0.3137 16:0.2647 17:0.1176 18:0.1961 19:0.4216 20:0.1224 21:0.6 22:0 23:0.1525 24:4 
-1 1:2 2:4 3:1 4:1 5:20 6:0.3 7:2 8:1 9:2 10:0.2 11:0.15 12:0.5 13:18 14:1 15:0.2626 16:0.303 17:0.1111 18:0.1515 19:0.4343 20:0.1398 21:0.89 22:0.1429 23:0.1698 24:6 
-0.02605336023787785 1:1 2:-1 3:1 4:3 5:31 6:0.2727 7:3 8:4 9:3 10:0.4545 11:0.1818 12:0.2727 13:22 14:1 15:0.2381 16:0.3175 17:0.0952 18:0.1429 19:0.4444 20:0.1579 21:0.8 22:0.1163 23:0 24:25 
-1 1:3 2:4 3:2 4:2 5:21 6:0.4 7:2 8:2 9:3 10:0.1 11:0.25 12:0.5 13:17 14:3 15:0.425 16:0.2625 17:0.2125 18:0.2125 19:0.3125 20:0.2208 21:2 22:0.2308 23:0.3158 24:15 
-0.07951165245897532 1:4 2:3 3:1 4:2 5:29 6:0.4286 7:1 8:8 9:3 10:0.0952 11:0.1905 12:0.4762 13:15 14:1 15:0.4533 16:0.28 17:0.2533 18:0.2 19:0.2667 20:0.2778 21:1.43 22:0.2 23:0.2414 24:13 
-0.02806750144051969 1:4 2:2 3:2 4:2 5:31 6:0.4348 7:1 8:8 9:4 10:0.1304 11:0.2174 12:0.4348 13:16 14:1 15:0.4754 16:0.2623 17:0.2787 18:0.1967 19:0.2623 20:0.3103 21:0.88 22:0.1765 23:0.3333 24:20 
-0.1358854678574336 1:4 2:3 3:2 4:2 5:32 6:0.4167 7:1 8:8 9:3 10:0.125 11:0.1667 12:0.4583 13:18 14:3 15:0.4493 16:0.2754 17:0.2609 18:0.1884 19:0.2754 20:0.2727 21:0.67 22:0.2308 23:0.2941 24:16 
-0.0006673911696617811 1:2 2:1 3:5 4:3 5:25 6:0.5 7:1 8:8 9:3 10:0.3636 11:0.2273 12:0.1364 13:13 14:4 15:0.5 16:0.2708 17:0.2917 18:0.2083 19:0.2292 20:0.2889 21:1.1 22:0.234 23:0.25 24:29 
-0.05101311312118052 1:3 2:1 3:4 4:3 5:29 6:0.4286 7:1 8:8 9:4 10:0.1429 11:0.1905 12:0.4286 13:16 14:-1 15:0.4706 16:0.2745 17:0.2745 18:0.1961 19:0.2549 20:0.2917 21:1 22:0.2273 23:0.5 24:27 
-0.009971329907405756 1:2 2:3 3:2 4:2 5:32 6:0.4583 7:1 8:8 9:3 10:0.125 11:0.1667 12:0.4167 13:18 14:1 15:0.4521 16:0.274 17:0.2603 18:0.1918 19:0.274 20:0.2571 21:0.8 22:0.2727 23:0.2381 24:14 
-0.06884417592150681 1:1 2:5 3:-1 4:0 5:23 6:0.3636 7:1 8:2 9:4 10:0.3182 11:0.2273 12:0.3182 13:17 14:4 15:0.3407 16:0.2747 17:0.1648 18:0.1758 19:0.3846 20:0.2471 21:0.88 22:0 23:0.2683 24:14 
-0.6675875985436157 1:4 2:5 3:1 4:1 5:23 6:0.4348 7:1 8:2 9:3 10:0.3043 11:0.3043 12:0.2609 13:18 14:4 15:0.3659 16:0.2561 17:0.1829 18:0.1829 19:0.378 20:0.2632 21:1 22:0.0345 23:0.3548 24:19 
-1 1:4 2:3 3:1 4:1 5:21 6:0.4286 7:3 8:2 9:3 10:0.3333 11:0.2381 12:0.2381 13:17 14:2 15:0.4079 16:0.1842 17:0.1711 18:0.2368 19:0.4079 20:0.2333 21:0.78 22:0.1 23:0.3333 24:12 
-1 1:4 2:3 3:1 4:1 5:22 6:0.5 7:3 8:2 9:3 10:0.2273 11:0.2727 12:0.2727 13:18 14:4 15:0.4286 16:0.1714 17:0.1857 18:0.2429 19:0.4 20:0.2593 21:2 22:0.0769 23:0.6 24:15 
-0.7557502686650621 1:4 2:3 3:-1 4:0 5:21 6:0.4762 7:2 8:2 9:4 10:0.1429 11:0.2381 12:0.381 13:16 14:1 15:0.4125 16:0.175 17:0.175 18:0.2375 19:0.4125 20:0.25 21:0.88 22:0 23:0.2727 24:10 
-1 1:3 2:2 3:3 4:1 5:23 6:0.4545 7:1 8:3 9:3 10:0.2273 11:0.2273 12:0.3182 13:18 14:2 15:0.4118 16:0.3088 17:0.1912 18:0.2206 19:0.2794 20:0.1864 21:0.75 22:0.2308 23:0.2941 24:15 
-1 1:3 2:3 3:-1 4:0 5:21 6:0.5238 7:2 8:3 9:2 10:0.2381 11:0.2857 12:0.2381 13:17 14:1 15:0.4674 16:0.2717 17:0.2283 18:0.2391 19:0.2609 20:0.2048 21:0.82 22:0 23:0.2727 24:3 
-0.9914695064471059 1:4 2:3 3:-1 4:0 5:23 6:0.4783 7:2 8:3 9:2 10:0.2174 11:0.2609 12:0.3043 13:19 14:1 15:0.4574 16:0.2766 17:0.2234 18:0.234 19:0.266 20:0.2 21:0.9 22:-1 23:0.2857 24:2 
-1 1:4 2:2 3:3 4:1 5:22 6:0.4762 7:0 8:3 9:3 10:0.2381 11:0.2381 12:0.2857 13:17 14:1 15:0.4219 16:0.3125 17:0.2031 18:0.2188 19:0.2656 20:0.2 21:0.89 22:0.2 23:0.3333 24:17 
-0.7731614288213606 1:3 2:5 3:1 4:1 5:20 6:0.55 7:2 8:3 9:2 10:0.2 11:0.3 12:0.25 13:15 14:1 15:0.4356 16:0.2277 17:0.2277 18:0.2079 19:0.3366 20:0.2708 21:0.6 22:0.1429 23:0.3103 24:6 
-0.7692166028214394 1:4 2:5 3:3 4:2 5:23 6:0.4091 7:0 8:2 9:4 10:0.2273 11:0.1818 12:0.3636 13:17 14:3 15:0.3733 16:0.24 17:0.2 18:0.1733 19:0.3867 20:0.2857 21:0.44 22:0.2121 23:0.4074 24:19 
-0.2419639865150797 1:1 2:5 3:1 4:1 5:20 6:0.5 7:2 8:3 9:2 10:0.3 11:0.25 12:0.2 13:15 14:3 15:0.4272 16:0.233 17:0.2233 18:0.2039 19:0.3398 20:0.2653 21:2 22:0.2 23:0.3 24:5 
-0.3345386748763601 1:3 2:3 3:1 4:2 5:20 6:0.55 7:0 8:1 9:4 10:0.3 11:0.3 12:0.15 13:16 14:1 15:0.4051 16:0.2658 17:0.2025 18:0.2025 19:0.3291 20:0.2632 21:0.62 22:0.1111 23:0.3846 24:20 
-0.1310881954524434 1:3 2:3 3:-1 4:0 5:22 6:0.5 7:1 8:2 9:5 10:0.3636 11:0.2273 12:0.1364 13:16 14:1 15:0.4273 16:0.2636 17:0.2091 18:0.2182 19:0.3091 20:0.2523 21:0.67 22:-1 23:0.2727 24:4 
-0.03095272477101355 1:1 2:1 3:1 4:4 5:25 6:0.3043 7:0 8:3 9:5 10:0.2609 11:0.1304 12:0.4348 13:16 14:3 15:0.3509 16:0.2456 17:0.1754 18:0.1754 19:0.4035 20:0.2963 21:2 22:0.1429 23:0.25 24:31 
-0.02928120750609902 1:4 2:4 3:2 4:3 5:21 6:0.55 7:2 8:7 9:3 10:0.1 11:0.4 12:0.35 13:10 14:1 15:0.5301 16:0.2289 17:0.2651 18:0.2651 19:0.241 20:0.3684 21:0.38 22:0.2414 23:0.2632 24:17 
-0.02275858269138542 1:4 2:4 3:2 4:3 5:21 6:0.45 7:2 8:7 9:3 10:0.3 11:0.15 12:0.25 13:10 14:4 15:0.5301 16:0.2289 17:0.2651 18:0.2651 19:0.241 20:0.3684 21:3.67 22:0.2414 23:0.2632 24:17 
-0.01004546619717778 1:1 2:1 3:-1 4:0 5:23 6:0.2174 7:0 8:11 9:1 10:0.3478 11:0.2174 12:0.4348 13:12 14:4 15:0.3293 16:0.2927 17:0.1463 18:0.1829 19:0.378 20:0.1538 21:1 22:0 23:0.0233 24:8 
-0.07306633371870452 1:1 2:1 3:-1 4:0 5:21 6:0.1905 7:0 8:11 9:1 10:0.381 11:0.1905 12:0.4286 13:10 14:1 15:0.3289 16:0.2895 17:0.1447 18:0.1842 19:0.3816 20:0.1667 21:0.22 22:0 23:0.0244 24:11 
-0.565663422809716 1:4 2:-1 3:9 4:1 5:21 6:0.35 7:0 8:2 9:2 10:0.3 11:0.3 12:0.35 13:18 14:3 15:0.3538 16:0.2923 17:0.1692 18:0.1846 19:0.3538 20:0.0492 21:0.4 22:0.36 23:0 24:21 
-0.03946206003038317 1:2 2:1 3:-1 4:0 5:21 6:0.1905 7:0 8:11 9:1 10:0.4286 11:0.1429 12:0.381 13:10 14:2 15:0.3295 16:0.2955 17:0.1477 18:0.1818 19:0.375 20:0.1429 21:1.5 22:0 23:0.0189 24:5 
-0.1610399759534967 1:3 2:-1 3:11 4:1 5:20 6:0.4 7:0 8:1 9:1 10:0.3 11:0.1 12:0.3 13:19 14:1 15:0.3651 16:0.2857 17:0.1746 18:0.1905 19:0.3492 20:0.0169 21:1.22 22:0.4074 23:0 24:12 
-0.0701019754799565 1:2 2:1 3:-1 4:0 5:31 6:0.35 7:0 8:11 9:1 10:0.25 11:0.05 12:0.4 13:20 14:4 15:0.3295 16:0.2955 17:0.1477 18:0.1818 19:0.375 20:0.1429 21:1.22 22:0 23:0.0303 24:5 
-0.1220707768983662 1:2 2:1 3:-1 4:0 5:24 6:0.3333 7:0 8:8 9:2 10:0.4286 11:0.1429 12:0.2381 13:13 14:1 15:0.3452 16:0.3333 17:0.1905 18:0.1548 19:0.3214 20:0.175 21:0 22:-1 23:0.0244 24:2 
-0.5409429553028172 1:4 2:1 3:-1 4:0 5:23 6:0.2609 7:2 8:2 9:2 10:0.3478 11:0.087 12:0.3913 13:20 14:3 15:0.2911 16:0.3924 17:0.1772 18:0.1139 19:0.3165 20:0.1622 21:0.89 22:0 23:0.2667 24:21 
-0.6129263910453626 1:4 2:1 3:-1 4:0 5:23 6:0.2609 7:2 8:2 9:2 10:0.5217 11:0.087 12:0.2174 13:20 14:1 15:0.2887 16:0.3814 17:0.1649 18:0.1237 19:0.3299 20:0.1304 21:0.78 22:0 23:0.1667 24:12 
-0.04552706290162198 1:2 2:1 3:1 4:2 5:21 6:0.3333 7:1 8:1 9:2 10:0.0952 11:0.0952 12:0.5714 13:19 14:4 15:0.2881 16:0.4068 17:0.1695 18:0.1186 19:0.3051 20:0.1481 21:1.29 22:0.0769 23:0.4286 24:31 
-0.3473255577709677 1:3 2:1 3:2 4:2 5:23 6:0.2609 7:1 8:1 9:3 10:0.5652 11:0.1739 12:0.1739 13:20 14:2 15:0.2909 16:0.4 17:0.1636 18:0.1273 19:0.3091 20:0.12 21:2.25 22:0.1071 23:0.3333 24:33 
-0.2611863836149145 1:2 2:-1 3:3 4:1 5:26 6:0.4545 7:0 8:3 9:5 10:0.1364 11:0.1364 12:0.4091 13:17 14:3 15:0.3684 16:0.2982 17:0.2105 18:0.1579 19:0.3333 20:0.2609 21:0.88 22:0.2143 23:-1 24:30 
-0.7490096230270019 1:3 2:4 3:1 4:2 5:20 6:0.55 7:1 8:2 9:2 10:0.05 11:0.2 12:0.4 13:17 14:1 15:0.4853 16:0.2059 17:0.2647 18:0.2206 19:0.3088 20:0.1875 21:0.6 22:0.1429 23:0.25 24:19 
-0.2299728825923633 1:4 2:-1 3:1 4:2 5:25 6:0.5238 7:1 8:4 9:4 10:0.1905 11:0.2381 12:0.2857 13:17 14:1 15:0.5 16:0.1897 17:0.2759 18:0.2241 19:0.3103 20:0.2222 21:0.78 22:0.0968 23:0 24:24 
-0.3246555967077153 1:4 2:2 3:1 4:3 5:20 6:0.55 7:2 8:3 9:2 10:0.05 11:0.35 12:0.4 13:15 14:1 15:0.4754 16:0.2623 17:0.1967 18:0.2787 19:0.2623 20:0.2364 21:0.2 22:0.1613 23:0.25 24:24 
-0.001253373242202574 1:1 2:5 3:-1 4:0 5:22 6:0.2857 7:0 8:7 9:4 10:0.5238 11:0.2381 12:0.1905 13:12 14:4 15:0.4434 16:0.2925 17:0.2075 18:0.2358 19:0.2642 20:0.32 21:0 22:-1 23:0.2281 24:1 
-0.3655515261975105 1:3 2:1 3:3 4:1 5:22 6:0.381 7:1 8:2 9:3 10:0.2857 11:0.2381 12:0.3333 13:17 14:4 15:0.3774 16:0.283 17:0.1887 18:0.1887 19:0.3396 20:0.1837 21:1.43 22:0.3 23:0.25 24:14 
-0.2033775290939923 1:1 2:4 3:-1 4:0 5:22 6:0.5455 7:0 8:2 9:5 10:0.3182 11:0.3636 12:0.1364 13:16 14:4 15:0.449 16:0.2857 17:0.2245 18:0.2245 19:0.2653 20:0.2222 21:1.67 22:-1 23:0.1739 24:3 
-0.3758928249381369 1:3 2:9 3:4 4:1 5:23 6:0.4348 7:0 8:3 9:4 10:0.2609 11:0.087 12:0.3043 13:15 14:4 15:0.4333 16:0.3222 17:0.2 18:0.2333 19:0.2444 20:0.4286 21:1 22:0.3043 23:0.5385 24:14 
-0.06153916373846073 1:2 2:-1 3:5 4:3 5:25 6:0.4783 7:0 8:10 9:3 10:0.2174 11:0.1739 12:0.3043 13:12 14:3 15:0.4364 16:0.3455 17:0.1818 18:0.2545 19:0.2182 20:0.4694 21:1.67 22:0.3448 23:0 24:32 
-0.08708597824553972 1:3 2:1 3:3 4:1 5:23 6:0.381 7:1 8:4 9:3 10:0.3333 11:0.381 12:0.2857 13:16 14:4 15:0.3478 16:0.337 17:0.1848 18:0.163 19:0.3152 20:0.1892 21:0.71 22:0.4545 23:0.1515 24:9 
-0.004164602590392677 1:4 2:-1 3:4 4:4 5:23 6:0.381 7:0 8:7 9:5 10:0.381 11:0.2857 12:0.2381 13:12 14:4 15:0.383 16:0.3404 17:0.234 18:0.1489 19:0.2766 20:0.1724 21:0 22:0.25 23:-1 24:35 
-0.1457416536889459 1:3 2:2 3:2 4:1 5:24 6:0.5652 7:3 8:4 9:2 10:0.1304 11:0.3478 12:0.3043 13:18 14:1 15:0.4915 16:0.2542 17:0.2203 18:0.2712 19:0.2542 20:0.2143 21:1.4 22:0.1667 23:0.3846 24:11 
-0.4623114721807795 1:4 2:3 3:3 4:4 5:22 6:0.2727 7:1 8:3 9:2 10:0.1364 11:0.0455 12:0.5909 13:17 14:3 15:0.3333 16:0.2667 17:0.15 18:0.1833 19:0.4 20:0.1852 21:2.5 22:0.4286 23:0.2308 24:24 
-0.09286417189998253 1:3 2:-1 3:3 4:4 5:28 6:0.3636 7:1 8:3 9:4 10:0.4091 11:0.3182 12:0.2273 13:19 14:3 15:0.3279 16:0.2787 17:0.1475 18:0.1803 19:0.3934 20:0.2 21:0.86 22:0.4146 23:0 24:24 
-0.1384647118186584 1:3 2:-1 3:3 4:5 5:23 6:0.381 7:1 8:3 9:3 10:0.4286 11:0.3333 12:0.1905 13:16 14:-1 15:0.3556 16:0.2667 17:0.1556 18:0.2 19:0.3778 20:0.1795 21:0.4 22:0.3684 23:-1 24:31 
-0.04454784308168704 1:4 2:4 3:2 4:2 5:22 6:0.5 7:1 8:2 9:5 10:0.25 11:0.35 12:0.25 13:15 14:1 15:0.4091 16:0.1818 17:0.1515 18:0.2576 19:0.4091 20:0.2581 21:0.71 22:0.1579 23:0.2727 24:24 
-0.05651338928724267 1:4 2:1 3:2 4:2 5:23 6:0.2174 7:2 8:2 9:3 10:0.3478 11:0.1739 12:0.4348 13:19 14:1 15:0.2424 16:0.3182 17:0.1061 18:0.1364 19:0.4394 20:0.129 21:1.75 22:0.2143 23:0.1111 24:17 
-0.0925679908451815 1:2 2:1 3:1 4:4 5:23 6:0.3182 7:0 8:2 9:4 10:0.2727 11:0.0909 12:0.4091 13:17 14:2 15:0.3108 16:0.3378 17:0.1622 18:0.1486 19:0.3514 20:0.2059 21:1 22:0.15 23:0.1304 24:23 
-0.1238907936606512 1:4 2:1 3:1 4:4 5:22 6:0.3333 7:0 8:2 9:4 10:0.2381 11:0.0952 12:0.4286 13:16 14:1 15:0.3485 16:0.3182 17:0.1818 18:0.1667 19:0.3333 20:0.2333 21:1.29 22:0.125 23:0.1765 24:27 
-0.6463640901743049 1:3 2:2 3:-1 4:0 5:24 6:0.3913 7:0 8:1 9:4 10:0.3913 11:0.1739 12:0.2174 13:20 14:2 15:0.3571 16:0.3125 17:0.1875 18:0.1696 19:0.3304 20:0.1887 21:1 22:0 23:0.2333 24:3 
-1 1:4 2:2 3:1 4:1 5:24 6:0.3333 7:0 8:2 9:4 10:0.125 11:0.1667 12:0.5417 13:19 14:4 15:0.3495 16:0.3107 17:0.1845 18:0.165 19:0.3398 20:0.1959 21:0.57 22:0.0909 23:0.2 24:8 
-0.08012125495533172 1:3 2:2 3:-1 4:0 5:25 6:0.4167 7:0 8:1 9:4 10:0.375 11:0.2083 12:0.2083 13:21 14:4 15:0.3571 16:0.3125 17:0.1875 18:0.1696 19:0.3304 20:0.1887 21:0.89 22:0 23:0.2414 24:3 
-0.2799143121261276 1:4 2:1 3:6 4:3 5:21 6:0.3333 7:4 8:2 9:2 10:0.1905 11:0.0952 12:0.4762 13:18 14:4 15:0.2833 16:0.2833 17:0.1167 18:0.1667 19:0.4333 20:0.0877 21:1.17 22:0.2683 23:0.1111 24:30 
-0.07027237781356237 1:4 2:1 3:6 4:3 5:23 6:0.3182 7:4 8:2 9:2 10:0.2273 11:0.3182 12:0.4545 13:20 14:4 15:0.2931 16:0.2759 17:0.1207 18:0.1724 19:0.431 20:0.0909 21:1.6 22:0.2558 23:0.1667 24:31 
-0.4162425241853697 1:2 2:1 3:6 4:4 5:20 6:0.3 7:4 8:1 9:2 10:0.35 11:0.1 12:0.35 13:18 14:1 15:0.2692 16:0.2885 17:0.1154 18:0.1538 19:0.4423 20:0.0612 21:1.17 22:0.2653 23:0.1667 24:34 
-0.09980255169176215 1:1 2:1 3:6 4:3 5:24 6:0.3043 7:4 8:2 9:2 10:0.2609 11:0.3043 12:0.4348 13:21 14:4 15:0.2931 16:0.2759 17:0.1207 18:0.1724 19:0.431 20:0.0909 21:1.6 22:0.2558 23:0.2 24:31 
-0.05729255209494381 1:3 2:1 3:6 4:2 5:21 6:0.4286 7:2 8:2 9:2 10:0.1905 11:0.1429 12:0.381 13:17 14:1 15:0.3 16:0.2714 17:0.1286 18:0.1714 19:0.4286 20:0.1343 21:0.56 22:0.2258 23:0.1111 24:25 
-0.09024738357474264 1:4 2:1 3:6 4:2 5:24 6:0.3043 7:4 8:2 9:3 10:0.3043 11:0.3043 12:0.3913 13:19 14:1 15:0.2879 16:0.2727 17:0.1212 18:0.1667 19:0.4394 20:0.1429 21:2 22:0.2 23:0.1111 24:27 
-0.04550217623273382 1:2 2:-1 3:6 4:4 5:23 6:0.3043 7:3 8:1 9:2 10:0.2174 11:0.2174 12:0.4783 13:21 14:-1 15:0.2609 16:0.3043 17:0.1087 18:0.1522 19:0.4348 20:0.0233 21:0.7 22:0.2727 23:-1 24:37 
-1 1:4 2:3 3:-1 4:0 5:21 6:0.2857 7:0 8:2 9:2 10:0.2381 11:0.1429 12:0.4762 13:18 14:4 15:0.3231 16:0.3231 17:0.1538 18:0.1692 19:0.3538 20:0.2 21:1.67 22:0 23:0.4 24:11 
-0.2446797864213492 1:4 2:1 3:-1 4:0 5:23 6:0.2174 7:0 8:3 9:3 10:0.3043 11:0.087 12:0.4783 13:17 14:1 15:0.283 16:0.3396 17:0.1321 18:0.1509 19:0.3774 20:0.25 21:1 22:0 23:0.5 24:17 
-0.2237592360948464 1:4 2:1 3:-1 4:0 5:20 6:0.2 7:0 8:3 9:3 10:0.3 11:0.05 12:0.5 13:14 14:2 15:0.2766 16:0.3404 17:0.1277 18:0.1489 19:0.383 20:0.2857 21:1.5 22:0 23:0.5 24:20 
-1 1:4 2:3 3:-1 4:0 5:21 6:0.2381 7:0 8:2 9:1 10:0.1905 11:0.1429 12:0.5714 13:19 14:4 15:0.2958 16:0.338 17:0.1408 18:0.1549 19:0.3662 20:0.1818 21:0.89 22:0 23:0.3846 24:8 
-0.9083410446862477 1:1 2:3 3:-1 4:0 5:22 6:0.3636 7:1 8:3 9:2 10:0.3182 11:0.1364 12:0.3182 13:18 14:3 15:0.33 16:0.34 17:0.13 18:0.2 19:0.33 20:0.1789 21:0.2 22:-1 23:0.25 24:2 
-0.1786544804325428 1:4 2:2 3:-1 4:0 5:24 6:0.5 7:1 8:3 9:4 10:0.25 11:0.125 12:0.25 13:18 14:3 15:0.381 16:0.3524 17:0.1905 18:0.1905 19:0.2667 20:0.2128 21:0.38 22:-1 23:0.2549 24:6 
-0.04617499174692499 1:2 2:1 3:1 4:2 5:24 6:0.4167 7:0 8:2 9:5 10:0.3333 11:0.2083 12:0.25 13:17 14:3 15:0.3281 16:0.4062 17:0.1562 18:0.1719 19:0.2656 20:0.2453 21:1.5 22:0.1053 23:0.25 24:28 
-0.1338265305503608 1:2 2:1 3:2 4:3 5:23 6:0.3478 7:1 8:2 9:4 10:0.3478 11:0.1739 12:0.3043 13:18 14:1 15:0.3103 16:0.3966 17:0.1552 18:0.1552 19:0.2931 20:0.1915 21:1 22:0.1818 23:0.5 24:31 
-0.9263776768151158 1:4 2:5 3:3 4:3 5:21 6:0.3333 7:1 8:3 9:1 10:0.3333 11:0.0952 12:0.3333 13:18 14:3 15:0.3333 16:0.3182 17:0.1515 18:0.1818 19:0.3485 20:0.1667 21:0.22 22:0.2432 23:0.3333 24:21 
-1 1:2 2:8 3:-1 4:0 5:23 6:0.3913 7:1 8:3 9:3 10:0.1739 11:0.1739 12:0.4348 13:18 14:2 15:0.3465 16:0.297 17:0.1782 18:0.1683 19:0.3564 20:0.2 21:0.38 22:0 23:0.2 24:3 
-0.1246112802666872 1:1 2:8 3:-1 4:0 5:21 6:0.25 7:1 8:3 9:3 10:0.4 11:0.05 12:0.35 13:16 14:2 15:0.3333 16:0.303 17:0.1717 18:0.1616 19:0.3636 20:0.2043 21:2.25 22:0 23:0.1923 24:4 
-0.5852953226670843 1:3 2:8 3:-1 4:0 5:22 6:0.4545 7:1 8:3 9:3 10:0.1818 11:0.2273 12:0.3636 13:17 14:1 15:0.3592 16:0.2913 17:0.1845 18:0.1748 19:0.3495 20:0.1959 21:0.6 22:-1 23:0.1852 24:1 
-0.07179050295490576 1:3 2:1 3:2 4:1 5:23 6:0.3913 7:0 8:2 9:4 10:0.3478 11:0.2174 12:0.2609 13:17 14:3 15:0.3651 16:0.3333 17:0.1905 18:0.1746 19:0.3016 20:0.2222 21:0.71 22:0.0769 23:0.2 24:29 
-1 1:4 2:1 3:2 4:1 5:23 6:0.3043 7:1 8:2 9:2 10:0.3913 11:0.1739 12:0.3043 13:19 14:4 15:0.3371 16:0.3371 17:0.1685 18:0.1685 19:0.3258 20:0.15 21:0.7 22:0.1538 23:0.1667 24:16 
-0.03308139211136018 1:2 2:12 3:3 4:4 5:21 6:0.381 7:0 8:1 9:3 10:0.2857 11:0.1905 12:0.3333 13:18 14:1 15:0.3377 16:0.3377 17:0.2078 18:0.1299 19:0.3247 20:0.3973 21:1.14 22:0.2778 23:0.75 24:22 
-0.1924617212574657 1:3 2:12 3:-1 4:0 5:23 6:0.5714 7:0 8:3 9:5 10:0.0952 11:0.0952 12:0.3333 13:16 14:4 15:0.3874 16:0.3243 17:0.2252 18:0.1622 19:0.2883 20:0.3645 21:1.57 22:0 23:0.4286 24:4 
-0.03598152847552492 1:2 2:12 3:1 4:1 5:21 6:0.5 7:0 8:3 9:4 10:0.15 11:0.05 12:0.35 13:15 14:4 15:0.3679 16:0.3302 17:0.217 18:0.1509 19:0.3019 20:0.3725 21:1.57 22:0.1429 23:0.4426 24:6 
-0.2232257669640405 1:1 2:12 3:-1 4:0 5:20 6:0.45 7:0 8:3 9:5 10:0.45 11:0.35 12:0.1 13:12 14:1 15:0.3846 16:0.3333 17:0.2222 18:0.1624 19:0.2821 20:0.3805 21:1.17 22:-1 23:0.3867 24:1 
-0.3919733455211084 1:3 2:12 3:3 4:4 5:21 6:0.3 7:0 8:1 9:3 10:0.35 11:0.15 12:0.35 13:18 14:4 15:0.3377 16:0.3377 17:0.2078 18:0.1299 19:0.3247 20:0.3973 21:0.88 22:0.2778 23:0.75 24:22 
-0.1719645214813297 1:4 2:12 3:-1 4:0 5:24 6:0.4583 7:0 8:3 9:5 10:0.4167 11:0.375 12:0.125 13:17 14:1 15:0.3982 16:0.3186 17:0.2301 18:0.1681 19:0.2832 20:0.3578 21:0.78 22:-1 23:0.4286 24:3 
-0.5384095126981245 1:3 2:12 3:-1 4:0 5:21 6:0.4762 7:0 8:3 9:4 10:0.4762 11:0.381 12:0.0476 13:15 14:2 15:0.3874 16:0.3243 17:0.2252 18:0.1622 19:0.2883 20:0.3645 21:1.11 22:0 23:0.4328 24:4 
-0.1837103812881024 1:2 2:2 3:-1 4:0 5:23 6:0.4348 7:2 8:1 9:1 10:0.2174 11:0.3478 12:0.3478 13:22 14:4 15:0.4037 16:0.2844 17:0.1835 18:0.2202 19:0.3119 20:0.0857 21:0.9 22:0 23:0.1186 24:5 
-1 1:4 2:4 3:1 4:1 5:21 6:0.2381 7:0 8:1 9:2 10:0.2381 11:0.0952 12:0.5238 13:19 14:1 15:0.2462 16:0.3385 17:0.1538 18:0.0923 19:0.4154 20:0.1525 21:0.75 22:0.027 23:0.2941 24:21 
-0.3495059489465706 1:4 2:4 3:1 4:1 5:20 6:0.25 7:0 8:1 9:2 10:0.25 11:0.1 12:0.5 13:18 14:1 15:0.254 16:0.3333 17:0.1587 18:0.0952 19:0.4127 20:0.1579 21:0.75 22:0.0256 23:0.2941 24:22 
-0.1681432449031971 1:1 2:4 3:-1 4:0 5:20 6:0.45 7:1 8:1 9:3 10:0.4 11:0.3 12:0.15 13:17 14:1 15:0.3708 16:0.2809 17:0.1573 18:0.2135 19:0.3483 20:0.2048 21:0.88 22:0 23:0.2558 24:14 
-0.01883087798624879 1:4 2:-1 3:1 4:3 5:24 6:0.4286 7:2 8:3 9:6 10:0.2857 11:0.2381 12:0.2857 13:13 14:4 15:0.3617 16:0.2979 17:0.1064 18:0.2553 19:0.3404 20:0.3953 21:0.86 22:0.0909 23:-1 24:36 
-1 1:4 2:5 3:-1 4:0 5:20 6:0.35 7:3 8:1 9:2 10:0.45 11:0.3 12:0.2 13:18 14:2 15:0.3929 16:0.25 17:0.1518 18:0.2411 19:0.3571 20:0.165 21:1.17 22:-1 23:0.2424 24:3 
-1 1:3 2:5 3:-1 4:0 5:21 6:0.381 7:3 8:1 9:2 10:0.1429 11:0.0952 12:0.4762 13:19 14:1 15:0.4211 16:0.2316 17:0.1579 18:0.2632 19:0.3474 20:0.186 21:0.89 22:0 23:0.3043 24:12 
-0.6513035657952574 1:2 2:5 3:-1 4:0 5:22 6:0.2727 7:3 8:1 9:1 10:0.1818 11:0.0455 12:0.5455 13:21 14:2 15:0.3925 16:0.2523 17:0.1495 18:0.243 19:0.3551 20:0.1633 21:1 22:0 23:0.2857 24:6 
-0.2693358112278066 1:4 2:2 3:4 4:2 5:22 6:0.5 7:3 8:2 9:2 10:0.1818 11:0.1818 12:0.3182 13:19 14:2 15:0.48 16:0.24 17:0.24 18:0.24 19:0.28 20:0.1714 21:1.11 22:0.4 23:0.2857 24:23 
-1 1:3 2:3 3:-1 4:0 5:22 6:0.5238 7:1 8:1 9:3 10:0.2857 11:0.2857 12:0.1905 13:19 14:1 15:0.419 16:0.3143 17:0.2095 18:0.2095 19:0.2667 20:0.125 21:0.64 22:0 23:0.1786 24:6 
-1 1:2 2:2 3:1 4:2 5:21 6:0.3333 7:1 8:1 9:3 10:0.4286 11:0.1429 12:0.2381 13:18 14:4 15:0.4 16:0.3333 17:0.2 18:0.2 19:0.2667 20:0.1515 21:0.88 22:0.0588 23:0.2308 24:22 
-1 1:4 2:3 3:-1 4:0 5:22 6:0.5238 7:0 8:2 9:3 10:0.2381 11:0.2381 12:0.2381 13:18 14:1 15:0.4324 16:0.3063 17:0.2252 18:0.2072 19:0.2613 20:0.1373 21:2.2 22:-1 23:0.1875 24:2 
-1 1:4 2:2 3:-1 4:0 5:21 6:0.381 7:1 8:1 9:1 10:0.381 11:0.1429 12:0.2381 13:20 14:2 15:0.3238 16:0.3429 17:0.1429 18:0.181 19:0.3333 20:0.093 21:1.11 22:-1 23:0.1739 24:7 
-0.6534257277763537 1:4 2:2 3:-1 4:0 5:22 6:0.4091 7:1 8:3 9:2 10:0.3636 11:0.1818 12:0.2273 13:18 14:4 15:0.3241 16:0.3426 17:0.1389 18:0.1852 19:0.3333 20:0.1236 21:0.2 22:-1 23:0.16 24:4 
-1 1:4 2:2 3:-1 4:0 5:20 6:0.4 7:1 8:1 9:1 10:0.4 11:0.15 12:0.2 13:19 14:1 15:0.3238 16:0.3429 17:0.1429 18:0.181 19:0.3333 20:0.093 21:1 22:-1 23:0.1667 24:7 
-0.8090359389419352 1:1 2:2 3:-1 4:0 5:21 6:0.4286 7:0 8:1 9:1 10:0.1905 11:0.2857 12:0.381 13:20 14:4 15:0.3267 16:0.3465 17:0.1485 18:0.1782 19:0.3267 20:0.0976 21:0.82 22:0 23:0.1905 24:9 
-0.07699654777005595 1:2 2:1 3:2 4:3 5:22 6:0.2273 7:0 8:12 9:1 10:0.4545 11:0.1364 12:0.3182 13:10 14:1 15:0.26 16:0.34 17:0.12 18:0.14 19:0.4 20:0.2889 21:5 22:0.2273 23:0.1429 24:24 
-0.7169681335831385 1:4 2:12 3:2 4:2 5:20 6:0.35 7:0 8:2 9:1 10:0.4 11:0.25 12:0.25 13:18 14:1 15:0.2838 16:0.3243 17:0.1216 18:0.1622 19:0.3919 20:0.2464 21:1.11 22:0.3 23:0.4839 24:12 
-1 1:4 2:10 3:2 4:2 5:23 6:0.3478 7:0 8:2 9:2 10:0.3913 11:0.2609 12:0.2609 13:19 14:4 15:0.2838 16:0.3243 17:0.1216 18:0.1622 19:0.3919 20:0.2464 21:2.5 22:0.3 23:0.4615 24:12 
-0.02475895021489835 1:1 2:1 3:2 4:2 5:31 6:0.3 7:0 8:12 9:2 10:0.25 11:0.15 12:0.45 13:17 14:3 15:0.2714 16:0.3286 17:0.1143 18:0.1571 19:0.4 20:0.2615 21:0.67 22:0.25 23:0.125 24:14 
-0.02889826503086345 1:4 2:-1 3:2 4:2 5:35 6:0.2917 7:1 8:12 9:3 10:0.25 11:0.1667 12:0.4583 13:20 14:1 15:0.2742 16:0.3226 17:0.1129 18:0.1613 19:0.4032 20:0.2982 21:1.4 22:0.1875 23:-1 24:18 
-0.06775337216506185 1:4 2:1 3:1 4:2 5:35 6:0.3333 7:0 8:12 9:3 10:0.25 11:0.1667 12:0.4167 13:20 14:4 15:0.2895 16:0.3158 17:0.1184 18:0.1711 19:0.3947 20:0.2676 21:0.86 22:0.2222 23:0.1429 24:11 
-0.04994236730407591 1:4 2:-1 3:2 4:3 5:34 6:0.25 7:1 8:12 9:2 10:0.25 11:0.125 12:0.5 13:20 14:-1 15:0.2586 16:0.3448 17:0.1207 18:0.1379 19:0.3966 20:0.2453 21:0.56 22:0.2778 23:-1 24:20 
-0.3160973785091665 1:3 2:1 3:-1 4:0 5:22 6:0.3182 7:0 8:3 9:2 10:0.3636 11:0.2727 12:0.3182 13:18 14:3 15:0.3714 16:0.3286 17:0.1571 18:0.2143 19:0.3 20:0.1562 21:0.2 22:0 23:0.1429 24:13 
-1 1:4 2:2 3:-1 4:0 5:20 6:0.3 7:0 8:2 9:2 10:0.35 11:0.25 12:0.35 13:17 14:4 15:0.3824 16:0.3235 17:0.1618 18:0.2206 19:0.2941 20:0.1613 21:0.5 22:0 23:0.1818 24:14 
-1 1:4 2:4 3:-1 4:0 5:22 6:0.3182 7:2 8:1 9:2 10:0.2727 11:0.1364 12:0.4091 13:20 14:2 15:0.3304 16:0.3304 17:0.1739 18:0.1565 19:0.3391 20:0.1028 21:0.75 22:-1 23:0.125 24:1 
-0.1987252999718925 1:1 2:5 3:-1 4:0 5:20 6:0.3 7:1 8:2 9:2 10:0.45 11:0.2 12:0.25 13:16 14:1 15:0.3933 16:0.3371 17:0.2135 18:0.1798 19:0.2697 20:0.253 21:1.6 22:-1 23:0.3333 24:1 
-1 1:4 2:5 3:-1 4:0 5:24 6:0.3913 7:1 8:3 9:2 10:0.2609 11:0.087 12:0.3478 13:19 14:2 15:0.3976 16:0.3373 17:0.2169 18:0.1807 19:0.2651 20:0.2468 21:1.11 22:0 23:0.3333 24:5 
-1 1:3 2:5 3:-1 4:0 5:22 6:0.3636 7:1 8:3 9:2 10:0.4091 11:0.2273 12:0.2273 13:17 14:4 15:0.4074 16:0.3333 17:0.2222 18:0.1852 19:0.2593 20:0.2533 21:0.9 22:0 23:0.3125 24:6 
-0.04735981827641742 1:3 2:5 3:-1 4:0 5:24 6:0.3333 7:1 8:3 9:2 10:0.4583 11:0.2083 12:0.2083 13:19 14:1 15:0.3882 16:0.3412 17:0.2118 18:0.1765 19:0.2706 20:0.2405 21:1 22:0 23:0.3125 24:4 
-0.1047946428133304 1:2 2:3 3:2 4:2 5:23 6:0.2174 7:1 8:1 9:4 10:0.3043 11:0.0435 12:0.4783 13:19 14:2 15:0.2712 16:0.3729 17:0.1186 18:0.1525 19:0.3559 20:0.1852 21:1 22:0.12 23:0.4545 24:28 
-0.04121983063703845 1:1 2:1 3:2 4:2 5:23 6:0.2174 7:1 8:2 9:5 10:0.3478 11:0.0435 12:0.4348 13:17 14:4 15:0.2909 16:0.3636 17:0.1273 18:0.1636 19:0.3455 20:0.2 21:1 22:0.1111 23:0.3333 24:30 
-0.04587794495374377 1:1 2:2 3:-1 4:0 5:21 6:0.2 7:1 8:6 9:3 10:0.35 11:0.15 12:0.45 13:13 14:3 15:0.3478 16:0.2957 17:0.1304 18:0.2174 19:0.3565 20:0.2264 21:1 22:-1 23:0.1765 24:2 
-0.1705619109312499 1:1 2:2 3:-1 4:0 5:25 6:0.25 7:2 8:6 9:2 10:0.375 11:0.1667 12:0.375 13:18 14:3 15:0.3509 16:0.2982 17:0.1316 18:0.2193 19:0.3509 20:0.219 21:1 22:-1 23:0.2069 24:3 
-1 1:4 2:2 3:2 4:1 5:21 6:0.2 7:1 8:4 9:2 10:0.4 11:0.1 12:0.4 13:16 14:3 15:0.3431 16:0.3039 17:0.1373 18:0.2059 19:0.3529 20:0.2043 21:2.67 22:0.3333 23:0.2222 24:9 
-0.1531393264560118 1:1 2:-1 3:6 4:3 5:22 6:0.3636 7:1 8:3 9:4 10:0.3182 11:0.2273 12:0.3182 13:15 14:4 15:0.4468 16:0.2979 17:0.1489 18:0.2979 19:0.2553 20:0.2105 21:0.5 22:0.2239 23:-1 24:37 
-0.7015866051884092 1:4 2:7 3:2 4:4 5:20 6:0.4 7:1 8:1 9:3 10:0.3 11:0.2 12:0.3 13:17 14:4 15:0.338 16:0.338 17:0.169 18:0.169 19:0.3239 20:0.2 21:1.17 22:0.2432 23:0.3077 24:21 
-0.05144366360298512 1:3 2:-1 3:2 4:5 5:20 6:0.25 7:1 8:8 9:3 10:0.45 11:0.1 12:0.3 13:10 14:4 15:0.2449 16:0.3878 17:0.1224 18:0.1224 19:0.3673 20:0.2558 21:1 22:0.1864 23:0 24:32 
-0.02975568587543326 1:3 2:-1 3:2 4:5 5:31 6:0.3636 7:2 8:8 9:3 10:0.2273 11:0.2273 12:0.4091 13:21 14:1 15:0.3333 16:0.3333 17:0.1587 18:0.1746 19:0.3333 20:0.193 21:0.9 22:0.2444 23:0 24:25 
-0.7736451567492534 1:3 2:8 3:-1 4:0 5:21 6:0.45 7:1 8:2 9:4 10:0.3 11:0.35 12:0.25 13:16 14:4 15:0.3704 16:0.2963 17:0.1944 18:0.1759 19:0.3333 20:0.2157 21:1.12 22:-1 23:0.2131 24:2 
-0.2845599375020594 1:3 2:4 3:-1 4:0 5:24 6:0.4167 7:3 8:4 9:3 10:0.3333 11:0.375 12:0.25 13:17 14:4 15:0.4804 16:0.2647 17:0.1176 18:0.3627 19:0.2549 20:0.2857 21:1.29 22:0 23:0.28 24:6 
-0.1797829513889404 1:2 2:4 3:1 4:1 5:21 6:0.4286 7:3 8:4 9:2 10:0.2857 11:0.3333 12:0.2857 13:15 14:4 15:0.4787 16:0.266 17:0.117 18:0.3617 19:0.2553 20:0.2889 21:2 22:0.2 23:0.2917 24:10 
-0.02520488605477875 1:3 2:-1 3:4 4:3 5:23 6:0.5714 7:0 8:4 9:5 10:0.2857 11:0.381 12:0.1429 13:14 14:1 15:0.5 16:0.2667 17:0.1333 18:0.3667 19:0.2333 20:0.25 21:0.5 22:0.3182 23:0 24:27 
-0.01297446863438258 1:1 2:14 3:-1 4:0 5:20 6:0.35 7:1 8:1 9:1 10:0.2 11:0.15 12:0.45 13:19 14:4 15:0.3176 16:0.2588 17:0.1647 18:0.1529 19:0.4235 20:0.2593 21:1 22:0 23:0.4634 24:10 
-0.03810134844547485 1:1 2:5 3:-1 4:0 5:21 6:0.2381 7:0 8:9 9:2 10:0.4286 11:0.0476 12:0.3333 13:11 14:4 15:0.2899 16:0.2609 17:0.1594 18:0.1304 19:0.4493 20:0.3231 21:0 22:0 23:0.2903 24:18 
-0.06490783382630488 1:4 2:4 3:-1 4:0 5:24 6:0.25 7:0 8:12 9:2 10:0.375 11:0.0417 12:0.375 13:11 14:4 15:0.2899 16:0.2609 17:0.1594 18:0.1304 19:0.4493 20:0.3231 21:0 22:0 23:0.2143 24:18 
-0.0747317199382992 1:4 2:8 3:-1 4:0 5:24 6:0.2917 7:1 8:6 9:2 10:0.375 11:0.1667 12:0.3333 13:17 14:1 15:0.3333 16:0.2469 17:0.1728 18:0.1605 19:0.4198 20:0.2727 21:0 22:0 23:0.3529 24:12 
-0.1011893338173741 1:4 2:2 3:1 4:1 5:21 6:0.3333 7:0 8:3 9:4 10:0.2381 11:0.0952 12:0.4286 13:15 14:1 15:0.3918 16:0.299 17:0.2062 18:0.1856 19:0.3093 20:0.1702 21:1.17 22:0.1111 23:0.1111 24:11 
-0.352615852438062 1:2 2:2 3:2 4:2 5:21 6:0.4762 7:0 8:1 9:4 10:0.3333 11:0.1429 12:0.1905 13:17 14:4 15:0.4023 16:0.2989 17:0.2069 18:0.1954 19:0.2989 20:0.1429 21:1.43 22:0.2632 23:0.1364 24:16 
-0.03327567801294523 1:1 2:-1 3:1 4:3 5:26 6:0.2917 7:0 8:3 9:5 10:0.2083 11:0.2917 12:0.5 13:17 14:-1 15:0.32 16:0.28 17:0.14 18:0.18 19:0.4 20:0.2444 21:0.71 22:0.1163 23:-1 24:34 
-0.3402486122464471 1:1 2:3 3:-1 4:0 5:21 6:0.25 7:0 8:1 9:3 10:0.35 11:0.2 12:0.4 13:18 14:2 15:0.3333 16:0.3011 17:0.1613 18:0.172 19:0.3656 20:0.1818 21:1.29 22:-1 23:0.2653 24:10 
-0.0232509988410777 1:1 2:1 3:2 4:3 5:22 6:0.3636 7:2 8:2 9:2 10:0.3182 11:0.3182 12:0.3182 13:19 14:2 15:0.3509 16:0.2982 17:0.1579 18:0.193 19:0.3509 20:0.0769 21:0.86 22:0.1379 23:0.1667 24:31 
-0.209491820700893 1:4 2:2 3:-1 4:0 5:21 6:0.3333 7:1 8:2 9:3 10:0.1429 11:0.1905 12:0.5238 13:17 14:1 15:0.3925 16:0.2617 17:0.1589 18:0.2336 19:0.3458 20:0.1176 21:1.8 22:0 23:0.0968 24:6 
-1 1:2 2:1 3:2 4:3 5:22 6:0.45 7:2 8:2 9:2 10:0.2 11:0.1 12:0.35 13:19 14:1 15:0.3729 16:0.2881 17:0.1695 18:0.2034 19:0.339 20:0.0741 21:0.89 22:0.1429 23:0.1429 24:30 
-0.3291898823802706 1:4 2:2 3:1 4:3 5:22 6:0.4545 7:1 8:1 9:2 10:0.1818 11:0.0909 12:0.3636 13:20 14:2 15:0.3944 16:0.2676 17:0.169 18:0.2254 19:0.338 20:0.0909 21:0.88 22:0.1364 23:0.1667 24:24 
-1 1:3 2:3 3:1 4:1 5:21 6:0.4286 7:2 8:2 9:3 10:0.4286 11:0.2857 12:0.1429 13:16 14:2 15:0.39 16:0.25 17:0.18 18:0.21 19:0.36 20:0.2826 21:0.57 22:0.125 23:0.32 24:11 
-1 1:3 2:3 3:1 4:1 5:23 6:0.4783 7:2 8:2 9:3 10:0.3913 11:0.3478 12:0.1304 13:18 14:3 15:0.402 16:0.2451 17:0.1863 18:0.2157 19:0.3529 20:0.2766 21:0.5 22:0.1429 23:0.3333 24:10 
-1 1:1 2:3 3:-1 4:0 5:22 6:0.3636 7:2 8:2 9:3 10:0.4545 11:0.2273 12:0.1818 13:18 14:4 15:0.3929 16:0.2411 17:0.1786 18:0.2143 19:0.3661 20:0.2692 21:1.5 22:0 23:0.3333 24:5 
-1 1:4 2:3 3:1 4:1 5:20 6:0.4 7:1 8:2 9:2 10:0.45 11:0.25 12:0.15 13:17 14:4 15:0.4057 16:0.2453 17:0.1887 18:0.217 19:0.3491 20:0.2653 21:0.9 22:0.2 23:0.3448 24:8 
-1 1:4 2:3 3:1 4:1 5:22 6:0.2727 7:2 8:2 9:2 10:0.1364 11:0.1364 12:0.5909 13:19 14:2 15:0.4057 16:0.2453 17:0.1887 18:0.217 19:0.3491 20:0.2653 21:1.25 22:0.2 23:0.3704 24:8 
-0.04148124410927585 1:3 2:3 3:3 4:1 5:23 6:0.3043 7:0 8:6 9:2 10:0.3478 11:0.0435 12:0.3478 13:16 14:3 15:0.3253 16:0.3614 17:0.1807 18:0.1446 19:0.3133 20:0.3247 21:2 22:0.3 23:0.3548 24:12 
-0.6147460444453904 1:4 2:6 3:-1 4:0 5:22 6:0.3182 7:0 8:4 9:2 10:0.1818 11:0.0909 12:0.5 13:17 14:4 15:0.3271 16:0.3458 17:0.1869 18:0.1402 19:0.3271 20:0.3069 21:0 22:-1 23:0.4098 24:4 
-0.04220974773066872 1:4 2:2 3:3 4:2 5:23 6:0.3043 7:0 8:3 9:3 10:0.2609 11:0.087 12:0.4348 13:18 14:1 15:0.3846 16:0.3231 17:0.2615 18:0.1231 19:0.2923 20:0.2459 21:1.29 22:0.2353 23:0.3333 24:27 
-0.01885410499879883 1:4 2:2 3:3 4:3 5:20 6:0.4 7:0 8:3 9:2 10:0.4 11:0.15 12:0.2 13:16 14:2 15:0.381 16:0.3175 17:0.254 18:0.127 19:0.3016 20:0.2203 21:1.25 22:0.2778 23:0.2632 24:28 
-0.09381536050376228 1:2 2:-1 3:3 4:3 5:23 6:0.4545 7:0 8:3 9:4 10:0.4545 11:0.0909 12:0.0909 13:16 14:1 15:0.3673 16:0.3265 17:0.2653 18:0.102 19:0.3061 20:0.2889 21:0.75 22:0.2 23:-1 24:35 
-0.8751077219155964 1:4 2:1 3:3 4:1 5:23 6:0.3913 7:1 8:1 9:1 10:0.3043 11:0.2609 12:0.3043 13:22 14:2 15:0.3291 16:0.2911 17:0.1772 18:0.1519 19:0.3797 20:0.0571 21:0.9 22:0.1538 23:0.1538 24:21 
-0.01394609940923047 1:2 2:-1 3:3 4:2 5:20 6:0.4 7:1 8:4 9:2 10:0.45 11:0.15 12:0.15 13:15 14:4 15:0.3415 16:0.2439 17:0.1951 18:0.1463 19:0.4146 20:0.0625 21:0 22:0.0938 23:-1 24:40 
-0.4109237503642513 1:2 2:1 3:3 4:1 5:24 6:0.3333 7:1 8:1 9:1 10:0.3333 11:0.0833 12:0.3333 13:23 14:1 15:0.3457 16:0.284 17:0.1852 18:0.1605 19:0.3704 20:0.0556 21:1 22:0.1667 23:0.1538 24:20 
-0.2416922205738804 1:1 2:1 3:-1 4:0 5:28 6:0.3478 7:0 8:4 9:2 10:0.3043 11:0.087 12:0.3478 13:21 14:4 15:0.3455 16:0.3 17:0.1818 18:0.1636 19:0.3545 20:0.1287 21:1.43 22:-1 23:0.1154 24:3 
-0.9388155118212367 1:1 2:1 3:3 4:1 5:21 6:0.3333 7:1 8:-1 9:0 10:0.2857 11:0.2857 12:0.381 13:21 14:4 15:0.3077 16:0.3077 17:0.1648 18:0.1429 19:0.3846 20:0.0488 21:0.89 22:0.2857 23:0.1429 24:15 
-0.4235824945272249 1:3 2:1 3:3 4:1 5:21 6:0.4286 7:1 8:1 9:1 10:0.2857 11:0.2857 12:0.2857 13:20 14:2 15:0.3467 16:0.28 17:0.1867 18:0.16 19:0.3733 20:0.0606 21:1 22:0.1333 23:0.1538 24:23 
-0.1136215246552981 1:4 2:1 3:-1 4:0 5:23 6:0.3043 7:1 8:1 9:2 10:0.5652 11:0 12:0.1304 13:21 14:1 15:0.3421 16:0.3421 17:0.1711 18:0.1711 19:0.3158 20:0.0833 21:0.86 22:-1 23:0.0769 24:2 
-0.3388588140440629 1:4 2:1 3:-1 4:0 5:22 6:0.3636 7:1 8:1 9:2 10:0.0455 11:0.3636 12:0.5909 13:20 14:4 15:0.3421 16:0.3421 17:0.1711 18:0.1711 19:0.3158 20:0.0833 21:1 22:-1 23:0.0714 24:2 
-1 1:4 2:1 3:-1 4:0 5:22 6:0.3182 7:1 8:1 9:2 10:0.5455 11:0 12:0.1364 13:20 14:4 15:0.3514 16:0.3378 17:0.1757 18:0.1757 19:0.3108 20:0.0857 21:0.75 22:0 23:0.0769 24:3 
-0.914528963781769 1:4 2:-1 3:1 4:1 5:22 6:0.3636 7:0 8:1 9:2 10:0.1818 11:0.2273 12:0.4545 13:20 14:4 15:0.2917 16:0.3958 17:0.1458 18:0.1458 19:0.3125 20:0.0909 21:0.8 22:0.0714 23:-1 24:16 
-0.1017824066373603 1:2 2:1 3:-1 4:0 5:20 6:0.4 7:1 8:1 9:2 10:0.05 11:0.35 12:0.55 13:18 14:1 15:0.3462 16:0.3462 17:0.1795 18:0.1667 19:0.3077 20:0.1081 21:0.56 22:-1 23:0.1176 24:1 
-0.7230966837018765 1:2 2:1 3:4 4:2 5:23 6:0.2174 7:1 8:1 9:3 10:0.3043 11:0.1304 12:0.4783 13:20 14:2 15:0.2593 16:0.3951 17:0.0988 18:0.1605 19:0.3457 20:0.1111 21:0.78 22:0.2667 23:0.1429 24:20 
-0.4453617388193726 1:1 2:1 3:-1 4:0 5:23 6:0.3043 7:1 8:4 9:4 10:0.4348 11:0.2174 12:0.2609 13:16 14:4 15:0.2523 16:0.3832 17:0.1121 18:0.1402 19:0.3645 20:0.1633 21:1.2 22:0 23:0.1071 24:6 
-0.03712025996528645 1:2 2:-1 3:4 4:5 5:20 6:0.25 7:1 8:3 9:2 10:0.45 11:0.05 12:0.3 13:16 14:1 15:0.2791 16:0.3953 17:0.1163 18:0.1628 19:0.3256 20:0.0588 21:0.22 22:0.2059 23:-1 24:39 
-1 1:3 2:1 3:4 4:1 5:20 6:0.35 7:2 8:1 9:3 10:0.45 11:0.25 12:0.2 13:17 14:4 15:0.2526 16:0.3895 17:0.1053 18:0.1474 19:0.3579 20:0.1163 21:1.12 22:0.375 23:0.125 24:13 
-0.08555831877321676 1:1 2:1 3:4 4:2 5:21 6:0.2381 7:1 8:1 9:3 10:0.4762 11:0.1905 12:0.2857 13:18 14:4 15:0.253 16:0.3976 17:0.0964 18:0.1566 19:0.3494 20:0.1081 21:0.89 22:0.2857 23:0.1176 24:19 
-0.06176813741753103 1:1 2:-1 3:3 4:3 5:24 6:0.381 7:1 8:3 9:4 10:0.3333 11:0.2381 12:0.2857 13:17 14:2 15:0.4118 16:0.3333 17:0.2353 18:0.1765 19:0.2549 20:0.1282 21:2.67 22:0.2143 23:-1 24:34 
-0.08465588626100778 1:2 2:-1 3:3 4:3 5:23 6:0.4348 7:1 8:3 9:3 10:0.2609 11:0.1304 12:0.3043 13:17 14:1 15:0.4082 16:0.3265 17:0.2449 18:0.1633 19:0.2653 20:0.0811 21:0.3 22:0.2414 23:-1 24:35 
-1 1:3 2:2 3:1 4:1 5:21 6:0.5714 7:1 8:2 9:3 10:0.2857 11:0.4286 12:0.1429 13:16 14:2 15:0.4409 16:0.2903 17:0.2258 18:0.2151 19:0.2688 20:0.1852 21:0.62 22:0.1429 23:0.1282 24:13 
-0.4668032351309581 1:2 2:5 3:-1 4:0 5:22 6:0.4091 7:2 8:1 9:2 10:0.3182 11:0.2727 12:0.2727 13:20 14:2 15:0.35 16:0.28 17:0.14 18:0.21 19:0.37 20:0.1458 21:1.43 22:0 23:0.1923 24:8 
-0.6719851986278201 1:4 2:5 3:-1 4:0 5:22 6:0.4091 7:2 8:1 9:2 10:0.3182 11:0.3182 12:0.2727 13:20 14:4 15:0.3367 16:0.2857 17:0.1327 18:0.2041 19:0.3776 20:0.1489 21:1.29 22:0 23:0.2 24:9 
-0.03240875120937865 1:1 2:-1 3:1 4:2 5:29 6:0.3043 7:3 8:5 9:3 10:0.3913 11:0.1739 12:0.3043 13:21 14:4 15:0.3393 16:0.2679 17:0.125 18:0.2143 19:0.3929 20:0.1923 21:0.9 22:0.0833 23:-1 24:30 
-0.9903484622495404 1:4 2:7 3:-1 4:0 5:20 6:0.5 7:3 8:1 9:2 10:0.25 11:0.2 12:0.25 13:18 14:4 15:0.3663 16:0.2574 17:0.1584 18:0.2079 19:0.3762 20:0.2165 21:1.25 22:0 23:0.2982 24:10 
-0.8938923853191584 1:1 2:7 3:1 4:1 5:23 6:0.3478 7:4 8:2 9:2 10:0.2609 11:0.1304 12:0.3913 13:20 14:2 15:0.3263 16:0.2737 17:0.1263 18:0.2 19:0.4 20:0.2088 21:0.88 22:0.25 23:0.2889 24:13 
-0.04469584059909935 1:1 2:-1 3:2 4:3 5:22 6:0.3636 7:2 8:7 9:1 10:0.2727 11:0.2727 12:0.3636 13:15 14:4 15:0.3469 16:0.2653 17:0.1429 18:0.2041 19:0.3878 20:0.2889 21:3.33 22:0.1481 23:0 24:36 
-0.1789702166953427 1:3 2:5 3:1 4:2 5:22 6:0.4545 7:3 8:2 9:2 10:0.3182 11:0.4091 12:0.2273 13:18 14:3 15:0.3443 16:0.2459 17:0.1311 18:0.2131 19:0.4098 20:0.2982 21:1.25 22:0.0952 23:0.6923 24:30 
-0.1385889983865746 1:1 2:4 3:1 4:1 5:24 6:0.2917 7:2 8:4 9:1 10:0.25 11:0.0417 12:0.4583 13:20 14:3 15:0.3488 16:0.314 17:0.186 18:0.1628 19:0.3372 20:0.1852 21:0.44 22:0.1667 23:0.3333 24:10 
-0.4405365696914532 1:1 2:14 3:-1 4:0 5:20 6:0.25 7:0 8:-1 9:0 10:0.35 11:0.1 12:0.4 13:20 14:4 15:0.2821 16:0.4103 17:0.1154 18:0.1667 19:0.3077 20:0.2162 21:1.12 22:0 23:0.4706 24:14 
-0.07199309572234641 1:1 2:13 3:-1 4:0 5:21 6:0.2381 7:0 8:1 9:1 10:0.381 11:0.1429 12:0.381 13:20 14:2 15:0.2973 16:0.4054 17:0.1216 18:0.1757 19:0.2973 20:0.2286 21:1.5 22:0 23:0.5172 24:16 
-0.1877792157449491 1:4 2:13 3:-1 4:0 5:20 6:0.25 7:0 8:1 9:1 10:0.35 11:0.15 12:0.4 13:19 14:2 15:0.3056 16:0.4028 17:0.125 18:0.1806 19:0.2917 20:0.2353 21:1.5 22:0 23:0.5172 24:17 
-0.0433766026057635 1:4 2:11 3:-1 4:0 5:22 6:0.2273 7:0 8:3 9:1 10:0.4091 11:0.1364 12:0.3636 13:19 14:2 15:0.3056 16:0.4028 17:0.125 18:0.1806 19:0.2917 20:0.2353 21:4.5 22:0 23:0.4815 24:17 
-0.2157119242334853 1:4 2:14 3:-1 4:0 5:21 6:0.2381 7:0 8:-1 9:0 10:0.381 11:0.1429 12:0.381 13:21 14:1 15:0.275 16:0.4125 17:0.1125 18:0.1625 19:0.3125 20:0.2105 21:0.89 22:0 23:0.4706 24:13 
-1 1:4 2:14 3:-1 4:0 5:20 6:0.2 7:0 8:1 9:1 10:0.5 11:0.1 12:0.3 13:19 14:1 15:0.2788 16:0.4038 17:0.125 18:0.1538 19:0.3173 20:0.18 21:1.29 22:-1 23:0.2667 24:1 
-0.09533924745941108 1:2 2:1 3:3 4:3 5:23 6:0.3043 7:1 8:1 9:1 10:0.3478 11:0.1739 12:0.3478 13:22 14:3 15:0.2982 16:0.3684 17:0.1579 18:0.1404 19:0.3333 20:0.0417 21:0.75 22:0.3 23:0.5 24:22 
-0.2197312462544898 1:3 2:1 3:-1 4:0 5:20 6:0.45 7:0 8:3 9:3 10:0.3 11:0.3 12:0.25 13:14 14:1 15:0.3711 16:0.3299 17:0.1856 18:0.1856 19:0.299 20:0.1591 21:0.62 22:-1 23:0.08 24:2 
-0.1558659350579312 1:1 2:-1 3:3 4:3 5:24 6:0.25 7:0 8:3 9:1 10:0.375 11:0.125 12:0.375 13:21 14:3 15:0.2941 16:0.3725 17:0.1569 18:0.1373 19:0.3333 20:0 21:0.3 22:0.3043 23:-1 24:25 
-0.1061517897241163 1:2 2:1 3:3 4:3 5:23 6:0.3478 7:1 8:2 9:1 10:0.3043 11:0.1739 12:0.3478 13:21 14:4 15:0.322 16:0.3559 17:0.1695 18:0.1525 19:0.322 20:0.08 21:0.44 22:0.2632 23:0.3333 24:21 
-0.4740996205357427 1:1 2:-1 3:3 4:3 5:20 6:0.25 7:0 8:1 9:1 10:0.35 11:0.15 12:0.4 13:19 14:3 15:0.2766 16:0.383 17:0.1489 18:0.1277 19:0.3404 20:0 21:0.78 22:0.28 23:-1 24:27 
-0.8830854562142804 1:4 2:5 3:1 4:1 5:24 6:0.3913 7:1 8:1 9:2 10:0.1304 11:0.2609 12:0.4783 13:22 14:4 15:0.2809 16:0.4045 17:0.1348 18:0.1461 19:0.3146 20:0.1139 21:1.12 22:0.0909 23:0.1875 24:14 
-1 1:3 2:5 3:1 4:1 5:20 6:0.4 7:1 8:1 9:1 10:0.4 11:0.15 12:0.2 13:19 14:4 15:0.303 16:0.3838 17:0.1414 18:0.1616 19:0.3131 20:0.1011 21:1.11 22:0.1667 23:0.1429 24:9 
-0.02639592753139595 1:1 2:-1 3:1 4:2 5:29 6:0.3043 7:1 8:5 9:2 10:0.1304 11:0.2609 12:0.5652 13:23 14:3 15:0.253 16:0.4217 17:0.1084 18:0.1446 19:0.3253 20:0.0959 21:0 22:0.1429 23:0 24:17 
-1 1:4 2:5 3:-1 4:0 5:22 6:0.4091 7:1 8:1 9:2 10:0.2273 11:0.2273 12:0.3636 13:20 14:4 15:0.301 16:0.3883 17:0.1359 18:0.165 19:0.3107 20:0.1183 21:1.29 22:0 23:0.1429 24:7 
-1 1:1 2:5 3:1 4:1 5:22 6:0.3636 7:1 8:1 9:2 10:0.4545 11:0.1364 12:0.1818 13:20 14:3 15:0.2887 16:0.3918 17:0.134 18:0.1546 19:0.3196 20:0.1034 21:1.5 22:0.1429 23:0.1364 24:10 
-1 1:4 2:5 3:-1 4:0 5:22 6:0.4091 7:1 8:1 9:2 10:0.3636 11:0.1818 12:0.2273 13:20 14:4 15:0.301 16:0.3883 17:0.1359 18:0.165 19:0.3107 20:0.1183 21:0.78 22:0 23:0.1429 24:7 
-0.5039895871807332 1:3 2:4 3:1 4:2 5:21 6:0.35 7:1 8:1 9:2 10:0.05 11:0.3 12:0.6 13:19 14:1 15:0.2533 16:0.4267 17:0.1067 18:0.1467 19:0.32 20:0.1077 21:0.6 22:0.1111 23:0.1667 24:21 
-0.0884120470306612 1:2 2:1 3:5 4:1 5:20 6:0.55 7:0 8:2 9:4 10:0.25 11:0.05 12:0.2 13:14 14:1 15:0.4595 16:0.2838 17:0.2568 18:0.2027 19:0.2568 20:0.2286 21:0.7 22:0.3333 23:0.1333 24:17 
-0.5722233772086797 1:4 2:-1 3:5 4:4 5:21 6:0.381 7:2 8:2 9:4 10:0.4762 11:0.3333 12:0.1429 13:16 14:-1 15:0.4286 16:0.3095 17:0.2143 18:0.2143 19:0.2619 20:0.1579 21:1 22:0.3226 23:-1 24:33 
-0.1018641275707721 1:4 2:1 3:5 4:1 5:21 6:0.35 7:0 8:2 9:5 10:0.4 11:0.25 12:0.25 13:13 14:4 15:0.4545 16:0.2879 17:0.2576 18:0.197 19:0.2576 20:0.2581 21:0.57 22:0.2632 23:0.0476 24:21 
-0.557437901311127 1:3 2:-1 3:5 4:4 5:22 6:0.5238 7:2 8:2 9:5 10:0.1429 11:0.1429 12:0.3333 13:16 14:2 15:0.4318 16:0.2955 17:0.2045 18:0.2273 19:0.2727 20:0.2 21:1 22:0.3 23:-1 24:32 
-0.3104707069648301 1:4 2:1 3:5 4:1 5:23 6:0.4783 7:1 8:2 9:5 10:0.2609 11:0.0435 12:0.2609 13:15 14:3 15:0.4412 16:0.2941 17:0.25 18:0.1912 19:0.2647 20:0.25 21:1.75 22:0.2778 23:0.0526 24:20 
-0.08003208724921619 1:4 2:1 3:2 4:1 5:27 6:0.2 7:1 8:7 9:1 10:0.5 11:0.15 12:0.3 13:20 14:3 15:0.2414 16:0.2931 17:0.1379 18:0.1034 19:0.4655 20:0.1321 21:1 22:0.1538 23:0.25 24:15 
-1 1:3 2:7 3:-1 4:0 5:21 6:0.3333 7:1 8:2 9:1 10:0.4286 11:0.2857 12:0.2381 13:19 14:4 15:0.2778 16:0.2917 17:0.1528 18:0.125 19:0.4306 20:0.1642 21:0.56 22:0 23:0.3333 24:8 
-0.0218445497999903 1:1 2:-1 3:2 4:1 5:31 6:0.2917 7:1 8:7 9:2 10:0.4583 11:0.125 12:0.25 13:22 14:4 15:0.25 16:0.2857 17:0.1429 18:0.1071 19:0.4643 20:0.1373 21:1.8 22:0.1429 23:-1 24:16 
-0.4756143876324023 1:4 2:1 3:2 4:1 5:27 6:0.3 7:1 8:7 9:1 10:0.45 11:0.15 12:0.25 13:20 14:4 15:0.2593 16:0.2778 17:0.1481 18:0.1111 19:0.463 20:0.1429 21:0.9 22:0.1333 23:0.5 24:17 
-1 1:4 2:6 3:2 4:1 5:23 6:0.1739 7:1 8:1 9:1 10:0.2609 11:0.0435 12:0.5652 13:22 14:1 15:0.25 16:0.2969 17:0.1406 18:0.1094 19:0.4531 20:0.1186 21:0.78 22:0.2 23:0.5 24:12 
-0.4925458834154048 1:4 2:3 3:-1 4:0 5:20 6:0.4 7:0 8:3 9:2 10:0.3 11:0.1 12:0.3 13:15 14:1 15:0.4381 16:0.2952 17:0.2286 18:0.2095 19:0.2667 20:0.2258 21:1 22:0 23:0.2075 24:3 
-0.01365444276152612 1:1 2:-1 3:1 4:1 5:24 6:0.4167 7:2 8:8 9:4 10:0.375 11:0.1667 12:0.2083 13:12 14:3 15:0.5091 16:0.2545 17:0.2182 18:0.2909 19:0.2364 20:0.3725 21:4 22:0.0909 23:0 24:9 
-0.04636928288003674 1:3 2:-1 3:1 4:1 5:29 6:0.5833 7:3 8:8 9:5 10:0.2083 11:0.4583 12:0.2083 13:16 14:1 15:0.5091 16:0.2545 17:0.2182 18:0.2909 19:0.2364 20:0.3725 21:1 22:0.0909 23:-1 24:9 
-0.7685408905851007 1:1 2:1 3:-1 4:0 5:20 6:0.25 7:0 8:-1 9:0 10:0.4 11:0.15 12:0.35 13:20 14:4 15:0.2632 16:0.3333 17:0.1579 18:0.1053 19:0.4035 20:0.0204 21:1 22:0 23:0.1111 24:14 
-0.4735699400510504 1:1 2:1 3:-1 4:0 5:21 6:0.2381 7:0 8:-1 9:0 10:0.4286 11:0.1429 12:0.3333 13:21 14:1 15:0.2542 16:0.339 17:0.1525 18:0.1017 19:0.4068 20:0.0196 21:1 22:0 23:0.1111 24:13 
-0.08121545803415298 1:1 2:-1 3:-1 4:0 5:23 6:0.2727 7:0 8:1 9:1 10:0.4091 11:0.1364 12:0.3182 13:22 14:4 15:0.2632 16:0.3333 17:0.1579 18:0.1053 19:0.4035 20:0.0204 21:1 22:0 23:0 24:14 
-1 1:1 2:3 3:1 4:1 5:20 6:0.5 7:0 8:1 9:2 10:0.3 11:0.15 12:0.2 13:18 14:4 15:0.3871 16:0.3065 17:0.1935 18:0.1935 19:0.3065 20:0.1379 21:0.7 22:0.0476 23:0.2632 24:12 
-1 1:3 2:3 3:-1 4:0 5:22 6:0.4286 7:0 8:1 9:3 10:0.3333 11:0.2381 12:0.2381 13:19 14:4 15:0.3881 16:0.3134 17:0.194 18:0.194 19:0.2985 20:0.1429 21:1.29 22:0 23:0.2381 24:10 
-0.420227119029587 1:4 2:-1 3:1 4:2 5:21 6:0.3333 7:1 8:3 9:2 10:0.381 11:0.0476 12:0.2857 13:17 14:3 15:0.3265 16:0.3265 17:0.1633 18:0.1633 19:0.3469 20:0.1556 21:1.12 22:0.0588 23:0 24:20 
-1 1:4 2:4 3:-1 4:0 5:21 6:0.2381 7:0 8:2 9:1 10:0.5238 11:0.0952 12:0.2381 13:19 14:4 15:0.3043 16:0.3623 17:0.1594 18:0.1449 19:0.3333 20:0.1935 21:1 22:0 23:0.4545 24:10 
-0.2156028514359947 1:1 2:5 3:-1 4:0 5:24 6:0.381 7:3 8:5 9:2 10:0.2857 11:0.2857 12:0.3333 13:17 14:4 15:0.2887 16:0.3711 17:0.1237 18:0.1649 19:0.3402 20:0.2527 21:0.44 22:0 23:0.2609 24:4 
-0.8032649963476833 1:1 2:5 3:-1 4:0 5:21 6:0.4762 7:4 8:5 9:2 10:0.1905 11:0.2381 12:0.3333 13:14 14:4 15:0.2929 16:0.3636 17:0.1212 18:0.1717 19:0.3434 20:0.2473 21:1.67 22:0 23:0.2222 24:3 
-0.2370534705749733 1:3 2:5 3:-1 4:0 5:27 6:0.4167 7:4 8:5 9:2 10:0.2917 11:0.3333 12:0.2917 13:20 14:1 15:0.3069 16:0.3564 17:0.1287 18:0.1782 19:0.3366 20:0.2421 21:1 22:-1 23:0.2727 24:1 
-1 1:2 2:3 3:2 4:1 5:21 6:0.45 7:2 8:2 9:3 10:0.25 11:0.05 12:0.3 13:17 14:1 15:0.3676 16:0.2941 17:0.1765 18:0.1912 19:0.3382 20:0.2308 21:1 22:0.125 23:0.3846 24:11 
-0.3929266341086874 1:1 2:2 3:2 4:1 5:23 6:0.4783 7:2 8:2 9:4 10:0.1739 11:0.4348 12:0.3478 13:18 14:1 15:0.3571 16:0.3 17:0.1714 18:0.1857 19:0.3429 20:0.2239 21:0.8 22:0.1429 23:0.3333 24:10 
-0.3327363593016791 1:2 2:1 3:2 4:3 5:20 6:0.35 7:1 8:3 9:3 10:0.35 11:0.1 12:0.3 13:15 14:4 15:0.3111 16:0.3556 17:0.1778 18:0.1333 19:0.3333 20:0.2381 21:1.17 22:0.1795 23:0.5 24:23 
-1 1:3 2:1 3:3 4:1 5:22 6:0.5455 7:1 8:2 9:3 10:0.0909 11:0.2727 12:0.3636 13:18 14:4 15:0.4227 16:0.268 17:0.2165 18:0.2062 19:0.3093 20:0.1489 21:1.67 22:0.6 23:0.1538 24:7 
-0.8401470605383896 1:1 2:1 3:3 4:1 5:23 6:0.4348 7:1 8:2 9:4 10:0.1304 11:0.2609 12:0.4348 13:18 14:3 15:0.3978 16:0.2796 17:0.2043 18:0.1935 19:0.3226 20:0.1556 21:1.75 22:0.4286 23:0.1304 24:9 
-0.2104233302696429 1:3 2:1 3:3 4:2 5:22 6:0.4545 7:1 8:1 9:4 10:0.2273 11:0.3182 12:0.3182 13:18 14:3 15:0.4177 16:0.2785 17:0.2278 18:0.1899 19:0.3038 20:0.1316 21:1.14 22:0.3571 23:0.1176 24:16 
-0.08823840083840023 1:1 2:1 3:3 4:5 5:20 6:0.4 7:1 8:1 9:2 10:0.5 11:0.35 12:0.1 13:18 14:2 15:0.4 16:0.2889 17:0.2222 18:0.1778 19:0.3111 20:0.0952 21:1.29 22:0.2581 23:0.5 24:33 
-0.6520365060228587 1:3 2:1 3:3 4:2 5:21 6:0.4286 7:1 8:1 9:4 10:0.2381 11:0.3333 12:0.3333 13:17 14:3 15:0.4026 16:0.2857 17:0.2208 18:0.1818 19:0.3117 20:0.1351 21:1.14 22:0.3333 23:0.1176 24:17 
-0.5133425624756955 1:4 2:-1 3:3 4:5 5:22 6:0.4091 7:1 8:1 9:3 10:0.0455 11:0.0455 12:0.5455 13:19 14:2 15:0.4 16:0.2889 17:0.2222 18:0.1778 19:0.3111 20:0.0952 21:1.17 22:0.2581 23:-1 24:33 
-0.4705486341713328 1:4 2:1 3:2 4:1 5:24 6:0.3333 7:1 8:2 9:4 10:0.375 11:0.2083 12:0.2917 13:19 14:4 15:0.4242 16:0.2626 17:0.2222 18:0.202 19:0.3131 20:0.1667 21:0.6 22:0.5 23:0.16 24:6 
-0.08417943983918928 1:2 2:1 3:4 4:1 5:27 6:0.4783 7:0 8:3 9:5 10:0.2174 11:0.2609 12:0.3043 13:18 14:2 15:0.4754 16:0.3279 17:0.2459 18:0.2295 19:0.1967 20:0.2727 21:1 22:0.2381 23:0.3333 24:16 
-0.01696623165561317 1:2 2:-1 3:1 4:1 5:21 6:0.381 7:2 8:9 9:2 10:0.381 11:0.1905 12:0.2381 13:10 14:1 15:0.4375 16:0.3125 17:0.125 18:0.3125 19:0.25 20:0.3182 21:0.56 22:0.0588 23:0 24:24 
-0.01784400402836838 1:1 2:-1 3:1 4:1 5:21 6:0.3333 7:1 8:9 9:2 10:0.5238 11:0.1905 12:0.1429 13:10 14:1 15:0.3889 16:0.3333 17:0.1111 18:0.2778 19:0.2778 20:0.28 21:1.8 22:0.0714 23:0 24:21 
-0.03212609144023053 1:1 2:-1 3:1 4:1 5:28 6:0.5238 7:3 8:9 9:3 10:0.3333 11:0.5238 12:0.1429 13:16 14:-1 15:0.42 16:0.32 17:0.12 18:0.3 19:0.26 20:0.3043 21:1 22:0.0625 23:-1 24:23 
-0.02109276763074645 1:1 2:-1 3:1 4:1 5:32 6:0.4583 7:3 8:9 9:2 10:0.2917 11:0.375 12:0.25 13:21 14:4 15:0.4032 16:0.3226 17:0.129 18:0.2742 19:0.2742 20:0.2414 21:0.9 22:0.1 23:0 24:17 
-0.009612260530142389 1:3 2:-1 3:1 4:1 5:31 6:0.5217 7:3 8:9 9:3 10:0.2609 11:0.4783 12:0.2174 13:19 14:4 15:0.4107 16:0.3214 17:0.125 18:0.2857 19:0.2679 20:0.2692 21:0.78 22:0.0769 23:-1 24:20 
-1 1:2 2:6 3:-1 4:0 5:22 6:0.5 7:1 8:1 9:2 10:0.1818 11:0.3636 12:0.3182 13:20 14:4 15:0.4299 16:0.2804 17:0.2243 18:0.2056 19:0.2897 20:0.1485 21:0.64 22:-1 23:0.193 24:1 
-0.2298319402744989 1:3 2:6 3:1 4:1 5:24 6:0.4583 7:0 8:1 9:2 10:0.3333 11:0.3333 12:0.2083 13:22 14:4 15:0.4177 16:0.2911 17:0.2278 18:0.1899 19:0.2911 20:0.1507 21:1.29 22:0.0769 23:0.28 24:15 
-1 1:3 2:5 3:1 4:1 5:22 6:0.5 7:0 8:1 9:3 10:0.3636 11:0.3182 12:0.1364 13:19 14:2 15:0.4366 16:0.2817 17:0.2394 18:0.1972 19:0.2817 20:0.1692 21:1.83 22:0.0588 23:0.2727 24:19 
-1 1:4 2:6 3:1 4:1 5:22 6:0.4545 7:0 8:1 9:2 10:0.3182 11:0.3182 12:0.2273 13:20 14:4 15:0.4026 16:0.2987 17:0.2208 18:0.1818 19:0.2987 20:0.1549 21:1.12 22:0.0714 23:0.2593 24:16 
-1 1:2 2:6 3:-1 4:0 5:20 6:0.45 7:1 8:1 9:2 10:0.2 11:0.35 12:0.35 13:18 14:2 15:0.4299 16:0.2804 17:0.2243 18:0.2056 19:0.2897 20:0.1485 21:0.78 22:-1 23:0.1803 24:1 
-0.2634196274884633 1:4 2:-1 3:2 4:2 5:22 6:0.3182 7:0 8:3 9:3 10:0.3636 11:0.2273 12:0.3182 13:16 14:1 15:0.2742 16:0.2903 17:0.1452 18:0.129 19:0.4355 20:0.2143 21:1.17 22:0.1282 23:0 24:22 
-0.07118876169596319 1:4 2:-1 3:2 4:2 5:20 6:0.35 7:0 8:3 9:3 10:0.3 11:0.25 12:0.35 13:14 14:4 15:0.2656 16:0.2969 17:0.1406 18:0.125 19:0.4375 20:0.2069 21:4.5 22:0.1351 23:0 24:21 
-1 1:4 2:1 3:2 4:2 5:21 6:0.2857 7:0 8:2 9:3 10:0.2381 11:0.0476 12:0.4762 13:16 14:1 15:0.2794 16:0.2941 17:0.1471 18:0.1324 19:0.4265 20:0.1935 21:0.56 22:0.1515 23:0.1 24:19 
-0.2271964108615364 1:2 2:3 3:-1 4:0 5:22 6:0.3636 7:0 8:2 9:3 10:0.3182 11:0.1364 12:0.3182 13:18 14:1 15:0.301 16:0.301 17:0.1553 18:0.1456 19:0.3981 20:0.1959 21:0.89 22:-1 23:0.2222 24:1 
-0.03194146886799114 1:4 2:-1 3:4 4:2 5:22 6:0.3636 7:3 8:2 9:3 10:0.0909 11:0.1818 12:0.5455 13:17 14:1 15:0.3333 16:0.25 17:0.1667 18:0.1667 19:0.4167 20:0.1905 21:0.7 22:0.3333 23:-1 24:19 
-0.2438670910538908 1:4 2:-1 3:-1 4:0 5:21 6:0.381 7:0 8:-1 9:0 10:0.3333 11:0.1905 12:0.2857 13:21 14:4 15:0.3529 16:0.3382 17:0.1765 18:0.1765 19:0.3088 20:0 21:0.82 22:-1 23:0 24:6 
-0.5056734254846074 1:4 2:-1 3:-1 4:0 5:22 6:0.3636 7:0 8:-1 9:0 10:0.2727 11:0.1818 12:0.3636 13:22 14:4 15:0.3529 16:0.3382 17:0.1765 18:0.1765 19:0.3088 20:0 21:1.11 22:-1 23:0 24:4 
-0.4057666887411073 1:4 2:-1 3:1 4:1 5:24 6:0.381 7:0 8:3 9:1 10:0.3333 11:0.1905 12:0.2857 13:21 14:4 15:0.338 16:0.3239 17:0.169 18:0.169 19:0.338 20:0.0448 21:0.82 22:0.0588 23:0 24:11 
-0.493840950629199 1:3 2:-1 3:2 4:2 5:20 6:0.4 7:0 8:1 9:1 10:0.25 11:0.2 12:0.35 13:19 14:1 15:0.3692 16:0.2923 17:0.1846 18:0.1846 19:0.3385 20:0.0164 21:1.57 22:0.1304 23:0 24:15 
-0.4692857026637465 1:1 2:12 3:1 4:1 5:23 6:0.3478 7:1 8:1 9:1 10:0.1739 11:0.1739 12:0.4783 13:22 14:4 15:0.3333 16:0.2778 17:0.1806 18:0.1528 19:0.3889 20:0.2353 21:1.29 22:0.0556 23:0.6364 24:20 
-0.06277501920978816 1:3 2:-1 3:1 4:1 5:31 6:0.381 7:1 8:12 9:2 10:0.4286 11:0.1905 12:0.1905 13:18 14:4 15:0.3276 16:0.2759 17:0.1897 18:0.1379 19:0.3966 20:0.2963 21:0.8 22:0.04 23:0 24:27 
-0.03531114410906385 1:3 2:-1 3:1 4:1 5:33 6:0.3913 7:1 8:12 9:2 10:0.4348 11:0.2174 12:0.1739 13:20 14:1 15:0.3387 16:0.2742 17:0.1935 18:0.1452 19:0.3871 20:0.2759 21:0.8 22:0.0435 23:0 24:25 
-0.5111189812918827 1:2 2:12 3:-1 4:0 5:24 6:0.3333 7:1 8:1 9:1 10:0.5417 11:0.25 12:0.125 13:23 14:2 15:0.3235 16:0.3039 17:0.1765 18:0.1471 19:0.3725 20:0.1837 21:1 22:0 23:0.32 24:5 
-1 1:4 2:12 3:-1 4:0 5:20 6:0.35 7:0 8:1 9:2 10:0.55 11:0.35 12:0.1 13:18 14:2 15:0.3455 16:0.2909 17:0.1818 18:0.1636 19:0.3636 20:0.1887 21:1 22:-1 23:0.2424 24:1 
-0.5048540849962121 1:4 2:12 3:-1 4:0 5:24 6:0.3333 7:1 8:1 9:1 10:0.125 11:0.0833 12:0.5417 13:23 14:2 15:0.3235 16:0.3039 17:0.1765 18:0.1471 19:0.3725 20:0.1837 21:1 22:0 23:0.32 24:5 
-1 1:2 2:12 3:-1 4:0 5:20 6:0.3 7:1 8:1 9:1 10:0.15 11:0.05 12:0.55 13:19 14:1 15:0.3163 16:0.3061 17:0.1735 18:0.1429 19:0.3776 20:0.1915 21:1.11 22:0 23:0.2963 24:7 
