svm_type c_svc
kernel_type rbf
gamma 0.0434783
nr_class 2
total_sv 552
rho 0.708721
label 1 0
probA -4.88248
probB -0.632314
nr_sv 103 449
SV
0.918403633516189 1:4 2:2 3:7 4:23 5:0.4348 6:2 7:2 8:0.2174 9:0.2174 10:0.2174 11:0.3478 12:8 13:0.1111 14:4 15:0.4407 16:59 17:0.2542 18:0.2203 19:0.2203 20:0.3051 21:0.2143 22:0.7 23:0.6923 
0.4708436897667047 1:4 2:2 3:9 4:22 5:0.381 6:2 7:2 8:0.2381 9:0.1905 10:0.1905 11:0.381 12:47 13:0.1163 14:4 15:0.4426 16:61 17:0.2459 18:0.2131 19:0.2295 20:0.3115 21:0.2069 22:1 23:0.5294 
1 1:-1 2:0 3:5 4:22 5:0.5 6:3 7:2 8:0.2273 9:0.2727 10:0.2273 11:0.2727 12:16 13:0.2381 14:1 15:0.4821 16:56 17:0.2679 18:0.2321 19:0.25 20:0.25 21:0.1923 22:5 23:0 
0.8236053388705041 1:-1 2:0 3:5 4:24 5:0.5 6:3 7:3 8:0.3182 9:0.1818 10:0.3182 11:0.1818 12:52 13:0.3043 14:2 15:0.4833 16:60 17:0.25 18:0.2167 19:0.2667 20:0.2667 21:0.25 22:1.6 23:0 
0.003162402833407521 1:1 2:1 3:3 4:23 5:0.3043 6:2 7:2 8:0.3913 9:0.1739 10:0.1304 11:0.3043 12:61 13:0.1111 14:3 15:0.4032 16:62 17:0.2903 18:0.1613 19:0.2419 20:0.3065 21:0.102 22:1.67 23:0.3333 
1 1:1 2:1 3:2 4:23 5:0.5217 6:2 7:2 8:0.2174 9:0.1304 10:0.3913 11:0.2609 12:26 13:0.1111 14:1 15:0.4643 16:56 17:0.2679 18:0.1786 19:0.2857 20:0.2679 21:0.1064 22:1.11 23:0.5 
0.3186227390830915 1:1 2:1 3:5 4:24 5:0.3913 6:2 7:3 8:0.3043 9:0.2174 10:0.1739 11:0.3043 12:63 13:0.1304 14:3 15:0.4603 16:63 17:0.2698 18:0.1746 19:0.2857 20:0.2698 21:0.1111 22:1 23:0.2 
1 1:2 2:2 3:9 4:22 5:0.4545 6:3 7:2 8:0.2273 9:0.2727 10:0.1818 11:0.3182 12:59 13:0.2273 14:3 15:0.4769 16:65 17:0.2154 18:0.1692 19:0.3077 20:0.3077 21:0.2459 22:1.12 23:0.2941 
0.6559343322955532 1:2 2:2 3:8 4:23 5:0.4545 6:1 7:4 8:0.2273 9:0.1818 10:0.2727 11:0.3182 12:21 13:0.1364 14:3 15:0.5333 16:60 17:0.1667 18:0.3 19:0.2333 20:0.3 21:0.1579 22:1.67 23:0.3333 
0.278499130458203 1:2 2:2 3:10 4:23 5:0.6364 6:1 7:4 8:0.1364 9:0.4091 10:0.2273 11:0.2273 12:61 13:0.1364 14:2 15:0.5156 16:64 17:0.1719 18:0.2812 19:0.2344 20:0.3125 21:0.1475 22:0.67 23:0.2632 
1 1:1 2:1 3:3 4:23 5:0.4783 6:2 7:4 8:0.2609 9:0.2609 10:0.2174 11:0.2609 12:21 13:0.2174 14:4 15:0.4909 16:55 17:0.2 18:0.2545 19:0.2364 20:0.3091 21:0.2157 22:1 23:0.2 
0.4117589696367043 1:2 2:1 3:6 4:21 5:0.5238 6:2 7:3 8:0.1429 9:0.2381 10:0.2857 11:0.3333 12:56 13:0.1905 14:4 15:0.4737 16:57 17:0.2105 18:0.2456 19:0.2281 20:0.3158 21:0.2075 22:1.43 23:0.2727 
0.7341755560408129 1:2 2:2 3:6 4:22 5:0.5 6:2 7:4 8:0.1818 9:0.2273 10:0.2727 11:0.3182 12:24 13:0.2727 14:1 15:0.4737 16:57 17:0.2456 18:0.2105 19:0.2632 20:0.2807 21:0.2963 22:0.38 23:0.5 
1 1:1 2:2 3:4 4:22 5:0.5 6:1 7:2 8:0.2273 9:0.3182 10:0.1818 11:0.2727 12:22 13:0.0698 14:2 15:0.5094 16:53 17:0.2075 18:0.2453 19:0.2642 20:0.283 21:0.0833 22:1.1 23:0.4286 
0.6829135679618985 1:1 2:2 3:6 4:23 5:0.5 6:1 7:3 8:0.2273 9:0.1364 10:0.3636 11:0.2727 12:56 13:0.0909 14:2 15:0.5 16:58 17:0.2069 18:0.2414 19:0.2586 20:0.2931 21:0.0943 22:1.5 23:0.2727 
1 1:-1 2:0 3:4 4:22 5:0.5455 6:5 7:3 8:0.1818 9:0.3636 10:0.1818 11:0.2727 12:62 13:0.3182 14:2 15:0.4375 16:64 17:0.2969 18:0.2656 19:0.1719 20:0.2656 21:0.2692 22:1.67 23:0 
1 1:3 2:3 3:14 4:24 5:0.4348 6:3 7:3 8:0.1739 9:0.1739 10:0.2609 11:0.3913 12:21 13:0.1739 14:3 15:0.4533 16:75 17:0.2933 18:0.2133 19:0.24 20:0.2533 21:0.2286 22:1.11 23:0.3846 
1 1:-1 2:0 3:4 4:27 5:0.5652 6:4 7:4 8:0.1304 9:0.4348 10:0.1304 11:0.3043 12:19 13:0.1837 14:3 15:0.5556 16:63 17:0.1905 18:0.2857 19:0.2698 20:0.254 21:0.1579 22:1.57 23:0 
0.2176946029949542 1:4 2:1 3:9 4:22 5:0.5238 6:1 7:3 8:0.3333 9:0.0952 10:0.4286 11:0.1429 12:61 13:0.0952 14:4 15:0.5556 16:63 17:0.1905 18:0.2857 19:0.2698 20:0.254 21:0.1579 22:0.73 23:0.3333 
1 1:3 2:2 3:7 4:24 5:0.5833 6:3 7:4 8:0.125 9:0.3333 10:0.25 11:0.2917 12:48 13:0.25 14:4 15:0.5231 16:65 17:0.2154 18:0.2615 19:0.2615 20:0.2615 21:0.3 22:0.78 23:0.5714 
0.7211796050192369 1:1 2:1 3:7 4:22 5:0.4091 6:2 7:5 8:0.3182 9:0.1818 10:0.2273 11:0.2727 12:60 13:0.2558 14:3 15:0.4 16:60 17:0.25 18:0.2167 19:0.1833 20:0.35 21:0.2143 22:0.86 23:0.0769 
0.0005847199890640115 1:1 2:2 3:7 4:24 5:0.3043 6:3 7:2 8:0.2609 9:0.087 10:0.2174 11:0.4348 12:59 13:0.1304 14:2 15:0.3333 16:63 17:0.3175 18:0.1429 19:0.1905 20:0.3492 21:0.1379 22:0.67 23:0.2857 
0.8174491868396399 1:1 2:1 3:4 4:21 5:0.381 6:2 7:3 8:0.2857 9:0.1429 10:0.2381 11:0.3333 12:58 13:0.1707 14:4 15:0.4464 16:56 17:0.2143 18:0.1786 19:0.2679 20:0.3393 21:0.1489 22:0.6 23:0.25 
1 1:2 2:2 3:10 4:22 5:0.6364 6:2 7:4 8:0.1364 9:0.2273 10:0.4091 11:0.2273 12:61 13:0.2727 14:1 15:0.5692 16:65 17:0.1231 18:0.2615 19:0.3077 20:0.3077 21:0.2459 22:1.4 23:0.1765 
0.3996743199525503 1:-1 2:0 3:0 4:23 5:0.4783 6:2 7:3 8:0.2609 9:0.2174 10:0.2609 11:0.2609 12:9 13:0.1556 14:2 15:0.5085 16:59 17:0.2373 18:0.2712 19:0.2373 20:0.2542 21:0.1556 22:0.4 23:-1 
0.7636525801213587 1:-1 2:0 3:2 4:23 5:0.6364 6:2 7:4 8:0.1818 9:0.2727 10:0.3636 11:0.1818 12:48 13:0.1818 14:4 15:0.5161 16:62 17:0.2258 18:0.2742 19:0.2419 20:0.2581 21:0.1667 22:3.33 23:0 
0.6232016116097568 1:1 2:1 3:3 4:24 5:0.4348 6:2 7:4 8:0.3043 9:0.1739 10:0.2609 11:0.2609 12:8 13:0.1739 14:1 15:0.4182 16:55 17:0.2909 18:0.2 19:0.2182 20:0.2909 21:0.16 22:0.86 23:0.3333 
1 1:-1 2:0 3:0 4:23 5:0.5652 6:4 7:3 8:0.1304 9:0.2174 10:0.3478 11:0.3043 12:17 13:0.3043 14:1 15:0.5556 16:54 17:0.1296 18:0.2778 19:0.2778 20:0.3148 21:0.3043 22:0.75 23:-1 
0.1470683809726205 1:2 2:2 3:4 4:23 5:0.5217 6:3 7:3 8:0.2174 9:0.2174 10:0.3043 11:0.2609 12:21 13:0.2 14:4 15:0.4821 16:56 17:0.1964 18:0.2321 19:0.25 20:0.3214 21:0.2549 22:0.75 23:0.75 
0.6218885372415108 1:2 2:1 3:6 4:23 5:0.5652 6:2 7:4 8:0.2609 9:0.2174 10:0.3478 11:0.1739 12:20 13:0.2 14:1 15:0.5397 16:63 17:0.1905 18:0.2857 19:0.254 20:0.2698 21:0.2281 22:1 23:0.3333 
0.6492045741394165 1:2 2:2 3:8 4:23 5:0.5455 6:2 7:3 8:0.2273 9:0.4091 10:0.1364 11:0.2273 12:63 13:0.1556 14:3 15:0.5224 16:67 17:0.209 18:0.2687 19:0.2537 20:0.2687 21:0.2459 22:2.75 23:0.5 
1 1:1 2:2 3:8 4:24 5:0.5217 6:3 7:3 8:0.0435 9:0.2609 10:0.2609 11:0.4348 12:63 13:0.2174 14:2 15:0.5143 16:70 17:0.2 18:0.2429 19:0.2714 20:0.2857 21:0.1864 22:1.29 23:0.2 
0.07630728877673582 1:3 2:1 3:5 4:23 5:0.5217 6:2 7:2 8:0.3043 9:0.2609 10:0.2609 11:0.1739 12:7 13:0.1111 14:2 15:0.5254 16:59 17:0.1864 18:0.2203 19:0.3051 20:0.2881 21:0.2 22:0.42 23:0.6 
0.3443603106757437 1:1 2:2 3:7 4:23 5:0.5455 6:2 7:2 8:0 9:0.1818 10:0.3636 11:0.4545 12:44 13:0.1111 14:1 15:0.5246 16:61 17:0.1639 18:0.2131 19:0.3115 20:0.3115 21:0.1071 22:2 23:0.2308 
0.1534358876286858 1:1 2:2 3:5 4:22 5:0.4091 6:4 7:1 8:0.3636 9:0.2273 10:0.1818 11:0.2273 12:21 13:0.1818 14:1 15:0.375 16:56 17:0.2321 18:0.1964 19:0.1786 20:0.3929 21:0.1765 22:1 23:0.3333 
1 1:1 2:2 3:7 4:21 5:0.2857 6:4 7:1 8:0.1429 9:0.1429 10:0.1429 11:0.5714 12:57 13:0.1905 14:4 15:0.3621 16:58 17:0.2414 18:0.1897 19:0.1724 20:0.3966 21:0.1698 22:0.89 23:0.2308 
1 1:1 2:1 3:3 4:34 5:0.5217 6:12 7:6 8:0.2609 9:0.1739 10:0.3478 11:0.2174 12:53 13:0.4386 14:3 15:0.4783 16:69 17:0.2319 18:0.1594 19:0.3188 20:0.2899 21:0.4286 22:3.5 23:0.3333 
1 1:4 2:1 3:10 4:24 5:0.2727 6:2 7:3 8:0.2273 9:0.1364 10:0.1364 11:0.5 12:56 13:0.1111 14:4 15:0.3284 16:67 17:0.3582 18:0.1493 19:0.1791 20:0.3134 21:0.1475 22:0.89 23:0.25 
1 1:5 2:1 3:12 4:24 5:0.4783 6:1 7:4 8:0.3043 9:0.1739 10:0.3043 11:0.2174 12:55 13:0.1111 14:2 15:0.4638 16:69 17:0.2174 18:0.2029 19:0.2609 20:0.3188 21:0.1692 22:1.14 23:0.3 
0.3449579638980686 1:-1 2:0 3:2 4:23 5:0.4762 6:2 7:4 8:0.3333 9:0.1429 10:0.3333 11:0.1905 12:57 13:0.2273 14:4 15:0.4516 16:62 17:0.2581 18:0.2581 19:0.1935 20:0.2903 21:0.2083 22:1.25 23:0 
0.1754894186177579 1:1 2:1 3:3 4:22 5:0.5 6:2 7:2 8:0.3182 9:0.0909 10:0.4091 11:0.1818 12:42 13:0.1818 14:2 15:0.4746 16:59 17:0.2373 18:0.1864 19:0.2881 20:0.2881 21:0.1667 22:2.75 23:0.3333 
1 1:4 2:1 3:10 4:22 5:0.5 6:5 7:3 8:0.1818 9:0.1818 10:0.3182 11:0.3182 12:46 13:0.35 14:4 15:0.55 16:60 17:0.2 18:0.3 19:0.25 20:0.25 21:0.3214 22:3.5 23:0.25 
1 1:4 2:3 3:23 4:29 5:0.4783 6:7 7:3 8:0.2174 9:0.3043 10:0.1739 11:0.3043 12:4 13:0.2692 14:1 15:0.4792 16:96 17:0.2708 18:0.1979 19:0.2812 20:0.25 21:0.2609 22:0.9 23:0.25 
0.9010091742953255 1:1 2:1 3:2 4:22 5:0.3182 6:2 7:2 8:0.2727 9:0.0909 10:0.2273 11:0.4091 12:5 13:0.1364 14:2 15:0.3455 16:55 17:0.2727 18:0.1455 19:0.2 20:0.3818 21:0.1304 22:1.14 23:0.5 
1 1:1 2:2 3:4 4:22 5:0.4091 6:2 7:1 8:0.2727 9:0.2727 10:0.1364 11:0.3182 12:40 13:0.0909 14:4 15:0.3559 16:59 17:0.2712 18:0.1525 19:0.2034 20:0.3729 21:0.12 22:1 23:0.5 
1 1:-1 2:0 3:0 4:22 5:0.5 6:2 7:2 8:0.2727 9:0.1818 10:0.3182 11:0.2273 12:39 13:0.1163 14:1 15:0.5094 16:53 17:0.283 18:0.2642 19:0.2453 20:0.2075 21:0.1163 22:0.91 23:-1 
1 1:1 2:1 3:3 4:23 5:0.5455 6:3 7:3 8:0.0909 9:0.3182 10:0.2273 11:0.3636 12:64 13:0.2 14:3 15:0.5 16:56 17:0.2679 18:0.2321 19:0.2679 20:0.2321 21:0.1837 22:1.14 23:0.3333 
0.2792657392803081 1:2 2:1 3:6 4:27 5:0.5455 6:4 7:3 8:0.0455 9:0.1364 10:0.4091 11:0.4091 12:51 13:0.1837 14:2 15:0.6094 16:64 17:0.1406 18:0.2656 19:0.3438 20:0.25 21:0.2 22:1 23:0.2727 
0.3506676728312331 1:3 2:2 3:7 4:23 5:0.4348 6:2 7:2 8:0.2174 9:0.087 10:0.3478 11:0.3478 12:13 13:0.1111 14:2 15:0.4576 16:59 17:0.1864 18:0.1864 19:0.2712 20:0.3559 21:0.1481 22:1.11 23:0.4545 
1 1:1 2:1 3:2 4:23 5:0.5652 6:2 7:4 8:0.087 9:0.2174 10:0.3478 11:0.3478 12:17 13:0.2444 14:1 15:0.5357 16:56 17:0.1964 18:0.2321 19:0.3036 20:0.2679 21:0.234 22:1.25 23:0.5 
1 1:5 2:5 3:20 4:24 5:0.4783 6:1 7:4 8:0.3913 9:0.3043 10:0.1739 11:0.1304 12:70 13:0.1304 14:4 15:0.4048 16:84 17:0.2381 18:0.1905 19:0.2143 20:0.3571 21:0.2658 22:0.78 23:0.4857 
1 1:1 2:1 3:2 4:23 5:0.3478 6:1 7:2 8:0.3478 9:0.1304 10:0.2174 11:0.3043 12:12 13:0.0667 14:3 15:0.3889 16:54 17:0.2407 18:0.1481 19:0.2407 20:0.3704 21:0.0638 22:1 23:0.5 
1 1:1 2:2 3:8 4:20 5:0.35 6:1 7:1 8:0.2 9:0.1 10:0.25 11:0.45 12:49 13:0.05 14:4 15:0.4 16:60 17:0.2333 18:0.15 19:0.25 20:0.3667 21:0.0566 22:0.9 23:0.2 
0.562438314343344 1:-1 2:0 3:2 4:24 5:0.5 6:2 7:4 8:0.2727 9:0.2273 10:0.2727 11:0.2273 12:16 13:0.2174 14:3 15:0.5172 16:58 17:0.2759 18:0.2414 19:0.2759 20:0.2069 21:0.2 22:0.56 23:0 
1 1:1 2:2 3:6 4:24 5:0.4583 6:2 7:4 8:0.2083 9:0.0417 10:0.4167 11:0.3333 12:45 13:0.1739 14:2 15:0.4844 16:64 17:0.2188 18:0.1719 19:0.3125 20:0.2969 21:0.1636 22:0.57 23:0.2727 
0.7742558622185481 1:-1 2:0 3:3 4:23 5:0.4545 6:1 7:4 8:0.1364 9:0.3182 10:0.1364 11:0.4091 12:58 13:0.1556 14:3 15:0.4462 16:65 17:0.2615 18:0.2308 19:0.2154 20:0.2923 21:0.1373 22:1.14 23:0 
0.6433424313683014 1:-1 2:0 3:0 4:22 5:0.5455 6:2 7:3 8:0.0909 9:0.2727 10:0.2727 11:0.3636 12:7 13:0.1818 14:2 15:0.4643 16:56 17:0.2679 18:0.25 19:0.2143 20:0.2679 21:0.1818 22:0.6 23:-1 
0.7765428256125522 1:-1 2:0 3:2 4:22 5:0.4545 6:2 7:3 8:0.4091 9:0.1818 10:0.2727 11:0.1364 12:43 13:0.1818 14:1 15:0.4667 16:60 17:0.2667 18:0.25 19:0.2167 20:0.2667 21:0.1667 22:1 23:0 
0.613388779672388 1:1 2:1 3:2 4:22 5:0.6364 6:3 7:4 8:0.2727 9:0.3636 10:0.2727 11:0.0909 12:53 13:0.2727 14:3 15:0.5246 16:61 17:0.2623 18:0.2951 19:0.2295 20:0.2131 21:0.2609 22:4.5 23:0.5 
0.07614920356234044 1:2 2:2 3:4 4:23 5:0.4348 6:1 7:3 8:0.3913 9:0.3043 10:0.1304 11:0.1739 12:17 13:0.1111 14:1 15:0.4333 16:60 17:0.2333 18:0.1667 19:0.2667 20:0.3333 21:0.1765 22:0.8 23:0.75 
0.01558373966444776 1:2 2:1 3:6 4:23 5:0.5909 6:2 7:3 8:0.1818 9:0.4091 10:0.1818 11:0.2273 12:52 13:0.1556 14:4 15:0.5385 16:65 17:0.2154 18:0.2769 19:0.2615 20:0.2462 21:0.193 22:1 23:0.3333 
1 1:5 2:2 3:10 4:22 5:0.4545 6:4 7:2 8:0.2273 9:0.3182 10:0.1364 11:0.3182 12:11 13:0.2273 14:4 15:0.5238 16:63 17:0.2222 18:0.2857 19:0.2381 20:0.254 21:0.2759 22:1.29 23:0.5 
1 1:6 2:2 3:13 4:22 5:0.4545 6:4 7:2 8:0.2727 9:0.0455 10:0.4091 11:0.2727 12:55 13:0.3182 14:3 15:0.5217 16:69 17:0.2029 18:0.2754 19:0.2464 20:0.2754 21:0.3438 22:4.5 23:0.4545 
0.9861724191737684 1:1 2:1 3:4 4:26 5:0.7083 6:3 7:4 8:0.125 9:0.2917 10:0.4167 11:0.1667 12:43 13:0.2245 14:1 15:0.5833 16:60 17:0.1833 18:0.2833 19:0.3 20:0.2333 21:0.2143 22:1.29 23:0.1429 
1 1:1 2:2 3:7 4:24 5:0.5217 6:3 7:4 8:0.2174 9:0.2174 10:0.3043 11:0.2609 12:56 13:0.2174 14:4 15:0.5312 16:64 17:0.2031 18:0.3125 19:0.2188 20:0.2656 21:0.193 22:1 23:0.2308 
1 1:1 2:1 3:3 4:21 5:0.55 6:1 7:3 8:0.25 9:0.3 10:0.25 11:0.2 12:53 13:0.1 14:1 15:0.4912 16:57 17:0.2105 18:0.2105 19:0.2807 20:0.2982 21:0.0909 22:1 23:0.3333 
0.8722081766940162 1:1 2:2 3:6 4:23 5:0.5217 6:5 7:4 8:0.1304 9:0.3478 10:0.1739 11:0.3478 12:11 13:0.3182 14:1 15:0.5079 16:63 17:0.2222 18:0.2381 19:0.2698 20:0.2698 21:0.2963 22:0.75 23:0.3333 
1 1:1 2:2 3:7 4:24 5:0.5455 6:5 7:4 8:0.3182 9:0.2273 10:0.3182 11:0.1364 12:54 13:0.3478 14:3 15:0.4925 16:67 17:0.2239 18:0.2239 19:0.2687 20:0.2836 21:0.3103 22:2.2 23:0.2857 
0.2383362494013963 1:1 2:2 3:8 4:22 5:0.5455 6:2 7:3 8:0.1364 9:0.2273 10:0.3182 11:0.3182 12:49 13:0.2273 14:1 15:0.5 16:62 17:0.2097 18:0.1774 19:0.3226 20:0.2903 21:0.193 22:1 23:0.2 
1 1:1 2:1 3:4 4:28 5:0.4783 6:5 7:4 8:0.2609 9:0.2174 10:0.2609 11:0.2609 12:6 13:0.24 14:1 15:0.4754 16:61 17:0.2459 18:0.2295 19:0.2459 20:0.2787 21:0.2143 22:0.5 23:0.25 
1 1:5 2:2 3:11 4:23 5:0.4545 6:2 7:3 8:0.1364 9:0.1364 10:0.3182 11:0.4091 12:47 13:0.1556 14:1 15:0.4769 16:65 17:0.2462 18:0.2308 19:0.2462 20:0.2769 21:0.2 22:0.9 23:0.4118 
1 1:1 2:1 3:3 4:24 5:0.4348 6:3 7:3 8:0.3478 9:0.2174 10:0.2174 11:0.2174 12:17 13:0.1739 14:2 15:0.4561 16:57 17:0.2105 18:0.2281 19:0.2281 20:0.3333 21:0.16 22:0.9 23:0.3333 
1 1:3 2:2 3:9 4:23 5:0.5217 6:2 7:3 8:0.1739 9:0.3043 10:0.2174 11:0.3043 12:51 13:0.1556 14:2 15:0.5373 16:67 17:0.1343 18:0.209 19:0.3284 20:0.3284 21:0.2459 22:1.12 23:0.5 
1 1:3 2:1 3:6 4:22 5:0.4545 6:2 7:3 8:0.0909 9:0.2727 10:0.1818 11:0.4545 12:12 13:0.1628 14:4 15:0.5 16:56 17:0.1964 18:0.25 19:0.25 20:0.3036 21:0.1923 22:0.78 23:0.3333 
0.3129690144626558 1:2 2:1 3:8 4:23 5:0.5909 6:1 7:4 8:0.1818 9:0.1818 10:0.4091 11:0.2273 12:58 13:0.1556 14:2 15:0.5873 16:63 17:0.2063 18:0.254 19:0.3333 20:0.2063 21:0.1525 22:1.11 23:0.1429 
1 1:8 2:1 3:13 4:21 5:0.4286 6:1 7:4 8:0.5238 9:0.2381 10:0.1905 11:0.0476 12:55 13:0.1707 14:4 15:0.5143 16:70 17:0.3 18:0.2143 19:0.3 20:0.1857 21:0.3333 22:1 23:0.6 
1 1:2 2:3 3:16 4:22 5:0.4286 6:1 7:4 8:0.4762 9:0.1905 10:0.2381 11:0.0952 12:62 13:0.1628 14:4 15:0.3289 16:76 17:0.3553 18:0.1579 19:0.1711 20:0.3158 21:0.1831 22:1 23:0.2667 
0.1999567517114542 1:2 2:1 3:5 4:23 5:0.5652 6:2 7:5 8:0.1739 9:0.3043 10:0.2609 11:0.2609 12:55 13:0.2889 14:1 15:0.5714 16:63 17:0.1746 18:0.3016 19:0.2698 20:0.254 21:0.3091 22:1.2 23:0.4 
1 1:3 2:1 3:8 4:22 5:0.3182 6:4 7:3 8:0.2727 9:0.1364 10:0.1818 11:0.4091 12:54 13:0.3182 14:1 15:0.4603 16:63 17:0.1746 18:0.1587 19:0.3016 20:0.3651 21:0.322 22:3 23:0.3333 
0.5500651939797983 1:-1 2:0 3:1 4:24 5:0.3333 6:2 7:3 8:0.375 9:0.0833 10:0.25 11:0.2917 12:16 13:0.1489 14:2 15:0.3115 16:61 17:0.2951 18:0.1475 19:0.1639 20:0.3934 21:0.1429 22:1.8 23:0 
1 1:-1 2:0 3:4 4:26 5:0.5714 6:8 7:3 8:0.3333 9:0.2381 10:0.3333 11:0.0952 12:60 13:0.3191 14:4 15:0.4638 16:69 17:0.3333 18:0.2174 19:0.2464 20:0.2029 21:0.2727 22:1 23:0 
0.5098665596987841 1:1 2:1 3:4 4:21 5:0.4286 6:3 7:2 8:0.2857 9:0.1905 10:0.2381 11:0.2857 12:48 13:0.2381 14:3 15:0.5082 16:61 17:0.2295 18:0.2295 19:0.2787 20:0.2623 21:0.2083 22:0.5 23:0.25 
0.1578778154431083 1:4 2:1 3:6 4:22 5:0.3636 6:3 7:2 8:0.2273 9:0.1364 10:0.2273 11:0.4091 12:11 13:0.1628 14:3 15:0.3051 16:59 17:0.2881 18:0.1017 19:0.2034 20:0.4068 21:0.2453 22:1.14 23:0.6 
1 1:1 2:1 3:2 4:21 5:0.4286 6:2 7:3 8:0.0952 9:0.2381 10:0.1905 11:0.4762 12:17 13:0.1905 14:3 15:0.4182 16:55 17:0.2182 18:0.2364 19:0.1818 20:0.3636 21:0.1818 22:0.7 23:0.5 
0.120376190242928 1:1 2:1 3:3 4:23 5:0.6087 6:4 7:2 8:0.1304 9:0.2174 10:0.3913 11:0.2609 12:9 13:0.1818 14:1 15:0.5965 16:57 17:0.2105 18:0.2807 19:0.3158 20:0.193 21:0.1667 22:0.58 23:0.3333 
0.7243983375984939 1:4 2:1 3:8 4:24 5:0.6087 6:2 7:4 8:0 9:0.1739 10:0.4348 11:0.3913 12:61 13:0.1915 14:4 15:0.5 16:66 17:0.1515 18:0.2424 19:0.2576 20:0.3485 21:0.2581 22:1 23:0.4667 
0.6159428805518381 1:1 2:1 3:5 4:27 5:0.5 6:3 7:4 8:0.2083 9:0.25 10:0.25 11:0.2917 12:53 13:0.2549 14:4 15:0.4265 16:68 17:0.2647 18:0.2353 19:0.1912 20:0.3088 21:0.2203 22:2.25 23:0.2 
0.836607891021045 1:3 2:1 3:8 4:23 5:0.3913 6:1 7:4 8:0.1304 9:0.1304 10:0.2609 11:0.4783 12:18 13:0.1556 14:3 15:0.3968 16:63 17:0.2381 18:0.1905 19:0.1905 20:0.3651 21:0.1864 22:1.29 23:0.2857 
0.05270281564581823 1:1 2:2 3:7 4:24 5:0.3913 6:2 7:4 8:0.3043 9:0.087 10:0.3043 11:0.3043 12:17 13:0.1739 14:3 15:0.5167 16:60 17:0.2667 18:0.25 19:0.2667 20:0.2167 21:0.1579 22:1.29 23:0.2308 
0.8268220863782001 1:-1 2:0 3:1 4:24 5:0.4583 6:1 7:4 8:0.25 9:0.2083 10:0.25 11:0.2917 12:13 13:0.1304 14:4 15:0.5345 16:58 17:0.2069 18:0.2414 19:0.2931 20:0.2586 21:0.125 22:0.88 23:0 
0.3752620378214375 1:-1 2:0 3:2 4:24 5:0.6364 6:1 7:4 8:0.1818 9:0.3182 10:0.3182 11:0.1818 12:50 13:0.1304 14:3 15:0.55 16:60 17:0.2 18:0.25 19:0.3 20:0.25 21:0.12 22:1.38 23:0 
0.9234873875321453 1:-1 2:0 3:2 4:24 5:0.3478 6:3 7:2 8:0.3478 9:0.087 10:0.2609 11:0.3043 12:20 13:0.1304 14:1 15:0.4107 16:56 17:0.2857 18:0.2143 19:0.1964 20:0.3036 21:0.12 22:0.9 23:0 
1 1:8 2:2 3:18 4:24 5:0.5455 6:2 7:4 8:0.2273 9:0.3182 10:0.2273 11:0.2273 12:68 13:0.2174 14:2 15:0.443 16:79 17:0.2152 18:0.1899 19:0.2532 20:0.3418 21:0.2895 22:1.6 23:0.4375 
1 1:2 2:1 3:5 4:26 5:0.4545 6:5 7:3 8:0.2727 9:0.1364 10:0.3182 11:0.2727 12:17 13:0.1915 14:2 15:0.4262 16:61 17:0.2131 18:0.1803 19:0.2459 20:0.3607 21:0.2281 22:1.67 23:0.4 
1 1:2 2:3 3:13 4:22 5:0.4545 6:3 7:3 8:0.2273 9:0.2273 10:0.2273 11:0.3182 12:60 13:0.3182 14:3 15:0.4861 16:72 17:0.1667 18:0.1944 19:0.2917 20:0.3472 21:0.2836 22:0.56 23:0.28 
1 1:1 2:1 3:2 4:24 5:0.7083 6:3 7:4 8:0.0417 9:0.2083 10:0.5 11:0.25 12:47 13:0.2766 14:4 15:0.7037 16:54 17:0.1296 18:0.2778 19:0.4259 20:0.1667 21:0.2653 22:1.14 23:0.5 
0.4334233295197516 1:1 2:1 3:4 4:25 5:0.5652 6:3 7:4 8:0.3043 9:0.3913 10:0.1739 11:0.1304 12:13 13:0.3191 14:2 15:0.4516 16:62 17:0.2742 18:0.2258 19:0.2258 20:0.2742 21:0.283 22:1 23:0.25 
1 1:3 2:3 3:16 4:23 5:0.4545 6:1 7:2 8:0.1364 9:0.0909 10:0.3636 11:0.4091 12:62 13:0.0455 14:3 15:0.4103 16:78 17:0.2692 18:0.1667 19:0.2436 20:0.3205 21:0.1351 22:0.89 23:0.2667 
0.4305773151820073 1:1 2:1 3:5 4:23 5:0.6522 6:6 7:4 8:0.1739 9:0.3043 10:0.3478 11:0.1739 12:15 13:0.3171 14:3 15:0.6333 16:60 17:0.2 18:0.3833 19:0.25 20:0.1667 21:0.2653 22:1.6 23:0.2 
1 1:1 2:1 3:5 4:29 5:0.5714 6:8 7:3 8:0.1905 9:0.2381 10:0.3333 11:0.2381 12:56 13:0.32 14:2 15:0.5079 16:63 17:0.1746 18:0.2698 19:0.2381 20:0.3175 21:0.2759 22:1.14 23:0.2 
0.2030973666896271 1:-1 2:0 3:5 4:21 5:0.5714 6:3 7:2 8:0.1429 9:0.3333 10:0.2381 11:0.2857 12:12 13:0.1795 14:3 15:0.4746 16:59 17:0.2542 18:0.2034 19:0.2712 20:0.2712 21:0.1429 22:0.73 23:0 
1 1:-1 2:0 3:4 4:29 5:0.5909 6:5 7:3 8:0.3182 9:0.2273 10:0.3636 11:0.0909 12:52 13:0.2549 14:4 15:0.5217 16:69 17:0.2319 18:0.2319 19:0.2899 20:0.2464 21:0.2203 22:1.5 23:0 
1 1:-1 2:0 3:4 4:24 5:0.3333 6:2 7:3 8:0.2917 9:0.0833 10:0.25 11:0.375 12:8 13:0.1739 14:3 15:0.4062 16:64 17:0.2344 18:0.1719 19:0.2344 20:0.3594 21:0.1481 22:0.33 23:0 
-0.1594045053865046 1:1 2:3 3:18 4:27 5:0.4348 6:6 7:3 8:0.3043 9:0.2174 10:0.2174 11:0.2609 12:2 13:0.28 14:1 15:0.3936 16:94 17:0.3085 18:0.1915 19:0.2021 20:0.2979 21:0.2048 22:0.56 23:0.1429 
-0.008174641942732921 1:3 2:3 3:14 4:24 5:0.4783 6:2 7:3 8:0.2174 9:0.3043 10:0.1739 11:0.3043 12:57 13:0.1489 14:4 15:0.4026 16:77 17:0.2338 18:0.1688 19:0.2338 20:0.3636 21:0.1944 22:1.5 23:0.3333 
-0.09855727285525837 1:4 2:2 3:15 4:23 5:0.4091 6:2 7:3 8:0.2273 9:0.1364 10:0.2727 11:0.3636 12:53 13:0.1364 14:3 15:0.4054 16:74 17:0.2703 18:0.1892 19:0.2162 20:0.3243 21:0.1831 22:0.67 23:0.3103 
-0.04890556360642111 1:4 2:2 3:15 4:24 5:0.4348 6:2 7:4 8:0.2174 9:0.1739 10:0.2609 11:0.3478 12:53 13:0.1556 14:3 15:0.4133 16:75 17:0.2667 18:0.2 19:0.2133 20:0.32 21:0.1944 22:0.86 23:0.3103 
-0.07970311717570105 1:1 2:1 3:2 4:21 5:0.4 6:4 7:2 8:0.25 9:0.1 10:0.3 11:0.35 12:15 13:0.2683 14:2 15:0.413 16:46 17:0.2609 18:0.1957 19:0.2174 20:0.3261 21:0.2558 22:3 23:0.5 
-0.1975155583386942 1:1 2:1 3:7 4:24 5:0.5217 6:2 7:3 8:0.2174 9:0.2174 10:0.3043 11:0.2609 12:53 13:0.1304 14:2 15:0.4861 16:72 17:0.25 18:0.2639 19:0.2222 20:0.2639 21:0.1333 22:1.1 23:0.1429 
-0.05355359501221742 1:1 2:2 3:14 4:20 5:0.5 6:3 7:3 8:0.3 9:0.2 10:0.3 11:0.2 12:59 13:0.2821 14:4 15:0.4872 16:78 17:0.2564 18:0.2821 19:0.2051 20:0.2564 21:0.2121 22:3 23:0.1111 
-0.03895526712704492 1:1 2:2 3:10 4:24 5:0.5217 6:3 7:3 8:0.2174 9:0.3478 10:0.1739 11:0.2609 12:1 13:0.234 14:2 15:0.4872 16:78 17:0.2564 18:0.2821 19:0.2051 20:0.2564 21:0.2121 22:0.33 23:0.1579 
-0.02261265071706892 1:3 2:1 3:15 4:22 5:0.5 6:3 7:3 8:0.2727 9:0.2273 10:0.2727 11:0.2273 12:6 13:0.2558 14:2 15:0.5067 16:75 17:0.24 18:0.2267 19:0.28 20:0.2533 21:0.2113 22:4 23:0.1429 
-0.004222529381314118 1:3 2:1 3:14 4:20 5:0.5 6:3 7:2 8:0.25 9:0.2 10:0.3 11:0.25 12:59 13:0.25 14:3 15:0.5143 16:70 17:0.2286 18:0.2286 19:0.2857 20:0.2571 21:0.2121 22:0.3 23:0.1538 
-0.1356685598549638 1:3 2:1 3:13 4:21 5:0.5238 6:3 7:2 8:0.2381 9:0.2381 10:0.2857 11:0.2381 12:58 13:0.2381 14:3 15:0.5143 16:70 17:0.2286 18:0.2286 19:0.2857 20:0.2571 21:0.2121 22:0.6 23:0.1667 
-0.07088500903885271 1:-1 2:0 3:1 4:20 5:0.5 6:3 7:2 8:0.2 9:0.2 10:0.3 11:0.3 12:22 13:0.2632 14:3 15:0.4773 16:44 17:0.2727 18:0.2273 19:0.25 20:0.25 21:0.25 22:0.78 23:0 
-0.007953872923308049 1:2 2:2 3:21 4:22 5:0.5714 6:6 7:3 8:0.2381 9:0.1905 10:0.381 11:0.1905 12:5 13:0.2432 14:1 15:0.4667 16:90 17:0.2556 18:0.1667 19:0.3 20:0.2778 21:0.1688 22:0 23:0.1429 
-0.1001719408689018 1:2 2:2 3:17 4:21 5:0.5 6:1 7:3 8:0.2 9:0.2 10:0.3 11:0.3 12:10 13:0.1 14:1 15:0.4588 16:85 17:0.2471 18:0.1765 19:0.2824 20:0.2941 21:0.1111 22:0.78 23:0.1765 
-0.05325370402789013 1:2 2:2 3:15 4:24 5:0.4348 6:2 7:3 8:0.2174 9:0.1739 10:0.2609 11:0.3478 12:9 13:0.1111 14:3 15:0.4535 16:86 17:0.2558 18:0.1744 19:0.2791 20:0.2907 21:0.1233 22:0.62 23:0.2 
-0.1073535783056524 1:2 2:2 3:13 4:23 5:0.3913 6:1 7:2 8:0.3043 9:0.1304 10:0.2609 11:0.3043 12:71 13:0.0667 14:4 15:0.4634 16:82 17:0.2561 18:0.1829 19:0.2805 20:0.2805 21:0.1014 22:1 23:0.2308 
-0.04044231951854883 1:1 2:1 3:10 4:24 5:0.3333 6:2 7:3 8:0.3333 9:0.125 10:0.2083 11:0.3333 12:68 13:0.1489 14:4 15:0.4615 16:78 17:0.2564 18:0.1795 19:0.2821 20:0.2821 21:0.1077 22:0.4 23:0.1 
-0.006006151014393878 1:2 2:2 3:19 4:25 5:0.5417 6:7 7:3 8:0.2083 9:0.1667 10:0.375 11:0.25 12:4 13:0.2381 14:4 15:0.4615 16:91 17:0.2527 18:0.1648 19:0.2967 20:0.2857 21:0.1795 22:0 23:0.1579 
-0.1358746651900742 1:2 2:2 3:16 4:22 5:0.5 6:1 7:3 8:0.2 9:0.25 10:0.25 11:0.3 12:15 13:0.0952 14:4 15:0.4625 16:80 17:0.2625 18:0.1875 19:0.275 20:0.275 21:0.0986 22:1.29 23:0.1613 
-0.09738113554879048 1:2 2:3 3:25 4:22 5:0.45 6:8 7:3 8:0.2 9:0.2 10:0.25 11:0.35 12:6 13:0.2941 14:4 15:0.4667 16:90 17:0.2444 18:0.1889 19:0.2778 20:0.2889 21:0.1852 22:0 23:0.1429 
-0.09700447614370188 1:2 2:2 3:13 4:24 5:0.5 6:1 7:3 8:0.2727 9:0.2273 10:0.2727 11:0.2273 12:16 13:0.087 14:1 15:0.4744 16:78 17:0.2564 18:0.1923 19:0.2821 20:0.2692 21:0.1014 22:1.11 23:0.2 
-0.3339277984475907 1:2 2:2 3:12 4:23 5:0.5 6:1 7:2 8:0.2273 9:0.2273 10:0.2727 11:0.2727 12:17 13:0.0667 14:2 15:0.48 16:75 17:0.2533 18:0.1867 19:0.2933 20:0.2667 21:0.0909 22:1.25 23:0.2174 
-0.07782024833584505 1:2 2:2 3:13 4:23 5:0.3913 6:1 7:3 8:0.2609 9:0.1739 10:0.2174 11:0.3478 12:70 13:0.0909 14:1 15:0.4868 16:76 17:0.25 18:0.1974 19:0.2895 20:0.2632 21:0.1045 22:1.12 23:0.2 
-0.1937543827452499 1:2 2:4 3:28 4:23 5:0.4545 6:12 7:2 8:0.1818 9:0.2273 10:0.2273 11:0.3636 12:2 13:0.3939 14:4 15:0.4681 16:94 17:0.2447 18:0.1915 19:0.2766 20:0.2872 21:0.2235 22:0 23:0.1481 
-0.1198343086898533 1:2 2:3 3:19 4:25 5:0.4348 6:5 7:3 8:0.1739 9:0.1739 10:0.2609 11:0.3913 12:9 13:0.1628 14:1 15:0.4598 16:87 17:0.2414 18:0.1839 19:0.2759 20:0.2989 21:0.1538 22:0 23:0.1892 
-0.1624236510308194 1:-1 2:0 3:0 4:21 5:0.4 6:3 7:3 8:0.35 9:0.2 10:0.2 11:0.25 12:56 13:0.2683 14:4 15:0.4773 16:44 17:0.2727 18:0.1818 19:0.2955 20:0.25 21:0.1429 22:0.29 23:-1 
-0.4446763793060062 1:-1 2:0 3:0 4:25 5:0.4583 6:3 7:4 8:0.2083 9:0.125 10:0.3333 11:0.3333 12:22 13:0.3061 14:4 15:0.5094 16:53 17:0.1887 18:0.1698 19:0.3396 20:0.3019 21:0.3061 22:1 23:-1 
-0.06608550325418057 1:3 2:4 3:24 4:21 5:0.55 6:1 7:4 8:0.1 9:0.45 10:0.1 11:0.35 12:74 13:0.1053 14:2 15:0.5393 16:89 17:0.191 18:0.2135 19:0.3258 20:0.2697 21:0.2235 22:1.38 23:0.3191 
-0.03292919583446723 1:2 2:5 3:26 4:22 5:0.4286 6:3 7:4 8:0.2381 9:0.2857 10:0.1429 11:0.3333 12:2 13:0.2381 14:2 15:0.398 16:98 17:0.2551 18:0.1837 19:0.2143 20:0.3469 21:0.2088 22:0.78 23:0.2157 
-0.05316881596304682 1:-1 2:0 3:0 4:24 5:0.4167 6:3 7:5 8:0.25 9:0.0833 10:0.3333 11:0.3333 12:27 13:0.3191 14:1 15:0.3958 16:48 17:0.2292 18:0.1875 19:0.2083 20:0.375 21:0.2195 22:5 23:-1 
-0.05519803118808984 1:2 2:5 3:23 4:21 5:0.45 6:2 7:4 8:0.3 9:0.25 10:0.2 11:0.25 12:6 13:0.2 14:4 15:0.4111 16:90 17:0.2556 18:0.1889 19:0.2222 20:0.3333 21:0.2048 22:0.44 23:0.2444 
-0.1458615041172243 1:2 2:5 3:22 4:20 5:0.7 6:2 7:3 8:0.2 9:0.4 10:0.3 11:0.1 12:72 13:0.2 14:3 15:0.5366 16:82 17:0.1707 18:0.2805 19:0.2561 20:0.2927 21:0.1899 22:1.33 23:0.2195 
-0.1281950423531146 1:-1 2:0 3:0 4:22 5:0.55 6:2 7:5 8:0.25 9:0.35 10:0.2 11:0.2 12:52 13:0.2195 14:1 15:0.4762 16:42 17:0.1905 18:0.2857 19:0.1905 20:0.3333 21:0.1795 22:1 23:-1 
-0.08146925275526321 1:-1 2:0 3:0 4:25 5:0.5417 6:2 7:5 8:0.2083 9:0.375 10:0.1667 11:0.25 12:51 13:0.1915 14:-1 15:0.5 16:48 17:0.1875 18:0.2917 19:0.2083 20:0.3125 21:0.1556 22:0.73 23:-1 
-0.03994168260758994 1:-1 2:0 3:0 4:24 5:0.4348 6:2 7:5 8:0.1739 9:0.2174 10:0.2174 11:0.3913 12:28 13:0.2 14:4 15:0.4783 16:46 17:0.1957 18:0.2826 19:0.1957 20:0.3261 21:0.1628 22:1.25 23:-1 
-0.05176717011912291 1:2 2:5 3:21 4:20 5:0.7 6:2 7:3 8:0.2 9:0.4 10:0.3 11:0.1 12:71 13:0.2 14:2 15:0.525 16:80 17:0.175 18:0.275 19:0.25 20:0.3 21:0.1948 22:1.83 23:0.2308 
-0.253672230635516 1:1 2:1 3:4 4:22 5:0.4286 6:2 7:5 8:0.1905 9:0.1905 10:0.2381 11:0.381 12:26 13:0.2195 14:3 15:0.5 16:50 17:0.18 18:0.3 19:0.2 20:0.32 21:0.1915 22:1.33 23:0.25 
-0.02562380893139306 1:2 2:6 3:28 4:22 5:0.5238 6:6 7:3 8:0.1429 9:0.1429 10:0.381 11:0.3333 12:3 13:0.3953 14:3 15:0.5155 16:97 17:0.1856 18:0.268 19:0.2474 20:0.299 21:0.2766 22:0 23:0.2075 
-0.5912466480235749 1:1 2:1 3:2 4:25 5:0.4583 6:2 7:5 8:0.1667 9:0.25 10:0.2083 11:0.375 12:25 13:0.1915 14:2 15:0.5192 16:52 17:0.1731 18:0.3077 19:0.2115 20:0.3077 21:0.1837 22:1.8 23:0.5 
-0.06314410045243864 1:2 2:3 3:16 4:20 5:0.45 6:2 7:2 8:0.3 9:0.25 10:0.2 11:0.25 12:67 13:0.15 14:2 15:0.4595 16:74 17:0.2162 18:0.2027 19:0.2568 20:0.3243 21:0.1714 22:1.5 23:0.2 
-0.1256617919849546 1:2 2:3 3:26 4:20 5:0.5 6:2 7:4 8:0.4 9:0.25 10:0.25 11:0.1 12:77 13:0.2632 14:3 15:0.4783 16:92 17:0.2174 18:0.2283 19:0.25 20:0.3043 21:0.1818 22:1.33 23:0.12 
-0.07627057128156875 1:2 2:3 3:28 4:20 5:0.55 6:3 7:4 8:0.3 9:0.3 10:0.25 11:0.15 12:79 13:0.3514 14:4 15:0.4842 16:95 17:0.2105 18:0.2316 19:0.2526 20:0.3053 21:0.2088 22:2 23:0.1111 
-0.01532994007369311 1:2 2:3 3:19 4:20 5:0.45 6:2 7:2 8:0.05 9:0.25 10:0.2 11:0.5 12:10 13:0.15 14:4 15:0.45 16:80 17:0.225 18:0.2 19:0.25 20:0.325 21:0.1579 22:0.7 23:0.1667 
-0.1620523675903269 1:2 2:3 3:25 4:24 5:0.5 6:4 7:5 8:0.25 9:0.2917 10:0.2083 11:0.25 12:75 13:0.4222 14:4 15:0.4898 16:98 17:0.2449 18:0.2551 19:0.2347 20:0.2653 21:0.2979 22:1.2 23:0.1837 
-0.04032760154791904 1:2 2:2 3:14 4:20 5:0.4 6:2 7:4 8:0.15 9:0.15 10:0.25 11:0.45 12:64 13:0.2308 14:2 15:0.4571 16:70 17:0.2143 18:0.2429 19:0.2143 20:0.3286 21:0.2121 22:1 23:0.1852 
-0.1077020063227633 1:-1 2:0 3:0 4:21 5:0.45 6:2 7:4 8:0.25 9:0.25 10:0.2 11:0.3 12:31 13:0.2857 14:4 15:0.4651 16:43 17:0.2558 18:0.2093 19:0.2558 20:0.2791 21:0.25 22:1.6 23:-1 
-0.02711148054410913 1:2 2:3 3:15 4:21 5:0.55 6:2 7:4 8:0.35 9:0.25 10:0.3 11:0.1 12:68 13:0.2683 14:4 15:0.4583 16:72 17:0.2639 18:0.2083 19:0.25 20:0.2778 21:0.2754 22:1.29 23:0.3333 
-0.1784928378713016 1:2 2:4 3:19 4:26 5:0.5217 6:4 7:5 8:0.3913 9:0.2174 10:0.3043 11:0.087 12:72 13:0.3333 14:1 15:0.4943 16:87 17:0.2414 18:0.2299 19:0.2644 20:0.2644 21:0.3095 22:1.67 23:0.3158 
-0.03572588986204989 1:2 2:4 3:19 4:21 5:0.55 6:2 7:4 8:0.35 9:0.2 10:0.35 11:0.1 12:72 13:0.25 14:3 15:0.4937 16:79 17:0.2405 18:0.2152 19:0.2785 20:0.2658 21:0.2632 22:1.25 23:0.3158 
-0.03772972345495156 1:2 2:3 3:17 4:21 5:0.5238 6:2 7:4 8:0.0952 9:0.2381 10:0.2857 11:0.381 12:14 13:0.2683 14:3 15:0.4737 16:76 17:0.25 18:0.2105 19:0.2632 20:0.2763 21:0.2603 22:1.25 23:0.2941 
-0.06824142747186646 1:1 2:3 3:20 4:27 5:0.5714 6:4 7:5 8:0.0476 9:0.3333 10:0.2381 11:0.381 12:7 13:0.1915 14:4 15:0.5506 16:89 17:0.1685 18:0.2809 19:0.2697 20:0.2809 21:0.1429 22:1 23:0.1282 
-0.07446931772524275 1:1 2:2 3:13 4:25 5:0.5909 6:1 7:5 8:0.1364 9:0.4545 10:0.1364 11:0.2727 12:13 13:0.1304 14:4 15:0.527 16:74 17:0.1892 18:0.2568 19:0.2703 20:0.2838 21:0.1014 22:1.12 23:0.12 
-0.4352362474981171 1:1 2:3 3:21 4:29 5:0.5217 6:7 7:5 8:0.0435 9:0.3043 10:0.2174 11:0.4348 12:4 13:0.2941 14:4 15:0.5368 16:95 17:0.1684 18:0.2737 19:0.2632 20:0.2947 21:0.2 22:0 23:0.122 
-0.008478860769090752 1:-1 2:0 3:0 4:21 5:0.5 6:2 7:3 8:0.2 9:0.2 10:0.3 11:0.3 12:50 13:0.1707 14:3 15:0.4762 16:42 17:0.2381 18:0.2381 19:0.2381 20:0.2857 21:0.0811 22:0.71 23:-1 
-0.009641742105253537 1:1 2:2 3:16 4:23 5:0.5 6:1 7:5 8:0.2273 9:0.1364 10:0.3636 11:0.2727 12:66 13:0.1429 14:3 15:0.5132 16:76 17:0.1974 18:0.25 19:0.2632 20:0.2895 21:0.0986 22:1.17 23:0.0968 
-0.1336144603371721 1:1 2:3 3:18 4:30 5:0.5417 6:5 7:5 8:0.0833 9:0.2917 10:0.25 11:0.375 12:6 13:0.2075 14:4 15:0.5385 16:91 17:0.1758 18:0.2747 19:0.2637 20:0.2857 21:0.1628 22:0.86 23:0.1429 
-0.07370822508886782 1:1 2:3 3:18 4:21 5:0.55 6:1 7:4 8:0.2 9:0.15 10:0.4 11:0.25 12:68 13:0.1053 14:3 15:0.5132 16:76 17:0.1974 18:0.25 19:0.2632 20:0.2895 21:0.0986 22:1.67 23:0.1429 
-0.1978673913199139 1:5 2:2 3:20 4:26 5:0.5 6:6 7:5 8:0.25 9:0.1667 10:0.3333 11:0.25 12:2 13:0.4468 14:1 15:0.4545 16:99 17:0.2626 18:0.2424 19:0.2121 20:0.2828 21:0.3793 22:0 23:0.3 
-0.1349797477682578 1:1 2:1 3:11 4:22 5:0.5 6:5 7:3 8:0.2273 9:0.3182 10:0.1818 11:0.2727 12:69 13:0.3636 14:4 15:0.4744 16:78 17:0.2564 18:0.2692 19:0.2051 20:0.2692 21:0.2727 22:0 23:0.0909 
-0.02613300566381754 1:-1 2:0 3:0 4:23 5:0.4583 6:5 7:3 8:0.2083 9:0.2917 10:0.1667 11:0.3333 12:52 13:0.4783 14:-1 15:0.4375 16:48 17:0.2917 18:0.2917 19:0.1458 20:0.2708 21:0.3333 22:0 23:-1 
-0.1502629297977299 1:1 2:1 3:10 4:23 5:0.4783 6:5 7:3 8:0.2174 9:0.1739 10:0.3043 11:0.3043 12:13 13:0.3478 14:2 15:0.4744 16:78 17:0.2564 18:0.2692 19:0.2051 20:0.2692 21:0.2727 22:2 23:0.1 
-0.05528377165938368 1:5 2:2 3:18 4:26 5:0.5 6:4 7:5 8:0.25 9:0.1667 10:0.3333 11:0.25 12:4 13:0.3617 14:2 15:0.4526 16:95 17:0.2632 18:0.2526 19:0.2 20:0.2842 21:0.3494 22:0 23:0.3333 
-0.1205543550799538 1:5 2:2 3:21 4:26 5:0.4583 6:7 7:5 8:0.2917 9:0.125 10:0.3333 11:0.25 12:1 13:0.4894 14:3 15:0.4554 16:101 17:0.2673 18:0.2475 19:0.2079 20:0.2772 21:0.3933 22:0 23:0.2857 
-0.2243373283430411 1:5 2:2 3:16 4:22 5:0.4545 6:2 7:4 8:0.2273 9:0.2727 10:0.1818 11:0.3182 12:74 13:0.2381 14:3 15:0.4535 16:86 17:0.2558 18:0.2558 19:0.1977 20:0.2907 21:0.2973 22:5 23:0.375 
-0.08431733410124069 1:5 2:2 3:20 4:25 5:0.4783 6:5 7:5 8:0.2609 9:0.1739 10:0.3043 11:0.2609 12:3 13:0.4222 14:1 15:0.4433 16:97 17:0.268 18:0.2474 19:0.1959 20:0.2887 21:0.3647 22:0 23:0.3 
-0.1180722435788454 1:5 2:2 3:18 4:24 5:0.5455 6:2 7:5 8:0.2273 9:0.1818 10:0.3636 11:0.2273 12:6 13:0.3182 14:2 15:0.4674 16:92 17:0.25 18:0.2609 19:0.2065 20:0.2826 21:0.325 22:0.27 23:0.3333 
-0.005975438176843864 1:2 2:4 3:25 4:22 5:0.5 6:4 7:2 8:0.2727 9:0.3182 10:0.1818 11:0.2273 12:3 13:0.2093 14:2 15:0.3814 16:97 17:0.268 18:0.1546 19:0.2268 20:0.3505 21:0.1778 22:0 23:0.1837 
-0.002170819623712161 1:2 2:3 3:20 4:22 5:0.6364 6:1 7:2 8:0.1818 9:0.3182 10:0.3182 11:0.1818 12:8 13:0.0698 14:1 15:0.3908 16:87 17:0.2414 18:0.1609 19:0.2299 20:0.3678 21:0.1 22:1.43 23:0.1795 
-0.05942728408608804 1:2 2:3 3:17 4:20 5:0.6 6:1 7:2 8:0.1 9:0.3 10:0.3 11:0.3 12:13 13:0.0769 14:1 15:0.3766 16:77 17:0.2468 18:0.1558 19:0.2208 20:0.3766 21:0.1143 22:0.89 23:0.2121 
-0.04590907510866962 1:2 2:3 3:19 4:23 5:0.4545 6:1 7:2 8:0.2273 9:0.1364 10:0.3182 11:0.3182 12:73 13:0.0667 14:4 15:0.3908 16:87 17:0.2414 18:0.1609 19:0.2299 20:0.3678 21:0.1 22:0.9 23:0.1892 
-0.02385746700258545 1:2 2:3 3:16 4:24 5:0.5833 6:1 7:2 8:0.125 9:0.2917 10:0.2917 11:0.2917 12:10 13:0.0638 14:3 15:0.3855 16:83 17:0.241 18:0.1566 19:0.2289 20:0.3735 21:0.1053 22:1.11 23:0.2258 
-0.1306922907474149 1:2 2:3 3:21 4:25 5:0.5 6:3 7:3 8:0.25 9:0.125 10:0.375 11:0.25 12:75 13:0.1837 14:4 15:0.3789 16:95 17:0.2737 18:0.1474 19:0.2316 20:0.3474 21:0.1591 22:4 23:0.1707 
-0.05123446146635136 1:2 2:3 3:19 4:25 5:0.4583 6:1 7:3 8:0.25 9:0.125 10:0.3333 11:0.2917 12:73 13:0.102 14:1 15:0.3846 16:91 17:0.2527 18:0.1538 19:0.2308 20:0.3626 21:0.119 22:1.29 23:0.1892 
-0.202243872497717 1:3 2:4 3:26 4:21 5:0.381 6:3 7:3 8:0.1905 9:0.1905 10:0.1905 11:0.4286 12:12 13:0.2632 14:2 15:0.4111 16:90 17:0.3 18:0.2 19:0.2111 20:0.2889 21:0.2235 22:1 23:0.2245 
-0.5952609018026891 1:3 2:2 3:8 4:23 5:0.4091 6:3 7:3 8:0.3636 9:0.2273 10:0.1818 11:0.2273 12:67 13:0.1905 14:1 15:0.4426 16:61 17:0.2951 18:0.1967 19:0.2459 20:0.2623 21:0.25 22:1 23:0.5 
-0.1817067347157054 1:3 2:5 3:31 4:24 5:0.4167 6:11 7:2 8:0.1667 9:0.1667 10:0.25 11:0.4167 12:4 13:0.3514 14:3 15:0.4184 16:98 17:0.2857 18:0.1939 19:0.2245 20:0.2959 21:0.2903 22:0 23:0.2759 
-0.1842399737803161 1:3 2:5 3:30 4:20 5:0.5 6:6 7:2 8:0.15 9:0.2 10:0.3 11:0.35 12:9 13:0.2353 14:1 15:0.4301 16:93 17:0.2903 18:0.1935 19:0.2366 20:0.2796 21:0.25 22:0 23:0.2857 
-0.4358120134885733 1:3 2:2 3:6 4:26 5:0.3913 6:3 7:3 8:0.2174 9:0.1304 10:0.2609 11:0.3913 12:27 13:0.1667 14:3 15:0.4286 16:63 17:0.3016 18:0.1905 19:0.2381 20:0.2698 21:0.2414 22:0.64 23:0.6667 
-0.2063653601785916 1:3 2:6 3:33 4:20 5:0.4 6:9 7:1 8:0.1 9:0.1 10:0.3 11:0.5 12:6 13:0.2903 14:4 15:0.4167 16:96 17:0.2812 18:0.1875 19:0.2292 20:0.3021 21:0.2747 22:0 23:0.2903 
-0.4903494666061956 1:2 2:2 3:5 4:23 5:0.4 6:2 7:4 8:0.2 9:0.1 10:0.3 11:0.4 12:31 13:0.1905 14:1 15:0.4364 16:55 17:0.2909 18:0.1818 19:0.2545 20:0.2727 21:0.24 22:0.75 23:0.6 
-0.02722487018098238 1:3 2:5 3:28 4:20 5:0.4 6:4 7:3 8:0.2 9:0.2 10:0.2 11:0.4 12:11 13:0.2222 14:2 15:0.4176 16:91 17:0.2967 18:0.1978 19:0.2198 20:0.2857 21:0.2326 22:0 23:0.2692 
-0.2413307417031953 1:1 2:1 3:2 4:21 5:0.4286 6:3 7:3 8:0.381 9:0.1429 10:0.2857 11:0.1905 12:61 13:0.2308 14:1 15:0.3913 16:46 17:0.3261 18:0.1522 19:0.2391 20:0.2826 21:0.2195 22:0.33 23:0.5 
-0.20186647469922 1:2 2:4 3:25 4:26 5:0.6667 6:6 7:4 8:0.0952 9:0.4286 10:0.2381 11:0.2381 12:1 13:0.3913 14:4 15:0.5248 16:101 17:0.2376 18:0.2871 19:0.2376 20:0.2376 21:0.2444 22:0.71 23:0.1304 
-0.5745525709367538 1:1 2:2 3:11 4:22 5:0.5238 6:2 7:3 8:0.2381 9:0.3333 10:0.1905 11:0.2381 12:64 13:0.122 14:4 15:0.493 16:71 17:0.2535 18:0.2676 19:0.2254 20:0.2535 21:0.1 22:0.82 23:0.1429 
-0.1012671776341422 1:4 2:2 3:16 4:22 5:0.5714 6:2 7:3 8:0.2857 9:0.2381 10:0.3333 11:0.1429 12:68 13:0.1628 14:2 15:0.5974 16:77 17:0.1688 18:0.3247 19:0.2727 20:0.2338 21:0.1831 22:0.82 23:0.2143 
-0.005122476806899242 1:4 2:3 3:20 4:20 5:0.55 6:2 7:3 8:0.15 9:0.45 10:0.1 11:0.3 12:10 13:0.2 14:1 15:0.6049 16:81 17:0.1605 18:0.3333 19:0.2716 20:0.2346 21:0.2 22:1.29 23:0.2 
-0.05011878821834839 1:4 2:3 3:21 4:25 5:0.5652 6:3 7:4 8:0.1304 9:0.3913 10:0.1739 11:0.3043 12:6 13:0.25 14:1 15:0.5934 16:91 17:0.1758 18:0.3297 19:0.2637 20:0.2308 21:0.2235 22:1 23:0.1892 
-0.07586370814722727 1:4 2:4 3:22 4:21 5:0.619 6:2 7:2 8:0.2381 9:0.2857 10:0.3333 11:0.1429 12:73 13:0.1429 14:3 15:0.5862 16:87 17:0.1724 18:0.3218 19:0.2644 20:0.2414 21:0.1852 22:0.9 23:0.2308 
-0.1009098910999323 1:-1 2:0 3:0 4:20 5:0.5714 6:3 7:5 8:0.0952 9:0.381 10:0.1905 11:0.3333 12:39 13:0.4 14:-1 15:0.5854 16:41 17:0.1463 18:0.2927 19:0.2927 20:0.2683 21:0.3333 22:0.38 23:-1 
-0.0290469547935961 1:3 2:4 3:13 4:24 5:0.4583 6:3 7:4 8:0.3333 9:0.2083 10:0.25 11:0.2083 12:1 13:0.234 14:3 15:0.5132 16:76 17:0.2105 18:0.2632 19:0.25 20:0.2763 21:0.2958 22:0.58 23:0.4615 
-0.01611808564915816 1:3 2:4 3:14 4:23 5:0.5455 6:3 7:4 8:0.1364 9:0.3182 10:0.2273 11:0.3182 12:55 13:0.2444 14:1 15:0.5132 16:76 17:0.2105 18:0.2632 19:0.25 20:0.2763 21:0.2958 22:1.57 23:0.4286 
-0.09444442356647678 1:-1 2:0 3:0 4:20 5:0.6 6:3 7:5 8:0.2 9:0.2 10:0.4 11:0.2 12:19 13:0.4 14:3 15:0.5854 16:41 17:0.1463 18:0.2927 19:0.2927 20:0.2683 21:0.3333 22:2.67 23:-1 
-0.0716183572088986 1:3 2:3 3:24 4:25 5:0.5 6:3 7:4 8:0.25 9:0.25 10:0.25 11:0.25 12:1 13:0.25 14:1 15:0.4082 16:98 17:0.2755 18:0.1531 19:0.2551 20:0.3163 21:0.2043 22:0.3 23:0.1915 
-0.1118880080190697 1:3 2:3 3:19 4:22 5:0.5 6:2 7:2 8:0.1364 9:0.0455 10:0.4545 11:0.3636 12:70 13:0.1163 14:4 15:0.4217 16:83 17:0.253 18:0.1566 19:0.2651 20:0.3253 21:0.1538 22:1.11 23:0.2432 
-0.3843124751307238 1:2 2:2 3:10 4:21 5:0.45 6:2 7:3 8:0.15 9:0.25 10:0.2 11:0.4 12:17 13:0.1707 14:2 15:0.4559 16:68 17:0.2059 18:0.1618 19:0.2941 20:0.3382 21:0.1864 22:0.4 23:0.3 
-0.08756388847757313 1:2 2:4 3:26 4:22 5:0.4762 6:7 7:3 8:0.2381 9:0.1429 10:0.3333 11:0.2857 12:1 13:0.3514 14:1 15:0.4737 16:95 17:0.2316 18:0.2 19:0.2737 20:0.2947 21:0.2326 22:0 23:0.1765 
-0.005586443986579958 1:2 2:5 3:27 4:24 5:0.619 6:6 7:3 8:0.0952 9:0.2381 10:0.381 11:0.2857 12:2 13:0.3182 14:3 15:0.5859 16:99 17:0.1515 18:0.2727 19:0.3131 20:0.2626 21:0.2632 22:0.33 23:0.2157 
-0.3648028781125591 1:1 2:1 3:4 4:21 5:0.6 6:2 7:4 8:0.1 9:0.25 10:0.35 11:0.3 12:56 13:0.2 14:2 15:0.549 16:51 17:0.1373 18:0.2353 19:0.3137 20:0.3137 21:0.1915 22:0.7 23:0.1429 
-0.02585005813821531 1:2 2:5 3:26 4:24 5:0.619 6:5 7:3 8:0.0952 9:0.2381 10:0.381 11:0.2857 12:3 13:0.2727 14:3 15:0.5773 16:97 17:0.1546 18:0.2577 19:0.3196 20:0.268 21:0.2473 22:0.44 23:0.2245 
-0.07295530511169034 1:2 2:4 3:22 4:20 5:0.65 6:2 7:3 8:0.05 9:0.3 10:0.35 11:0.3 12:8 13:0.1795 14:1 15:0.6071 16:84 17:0.119 18:0.2738 19:0.3333 20:0.2738 21:0.2 22:1.38 23:0.2195 
-0.1051642370839541 1:1 2:1 3:9 4:23 5:0.5 6:3 7:4 8:0.1364 9:0.1818 10:0.3182 11:0.3636 12:1 13:0.2727 14:4 15:0.4933 16:75 17:0.2267 18:0.2533 19:0.24 20:0.28 21:0.2131 22:0.88 23:0.0588 
-0.09118809539805517 1:-1 2:0 3:0 4:20 5:0.55 6:6 7:3 8:0.25 9:0.35 10:0.2 11:0.2 12:39 13:0.3846 14:-1 15:0.5122 16:41 17:0.2439 18:0.2927 19:0.2195 20:0.2439 21:0.1111 22:0 23:-1 
-0.07689416424512732 1:-1 2:0 3:0 4:21 5:0.3182 6:2 7:4 8:0.3636 9:0.2727 10:0.0455 11:0.3182 12:35 13:0.2683 14:-1 15:0.4048 16:42 17:0.3095 18:0.1905 19:0.2143 20:0.2857 21:0.1892 22:0.71 23:-1 
-0.1678335927921898 1:2 2:3 3:13 4:20 5:0.5 6:1 7:3 8:0.3 9:0.2 10:0.3 11:0.2 12:2 13:0.1053 14:3 15:0.4545 16:66 17:0.2727 18:0.2121 19:0.2424 20:0.2727 21:0.1475 22:1 23:0.28 
-1 1:2 2:2 3:10 4:23 5:0.5238 6:1 7:4 8:0.1429 9:0.3333 10:0.1905 11:0.3333 12:47 13:0.1364 14:3 15:0.4545 16:66 17:0.2727 18:0.2121 19:0.2424 20:0.2727 21:0.1475 22:0.8 23:0.2632 
-0.3989919734139852 1:2 2:2 3:11 4:22 5:0.5 6:1 7:4 8:0.15 9:0.3 10:0.2 11:0.35 12:48 13:0.1429 14:3 15:0.4545 16:66 17:0.2727 18:0.2121 19:0.2424 20:0.2727 21:0.1475 22:0.7 23:0.2381 
-0.11942758660518 1:2 2:2 3:10 4:24 5:0.5417 6:1 7:5 8:0.25 9:0.25 10:0.2917 11:0.2083 12:1 13:0.1739 14:4 15:0.4706 16:68 17:0.2647 18:0.2353 19:0.2353 20:0.2647 21:0.1746 22:0.88 23:0.2632 
-0.08015892762783321 1:1 2:1 3:10 4:21 5:0.619 6:4 7:3 8:0.1429 9:0.2381 10:0.381 11:0.2381 12:9 13:0.381 14:1 15:0.5429 16:70 17:0.1571 18:0.2714 19:0.2714 20:0.3 21:0.2903 22:3.33 23:0.1 
-0.02389430191204247 1:3 2:4 3:16 4:22 5:0.5455 6:2 7:2 8:0.2273 9:0.1818 10:0.3636 11:0.2273 12:66 13:0.1364 14:4 15:0.5385 16:78 17:0.1923 18:0.2692 19:0.2692 20:0.2692 21:0.2329 22:0.91 23:0.4194 
-0.01728874535986263 1:3 2:4 3:22 4:21 5:0.381 6:2 7:3 8:0.381 9:0.1429 10:0.2381 11:0.2381 12:72 13:0.2 14:4 15:0.5 16:86 17:0.2093 18:0.2442 19:0.2558 20:0.2907 21:0.2346 22:1.5 23:0.3023 
-0.04295903423104146 1:3 2:5 3:29 4:20 5:0.4 6:2 7:3 8:0.4 9:0.15 10:0.25 11:0.2 12:79 13:0.2222 14:3 15:0.4896 16:96 17:0.2188 18:0.2396 19:0.25 20:0.2917 21:0.2308 22:1.6 23:0.2632 
-0.2177132453004368 1:3 2:5 3:30 4:21 5:0.4762 6:2 7:4 8:0.381 9:0.2381 10:0.2381 11:0.1429 12:80 13:0.2432 14:4 15:0.5051 16:99 17:0.2121 18:0.2525 19:0.2525 20:0.2828 21:0.234 22:0.75 23:0.2542 
-0.00237876315457636 1:3 2:4 3:20 4:20 5:0.45 6:2 7:3 8:0.3 9:0.15 10:0.3 11:0.25 12:70 13:0.2105 14:4 15:0.525 16:80 17:0.2 18:0.2625 19:0.2625 20:0.275 21:0.2533 22:1.5 23:0.3333 
-0.0557829244171956 1:2 2:4 3:21 4:23 5:0.5217 6:7 7:2 8:0.1739 9:0.2174 10:0.3043 11:0.3043 12:5 13:0.3333 14:4 15:0.5393 16:89 17:0.2135 18:0.2697 19:0.2697 20:0.2472 21:0.3012 22:0 23:0.2683 
-0.08422787318025438 1:2 2:4 3:23 4:24 5:0.35 6:7 7:2 8:0.4 9:0.2 10:0.15 11:0.25 12:77 13:0.3182 14:1 15:0.5053 16:95 17:0.2316 18:0.2526 19:0.2526 20:0.2632 21:0.2809 22:1.5 23:0.2444 
-0.05551218642944647 1:-1 2:0 3:0 4:22 5:0.6522 6:2 7:4 8:0.1739 9:0.2174 10:0.4348 11:0.1739 12:29 13:0.3023 14:-1 15:0.6 16:45 17:0.1556 18:0.2889 19:0.3111 20:0.2444 21:0.2308 22:2.5 23:-1 
-0.09014719263925641 1:2 2:4 3:27 4:20 5:0.5 6:7 7:2 8:0.2 9:0.25 10:0.25 11:0.3 12:2 13:0.3889 14:4 15:0.5053 16:95 17:0.2316 18:0.2526 19:0.2526 20:0.2632 21:0.2809 22:1.5 23:0.2075 
-0.08172161489476898 1:2 2:2 3:14 4:28 5:0.4783 6:5 7:4 8:0.3478 9:0.2609 10:0.2174 11:0.1739 12:69 13:0.2549 14:2 15:0.5294 16:85 17:0.2118 18:0.2588 19:0.2706 20:0.2588 21:0.2658 22:1.57 23:0.2857 
-0.009560085651564999 1:2 2:4 3:22 4:20 5:0.45 6:5 7:2 8:0.2 9:0.2 10:0.25 11:0.35 12:7 13:0.2778 14:2 15:0.5294 16:85 17:0.2118 18:0.2588 19:0.2706 20:0.2588 21:0.2658 22:0 23:0.2558 
-0.1119935723188503 1:2 2:4 3:22 4:24 5:0.35 6:7 7:2 8:0.4 9:0.2 10:0.15 11:0.25 12:76 13:0.3182 14:1 15:0.5161 16:93 17:0.2258 18:0.2581 19:0.2581 20:0.2581 21:0.2874 22:2.25 23:0.2558 
-0.01006127966180879 1:2 2:4 3:25 4:20 5:0.5 6:7 7:2 8:0.2 9:0.25 10:0.25 11:0.3 12:4 13:0.3889 14:2 15:0.5275 16:91 17:0.2198 18:0.2637 19:0.2637 20:0.2527 21:0.2941 22:0.33 23:0.2245 
-0.01559876737220303 1:3 2:4 3:21 4:24 5:0.6667 6:10 7:2 8:0.125 9:0.25 10:0.4167 11:0.2083 12:5 13:0.3684 14:4 15:0.5875 16:80 17:0.1375 18:0.275 19:0.3125 20:0.275 21:0.3247 22:0 23:0.3171 
-0.04770783625483579 1:3 2:3 3:19 4:24 5:0.75 6:8 7:3 8:0.125 9:0.2917 10:0.4583 11:0.125 12:7 13:0.4 14:3 15:0.6026 16:78 17:0.141 18:0.2821 19:0.3205 20:0.2564 21:0.3067 22:0 23:0.2432 
-0.1017492722891405 1:3 2:3 3:15 4:20 5:0.55 6:2 7:2 8:0.05 9:0.3 10:0.25 11:0.4 12:65 13:0.2 14:2 15:0.6 16:70 17:0.1571 18:0.2571 19:0.3429 20:0.2429 21:0.2239 22:0.83 23:0.3103 
-0.144318827674677 1:3 2:4 3:23 4:20 5:0.7 6:8 7:2 8:0.15 9:0.25 10:0.45 11:0.15 12:7 13:0.375 14:2 15:0.6026 16:78 17:0.141 18:0.2821 19:0.3205 20:0.2564 21:0.3067 22:0 23:0.2889 
-0.08190171063233311 1:1 2:1 3:3 4:20 5:0.6 6:3 7:3 8:0.15 9:0.25 10:0.35 11:0.25 12:27 13:0.2821 14:3 15:0.587 16:46 17:0.1739 18:0.2609 19:0.3261 20:0.2391 21:0.2558 22:2 23:0.3333 
-0.0578862059719899 1:3 2:4 3:23 4:23 5:0.6087 6:11 7:2 8:0.1304 9:0.2174 10:0.3913 11:0.2609 12:4 13:0.4286 14:2 15:0.5802 16:81 17:0.1358 18:0.2716 19:0.3086 20:0.284 21:0.3333 22:0 23:0.2889 
-0.0348728267984427 1:2 2:3 3:21 4:22 5:0.5714 6:3 7:5 8:0.0952 9:0.2381 10:0.3333 11:0.3333 12:76 13:0.3171 14:2 15:0.5495 16:91 17:0.1758 18:0.2747 19:0.2747 20:0.2747 21:0.225 22:1.5 23:0.1707 
-0.6335293214233728 1:-1 2:0 3:0 4:24 5:0.5217 6:2 7:4 8:0.087 9:0.2609 10:0.2609 11:0.3913 12:56 13:0.1739 14:2 15:0.5273 16:55 17:0.1818 18:0.2545 19:0.2727 20:0.2909 21:0.1364 22:1 23:-1 
-0.01688105664356133 1:2 2:4 3:25 4:21 5:0.45 6:5 7:4 8:0.15 9:0.2 10:0.25 11:0.4 12:80 13:0.45 14:2 15:0.5464 16:97 17:0.1856 18:0.2887 19:0.2577 20:0.268 21:0.2791 22:5 23:0.1667 
-0.01764222276628005 1:-1 2:0 3:0 4:21 5:0.45 6:2 7:3 8:0.1 9:0.2 10:0.25 11:0.45 12:56 13:0.1707 14:3 15:0.48 16:50 17:0.2 18:0.22 19:0.26 20:0.32 21:0.1282 22:0.73 23:-1 
-0.2023514761481523 1:2 2:4 3:25 4:22 5:0.4762 6:6 7:4 8:0.1429 9:0.1905 10:0.2857 11:0.381 12:80 13:0.4762 14:1 15:0.5556 16:99 17:0.1818 18:0.2929 19:0.2626 20:0.2626 21:0.2955 22:5 23:0.1667 
-0.0116158160168261 1:2 2:3 3:21 4:23 5:0.5455 6:3 7:5 8:0.1364 9:0.2273 10:0.3182 11:0.3182 12:76 13:0.3488 14:1 15:0.5484 16:93 17:0.1828 18:0.2796 19:0.2688 20:0.2688 21:0.2439 22:3 23:0.1707 
-0.003702880902373917 1:2 2:3 3:20 4:24 5:0.5217 6:3 7:5 8:0.1304 9:0.2174 10:0.3043 11:0.3478 12:75 13:0.3333 14:1 15:0.5484 16:93 17:0.1828 18:0.2796 19:0.2688 20:0.2688 21:0.2439 22:2.67 23:0.1795 
-0.02215518214206453 1:2 2:2 3:17 4:23 5:0.5652 6:9 7:3 8:0.2174 9:0.2174 10:0.3478 11:0.2174 12:2 13:0.4211 14:1 15:0.5625 16:80 17:0.1875 18:0.2625 19:0.3 20:0.25 21:0.3333 22:0 23:0.2353 
-0.1058096860772817 1:-1 2:0 3:0 4:20 5:0.5714 6:3 7:3 8:0.2381 9:0.3333 10:0.2381 11:0.1905 12:16 13:0.2308 14:-1 15:0.6098 16:41 17:0.1707 18:0.2683 19:0.3415 20:0.2195 21:0.1892 22:2 23:-1 
-0.03717629018997311 1:3 2:1 3:11 4:24 5:0.4348 6:2 7:3 8:0.087 9:0.1739 10:0.2609 11:0.4783 12:50 13:0.1556 14:4 15:0.5352 16:71 17:0.1831 18:0.2254 19:0.3099 20:0.2817 21:0.194 22:2.2 23:0.2727 
-0.1125539902748321 1:3 2:1 3:13 4:32 5:0.5238 6:12 7:3 8:0.3333 9:0.1905 10:0.3333 11:0.1429 12:1 13:0.3462 14:3 15:0.5244 16:82 17:0.1951 18:0.2439 19:0.2805 20:0.2805 21:0.3077 22:1 23:0.2308 
-0.1822127289589962 1:3 2:1 3:12 4:33 5:0.5455 6:12 7:3 8:0.3182 9:0.2273 10:0.3182 11:0.1364 12:1 13:0.3333 14:3 15:0.5244 16:82 17:0.1951 18:0.2439 19:0.2805 20:0.2805 21:0.3077 22:1 23:0.25 
-0.01217504523224897 1:1 2:3 3:15 4:22 5:0.5 6:3 7:3 8:0.0455 9:0.2273 10:0.2727 11:0.4545 12:51 13:0.2195 14:3 15:0.5556 16:72 17:0.1667 18:0.2083 19:0.3472 20:0.2778 21:0.1642 22:3.33 23:0.1429 
-0.1627892767180406 1:1 2:3 3:17 4:20 5:0.5 6:3 7:3 8:0.05 9:0.25 10:0.25 11:0.45 12:53 13:0.2432 14:3 15:0.5556 16:72 17:0.1667 18:0.2083 19:0.3472 20:0.2778 21:0.1642 22:3 23:0.125 
-0.0842824910457174 1:-1 2:0 3:0 4:24 5:0.6522 6:2 7:3 8:0.0435 9:0.2174 10:0.4348 11:0.3043 12:36 13:0.1304 14:-1 15:0.5745 16:47 17:0.1489 18:0.234 19:0.3404 20:0.2766 21:0.0476 22:0.44 23:-1 
-0.1062874589322575 1:-1 2:0 3:0 4:24 5:0.6364 6:1 7:3 8:0.0455 9:0.1818 10:0.4545 11:0.3182 12:38 13:0.087 14:3 15:0.551 16:49 17:0.1633 18:0.2245 19:0.3265 20:0.2857 21:0.0455 22:0.78 23:-1 
-0.03498882687047223 1:1 2:3 3:15 4:23 5:0.4783 6:6 7:2 8:0.2609 9:0.2609 10:0.2174 11:0.2609 12:10 13:0.3 14:1 15:0.4028 16:72 17:0.2361 18:0.2083 19:0.1944 20:0.3611 21:0.2239 22:0 23:0.1724 
-0.1375914557025294 1:4 2:3 3:18 4:20 5:0.5 6:6 7:1 8:0.3 9:0.3 10:0.2 11:0.2 12:10 13:0.1765 14:4 15:0.4028 16:72 17:0.2361 18:0.2083 19:0.1944 20:0.3611 21:0.2239 22:0 23:0.3143 
-0.01680927789198862 1:1 2:3 3:15 4:21 5:0.4762 6:4 7:2 8:0.2857 9:0.2857 10:0.1905 11:0.2381 12:12 13:0.2632 14:1 15:0.4 16:70 17:0.2429 18:0.2143 19:0.1857 20:0.3571 21:0.2 22:0 23:0.1724 
-0.07110237909461507 1:1 2:2 3:13 4:21 5:0.4762 6:4 7:2 8:0.2381 9:0.3333 10:0.1429 11:0.2857 12:14 13:0.25 14:2 15:0.3971 16:68 17:0.2353 18:0.2206 19:0.1765 20:0.3676 21:0.1746 22:3 23:0.12 
-0.1095374476391289 1:4 2:3 3:20 4:20 5:0.55 6:8 7:1 8:0.2 9:0.3 10:0.25 11:0.25 12:8 13:0.25 14:4 15:0.4054 16:74 17:0.2297 18:0.2027 19:0.2027 20:0.3649 21:0.2464 22:0 23:0.2821 
-0.1296806481129972 1:4 2:3 3:22 4:22 5:0.5 6:12 7:1 8:0.1364 9:0.2273 10:0.2727 11:0.3636 12:4 13:0.375 14:3 15:0.3974 16:78 17:0.2179 18:0.1923 19:0.2051 20:0.3846 21:0.2877 22:0 23:0.2558 
-0.04318250703122233 1:-1 2:0 3:0 4:21 5:0.381 6:4 7:3 8:0.1905 9:0.2381 10:0.1429 11:0.4286 12:49 13:0.3171 14:-1 15:0.3333 16:42 17:0.2381 18:0.1905 19:0.1429 20:0.4286 21:0.2432 22:1.25 23:-1 
-0.02692551827002101 1:2 2:2 3:11 4:33 5:0.4783 6:12 7:5 8:0.2174 9:0.1739 10:0.3043 11:0.3043 12:60 13:0.4182 14:3 15:0.4756 16:82 17:0.2317 18:0.1585 19:0.3171 20:0.2927 21:0.3684 22:1.83 23:0.2381 
-0.05338400999404484 1:-1 2:0 3:0 4:21 5:0.55 6:2 7:5 8:0.3 9:0.2 10:0.35 11:0.15 12:47 13:0.3 14:-1 15:0.5476 16:42 17:0.1667 18:0.1667 19:0.381 20:0.2857 21:0.2222 22:0.71 23:-1 
-0.09188725092965647 1:2 2:5 3:21 4:22 5:0.3636 6:12 7:1 8:0.4545 9:0.1364 10:0.2273 11:0.1818 12:1 13:0.4286 14:3 15:0.4691 16:81 17:0.2346 18:0.1605 19:0.3086 20:0.2963 21:0.36 22:1 23:0.3 
-0.03700518684176478 1:-1 2:0 3:0 4:23 5:0.5417 6:2 7:6 8:0.0417 9:0.125 10:0.4167 11:0.4167 12:23 13:0.3636 14:-1 15:0.5435 16:46 17:0.1522 18:0.1522 19:0.3913 20:0.3043 21:0.3 22:0.4 23:-1 
-0.2214343654972229 1:2 2:2 3:14 4:30 5:0.45 6:12 7:5 8:0.2 9:0.2 10:0.25 11:0.35 12:63 13:0.4694 14:3 15:0.4756 16:82 17:0.2317 18:0.1585 19:0.3171 20:0.2927 21:0.3684 22:1.17 23:0.1852 
-0.07402604961618113 1:-1 2:0 3:0 4:22 5:0.5238 6:2 7:6 8:0.2857 9:0.1905 10:0.3333 11:0.1905 12:47 13:0.3333 14:-1 15:0.5455 16:44 17:0.1591 18:0.1591 19:0.3864 20:0.2955 21:0.2632 22:1.25 23:-1 
-0.01571089799783224 1:2 2:2 3:13 4:30 5:0.4 6:12 7:4 8:0.25 9:0.2 10:0.2 11:0.35 12:62 13:0.44 14:3 15:0.4691 16:81 17:0.2346 18:0.1605 19:0.3086 20:0.2963 21:0.36 22:0.78 23:0.2 
-0.1287470349605997 1:2 2:5 3:20 4:23 5:0.3478 6:12 7:2 8:0.4348 9:0.1304 10:0.2174 11:0.2174 12:1 13:0.4595 14:1 15:0.4691 16:81 17:0.2346 18:0.1605 19:0.3086 20:0.2963 21:0.36 22:1.29 23:0.2632 
-0.100855541850982 1:-1 2:0 3:0 4:22 5:0.5652 6:2 7:6 8:0.0435 9:0.1304 10:0.4348 11:0.3913 12:24 13:0.3333 14:-1 15:0.5455 16:44 17:0.1591 18:0.1591 19:0.3864 20:0.2955 21:0.2632 22:0.8 23:-1 
-0.2301339850768261 1:2 2:2 3:10 4:33 5:0.4783 6:12 7:4 8:0.2174 9:0.1739 10:0.3043 11:0.3043 12:59 13:0.3929 14:3 15:0.4691 16:81 17:0.2346 18:0.1605 19:0.3086 20:0.2963 21:0.36 22:1.22 23:0.2632 
-0.067720679602175 1:-1 2:0 3:0 4:24 5:0.4783 6:2 7:3 8:0.2174 9:0.2174 10:0.2609 11:0.3043 12:38 13:0.1739 14:-1 15:0.4375 16:48 17:0.2917 18:0.2292 19:0.2083 20:0.2708 21:0.0952 22:0.44 23:-1 
-0.02250848937150145 1:2 2:2 3:13 4:22 5:0.4286 6:1 7:3 8:0.1905 9:0.2381 10:0.1905 11:0.381 12:1 13:0.1163 14:4 15:0.5068 16:73 17:0.2329 18:0.2329 19:0.274 20:0.2603 21:0.1343 22:0.67 23:0.1667 
-0.004200740720805074 1:4 2:2 3:19 4:25 5:0.3333 6:5 7:3 8:0.5 9:0.2083 10:0.125 11:0.1667 12:1 13:0.2093 14:2 15:0.3537 16:82 17:0.3415 18:0.1585 19:0.1951 20:0.3049 21:0.1842 22:0 23:0.1515 
-0.02120914841265292 1:2 2:2 3:14 4:25 5:0.5652 6:7 7:3 8:0.1304 9:0.3478 10:0.2174 11:0.3043 12:8 13:0.3171 14:1 15:0.4865 16:74 17:0.2027 18:0.2162 19:0.2703 20:0.3108 21:0.2308 22:0 23:0.1538 
-0.0861906937171322 1:2 2:2 3:11 4:26 5:0.5 6:5 7:3 8:0.125 9:0.25 10:0.25 11:0.375 12:10 13:0.2444 14:1 15:0.4722 16:72 17:0.2083 18:0.1944 19:0.2778 20:0.3194 21:0.2063 22:0 23:0.2 
-0.003507298093508693 1:2 2:3 3:16 4:24 5:0.5909 6:8 7:3 8:0.1364 9:0.3636 10:0.2273 11:0.2727 12:7 13:0.3158 14:2 15:0.4933 16:75 17:0.2 18:0.2133 19:0.28 20:0.3067 21:0.2424 22:0 23:0.2 
-0.1836704497699149 1:-1 2:0 3:2 4:27 5:0.4545 6:5 7:4 8:0.3636 9:0.2273 10:0.2273 11:0.1818 12:49 13:0.2083 14:2 15:0.4286 16:56 17:0.2321 18:0.1964 19:0.2321 20:0.3393 21:0.1923 22:0.89 23:0 
-0.1494583108147662 1:-1 2:0 3:0 4:29 5:0.4167 6:5 7:4 8:0.375 9:0.2083 10:0.2083 11:0.2083 12:47 13:0.1923 14:2 15:0.4286 16:56 17:0.2321 18:0.1964 19:0.2321 20:0.3393 21:0.1923 22:1 23:-1 
-0.02703287716216725 1:-1 2:0 3:0 4:25 5:0.4167 6:5 7:5 8:0.0833 9:0.2083 10:0.2083 11:0.5 12:20 13:0.2727 14:1 15:0.4348 16:46 17:0.2174 18:0.1957 19:0.2391 20:0.3478 21:0.2381 22:1.14 23:-1 
-0.1069481546327607 1:5 2:3 3:19 4:25 5:0.4783 6:5 7:3 8:0.1304 9:0.3043 10:0.1739 11:0.3913 12:1 13:0.2 14:2 15:0.5 16:82 17:0.1829 18:0.2317 19:0.2683 20:0.3171 21:0.2308 22:0 23:0.2727 
-0.01040526555843154 1:5 2:3 3:18 4:25 5:0.5217 6:4 7:3 8:0.1304 9:0.3043 10:0.2174 11:0.3478 12:2 13:0.1556 14:3 15:0.5 16:80 17:0.1875 18:0.225 19:0.275 20:0.3125 21:0.2105 22:0 23:0.2903 
-0.124564450815859 1:-1 2:0 3:0 4:21 5:0.5238 6:3 7:4 8:0.1905 9:0.2381 10:0.2857 11:0.2857 12:13 13:0.3 14:-1 15:0.5238 16:42 17:0.2619 18:0.2857 19:0.2381 20:0.2143 21:0.1765 22:1.67 23:-1 
-0.2040254115909922 1:-1 2:0 3:0 4:24 5:0.5417 6:3 7:4 8:0.1667 9:0.25 10:0.2917 11:0.2917 12:10 13:0.2609 14:-1 15:0.5417 16:48 17:0.25 18:0.2917 19:0.25 20:0.2083 21:0.15 22:3.33 23:-1 
-0.04966191040346332 1:-1 2:0 3:0 4:25 5:0.5833 6:3 7:4 8:0.3333 9:0.3333 10:0.25 11:0.0833 12:35 13:0.25 14:3 15:0.56 16:50 17:0.24 18:0.3 19:0.26 20:0.2 21:0.1429 22:0.27 23:-1 
-0.1566775843200249 1:-1 2:0 3:0 4:22 5:0.619 6:2 7:4 8:0.1429 9:0.2857 10:0.3333 11:0.2381 12:11 13:0.2381 14:4 15:0.5652 16:46 17:0.2391 18:0.3043 19:0.2609 20:0.1957 21:0.1579 22:1.33 23:-1 
-0.1082638923056615 1:-1 2:0 3:0 4:21 5:0.4091 6:6 7:3 8:0.1818 9:0.2727 10:0.1364 11:0.4091 12:26 13:0.4146 14:2 15:0.4186 16:43 17:0.2791 18:0.2791 19:0.1395 20:0.3023 21:0.1724 22:5 23:-1 
-0.0248003577176793 1:-1 2:0 3:0 4:24 5:0.4348 6:6 7:3 8:0.3913 9:0.2609 10:0.1739 11:0.1739 12:49 13:0.3617 14:4 15:0.449 16:49 17:0.2653 18:0.2857 19:0.1633 20:0.2857 21:0.1429 22:0 23:-1 
-0.1732802838791568 1:2 2:2 3:15 4:24 5:0.4583 6:11 7:3 8:0.1667 9:0.3333 10:0.125 11:0.375 12:2 13:0.4595 14:4 15:0.425 16:80 17:0.275 18:0.2625 19:0.1625 20:0.3 21:0.3333 22:0 23:0.1724 
-0.03625933908495298 1:-1 2:0 3:0 4:20 5:0.5714 6:5 7:2 8:0.2381 9:0.1429 10:0.4286 11:0.1905 12:34 13:0.35 14:1 15:0.5122 16:41 17:0.2195 18:0.1951 19:0.3171 20:0.2683 21:0.1333 22:0 23:-1 
-0.1078907951837555 1:5 2:2 3:21 4:24 5:0.5833 6:9 7:2 8:0.125 9:0.3333 10:0.25 11:0.2917 12:57 13:0.2973 14:3 15:0.5513 16:78 17:0.1795 18:0.2949 19:0.2564 20:0.2692 21:0.3514 22:1.67 23:0.4054 
-0.1580072374046632 1:5 2:2 3:18 4:24 5:0.5417 6:9 7:2 8:0.1667 9:0.2917 10:0.25 11:0.2917 12:54 13:0.3333 14:3 15:0.5405 16:74 17:0.1892 18:0.2973 19:0.2432 20:0.2703 21:0.3429 22:0.6 23:0.3548 
-0.0961627043723579 1:-1 2:0 3:0 4:24 5:0.55 6:5 7:3 8:0.25 9:0.3 10:0.25 11:0.2 12:14 13:0.3953 14:-1 15:0.5333 16:45 17:0.2222 18:0.2889 19:0.2444 20:0.2444 21:0.3659 22:1 23:-1 
-0.1423445213280332 1:5 2:2 3:18 4:22 5:0.5455 6:9 7:2 8:0.1364 9:0.2727 10:0.2727 11:0.3182 12:54 13:0.3714 14:4 15:0.5429 16:70 17:0.1857 18:0.3 19:0.2429 20:0.2714 21:0.3636 22:1.2 23:0.3548 
-0.2337644448783389 1:5 2:2 3:16 4:23 5:0.4783 6:9 7:2 8:0.1739 9:0.2174 10:0.2609 11:0.3478 12:52 13:0.4595 14:3 15:0.5294 16:68 17:0.1912 18:0.2941 19:0.2353 20:0.2794 21:0.375 22:0 23:0.2593 
-0.206254033717326 1:5 2:2 3:22 4:24 5:0.5417 6:9 7:2 8:0.125 9:0.2917 10:0.25 11:0.3333 12:58 13:0.3514 14:1 15:0.55 16:80 17:0.175 18:0.2875 19:0.2625 20:0.275 21:0.3684 22:3.33 23:0.3846 
-0.05594668709551764 1:1 2:3 3:18 4:20 5:0.6 6:7 7:2 8:0.2 9:0.2 10:0.4 11:0.2 12:4 13:0.4595 14:4 15:0.4937 16:79 17:0.3038 18:0.2278 19:0.2658 20:0.2025 21:0.2958 22:0.3 23:0.1176 
-0.1418127322283342 1:1 2:2 3:13 4:22 5:0.5 6:7 7:2 8:0.4091 9:0.3182 10:0.1818 11:0.0909 12:61 13:0.3636 14:1 15:0.5 16:76 17:0.3158 18:0.2368 19:0.2632 20:0.1842 21:0.2647 22:0.78 23:0.0833 
-0.1057181053710192 1:1 2:3 3:15 4:20 5:0.6 6:7 7:1 8:0.25 9:0.2 10:0.4 11:0.15 12:7 13:0.35 14:1 15:0.5 16:76 17:0.3158 18:0.2368 19:0.2632 20:0.1842 21:0.2647 22:0.9 23:0.1429 
-0.2300810145996253 1:1 2:1 3:6 4:29 5:0.4783 6:4 7:4 8:0.2174 9:0.2609 10:0.2174 11:0.3043 12:17 13:0.2549 14:1 15:0.4848 16:66 17:0.2424 18:0.1818 19:0.303 20:0.2727 21:0.2258 22:0.82 23:0.0909 
-0.09088672031974927 1:-1 2:0 3:0 4:25 5:0.5 6:4 7:4 8:0.2917 9:0.125 10:0.375 11:0.2083 12:48 13:0.2727 14:4 15:0.4783 16:46 17:0.2391 18:0.1957 19:0.2826 20:0.2826 21:0.2381 22:0.88 23:-1 
-1 1:4 2:2 3:12 4:24 5:0.4783 6:3 7:3 8:0.3043 9:0.087 10:0.3913 11:0.2174 12:61 13:0.2 14:2 15:0.4706 16:68 17:0.25 18:0.1765 19:0.2941 20:0.2794 21:0.2188 22:1.11 23:0.2632 
-0.00449757676615974 1:-1 2:0 3:3 4:21 5:0.5 6:4 7:3 8:0.35 9:0.1 10:0.4 11:0.15 12:52 13:0.2778 14:4 15:0.4783 16:46 17:0.2391 18:0.1957 19:0.2826 20:0.2826 21:0.2381 22:1 23:0 
-0.7143721733928833 1:-1 2:0 3:2 4:29 5:0.4348 6:4 7:4 8:0.2174 9:0.2609 10:0.1739 11:0.3478 12:20 13:0.2549 14:2 15:0.4746 16:59 17:0.2542 18:0.1864 19:0.2881 20:0.2712 21:0.2364 22:0.8 23:0 
-1 1:1 2:1 3:8 4:23 5:0.5 6:4 7:3 8:0.3182 9:0.0909 10:0.4091 11:0.1818 12:57 13:0.3 14:3 15:0.4746 16:59 17:0.2542 18:0.1864 19:0.2881 20:0.2712 21:0.2364 22:0 23:0.0667 
-1 1:1 2:2 3:9 4:25 5:0.5 6:3 7:4 8:0.2917 9:0.0833 10:0.4167 11:0.2083 12:58 13:0.2727 14:4 15:0.5 16:64 17:0.2344 18:0.1875 19:0.3125 20:0.2656 21:0.2333 22:0.29 23:0.125 
-0.09364655381973994 1:1 2:1 3:7 4:29 5:0.4348 6:4 7:4 8:0.2174 9:0.2174 10:0.2174 11:0.3478 12:16 13:0.2549 14:3 15:0.4706 16:68 17:0.25 18:0.1765 19:0.2941 20:0.2794 21:0.2188 22:0.9 23:0.0769 
-0.04477281274110969 1:-1 2:0 3:0 4:23 5:0.4167 6:4 7:3 8:0.2917 9:0.25 10:0.1667 11:0.2917 12:32 13:0.3043 14:4 15:0.383 16:47 17:0.2553 18:0.1702 19:0.2128 20:0.3617 21:0.1579 22:0 23:-1 
-0.03476374133324387 1:-1 2:0 3:0 4:20 5:0.381 6:4 7:3 8:0.3333 9:0.2381 10:0.1429 11:0.2857 12:32 13:0.35 14:1 15:0.3415 16:41 17:0.2683 18:0.1463 19:0.1951 20:0.3902 21:0.1875 22:0 23:-1 
-0.09181423320035703 1:1 2:1 3:8 4:21 5:0.55 6:2 7:3 8:0.3 9:0.45 10:0.1 11:0.15 12:1 13:0.2 14:4 15:0.5455 16:66 17:0.2727 18:0.2727 19:0.2727 20:0.1818 21:0.1786 22:0.9 23:0.125 
-0.2889545588081399 1:1 2:1 3:6 4:23 5:0.5455 6:2 7:3 8:0.3182 9:0.4545 10:0.0909 11:0.1364 12:1 13:0.1818 14:1 15:0.5455 16:66 17:0.2727 18:0.2727 19:0.2727 20:0.1818 21:0.1786 22:1 23:0.1667 
-1 1:1 2:1 3:6 4:23 5:0.5909 6:2 7:3 8:0.1818 9:0.0909 10:0.5 11:0.2273 12:45 13:0.1818 14:4 15:0.5455 16:66 17:0.2727 18:0.2727 19:0.2727 20:0.1818 21:0.1786 22:1 23:0.1667 
-0.5255277249303064 1:1 2:1 3:7 4:22 5:0.5714 6:2 7:3 8:0.1905 9:0.0952 10:0.4762 11:0.2381 12:46 13:0.1905 14:4 15:0.5455 16:66 17:0.2727 18:0.2727 19:0.2727 20:0.1818 21:0.1786 22:1 23:0.1429 
-0.01296418009777476 1:1 2:1 3:8 4:21 5:0.6 6:2 7:3 8:0.2 9:0.1 10:0.5 11:0.2 12:47 13:0.2 14:4 15:0.5455 16:66 17:0.2727 18:0.2727 19:0.2727 20:0.1818 21:0.1786 22:1.11 23:0.125 
-0.1563722159876312 1:3 2:3 3:16 4:29 5:0.8 6:9 7:2 8:0 9:0.5 10:0.3 11:0.2 12:76 13:0.2245 14:4 15:0.5412 16:85 17:0.1765 18:0.2353 19:0.3059 20:0.2824 21:0.2308 22:1 23:0.2903 
-0.3996943013294435 1:3 2:2 3:13 4:23 5:0.5652 6:5 7:3 8:0.1739 9:0.087 10:0.4783 11:0.2609 12:20 13:0.2195 14:4 15:0.507 16:71 17:0.2113 18:0.2254 19:0.2817 20:0.2817 21:0.2188 22:0 23:0.28 
-0.2572271756160726 1:3 2:3 3:16 4:22 5:0.5909 6:7 7:2 8:0.0909 9:0.0909 10:0.5 11:0.3182 12:18 13:0.2432 14:4 15:0.5068 16:73 17:0.2055 18:0.2192 19:0.2877 20:0.2877 21:0.2424 22:0 23:0.2903 
-0.4254910882009871 1:1 2:1 3:8 4:23 5:0.6364 6:3 7:3 8:0.0455 9:0.4091 10:0.2273 11:0.3182 12:69 13:0.2 14:4 15:0.5455 16:66 17:0.2273 18:0.2424 19:0.303 20:0.2273 21:0.1525 22:0.5 23:0.125 
-0.1888004023155214 1:3 2:3 3:19 4:23 5:0.4783 6:9 7:2 8:0.087 9:0.087 10:0.3913 11:0.4348 12:14 13:0.2973 14:2 15:0.5063 16:79 17:0.1899 18:0.2152 19:0.2911 20:0.3038 21:0.25 22:0.5 23:0.2432 
-0.1712442629550641 1:3 2:3 3:21 4:23 5:0.5217 6:9 7:2 8:0.087 9:0.087 10:0.4348 11:0.3913 12:12 13:0.2973 14:3 15:0.5301 16:83 17:0.1807 18:0.2289 19:0.3012 20:0.2892 21:0.2368 22:1.57 23:0.2195 
-0.1878347252970253 1:3 2:4 3:26 4:21 5:0.4762 6:9 7:2 8:0.0476 9:0.0952 10:0.381 11:0.4762 12:9 13:0.3548 14:2 15:0.5287 16:87 17:0.1839 18:0.2299 19:0.2989 20:0.2874 21:0.25 22:0.55 23:0.2157 
-0.1367477601901777 1:3 2:3 3:15 4:30 5:0.7619 6:9 7:2 8:0 9:0.4762 10:0.2857 11:0.2381 12:75 13:0.2157 14:4 15:0.5412 16:85 17:0.1765 18:0.2353 19:0.3059 20:0.2824 21:0.2308 22:0.92 23:0.3103 
-0.2820986142275062 1:3 2:3 3:22 4:31 5:0.6 6:9 7:4 8:0.05 9:0.4 10:0.2 11:0.35 12:82 13:0.3333 14:4 15:0.4848 16:99 17:0.2121 18:0.2222 19:0.2626 20:0.303 21:0.2609 22:1.17 23:0.2093 
-0.2801654339412125 1:3 2:3 3:17 4:34 5:0.7391 6:9 7:4 8:0.0435 9:0.4783 10:0.2609 11:0.2174 12:77 13:0.2982 14:1 15:0.5053 16:95 17:0.2 18:0.2316 19:0.2737 20:0.2947 21:0.2727 22:2.75 23:0.2727 
-0.1319015846392161 1:4 2:3 3:18 4:24 5:0.5833 6:1 7:2 8:0.125 9:0.125 10:0.4583 11:0.2917 12:58 13:0.0638 14:4 15:0.642 16:81 17:0.1358 18:0.2963 19:0.3457 20:0.2222 21:0.1688 22:1.43 23:0.3333 
-0.1707089018922878 1:4 2:3 3:19 4:22 5:0.5455 6:1 7:1 8:0.1364 9:0.0909 10:0.4545 11:0.3182 12:59 13:0.0455 14:4 15:0.6375 16:80 17:0.1375 18:0.2875 19:0.35 20:0.225 21:0.1579 22:0.9 23:0.3125 
-0.2759700377156213 1:4 2:3 3:19 4:20 5:0.55 6:1 7:1 8:0.1 9:0.1 10:0.45 11:0.35 12:59 13:0.05 14:2 15:0.6447 16:76 17:0.1316 18:0.2895 19:0.3553 20:0.2237 21:0.1667 22:0.82 23:0.3125 
-0.08116430939926435 1:3 2:3 3:17 4:20 5:0.45 6:1 7:1 8:0.3 9:0.1 10:0.35 11:0.25 12:6 13:0.0256 14:2 15:0.4384 16:73 17:0.2055 18:0.1781 19:0.2603 20:0.3562 21:0.1176 22:1.33 23:0.2903 
-0.02455123293638757 1:3 2:3 3:14 4:24 5:0.4583 6:1 7:1 8:0.25 9:0.0833 10:0.375 11:0.2917 12:5 13:0.0213 14:3 15:0.4267 16:75 17:0.2133 18:0.1733 19:0.2533 20:0.36 21:0.1143 22:0.8 23:0.36 
-0.3821131264161178 1:3 2:2 3:12 4:24 5:0.4762 6:2 7:2 8:0.1905 9:0.3333 10:0.1429 11:0.3333 12:57 13:0.1064 14:3 15:0.4366 16:71 17:0.2113 18:0.1831 19:0.2535 20:0.3521 21:0.1212 22:0.56 23:0.2381 
-0.02181890939005787 1:3 2:4 3:20 4:22 5:0.4545 6:3 7:1 8:0.2273 9:0.0909 10:0.3636 11:0.3182 12:1 13:0.1364 14:4 15:0.4458 16:83 17:0.1928 18:0.1687 19:0.2771 20:0.3614 21:0.1795 22:0.2 23:0.2778 
-0.005508447333718735 1:-1 2:0 3:0 4:23 5:0.4 6:3 7:4 8:0.2 9:0.2 10:0.2 11:0.4 12:44 13:0.2857 14:-1 15:0.3721 16:43 17:0.2093 18:0.1395 19:0.2326 20:0.4186 21:0.2105 22:0.62 23:-1 
-0.2760700014824523 1:3 2:3 3:15 4:21 5:0.45 6:1 7:1 8:0.2 9:0.3 10:0.15 11:0.35 12:58 13:0.0244 14:3 15:0.4366 16:71 17:0.2113 18:0.1831 19:0.2535 20:0.3521 21:0.1212 22:1 23:0.3333 
-0.1993428678405763 1:2 2:2 3:11 4:20 5:0.4 6:2 7:4 8:0.15 9:0.15 10:0.25 11:0.45 12:11 13:0.3 14:2 15:0.5147 16:68 17:0.1912 18:0.2059 19:0.3088 20:0.2941 21:0.2542 22:1 23:0.2381 
-0.08934352919926249 1:2 2:3 3:16 4:21 5:0.4762 6:2 7:3 8:0.2381 9:0.1905 10:0.2857 11:0.2857 12:64 13:0.1905 14:4 15:0.5125 16:80 17:0.2 18:0.2125 19:0.3 20:0.2875 21:0.2113 22:0.5 23:0.2903 
-0.04814373284343804 1:2 2:5 3:21 4:20 5:0.45 6:3 7:2 8:0.3 9:0.3 10:0.15 11:0.25 12:1 13:0.25 14:1 15:0.5114 16:88 17:0.2159 18:0.2273 19:0.2841 20:0.2727 21:0.2658 22:0.2 23:0.3171 
-0.06381716090521221 1:1 2:1 3:6 4:21 5:0.2857 6:6 7:4 8:0.2857 9:0.1429 10:0.1429 11:0.4286 12:56 13:0.4444 14:3 15:0.3333 16:51 17:0.2353 18:0.1373 19:0.1961 20:0.4314 21:0.3478 22:0.62 23:0.1667 
-0.1082541348978974 1:2 2:4 3:14 4:24 5:0.4783 6:6 7:4 8:0.3043 9:0.3478 10:0.1304 11:0.2174 12:64 13:0.2683 14:4 15:0.4306 16:72 17:0.2222 18:0.2083 19:0.2222 20:0.3472 21:0.3134 22:0.38 23:0.4286 
-0.1410382488605121 1:2 2:3 3:12 4:26 5:0.5 6:6 7:5 8:0.2 9:0.2 10:0.3 11:0.3 12:15 13:0.3333 14:1 15:0.4306 16:72 17:0.2222 18:0.2083 19:0.2222 20:0.3472 21:0.3134 22:1.6 23:0.3333 
-0.5447306246686717 1:1 2:3 3:10 4:24 5:0.4348 6:6 7:5 8:0.3043 9:0.2609 10:0.1739 11:0.2609 12:60 13:0.3659 14:1 15:0.4062 16:64 17:0.2188 18:0.1875 19:0.2188 20:0.375 21:0.322 22:0.25 23:0.3 
-0.2111381214309014 1:2 2:3 3:11 4:25 5:0.4167 6:6 7:5 8:0.3333 9:0.25 10:0.1667 11:0.25 12:61 13:0.3488 14:3 15:0.3971 16:68 17:0.2353 18:0.1912 19:0.2059 20:0.3676 21:0.3333 22:0.71 23:0.3636 
-0.09248022760260802 1:1 2:2 3:9 4:27 5:0.381 6:6 7:6 8:0.1905 9:0.1905 10:0.1905 11:0.4286 12:17 13:0.4043 14:4 15:0.3971 16:68 17:0.2353 18:0.1912 19:0.2059 20:0.3676 21:0.3333 22:3.5 23:0.2222 
-0.05783636240027386 1:6 2:5 3:28 4:24 5:0.4583 6:3 7:4 8:0.1667 9:0.1667 10:0.2917 11:0.375 12:1 13:0.234 14:2 15:0.42 16:100 17:0.23 18:0.18 19:0.24 20:0.35 21:0.2842 22:0.5 23:0.36 
-0.05208133606376979 1:1 2:2 3:9 4:24 5:0.3913 6:6 7:5 8:0.3043 9:0.2609 10:0.1304 11:0.3043 12:59 13:0.4146 14:2 15:0.3871 16:62 17:0.2258 18:0.1774 19:0.2097 20:0.3871 21:0.3333 22:0.25 23:0.2222 
-0.9514197843000605 1:1 2:2 3:7 4:27 5:0.4286 6:6 7:5 8:0.1429 9:0.1429 10:0.2857 11:0.4286 12:19 13:0.3617 14:1 15:0.4062 16:64 17:0.2188 18:0.1875 19:0.2188 20:0.375 21:0.322 22:1.6 23:0.2857 
-0.1248321807900356 1:6 2:5 3:26 4:24 5:0.4167 6:1 7:4 8:0.2083 9:0.1667 10:0.25 11:0.375 12:3 13:0.1489 14:4 15:0.4167 16:96 17:0.2396 18:0.1875 19:0.2292 20:0.3438 21:0.2527 22:0.88 23:0.3913 
-0.1461424068162353 1:-1 2:0 3:0 4:20 5:0.5238 6:3 7:3 8:0.1905 9:0.3333 10:0.1905 11:0.2857 12:24 13:0.2308 14:-1 15:0.5366 16:41 17:0.2439 18:0.2927 19:0.2439 20:0.2195 21:0.0909 22:5 23:-1 
-0.1203499749763054 1:-1 2:0 3:0 4:23 5:0.5417 6:3 7:3 8:0.1667 9:0.2917 10:0.25 11:0.2917 12:21 13:0.2 14:-1 15:0.5532 16:47 17:0.234 18:0.2979 19:0.2553 20:0.2128 21:0.0769 22:5 23:-1 
-0.06409218517181067 1:1 2:2 3:20 4:21 5:0.35 6:5 7:2 8:0.3 9:0.15 10:0.2 11:0.35 12:1 13:0.3659 14:2 15:0.4773 16:88 17:0.2727 18:0.2386 19:0.2386 20:0.25 21:0.225 22:0.4 23:0.0769 
-0.1569433153370787 1:1 2:2 3:18 4:23 5:0.4348 6:5 7:2 8:0.3478 9:0.2174 10:0.2174 11:0.2174 12:66 13:0.3333 14:1 15:0.4773 16:88 17:0.2727 18:0.2386 19:0.2386 20:0.25 21:0.225 22:5 23:0.0857 
-0.0127452749563753 1:1 2:2 3:13 4:25 5:0.4167 6:5 7:1 8:0.2083 9:0.1667 10:0.25 11:0.375 12:4 13:0.1837 14:3 15:0.4756 16:82 17:0.2561 18:0.2317 19:0.2439 20:0.2683 21:0.1622 22:0.9 23:0.12 
-0.008601517712913941 1:1 2:2 3:16 4:21 5:0.4286 6:5 7:1 8:0.3333 9:0.1905 10:0.2381 11:0.2381 12:64 13:0.2195 14:3 15:0.475 16:80 17:0.2625 18:0.2375 19:0.2375 20:0.2625 21:0.1667 22:1.11 23:0.0968 
-0.005568661650066659 1:-1 2:0 3:0 4:20 5:0.55 6:3 7:3 8:0.15 9:0.35 10:0.2 11:0.3 12:24 13:0.2308 14:2 15:0.5366 16:41 17:0.2439 18:0.2927 19:0.2439 20:0.2195 21:0.0909 22:5 23:-1 
-0.006689875078844021 1:2 2:2 3:13 4:26 5:0.5 6:3 7:4 8:0.0833 9:0.2083 10:0.2917 11:0.4167 12:2 13:0.1837 14:3 15:0.4805 16:77 17:0.2468 18:0.2208 19:0.2597 20:0.2727 21:0.1781 22:1.38 23:0.1667 
-0.02477923324863231 1:2 2:2 3:16 4:24 5:0.5 6:3 7:4 8:0.0909 9:0.2273 10:0.2727 11:0.4091 12:1 13:0.1818 14:1 15:0.4872 16:78 17:0.2436 18:0.2308 19:0.2564 20:0.2692 21:0.1892 22:0.8 23:0.2 
-0.09426798942392875 1:-1 2:0 3:0 4:20 5:0.5 6:2 7:2 8:0.25 9:0.2 10:0.3 11:0.25 12:41 13:0.1579 14:4 15:0.5 16:42 17:0.2143 18:0.1905 19:0.3095 20:0.2857 21:0.1579 22:0.9 23:-1 
-0.02964128034520301 1:-1 2:0 3:0 4:21 5:0.4762 6:2 7:2 8:0.2857 9:0.1905 10:0.2857 11:0.2381 12:41 13:0.15 14:4 15:0.4773 16:44 17:0.2273 18:0.1818 19:0.2955 20:0.2955 21:0.15 22:1 23:-1 
-0.1471305464547067 1:2 2:2 3:17 4:22 5:0.4762 6:3 7:3 8:0.4286 9:0.3333 10:0.1429 11:0.0952 12:58 13:0.1707 14:4 15:0.4805 16:77 17:0.2468 18:0.2208 19:0.2597 20:0.2727 21:0.1781 22:1.12 23:0.1875 
-0.09052192246528186 1:1 2:2 3:16 4:20 5:0.3 6:5 7:2 8:0.2 9:0.15 10:0.15 11:0.5 12:1 13:0.3 14:4 15:0.4211 16:76 17:0.2237 18:0.1842 19:0.2368 20:0.3553 21:0.1884 22:0 23:0.0968 
-0.3765803303969781 1:-1 2:0 3:0 4:24 5:0.5 6:2 7:5 8:0.2083 9:0.0833 10:0.4167 11:0.2917 12:39 13:0.2 14:2 15:0.4615 16:52 17:0.25 18:0.1538 19:0.3077 20:0.2885 21:0.1628 22:0.5 23:-1 
-0.03090043009862046 1:1 2:2 3:15 4:24 5:0.5 6:1 7:5 8:0.0417 9:0.2917 10:0.2083 11:0.4583 12:69 13:0.1915 14:2 15:0.4778 16:90 17:0.2222 18:0.2444 19:0.2333 20:0.3 21:0.1579 22:1.5 23:0.1034 
-0.09719699090760203 1:1 2:1 3:14 4:24 5:0.5 6:1 7:5 8:0.0833 9:0.2917 10:0.2083 11:0.4167 12:68 13:0.1915 14:4 15:0.4886 16:88 17:0.2273 18:0.25 19:0.2386 20:0.2841 21:0.1351 22:0.78 23:0.037 
-0.08790275635630325 1:1 2:1 3:13 4:24 5:0.5652 6:1 7:5 8:0.3043 9:0.3043 10:0.2609 11:0.1304 12:5 13:0.1915 14:2 15:0.4767 16:86 17:0.2326 18:0.2442 19:0.2326 20:0.2907 21:0.1389 22:1 23:0.04 
-0.1376771216199859 1:1 2:2 3:19 4:21 5:0.6 6:2 7:5 8:0.25 9:0.35 10:0.25 11:0.15 12:2 13:0.2683 14:4 15:0.4783 16:92 17:0.2174 18:0.25 19:0.2283 20:0.3043 21:0.1795 22:0.75 23:0.0811 
-0.01893811502804137 1:1 2:1 3:14 4:22 5:0.5238 6:1 7:5 8:0.3333 9:0.2857 10:0.2381 11:0.1429 12:6 13:0.2093 14:2 15:0.4643 16:84 17:0.2381 18:0.2381 19:0.2262 20:0.2976 21:0.1429 22:1.14 23:0.037 
-0.09220748884889148 1:1 2:2 3:17 4:23 5:0.4783 6:2 7:5 8:0 9:0.2609 10:0.2174 11:0.5217 12:71 13:0.2444 14:2 15:0.4783 16:92 17:0.2174 18:0.25 19:0.2283 20:0.3043 21:0.1795 22:1.17 23:0.0909 
-0.1092502299960608 1:-1 2:0 3:0 4:20 5:0.381 6:5 7:2 8:0.4286 9:0.1905 10:0.1905 11:0.1905 12:35 13:0.35 14:4 15:0.4524 16:42 17:0.2619 18:0.2381 19:0.2143 20:0.2857 21:0.1333 22:0 23:-1 
-0.0682290127719796 1:-1 2:0 3:0 4:23 5:0.375 6:5 7:2 8:0.4583 9:0.2083 10:0.1667 11:0.1667 12:35 13:0.3043 14:2 15:0.4375 16:48 17:0.2708 18:0.2292 19:0.2083 20:0.2917 21:0.1111 22:0 23:-1 
-0.009585479928768669 1:-1 2:0 3:0 4:20 5:0.4 6:5 7:2 8:0.45 9:0.2 10:0.2 11:0.15 12:36 13:0.35 14:4 15:0.4524 16:42 17:0.2619 18:0.2381 19:0.2143 20:0.2857 21:0.1333 22:0 23:-1 
-0.009139140918202253 1:1 2:3 3:13 4:20 5:0.5 6:3 7:3 8:0.35 9:0.25 10:0.25 11:0.15 12:64 13:0.25 14:4 15:0.519 16:79 17:0.2532 18:0.2911 19:0.2278 20:0.2278 21:0.2188 22:0.7 23:0.2308 
-0.07046282691055579 1:1 2:4 3:14 4:23 5:0.5217 6:3 7:3 8:0.087 9:0.3043 10:0.2174 11:0.3913 12:1 13:0.3043 14:3 15:0.5172 16:87 17:0.2529 18:0.2874 19:0.2299 20:0.2299 21:0.2778 22:0.22 23:0.2857 
-0.05633160317542907 1:1 2:4 3:17 4:20 5:0.55 6:3 7:3 8:0.1 9:0.35 10:0.2 11:0.35 12:1 13:0.35 14:3 15:0.5172 16:87 17:0.2529 18:0.2874 19:0.2299 20:0.2299 21:0.2778 22:0.25 23:0.2353 
-0.1164418726081332 1:1 2:4 3:15 4:22 5:0.4545 6:3 7:3 8:0.4091 9:0.2273 10:0.2273 11:0.1364 12:66 13:0.3182 14:4 15:0.5172 16:87 17:0.2529 18:0.2874 19:0.2299 20:0.2299 21:0.2778 22:4.5 23:0.2667 
-0.1800102365591301 1:2 2:3 3:12 4:23 5:0.4545 6:1 7:3 8:0.1818 9:0.1818 10:0.2727 11:0.3636 12:63 13:0.1111 14:4 15:0.4868 16:76 17:0.2237 18:0.1974 19:0.2895 20:0.2895 21:0.1642 22:0.73 23:0.3333 
-0.3034576974235209 1:-1 2:0 3:0 4:25 5:0.5 6:2 7:5 8:0.25 9:0.25 10:0.25 11:0.25 12:44 13:0.3061 14:3 15:0.4906 16:53 17:0.2453 18:0.2642 19:0.2264 20:0.2642 21:0.2444 22:0.56 23:-1 
-0.6525282102852012 1:-1 2:0 3:0 4:23 5:0.5217 6:2 7:4 8:0.2609 9:0.3043 10:0.2174 11:0.2174 12:15 13:0.2444 14:4 15:0.4906 16:53 17:0.2453 18:0.2642 19:0.2264 20:0.2642 21:0.2444 22:1.8 23:-1 
-0.05597928638110944 1:-1 2:0 3:0 4:22 5:0.5238 6:2 7:4 8:0.2857 9:0.2857 10:0.2381 11:0.1905 12:46 13:0.2558 14:1 15:0.5098 16:51 17:0.2353 18:0.2745 19:0.2353 20:0.2549 21:0.2558 22:0.5 23:-1 
-0.01787812518218809 1:2 2:3 3:13 4:22 5:0.6818 6:2 7:3 8:0.1364 9:0.4091 10:0.2727 11:0.1818 12:58 13:0.1818 14:2 15:0.5584 16:77 17:0.1948 18:0.2727 19:0.2857 20:0.2468 21:0.2174 22:0.62 23:0.28 
-0.07673513804766167 1:1 2:1 3:5 4:20 5:0.55 6:6 7:2 8:0.25 9:0.25 10:0.3 11:0.2 12:47 13:0.4444 14:2 15:0.5102 16:49 17:0.2449 18:0.3061 19:0.2041 20:0.2449 21:0.3636 22:0 23:0.2 
-0.07692290542311403 1:-1 2:0 3:0 4:27 5:0.4762 6:6 7:3 8:0.2381 9:0.2857 10:0.1905 11:0.2857 12:17 13:0.4 14:1 15:0.5294 16:51 17:0.2353 18:0.3137 19:0.2157 20:0.2353 21:0.3478 22:1.67 23:-1 
-0.3168288255617455 1:1 2:1 3:4 4:24 5:0.5417 6:6 7:2 8:0.25 9:0.25 10:0.2917 11:0.2083 12:46 13:0.3636 14:4 15:0.5273 16:55 17:0.2364 18:0.3091 19:0.2182 20:0.2364 21:0.32 22:0.2 23:0.25 
-0.1499550149161515 1:1 2:2 3:6 4:20 5:0.55 6:5 7:2 8:0.25 9:0.2 10:0.35 11:0.2 12:48 13:0.4054 14:4 15:0.5294 16:51 17:0.2353 18:0.3137 19:0.2157 20:0.2353 21:0.3478 22:0 23:0.2727 
-0.3918716703487901 1:1 2:1 3:2 4:26 5:0.4545 6:6 7:2 8:0.2273 9:0.2727 10:0.1818 11:0.3182 12:15 13:0.3333 14:2 15:0.5273 16:55 17:0.2364 18:0.3091 19:0.2182 20:0.2364 21:0.32 22:1.43 23:0.5 
-0.09405416402024884 1:-1 2:0 3:0 4:20 5:0.5714 6:5 7:3 8:0.2857 9:0.2381 10:0.3333 11:0.1429 12:46 13:0.35 14:4 15:0.4878 16:41 17:0.2195 18:0.1951 19:0.2927 20:0.2927 21:0.1333 22:0 23:-1 
-0.05337114299934604 1:1 2:3 3:10 4:25 5:0.4583 6:2 7:3 8:0.25 9:0.375 10:0.0833 11:0.2917 12:8 13:0.1837 14:3 15:0.4872 16:78 17:0.2308 18:0.2179 19:0.2692 20:0.2821 21:0.194 22:0.89 23:0.3 
-0.05049920338029668 1:1 2:3 3:11 4:25 5:0.5 6:2 7:3 8:0.25 9:0.375 10:0.125 11:0.25 12:7 13:0.1837 14:1 15:0.4875 16:80 17:0.225 18:0.2125 19:0.275 20:0.2875 21:0.1884 22:1 23:0.2727 
-0.1595351203695362 1:2 2:2 3:11 4:26 5:0.4583 6:8 7:3 8:0.2917 9:0.2083 10:0.25 11:0.25 12:1 13:0.4167 14:2 15:0.5205 16:73 17:0.2055 18:0.2466 19:0.274 20:0.274 21:0.3623 22:0 23:0.2381 
-0.009531859987937371 1:2 2:2 3:11 4:25 5:0.4348 6:7 7:3 8:0.3043 9:0.1739 10:0.2609 11:0.2609 12:2 13:0.3913 14:2 15:0.5211 16:71 17:0.2113 18:0.2394 19:0.2817 20:0.2676 21:0.3433 22:0 23:0.2381 
-0.08059966868184497 1:3 2:3 3:15 4:22 5:0.5 6:8 7:2 8:0.3 9:0.25 10:0.25 11:0.2 12:1 13:0.3659 14:2 15:0.5205 16:73 17:0.2055 18:0.2466 19:0.274 20:0.274 21:0.3623 22:0 23:0.3571 
-0.08220125359450139 1:3 2:3 3:14 4:22 5:0.5 6:7 7:2 8:0.3 9:0.2 10:0.3 11:0.2 12:2 13:0.3171 14:1 15:0.5211 16:71 17:0.2113 18:0.2394 19:0.2817 20:0.2676 21:0.3433 22:0 23:0.3846 
-0.002267113865934312 1:-1 2:0 3:0 4:24 5:0.5 6:3 7:5 8:0.2083 9:0.2083 10:0.2917 11:0.2917 12:13 13:0.2889 14:-1 15:0.5957 16:47 17:0.1915 18:0.2979 19:0.2979 20:0.2128 21:0.2558 22:1 23:-1 
-0.04336560084967023 1:1 2:1 3:9 4:26 5:0.625 6:4 7:4 8:0.1667 9:0.2917 10:0.3333 11:0.2083 12:53 13:0.3191 14:4 15:0.5867 16:75 17:0.16 18:0.3333 19:0.2533 20:0.2533 21:0.2615 22:1 23:0.1111 
-0.08840952291042854 1:3 2:5 3:20 4:25 5:0.5417 6:3 7:3 8:0.2917 9:0.125 10:0.4167 11:0.1667 12:68 13:0.2245 14:2 15:0.5495 16:91 17:0.2088 18:0.2857 19:0.2637 20:0.2418 21:0.2381 22:3.33 23:0.2973 
-0.03543398512655933 1:1 2:2 3:9 4:22 5:0.5238 6:1 7:4 8:0.1905 9:0.1429 10:0.381 11:0.2857 12:9 13:0.1628 14:2 15:0.4648 16:71 17:0.2254 18:0.1831 19:0.2817 20:0.3099 21:0.1379 22:0.7 23:0.1765 
-0.1147051045422359 1:-1 2:0 3:0 4:21 5:0.5238 6:6 7:3 8:0.2381 9:0.3333 10:0.1905 11:0.2381 12:44 13:0.35 14:-1 15:0.4634 16:41 17:0.2195 18:0.2195 19:0.2439 20:0.3171 21:0.0714 22:0 23:-1 
-0.2217377314401551 1:4 2:4 3:16 4:21 5:0.45 6:2 7:4 8:0.4 9:0.2 10:0.25 11:0.15 12:62 13:0.2195 14:1 15:0.4937 16:79 17:0.2152 18:0.2278 19:0.2658 20:0.2911 21:0.2857 22:1 23:0.4194 
-0.1099819095013972 1:5 2:4 3:17 4:22 5:0.5238 6:3 7:3 8:0.381 9:0.2381 10:0.2857 11:0.0952 12:63 13:0.2558 14:1 15:0.494 16:83 17:0.2169 18:0.2289 19:0.2651 20:0.2892 21:0.3243 22:5 23:0.4545 
-0.01265143389275662 1:1 2:4 3:13 4:24 5:0.4783 6:4 7:4 8:0.3478 9:0.2174 10:0.2609 11:0.1739 12:59 13:0.3191 14:1 15:0.4937 16:79 17:0.2152 18:0.2278 19:0.2658 20:0.2911 21:0.2857 22:0 23:0.28 
-0.04389503481081361 1:5 2:4 3:18 4:21 5:0.381 6:3 7:3 8:0.1905 9:0.1905 10:0.1905 11:0.4286 12:1 13:0.2683 14:1 15:0.494 16:83 17:0.2169 18:0.2289 19:0.2651 20:0.2892 21:0.3243 22:0.2 23:0.4286 
-0.02508158947526643 1:-1 2:0 3:0 4:21 5:0.5 6:2 7:4 8:0.1 9:0.3 10:0.2 11:0.4 12:41 13:0.2683 14:4 15:0.5238 16:42 17:0.1905 18:0.1905 19:0.3333 20:0.2857 21:0.1892 22:0.8 23:-1 
-0.00263230380570766 1:-1 2:0 3:0 4:22 5:0.4545 6:2 7:4 8:0.1818 9:0.2727 10:0.1818 11:0.3636 12:40 13:0.2558 14:-1 15:0.5 16:44 17:0.2045 18:0.1818 19:0.3182 20:0.2955 21:0.1795 22:0.8 23:-1 
-0.009295941865629617 1:-1 2:0 3:0 4:22 5:0.4762 6:2 7:4 8:0.1429 9:0.2857 10:0.1905 11:0.381 12:41 13:0.2558 14:4 15:0.5 16:44 17:0.2045 18:0.1818 19:0.3182 20:0.2955 21:0.1795 22:0.8 23:-1 
-0.1233662583747496 1:1 2:2 3:5 4:21 5:0.5 6:4 7:3 8:0.25 9:0.3 10:0.2 11:0.25 12:41 13:0.1892 14:1 15:0.5102 16:49 17:0.2449 18:0.2653 19:0.2449 20:0.2449 21:0.1818 22:0 23:0.3333 
-0.06029942223040303 1:-1 2:0 3:0 4:24 5:0.4783 6:5 7:4 8:0.2609 9:0.2174 10:0.2609 11:0.2609 12:36 13:0.2381 14:4 15:0.5111 16:45 17:0.2444 18:0.2667 19:0.2444 20:0.2444 21:0.2 22:1 23:-1 
-0.07237123158158504 1:1 2:1 3:4 4:21 5:0.45 6:5 7:3 8:0.3 9:0.25 10:0.2 11:0.25 12:40 13:0.2222 14:3 15:0.4894 16:47 17:0.2553 18:0.2553 19:0.234 20:0.2553 21:0.1905 22:0 23:0.25 
-0.534854593017333 1:1 2:1 3:2 4:26 5:0.5238 6:5 7:3 8:0.2857 9:0.2381 10:0.2857 11:0.1905 12:10 13:0.1739 14:3 15:0.4717 16:53 17:0.2642 18:0.2453 19:0.2264 20:0.2642 21:0.1667 22:0.82 23:0.5 
-0.09083138881994483 1:-1 2:0 3:0 4:29 5:0.5417 6:5 7:4 8:0.25 9:0.2917 10:0.25 11:0.2083 12:10 13:0.2308 14:1 15:0.4717 16:53 17:0.2642 18:0.2453 19:0.2264 20:0.2642 21:0.1667 22:1.8 23:-1 
-0.3043122512463064 1:1 2:1 3:4 4:24 5:0.4348 6:5 7:3 8:0.2609 9:0.2609 10:0.1739 11:0.3043 12:40 13:0.1905 14:3 15:0.4717 16:53 17:0.2642 18:0.2453 19:0.2264 20:0.2642 21:0.1667 22:0 23:0.25 
-0.1364071982040655 1:1 2:2 3:11 4:22 5:0.4545 6:4 7:2 8:0.3636 9:0.1818 10:0.2727 11:0.1818 12:11 13:0.3023 14:4 15:0.4493 16:69 17:0.2319 18:0.2319 19:0.2174 20:0.3188 21:0.2258 22:0.75 23:0.1429 
-0.07385029495337816 1:1 2:1 3:14 4:26 5:0.6087 6:5 7:4 8:0.087 9:0.2174 10:0.3913 11:0.3043 12:1 13:0.3913 14:4 15:0.5181 16:83 17:0.1687 18:0.2651 19:0.253 20:0.3133 21:0.2603 22:0 23:0.037 
-0.1898675552779662 1:-1 2:0 3:8 4:24 5:0.5652 6:3 7:4 8:0.0435 9:0.3043 10:0.2609 11:0.3913 12:56 13:0.2273 14:4 15:0.5429 16:70 17:0.1571 18:0.2714 19:0.2714 20:0.3 21:0.1667 22:1.8 23:0 
-0.1320566724306542 1:1 2:1 3:14 4:21 5:0.6667 6:3 7:3 8:0.0952 9:0.381 10:0.2857 11:0.2381 12:61 13:0.2821 14:4 15:0.5395 16:76 17:0.1711 18:0.2632 19:0.2763 20:0.2895 21:0.1818 22:1.6 23:0.037 
-0.09373247251579843 1:-1 2:0 3:11 4:23 5:0.65 6:3 7:4 8:0.15 9:0.25 10:0.4 11:0.2 12:7 13:0.2857 14:4 15:0.527 16:74 17:0.1757 18:0.2568 19:0.2703 20:0.2973 21:0.1875 22:0.57 23:0 
-1 1:2 2:1 3:3 4:22 5:0.55 6:3 7:2 8:0.15 9:0.1 10:0.45 11:0.3 12:13 13:0.1905 14:3 15:0.4815 16:54 17:0.1296 18:0.1667 19:0.3148 20:0.3889 21:0.25 22:1.29 23:0.6667 
-0.5947068083904273 1:-1 2:0 3:0 4:25 5:0.5652 6:3 7:3 8:0.1304 9:0.087 10:0.4783 11:0.3043 12:13 13:0.25 14:4 15:0.4815 16:54 17:0.1296 18:0.1667 19:0.3148 20:0.3889 21:0.25 22:1.8 23:-1 
-0.1335219712739774 1:3 2:1 3:13 4:22 5:0.7619 6:2 7:3 8:0.1905 9:0.4286 10:0.3333 11:0.0476 12:54 13:0.1628 14:2 15:0.5286 16:70 17:0.1857 18:0.2571 19:0.2714 20:0.2857 21:0.1515 22:0.45 23:0.1304 
-0.1019334425601065 1:3 2:2 3:18 4:21 5:0.6667 6:1 7:3 8:0.0952 9:0.3333 10:0.3333 11:0.2381 12:1 13:0.1 14:3 15:0.5584 16:77 17:0.1818 18:0.2727 19:0.2857 20:0.2597 21:0.1507 22:1 23:0.2121 
-0.06123638963473914 1:3 2:1 3:12 4:22 5:0.5909 6:2 7:3 8:0.0909 9:0.2727 10:0.3182 11:0.3182 12:6 13:0.1628 14:1 15:0.5441 16:68 17:0.1765 18:0.2647 19:0.2794 20:0.2794 21:0.1562 22:2.2 23:0.1429 
-0.6072210323395458 1:3 2:1 3:12 4:22 5:0.7619 6:2 7:3 8:0.1429 9:0.4286 10:0.3333 11:0.0952 12:53 13:0.1628 14:4 15:0.5441 16:68 17:0.1765 18:0.2647 19:0.2794 20:0.2794 21:0.1562 22:0.45 23:0.1429 
-0.09555562794071883 1:3 2:1 3:14 4:20 5:0.6 6:2 7:3 8:0.05 9:0.3 10:0.3 11:0.35 12:6 13:0.1795 14:2 15:0.5441 16:68 17:0.1765 18:0.2647 19:0.2794 20:0.2794 21:0.1562 22:2.75 23:0.12 
-0.04760284833174466 1:3 2:2 3:17 4:21 5:0.619 6:1 7:3 8:0.0952 9:0.3333 10:0.2857 11:0.2857 12:2 13:0.1 14:1 15:0.5467 16:75 17:0.1867 18:0.2667 19:0.28 20:0.2667 21:0.1549 22:1 23:0.2258 
-0.008612685717150322 1:2 2:3 3:20 4:24 5:0.4783 6:2 7:6 8:0.1304 9:0.3043 10:0.1739 11:0.3913 12:5 13:0.2444 14:3 15:0.5814 16:86 17:0.1977 18:0.2442 19:0.3372 20:0.2209 21:0.1951 22:0.29 23:0.1351 
-0.05181884962643299 1:2 2:4 3:25 4:21 5:0.55 6:3 7:5 8:0.1 9:0.4 10:0.15 11:0.35 12:3 13:0.3333 14:1 15:0.6 16:90 17:0.1889 18:0.2667 19:0.3333 20:0.2111 21:0.2326 22:0.29 23:0.1489 
-0.004372883830876069 1:-1 2:0 3:1 4:21 5:0.65 6:2 7:4 8:0.1 9:0.2 10:0.45 11:0.25 12:51 13:0.1795 14:4 15:0.6222 16:45 17:0.1778 18:0.2667 19:0.3556 20:0.2 21:0.1707 22:0.86 23:0 
-0.03293748170251277 1:-1 2:0 3:1 4:22 5:0.6818 6:8 7:3 8:0.0909 9:0.3182 10:0.3636 11:0.2273 12:16 13:0.4419 14:4 15:0.5102 16:49 17:0.3265 18:0.2041 19:0.3061 20:0.1633 21:0.4222 22:3 23:0 
-1 1:3 2:1 3:5 4:23 5:0.3913 6:5 7:3 8:0.5652 9:0.1739 10:0.2174 11:0.0435 12:47 13:0.3043 14:3 15:0.4915 16:59 17:0.322 18:0.2034 19:0.2881 20:0.1864 21:0.3455 22:0 23:0.5556 
-0.1465031786843311 1:-1 2:0 3:0 4:23 5:0.3043 6:8 7:4 8:0.5652 9:0.1304 10:0.1739 11:0.1304 12:41 13:0.4667 14:-1 15:0.4894 16:47 17:0.3404 18:0.1915 19:0.2979 20:0.1702 21:0.4419 22:0.83 23:-1 
-1 1:5 2:1 3:7 4:21 5:0.5238 6:3 7:3 8:0.0952 9:0.2381 10:0.2857 11:0.381 12:11 13:0.2381 14:1 15:0.4915 16:59 17:0.322 18:0.2034 19:0.2881 20:0.1864 21:0.3455 22:3.33 23:0.6923 
-0.06358158539670045 1:-1 2:0 3:0 4:24 5:0.3478 6:8 7:3 8:0.5652 9:0.1304 10:0.2174 11:0.087 12:43 13:0.4043 14:4 15:0.4902 16:51 17:0.3333 18:0.1961 19:0.2941 20:0.1765 21:0.4043 22:0.56 23:-1 
-0.1574707804964152 1:-1 2:0 3:0 4:22 5:0.6818 6:8 7:3 8:0.0909 9:0.2727 10:0.4091 11:0.2273 12:17 13:0.4419 14:4 15:0.4894 16:47 17:0.3404 18:0.1915 19:0.2979 20:0.1702 21:0.4419 22:1.2 23:-1 
-1 1:1 2:1 3:3 4:25 5:0.3043 6:2 7:4 8:0.1304 9:0.1739 10:0.1304 11:0.5652 12:17 13:0.1915 14:2 15:0.2857 16:56 17:0.375 18:0.1429 19:0.1429 20:0.3393 21:0.1765 22:1.8 23:0.3333 
-0.1598076716799708 1:1 2:1 3:2 4:23 5:0.3333 6:2 7:4 8:0.1429 9:0.1429 10:0.1905 11:0.5238 12:20 13:0.2093 14:1 15:0.28 16:50 17:0.38 18:0.14 19:0.14 20:0.34 21:0.2 22:1.33 23:0.5 
-1 1:1 2:2 3:4 4:24 5:0.2727 6:2 7:4 8:0.1364 9:0.1818 10:0.0909 11:0.5909 12:17 13:0.1556 14:2 15:0.2857 16:56 17:0.375 18:0.1429 19:0.1429 20:0.3393 21:0.1765 22:1.29 23:0.5 
-1 1:1 2:1 3:3 4:24 5:0.3182 6:2 7:4 8:0.1364 9:0.1818 10:0.1364 11:0.5455 12:18 13:0.2 14:2 15:0.2963 16:54 17:0.3704 18:0.1481 19:0.1481 20:0.3333 21:0.1837 22:1.8 23:0.3333 
-0.09756155767543716 1:2 2:3 3:12 4:26 5:0.6667 6:2 7:6 8:0.125 9:0.375 10:0.2917 11:0.2083 12:6 13:0.24 14:3 15:0.6098 16:82 17:0.1707 18:0.3171 19:0.2927 20:0.2195 21:0.2703 22:1.38 23:0.3333 
-0.0437737081769632 1:2 2:3 3:16 4:25 5:0.6957 6:2 7:6 8:0.1304 9:0.4348 10:0.2609 11:0.1739 12:3 13:0.25 14:1 15:0.6136 16:88 17:0.1591 18:0.3182 19:0.2955 20:0.2273 21:0.275 22:1 23:0.3125 
-0.09323644871875092 1:-1 2:0 3:0 4:20 5:0.5 6:4 7:3 8:0.2 9:0 10:0.5 11:0.3 12:45 13:0.3846 14:4 15:0.4878 16:41 17:0.1707 18:0.1707 19:0.3171 20:0.3415 21:0.3514 22:2.5 23:-1 
-0.002864803923657844 1:3 2:2 3:17 4:24 5:0.4167 6:2 7:6 8:0.2083 9:0.25 10:0.1667 11:0.375 12:63 13:0.3333 14:3 15:0.4941 16:85 17:0.1647 18:0.2118 19:0.2824 20:0.3412 21:0.3333 22:1 23:0.3333 
-0.004993356886225103 1:3 2:2 3:17 4:20 5:0.55 6:2 7:5 8:0.1 9:0.15 10:0.4 11:0.35 12:6 13:0.3 14:4 15:0.4675 16:77 17:0.1818 18:0.1818 19:0.2857 20:0.3506 21:0.3151 22:1.33 23:0.3333 
-0.08860232993226964 1:3 2:2 3:15 4:23 5:0.5652 6:3 7:5 8:0.087 9:0.2174 10:0.3478 11:0.3478 12:5 13:0.3478 14:4 15:0.481 16:79 17:0.1772 18:0.1899 19:0.2911 20:0.3418 21:0.3067 22:4 23:0.2414 
-0.0364019508553908 1:1 2:1 3:9 4:24 5:0.3913 6:2 7:5 8:0.2609 9:0.2174 10:0.1739 11:0.3478 12:2 13:0.2174 14:2 15:0.4658 16:73 17:0.2603 18:0.2603 19:0.2055 20:0.274 21:0.1613 22:0.5 23:0.1111 
-0.1228558684297289 1:1 2:1 3:8 4:24 5:0.4783 6:1 7:5 8:0.3043 9:0.2609 10:0.2174 11:0.2174 12:51 13:0.1739 14:2 15:0.4507 16:71 17:0.2676 18:0.2394 19:0.2113 20:0.2817 21:0.1333 22:1.6 23:0.125 
-0.01143999422027953 1:3 2:2 3:14 4:23 5:0.5217 6:2 7:4 8:0.3478 9:0.2174 10:0.3043 11:0.1304 12:67 13:0.2444 14:1 15:0.4483 16:87 17:0.2874 18:0.2299 19:0.2184 20:0.2644 21:0.2603 22:1.8 23:0.2857 
-0.05453757253444821 1:1 2:2 3:11 4:20 5:0.4 6:2 7:3 8:0.05 9:0.2 10:0.2 11:0.55 12:8 13:0.3 14:1 15:0.4474 16:76 17:0.2895 18:0.2368 19:0.2105 20:0.2632 21:0.2581 22:1.25 23:0.1818 
-0.09734415768959508 1:1 2:1 3:7 4:24 5:0.5 6:3 7:3 8:0.4167 9:0.2917 10:0.2083 11:0.0833 12:60 13:0.2917 14:1 15:0.4474 16:76 17:0.2895 18:0.2368 19:0.2105 20:0.2632 21:0.2581 22:1.4 23:0.1429 
-0.1067046462249067 1:1 2:1 3:6 4:24 5:0.5 6:3 7:3 8:0.4167 9:0.2917 10:0.2083 11:0.0833 12:59 13:0.2917 14:2 15:0.4324 16:74 17:0.2973 18:0.2297 19:0.2027 20:0.2703 21:0.2667 22:2 23:0.1667 
-0.8417413004208942 1:1 2:1 3:7 4:21 5:0.4762 6:3 7:3 8:0.4286 9:0.3333 10:0.1429 11:0.0952 12:60 13:0.2857 14:4 15:0.4429 16:70 17:0.3 18:0.2429 19:0.2 20:0.2571 21:0.25 22:2.33 23:0.1429 
-0.03216725716550162 1:2 2:3 3:15 4:20 5:0.3 6:1 7:2 8:0.45 9:0.1 10:0.2 11:0.25 12:6 13:0.1 14:2 15:0.3457 16:81 17:0.284 18:0.1728 19:0.1728 20:0.3704 21:0.1594 22:1 23:0.2414 
-0.06291153386736424 1:2 2:3 3:16 4:24 5:0.2917 6:3 7:3 8:0.4167 9:0.0833 10:0.2083 11:0.2917 12:1 13:0.2083 14:1 15:0.3516 16:91 17:0.2747 18:0.1868 19:0.1648 20:0.3736 21:0.2152 22:0.38 23:0.2258 
-0.07395472452435409 1:2 2:3 3:20 4:20 5:0.5 6:3 7:3 8:0.15 9:0.4 10:0.1 11:0.35 12:72 13:0.25 14:4 15:0.3516 16:91 17:0.2747 18:0.1868 19:0.1648 20:0.3736 21:0.2152 22:3.33 23:0.1795 
-0.004021794483321128 1:2 2:2 3:11 4:24 5:0.4583 6:1 7:3 8:0.1667 9:0.2917 10:0.1667 11:0.375 12:63 13:0.125 14:4 15:0.3457 16:81 17:0.284 18:0.1728 19:0.1728 20:0.3704 21:0.1594 22:1.12 23:0.2381 
-0.07770017383762778 1:2 2:3 3:17 4:21 5:0.55 6:2 7:3 8:0.15 9:0.25 10:0.3 11:0.3 12:63 13:0.15 14:1 15:0.4557 16:79 17:0.2405 18:0.2278 19:0.2278 20:0.3038 21:0.1714 22:1 23:0.25 
-0.5786868450140912 1:2 2:2 3:14 4:21 5:0.45 6:2 7:4 8:0.15 9:0.2 10:0.25 11:0.4 12:60 13:0.2308 14:4 15:0.4521 16:73 17:0.2466 18:0.2329 19:0.2192 20:0.3014 21:0.1875 22:0.62 23:0.1852 
-0.06790860620729576 1:-1 2:0 3:0 4:20 5:0.5 6:4 7:2 8:0.45 9:0.25 10:0.25 11:0.05 12:52 13:0.25 14:4 15:0.4783 16:46 17:0.3261 18:0.2174 19:0.2609 20:0.1957 21:0.0625 22:0 23:-1 
-0.1677539892181012 1:1 2:1 3:12 4:26 5:0.5238 6:8 7:4 8:0.2381 9:0.2857 10:0.2381 11:0.2381 12:68 13:0.3617 14:2 15:0.4471 16:85 17:0.3294 18:0.2235 19:0.2235 20:0.2235 21:0.2676 22:1.57 23:0.0833 
-0.1712136361473406 1:7 2:2 3:24 4:20 5:0.45 6:3 7:5 8:0.3 9:0.15 10:0.3 11:0.25 12:75 13:0.2973 14:1 15:0.4574 16:94 17:0.3191 18:0.2234 19:0.234 20:0.2234 21:0.275 22:2.67 23:0.2558 
-0.1818376696667268 1:1 2:1 3:16 4:27 5:0.5 6:8 7:5 8:0.2727 9:0.1818 10:0.3182 11:0.2273 12:72 13:0.4043 14:1 15:0.4624 16:93 17:0.3118 18:0.2258 19:0.2366 20:0.2258 21:0.2658 22:0.4 23:0.0625 
-0.05097660851744445 1:1 2:1 3:15 4:25 5:0.45 6:8 7:4 8:0.3 9:0.15 10:0.3 11:0.25 12:71 13:0.3778 14:1 15:0.4494 16:89 17:0.3258 18:0.2247 19:0.2247 20:0.2247 21:0.2533 22:0.4 23:0.0667 
-0.09220751783501248 1:1 2:1 3:14 4:27 5:0.5 6:8 7:4 8:0.2727 9:0.2273 10:0.2727 11:0.2273 12:70 13:0.3469 14:1 15:0.4615 16:91 17:0.3187 18:0.2308 19:0.2308 20:0.2198 21:0.2468 22:0.7 23:0.0714 
-0.05012223777103445 1:-1 2:0 3:0 4:20 5:0.5 6:5 7:2 8:0.45 9:0.25 10:0.25 11:0.05 12:51 13:0.3 14:1 15:0.5 16:44 17:0.3182 18:0.2273 19:0.2727 20:0.1818 21:0.0667 22:0 23:-1 
-0.1765223446528945 1:-1 2:0 3:0 4:28 5:0.5217 6:7 7:3 8:0.4348 9:0.2609 10:0.2609 11:0.0435 12:52 13:0.3725 14:2 15:0.4386 16:57 17:0.3333 18:0.193 19:0.2456 20:0.2281 21:0.2558 22:0 23:-1 
-0.04427890614059236 1:2 2:2 3:12 4:20 5:0.5 6:3 7:2 8:0.3 9:0.3 10:0.2 11:0.2 12:1 13:0.3 14:1 15:0.5067 16:75 17:0.2267 18:0.24 19:0.2667 20:0.2667 21:0.2581 22:1.5 23:0.25 
-0.1645175029817054 1:3 2:2 3:10 4:23 5:0.5652 6:3 7:3 8:0.0435 9:0.2609 10:0.3043 11:0.3913 12:53 13:0.2 14:4 15:0.52 16:75 17:0.1733 18:0.2133 19:0.3067 20:0.3067 21:0.2258 22:5 23:0.3684 
-0.431533346725399 1:-1 2:0 3:0 4:24 5:0.4783 6:4 7:2 8:0.0435 9:0.3043 10:0.1739 11:0.4783 12:41 13:0.2766 14:1 15:0.4808 16:52 17:0.1731 18:0.2308 19:0.25 20:0.3462 21:0.1282 22:0 23:-1 
-0.1277177093526111 1:4 2:2 3:12 4:24 5:0.2917 6:1 7:2 8:0.2917 9:0.125 10:0.1667 11:0.4167 12:54 13:0.0638 14:4 15:0.3243 16:74 17:0.2838 18:0.1081 19:0.2162 20:0.3919 21:0.2059 22:1.14 23:0.5238 
-0.03687557023429054 1:-1 2:0 3:0 4:21 5:0.3182 6:4 7:3 8:0.2727 9:0.0909 10:0.2273 11:0.4091 12:20 13:0.3846 14:-1 15:0.2927 16:41 17:0.2683 18:0.0976 19:0.1951 20:0.439 21:0.3143 22:2.25 23:-1 
-0.0568368919551118 1:-1 2:0 3:0 4:21 5:0.3333 6:4 7:3 8:0.2857 9:0.0952 10:0.2381 11:0.381 12:20 13:0.3846 14:4 15:0.2927 16:41 17:0.2683 18:0.0976 19:0.1951 20:0.439 21:0.3143 22:2.25 23:-1 
-0.06130999123165888 1:1 2:2 3:12 4:22 5:0.6818 6:3 7:3 8:0.1364 9:0.3636 10:0.3182 11:0.1818 12:1 13:0.2727 14:1 15:0.6076 16:79 17:0.1139 18:0.3038 19:0.3038 20:0.2785 21:0.2121 22:0.33 23:0.1667 
-0.04702127568319291 1:2 2:2 3:15 4:24 5:0.375 6:4 7:5 8:0.2083 9:0.1667 10:0.2083 11:0.4167 12:1 13:0.4167 14:1 15:0.4483 16:87 17:0.2069 18:0.2644 19:0.1839 20:0.3448 21:0.3158 22:0.38 23:0.2 
-1 1:1 2:1 3:8 4:21 5:0.5714 6:4 7:4 8:0.3333 9:0.4286 10:0.1429 11:0.0952 12:57 13:0.381 14:4 15:0.4478 16:67 17:0.209 18:0.2537 19:0.194 20:0.3433 21:0.2857 22:1 23:0.125 
-0.6094784806443584 1:1 2:1 3:9 4:23 5:0.5714 6:4 7:3 8:0.2381 9:0.4286 10:0.1429 11:0.1905 12:51 13:0.2273 14:4 15:0.6087 16:69 17:0.2029 18:0.2754 19:0.3333 20:0.1884 21:0.1667 22:0.62 23:0.1111 
-0.07187040644327194 1:4 2:2 3:13 4:20 5:0.6 6:2 7:2 8:0.1 9:0.1 10:0.5 11:0.3 12:2 13:0.15 14:1 15:0.6056 16:71 17:0.1972 18:0.2817 19:0.3239 20:0.1972 21:0.1935 22:0.5 23:0.3333 
-0.03576376917916733 1:4 2:4 3:24 4:24 5:0.5217 6:1 7:5 8:0.087 9:0.3913 10:0.1304 11:0.3913 12:3 13:0.1739 14:4 15:0.4792 16:96 17:0.1771 18:0.2396 19:0.2396 20:0.3438 21:0.2391 22:0.89 23:0.3043 
-0.004899684991544072 1:4 2:1 3:15 4:23 5:0.4783 6:2 7:6 8:0.1739 9:0.3913 10:0.087 11:0.3478 12:12 13:0.2889 14:2 15:0.4487 16:78 17:0.1795 18:0.2308 19:0.2179 20:0.3718 21:0.2703 22:0.5 23:0.2414 
-0.0831800346170925 1:-1 2:0 3:0 4:21 5:0.4545 6:4 7:4 8:0.1818 9:0.1818 10:0.2727 11:0.3636 12:30 13:0.3 14:-1 15:0.4762 16:42 17:0.1667 18:0.2381 19:0.2381 20:0.3571 21:0.2632 22:1.6 23:-1 
-0.1101224575795132 1:4 2:3 3:20 4:20 5:0.45 6:1 7:5 8:0.15 9:0.4 10:0.05 11:0.4 12:10 13:0.25 14:3 15:0.4512 16:82 17:0.1829 18:0.2317 19:0.2195 20:0.3659 21:0.2564 22:1.75 23:0.2632 
-0.2898783928786305 1:4 2:2 3:18 4:21 5:0.381 6:2 7:5 8:0.2381 9:0.0476 10:0.3333 11:0.381 12:70 13:0.2857 14:2 15:0.4375 16:80 17:0.1875 18:0.225 19:0.2125 20:0.375 21:0.2632 22:0.83 23:0.2353 
-0.1196109589489014 1:4 2:1 3:14 4:24 5:0.4348 6:2 7:6 8:0.1739 9:0.087 10:0.3478 11:0.3913 12:67 13:0.2766 14:4 15:0.4487 16:78 17:0.1795 18:0.2308 19:0.2179 20:0.3718 21:0.2703 22:2.75 23:0.2593 
-0.1221377011308007 1:4 2:1 3:15 4:24 5:0.4583 6:2 7:6 8:0.1667 9:0.375 10:0.0833 11:0.375 12:11 13:0.2766 14:2 15:0.4375 16:80 17:0.1875 18:0.225 19:0.2125 20:0.375 21:0.2632 22:0.75 23:0.2414 
-0.1289623957169365 1:3 2:2 3:14 4:26 5:0.4167 6:2 7:5 8:0.25 9:0.125 10:0.2917 11:0.3333 12:61 13:0.24 14:4 15:0.4167 16:84 17:0.2619 18:0.2143 19:0.2024 20:0.3214 21:0.2267 22:2.2 23:0.2593 
-0.2522497208460111 1:3 2:2 3:19 4:23 5:0.5455 6:1 7:4 8:0.2273 9:0.3182 10:0.2273 11:0.2273 12:70 13:0.1556 14:4 15:0.4471 16:85 17:0.2118 18:0.2118 19:0.2235 20:0.3412 21:0.1605 22:0.8 23:0.1667 
-0.1417692534786441 1:3 2:2 3:18 4:24 5:0.5652 6:1 7:4 8:0.2174 9:0.3478 10:0.2174 11:0.2174 12:69 13:0.1489 14:4 15:0.4471 16:85 17:0.2118 18:0.2118 19:0.2235 20:0.3412 21:0.1605 22:0.8 23:0.1765 
-0.1127843704300142 1:3 2:5 3:26 4:22 5:0.5455 6:3 7:2 8:0.1818 9:0.2273 10:0.3182 11:0.2727 12:76 13:0.1818 14:1 15:0.4536 16:97 17:0.2062 18:0.2165 19:0.2268 20:0.3402 21:0.2043 22:4.5 23:0.2245 
-0.0363046319831388 1:3 2:4 3:23 4:24 5:0.5833 6:2 7:3 8:0.125 9:0.3333 10:0.25 11:0.2917 12:2 13:0.1667 14:1 15:0.4632 16:95 17:0.2 18:0.2211 19:0.2316 20:0.3368 21:0.1868 22:0.62 23:0.2093 
-0.8544588293644457 1:1 2:4 3:16 4:24 5:0.5 6:2 7:3 8:0.3182 9:0.1818 10:0.3182 11:0.1818 12:63 13:0.1739 14:3 15:0.4935 16:77 17:0.2727 18:0.2208 19:0.2727 20:0.2338 21:0.1622 22:0.86 23:0.2 
-0.1332555592620693 1:2 2:6 3:26 4:21 5:0.4286 6:3 7:2 8:0.1429 9:0.1905 10:0.2381 11:0.4286 12:1 13:0.2195 14:3 15:0.5055 16:91 17:0.2637 18:0.2418 19:0.2637 20:0.2308 21:0.2045 22:0.22 23:0.2245 
-0.04629707325393322 1:1 2:4 3:16 4:24 5:0.375 6:2 7:3 8:0.25 9:0.125 10:0.25 11:0.375 12:8 13:0.1739 14:4 15:0.4935 16:77 17:0.2727 18:0.2208 19:0.2727 20:0.2338 21:0.1622 22:0.83 23:0.2 
-0.06669733426669554 1:2 2:6 3:21 4:24 5:0.4167 6:2 7:2 8:0.1667 9:0.1667 10:0.25 11:0.4167 12:3 13:0.1064 14:3 15:0.4943 16:87 17:0.2759 18:0.2299 19:0.2644 20:0.2299 21:0.1667 22:0.7 23:0.2821 
-0.04153135932011115 1:-1 2:0 3:0 4:25 5:0.625 6:2 7:6 8:0.25 9:0.375 10:0.25 11:0.125 12:47 13:0.234 14:-1 15:0.5625 16:48 17:0.2708 18:0.2917 19:0.2708 20:0.1667 21:0.2 22:0.8 23:-1 
-0.05719160960646412 1:2 2:6 3:24 4:23 5:0.4545 6:3 7:2 8:0.3636 9:0.1818 10:0.2727 11:0.1818 12:70 13:0.2 14:3 15:0.5055 16:91 17:0.2637 18:0.2418 19:0.2637 20:0.2308 21:0.2045 22:4 23:0.2444 
-0.1884720836614528 1:2 2:6 3:23 4:21 5:0.45 6:2 7:1 8:0.35 9:0.2 10:0.25 11:0.2 12:69 13:0.0732 14:2 15:0.4941 16:85 17:0.2706 18:0.2235 19:0.2706 20:0.2353 21:0.1463 22:0.9 23:0.2558 
-0.117568500284597 1:2 2:6 3:23 4:24 5:0.4783 6:3 7:2 8:0.3478 9:0.2174 10:0.2609 11:0.1739 12:69 13:0.1915 14:3 15:0.5055 16:91 17:0.2637 18:0.2418 19:0.2637 20:0.2308 21:0.2045 22:4.5 23:0.2558 
-0.04751629491415976 1:1 2:3 3:20 4:20 5:0.6 6:4 7:2 8:0.2 9:0.4 10:0.2 11:0.2 12:66 13:0.1667 14:4 15:0.5595 16:84 17:0.1905 18:0.2619 19:0.2976 20:0.25 21:0.1351 22:1 23:0.1053 
-0.09405665486505224 1:1 2:2 3:9 4:24 5:0.4583 6:1 7:2 8:0.1667 9:0.0833 10:0.375 11:0.375 12:5 13:0.0638 14:1 15:0.527 16:74 17:0.2162 18:0.2432 19:0.2838 20:0.2568 21:0.0938 22:0.9 23:0.1765 
-0.1521086731813242 1:1 2:2 3:12 4:28 5:0.5 6:4 7:3 8:0.1667 9:0.0833 10:0.4167 11:0.3333 12:2 13:0.1373 14:3 15:0.5595 16:84 17:0.1905 18:0.2619 19:0.2976 20:0.25 21:0.1351 22:1.57 23:0.1304 
-0.003646213828144229 1:3 2:2 3:14 4:22 5:0.4091 6:-1 7:0 8:0.3636 9:0.0909 10:0.3182 11:0.2273 12:10 13:0 14:3 15:0.4211 16:76 17:0.2763 18:0.2105 19:0.2105 20:0.3026 21:0.0857 22:0.8 23:0.2308 
-0.07600639144998193 1:3 2:2 3:21 4:20 5:0.5 6:1 7:1 8:0.25 9:0.25 10:0.25 11:0.25 12:5 13:0.05 14:4 15:0.4302 16:86 17:0.2791 18:0.2209 19:0.2093 20:0.2907 21:0.1 22:1 23:0.15 
-0.1016776326431981 1:3 2:2 3:21 4:25 5:0.5 6:4 7:2 8:0.25 9:0.2083 10:0.2917 11:0.25 12:1 13:0.1837 14:4 15:0.4316 16:95 17:0.2947 18:0.2105 19:0.2211 20:0.2737 21:0.1685 22:0.2 23:0.15 
-0.06078444197052144 1:3 2:2 3:14 4:21 5:0.4286 6:-1 7:0 8:0.3333 9:0.0952 10:0.3333 11:0.2381 12:11 13:0 14:3 15:0.4324 16:74 17:0.2703 18:0.2162 19:0.2162 20:0.2973 21:0.0882 22:0.9 23:0.2308 
-0.121937578653651 1:3 2:2 3:16 4:20 5:0.4 6:-1 7:0 8:0.35 9:0.1 10:0.3 11:0.25 12:10 13:0 14:4 15:0.4211 16:76 17:0.2763 18:0.2105 19:0.2105 20:0.3026 21:0.0857 22:0.89 23:0.2 
-0.07760896788203397 1:3 2:2 3:16 4:22 5:0.3636 6:1 7:1 8:0.2727 9:0.2273 10:0.1364 11:0.3636 12:66 13:0.0455 14:2 15:0.4375 16:80 17:0.275 18:0.225 19:0.2125 20:0.2875 21:0.1081 22:1.29 23:0.2 
-0.01573545538978276 1:3 2:2 3:20 4:20 5:0.5 6:1 7:1 8:0.25 9:0.25 10:0.25 11:0.25 12:6 13:0.05 14:1 15:0.4405 16:84 17:0.2738 18:0.2262 19:0.2143 20:0.2857 21:0.1026 22:0.8 23:0.1579 
-0.03539157215731204 1:3 2:2 3:17 4:24 5:0.4583 6:1 7:1 8:0.2917 9:0.2083 10:0.25 11:0.25 12:5 13:0.0417 14:4 15:0.4302 16:86 17:0.2791 18:0.2209 19:0.2093 20:0.2907 21:0.1 22:1.11 23:0.1875 
-0.1684475817570849 1:2 2:3 3:11 4:24 5:0.7083 6:1 7:2 8:0.125 9:0.4167 10:0.2917 11:0.1667 12:62 13:0.0833 14:1 15:0.6049 16:81 17:0.2222 18:0.3457 19:0.2593 20:0.1728 21:0.1471 22:0.89 23:0.3636 
-0.08929218658456863 1:2 2:3 3:13 4:23 5:0.7826 6:1 7:1 8:0.1739 9:0.3478 10:0.4348 11:0.0435 12:4 13:0.0435 14:4 15:0.5904 16:83 17:0.2289 18:0.3373 19:0.253 20:0.1807 21:0.1429 22:0.92 23:0.3846 
-0.07217062410680913 1:2 2:2 3:9 4:22 5:0.6364 6:2 7:1 8:0.1364 9:0.4091 10:0.2273 11:0.2273 12:60 13:0.0909 14:2 15:0.5753 16:73 17:0.2329 18:0.3288 19:0.2466 20:0.1918 21:0.1333 22:0.36 23:0.3333 
-0.0778970687903721 1:1 2:1 3:2 4:25 5:0.2609 6:8 7:2 8:0.3043 9:0.087 10:0.1739 11:0.4348 12:52 13:0.3182 14:3 15:0.2857 16:49 17:0.2857 18:0.102 19:0.1837 20:0.4286 21:0.3043 22:1.12 23:0.5 
-0.1436969372027891 1:1 2:1 3:3 4:23 5:0.2857 6:8 7:2 8:0.3333 9:0.0952 10:0.1905 11:0.381 12:53 13:0.35 14:1 15:0.2979 16:47 17:0.2766 18:0.1064 19:0.1915 20:0.4255 21:0.3182 22:1.12 23:0.3333 
-0.1954115298528139 1:8 2:3 3:25 4:24 5:0.5833 6:2 7:3 8:0.125 9:0.3333 10:0.25 11:0.2917 12:73 13:0.1667 14:3 15:0.4516 16:93 17:0.2151 18:0.1935 19:0.2581 20:0.3333 21:0.2444 22:1.11 23:0.3636 
-0.738720363600448 1:1 2:1 3:7 4:26 5:0.4583 6:8 7:3 8:0.2083 9:0.25 10:0.2083 11:0.3333 12:57 13:0.3478 14:1 15:0.4098 16:61 17:0.2295 18:0.1803 19:0.2295 20:0.3607 21:0.2759 22:0.22 23:0.1429 
-0.1941987193145547 1:1 2:1 3:3 4:24 5:0.25 6:8 7:2 8:0.3 9:0.1 10:0.15 11:0.45 12:26 13:0.3333 14:4 15:0.2857 16:49 17:0.2857 18:0.102 19:0.1837 20:0.4286 21:0.3043 22:0.67 23:0.3333 
-0.2017435831221912 1:8 2:3 3:28 4:20 5:0.6 6:2 7:3 8:0.15 9:0.25 10:0.35 11:0.25 12:5 13:0.2 14:2 15:0.4505 16:91 17:0.2198 18:0.1978 19:0.2527 20:0.3297 21:0.25 22:1.11 23:0.32 
-0.1790187057047419 1:8 2:3 3:28 4:24 5:0.5833 6:3 7:4 8:0.125 9:0.2083 10:0.375 11:0.2917 12:1 13:0.2917 14:2 15:0.4444 16:99 17:0.2121 18:0.1919 19:0.2525 20:0.3434 21:0.2917 22:0.22 23:0.32 
-0.3680561548298172 1:1 2:1 3:8 4:22 5:0.4 6:8 7:2 8:0.25 9:0.2 10:0.2 11:0.35 12:58 13:0.3684 14:3 15:0.3636 16:55 17:0.2545 18:0.1455 19:0.2182 20:0.3818 21:0.2692 22:0 23:0.125 
-0.1804121180409268 1:-1 2:0 3:0 4:25 5:0.3333 6:8 7:3 8:0.2381 9:0.0952 10:0.2381 11:0.4286 12:28 13:0.3636 14:2 15:0.3111 16:45 17:0.2667 18:0.1111 19:0.2 20:0.4222 21:0.3333 22:0.67 23:-1 
-0.05706494925025247 1:5 2:2 3:19 4:20 5:0.4 6:2 7:4 8:0.3 9:0.1 10:0.3 11:0.3 12:9 13:0.2308 14:4 15:0.4156 16:77 17:0.2208 18:0.1558 19:0.2597 20:0.3636 21:0.2603 22:0.67 23:0.2941 
-0.0166568864139882 1:5 2:3 3:24 4:22 5:0.5 6:2 7:4 8:0.2727 9:0.2273 10:0.2727 11:0.2273 12:71 13:0.2727 14:4 15:0.4176 16:91 17:0.2308 18:0.1648 19:0.2527 20:0.3516 21:0.2644 22:1.6 23:0.2558 
-0.3513696328015522 1:5 2:2 3:16 4:24 5:0.4348 6:2 7:4 8:0.1739 9:0.1739 10:0.2609 11:0.3913 12:64 13:0.1915 14:4 15:0.4304 16:79 17:0.2152 18:0.1646 19:0.2658 20:0.3544 21:0.2533 22:1.29 23:0.3571 
-0.0118438500092598 1:5 2:2 3:16 4:22 5:0.4091 6:2 7:4 8:0.3636 9:0.0909 10:0.3182 11:0.2273 12:10 13:0.2093 14:2 15:0.4133 16:75 17:0.2267 18:0.16 19:0.2533 20:0.36 21:0.2676 22:0.56 23:0.3571 
-0.01778103911271023 1:5 2:3 3:26 4:21 5:0.381 6:3 7:4 8:0.2381 9:0.0952 10:0.2857 11:0.381 12:1 13:0.3333 14:2 15:0.4194 16:93 17:0.2258 18:0.1613 19:0.2581 20:0.3548 21:0.2809 22:0.38 23:0.234 
-0.01188530113414064 1:1 2:1 3:3 4:23 5:0.4348 6:3 7:4 8:0.1739 9:0.087 10:0.3478 11:0.3913 12:50 13:0.3333 14:2 15:0.4815 16:54 17:0.1481 18:0.1852 19:0.2963 20:0.3704 21:0.3061 22:1.5 23:0.3333 
-1 1:1 2:1 3:6 4:21 5:0.4762 6:3 7:4 8:0.1429 9:0.0952 10:0.381 11:0.381 12:53 13:0.3659 14:1 15:0.5 16:56 17:0.1429 18:0.1964 19:0.3036 20:0.3571 21:0.2941 22:1.14 23:0.1667 
-0.03887261474306959 1:1 2:1 3:2 4:21 5:0.5238 6:2 7:4 8:0.0952 9:0.1429 10:0.381 11:0.381 12:49 13:0.3171 14:1 15:0.5208 16:48 17:0.1042 18:0.1875 19:0.3333 20:0.375 21:0.3023 22:2.25 23:0.5 
-0.8260275936910124 1:1 2:1 3:2 4:24 5:0.4583 6:3 7:4 8:0.1667 9:0.125 10:0.3333 11:0.375 12:49 13:0.3191 14:2 15:0.4815 16:54 17:0.1481 18:0.1852 19:0.2963 20:0.3704 21:0.3061 22:2.25 23:0.5 
-1 1:1 2:1 3:3 4:25 5:0.4583 6:3 7:5 8:0.2083 9:0.2917 10:0.1667 11:0.3333 12:17 13:0.3469 14:2 15:0.5 16:58 17:0.1552 18:0.2069 19:0.2931 20:0.3448 21:0.3208 22:0.88 23:0.3333 
-0.07727987652297418 1:2 2:4 3:20 4:21 5:0.5238 6:3 7:3 8:0.2381 9:0.3333 10:0.1905 11:0.2381 12:4 13:0.2683 14:1 15:0.506 16:83 17:0.1687 18:0.2169 19:0.2892 20:0.3253 21:0.2564 22:4 23:0.2821 
-0.03354517882017589 1:3 2:2 3:13 4:24 5:0.619 6:2 7:6 8:0.1429 9:0.1905 10:0.4286 11:0.2381 12:58 13:0.2444 14:2 15:0.6575 16:73 17:0.1507 18:0.274 19:0.3836 20:0.1918 21:0.2353 22:0.8 23:0.28 
-0.09361164333884495 1:3 2:2 3:12 4:26 5:0.6522 6:2 7:6 8:0.1304 9:0.1739 10:0.4783 11:0.2174 12:57 13:0.2245 14:1 15:0.6667 16:75 17:0.1467 18:0.28 19:0.3867 20:0.1867 21:0.2286 22:1.1 23:0.3043 
-0.09343917056044405 1:3 2:2 3:16 4:24 5:0.5714 6:2 7:6 8:0.1429 9:0.1429 10:0.4286 11:0.2857 12:61 13:0.2444 14:3 15:0.6456 16:79 17:0.1519 18:0.2658 19:0.3797 20:0.2025 21:0.2162 22:0.56 23:0.2258 
-0.06937716645510825 1:3 2:2 3:14 4:26 5:0.5652 6:2 7:6 8:0.1304 9:0.1739 10:0.3913 11:0.3043 12:59 13:0.2245 14:3 15:0.6456 16:79 17:0.1519 18:0.2658 19:0.3797 20:0.2025 21:0.2162 22:0.89 23:0.2593 
-1 1:3 2:2 3:10 4:24 5:0.6818 6:2 7:5 8:0.1364 9:0.2273 10:0.4545 11:0.1818 12:55 13:0.2174 14:2 15:0.6618 16:68 17:0.1471 18:0.2647 19:0.3971 20:0.1912 21:0.2381 22:1.2 23:0.3684 
-0.8121171766175074 1:3 2:2 3:11 4:22 5:0.7 6:2 7:5 8:0.15 9:0.25 10:0.45 11:0.15 12:56 13:0.2381 14:1 15:0.6818 16:66 17:0.1364 18:0.2727 19:0.4091 20:0.1818 21:0.2459 22:1.09 23:0.3333 
-0.1324546776667672 1:3 2:4 3:22 4:20 5:0.6 6:2 7:5 8:0.2 9:0.2 10:0.4 11:0.2 12:1 13:0.2432 14:3 15:0.6506 16:83 17:0.1446 18:0.253 19:0.3976 20:0.2048 21:0.2564 22:0.57 23:0.3023 
-0.06247056646540113 1:3 2:2 3:12 4:23 5:0.4091 6:9 7:3 8:0.4091 9:0.2727 10:0.1364 11:0.1818 12:7 13:0.5 14:4 15:0.4189 16:74 17:0.3243 18:0.2027 19:0.2162 20:0.2568 21:0.4154 22:0 23:0.3043 
-0.1508094468166982 1:3 2:2 3:11 4:25 5:0.4583 6:10 7:3 8:0.375 9:0.25 10:0.2083 11:0.1667 12:6 13:0.5 14:3 15:0.4211 16:76 17:0.3158 18:0.1974 19:0.2237 20:0.2632 21:0.4328 22:0 23:0.3333 
-0.05212773296298093 1:-1 2:0 3:1 4:22 5:0.3636 6:3 7:3 8:0.4091 9:0.1364 10:0.2273 11:0.2273 12:47 13:0.1905 14:4 15:0.4167 16:48 17:0.2917 18:0.1875 19:0.2292 20:0.2917 21:0.1818 22:0.73 23:0 
