svm_type c_svc
kernel_type rbf
gamma 0.0416667
nr_class 2
total_sv 381
rho 0.775287
label 1 0
probA -2.64188
probB -0.147968
nr_sv 146 235
SV
1 1:1 2:4 3:-1 4:0 5:21 6:0.619 7:2 8:1 9:1 10:0.2857 11:0.381 12:0.0952 13:20 14:4 15:0.4762 16:0.219 17:0.2286 18:0.2476 19:0.3048 20:0.2079 21:0.83 22:0 23:0.322 24:7 
1 1:1 2:3 3:-1 4:0 5:21 6:0.619 7:1 8:2 9:2 10:0.2857 11:0.381 12:0.0952 13:18 14:3 15:0.4706 16:0.2451 17:0.2255 18:0.2451 19:0.2843 20:0.1667 21:1.67 22:0 23:0.2 24:7 
1 1:4 2:3 3:-1 4:0 5:21 6:0.5714 7:3 8:2 9:3 10:0.1429 11:0.4286 12:0.2857 13:16 14:2 15:0.5351 16:0.193 17:0.2807 18:0.2544 19:0.2719 20:0.2844 21:1 22:-1 23:0.3333 24:3 
1 1:4 2:2 3:7 4:1 5:21 6:0.5714 7:1 8:2 9:2 10:0.381 11:0.3333 12:0.0476 13:18 14:1 15:0.5125 16:0.2125 17:0.2375 18:0.275 19:0.275 20:0.2 21:0.91 22:0.3548 23:0.3143 24:20 
1 1:4 2:5 3:-1 4:0 5:22 6:0.4545 7:2 8:1 9:2 10:0.1818 11:0.3182 12:0.3636 13:20 14:4 15:0.4381 16:0.2571 17:0.2 18:0.2381 19:0.3048 20:0.2277 21:0.8 22:-1 23:0.3448 24:1 
0.4097763053598826 1:4 2:6 3:1 4:2 5:22 6:0.4545 7:3 8:1 9:2 10:0.1818 11:0.3182 12:0.3636 13:20 14:3 15:0.4419 16:0.2326 17:0.2209 18:0.2209 19:0.3256 20:0.1707 21:0.89 22:0.1818 23:0.2821 24:13 
1 1:4 2:5 3:2 4:1 5:23 6:0.4545 7:3 8:1 9:3 10:0.1818 11:0.3182 12:0.3636 13:20 14:3 15:0.4419 16:0.2326 17:0.2209 18:0.2209 19:0.3256 20:0.1463 21:0.89 22:0.25 23:0.2105 24:13 
0.6009096718992459 1:1 2:5 3:2 4:2 5:21 6:0.5238 7:4 8:-1 9:0 10:0.2857 11:0.4762 12:0.1905 13:21 14:4 15:0.5128 16:0.2308 17:0.1923 18:0.3205 19:0.2564 20:0.1351 21:1 22:0.5714 23:0.3125 24:10 
1 1:4 2:5 3:2 4:2 5:21 6:0.5714 7:4 8:1 9:1 10:0.0952 11:0.1905 12:0.3333 13:20 14:2 15:0.5244 16:0.2317 17:0.2073 18:0.3171 19:0.2439 20:0.1538 21:1.25 22:0.6 23:0.2778 24:8 
1 1:4 2:2 3:4 4:2 5:21 6:0.5238 7:1 8:2 9:3 10:0.2381 11:0.2381 12:0.2381 13:16 14:4 15:0.4603 16:0.2222 17:0.2222 18:0.2381 19:0.3175 20:0.2667 21:1.4 22:0.3571 23:0.4 24:16 
1 1:4 2:3 3:2 4:2 5:21 6:0.4286 7:1 8:2 9:3 10:0.2381 11:0.2857 12:0.3333 13:16 14:4 15:0.3919 16:0.2973 17:0.1486 18:0.2432 19:0.3108 20:0.2464 21:1 22:0.1852 23:0.3103 24:17 
1 1:1 2:3 3:2 4:2 5:21 6:0.3333 7:1 8:2 9:3 10:0.381 11:0.2381 12:0.2857 13:17 14:4 15:0.3974 16:0.2949 17:0.1538 18:0.2436 19:0.3077 20:0.2329 21:0.6 22:0.2174 23:0.3333 24:15 
1 1:2 2:4 3:1 4:2 5:21 6:0.5714 7:1 8:2 9:2 10:0.1429 11:0.2857 12:0.2857 13:18 14:1 15:0.4706 16:0.2706 17:0.2353 18:0.2353 19:0.2588 20:0.225 21:0.88 22:0.1538 23:0.35 24:15 
1 1:2 2:3 3:2 4:3 5:22 6:0.5238 7:1 8:1 9:5 10:0.0952 11:0.0952 12:0.381 13:17 14:3 15:0.4937 16:0.1899 17:0.2658 18:0.2278 19:0.3165 20:0.2105 21:0.7 22:0.1613 23:0.2778 24:20 
1 1:2 2:1 3:-1 4:0 5:22 6:0.5238 7:1 8:1 9:4 10:0.0952 11:0.0952 12:0.381 13:18 14:3 15:0.5068 16:0.2603 17:0.2877 18:0.2192 19:0.2329 20:0.1343 21:0.7 22:-1 23:0.1538 24:2 
1 1:4 2:3 3:2 4:5 5:21 6:0.4762 7:1 8:2 9:4 10:0.0952 11:0.0952 12:0.4286 13:16 14:3 15:0.5316 16:0.1772 17:0.2785 18:0.2532 19:0.2911 20:0.2432 21:0.7 22:0.3514 23:0.2941 24:21 
0.280579673444647 1:4 2:2 3:5 4:2 5:21 6:0.3333 7:4 8:1 9:2 10:0.2857 11:0.2857 12:0.381 13:19 14:4 15:0.4478 16:0.2388 17:0.209 18:0.2388 19:0.3134 20:0.1 21:0.88 22:0.2093 23:0.2 24:26 
1 1:4 2:5 3:-1 4:0 5:21 6:0.4286 7:3 8:3 9:1 10:0.2857 11:0.1429 12:0.2857 13:18 14:3 15:0.4526 16:0.2947 17:0.2316 18:0.2211 19:0.2526 20:0.2584 21:4 22:0 23:0.3617 24:7 
1 1:3 2:3 3:-1 4:0 5:21 6:0.6667 7:2 8:2 9:2 10:0.2381 11:0.4286 12:0.0952 13:18 14:4 15:0.4775 16:0.2432 17:0.2252 18:0.2523 19:0.2793 20:0.2075 21:0.5 22:-1 23:0.2727 24:2 
1 1:4 2:1 3:1 4:1 5:21 6:0.5 7:0 8:1 9:1 10:0.4 11:0.35 12:0.1 13:20 14:4 15:0.4872 16:0.2564 17:0.1923 18:0.2949 19:0.2564 20:0.0986 21:0.91 22:0.2 23:0.25 24:7 
1 1:4 2:3 3:5 4:1 5:21 6:0.619 7:0 8:1 9:2 10:0.0952 11:0.2381 12:0.2857 13:19 14:3 15:0.6049 16:0.1852 17:0.2963 18:0.3086 19:0.2099 20:0.1842 21:0.73 22:0.4118 23:0.3333 24:12 
1 1:2 2:3 3:2 4:1 5:23 6:0.7143 7:3 8:3 9:3 10:0.0952 11:0.2381 12:0.1905 13:17 14:3 15:0.6098 16:0.1341 17:0.2683 18:0.3415 19:0.2561 20:0.2658 21:0.55 22:0.2 23:0.3514 24:11 
1 1:2 2:1 3:2 4:2 5:21 6:0.7619 7:1 8:1 9:4 10:0.0476 11:0.2857 12:0.1905 13:17 14:3 15:0.5679 16:0.2222 17:0.2593 18:0.3086 19:0.2099 20:0.1733 21:0.67 22:0.3333 23:0.1515 24:12 
1 1:4 2:3 3:1 4:1 5:21 6:0.619 7:0 8:2 9:4 10:0.1429 11:0.1905 12:0.2381 13:15 14:3 15:0.5765 16:0.2118 17:0.3059 18:0.2706 19:0.2118 20:0.2727 21:1.83 22:0.1667 23:0.2571 24:8 
1 1:4 2:4 3:1 4:1 5:21 6:0.619 7:0 8:3 9:3 10:0.1429 11:0.1905 12:0.2381 13:15 14:3 15:0.5581 16:0.2093 17:0.314 18:0.2442 19:0.2326 20:0.3415 21:1.83 22:0.1667 23:0.4 24:9 
1 1:2 2:1 3:2 4:2 5:20 6:0.55 7:1 8:4 9:1 10:0.2 11:0.1 12:0.25 13:16 14:3 15:0.4923 16:0.2154 17:0.2615 18:0.2308 19:0.2923 20:0.2143 21:1 22:0.3333 23:0.3333 24:12 
1 1:2 2:2 3:1 4:1 5:20 6:0.55 7:0 8:1 9:2 10:0.2 11:0.1 12:0.25 13:18 14:4 15:0.5077 16:0.2615 17:0.2615 18:0.2462 19:0.2308 20:0.1475 21:1.43 22:0.1111 23:0.2381 24:12 
1 1:1 2:2 3:1 4:1 5:21 6:0.5238 7:0 8:1 9:2 10:0.2857 11:0.4286 12:0.1905 13:19 14:4 15:0.5072 16:0.2609 17:0.2609 18:0.2464 19:0.2319 20:0.1385 21:0.7 22:0.1429 23:0.2174 24:10 
1 1:4 2:4 3:-1 4:0 5:21 6:0.4762 7:0 8:1 9:3 10:0.3333 11:0.0952 12:0.1905 13:18 14:3 15:0.4804 16:0.2255 17:0.2353 18:0.2451 19:0.2941 20:0.1789 21:1.57 22:0 23:0.2364 24:7 
1 1:4 2:4 3:-1 4:0 5:21 6:0.4762 7:0 8:3 9:2 10:0.3333 11:0.0952 12:0.1905 13:17 14:3 15:0.466 16:0.233 17:0.233 18:0.233 19:0.301 20:0.2708 21:1.57 22:0 23:0.3571 24:7 
1 1:3 2:4 3:-1 4:0 5:21 6:0.5714 7:0 8:3 9:1 10:0.1905 11:0.4286 12:0.2381 13:18 14:4 15:0.4673 16:0.2336 17:0.2336 18:0.2336 19:0.2991 20:0.26 21:1 22:-1 23:0.3667 24:5 
1 1:4 2:-1 3:4 4:2 5:21 6:0.5238 7:0 8:-1 9:0 10:0.381 11:0.1905 12:0.0952 13:21 14:1 15:0.5455 16:0.2273 17:0.2727 18:0.2727 19:0.2273 20:0 21:1 22:0.2353 23:0 24:28 
1 1:4 2:-1 3:4 4:2 5:21 6:0.4762 7:0 8:-1 9:0 10:0.1429 11:0.3333 12:0.381 13:21 14:4 15:0.5429 16:0.2286 17:0.2714 18:0.2714 19:0.2286 20:0 21:1 22:0.2667 23:0 24:26 
1 1:1 2:3 3:2 4:1 5:21 6:0.5 7:1 8:2 9:3 10:0.3 11:0.25 12:0.2 13:16 14:2 15:0.4265 16:0.2794 17:0.1912 18:0.2353 19:0.2941 20:0.2063 21:1.25 22:0.3333 23:0.25 24:10 
1 1:1 2:1 3:2 4:2 5:21 6:0.5 7:1 8:1 9:3 10:0.3 11:0.25 12:0.2 13:18 14:3 15:0.4133 16:0.24 17:0.2133 18:0.2 19:0.3467 20:0.0986 21:1 22:0.2 23:0.0667 24:22 
1 1:4 2:3 3:1 4:1 5:22 6:0.5238 7:1 8:1 9:2 10:0.2857 11:0.1905 12:0.1905 13:20 14:3 15:0.506 16:0.2289 17:0.241 18:0.2651 19:0.2651 20:0.1538 21:1.11 22:0.1429 23:0.3158 24:5 
1 1:4 2:8 3:1 4:1 5:22 6:0.5238 7:0 8:2 9:3 10:0.2857 11:0.1905 12:0.1905 13:18 14:1 15:0.5 16:0.2073 17:0.2683 18:0.2317 19:0.2927 20:0.3077 21:0.9 22:0.1111 23:0.5 24:7 
1 1:3 2:1 3:-1 4:0 5:23 6:0.6364 7:2 8:8 9:1 10:0.2273 11:0.3636 12:0.1364 13:15 14:4 15:0.65 16:0.1667 17:0.3167 18:0.3333 19:0.1833 20:0.283 21:1.67 22:0 23:0.2 24:3 
1 1:4 2:6 3:-1 4:0 5:21 6:0.4286 7:1 8:2 9:2 10:0.1905 11:0.2857 12:0.381 13:17 14:4 15:0.4381 16:0.2286 17:0.2095 18:0.2286 19:0.3333 20:0.3069 21:1.5 22:0 23:0.3898 24:6 
1 1:4 2:3 3:-1 4:0 5:21 6:0.4286 7:1 8:2 9:2 10:0.1905 11:0.2857 12:0.381 13:17 14:4 15:0.5 16:0.2264 17:0.2453 18:0.2547 19:0.2736 20:0.2041 21:1.5 22:0 23:0.2143 24:5 
1 1:4 2:2 3:-1 4:0 5:23 6:0.5 7:1 8:2 9:2 10:0.4 11:0.35 12:0.1 13:20 14:4 15:0.5128 16:0.2308 17:0.2308 18:0.2821 19:0.2564 20:0.1549 21:2 22:0 23:0.2857 24:6 
1 1:2 2:2 3:4 4:2 5:21 6:0.619 7:2 8:2 9:3 10:0.0952 11:0.2381 12:0.2857 13:17 14:3 15:0.5062 16:0.2346 17:0.2469 18:0.2593 19:0.2593 20:0.2564 21:0.55 22:0.3077 23:0.3684 24:16 
1 1:2 2:3 3:2 4:2 5:22 6:0.6667 7:2 8:1 9:3 10:0.0952 11:0.2381 12:0.2381 13:19 14:3 15:0.5663 16:0.1928 17:0.2651 18:0.3012 19:0.241 20:0.1899 21:0.82 22:0.2941 23:0.2778 24:12 
0.1815839348793749 1:4 2:1 3:3 4:4 5:21 6:0.619 7:2 8:2 9:2 10:0.1429 11:0.1905 12:0.2381 13:18 14:3 15:0.6 16:0.1714 17:0.3143 18:0.2857 19:0.2286 20:0.1429 21:0.92 22:0.35 23:0.2174 24:25 
1 1:4 2:5 3:6 4:2 5:21 6:0.619 7:1 8:3 9:2 10:0.1429 11:0.1905 12:0.2381 13:17 14:4 15:0.48 16:0.2133 17:0.2133 18:0.2667 19:0.3067 20:0.2 21:0.92 22:0.5 23:0.2667 24:18 
1 1:4 2:6 3:1 4:2 5:21 6:0.619 7:0 8:2 9:4 10:0.1429 11:0.1905 12:0.2381 13:15 14:3 15:0.5176 16:0.2118 17:0.2588 18:0.2588 19:0.2706 20:0.3333 21:1.83 22:0.1765 23:0.4211 24:11 
1 1:4 2:1 3:2 4:2 5:21 6:0.619 7:1 8:2 9:3 10:0.1429 11:0.1905 12:0.2381 13:17 14:3 15:0.5625 16:0.1875 17:0.2969 18:0.2656 19:0.25 20:0.2069 21:1.11 22:0.2 23:0.25 24:25 
1 1:4 2:3 3:2 4:3 5:21 6:0.619 7:0 8:3 9:3 10:0.1429 11:0.1905 12:0.2381 13:15 14:3 15:0.5765 16:0.1882 17:0.3294 18:0.2471 19:0.2353 20:0.3421 21:1.83 22:0.2667 23:0.4444 24:17 
0.1784152082009602 1:4 2:2 3:3 4:3 5:21 6:0.619 7:0 8:2 9:4 10:0.1429 11:0.1905 12:0.2381 13:16 14:3 15:0.5522 16:0.2239 17:0.2836 18:0.2687 19:0.2239 20:0.2063 21:0.67 22:0.375 23:0.1429 24:25 
1 1:4 2:2 3:2 4:3 5:21 6:0.619 7:0 8:2 9:5 10:0.1429 11:0.1905 12:0.2381 13:15 14:3 15:0.5571 16:0.2 17:0.2714 18:0.2857 19:0.2429 20:0.303 21:1 22:0.4 23:0.3333 24:26 
1 1:4 2:2 3:2 4:3 5:21 6:0.619 7:0 8:2 9:5 10:0.1429 11:0.1905 12:0.2381 13:15 14:3 15:0.5429 16:0.2143 17:0.2714 18:0.2714 19:0.2429 20:0.2727 21:1 22:0.4 23:0.25 24:25 
1 1:4 2:2 3:3 4:4 5:21 6:0.619 7:0 8:2 9:4 10:0.1429 11:0.1905 12:0.2381 13:16 14:3 15:0.5556 16:0.1944 17:0.2778 18:0.2778 19:0.25 20:0.2353 21:0.73 22:0.3023 23:0.2308 24:24 
0.1411325822723943 1:4 2:2 3:3 4:4 5:21 6:0.5238 7:0 8:2 9:3 10:0.1905 11:0.1905 12:0.2857 13:16 14:3 15:0.5072 16:0.2174 17:0.2319 18:0.2754 19:0.2754 20:0.2188 21:0.8 22:0.2093 23:0.25 24:25 
1 1:4 2:2 3:-1 4:0 5:21 6:0.619 7:0 8:4 9:2 10:0.0476 11:0.1905 12:0.3333 13:16 14:1 15:0.5904 16:0.1928 17:0.3012 18:0.2892 19:0.2169 20:0.1899 21:0.91 22:0 23:0.1579 24:14 
1 1:2 2:6 3:2 4:1 5:20 6:0.55 7:1 8:1 9:4 10:0.2 11:0.1 12:0.25 13:16 14:4 15:0.5263 16:0.2316 17:0.2947 18:0.2316 19:0.2421 20:0.236 21:0.71 22:0.25 23:0.2653 24:10 
1 1:2 2:2 3:2 4:3 5:20 6:0.55 7:0 8:2 9:2 10:0.2 11:0.1 12:0.25 13:17 14:3 15:0.5161 16:0.2419 17:0.2581 18:0.2581 19:0.2419 20:0.1786 21:2 22:0.2353 23:0.25 24:29 
1 1:2 2:6 3:-1 4:0 5:21 6:0.619 7:0 8:1 9:2 10:0.381 11:0.3333 12:0 13:19 14:2 15:0.5109 16:0.1848 17:0.2609 18:0.25 19:0.3043 20:0.2471 21:0.58 22:0 23:0.4222 24:9 
1 1:2 2:8 3:-1 4:0 5:21 6:0.619 7:1 8:1 9:1 10:0.381 11:0.3333 12:0 13:20 14:2 15:0.4674 16:0.2283 17:0.2283 18:0.2391 19:0.3043 20:0.2414 21:0.58 22:0 23:0.4468 24:13 
1 1:2 2:3 3:-1 4:0 5:23 6:0.619 7:1 8:2 9:2 10:0.381 11:0.3333 12:0 13:20 14:4 15:0.4681 16:0.2128 17:0.2234 18:0.2447 19:0.3191 20:0.2584 21:0.58 22:0 23:0.4468 24:12 
1 1:1 2:2 3:3 4:1 5:21 6:0.5714 7:0 8:-1 9:0 10:0.4286 11:0.3333 12:0 13:21 14:4 15:0.5231 16:0.2308 17:0.2462 18:0.2769 19:0.2462 20:0.0877 21:0.75 22:0.3333 23:0.3333 24:12 
0.6804936192736836 1:1 2:4 3:3 4:1 5:21 6:0.5238 7:1 8:-1 9:0 10:0.4286 11:0.3333 12:0.0476 13:21 14:4 15:0.5077 16:0.2615 17:0.2308 18:0.2769 19:0.2308 20:0.1186 21:0.75 22:0.1875 23:0.4118 24:24 
1 1:2 2:4 3:2 4:2 5:21 6:0.5714 7:2 8:1 9:2 10:0.381 11:0.3333 12:0.0476 13:19 14:2 15:0.4891 16:0.2283 17:0.2609 18:0.2283 19:0.2826 20:0.2414 21:0.64 22:0.4 23:0.4043 24:13 
1 1:2 2:2 3:2 4:2 5:21 6:0.5714 7:0 8:1 9:2 10:0.1905 11:0.1429 12:0.2381 13:19 14:3 15:0.5176 16:0.2353 17:0.2353 18:0.2824 19:0.2471 20:0.1688 21:1 22:0.2 23:0.2571 24:18 
1 1:1 2:3 3:2 4:2 5:22 6:0.45 7:2 8:1 9:3 10:0.3 11:0.25 12:0.25 13:19 14:4 15:0.3973 16:0.2466 17:0.1644 18:0.2329 19:0.3562 20:0.1515 21:0.78 22:0.2414 23:0.3077 24:23 
0.6301171811299915 1:4 2:8 3:2 4:3 5:21 6:0.3333 7:2 8:1 9:1 10:0.2381 11:0.1429 12:0.4286 13:20 14:2 15:0.4583 16:0.25 17:0.2361 18:0.2222 19:0.2917 20:0.2059 21:1 22:0.2353 23:0.4815 24:20 
1 1:1 2:8 3:2 4:3 5:21 6:0.5 7:3 8:1 9:1 10:0.25 11:0.3 12:0.25 13:20 14:3 15:0.4737 16:0.2368 17:0.2368 18:0.2368 19:0.2895 20:0.1944 21:1 22:0.2667 23:0.4194 24:18 
0.4677633317951144 1:1 2:2 3:2 4:3 5:21 6:0.45 7:1 8:1 9:3 10:0.3 11:0.25 12:0.25 13:18 14:3 15:0.4444 16:0.2083 17:0.1944 18:0.25 19:0.3472 20:0.1429 21:1 22:0.2667 23:0.25 24:24 
0.03556208844303543 1:4 2:4 3:4 4:2 5:21 6:0.3333 7:0 8:1 9:2 10:0.2381 11:0.1429 12:0.4286 13:19 14:2 15:0.4091 16:0.2727 17:0.1818 18:0.2273 19:0.3182 20:0.1667 21:1.29 22:0.4 23:0.3684 24:26 
1 1:1 2:4 3:2 4:2 5:21 6:0.4 7:0 8:2 9:3 10:0.4 11:0.15 12:0.2 13:17 14:1 15:0.4143 16:0.2857 17:0.1857 18:0.2286 19:0.3 20:0.2188 21:1.75 22:0.3077 23:0.3043 24:24 
0.1885507871899119 1:1 2:3 3:2 4:3 5:21 6:0.45 7:1 8:1 9:3 10:0.3 11:0.25 12:0.25 13:18 14:3 15:0.4125 16:0.225 17:0.1875 18:0.225 19:0.3625 20:0.2105 21:1 22:0.2258 23:0.3143 24:20 
1 1:4 2:2 3:3 4:3 5:20 6:0.25 7:0 8:2 9:2 10:0.25 11:0.15 12:0.5 13:17 14:3 15:0.3016 16:0.3333 17:0.1111 18:0.1905 19:0.3651 20:0.1724 21:1.14 22:0.2889 23:0.3 24:29 
1 1:1 2:2 3:3 4:2 5:21 6:0.381 7:0 8:2 9:3 10:0.4286 11:0.1905 12:0.1905 13:17 14:1 15:0.3134 16:0.3433 17:0.1194 18:0.194 19:0.3433 20:0.1935 21:1 22:0.2683 23:0.2727 24:27 
0.6935684434539771 1:4 2:1 3:2 4:3 5:20 6:0.25 7:4 8:-1 9:0 10:0.25 11:0.15 12:0.5 13:20 14:3 15:0.3651 16:0.3175 17:0.1429 18:0.2222 19:0.3175 20:0.069 21:0.89 22:0.2353 23:0.3 24:29 
1 1:1 2:3 3:-1 4:0 5:21 6:0.2857 7:1 8:1 9:2 10:0.2381 11:0.1429 12:0.4762 13:19 14:1 15:0.3426 16:0.3056 17:0.1574 18:0.1852 19:0.3519 20:0.2233 21:0.86 22:0 23:0.3333 24:4 
1 1:1 2:3 3:-1 4:0 5:21 6:0.4286 7:1 8:1 9:2 10:0.4286 11:0.2381 12:0.1429 13:19 14:2 15:0.3482 16:0.3036 17:0.1607 18:0.1875 19:0.3482 20:0.215 21:1 22:-1 23:0.3134 24:2 
1 1:1 2:2 3:2 4:2 5:21 6:0.3333 7:2 8:2 9:2 10:0.4762 11:0.1905 12:0.1905 13:18 14:4 15:0.4074 16:0.284 17:0.1852 18:0.2222 19:0.3086 20:0.1343 21:1.75 22:0.1724 23:0.12 24:19 
0.7890120972277037 1:4 2:2 3:2 4:4 5:21 6:0.2857 7:1 8:1 9:2 10:0.1905 11:0.1429 12:0.5238 13:19 14:3 15:0.3284 16:0.3731 17:0.1343 18:0.194 19:0.2985 20:0.1724 21:2.25 22:0.1818 23:0.4444 24:27 
1 1:2 2:2 3:4 4:2 5:21 6:0.4286 7:2 8:1 9:3 10:0.2857 11:0.2857 12:0.2857 13:18 14:4 15:0.4638 16:0.2029 17:0.2319 18:0.2319 19:0.3333 20:0.2333 21:1 22:0.3333 23:0.5 24:26 
1 1:2 2:2 3:3 4:3 5:21 6:0.4286 7:2 8:2 9:4 10:0.2857 11:0.2857 12:0.2857 13:16 14:4 15:0.5205 16:0.2329 17:0.274 18:0.2466 19:0.2466 20:0.2353 21:0.71 22:0.3333 23:0.2857 24:23 
1 1:4 2:4 3:3 4:3 5:21 6:0.381 7:3 8:3 9:2 10:0.2381 11:0.2857 12:0.381 13:16 14:3 15:0.5286 16:0.1857 17:0.2571 18:0.2714 19:0.2857 20:0.2727 21:0.25 22:0.2821 23:0.3333 24:26 
1 1:4 2:3 3:-1 4:0 5:21 6:0.4286 7:3 8:2 9:2 10:0.2857 11:0.3333 12:0.2857 13:18 14:1 15:0.5735 16:0.1618 17:0.25 18:0.3235 19:0.2647 20:0.1746 21:1.29 22:0 23:0.3043 24:18 
1 1:4 2:4 3:3 4:1 5:21 6:0.381 7:4 8:3 9:1 10:0.2857 11:0.1429 12:0.3333 13:18 14:3 15:0.439 16:0.2805 17:0.2073 18:0.2317 19:0.2805 20:0.28 21:4 22:0.2 23:0.4857 24:19 
1 1:4 2:4 3:2 4:2 5:21 6:0.381 7:1 8:3 9:2 10:0.2857 11:0.1429 12:0.3333 13:16 14:3 15:0.4756 16:0.2683 17:0.2439 18:0.2317 19:0.2561 20:0.3158 21:4 22:0.2667 23:0.4118 24:18 
0.2901878371592276 1:4 2:4 3:2 4:3 5:21 6:0.4762 7:0 8:2 9:3 10:0.1905 11:0.2381 12:0.3333 13:16 14:3 15:0.4932 16:0.2329 17:0.2329 18:0.2603 19:0.274 20:0.2571 21:1.4 22:0.15 23:0.3333 24:23 
1 1:4 2:1 3:3 4:4 5:21 6:0.4762 7:2 8:2 9:2 10:0.1905 11:0.2381 12:0.3333 13:18 14:3 15:0.4444 16:0.2381 17:0.2063 18:0.2381 19:0.3175 20:0.1321 21:1.6 22:0.2444 23:0.0909 24:29 
1 1:4 2:1 3:5 4:4 5:21 6:0.4762 7:0 8:2 9:3 10:0.1905 11:0.2381 12:0.3333 13:15 14:3 15:0.4762 16:0.2063 17:0.2222 18:0.254 19:0.3175 20:0.2453 21:1.8 22:0.3478 23:0.0909 24:26 
1 1:4 2:4 3:1 4:3 5:21 6:0.5238 7:1 8:2 9:4 10:0.1905 11:0.2381 12:0.2857 13:16 14:3 15:0.5915 16:0.2254 17:0.3099 18:0.2817 19:0.1831 20:0.2923 21:1.4 22:0.1053 23:0.3913 24:22 
1 1:4 2:2 3:1 4:2 5:21 6:0.5238 7:1 8:2 9:3 10:0.1905 11:0.2381 12:0.2857 13:17 14:3 15:0.5634 16:0.2113 17:0.2817 18:0.2817 19:0.2254 20:0.2 21:1.4 22:0.0556 23:0.2174 24:24 
1 1:4 2:8 3:-1 4:0 5:21 6:0.4286 7:1 8:3 9:3 10:0.2381 11:0.1905 12:0.3333 13:15 14:3 15:0.4316 16:0.2421 17:0.1895 18:0.2421 19:0.3263 20:0.4 21:3.5 22:0 23:0.52 24:6 
1 1:1 2:3 3:-1 4:0 5:21 6:0.4286 7:0 8:1 9:3 10:0.1905 11:0 12:0.381 13:18 14:3 15:0.4857 16:0.2095 17:0.181 18:0.3048 19:0.3048 20:0.2165 21:1 22:-1 23:0.2727 24:5 
1 1:1 2:3 3:-1 4:0 5:21 6:0.4286 7:0 8:3 9:2 10:0.381 11:0.381 12:0.1905 13:17 14:3 15:0.4862 16:0.211 17:0.1835 18:0.3028 19:0.3028 20:0.2475 21:3.33 22:-1 23:0.2881 24:3 
1 1:1 2:3 3:-1 4:0 5:21 6:0.4762 7:0 8:1 9:4 10:0.1429 11:0.0476 12:0.381 13:17 14:3 15:0.4953 16:0.2056 17:0.1869 18:0.3084 19:0.2991 20:0.2353 21:1 22:-1 23:0.2903 24:4 
1 1:1 2:3 3:-1 4:0 5:21 6:0.381 7:0 8:3 9:3 10:0.4286 11:0.3333 12:0.1905 13:16 14:4 15:0.4865 16:0.2162 17:0.1892 18:0.2973 19:0.2973 20:0.2642 21:3.33 22:-1 23:0.303 24:2 
1 1:2 2:6 3:-1 4:0 5:22 6:0.5909 7:0 8:1 9:4 10:0.0455 11:0.0455 12:0.3636 13:18 14:4 15:0.4414 16:0.2342 17:0.2252 18:0.2162 19:0.3243 20:0.25 21:1 22:-1 23:0.3333 24:1 
1 1:4 2:5 3:2 4:1 5:22 6:0.5238 7:2 8:1 9:3 10:0.0952 11:0.3333 12:0.381 13:19 14:2 15:0.505 16:0.198 17:0.2574 18:0.2475 19:0.297 20:0.2083 21:1.25 22:0.4 23:0.3091 24:7 
1 1:4 2:6 3:-1 4:0 5:21 6:0.45 7:0 8:2 9:3 10:0.3 11:0 12:0.25 13:17 14:1 15:0.4409 16:0.2366 17:0.1828 18:0.2581 19:0.3226 20:0.25 21:0.78 22:0 23:0.3469 24:10 
1 1:1 2:10 3:2 4:1 5:21 6:0.5714 7:0 8:4 9:1 10:0.1905 11:0.4286 12:0.2381 13:17 14:3 15:0.5429 16:0.2571 17:0.3 18:0.2429 19:0.2 20:0.2727 21:0.73 22:0.1176 23:0.4167 24:21 
1 1:4 2:-1 3:3 4:2 5:21 6:0.619 7:2 8:1 9:3 10:0.1429 11:0.4286 12:0.2381 13:18 14:3 15:0.5 16:0.2414 17:0.2586 18:0.2414 19:0.2586 20:0.12 21:1.14 22:0.2903 23:0 24:27 
1 1:4 2:1 3:4 4:3 5:21 6:0.619 7:3 8:2 9:2 10:0.1429 11:0.4286 12:0.2381 13:18 14:3 15:0.4655 16:0.2586 17:0.2241 18:0.2414 19:0.2759 20:0.16 21:2 22:0.28 23:0.25 24:32 
1 1:4 2:1 3:3 4:2 5:21 6:0.619 7:2 8:2 9:2 10:0.1429 11:0.4286 12:0.2381 13:18 14:3 15:0.4655 16:0.2414 17:0.2414 18:0.2241 19:0.2931 20:0.16 21:2 22:0.2903 23:0.25 24:30 
1 1:4 2:-1 3:4 4:2 5:21 6:0.619 7:3 8:1 9:2 10:0.1429 11:0.4286 12:0.2381 13:19 14:3 15:0.4655 16:0.2241 17:0.1897 18:0.2759 19:0.3103 20:0.08 21:1.43 22:0.2903 23:0 24:32 
1 1:4 2:-1 3:2 4:2 5:21 6:0.619 7:2 8:1 9:3 10:0.1429 11:0.4286 12:0.2381 13:18 14:3 15:0.5 16:0.2414 17:0.2414 18:0.2586 19:0.2586 20:0.12 21:1.43 22:0.1613 23:0 24:32 
1 1:4 2:4 3:2 4:1 5:21 6:0.5238 7:0 8:2 9:2 10:0.0952 11:0.2857 12:0.381 13:18 14:1 15:0.4881 16:0.2262 17:0.2619 18:0.2262 19:0.2857 20:0.2051 21:0.7 22:0.1765 23:0.2778 24:19 
1 1:1 2:2 3:1 4:2 5:21 6:0.381 7:0 8:-1 9:0 10:0.2381 11:0.2857 12:0.381 13:21 14:3 15:0.403 16:0.2985 17:0.2388 18:0.1642 19:0.2985 20:0.0645 21:1.1 22:0.1538 23:0.2727 24:27 
1 1:4 2:2 3:3 4:1 5:20 6:0.5 7:1 8:2 9:3 10:0.25 11:0.25 12:0.25 13:16 14:4 15:0.4762 16:0.254 17:0.254 18:0.2222 19:0.2698 20:0.2222 21:1.4 22:0.1765 23:0.375 24:29 
1 1:2 2:2 3:3 4:1 5:21 6:0.5714 7:1 8:2 9:3 10:0.2381 11:0.3333 12:0.1905 13:17 14:4 15:0.5075 16:0.2388 17:0.2687 18:0.2388 19:0.2537 20:0.2069 21:0.62 22:0.2 23:0.3333 24:27 
1 1:4 2:1 3:1 4:1 5:21 6:0.4762 7:4 8:2 9:1 10:0 11:0.1905 12:0.5238 13:19 14:4 15:0.4521 16:0.2192 17:0.1781 18:0.274 19:0.3288 20:0.1014 21:0.82 22:0.0714 23:0.1111 24:17 
1 1:3 2:1 3:1 4:1 5:21 6:0.6667 7:5 8:2 9:1 10:0.2381 11:0.4762 12:0.0952 13:19 14:3 15:0.4675 16:0.2078 17:0.1818 18:0.2857 19:0.3247 20:0.0959 21:1.1 22:0.0833 23:0.0968 24:15 
1 1:4 2:4 3:1 4:1 5:21 6:0.5238 7:1 8:2 9:2 10:0.0952 11:0.381 12:0.381 13:17 14:2 15:0.4 16:0.3529 17:0.2235 18:0.1765 19:0.2471 20:0.2051 21:2 22:0.1667 23:0.2632 24:11 
1 1:3 2:2 3:3 4:3 5:22 6:0.5238 7:3 8:2 9:3 10:0.2857 11:0.381 12:0.1905 13:18 14:3 15:0.5395 16:0.1711 17:0.2368 18:0.3026 19:0.2895 20:0.1667 21:1.22 22:0.3889 23:0.1724 24:21 
1 1:4 2:2 3:3 4:3 5:22 6:0.6364 7:2 8:2 9:3 10:0.0909 11:0.2273 12:0.2727 13:18 14:1 15:0.5732 16:0.1585 17:0.2439 18:0.3293 19:0.2683 20:0.1795 21:1 22:0.4 23:0.1765 24:18 
1 1:2 2:1 3:2 4:3 5:20 6:0.5 7:2 8:2 9:2 10:0.2 11:0.15 12:0.3 13:17 14:4 15:0.4375 16:0.2344 17:0.1875 18:0.25 19:0.3281 20:0.16 21:2.5 22:0.3143 23:0.2 24:29 
1 1:4 2:1 3:2 4:3 5:21 6:0.4762 7:2 8:2 9:3 10:0.1905 11:0.3333 12:0.3333 13:17 14:3 15:0.4559 16:0.2206 17:0.1912 18:0.2647 19:0.3235 20:0.1852 21:0.56 22:0.2903 23:0.1667 24:27 
1 1:1 2:2 3:2 4:2 5:21 6:0.4286 7:1 8:3 9:1 10:0.1429 11:0.2857 12:0.4286 13:18 14:1 15:0.4091 16:0.3182 17:0.2159 18:0.1932 19:0.2727 20:0.1566 21:0.9 22:0.2727 23:0.2093 24:15 
1 1:4 2:5 3:-1 4:0 5:22 6:0.3 7:0 8:2 9:2 10:0.2 11:0.15 12:0.5 13:19 14:3 15:0.3133 16:0.3614 17:0.1446 18:0.1687 19:0.3253 20:0.1688 21:1.25 22:0 23:0.2571 24:17 
1 1:4 2:5 3:-1 4:0 5:21 6:0.2381 7:0 8:2 9:2 10:0.5238 11:0.1905 12:0.2381 13:17 14:3 15:0.3038 16:0.3671 17:0.1392 18:0.1646 19:0.3291 20:0.1781 21:0.56 22:0 23:0.2121 24:19 
1 1:1 2:2 3:3 4:4 5:21 6:0.381 7:1 8:2 9:2 10:0.2857 11:0.1905 12:0.3333 13:17 14:2 15:0.4375 16:0.2875 17:0.225 18:0.2125 19:0.275 20:0.1892 21:1 22:0.4118 23:0.1875 24:19 
1 1:4 2:2 3:2 4:4 5:21 6:0.4762 7:1 8:2 9:3 10:0.2381 11:0.2857 12:0.2857 13:15 14:3 15:0.4405 16:0.2738 17:0.2262 18:0.2143 19:0.2857 20:0.2308 21:1.6 22:0.3333 23:0.1667 24:17 
1 1:4 2:7 3:2 4:2 5:23 6:0.4286 7:0 8:2 9:4 10:0.2381 11:0.0952 12:0.3333 13:18 14:2 15:0.5128 16:0.2308 17:0.2821 18:0.2308 19:0.2564 20:0.2113 21:0.8 22:0.4 23:0.3333 24:13 
1 1:3 2:5 3:3 4:2 5:24 6:0.4167 7:2 8:2 9:3 10:0.25 11:0.2917 12:0.3333 13:19 14:1 15:0.4394 16:0.197 17:0.2424 18:0.197 19:0.3636 20:0.2581 21:1.25 22:0.2121 23:0.4667 24:26 
1 1:2 2:5 3:3 4:2 5:23 6:0.4545 7:2 8:2 9:3 10:0.2273 11:0.0909 12:0.3182 13:18 14:1 15:0.4394 16:0.197 17:0.2424 18:0.197 19:0.3636 20:0.2581 21:1.4 22:0.2121 23:0.4118 24:26 
0.5300978906315814 1:4 2:9 3:1 4:1 5:22 6:0.4545 7:1 8:1 9:2 10:0.1364 11:0.3182 12:0.4091 13:20 14:2 15:0.3763 16:0.3118 17:0.1935 18:0.1828 19:0.3118 20:0.2222 21:1.12 22:0.1667 23:0.3878 24:9 
0.3278444885049134 1:4 2:5 3:1 4:1 5:21 6:0.4286 7:0 8:1 9:2 10:0.2381 11:0.1429 12:0.3333 13:19 14:1 15:0.4048 16:0.3333 17:0.2024 18:0.2024 19:0.2619 20:0.1899 21:0.91 22:0.0667 23:0.3333 24:18 
1 1:4 2:1 3:4 4:4 5:22 6:0.5 7:0 8:1 9:1 10:0.0455 11:0.3636 12:0.4545 13:21 14:1 15:0.4364 16:0.2727 17:0.2 18:0.2364 19:0.2909 20:0.0417 21:0.82 22:0.2982 23:0.3333 24:33 
0.1652488682448217 1:1 2:3 3:2 4:2 5:21 6:0.4762 7:0 8:2 9:1 10:0.381 11:0.1905 12:0.1429 13:19 14:1 15:0.5062 16:0.2593 17:0.2716 18:0.2346 19:0.2346 20:0.1282 21:0.91 22:0.2 23:0.2105 24:20 
0.7802702469320427 1:4 2:3 3:5 4:1 5:21 6:0.3333 7:1 8:1 9:1 10:0.381 11:0.2857 12:0.2857 13:20 14:4 15:0.3797 16:0.3291 17:0.1772 18:0.2025 19:0.2911 20:0.1268 21:1.11 22:0.3333 23:0.2414 24:16 
1 1:2 2:5 3:3 4:6 5:21 6:0.381 7:2 8:1 9:1 10:0.3333 11:0.1429 12:0.2857 13:20 14:3 15:0.4828 16:0.2586 17:0.2241 18:0.2586 19:0.2586 20:0.1852 21:0.55 22:0.3929 23:0.6667 24:31 
1 1:3 2:5 3:3 4:6 5:21 6:0.4286 7:2 8:1 9:1 10:0.1905 11:0.2857 12:0.381 13:20 14:3 15:0.5 16:0.25 17:0.2333 18:0.2667 19:0.25 20:0.1786 21:1.43 22:0.4074 23:0.5714 24:30 
1 1:1 2:-1 3:3 4:4 5:21 6:0.5714 7:1 8:1 9:1 10:0.2381 11:0.381 12:0.1905 13:20 14:4 15:0.5172 16:0.2414 17:0.2586 18:0.2586 19:0.2414 20:0.04 21:0.9 22:0.2245 23:0 24:28 
1 1:4 2:1 3:3 4:1 5:21 6:0.381 7:0 8:1 9:3 10:0.2381 11:0.1905 12:0.381 13:18 14:1 15:0.3636 16:0.3455 17:0.2 18:0.1636 19:0.2909 20:0.125 21:1.57 22:0.1515 23:0.25 24:31 
0.2780549965069311 1:3 2:1 3:1 4:1 5:21 6:0.619 7:0 8:1 9:2 10:0.2381 11:0.3333 12:0.1429 13:19 14:4 15:0.5641 16:0.2308 17:0.2692 18:0.2949 19:0.2051 20:0.0882 21:1.5 22:0.0476 23:0.0769 24:22 
1 1:1 2:1 3:1 4:1 5:21 6:0.619 7:0 8:1 9:1 10:0.1429 11:0.3333 12:0.2381 13:20 14:2 15:0.5854 16:0.2195 17:0.2805 18:0.3049 19:0.1951 20:0.0833 21:0.92 22:0.0588 23:0.1333 24:20 
0.727499645220008 1:1 2:1 3:1 4:1 5:21 6:0.381 7:0 8:1 9:1 10:0.1429 11:0.381 12:0.4762 13:20 14:2 15:0.3836 16:0.3425 17:0.2192 18:0.1644 19:0.274 20:0.0385 21:1.22 22:0.0588 23:0.1667 24:24 
1 1:4 2:6 3:-1 4:0 5:21 6:0.4762 7:2 8:3 9:3 10:0.1905 11:0.2857 12:0.3333 13:16 14:4 15:0.5146 16:0.2233 17:0.2233 18:0.2913 19:0.2621 20:0.3061 21:1.12 22:0 23:0.3793 24:7 
1 1:1 2:6 3:2 4:1 5:22 6:0.5714 7:3 8:2 9:5 10:0.2857 11:0.381 12:0.1429 13:16 14:1 15:0.5495 16:0.1978 17:0.2418 18:0.3077 19:0.2527 20:0.3023 21:1.29 22:0.1818 23:0.3778 24:13 
1 1:2 2:4 3:2 4:2 5:23 6:0.5217 7:0 8:2 9:4 10:0.1304 11:0.2609 12:0.3478 13:18 14:1 15:0.4767 16:0.2674 17:0.2093 18:0.2674 19:0.2558 20:0.3086 21:0.89 22:0.2857 23:0.4737 24:17 
1 1:1 2:4 3:2 4:1 5:23 6:0.3636 7:0 8:2 9:5 10:0.4091 11:0.2273 12:0.2273 13:16 14:1 15:0.4778 16:0.2556 17:0.2111 18:0.2667 19:0.2667 20:0.3412 21:1.6 22:0.1667 23:0.4286 24:15 
1 1:2 2:7 3:-1 4:0 5:20 6:0.55 7:0 8:1 9:3 10:0.2 11:0.1 12:0.25 13:17 14:4 15:0.4667 16:0.219 17:0.2286 18:0.2381 19:0.3143 20:0.2745 21:1.43 22:0 23:0.375 24:4 
1 1:4 2:1 3:-1 4:0 5:21 6:0.381 7:0 8:1 9:1 10:0.3333 11:0.0476 12:0.2857 13:20 14:4 15:0.4268 16:0.3049 17:0.2317 18:0.1951 19:0.2683 20:0.0513 21:0.9 22:0 23:0.0556 24:20 
0.4841687918435161 1:3 2:5 3:2 4:2 5:21 6:0.619 7:0 8:-1 9:0 10:0 11:0.381 12:0.381 13:21 14:4 15:0.5663 16:0.2169 17:0.253 18:0.3133 19:0.2169 20:0.1282 21:1 22:0.1724 23:0.3158 24:17 
1 1:1 2:-1 3:4 4:3 5:21 6:0.4286 7:0 8:-1 9:0 10:0.2857 11:0.3333 12:0.2857 13:21 14:1 15:0.3 16:0.35 17:0.15 18:0.15 19:0.35 20:0 21:0.91 22:0.2941 23:0 24:21 
1 1:2 2:1 3:1 4:3 5:21 6:0.4762 7:1 8:1 9:3 10:0.1429 11:0.3333 12:0.381 13:18 14:3 15:0.5254 16:0.2712 17:0.2373 18:0.2881 19:0.2034 20:0.12 21:1.38 22:0.122 23:0.2 24:31 
1 1:1 2:1 3:1 4:3 5:21 6:0.5238 7:0 8:5 9:1 10:0.381 11:0.1905 12:0.0952 13:16 14:1 15:0.5692 16:0.1846 17:0.3077 18:0.2615 19:0.2462 20:0.1786 21:0.75 22:0.1429 23:0.125 24:28 
0.3240428843301142 1:4 2:2 3:2 4:2 5:21 6:0.4286 7:3 8:2 9:1 10:0 11:0.1905 12:0.5714 13:19 14:1 15:0.4737 16:0.2368 17:0.25 18:0.2237 19:0.2895 20:0.1944 21:1.11 22:0.1765 23:0.3333 24:23 
1 1:1 2:6 3:3 4:3 5:21 6:0.5238 7:1 8:2 9:3 10:0.0952 11:0.0476 12:0.381 13:17 14:3 15:0.5256 16:0.1795 17:0.2821 18:0.2436 19:0.2949 20:0.2537 21:0.8 22:0.2571 23:0.4074 24:20 
1 1:1 2:6 3:3 4:3 5:21 6:0.5714 7:1 8:2 9:3 10:0.2381 11:0.4762 12:0.1905 13:17 14:4 15:0.5 16:0.1951 17:0.2683 18:0.2317 19:0.3049 20:0.2394 21:1.57 22:0.2903 23:0.3548 24:18 
-1 1:1 2:4 3:-1 4:0 5:22 6:0.4091 7:2 8:1 9:2 10:0.2727 11:0.2273 12:0.3182 13:20 14:1 15:0.4835 16:0.2088 17:0.2308 18:0.2527 19:0.3077 20:0.2414 21:1.43 22:0 23:0.4091 24:14 
-0.01048265272306073 1:4 2:-1 3:1 4:2 5:21 6:0.4 7:1 8:4 9:5 10:0.15 11:0.1 12:0.45 13:11 14:1 15:0.46 16:0.2 17:0.24 18:0.22 19:0.34 20:0.3913 21:0.71 22:0.0508 23:0 24:35 
-0.02815311299779535 1:1 2:-1 3:2 4:4 5:21 6:0.35 7:3 8:3 9:4 10:0.3 11:0.25 12:0.35 13:14 14:-1 15:0.3171 16:0.2683 17:0.122 18:0.1951 19:0.4146 20:0.2 21:0.83 22:0.1385 23:-1 24:39 
-1 1:4 2:3 3:1 4:1 5:22 6:0.381 7:2 8:2 9:4 10:0.381 11:0.2857 12:0.2381 13:16 14:3 15:0.4375 16:0.25 17:0.2188 18:0.2188 19:0.3125 20:0.2414 21:1.8 22:0.0476 23:0.3333 24:26 
-0.1922601923513869 1:3 2:2 3:-1 4:0 5:23 6:0.4783 7:2 8:7 9:2 10:0.2609 11:0.1304 12:0.2609 13:14 14:1 15:0.513 16:0.2348 17:0.2522 18:0.2609 19:0.2522 20:0.2727 21:2.5 22:-1 23:0.2464 24:1 
-0.1669116944784596 1:4 2:2 3:-1 4:0 5:21 6:0.4762 7:1 8:7 9:1 10:0.1905 11:0.0952 12:0.3333 13:14 14:4 15:0.514 16:0.2336 17:0.2617 18:0.2523 19:0.2523 20:0.2549 21:0.82 22:0 23:0.2615 24:5 
-1 1:4 2:5 3:-1 4:0 5:20 6:0.4 7:2 8:2 9:2 10:0.15 11:0.25 12:0.45 13:17 14:3 15:0.4302 16:0.2674 17:0.1977 18:0.2326 19:0.3023 20:0.2683 21:0.88 22:0 23:0.4091 24:11 
-1 1:4 2:6 3:1 4:1 5:21 6:0.45 7:2 8:1 9:3 10:0.25 11:0.2 12:0.3 13:18 14:2 15:0.44 16:0.24 17:0.22 18:0.22 19:0.32 20:0.1667 21:0.78 22:0.25 23:0.2 24:6 
-0.1345416303553999 1:4 2:6 3:-1 4:0 5:25 6:0.4583 7:2 8:1 9:4 10:0.25 11:0.25 12:0.2917 13:21 14:4 15:0.4444 16:0.2315 17:0.2222 18:0.2222 19:0.3241 20:0.1731 21:0.88 22:-1 23:0.2 24:2 
-0.6239002865744125 1:1 2:4 3:-1 4:0 5:22 6:0.55 7:1 8:2 9:4 10:0.25 11:0.2 12:0.2 13:16 14:3 15:0.5214 16:0.2051 17:0.2564 18:0.265 19:0.2735 20:0.2432 21:2 22:-1 23:0.2571 24:1 
-1 1:4 2:4 3:1 4:1 5:23 6:0.5909 7:1 8:2 9:3 10:0.2727 11:0.1364 12:0.1364 13:19 14:3 15:0.5143 16:0.219 17:0.2476 18:0.2667 19:0.2667 20:0.2323 21:2 22:0.1111 23:0.2963 24:8 
-1 1:2 2:4 3:2 4:2 5:21 6:0.5 7:0 8:1 9:2 10:0.35 11:0.1 12:0.15 13:19 14:3 15:0.4948 16:0.2371 17:0.2268 18:0.268 19:0.268 20:0.2088 21:1.11 22:0.2941 23:0.32 24:12 
-1 1:4 2:2 3:2 4:3 5:20 6:0.25 7:1 8:2 9:4 10:0.3 11:0.2 12:0.45 13:15 14:3 15:0.3889 16:0.3148 17:0.1481 18:0.2407 19:0.2963 20:0.2653 21:1.14 22:0.1915 23:0.4545 24:27 
-1 1:1 2:3 3:1 4:1 5:20 6:0.4 7:1 8:2 9:2 10:0.4 11:0.2 12:0.2 13:16 14:4 15:0.3889 16:0.3 17:0.1556 18:0.2333 19:0.3111 20:0.2471 21:0.9 22:0.0909 23:0.3191 24:8 
-0.6914247303170543 1:3 2:2 3:1 4:3 5:22 6:0.5 7:0 8:4 9:3 10:0.4091 11:0.1818 12:0.0909 13:15 14:3 15:0.4444 16:0.2857 17:0.2222 18:0.2222 19:0.2698 20:0.2759 21:0.7 22:0.125 23:0.3333 24:26 
-0.08391221279745792 1:4 2:-1 3:2 4:8 5:21 6:0.5 7:2 8:3 9:3 10:0.2273 11:0.4545 12:0.2727 13:16 14:-1 15:0.4884 16:0.2093 17:0.2558 18:0.2326 19:0.3023 20:0.2 21:0.6 22:0.194 23:-1 24:39 
-0.06534473447172913 1:4 2:1 3:2 4:8 5:22 6:0.5455 7:2 8:3 9:2 10:0.2727 11:0.4545 12:0.1818 13:18 14:1 15:0.4694 16:0.2245 17:0.2449 18:0.2245 19:0.3061 20:0.1739 21:0.7 22:0.2131 23:0.5 24:36 
-0.2453589501214338 1:2 2:-1 3:1 4:2 5:22 6:0.5 7:1 8:1 9:3 10:0.2727 11:0.1364 12:0.2273 13:19 14:4 15:0.5 16:0.26 17:0.28 18:0.22 19:0.24 20:0.1364 21:0.7 22:0.0909 23:-1 24:14 
-0.07647339949030919 1:1 2:-1 3:1 4:3 5:20 6:0.5 7:1 8:2 9:3 10:0.25 11:0.3 12:0.25 13:16 14:4 15:0.5 16:0.2619 17:0.2619 18:0.2381 19:0.2381 20:0.1111 21:0.5 22:0.1333 23:-1 24:19 
-0.05665293564388074 1:4 2:-1 3:2 4:9 5:24 6:0.5833 7:1 8:3 9:3 10:0.0833 11:0.1667 12:0.3333 13:18 14:4 15:0.5714 16:0.1633 17:0.2857 18:0.2857 19:0.2653 20:0.1818 21:2 22:0.3433 23:-1 24:36 
-0.9154095448407261 1:3 2:3 3:2 4:7 5:22 6:0.5 7:1 8:2 9:3 10:0.2727 11:0.4545 12:0.2273 13:18 14:3 15:0.5556 16:0.1587 17:0.2857 18:0.2698 19:0.2857 20:0.2414 21:2.2 22:0.3208 23:0.5 24:29 
-1 1:3 2:6 3:2 4:1 5:21 6:0.5714 7:1 8:1 9:2 10:0.1429 11:0.1429 12:0.2857 13:19 14:4 15:0.5244 16:0.2073 17:0.2561 18:0.2683 19:0.2683 20:0.1579 21:1.38 22:0.1538 23:0.2571 24:16 
-0.2757349989386885 1:2 2:6 3:2 4:2 5:24 6:0.6522 7:1 8:1 9:3 10:0.1739 11:0.4348 12:0.1739 13:21 14:4 15:0.5263 16:0.2105 17:0.25 18:0.2763 19:0.2632 20:0.1429 21:1.43 22:0.1875 23:0.25 24:19 
-1 1:1 2:6 3:2 4:2 5:23 6:0.6364 7:1 8:1 9:3 10:0.1818 11:0.4545 12:0.1818 13:20 14:4 15:0.5135 16:0.2162 17:0.2432 18:0.2703 19:0.2703 20:0.1471 21:1.43 22:0.1765 23:0.25 24:20 
-1 1:4 2:6 3:2 4:2 5:22 6:0.5238 7:0 8:1 9:3 10:0.1905 11:0.381 12:0.2857 13:19 14:3 15:0.5 16:0.2273 17:0.2424 18:0.2576 19:0.2727 20:0.1667 21:1.25 22:0.1429 23:0.3333 24:24 
-0.9953739031049701 1:4 2:2 3:5 4:1 5:21 6:0.4762 7:4 8:2 9:1 10:0.0952 11:0.3333 12:0.4286 13:19 14:1 15:0.4409 16:0.2473 17:0.2151 18:0.2258 19:0.3118 20:0.1163 21:1 22:0.2941 23:0.1739 24:13 
-0.4390973013631602 1:4 2:2 3:5 4:1 5:21 6:0.4762 7:3 8:2 9:1 10:0.0476 11:0.3333 12:0.4762 13:19 14:4 15:0.4433 16:0.2474 17:0.2165 18:0.2268 19:0.3093 20:0.1111 21:1 22:0.3846 23:0.16 24:6 
-1 1:3 2:2 3:5 4:1 5:23 6:0.3478 7:4 8:2 9:2 10:0.3043 11:0.2174 12:0.3478 13:20 14:3 15:0.4458 16:0.241 17:0.2169 18:0.2289 19:0.3133 20:0.1316 21:0.91 22:0.1852 23:0.1875 24:18 
-0.4175392114614168 1:4 2:2 3:-1 4:0 5:20 6:0.4 7:0 8:5 9:2 10:0.4 11:0.15 12:0.2 13:13 14:4 15:0.4412 16:0.2451 17:0.2059 18:0.2353 19:0.3137 20:0.1579 21:5 22:0 23:0.129 24:6 
-0.820425874403086 1:3 2:2 3:4 4:1 5:22 6:0.3636 7:3 8:2 9:2 10:0.4091 11:0.1364 12:0.2273 13:19 14:4 15:0.4388 16:0.2449 17:0.2143 18:0.2245 19:0.3163 20:0.1209 21:1.29 22:0.3333 23:0.16 24:10 
-0.02124666875644967 1:4 2:-1 3:3 4:2 5:20 6:0.5 7:0 8:5 9:3 10:0.35 11:0.2 12:0.15 13:10 14:1 15:0.4667 16:0.3111 17:0.2222 18:0.2444 19:0.2222 20:0.3846 21:0.62 22:0.1333 23:0 24:32 
-0.6390167666302962 1:1 2:5 3:3 4:1 5:22 6:0.4091 7:1 8:4 9:3 10:0.3636 11:0.1818 12:0.2273 13:16 14:2 15:0.4179 16:0.3134 17:0.209 18:0.209 19:0.2687 20:0.2787 21:0.56 22:0.1579 23:0.4545 24:21 
-0.02314303891537515 1:2 2:-1 3:3 4:1 5:27 6:0.5217 7:0 8:5 9:5 10:0.2174 11:0.2609 12:0.2609 13:14 14:-1 15:0.4902 16:0.2941 17:0.2549 18:0.2353 19:0.2157 20:0.3778 21:1.4 22:0.1111 23:-1 24:29 
-1 1:4 2:1 3:1 4:2 5:21 6:0.4762 7:0 8:1 9:3 10:0.2857 11:0.2857 12:0.2381 13:18 14:2 15:0.5098 16:0.2353 17:0.1765 18:0.3333 19:0.2549 20:0.1364 21:1 22:0.0811 23:0.5 24:21 
-0.9097870598656552 1:1 2:1 3:1 4:2 5:20 6:0.5 7:0 8:1 9:3 10:0.3 11:0.35 12:0.2 13:17 14:1 15:0.5091 16:0.2364 17:0.1818 18:0.3273 19:0.2545 20:0.125 21:1.25 22:0.0909 23:0.2 24:19 
-0.5642332906217413 1:1 2:1 3:1 4:2 5:23 6:0.4783 7:0 8:1 9:3 10:0.3043 11:0.3043 12:0.2174 13:20 14:2 15:0.5091 16:0.2364 17:0.1818 18:0.3273 19:0.2545 20:0.125 21:1 22:0.0909 23:0.5 24:19 
-0.4239706091293646 1:1 2:1 3:5 4:2 5:21 6:0.5714 7:2 8:3 9:3 10:0.2381 11:0.2857 12:0.1905 13:16 14:2 15:0.5763 16:0.1864 17:0.2712 18:0.3051 19:0.2373 20:0.2222 21:1.25 22:0.2308 23:0.2857 24:23 
-0.6148247125776827 1:4 2:2 3:3 4:2 5:22 6:0.6667 7:3 8:3 9:3 10:0.0476 11:0.5238 12:0.2857 13:16 14:2 15:0.5846 16:0.1231 17:0.2462 18:0.3385 19:0.2923 20:0.2581 21:0.64 22:0.2593 23:0.3636 24:20 
-1 1:4 2:-1 3:2 4:5 5:21 6:0.381 7:2 8:2 9:3 10:0.2857 11:0.1905 12:0.3333 13:17 14:4 15:0.4894 16:0.2553 17:0.2128 18:0.2766 19:0.2553 20:0.1707 21:1 22:0.2245 23:-1 24:29 
-1 1:2 2:1 3:2 4:4 5:21 6:0.619 7:2 8:2 9:3 10:0.1429 11:0.2857 12:0.2381 13:17 14:3 15:0.5246 16:0.2295 17:0.2131 18:0.3115 19:0.2459 20:0.1636 21:1.33 22:0.2571 23:0.0769 24:22 
-0.3637069011359457 1:1 2:1 3:2 4:4 5:24 6:0.5833 7:2 8:2 9:2 10:0.2083 11:0.4167 12:0.2083 13:21 14:3 15:0.5507 16:0.2174 17:0.2319 18:0.3188 19:0.2319 20:0.1429 21:0.82 22:0.3333 23:0.2 24:18 
-0.6114981486943455 1:2 2:-1 3:2 4:5 5:22 6:0.5714 7:2 8:2 9:3 10:0.1429 11:0.2857 12:0.2857 13:18 14:4 15:0.4906 16:0.2453 17:0.2075 18:0.283 19:0.2642 20:0.1489 21:1 22:0.2558 23:0 24:26 
-1 1:3 2:1 3:3 4:3 5:20 6:0.65 7:0 8:3 9:3 10:0.25 11:0.25 12:0.1 13:15 14:4 15:0.5636 16:0.2182 17:0.2909 18:0.2727 19:0.2182 20:0.234 21:0.9 22:0.2857 23:0.25 24:23 
-1 1:4 2:-1 3:3 4:3 5:21 6:0.5 7:0 8:3 9:4 10:0.15 11:0.3 12:0.35 13:15 14:3 15:0.5472 16:0.2264 17:0.283 18:0.2642 19:0.2264 20:0.2444 21:0.78 22:0.2727 23:0 24:24 
-1 1:1 2:1 3:3 4:3 5:20 6:0.5 7:1 8:1 9:3 10:0.2 11:0.3 12:0.3 13:17 14:2 15:0.4706 16:0.2157 17:0.2353 18:0.2353 19:0.3137 20:0.1429 21:1 22:0.375 23:0.5 24:19 
-0.5829826095184173 1:4 2:2 3:-1 4:0 5:20 6:0.45 7:1 8:1 9:3 10:0.05 11:0.05 12:0.5 13:17 14:4 15:0.4643 16:0.2738 17:0.2381 18:0.2262 19:0.2619 20:0.15 21:0.62 22:-1 23:0.1707 24:2 
-0.9816035124115149 1:4 2:2 3:-1 4:0 5:22 6:0.4545 7:1 8:1 9:2 10:0.1364 11:0.0909 12:0.4091 13:20 14:2 15:0.4699 16:0.2771 17:0.241 18:0.2289 19:0.253 20:0.1392 21:0.78 22:-1 23:0.2 24:3 
-0.1994359124056524 1:4 2:2 3:1 4:2 5:20 6:0.45 7:2 8:4 9:3 10:0 11:0.2 12:0.55 13:14 14:1 15:0.4394 16:0.2121 17:0.197 18:0.2424 19:0.3485 20:0.2203 21:0.88 22:0.1 23:0.3077 24:25 
-0.1480146475237621 1:2 2:-1 3:4 4:2 5:23 6:0.4783 7:1 8:3 9:1 10:0.3913 11:0.1739 12:0.1304 13:20 14:3 15:0.5417 16:0.2292 17:0.2708 18:0.2708 19:0.2292 20:0 21:5 22:0.1538 23:-1 24:37 
-0.07442756216659065 1:3 2:-1 3:-1 4:0 5:28 6:0.5417 7:0 8:4 9:3 10:0.4167 11:0.3333 12:0.0417 13:17 14:3 15:0.534 16:0.2621 17:0.2718 18:0.2621 19:0.2039 20:0.1158 21:3.67 22:-1 23:0 24:4 
-0.3412542178486918 1:3 2:1 3:4 4:1 5:22 6:0.4545 7:1 8:3 9:3 10:0.1818 11:0.2273 12:0.3636 13:16 14:4 15:0.4615 16:0.25 17:0.2115 18:0.25 19:0.2885 20:0.1915 21:2.75 22:0.2857 23:0.25 24:18 
-0.6906417082492692 1:2 2:1 3:1 4:1 5:20 6:0.5 7:0 8:3 9:1 10:0.25 11:0.2 12:0.25 13:17 14:3 15:0.4382 16:0.2472 17:0.2247 18:0.2135 19:0.3146 20:0.1294 21:1.1 22:0.125 23:0.1111 24:15 
-0.4288265677103512 1:3 2:-1 3:3 4:2 5:22 6:0.4762 7:3 8:1 9:4 10:0.381 11:0.3333 12:0.1429 13:18 14:1 15:0.3878 16:0.2245 17:0.1837 18:0.2041 19:0.3878 20:0.1111 21:1 22:0.1429 23:0 24:35 
-1 1:2 2:1 3:3 4:2 5:22 6:0.4762 7:1 8:1 9:3 10:0.381 11:0.2381 12:0.1429 13:19 14:1 15:0.4098 16:0.2295 17:0.1967 18:0.2131 19:0.3607 20:0.0877 21:0.7 22:0.1818 23:0.0667 24:29 
-0.1856037376881298 1:3 2:-1 3:3 4:2 5:23 6:0.4545 7:2 8:1 9:4 10:0.3636 11:0.2727 12:0.1818 13:19 14:3 15:0.4035 16:0.2281 17:0.193 18:0.2105 19:0.3684 20:0.0943 21:0.7 22:0.1667 23:0 24:31 
-0.004184988749094369 1:4 2:-1 3:1 4:3 5:22 6:0.4762 7:0 8:8 9:3 10:0.1905 11:0.2381 12:0.3333 13:11 14:3 15:0.5263 16:0.193 17:0.2982 18:0.2281 19:0.2807 20:0.3962 21:0 22:0.1176 23:0 24:20 
-0.3806742341379571 1:4 2:5 3:1 4:2 5:21 6:0.65 7:0 8:3 9:4 10:0.15 11:0.25 12:0.2 13:14 14:4 15:0.5781 16:0.1719 17:0.3125 18:0.2656 19:0.25 20:0.3667 21:0.22 22:0.1111 23:0.5 24:16 
-0.1324285676800301 1:1 2:-1 3:-1 4:0 5:23 6:0.7083 7:0 8:8 9:2 10:0.0833 11:0.2083 12:0.2083 13:12 14:-1 15:0.6739 16:0.1739 17:0.3478 18:0.3261 19:0.1522 20:0.3846 21:0.17 22:0 23:-1 24:10 
-0.09611271072243267 1:3 2:-1 3:-1 4:0 5:23 6:0.7391 7:0 8:8 9:2 10:0.0435 11:0.2174 12:0.2174 13:12 14:4 15:0.6739 16:0.1739 17:0.3478 18:0.3261 19:0.1522 20:0.3846 21:0.17 22:0 23:-1 24:10 
-0.07340040913211278 1:1 2:6 3:-1 4:0 5:20 6:0.5 7:0 8:3 9:3 10:0.25 11:0.35 12:0.25 13:14 14:1 15:0.4382 16:0.2247 17:0.2135 18:0.2247 19:0.3371 20:0.3647 21:0.44 22:0 23:0.4222 24:14 
-0.4469628034909888 1:3 2:6 3:-1 4:0 5:21 6:0.5714 7:0 8:3 9:2 10:0.1905 11:0.1429 12:0.2381 13:16 14:4 15:0.4409 16:0.2258 17:0.2151 18:0.2258 19:0.3333 20:0.3483 21:1.71 22:0 23:0.4468 24:12 
-0.01196321011778635 1:4 2:-1 3:3 4:4 5:22 6:0.6087 7:1 8:3 9:4 10:0.1739 11:0.2609 12:0.2174 13:13 14:4 15:0.5476 16:0.1667 17:0.2619 18:0.2857 19:0.2857 20:0.2353 21:4 22:0.1765 23:-1 24:38 
-0.02048139056647637 1:4 2:1 3:1 4:1 5:20 6:0.6 7:0 8:2 9:3 10:0.15 11:0.35 12:0.25 13:15 14:3 15:0.5294 16:0.2157 17:0.2353 18:0.2941 19:0.2549 20:0.2273 21:1.43 22:0.0345 23:0.3333 24:20 
-1 1:2 2:2 3:4 4:3 5:20 6:0.55 7:1 8:2 9:3 10:0.2 11:0.2 12:0.25 13:16 14:3 15:0.5238 16:0.2222 17:0.2381 18:0.2857 19:0.254 20:0.25 21:1.38 22:0.2766 23:0.4444 24:29 
-1 1:2 2:2 3:4 4:3 5:21 6:0.5714 7:2 8:2 9:2 10:0.2381 11:0.3333 12:0.1905 13:18 14:3 15:0.5217 16:0.2174 17:0.2319 18:0.2899 19:0.2609 20:0.2258 21:1 22:0.3171 23:0.4545 24:26 
-0.9444051712861119 1:1 2:3 3:2 4:1 5:23 6:0.5455 7:1 8:2 9:4 10:0.2727 11:0.2727 12:0.1818 13:18 14:3 15:0.5758 16:0.1919 17:0.2828 18:0.2929 19:0.2323 20:0.2128 21:1.57 22:0.3333 23:0.2692 24:10 
-1 1:3 2:3 3:2 4:1 5:21 6:0.55 7:1 8:2 9:4 10:0.25 11:0.2 12:0.2 13:16 14:3 15:0.5842 16:0.1881 17:0.2871 18:0.297 19:0.2277 20:0.2083 21:1.38 22:0.4 23:0.2414 24:9 
-0.8686617770438082 1:3 2:5 3:1 4:1 5:22 6:0.5714 7:3 8:3 9:3 10:0.2857 11:0.3333 12:0.1429 13:16 14:1 15:0.5253 16:0.2424 17:0.2626 18:0.2626 19:0.2323 20:0.2553 21:2.75 22:0.1667 23:0.3214 24:9 
-1 1:3 2:2 3:4 4:4 5:22 6:0.5 7:2 8:2 9:3 10:0.2273 11:0.2273 12:0.2727 13:17 14:4 15:0.4783 16:0.2319 17:0.2174 18:0.2609 19:0.2899 20:0.2424 21:2 22:0.3158 23:0.3333 24:22 
-0.06290317585772058 1:3 2:-1 3:3 4:5 5:25 6:0.6522 7:3 8:3 9:4 10:0.087 11:0.3913 12:0.2609 13:19 14:2 15:0.6 16:0.18 17:0.3 18:0.3 19:0.22 20:0.1163 21:5 22:0.3 23:-1 24:35 
-0.0940675869298488 1:4 2:5 3:2 4:1 5:21 6:0.4286 7:1 8:6 9:2 10:0.1905 11:0.3333 12:0.381 13:12 14:1 15:0.4615 16:0.2088 17:0.2088 18:0.2527 19:0.3297 20:0.3023 21:2 22:0.25 23:0.2174 24:10 
-0.05841753032074363 1:4 2:5 3:2 4:1 5:23 6:0.4348 7:1 8:6 9:2 10:0.1739 11:0.3478 12:0.3913 13:14 14:2 15:0.4615 16:0.2088 17:0.2088 18:0.2527 19:0.3297 20:0.3023 21:0.57 22:0.25 23:0.2381 24:10 
-1 1:4 2:6 3:3 4:3 5:21 6:0.5238 7:2 8:3 9:4 10:0.1905 11:0.2381 12:0.2857 13:15 14:3 15:0.5075 16:0.209 17:0.2388 18:0.2687 19:0.2836 20:0.3333 21:1.17 22:0.2571 23:0.5 24:20 
-0.1176393206033643 1:4 2:3 3:3 4:3 5:22 6:0.5 7:2 8:3 9:4 10:0.2273 11:0.2727 12:0.2727 13:14 14:3 15:0.4921 16:0.2222 17:0.2222 18:0.2698 19:0.2857 20:0.3214 21:0.25 22:0.2821 23:0.3333 24:22 
-0.6069109846216069 1:4 2:3 3:-1 4:0 5:22 6:0.5 7:0 8:3 9:3 10:0.2727 11:0.3182 12:0.2273 13:16 14:4 15:0.5575 16:0.2035 17:0.3186 18:0.2389 19:0.2389 20:0.3269 21:0.78 22:0 23:0.3871 24:3 
-0.1577203063863505 1:4 2:2 3:-1 4:0 5:20 6:0.5 7:0 8:3 9:3 10:0.25 11:0.35 12:0.25 13:13 14:1 15:0.56 16:0.19 17:0.26 18:0.3 19:0.25 20:0.3333 21:0.5 22:-1 23:0.3214 24:11 
-0.1034093696363637 1:4 2:2 3:-1 4:0 5:24 6:0.5 7:0 8:3 9:5 10:0.25 11:0.3333 12:0.25 13:15 14:1 15:0.5625 16:0.1875 17:0.2604 18:0.3021 19:0.25 20:0.3478 21:1 22:0 23:0.3182 24:13 
-0.09139177974652102 1:3 2:2 3:2 4:2 5:20 6:0.55 7:0 8:3 9:3 10:0.25 11:0.4 12:0.2 13:14 14:2 15:0.5854 16:0.1829 17:0.2927 18:0.2927 19:0.2317 20:0.2821 21:2.4 22:0.4444 23:0.2632 24:19 
-1 1:2 2:2 3:3 4:2 5:20 6:0.55 7:0 8:2 9:3 10:0.15 11:0.4 12:0.3 13:16 14:3 15:0.5652 16:0.1739 17:0.2826 18:0.2826 19:0.2609 20:0.25 21:1.25 22:0.3043 23:0.2917 24:14 
-0.6630674408704832 1:4 2:2 3:3 4:1 5:22 6:0.3636 7:1 8:1 9:3 10:0.2273 11:0.0455 12:0.4091 13:19 14:1 15:0.4851 16:0.2178 17:0.2376 18:0.2475 19:0.297 20:0.2083 21:1 22:0.2727 23:0.2963 24:6 
-1 1:4 2:2 3:3 4:1 5:20 6:0.45 7:1 8:1 9:3 10:0.3 11:0.3 12:0.25 13:17 14:4 15:0.4839 16:0.2151 17:0.2366 18:0.2473 19:0.3011 20:0.2273 21:1 22:0.1579 23:0.32 24:13 
-0.5296276113549471 1:4 2:-1 3:4 4:2 5:23 6:0.5455 7:2 8:2 9:4 10:0.0909 11:0.3182 12:0.3636 13:18 14:3 15:0.5652 16:0.2174 17:0.2609 18:0.3043 19:0.2174 20:0.1429 21:0.8 22:0.1915 23:-1 24:33 
-1 1:2 2:3 3:1 4:1 5:22 6:0.5455 7:1 8:2 9:3 10:0.2727 11:0.4545 12:0.1818 13:18 14:4 15:0.5 16:0.25 17:0.2375 18:0.2625 19:0.25 20:0.2162 21:1.29 22:0.125 23:0.2667 24:20 
-1 1:2 2:3 3:1 4:1 5:22 6:0.5909 7:1 8:2 9:3 10:0.2273 11:0.4545 12:0.1818 13:18 14:4 15:0.5128 16:0.2436 17:0.2436 18:0.2692 19:0.2436 20:0.2222 21:1.43 22:0.1111 23:0.2857 24:21 
-0.9234698411200795 1:1 2:3 3:-1 4:0 5:21 6:0.5238 7:1 8:2 9:3 10:0.381 11:0.3333 12:0.0952 13:17 14:1 15:0.5104 16:0.25 17:0.2396 18:0.2708 19:0.2396 20:0.2 21:1 22:-1 23:0.2083 24:1 
-1 1:2 2:6 3:-1 4:0 5:21 6:0.5714 7:1 8:1 9:3 10:0.2857 11:0.4286 12:0.1429 13:18 14:4 15:0.5189 16:0.1792 17:0.2642 18:0.2547 19:0.3019 20:0.2323 21:1.12 22:-1 23:0.322 24:2 
-0.01819250194036727 1:2 2:1 3:1 4:1 5:21 6:0.4762 7:1 8:8 9:3 10:0.1905 11:0.381 12:0.3333 13:10 14:3 15:0.4286 16:0.2321 17:0.1964 18:0.2321 19:0.3393 20:0.3725 21:0.33 22:0.0417 23:0.1429 24:31 
-0.903170885143226 1:2 2:3 3:-1 4:0 5:21 6:0.5238 7:2 8:3 9:2 10:0.381 11:0.381 12:0.0952 13:17 14:3 15:0.4727 16:0.2182 17:0.2364 18:0.2364 19:0.3091 20:0.2762 21:0.3 22:-1 23:0.3538 24:4 
-1 1:4 2:2 3:-1 4:0 5:20 6:0.45 7:1 8:3 9:1 10:0.1 11:0.05 12:0.45 13:17 14:3 15:0.5185 16:0.2222 17:0.2469 18:0.2716 19:0.2593 20:0.1507 21:1 22:0 23:0.1515 24:4 
-0.7699436207839587 1:3 2:2 3:-1 4:0 5:23 6:0.5217 7:1 8:3 9:1 10:0.3478 11:0.4348 12:0.1304 13:20 14:4 15:0.5301 16:0.2169 17:0.253 18:0.2771 19:0.253 20:0.1467 21:0.91 22:-1 23:0.1724 24:3 
-0.6130421512979637 1:1 2:4 3:-1 4:0 5:24 6:0.5 7:2 8:3 9:1 10:0.3333 11:0.3333 12:0.1667 13:21 14:4 15:0.5158 16:0.2421 17:0.2421 18:0.2737 19:0.2421 20:0.1461 21:1 22:0 23:0.1707 24:9 
-1 1:4 2:4 3:-1 4:0 5:22 6:0.5 7:2 8:3 9:2 10:0.1818 11:0.2273 12:0.3182 13:16 14:2 15:0.5149 16:0.2376 17:0.2475 18:0.2673 19:0.2475 20:0.1789 21:3.33 22:-1 23:0.1321 24:5 
-0.05884239982005234 1:4 2:4 3:-1 4:0 5:25 6:0.4783 7:2 8:7 9:2 10:0.2174 11:0.2174 12:0.3043 13:15 14:4 15:0.5138 16:0.2294 17:0.2477 18:0.2661 19:0.2569 20:0.2427 21:0 22:-1 23:0.1273 24:1 
-0.2155146719568125 1:2 2:4 3:-1 4:0 5:20 6:0.5 7:2 8:3 9:1 10:0.1 11:0.1 12:0.4 13:17 14:2 15:0.5172 16:0.2414 17:0.2414 18:0.2759 19:0.2414 20:0.1605 21:5 22:0 23:0.1707 24:13 
-1 1:4 2:2 3:2 4:2 5:23 6:0.5652 7:1 8:1 9:5 10:0.2174 11:0.4348 12:0.2174 13:18 14:2 15:0.5075 16:0.2388 17:0.2239 18:0.2836 19:0.2537 20:0.2203 21:1.14 22:0.125 23:0.2308 24:27 
-1 1:1 2:2 3:2 4:3 5:20 6:0.55 7:1 8:1 9:3 10:0.25 11:0.45 12:0.2 13:17 14:2 15:0.4921 16:0.254 17:0.2063 18:0.2857 19:0.254 20:0.2 21:1 22:0.1538 23:0.3333 24:29 
-0.9023892867078552 1:4 2:2 3:1 4:1 5:23 6:0.5217 7:2 8:2 9:2 10:0.087 11:0.2174 12:0.3913 13:20 14:3 15:0.5049 16:0.2233 17:0.2136 18:0.2913 19:0.2718 20:0.1789 21:1.11 22:0.1667 23:0.2245 24:9 
-0.1617457254367018 1:4 2:3 3:-1 4:0 5:27 6:0.4091 7:1 8:7 9:4 10:0.4091 11:0.3636 12:0.1818 13:15 14:4 15:0.4018 16:0.2589 17:0.1786 18:0.2232 19:0.3393 20:0.2571 21:4.5 22:-1 23:0.1864 24:1 
-0.02209196963683595 1:3 2:3 3:-1 4:0 5:25 6:0.45 7:1 8:7 9:4 10:0.4 11:0.4 12:0.15 13:13 14:4 15:0.4018 16:0.2589 17:0.1786 18:0.2232 19:0.3393 20:0.2571 21:2.5 22:-1 23:0.1746 24:1 
-1 1:4 2:8 3:-1 4:0 5:21 6:0.5238 7:2 8:2 9:3 10:0.1429 11:0.2857 12:0.3333 13:17 14:2 15:0.5098 16:0.2451 17:0.2451 18:0.2647 19:0.2451 20:0.2245 21:1.11 22:0 23:0.25 24:5 
-1 1:3 2:8 3:-1 4:0 5:20 6:0.6 7:2 8:2 9:3 10:0.15 11:0.35 12:0.25 13:16 14:3 15:0.5306 16:0.2347 17:0.2551 18:0.2755 19:0.2347 20:0.234 21:0.6 22:0 23:0.2593 24:7 
-0.1496785150794114 1:4 2:8 3:-1 4:0 5:20 6:0.55 7:2 8:2 9:3 10:0.15 11:0.3 12:0.3 13:16 14:2 15:0.52 16:0.24 17:0.25 18:0.27 19:0.24 20:0.2292 21:0.89 22:0 23:0.25 24:6 
-1 1:4 2:8 3:-1 4:0 5:20 6:0.55 7:2 8:2 9:3 10:0.3 11:0.35 12:0.15 13:16 14:2 15:0.5106 16:0.2447 17:0.2447 18:0.266 19:0.2447 20:0.2444 21:1.67 22:0 23:0.28 24:9 
-0.04934318868605922 1:4 2:-1 3:3 4:4 5:20 6:0.5 7:1 8:4 9:3 10:0.3 11:0.3 12:0.2 13:13 14:2 15:0.4634 16:0.1951 17:0.1951 18:0.2683 19:0.3415 20:0.1875 21:0 22:0.1803 23:-1 24:40 
-0.6763461013142249 1:1 2:4 3:2 4:1 5:22 6:0.4762 7:1 8:4 9:2 10:0.3333 11:0.1905 12:0.1905 13:17 14:4 15:0.4405 16:0.2857 17:0.2024 18:0.2381 19:0.2738 20:0.2308 21:0.82 22:0.3333 23:0.2571 24:17 
-0.03853593258931894 1:2 2:3 3:-1 4:0 5:21 6:0.5 7:0 8:3 9:3 10:0.15 11:0.2 12:0.35 13:16 14:4 15:0.4356 16:0.2376 17:0.198 18:0.2376 19:0.3267 20:0.2371 21:1 22:0 23:0.25 24:9 
-0.1057291129350234 1:1 2:2 3:3 4:1 5:21 6:0.2857 7:2 8:3 9:2 10:0.2857 11:0.1905 12:0.4286 13:17 14:2 15:0.3196 16:0.3196 17:0.1134 18:0.2062 19:0.3608 20:0.1957 21:1.12 22:0.4545 23:0.2308 24:12 
-1 1:2 2:2 3:3 4:1 5:21 6:0.3333 7:2 8:3 9:2 10:0.2381 11:0.2381 12:0.4286 13:17 14:2 15:0.3407 16:0.3077 17:0.1209 18:0.2198 19:0.3516 20:0.2093 21:1.11 22:0.2941 23:0.2609 24:15 
-0.01921404018661522 1:1 2:1 3:-1 4:0 5:23 6:0.4783 7:2 8:8 9:3 10:0.1739 11:0.3043 12:0.3478 13:12 14:2 15:0.4018 16:0.2946 17:0.1696 18:0.2321 19:0.3036 20:0.2523 21:0 22:-1 23:0.125 24:4 
-0.8601374251027416 1:4 2:1 3:-1 4:0 5:22 6:0.3636 7:3 8:2 9:3 10:0.3182 11:0.1818 12:0.3182 13:18 14:3 15:0.3678 16:0.2989 17:0.1379 18:0.2299 19:0.3333 20:0.1463 21:1.29 22:0 23:0.15 24:17 
-0.540909752584537 1:2 2:3 3:1 4:1 5:21 6:0.4286 7:2 8:3 9:2 10:0.4286 11:0.2381 12:0.1429 13:17 14:4 15:0.3542 16:0.2917 17:0.1667 18:0.1875 19:0.3542 20:0.2308 21:0.2 22:0.125 23:0.2941 24:10 
-0.7766809603861949 1:3 2:1 3:2 4:4 5:22 6:0.3636 7:1 8:2 9:3 10:0.2273 11:0.1818 12:0.4091 13:17 14:4 15:0.3607 16:0.3607 17:0.1475 18:0.2131 19:0.2787 20:0.1923 21:3.33 22:0.16 23:0.2 24:30 
-1 1:4 2:2 3:1 4:1 5:22 6:0.4091 7:1 8:2 9:3 10:0.4091 11:0.1818 12:0.1818 13:18 14:4 15:0.375 16:0.3409 17:0.1818 18:0.1932 19:0.2841 20:0.2152 21:2 22:0.0435 23:0.3158 24:16 
-1 1:3 2:4 3:2 4:3 5:22 6:0.4091 7:4 8:2 9:2 10:0.2727 11:0.2727 12:0.3182 13:19 14:3 15:0.5233 16:0.1977 17:0.2442 18:0.2791 19:0.2791 20:0.2439 21:1.12 22:0.3913 23:0.3684 24:18 
-1 1:4 2:4 3:2 4:3 5:20 6:0.35 7:3 8:2 9:2 10:0.3 11:0.2 12:0.35 13:17 14:3 15:0.5233 16:0.1977 17:0.2442 18:0.2791 19:0.2791 20:0.2439 21:1.12 22:0.3913 23:0.3333 24:18 
-0.1524739986326984 1:3 2:3 3:-1 4:0 5:20 6:0.5 7:1 8:8 9:2 10:0.15 11:0.45 12:0.35 13:11 14:4 15:0.5361 16:0.1753 17:0.2062 18:0.3299 19:0.2887 20:0.2391 21:0 22:-1 23:0.1864 24:1 
-0.3454000881093028 1:3 2:1 3:2 4:2 5:22 6:0.5714 7:2 8:3 9:3 10:0.1429 11:0.2857 12:0.2857 13:17 14:3 15:0.587 16:0.1522 17:0.2826 18:0.3043 19:0.2609 20:0.122 21:1.25 22:0.15 23:0.5 24:29 
-1 1:4 2:1 3:3 4:2 5:21 6:0.4286 7:2 8:4 9:2 10:0.2381 11:0.2857 12:0.3333 13:15 14:3 15:0.4194 16:0.2903 17:0.1935 18:0.2258 19:0.2903 20:0.2727 21:0.6 22:0.24 23:0.3333 24:29 
-0.264308683393331 1:1 2:4 3:-1 4:0 5:24 6:0.5 7:0 8:3 9:3 10:0.2083 11:0.0833 12:0.2917 13:17 14:4 15:0.4821 16:0.2411 17:0.2411 18:0.2411 19:0.2768 20:0.3019 21:2 22:-1 23:0.3103 24:1 
-0.6046114233309876 1:1 2:4 3:2 4:1 5:22 6:0.5 7:0 8:3 9:3 10:0.2727 11:0.3182 12:0.2273 13:15 14:1 15:0.4694 16:0.2551 17:0.2449 18:0.2245 19:0.2755 20:0.3043 21:0.62 22:0.2857 23:0.2917 24:10 
-1 1:4 2:4 3:3 4:3 5:23 6:0.4348 7:2 8:4 9:2 10:0.3043 11:0.1739 12:0.2609 13:17 14:2 15:0.4714 16:0.2571 17:0.2286 18:0.2429 19:0.2714 20:0.2812 21:1.4 22:0.3333 23:0.3333 24:24 
-0.005068063538553794 1:1 2:4 3:2 4:1 5:22 6:0.5455 7:2 8:4 9:2 10:0.2727 11:0.4091 12:0.1818 13:16 14:3 15:0.5111 16:0.2556 17:0.2667 18:0.2444 19:0.2333 20:0.2593 21:1 22:0.2 23:0.3 24:14 
-1 1:1 2:4 3:2 4:2 5:23 6:0.6087 7:1 8:2 9:3 10:0.1739 11:0.2609 12:0.2174 13:18 14:3 15:0.5169 16:0.2247 17:0.2472 18:0.2697 19:0.2584 20:0.2326 21:1 22:0.1667 23:0.2857 24:15 
-0.4499437561046598 1:2 2:4 3:-1 4:0 5:23 6:0.5217 7:1 8:2 9:4 10:0.3478 11:0.3043 12:0.1304 13:17 14:2 15:0.514 16:0.2243 17:0.2523 18:0.2617 19:0.2617 20:0.2308 21:1.4 22:0 23:0.2581 24:5 
-1 1:3 2:1 3:3 4:3 5:20 6:0.6 7:1 8:2 9:3 10:0.1 11:0.25 12:0.3 13:15 14:3 15:0.4667 16:0.2133 17:0.2267 18:0.24 19:0.32 20:0.1692 21:2 22:0.2121 23:0.04 24:23 
-0.6592033277465134 1:2 2:2 3:5 4:2 5:23 6:0.6522 7:1 8:2 9:4 10:0.1304 11:0.1739 12:0.2174 13:16 14:2 15:0.5176 16:0.1882 17:0.2588 18:0.2588 19:0.2941 20:0.2533 21:0.5 22:0.4167 23:0.1724 24:14 
-1 1:2 2:4 3:-1 4:0 5:21 6:0.6 7:2 8:1 9:3 10:0.25 11:0.35 12:0.15 13:18 14:4 15:0.6055 16:0.2018 17:0.3119 18:0.2936 19:0.1927 20:0.2233 21:1.11 22:-1 23:0.3016 24:1 
-1 1:3 2:4 3:1 4:2 5:21 6:0.5714 7:1 8:2 9:3 10:0.1905 11:0.4286 12:0.2381 13:17 14:2 15:0.6154 16:0.2088 17:0.3187 18:0.2967 19:0.1758 20:0.2471 21:1.38 22:0.1111 23:0.3023 24:12 
-1 1:4 2:4 3:-1 4:0 5:21 6:0.7 7:1 8:2 9:4 10:0.05 11:0.25 12:0.25 13:16 14:3 15:0.6117 16:0.2039 17:0.3204 18:0.2913 19:0.1845 20:0.2371 21:0.62 22:0 23:0.2632 24:5 
-1 1:3 2:2 3:-1 4:0 5:21 6:0.6 7:2 8:1 9:3 10:0.15 11:0.35 12:0.25 13:18 14:4 15:0.5741 16:0.1944 17:0.2778 18:0.2963 19:0.2315 20:0.1569 21:0.7 22:-1 23:0.2063 24:4 
-0.05446049187407936 1:2 2:2 3:-1 4:0 5:24 6:0.6522 7:2 8:2 9:3 10:0.087 11:0.2609 12:0.2609 13:20 14:4 15:0.581 16:0.1905 17:0.2857 18:0.2952 19:0.2286 20:0.1515 21:0.86 22:0 23:0.1698 24:6 
-0.004645738534404698 1:2 2:-1 3:2 4:4 5:20 6:0.55 7:0 8:2 9:4 10:0.2 11:0.1 12:0.25 13:14 14:-1 15:0.5854 16:0.2195 17:0.2927 18:0.2927 19:0.1951 20:0.2 21:1.67 22:0.1212 23:-1 24:39 
-0.04409141928475999 1:1 2:1 3:3 4:2 5:28 6:0.2917 7:0 8:8 9:4 10:0.3333 11:0.2083 12:0.375 13:14 14:3 15:0.3944 16:0.2535 17:0.169 18:0.2254 19:0.3521 20:0.3939 21:0.5 22:0.3125 23:0.25 24:18 
-0.01693213808476773 1:3 2:1 3:3 4:2 5:28 6:0.2917 7:1 8:8 9:4 10:0.3333 11:0.2083 12:0.375 13:13 14:2 15:0.3881 16:0.2537 17:0.1642 18:0.2239 19:0.3582 20:0.4194 21:0.56 22:0.2778 23:0.1667 24:20 
-0.06536799126784498 1:1 2:3 3:3 4:1 5:27 6:0.3913 7:0 8:8 9:4 10:0.2174 11:0.2609 12:0.3913 13:15 14:4 15:0.4198 16:0.2346 17:0.1728 18:0.2469 19:0.3457 20:0.3947 21:1.2 22:0.2727 23:0.4286 24:13 
-0.9025486011605556 1:4 2:2 3:2 4:3 5:21 6:0.5 7:5 8:3 9:2 10:0.2 11:0.3 12:0.3 13:16 14:1 15:0.4912 16:0.1754 17:0.1404 18:0.3509 19:0.3333 20:0.2653 21:0.78 22:0.1304 23:0.5 24:28 
-0.007846265711515537 1:4 2:1 3:3 4:5 5:22 6:0.5238 7:4 8:2 9:4 10:0.1429 11:0.4286 12:0.3333 13:16 14:2 15:0.5 16:0.1667 17:0.1458 18:0.3542 19:0.3333 20:0.2093 21:1.8 22:0.2281 23:0.5 24:35 
-1 1:3 2:5 3:2 4:3 5:25 6:0.4167 7:2 8:2 9:3 10:0.1667 11:0.2917 12:0.4167 13:21 14:2 15:0.4545 16:0.2159 17:0.2159 18:0.2386 19:0.3295 20:0.2048 21:0.78 22:0.3043 23:0.3514 24:14 
-1 1:4 2:4 3:2 4:3 5:23 6:0.4091 7:1 8:2 9:4 10:0.1364 11:0.2727 12:0.4545 13:18 14:1 15:0.4744 16:0.2051 17:0.2308 18:0.2436 19:0.3205 20:0.2329 21:0.78 22:0.2121 23:0.3548 24:19 
-0.0718941883282771 1:1 2:1 3:2 4:2 5:21 6:0.381 7:0 8:1 9:3 10:0.1905 11:0.0952 12:0.4286 13:18 14:1 15:0.3763 16:0.3011 17:0.2366 18:0.1398 19:0.3226 20:0.0769 21:1.25 22:0.2632 23:0.0526 24:14 
-1 1:4 2:1 3:2 4:4 5:21 6:0.3333 7:0 8:1 9:1 10:0.1905 11:0.0476 12:0.4762 13:20 14:2 15:0.3898 16:0.2881 17:0.2542 18:0.1356 19:0.322 20:0.0455 21:0.89 22:0.1698 23:0.5 24:31 
-0.9977088099315112 1:3 2:1 3:2 4:2 5:21 6:0.4286 7:0 8:1 9:3 10:0.381 11:0.2381 12:0.1905 13:18 14:3 15:0.3763 16:0.3011 17:0.2366 18:0.1398 19:0.3226 20:0.0769 21:0.8 22:0.2632 23:0.0526 24:13 
-1 1:4 2:1 3:2 4:4 5:21 6:0.3333 7:0 8:1 9:1 10:0.1905 11:0.0476 12:0.4762 13:20 14:1 15:0.3846 16:0.2923 17:0.2462 18:0.1385 19:0.3231 20:0.04 21:0.78 22:0.1915 23:0.2 24:28 
-0.1671353061768366 1:1 2:-1 3:2 4:2 5:31 6:0.5417 7:5 8:6 9:4 10:0.375 11:0.4167 12:0.0833 13:17 14:4 15:0.4821 16:0.2143 17:0.1607 18:0.3214 19:0.3036 20:0.3333 21:2 22:0.1064 23:-1 24:29 
-0.02652301982579957 1:4 2:5 3:2 4:2 5:21 6:0.5714 7:1 8:6 9:2 10:0.0952 11:0.1905 12:0.3333 13:14 14:1 15:0.4844 16:0.2188 17:0.1719 18:0.3125 19:0.2969 20:0.2881 21:0.9 22:0.1282 23:0.3913 24:25 
-0.009959634601213132 1:1 2:10 3:-1 4:0 5:21 6:0.7143 7:1 8:4 9:2 10:0.1429 11:0.381 12:0.1429 13:15 14:4 15:0.602 16:0.2143 17:0.3163 18:0.2857 19:0.1837 20:0.234 21:0 22:0 23:0.1923 24:7 
-0.267371932488516 1:3 2:10 3:-1 4:0 5:20 6:0.55 7:1 8:3 9:2 10:0.2 11:0.4 12:0.25 13:15 14:2 15:0.578 16:0.2202 17:0.3028 18:0.2752 19:0.2018 20:0.2571 21:3.33 22:-1 23:0.2727 24:1 
-0.9941283847912913 1:2 2:10 3:2 4:1 5:21 6:0.6667 7:1 8:4 9:1 10:0.1905 11:0.381 12:0.1429 13:17 14:4 15:0.5732 16:0.2317 17:0.3049 18:0.2683 19:0.1951 20:0.2308 21:1.1 22:0.1818 23:0.2778 24:15 
-0.08808644614336704 1:1 2:10 3:-1 4:0 5:23 6:0.6522 7:1 8:4 9:2 10:0.2174 11:0.3478 12:0.1304 13:17 14:1 15:0.59 16:0.22 17:0.31 18:0.28 19:0.19 20:0.2292 21:0.25 22:0 23:0.2 24:6 
-0.02632320833912486 1:1 2:1 3:-1 4:0 5:22 6:0.5455 7:4 8:3 9:3 10:0.1818 11:0.2273 12:0.2727 13:16 14:2 15:0.5301 16:0.2048 17:0.253 18:0.2771 19:0.2651 20:0.2 21:5 22:0 23:0.125 24:14 
-1 1:3 2:1 3:4 4:2 5:23 6:0.5217 7:3 8:2 9:3 10:0.1739 11:0.3043 12:0.3043 13:18 14:3 15:0.4595 16:0.2432 17:0.2027 18:0.2568 19:0.2973 20:0.1818 21:2.5 22:0.2941 23:0.1 24:24 
-0.9061754407273716 1:3 2:1 3:3 4:1 5:22 6:0.5909 7:1 8:2 9:3 10:0.2273 11:0.3182 12:0.1818 13:17 14:2 15:0.4872 16:0.2179 17:0.2308 18:0.2564 19:0.2949 20:0.1714 21:1 22:0.4545 23:0.0769 24:19 
-0.9541750821750156 1:1 2:4 3:-1 4:0 5:21 6:0.4762 7:0 8:2 9:2 10:0.2381 11:0.1905 12:0.2857 13:17 14:3 15:0.4752 16:0.2277 17:0.2574 18:0.2178 19:0.297 20:0.2 21:0.82 22:-1 23:0.2222 24:10 
-1 1:4 2:4 3:-1 4:0 5:22 6:0.5455 7:0 8:2 9:2 10:0.1818 11:0.1818 12:0.2727 13:18 14:4 15:0.4848 16:0.2222 17:0.2626 18:0.2222 19:0.2929 20:0.2043 21:0.64 22:0 23:0.24 24:11 
-1 1:1 2:2 3:1 4:1 5:20 6:0.5 7:0 8:1 9:1 10:0.2 11:0.3 12:0.3 13:19 14:1 15:0.4578 16:0.2771 17:0.2651 18:0.1928 19:0.2651 20:0.0769 21:1.25 22:0.2 23:0.15 24:19 
-0.8184765340152014 1:4 2:2 3:-1 4:0 5:23 6:0.4348 7:0 8:1 9:2 10:0.2174 11:0.2609 12:0.3478 13:21 14:1 15:0.4471 16:0.2941 17:0.2588 18:0.1882 19:0.2588 20:0.1 21:1.8 22:0 23:0.1667 24:18 
-0.007230023576015297 1:4 2:-1 3:1 4:2 5:25 6:0.4167 7:0 8:2 9:2 10:0.3333 11:0.125 12:0.25 13:21 14:1 15:0.4118 16:0.2941 17:0.2549 18:0.1569 19:0.2941 20:0.087 21:2.5 22:0.0952 23:-1 24:35 
-1 1:2 2:-1 3:2 4:2 5:22 6:0.4286 7:2 8:1 9:2 10:0.2381 11:0.2857 12:0.3333 13:20 14:4 15:0.4082 16:0.2653 17:0.1633 18:0.2449 19:0.3265 20:0.0667 21:0.8 22:0.1154 23:0 24:29 
-0.4394342504637503 1:1 2:1 3:1 4:1 5:24 6:0.5217 7:4 8:2 9:2 10:0.2174 11:0.3478 12:0.2609 13:21 14:4 15:0.4762 16:0.2063 17:0.1905 18:0.2857 19:0.3175 20:0.1186 21:0.8 22:0.0526 23:0.1667 24:22 
-0.2045767101793916 1:2 2:2 3:-1 4:0 5:22 6:0.4545 7:6 8:1 9:1 10:0.2273 11:0.3182 12:0.3182 13:21 14:4 15:0.4653 16:0.2178 17:0.1782 18:0.2871 19:0.3168 20:0.0928 21:1 22:-1 23:0.1321 24:1 
-0.5066128632371116 1:1 2:1 3:-1 4:0 5:23 6:0.3478 7:1 8:2 9:3 10:0.3913 11:0.1304 12:0.2609 13:19 14:2 15:0.3909 16:0.3 17:0.1909 18:0.2 19:0.3091 20:0.0693 21:1 22:0 23:0.0345 24:5 
-0.4383259744480136 1:1 2:1 3:-1 4:0 5:21 6:0.4 7:1 8:2 9:4 10:0.3 11:0.2 12:0.3 13:16 14:4 15:0.4 16:0.2957 17:0.1913 18:0.2087 19:0.3043 20:0.0755 21:0.73 22:-1 23:0.0294 24:2 
-1 1:3 2:1 3:-1 4:0 5:22 6:0.3636 7:1 8:2 9:3 10:0.3636 11:0.1364 12:0.2727 13:18 14:4 15:0.3868 16:0.3019 17:0.1887 18:0.1981 19:0.3113 20:0.0722 21:1.43 22:0 23:0.0357 24:7 
-1 1:1 2:4 3:1 4:1 5:22 6:0.3333 7:1 8:2 9:3 10:0.4286 11:0 12:0.2381 13:17 14:3 15:0.3913 16:0.3768 17:0.2319 18:0.1594 19:0.2319 20:0.2581 21:1.29 22:0.0714 23:0.4286 24:19 
-1 1:4 2:4 3:1 4:1 5:20 6:0.5 7:1 8:2 9:3 10:0.25 11:0.4 12:0.25 13:15 14:4 15:0.3913 16:0.3768 17:0.2319 18:0.1594 19:0.2319 20:0.2581 21:1 22:0.0714 23:0.36 24:19 
-0.9994891024445766 1:4 2:2 3:3 4:3 5:23 6:0.4545 7:2 8:2 9:5 10:0.3182 11:0.2727 12:0.2273 13:17 14:1 15:0.5 16:0.1912 17:0.2206 18:0.2794 19:0.3088 20:0.1875 21:0.88 22:0.3182 23:0.1 24:25 
-0.5737847561752967 1:3 2:2 3:3 4:4 5:22 6:0.5238 7:3 8:2 9:4 10:0.0952 11:0.3333 12:0.381 13:17 14:3 15:0.4828 16:0.1897 17:0.1897 18:0.2931 19:0.3276 20:0.1852 21:2 22:0.2963 23:0.1667 24:30 
-0.1873487705032586 1:1 2:2 3:3 4:4 5:23 6:0.3913 7:0 8:1 9:1 10:0.3913 11:0.1304 12:0.2174 13:22 14:4 15:0.3559 16:0.3051 17:0.1695 18:0.1864 19:0.339 20:0.0909 21:1.25 22:0.1915 23:0.3333 24:31 
-0.7989772958185829 1:4 2:3 3:3 4:1 5:20 6:0.4 7:1 8:2 9:3 10:0.45 11:0.25 12:0.15 13:16 14:3 15:0.3626 16:0.2967 17:0.1758 18:0.1868 19:0.3407 20:0.1264 21:0.78 22:0.2 23:0.102 24:14 
-0.4893500356376593 1:4 2:1 3:3 4:4 5:20 6:0.35 7:0 8:2 9:1 10:0.2 11:0.3 12:0.45 13:18 14:2 15:0.3333 16:0.3137 17:0.1569 18:0.1765 19:0.3529 20:0.1064 21:0.56 22:0.1636 23:0.1429 24:35 
-0.4473670898630368 1:4 2:2 3:-1 4:0 5:21 6:0.4762 7:0 8:3 9:3 10:0.2381 11:0.2381 12:0.2857 13:15 14:1 15:0.4327 16:0.3077 17:0.25 18:0.1827 19:0.2596 20:0.1919 21:3 22:0 23:0.1525 24:7 
-1 1:4 2:2 3:3 4:3 5:20 6:0.35 7:1 8:2 9:2 10:0.25 11:0.2 12:0.4 13:17 14:4 15:0.4 16:0.3333 17:0.2 18:0.2 19:0.2667 20:0.1273 21:2 22:0.24 23:0.2222 24:29 
-1 1:1 2:2 3:3 4:3 5:21 6:0.45 7:1 8:2 9:2 10:0.45 11:0.2 12:0.1 13:18 14:4 15:0.375 16:0.3438 17:0.1875 18:0.1875 19:0.2812 20:0.1186 21:0.67 22:0.2609 23:0.2 24:27 
-1 1:1 2:5 3:-1 4:0 5:22 6:0.35 7:0 8:2 9:1 10:0.35 11:0.2 12:0.3 13:20 14:1 15:0.3238 16:0.3524 17:0.1524 18:0.1714 19:0.3238 20:0.1313 21:0.89 22:0 23:0.193 24:6 
-0.01023069420405798 1:4 2:-1 3:2 4:2 5:21 6:0.381 7:0 8:5 9:3 10:0.4286 11:0.1429 12:0.1905 13:13 14:4 15:0.3415 16:0.3415 17:0.1707 18:0.1707 19:0.3171 20:0.2571 21:1.4 22:0.0571 23:-1 24:39 
-0.832621880450292 1:1 2:5 3:-1 4:0 5:23 6:0.3043 7:0 8:2 9:2 10:0.3913 11:0.1304 12:0.3043 13:20 14:4 15:0.3214 16:0.3571 17:0.1518 18:0.1696 19:0.3214 20:0.1321 21:0.57 22:-1 23:0.1746 24:2 
-1 1:1 2:5 3:-1 4:0 5:21 6:0.3333 7:0 8:2 9:1 10:0.4286 11:0.1429 12:0.2381 13:19 14:4 15:0.3579 16:0.3368 17:0.1684 18:0.1895 19:0.3053 20:0.1461 21:0.8 22:0 23:0.2245 24:11 
-0.02941228386299572 1:4 2:1 3:2 4:3 5:30 6:0.5 7:2 8:7 9:4 10:0.2273 11:0.1364 12:0.2727 13:19 14:4 15:0.5224 16:0.2239 17:0.2836 18:0.2388 19:0.2537 20:0.2333 21:1.29 22:0.2903 23:0.2727 24:19 
-0.1703468276092214 1:3 2:-1 3:2 4:4 5:31 6:0.5417 7:2 8:7 9:5 10:0.125 11:0.1667 12:0.3333 13:17 14:-1 15:0.5 16:0.2222 17:0.2778 18:0.2222 19:0.2778 20:0.2766 21:0.43 22:0.2273 23:-1 24:26 
-0.49593795876063 1:3 2:5 3:-1 4:0 5:24 6:0.5417 7:3 8:3 9:3 10:0.2083 11:0.375 12:0.25 13:18 14:1 15:0.4516 16:0.2258 17:0.2366 18:0.2151 19:0.3226 20:0.2584 21:0.88 22:0 23:0.2857 24:12 
-0.1571959525319928 1:1 2:1 3:1 4:3 5:24 6:0.2917 7:1 8:9 9:2 10:0.4167 11:0.2083 12:0.2917 13:11 14:1 15:0.2708 16:0.375 17:0.1458 18:0.125 19:0.3542 20:0.3778 21:0.2 22:0.0877 23:0.25 24:32 
-0.1053150734676194 1:3 2:4 3:1 4:2 5:30 6:0.45 7:1 8:9 9:2 10:0.4 11:0.1 12:0.15 13:20 14:3 15:0.3377 16:0.3247 17:0.1688 18:0.1688 19:0.3377 20:0.2432 21:1 22:0.1429 23:0.3846 24:17 
-1 1:2 2:5 3:-1 4:0 5:22 6:0.4091 7:1 8:1 9:1 10:0.4091 11:0.1818 12:0.1818 13:21 14:2 15:0.4035 16:0.3246 17:0.2018 18:0.2018 19:0.2719 20:0.156 21:1.12 22:-1 23:0.2537 24:3 
-1 1:1 2:5 3:1 4:2 5:20 6:0.5 7:0 8:1 9:2 10:0.2 11:0.15 12:0.3 13:18 14:3 15:0.3939 16:0.3636 17:0.197 18:0.197 19:0.2424 20:0.2131 21:0.7 22:0.0833 23:0.4783 24:27 
-1 1:3 2:5 3:-1 4:0 5:22 6:0.4545 7:0 8:1 9:2 10:0.2273 11:0.1818 12:0.3182 13:20 14:1 15:0.4135 16:0.3269 17:0.2115 18:0.2019 19:0.2596 20:0.1717 21:1.33 22:0 23:0.2632 24:8 
-0.9543534209058152 1:4 2:1 3:3 4:2 5:22 6:0.4091 7:1 8:4 9:2 10:0.2727 11:0.1818 12:0.3182 13:16 14:3 15:0.382 16:0.3146 17:0.1573 18:0.2247 19:0.3034 20:0.1707 21:0.33 22:0.2174 23:0.1 24:16 
-0.3937605946233209 1:1 2:3 3:2 4:3 5:20 6:0.5 7:0 8:-1 9:0 10:0.35 11:0.2 12:0.15 13:20 14:4 15:0.5088 16:0.2632 17:0.2807 18:0.2281 19:0.2281 20:0.1111 21:0.9 22:0.1852 23:0.5 24:32 
-1 1:2 2:3 3:2 4:2 5:21 6:0.4762 7:0 8:2 9:1 10:0.381 11:0.1429 12:0.1429 13:19 14:2 15:0.4845 16:0.268 17:0.2577 18:0.2268 19:0.2474 20:0.1064 21:1.11 22:0.4286 23:0.1481 24:12 
-1 1:1 2:3 3:-1 4:0 5:20 6:0.6 7:0 8:2 9:3 10:0.3 11:0.25 12:0.1 13:16 14:4 15:0.5138 16:0.2569 17:0.2752 18:0.2385 19:0.2294 20:0.1509 21:1.33 22:0 23:0.1471 24:6 
-0.3183728705872403 1:2 2:3 3:2 4:3 5:20 6:0.5 7:0 8:-1 9:0 10:0.35 11:0.2 12:0.15 13:20 14:1 15:0.4915 16:0.2712 17:0.2712 18:0.2203 19:0.2373 20:0.1071 21:1 22:0.1923 23:0.4444 24:31 
-0.6626316827220368 1:4 2:-1 3:5 4:1 5:22 6:0.381 7:0 8:3 9:3 10:0.381 11:0.0476 12:0.2381 13:17 14:4 15:0.4237 16:0.322 17:0.2034 18:0.2203 19:0.2542 20:0.1765 21:1 22:0.1429 23:0 24:31 
-0.2495265885559144 1:3 2:1 3:5 4:1 5:24 6:0.4167 7:1 8:3 9:2 10:0.2917 11:0.3333 12:0.2917 13:20 14:4 15:0.4179 16:0.3134 17:0.194 18:0.2239 19:0.2687 20:0.1525 21:1.11 22:0.1852 23:0.1667 24:27 
-0.2738076024387722 1:4 2:5 3:3 4:1 5:23 6:0.6522 7:0 8:3 9:6 10:0.2174 11:0.3478 12:0.1304 13:13 14:4 15:0.5392 16:0.2549 17:0.2353 18:0.3039 19:0.2059 20:0.2857 21:1.5 22:0.3333 23:0.1538 24:7 
-0.7531298231703967 1:4 2:5 3:3 4:2 5:21 6:0.4762 7:1 8:2 9:5 10:0.2381 11:0.2381 12:0.2857 13:14 14:1 15:0.5222 16:0.2556 17:0.2222 18:0.3 19:0.2222 20:0.2558 21:0.78 22:0.4167 23:0.1818 24:15 
-1 1:2 2:5 3:3 4:3 5:21 6:0.5238 7:1 8:2 9:4 10:0.1905 11:0.3333 12:0.2857 13:15 14:4 15:0.5366 16:0.2439 17:0.2317 18:0.3049 19:0.2195 20:0.2564 21:0.8 22:0.375 23:0.2222 24:19 
-0.5022511151113142 1:2 2:5 3:3 4:2 5:21 6:0.4762 7:1 8:2 9:5 10:0.2381 11:0.2381 12:0.2857 13:14 14:2 15:0.5341 16:0.25 17:0.2273 18:0.3068 19:0.2159 20:0.2619 21:0.89 22:0.3846 23:0.1905 24:16 
-0.05717200525639397 1:1 2:1 3:3 4:1 5:20 6:0.55 7:1 8:2 9:3 10:0.2 11:0.25 12:0.25 13:16 14:4 15:0.5426 16:0.2234 17:0.266 18:0.2766 19:0.234 20:0.1163 21:1 22:0.2308 23:0.0435 24:10 
-1 1:1 2:1 3:1 4:1 5:20 6:0.5 7:0 8:1 9:2 10:0.35 11:0.3 12:0.15 13:18 14:4 15:0.5294 16:0.25 17:0.25 18:0.2794 19:0.2206 20:0.1034 21:1 22:0.0323 23:0.1111 24:27 
-0.7408475027742072 1:2 2:-1 3:1 4:1 5:20 6:0.6 7:0 8:1 9:3 10:0.05 11:0.2 12:0.35 13:17 14:2 15:0.5517 16:0.2414 17:0.2586 18:0.2931 19:0.2069 20:0.125 21:1.29 22:0.0244 23:0 24:32 
-1 1:1 2:1 3:1 4:1 5:21 6:0.4762 7:0 8:1 9:2 10:0.381 11:0.2857 12:0.1429 13:19 14:4 15:0.5143 16:0.2571 17:0.2429 18:0.2714 19:0.2286 20:0.1 21:0.89 22:0.0345 23:0.1111 24:26 
-0.6682935854198468 1:4 2:1 3:1 4:1 5:21 6:0.4762 7:0 8:-1 9:0 10:0.0952 11:0.4286 12:0.4286 13:21 14:1 15:0.404 16:0.3232 17:0.2222 18:0.1818 19:0.2727 20:0.0256 21:1.11 22:0.25 23:0.1053 24:11 
-1 1:4 2:1 3:-1 4:0 5:20 6:0.5 7:0 8:1 9:1 10:0.1 11:0.4 12:0.4 13:19 14:2 15:0.4019 16:0.3271 17:0.2243 18:0.1776 19:0.271 20:0.0465 21:0.64 22:-1 23:0.0833 24:7 
-0.1413387786403686 1:1 2:-1 3:1 4:2 5:21 6:0.4286 7:0 8:8 9:1 10:0.4762 11:0 12:0.0952 13:13 14:4 15:0.3617 16:0.3617 17:0.234 18:0.1277 19:0.2766 20:0 21:0 22:0.0667 23:-1 24:37 
-0.5092637375741613 1:2 2:2 3:4 4:2 5:20 6:0.45 7:1 8:3 9:2 10:0.05 11:0.15 12:0.5 13:16 14:4 15:0.4576 16:0.2712 17:0.2542 18:0.2034 19:0.2712 20:0.2222 21:0.25 22:0.2083 23:0.375 24:31 
-0.004885051541274171 1:2 2:1 3:3 4:4 5:20 6:0.7 7:0 8:6 9:4 10:0.1 11:0.35 12:0.2 13:10 14:2 15:0.5263 16:0.2105 17:0.2632 18:0.2632 19:0.2632 20:0.3462 21:1.8 22:0.2143 23:0.1765 24:30 
-0.05442452800966679 1:4 2:-1 3:3 4:5 5:25 6:0.3913 7:1 8:6 9:3 10:0.2174 11:0.1304 12:0.3913 13:14 14:-1 15:0.4583 16:0.2292 17:0.2292 18:0.2292 19:0.3125 20:0.3488 21:0.67 22:0.2308 23:-1 24:35 
-1 1:2 2:4 3:2 4:3 5:22 6:0.5 7:1 8:2 9:5 10:0.0909 11:0.3182 12:0.4091 13:16 14:1 15:0.4583 16:0.2778 17:0.1944 18:0.2639 19:0.2639 20:0.3134 21:1.4 22:0.2857 23:0.4615 24:24 
-0.09674800620631187 1:1 2:-1 3:2 4:5 5:23 6:0.5714 7:4 8:4 9:5 10:0.1905 11:0.4286 12:0.2381 13:12 14:3 15:0.5106 16:0.2766 17:0.1915 18:0.3191 19:0.2128 20:0.4286 21:1.6 22:0.2239 23:-1 24:37 
-0.5227618817844 1:1 2:4 3:2 4:3 5:23 6:0.3636 7:1 8:3 9:5 10:0.5 11:0.1364 12:0.1364 13:16 14:3 15:0.4583 16:0.2778 17:0.1944 18:0.2639 19:0.2639 20:0.3134 21:0.29 22:0.2857 23:0.4167 24:24 
-0.1152953247883233 1:1 2:3 3:1 4:2 5:31 6:0.5 7:0 8:7 9:4 10:0.2917 11:0.25 12:0.2083 13:21 14:1 15:0.4337 16:0.2289 17:0.2048 18:0.2289 19:0.3373 20:0.3 21:1.57 22:0.1538 23:0.4815 24:15 
-0.1249185259975648 1:3 2:3 3:1 4:2 5:20 6:0.45 7:0 8:7 9:2 10:0.25 11:0.25 12:0.3 13:12 14:1 15:0.4444 16:0.2222 17:0.2099 18:0.2346 19:0.3333 20:0.3077 21:0.27 22:0.1429 23:0.3617 24:16 
-0.3070610109082713 1:3 2:1 3:-1 4:0 5:23 6:0.3478 7:0 8:10 9:1 10:0.3043 11:0.2174 12:0.3478 13:13 14:2 15:0.4118 16:0.2941 17:0.2255 18:0.1863 19:0.2941 20:0.1429 21:0 22:-1 23:0.0645 24:5 
-0.1208211834834163 1:4 2:-1 3:1 4:1 5:21 6:0.45 7:0 8:1 9:1 10:0.15 11:0.35 12:0.4 13:20 14:2 15:0.4231 16:0.3077 17:0.2308 18:0.1923 19:0.2692 20:0.0417 21:1 22:0.05 23:0 24:35 
-0.2662758655986153 1:4 2:1 3:-1 4:0 5:24 6:0.4583 7:0 8:1 9:1 10:0.1667 11:0.3333 12:0.375 13:23 14:1 15:0.4559 16:0.2941 17:0.25 18:0.2059 19:0.25 20:0.0625 21:0.73 22:0 23:0.125 24:27 
-0.008577014028531655 1:4 2:5 3:-1 4:0 5:24 6:0.5652 7:0 8:2 9:3 10:0.2609 11:0.2609 12:0.1739 13:20 14:4 15:0.5614 16:0.2281 17:0.2544 18:0.307 19:0.2105 20:0.156 21:0.82 22:-1 23:0.1875 24:1 
-0.4329736493452054 1:3 2:1 3:2 4:2 5:22 6:0.6364 7:0 8:5 9:1 10:0.2727 11:0.3182 12:0.0909 13:17 14:3 15:0.5692 16:0.2154 17:0.2462 18:0.3231 19:0.2154 20:0.1667 21:1.57 22:0.1064 23:0.2727 24:26 
-0.006341651763662748 1:4 2:-1 3:4 4:3 5:20 6:0.2 7:0 8:-1 9:0 10:0.5 11:0.15 12:0.3 13:20 14:1 15:0.2174 16:0.3913 17:0.1087 18:0.1087 19:0.3913 20:0 21:0.8 22:0.1471 23:0 24:38 
-0.0729280777149664 1:1 2:-1 3:4 4:3 5:22 6:0.2727 7:0 8:-1 9:0 10:0.3182 11:0.0455 12:0.4091 13:22 14:4 15:0.2333 16:0.3833 17:0.1167 18:0.1167 19:0.3833 20:0 21:1.12 22:0.1852 23:0 24:31 
-0.008079932295086245 1:3 2:-1 3:1 4:1 5:20 6:0.4 7:0 8:4 9:2 10:0.45 11:0.2 12:0.15 13:14 14:4 15:0.2755 16:0.3776 17:0.1429 18:0.1327 19:0.3469 20:0.0851 21:2.5 22:0.125 23:0 24:10 
-0.2978232262397891 1:4 2:-1 3:4 4:3 5:22 6:0.2273 7:0 8:-1 9:0 10:0.3182 11:0.0455 12:0.4545 13:22 14:1 15:0.2222 16:0.3889 17:0.1111 18:0.1111 19:0.3889 20:0 21:1.12 22:0.1667 23:0 24:34 
-0.7990546549716732 1:4 2:1 3:5 4:1 5:21 6:0.5238 7:0 8:-1 9:0 10:0.2381 11:0.2857 12:0.2381 13:21 14:1 15:0.4918 16:0.2131 17:0.2459 18:0.2459 19:0.2951 20:0 21:1.11 22:0.1556 23:0.1667 24:30 
-0.2556777624550672 1:1 2:1 3:5 4:1 5:21 6:0.5238 7:0 8:-1 9:0 10:0.2381 11:0.2381 12:0.2381 13:21 14:4 15:0.4762 16:0.2222 17:0.2381 18:0.2381 19:0.3016 20:0 21:0.8 22:0.1628 23:0.1429 24:29 
-0.3217556605726478 1:2 2:1 3:1 4:2 5:24 6:0.5833 7:1 8:1 9:3 10:0.1667 11:0.375 12:0.25 13:21 14:1 15:0.557 16:0.2532 17:0.2532 18:0.3038 19:0.1899 20:0.1143 21:0.8 22:0.1429 23:0.1667 24:21 
-0.1965344570128363 1:1 2:5 3:-1 4:0 5:31 6:0.4545 7:0 8:9 9:4 10:0.3182 11:0.2727 12:0.2273 13:19 14:3 15:0.4727 16:0.2545 17:0.2545 18:0.2182 19:0.2727 20:0.2475 21:0.58 22:-1 23:0.24 24:1 
-1 1:4 2:4 3:1 4:1 5:20 6:0.55 7:0 8:1 9:3 10:0.2 11:0.25 12:0.25 13:17 14:1 15:0.5172 16:0.2184 17:0.2759 18:0.2414 19:0.2644 20:0.1795 21:1.33 22:0.0769 23:0.25 24:17 
-0.9344615301516203 1:1 2:3 3:1 4:1 5:22 6:0.5 7:0 8:2 9:3 10:0.2273 11:0.2727 12:0.2727 13:18 14:1 15:0.5056 16:0.2247 17:0.2697 18:0.236 19:0.2697 20:0.175 21:1 22:0.0909 23:0.2105 24:16 
-0.07335589910241481 1:4 2:-1 3:5 4:2 5:20 6:0.4286 7:1 8:2 9:2 10:0.2857 11:0.3333 12:0.2857 13:17 14:-1 15:0.4524 16:0.2857 17:0.1667 18:0.2857 19:0.2619 20:0.0556 21:2 22:0.2059 23:-1 24:40 
-1 1:2 2:1 3:5 4:2 5:20 6:0.4 7:0 8:-1 9:0 10:0.3 11:0.2 12:0.3 13:20 14:2 15:0.4265 16:0.2941 17:0.1765 18:0.25 19:0.2794 20:0.0323 21:1.22 22:0.3333 23:0.0909 24:27 
-0.4722952303876888 1:4 2:1 3:5 4:2 5:23 6:0.4348 7:0 8:-1 9:0 10:0.2609 11:0.2174 12:0.3043 13:23 14:1 15:0.4394 16:0.2879 17:0.1818 18:0.2576 19:0.2727 20:0.0333 21:1.11 22:0.3182 23:0.1429 24:28 
-0.266959747763748 1:3 2:-1 3:5 4:2 5:22 6:0.5 7:0 8:1 9:1 10:0.2273 11:0.2727 12:0.2727 13:21 14:1 15:0.4655 16:0.2759 17:0.1897 18:0.2759 19:0.2586 20:0.0385 21:0.7 22:0.2692 23:0 24:32 
-0.3823160164996189 1:4 2:1 3:2 4:3 5:21 6:0.381 7:1 8:2 9:3 10:0.0952 11:0.1429 12:0.5238 13:17 14:3 15:0.4038 16:0.3077 17:0.2308 18:0.1731 19:0.2885 20:0.2083 21:1.8 22:0.1724 23:0.3333 24:35 
-1 1:2 2:2 3:2 4:2 5:22 6:0.4545 7:1 8:2 9:2 10:0.4091 11:0.3182 12:0.1364 13:18 14:3 15:0.4688 16:0.25 17:0.2656 18:0.2031 19:0.2812 20:0.2333 21:1.67 22:0.1304 23:0.375 24:29 
-0.3211628901933069 1:3 2:2 3:2 4:1 5:22 6:0.6364 7:2 8:2 9:2 10:0.1818 11:0.3636 12:0.1818 13:18 14:2 15:0.5 16:0.2292 17:0.2604 18:0.2396 19:0.2708 20:0.1957 21:2 22:0.1429 23:0.2083 24:13 
-0.848294637709715 1:3 2:6 3:1 4:1 5:21 6:0.5238 7:2 8:3 9:4 10:0.1905 11:0.3333 12:0.2857 13:14 14:4 15:0.4902 16:0.2059 17:0.2647 18:0.2255 19:0.3039 20:0.2747 21:1.67 22:0.0909 23:0.2549 24:8 
-0.5373068418404745 1:4 2:6 3:-1 4:0 5:22 6:0.3182 7:2 8:3 9:4 10:0.2727 11:0.0909 12:0.4091 13:16 14:4 15:0.4673 16:0.215 17:0.2523 18:0.215 19:0.3178 20:0.2708 21:0.7 22:0 23:0.3091 24:5 
