svm_type c_svc
kernel_type rbf
gamma 0.0416667
nr_class 2
total_sv 31
rho 0.230352
label 1 0
probA -3.4211
probB 0.264146
nr_sv 15 16
SV
0.3382362272963609 1:4 2:6 3:-1 4:0 5:22 6:0.4545 7:2 8:2 9:1 10:0.1364 11:0.3182 12:0.4091 13:20 14:3 15:0.4 16:0.3263 17:0.2 18:0.2 19:0.2737 20:0.2135 21:0.9 22:0 23:0.3333 24:10 
1 1:1 2:9 3:-1 4:0 5:21 6:0.5238 7:2 8:1 9:1 10:0.2857 11:0.3333 12:0.1905 13:20 14:4 15:0.427 16:0.2472 17:0.2135 18:0.2135 19:0.3258 20:0.2346 21:0.73 22:0 23:0.4359 24:6 
0.1063685235218295 1:4 2:3 3:-1 4:0 5:21 6:0.619 7:2 8:2 9:2 10:0.0952 11:0.2381 12:0.2857 13:18 14:1 15:0.506 16:0.2289 17:0.241 18:0.2651 19:0.2651 20:0.2 21:0.73 22:0 23:0.2727 24:12 
1 1:4 2:2 3:3 4:2 5:21 6:0.4762 7:1 8:1 9:3 10:0.2857 11:0.2381 12:0.2381 13:18 14:4 15:0.3797 16:0.3165 17:0.1899 18:0.1899 19:0.3038 20:0.1667 21:0.86 22:0.3636 23:0.2727 24:15 
1 1:2 2:3 3:2 4:4 5:21 6:0.619 7:0 8:2 9:3 10:0.2381 11:0.3333 12:0.1429 13:16 14:4 15:0.4638 16:0.2319 17:0.2174 18:0.2464 19:0.3043 20:0.2581 21:0.67 22:0.3 23:0.3636 24:22 
0.945753433458957 1:2 2:2 3:2 4:3 5:21 6:0.5714 7:2 8:1 9:1 10:0.2857 11:0.2857 12:0.1429 13:20 14:4 15:0.4783 16:0.2609 17:0.2174 18:0.2609 19:0.2609 20:0.1562 21:0.73 22:0.1489 23:0.4167 24:26 
0.08441830469292175 1:4 2:6 3:-1 4:0 5:21 6:0.4762 7:1 8:1 9:1 10:0.2857 11:0.2381 12:0.2381 13:20 14:3 15:0.3196 16:0.3093 17:0.1443 18:0.1753 19:0.3711 20:0.2258 21:1 22:0 23:0.3846 24:11 
0.7148986164480036 1:4 2:1 3:5 4:2 5:21 6:0.4286 7:3 8:1 9:1 10:0.2381 11:0.3333 12:0.3333 13:20 14:4 15:0.3867 16:0.28 17:0.16 18:0.2267 19:0.3333 20:0.0704 21:1.33 22:0.2941 23:0.1034 24:23 
0.8516523867103919 1:4 2:3 3:-1 4:0 5:20 6:0.55 7:3 8:1 9:2 10:0.25 11:0.2 12:0.2 13:18 14:1 15:0.4353 16:0.2824 17:0.2 18:0.2353 19:0.2824 20:0.1688 21:1.12 22:0 23:0.2432 24:14 
0.7971258103110619 1:2 2:4 3:1 4:1 5:22 6:0.5455 7:1 8:2 9:4 10:0.1818 11:0.3636 12:0.2727 13:17 14:2 15:0.4795 16:0.2055 17:0.1918 18:0.2877 19:0.3151 20:0.2923 21:0.88 22:0.25 23:0.4286 24:8 
0.8924214666770831 1:1 2:6 3:-1 4:0 5:20 6:0.45 7:1 8:2 9:1 10:0.25 11:0.35 12:0.3 13:18 14:4 15:0.4177 16:0.2405 17:0.2152 18:0.2025 19:0.3418 20:0.2329 21:1 22:0 23:0.3939 24:15 
0.7879619964506956 1:4 2:3 3:4 4:4 5:22 6:0.5238 7:2 8:1 9:2 10:0.1905 11:0.5238 12:0.2857 13:20 14:1 15:0.3478 16:0.3043 17:0.1449 18:0.2029 19:0.3478 20:0.1148 21:1 22:0.3659 23:0.2222 24:25 
1 1:4 2:3 3:2 4:3 5:21 6:0.4286 7:1 8:2 9:2 10:0.2857 11:0.0476 12:0.2857 13:17 14:1 15:0.3875 16:0.325 17:0.2125 18:0.175 19:0.2875 20:0.2 21:1.8 22:0.2632 23:0.2143 24:21 
1 1:4 2:2 3:-1 4:0 5:22 6:0.4091 7:3 8:1 9:2 10:0.2273 11:0 12:0.3636 13:20 14:1 15:0.4028 16:0.1667 17:0.2083 18:0.1944 19:0.4306 20:0.1228 21:0.9 22:0 23:0.375 24:5 
0.9401912728872013 1:1 2:2 3:2 4:1 5:22 6:0.5455 7:0 8:2 9:3 10:0.3182 11:0.4091 12:0.1364 13:18 14:3 15:0.4306 16:0.3194 17:0.1667 18:0.2639 19:0.25 20:0.1594 21:1 22:0.2222 23:0.2143 24:11 
-0.7332407357582579 1:4 2:4 3:2 4:1 5:25 6:0.4286 7:1 8:6 9:2 10:0.2381 11:0.0952 12:0.3333 13:18 14:1 15:0.3768 16:0.3478 17:0.2029 18:0.1739 19:0.2754 20:0.2381 21:1.11 22:0.1053 23:0.2941 24:23 
-0.7542121817714462 1:2 2:2 3:-1 4:0 5:31 6:0.4783 7:1 8:9 9:3 10:0.2609 11:0.3478 12:0.2609 13:18 14:3 15:0.3623 16:0.2754 17:0.1884 18:0.1739 19:0.3623 20:0.3115 21:0.22 22:0 23:0.25 24:16 
-0.6103247268145314 1:3 2:1 3:1 4:2 5:20 6:0.5 7:3 8:3 9:3 10:0.15 11:0.35 12:0.35 13:15 14:2 15:0.4407 16:0.2373 17:0.1864 18:0.2542 19:0.322 20:0.2157 21:1.33 22:0.1333 23:0.1667 24:24 
-1 1:2 2:1 3:3 4:3 5:23 6:0.4286 7:1 8:3 9:3 10:0.381 11:0.2857 12:0.1905 13:17 14:2 15:0.3051 16:0.3559 17:0.1525 18:0.1525 19:0.339 20:0.1923 21:0.78 22:0.2381 23:0.2 24:25 
-0.7993220022016848 1:2 2:3 3:-1 4:0 5:23 6:0.3478 7:0 8:2 9:4 10:0.1304 11:0.087 12:0.5217 13:16 14:4 15:0.4312 16:0.2294 17:0.1927 18:0.2385 19:0.3394 20:0.2745 21:1 22:-1 23:0.2759 24:1 
-0.8062145992880241 1:4 2:2 3:1 4:2 5:24 6:0.2917 7:4 8:2 9:2 10:0.1667 11:0.0833 12:0.5417 13:21 14:3 15:0.4615 16:0.2418 17:0.1868 18:0.2747 19:0.2967 20:0.1628 21:1 22:0.12 23:0.25 24:15 
-0.6495198843468666 1:1 2:6 3:-1 4:0 5:22 6:0.3182 7:2 8:8 9:2 10:0.3636 11:0.2273 12:0.3182 13:13 14:3 15:0.3043 16:0.3043 17:0.1391 18:0.1652 19:0.3913 20:0.3333 21:0 22:-1 23:0.2941 24:2 
-0.7627757729133886 1:2 2:3 3:2 4:3 5:20 6:0.4 7:2 8:4 9:3 10:0.1 11:0.25 12:0.5 13:14 14:3 15:0.3235 16:0.2794 17:0.1324 18:0.1912 19:0.3971 20:0.1935 21:0.7 22:0.2381 23:0.1852 24:24 
-0.6886807226578334 1:4 2:-1 3:5 4:2 5:21 6:0.3 7:2 8:1 9:3 10:0.2 11:0.2 12:0.5 13:18 14:4 15:0.2941 16:0.3333 17:0.1176 18:0.1765 19:0.3725 20:0.1064 21:1 22:0.1724 23:0 24:35 
-0.5742818285294561 1:2 2:-1 3:1 4:2 5:21 6:0.4 7:1 8:3 9:4 10:0.4 11:0.2 12:0.2 13:15 14:1 15:0.3404 16:0.3404 17:0.1702 18:0.1702 19:0.3191 20:0.2308 21:1.29 22:0.087 23:-1 24:33 
-0.6383308701556274 1:2 2:-1 3:2 4:2 5:23 6:0.4583 7:0 8:5 9:4 10:0.2083 11:0.2083 12:0.3333 13:13 14:4 15:0.4468 16:0.2128 17:0.1702 18:0.2766 19:0.3404 20:0.3333 21:4 22:0.2353 23:-1 24:21 
-0.1384862401762333 1:2 2:1 3:1 4:1 5:24 6:0.3913 7:0 8:6 9:3 10:0.3043 11:0.2609 12:0.3043 13:16 14:4 15:0.4286 16:0.2222 17:0.2381 18:0.1905 19:0.3492 20:0.2632 21:0.8 22:0.0526 23:0.1667 24:23 
-0.9110064443385718 1:3 2:3 3:-1 4:0 5:21 6:0.4286 7:2 8:4 9:4 10:0.1429 11:0.4286 12:0.4286 13:13 14:1 15:0.3962 16:0.2642 17:0.1698 18:0.2264 19:0.3396 20:0.2245 21:0.71 22:0 23:0.1228 24:6 
-0.3926320295025851 1:3 2:-1 3:2 4:4 5:23 6:0.3478 7:0 8:5 9:2 10:0.3913 11:0.3478 12:0.2609 13:17 14:2 15:0.375 16:0.3594 17:0.2188 18:0.1562 19:0.2656 20:0.2222 21:1.29 22:0.2222 23:0 24:29 
-1 1:1 2:1 3:-1 4:0 5:21 6:0.4286 7:1 8:2 9:3 10:0.2381 11:0.0476 12:0.3333 13:17 14:4 15:0.3966 16:0.1552 17:0.2241 18:0.1724 19:0.4483 20:0.1628 21:0.5 22:0 23:0.5 24:12 
-1 1:3 2:1 3:2 4:2 5:24 6:0.5 7:2 8:2 9:3 10:0.3333 11:0.4167 12:0.1667 13:20 14:4 15:0.4 16:0.3333 17:0.1333 18:0.2667 19:0.2667 20:0.1579 21:1.33 22:0.2 23:0.3333 24:17 
