svm_type c_svc
kernel_type rbf
gamma 0.0416667
nr_class 2
total_sv 834
rho 0.88094
label 1 0
probA -3.76519
probB -0.909442
nr_sv 219 615
SV
1 1:4 2:2 3:5 4:1 5:21 6:0.619 7:2 8:2 9:2 10:0.0952 11:0.2381 12:0.2857 13:18 14:1 15:0.5125 16:0.225 17:0.2375 18:0.275 19:0.2625 20:0.1842 21:0.73 22:0.2 23:0.2353 24:16 
1 1:3 2:2 3:3 4:1 5:21 6:0.5238 7:2 8:2 9:3 10:0.3333 11:0.3333 12:0.1429 13:16 14:3 15:0.5 16:0.2317 17:0.2317 18:0.2683 19:0.2683 20:0.2051 21:2 22:0.1304 23:0.2105 24:19 
1 1:3 2:7 3:1 4:1 5:21 6:0.5714 7:1 8:2 9:3 10:0.1429 11:0.4286 12:0.2857 13:15 14:4 15:0.466 16:0.1942 17:0.2136 18:0.2524 19:0.3398 20:0.3737 21:2 22:0.1667 23:0.4386 24:8 
1 1:4 2:7 3:1 4:1 5:21 6:0.619 7:1 8:2 9:2 10:0.1429 11:0.1905 12:0.2381 13:17 14:3 15:0.486 16:0.1869 17:0.2243 18:0.2617 19:0.3271 20:0.3592 21:0.67 22:0.25 23:0.4754 24:6 
1 1:4 2:5 3:2 4:2 5:23 6:0.4762 7:1 8:3 9:2 10:0.2857 11:0.2381 12:0.2381 13:19 14:2 15:0.5 16:0.25 17:0.25 18:0.25 19:0.25 20:0.2632 21:0.78 22:0.2308 23:0.4375 24:16 
1 1:4 2:4 3:2 4:2 5:23 6:0.4762 7:1 8:1 9:3 10:0.2857 11:0.2381 12:0.2381 13:20 14:2 15:0.5244 16:0.2195 17:0.2317 18:0.2927 19:0.2561 20:0.2105 21:0.78 22:0.2308 23:0.375 24:17 
1 1:4 2:4 3:2 4:1 5:21 6:0.619 7:2 8:2 9:3 10:0.1429 11:0.4286 12:0.2381 13:17 14:3 15:0.6364 16:0.1591 17:0.2727 18:0.3636 19:0.2045 20:0.2683 21:0.62 22:0.1667 23:0.35 24:15 
1 1:4 2:3 3:3 4:2 5:24 6:0.5 7:0 8:2 9:3 10:0.4 11:0.35 12:0.1 13:20 14:2 15:0.4699 16:0.241 17:0.1807 18:0.2892 19:0.2892 20:0.2152 21:2 22:0.2308 23:0.3333 24:17 
1 1:4 2:7 3:2 4:1 5:21 6:0.381 7:1 8:1 9:1 10:0.1905 11:0.0952 12:0.4286 13:20 14:3 15:0.4253 16:0.2529 17:0.2644 18:0.1609 19:0.3218 20:0.2658 21:1.43 22:0.2222 23:0.5135 24:16 
1 1:3 2:7 3:2 4:1 5:21 6:0.5238 7:2 8:1 9:1 10:0.3333 11:0.381 12:0.1429 13:20 14:2 15:0.4176 16:0.2527 17:0.2527 18:0.1648 19:0.3297 20:0.253 21:1 22:0.2857 23:0.4634 24:14 
1 1:4 2:2 3:7 4:2 5:22 6:0.4762 7:1 8:2 9:2 10:0.4762 11:0.3333 12:0.0476 13:19 14:3 15:0.5181 16:0.2289 17:0.2289 18:0.2892 19:0.253 20:0.1899 21:1 22:0.4483 23:0.2778 24:18 
0.5998873718871154 1:2 2:9 3:1 4:1 5:21 6:0.619 7:0 8:2 9:3 10:0.2381 11:0.3333 12:0.1429 13:16 14:3 15:0.5 16:0.1585 17:0.2439 18:0.2561 19:0.3415 20:0.3784 21:0.67 22:0.25 23:0.5625 24:8 
1 1:4 2:3 3:2 4:2 5:20 6:0.45 7:0 8:1 9:2 10:0.3 11:0.1 12:0.25 13:18 14:2 15:0.439 16:0.2683 17:0.2561 18:0.1829 19:0.2927 20:0.2468 21:1 22:0.2222 23:0.4359 24:13 
1 1:4 2:2 3:-1 4:0 5:24 6:0.5238 7:1 8:5 9:2 10:0.2857 11:0.2381 12:0.1905 13:17 14:4 15:0.4111 16:0.2667 17:0.1889 18:0.2222 19:0.3222 20:0.1954 21:1.8 22:0 23:0.1818 24:11 
1 1:1 2:2 3:2 4:3 5:21 6:0.619 7:1 8:1 9:2 10:0.2857 11:0.381 12:0.0952 13:19 14:4 15:0.4737 16:0.1842 17:0.2632 18:0.2105 19:0.3421 20:0.1613 21:1 22:0.4 23:0.3 24:20 
1 1:2 2:3 3:2 4:2 5:20 6:0.5 7:1 8:1 9:2 10:0.15 11:0.15 12:0.35 13:18 14:4 15:0.4744 16:0.1923 17:0.2692 18:0.2051 19:0.3333 20:0.1875 21:1.83 22:0.3333 23:0.3333 24:19 
1 1:1 2:4 3:2 4:2 5:21 6:0.5714 7:1 8:2 9:2 10:0.3333 11:0.3333 12:0.0952 13:18 14:4 15:0.4096 16:0.253 17:0.1687 18:0.241 19:0.3373 20:0.2727 21:1.11 22:0.6 23:0.4286 24:7 
1 1:4 2:4 3:2 4:2 5:23 6:0.4091 7:2 8:3 9:3 10:0.1818 11:0.1818 12:0.4091 13:17 14:2 15:0.4 16:0.2533 17:0.16 18:0.24 19:0.3467 20:0.3043 21:0.44 22:0.3333 23:0.4167 24:11 
1 1:4 2:5 3:-1 4:0 5:21 6:0.4762 7:0 8:1 9:2 10:0.2857 11:0.2381 12:0.2381 13:19 14:3 15:0.37 16:0.27 17:0.25 18:0.12 19:0.36 20:0.175 21:1 22:0 23:0.2821 24:4 
1 1:1 2:1 3:-1 4:0 5:23 6:0.5652 7:2 8:1 9:3 10:0.1739 11:0.3478 12:0.2609 13:20 14:1 15:0.3924 16:0.3165 17:0.2278 18:0.1646 19:0.2911 20:0.1111 21:0.64 22:0 23:0.1111 24:9 
1 1:2 2:-1 3:1 4:1 5:21 6:0.4762 7:1 8:1 9:3 10:0.3333 11:0.1429 12:0.1905 13:18 14:3 15:0.3919 16:0.3243 17:0.2297 18:0.1622 19:0.2838 20:0.1034 21:1 22:0.0667 23:0 24:12 
1 1:4 2:5 3:-1 4:0 5:22 6:0.4091 7:2 8:1 9:2 10:0.2273 11:0.0909 12:0.3636 13:20 14:3 15:0.4659 16:0.2159 17:0.2159 18:0.25 19:0.3182 20:0.1294 21:1.25 22:0 23:0.2273 24:11 
1 1:4 2:5 3:2 4:1 5:24 6:0.3913 7:0 8:1 9:3 10:0.3913 11:0.3043 12:0.2174 13:21 14:2 15:0.4 16:0.3067 17:0.2133 18:0.1867 19:0.2933 20:0.1667 21:0.6 22:0.3333 23:0.3571 24:11 
0.9614719047721 1:4 2:10 3:3 4:2 5:22 6:0.4091 7:1 8:1 9:1 10:0.3636 11:0.2273 12:0.2273 13:21 14:4 15:0.4835 16:0.1978 17:0.2198 18:0.2637 19:0.3187 20:0.3333 21:0.73 22:0.3333 23:0.6364 24:12 
1 1:1 2:1 3:2 4:1 5:25 6:0.4167 7:2 8:2 9:3 10:0.4167 11:0.2917 12:0.1667 13:21 14:1 15:0.3088 16:0.3088 17:0.1029 18:0.2059 19:0.3824 20:0.125 21:0.8 22:0.1818 23:0.0667 24:14 
1 1:4 2:1 3:1 4:1 5:23 6:0.3913 7:1 8:2 9:3 10:0.1304 11:0.087 12:0.4783 13:19 14:1 15:0.3514 16:0.2838 17:0.1351 18:0.2162 19:0.3649 20:0.1429 21:0.67 22:0.125 23:0.0833 24:11 
1 1:1 2:2 3:1 4:1 5:20 6:0.5 7:1 8:2 9:2 10:0.3 11:0.2 12:0.2 13:17 14:2 15:0.4881 16:0.2262 17:0.2619 18:0.2262 19:0.2857 20:0.1948 21:0.7 22:0.1111 23:0.2821 24:12 
1 1:4 2:1 3:3 4:1 5:22 6:0.1818 7:1 8:1 9:1 10:0.4545 11:0.0909 12:0.3636 13:21 14:1 15:0.2838 16:0.3919 17:0.1216 18:0.1622 19:0.3243 20:0.0606 21:1 22:0.375 23:0.1304 24:12 
1 1:4 2:2 3:-1 4:0 5:21 6:0.4286 7:1 8:1 9:1 10:0.381 11:0.2381 12:0.1905 13:20 14:4 15:0.3288 16:0.3288 17:0.1644 18:0.1644 19:0.3425 20:0.0725 21:1.67 22:0 23:0.1111 24:7 
1 1:4 2:-1 3:-1 4:0 5:24 6:0.2609 7:2 8:2 9:2 10:0.3043 11:0.2174 12:0.4348 13:21 14:1 15:0.3273 16:0.3273 17:0.1636 18:0.1636 19:0.3455 20:0.098 21:0.8 22:0 23:0 24:16 
1 1:2 2:3 3:-1 4:0 5:23 6:0.3478 7:0 8:2 9:1 10:0.3043 11:0.2174 12:0.3478 13:21 14:3 15:0.3448 16:0.3218 17:0.1609 18:0.1839 19:0.3333 20:0.119 21:1 22:0 23:0.2 24:13 
1 1:2 2:3 3:-1 4:0 5:21 6:0.381 7:0 8:2 9:1 10:0.3333 11:0.2381 12:0.2857 13:19 14:1 15:0.3297 16:0.3297 17:0.1538 18:0.1758 19:0.3407 20:0.1136 21:1 22:0 23:0.1667 24:11 
1 1:1 2:8 3:-1 4:0 5:22 6:0.4091 7:0 8:3 9:2 10:0.4545 11:0.1818 12:0.1364 13:18 14:1 15:0.3191 16:0.3511 17:0.1702 18:0.1489 19:0.3298 20:0.2135 21:4.5 22:0 23:0.2766 24:9 
1 1:1 2:1 3:-1 4:0 5:30 6:0.4 7:0 8:10 9:3 10:0.35 11:0.3 12:0.25 13:17 14:2 15:0.4 16:0.3 17:0.2375 18:0.1625 19:0.3 20:0.25 21:0.5 22:0 23:0.0909 24:11 
1 1:4 2:4 3:2 4:3 5:23 6:0.4762 7:1 8:1 9:3 10:0.2857 11:0.2381 12:0.2381 13:20 14:2 15:0.5244 16:0.2195 17:0.2439 18:0.2805 19:0.2561 20:0.1765 21:0.78 22:0.2258 23:0.3333 24:19 
1 1:4 2:5 3:1 4:1 5:21 6:0.381 7:1 8:2 9:1 10:0.1905 11:0.0952 12:0.4286 13:19 14:3 15:0.3467 16:0.3067 17:0.1467 18:0.2 19:0.3467 20:0.1944 21:1.11 22:0.1429 23:0.375 24:15 
1 1:4 2:7 3:-1 4:0 5:21 6:0.4286 7:1 8:1 9:1 10:0.1905 11:0.0952 12:0.381 13:20 14:2 15:0.4419 16:0.2442 17:0.2442 18:0.1977 19:0.314 20:0.2099 21:1 22:-1 23:0.4286 24:2 
1 1:4 2:5 3:-1 4:0 5:21 6:0.4286 7:0 8:1 9:1 10:0.381 11:0.381 12:0.1905 13:20 14:4 15:0.4133 16:0.2933 17:0.2133 18:0.2 19:0.2933 20:0.1667 21:0.9 22:0 23:0.375 24:11 
1 1:1 2:2 3:1 4:1 5:22 6:0.3636 7:1 8:1 9:2 10:0.4545 11:0.2273 12:0.1818 13:20 14:4 15:0.2941 16:0.3235 17:0.1176 18:0.1765 19:0.3824 20:0.125 21:1.14 22:0.1 23:0.2 24:14 
1 1:4 2:2 3:1 4:1 5:21 6:0.381 7:1 8:1 9:2 10:0.1429 11:0.0952 12:0.4762 13:19 14:4 15:0.3333 16:0.3056 17:0.1389 18:0.1944 19:0.3611 20:0.1176 21:0.78 22:0.125 23:0.1538 24:12 
1 1:4 2:2 3:4 4:3 5:21 6:0.4762 7:1 8:1 9:2 10:0.2381 11:0.2381 12:0.2857 13:19 14:4 15:0.4706 16:0.25 17:0.25 18:0.2206 19:0.2794 20:0.1579 21:1.29 22:0.3077 23:0.4444 24:18 
1 1:4 2:2 3:1 4:3 5:21 6:0.4762 7:1 8:1 9:2 10:0.2381 11:0.2381 12:0.2857 13:19 14:4 15:0.4559 16:0.25 17:0.2353 18:0.2206 19:0.2941 20:0.1746 21:1.29 22:0.25 23:0.4167 24:18 
1 1:3 2:3 3:-1 4:0 5:21 6:0.4762 7:0 8:1 9:3 10:0.2381 11:0.3333 12:0.2857 13:18 14:2 15:0.4211 16:0.2456 17:0.1842 18:0.2368 19:0.3333 20:0.2477 21:1.4 22:-1 23:0.3333 24:1 
1 1:4 2:4 3:1 4:1 5:21 6:0.3333 7:2 8:1 9:2 10:0.381 11:0.1905 12:0.2857 13:19 14:2 15:0.427 16:0.236 17:0.1685 18:0.2584 19:0.3371 20:0.1646 21:1.14 22:0.125 23:0.2632 24:11 
1 1:4 2:-1 3:-1 4:0 5:22 6:0.5455 7:3 8:2 9:3 10:0.2727 11:0.3636 12:0.1818 13:18 14:2 15:0.5167 16:0.2167 17:0.2 18:0.3167 19:0.2667 20:0.1304 21:1.14 22:-1 23:0 24:4 
1 1:1 2:-1 3:-1 4:0 5:24 6:0.375 7:1 8:1 9:3 10:0.3333 11:0.2917 12:0.2917 13:21 14:2 15:0.3774 16:0.3019 17:0.1509 18:0.2264 19:0.3208 20:0.102 21:0.7 22:0 23:0 24:8 
1 1:1 2:1 3:1 4:1 5:24 6:0.2917 7:0 8:2 9:1 10:0.4583 11:0.1667 12:0.25 13:22 14:1 15:0.3385 16:0.3538 17:0.1692 18:0.1692 19:0.3077 20:0.0667 21:0.89 22:0.0833 23:0.1429 24:14 
1 1:1 2:-1 3:1 4:3 5:24 6:0.375 7:0 8:2 9:3 10:0.3333 11:0.2083 12:0.2917 13:20 14:1 15:0.3704 16:0.3333 17:0.1852 18:0.1852 19:0.2963 20:0.1667 21:0.9 22:0.0968 23:-1 24:34 
1 1:4 2:1 3:1 4:1 5:22 6:0.3182 7:1 8:1 9:1 10:0.4545 11:0.1818 12:0.2273 13:21 14:2 15:0.3133 16:0.3253 17:0.1325 18:0.1807 19:0.3614 20:0.038 21:1 22:0.2 23:0.0286 24:7 
1 1:4 2:1 3:-1 4:0 5:24 6:0.4167 7:0 8:1 9:1 10:0.375 11:0.1667 12:0.2083 13:23 14:3 15:0.4565 16:0.2717 17:0.2391 18:0.2174 19:0.2717 20:0.0714 21:1 22:0 23:0.1111 24:7 
1 1:3 2:2 3:-1 4:0 5:24 6:0.4583 7:0 8:1 9:2 10:0.4583 11:0.25 12:0.0833 13:22 14:4 15:0.4149 16:0.2979 17:0.2021 18:0.2128 19:0.2872 20:0.1011 21:1.12 22:0 23:0.1628 24:13 
1 1:2 2:7 3:-1 4:0 5:24 6:0.375 7:0 8:1 9:2 10:0.5 11:0.125 12:0.125 13:22 14:1 15:0.3373 16:0.3373 17:0.1687 18:0.1687 19:0.3253 20:0.1944 21:0.67 22:0 23:0.4615 24:17 
1 1:2 2:-1 3:-1 4:0 5:26 6:0.5417 7:0 8:3 9:4 10:0.2917 11:0.2917 12:0.1667 13:19 14:1 15:0.4815 16:0.3148 17:0.2593 18:0.2222 19:0.2037 20:0.24 21:1 22:0 23:-1 24:5 
1 1:1 2:-1 3:1 4:1 5:24 6:0.4167 7:1 8:2 9:2 10:0.3333 11:0.2083 12:0.25 13:21 14:1 15:0.3571 16:0.3214 17:0.1607 18:0.1964 19:0.3214 20:0.1154 21:1.11 22:0.0714 23:0 24:16 
1 1:2 2:1 3:-1 4:0 5:24 6:0.5 7:0 8:1 9:1 10:0.25 11:0.2917 12:0.25 13:23 14:4 15:0.4571 16:0.2714 17:0.2286 18:0.2286 19:0.2714 20:0.0606 21:0.7 22:-1 23:0.1111 24:1 
1 1:2 2:1 3:-1 4:0 5:24 6:0.5 7:0 8:1 9:2 10:0.3333 11:0.25 12:0.1667 13:22 14:1 15:0.4576 16:0.2881 17:0.2034 18:0.2542 19:0.2542 20:0.0741 21:1 22:0 23:0.25 24:3 
1 1:2 2:3 3:-1 4:0 5:24 6:0.5833 7:1 8:1 9:1 10:0.2917 11:0.375 12:0.125 13:23 14:3 15:0.5393 16:0.236 17:0.2809 18:0.2584 19:0.2247 20:0.093 21:1.1 22:0 23:0.2 24:9 
1 1:1 2:1 3:-1 4:0 5:24 6:0.5 7:1 8:6 9:2 10:0.2917 11:0.2083 12:0.2083 13:17 14:1 15:0.4583 16:0.2917 17:0.2396 18:0.2188 19:0.25 20:0.1111 21:0 22:-1 23:0.0417 24:1 
1 1:1 2:1 3:-1 4:0 5:24 6:0.4167 7:2 8:1 9:3 10:0.375 11:0.1667 12:0.2083 13:21 14:1 15:0.375 16:0.3194 17:0.1944 18:0.1806 19:0.3056 20:0.125 21:1.14 22:-1 23:0.125 24:2 
1 1:4 2:4 3:-1 4:0 5:24 6:0.625 7:0 8:1 9:4 10:0.1667 11:0.2917 12:0.2083 13:20 14:2 15:0.6029 16:0.2059 17:0.3235 18:0.2794 19:0.1912 20:0.2063 21:1 22:-1 23:0.4737 24:1 
1 1:1 2:1 3:-1 4:0 5:24 6:0.3333 7:2 8:4 9:2 10:0.375 11:0.2917 12:0.2917 13:17 14:4 15:0.2632 16:0.3947 17:0.1053 18:0.1579 19:0.3421 20:0.2353 21:0 22:-1 23:0.1 24:5 
1 1:4 2:-1 3:-1 4:0 5:24 6:0.5417 7:4 8:2 9:1 10:0.125 11:0.3333 12:0.3333 13:22 14:3 15:0.4844 16:0.1562 17:0.2188 18:0.2656 19:0.3594 20:0.08 21:0.56 22:-1 23:0 24:2 
1 1:4 2:3 3:-1 4:0 5:24 6:0.4167 7:0 8:1 9:1 10:0.4583 11:0.25 12:0.125 13:23 14:3 15:0.3368 16:0.3368 17:0.1789 18:0.1579 19:0.3263 20:0.075 21:1.43 22:-1 23:0.2 24:7 
1 1:4 2:3 3:-1 4:0 5:22 6:0.4091 7:2 8:1 9:2 10:0.2727 11:0.2727 12:0.3182 13:20 14:4 15:0.41 16:0.3 17:0.2 18:0.21 19:0.29 20:0.1957 21:0.64 22:0 23:0.3061 24:3 
1 1:4 2:1 3:-1 4:0 5:22 6:0.5 7:0 8:1 9:3 10:0.2727 11:0.2727 12:0.2273 13:19 14:3 15:0.4375 16:0.25 17:0.2031 18:0.2344 19:0.3125 20:0.1228 21:1.12 22:-1 23:0.25 24:2 
1 1:1 2:9 3:-1 4:0 5:25 6:0.5 7:1 8:2 9:2 10:0.4167 11:0.375 12:0.0833 13:22 14:3 15:0.4318 16:0.3068 17:0.2159 18:0.2159 19:0.2614 20:0.2289 21:1.5 22:-1 23:0.4595 24:2 
1 1:4 2:1 3:-1 4:0 5:22 6:0.5 7:1 8:2 9:1 10:0.2273 11:0.4545 12:0.2727 13:20 14:4 15:0.5169 16:0.2135 17:0.2584 18:0.2584 19:0.2697 20:0.093 21:1 22:0 23:0.1364 24:4 
1 1:4 2:2 3:-1 4:0 5:23 6:0.4545 7:1 8:2 9:2 10:0.4545 11:0.3182 12:0.0909 13:20 14:3 15:0.4824 16:0.2235 17:0.2 18:0.2824 19:0.2941 20:0.1852 21:0.7 22:0 23:0.2778 24:12 
1 1:1 2:1 3:-1 4:0 5:24 6:0.375 7:0 8:1 9:1 10:0.3333 11:0.2083 12:0.2917 13:23 14:3 15:0.4 16:0.3 17:0.2 18:0.2 19:0.3 20:0.0435 21:1 22:0 23:0.0455 24:3 
1 1:1 2:-1 3:-1 4:0 5:24 6:0.5 7:3 8:1 9:1 10:0.2917 11:0.3333 12:0.2083 13:23 14:2 15:0.4833 16:0.2333 17:0.2333 18:0.25 19:0.2833 20:0.0417 21:1 22:-1 23:-1 24:2 
1 1:2 2:4 3:-1 4:0 5:22 6:0.5455 7:1 8:1 9:3 10:0.3182 11:0.2727 12:0.1364 13:19 14:1 15:0.4 16:0.27 17:0.2 18:0.2 19:0.33 20:0.234 21:0.7 22:0 23:0.3333 24:9 
1 1:4 2:3 3:-1 4:0 5:24 6:0.4167 7:0 8:2 9:1 10:0.3333 11:0.3333 12:0.25 13:22 14:4 15:0.3981 16:0.3148 17:0.2037 18:0.1944 19:0.287 20:0.1961 21:0.9 22:0 23:0.2963 24:7 
1 1:4 2:1 3:-1 4:0 5:24 6:0.4167 7:2 8:2 9:2 10:0.2083 11:0.25 12:0.375 13:21 14:2 15:0.3651 16:0.2857 17:0.1746 18:0.1905 19:0.3492 20:0.1379 21:0.4 22:0 23:0.3333 24:7 
1 1:4 2:-1 3:2 4:3 5:25 6:0.5652 7:3 8:2 9:4 10:0.2174 11:0.3478 12:0.2174 13:20 14:1 15:0.4667 16:0.2 17:0.2167 18:0.25 19:0.3333 20:0.1481 21:0.78 22:0.3077 23:0 24:16 
1 1:1 2:2 3:-1 4:0 5:24 6:0.375 7:1 8:2 9:3 10:0.4583 11:0.125 12:0.1667 13:20 14:1 15:0.2871 16:0.396 17:0.1485 18:0.1386 19:0.3168 20:0.1702 21:1 22:0 23:0.2083 24:9 
1 1:1 2:4 3:1 4:1 5:21 6:0.4286 7:1 8:2 9:2 10:0.2381 11:0.2857 12:0.3333 13:18 14:4 15:0.4024 16:0.2683 17:0.1585 18:0.2439 19:0.3293 20:0.1892 21:0.78 22:0.1667 23:0.25 24:8 
1 1:4 2:4 3:1 4:1 5:21 6:0.4762 7:1 8:2 9:2 10:0.2857 11:0.1905 12:0.2381 13:18 14:2 15:0.407 16:0.2674 17:0.1628 18:0.2442 19:0.3256 20:0.1795 21:1.12 22:0.25 23:0.2222 24:6 
1 1:1 2:1 3:5 4:2 5:20 6:0.6 7:2 8:1 9:3 10:0.25 11:0.35 12:0.15 13:17 14:3 15:0.5179 16:0.2321 17:0.2321 18:0.2857 19:0.25 20:0.1163 21:0.78 22:0.3488 23:0.3333 24:30 
1 1:1 2:8 3:-1 4:0 5:20 6:0.35 7:0 8:-1 9:0 10:0.4 11:0.25 12:0.25 13:20 14:1 15:0.3108 16:0.3378 17:0.1216 18:0.1892 19:0.3514 20:0.1884 21:0.9 22:0 23:0.4839 24:9 
1 1:1 2:1 3:2 4:2 5:23 6:0.45 7:1 8:3 9:1 10:0.5 11:0.3 12:0.05 13:20 14:4 15:0.4103 16:0.2821 17:0.1795 18:0.2308 19:0.3077 20:0.1081 21:1.43 22:0.2857 23:0.1333 24:21 
1 1:1 2:2 3:2 4:1 5:21 6:0.5238 7:0 8:2 9:4 10:0.1905 11:0.2381 12:0.2857 13:15 14:4 15:0.4699 16:0.1928 17:0.2289 18:0.241 19:0.3373 20:0.2464 21:1.67 22:0.3333 23:0.1852 24:8 
1 1:4 2:5 3:-1 4:0 5:22 6:0.4091 7:0 8:1 9:2 10:0.1818 11:0.1364 12:0.4091 13:20 14:2 15:0.3922 16:0.2941 17:0.1961 18:0.1961 19:0.3137 20:0.2653 21:1.43 22:-1 23:0.4074 24:2 
1 1:4 2:3 3:-1 4:0 5:23 6:0.5 7:0 8:1 9:3 10:0.4 11:0.35 12:0.1 13:20 14:3 15:0.4198 16:0.2469 17:0.1975 18:0.2222 19:0.3333 20:0.1169 21:1.25 22:-1 23:0.1515 24:10 
1 1:4 2:2 3:-1 4:0 5:20 6:0.65 7:2 8:2 9:2 10:0.05 11:0.25 12:0.3 13:17 14:4 15:0.4684 16:0.2278 17:0.2152 18:0.2532 19:0.3038 20:0.1892 21:0.73 22:0 23:0.2778 24:10 
1 1:4 2:2 3:-1 4:0 5:20 6:0.65 7:2 8:2 9:2 10:0.05 11:0.25 12:0.3 13:17 14:4 15:0.575 16:0.2125 17:0.275 18:0.3 19:0.2125 20:0.1622 21:0.73 22:-1 23:0.1765 24:1 
1 1:4 2:2 3:-1 4:0 5:20 6:0.65 7:3 8:2 9:2 10:0.05 11:0.25 12:0.3 13:17 14:4 15:0.5 16:0.2375 17:0.2375 18:0.2625 19:0.2625 20:0.1842 21:0.73 22:-1 23:0.2222 24:1 
1 1:4 2:2 3:-1 4:0 5:20 6:0.65 7:2 8:2 9:2 10:0.05 11:0.25 12:0.3 13:17 14:4 15:0.575 16:0.2125 17:0.275 18:0.3 19:0.2125 20:0.1622 21:0.73 22:0 23:0.1765 24:10 
1 1:4 2:5 3:-1 4:0 5:20 6:0.65 7:1 8:2 9:1 10:0.25 11:0.45 12:0.1 13:18 14:4 15:0.5584 16:0.1948 17:0.3377 18:0.2208 19:0.2468 20:0.2603 21:0.91 22:0 23:0.4545 24:10 
1 1:4 2:2 3:1 4:1 5:20 6:0.65 7:1 8:2 9:1 10:0.25 11:0.45 12:0.1 13:18 14:4 15:0.5 16:0.2121 17:0.2879 18:0.2121 19:0.2879 20:0.1321 21:0.91 22:0.1667 23:0.3333 24:13 
1 1:3 2:6 3:1 4:1 5:21 6:0.5714 7:1 8:2 9:3 10:0.1429 11:0.4286 12:0.2857 13:15 14:4 15:0.4757 16:0.165 17:0.2233 18:0.2524 19:0.3592 20:0.3131 21:2 22:0.1667 23:0.3333 24:8 
1 1:4 2:6 3:1 4:1 5:21 6:0.619 7:1 8:2 9:2 10:0.1429 11:0.1905 12:0.2381 13:17 14:3 15:0.4953 16:0.1589 17:0.2336 18:0.2617 19:0.3458 20:0.301 21:0.67 22:0.25 23:0.377 24:6 
1 1:4 2:10 3:-1 4:0 5:22 6:0.619 7:1 8:2 9:3 10:0.1429 11:0.1905 12:0.2381 13:17 14:1 15:0.5349 16:0.2209 17:0.2326 18:0.3023 19:0.2442 20:0.2564 21:0.67 22:0 23:0.3333 24:13 
1 1:4 2:4 3:2 4:1 5:21 6:0.619 7:2 8:2 9:1 10:0.1429 11:0.1905 12:0.2381 13:19 14:1 15:0.5 16:0.2386 17:0.2614 18:0.2386 19:0.2614 20:0.1905 21:0.83 22:0.2857 23:0.2857 24:14 
1 1:4 2:4 3:-1 4:0 5:21 6:0.619 7:1 8:2 9:2 10:0.1429 11:0.1905 12:0.2381 13:17 14:1 15:0.4713 16:0.2184 17:0.2299 18:0.2414 19:0.3103 20:0.2381 21:0.83 22:0 23:0.3182 24:15 
1 1:2 2:7 3:-1 4:0 5:21 6:0.619 7:2 8:2 9:2 10:0.2381 11:0.3333 12:0.1429 13:18 14:3 15:0.3694 16:0.3063 17:0.1712 18:0.1982 19:0.3243 20:0.1776 21:0.73 22:-1 23:0.2 24:1 
1 1:2 2:10 3:-1 4:0 5:27 6:0.619 7:1 8:6 9:3 10:0.2381 11:0.3333 12:0.1429 13:18 14:3 15:0.3727 16:0.2818 17:0.2182 18:0.1545 19:0.3455 20:0.3535 21:0.67 22:-1 23:0.4717 24:2 
1 1:4 2:4 3:1 4:1 5:21 6:0.381 7:1 8:2 9:4 10:0.2381 11:0.2381 12:0.381 13:15 14:3 15:0.3667 16:0.2667 17:0.2 18:0.1667 19:0.3667 20:0.225 21:1.75 22:0.25 23:0.2 24:11 
1 1:4 2:1 3:-1 4:0 5:21 6:0.4762 7:2 8:-1 9:0 10:0.2381 11:0.2381 12:0.2857 13:21 14:1 15:0.3974 16:0.2564 17:0.1795 18:0.2179 19:0.3462 20:0.0571 21:1 22:-1 23:0.1429 24:11 
1 1:4 2:3 3:-1 4:0 5:21 6:0.4762 7:1 8:2 9:1 10:0.2381 11:0.2381 12:0.2857 13:19 14:4 15:0.3125 16:0.275 17:0.1375 18:0.175 19:0.4125 20:0.1667 21:1 22:0 23:0.2667 24:10 
1 1:2 2:3 3:-1 4:0 5:20 6:0.5 7:1 8:1 9:2 10:0.15 11:0.15 12:0.35 13:18 14:1 15:0.4935 16:0.1818 17:0.2857 18:0.2078 19:0.3247 20:0.1746 21:1.83 22:-1 23:0.3333 24:10 
0.3824157728469439 1:4 2:12 3:1 4:1 5:20 6:0.55 7:0 8:3 9:1 10:0.1 11:0.15 12:0.35 13:17 14:2 15:0.4896 16:0.1667 17:0.3229 18:0.1667 19:0.3438 20:0.4318 21:0.91 22:0.25 23:0.6667 24:10 
1 1:4 2:8 3:1 4:1 5:21 6:0.619 7:0 8:1 9:3 10:0.0476 11:0.2857 12:0.3333 13:18 14:1 15:0.4842 16:0.2 17:0.2526 18:0.2316 19:0.3158 20:0.191 21:0.91 22:0.1111 23:0.234 24:8 
1 1:3 2:5 3:1 4:1 5:23 6:0.5909 7:3 8:1 9:3 10:0.2727 11:0.5455 12:0.1364 13:20 14:2 15:0.4353 16:0.2118 17:0.1765 18:0.2588 19:0.3529 20:0.225 21:1 22:0.0833 23:0.4211 24:14 
1 1:4 2:5 3:1 4:1 5:22 6:0.5238 7:3 8:1 9:3 10:0.1429 11:0.0952 12:0.3333 13:19 14:4 15:0.4368 16:0.2069 17:0.1724 18:0.2644 19:0.3563 20:0.2195 21:0.9 22:0.0909 23:0.381 24:13 
1 1:1 2:5 3:-1 4:0 5:24 6:0.4783 7:2 8:2 9:3 10:0.1739 11:0.4348 12:0.3478 13:19 14:2 15:0.3855 16:0.2651 17:0.1687 18:0.2169 19:0.3494 20:0.1842 21:0.4 22:0 23:0.2258 24:5 
1 1:4 2:1 3:2 4:2 5:26 6:0.5238 7:2 8:5 9:2 10:0.1429 11:0.0476 12:0.3333 13:19 14:4 15:0.4225 16:0.2676 17:0.1972 18:0.2254 19:0.3099 20:0.125 21:1 22:0.3333 23:0.1 24:11 
1 1:4 2:2 3:1 4:1 5:22 6:0.4091 7:2 8:1 9:3 10:0.2273 11:0.3182 12:0.3636 13:19 14:3 15:0.4028 16:0.25 17:0.2083 18:0.1944 19:0.3472 20:0.1667 21:1.29 22:0.2 23:0.25 24:8 
1 1:3 2:3 3:1 4:1 5:22 6:0.4762 7:2 8:1 9:2 10:0.2857 11:0.4762 12:0.2381 13:20 14:4 15:0.3733 16:0.2933 17:0.1733 18:0.2 19:0.3333 20:0.1549 21:1.43 22:0.2 23:0.2857 24:11 
1 1:2 2:3 3:1 4:1 5:20 6:0.4 7:2 8:1 9:2 10:0.3 11:0 12:0.3 13:18 14:4 15:0.3636 16:0.2987 17:0.1688 18:0.1948 19:0.3377 20:0.1507 21:1.14 22:0.25 23:0.2353 24:10 
1 1:4 2:5 3:-1 4:0 5:21 6:0.381 7:3 8:-1 9:0 10:0.4286 11:0.3333 12:0.1905 13:21 14:4 15:0.3553 16:0.2632 17:0.1711 18:0.1842 19:0.3816 20:0.1781 21:0.8 22:0 23:0.4545 24:10 
1 1:4 2:1 3:1 4:1 5:21 6:0.4286 7:0 8:2 9:3 10:0.381 11:0.2381 12:0.1905 13:17 14:4 15:0.3559 16:0.3051 17:0.1864 18:0.1695 19:0.339 20:0.1636 21:0.56 22:0.25 23:0.0769 24:8 
1 1:2 2:2 3:-1 4:0 5:23 6:0.4286 7:5 8:3 9:4 10:0.0952 11:0.3333 12:0.4762 13:17 14:2 15:0.4459 16:0.2838 17:0.1757 18:0.2703 19:0.2703 20:0.2353 21:0.78 22:0 23:0.28 24:11 
1 1:1 2:2 3:1 4:1 5:23 6:0.2727 7:1 8:4 9:3 10:0.2273 11:0.2273 12:0.5 13:17 14:4 15:0.3587 16:0.3043 17:0.163 18:0.1957 19:0.337 20:0.1724 21:3 22:0.0588 23:0.1364 24:11 
1 1:3 2:1 3:-1 4:0 5:30 6:0.5 7:1 8:11 9:2 10:0.25 11:0.25 12:0.25 13:18 14:4 15:0.4286 16:0.2747 17:0.1868 18:0.2418 19:0.2967 20:0.2 21:0.6 22:-1 23:0.04 24:1 
1 1:1 2:4 3:-1 4:0 5:21 6:0.5714 7:2 8:2 9:5 10:0.1905 11:0.4762 12:0.2381 13:14 14:1 15:0.5072 16:0.2609 17:0.1884 18:0.3188 19:0.2319 20:0.3651 21:0.71 22:0 23:0.4286 24:12 
1 1:1 2:3 3:1 4:1 5:22 6:0.4091 7:0 8:1 9:2 10:0.2273 11:0.1818 12:0.3636 13:20 14:4 15:0.4231 16:0.2821 17:0.2051 18:0.2179 19:0.2949 20:0.1622 21:0.7 22:0.0833 23:0.2667 24:14 
1 1:1 2:2 3:-1 4:0 5:23 6:0.3636 7:2 8:4 9:2 10:0.2727 11:0.2273 12:0.3636 13:18 14:4 15:0.4234 16:0.2613 17:0.2072 18:0.2162 19:0.3153 20:0.1215 21:0.75 22:0 23:0.0645 24:5 
1 1:4 2:4 3:2 4:2 5:20 6:0.55 7:1 8:2 9:1 10:0.2 11:0.15 12:0.25 13:18 14:1 15:0.4667 16:0.2667 17:0.1667 18:0.3 19:0.2667 20:0.1852 21:0.9 22:0.1667 23:0.4286 24:21 
1 1:1 2:-1 3:1 4:2 5:21 6:0.4286 7:2 8:1 9:2 10:0.381 11:0.2381 12:0.1905 13:19 14:4 15:0.4 16:0.3333 17:0.2333 18:0.1667 19:0.2667 20:0.0909 21:0.89 22:0.0857 23:0 24:21 
1 1:3 2:1 3:-1 4:0 5:23 6:0.4545 7:1 8:1 9:4 10:0.2273 11:0.1818 12:0.3182 13:19 14:4 15:0.431 16:0.2069 17:0.2241 18:0.2069 19:0.3621 20:0.102 21:0.8 22:0 23:0.25 24:7 
1 1:1 2:-1 3:2 4:1 5:22 6:0.3 7:4 8:3 9:3 10:0.55 11:0.15 12:0.15 13:16 14:4 15:0.3111 16:0.3111 17:0.1333 18:0.1778 19:0.3778 20:0.1579 21:3 22:0.1176 23:-1 24:25 
1 1:4 2:2 3:-1 4:0 5:21 6:0.5238 7:1 8:3 9:2 10:0.2381 11:0.2381 12:0.2381 13:16 14:4 15:0.4024 16:0.2683 17:0.1829 18:0.2195 19:0.3293 20:0.1733 21:3 22:-1 23:0.2105 24:5 
1 1:2 2:1 3:1 4:2 5:22 6:0.2727 7:1 8:-1 9:0 10:0.2273 11:0 12:0.5 13:22 14:1 15:0.3284 16:0.3582 17:0.1642 18:0.1642 19:0.3134 20:0 21:1.11 22:0.0833 23:0.1 24:27 
1 1:1 2:3 3:3 4:1 5:22 6:0.5909 7:2 8:2 9:2 10:0.2727 11:0.4545 12:0.1364 13:19 14:4 15:0.5072 16:0.2754 17:0.2754 18:0.2319 19:0.2174 20:0.2 21:1.29 22:0.1765 23:0.4545 24:14 
1 1:3 2:4 3:1 4:1 5:23 6:0.5455 7:1 8:2 9:3 10:0.2273 11:0.1818 12:0.2273 13:19 14:3 15:0.4557 16:0.2405 17:0.2152 18:0.2405 19:0.3038 20:0.1944 21:1.22 22:0.0435 23:0.3333 24:16 
1 1:3 2:3 3:-1 4:0 5:22 6:0.5238 7:1 8:2 9:3 10:0.1905 11:0.2857 12:0.2857 13:18 14:4 15:0.5 16:0.1711 17:0.2237 18:0.2763 19:0.3289 20:0.2394 21:2.2 22:0 23:0.4 24:5 
1 1:4 2:1 3:2 4:1 5:21 6:0.4762 7:1 8:1 9:1 10:0.1905 11:0.2381 12:0.3333 13:20 14:1 15:0.3521 16:0.3099 17:0.1831 18:0.169 19:0.338 20:0.0769 21:1 22:0.125 23:0.1304 24:21 
1 1:1 2:3 3:-1 4:0 5:24 6:0.5 7:1 8:1 9:3 10:0.2083 11:0.25 12:0.2917 13:21 14:4 15:0.4625 16:0.2875 17:0.2125 18:0.25 19:0.25 20:0.1733 21:1 22:0 23:0.3333 24:5 
1 1:4 2:-1 3:1 4:2 5:21 6:0.3333 7:0 8:1 9:1 10:0.2381 11:0.0476 12:0.4286 13:20 14:3 15:0.3529 16:0.3235 17:0.1912 18:0.1618 19:0.3235 20:0.0385 21:0.78 22:0.1034 23:0 24:25 
1 1:4 2:-1 3:-1 4:0 5:26 6:0.4545 7:1 8:4 9:2 10:0.2273 11:0.1364 12:0.3182 13:21 14:3 15:0.5082 16:0.2131 17:0.2295 18:0.2787 19:0.2787 20:0.0909 21:1 22:0 23:0 24:7 
1 1:4 2:1 3:-1 4:0 5:22 6:0.2727 7:0 8:2 9:3 10:0.4545 11:0.1364 12:0.2727 13:18 14:1 15:0.3 16:0.3625 17:0.1375 18:0.1625 19:0.3375 20:0.1667 21:1.14 22:-1 23:0.125 24:1 
1 1:4 2:-1 3:1 4:1 5:21 6:0.619 7:0 8:2 9:2 10:0.0952 11:0.0952 12:0.2857 13:18 14:3 15:0.549 16:0.2157 17:0.3333 18:0.2157 19:0.2353 20:0.1064 21:2 22:0.0909 23:0 24:16 
1 1:3 2:3 3:-1 4:0 5:23 6:0.5455 7:0 8:2 9:3 10:0.2273 11:0.3636 12:0.2273 13:19 14:3 15:0.4625 16:0.2375 17:0.2125 18:0.25 19:0.3 20:0.2222 21:1.25 22:0 23:0.3571 24:4 
1 1:4 2:3 3:-1 4:0 5:23 6:0.5217 7:1 8:1 9:3 10:0.1739 11:0.2609 12:0.3043 13:20 14:4 15:0.475 16:0.275 17:0.2125 18:0.2625 19:0.25 20:0.1733 21:1 22:0 23:0.3125 24:6 
1 1:1 2:3 3:-1 4:0 5:22 6:0.5 7:3 8:2 9:2 10:0.3 11:0.15 12:0.2 13:19 14:4 15:0.383 16:0.3085 17:0.1702 18:0.2128 19:0.3085 20:0.191 21:1.43 22:0 23:0.3061 24:3 
1 1:4 2:-1 3:1 4:1 5:21 6:0.3333 7:3 8:3 9:2 10:0.2381 11:0.2381 12:0.4286 13:17 14:3 15:0.2979 16:0.3617 17:0.1277 18:0.1702 19:0.3404 20:0.1707 21:0.89 22:0.0588 23:-1 24:11 
1 1:4 2:3 3:-1 4:0 5:21 6:0.381 7:1 8:1 9:1 10:0.3333 11:0.1429 12:0.2857 13:20 14:3 15:0.4545 16:0.2208 17:0.2727 18:0.1818 19:0.3247 20:0.1034 21:0.9 22:0 23:0.3333 24:7 
1 1:4 2:1 3:2 4:2 5:21 6:0.381 7:1 8:1 9:1 10:0.3333 11:0.1429 12:0.2857 13:20 14:3 15:0.403 16:0.2687 17:0.2239 18:0.1791 19:0.3284 20:0.0667 21:0.9 22:0.25 23:0.2 24:14 
1 1:2 2:4 3:2 4:1 5:21 6:0.5238 7:1 8:2 9:2 10:0.1905 11:0.381 12:0.2857 13:18 14:1 15:0.3659 16:0.3049 17:0.1585 18:0.2073 19:0.3293 20:0.2222 21:0.7 22:0.5 23:0.3333 24:6 
1 1:2 2:2 3:-1 4:0 5:21 6:0.5238 7:0 8:2 9:3 10:0.1905 11:0.381 12:0.2857 13:16 14:1 15:0.4304 16:0.2152 17:0.2025 18:0.2278 19:0.3544 20:0.2603 21:0.7 22:-1 23:0.2903 24:3 
1 1:4 2:1 3:3 4:1 5:23 6:0.4286 7:0 8:1 9:3 10:0.4286 11:0.2857 12:0.1429 13:20 14:4 15:0.3882 16:0.3176 17:0.1647 18:0.2235 19:0.2941 20:0.1111 21:0.64 22:0.25 23:0.2258 24:11 
1 1:4 2:2 3:-1 4:0 5:24 6:0.4762 7:0 8:1 9:3 10:0.381 11:0.3333 12:0.1429 13:21 14:3 15:0.4048 16:0.2619 17:0.1905 18:0.2143 19:0.3333 20:0.0886 21:1.12 22:-1 23:0.1429 24:2 
1 1:4 2:2 3:-1 4:0 5:24 6:0.4286 7:0 8:3 9:2 10:0.4286 11:0.2857 12:0.1429 13:19 14:4 15:0.4158 16:0.3168 17:0.198 18:0.2178 19:0.2673 20:0.1579 21:0.64 22:-1 23:0.2121 24:3 
1 1:4 2:2 3:-1 4:0 5:23 6:0.4762 7:1 8:2 9:3 10:0.381 11:0.3333 12:0.1429 13:19 14:4 15:0.4217 16:0.2651 17:0.2048 18:0.2169 19:0.3133 20:0.1392 21:0.64 22:-1 23:0.1429 24:1 
1 1:4 2:2 3:-1 4:0 5:23 6:0.4762 7:0 8:2 9:3 10:0.381 11:0.3333 12:0.1429 13:19 14:4 15:0.4096 16:0.2771 17:0.1928 18:0.2169 19:0.3133 20:0.1392 21:0.45 22:0 23:0.1429 24:5 
1 1:4 2:7 3:2 4:2 5:21 6:0.4762 7:0 8:1 9:3 10:0.2857 11:0.1429 12:0.2381 13:18 14:4 15:0.4828 16:0.2759 17:0.2299 18:0.2529 19:0.2414 20:0.2593 21:0.91 22:0.1818 23:0.3846 24:14 
1 1:2 2:4 3:-1 4:0 5:21 6:0.619 7:2 8:2 9:2 10:0.1905 11:0.381 12:0.1905 13:18 14:3 15:0.4175 16:0.2233 17:0.1845 18:0.233 19:0.3592 20:0.2245 21:0.67 22:-1 23:0.3103 24:1 
1 1:2 2:3 3:-1 4:0 5:21 6:0.4762 7:3 8:1 9:2 10:0.1905 11:0.3333 12:0.3333 13:19 14:2 15:0.4405 16:0.3214 17:0.1905 18:0.25 19:0.2381 20:0.175 21:0.78 22:0 23:0.2632 24:6 
1 1:4 2:3 3:-1 4:0 5:21 6:0.5238 7:3 8:1 9:2 10:0.2381 11:0.1905 12:0.2381 13:19 14:1 15:0.4432 16:0.3182 17:0.1932 18:0.25 19:0.2386 20:0.1667 21:1.12 22:0 23:0.2381 24:4 
1 1:3 2:7 3:-1 4:0 5:20 6:0.5 7:0 8:1 9:2 10:0.35 11:0.15 12:0.15 13:18 14:4 15:0.3725 16:0.3039 17:0.1961 18:0.1765 19:0.3235 20:0.2653 21:1.38 22:0 23:0.3793 24:5 
1 1:3 2:4 3:-1 4:0 5:22 6:0.4762 7:0 8:1 9:3 10:0.381 11:0.1905 12:0.1429 13:19 14:3 15:0.5063 16:0.2152 17:0.2278 18:0.2785 19:0.2785 20:0.1842 21:1.38 22:0 23:0.3143 24:5 
1 1:1 2:4 3:-1 4:0 5:21 6:0.381 7:1 8:1 9:2 10:0.2857 11:0.2381 12:0.3333 13:19 14:3 15:0.494 16:0.2169 17:0.2169 18:0.2771 19:0.2892 20:0.175 21:0.7 22:0 23:0.3 24:3 
1 1:3 2:6 3:-1 4:0 5:22 6:0.4762 7:0 8:1 9:3 10:0.381 11:0.1905 12:0.1429 13:19 14:3 15:0.5 16:0.2436 17:0.2308 18:0.2692 19:0.2564 20:0.2703 21:1.38 22:0 23:0.4839 24:5 
1 1:4 2:4 3:1 4:2 5:23 6:0.5455 7:1 8:2 9:3 10:0.1818 11:0.3182 12:0.2727 13:19 14:1 15:0.48 16:0.24 17:0.2667 18:0.2133 19:0.28 20:0.1549 21:2 22:0.12 23:0.1538 24:15 
1 1:4 2:2 3:-1 4:0 5:23 6:0.5 7:2 8:4 9:1 10:0.2727 11:0.5 12:0.2273 13:19 14:4 15:0.4 16:0.3077 17:0.2 18:0.2 19:0.2923 20:0.1724 21:1.12 22:0 23:0.3333 24:5 
1 1:4 2:2 3:-1 4:0 5:22 6:0.5455 7:2 8:4 9:1 10:0.1818 11:0 12:0.2727 13:18 14:3 15:0.4348 16:0.2899 17:0.2174 18:0.2174 19:0.2754 20:0.1613 21:0.9 22:-1 23:0.2381 24:3 
0.7012875517327157 1:4 2:9 3:3 4:1 5:22 6:0.2727 7:0 8:1 9:1 10:0.4091 11:0.1364 12:0.3182 13:21 14:1 15:0.2838 16:0.3919 17:0.1351 18:0.1486 19:0.3243 20:0.1429 21:0.9 22:0.4286 23:0.3333 24:9 
1 1:4 2:2 3:-1 4:0 5:21 6:0.5238 7:0 8:1 9:2 10:0.2381 11:0.2857 12:0.2381 13:19 14:1 15:0.4375 16:0.25 17:0.2031 18:0.2344 19:0.3125 20:0.1228 21:0.9 22:-1 23:0.3333 24:2 
1 1:2 2:3 3:-1 4:0 5:21 6:0.4762 7:3 8:1 9:2 10:0.1905 11:0.3333 12:0.3333 13:19 14:2 15:0.4405 16:0.3214 17:0.1905 18:0.25 19:0.2381 20:0.175 21:0.78 22:0 23:0.2632 24:6 
1 1:1 2:4 3:2 4:2 5:21 6:0.3333 7:0 8:1 9:1 10:0.4286 11:0.1429 12:0.2381 13:20 14:1 15:0.4179 16:0.2985 17:0.2239 18:0.194 19:0.2836 20:0.129 21:0.9 22:0.4 23:0.3636 24:12 
1 1:1 2:8 3:1 4:1 5:25 6:0.381 7:3 8:3 9:4 10:0.381 11:0.2381 12:0.2381 13:17 14:4 15:0.383 16:0.2979 17:0.1596 18:0.2234 19:0.3191 20:0.3243 21:1.12 22:0.0909 23:0.4286 24:8 
1 1:2 2:4 3:-1 4:0 5:22 6:0.3182 7:0 8:1 9:1 10:0.2727 11:0.0455 12:0.4091 13:21 14:2 15:0.3043 16:0.3652 17:0.1478 18:0.1565 19:0.3304 20:0.1321 21:1.11 22:-1 23:0.2188 24:3 
1 1:2 2:7 3:-1 4:0 5:21 6:0.5238 7:2 8:1 9:4 10:0.2857 11:0.3333 12:0.1905 13:17 14:3 15:0.4419 16:0.3023 17:0.2209 18:0.2209 19:0.2558 20:0.3086 21:1.14 22:0 23:0.4762 24:11 
1 1:3 2:1 3:4 4:2 5:21 6:0.5238 7:0 8:2 9:3 10:0.1905 11:0.3333 12:0.2857 13:16 14:1 15:0.4143 16:0.2 17:0.1714 18:0.2429 19:0.3857 20:0.1864 21:0.86 22:0.4194 23:0.1579 24:22 
1 1:4 2:4 3:-1 4:0 5:21 6:0.4286 7:3 8:1 9:1 10:0.2381 11:0.381 12:0.3333 13:20 14:4 15:0.4524 16:0.2857 17:0.1786 18:0.2738 19:0.2619 20:0.1139 21:1 22:0 23:0.2308 24:17 
1 1:4 2:1 3:-1 4:0 5:26 6:0.4545 7:3 8:4 9:2 10:0.3182 11:0.3182 12:0.2273 13:18 14:4 15:0.4576 16:0.2373 17:0.1695 18:0.2881 19:0.3051 20:0.2222 21:0.44 22:0 23:0.25 24:11 
1 1:4 2:2 3:2 4:1 5:22 6:0.3333 7:0 8:1 9:2 10:0.4286 11:0.1905 12:0.2381 13:20 14:2 15:0.358 16:0.3333 17:0.1852 18:0.1728 19:0.3086 20:0.0909 21:1 22:0.4 23:0.1176 24:11 
1 1:4 2:2 3:2 4:1 5:22 6:0.3333 7:0 8:1 9:2 10:0.4286 11:0.1905 12:0.2381 13:20 14:2 15:0.358 16:0.3333 17:0.1852 18:0.1728 19:0.3086 20:0.0909 21:1 22:0.4 23:0.1176 24:11 
1 1:2 2:2 3:3 4:1 5:26 6:0.4583 7:1 8:4 9:4 10:0.2917 11:0.3333 12:0.25 13:16 14:1 15:0.4603 16:0.2857 17:0.2222 18:0.2381 19:0.254 20:0.322 21:0.62 22:0.375 23:0.2 24:11 
1 1:1 2:5 3:-1 4:0 5:25 6:0.5833 7:3 8:3 9:4 10:0.1667 11:0.4167 12:0.25 13:18 14:3 15:0.534 16:0.1456 17:0.2136 18:0.3204 19:0.3204 20:0.3043 21:0.2 22:0 23:0.4043 24:7 
1 1:1 2:2 3:-1 4:0 5:24 6:0.5217 7:2 8:2 9:2 10:0.2609 11:0.3043 12:0.2174 13:21 14:3 15:0.4112 16:0.2897 17:0.1682 18:0.243 19:0.2991 20:0.1304 21:0.9 22:0 23:0.1915 24:6 
1 1:3 2:-1 3:1 4:1 5:22 6:0.7727 7:1 8:2 9:3 10:0.2273 11:0.5 12:0 13:18 14:3 15:0.75 16:0.1406 17:0.3125 18:0.4375 19:0.1094 20:0.1111 21:1.22 22:0.1111 23:0 24:11 
1 1:1 2:5 3:-1 4:0 5:22 6:0.2857 7:1 8:1 9:1 10:0.381 11:0.1905 12:0.3333 13:21 14:1 15:0.2778 16:0.3222 17:0.1333 18:0.1444 19:0.4 20:0.2 21:0.67 22:0 23:0.3953 24:11 
1 1:4 2:3 3:1 4:1 5:21 6:0.5714 7:2 8:2 9:2 10:0.2381 11:0.3333 12:0.1905 13:17 14:1 15:0.4324 16:0.2568 17:0.2162 18:0.2162 19:0.3108 20:0.1818 21:1.1 22:0.2 23:0.1667 24:11 
1 1:4 2:3 3:-1 4:0 5:25 6:0.4762 7:1 8:2 9:3 10:0.4286 11:0.3333 12:0.0952 13:21 14:2 15:0.4375 16:0.2625 17:0.25 18:0.1875 19:0.3 20:0.1892 21:1.8 22:0 23:0.3077 24:11 
1 1:4 2:6 3:2 4:2 5:21 6:0.4762 7:3 8:2 9:2 10:0.2381 11:0.1905 12:0.2857 13:18 14:4 15:0.4 16:0.3176 17:0.1882 18:0.2118 19:0.2824 20:0.2329 21:1.8 22:0.3636 23:0.3548 24:18 
1 1:4 2:4 3:1 4:2 5:21 6:0.4286 7:3 8:1 9:1 10:0.2381 11:0.1905 12:0.3333 13:20 14:1 15:0.3953 16:0.2674 17:0.186 18:0.2093 19:0.3372 20:0.1667 21:1 22:0.2 23:0.3333 24:18 
1 1:4 2:4 3:1 4:1 5:22 6:0.4762 7:0 8:1 9:3 10:0.381 11:0.3333 12:0.1429 13:19 14:2 15:0.4824 16:0.2353 17:0.2588 18:0.2235 19:0.2824 20:0.1852 21:1.25 22:0.2 23:0.2632 24:11 
1 1:4 2:2 3:1 4:1 5:21 6:0.4762 7:2 8:1 9:1 10:0.2857 11:0.1905 12:0.2381 13:20 14:2 15:0.381 16:0.2857 17:0.1786 18:0.2024 19:0.3333 20:0.1282 21:1.12 22:0.3333 23:0.2222 24:11 
1 1:4 2:4 3:2 4:2 5:22 6:0.619 7:1 8:5 9:2 10:0.1905 11:0.3333 12:0.1905 13:16 14:4 15:0.5294 16:0.2353 17:0.2941 18:0.2353 19:0.2353 20:0.2381 21:1.12 22:0.3333 23:0.2727 24:11 
1 1:4 2:2 3:1 4:2 5:21 6:0.4286 7:2 8:1 9:2 10:0.2381 11:0.1905 12:0.3333 13:19 14:1 15:0.3721 16:0.314 17:0.2093 18:0.1628 19:0.314 20:0.1646 21:1 22:0.2 23:0.2821 24:12 
1 1:4 2:2 3:5 4:1 5:20 6:0.55 7:0 8:1 9:2 10:0.1 11:0.15 12:0.35 13:18 14:4 15:0.5167 16:0.1833 17:0.2333 18:0.2833 19:0.3 20:0.1321 21:0.91 22:0.3636 23:0.3333 24:14 
0.883140108190679 1:4 2:7 3:2 4:1 5:21 6:0.5714 7:2 8:2 9:2 10:0.2381 11:0.3333 12:0.1905 13:17 14:4 15:0.5 16:0.2436 17:0.2051 18:0.2949 19:0.2564 20:0.2571 21:0.83 22:0.1579 23:0.3793 24:12 
0.6184819267384087 1:4 2:11 3:1 4:1 5:21 6:0.5714 7:2 8:2 9:2 10:0.2381 11:0.3333 12:0.1905 13:18 14:1 15:0.4625 16:0.275 17:0.2375 18:0.225 19:0.2625 20:0.2267 21:1.1 22:0.1 23:0.3714 24:12 
0.9250563253551031 1:4 2:4 3:6 4:2 5:21 6:0.4762 7:1 8:2 9:2 10:0.2857 11:0.1905 12:0.2381 13:18 14:2 15:0.3953 16:0.2791 17:0.1628 18:0.2326 19:0.3256 20:0.1795 21:1.12 22:0.3636 23:0.2222 24:16 
1 1:4 2:6 3:1 4:1 5:22 6:0.4762 7:1 8:1 9:2 10:0.381 11:0.3333 12:0.1429 13:20 14:4 15:0.4512 16:0.2195 17:0.2195 18:0.2317 19:0.3293 20:0.1646 21:1.25 22:0.2 23:0.3158 24:17 
1 1:1 2:4 3:-1 4:0 5:21 6:0.5714 7:1 8:1 9:2 10:0.2857 11:0.3333 12:0.1429 13:19 14:2 15:0.4343 16:0.2828 17:0.1717 18:0.2626 19:0.2828 20:0.2128 21:0.67 22:0 23:0.3333 24:9 
1 1:4 2:4 3:2 4:1 5:21 6:0.381 7:1 8:2 9:2 10:0.2381 11:0.1905 12:0.381 13:18 14:2 15:0.3594 16:0.2812 17:0.1406 18:0.2188 19:0.3594 20:0.2333 21:1.33 22:0.2222 23:0.4444 24:11 
1 1:3 2:1 3:4 4:2 5:21 6:0.5238 7:0 8:2 9:3 10:0.1905 11:0.3333 12:0.2857 13:16 14:1 15:0.4143 16:0.2 17:0.1714 18:0.2429 19:0.3857 20:0.1864 21:0.86 22:0.4194 23:0.1579 24:25 
1 1:4 2:3 3:-1 4:0 5:25 6:0.4762 7:1 8:2 9:3 10:0.4286 11:0.3333 12:0.0952 13:21 14:2 15:0.425 16:0.275 17:0.225 18:0.2 19:0.3 20:0.1842 21:1.8 22:0 23:0.2857 24:11 
1 1:4 2:2 3:2 4:2 5:22 6:0.5238 7:2 8:4 9:1 10:0.2857 11:0.5238 12:0.1905 13:18 14:1 15:0.4154 16:0.3077 17:0.2154 18:0.2 19:0.2769 20:0.1724 21:1 22:0.2667 23:0.2941 24:26 
1 1:4 2:3 3:1 4:1 5:21 6:0.5714 7:2 8:2 9:2 10:0.2381 11:0.3333 12:0.1905 13:17 14:1 15:0.4324 16:0.2568 17:0.2162 18:0.2162 19:0.3108 20:0.1818 21:1.1 22:0.1667 23:0.1667 24:11 
1 1:4 2:4 3:-1 4:0 5:26 6:0.5238 7:1 8:6 9:3 10:0.2857 11:0.2857 12:0.1905 13:18 14:4 15:0.4078 16:0.2913 17:0.2136 18:0.1942 19:0.301 20:0.2667 21:1.83 22:-1 23:0.3333 24:2 
1 1:4 2:6 3:-1 4:0 5:22 6:0.5 7:1 8:2 9:4 10:0.2727 11:0.2727 12:0.2273 13:17 14:1 15:0.3925 16:0.2523 17:0.2056 18:0.1869 19:0.3551 20:0.3034 21:1.67 22:0 23:0.4043 24:5 
1 1:2 2:7 3:1 4:1 5:21 6:0.5238 7:1 8:1 9:4 10:0.3333 11:0.1429 12:0.1429 13:17 14:3 15:0.3827 16:0.284 17:0.2346 18:0.1481 19:0.3333 20:0.3134 21:0.88 22:0.1 23:0.52 24:12 
1 1:4 2:3 3:-1 4:0 5:21 6:0.4762 7:2 8:2 9:2 10:0.2381 11:0.1905 12:0.2857 13:18 14:1 15:0.4146 16:0.2927 17:0.1951 18:0.2195 19:0.2927 20:0.1831 21:1.8 22:-1 23:0.3333 24:11 
1 1:4 2:1 3:1 4:2 5:21 6:0.381 7:0 8:2 9:2 10:0.2381 11:0.1905 12:0.381 13:17 14:2 15:0.3968 16:0.2222 17:0.1587 18:0.2381 19:0.381 20:0.1579 21:2 22:0.2222 23:0.0667 24:11 
0.6876906446060479 1:4 2:11 3:2 4:1 5:20 6:0.55 7:0 8:3 9:2 10:0.1 11:0.15 12:0.35 13:16 14:4 15:0.4762 16:0.254 17:0.2222 18:0.254 19:0.2698 20:0.3559 21:0.91 22:0.2857 23:0.6842 24:12 
1 1:4 2:4 3:-1 4:0 5:26 6:0.5238 7:1 8:6 9:3 10:0.2857 11:0.2857 12:0.1905 13:18 14:2 15:0.4343 16:0.2626 17:0.2222 18:0.2121 19:0.303 20:0.2667 21:1.83 22:-1 23:0.3333 24:2 
1 1:4 2:10 3:1 4:1 5:21 6:0.4286 7:3 8:2 9:2 10:0.1905 11:0.381 12:0.381 13:18 14:4 15:0.4059 16:0.2277 17:0.1584 18:0.2475 19:0.3663 20:0.2826 21:1.29 22:0.25 23:0.4231 24:6 
0.4419642144570801 1:4 2:8 3:1 4:1 5:21 6:0.4286 7:3 8:2 9:2 10:0.1905 11:0.381 12:0.381 13:18 14:4 15:0.3814 16:0.2577 17:0.1546 18:0.2268 19:0.3608 20:0.2826 21:1.29 22:0.25 23:0.4231 24:7 
1 1:4 2:4 3:1 4:1 5:21 6:0.4286 7:3 8:2 9:2 10:0.1905 11:0.381 12:0.381 13:18 14:4 15:0.4216 16:0.2549 17:0.1863 18:0.2353 19:0.3235 20:0.2258 21:1.29 22:0.25 23:0.3208 24:6 
1 1:4 2:7 3:-1 4:0 5:21 6:0.4286 7:2 8:2 9:2 10:0.1905 11:0.381 12:0.381 13:18 14:4 15:0.4299 16:0.2617 17:0.1869 18:0.243 19:0.3084 20:0.28 21:1.29 22:-1 23:0.4 24:2 
1 1:4 2:7 3:1 4:1 5:21 6:0.5714 7:2 8:2 9:2 10:0.2381 11:0.3333 12:0.1905 13:18 14:1 15:0.4624 16:0.3011 17:0.2151 18:0.2473 19:0.2366 20:0.2955 21:1.1 22:0.1 23:0.4583 24:12 
1 1:4 2:6 3:-1 4:0 5:24 6:0.5 7:0 8:2 9:3 10:0.4 11:0.35 12:0.1 13:20 14:2 15:0.4699 16:0.2651 17:0.1807 18:0.2892 19:0.2651 20:0.1899 21:2 22:0 23:0.2727 24:10 
1 1:4 2:3 3:1 4:1 5:21 6:0.5 7:0 8:1 9:1 10:0.4 11:0.35 12:0.1 13:20 14:4 15:0.3678 16:0.3103 17:0.1724 18:0.1954 19:0.3218 20:0.125 21:0.91 22:0.1111 23:0.2683 24:10 
0.4562718626073494 1:4 2:3 3:1 4:1 5:21 6:0.5 7:1 8:1 9:1 10:0.4 11:0.35 12:0.1 13:20 14:4 15:0.4253 16:0.2529 17:0.1954 18:0.2299 19:0.3218 20:0.125 21:0.91 22:0.1111 23:0.2683 24:11 
1 1:4 2:3 3:2 4:1 5:22 6:0.5 7:1 8:1 9:2 10:0.4 11:0.35 12:0.1 13:20 14:3 15:0.382 16:0.2809 17:0.1685 18:0.2135 19:0.3371 20:0.125 21:1.25 22:0.3333 23:0.2308 24:13 
1 1:1 2:4 3:2 4:3 5:21 6:0.5714 7:1 8:2 9:2 10:0.3333 11:0.3333 12:0.0952 13:18 14:4 15:0.4342 16:0.2895 17:0.1974 18:0.2368 19:0.2763 20:0.1831 21:1.11 22:0.4 23:0.2903 24:12 
1 1:1 2:3 3:2 4:2 5:21 6:0.65 7:1 8:1 9:3 10:0.25 11:0.4 12:0.1 13:18 14:4 15:0.4804 16:0.1863 17:0.2353 18:0.2451 19:0.3333 20:0.2292 21:1 22:0.5 23:0.3214 24:8 
1 1:1 2:8 3:1 4:1 5:21 6:0.619 7:1 8:2 9:1 10:0.2857 11:0.381 12:0.0952 13:19 14:4 15:0.3867 16:0.2933 17:0.2 18:0.1867 19:0.32 20:0.2857 21:0.75 22:0.1 23:0.6 24:19 
1 1:1 2:3 3:1 4:1 5:21 6:0.619 7:1 8:2 9:1 10:0.2857 11:0.381 12:0.0952 13:19 14:4 15:0.4474 16:0.25 17:0.2237 18:0.2237 19:0.3026 20:0.1429 21:0.75 22:0.1429 23:0.2143 24:20 
1 1:4 2:7 3:-1 4:0 5:22 6:0.5 7:0 8:1 9:2 10:0.2727 11:0.2273 12:0.2273 13:20 14:3 15:0.3434 16:0.2727 17:0.2222 18:0.1212 19:0.3838 20:0.1646 21:1 22:0 23:0.2778 24:4 
0.1070005442882084 1:4 2:6 3:1 4:1 5:20 6:0.55 7:1 8:3 9:1 10:0.1 11:0.15 12:0.35 13:17 14:2 15:0.5077 16:0.1846 17:0.3077 18:0.2 19:0.3077 20:0.3091 21:0.91 22:0.25 23:0.7333 24:11 
1 1:1 2:3 3:2 4:3 5:21 6:0.4286 7:1 8:2 9:2 10:0.2857 11:0.3333 12:0.2857 13:17 14:3 15:0.4217 16:0.253 17:0.1807 18:0.241 19:0.3253 20:0.2329 21:0.9 22:0.3846 23:0.2903 24:17 
1 1:1 2:4 3:2 4:3 5:22 6:0.4762 7:2 8:2 9:3 10:0.2381 11:0.381 12:0.2857 13:18 14:3 15:0.4419 16:0.2326 17:0.186 18:0.2558 19:0.3256 20:0.1852 21:1.29 22:0.3846 23:0.25 24:15 
1 1:1 2:6 3:2 4:1 5:22 6:0.4762 7:2 8:2 9:2 10:0.2381 11:0.381 12:0.2857 13:19 14:3 15:0.3854 16:0.3021 17:0.1771 18:0.2083 19:0.3125 20:0.1868 21:0.9 22:0.4 23:0.28 24:8 
1 1:1 2:6 3:2 4:2 5:21 6:0.4762 7:2 8:2 9:1 10:0.2381 11:0.381 12:0.2857 13:19 14:3 15:0.4627 16:0.194 17:0.1642 18:0.2985 19:0.3433 20:0.2333 21:0.9 22:0.3333 23:0.6 24:22 
1 1:3 2:1 3:-1 4:0 5:21 6:0.4286 7:1 8:2 9:2 10:0.1905 11:0.2381 12:0.381 13:18 14:4 15:0.3 16:0.37 17:0.14 18:0.16 19:0.33 20:0.1282 21:1 22:0 23:0.1111 24:6 
-0.06415314454109543 1:2 2:-1 3:5 4:3 5:23 6:0.5 7:4 8:2 9:4 10:0.2083 11:0.2917 12:0.2917 13:18 14:-1 15:0.4792 16:0.2292 17:0.2083 18:0.2708 19:0.2917 20:0.1818 21:0.45 22:0.193 23:-1 24:37 
-0.01813411321841373 1:2 2:2 3:-1 4:0 5:26 6:0.4762 7:1 8:5 9:3 10:0.1429 11:0.2857 12:0.381 13:18 14:3 15:0.4393 16:0.2523 17:0.2056 18:0.2336 19:0.3084 20:0.2039 21:0.36 22:-1 23:0.2069 24:4 
-0.03816895005521367 1:1 2:2 3:-1 4:0 5:25 6:0.55 7:1 8:5 9:2 10:0.1 11:0.3 12:0.35 13:19 14:1 15:0.4466 16:0.2427 17:0.2039 18:0.2427 19:0.3107 20:0.1919 21:0.82 22:0 23:0.2222 24:7 
-0.1353319478179868 1:1 2:1 3:5 4:2 5:21 6:0.4762 7:5 8:2 9:3 10:0.1905 11:0.3333 12:0.3333 13:16 14:2 15:0.4483 16:0.2414 17:0.1897 18:0.2586 19:0.3103 20:0.2222 21:1.75 22:0.1489 23:0.1667 24:32 
-0.07835823482385892 1:1 2:1 3:5 4:2 5:23 6:0.5217 7:5 8:2 9:3 10:0.1739 11:0.3913 12:0.3043 13:18 14:4 15:0.4839 16:0.2258 17:0.2097 18:0.2742 19:0.2903 20:0.2069 21:1.17 22:0.1628 23:0.1667 24:30 
-0.01443491897130992 1:4 2:-1 3:2 4:6 5:22 6:0.4091 7:2 8:5 9:3 10:0.2727 11:0.2727 12:0.3182 13:11 14:2 15:0.383 16:0.234 17:0.1702 18:0.2128 19:0.383 20:0.4419 21:5 22:0.2941 23:0 24:36 
-1 1:4 2:7 3:1 4:1 5:22 6:0.5909 7:1 8:2 9:4 10:0.0909 11:0.3182 12:0.3182 13:15 14:4 15:0.4632 16:0.1895 17:0.2105 18:0.2526 19:0.3474 20:0.4066 21:0.62 22:0.1 23:0.4894 24:12 
-0.004569963945990093 1:4 2:-1 3:2 4:6 5:23 6:0.35 7:2 8:5 9:3 10:0.15 11:0.2 12:0.5 13:12 14:4 15:0.383 16:0.234 17:0.1702 18:0.2128 19:0.383 20:0.4419 21:0 22:0.2941 23:-1 24:36 
-0.05306589456588633 1:4 2:-1 3:2 4:6 5:23 6:0.3913 7:2 8:6 9:3 10:0.3043 11:0.2609 12:0.3043 13:11 14:4 15:0.3878 16:0.2449 17:0.1837 18:0.2041 19:0.3673 20:0.4667 21:5 22:0.2727 23:0 24:35 
-0.08954955511786006 1:3 2:7 3:1 4:1 5:20 6:0.6 7:1 8:2 9:4 10:0.1 11:0.35 12:0.3 13:13 14:4 15:0.4731 16:0.1828 17:0.2151 18:0.2581 19:0.3441 20:0.4157 21:1.33 22:0.0909 23:0.4694 24:13 
-0.009475245687949364 1:2 2:-1 3:2 4:6 5:24 6:0.381 7:2 8:6 9:3 10:0.1429 11:0.1905 12:0.4762 13:12 14:4 15:0.3878 16:0.2449 17:0.1837 18:0.2041 19:0.3673 20:0.4667 21:0 22:0.2727 23:-1 24:35 
-0.7348045851961508 1:3 2:5 3:2 4:1 5:23 6:0.4762 7:0 8:3 9:3 10:0.4286 11:0.2857 12:0.0952 13:17 14:1 15:0.4894 16:0.266 17:0.2553 18:0.234 19:0.2447 20:0.2667 21:0.7 22:0.1667 23:0.3043 24:9 
-0.8651766569393035 1:3 2:5 3:2 4:1 5:21 6:0.5714 7:0 8:3 9:3 10:0.1429 11:0.1429 12:0.2857 13:15 14:1 15:0.4898 16:0.2653 17:0.2551 18:0.2347 19:0.2449 20:0.2553 21:0.3 22:0.25 23:0.2593 24:7 
-0.01037435193382775 1:4 2:-1 3:2 4:5 5:27 6:0.5217 7:3 8:4 9:2 10:0.2174 11:0.1739 12:0.2609 13:19 14:1 15:0.5172 16:0.2241 17:0.2069 18:0.3103 19:0.2586 20:0.2308 21:0.9 22:0.2 23:0 24:30 
-0.03237923193581745 1:1 2:4 3:2 4:5 5:21 6:0.381 7:1 8:4 9:1 10:0.2381 11:0.2381 12:0.381 13:17 14:2 15:0.5 16:0.2333 17:0.2 18:0.3 19:0.2667 20:0.2222 21:1.11 22:0.2083 23:0.3333 24:29 
-0.2488711800653136 1:1 2:4 3:-1 4:0 5:27 6:0.4783 7:0 8:2 9:5 10:0.4348 11:0.3043 12:0.087 13:20 14:4 15:0.4904 16:0.25 17:0.2308 18:0.2596 19:0.2596 20:0.2245 21:0.91 22:0 23:0.25 24:5 
-0.003852796829477164 1:3 2:4 3:2 4:5 5:20 6:0.4 7:1 8:4 9:1 10:0.2 11:0.25 12:0.4 13:16 14:2 15:0.5172 16:0.2241 17:0.2069 18:0.3103 19:0.2586 20:0.2308 21:1.11 22:0.2 23:0.3333 24:30 
-0.06651568860745308 1:1 2:4 3:-1 4:0 5:29 6:0.4167 7:0 8:2 9:6 10:0.5 11:0.25 12:0.0833 13:20 14:2 15:0.4865 16:0.2613 17:0.2252 18:0.2613 19:0.2523 20:0.2381 21:0.64 22:-1 23:0.2308 24:1 
-0.004967755398323333 1:1 2:3 3:2 4:5 5:21 6:0.381 7:2 8:4 9:2 10:0.1905 11:0.2857 12:0.4286 13:16 14:4 15:0.4815 16:0.2407 17:0.1852 18:0.2963 19:0.2778 20:0.25 21:1.29 22:0.1852 23:0.4286 24:32 
-1 1:4 2:4 3:-1 4:0 5:21 6:0.4762 7:3 8:2 9:2 10:0.2857 11:0.2857 12:0.2381 13:17 14:3 15:0.6058 16:0.1731 17:0.2596 18:0.3462 19:0.2212 20:0.2653 21:1 22:0 23:0.3214 24:7 
-0.1204964209051592 1:2 2:4 3:-1 4:0 5:24 6:0.5417 7:3 8:2 9:2 10:0.125 11:0.2917 12:0.3333 13:20 14:2 15:0.6273 16:0.1636 17:0.2727 18:0.3545 19:0.2091 20:0.25 21:1.1 22:0 23:0.3214 24:4 
-0.05977801108442053 1:1 2:-1 3:2 4:3 5:26 6:0.5833 7:2 8:4 9:6 10:0.2083 11:0.375 12:0.2083 13:14 14:-1 15:0.64 16:0.18 17:0.24 18:0.4 19:0.18 20:0.3636 21:1.6 22:0.1613 23:-1 24:34 
-0.231850850275818 1:4 2:3 3:3 4:3 5:22 6:0.6364 7:1 8:2 9:4 10:0.0455 11:0.3182 12:0.3182 13:15 14:1 15:0.5 16:0.2121 17:0.1818 18:0.3182 19:0.2879 20:0.2581 21:0.3 22:0.1628 23:0.1579 24:26 
-0.1431822326115163 1:3 2:7 3:2 4:1 5:20 6:0.35 7:0 8:3 9:2 10:0.15 11:0.15 12:0.5 13:16 14:3 15:0.411 16:0.2603 17:0.274 18:0.137 19:0.3288 20:0.3231 21:3.33 22:0.125 23:0.52 24:23 
-0.03920368234709155 1:2 2:7 3:2 4:1 5:23 6:0.3913 7:0 8:3 9:2 10:0.1739 11:0.1304 12:0.4348 13:19 14:1 15:0.4156 16:0.2597 17:0.2727 18:0.1429 19:0.3247 20:0.3043 21:1.83 22:0.1429 23:0.5652 24:21 
-0.06463488263903905 1:4 2:7 3:-1 4:0 5:24 6:0.5 7:3 8:6 9:2 10:0.15 11:0.2 12:0.35 13:16 14:1 15:0.4159 16:0.2566 17:0.2389 18:0.177 19:0.3274 20:0.3143 21:0.45 22:-1 23:0.3443 24:1 
-0.1383021760215786 1:1 2:-1 3:7 4:3 5:23 6:0.5909 7:1 8:2 9:5 10:0.3182 11:0.3182 12:0.0909 13:16 14:4 15:0.5357 16:0.2143 17:0.2143 18:0.3214 19:0.25 20:0.2308 21:0.89 22:0.2857 23:0 24:32 
-0.02573949633083663 1:3 2:1 3:7 4:3 5:24 6:0.6087 7:1 8:2 9:4 10:0.3478 11:0.3913 12:0.0435 13:18 14:3 15:0.5484 16:0.2097 17:0.2258 18:0.3226 19:0.2419 20:0.2069 21:1.25 22:0.32 23:0.0909 24:29 
-0.03181368151114321 1:4 2:-1 3:7 4:4 5:22 6:0.4762 7:1 8:2 9:5 10:0.0476 11:0.3333 12:0.4762 13:15 14:1 15:0.5227 16:0.2045 17:0.1818 18:0.3409 19:0.2727 20:0.25 21:1.4 22:0.2647 23:-1 24:38 
-0.02697892453274981 1:1 2:2 3:2 4:1 5:23 6:0.4091 7:1 8:5 9:3 10:0.3636 11:0.2727 12:0.2273 13:15 14:4 15:0.4898 16:0.2347 17:0.2347 18:0.2551 19:0.2755 20:0.2553 21:0 22:0.2857 23:0.2308 24:9 
-0.3402790091974137 1:4 2:2 3:3 4:1 5:23 6:0.4091 7:1 8:4 9:3 10:0.3636 11:0.2727 12:0.2273 13:16 14:2 15:0.5 16:0.2188 17:0.2396 18:0.2604 19:0.2812 20:0.2391 21:0 22:0.375 23:0.24 24:10 
-0.3105586687775324 1:4 2:2 3:-1 4:0 5:26 6:0.4348 7:2 8:7 9:3 10:0.2174 11:0.0435 12:0.3478 13:16 14:1 15:0.4821 16:0.2411 17:0.2321 18:0.25 19:0.2768 20:0.2593 21:0.4 22:-1 23:0.2 24:2 
-0.2114767711960963 1:4 2:1 3:7 4:3 5:20 6:0.55 7:2 8:2 9:3 10:0.05 11:0.3 12:0.4 13:16 14:1 15:0.5303 16:0.2121 17:0.2121 18:0.3182 19:0.2576 20:0.1935 21:0.89 22:0.3478 23:0.2174 24:27 
-0.1328254047571881 1:4 2:2 3:1 4:1 5:25 6:0.4545 7:1 8:6 9:3 10:0.1364 11:0.0455 12:0.4091 13:16 14:3 15:0.49 16:0.23 17:0.24 18:0.25 19:0.28 20:0.2708 21:5 22:0.1667 23:0.24 24:8 
-0.5575068214761134 1:2 2:2 3:2 4:1 5:25 6:0.4545 7:1 8:5 9:3 10:0.1364 11:0.0455 12:0.4091 13:17 14:4 15:0.4898 16:0.2347 17:0.2347 18:0.2551 19:0.2755 20:0.2553 21:2.5 22:0.2857 23:0.25 24:9 
-0.03341693173439947 1:3 2:-1 3:2 4:3 5:27 6:0.6522 7:3 8:9 9:3 10:0.087 11:0.2609 12:0.2609 13:13 14:4 15:0.5192 16:0.1154 17:0.2885 18:0.2308 19:0.3654 20:0.4091 21:0.27 22:0.3158 23:-1 24:23 
-0.0009392829079975428 1:4 2:-1 3:2 4:4 5:22 6:0.3478 7:0 8:3 9:5 10:0.4348 11:0.1304 12:0.2174 13:12 14:-1 15:0.3636 16:0.2955 17:0.2273 18:0.1364 19:0.3409 20:0.3846 21:0.71 22:0.1429 23:-1 24:32 
-0.09277935806976084 1:2 2:3 3:2 4:2 5:20 6:0.5 7:0 8:2 9:3 10:0.15 11:0.2 12:0.35 13:16 14:3 15:0.4286 16:0.2714 17:0.2571 18:0.1714 19:0.3 20:0.2923 21:2 22:0.1333 23:0.4815 24:19 
-0.3879716228130691 1:3 2:3 3:-1 4:0 5:22 6:0.5909 7:1 8:2 9:3 10:0.2273 11:0.4091 12:0.1818 13:18 14:1 15:0.47 16:0.26 17:0.27 18:0.2 19:0.27 20:0.2421 21:0.89 22:-1 23:0.3455 24:1 
-0.7102728470559672 1:1 2:3 3:-1 4:0 5:22 6:0.6 7:1 8:2 9:3 10:0.2 11:0.15 12:0.2 13:18 14:4 15:0.4592 16:0.2653 17:0.2653 18:0.1939 19:0.2755 20:0.2473 21:0.8 22:0 23:0.3585 24:4 
-0.01908895142692962 1:4 2:3 3:2 4:3 5:21 6:0.4286 7:0 8:2 9:4 10:0.1905 11:0.0952 12:0.381 13:15 14:1 15:0.375 16:0.3036 17:0.2321 18:0.1429 19:0.3214 20:0.3333 21:1.2 22:0.1364 23:0.6364 24:26 
-1 1:2 2:4 3:1 4:1 5:21 6:0.5714 7:1 8:2 9:2 10:0.2381 11:0.381 12:0.1905 13:18 14:3 15:0.5517 16:0.2069 17:0.3218 18:0.2299 19:0.2414 20:0.1948 21:0.8 22:0.1429 23:0.2571 24:6 
-0.3904889602678361 1:2 2:1 3:5 4:2 5:20 6:0.45 7:3 8:2 9:2 10:0.1 11:0.2 12:0.45 13:17 14:2 15:0.3898 16:0.2542 17:0.1695 18:0.2203 19:0.3559 20:0.1071 21:0.45 22:0.3143 23:0.1111 24:28 
-0.9689750258877647 1:4 2:2 3:5 4:1 5:21 6:0.4286 7:2 8:2 9:2 10:0.2381 11:0.1905 12:0.3333 13:18 14:1 15:0.3867 16:0.2533 17:0.1733 18:0.2133 19:0.36 20:0.1389 21:0.75 22:0.3684 23:0.1875 24:20 
-1 1:3 2:2 3:5 4:1 5:23 6:0.3913 7:2 8:2 9:2 10:0.3043 11:0.2609 12:0.3043 13:20 14:4 15:0.3924 16:0.2532 17:0.1772 18:0.2152 19:0.3544 20:0.1316 21:1.5 22:0.4667 23:0.1875 24:18 
-0.01868728755065152 1:3 2:1 3:5 4:2 5:20 6:0.4 7:4 8:2 9:2 10:0.1 11:0.2 12:0.5 13:17 14:3 15:0.3455 16:0.2727 17:0.1455 18:0.2 19:0.3818 20:0.1154 21:0.5 22:0.2821 23:0.1429 24:30 
-1 1:3 2:4 3:1 4:1 5:21 6:0.5238 7:1 8:2 9:3 10:0.3333 11:0.381 12:0.1429 13:17 14:3 15:0.4045 16:0.2584 17:0.1685 18:0.236 19:0.3371 20:0.3012 21:0.4 22:0.5 23:0.4146 24:4 
-0.2055318753765494 1:3 2:4 3:-1 4:0 5:22 6:0.4091 7:1 8:2 9:3 10:0.1818 11:0.1818 12:0.4091 13:17 14:2 15:0.4066 16:0.2527 17:0.1648 18:0.2418 19:0.3407 20:0.3176 21:5 22:0 23:0.4146 24:3 
-0.1034256968623627 1:3 2:4 3:-1 4:0 5:24 6:0.4583 7:1 8:2 9:4 10:0.1667 11:0.2083 12:0.375 13:18 14:3 15:0.4211 16:0.2421 17:0.1789 18:0.2421 19:0.3368 20:0.3258 21:3.33 22:-1 23:0.4146 24:1 
-0.04158653777954865 1:4 2:5 3:-1 4:0 5:21 6:0.4286 7:0 8:2 9:3 10:0.3333 11:0.0952 12:0.2381 13:17 14:1 15:0.3375 16:0.275 17:0.25 18:0.0875 19:0.3875 20:0.2333 21:2 22:0 23:0.3684 24:14 
-1 1:3 2:5 3:-1 4:0 5:21 6:0.4762 7:0 8:1 9:2 10:0.2857 11:0.2381 12:0.2381 13:19 14:4 15:0.375 16:0.2614 17:0.2614 18:0.1136 19:0.3636 20:0.2059 21:1.38 22:0 23:0.4074 24:10 
-1 1:4 2:5 3:-1 4:0 5:24 6:0.3913 7:0 8:2 9:3 10:0.1739 11:0.1739 12:0.4348 13:20 14:1 15:0.375 16:0.2614 17:0.2614 18:0.1136 19:0.3636 20:0.2059 21:0.36 22:0 23:0.3333 24:10 
-0.4221704154365023 1:3 2:5 3:-1 4:0 5:22 6:0.5 7:0 8:1 9:3 10:0.2727 11:0.2273 12:0.2273 13:19 14:4 15:0.375 16:0.2614 17:0.2614 18:0.1136 19:0.3636 20:0.2059 21:1.83 22:0 23:0.36 24:10 
-1 1:4 2:5 3:-1 4:0 5:24 6:0.3478 7:0 8:2 9:3 10:0.1739 11:0.1739 12:0.4783 13:20 14:3 15:0.3605 16:0.2674 17:0.2558 18:0.1047 19:0.3721 20:0.2121 21:0.4 22:0 23:0.3684 24:11 
-0.1133233201371859 1:4 2:1 3:-1 4:0 5:22 6:0.4545 7:4 8:1 9:3 10:0.2727 11:0.3182 12:0.2727 13:19 14:3 15:0.3933 16:0.3034 17:0.2135 18:0.1798 19:0.3034 20:0.0959 21:1.14 22:-1 23:0.0667 24:1 
-0.8118175323367035 1:1 2:1 3:-1 4:0 5:22 6:0.5 7:3 8:1 9:3 10:0.2727 11:0.3182 12:0.2273 13:19 14:2 15:0.3908 16:0.3103 17:0.2184 18:0.1724 19:0.2989 20:0.0986 21:1.29 22:0 23:0.0714 24:5 
-0.2685093924433883 1:3 2:5 3:1 4:2 5:23 6:0.4545 7:1 8:1 9:2 10:0.4091 11:0.4545 12:0.1364 13:21 14:2 15:0.4507 16:0.2113 17:0.2254 18:0.2254 19:0.338 20:0.1176 21:1 22:0.1111 23:0.3077 24:20 
-1 1:4 2:5 3:1 4:2 5:23 6:0.4286 7:1 8:1 9:2 10:0.1905 11:0 12:0.381 13:21 14:3 15:0.4384 16:0.2192 17:0.2192 18:0.2192 19:0.3425 20:0.1143 21:0.78 22:0.12 23:0.2857 24:19 
-0.07419758220368165 1:4 2:4 3:2 4:1 5:23 6:0.3636 7:0 8:1 9:5 10:0.4091 11:0.2727 12:0.2273 13:18 14:4 15:0.3729 16:0.322 17:0.2034 18:0.1695 19:0.3051 20:0.2143 21:1.17 22:0.1429 23:0.4667 24:19 
-0.3276912294138271 1:1 2:5 3:-1 4:0 5:25 6:0.4583 7:2 8:2 9:4 10:0.3333 11:0.4167 12:0.2083 13:20 14:4 15:0.4157 16:0.2809 17:0.2022 18:0.2135 19:0.3034 20:0.2093 21:1.43 22:-1 23:0.3 24:4 
-0.307601708874861 1:2 2:10 3:-1 4:0 5:25 6:0.3478 7:2 8:3 9:3 10:0.3478 11:0.1304 12:0.3043 13:19 14:3 15:0.4865 16:0.1892 17:0.2342 18:0.2523 19:0.3243 20:0.3458 21:0.67 22:-1 23:0.4754 24:1 
-0.228505673141768 1:3 2:10 3:-1 4:0 5:25 6:0.4167 7:2 8:3 9:3 10:0.1667 11:0.25 12:0.4167 13:20 14:3 15:0.4862 16:0.1927 17:0.2294 18:0.2569 19:0.3211 20:0.3333 21:0.9 22:-1 23:0.4828 24:1 
-0.06095553139958738 1:2 2:6 3:3 4:3 5:24 6:0.7143 7:1 8:10 9:1 10:0.0952 11:0.4286 12:0.1905 13:14 14:2 15:0.5781 16:0.1406 17:0.2656 18:0.3125 19:0.2812 20:0.4667 21:1 22:0.1556 23:0.7333 24:27 
-0.3098771256953163 1:4 2:10 3:-1 4:0 5:23 6:0.3636 7:2 8:3 9:3 10:0.1818 11:0.2273 12:0.4545 13:18 14:1 15:0.4757 16:0.1942 17:0.2233 18:0.2524 19:0.3301 20:0.3535 21:4.5 22:0 23:0.5 24:6 
-0.06277979258048128 1:1 2:6 3:3 4:2 5:26 6:0.6087 7:1 8:10 9:2 10:0.1739 11:0.3478 12:0.2174 13:15 14:2 15:0.5211 16:0.169 17:0.2394 18:0.2817 19:0.3099 20:0.4328 21:0.55 22:0.1579 23:0.5789 24:23 
-0.2186070292750683 1:4 2:10 3:-1 4:0 5:22 6:0.4091 7:2 8:3 9:2 10:0.1818 11:0.2273 12:0.4091 13:18 14:3 15:0.4862 16:0.1927 17:0.2294 18:0.2569 19:0.3211 20:0.3333 21:1 22:-1 23:0.4603 24:1 
-0.7979268867255344 1:4 2:10 3:-1 4:0 5:23 6:0.2857 7:2 8:3 9:3 10:0.381 11:0.0952 12:0.3333 13:18 14:3 15:0.4757 16:0.1942 17:0.2233 18:0.2524 19:0.3301 20:0.3535 21:0.57 22:0 23:0.5 24:6 
-1 1:4 2:2 3:-1 4:0 5:23 6:0.3913 7:1 8:2 9:2 10:0.2174 11:0 12:0.3913 13:20 14:4 15:0.3523 16:0.2955 17:0.1477 18:0.2045 19:0.3523 20:0.1429 21:0.8 22:0 23:0.1579 24:4 
-1 1:4 2:2 3:-1 4:0 5:22 6:0.4545 7:2 8:2 9:2 10:0.3182 11:0.4091 12:0.2273 13:19 14:4 15:0.3556 16:0.2889 17:0.1444 18:0.2111 19:0.3556 20:0.1395 21:0.9 22:-1 23:0.1429 24:2 
-0.228611327636122 1:4 2:2 3:-1 4:0 5:20 6:0.4 7:2 8:2 9:3 10:0.25 11:0.05 12:0.35 13:15 14:4 15:0.3441 16:0.2903 17:0.1398 18:0.2043 19:0.3656 20:0.1685 21:2 22:-1 23:0.12 24:1 
-0.005914951945311562 1:2 2:2 3:2 4:2 5:20 6:0.5 7:1 8:2 9:4 10:0.15 11:0.2 12:0.35 13:15 14:1 15:0.4828 16:0.2414 17:0.2759 18:0.2069 19:0.2759 20:0.2157 21:2.2 22:0.1429 23:0.3333 24:25 
-0.03169682906182834 1:1 2:-1 3:3 4:2 5:20 6:0.35 7:2 8:3 9:3 10:0.35 11:0.1 12:0.3 13:15 14:-1 15:0.3659 16:0.3659 17:0.1463 18:0.2195 19:0.2683 20:0.0909 21:4.5 22:0.1429 23:-1 24:29 
-0.214607976470751 1:1 2:2 3:-1 4:0 5:23 6:0.3043 7:1 8:1 9:1 10:0.2609 11:0.1304 12:0.4348 13:22 14:1 15:0.3117 16:0.3377 17:0.1558 18:0.1558 19:0.3506 20:0.0685 21:0.67 22:0 23:0.1111 24:5 
-1 1:2 2:2 3:-1 4:0 5:23 6:0.4348 7:1 8:1 9:1 10:0.4348 11:0.2609 12:0.1304 13:22 14:1 15:0.3176 16:0.3412 17:0.1647 18:0.1529 19:0.3412 20:0.0864 21:0.7 22:-1 23:0.1429 24:1 
-1 1:1 2:2 3:-1 4:0 5:24 6:0.375 7:1 8:1 9:1 10:0.4167 11:0.2083 12:0.2083 13:23 14:4 15:0.3038 16:0.3418 17:0.1519 18:0.1519 19:0.3544 20:0.0667 21:1.33 22:0 23:0.1111 24:4 
-1 1:4 2:2 3:-1 4:0 5:21 6:0.4286 7:1 8:1 9:1 10:0.381 11:0.2381 12:0.1905 13:20 14:4 15:0.3288 16:0.3288 17:0.1644 18:0.1644 19:0.3425 20:0.0725 21:1.67 22:0 23:0.1111 24:7 
-0.2751059839541933 1:1 2:2 3:-1 4:0 5:20 6:0.35 7:1 8:1 9:1 10:0.2 11:0.15 12:0.45 13:19 14:4 15:0.338 16:0.3239 17:0.169 18:0.169 19:0.338 20:0.0746 21:0.6 22:0 23:0.1111 24:8 
-1 1:3 2:2 3:-1 4:0 5:22 6:0.4545 7:1 8:1 9:1 10:0.4091 11:0.2273 12:0.1364 13:21 14:4 15:0.338 16:0.3239 17:0.169 18:0.169 19:0.338 20:0.0746 21:1.43 22:0 23:0.1304 24:8 
-1 1:3 2:2 3:-1 4:0 5:21 6:0.4286 7:1 8:1 9:1 10:0.4286 11:0.2381 12:0.1429 13:20 14:3 15:0.338 16:0.3239 17:0.169 18:0.169 19:0.338 20:0.0746 21:1.67 22:0 23:0.12 24:8 
-1 1:3 2:2 3:-1 4:0 5:23 6:0.4348 7:1 8:1 9:1 10:0.4348 11:0.2174 12:0.1304 13:22 14:3 15:0.338 16:0.3239 17:0.169 18:0.169 19:0.338 20:0.0746 21:1.43 22:0 23:0.1429 24:8 
-1 1:4 2:2 3:-1 4:0 5:22 6:0.4091 7:1 8:1 9:1 10:0.4091 11:0.2273 12:0.1818 13:21 14:3 15:0.3288 16:0.3288 17:0.1644 18:0.1644 19:0.3425 20:0.0725 21:1.67 22:0 23:0.12 24:7 
-0.1175731094824541 1:4 2:1 3:2 4:1 5:22 6:0.4091 7:0 8:2 9:1 10:0.1818 11:0.1818 12:0.4091 13:20 14:4 15:0.3175 16:0.3492 17:0.1587 18:0.1587 19:0.3333 20:0.1 21:1.8 22:0.0909 23:0.2222 24:25 
-0.007305372516639778 1:4 2:1 3:3 4:2 5:32 6:0.3333 7:1 8:8 9:2 10:0.375 11:0.125 12:0.2917 13:23 14:4 15:0.3026 16:0.3421 17:0.1447 18:0.1579 19:0.3553 20:0.1549 21:0.9 22:0.25 23:0.1765 24:18 
-0.02360568107364596 1:4 2:1 3:3 4:2 5:31 6:0.3043 7:1 8:8 9:3 10:0.2174 11:0.1739 12:0.4783 13:21 14:4 15:0.2833 16:0.35 17:0.1333 18:0.15 19:0.3667 20:0.2 21:0.9 22:0.1667 23:0.5 24:26 
-0.003276776120557332 1:1 2:-1 3:2 4:2 5:30 6:0.55 7:0 8:10 9:2 10:0.25 11:0.4 12:0.2 13:19 14:4 15:0.4516 16:0.2742 17:0.2903 18:0.1613 19:0.2742 20:0.2222 21:0.9 22:0.2308 23:0 24:20 
-0.07208887764956576 1:3 2:-1 3:2 4:2 5:33 6:0.4583 7:0 8:10 9:3 10:0.375 11:0.3333 12:0.1667 13:19 14:-1 15:0.4828 16:0.2586 17:0.3103 18:0.1724 19:0.2586 20:0.24 21:5 22:0.2 23:-1 24:22 
-0.004009562439648691 1:3 2:-1 3:2 4:2 5:30 6:0.5 7:0 8:10 9:3 10:0.35 11:0.35 12:0.15 13:17 14:4 15:0.4815 16:0.2593 17:0.3148 18:0.1667 19:0.2593 20:0.2609 21:2.75 22:0.1765 23:-1 24:24 
-0.02695727167273515 1:4 2:-1 3:2 4:2 5:22 6:0.5 7:0 8:10 9:2 10:0.1818 11:0.0455 12:0.3182 13:11 14:4 15:0.4545 16:0.2727 17:0.3182 18:0.1364 19:0.2727 20:0.3333 21:3 22:0.1364 23:0 24:29 
-0.007745942130222453 1:4 2:-1 3:2 4:2 5:31 6:0.5238 7:0 8:10 9:2 10:0.2857 11:0.381 12:0.1905 13:20 14:4 15:0.4667 16:0.2667 17:0.3 18:0.1667 19:0.2667 20:0.2308 21:1.11 22:0.2143 23:-1 24:21 
-0.6306027652008726 1:3 2:4 3:2 4:2 5:23 6:0.4762 7:0 8:2 9:4 10:0.4286 11:0.2857 12:0.0952 13:18 14:1 15:0.5104 16:0.2396 17:0.25 18:0.2604 19:0.25 20:0.1951 21:0.7 22:0.1765 23:0.2105 24:12 
-0.609206662036197 1:3 2:4 3:2 4:2 5:23 6:0.5238 7:1 8:2 9:4 10:0.381 11:0.381 12:0.0952 13:18 14:3 15:0.52 16:0.23 17:0.25 18:0.27 19:0.25 20:0.186 21:0.91 22:0.2308 23:0.1905 24:8 
-0.0077105170541604 1:2 2:-1 3:2 4:6 5:23 6:0.5217 7:1 8:4 9:1 10:0.2174 11:0.1739 12:0.2609 13:19 14:2 15:0.5161 16:0.2258 17:0.2258 18:0.2903 19:0.2581 20:0.1667 21:0.82 22:0.2157 23:0 24:30 
-1 1:3 2:4 3:2 4:2 5:22 6:0.5909 7:0 8:2 9:4 10:0.0909 11:0.1818 12:0.3182 13:17 14:3 15:0.5104 16:0.2396 17:0.25 18:0.2604 19:0.25 20:0.1951 21:1.57 22:0.1765 23:0.2 24:12 
-0.2205528461216644 1:1 2:5 3:-1 4:0 5:23 6:0.2609 7:1 8:2 9:3 10:0.5652 11:0.2174 12:0.1739 13:19 14:1 15:0.3333 16:0.3111 17:0.1444 18:0.1889 19:0.3556 20:0.1954 21:1.5 22:-1 23:0.2727 24:7 
-0.07334675655373914 1:1 2:5 3:-1 4:0 5:24 6:0.2917 7:1 8:7 9:3 10:0.5 11:0.1667 12:0.2083 13:14 14:1 15:0.3299 16:0.3196 17:0.1546 18:0.1753 19:0.3505 20:0.2553 21:5 22:-1 23:0.2222 24:1 
-1 1:3 2:7 3:1 4:1 5:22 6:0.4545 7:1 8:1 9:2 10:0.4091 11:0.4545 12:0.1364 13:20 14:2 15:0.4366 16:0.2394 17:0.2535 18:0.1831 19:0.3239 20:0.2424 21:1.29 22:0.0667 23:0.6 24:10 
-1 1:3 2:7 3:1 4:1 5:20 6:0.45 7:1 8:2 9:2 10:0.45 11:0.45 12:0.1 13:17 14:2 15:0.4426 16:0.2295 17:0.2623 18:0.1803 19:0.3279 20:0.2857 21:1.8 22:0.04 23:0.6842 24:15 
-1 1:2 2:7 3:1 4:1 5:21 6:0.45 7:1 8:1 9:2 10:0.15 11:0 12:0.4 13:19 14:3 15:0.4203 16:0.2464 17:0.2464 18:0.1739 19:0.3333 20:0.25 21:0.78 22:0.0588 23:0.6 24:11 
-1 1:2 2:6 3:1 4:1 5:22 6:0.5238 7:1 8:2 9:3 10:0.0476 11:0 12:0.4286 13:18 14:4 15:0.4603 16:0.2222 17:0.2698 18:0.1905 19:0.3175 20:0.2759 21:0.5 22:0.0435 23:0.6471 24:14 
-0.5446485868550441 1:4 2:5 3:-1 4:0 5:21 6:0.4286 7:3 8:1 9:1 10:0.1905 11:0.0952 12:0.381 13:20 14:1 15:0.4157 16:0.2697 17:0.191 18:0.2247 19:0.3146 20:0.1628 21:0.64 22:-1 23:0.3043 24:4 
-0.1302386858398054 1:3 2:5 3:-1 4:0 5:21 6:0.4762 7:3 8:3 9:1 10:0.2381 11:0.381 12:0.2857 13:18 14:3 15:0.4086 16:0.2688 17:0.1935 18:0.2151 19:0.3226 20:0.2 21:4.5 22:-1 23:0.28 24:2 
-0.6119568800098604 1:3 2:1 3:1 4:2 5:21 6:0.35 7:1 8:2 9:2 10:0.35 11:0.15 12:0.3 13:18 14:4 15:0.2778 16:0.3148 17:0.1111 18:0.1667 19:0.4074 20:0.12 21:1.11 22:0.1176 23:0.1111 24:21 
-0.0246895711618726 1:3 2:2 3:-1 4:0 5:21 6:0.4762 7:1 8:1 9:2 10:0.381 11:0.4762 12:0.1429 13:19 14:4 15:0.3452 16:0.3095 17:0.1429 18:0.2024 19:0.3452 20:0.125 21:1.25 22:0 23:0.1579 24:6 
-0.145709089638415 1:4 2:2 3:-1 4:0 5:23 6:0.4348 7:1 8:1 9:3 10:0.3478 11:0.4348 12:0.2174 13:20 14:4 15:0.3333 16:0.3111 17:0.1444 18:0.1889 19:0.3556 20:0.1395 21:0.78 22:-1 23:0.15 24:3 
-1 1:4 2:3 3:4 4:1 5:20 6:0.55 7:1 8:1 9:3 10:0.25 11:0.25 12:0.2 13:17 14:4 15:0.4634 16:0.2561 17:0.2561 18:0.2073 19:0.2805 20:0.1831 21:0.88 22:0.3333 23:0.2941 24:11 
-0.08865560248112603 1:4 2:-1 3:4 4:3 5:21 6:0.4 7:0 8:3 9:4 10:0.35 11:0.3 12:0.25 13:15 14:2 15:0.46 16:0.26 17:0.26 18:0.2 19:0.28 20:0.2308 21:0.6 22:0.1818 23:-1 24:27 
-1 1:4 2:3 3:1 4:1 5:22 6:0.5 7:1 8:1 9:3 10:0.2727 11:0.2273 12:0.2273 13:19 14:2 15:0.4512 16:0.2561 17:0.2439 18:0.2073 19:0.2927 20:0.1948 21:1 22:0.2 23:0.3333 24:11 
-0.01380988421155288 1:4 2:-1 3:1 4:4 5:20 6:0.4286 7:0 8:3 9:4 10:0.3333 11:0.2857 12:0.2381 13:13 14:-1 15:0.4146 16:0.2683 17:0.2439 18:0.1707 19:0.3171 20:0.2778 21:0.56 22:0.1373 23:-1 24:32 
-0.9219612674451645 1:2 2:3 3:1 4:1 5:22 6:0.5455 7:1 8:1 9:3 10:0.2727 11:0.2273 12:0.1818 13:19 14:1 15:0.4643 16:0.25 17:0.25 18:0.2143 19:0.2857 20:0.1899 21:1.43 22:0.25 23:0.3158 24:10 
-1 1:4 2:3 3:1 4:1 5:22 6:0.4762 7:1 8:1 9:3 10:0.1905 11:0.2857 12:0.3333 13:19 14:1 15:0.4643 16:0.25 17:0.25 18:0.2143 19:0.2857 20:0.1899 21:1 22:0.25 23:0.3158 24:10 
-0.435167820812923 1:4 2:3 3:-1 4:0 5:25 6:0.4583 7:1 8:1 9:4 10:0.1667 11:0.2917 12:0.375 13:21 14:4 15:0.4667 16:0.2444 17:0.2556 18:0.2111 19:0.2889 20:0.2 21:1.25 22:0 23:0.3158 24:7 
-1 1:4 2:3 3:1 4:1 5:20 6:0.55 7:1 8:1 9:3 10:0.25 11:0.25 12:0.2 13:17 14:4 15:0.4512 16:0.2561 17:0.2439 18:0.2073 19:0.2927 20:0.1948 21:0.88 22:0.2 23:0.3 24:11 
-1 1:4 2:3 3:1 4:1 5:21 6:0.35 7:0 8:2 9:3 10:0.35 11:0.1 12:0.3 13:17 14:4 15:0.3878 16:0.2551 17:0.1837 18:0.2041 19:0.3571 20:0.2473 21:1.5 22:0.1429 23:0.3333 24:9 
-1 1:3 2:3 3:1 4:1 5:20 6:0.4 7:0 8:1 9:2 10:0.25 11:0.3 12:0.35 13:18 14:2 15:0.38 16:0.26 17:0.18 18:0.2 19:0.36 20:0.2421 21:0.89 22:0.1667 23:0.3793 24:8 
-0.011837862467924 1:3 2:-1 3:1 4:2 5:28 6:0.4783 7:3 8:4 9:4 10:0.087 11:0.1739 12:0.4348 13:15 14:-1 15:0.4615 16:0.2115 17:0.1731 18:0.2885 19:0.3269 20:0.2857 21:0 22:0.0566 23:-1 24:30 
-0.04708895123451171 1:2 2:1 3:1 4:2 5:23 6:0.4783 7:3 8:4 9:3 10:0.3478 11:0.4348 12:0.1739 13:15 14:3 15:0.5 16:0.1897 17:0.1897 18:0.3103 19:0.3103 20:0.25 21:5 22:0.0638 23:0.1429 24:27 
-0.0238585966078595 1:2 2:-1 3:1 4:1 5:31 6:0.5417 7:4 8:4 9:4 10:0.0417 11:0.2083 12:0.4167 13:21 14:1 15:0.4769 16:0.2 17:0.1846 18:0.2923 19:0.3231 20:0.2364 21:0.8 22:0.05 23:-1 24:23 
-0.1468775314722234 1:1 2:-1 3:-1 4:0 5:22 6:0.5 7:3 8:4 9:3 10:0.3182 11:0.3636 12:0.1818 13:15 14:3 15:0.5102 16:0.2041 17:0.1837 18:0.3265 19:0.2857 20:0.1429 21:0 22:0 23:-1 24:10 
-0.2652747075668728 1:4 2:1 3:-1 4:0 5:21 6:0.35 7:2 8:5 9:2 10:0.2 11:0 12:0.45 13:15 14:1 15:0.3731 16:0.2537 17:0.1642 18:0.209 19:0.3731 20:0.2381 21:0 22:-1 23:0.1818 24:1 
-0.02130055947044716 1:4 2:1 3:-1 4:0 5:22 6:0.3333 7:2 8:5 9:2 10:0.1905 11:0 12:0.4762 13:16 14:4 15:0.3731 16:0.2537 17:0.1642 18:0.209 19:0.3731 20:0.2381 21:0 22:-1 23:0.2 24:1 
-0.1339469434228808 1:4 2:1 3:-1 4:0 5:23 6:0.3182 7:2 8:5 9:2 10:0.2273 11:0 12:0.4545 13:17 14:4 15:0.3731 16:0.2537 17:0.1642 18:0.209 19:0.3731 20:0.2381 21:0 22:-1 23:0.2222 24:1 
-0.05573633498693304 1:4 2:1 3:-1 4:0 5:24 6:0.3043 7:2 8:5 9:2 10:0.2609 11:0 12:0.4348 13:18 14:2 15:0.3731 16:0.2537 17:0.1642 18:0.209 19:0.3731 20:0.2381 21:0 22:-1 23:0.25 24:1 
-0.6986981189763966 1:4 2:1 3:-1 4:0 5:25 6:0.3333 7:2 8:5 9:2 10:0.25 11:0.0417 12:0.4167 13:19 14:3 15:0.3731 16:0.2537 17:0.1642 18:0.209 19:0.3731 20:0.2381 21:0 22:-1 23:0.2857 24:1 
-0.504766691333303 1:2 2:1 3:-1 4:0 5:22 6:0.3333 7:2 8:4 9:2 10:0.2381 11:0 12:0.4286 13:17 14:4 15:0.3846 16:0.2615 17:0.1692 18:0.2154 19:0.3538 20:0.2131 21:0 22:-1 23:0.2222 24:2 
-0.5379349055972765 1:1 2:1 3:-1 4:0 5:23 6:0.3043 7:0 8:2 9:2 10:0.3478 11:0.1739 12:0.3478 13:20 14:4 15:0.3176 16:0.3647 17:0.1647 18:0.1529 19:0.3176 20:0.075 21:0.82 22:0 23:0.0556 24:4 
-0.4108614012765575 1:1 2:1 3:-1 4:0 5:24 6:0.3333 7:0 8:2 9:2 10:0.4167 11:0.0833 12:0.25 13:21 14:1 15:0.3253 16:0.3614 17:0.1687 18:0.1566 19:0.3133 20:0.0769 21:1.11 22:0 23:0.0625 24:5 
-1 1:4 2:1 3:-1 4:0 5:24 6:0.2917 7:0 8:2 9:2 10:0.3333 11:0.1667 12:0.375 13:21 14:4 15:0.3103 16:0.3678 17:0.1609 18:0.1494 19:0.3218 20:0.0732 21:0.73 22:0 23:0.0556 24:3 
-0.4139006518215165 1:3 2:1 3:-1 4:0 5:20 6:0.35 7:0 8:2 9:3 10:0.4 11:0.05 12:0.25 13:16 14:1 15:0.3407 16:0.3516 17:0.1868 18:0.1538 19:0.3077 20:0.093 21:0.71 22:-1 23:0.0417 24:1 
-0.01732488708791165 1:2 2:-1 3:2 4:2 5:23 6:0.3913 7:1 8:1 9:1 10:0.3043 11:0.1304 12:0.3043 13:22 14:4 15:0.3673 16:0.3265 17:0.1633 18:0.2041 19:0.3061 20:0 21:0.6 22:0.15 23:-1 24:22 
-1 1:4 2:1 3:-1 4:0 5:23 6:0.3043 7:0 8:2 9:2 10:0.3913 11:0.1304 12:0.3043 13:20 14:4 15:0.3247 16:0.3636 17:0.1688 18:0.1558 19:0.3117 20:0.0833 21:0.67 22:0 23:0.0714 24:8 
-0.2379939881891926 1:4 2:1 3:-1 4:0 5:21 6:0.1905 7:0 8:2 9:2 10:0.381 11:0.0952 12:0.4286 13:18 14:3 15:0.3103 16:0.3678 17:0.1609 18:0.1494 19:0.3218 20:0.0732 21:0.89 22:0 23:0.0476 24:3 
-0.03533159716179272 1:1 2:2 3:-1 4:0 5:23 6:0.4783 7:0 8:1 9:3 10:0.3043 11:0.1304 12:0.2174 13:20 14:1 15:0.4091 16:0.3091 17:0.2182 18:0.1909 19:0.2818 20:0.1346 21:0.73 22:0 23:0.1379 24:6 
-0.0206418073212681 1:1 2:1 3:1 4:3 5:23 6:0.3913 7:0 8:2 9:1 10:0.3043 11:0.2174 12:0.3043 13:21 14:1 15:0.3846 16:0.3205 17:0.1923 18:0.1923 19:0.2949 20:0.1111 21:0.9 22:0.1579 23:0.1538 24:22 
-1 1:4 2:2 3:1 4:1 5:22 6:0.3636 7:0 8:1 9:2 10:0.2727 11:0.2273 12:0.3636 13:20 14:4 15:0.383 16:0.3191 17:0.2021 18:0.1809 19:0.2979 20:0.1364 21:1.29 22:0.0909 23:0.1818 24:14 
-1 1:2 2:1 3:-1 4:0 5:24 6:0.5833 7:0 8:1 9:2 10:0.2083 11:0.25 12:0.2083 13:22 14:2 15:0.5 16:0.25 17:0.2625 18:0.2375 19:0.25 20:0.0833 21:1 22:0 23:0.12 24:13 
-0.005849739121210135 1:3 2:-1 3:1 4:1 5:21 6:0.55 7:0 8:1 9:3 10:0.35 11:0.35 12:0.1 13:18 14:2 15:0.4821 16:0.25 17:0.25 18:0.2321 19:0.2679 20:0.0833 21:0.8 22:0.0435 23:0 24:25 
-0.04995348533859024 1:1 2:1 3:1 4:1 5:22 6:0.5455 7:0 8:2 9:2 10:0.2273 11:0.2727 12:0.2273 13:19 14:1 15:0.4194 16:0.3065 17:0.1935 18:0.2258 19:0.2742 20:0.1228 21:0.9 22:0.0385 23:0.2 24:29 
-0.04554046433450474 1:4 2:1 3:1 4:1 5:25 6:0.3333 7:1 8:2 9:3 10:0.3333 11:0.1667 12:0.3333 13:21 14:1 15:0.3929 16:0.3214 17:0.1786 18:0.2143 19:0.2857 20:0.1373 21:0.89 22:0.0345 23:0.5 24:32 
-0.0316785352729201 1:4 2:1 3:1 4:1 5:27 6:0.3478 7:1 8:8 9:1 10:0.3913 11:0.1304 12:0.2609 13:19 14:3 15:0.3016 16:0.3492 17:0.1429 18:0.1587 19:0.3492 20:0.2308 21:1 22:0.0833 23:0.5 24:27 
-0.007601296150711924 1:4 2:1 3:1 4:1 5:25 6:0.381 7:1 8:8 9:1 10:0.381 11:0.1429 12:0.2381 13:17 14:4 15:0.3115 16:0.3443 17:0.1475 18:0.1639 19:0.3443 20:0.24 21:0.9 22:0.0769 23:0.3333 24:28 
-0.06108812312889006 1:4 2:-1 3:1 4:1 5:25 6:0.2727 7:1 8:8 9:2 10:0.2727 11:0.0909 12:0.4545 13:12 14:-1 15:0.2766 16:0.3617 17:0.1277 18:0.1489 19:0.3617 20:0.3333 21:0 22:0.05 23:-1 24:35 
-0.006746786376871917 1:2 2:1 3:1 4:1 5:25 6:0.381 7:1 8:8 9:1 10:0.4286 11:0.1429 12:0.1905 13:17 14:3 15:0.3016 16:0.3492 17:0.1429 18:0.1587 19:0.3492 20:0.2308 21:1 22:0.0833 23:0.25 24:27 
-0.02655358492239727 1:4 2:1 3:1 4:1 5:28 6:0.375 7:1 8:8 9:1 10:0.375 11:0.125 12:0.25 13:20 14:4 15:0.3231 16:0.3385 17:0.1538 18:0.1692 19:0.3385 20:0.2222 21:0.9 22:0.0909 23:0.5 24:26 
-0.6128634649449357 1:4 2:8 3:-1 4:0 5:21 6:0.4762 7:0 8:4 9:2 10:0.1905 11:0.2857 12:0.3333 13:16 14:1 15:0.3516 16:0.3297 17:0.1758 18:0.1758 19:0.3187 20:0.225 21:0 22:-1 23:0.3182 24:11 
-0.03562697554221395 1:4 2:8 3:-1 4:0 5:23 6:0.3913 7:0 8:11 9:2 10:0.3043 11:0.2174 12:0.3043 13:11 14:1 15:0.3367 16:0.3469 17:0.1735 18:0.1633 19:0.3163 20:0.2874 21:0 22:-1 23:0.2593 24:4 
-0.006447648836223534 1:4 2:1 3:1 4:1 5:21 6:0.2857 7:1 8:8 9:1 10:0.4286 11:0.1905 12:0.2857 13:13 14:4 15:0.2941 16:0.3529 17:0.1373 18:0.1569 19:0.3529 20:0.3 21:1.11 22:0.0556 23:0.5 24:33 
-0.0111932830546936 1:4 2:1 3:1 4:1 5:24 6:0.35 7:1 8:8 9:1 10:0.4 11:0.1 12:0.25 13:16 14:2 15:0.2881 16:0.3559 17:0.1356 18:0.1525 19:0.3559 20:0.25 21:1 22:0.0714 23:0.3333 24:29 
-0.3325951226120505 1:1 2:1 3:-1 4:0 5:22 6:0.2727 7:0 8:1 9:3 10:0.5 11:0.1818 12:0.2273 13:19 14:2 15:0.3256 16:0.3488 17:0.1512 18:0.1744 19:0.3256 20:0.122 21:1 22:-1 23:0.1053 24:1 
-0.6331201050141115 1:4 2:2 3:-1 4:0 5:21 6:0.3333 7:0 8:1 9:2 10:0.2381 11:0.1429 12:0.4286 13:19 14:1 15:0.3256 16:0.3488 17:0.1512 18:0.1744 19:0.3256 20:0.122 21:1.43 22:-1 23:0.15 24:1 
-0.4756587312864882 1:4 2:-1 3:-1 4:0 5:23 6:0.3478 7:0 8:2 9:3 10:0.2609 11:0.1739 12:0.3913 13:19 14:1 15:0.3289 16:0.3421 17:0.1579 18:0.1711 19:0.3289 20:0.1111 21:0.78 22:0 23:0 24:6 
-0.3596244909846186 1:1 2:-1 3:-1 4:0 5:24 6:0.5 7:0 8:1 9:1 10:0.2917 11:0.25 12:0.2083 13:23 14:1 15:0.4655 16:0.2759 17:0.2241 18:0.2414 19:0.2586 20:0.037 21:1.25 22:0 23:0 24:7 
-0.1564997813485908 1:1 2:3 3:1 4:1 5:21 6:0.4762 7:2 8:1 9:1 10:0.2381 11:0.2857 12:0.2857 13:20 14:2 15:0.5263 16:0.2456 17:0.2632 18:0.2632 19:0.2281 20:0.1111 21:1 22:0.0435 23:0.4667 24:25 
-0.02753452800131528 1:1 2:-1 3:1 4:1 5:23 6:0.5652 7:1 8:3 9:3 10:0.2174 11:0.3043 12:0.2174 13:18 14:-1 15:0.5556 16:0.2444 17:0.2889 18:0.2667 19:0.2 20:0.1429 21:0.55 22:0.0345 23:-1 24:31 
-1 1:2 2:3 3:-1 4:0 5:23 6:0.6087 7:0 8:1 9:1 10:0.2174 11:0.3043 12:0.1739 13:22 14:3 15:0.5631 16:0.2233 17:0.2913 18:0.2718 19:0.2136 20:0.08 21:0.67 22:-1 23:0.1429 24:2 
-0.2831282460463298 1:4 2:3 3:-1 4:0 5:20 6:0.55 7:0 8:1 9:1 10:0.2 11:0.25 12:0.25 13:19 14:1 15:0.5524 16:0.219 17:0.2857 18:0.2667 19:0.2286 20:0.098 21:0.82 22:-1 23:0.1562 24:1 
-1 1:4 2:1 3:-1 4:0 5:24 6:0.5417 7:1 8:1 9:1 10:0.25 11:0.2917 12:0.2083 13:23 14:4 15:0.4773 16:0.2614 17:0.25 18:0.2273 19:0.2614 20:0.0488 21:1 22:0 23:0.0588 24:8 
-0.8640350158804325 1:2 2:1 3:-1 4:0 5:21 6:0.5238 7:1 8:1 9:1 10:0.1905 11:0.1905 12:0.2857 13:20 14:2 15:0.4762 16:0.2619 17:0.25 18:0.2262 19:0.2619 20:0.0513 21:1 22:0 23:0.0556 24:10 
-0.282934839870163 1:4 2:-1 3:1 4:1 5:22 6:0.4545 7:1 8:1 9:1 10:0.2727 11:0.1818 12:0.2727 13:21 14:3 15:0.42 16:0.3 17:0.22 18:0.2 19:0.28 20:0.0455 21:0.9 22:0.05 23:-1 24:27 
-0.1183924641504346 1:2 2:1 3:-1 4:0 5:21 6:0.5238 7:1 8:1 9:1 10:0.0952 11:0.1429 12:0.381 13:20 14:2 15:0.4872 16:0.2564 17:0.2564 18:0.2308 19:0.2564 20:0.0556 21:0.91 22:0 23:0.0667 24:13 
-0.06044244945374825 1:1 2:1 3:-1 4:0 5:24 6:0.4583 7:0 8:1 9:1 10:0.25 11:0.0833 12:0.2917 13:23 14:2 15:0.4583 16:0.2778 17:0.25 18:0.2083 19:0.2639 20:0.0606 21:0.9 22:0 23:0.1111 24:16 
-0.2364137857952203 1:2 2:-1 3:1 4:1 5:22 6:0.5 7:0 8:1 9:1 10:0.2273 11:0.1818 12:0.2727 13:21 14:2 15:0.4107 16:0.3036 17:0.2143 18:0.1964 19:0.2857 20:0.04 21:0.8 22:0.0588 23:0 24:24 
-0.1096963461078909 1:4 2:-1 3:1 4:1 5:24 6:0.3333 7:1 8:3 9:4 10:0.3333 11:0.125 12:0.3333 13:18 14:1 15:0.34 16:0.34 17:0.18 18:0.16 19:0.32 20:0.1429 21:3.5 22:0.0909 23:-1 24:13 
-0.006044475358121332 1:1 2:-1 3:-1 4:0 5:24 6:0.3333 7:1 8:1 9:4 10:0.3333 11:0.0833 12:0.3333 13:20 14:1 15:0.3571 16:0.3393 17:0.1964 18:0.1607 19:0.3036 20:0.1667 21:1 22:0 23:-1 24:10 
-0.2070612917921866 1:4 2:-1 3:1 4:1 5:20 6:0.4 7:1 8:1 9:3 10:0.25 11:0.25 12:0.35 13:17 14:4 15:0.34 16:0.34 17:0.18 18:0.16 19:0.32 20:0.1429 21:1 22:0.0909 23:0 24:13 
-0.08922075040666341 1:2 2:-1 3:-1 4:0 5:26 6:0.6667 7:0 8:4 9:5 10:0.2083 11:0.2917 12:0.125 13:17 14:-1 15:0.66 16:0.2 17:0.36 18:0.3 19:0.14 20:0.2444 21:0.5 22:0 23:-1 24:10 
-0.1676237827345919 1:1 2:-1 3:-1 4:0 5:25 6:0.6818 7:0 8:4 9:5 10:0.2273 11:0.3182 12:0.0909 13:17 14:3 15:0.66 16:0.2 17:0.36 18:0.3 19:0.14 20:0.2444 21:0.5 22:0 23:-1 24:10 
-0.06292804441247962 1:4 2:-1 3:-1 4:0 5:22 6:0.3182 7:2 8:4 9:1 10:0.3636 11:0.2727 12:0.3182 13:18 14:2 15:0.25 16:0.4 17:0.0833 18:0.1667 19:0.35 20:0.1538 21:1 22:0 23:0 24:13 
-0.008625051202893823 1:3 2:-1 3:-1 4:0 5:20 6:0.3 7:1 8:4 9:2 10:0.3 11:0.25 12:0.4 13:13 14:2 15:0.2857 16:0.4048 17:0.0952 18:0.1905 19:0.3095 20:0.2353 21:4 22:0 23:-1 24:22 
-0.07898485760843005 1:4 2:-1 3:-1 4:0 5:20 6:0.6 7:3 8:5 9:2 10:0.1 11:0.25 12:0.3 13:13 14:1 15:0.5 16:0.1136 17:0.2273 18:0.2727 19:0.3864 20:0.1333 21:0 22:0 23:-1 24:12 
-0.1169767614548728 1:4 2:-1 3:-1 4:0 5:21 6:0.5714 7:3 8:5 9:2 10:0.0952 11:0.2381 12:0.3333 13:14 14:4 15:0.4783 16:0.1304 17:0.2174 18:0.2609 19:0.3913 20:0.125 21:0 22:0 23:-1 24:11 
-0.01200808513570949 1:4 2:-1 3:-1 4:0 5:22 6:0.5455 7:3 8:5 9:2 10:0.1364 11:0.2273 12:0.3182 13:15 14:1 15:0.4583 16:0.1458 17:0.2083 18:0.25 19:0.3958 20:0.1176 21:0 22:0 23:-1 24:10 
-0.0729304622664608 1:4 2:-1 3:-1 4:0 5:23 6:0.5217 7:3 8:5 9:2 10:0.1304 11:0.2174 12:0.3478 13:16 14:3 15:0.44 16:0.16 17:0.2 18:0.24 19:0.4 20:0.1111 21:0 22:0 23:-1 24:9 
-0.3832022159244353 1:4 2:-1 3:-1 4:0 5:24 6:0.5417 7:3 8:5 9:2 10:0.125 11:0.2083 12:0.3333 13:17 14:2 15:0.4615 16:0.1538 17:0.2115 18:0.25 19:0.3846 20:0.1053 21:0 22:0 23:-1 24:8 
-0.006031184312661239 1:1 2:-1 3:-1 4:0 5:21 6:0.1905 7:0 8:5 9:2 10:0.4286 11:0.0476 12:0.381 13:13 14:3 15:0.2391 16:0.3913 17:0.1522 18:0.087 19:0.3696 20:0.1613 21:0 22:0 23:-1 24:32 
-0.1844915442068146 1:1 2:1 3:-1 4:0 5:24 6:0.3333 7:0 8:3 9:1 10:0.2917 11:0.125 12:0.375 13:21 14:4 15:0.3485 16:0.3333 17:0.197 18:0.1515 19:0.3182 20:0.098 21:0.2 22:0 23:0.3333 24:22 
-0.03373112510022738 1:4 2:1 3:-1 4:0 5:23 6:0.3636 7:0 8:3 9:1 10:0.3182 11:0.2273 12:0.3182 13:20 14:1 15:0.3594 16:0.3281 17:0.2031 18:0.1562 19:0.3125 20:0.102 21:2.75 22:0 23:0.3333 24:23 
-0.03134119775795206 1:1 2:1 3:-1 4:0 5:20 6:0.4 7:0 8:2 9:1 10:0.2 11:0.15 12:0.4 13:18 14:4 15:0.371 16:0.3226 17:0.2097 18:0.1613 19:0.3065 20:0.1064 21:0.33 22:0 23:0.3333 24:24 
-1 1:4 2:3 3:1 4:1 5:25 6:0.3478 7:2 8:2 9:3 10:0.3478 11:0.1304 12:0.3043 13:21 14:3 15:0.3908 16:0.3218 17:0.1954 18:0.1954 19:0.2874 20:0.2152 21:1.29 22:0.0667 23:0.3548 24:10 
-1 1:4 2:3 3:1 4:1 5:22 6:0.3182 7:2 8:1 9:2 10:0.2273 11:0.1818 12:0.4545 13:20 14:1 15:0.3933 16:0.3146 17:0.191 18:0.2022 19:0.2921 20:0.2099 21:0.67 22:0.0769 23:0.3684 24:9 
-0.01198989317809939 1:4 2:-1 3:1 4:2 5:20 6:0.3333 7:1 8:3 9:2 10:0.381 11:0.2381 12:0.2857 13:15 14:-1 15:0.3659 16:0.2927 17:0.1707 18:0.1951 19:0.3415 20:0.1176 21:0.3 22:0.1304 23:-1 24:13 
-0.1359999110405289 1:4 2:-1 3:1 4:1 5:22 6:0.3182 7:1 8:3 9:3 10:0.3636 11:0.2273 12:0.3182 13:16 14:-1 15:0.3636 16:0.2955 17:0.1591 18:0.2045 19:0.3409 20:0.1351 21:0.33 22:0.1 23:-1 24:12 
-0.1103663276716312 1:4 2:-1 3:-1 4:0 5:26 6:0.4583 7:1 8:3 9:4 10:0.2083 11:0.2083 12:0.3333 13:19 14:4 15:0.4231 16:0.25 17:0.1923 18:0.2308 19:0.3269 20:0.1556 21:3 22:0 23:-1 24:8 
-0.05799047035073646 1:2 2:1 3:1 4:1 5:29 6:0.4 7:2 8:9 9:1 10:0.45 11:0.2 12:0.15 13:20 14:4 15:0.375 16:0.3594 17:0.1875 18:0.1875 19:0.2656 20:0.2542 21:0 22:0.0476 23:0.3333 24:15 
-0.6855620008686117 1:2 2:9 3:1 4:1 5:22 6:0.3636 7:2 8:-1 9:0 10:0.5 11:0.2273 12:0.1364 13:22 14:4 15:0.3611 16:0.3611 17:0.1806 18:0.1806 19:0.2778 20:0.2239 21:1.11 22:0.0769 23:0.68 24:11 
-0.06407375638181549 1:2 2:1 3:1 4:1 5:32 6:0.3913 7:2 8:9 9:1 10:0.4783 11:0.2174 12:0.1304 13:23 14:4 15:0.3714 16:0.3571 17:0.1857 18:0.1857 19:0.2714 20:0.2308 21:0 22:0.0667 23:0.3333 24:12 
-0.3028379233108496 1:2 2:6 3:1 4:1 5:23 6:0.3478 7:2 8:3 9:1 10:0.2174 11:0.2174 12:0.4348 13:20 14:4 15:0.375 16:0.3594 17:0.1875 18:0.1875 19:0.2656 20:0.2542 21:3 22:0.0476 23:0.7333 24:15 
-0.02068054908211827 1:4 2:-1 3:1 4:1 5:24 6:0.3636 7:1 8:9 9:2 10:0.3636 11:0.0455 12:0.2727 13:13 14:-1 15:0.3261 16:0.413 17:0.1739 18:0.1522 19:0.2609 20:0.3659 21:0.75 22:0.0256 23:-1 24:24 
-1 1:4 2:6 3:1 4:1 5:21 6:0.3333 7:2 8:3 9:1 10:0.2381 11:0.2381 12:0.4286 13:18 14:4 15:0.3667 16:0.3667 17:0.1833 18:0.1833 19:0.2667 20:0.2727 21:3 22:0.04 23:0.7333 24:17 
-1 1:4 2:9 3:1 4:1 5:22 6:0.3636 7:2 8:-1 9:0 10:0.0909 11:0.1818 12:0.5455 13:22 14:2 15:0.3714 16:0.3571 17:0.1857 18:0.1857 19:0.2714 20:0.2308 21:1 22:0.0667 23:0.7391 24:12 
-0.635000667850192 1:1 2:6 3:1 4:1 5:23 6:0.3478 7:2 8:3 9:1 10:0.4783 11:0.1739 12:0.1739 13:20 14:4 15:0.375 16:0.3594 17:0.1875 18:0.1875 19:0.2656 20:0.2542 21:0.33 22:0.0476 23:0.7333 24:15 
-0.01235434495275184 1:1 2:1 3:-1 4:0 5:20 6:0.6 7:1 8:2 9:2 10:0.2 11:0.3 12:0.2 13:17 14:3 15:0.5424 16:0.1864 17:0.2712 18:0.2712 19:0.2712 20:0.1429 21:2.2 22:0 23:0.2222 24:19 
-0.04225634052412618 1:4 2:2 3:-1 4:0 5:20 6:0.4 7:1 8:6 9:3 10:0.2 11:0.05 12:0.4 13:11 14:4 15:0.4608 16:0.2353 17:0.2157 18:0.2451 19:0.3039 20:0.2653 21:5 22:-1 23:0.1667 24:3 
-0.01848449277161533 1:4 2:1 3:2 4:2 5:22 6:0.5 7:1 8:2 9:3 10:0.0455 11:0.3182 12:0.4545 13:17 14:1 15:0.5161 16:0.2097 17:0.1935 18:0.3226 19:0.2742 20:0.1724 21:0.4 22:0.1724 23:0.0667 24:24 
-0.2846586051166619 1:1 2:1 3:1 4:1 5:21 6:0.4286 7:1 8:-1 9:0 10:0.3333 11:0.1905 12:0.2381 13:21 14:2 15:0.4167 16:0.2833 17:0.2 18:0.2167 19:0.3 20:0.0385 21:1 22:0.0476 23:0.2 24:23 
-0.02784078522069687 1:4 2:-1 3:1 4:1 5:23 6:0.3913 7:1 8:1 9:1 10:0.3478 11:0.1739 12:0.2609 13:22 14:2 15:0.4167 16:0.2833 17:0.2 18:0.2167 19:0.3 20:0.0385 21:0.78 22:0.0476 23:0 24:23 
-0.03817908893084213 1:2 2:1 3:-1 4:0 5:24 6:0.3333 7:0 8:1 9:1 10:0.3333 11:0.2083 12:0.3333 13:23 14:2 15:0.4048 16:0.2976 17:0.2024 18:0.2024 19:0.2976 20:0.0526 21:1 22:0 23:0.0714 24:11 
-1 1:4 2:1 3:-1 4:0 5:22 6:0.3182 7:0 8:1 9:1 10:0.3636 11:0.2273 12:0.3182 13:21 14:2 15:0.4 16:0.3 17:0.2 18:0.2 19:0.3 20:0.0556 21:1 22:0 23:0.0714 24:13 
-0.08941610534015985 1:4 2:-1 3:1 4:1 5:23 6:0.4348 7:1 8:1 9:1 10:0.2609 11:0.2609 12:0.3043 13:22 14:1 15:0.4259 16:0.2778 17:0.2037 18:0.2222 19:0.2963 20:0.0435 21:1.29 22:0.0417 23:-1 24:26 
-0.3010039395557908 1:4 2:-1 3:1 4:1 5:22 6:0.4545 7:1 8:1 9:1 10:0.2727 11:0.2727 12:0.2727 13:21 14:1 15:0.4423 16:0.2692 17:0.2115 18:0.2308 19:0.2885 20:0.0455 21:1.43 22:0.04 23:-1 24:27 
-0.01956833619998676 1:3 2:1 3:-1 4:0 5:21 6:0.4762 7:1 8:1 9:1 10:0.2857 11:0.1905 12:0.2381 13:20 14:2 15:0.4194 16:0.2903 17:0.2097 18:0.2097 19:0.2903 20:0.0741 21:1.43 22:0 23:0.1667 24:22 
-0.01613341735816644 1:2 2:1 3:2 4:1 5:20 6:0.25 7:0 8:2 9:3 10:0.4 11:0.1 12:0.35 13:15 14:3 15:0.3611 16:0.3333 17:0.1944 18:0.1667 19:0.3056 20:0.2424 21:0.44 22:0.087 23:0.2308 24:25 
-1 1:3 2:3 3:-1 4:0 5:24 6:0.3333 7:0 8:2 9:2 10:0.2917 11:0.25 12:0.375 13:20 14:2 15:0.3723 16:0.3298 17:0.1915 18:0.1809 19:0.2979 20:0.2273 21:1.6 22:0 23:0.3 24:14 
-1 1:4 2:3 3:-1 4:0 5:22 6:0.4091 7:0 8:2 9:2 10:0.3182 11:0.4091 12:0.2727 13:19 14:1 15:0.3833 16:0.3167 17:0.2 18:0.1833 19:0.3 20:0.193 21:1.67 22:-1 23:0.2286 24:1 
-0.05172610907360112 1:4 2:-1 3:2 4:3 5:20 6:0.45 7:0 8:3 9:4 10:0.25 11:0.15 12:0.3 13:13 14:3 15:0.4524 16:0.3095 17:0.2619 18:0.1905 19:0.2381 20:0.2778 21:1.2 22:0.1316 23:-1 24:40 
-0.01995864811602844 1:1 2:1 3:2 4:2 5:20 6:0.5 7:0 8:3 9:4 10:0.3 11:0.3 12:0.2 13:14 14:1 15:0.4444 16:0.3148 17:0.2407 18:0.2037 19:0.2407 20:0.2917 21:1.25 22:0.0938 23:0.25 24:34 
-0.3612764046367717 1:4 2:3 3:2 4:1 5:24 6:0.25 7:0 8:2 9:2 10:0.375 11:0.1667 12:0.375 13:21 14:1 15:0.3721 16:0.3256 17:0.1977 18:0.1744 19:0.3023 20:0.2 21:0.6 22:0.125 23:0.3125 24:18 
-0.1116424297475023 1:4 2:-1 3:2 4:2 5:20 6:0.45 7:2 8:1 9:2 10:0.25 11:0.2 12:0.3 13:18 14:4 15:0.4186 16:0.2791 17:0.2093 18:0.2093 19:0.3023 20:0.0526 21:0.67 22:0.25 23:-1 24:17 
-0.5619041545947783 1:1 2:2 3:1 4:1 5:21 6:0.5238 7:2 8:2 9:3 10:0.2857 11:0.4286 12:0.1905 13:16 14:4 15:0.4342 16:0.2105 17:0.1842 18:0.25 19:0.3553 20:0.2 21:1 22:0.2 23:0.1429 24:8 
-0.09369950596376235 1:3 2:2 3:-1 4:0 5:21 6:0.4762 7:0 8:1 9:3 10:0.1905 11:0.2857 12:0.3333 13:18 14:1 15:0.3036 16:0.3839 17:0.1518 18:0.1518 19:0.3125 20:0.1619 21:0.7 22:-1 23:0.2121 24:3 
-0.07081384611667799 1:2 2:2 3:-1 4:0 5:22 6:0.381 7:0 8:3 9:3 10:0.4762 11:0.1429 12:0.1429 13:17 14:1 15:0.3017 16:0.3793 17:0.1466 18:0.1552 19:0.319 20:0.1927 21:2 22:-1 23:0.2059 24:1 
-0.07333376751441188 1:1 2:-1 3:2 4:3 5:24 6:0.3333 7:1 8:3 9:4 10:0.4583 11:0.0833 12:0.2083 13:17 14:4 15:0.2653 16:0.4082 17:0.1224 18:0.1429 19:0.3265 20:0.1905 21:4 22:0.129 23:-1 24:35 
-1 1:3 2:2 3:-1 4:0 5:22 6:0.4545 7:0 8:1 9:3 10:0.1818 11:0.2727 12:0.3636 13:19 14:1 15:0.3036 16:0.3839 17:0.1518 18:0.1518 19:0.3125 20:0.1619 21:0.78 22:-1 23:0.2188 24:3 
-0.02752659426433279 1:2 2:-1 3:2 4:3 5:26 6:0.4583 7:4 8:4 9:2 10:0.25 11:0.2917 12:0.2917 13:21 14:1 15:0.4167 16:0.25 17:0.1667 18:0.25 19:0.3333 20:0.1538 21:1.22 22:0.2353 23:0 24:19 
-1 1:4 2:1 3:1 4:2 5:23 6:0.3913 7:2 8:3 9:2 10:0.2174 11:0.2174 12:0.3913 13:18 14:4 15:0.4189 16:0.2432 17:0.1622 18:0.2568 19:0.3378 20:0.1818 21:0.22 22:0.2 23:0.1429 24:12 
-1 1:1 2:3 3:1 4:2 5:20 6:0.45 7:2 8:2 9:2 10:0.25 11:0.25 12:0.3 13:17 14:1 15:0.4306 16:0.2361 17:0.1667 18:0.2639 19:0.3333 20:0.1875 21:0.6 22:0.1818 23:0.25 24:13 
-0.1036757353752526 1:4 2:1 3:1 4:2 5:26 6:0.5 7:3 8:4 9:2 10:0.25 11:0.3333 12:0.25 13:20 14:2 15:0.4306 16:0.2361 17:0.1667 18:0.2639 19:0.3333 20:0.1875 21:1.43 22:0.1818 23:0.1429 24:13 
-0.1687364235993223 1:1 2:1 3:-1 4:0 5:24 6:0.4348 7:2 8:5 9:3 10:0.3043 11:0.3913 12:0.2609 13:14 14:4 15:0.4752 16:0.2277 17:0.2178 18:0.2574 19:0.297 20:0.25 21:1 22:-1 23:0.1556 24:6 
-0.157302992570984 1:4 2:1 3:1 4:1 5:23 6:0.3636 7:3 8:5 9:3 10:0.0909 11:0.0909 12:0.5455 13:15 14:3 15:0.4725 16:0.2088 17:0.2198 18:0.2527 19:0.3187 20:0.2308 21:2.25 22:0.25 23:0.1667 24:12 
-0.01637662936559618 1:1 2:-1 3:-1 4:0 5:26 6:0.3478 7:2 8:8 9:2 10:0.3478 11:0.2174 12:0.3043 13:16 14:1 15:0.34 16:0.32 17:0.12 18:0.22 19:0.34 20:0.2889 21:0.4 22:0 23:-1 24:21 
-0.0562446992589001 1:1 2:-1 3:-1 4:0 5:22 6:0.3 7:2 8:8 9:2 10:0.35 11:0.2 12:0.35 13:12 14:4 15:0.3095 16:0.3333 17:0.0952 18:0.2143 19:0.3571 20:0.3514 21:2.5 22:0 23:-1 24:25 
-0.07595598807356768 1:1 2:7 3:-1 4:0 5:20 6:0.25 7:1 8:1 9:1 10:0.35 11:0.15 12:0.4 13:19 14:2 15:0.3065 16:0.3387 17:0.1129 18:0.1935 19:0.3548 20:0.2281 21:1.5 22:0 23:0.6842 24:15 
-0.7114554754819248 1:2 2:6 3:-1 4:0 5:21 6:0.3333 7:1 8:2 9:1 10:0.381 11:0.1429 12:0.2857 13:19 14:1 15:0.3065 16:0.3387 17:0.1129 18:0.1935 19:0.3548 20:0.2281 21:0.44 22:0 23:0.6471 24:15 
-0.003467311520841692 1:4 2:-1 3:-1 4:0 5:24 6:0.2917 7:2 8:8 9:2 10:0.2917 11:0.1667 12:0.4167 13:14 14:3 15:0.3261 16:0.3261 17:0.1087 18:0.2174 19:0.3478 20:0.3171 21:2.5 22:0 23:-1 24:23 
-1 1:2 2:3 3:1 4:1 5:21 6:0.3333 7:1 8:2 9:2 10:0.1905 11:0.0952 12:0.4762 13:18 14:1 15:0.398 16:0.2653 17:0.1735 18:0.2245 19:0.3367 20:0.1489 21:1.29 22:0.25 23:0.1538 24:11 
-1 1:4 2:3 3:-1 4:0 5:20 6:0.35 7:1 8:2 9:2 10:0.15 11:0.1 12:0.5 13:16 14:3 15:0.3922 16:0.2745 17:0.1765 18:0.2157 19:0.3333 20:0.1633 21:2.25 22:0 23:0.1379 24:9 
-0.01188858412299655 1:1 2:-1 3:2 4:2 5:23 6:0.381 7:2 8:3 9:4 10:0.4762 11:0.1429 12:0.1429 13:17 14:3 15:0.3913 16:0.2826 17:0.1522 18:0.2391 19:0.3261 20:0.1905 21:1.5 22:0.1333 23:-1 24:37 
-0.06286841964699548 1:1 2:3 3:-1 4:0 5:22 6:0.3182 7:1 8:2 9:2 10:0.4091 11:0.2273 12:0.2727 13:18 14:2 15:0.3922 16:0.2745 17:0.1765 18:0.2157 19:0.3333 20:0.1633 21:0.44 22:0 23:0.1481 24:9 
-0.00679270355301241 1:3 2:-1 3:2 4:4 5:23 6:0.4783 7:1 8:2 9:3 10:0.1304 11:0.3043 12:0.3913 13:18 14:3 15:0.4262 16:0.2131 17:0.2295 18:0.1967 19:0.3607 20:0.1915 21:1 22:0.3529 23:0 24:19 
-0.8133686767584792 1:3 2:1 3:2 4:3 5:24 6:0.4583 7:1 8:2 9:3 10:0.125 11:0.25 12:0.4167 13:19 14:4 15:0.4328 16:0.209 17:0.2388 18:0.194 19:0.3582 20:0.2075 21:1.43 22:0.3571 23:0.2 24:16 
-0.1956864167698009 1:1 2:3 3:1 4:1 5:22 6:0.5238 7:1 8:1 9:2 10:0.4286 11:0.3333 12:0.0476 13:20 14:4 15:0.4242 16:0.2424 17:0.197 18:0.2273 19:0.3333 20:0.129 21:1 22:0.0667 23:0.2632 24:18 
-0.05150107263651907 1:4 2:3 3:1 4:1 5:21 6:0.4286 7:1 8:1 9:2 10:0.0476 11:0.1429 12:0.5238 13:19 14:3 15:0.4118 16:0.25 17:0.1912 18:0.2206 19:0.3382 20:0.125 21:0.89 22:0.0769 23:0.2174 24:17 
-0.09190048906353644 1:1 2:-1 3:2 4:2 5:22 6:0.5455 7:4 8:2 9:2 10:0.2273 11:0.3182 12:0.2273 13:19 14:4 15:0.537 16:0.2407 17:0.2407 18:0.2963 19:0.2222 20:0.125 21:1.11 22:0.2143 23:0 24:23 
-0.9867283922295156 1:4 2:7 3:-1 4:0 5:23 6:0.5652 7:1 8:2 9:4 10:0.2174 11:0.3913 12:0.2174 13:18 14:4 15:0.4851 16:0.2772 17:0.2376 18:0.2475 19:0.2376 20:0.2632 21:0.7 22:0 23:0.3333 24:6 
-0.01569626866839852 1:1 2:-1 3:2 4:5 5:27 6:0.4545 7:1 8:7 9:4 10:0.4545 11:0.2273 12:0.0909 13:15 14:4 15:0.451 16:0.2941 17:0.1961 18:0.2549 19:0.2549 20:0.3333 21:0.5 22:0.1724 23:-1 24:32 
-0.2203051923912376 1:1 2:7 3:2 4:3 5:20 6:0.45 7:1 8:2 9:3 10:0.3 11:0.2 12:0.25 13:16 14:3 15:0.4521 16:0.2877 17:0.2192 18:0.2329 19:0.2603 20:0.2836 21:0.5 22:0.1667 23:0.4074 24:21 
-0.1409393498402753 1:2 2:2 3:-1 4:0 5:22 6:0.5 7:1 8:3 9:3 10:0.1818 11:0.0455 12:0.3182 13:16 14:4 15:0.4762 16:0.2262 17:0.2857 18:0.1905 19:0.2976 20:0.2113 21:4 22:-1 23:0.1724 24:4 
-0.1510464924589973 1:4 2:2 3:-1 4:0 5:20 6:0.6 7:1 8:2 9:2 10:0.2 11:0.4 12:0.2 13:17 14:4 15:0.5 16:0.2179 17:0.2949 18:0.2051 19:0.2821 20:0.1385 21:0.64 22:-1 23:0.1852 24:7 
-0.002967207958645462 1:4 2:-1 3:3 4:6 5:23 6:0.35 7:3 8:4 9:3 10:0.15 11:0.2 12:0.5 13:15 14:4 15:0.4222 16:0.2 17:0.1778 18:0.2444 19:0.3778 20:0.2683 21:0.57 22:0.3143 23:-1 24:37 
-0.1224375563070488 1:4 2:6 3:1 4:1 5:21 6:0.619 7:1 8:2 9:4 10:0.0952 11:0.3333 12:0.2857 13:14 14:1 15:0.4737 16:0.1579 17:0.2211 18:0.2526 19:0.3684 20:0.3407 21:0.62 22:0.1 23:0.3469 24:12 
-1 1:4 2:4 3:2 4:2 5:21 6:0.4762 7:2 8:1 9:2 10:0.1429 11:0.2381 12:0.381 13:19 14:3 15:0.4658 16:0.2603 17:0.2603 18:0.2055 19:0.274 20:0.2121 21:0.89 22:0.1875 23:0.4615 24:20 
-1 1:1 2:4 3:2 4:2 5:21 6:0.5238 7:2 8:1 9:2 10:0.2857 11:0.2857 12:0.1905 13:19 14:3 15:0.4658 16:0.2603 17:0.2603 18:0.2055 19:0.274 20:0.2121 21:1.12 22:0.1875 23:0.4615 24:20 
-0.05372397321063048 1:1 2:-1 3:2 4:3 5:20 6:0.45 7:3 8:10 9:1 10:0.3 11:0.35 12:0.25 13:10 14:1 15:0.4348 16:0.3043 17:0.1739 18:0.2609 19:0.2609 20:0.3158 21:1.43 22:0.1667 23:0 24:34 
-0.06534462803663418 1:4 2:-1 3:-1 4:0 5:32 6:0.5217 7:4 8:10 9:4 10:0.2174 11:0.2609 12:0.2609 13:17 14:4 15:0.5278 16:0.2222 17:0.2222 18:0.3056 19:0.25 20:0.3125 21:0.5 22:0 23:0 24:20 
-0.04873728621769634 1:3 2:-1 3:2 4:3 5:28 6:0.45 7:3 8:10 9:2 10:0.35 11:0.25 12:0.2 13:15 14:4 15:0.48 16:0.28 17:0.2 18:0.28 19:0.24 20:0.2857 21:0.2 22:0.1818 23:-1 24:32 
-0.1090660910811354 1:4 2:10 3:-1 4:0 5:22 6:0.5714 7:3 8:2 9:3 10:0.0476 11:0.381 12:0.381 13:17 14:4 15:0.5135 16:0.2297 17:0.2162 18:0.2973 19:0.2568 20:0.303 21:0.56 22:0 23:0.5 24:19 
-0.5907537890396621 1:3 2:10 3:-1 4:0 5:21 6:0.45 7:1 8:3 9:3 10:0.3 11:0.1 12:0.25 13:15 14:3 15:0.4948 16:0.2577 17:0.2165 18:0.2784 19:0.2474 20:0.2584 21:4 22:-1 23:0.3077 24:6 
-0.03004193393714467 1:3 2:-1 3:2 4:2 5:30 6:0.4783 7:3 8:10 9:3 10:0.3478 11:0.3043 12:0.1739 13:15 14:-1 15:0.4815 16:0.2778 17:0.2037 18:0.2778 19:0.2407 20:0.3478 21:0.33 22:0.1 23:-1 24:30 
-0.02659616048528029 1:3 2:-1 3:2 4:3 5:28 6:0.4762 7:3 8:10 9:2 10:0.3333 11:0.2857 12:0.1905 13:15 14:-1 15:0.48 16:0.28 17:0.2 18:0.28 19:0.24 20:0.2857 21:0.2 22:0.1818 23:-1 24:32 
-0.01202234752245073 1:2 2:-1 3:-1 4:0 5:32 6:0.5217 7:4 8:10 9:4 10:0.2174 11:0.2609 12:0.2609 13:17 14:3 15:0.5143 16:0.2286 17:0.2143 18:0.3 19:0.2571 20:0.3226 21:0.62 22:0 23:0 24:21 
-0.04676755309461504 1:3 2:4 3:2 4:1 5:22 6:0.5455 7:2 8:2 9:2 10:0.2273 11:0.2727 12:0.2273 13:19 14:4 15:0.4865 16:0.2432 17:0.2568 18:0.2297 19:0.2703 20:0.2286 21:1.5 22:0.1429 23:0.3846 24:21 
-0.004540645096848584 1:3 2:4 3:2 4:2 5:21 6:0.4762 7:2 8:3 9:2 10:0.1905 11:0.2381 12:0.3333 13:17 14:4 15:0.4667 16:0.2833 17:0.2667 18:0.2 19:0.25 20:0.2143 21:5 22:0.1905 23:0.4118 24:28 
-0.03725107089311995 1:1 2:4 3:-1 4:0 5:23 6:0.5217 7:2 8:2 9:3 10:0.2174 11:0.4783 12:0.2609 13:17 14:2 15:0.5 16:0.2404 17:0.25 18:0.25 19:0.2596 20:0.22 21:0.5 22:-1 23:0.2143 24:5 
-0.8202878010609497 1:1 2:4 3:-1 4:0 5:28 6:0.4348 7:1 8:7 9:3 10:0.2609 11:0.3913 12:0.3043 13:17 14:2 15:0.463 16:0.25 17:0.2315 18:0.2315 19:0.287 20:0.2762 21:1 22:-1 23:0.25 24:2 
-0.1127505412314218 1:4 2:3 3:2 4:2 5:22 6:0.4545 7:3 8:4 9:1 10:0.1818 11:0.2273 12:0.3636 13:18 14:4 15:0.4262 16:0.2623 17:0.2131 18:0.2131 19:0.3115 20:0.2069 21:0.2 22:0.2105 23:0.375 24:28 
-0.7555161962073719 1:4 2:4 3:1 4:1 5:21 6:0.5238 7:3 8:3 9:3 10:0.2381 11:0.2381 12:0.2381 13:15 14:4 15:0.3187 16:0.3187 17:0.1429 18:0.1758 19:0.3626 20:0.1724 21:2.33 22:0.1111 23:0.125 24:11 
-0.1548765590350383 1:2 2:-1 3:2 4:1 5:31 6:0.4545 7:3 8:7 9:3 10:0.1364 11:0.2273 12:0.4091 13:20 14:4 15:0.3146 16:0.3258 17:0.1461 18:0.1685 19:0.3596 20:0.1529 21:1.11 22:0.2 23:0 24:12 
-0.07322263672026647 1:1 2:-1 3:2 4:2 5:33 6:0.1739 7:1 8:7 9:3 10:0.3913 11:0.087 12:0.4348 13:23 14:1 15:0.2203 16:0.4068 17:0.1017 18:0.1186 19:0.3729 20:0.1636 21:0.67 22:0.16 23:-1 24:27 
-0.003765266497486252 1:3 2:10 3:1 4:1 5:26 6:0.5 7:0 8:6 9:4 10:0.35 11:0.3 12:0.15 13:17 14:4 15:0.3409 16:0.2955 17:0.2159 18:0.125 19:0.3636 20:0.4026 21:0.78 22:0.1 23:0.6471 24:13 
-0.1073586543255461 1:4 2:10 3:-1 4:0 5:20 6:0.5 7:1 8:6 9:2 10:0.15 11:0.25 12:0.35 13:12 14:3 15:0.3404 16:0.2872 17:0.2021 18:0.1383 19:0.3723 20:0.3976 21:0.5 22:0 23:0.4902 24:10 
-0.02028937948377085 1:3 2:10 3:1 4:1 5:27 6:0.4762 7:0 8:6 9:4 10:0.381 11:0.2857 12:0.1429 13:18 14:2 15:0.3409 16:0.2955 17:0.2159 18:0.125 19:0.3636 20:0.4026 21:0.78 22:0.1 23:0.6875 24:13 
-0.09516801713343474 1:3 2:10 3:-1 4:0 5:26 6:0.5 7:1 8:6 9:4 10:0.3 11:0.3 12:0.2 13:16 14:4 15:0.3404 16:0.2872 17:0.2021 18:0.1383 19:0.3723 20:0.3976 21:0.67 22:0 23:0.55 24:10 
-0.03003042352012795 1:2 2:10 3:1 4:1 5:22 6:0.5238 7:0 8:6 9:4 10:0.1429 11:0.1905 12:0.3333 13:13 14:1 15:0.3409 16:0.2955 17:0.2159 18:0.125 19:0.3636 20:0.4026 21:1 22:0.1 23:0.5238 24:13 
-0.04651407922963921 1:1 2:10 3:-1 4:0 5:27 6:0.4762 7:0 8:6 9:4 10:0.3333 11:0.2857 12:0.1905 13:17 14:4 15:0.337 16:0.2935 17:0.2065 18:0.1304 19:0.3696 20:0.4074 21:0.57 22:0 23:0.6111 24:11 
-0.11937346405398 1:2 2:10 3:-1 4:0 5:24 6:0.5217 7:0 8:6 9:4 10:0.1304 11:0.2174 12:0.3478 13:14 14:3 15:0.337 16:0.2935 17:0.2065 18:0.1304 19:0.3696 20:0.4074 21:1.75 22:0 23:0.5238 24:11 
-0.08513329515059924 1:4 2:10 3:2 4:1 5:25 6:0.5 7:0 8:6 9:3 10:0.125 11:0.1667 12:0.375 13:17 14:1 15:0.3452 16:0.2976 17:0.2262 18:0.119 19:0.3571 20:0.3973 21:0.9 22:0.1667 23:0.6875 24:15 
-1 1:3 2:3 3:3 4:2 5:22 6:0.381 7:2 8:1 9:2 10:0.4286 11:0.1905 12:0.1905 13:20 14:2 15:0.4839 16:0.2258 17:0.2258 18:0.2581 19:0.2903 20:0.1579 21:1.22 22:0.1538 23:0.5 24:17 
-0.04312396888127672 1:1 2:-1 3:3 4:3 5:21 6:0.2381 7:2 8:3 9:3 10:0.4762 11:0 12:0.2857 13:15 14:3 15:0.3721 16:0.2791 17:0.186 18:0.186 19:0.3488 20:0.2105 21:2.25 22:0.1111 23:-1 24:27 
-0.6898369091473653 1:1 2:1 3:3 4:3 5:21 6:0.3333 7:2 8:2 9:2 10:0.4286 11:0.0952 12:0.2381 13:18 14:3 15:0.4386 16:0.2456 17:0.2105 18:0.2281 19:0.3158 20:0.1538 21:2.75 22:0.1613 23:0.3333 24:19 
-0.01877440217547877 1:4 2:-1 3:-1 4:0 5:22 6:0.381 7:3 8:1 9:3 10:0.1429 11:0.1905 12:0.4762 13:19 14:4 15:0.4 16:0.25 17:0.1833 18:0.2167 19:0.35 20:0.0769 21:0.73 22:0 23:0 24:20 
-0.1691866831085388 1:1 2:-1 3:-1 4:0 5:23 6:0.5 7:3 8:1 9:3 10:0.3182 11:0.3182 12:0.1818 13:20 14:3 15:0.4 16:0.25 17:0.1833 18:0.2167 19:0.35 20:0.0769 21:1.38 22:0 23:0 24:20 
-0.03554316000251934 1:1 2:-1 3:-1 4:0 5:21 6:0.35 7:3 8:1 9:3 10:0.2 11:0.2 12:0.45 13:18 14:3 15:0.3462 16:0.2692 17:0.1538 18:0.1923 19:0.3846 20:0.0909 21:0.89 22:0 23:0 24:24 
-0.1064540106506262 1:1 2:-1 3:-1 4:0 5:21 6:0.4 7:2 8:2 9:4 10:0.3 11:0.25 12:0.3 13:16 14:4 15:0.3409 16:0.2727 17:0.1591 18:0.1818 19:0.3864 20:0.1111 21:2.25 22:0 23:-1 24:28 
-0.01404095353102587 1:2 2:-1 3:-1 4:0 5:24 6:0.4348 7:2 8:3 9:4 10:0.3043 11:0.2609 12:0.2609 13:18 14:4 15:0.3542 16:0.2708 17:0.1667 18:0.1875 19:0.375 20:0.1 21:4.5 22:0 23:-1 24:26 
-0.2416431933318599 1:3 2:-1 3:-1 4:0 5:25 6:0.5 7:4 8:1 9:3 10:0.2917 11:0.3333 12:0.2083 13:22 14:3 15:0.4219 16:0.2344 17:0.1875 18:0.2344 19:0.3438 20:0.0714 21:1.25 22:0 23:0 24:18 
-0.0500735215889535 1:1 2:-1 3:-1 4:0 5:23 6:0.4783 7:1 8:3 9:3 10:0.1304 11:0.087 12:0.3913 13:18 14:1 15:0.5161 16:0.1613 17:0.3065 18:0.2097 19:0.3226 20:0.2083 21:0.88 22:0 23:0 24:18 
-0.03073737314282156 1:2 2:12 3:-1 4:0 5:20 6:0.45 7:1 8:5 9:3 10:0.15 11:0.25 12:0.4 13:11 14:1 15:0.4818 16:0.1818 17:0.3 18:0.1818 19:0.3364 20:0.451 21:0 22:-1 23:0.4848 24:1 
-0.06457721429175432 1:4 2:3 3:3 4:2 5:24 6:0.5 7:0 8:12 9:1 10:0.1667 11:0.0417 12:0.3333 13:12 14:2 15:0.5 16:0.1538 17:0.3333 18:0.1667 19:0.3462 20:0.4571 21:5 22:0.3077 23:0.3636 24:19 
-0.02927389271973829 1:4 2:3 3:3 4:2 5:24 6:0.5 7:0 8:12 9:1 10:0.25 11:0.2917 12:0.25 13:12 14:2 15:0.5 16:0.1538 17:0.3333 18:0.1667 19:0.3462 20:0.4571 21:0.2 22:0.3077 23:0.3636 24:19 
-0.01501383515291175 1:4 2:3 3:3 4:2 5:22 6:0.5455 7:0 8:11 9:1 10:0.2273 11:0.3182 12:0.2273 13:11 14:2 15:0.5 16:0.1538 17:0.3333 18:0.1667 19:0.3462 20:0.4571 21:0 22:0.3077 23:0.3846 24:19 
-0.05280760284104824 1:1 2:-1 3:1 4:4 5:32 6:0.3636 7:4 8:8 9:4 10:0.4545 11:0.2273 12:0.1818 13:19 14:4 15:0.3818 16:0.2545 17:0.2 18:0.1818 19:0.3636 20:0.2245 21:2.25 22:0.1429 23:-1 24:28 
-0.05998396859962188 1:2 2:8 3:1 4:3 5:25 6:0.3478 7:2 8:2 9:3 10:0.4348 11:0.2174 12:0.2174 13:21 14:3 15:0.4133 16:0.24 17:0.2133 18:0.2 19:0.3467 20:0.1884 21:1.25 22:0.1724 23:0.3636 24:18 
-1 1:4 2:8 3:1 4:3 5:23 6:0.4545 7:1 8:2 9:3 10:0.1364 11:0.1818 12:0.4091 13:19 14:2 15:0.4133 16:0.24 17:0.2133 18:0.2 19:0.3467 20:0.1884 21:0.9 22:0.1724 23:0.3077 24:18 
-0.02662855931077182 1:2 2:-1 3:1 4:5 5:20 6:0.45 7:2 8:8 9:2 10:0.05 11:0.15 12:0.5 13:10 14:4 15:0.381 16:0.2381 17:0.2143 18:0.1667 19:0.381 20:0.2778 21:1.4 22:0.129 23:0 24:35 
-0.117602129650947 1:4 2:8 3:1 4:3 5:21 6:0.45 7:1 8:2 9:3 10:0.1 11:0.15 12:0.45 13:17 14:4 15:0.4085 16:0.2394 17:0.2113 18:0.1972 19:0.3521 20:0.2 21:0.9 22:0.1515 23:0.3077 24:20 
-0.01655737501518076 1:3 2:-1 3:1 4:3 5:34 6:0.3333 7:3 8:8 9:4 10:0.4583 11:0.2083 12:0.2083 13:22 14:4 15:0.403 16:0.2388 17:0.209 18:0.194 19:0.3582 20:0.2131 21:0.8 22:0.1351 23:0 24:22 
-0.040106452253868 1:3 2:-1 3:1 4:4 5:30 6:0.381 7:4 8:8 9:4 10:0.4762 11:0.2381 12:0.1429 13:17 14:-1 15:0.4118 16:0.2353 17:0.2157 18:0.1961 19:0.3529 20:0.2444 21:2 22:0.1321 23:-1 24:30 
-0.1178037075448638 1:4 2:5 3:-1 4:0 5:23 6:0.4091 7:3 8:1 9:4 10:0.1818 11:0.0455 12:0.4091 13:19 14:1 15:0.419 16:0.219 17:0.1524 18:0.2667 19:0.3619 20:0.2 21:0.67 22:0 23:0.2759 24:4 
-0.2157012571991292 1:2 2:5 3:-1 4:0 5:23 6:0.4091 7:3 8:1 9:3 10:0.1818 11:0.0455 12:0.4091 13:20 14:3 15:0.4112 16:0.2243 17:0.1495 18:0.2617 19:0.3645 20:0.1961 21:1 22:0 23:0.2881 24:3 
-0.01296282708172281 1:2 2:5 3:-1 4:0 5:21 6:0.4 7:3 8:1 9:3 10:0.2 11:0.05 12:0.4 13:18 14:3 15:0.4078 16:0.2233 17:0.1456 18:0.2621 19:0.3689 20:0.2041 21:1.12 22:0 23:0.2881 24:5 
-0.08737465917589615 1:2 2:5 3:-1 4:0 5:21 6:0.35 7:4 8:1 9:2 10:0.15 11:0.05 12:0.5 13:19 14:1 15:0.4128 16:0.2202 17:0.1468 18:0.2661 19:0.367 20:0.1923 21:1.22 22:-1 23:0.2923 24:1 
-0.2511690156269391 1:1 2:-1 3:2 4:2 5:21 6:0.381 7:2 8:2 9:2 10:0.2857 11:0.1429 12:0.3333 13:18 14:4 15:0.375 16:0.25 17:0.1964 18:0.1786 19:0.375 20:0.1364 21:1.8 22:0.2308 23:0 24:16 
-1 1:4 2:3 3:1 4:2 5:21 6:0.4286 7:1 8:1 9:2 10:0.2381 11:0 12:0.3333 13:19 14:3 15:0.3485 16:0.303 17:0.1667 18:0.1818 19:0.3485 20:0.1613 21:0.78 22:0.1579 23:0.3 24:16 
-0.0135903764143449 1:4 2:-1 3:1 4:2 5:23 6:0.3043 7:2 8:3 9:3 10:0.3478 11:0.3043 12:0.3478 13:18 14:1 15:0.3387 16:0.3065 17:0.1613 18:0.1774 19:0.3548 20:0.1724 21:4.5 22:0.1304 23:0 24:18 
-0.4446169611764322 1:4 2:5 3:-1 4:0 5:22 6:0.2857 7:3 8:2 9:1 10:0.1429 11:0.0952 12:0.5714 13:20 14:1 15:0.3065 16:0.2742 17:0.1452 18:0.1613 19:0.4194 20:0.2203 21:1.14 22:0 23:0.6667 24:17 
-0.05776474257391524 1:1 2:-1 3:1 4:3 5:24 6:0.3913 7:5 8:3 9:3 10:0.4348 11:0.3043 12:0.1739 13:17 14:3 15:0.4423 16:0.3077 17:0.1538 18:0.2885 19:0.25 20:0.2609 21:1.67 22:0.1333 23:-1 24:23 
-0.1063937470247186 1:3 2:-1 3:1 4:3 5:21 6:0.45 7:5 8:3 9:3 10:0.35 11:0.35 12:0.2 13:14 14:4 15:0.46 16:0.3 17:0.16 18:0.3 19:0.24 20:0.2727 21:1.5 22:0.125 23:0 24:24 
-0.1973850646222944 1:1 2:1 3:4 4:2 5:24 6:0.3333 7:1 8:2 9:3 10:0.375 11:0.2083 12:0.2917 13:20 14:4 15:0.321 16:0.321 17:0.1358 18:0.1852 19:0.358 20:0.1053 21:1.2 22:0.2857 23:0.0667 24:17 
-0.05637344460541979 1:3 2:1 3:4 4:4 5:20 6:0.3 7:1 8:2 9:1 10:0.3 11:0.25 12:0.4 13:18 14:3 15:0.3617 16:0.3191 17:0.1702 18:0.1915 19:0.3191 20:0.0952 21:1 22:0.1935 23:0.5 24:34 
-0.4539481534175795 1:4 2:1 3:4 4:3 5:21 6:0.2857 7:1 8:2 9:2 10:0.3333 11:0.1905 12:0.381 13:18 14:1 15:0.3562 16:0.3151 17:0.1507 18:0.2055 19:0.3288 20:0.0882 21:0.4 22:0.2778 23:0.0714 24:21 
-0.02082747308050373 1:3 2:1 3:4 4:4 5:23 6:0.2174 7:1 8:2 9:1 10:0.3913 11:0.087 12:0.3913 13:21 14:4 15:0.322 16:0.339 17:0.1525 18:0.1695 19:0.339 20:0.0741 21:1 22:0.24 23:0.2 24:28 
-0.09762547593060147 1:4 2:-1 3:-1 4:0 5:24 6:0.4583 7:1 8:1 9:2 10:0.2917 11:0.2083 12:0.25 13:22 14:2 15:0.4328 16:0.2687 17:0.1791 18:0.2537 19:0.2985 20:0.0588 21:1.29 22:0 23:0 24:18 
-0.02065818303146894 1:1 2:-1 3:1 4:1 5:24 6:0.4583 7:2 8:7 9:2 10:0.25 11:0.3333 12:0.2917 13:16 14:-1 15:0.449 16:0.2653 17:0.1633 18:0.2857 19:0.2857 20:0.0303 21:0 22:0.0667 23:-1 24:27 
-0.4464214425056152 1:4 2:1 3:-1 4:0 5:24 6:0.4167 7:0 8:1 9:1 10:0.2917 11:0.1667 12:0.2917 13:23 14:3 15:0.4286 16:0.2727 17:0.1818 18:0.2468 19:0.2987 20:0.0492 21:0.9 22:0 23:0.0769 24:13 
-0.02049395277376096 1:1 2:-1 3:1 4:1 5:20 6:0.45 7:2 8:7 9:2 10:0.25 11:0.3 12:0.3 13:12 14:-1 15:0.439 16:0.2683 17:0.1463 18:0.2927 19:0.2927 20:0.04 21:0 22:0.0526 23:-1 24:31 
-0.008377159377888362 1:2 2:-1 3:-1 4:0 5:21 6:0.45 7:1 8:1 9:2 10:0.2 11:0.2 12:0.35 13:19 14:1 15:0.4576 16:0.2542 17:0.1864 18:0.2712 19:0.2881 20:0.0698 21:1 22:0 23:0 24:22 
-0.001871038902638149 1:1 2:-1 3:2 4:2 5:20 6:0.5 7:1 8:4 9:4 10:0.35 11:0.25 12:0.15 13:10 14:3 15:0.5294 16:0.2745 17:0.2157 18:0.3137 19:0.1961 20:0.3778 21:0 22:0.2308 23:0 24:21 
-0.04019964448711792 1:1 2:2 3:2 4:1 5:20 6:0.55 7:1 8:3 9:5 10:0.3 11:0.25 12:0.15 13:11 14:4 15:0.5455 16:0.2727 17:0.2182 18:0.3273 19:0.1818 20:0.3878 21:1 22:0.1818 23:0.2 24:19 
-1 1:4 2:3 3:1 4:1 5:22 6:0.5455 7:0 8:1 9:1 10:0.2727 11:0.1818 12:0.1818 13:21 14:1 15:0.4674 16:0.2609 17:0.2283 18:0.2391 19:0.2717 20:0.1364 21:0.82 22:0.2 23:0.2273 24:7 
-0.55053915570137 1:3 2:3 3:1 4:1 5:21 6:0.5714 7:0 8:1 9:1 10:0.2857 11:0.1905 12:0.1429 13:20 14:1 15:0.4674 16:0.2609 17:0.2283 18:0.2391 19:0.2717 20:0.1364 21:0.91 22:0.2 23:0.2174 24:7 
-0.04431290443330548 1:4 2:3 3:1 4:2 5:22 6:0.4545 7:1 8:1 9:2 10:0.3182 11:0.1818 12:0.2273 13:20 14:1 15:0.4062 16:0.2812 17:0.1875 18:0.2188 19:0.3125 20:0.1667 21:0.91 22:0.1053 23:0.375 24:21 
-1 1:4 2:3 3:-1 4:0 5:20 6:0.55 7:0 8:1 9:2 10:0.25 11:0.15 12:0.2 13:18 14:4 15:0.4592 16:0.2551 17:0.2245 18:0.2347 19:0.2857 20:0.1489 21:1.25 22:0 23:0.1852 24:4 
-1 1:4 2:3 3:-1 4:0 5:22 6:0.5455 7:0 8:1 9:2 10:0.2727 11:0.1364 12:0.1818 13:20 14:4 15:0.4608 16:0.2549 17:0.2255 18:0.2353 19:0.2843 20:0.1429 21:1.25 22:-1 23:0.1852 24:2 
-1 1:4 2:3 3:-1 4:0 5:24 6:0.5 7:0 8:1 9:2 10:0.2917 11:0.1667 12:0.2083 13:22 14:3 15:0.45 16:0.26 17:0.22 18:0.23 19:0.29 20:0.1458 21:1.29 22:0 23:0.2083 24:3 
-0.1224087972270901 1:1 2:-1 3:4 4:2 5:20 6:0.35 7:3 8:2 9:1 10:0.2 11:0.15 12:0.45 13:18 14:3 15:0.4667 16:0.2333 17:0.25 18:0.2167 19:0.3 20:0.0714 21:2.5 22:0.1636 23:0 24:31 
-0.05918415702315735 1:1 2:2 3:-1 4:0 5:25 6:0.375 7:2 8:4 9:2 10:0.25 11:0.2083 12:0.375 13:20 14:1 15:0.4343 16:0.2525 17:0.2121 18:0.2222 19:0.3131 20:0.1368 21:0.4 22:0 23:0.087 24:11 
-0.04067488850097396 1:4 2:-1 3:4 4:2 5:20 6:0.55 7:2 8:2 9:1 10:0.15 11:0.2 12:0.3 13:18 14:4 15:0.5227 16:0.2045 17:0.2955 18:0.2273 19:0.2727 20:0.1 21:0.9 22:0.1268 23:-1 24:39 
-0.01115503335615444 1:2 2:1 3:4 4:2 5:23 6:0.4783 7:3 8:1 9:1 10:0.2609 11:0.2609 12:0.2609 13:22 14:1 15:0.5 16:0.2222 17:0.2639 18:0.2361 19:0.2778 20:0.0588 21:1.83 22:0.2093 23:0.0909 24:25 
-1 1:4 2:2 3:1 4:1 5:23 6:0.4091 7:1 8:3 9:2 10:0.2273 11:0.2273 12:0.3636 13:19 14:3 15:0.4516 16:0.2581 17:0.2258 18:0.2258 19:0.2903 20:0.1236 21:0.5 22:0.0909 23:0.0909 24:14 
-0.7110976214730949 1:3 2:4 3:-1 4:0 5:21 6:0.381 7:0 8:2 9:2 10:0.2857 11:0.0952 12:0.3333 13:18 14:4 15:0.3864 16:0.3068 17:0.1591 18:0.2273 19:0.3068 20:0.1951 21:1.22 22:0 23:0.25 24:7 
-1 1:1 2:4 3:-1 4:0 5:24 6:0.3333 7:1 8:2 9:2 10:0.3333 11:0.25 12:0.3333 13:21 14:2 15:0.3721 16:0.314 17:0.1512 18:0.2209 19:0.314 20:0.2 21:0.6 22:0 23:0.3125 24:8 
-1 1:2 2:4 3:-1 4:0 5:23 6:0.3913 7:1 8:2 9:2 10:0.3043 11:0.087 12:0.3043 13:20 14:1 15:0.381 16:0.3095 17:0.1548 18:0.2262 19:0.3095 20:0.2051 21:1.67 22:0 23:0.3125 24:9 
-0.06218789940237755 1:3 2:4 3:-1 4:0 5:24 6:0.4167 7:1 8:2 9:2 10:0.25 11:0.1667 12:0.3333 13:21 14:3 15:0.3936 16:0.2979 17:0.1596 18:0.234 19:0.3085 20:0.1818 21:1.1 22:0 23:0.25 24:4 
-0.4142410011239861 1:2 2:4 3:-1 4:0 5:22 6:0.4545 7:1 8:2 9:2 10:0.2273 11:0.0909 12:0.3182 13:19 14:4 15:0.4 16:0.3 17:0.1625 18:0.2375 19:0.3 20:0.2162 21:2.2 22:0 23:0.3333 24:11 
-1 1:2 2:4 3:1 4:1 5:22 6:0.5 7:1 8:2 9:1 10:0.1818 11:0.0909 12:0.3182 13:20 14:4 15:0.4211 16:0.3026 17:0.1711 18:0.25 19:0.2763 20:0.2 21:2.2 22:0.1 23:0.3846 24:13 
-0.2785742559063326 1:2 2:4 3:-1 4:0 5:22 6:0.4091 7:1 8:2 9:2 10:0.2727 11:0.0909 12:0.3182 13:19 14:4 15:0.3902 16:0.3049 17:0.1585 18:0.2317 19:0.3049 20:0.2105 21:1.43 22:0 23:0.3125 24:10 
-0.9122439904592788 1:4 2:1 3:-1 4:0 5:23 6:0.3182 7:4 8:1 9:2 10:0.1818 11:0.0909 12:0.5 13:21 14:4 15:0.4105 16:0.2947 17:0.2211 18:0.1895 19:0.2947 20:0.0886 21:1 22:-1 23:0.1176 24:3 
-0.2434360685892215 1:3 2:1 3:1 4:1 5:20 6:0.55 7:1 8:1 9:2 10:0.15 11:0.35 12:0.3 13:18 14:1 15:0.4189 16:0.3108 17:0.2432 18:0.1757 19:0.2703 20:0.1034 21:0.73 22:0.0476 23:0.1111 24:14 
-1 1:4 2:1 3:-1 4:0 5:21 6:0.4762 7:4 8:1 9:2 10:0.2381 11:0.3333 12:0.2857 13:19 14:3 15:0.4157 16:0.2921 17:0.2247 18:0.191 19:0.2921 20:0.0959 21:0.89 22:0 23:0.125 24:6 
-0.5862880128711589 1:1 2:1 3:-1 4:0 5:22 6:0.5 7:3 8:1 9:3 10:0.2727 11:0.3182 12:0.2273 13:19 14:2 15:0.4138 16:0.2989 17:0.2299 18:0.1839 19:0.2874 20:0.0986 21:1.29 22:0 23:0.0714 24:7 
-0.04197868612844969 1:1 2:1 3:-1 4:0 5:23 6:0.2273 7:1 8:5 9:3 10:0.4545 11:0.1818 12:0.3182 13:16 14:2 15:0.3846 16:0.2769 17:0.2 18:0.1846 19:0.3385 20:0.1786 21:0 22:-1 23:0.2222 24:1 
-0.4328784913663873 1:4 2:2 3:-1 4:0 5:21 6:0.4286 7:3 8:2 9:2 10:0.0952 11:0.2381 12:0.4762 13:18 14:3 15:0.4154 16:0.2462 17:0.1846 18:0.2308 19:0.3385 20:0.1724 21:1.5 22:0 23:0.3333 24:15 
-0.1216684599615807 1:3 2:-1 3:2 4:1 5:20 6:0.381 7:4 8:3 9:3 10:0.0476 11:0.2381 12:0.5714 13:14 14:4 15:0.3415 16:0.2927 17:0.1463 18:0.1951 19:0.3659 20:0.1765 21:0.33 22:0.1053 23:-1 24:27 
-0.2329412674569783 1:1 2:-1 3:2 4:1 5:23 6:0.3 7:4 8:3 9:3 10:0.55 11:0.15 12:0.15 13:17 14:1 15:0.2979 16:0.3191 17:0.1277 18:0.1702 19:0.383 20:0.15 21:3 22:0.125 23:-1 24:24 
