svm_type c_svc
kernel_type rbf
gamma 0.0434783
nr_class 2
total_sv 14
rho 0.727248
label 1 0
probA -7.3264
probB -4.68093
nr_sv 2 12
SV
1 1:1 2:3 3:9 4:22 5:0.4545 6:2 7:5 8:0.3182 9:0.1818 10:0.2727 11:0.2273 12:11 13:0.2558 14:2 15:0.4444 16:63 17:0.2222 18:0.1746 19:0.2698 20:0.3333 21:0.2414 22:0.88 23:0.2941 
1 1:2 2:3 3:10 4:23 5:0.5 6:2 7:4 8:0.1818 9:0.2727 10:0.2273 11:0.3182 12:54 13:0.2444 14:3 15:0.4627 16:67 17:0.209 18:0.194 19:0.2687 20:0.3284 21:0.2581 22:2 23:0.3684 
-0.2725583206278618 1:-1 2:0 3:0 4:23 5:0.3913 6:2 7:5 8:0.1739 9:0.2174 10:0.1739 11:0.4348 12:43 13:0.3333 14:-1 15:0.413 16:46 17:0.2174 18:0.1522 19:0.2609 20:0.3696 21:0.2683 22:0.62 23:-1 
-0.2727843875175819 1:1 2:1 3:4 4:23 5:0.4762 6:2 7:5 8:0.0952 9:0.2857 10:0.1905 11:0.4286 12:49 13:0.2727 14:4 15:0.4545 16:55 17:0.2182 18:0.1818 19:0.2727 20:0.3273 21:0.24 22:0.64 23:0.25 
-0.01064102244462029 1:-1 2:0 3:0 4:23 5:0.4348 6:2 7:5 8:0.2609 9:0.087 10:0.3478 11:0.3043 12:20 13:0.3333 14:1 15:0.413 16:46 17:0.2174 18:0.1522 19:0.2609 20:0.3696 21:0.2683 22:1.6 23:-1 
-0.2100561185053286 1:2 2:4 3:20 4:21 5:0.45 6:3 7:4 8:0.15 9:0.25 10:0.2 11:0.4 12:64 13:0.3171 14:3 15:0.4699 16:83 17:0.2048 18:0.2169 19:0.253 20:0.3253 21:0.2821 22:2.33 23:0.2821 
-0.1782796001841886 1:1 2:1 3:2 4:20 5:0.4 6:2 7:4 8:0.3 9:0.1 10:0.3 11:0.3 12:20 13:0.2821 14:2 15:0.413 16:46 17:0.2174 18:0.1522 19:0.2609 20:0.3696 21:0.2683 22:1.33 23:0.5 
-0.1549223210999591 1:2 2:4 3:20 4:21 5:0.5714 6:3 7:4 8:0.2381 9:0.3333 10:0.2381 11:0.1905 12:1 13:0.3171 14:2 15:0.4699 16:83 17:0.2048 18:0.2169 19:0.253 20:0.3253 21:0.2821 22:0.43 23:0.2821 
-0.149816665956413 1:2 2:4 3:17 4:24 5:0.625 6:3 7:4 8:0.2083 9:0.2917 10:0.3333 11:0.1667 12:1 13:0.2766 14:1 15:0.4699 16:83 17:0.2048 18:0.2169 19:0.253 20:0.3253 21:0.2821 22:0.3 23:0.3333 
-0.1697404394502216 1:-1 2:0 3:0 4:22 5:0.4 6:2 7:4 8:0.3 9:0.05 10:0.35 11:0.3 12:21 13:0.3023 14:4 15:0.4091 16:44 17:0.2273 18:0.1364 19:0.2727 20:0.3636 21:0.2308 22:2 23:-1 
-0.2107953826858638 1:2 2:4 3:17 4:24 5:0.4783 6:3 7:4 8:0.1304 9:0.3043 10:0.1739 11:0.3913 12:61 13:0.2766 14:3 15:0.4699 16:83 17:0.2048 18:0.2169 19:0.253 20:0.3253 21:0.2821 22:3.33 23:0.3333 
-0.0821830963462631 1:-1 2:0 3:0 4:24 5:0.4348 6:2 7:5 8:0.2609 9:0.1304 10:0.3043 11:0.3043 12:19 13:0.3191 14:1 15:0.4375 16:48 17:0.2083 18:0.1667 19:0.2708 20:0.3542 21:0.2558 22:1.6 23:-1 
-0.08828346129568276 1:2 2:4 3:18 4:23 5:0.6087 6:3 7:4 8:0.2174 9:0.3043 10:0.3043 11:0.1739 12:1 13:0.2889 14:4 15:0.4699 16:83 17:0.2048 18:0.2169 19:0.253 20:0.3253 21:0.2821 22:0.38 23:0.3143 
-0.1999391838860154 1:-1 2:0 3:0 4:25 5:0.4348 6:2 7:5 8:0.3043 9:0.1304 10:0.3043 11:0.2609 12:18 13:0.3061 14:4 15:0.42 16:50 17:0.22 18:0.16 19:0.26 20:0.36 21:0.2444 22:1.4 23:-1 
