svm_type c_svc
kernel_type rbf
gamma 0.0416667
nr_class 2
total_sv 295
rho 0.898769
label 1 0
probA -4.17892
probB -0.800454
nr_sv 80 215
SV
1 1:4 2:2 3:1 4:2 5:23 6:0.5 7:1 8:1 9:3 10:0.4 11:0.35 12:0.1 13:20 14:3 15:0.4 16:0.2375 17:0.175 18:0.225 19:0.3625 20:0.1053 21:1.25 22:0.2 23:0.125 24:13 
1 1:4 2:4 3:2 4:1 5:24 6:0.5 7:0 8:2 9:3 10:0.4 11:0.35 12:0.1 13:20 14:2 15:0.4815 16:0.2469 17:0.2222 18:0.2593 19:0.2716 20:0.1948 21:2 22:0.4 23:0.2903 24:13 
0.750738712072022 1:4 2:2 3:-1 4:0 5:22 6:0.4286 7:0 8:2 9:3 10:0.4286 11:0.2857 12:0.1429 13:18 14:4 15:0.4578 16:0.2651 17:0.241 18:0.2169 19:0.2771 20:0.2152 21:1.12 22:0 23:0.2778 24:13 
1 1:4 2:2 3:5 4:1 5:22 6:0.4286 7:0 8:2 9:2 10:0.4286 11:0.2857 12:0.1429 13:19 14:4 15:0.4375 16:0.25 17:0.2 18:0.2375 19:0.3125 20:0.1507 21:0.64 22:0.3333 23:0.2727 24:19 
1 1:4 2:1 3:5 4:1 5:22 6:0.4286 7:0 8:1 9:2 10:0.4286 11:0.2857 12:0.1429 13:20 14:4 15:0.4375 16:0.2875 17:0.225 18:0.2125 19:0.275 20:0.0986 21:0.64 22:0.3333 23:0.2258 24:19 
1 1:4 2:3 3:4 4:1 5:24 6:0.6087 7:1 8:1 9:4 10:0.1304 11:0.2174 12:0.2609 13:20 14:1 15:0.4938 16:0.2099 17:0.2469 18:0.2469 19:0.2963 20:0.1842 21:1 22:0.25 23:0.3125 24:17 
1 1:4 2:1 3:1 4:1 5:23 6:0.6087 7:2 8:2 9:3 10:0.1304 11:0.2174 12:0.2609 13:18 14:1 15:0.4756 16:0.2561 17:0.2195 18:0.2561 19:0.2683 20:0.1842 21:1.6 22:0.0909 23:0.1333 24:14 
1 1:4 2:2 3:2 4:1 5:21 6:0.619 7:2 8:2 9:2 10:0.0952 11:0.2381 12:0.2857 13:18 14:1 15:0.6 16:0.175 17:0.3 18:0.3 19:0.225 20:0.2368 21:0.73 22:0.1667 23:0.3529 24:15 
0.7376463876666912 1:4 2:2 3:4 4:1 5:21 6:0.4762 7:0 8:1 9:2 10:0.2857 11:0.1429 12:0.2381 13:19 14:4 15:0.4471 16:0.2941 17:0.2235 18:0.2235 19:0.2588 20:0.1688 21:0.91 22:0.4286 23:0.2571 24:11 
0.01280322173949233 1:4 2:2 3:3 4:1 5:21 6:0.5714 7:0 8:2 9:3 10:0.2857 11:0.381 12:0.1429 13:16 14:4 15:0.5352 16:0.2254 17:0.2676 18:0.2676 19:0.2394 20:0.2258 21:1.6 22:0.5 23:0.2727 24:13 
0.9591330910232112 1:4 2:12 3:1 4:2 5:21 6:0.619 7:1 8:2 9:1 10:0.2857 11:0.4286 12:0.0952 13:19 14:2 15:0.5 16:0.2292 17:0.3021 18:0.1979 19:0.2708 20:0.3913 21:1 22:0.2222 23:0.64 24:13 
1 1:4 2:4 3:-1 4:0 5:23 6:0.4762 7:1 8:2 9:3 10:0.2857 11:0.2381 12:0.2381 13:19 14:2 15:0.5054 16:0.3011 17:0.2366 18:0.2688 19:0.1935 20:0.1892 21:0.78 22:0 23:0.3125 24:5 
1 1:4 2:11 3:3 4:2 5:21 6:0.4762 7:1 8:1 9:2 10:0.2857 11:0.2381 12:0.2381 13:19 14:4 15:0.4412 16:0.2647 17:0.2206 18:0.2206 19:0.2941 20:0.25 21:1.29 22:0.4118 23:0.5652 24:14 
1 1:2 2:9 3:-1 4:0 5:21 6:0.619 7:1 8:2 9:2 10:0.2381 11:0.3333 12:0.1429 13:18 14:2 15:0.4184 16:0.3061 17:0.1735 18:0.2449 19:0.2755 20:0.2258 21:0.73 22:-1 23:0.3208 24:1 
1 1:2 2:2 3:2 4:1 5:21 6:0.619 7:0 8:2 9:2 10:0.2381 11:0.3333 12:0.1429 13:18 14:4 15:0.5469 16:0.2031 17:0.25 18:0.2969 19:0.25 20:0.1333 21:0.67 22:0.1667 23:0.1111 24:15 
1 1:2 2:4 3:-1 4:0 5:21 6:0.5714 7:1 8:2 9:3 10:0.2857 11:0.2857 12:0.1429 13:17 14:3 15:0.5213 16:0.2021 17:0.2766 18:0.2447 19:0.2766 20:0.2667 21:0.89 22:-1 23:0.3469 24:4 
1 1:2 2:6 3:-1 4:0 5:21 6:0.619 7:2 8:2 9:2 10:0.2381 11:0.3333 12:0.1429 13:18 14:2 15:0.5208 16:0.2292 17:0.2396 18:0.2812 19:0.25 20:0.2644 21:0.73 22:-1 23:0.4043 24:3 
1 1:2 2:2 3:2 4:2 5:21 6:0.5714 7:1 8:3 9:2 10:0.2381 11:0.3333 12:0.1905 13:17 14:2 15:0.4659 16:0.25 17:0.1932 18:0.2727 19:0.2841 20:0.2195 21:0.67 22:0.3 23:0.2683 24:13 
0.6880883794687158 1:4 2:3 3:4 4:1 5:21 6:0.5238 7:3 8:1 9:2 10:0.2381 11:0.2381 12:0.2381 13:19 14:4 15:0.481 16:0.2911 17:0.2025 18:0.2785 19:0.2278 20:0.1507 21:0.78 22:0.2222 23:0.2258 24:14 
0.8312406945587013 1:4 2:2 3:-1 4:0 5:21 6:0.5238 7:3 8:1 9:2 10:0.2381 11:0.1905 12:0.2381 13:19 14:1 15:0.4 16:0.2941 17:0.1647 18:0.2353 19:0.3059 20:0.1392 21:1.12 22:0 23:0.1892 24:11 
1 1:4 2:2 3:1 4:1 5:21 6:0.5714 7:3 8:1 9:1 10:0.1905 11:0.2857 12:0.2381 13:20 14:3 15:0.4744 16:0.2051 17:0.2051 18:0.2692 19:0.3205 20:0.1351 21:0.89 22:0.25 23:0.25 24:11 
0.5446649161130371 1:4 2:7 3:2 4:1 5:23 6:0.3913 7:0 8:1 9:1 10:0.2609 11:0.2609 12:0.3478 13:22 14:3 15:0.4286 16:0.3187 17:0.1978 18:0.2308 19:0.2527 20:0.25 21:0.8 22:0.5 23:0.5 24:11 
1 1:4 2:9 3:-1 4:0 5:22 6:0.5 7:0 8:1 9:3 10:0.1364 11:0.1364 12:0.3636 13:19 14:4 15:0.4925 16:0.194 17:0.2687 18:0.2239 19:0.3134 20:0.2667 21:1.25 22:0 23:0.6667 24:13 
0.9696812768457771 1:2 2:2 3:2 4:1 5:21 6:0.5238 7:1 8:2 9:3 10:0.1905 11:0.381 12:0.2857 13:17 14:1 15:0.4595 16:0.2027 17:0.2162 18:0.2432 19:0.3378 20:0.1562 21:0.7 22:0.5 23:0.0909 24:11 
1 1:2 2:5 3:2 4:1 5:21 6:0.5238 7:1 8:3 9:2 10:0.1905 11:0.381 12:0.2857 13:17 14:1 15:0.4861 16:0.2083 17:0.25 18:0.2361 19:0.3056 20:0.303 21:0.7 22:0.5 23:0.5 24:11 
1 1:2 2:3 3:2 4:1 5:21 6:0.5238 7:1 8:2 9:3 10:0.1905 11:0.381 12:0.2857 13:17 14:1 15:0.473 16:0.2027 17:0.2432 18:0.2297 19:0.3243 20:0.2286 21:0.7 22:0.5 23:0.2857 24:11 
0.2295748415850102 1:2 2:-1 3:2 4:1 5:21 6:0.5238 7:1 8:2 9:3 10:0.1905 11:0.381 12:0.2857 13:17 14:1 15:0.4595 16:0.2162 17:0.2432 18:0.2162 19:0.3243 20:0.1538 21:0.7 22:0.5 23:0 24:11 
1 1:2 2:-1 3:2 4:1 5:21 6:0.5238 7:1 8:2 9:2 10:0.1905 11:0.381 12:0.2857 13:18 14:1 15:0.4706 16:0.1912 17:0.2206 18:0.25 19:0.3382 20:0.1071 21:0.7 22:0.5 23:0 24:11 
1 1:2 2:-1 3:3 4:2 5:21 6:0.5238 7:1 8:2 9:3 10:0.1905 11:0.381 12:0.2857 13:17 14:4 15:0.4595 16:0.2162 17:0.2432 18:0.2162 19:0.3243 20:0.1538 21:0.7 22:0.6 23:0 24:11 
1 1:4 2:12 3:1 4:1 5:20 6:0.4 7:1 8:-1 9:0 10:0.2 11:0.1 12:0.4 13:20 14:1 15:0.4643 16:0.1905 17:0.2738 18:0.1905 19:0.3452 20:0.1818 21:1.11 22:0.1111 23:0.4615 24:13 
0.6360033810536826 1:4 2:7 3:-1 4:0 5:21 6:0.5238 7:0 8:2 9:2 10:0.2857 11:0.2857 12:0.1905 13:18 14:1 15:0.519 16:0.2405 17:0.2152 18:0.3038 19:0.2405 20:0.2836 21:1.38 22:0 23:0.52 24:11 
1 1:4 2:11 3:-1 4:0 5:21 6:0.5714 7:2 8:2 9:2 10:0.2381 11:0.3333 12:0.1905 13:18 14:1 15:0.4545 16:0.2727 17:0.2121 18:0.2424 19:0.2727 20:0.3118 21:1.1 22:0 23:0.451 24:6 
1 1:1 2:6 3:2 4:1 5:21 6:0.619 7:2 8:2 9:2 10:0.0952 11:0.1905 12:0.2857 13:18 14:1 15:0.4943 16:0.2299 17:0.2299 18:0.2644 19:0.2759 20:0.2099 21:2 22:0.2222 23:0.3171 24:11 
1 1:4 2:-1 3:1 4:2 5:22 6:0.5 7:1 8:1 9:2 10:0.0909 11:0.3182 12:0.4091 13:20 14:1 15:0.4306 16:0.2222 17:0.25 18:0.1806 19:0.3472 20:0.0833 21:1 22:0.1579 23:0 24:14 
1 1:4 2:4 3:2 4:2 5:21 6:0.619 7:1 8:2 9:4 10:0.1905 11:0.381 12:0.1905 13:15 14:1 15:0.519 16:0.1899 17:0.2532 18:0.2658 19:0.2911 20:0.28 21:0.89 22:0.2941 23:0.2727 24:14 
1 1:3 2:3 3:2 4:2 5:22 6:0.619 7:1 8:2 9:4 10:0.2381 11:0.381 12:0.1429 13:17 14:3 15:0.4938 16:0.1728 17:0.2222 18:0.2716 19:0.3333 20:0.2162 21:0.73 22:0.3684 23:0.2727 24:15 
0.7488010004018563 1:3 2:5 3:2 4:2 5:21 6:0.5714 7:2 8:1 9:1 10:0.2381 11:0.3333 12:0.1905 13:20 14:2 15:0.4937 16:0.2152 17:0.2405 18:0.2532 19:0.2911 20:0.2055 21:1 22:0.2632 23:0.4194 24:15 
1 1:3 2:3 3:5 4:1 5:22 6:0.619 7:3 8:3 9:1 10:0.2381 11:0.3333 12:0.1429 13:19 14:3 15:0.519 16:0.2532 17:0.2405 18:0.2785 19:0.2278 20:0.2055 21:1.83 22:0.4737 23:0.3333 24:15 
1 1:1 2:3 3:-1 4:0 5:22 6:0.5238 7:3 8:1 9:2 10:0.3333 11:0.3333 12:0.1429 13:20 14:1 15:0.4583 16:0.2639 17:0.1806 18:0.2778 19:0.2778 20:0.1642 21:0.73 22:0 23:0.3846 24:8 
0.967795855375974 1:4 2:7 3:1 4:1 5:22 6:0.5238 7:4 8:1 9:2 10:0.1905 11:0.3333 12:0.2857 13:20 14:4 15:0.4943 16:0.2414 17:0.2414 18:0.2529 19:0.2644 20:0.1842 21:0.9 22:0.1667 23:0.3714 24:12 
1 1:4 2:6 3:-1 4:0 5:21 6:0.4762 7:1 8:2 9:2 10:0.1905 11:0.3333 12:0.3333 13:18 14:4 15:0.4423 16:0.2212 17:0.2019 18:0.2404 19:0.3365 20:0.2673 21:0.86 22:0 23:0.377 24:7 
1 1:4 2:2 3:3 4:1 5:21 6:0.5714 7:2 8:2 9:2 10:0.2381 11:0.3333 12:0.1905 13:17 14:4 15:0.5 16:0.2344 17:0.2031 18:0.2969 19:0.2656 20:0.1786 21:0.91 22:0.375 23:0.1429 24:11 
1 1:4 2:9 3:-1 4:0 5:21 6:0.4286 7:0 8:2 9:2 10:0.3333 11:0.1429 12:0.2381 13:18 14:1 15:0.5158 16:0.2421 17:0.2737 18:0.2421 19:0.2421 20:0.2527 21:1.4 22:0 23:0.3725 24:8 
1 1:4 2:-1 3:-1 4:0 5:21 6:0.4286 7:0 8:1 9:2 10:0.3333 11:0.1429 12:0.2381 13:19 14:4 15:0.5 16:0.2353 17:0.2647 18:0.2353 19:0.2647 20:0.0741 21:0.64 22:0 23:0 24:11 
1 1:4 2:1 3:-1 4:0 5:21 6:0.4286 7:0 8:3 9:2 10:0.3333 11:0.1429 12:0.2381 13:17 14:4 15:0.4853 16:0.25 17:0.2794 18:0.2059 19:0.2647 20:0.1481 21:0.27 22:0 23:0.0769 24:11 
1 1:4 2:7 3:1 4:1 5:21 6:0.4286 7:0 8:2 9:2 10:0.3333 11:0.1429 12:0.2381 13:18 14:2 15:0.5052 16:0.2474 17:0.2887 18:0.2165 19:0.2474 20:0.2889 21:1.4 22:0.25 23:0.44 24:6 
1 1:1 2:3 3:2 4:1 5:21 6:0.4762 7:1 8:4 9:2 10:0.2857 11:0.0952 12:0.2381 13:15 14:3 15:0.4722 16:0.25 17:0.2083 18:0.2639 19:0.2778 20:0.2812 21:0.4 22:0.2222 23:0.2727 24:13 
1 1:4 2:4 3:-1 4:0 5:22 6:0.5 7:0 8:1 9:3 10:0.0909 11:0 12:0.4091 13:19 14:3 15:0.4848 16:0.1919 17:0.2626 18:0.2222 19:0.3232 20:0.1868 21:0.7 22:0 23:0.25 24:8 
1 1:4 2:12 3:-1 4:0 5:22 6:0.4545 7:1 8:2 9:2 10:0.3636 11:0.0909 12:0.1818 13:19 14:1 15:0.4167 16:0.2917 17:0.2396 18:0.1771 19:0.2917 20:0.2826 21:0.5 22:0 23:0.4167 24:5 
1 1:4 2:12 3:-1 4:0 5:22 6:0.4545 7:1 8:2 9:2 10:0.1818 11:0.3182 12:0.3636 13:19 14:4 15:0.4167 16:0.2917 17:0.2396 18:0.1771 19:0.2917 20:0.2826 21:2 22:0 23:0.4167 24:5 
1 1:4 2:2 3:3 4:3 5:21 6:0.4762 7:2 8:2 9:2 10:0.1905 11:0.1429 12:0.3333 13:18 14:3 15:0.5667 16:0.1833 17:0.2833 18:0.2833 19:0.25 20:0.1481 21:2.5 22:0.3023 23:0.1667 24:25 
1 1:4 2:2 3:3 4:3 5:21 6:0.5238 7:1 8:2 9:2 10:0.2381 11:0.4286 12:0.2381 13:18 14:3 15:0.5312 16:0.2031 17:0.2656 18:0.2656 19:0.2656 20:0.1379 21:0.62 22:0.3333 23:0.125 24:23 
1 1:4 2:4 3:-1 4:0 5:21 6:0.5238 7:0 8:2 9:2 10:0.2381 11:0.1905 12:0.2381 13:18 14:2 15:0.5 16:0.2381 17:0.2619 18:0.2381 19:0.2619 20:0.25 21:1.67 22:0 23:0.3684 24:17 
1 1:2 2:4 3:-1 4:0 5:21 6:0.5714 7:0 8:2 9:2 10:0.2857 11:0.381 12:0.1429 13:18 14:3 15:0.5227 16:0.2273 17:0.2727 18:0.25 19:0.25 20:0.2381 21:0.6 22:0 23:0.3333 24:15 
1 1:4 2:1 3:2 4:3 5:22 6:0.5909 7:1 8:2 9:2 10:0.2273 11:0.3636 12:0.1818 13:19 14:1 15:0.5417 16:0.2222 17:0.2639 18:0.2778 19:0.2361 20:0.0968 21:1.8 22:0.1892 23:0.0526 24:24 
1 1:4 2:1 3:2 4:3 5:22 6:0.619 7:1 8:2 9:2 10:0.1429 11:0.2381 12:0.2381 13:19 14:4 15:0.5541 16:0.2162 17:0.2703 18:0.2838 19:0.2297 20:0.0938 21:0.6 22:0.2 23:0.0476 24:23 
1 1:3 2:2 3:2 4:2 5:21 6:0.4762 7:0 8:5 9:2 10:0.3333 11:0.381 12:0.1905 13:15 14:2 15:0.4545 16:0.25 17:0.1932 18:0.2614 19:0.2955 20:0.2162 21:1 22:0.5 23:0.2 24:11 
1 1:1 2:1 3:6 4:2 5:22 6:0.4545 7:2 8:2 9:3 10:0.1818 11:0.1818 12:0.3636 13:18 14:3 15:0.4627 16:0.2687 17:0.209 18:0.2537 19:0.2687 20:0.1379 21:1.25 22:0.3889 23:0.1765 24:26 
1 1:2 2:1 3:6 4:2 5:22 6:0.5714 7:2 8:2 9:4 10:0.1905 11:0.4762 12:0.2381 13:17 14:3 15:0.4789 16:0.2535 17:0.2113 18:0.2676 19:0.2676 20:0.1613 21:0.88 22:0.375 23:0.1429 24:24 
1 1:4 2:4 3:-1 4:0 5:26 6:0.4286 7:0 8:3 9:5 10:0.381 11:0.2381 12:0.1905 13:17 14:4 15:0.45 16:0.2875 17:0.2 18:0.25 19:0.2625 20:0.2987 21:1 22:0 23:0.3939 24:5 
1 1:4 2:4 3:-1 4:0 5:23 6:0.4545 7:0 8:3 9:5 10:0.1818 11:0.2273 12:0.3636 13:14 14:4 15:0.4634 16:0.2805 17:0.2073 18:0.2561 19:0.2561 20:0.2911 21:0.18 22:0 23:0.3171 24:4 
1 1:2 2:3 3:-1 4:0 5:22 6:0.3182 7:0 8:1 9:1 10:0.3636 11:0.0909 12:0.3182 13:21 14:2 15:0.2963 16:0.3704 17:0.1605 18:0.1358 19:0.3333 20:0.1429 21:1 22:0 23:0.2727 24:11 
1 1:2 2:3 3:1 4:2 5:22 6:0.3182 7:2 8:1 9:1 10:0.3636 11:0.0909 12:0.3182 13:21 14:3 15:0.3086 16:0.358 17:0.1605 18:0.1481 19:0.3333 20:0.1169 21:0.88 22:0.1176 23:0.2121 24:19 
1 1:4 2:3 3:1 4:2 5:21 6:0.3333 7:2 8:1 9:1 10:0.2857 11:0.2857 12:0.381 13:20 14:1 15:0.3012 16:0.3614 17:0.1566 18:0.1446 19:0.3373 20:0.1139 21:1.14 22:0.125 23:0.1892 24:18 
1 1:3 2:5 3:3 4:3 5:24 6:0.6364 7:0 8:5 9:3 10:0.2273 11:0.5455 12:0.1364 13:17 14:4 15:0.5067 16:0.28 17:0.24 18:0.2667 19:0.2133 20:0.2958 21:1 22:0.3 23:0.3846 24:22 
1 1:4 2:5 3:2 4:3 5:23 6:0.5 7:0 8:5 9:3 10:0.3182 11:0.0455 12:0.1818 13:16 14:4 15:0.4937 16:0.2911 17:0.2405 18:0.2532 19:0.2152 20:0.3067 21:1.12 22:0.2778 23:0.3548 24:20 
1 1:3 2:9 3:-1 4:0 5:21 6:0.5 7:1 8:2 9:3 10:0.3 11:0.5 12:0.2 13:17 14:4 15:0.4632 16:0.2211 17:0.2316 18:0.2316 19:0.3158 20:0.236 21:2.5 22:-1 23:0.2917 24:5 
1 1:4 2:9 3:-1 4:0 5:22 6:0.4545 7:1 8:3 9:3 10:0.2273 11:0 12:0.3182 13:17 14:1 15:0.45 16:0.23 17:0.23 18:0.22 19:0.32 20:0.2766 21:3.33 22:-1 23:0.3462 24:3 
1 1:3 2:3 3:4 4:2 5:23 6:0.4762 7:1 8:2 9:2 10:0.3333 11:0.381 12:0.1905 13:19 14:3 15:0.459 16:0.2623 17:0.2131 18:0.2459 19:0.2787 20:0.2 21:1.22 22:0.3158 23:0.4545 24:21 
1 1:4 2:3 3:4 4:2 5:23 6:0.5652 7:2 8:2 9:2 10:0.1304 11:0.1739 12:0.3043 13:19 14:4 15:0.4462 16:0.2615 17:0.2 18:0.2462 19:0.2923 20:0.1864 21:0.9 22:0.3529 23:0.3333 24:19 
1 1:3 2:5 3:-1 4:0 5:22 6:0.5714 7:2 8:1 9:2 10:0.1905 11:0.4762 12:0.2381 13:20 14:4 15:0.4578 16:0.2289 17:0.2048 18:0.253 19:0.3133 20:0.1795 21:1.43 22:0 23:0.3514 24:10 
1 1:3 2:5 3:-1 4:0 5:22 6:0.5 7:2 8:1 9:2 10:0.1818 11:0.0909 12:0.3182 13:20 14:1 15:0.4483 16:0.2299 17:0.1954 18:0.2529 19:0.3218 20:0.1707 21:0.8 22:0 23:0.3171 24:8 
1 1:3 2:2 3:-1 4:0 5:21 6:0.5238 7:1 8:-1 9:0 10:0.2381 11:0.4286 12:0.2381 13:21 14:4 15:0.4091 16:0.2818 17:0.1545 18:0.2545 19:0.3091 20:0.0947 21:1.22 22:0 23:0.2 24:3 
1 1:1 2:2 3:-1 4:0 5:21 6:0.4762 7:1 8:1 9:1 10:0.2381 11:0.0952 12:0.2857 13:20 14:1 15:0.4035 16:0.2895 17:0.1579 18:0.2456 19:0.307 20:0.1111 21:1 22:-1 23:0.1864 24:1 
1 1:4 2:4 3:-1 4:0 5:24 6:0.375 7:2 8:2 9:3 10:0.125 11:0.2083 12:0.5 13:18 14:4 15:0.3542 16:0.25 17:0.125 18:0.2292 19:0.3958 20:0.2391 21:1.6 22:0 23:0.2273 24:11 
1 1:3 2:4 3:-1 4:0 5:24 6:0.5833 7:2 8:2 9:3 10:0.25 11:0.4167 12:0.1667 13:19 14:4 15:0.36 16:0.25 17:0.13 18:0.23 19:0.39 20:0.2292 21:0.7 22:0 23:0.25 24:9 
1 1:4 2:-1 3:1 4:1 5:24 6:0.5 7:0 8:2 9:1 10:0.0417 11:0.25 12:0.4583 13:22 14:4 15:0.3205 16:0.3718 17:0.1538 18:0.1667 19:0.3077 20:0.0625 21:1 22:0.05 23:0 24:22 
1 1:3 2:-1 3:1 4:1 5:24 6:0.5 7:0 8:2 9:1 10:0.4583 11:0.2083 12:0.0417 13:22 14:4 15:0.3537 16:0.3537 17:0.1707 18:0.1829 19:0.2927 20:0.0588 21:0.91 22:0.0556 23:0 24:20 
1 1:1 2:1 3:1 4:3 5:24 6:0.375 7:2 8:1 9:1 10:0.375 11:0.2083 12:0.25 13:23 14:1 15:0.3333 16:0.3333 17:0.1594 18:0.1739 19:0.3333 20:0.0323 21:0.9 22:0.1064 23:0.125 24:26 
1 1:3 2:1 3:1 4:3 5:24 6:0.4583 7:2 8:1 9:1 10:0.2083 11:0.25 12:0.3333 13:23 14:4 15:0.3538 16:0.3231 17:0.1692 18:0.1846 19:0.3231 20:0.0345 21:1.1 22:0.098 23:0.1667 24:28 
-0.3118801107680819 1:4 2:4 3:1 4:1 5:21 6:0.5238 7:1 8:2 9:2 10:0.0476 11:0.2857 12:0.4286 13:18 14:1 15:0.4853 16:0.2206 17:0.25 18:0.2353 19:0.2941 20:0.2 21:1.57 22:0.0909 23:0.4074 24:20 
-0.01356741817091657 1:3 2:1 3:1 4:2 5:21 6:0.6 7:2 8:4 9:2 10:0.35 11:0.25 12:0.05 13:15 14:2 15:0.5088 16:0.2105 17:0.2632 18:0.2456 19:0.2807 20:0.2222 21:5 22:0.0909 23:0.2 24:26 
-0.6092631875653367 1:4 2:-1 3:1 4:4 5:23 6:0.4348 7:3 8:2 9:2 10:0.3478 11:0.2609 12:0.2174 13:20 14:4 15:0.4038 16:0.2308 17:0.1731 18:0.2308 19:0.3654 20:0.125 21:1.11 22:0.125 23:0 24:27 
-0.212431333317506 1:3 2:2 3:1 4:3 5:23 6:0.5455 7:3 8:1 9:2 10:0.4091 11:0.3636 12:0.0455 13:21 14:4 15:0.4127 16:0.2222 17:0.1746 18:0.2381 19:0.3651 20:0.1186 21:1 22:0.1351 23:0.2857 24:21 
-0.2117618277899648 1:1 2:3 3:-1 4:0 5:23 6:0.4545 7:2 8:1 9:2 10:0.4545 11:0.4091 12:0.0909 13:21 14:1 15:0.4949 16:0.2121 17:0.2323 18:0.2626 19:0.2929 20:0.1579 21:0.8 22:-1 23:0.2549 24:2 
-0.3623643326142351 1:3 2:3 3:-1 4:0 5:23 6:0.4545 7:2 8:1 9:2 10:0.4091 11:0.4091 12:0.1364 13:21 14:2 15:0.5052 16:0.2062 17:0.2371 18:0.268 19:0.2887 20:0.1613 21:0.8 22:0 23:0.2653 24:6 
-0.101329693400839 1:4 2:2 3:-1 4:0 5:27 6:0.3333 7:0 8:6 9:3 10:0.2917 11:0.25 12:0.375 13:18 14:4 15:0.4476 16:0.2476 17:0.2286 18:0.219 19:0.3048 20:0.2673 21:0 22:-1 23:0.24 24:1 
-0.1365794843575745 1:4 2:2 3:-1 4:0 5:28 6:0.4545 7:0 8:6 9:3 10:0.2273 11:0.1364 12:0.3182 13:16 14:3 15:0.4545 16:0.2323 17:0.202 18:0.2525 19:0.3131 20:0.2174 21:5 22:-1 23:0.1837 24:5 
-0.01620265929573713 1:3 2:1 3:6 4:2 5:21 6:0.5 7:1 8:2 9:3 10:0.3 11:0.35 12:0.2 13:17 14:4 15:0.48 16:0.2 17:0.22 18:0.26 19:0.32 20:0.1628 21:1.38 22:0.2 23:0.5 24:35 
-0.02835759034199366 1:4 2:-1 3:6 4:2 5:21 6:0.4762 7:1 8:2 9:4 10:0.0952 11:0.1429 12:0.4286 13:16 14:1 15:0.4783 16:0.1957 17:0.2174 18:0.2609 19:0.3261 20:0.1795 21:0.73 22:0.1837 23:-1 24:37 
-0.8643135429600129 1:1 2:2 3:6 4:1 5:23 6:0.381 7:1 8:2 9:3 10:0.4762 11:0.2857 12:0.1429 13:19 14:2 15:0.4328 16:0.2537 17:0.194 18:0.2388 19:0.3134 20:0.1667 21:1 22:0.2143 23:0.3333 24:26 
-0.08103910463056721 1:1 2:2 3:6 4:1 5:20 6:0.45 7:1 8:2 9:3 10:0.15 11:0.15 12:0.4 13:16 14:3 15:0.4426 16:0.2459 17:0.1967 18:0.2459 19:0.3115 20:0.1852 21:1.75 22:0.1765 23:0.3333 24:29 
-0.0278497848228962 1:1 2:2 3:6 4:1 5:23 6:0.4286 7:1 8:2 9:3 10:0.4286 11:0.3333 12:0.1429 13:19 14:4 15:0.4462 16:0.2462 17:0.2 18:0.2462 19:0.3077 20:0.1724 21:0.7 22:0.2 23:0.375 24:27 
-0.1587855323021116 1:1 2:1 3:6 4:1 5:25 6:0.3913 7:1 8:1 9:3 10:0.4783 11:0.3043 12:0.1304 13:22 14:4 15:0.4328 16:0.2985 17:0.2239 18:0.209 19:0.2687 20:0.1034 21:1 22:0.2143 23:0.3333 24:26 
-0.132808644471224 1:2 2:1 3:6 4:1 5:21 6:0.4286 7:1 8:1 9:3 10:0.0476 11:0.0952 12:0.5238 13:18 14:1 15:0.4462 16:0.2923 17:0.2308 18:0.2154 19:0.2615 20:0.1071 21:0.71 22:0.2 23:0.2222 24:27 
-0.6239025364856502 1:3 2:1 3:-1 4:0 5:21 6:0.45 7:0 8:6 9:2 10:0.3 11:0.35 12:0.25 13:14 14:1 15:0.4516 16:0.2688 17:0.2258 18:0.2258 19:0.2796 20:0.1429 21:1.11 22:0 23:0.1373 24:10 
-0.05699184566974776 1:4 2:1 3:-1 4:0 5:29 6:0.3478 7:0 8:6 9:3 10:0.1739 11:0.0435 12:0.4783 13:19 14:3 15:0.449 16:0.2653 17:0.2245 18:0.2245 19:0.2857 20:0.1685 21:3 22:-1 23:0.1628 24:6 
-0.01247258369761834 1:4 2:1 3:4 4:4 5:20 6:0.5 7:0 8:3 9:3 10:0.1 11:0.2 12:0.4 13:15 14:4 15:0.4681 16:0.1915 17:0.234 18:0.234 19:0.3404 20:0.2381 21:0.91 22:0.16 23:0.5 24:35 
-0.001471997942038707 1:2 2:-1 3:4 4:4 5:21 6:0.4 7:0 8:3 9:4 10:0.35 11:0.2 12:0.25 13:14 14:4 15:0.4186 16:0.2093 17:0.2093 18:0.2093 19:0.3721 20:0.2632 21:2 22:0.1481 23:-1 24:37 
-1 1:3 2:3 3:-1 4:0 5:21 6:0.65 7:2 8:2 9:3 10:0.3 11:0.3 12:0.05 13:17 14:4 15:0.6105 16:0.1579 17:0.3053 18:0.3053 19:0.2316 20:0.1818 21:0.45 22:0 23:0.2245 24:8 
-0.04854610701340295 1:2 2:3 3:-1 4:0 5:25 6:0.5217 7:0 8:10 9:3 10:0.1739 11:0.1304 12:0.3043 13:12 14:2 15:0.549 16:0.1863 17:0.2843 18:0.2647 19:0.2647 20:0.383 21:0 22:-1 23:0.2609 24:1 
-0.02337947980893256 1:1 2:-1 3:4 4:3 5:20 6:0.35 7:2 8:3 9:4 10:0.55 11:0.2 12:0.1 13:12 14:-1 15:0.3659 16:0.3659 17:0.1707 18:0.1951 19:0.2683 20:0.2727 21:0.4 22:0.1724 23:-1 24:35 
-0.9078639649035698 1:1 2:2 3:4 4:1 5:23 6:0.4348 7:1 8:2 9:3 10:0.3043 11:0.1739 12:0.2609 13:19 14:3 15:0.4156 16:0.3117 17:0.2078 18:0.2078 19:0.2727 20:0.1884 21:0.4 22:0.2727 23:0.2174 24:17 
-1 1:3 2:1 3:4 4:2 5:22 6:0.45 7:1 8:3 9:2 10:0.2 11:0.25 12:0.35 13:17 14:3 15:0.5091 16:0.2364 17:0.2545 18:0.2545 19:0.2545 20:0.1739 21:0.91 22:0.4286 23:0.3333 24:21 
-0.08232424211092497 1:2 2:12 3:-1 4:0 5:21 6:0.5238 7:2 8:3 9:4 10:0.1429 11:0.1429 12:0.3333 13:15 14:2 15:0.4915 16:0.2288 17:0.2881 18:0.2034 19:0.2797 20:0.386 21:3.5 22:-1 23:0.4595 24:1 
-0.01421310902258606 1:2 2:12 3:-1 4:0 5:23 6:0.5652 7:2 8:3 9:4 10:0.1304 11:0.1304 12:0.3043 13:16 14:2 15:0.4915 16:0.2288 17:0.2881 18:0.2034 19:0.2797 20:0.386 21:3 22:-1 23:0.4571 24:1 
-0.08207216199743897 1:4 2:5 3:2 4:3 5:23 6:0.5217 7:1 8:7 9:2 10:0.1304 11:0.1739 12:0.3478 13:14 14:1 15:0.4868 16:0.2237 17:0.2895 18:0.1974 19:0.2895 20:0.4444 21:0 22:0.2105 23:0.5385 24:23 
-0.2175594334222308 1:4 2:7 3:1 4:2 5:24 6:0.5833 7:1 8:5 9:3 10:0.125 11:0.1667 12:0.2917 13:15 14:1 15:0.5122 16:0.2195 17:0.3171 18:0.1951 19:0.2683 20:0.4615 21:0 22:0.125 23:0.6 24:20 
-0.6252579709590399 1:2 2:1 3:2 4:4 5:22 6:0.5455 7:1 8:2 9:3 10:0.0909 11:0.3182 12:0.3636 13:18 14:4 15:0.4464 16:0.2321 17:0.2143 18:0.2321 19:0.3214 20:0.1837 21:1.38 22:0.1707 23:0.5 24:25 
-0.2887329837229819 1:4 2:2 3:2 4:1 5:23 6:0.4783 7:4 8:2 9:2 10:0.1304 11:0.2609 12:0.3913 13:20 14:3 15:0.4828 16:0.2241 17:0.2069 18:0.2759 19:0.2931 20:0.1852 21:1.43 22:0.125 23:0.5 24:23 
-0.24096465733589 1:4 2:-1 3:1 4:1 5:24 6:0.4167 7:1 8:2 9:2 10:0.2083 11:0.1667 12:0.375 13:21 14:2 15:0.4769 16:0.2308 17:0.2769 18:0.2 19:0.2923 20:0.102 21:1.22 22:0.0769 23:0 24:19 
-0.1741292287264815 1:4 2:2 3:1 4:2 5:23 6:0.5217 7:2 8:4 9:2 10:0.2174 11:0.1739 12:0.2609 13:17 14:2 15:0.4795 16:0.3151 17:0.2055 18:0.274 19:0.2055 20:0.1852 21:1.2 22:0.1667 23:0.375 24:15 
-0.5678356005383136 1:2 2:2 3:1 4:1 5:24 6:0.5833 7:1 8:4 9:3 10:0.2083 11:0.2083 12:0.2083 13:17 14:2 15:0.4938 16:0.3086 17:0.2222 18:0.2716 19:0.1975 20:0.1935 21:0 22:0.125 23:0.2727 24:11 
-1 1:2 2:2 3:1 4:1 5:21 6:0.5714 7:1 8:3 9:3 10:0.1905 11:0.2381 12:0.2381 13:15 14:3 15:0.4935 16:0.3117 17:0.2208 18:0.2727 19:0.1948 20:0.2069 21:0.4 22:0.1 23:0.3043 24:13 
-1 1:4 2:2 3:1 4:2 5:24 6:0.5417 7:2 8:4 9:2 10:0.2083 11:0.2083 12:0.25 13:18 14:3 15:0.4933 16:0.3067 17:0.2133 18:0.28 19:0.2 20:0.1786 21:1.2 22:0.1818 23:0.375 24:14 
-0.9820629792622693 1:1 2:2 3:1 4:2 5:22 6:0.5909 7:1 8:4 9:2 10:0.1818 11:0.2273 12:0.2273 13:16 14:3 15:0.4933 16:0.3067 17:0.2133 18:0.28 19:0.2 20:0.1786 21:0.4 22:0.1818 23:0.3 24:14 
-0.03509387627966108 1:2 2:-1 3:3 4:2 5:24 6:0.4583 7:0 8:12 9:2 10:0.25 11:0.125 12:0.2917 13:11 14:1 15:0.42 16:0.28 17:0.22 18:0.2 19:0.3 20:0.3478 21:2.67 22:0.2 23:0 24:23 
-0.7072012734492016 1:4 2:12 3:-1 4:0 5:22 6:0.5 7:1 8:3 9:3 10:0.1 11:0.3 12:0.4 13:17 14:1 15:0.4458 16:0.241 17:0.2289 18:0.2169 19:0.3133 20:0.2911 21:1.67 22:0 23:0.4054 24:6 
-0.8725339075753875 1:4 2:12 3:-1 4:0 5:23 6:0.4762 7:1 8:3 9:3 10:0.0952 11:0.2857 12:0.4286 13:18 14:3 15:0.4353 16:0.2471 17:0.2235 18:0.2118 19:0.3176 20:0.284 21:2 22:-1 23:0.4054 24:5 
-0.04689223064370747 1:1 2:-1 3:3 4:2 5:30 6:0.4286 7:1 8:12 9:3 10:0.381 11:0.2857 12:0.1905 13:16 14:-1 15:0.4423 16:0.2692 17:0.2308 18:0.2115 19:0.2885 20:0.3333 21:0.64 22:0.2121 23:-1 24:22 
-0.1655720017406787 1:4 2:9 3:-1 4:0 5:24 6:0.5 7:3 8:2 9:3 10:0.2083 11:0.25 12:0.2917 13:19 14:1 15:0.3953 16:0.314 17:0.1512 18:0.2442 19:0.2907 20:0.2346 21:0.6 22:0 23:0.3333 24:7 
-0.2461067952286161 1:2 2:9 3:2 4:1 5:26 6:0.3333 7:3 8:2 9:3 10:0.2917 11:0.2083 12:0.375 13:22 14:4 15:0.3889 16:0.3333 17:0.1528 18:0.2361 19:0.2778 20:0.2239 21:1 22:0.1667 23:0.5789 24:14 
-1 1:4 2:9 3:-1 4:0 5:22 6:0.4545 7:3 8:2 9:3 10:0.2727 11:0.2727 12:0.2727 13:17 14:1 15:0.3846 16:0.3205 17:0.141 18:0.2436 19:0.2949 20:0.2603 21:1.2 22:0 23:0.375 24:11 
-0.05775204520495437 1:1 2:5 3:2 4:1 5:23 6:0.1905 7:3 8:4 9:4 10:0.4762 11:0.1905 12:0.3333 13:15 14:4 15:0.3036 16:0.3929 17:0.1071 18:0.1964 19:0.3036 20:0.2941 21:5 22:0.1 23:0.5385 24:22 
-0.0008845535171926374 1:4 2:-1 3:2 4:2 5:27 6:0.375 7:3 8:9 9:4 10:0.4167 11:0.3333 12:0.2083 13:14 14:4 15:0.3182 16:0.3864 17:0.0909 18:0.2273 19:0.2955 20:0.2821 21:1.33 22:0.1538 23:-1 24:28 
-0.02469155100752048 1:3 2:-1 3:2 4:3 5:21 6:0.65 7:3 8:2 9:3 10:0.2 11:0.45 12:0.15 13:17 14:-1 15:0.5476 16:0.1905 17:0.2381 18:0.3095 19:0.2619 20:0.1053 21:0.88 22:0.1739 23:-1 24:26 
-0.1806427019829608 1:2 2:4 3:-1 4:0 5:25 6:0.5455 7:1 8:3 9:4 10:0.2273 11:0.3182 12:0.2273 13:18 14:3 15:0.519 16:0.2025 17:0.2785 18:0.2405 19:0.2785 20:0.3067 21:1.8 22:0 23:0.4286 24:12 
-0.1291383197357276 1:3 2:4 3:-1 4:0 5:23 6:0.5217 7:1 8:3 9:4 10:0.1739 11:0.2174 12:0.3043 13:16 14:3 15:0.5185 16:0.1975 17:0.2716 18:0.2469 19:0.284 20:0.2987 21:3.5 22:0 23:0.3529 24:11 
-1 1:3 2:4 3:-1 4:0 5:23 6:0.4783 7:1 8:3 9:4 10:0.1739 11:0.1739 12:0.3478 13:16 14:4 15:0.519 16:0.2025 17:0.2785 18:0.2405 19:0.2785 20:0.3067 21:1.25 22:0 23:0.375 24:12 
-0.2268557211138618 1:4 2:6 3:-1 4:0 5:25 6:0.6087 7:3 8:4 9:3 10:0.0435 11:0.3478 12:0.3478 13:18 14:1 15:0.5119 16:0.2262 17:0.2262 18:0.2857 19:0.2619 20:0.28 21:0.9 22:0 23:0.3793 24:9 
-0.4418790485307695 1:2 2:4 3:-1 4:0 5:23 6:0.5909 7:1 8:2 9:4 10:0.1364 11:0.1818 12:0.2727 13:17 14:4 15:0.5204 16:0.2449 17:0.2347 18:0.2857 19:0.2347 20:0.2826 21:1.25 22:0 23:0.3191 24:4 
-0.832789971302918 1:3 2:4 3:2 4:1 5:20 6:0.5 7:3 8:1 9:2 10:0.2 11:0.2 12:0.3 13:18 14:3 15:0.4368 16:0.2759 17:0.2069 18:0.2299 19:0.2874 20:0.1905 21:1.71 22:0.4 23:0.3043 24:8 
-0.1494013787021516 1:3 2:1 3:3 4:2 5:22 6:0.4091 7:0 8:4 9:2 10:0.4091 11:0.1364 12:0.1818 13:16 14:3 15:0.4151 16:0.3019 17:0.2264 18:0.1887 19:0.283 20:0.24 21:2.2 22:0.1818 23:0.25 24:25 
-0.007677235407135923 1:3 2:5 3:-1 4:0 5:22 6:0.6818 7:5 8:2 9:2 10:0.0909 11:0.5455 12:0.2273 13:19 14:3 15:0.4316 16:0.2526 17:0.1474 18:0.2842 19:0.3158 20:0.191 21:0.5 22:-1 23:0.2444 24:2 
-0.8898606899528849 1:4 2:1 3:4 4:3 5:20 6:0.45 7:2 8:1 9:3 10:0.1 11:0.3 12:0.45 13:17 14:3 15:0.4237 16:0.2203 17:0.1695 18:0.2542 19:0.3559 20:0.1636 21:0.73 22:0.2558 23:0.2 24:25 
-1 1:4 2:2 3:4 4:2 5:21 6:0.4762 7:2 8:2 9:3 10:0.0952 11:0.3333 12:0.4286 13:17 14:3 15:0.4462 16:0.2 17:0.1692 18:0.2769 19:0.3538 20:0.2131 21:1.17 22:0.1892 23:0.2632 24:22 
-0.9934596942978534 1:1 2:2 3:3 4:1 5:21 6:0.5238 7:2 8:2 9:3 10:0.2381 11:0.2381 12:0.2381 13:17 14:1 15:0.4333 16:0.2222 17:0.1667 18:0.2667 19:0.3444 20:0.186 21:1.43 22:0.3333 23:0.2 24:9 
-0.919869390669402 1:3 2:3 3:4 4:1 5:23 6:0.5909 7:2 8:1 9:4 10:0.1818 11:0.2727 12:0.2273 13:19 14:4 15:0.5072 16:0.2899 17:0.2174 18:0.2899 19:0.2029 20:0.1746 21:0.8 22:0.1429 23:0.2632 24:23 
-0.02816336990176752 1:2 2:3 3:4 4:1 5:25 6:0.5833 7:2 8:1 9:4 10:0.2083 11:0.25 12:0.2083 13:21 14:3 15:0.493 16:0.2958 17:0.2113 18:0.2817 19:0.2113 20:0.1692 21:0.8 22:0.1538 23:0.2941 24:22 
-0.1101123366537023 1:4 2:7 3:2 4:1 5:20 6:0.35 7:0 8:3 9:2 10:0.3 11:0.3 12:0.35 13:16 14:4 15:0.4247 16:0.3288 17:0.1918 18:0.2329 19:0.2466 20:0.3143 21:0.7 22:0.1538 23:0.5152 24:20 
-0.8103931059494992 1:4 2:7 3:-1 4:0 5:23 6:0.4286 7:0 8:4 9:2 10:0.3333 11:0.1905 12:0.2381 13:17 14:2 15:0.4476 16:0.2952 17:0.2 18:0.2476 19:0.2571 20:0.3137 21:0.67 22:-1 23:0.4 24:3 
-0.2191812755857636 1:1 2:7 3:-1 4:0 5:22 6:0.45 7:0 8:3 9:2 10:0.35 11:0.2 12:0.2 13:17 14:2 15:0.4466 16:0.301 17:0.2039 18:0.2427 19:0.2524 20:0.3 21:0.67 22:-1 23:0.4 24:4 
-0.007661981548456821 1:1 2:1 3:2 4:1 5:21 6:0.2857 7:0 8:7 9:3 10:0.4286 11:0.2381 12:0.2857 13:10 14:1 15:0.4426 16:0.3279 17:0.1967 18:0.2459 19:0.2295 20:0.3793 21:0 22:0.1053 23:0.2 24:26 
-0.03284946517262832 1:4 2:1 3:2 4:2 5:21 6:0.381 7:0 8:7 9:3 10:0.2857 11:0.2381 12:0.3333 13:10 14:2 15:0.4694 16:0.3061 17:0.2041 18:0.2653 19:0.2245 20:0.4348 21:1.6 22:0.12 23:0.25 24:32 
-0.03729221650133283 1:4 2:-1 3:-1 4:0 5:31 6:0.4783 7:2 8:10 9:4 10:0.1739 11:0.3043 12:0.3478 13:16 14:1 15:0.4909 16:0.1818 17:0.2727 18:0.2182 19:0.3273 20:0.3333 21:0.29 22:0 23:-1 24:19 
-1 1:4 2:10 3:-1 4:0 5:21 6:0.619 7:1 8:1 9:2 10:0.2381 11:0.3333 12:0.1429 13:19 14:1 15:0.5063 16:0.1899 17:0.2658 18:0.2405 19:0.3038 20:0.2222 21:0.73 22:0 23:0.4375 24:7 
-1 1:3 2:10 3:-1 4:0 5:22 6:0.5 7:1 8:1 9:2 10:0.1364 11:0.1818 12:0.3636 13:20 14:3 15:0.5063 16:0.1899 17:0.2658 18:0.2405 19:0.3038 20:0.2222 21:1 22:0 23:0.4667 24:7 
-0.729388046820569 1:3 2:10 3:-1 4:0 5:21 6:0.619 7:1 8:1 9:2 10:0.2381 11:0.2857 12:0.1429 13:19 14:1 15:0.506 16:0.1928 17:0.2651 18:0.241 19:0.3012 20:0.2105 21:0.73 22:0 23:0.3889 24:5 
-0.7157354637141933 1:2 2:10 3:-1 4:0 5:20 6:0.5 7:1 8:2 9:2 10:0.25 11:0.25 12:0.25 13:17 14:4 15:0.4944 16:0.2022 17:0.2584 18:0.236 19:0.3034 20:0.2195 21:1.4 22:-1 23:0.3478 24:1 
-0.06789974136932603 1:2 2:10 3:-1 4:0 5:24 6:0.5 7:1 8:1 9:2 10:0.1667 11:0.2083 12:0.3333 13:22 14:4 15:0.5057 16:0.1954 17:0.2644 18:0.2414 19:0.2989 20:0.2 21:1.11 22:-1 23:0.4118 24:1 
-1 1:3 2:10 3:-1 4:0 5:20 6:0.5 7:1 8:1 9:2 10:0.1 11:0.2 12:0.4 13:18 14:4 15:0.5063 16:0.1899 17:0.2658 18:0.2405 19:0.3038 20:0.2222 21:1.22 22:0 23:0.4118 24:7 
-0.08891480244516368 1:3 2:10 3:-1 4:0 5:22 6:0.5 7:1 8:1 9:2 10:0.1364 11:0.2273 12:0.3636 13:20 14:4 15:0.506 16:0.1928 17:0.2651 18:0.241 19:0.3012 20:0.2105 21:1.22 22:0 23:0.4118 24:5 
-0.0606979377858814 1:2 2:6 3:-1 4:0 5:22 6:0.6 7:1 8:4 9:3 10:0.15 11:0.1 12:0.25 13:13 14:4 15:0.5233 16:0.186 17:0.2907 18:0.2326 19:0.2907 20:0.375 21:2 22:-1 23:0.3684 24:3 
-0.2031678151769551 1:4 2:1 3:-1 4:0 5:21 6:0.5714 7:0 8:2 9:5 10:0.0952 11:0.381 12:0.3333 13:14 14:4 15:0.5244 16:0.1829 17:0.2927 18:0.2317 19:0.2927 20:0.2055 21:0.4 22:-1 23:0.1429 24:3 
-0.03026523995763759 1:4 2:-1 3:3 4:4 5:23 6:0.3333 7:2 8:10 9:2 10:0.2917 11:0.1667 12:0.375 13:12 14:-1 15:0.4167 16:0.25 17:0.25 18:0.1667 19:0.3333 20:0.0769 21:0 22:0.3659 23:-1 24:25 
-0.9918040851192659 1:4 2:1 3:2 4:1 5:21 6:0.4762 7:2 8:2 9:3 10:0.1429 11:0.3333 12:0.381 13:17 14:2 15:0.4821 16:0.1786 17:0.25 18:0.2321 19:0.3393 20:0.1915 21:1.11 22:0.2 23:0.4286 24:17 
-0.006858524262482269 1:4 2:2 3:-1 4:0 5:22 6:0.5455 7:0 8:5 9:4 10:0.1364 11:0.3636 12:0.3182 13:12 14:4 15:0.5294 16:0.1765 17:0.2824 18:0.2471 19:0.2941 20:0.3158 21:3 22:-1 23:0.2222 24:2 
-0.1937281847409931 1:3 2:3 3:2 4:1 5:23 6:0.3913 7:0 8:1 9:4 10:0.4783 11:0.2609 12:0.1304 13:19 14:1 15:0.3718 16:0.2821 17:0.1923 18:0.1795 19:0.3462 20:0.2055 21:0.8 22:0.1176 23:0.3548 24:19 
-0.05527240677943473 1:4 2:-1 3:2 4:4 5:23 6:0.4 7:0 8:3 9:6 10:0.15 11:0.15 12:0.45 13:14 14:4 15:0.3721 16:0.2326 17:0.186 18:0.186 19:0.3953 20:0.2632 21:3.33 22:0.1304 23:-1 24:37 
-0.0107647223452762 1:1 2:12 3:-1 4:0 5:23 6:0.5238 7:1 8:3 9:2 10:0.2857 11:0.3333 12:0.1905 13:19 14:3 15:0.4811 16:0.1887 17:0.2925 18:0.1887 19:0.3302 20:0.2045 21:1.11 22:-1 23:0.2727 24:1 
-0.06301046977604248 1:4 2:-1 3:1 4:1 5:22 6:0.4091 7:1 8:12 9:1 10:0.0909 11:0.1364 12:0.5 13:10 14:2 15:0.4483 16:0.1724 17:0.2931 18:0.1552 19:0.3793 20:0.3 21:4.5 22:0.0455 23:0 24:26 
-0.05381754412726258 1:2 2:-1 3:1 4:1 5:32 6:0.4 7:1 8:12 9:1 10:0.4 11:0.2 12:0.2 13:20 14:2 15:0.4444 16:0.1944 17:0.2778 18:0.1667 19:0.3611 20:0.2222 21:1 22:0.0667 23:0 24:19 
-0.3540591743196275 1:4 2:12 3:-1 4:0 5:20 6:0.5 7:1 8:1 9:2 10:0.15 11:0.15 12:0.35 13:18 14:1 15:0.4757 16:0.1942 17:0.2816 18:0.1942 19:0.3301 20:0.1765 21:0.9 22:-1 23:0.2609 24:3 
-0.2454651765309395 1:2 2:12 3:-1 4:0 5:22 6:0.5 7:1 8:2 9:2 10:0.1364 11:0.1364 12:0.3636 13:19 14:1 15:0.4808 16:0.1923 17:0.2885 18:0.1923 19:0.3269 20:0.186 21:0.6 22:-1 23:0.2727 24:2 
-0.02305349843927965 1:3 2:-1 3:1 4:1 5:23 6:0.4783 7:1 8:12 9:1 10:0.087 11:0.2174 12:0.4348 13:11 14:2 15:0.4815 16:0.1481 17:0.3148 18:0.1667 19:0.3704 20:0.3333 21:1 22:0.0417 23:0 24:28 
-0.05475771724546621 1:2 2:-1 3:1 4:1 5:34 6:0.4545 7:1 8:12 9:2 10:0.3636 11:0.1364 12:0.1818 13:17 14:4 15:0.4375 16:0.1875 17:0.2812 18:0.1562 19:0.375 20:0.2609 21:0 22:0.0526 23:-1 24:23 
-0.1753523202483705 1:4 2:7 3:-1 4:0 5:22 6:0.4091 7:1 8:3 9:3 10:0.4091 11:0.2727 12:0.1818 13:16 14:4 15:0.386 16:0.2544 17:0.1842 18:0.2018 19:0.3596 20:0.3148 21:2 22:-1 23:0.3636 24:1 
-0.01141644910216588 1:3 2:-1 3:2 4:2 5:28 6:0.4167 7:1 8:7 9:4 10:0.1667 11:0.25 12:0.4167 13:14 14:4 15:0.3793 16:0.2241 17:0.1724 18:0.2069 19:0.3966 20:0.4615 21:1.6 22:0.1154 23:-1 24:30 
-1 1:3 2:7 3:-1 4:0 5:21 6:0.381 7:0 8:2 9:3 10:0.2857 11:0.1905 12:0.3333 13:16 14:1 15:0.4624 16:0.2796 17:0.1935 18:0.2688 19:0.2581 20:0.2593 21:2 22:-1 23:0.3171 24:3 
-0.347753469028982 1:2 2:4 3:2 4:2 5:20 6:0.5 7:0 8:3 9:1 10:0.3 11:0.25 12:0.2 13:17 14:3 15:0.4923 16:0.2769 17:0.2 18:0.2923 19:0.2308 20:0.2453 21:0.33 22:0.2308 23:0.5385 24:18 
-0.02107854516833 1:3 2:-1 3:2 4:2 5:31 6:0.5 7:1 8:11 9:4 10:0.2 11:0.25 12:0.3 13:14 14:1 15:0.386 16:0.3333 17:0.1754 18:0.2105 19:0.2807 20:0.451 21:1.11 22:0.125 23:-1 24:27 
-0.008193861027758775 1:4 2:3 3:2 4:2 5:20 6:0.35 7:1 8:9 9:2 10:0.4 11:0.2 12:0.25 13:10 14:4 15:0.4179 16:0.3134 17:0.194 18:0.2239 19:0.2687 20:0.377 21:0 22:0.1579 23:0.3793 24:22 
-0.1649835053737223 1:1 2:11 3:-1 4:0 5:21 6:0.55 7:2 8:2 9:3 10:0.15 11:0.2 12:0.3 13:17 14:4 15:0.4138 16:0.2989 17:0.1954 18:0.2184 19:0.2874 20:0.358 21:0.64 22:0 23:0.55 24:12 
-0.07093002450516378 1:4 2:3 3:1 4:1 5:34 6:0.5833 7:2 8:11 9:4 10:0.0833 11:0.25 12:0.3333 13:18 14:1 15:0.4074 16:0.3086 17:0.1852 18:0.2222 19:0.284 20:0.36 21:1.5 22:0.0833 23:0.2941 24:15 
-0.04110886873836436 1:3 2:3 3:1 4:1 5:24 6:0.375 7:1 8:10 9:3 10:0.4167 11:0.25 12:0.2083 13:11 14:4 15:0.411 16:0.3151 17:0.1918 18:0.2192 19:0.274 20:0.403 21:0 22:0.0625 23:0.3571 24:19 
-0.04307065626441042 1:1 2:3 3:2 4:2 5:22 6:0.3636 7:1 8:11 9:2 10:0.4091 11:0.2273 12:0.2273 13:10 14:4 15:0.4179 16:0.3134 17:0.194 18:0.2239 19:0.2687 20:0.377 21:0 22:0.1579 23:0.3333 24:22 
-0.006477479258164865 1:4 2:3 3:1 4:2 5:22 6:0.3182 7:1 8:9 9:3 10:0.4545 11:0.1818 12:0.2273 13:11 14:4 15:0.4085 16:0.3239 17:0.1972 18:0.2113 19:0.2676 20:0.3846 21:0 22:0.1176 23:0.3793 24:20 
-0.04144356846598098 1:2 2:3 3:1 4:2 5:31 6:0.619 7:1 8:11 9:4 10:0.1429 11:0.2857 12:0.2381 13:16 14:4 15:0.4085 16:0.3239 17:0.1972 18:0.2113 19:0.2676 20:0.3846 21:1 22:0.1176 23:0.3846 24:20 
-0.006372664690312881 1:4 2:3 3:2 4:2 5:24 6:0.4167 7:1 8:11 9:3 10:0.3333 11:0.25 12:0.25 13:11 14:4 15:0.4308 16:0.3077 17:0.2 18:0.2308 19:0.2615 20:0.3898 21:0.55 22:0.15 23:0.3333 24:23 
-0.2113287905079386 1:2 2:-1 3:2 4:3 5:23 6:0.4762 7:1 8:3 9:2 10:0.2857 11:0.2381 12:0.2381 13:19 14:1 15:0.4375 16:0.2708 17:0.2292 18:0.2083 19:0.2917 20:0.1364 21:1 22:0.2222 23:-1 24:23 
-1 1:4 2:2 3:2 4:2 5:23 6:0.3478 7:1 8:1 9:3 10:0.2609 11:0.2174 12:0.3913 13:20 14:2 15:0.4 16:0.3 17:0.2167 18:0.1833 19:0.3 20:0.1429 21:1.17 22:0.25 23:0.2727 24:17 
-0.2161502331253195 1:2 2:-1 3:2 4:3 5:24 6:0.4167 7:1 8:3 9:2 10:0.25 11:0.2083 12:0.3333 13:20 14:4 15:0.4423 16:0.2692 17:0.2308 18:0.2115 19:0.2885 20:0.125 21:0.64 22:0.25 23:0 24:21 
-0.06894508813670702 1:4 2:3 3:2 4:3 5:21 6:0.5714 7:2 8:3 9:2 10:0.1429 11:0.1429 12:0.2857 13:17 14:3 15:0.4203 16:0.2754 17:0.1884 18:0.2319 19:0.3043 20:0.2063 21:0.2 22:0.2222 23:0.3333 24:21 
-1 1:3 2:6 3:2 4:2 5:21 6:0.5714 7:2 8:1 9:2 10:0.2381 11:0.4762 12:0.1905 13:19 14:4 15:0.4416 16:0.2597 17:0.2078 18:0.2338 19:0.2987 20:0.2113 21:1.14 22:0.2143 23:0.3793 24:17 
-0.4967015259924499 1:4 2:3 3:2 4:3 5:23 6:0.4783 7:2 8:6 9:2 10:0.1304 11:0.1304 12:0.3913 13:16 14:3 15:0.4154 16:0.2769 17:0.1846 18:0.2308 19:0.3077 20:0.2203 21:0.2 22:0.2 23:0.2632 24:23 
-0.5436967070422806 1:3 2:6 3:-1 4:0 5:23 6:0.619 7:2 8:2 9:3 10:0.3333 11:0.5238 12:0.0476 13:18 14:2 15:0.4951 16:0.233 17:0.2233 18:0.2718 19:0.2718 20:0.2165 21:0.8 22:0 23:0.2453 24:3 
-0.7209336451132911 1:4 2:1 3:2 4:2 5:24 6:0.5417 7:1 8:2 9:3 10:0.125 11:0.2917 12:0.3333 13:19 14:3 15:0.5254 16:0.2542 17:0.2373 18:0.2881 19:0.2203 20:0.1923 21:0.7 22:0.1875 23:0.3333 24:23 
-0.8552577000567438 1:4 2:2 3:-1 4:0 5:21 6:0.4286 7:0 8:2 9:2 10:0.1905 11:0.0952 12:0.381 13:18 14:1 15:0.4945 16:0.2637 17:0.2418 18:0.2527 19:0.2418 20:0.1905 21:1.11 22:-1 23:0.2727 24:7 
-0.6334398699278949 1:4 2:1 3:2 4:2 5:23 6:0.5652 7:1 8:2 9:2 10:0.087 11:0.2609 12:0.3478 13:19 14:2 15:0.5385 16:0.2462 17:0.2462 18:0.2923 19:0.2154 20:0.1724 21:0.7 22:0.2308 23:0.2857 24:20 
-0.02902936553634437 1:4 2:2 3:-1 4:0 5:24 6:0.4091 7:0 8:6 9:4 10:0.3182 11:0.2727 12:0.2727 13:14 14:4 15:0.4851 16:0.2376 17:0.2376 18:0.2475 19:0.2772 20:0.2979 21:0 22:-1 23:0.24 24:1 
-0.04914709054240404 1:3 2:2 3:-1 4:0 5:20 6:0.5 7:2 8:1 9:1 10:0.3 11:0.35 12:0.2 13:19 14:4 15:0.5104 16:0.1979 17:0.2188 18:0.2917 19:0.2917 20:0.1398 21:1 22:0 23:0.25 24:7 
-0.7374044371923899 1:4 2:4 3:-1 4:0 5:24 6:0.4348 7:2 8:2 9:5 10:0.1304 11:0.087 12:0.4348 13:16 14:3 15:0.5155 16:0.1856 17:0.2371 18:0.2784 19:0.299 20:0.2903 21:0.5 22:-1 23:0.2766 24:4 
-0.03047780440354692 1:4 2:2 3:2 4:4 5:23 6:0.5455 7:2 8:3 9:3 10:0.1364 11:0.3182 12:0.3182 13:17 14:3 15:0.4615 16:0.1692 17:0.1846 18:0.2769 19:0.3692 20:0.2069 21:0.78 22:0.3143 23:0.25 24:23 
-0.0137133583060454 1:2 2:-1 3:2 4:4 5:29 6:0.4783 7:3 8:3 9:5 10:0.087 11:0.2609 12:0.4348 13:18 14:3 15:0.4909 16:0.1455 17:0.2 18:0.2909 19:0.3636 20:0.25 21:3 22:0.2444 23:-1 24:28 
-0.2095242514675203 1:4 2:5 3:2 4:2 5:25 6:0.5217 7:3 8:4 9:3 10:0.1739 11:0.3043 12:0.3043 13:19 14:1 15:0.4769 16:0.2154 17:0.2308 18:0.2462 19:0.3077 20:0.2542 21:1.11 22:0.1515 23:0.4545 24:22 
-1 1:3 2:5 3:-1 4:0 5:20 6:0.5 7:2 8:2 9:2 10:0.35 11:0.35 12:0.15 13:17 14:1 15:0.4667 16:0.2222 17:0.2111 18:0.2556 19:0.3111 20:0.2381 21:0.44 22:0 23:0.3333 24:9 
-0.7024930104218938 1:1 2:5 3:-1 4:0 5:23 6:0.4091 7:3 8:2 9:2 10:0.1364 11:0.2273 12:0.4545 13:20 14:3 15:0.4787 16:0.2128 17:0.2128 18:0.266 19:0.3085 20:0.2273 21:1.8 22:0 23:0.3488 24:7 
-0.02126989744217334 1:2 2:-1 3:5 4:1 5:20 6:0.5 7:0 8:3 9:3 10:0.25 11:0.3 12:0.25 13:11 14:3 15:0.5333 16:0.2889 17:0.2667 18:0.2667 19:0.1778 20:0.3846 21:2.33 22:0.1698 23:0 24:32 
-0.02612380154499152 1:3 2:3 3:5 4:1 5:21 6:0.6 7:3 8:3 9:2 10:0.2 11:0.25 12:0.2 13:15 14:4 15:0.4921 16:0.2698 17:0.2222 18:0.2698 19:0.2381 20:0.2632 21:2.67 22:0.2571 23:0.25 24:23 
-0.1072189066613203 1:1 2:2 3:-1 4:0 5:20 6:0.55 7:2 8:2 9:2 10:0.35 11:0.45 12:0.1 13:17 14:4 15:0.4737 16:0.2526 17:0.2 18:0.2737 19:0.2737 20:0.1868 21:1.25 22:-1 23:0.2308 24:1 
-0.05145994101134496 1:3 2:-1 3:1 4:1 5:31 6:0.5 7:4 8:3 9:4 10:0.2917 11:0.375 12:0.2083 13:22 14:1 15:0.4655 16:0.2414 17:0.1724 18:0.2931 19:0.2931 20:0.1698 21:1.8 22:0.0909 23:-1 24:15 
-1 1:4 2:1 3:1 4:1 5:23 6:0.3913 7:3 8:3 9:3 10:0.2174 11:0.1739 12:0.3913 13:17 14:1 15:0.4655 16:0.2414 17:0.1724 18:0.2931 19:0.2931 20:0.1698 21:0.71 22:0.0909 23:0.2308 24:15 
-0.4034517985441781 1:3 2:7 3:-1 4:0 5:22 6:0.5238 7:4 8:2 9:3 10:0.1905 11:0.2857 12:0.2857 13:18 14:2 15:0.4653 16:0.2574 17:0.2277 18:0.2376 19:0.2772 20:0.2 21:1.8 22:-1 23:0.2941 24:4 
-0.01317533263145162 1:4 2:1 3:1 4:1 5:29 6:0.4167 7:0 8:7 9:4 10:0.1667 11:0.2083 12:0.4167 13:19 14:4 15:0.4328 16:0.2985 17:0.2388 18:0.194 19:0.2687 20:0.25 21:0.78 22:0.0625 23:0.3333 24:22 
-0.005967539155725068 1:1 2:-1 3:1 4:3 5:28 6:0.375 7:0 8:7 9:3 10:0.1667 11:0.1667 12:0.4583 13:15 14:2 15:0.4038 16:0.3077 17:0.2308 18:0.1731 19:0.2885 20:0.2683 21:0 22:0.1064 23:-1 24:30 
-0.0387992043731062 1:1 2:-1 3:2 4:4 5:26 6:0.3182 7:4 8:6 9:4 10:0.2273 11:0.0909 12:0.4545 13:16 14:4 15:0.42 16:0.2 17:0.18 18:0.24 19:0.38 20:0.3191 21:0.29 22:0.2 23:-1 24:34 
-0.01583155362251774 1:3 2:-1 3:2 4:5 5:24 6:0.3333 7:4 8:5 9:4 10:0.1429 11:0.0952 12:0.5238 13:15 14:4 15:0.4348 16:0.1739 17:0.1957 18:0.2391 19:0.3913 20:0.3023 21:0 22:0.2188 23:-1 24:36 
-0.03954743648353934 1:4 2:1 3:2 4:4 5:22 6:0.5455 7:5 8:6 9:3 10:0.1364 11:0.3636 12:0.3182 13:13 14:4 15:0.4231 16:0.1923 17:0.1731 18:0.25 19:0.3846 20:0.3061 21:1.25 22:0.2069 23:0.2 24:33 
-0.04201682753792237 1:4 2:-1 3:3 4:5 5:22 6:0.5217 7:4 8:3 9:4 10:0.2174 11:0.3478 12:0.2609 13:15 14:-1 15:0.4286 16:0.1905 17:0.2143 18:0.2143 19:0.381 20:0.2308 21:3.5 22:0.2647 23:-1 24:38 
-0.1056375351450708 1:4 2:3 3:-1 4:0 5:23 6:0.6522 7:1 8:2 9:3 10:0.087 11:0.2609 12:0.2609 13:19 14:4 15:0.5663 16:0.1687 17:0.3494 18:0.2169 19:0.2651 20:0.1944 21:1.25 22:-1 23:0.3103 24:4 
-0.5574843432976306 1:3 2:1 3:2 4:2 5:22 6:0.5238 7:0 8:3 9:2 10:0.0952 11:0.2381 12:0.381 13:18 14:4 15:0.5179 16:0.1964 17:0.3393 18:0.1786 19:0.2857 20:0.1556 21:0.55 22:0.2308 23:0.5 24:18 
-1 1:3 2:9 3:2 4:1 5:21 6:0.5714 7:0 8:1 9:3 10:0.2381 11:0.2857 12:0.1905 13:18 14:4 15:0.5422 16:0.2289 17:0.2892 18:0.253 19:0.2289 20:0.2658 21:0.73 22:0.1 23:0.4054 24:15 
-0.00669951889991907 1:1 2:-1 3:2 4:2 5:29 6:0.5714 7:1 8:9 9:5 10:0.2381 11:0.1429 12:0.1905 13:15 14:4 15:0.5593 16:0.2034 17:0.3051 18:0.2542 19:0.2373 20:0.3455 21:0.88 22:0.0909 23:0 24:27 
-0.02884891295844367 1:4 2:-1 3:2 4:1 5:32 6:0.5417 7:1 8:9 9:6 10:0.25 11:0.125 12:0.2083 13:17 14:4 15:0.5385 16:0.2308 17:0.2923 18:0.2462 19:0.2308 20:0.3443 21:0.88 22:0.0526 23:0 24:24 
-0.00989310410162802 1:3 2:9 3:2 4:1 5:25 6:0.5833 7:1 8:2 9:5 10:0.1667 11:0.375 12:0.25 13:19 14:4 15:0.5211 16:0.2394 17:0.2817 18:0.2394 19:0.2394 20:0.3134 21:1.22 22:0.0625 23:0.5556 24:21 
-0.8282970035195063 1:3 2:9 3:2 4:1 5:24 6:0.5 7:0 8:1 9:4 10:0.2917 11:0.2083 12:0.2083 13:20 14:4 15:0.5422 16:0.2289 17:0.2892 18:0.253 19:0.2289 20:0.2658 21:1.38 22:0.1 23:0.4375 24:15 
-0.02270443227330245 1:2 2:-1 3:2 4:2 5:25 6:0.625 7:1 8:9 9:5 10:0.2083 11:0.3333 12:0.1667 13:11 14:2 15:0.5849 16:0.1887 17:0.3208 18:0.2642 19:0.2264 20:0.3878 21:0 22:0.08 23:0 24:30 
-0.05989280403732047 1:2 2:-1 3:2 4:2 5:30 6:0.5217 7:2 8:9 9:6 10:0.1739 11:0.1304 12:0.3043 13:15 14:-1 15:0.5849 16:0.1887 17:0.3208 18:0.2642 19:0.2264 20:0.3878 21:0.86 22:0.08 23:-1 24:30 
-0.004269260889952886 1:1 2:-1 3:2 4:2 5:30 6:0.5455 7:2 8:9 9:5 10:0.2273 11:0.1364 12:0.2273 13:16 14:3 15:0.5789 16:0.193 17:0.3158 18:0.2632 19:0.2281 20:0.3585 21:1.33 22:0.087 23:0 24:28 
-0.2769002107342452 1:4 2:-1 3:-1 4:0 5:21 6:0.619 7:2 8:1 9:2 10:0.1905 11:0.2381 12:0.1905 13:19 14:1 15:0.5 16:0.2321 17:0.2679 18:0.2321 19:0.2679 20:0.0952 21:0.91 22:0 23:-1 24:17 
-1 1:3 2:7 3:3 4:1 5:21 6:0.5238 7:0 8:4 9:2 10:0.2857 11:0.1905 12:0.1905 13:16 14:2 15:0.5301 16:0.2289 17:0.3012 18:0.2289 19:0.241 20:0.2895 21:2.2 22:0.2727 23:0.3889 24:13 
-0.04723519090022555 1:3 2:1 3:3 4:1 5:29 6:0.6667 7:1 8:7 9:5 10:0.1429 11:0.4286 12:0.1905 13:14 14:4 15:0.5397 16:0.2222 17:0.3175 18:0.2222 19:0.2381 20:0.3929 21:1.57 22:0.1429 23:0.25 24:23 
-0.02768088749585317 1:3 2:7 3:3 4:1 5:22 6:0.5238 7:1 8:4 9:4 10:0.1905 11:0.2857 12:0.2857 13:14 14:3 15:0.4928 16:0.2464 17:0.2899 18:0.2029 19:0.2609 20:0.3548 21:0.89 22:0.1667 23:0.4286 24:20 
-0.1057406125098442 1:2 2:6 3:3 4:1 5:22 6:0.5909 7:1 8:4 9:5 10:0.2727 11:0.1364 12:0.1364 13:13 14:3 15:0.5397 16:0.2222 17:0.3175 18:0.2222 19:0.2381 20:0.3929 21:0.88 22:0.1429 23:0.5 24:23 
-0.02097322037806031 1:2 2:1 3:3 4:1 5:32 6:0.625 7:1 8:7 9:5 10:0.1667 11:0.375 12:0.2083 13:17 14:1 15:0.5075 16:0.2388 17:0.2985 18:0.209 19:0.2537 20:0.3667 21:1.71 22:0.1579 23:0.3333 24:21 
-0.1218501766747895 1:2 2:-1 3:4 4:3 5:21 6:0.4286 7:1 8:3 9:2 10:0.1429 11:0.1429 12:0.4286 13:15 14:1 15:0.4091 16:0.25 17:0.1591 18:0.25 19:0.3409 20:0.1667 21:5 22:0.3478 23:-1 24:27 
-1 1:3 2:4 3:1 4:2 5:21 6:0.4762 7:0 8:2 9:2 10:0.3333 11:0.2857 12:0.1905 13:17 14:1 15:0.475 16:0.1875 17:0.25 18:0.225 19:0.3375 20:0.1944 21:2 22:0.1304 23:0.25 24:17 
-0.0233049615676536 1:3 2:2 3:2 4:2 5:27 6:0.4286 7:1 8:12 9:1 10:0.1429 11:0.2857 12:0.4286 13:15 14:2 15:0.4118 16:0.2941 17:0.2353 18:0.1765 19:0.2941 20:0.3125 21:1.1 22:0.1765 23:0.125 24:19 
-0.002923880087281327 1:2 2:2 3:2 4:2 5:26 6:0.4 7:1 8:12 9:1 10:0.15 11:0.25 12:0.45 13:14 14:2 15:0.4286 16:0.2857 17:0.2429 18:0.1857 19:0.2857 20:0.303 21:0.7 22:0.1875 23:0.1 24:18 
-0.006122890556037904 1:2 2:2 3:2 4:2 5:27 6:0.4286 7:1 8:12 9:1 10:0.1429 11:0.2857 12:0.4286 13:15 14:4 15:0.4444 16:0.2778 17:0.25 18:0.1944 19:0.2778 20:0.2941 21:0.7 22:0.2 23:0.1 24:17 
-0.04155073735279164 1:1 2:2 3:2 4:1 5:28 6:0.4545 7:0 8:12 9:2 10:0.2273 11:0.3182 12:0.3182 13:15 14:4 15:0.4375 16:0.2875 17:0.25 18:0.1875 19:0.275 20:0.2895 21:0 22:0.1818 23:0.0769 24:13 
-0.04837130833218498 1:1 2:-1 3:2 4:3 5:24 6:0.4583 7:2 8:10 9:2 10:0.2917 11:0.2083 12:0.25 13:12 14:4 15:0.4091 16:0.2955 17:0.25 18:0.1591 19:0.2955 20:0.4 21:0 22:0.1724 23:-1 24:31 
-0.01968886329905919 1:4 2:2 3:2 4:1 5:28 6:0.4545 7:0 8:12 9:2 10:0.1818 11:0.3182 12:0.3636 13:15 14:4 15:0.4487 16:0.2821 17:0.2564 18:0.1923 19:0.2692 20:0.2973 21:0.25 22:0.1667 23:0.0833 24:14 
-0.08136439633291906 1:1 2:2 3:3 4:1 5:23 6:0.4348 7:2 8:2 9:3 10:0.3478 11:0.3043 12:0.2174 13:18 14:3 15:0.5119 16:0.2024 17:0.2381 18:0.2738 19:0.2857 20:0.2051 21:3.5 22:0.2632 23:0.1875 24:13 
-1 1:3 2:2 3:3 4:2 5:23 6:0.5217 7:2 8:2 9:2 10:0.3043 11:0.3478 12:0.1739 13:20 14:2 15:0.5125 16:0.2 17:0.2375 18:0.275 19:0.2875 20:0.1622 21:2 22:0.3913 23:0.2143 24:15 
-1 1:4 2:2 3:3 4:1 5:21 6:0.4286 7:2 8:2 9:2 10:0.1429 11:0.2857 12:0.4286 13:17 14:3 15:0.5111 16:0.2 17:0.2333 18:0.2778 19:0.2889 20:0.1905 21:0.7 22:0.3846 23:0.1905 24:10 
-1 1:1 2:2 3:3 4:1 5:21 6:0.4286 7:2 8:2 9:2 10:0.1905 11:0.2857 12:0.381 13:17 14:1 15:0.5 16:0.2065 17:0.2283 18:0.2717 19:0.2935 20:0.186 21:0.9 22:0.4545 23:0.1818 24:9 
-0.0248465131396296 1:4 2:-1 3:1 4:2 5:25 6:0.5 7:0 8:4 9:6 10:0.125 11:0.1667 12:0.375 13:14 14:-1 15:0.5 16:0.2083 17:0.2708 18:0.2292 19:0.2917 20:0.3636 21:1 22:0.0741 23:-1 24:35 
-0.5144147048361805 1:1 2:4 3:-1 4:0 5:20 6:0.5 7:0 8:1 9:1 10:0.15 11:0.25 12:0.35 13:19 14:4 15:0.4902 16:0.2451 17:0.2549 18:0.2353 19:0.2647 20:0.2041 21:0.9 22:-1 23:0.3103 24:4 
-0.03935004017813014 1:2 2:2 3:1 4:1 5:20 6:0.45 7:0 8:4 9:4 10:0.4 11:0.3 12:0.15 13:11 14:1 15:0.5192 16:0.2115 17:0.2692 18:0.25 19:0.2692 20:0.375 21:1.5 22:0.04 23:0.2 24:33 
-0.008461346319651617 1:1 2:-1 3:1 4:2 5:22 6:0.4 7:0 8:4 9:5 10:0.35 11:0.3 12:0.25 13:12 14:3 15:0.5 16:0.2083 17:0.2708 18:0.2292 19:0.2917 20:0.3636 21:1 22:0.0741 23:0 24:35 
-1 1:3 2:4 3:-1 4:0 5:21 6:0.4762 7:0 8:1 9:2 10:0.381 11:0.1905 12:0.1429 13:19 14:2 15:0.4951 16:0.2427 17:0.2621 18:0.233 19:0.2621 20:0.2121 21:1.43 22:-1 23:0.3103 24:7 
-0.03383873215993299 1:1 2:-1 3:1 4:2 5:25 6:0.5 7:0 8:4 9:6 10:0.2917 11:0.2917 12:0.2083 13:14 14:-1 15:0.5 16:0.2083 17:0.2708 18:0.2292 19:0.2917 20:0.3636 21:0.75 22:0.0741 23:-1 24:35 
-0.2621910957241453 1:3 2:2 3:-1 4:0 5:23 6:0.6364 7:3 8:2 9:3 10:0 11:0.5 12:0.3636 13:19 14:4 15:0.5534 16:0.1845 17:0.2524 18:0.301 19:0.2621 20:0.1398 21:0.6 22:0 23:0.125 24:8 
-1 1:2 2:2 3:2 4:1 5:21 6:0.4762 7:2 8:1 9:2 10:0.2381 11:0.1429 12:0.2857 13:19 14:3 15:0.5393 16:0.2022 17:0.2584 18:0.2809 19:0.2584 20:0.1139 21:1.38 22:0.2 23:0.1579 24:15 
-0.02757063993593262 1:1 2:-1 3:2 4:3 5:25 6:0.5 7:2 8:3 9:4 10:0.2083 11:0.2917 12:0.2917 13:18 14:1 15:0.5385 16:0.2308 17:0.2692 18:0.2692 19:0.2308 20:0.1429 21:5 22:0.1228 23:-1 24:34 
-0.7591544313357094 1:3 2:2 3:-1 4:0 5:24 6:0.6087 7:3 8:2 9:3 10:0.0435 11:0.4783 12:0.3478 13:20 14:2 15:0.5534 16:0.1845 17:0.2524 18:0.301 19:0.2621 20:0.1398 21:0.6 22:0 23:0.1304 24:8 
-0.03690587252503053 1:4 2:-1 3:5 4:4 5:24 6:0.5217 7:2 8:6 9:4 10:0.1304 11:0.3043 12:0.3478 13:13 14:-1 15:0.4255 16:0.234 17:0.1702 18:0.2553 19:0.3404 20:0.2121 21:0 22:0.283 23:-1 24:33 
-0.1463005695804026 1:4 2:-1 3:5 4:3 5:23 6:0.5 7:1 8:2 9:4 10:0.3182 11:0.1818 12:0.1818 13:17 14:4 15:0.4648 16:0.2394 17:0.2113 18:0.2535 19:0.2958 20:0.1579 21:1.67 22:0.4483 23:0 24:21 
-0.1191151721114527 1:1 2:-1 3:5 4:3 5:21 6:0.45 7:2 8:2 9:4 10:0.35 11:0.2 12:0.2 13:15 14:4 15:0.4386 16:0.2456 17:0.193 18:0.2456 19:0.3158 20:0.2093 21:0.8 22:0.3023 23:0 24:28 
-0.02428347127028004 1:4 2:-1 3:5 4:3 5:23 6:0.619 7:2 8:2 9:4 10:0.0476 11:0.4762 12:0.3333 13:17 14:3 15:0.4576 16:0.2373 17:0.2034 18:0.2542 19:0.3051 20:0.2 21:1.25 22:0.3171 23:0 24:27 
-0.2085315735722597 1:4 2:2 3:-1 4:0 5:23 6:0.45 7:1 8:5 9:4 10:0 11:0.2 12:0.55 13:12 14:4 15:0.4563 16:0.233 17:0.1748 18:0.2816 19:0.3107 20:0.2809 21:0.2 22:-1 23:0.1837 24:2 
-0.02248644340159479 1:2 2:-1 3:6 4:4 5:23 6:0.4348 7:2 8:4 9:3 10:0.3478 11:0.2174 12:0.2174 13:17 14:-1 15:0.4565 16:0.3043 17:0.2174 18:0.2391 19:0.2391 20:0.0811 21:0 22:0.3333 23:-1 24:37 
-0.01374706549191508 1:2 2:1 3:6 4:3 5:22 6:0.5455 7:2 8:1 9:3 10:0.1818 11:0.2273 12:0.2727 13:19 14:4 15:0.4717 16:0.283 17:0.2264 18:0.2453 19:0.2453 20:0.0909 21:0.73 22:0.36 23:0.5 24:33 
-0.04549237180040962 1:4 2:1 3:1 4:1 5:21 6:0.381 7:0 8:5 9:4 10:0.0952 11:0.0476 12:0.5238 13:11 14:4 15:0.4598 16:0.2644 17:0.2184 18:0.2414 19:0.2759 20:0.2564 21:0 22:0.125 23:0.122 24:15 
-0.5693768679041811 1:2 2:3 3:1 4:1 5:24 6:0.25 7:0 8:2 9:2 10:0.4583 11:0.0417 12:0.2917 13:21 14:4 15:0.2769 16:0.3692 17:0.1538 18:0.1231 19:0.3538 20:0.1475 21:1.43 22:0.0588 23:0.2308 24:19 
-0.3103383876571967 1:4 2:3 3:1 4:1 5:20 6:0.2 7:0 8:2 9:2 10:0.5 11:0.05 12:0.3 13:17 14:3 15:0.2545 16:0.3818 17:0.1455 18:0.1091 19:0.3636 20:0.1765 21:1.11 22:0.0455 23:0.2727 24:24 
-0.05651133269368974 1:4 2:3 3:-1 4:0 5:24 6:0.2917 7:0 8:1 9:1 10:0.4167 11:0.125 12:0.2917 13:23 14:3 15:0.2626 16:0.3838 17:0.1414 18:0.1212 19:0.3535 20:0.1158 21:0.8 22:-1 23:0.1915 24:2 
-0.2861958584389155 1:4 2:3 3:-1 4:0 5:22 6:0.2727 7:0 8:1 9:1 10:0.4545 11:0.1364 12:0.2727 13:21 14:1 15:0.2626 16:0.3838 17:0.1414 18:0.1212 19:0.3535 20:0.1158 21:0.89 22:-1 23:0.1765 24:2 
-0.1939296456915685 1:1 2:-1 3:1 4:1 5:27 6:0.25 7:0 8:3 9:3 10:0.2917 11:0.1667 12:0.4583 13:21 14:2 15:0.2456 16:0.386 17:0.1404 18:0.1053 19:0.3684 20:0.1698 21:0.9 22:0.0476 23:0 24:23 
-0.1535103434050954 1:4 2:3 3:-1 4:0 5:24 6:0.3333 7:1 8:1 9:3 10:0.375 11:0.1667 12:0.2917 13:21 14:4 15:0.2793 16:0.3784 17:0.1532 18:0.1261 19:0.3423 20:0.1215 21:0.6 22:0 23:0.1186 24:4 
-0.8166450880269874 1:3 2:3 3:1 4:1 5:23 6:0.3478 7:1 8:1 9:2 10:0.3913 11:0.1739 12:0.2609 13:21 14:4 15:0.2913 16:0.3689 17:0.1553 18:0.1359 19:0.3398 20:0.1111 21:0.7 22:0.1667 23:0.1321 24:8 
-0.1402044273303111 1:2 2:2 3:1 4:3 5:24 6:0.3333 7:1 8:1 9:3 10:0.4583 11:0.0417 12:0.2083 13:21 14:1 15:0.3051 16:0.3559 17:0.1695 18:0.1356 19:0.339 20:0.1273 21:1.43 22:0.1071 23:0.25 24:30 
-0.08060433369083891 1:1 2:3 3:1 4:3 5:22 6:0.2727 7:1 8:1 9:2 10:0.4545 11:0.0455 12:0.2727 13:20 14:4 15:0.2857 16:0.3651 17:0.1587 18:0.127 19:0.3492 20:0.1186 21:1.29 22:0.1154 23:0.2 24:28 
-0.5638955228532534 1:1 2:3 3:1 4:3 5:22 6:0.3182 7:1 8:1 9:2 10:0.2273 11:0.2727 12:0.4545 13:20 14:1 15:0.3077 16:0.3538 17:0.1692 18:0.1385 19:0.3385 20:0.1148 21:0.6 22:0.12 23:0.1765 24:27 
-0.06646568920500075 1:1 2:-1 3:5 4:5 5:20 6:0.3333 7:2 8:5 9:3 10:0.3333 11:0.2381 12:0.3333 13:13 14:-1 15:0.3659 16:0.3415 17:0.1463 18:0.2195 19:0.2927 20:0.2973 21:0.67 22:0.2973 23:-1 24:40 
-0.8635055146850101 1:2 2:5 3:1 4:2 5:23 6:0.5652 7:1 8:3 9:3 10:0.3043 11:0.087 12:0.1304 13:18 14:3 15:0.5248 16:0.2673 17:0.2475 18:0.2772 19:0.2079 20:0.299 21:1.5 22:0.2857 23:0.3846 24:9 
-1 1:3 2:5 3:2 4:2 5:24 6:0.5833 7:1 8:3 9:3 10:0.2917 11:0.125 12:0.125 13:18 14:4 15:0.5361 16:0.2577 17:0.2474 18:0.2887 19:0.2062 20:0.2903 21:0.55 22:0.3333 23:0.3478 24:11 
-1 1:3 2:5 3:2 4:2 5:21 6:0.7 7:1 8:3 9:3 10:0.1 11:0.5 12:0.2 13:15 14:1 15:0.5055 16:0.2747 17:0.2308 18:0.2747 19:0.2198 20:0.3103 21:1.67 22:0.25 23:0.3478 24:14 
-0.003348165545297601 1:4 2:2 3:-1 4:0 5:31 6:0.5217 7:2 8:9 9:4 10:0.1739 11:0.1739 12:0.3043 13:18 14:4 15:0.4706 16:0.2118 17:0.2353 18:0.2353 19:0.3176 20:0.2658 21:0.75 22:0 23:0.1538 24:11 
-0.03348550760654793 1:3 2:-1 3:1 4:3 5:31 6:0.5833 7:3 8:9 9:4 10:0.2083 11:0.4583 12:0.2083 13:17 14:-1 15:0.4464 16:0.1964 17:0.2321 18:0.2143 19:0.3571 20:0.32 21:0.71 22:0.1282 23:-1 24:26 
-0.004663892995378414 1:2 2:-1 3:2 4:3 5:30 6:0.5455 7:3 8:9 9:3 10:0.2273 11:0.4091 12:0.2273 13:17 14:3 15:0.4259 16:0.2037 17:0.2407 18:0.1852 19:0.3704 20:0.2917 21:0.56 22:0.1707 23:-1 24:27 
-0.06170736941393325 1:3 2:2 3:-1 4:0 5:32 6:0.5 7:2 8:9 9:4 10:0.2083 11:0.1667 12:0.2917 13:19 14:1 15:0.4494 16:0.2247 17:0.2247 18:0.2247 19:0.3258 20:0.253 21:0.7 22:0 23:0.1429 24:9 
-0.6360712445947772 1:3 2:7 3:-1 4:0 5:22 6:0.5238 7:1 8:2 9:4 10:0.2857 11:0.381 12:0.1905 13:16 14:3 15:0.4706 16:0.2118 17:0.2353 18:0.2353 19:0.3176 20:0.2658 21:1.6 22:0 23:0.2973 24:11 
-1 1:2 2:3 3:4 4:1 5:23 6:0.5652 7:3 8:2 9:3 10:0.087 11:0.2174 12:0.3478 13:18 14:4 15:0.443 16:0.2405 17:0.1899 18:0.2532 19:0.3165 20:0.2055 21:0.78 22:0.4 23:0.2143 24:12 
-1 1:3 2:3 3:4 4:1 5:20 6:0.55 7:3 8:2 9:2 10:0.1 11:0.25 12:0.35 13:16 14:4 15:0.443 16:0.2405 17:0.1899 18:0.2532 19:0.3165 20:0.2055 21:1.11 22:0.4 23:0.2121 24:12 
-1 1:3 2:5 3:-1 4:0 5:22 6:0.5455 7:3 8:2 9:3 10:0.1818 11:0.2273 12:0.2727 13:18 14:1 15:0.4533 16:0.2267 17:0.2 18:0.2533 19:0.32 20:0.2 21:0.4 22:0 23:0.3548 24:14 
-0.3339223474159866 1:2 2:2 3:-1 4:0 5:20 6:0.3 7:1 8:1 9:1 10:0.55 11:0.2 12:0.15 13:19 14:4 15:0.3333 16:0.3214 17:0.1071 18:0.2262 19:0.3452 20:0.1304 21:1.12 22:0 23:0.2903 24:16 
-1 1:3 2:2 3:-1 4:0 5:20 6:0.4 7:1 8:1 9:1 10:0.45 11:0.3 12:0.15 13:19 14:4 15:0.3667 16:0.3 17:0.1222 18:0.2444 19:0.3333 20:0.12 21:1.1 22:0 23:0.2432 24:13 
-0.8422975234716455 1:3 2:2 3:-1 4:0 5:22 6:0.3182 7:2 8:1 9:1 10:0.5455 11:0.2273 12:0.1364 13:21 14:4 15:0.3372 16:0.314 17:0.1047 18:0.2326 19:0.3488 20:0.1268 21:1.12 22:0 23:0.3103 24:15 
-1 1:4 2:2 3:-1 4:0 5:22 6:0.3636 7:1 8:1 9:1 10:0.1818 11:0.1364 12:0.4545 13:21 14:3 15:0.3723 16:0.2979 17:0.1277 18:0.2447 19:0.3298 20:0.1139 21:0.91 22:0 23:0.2432 24:11 
-0.4925273007037188 1:4 2:2 3:-1 4:0 5:24 6:0.4167 7:2 8:1 9:1 10:0.4167 11:0.3333 12:0.1667 13:23 14:4 15:0.3723 16:0.2979 17:0.1277 18:0.2447 19:0.3298 20:0.1139 21:1.38 22:0 23:0.2727 24:11 
-0.07849771524867821 1:3 2:4 3:-1 4:0 5:21 6:0.5238 7:1 8:2 9:2 10:0.2857 11:0.3333 12:0.1905 13:17 14:4 15:0.3596 16:0.2544 17:0.1404 18:0.2193 19:0.386 20:0.2364 21:2 22:-1 23:0.2647 24:2 
-0.4477202727062701 1:4 2:-1 3:1 4:1 5:24 6:0.3333 7:0 8:2 9:1 10:0.2083 11:0.1667 12:0.4583 13:22 14:1 15:0.2656 16:0.4062 17:0.125 18:0.1406 19:0.3281 20:0.08 21:1.12 22:0.037 23:0 24:29 
-0.1962859615267736 1:1 2:-1 3:1 4:1 5:23 6:0.2609 7:0 8:2 9:1 10:0.5217 11:0.1304 12:0.2174 13:21 14:4 15:0.2656 16:0.4062 17:0.125 18:0.1406 19:0.3281 20:0.08 21:0.89 22:0.037 23:0 24:29 
-0.7814454347250623 1:2 2:2 3:-1 4:0 5:21 6:0.5714 7:1 8:1 9:2 10:0.4286 11:0.2381 12:0 13:19 14:1 15:0.4 16:0.3167 17:0.1833 18:0.2167 19:0.2833 20:0.0755 21:1.43 22:-1 23:0.0625 24:1 
-0.3701366550435093 1:2 2:2 3:-1 4:0 5:21 6:0.619 7:1 8:1 9:1 10:0 11:0.381 12:0.381 13:20 14:1 15:0.4074 16:0.3148 17:0.1852 18:0.2222 19:0.2778 20:0.0638 21:0.91 22:0 23:0.0769 24:7 
-0.3621632375115827 1:4 2:1 3:1 4:3 5:24 6:0.4167 7:1 8:1 9:1 10:0.2083 11:0.2917 12:0.375 13:23 14:3 15:0.3494 16:0.3253 17:0.1687 18:0.1807 19:0.3253 20:0.0263 21:0.9 22:0.1515 23:0.0667 24:18 
-0.06637577313006755 1:2 2:-1 3:1 4:4 5:21 6:0.3182 7:2 8:3 9:1 10:0.2727 11:0.1818 12:0.4091 13:18 14:-1 15:0.3256 16:0.3256 17:0.1395 18:0.186 19:0.3488 20:0 21:0.2 22:0.0959 23:-1 24:39 
-1 1:1 2:1 3:1 4:1 5:23 6:0.3636 7:0 8:1 9:2 10:0.2727 11:0.1818 12:0.3636 13:21 14:1 15:0.3542 16:0.3333 17:0.1771 18:0.1771 19:0.3125 20:0.0562 21:0.6 22:0.1 23:0.087 24:12 
-0.9630343845975619 1:1 2:1 3:1 4:1 5:22 6:0.3636 7:0 8:1 9:2 10:0.4091 11:0.1364 12:0.2273 13:20 14:4 15:0.3542 16:0.3333 17:0.1771 18:0.1771 19:0.3125 20:0.0562 21:1.5 22:0.1 23:0.0833 24:12 
-1 1:3 2:1 3:1 4:1 5:22 6:0.3636 7:0 8:1 9:2 10:0.4091 11:0.1364 12:0.2273 13:20 14:4 15:0.34 16:0.34 17:0.17 18:0.17 19:0.32 20:0.0538 21:1.25 22:0.125 23:0.0769 24:10 
-1 1:1 2:1 3:1 4:1 5:21 6:0.4 7:0 8:1 9:2 10:0.2 11:0.2 12:0.4 13:19 14:1 15:0.3696 16:0.3261 17:0.1848 18:0.1848 19:0.3043 20:0.0588 21:0.8 22:0.0833 23:0.087 24:14 
-0.00496331866654007 1:2 2:-1 3:1 4:3 5:23 6:0.3333 7:2 8:3 9:2 10:0.25 11:0.1667 12:0.4167 13:19 14:-1 15:0.3191 16:0.3404 17:0.1489 18:0.1702 19:0.3404 20:0.05 21:0.33 22:0.0725 23:-1 24:37 
-1 1:4 2:1 3:1 4:3 5:23 6:0.3913 7:2 8:1 9:1 10:0.2174 11:0.2609 12:0.3913 13:22 14:4 15:0.3418 16:0.3291 17:0.1646 18:0.1772 19:0.3291 20:0.0278 21:0.9 22:0.1351 23:0.0714 24:21 
